9.587058424949645996e-02 -2.585353516042232513e-02 -4.268614109605550766e-03 6.805681437253952026e-02 1.386493071913719177e-02 3.589262813329696655e-02 2.199886739253997803e-02 -5.084927659481763840e-03 -3.931039944291114807e-02 -2.284282818436622620e-02 -3.282142803072929382e-02 -3.286382555961608887e-02 -5.673266574740409851e-02 -4.805806092917919159e-03 -2.372391521930694580e-02 2.251985855400562286e-02 -4.123951494693756104e-02 -1.217962615191936493e-02 2.282292116433382034e-03 2.393918298184871674e-02 5.054903402924537659e-02 -7.592059671878814697e-03 4.120245203375816345e-02 -3.109971061348915100e-02 -2.591959759593009949e-02 -2.795496955513954163e-03 -3.796054050326347351e-02 3.719180449843406677e-02 2.210013754665851593e-02 1.109966449439525604e-02 -1.189550943672657013e-02 -5.762495845556259155e-02 8.190197870135307312e-03 4.618452861905097961e-02 8.089232142083346844e-04 -4.374415427446365356e-02 7.260989863425493240e-03 -5.361440591514110565e-03 3.919858485460281372e-02 1.616095006465911865e-02 2.895986288785934448e-02 -1.252354122698307037e-02 -4.222245886921882629e-02 2.424302324652671814e-02 -5.900804419070482254e-03 -7.839484512805938721e-02 -7.368148118257522583e-02 2.885336615145206451e-02 -2.918463759124279022e-02 -1.773403584957122803e-02 -1.775473915040493011e-02 -2.442720346152782440e-02 -9.185623377561569214e-03 3.555864840745925903e-02 -8.288646931760013103e-04 4.015458002686500549e-02 2.035776153206825256e-02 -5.575398914515972137e-03 -3.372093895450234413e-03 -1.377364341169595718e-02 -1.275835908018052578e-03 1.010385714471340179e-02 -4.961100406944751740e-03 -2.129087038338184357e-02 -2.177153155207633972e-02 5.198251456022262573e-02 -7.192914374172687531e-03 -3.894366323947906494e-02 -1.495177019387483597e-02 1.715750659059267491e-05 1.915325038135051727e-02 -7.522135274484753609e-04 1.902785524725914001e-02 -3.931694664061069489e-03 -4.890862479805946350e-02 -3.070990927517414093e-02 -2.726901136338710785e-02 1.224972493946552277e-02 4.619904235005378723e-02 -2.680891938507556915e-02 6.373654119670391083e-03 -2.437337115406990051e-02 1.249734964221715927e-02 -1.384790614247322083e-02 1.415961794555187225e-02 3.392513608559966087e-03 6.507892906665802002e-02 -2.049318514764308929e-02 1.014824397861957550e-02 6.314409896731376648e-03 -3.134537115693092346e-02 -6.336686667054891586e-03 1.091224234551191330e-02 1.543704420328140259e-02 4.000989347696304321e-02 5.269500426948070526e-03 -3.308895602822303772e-02 1.865152269601821899e-02 -3.574172034859657288e-03 -1.845036447048187256e-02 -1.517126522958278656e-02 8.078245446085929871e-03 -4.544691648334264755e-03 -3.546915203332901001e-02 -5.879401229321956635e-03 -1.220109406858682632e-02 5.737730860710144043e-02 1.340904645621776581e-02 -4.154251422733068466e-03 2.909125061705708504e-03 1.780649833381175995e-02 1.127365976572036743e-01 -2.601266652345657349e-02 -1.224384829401969910e-02 -6.042459607124328613e-02 1.314593973802402616e-04 -8.557786233723163605e-03 -7.320814765989780426e-03 -1.593667082488536835e-02 -8.071929216384887695e-02 -4.684327635914087296e-03 -4.584550485014915466e-02 -4.743833467364311218e-02 -1.299954392015933990e-02 5.441779270768165588e-02 -7.689060270786285400e-02 1.002077572047710419e-02 7.922690361738204956e-02 -1.075731404125690460e-02 -1.110251434147357941e-02 1.806573383510112762e-02 8.071788586676120758e-03 -1.120888721197843552e-02 -5.167430732399225235e-03 -1.232307869940996170e-03 -3.926742821931838989e-02 -1.033644541166722775e-03 9.572566486895084381e-03 3.741817176342010498e-02 4.913270100951194763e-02 8.758328855037689209e-03 -1.155668646097183228e-01 1.056601107120513916e-02 3.257883340120315552e-02 2.140109613537788391e-02 9.684137068688869476e-03 6.277245283126831055e-02 3.825178742408752441e-02 2.519832551479339600e-02 5.709367804229259491e-03 6.248909514397382736e-03 -5.363898351788520813e-03 2.795162983238697052e-02 3.489068523049354553e-02 -7.290896493941545486e-03 -7.438473403453826904e-03 -1.491573173552751541e-03 1.964957267045974731e-02 1.483456604182720184e-02 -2.053074166178703308e-02 -1.516700722277164459e-02 -2.390334568917751312e-02 -3.585765883326530457e-02 -2.279144711792469025e-02 -1.006093248724937439e-01 -4.071290139108896255e-03 1.057089492678642273e-02 -1.604720205068588257e-02 -3.489701077342033386e-02 1.633729669265449047e-03 2.948713488876819611e-02 1.276587415486574173e-02 6.195962894707918167e-03 2.037128899246454239e-03 1.088330056518316269e-02 1.209679245948791504e-02 2.999504096806049347e-02 -6.357222329825162888e-03 7.468762341886758804e-03 -4.336205311119556427e-03 1.571801491081714630e-02 4.723543301224708557e-03 -6.377170793712139130e-03 -5.182312335819005966e-03 1.221350394189357758e-02 3.632945008575916290e-04 -1.677965559065341949e-02 1.662999275140464306e-03 5.447896569967269897e-02 2.599507011473178864e-02 8.012476377189159393e-03 -1.170112751424312592e-02 2.696215733885765076e-02 2.030575275421142578e-02 1.057081576436758041e-02 2.505267038941383362e-02 4.325853288173675537e-02 1.179236266762018204e-02 1.356316730380058289e-03 -1.144762802869081497e-02 -3.123875707387924194e-02 -1.922800578176975250e-02 3.923258744180202484e-03 2.003163972403854132e-04 -2.028254978358745575e-02 6.935717165470123291e-02 -8.049004524946212769e-02 -3.542535472661256790e-03 -1.134210173040628433e-02 6.162440404295921326e-03 1.563216000795364380e-02 -2.769481623545289040e-03 1.428847014904022217e-02 1.027648430317640305e-02 1.120387297123670578e-02 2.636306732892990112e-02 -4.152590408921241760e-02 1.445050165057182312e-02 2.494746819138526917e-03 -5.221637897193431854e-03 -1.934012584388256073e-02 1.133680064231157303e-02 -4.647875949740409851e-02 2.594612538814544678e-02 1.746348105370998383e-02 7.357077673077583313e-03 2.068481594324111938e-02 -5.736015737056732178e-02 3.139340505003929138e-02 2.244207076728343964e-03 2.259000949561595917e-02 -2.049059420824050903e-02 6.730203516781330109e-03 2.746452577412128448e-02 4.535590857267379761e-02 -3.189773857593536377e-02 5.214227829128503799e-03 3.198333457112312317e-02 -1.553663052618503571e-02 3.459946811199188232e-02 -3.350104764103889465e-02 3.403265401721000671e-02 1.001624390482902527e-03 -3.463935106992721558e-03 -1.190112810581922531e-02 -5.313125997781753540e-02 -5.253507941961288452e-02 3.295345604419708252e-02 2.145827747881412506e-02 -9.774610400199890137e-03 3.991475678049027920e-04 4.572059959173202515e-02 1.577670313417911530e-02 -2.101017860695719719e-03 1.139323599636554718e-02 2.523407712578773499e-02
6.940224021673202515e-02 -1.406854670494794846e-02 2.467828057706356049e-02 5.235752835869789124e-02 -2.039121463894844055e-02 -2.254512161016464233e-02 -9.353969246149063110e-03 -2.702493965625762939e-02 6.200171541422605515e-03 -1.674892380833625793e-02 6.966957449913024902e-02 2.436148002743721008e-02 -2.409483678638935089e-02 4.666926711797714233e-02 -1.030451897531747818e-02 3.301073610782623291e-02 5.526059493422508240e-02 7.838966697454452515e-02 4.972857236862182617e-02 -3.678062930703163147e-02 6.495501101016998291e-02 1.324126962572336197e-03 -1.420210697688162327e-03 7.306200452148914337e-03 -9.492106735706329346e-03 -2.349694818258285522e-02 4.109320230782032013e-03 3.567373007535934448e-02 2.777173649519681931e-03 -7.077977806329727173e-02 -2.276417985558509827e-02 -2.683395752683281898e-03 4.507130756974220276e-02 1.107725426554679871e-01 3.265314921736717224e-02 -1.442971918731927872e-02 3.954125195741653442e-02 -5.142682790756225586e-02 3.874359279870986938e-02 -7.928462699055671692e-03 4.068525508046150208e-02 1.249069930054247379e-03 5.477063730359077454e-02 2.873108256608247757e-03 1.360832620412111282e-02 4.965789988636970520e-02 -9.876110404729843140e-02 3.062785416841506958e-02 -1.794059202075004578e-02 1.202663499861955643e-02 -3.370483219623565674e-02 -1.533082872629165649e-02 3.025166131556034088e-02 -2.164771035313606262e-02 5.027816817164421082e-02 -2.922500669956207275e-02 -2.963208779692649841e-02 -3.248792141675949097e-02 1.132490765303373337e-02 -2.063271030783653259e-02 -2.207313477993011475e-02 -4.949221620336174965e-04 -6.302770972251892090e-02 -2.923747152090072632e-02 5.107102543115615845e-02 1.132525969296693802e-02 -3.864364698529243469e-02 -1.057798042893409729e-03 -9.731036610901355743e-03 6.229959055781364441e-02 7.964043878018856049e-03 4.293504729866981506e-02 5.314987897872924805e-02 -6.039492413401603699e-02 2.222789265215396881e-02 9.423600509762763977e-03 -7.127722725272178650e-03 3.140754252672195435e-02 -2.291968092322349548e-02 8.587747812271118164e-03 1.516895834356546402e-02 2.796043409034609795e-03 1.387104950845241547e-02 2.211491018533706665e-02 -2.926214039325714111e-02 -4.270239546895027161e-02 -1.602680236101150513e-02 2.476767636835575104e-02 -1.073768828064203262e-02 4.152120964135974646e-04 -4.567835852503776550e-02 -7.408028002828359604e-03 1.366208121180534363e-02 -1.523901615291833878e-02 4.474643617868423462e-02 -1.468171179294586182e-02 -6.890382617712020874e-02 -2.151430351659655571e-03 4.478574264794588089e-03 2.896978147327899933e-02 1.036770716309547424e-01 -9.229558520019054413e-03 -7.865323685109615326e-03 -3.318737074732780457e-02 3.460812568664550781e-02 -1.612201705574989319e-02 -3.718034178018569946e-02 -3.368928283452987671e-02 3.865998610854148865e-02 -2.323949337005615234e-02 -3.128826990723609924e-02 2.886922156903892756e-04 5.562022328376770020e-02 5.455918144434690475e-03 7.565075904130935669e-02 -1.063710637390613556e-02 -6.313300225883722305e-03 6.079158186912536621e-02 -3.085223771631717682e-02 -8.676412515342235565e-03 4.423581808805465698e-02 -3.864804515615105629e-03 -1.417609304189682007e-02 1.082989200949668884e-01 -3.627076745033264160e-02 -6.111819297075271606e-03 3.599272458814084530e-04 -1.767349988222122192e-02 4.999286308884620667e-02 5.229428410530090332e-03 1.129332184791564941e-02 -1.342141162604093552e-02 -2.692015282809734344e-02 -2.843141555786132812e-02 -3.442440181970596313e-02 -1.055605337023735046e-02 -1.625321223400533199e-03 6.910762935876846313e-02 3.145150141790509224e-03 -7.810239680111408234e-03 3.431042656302452087e-02 1.436109282076358795e-02 -2.351841703057289124e-02 -1.153174089267849922e-03 2.753140963613986969e-02 1.420298777520656586e-02 7.164017297327518463e-03 6.772869080305099487e-02 -9.041309356689453125e-02 -1.558313146233558655e-02 1.703888876363635063e-03 2.790195867419242859e-03 -1.876639388501644135e-02 -3.216055035591125488e-02 -2.154441736638545990e-02 -4.888734966516494751e-02 -7.378309499472379684e-03 -5.323158577084541321e-02 -7.853561546653509140e-04 -9.525301866233348846e-03 -9.346918202936649323e-03 -6.486159982159733772e-04 2.204483374953269958e-02 -3.283019410446286201e-03 6.884085386991500854e-02 2.064582332968711853e-02 6.692837178707122803e-02 -5.159877985715866089e-02 -3.782886266708374023e-02 6.527677178382873535e-03 8.320146054029464722e-02 5.963697284460067749e-02 2.384904213249683380e-02 -4.455944150686264038e-02 -3.406738117337226868e-02 7.199896033853292465e-03 2.770707383751869202e-02 -9.125886484980583191e-03 -4.141718521714210510e-02 2.497914433479309082e-02 1.613794011063873768e-03 -4.979177564382553101e-02 6.962868850678205490e-03 1.471524126827716827e-02 1.178453397005796432e-02 2.413897216320037842e-02 2.049580216407775879e-02 -3.558998927474021912e-02 2.145854942500591278e-02 3.042459301650524139e-02 -8.875699713826179504e-03 3.199740499258041382e-02 -3.388787060976028442e-02 5.032854527235031128e-02 -7.498185150325298309e-03 3.550327941775321960e-02 -1.365866698324680328e-02 -4.709902033209800720e-02 6.785930693149566650e-02 -4.915233328938484192e-02 -1.707363687455654144e-02 -2.197484718635678291e-03 6.779258698225021362e-02 3.591588512063026428e-02 1.035274239256978035e-03 -1.166662550531327724e-04 -1.878877356648445129e-02 6.727600097656250000e-02 -4.593768715858459473e-02 -4.168337211012840271e-02 -1.431655138731002808e-02 -7.386516313999891281e-03 2.787195704877376556e-02 -2.684973925352096558e-02 -2.113666757941246033e-02 3.646558150649070740e-02 2.772290818393230438e-02 -8.524347096681594849e-03 6.872626021504402161e-03 -1.276126969605684280e-02 2.782982029020786285e-02 -7.981927134096622467e-03 1.369940862059593201e-02 1.986461458727717400e-03 -6.673086900264024734e-03 4.923235625028610229e-02 3.677957132458686829e-02 -7.292004302144050598e-03 -7.843764033168554306e-04 -5.042690038681030273e-02 -4.126559942960739136e-04 2.967040613293647766e-02 -7.052808068692684174e-03 3.027275763452053070e-02 5.978749319911003113e-02 2.647354081273078918e-02 1.630390062928199768e-02 1.876623742282390594e-02 3.438667580485343933e-02 8.502295613288879395e-02 3.590849461033940315e-03 -1.606732606887817383e-02 -3.306344151496887207e-02 -5.434288829565048218e-02 -4.569460079073905945e-02 1.577768474817276001e-03 -7.926061004400253296e-02 6.201921030879020691e-02 6.957134604454040527e-02 -3.324462845921516418e-02 3.121991083025932312e-02 1.599193736910820007e-02 -7.706516887992620468e-03 1.764479442499577999e-03 -5.879026837646961212e-03 -2.087250910699367523e-02
2.542276307940483093e-02 8.766525425016880035e-03 -4.268829151988029480e-02 3.800994157791137695e-02 6.364563852548599243e-02 1.721153617836534977e-03 2.215260267257690430e-02 3.285705298185348511e-02 6.203718110918998718e-02 -1.901476457715034485e-02 -1.463457010686397552e-02 -2.238838787889108062e-04 4.265074804425239563e-02 7.053747773170471191e-02 5.930748954415321350e-02 -5.694064497947692871e-02 2.879885956645011902e-03 4.657169431447982788e-02 -2.808893844485282898e-02 -8.238510228693485260e-03 -3.063817741349339485e-03 -4.249002784490585327e-03 2.027504891157150269e-02 6.257524341344833374e-02 1.314432360231876373e-02 1.731724105775356293e-02 -2.303781360387802124e-02 9.711627848446369171e-03 2.913348376750946045e-02 1.162670366466045380e-02 -1.848229020833969116e-02 1.513937767595052719e-02 3.402926772832870483e-02 -4.240535944700241089e-02 2.043068595230579376e-02 -4.299253225326538086e-03 -3.714391216635704041e-02 -1.960366964340209961e-02 -4.268903285264968872e-02 2.261237427592277527e-02 4.306110553443431854e-03 -7.362644188106060028e-03 -4.508247971534729004e-02 -3.761646524071693420e-02 1.776681281626224518e-02 2.621923573315143585e-02 -2.755074575543403625e-02 1.308340299874544144e-02 1.565967500209808350e-02 -1.267930492758750916e-02 -2.388671226799488068e-02 1.737751998007297516e-02 -1.336760632693767548e-02 -3.531524166464805603e-02 -3.173523396253585815e-02 -2.574257552623748779e-02 -3.405027836561203003e-02 4.346146248281002045e-03 2.917875908315181732e-02 -4.965614899992942810e-02 1.878095604479312897e-02 -4.629423841834068298e-02 -1.450670789927244186e-02 6.224903743714094162e-03 -2.124602720141410828e-02 2.769731916487216949e-02 -1.465758029371500015e-02 4.336214438080787659e-02 4.139917902648448944e-03 -9.620437631383538246e-04 -1.944234245456755161e-03 -4.516580700874328613e-02 -1.353056519292294979e-03 6.608127057552337646e-02 8.723728358745574951e-03 3.320109099149703979e-02 -5.828090943396091461e-03 -4.754012916237115860e-03 4.533312097191810608e-02 -3.972373530268669128e-02 9.301930549554526806e-04 -1.100238296203315258e-03 -1.963802427053451538e-02 -1.132477819919586182e-02 3.268781583756208420e-03 -5.439361557364463806e-02 1.145224552601575851e-02 3.548531979322433472e-02 -3.368325531482696533e-02 -2.081813849508762360e-02 -2.931034937500953674e-02 4.234970547258853912e-03 3.997887298464775085e-02 2.201344817876815796e-02 -2.954840101301670074e-02 -1.777695305645465851e-02 1.732683181762695312e-02 1.131799630820751190e-02 1.904258690774440765e-02 -5.460327491164207458e-02 -5.951957404613494873e-02 -4.412152990698814392e-02 -2.235320396721363068e-02 -4.426956549286842346e-02 -4.280909523367881775e-02 -1.584707945585250854e-02 2.110072597861289978e-02 -1.795291341841220856e-02 2.715816721320152283e-02 2.459037676453590393e-02 -5.900931730866432190e-02 4.535719379782676697e-02 1.127896457910537720e-02 -6.278577446937561035e-02 -2.130877971649169922e-02 -3.572387248277664185e-02 -1.215115468949079514e-02 -1.092120166867971420e-02 -1.759761571884155273e-02 -7.065264973789453506e-03 -1.158298086374998093e-02 9.676899760961532593e-03 -2.450499311089515686e-02 4.009947553277015686e-02 1.061046216636896133e-02 3.303973376750946045e-02 1.615430228412151337e-02 -5.618695169687271118e-02 -2.006923593580722809e-02 1.880031079053878784e-02 -2.455155737698078156e-02 6.574774533510208130e-02 1.404326991178095341e-03 3.093246556818485260e-02 -4.570960626006126404e-02 1.459548342972993851e-02 3.494837880134582520e-02 1.004240885376930237e-01 -3.298582509160041809e-02 -3.605609014630317688e-02 5.607901513576507568e-02 -1.564005576074123383e-02 2.573913079686462879e-04 -4.864453151822090149e-02 -2.372261369600892067e-03 -2.204554900527000427e-02 -9.083650261163711548e-02 2.850442379713058472e-02 -8.513991720974445343e-03 -3.649427369236946106e-02 -8.904750458896160126e-03 -5.650680977851152420e-03 -3.078855201601982117e-02 3.923807665705680847e-02 -2.681269310414791107e-02 3.150714933872222900e-02 -8.128512650728225708e-03 -2.311854995787143707e-02 6.781460717320442200e-03 2.105850726366043091e-02 -6.498695816844701767e-03 1.508292555809020996e-02 -7.180461660027503967e-03 6.434603780508041382e-02 3.098980896174907684e-02 1.343915332108736038e-02 5.028765648603439331e-02 4.518389701843261719e-03 -3.996073082089424133e-02 -1.211492717266082764e-02 4.295320436358451843e-02 -1.327686849981546402e-02 2.636704593896865845e-02 1.595094427466392517e-02 4.272535908967256546e-03 -2.199438959360122681e-02 6.883439607918262482e-03 -1.569925248622894287e-02 8.432280272245407104e-02 -2.444581314921379089e-02 3.228090330958366394e-02 -2.473196014761924744e-02 -4.858146980404853821e-02 -2.585235424339771271e-02 -2.337864227592945099e-02 -7.944326847791671753e-03 -1.742825098335742950e-02 -1.748260459862649441e-03 -2.766221005003899336e-04 -1.109516806900501251e-02 4.159140214323997498e-02 -2.034612186253070831e-02 -4.972673207521438599e-02 -3.537725284695625305e-02 3.504970297217369080e-02 -5.538130179047584534e-02 -9.039212949573993683e-03 2.798897400498390198e-02 -1.555797457695007324e-02 -6.367800291627645493e-03 -3.564704954624176025e-02 -7.573689520359039307e-02 -2.483163774013519287e-02 9.752869606018066406e-03 2.095032483339309692e-02 2.170305233448743820e-03 2.445833571255207062e-02 -2.600291743874549866e-02 -1.205728389322757721e-02 3.960816655308008194e-03 -3.264297917485237122e-02 5.393592640757560730e-03 -5.660386383533477783e-02 -8.413817733526229858e-03 2.996979281306266785e-02 -4.102575033903121948e-02 -5.772767961025238037e-02 -1.353039639070630074e-03 -4.603518173098564148e-03 -6.131976377218961716e-03 5.648263916373252869e-02 -1.839873939752578735e-02 5.992956925183534622e-03 3.556062653660774231e-02 2.049382589757442474e-02 -1.494462601840496063e-02 -2.584447525441646576e-02 -5.986473988741636276e-03 8.808407001197338104e-03 2.730890735983848572e-02 -2.098048478364944458e-02 -1.728997158352285624e-04 4.695866256952285767e-03 -3.546221181750297546e-02 1.677587255835533142e-02 1.237754151225090027e-02 6.785656791180372238e-03 -3.940404392778873444e-03 1.471456326544284821e-02 -3.465463966131210327e-02 -1.993386447429656982e-02 3.987075760960578918e-03 8.050355827435851097e-04 -2.134607173502445221e-03 -1.967236213386058807e-02 9.615823626518249512e-03 1.318271039053797722e-03 4.965656623244285583e-02 6.721465289592742920e-02 -3.324955934658646584e-03 -3.317388147115707397e-02 5.692952871322631836e-02 2.426129765808582306e-02 -1.070808339864015579e-02 -5.312013626098632812e-02 -3.891041502356529236e-02
-2.803591452538967133e-02 -1.821336708962917328e-02 -1.121317781507968903e-02 -1.198626495897769928e-02 2.462892606854438782e-02 -3.984839655458927155e-03 -1.409906987100839615e-02 4.682450369000434875e-02 3.528993576765060425e-02 -1.610100455582141876e-02 -1.269378140568733215e-02 5.999086890369653702e-03 -2.734821662306785583e-02 1.830806396901607513e-02 -8.157251775264739990e-02 2.534081786870956421e-02 6.195039674639701843e-02 2.949095144867897034e-02 -4.493575170636177063e-02 1.837089844048023224e-02 4.881794005632400513e-02 3.162393718957901001e-02 -2.335531264543533325e-02 5.944828968495130539e-03 3.563848510384559631e-02 3.435372188687324524e-02 -9.555457159876823425e-03 2.168780378997325897e-02 -4.894495010375976562e-03 9.575385600328445435e-03 1.254229433834552765e-02 -7.026874274015426636e-02 1.776653714478015900e-02 3.468130901455879211e-02 -1.194172538816928864e-02 1.771703362464904785e-02 -6.313563883304595947e-02 4.703243263065814972e-03 6.013278290629386902e-02 -4.851202014833688736e-03 7.575386762619018555e-02 -3.889728710055351257e-02 -1.099701505154371262e-02 2.014455012977123260e-02 -1.896056928671896458e-03 -3.302359208464622498e-02 -6.354317814111709595e-02 4.142968356609344482e-02 -2.410325966775417328e-02 -3.507237508893013000e-02 -1.327667664736509323e-02 -9.073369950056076050e-02 8.109988644719123840e-03 3.106982819736003876e-02 -7.169924676418304443e-02 -1.867619156837463379e-02 -7.757406681776046753e-03 3.550516813993453979e-02 5.557987466454505920e-02 -6.449380517005920410e-02 5.284033715724945068e-03 -4.433288425207138062e-02 2.908661589026451111e-02 -4.603529348969459534e-02 7.477273792028427124e-02 -1.625848561525344849e-02 1.500574033707380295e-02 4.183277487754821777e-02 -6.541012320667505264e-03 1.031931769102811813e-02 -9.194869548082351685e-03 -6.408196408301591873e-03 6.513327360153198242e-02 -1.739419251680374146e-02 -2.919268421828746796e-02 3.970509767532348633e-02 4.852727428078651428e-02 3.418941795825958252e-02 -1.016871351748704910e-02 2.584384754300117493e-02 2.223343960940837860e-02 -1.140607427805662155e-02 -8.148930966854095459e-02 1.898433081805706024e-02 -2.237650379538536072e-02 -2.566481998655945063e-04 -3.258112072944641113e-02 3.519526869058609009e-02 -6.792903877794742584e-03 2.554713189601898193e-02 -6.695263087749481201e-03 3.600860387086868286e-02 2.550156414508819580e-02 -7.048590481281280518e-02 -2.725692279636859894e-02 4.080850258469581604e-02 -1.633353345096111298e-02 5.293084681034088135e-02 -4.986180365085601807e-02 -2.172703109681606293e-02 -2.439621835947036743e-02 -3.837867174297571182e-03 1.269026193767786026e-02 -1.931675709784030914e-02 1.698223524726927280e-03 -2.420147508382797241e-02 1.592139899730682373e-02 4.008583782706409693e-04 6.272526085376739502e-02 -3.038650937378406525e-02 -6.799014657735824585e-02 -7.037464529275894165e-03 6.280593108385801315e-03 -4.691555630415678024e-03 -3.718791296705603600e-03 9.469768963754177094e-03 1.149127725511789322e-03 4.780125990509986877e-02 -2.585382573306560516e-02 -2.831519767642021179e-02 -8.352860808372497559e-03 -2.739139087498188019e-02 2.183991111814975739e-02 -6.786713749170303345e-02 -6.610085070133209229e-02 -8.904638886451721191e-02 -5.754613131284713745e-02 -4.984186962246894836e-02 -2.875102683901786804e-03 -3.994934260845184326e-02 -2.981402724981307983e-02 -4.348344355821609497e-02 2.533817291259765625e-02 -2.464627474546432495e-02 1.378232426941394806e-02 2.763509750366210938e-02 1.965858414769172668e-02 -3.239216282963752747e-02 -5.104304477572441101e-02 3.417856618762016296e-02 5.727375857532024384e-03 1.567329466342926025e-02 1.378863211721181870e-02 -4.554433003067970276e-02 1.905578747391700745e-02 4.296476021409034729e-02 -4.505839571356773376e-02 1.568199950270354748e-03 -3.758921846747398376e-02 -1.628468744456768036e-02 2.376757189631462097e-02 -1.303140912204980850e-02 -6.462489254772663116e-03 -1.576168462634086609e-02 -6.717615574598312378e-02 -1.543369516730308533e-02 4.603783134371042252e-03 4.253625124692916870e-02 1.017706096172332764e-02 3.694009967148303986e-03 6.212633103132247925e-03 3.609658405184745789e-02 -4.323154687881469727e-02 3.227934986352920532e-02 5.250227823853492737e-02 -3.331492096185684204e-02 2.388863079249858856e-02 3.527122782543301582e-03 3.943281248211860657e-03 3.471900243312120438e-03 1.718785986304283142e-02 -4.353894293308258057e-02 -5.224364250898361206e-02 -6.399452686309814453e-03 -5.386939737945795059e-04 1.774340681731700897e-02 3.280294314026832581e-02 -2.082284539937973022e-02 -8.302431553602218628e-03 8.038238622248172760e-03 -2.144216001033782959e-02 -3.611239045858383179e-02 -4.800356179475784302e-02 6.357794161885976791e-03 1.516782678663730621e-02 -8.174545131623744965e-03 1.031158957630395889e-02 -5.877921823412179947e-03 3.977935016155242920e-02 -2.732299081981182098e-02 -3.077416308224201202e-02 4.670187085866928101e-02 3.384415060281753540e-02 -9.039625525474548340e-03 -2.978518605232238770e-02 1.991601474583148956e-02 3.596185473725199699e-03 -1.116319186985492706e-02 5.941618978977203369e-02 2.173206210136413574e-02 -1.423515286296606064e-02 -6.178279593586921692e-02 -2.265601977705955505e-02 -9.871368529275059700e-04 1.974752172827720642e-02 -5.462938174605369568e-02 -5.692809354513883591e-03 -1.030442304909229279e-03 2.221303433179855347e-02 2.208108641207218170e-02 2.633632160723209381e-02 5.105357617139816284e-02 -2.760132588446140289e-02 -5.190711840987205505e-02 1.500158756971359253e-02 -4.476941376924514771e-02 -2.806360274553298950e-02 2.443525008857250214e-02 -1.102447044104337692e-02 5.248985718935728073e-03 2.490808954462409019e-03 1.806909590959548950e-02 -6.474613398313522339e-02 2.019392699003219604e-02 7.874805480241775513e-03 -1.169841364026069641e-02 6.426979601383209229e-02 -1.368403248488903046e-02 -6.282360106706619263e-02 -1.967389881610870361e-02 4.614892601966857910e-02 1.362023688852787018e-02 7.696366403251886368e-03 -1.138071063905954361e-02 -7.816818542778491974e-03 -4.139999509789049625e-04 -8.817397989332675934e-03 3.770011663436889648e-02 -5.824148282408714294e-02 6.391632556915283203e-02 2.940445579588413239e-02 -9.129201993346214294e-03 -9.787053801119327545e-03 -1.729646883904933929e-02 -1.887743547558784485e-02 -2.471099235117435455e-02 6.312455050647258759e-03 1.746107637882232666e-02 2.007361687719821930e-02 -4.458144679665565491e-02 2.387300832197070122e-03 1.274622324854135513e-02 -3.357615694403648376e-02 -2.342101652175188065e-03 7.519014179706573486e-03 1.731313206255435944e-02
2.981353178620338440e-02 -1.529769133776426315e-02 2.749889530241489410e-02 -1.939830929040908813e-02 -2.245113626122474670e-02 5.391432717442512512e-02 4.600137099623680115e-02 7.390668988227844238e-02 1.033011544495820999e-02 -5.353250727057456970e-02 2.084594778716564178e-02 6.300734728574752808e-02 -1.622589491307735443e-02 7.060065865516662598e-02 -3.302722796797752380e-02 3.103009983897209167e-02 -2.039655297994613647e-02 -3.112376853823661804e-02 -8.742552250623703003e-02 1.427768450230360031e-02 -1.995893381536006927e-02 2.686722949147224426e-02 -3.539038356393575668e-03 -3.453833609819412231e-02 1.786030246876180172e-03 -7.777765858918428421e-03 -7.599499076604843140e-03 5.547830462455749512e-02 -2.718036063015460968e-02 3.772632917389273643e-03 -1.310311071574687958e-02 5.780916661024093628e-02 1.086812466382980347e-01 -1.412696554325520992e-03 -3.688446013256907463e-03 6.055842712521553040e-02 -1.753026433289051056e-02 1.765157096087932587e-02 -6.096139550209045410e-02 2.265757136046886444e-02 6.936266086995601654e-03 -1.968101365491747856e-03 2.365907467901706696e-02 -2.690228074789047241e-02 2.186095342040061951e-03 -4.901234060525894165e-02 1.196595653891563416e-02 -5.726769194006919861e-02 -5.964749958366155624e-03 -4.904964566230773926e-02 -4.561664909124374390e-02 -2.447160147130489349e-02 -5.924483388662338257e-02 -1.914671994745731354e-02 -2.060629054903984070e-02 -6.542780250310897827e-02 -1.223226077854633331e-02 2.177776210010051727e-02 7.817274890840053558e-03 -3.365123644471168518e-02 -1.854309998452663422e-02 6.208793818950653076e-02 -4.211355000734329224e-02 -4.250150173902511597e-03 5.163852870464324951e-02 2.745507284998893738e-02 1.622233539819717407e-02 -9.380985982716083527e-03 -3.112640231847763062e-03 -5.956117063760757446e-03 3.623630478978157043e-02 -3.859453648328781128e-02 2.716444991528987885e-02 -3.724379639606922865e-04 3.100218251347541809e-02 1.351250559091567993e-01 3.407674655318260193e-02 7.371845189481973648e-03 2.773073501884937286e-04 2.409088797867298126e-02 8.065319061279296875e-02 -1.663565170019865036e-03 -5.612243339419364929e-02 1.213228330016136169e-02 -2.728527784347534180e-02 1.035774685442447662e-02 -3.441208973526954651e-02 7.338517811149358749e-03 1.983991824090480804e-02 4.517351835966110229e-02 -8.917489089071750641e-03 -5.597733252216130495e-05 2.212044596672058105e-02 -3.782621026039123535e-02 -2.027119882404804230e-02 -2.747777476906776428e-02 2.371192211285233498e-03 -2.391368523240089417e-02 2.712260000407695770e-02 -5.141613259911537170e-02 5.584946367889642715e-03 -5.750543996691703796e-02 1.841077208518981934e-02 -3.149845078587532043e-02 -3.435989469289779663e-02 4.408972337841987610e-02 3.032310120761394501e-02 -1.469086972065269947e-03 4.765346646308898926e-02 -7.016102317720651627e-03 -2.982567623257637024e-02 8.621039986610412598e-02 -8.538879454135894775e-03 6.037381477653980255e-03 -4.423572495579719543e-02 -5.500009283423423767e-03 4.427715018391609192e-02 -1.320088002830743790e-02 6.021503731608390808e-02 -8.978185243904590607e-03 1.649914123117923737e-02 4.789673537015914917e-02 -3.927457705140113831e-02 9.109188802540302277e-03 2.546663768589496613e-02 1.371627952903509140e-02 -5.881298705935478210e-02 -2.452056854963302612e-03 1.708895084448158741e-03 -4.362127557396888733e-02 -9.348046965897083282e-03 2.317786216735839844e-02 -3.140997141599655151e-02 -5.306673794984817505e-02 7.309526205062866211e-03 -2.596771344542503357e-02 -1.753324083983898163e-02 3.116284310817718506e-02 -7.578143384307622910e-03 3.713201498612761497e-03 6.696229334920644760e-03 3.821435198187828064e-02 4.192435368895530701e-02 -1.740569248795509338e-03 -2.562981098890304565e-02 1.810701005160808563e-02 3.909856081008911133e-03 1.697615534067153931e-02 4.361945390701293945e-02 -9.844425134360790253e-03 -1.225513592362403870e-02 4.826372861862182617e-02 4.460818599909543991e-03 -5.695755127817392349e-03 1.602075435221195221e-02 3.777023777365684509e-02 -3.381402790546417236e-02 6.317910272628068924e-03 -1.948201097548007965e-02 -1.978669315576553345e-02 5.724588036537170410e-02 -4.463169258087873459e-03 1.084366347640752792e-02 3.219901397824287415e-02 1.680662482976913452e-02 -2.684220112860202789e-02 -1.822111196815967560e-03 3.529546037316322327e-02 1.408197358250617981e-02 -3.042974695563316345e-02 3.661425318568944931e-03 -4.901537299156188965e-02 1.695444993674755096e-02 1.816191826947033405e-03 -1.170068792998790741e-02 1.203553099185228348e-02 1.980963628739118576e-03 7.898432202637195587e-03 3.451080620288848877e-02 -2.132904715836048126e-02 5.902552977204322815e-02 -1.418282743543386459e-03 -3.072448074817657471e-02 4.679438099265098572e-02 1.784532703459262848e-02 2.436004951596260071e-02 2.199189271777868271e-03 -1.747472025454044342e-02 5.503143370151519775e-02 -5.205757543444633484e-02 -7.130818266887217760e-05 5.584120005369186401e-02 4.411062225699424744e-03 7.992786169052124023e-02 1.521968934684991837e-02 -4.926285892724990845e-02 -3.921085596084594727e-02 -3.567959740757942200e-02 2.721116133034229279e-02 7.841292768716812134e-03 -6.969171017408370972e-02 -2.035566791892051697e-02 -2.277366816997528076e-02 -3.016033675521612167e-03 6.224529445171356201e-02 -2.670691348612308502e-03 5.272496119141578674e-02 -3.604170307517051697e-02 -1.991853304207324982e-02 -3.723110537976026535e-03 1.145084854215383530e-02 -1.215593516826629639e-02 -2.667568810284137726e-02 -3.970773518085479736e-02 9.225183725357055664e-02 -3.977381065487861633e-02 -1.161505933851003647e-02 -3.291793912649154663e-02 2.488913387060165405e-02 4.075886309146881104e-02 -6.851795595139265060e-03 -6.755453534424304962e-03 1.893894746899604797e-03 -1.604638807475566864e-02 3.097973763942718506e-02 2.743840217590332031e-02 1.124444976449012756e-02 -2.281391061842441559e-03 -4.727862030267715454e-02 -5.722240731120109558e-02 1.836416311562061310e-02 3.393250750377774239e-03 -3.232610970735549927e-02 -3.943846747279167175e-02 -3.042616136372089386e-02 -2.393229678273200989e-02 -1.249671261757612228e-02 -2.114238776266574860e-02 2.052054926753044128e-02 -1.026996131986379623e-02 -3.127280250191688538e-02 3.670908045023679733e-03 -2.104827947914600372e-02 -4.215741530060768127e-03 -8.555265143513679504e-03 1.383403781801462173e-02 1.190284453332424164e-02 -1.291123125702142715e-02 5.264573171734809875e-02 3.755993023514747620e-02 1.345687080174684525e-02 -3.332451730966567993e-02 -2.009718492627143860e-02 1.828393153846263885e-02 -2.053658105432987213e-02 2.105638012290000916e-02
4.979129508137702942e-02 5.515365675091743469e-02 -6.218856666237115860e-03 3.526752069592475891e-02 1.408750750124454498e-02 -1.502865739166736603e-02 -2.015038044191896915e-04 -4.893425107002258301e-02 -2.799732377752661705e-03 -1.966924034059047699e-02 2.266761660575866699e-02 4.200716316699981689e-02 1.531942468136548996e-02 -1.075418386608362198e-02 -3.604021295905113220e-02 9.855700656771659851e-03 -2.212178334593772888e-02 4.996963776648044586e-03 2.091542631387710571e-02 2.014674432575702667e-02 -6.703158374875783920e-03 -2.318374253809452057e-02 1.291112159378826618e-03 2.302558906376361847e-02 -1.714461541268974543e-04 1.013720501214265823e-02 1.294408459216356277e-03 5.936163477599620819e-03 -1.801205426454544067e-02 1.111893542110919952e-02 -2.456458983942866325e-03 -2.134929224848747253e-02 -6.790977716445922852e-02 6.651478260755538940e-02 -2.957024611532688141e-03 -2.596396766602993011e-02 -3.060250915586948395e-02 6.429167464375495911e-03 2.170930057764053345e-02 3.223438560962677002e-02 2.346165291965007782e-02 4.608534742146730423e-03 2.769548259675502777e-02 -2.985279075801372528e-02 -7.411911338567733765e-02 3.226331993937492371e-02 -3.562105819582939148e-02 1.334067806601524353e-02 -9.250436909496784210e-03 1.321019488386809826e-03 1.237776316702365875e-02 -8.839121088385581970e-03 4.077332094311714172e-02 -1.463473401963710785e-02 1.220990251749753952e-02 -9.462563320994377136e-03 -1.811422035098075867e-02 -1.271387934684753418e-02 3.109624236822128296e-02 -1.692225784063339233e-02 -3.078604489564895630e-02 -1.536181382834911346e-02 3.575012832880020142e-02 -5.961834918707609177e-03 1.866399310529232025e-02 -6.502354145050048828e-02 -3.771042451262474060e-02 5.788869690150022507e-03 1.101861591450870037e-03 4.597122222185134888e-02 -5.226613953709602356e-02 3.196928277611732483e-02 -1.722206827253103256e-03 -8.850517682731151581e-03 1.984587311744689941e-02 1.574910059571266174e-02 2.944777160882949829e-02 -7.548629306256771088e-03 6.861708126962184906e-03 2.763330563902854919e-02 3.561154380440711975e-02 1.174220629036426544e-02 1.066344417631626129e-02 -9.572749258950352669e-04 2.493015490472316742e-03 9.249952621757984161e-03 -8.654578775167465210e-02 -5.088360048830509186e-03 7.976341061294078827e-03 -6.353346630930900574e-03 2.361607924103736877e-02 -3.642349271103739738e-03 -1.390311750583350658e-03 -7.080418989062309265e-03 -1.166013255715370178e-02 -3.087144345045089722e-02 -8.190104737877845764e-03 8.995094336569309235e-03 -8.862237446010112762e-03 -4.507978633046150208e-02 -6.491596251726150513e-02 -3.269869834184646606e-02 -5.774537567049264908e-03 9.391015046276152134e-04 -2.673089131712913513e-02 2.247805008664727211e-03 3.411327674984931946e-02 -9.248539805412292480e-03 2.290381118655204773e-02 -3.244433179497718811e-02 -5.247630178928375244e-03 -5.847152788192033768e-03 -5.912226438522338867e-02 4.011080786585807800e-02 3.035003319382667542e-02 -4.308402538299560547e-02 3.437056392431259155e-02 4.647612571716308594e-03 -9.517872706055641174e-03 1.304525230079889297e-02 9.512242861092090607e-03 -4.507883265614509583e-02 -6.088516861200332642e-02 4.667684808373451233e-02 1.431063655763864517e-02 7.426732033491134644e-02 -1.843865215778350830e-02 -1.538838259875774384e-03 8.632237440906465054e-04 -2.753703854978084564e-03 7.004373241215944290e-03 -3.277806192636489868e-02 1.763230538927018642e-04 1.123378798365592957e-02 -1.145289372652769089e-02 -1.172433234751224518e-02 -7.332177832722663879e-03 -1.145701482892036438e-02 1.277757529169321060e-02 -6.714201066642999649e-03 6.288237054832279682e-04 -1.129926834255456924e-02 -1.630236208438873291e-02 7.134776562452316284e-02 -3.358913585543632507e-02 1.517141703516244888e-02 -3.917266149073839188e-03 6.890084594488143921e-02 4.901817068457603455e-03 2.414608933031558990e-02 2.070445381104946136e-02 5.098326131701469421e-02 -7.471645716577768326e-03 -5.382631905376911163e-03 -1.639975607395172119e-02 -5.119290202856063843e-02 -3.766530007123947144e-02 -4.552462138235569000e-03 -2.229245193302631378e-02 -3.051556879654526711e-03 -3.506598249077796936e-02 7.408109959214925766e-03 -2.242934145033359528e-02 2.253691432997584343e-03 -2.153245732188224792e-02 -5.905478447675704956e-02 4.660139326006174088e-03 2.438174560666084290e-04 8.787618950009346008e-03 -1.743886061012744904e-02 1.134973671287298203e-02 5.375409498810768127e-03 -1.487428136169910431e-02 -3.979696705937385559e-02 4.481132142245769501e-03 2.950060553848743439e-02 1.851001195609569550e-02 9.261880069971084595e-03 1.188105531036853790e-02 -1.792690344154834747e-02 -2.711168490350246429e-02 9.938442381098866463e-04 -6.499072536826133728e-03 -6.626476347446441650e-02 2.021319791674613953e-02 2.307230488440836780e-06 -4.510638304054737091e-03 -3.614559397101402283e-02 -1.193344965577125549e-02 -4.280083253979682922e-02 -7.386035285890102386e-03 7.982049882411956787e-02 -1.620742119848728180e-02 -6.219754740595817566e-02 -5.813161376863718033e-03 4.927759990096092224e-02 3.492149338126182556e-02 -1.624085754156112671e-02 5.660484731197357178e-02 2.051232848316431046e-03 5.026425700634717941e-03 -7.465533167123794556e-02 7.667204365134239197e-03 -1.911953277885913849e-02 -4.627722129225730896e-02 1.989813707768917084e-02 1.286797318607568741e-02 6.281501054763793945e-02 -5.325312539935112000e-02 5.393270775675773621e-02 -2.512013539671897888e-02 5.600572377443313599e-02 -8.394005708396434784e-03 -4.778977017849683762e-03 -4.166326485574245453e-03 -2.256289869546890259e-02 -5.700818821787834167e-02 -2.783723548054695129e-02 4.531941935420036316e-02 -6.250395905226469040e-03 1.155863888561725616e-02 -3.959441557526588440e-02 1.361224451102316380e-03 1.689357799477875233e-03 4.166927561163902283e-02 6.778813898563385010e-02 3.233702853322029114e-02 7.959058508276939392e-03 -3.799786418676376343e-02 -7.999703288078308105e-02 -3.318610042333602905e-02 -6.506885401904582977e-03 2.111363224685192108e-03 -4.062613099813461304e-02 -7.186812162399291992e-02 9.324370324611663818e-02 4.463985562324523926e-03 -2.289104834198951721e-02 -1.298806071281433105e-02 -8.170550689101219177e-03 5.801767483353614807e-02 1.445757318288087845e-02 2.915603853762149811e-02 1.767097972333431244e-02 -1.076629199087619781e-02 4.265554994344711304e-02 1.209434121847152710e-02 2.696013450622558594e-02 -2.694119885563850403e-02 -9.754099883139133453e-03 -2.703724429011344910e-02 1.237501390278339386e-02 -7.991561666131019592e-03 1.319862343370914459e-02 -2.081019803881645203e-02 -3.158522304147481918e-03
-2.776335366070270538e-02 1.797915995121002197e-02 3.025252744555473328e-02 -3.028824925422668457e-02 -1.327735185623168945e-02 -3.332924470305442810e-02 2.141618542373180389e-02 5.012656096369028091e-03 -3.766650334000587463e-02 -2.221464365720748901e-02 4.385576397180557251e-02 -4.431401193141937256e-02 -4.718646779656410217e-02 6.293419282883405685e-03 1.095895655453205109e-02 -1.838038302958011627e-02 -5.038594827055931091e-03 -2.187851071357727051e-02 6.155360490083694458e-03 9.440290741622447968e-03 5.225725099444389343e-02 -1.377629488706588745e-02 -4.223511740565299988e-02 -1.054095476865768433e-02 6.022641062736511230e-02 -2.057236805558204651e-02 3.118182159960269928e-02 -1.738966256380081177e-02 -2.170540578663349152e-02 2.067012339830398560e-02 1.197617501020431519e-02 -2.239484153687953949e-02 1.882530935108661652e-02 3.876203298568725586e-02 2.945361286401748657e-02 1.941958442330360413e-02 -2.509305067360401154e-02 -3.062879852950572968e-02 -5.705603864043951035e-03 -1.736039109528064728e-02 -2.874974533915519714e-02 1.295535359531641006e-02 -2.616804838180541992e-02 1.419823523610830307e-02 -7.558338344097137451e-02 2.171669714152812958e-02 -5.418918095529079437e-03 5.218829587101936340e-02 -3.027152083814144135e-02 -1.301929075270891190e-02 -1.240682974457740784e-02 3.656331449747085571e-02 7.094623986631631851e-03 7.687049917876720428e-03 1.424661837518215179e-02 -3.607151284813880920e-02 1.829121075570583344e-02 -2.071777731180191040e-02 -2.392578870058059692e-02 4.701494239270687103e-03 1.336322166025638580e-02 -4.212550818920135498e-03 -3.122820053249597549e-03 -7.222861051559448242e-02 -2.452856302261352539e-02 -4.145998880267143250e-02 2.002847008407115936e-02 -5.049119889736175537e-02 -4.280462861061096191e-03 1.457053143531084061e-02 2.061497420072555542e-02 1.310471538454294205e-02 -1.019546575844287872e-02 1.648225635290145874e-02 3.271263465285301208e-02 -1.409403234720230103e-02 3.378142137080430984e-04 -9.743865579366683960e-03 4.145075380802154541e-02 -2.630851976573467255e-02 5.751489195972681046e-03 -1.641771942377090454e-02 -4.951720125973224640e-03 2.306256070733070374e-02 1.191698666661977768e-02 3.597010672092437744e-02 5.007290840148925781e-02 3.335606306791305542e-02 -1.093204598873853683e-02 2.827798388898372650e-02 -3.783082962036132812e-02 -4.431777819991111755e-02 -1.215488184243440628e-02 -1.024096366018056870e-02 3.634366765618324280e-02 9.312847629189491272e-03 -4.664183408021926880e-02 8.012470789253711700e-03 -3.477648273110389709e-02 2.448520623147487640e-02 -5.401662550866603851e-03 7.573273032903671265e-03 7.790218293666839600e-02 -1.072585303336381912e-02 2.911221422255039215e-02 -1.440876070410013199e-02 -2.480224147439002991e-02 -5.322055425494909286e-03 -1.962708309292793274e-02 2.661941945552825928e-02 2.823057584464550018e-02 1.191675215959548950e-01 2.277077175676822662e-02 -3.968140110373497009e-02 4.890288226306438446e-03 -1.596372015774250031e-02 2.020826749503612518e-02 -1.061309874057769775e-02 -3.060172125697135925e-02 9.381745755672454834e-02 -4.700014740228652954e-02 -1.570606045424938202e-02 1.621045544743537903e-02 -1.444888301193714142e-02 8.035367727279663086e-02 -9.389239363372325897e-03 -2.136600576341152191e-02 -4.243537038564682007e-02 -4.050245974212884903e-03 -2.975583262741565704e-02 7.224784698337316513e-03 2.827779017388820648e-02 1.307341456413269043e-02 -6.437930278480052948e-03 2.112657763063907623e-02 1.394645031541585922e-02 3.831419721245765686e-02 2.706176787614822388e-02 -2.419907413423061371e-02 -1.218572352081537247e-02 -2.298619784414768219e-02 -8.136162161827087402e-02 3.512196615338325500e-02 5.138192325830459595e-03 1.326552312821149826e-02 3.119309619069099426e-02 1.629209518432617188e-02 4.156568553298711777e-03 1.533844694495201111e-02 3.898827359080314636e-02 -1.178680546581745148e-02 -4.900667443871498108e-02 -3.877121210098266602e-02 -3.436703467741608620e-03 -2.710776403546333313e-02 -2.546131145209074020e-04 2.280105464160442352e-02 2.466448210179805756e-02 1.986343413591384888e-02 5.461306124925613403e-02 -3.549680858850479126e-02 -2.338109165430068970e-02 5.474806204438209534e-02 2.966860076412558556e-03 6.750743836164474487e-03 -2.305457601323723793e-03 3.599401563405990601e-02 -4.268249496817588806e-02 2.384678274393081665e-02 -5.688012391328811646e-02 -2.874300442636013031e-02 -7.514383178204298019e-03 -8.616808801889419556e-03 9.583136066794395447e-03 -6.225638557225465775e-03 -1.917478442192077637e-02 2.045614086091518402e-02 -7.734586019068956375e-03 -2.051700279116630554e-02 4.115546867251396179e-02 -4.438481479883193970e-02 3.174713999032974243e-02 -6.996135693043470383e-03 1.935241557657718658e-02 4.185171797871589661e-03 3.710709139704704285e-02 -5.527702718973159790e-02 -2.755126357078552246e-02 2.969495020806789398e-02 -4.573447629809379578e-03 5.437510460615158081e-02 1.915946044027805328e-02 -1.943147182464599609e-02 9.850491769611835480e-03 -3.545730188488960266e-02 2.581505104899406433e-02 -1.549918320961296558e-03 1.399812870658934116e-03 3.686832636594772339e-02 -1.609094813466072083e-02 -1.527392491698265076e-02 6.917724385857582092e-03 -2.590799517929553986e-02 4.608409013599157333e-03 1.316595263779163361e-02 -2.711476385593414307e-02 -1.110427314415574074e-03 9.750947356224060059e-03 2.657765708863735199e-02 4.405675828456878662e-02 -9.589303284883499146e-03 5.421979352831840515e-03 -1.194820459932088852e-02 2.376771531999111176e-02 -1.527097634971141815e-02 2.971680462360382080e-02 -3.026211261749267578e-02 -2.088906243443489075e-02 2.320758067071437836e-02 2.275954559445381165e-02 4.757298156619071960e-02 9.213670156896114349e-03 8.644600398838520050e-03 -3.279131278395652771e-02 -6.633826531469821930e-03 -2.444809302687644958e-02 7.363460212945938110e-02 4.949808120727539062e-03 1.629592292010784149e-02 8.521788753569126129e-03 1.958146505057811737e-02 1.464942004531621933e-02 -4.262993484735488892e-02 7.429316639900207520e-03 6.068084854632616043e-03 -4.399663303047418594e-03 6.837646663188934326e-02 2.777970023453235626e-02 4.612845927476882935e-02 5.177271366119384766e-02 1.027414761483669281e-02 5.822724197059869766e-03 -5.382533185184001923e-03 2.198363095521926880e-02 -3.332847356796264648e-02 -1.964882016181945801e-02 6.271973997354507446e-02 -2.039032243192195892e-02 -1.680840039625763893e-03 6.094036996364593506e-02 -2.311779744923114777e-02 -6.281534675508737564e-03 -1.230411510914564133e-02 2.581565454602241516e-02 -8.396435528993606567e-03 3.214959055185317993e-02
8.243553340435028076e-03 6.600987911224365234e-02 -8.008995093405246735e-03 -3.421787172555923462e-02 -8.827649056911468506e-03 4.294946324080228806e-03 -4.579832032322883606e-02 -9.967828169465065002e-03 4.125160723924636841e-02 2.917839772999286652e-02 4.648593813180923462e-02 4.484139010310173035e-02 2.951187640428543091e-02 3.731314465403556824e-02 4.180460050702095032e-02 2.766145020723342896e-02 9.431005455553531647e-03 -1.486776862293481827e-02 6.862713955342769623e-03 -7.171871140599250793e-03 1.867737248539924622e-02 -3.218477126210927963e-03 -3.677816130220890045e-03 -5.837361142039299011e-02 1.360143627971410751e-02 -5.324104428291320801e-02 -3.549703955650329590e-02 -4.542427510023117065e-02 6.360014528036117554e-02 -6.400806363672018051e-03 -6.677028536796569824e-02 9.152297861874103546e-03 3.379895538091659546e-02 5.630171671509742737e-02 2.633708901703357697e-02 7.270340342074632645e-03 1.096940599381923676e-02 -3.714625164866447449e-02 6.305414438247680664e-02 4.694177210330963135e-02 -3.594740852713584900e-02 1.619802229106426239e-02 5.500954110175371170e-03 -2.709578163921833038e-02 1.535428967326879501e-02 -6.142987683415412903e-02 -5.828240513801574707e-02 1.340407878160476685e-01 3.732884302735328674e-02 -2.199524082243442535e-02 1.110668200999498367e-02 2.383061498403549194e-02 -3.438268788158893585e-03 -2.693263115361332893e-03 -3.842715173959732056e-02 -5.119275674223899841e-02 -1.277619879692792892e-02 5.430751480162143707e-03 9.184970520436763763e-03 -7.144597917795181274e-02 1.619963534176349640e-02 2.656080015003681183e-02 4.513324052095413208e-02 -6.238576397299766541e-02 5.994239356368780136e-03 -5.683049559593200684e-02 3.827624768018722534e-02 -3.141748160123825073e-02 -6.631916761398315430e-02 8.641826361417770386e-02 1.868547126650810242e-02 -6.771483458578586578e-03 -5.258810240775346756e-03 3.332034870982170105e-02 9.134813211858272552e-03 -4.460137337446212769e-03 -1.839458383619785309e-02 -5.470528453588485718e-02 -1.471334788948297501e-02 1.118539250455796719e-03 2.386215887963771820e-02 2.208355115726590157e-03 5.016437731683254242e-03 -5.246808007359504700e-02 -1.624616608023643494e-02 -8.694958686828613281e-02 -2.136431867256760597e-03 -4.962029680609703064e-02 5.147573724389076233e-02 -2.814013045281171799e-03 -1.296083182096481323e-01 8.359459228813648224e-03 1.642279513180255890e-02 6.672607362270355225e-02 -7.481779158115386963e-02 -4.619605839252471924e-02 1.490385737270116806e-02 -3.720563650131225586e-02 -3.597114235162734985e-02 -6.334803998470306396e-03 1.182294581667520106e-04 1.449560280889272690e-02 -3.691728040575981140e-02 1.236067060381174088e-02 -5.846069753170013428e-02 6.571832299232482910e-02 -5.816581193357706070e-03 -4.422989860177040100e-02 2.970037609338760376e-02 -5.906196683645248413e-02 -6.611568480730056763e-02 2.372897462919354439e-03 -1.738003641366958618e-02 2.589867264032363892e-02 -8.597345091402530670e-03 -3.048294223845005035e-03 -1.593768596649169922e-02 2.532580681145191193e-02 -3.753297403454780579e-02 6.191787309944629669e-03 -4.292318224906921387e-02 1.282073371112346649e-02 6.817714311182498932e-03 -1.723741739988327026e-02 -2.520274557173252106e-02 -2.722935378551483154e-02 1.539308577775955200e-02 6.655722111463546753e-02 -3.619670495390892029e-02 -4.562414065003395081e-02 -4.252563789486885071e-02 6.719727069139480591e-02 -2.989472076296806335e-02 8.555646985769271851e-03 -2.172906324267387390e-02 -2.373974537476897240e-03 -4.549770429730415344e-02 -5.455553904175758362e-02 -2.830350585281848907e-02 -7.667462923564016819e-04 1.262947171926498413e-02 -2.183927595615386963e-02 2.234175056219100952e-02 4.755131900310516357e-02 6.932619214057922363e-02 -6.172195822000503540e-02 -8.348945528268814087e-03 5.446643102914094925e-03 4.451285116374492645e-03 5.105176568031311035e-02 1.858553104102611542e-02 -1.895654015243053436e-02 6.479088962078094482e-02 4.827773198485374451e-02 -1.047435551881790161e-01 -5.706073343753814697e-02 7.174251601099967957e-03 4.336552694439888000e-03 -3.485129401087760925e-02 1.921682618558406830e-02 3.803083300590515137e-02 -9.099489450454711914e-02 -2.152434736490249634e-02 1.273175422102212906e-02 -2.847154065966606140e-02 6.800745148211717606e-03 9.732426842674612999e-04 2.049342729151248932e-02 3.314173594117164612e-02 3.257528319954872131e-02 -6.940314918756484985e-02 -5.192510411143302917e-02 2.377144759520888329e-03 -3.276327252388000488e-02 -5.664891377091407776e-02 -4.303672537207603455e-02 -1.469367882236838341e-03 -7.471672445535659790e-02 -5.187296494841575623e-02 8.629660308361053467e-02 -2.712017390877008438e-03 -9.141471236944198608e-03 4.312626551836729050e-03 -2.755000814795494080e-02 1.068013021722435951e-03 1.851496472954750061e-02 -4.992393404245376587e-02 2.529645338654518127e-02 2.543694153428077698e-02 7.582946214824914932e-03 -5.112938210368156433e-02 7.690606266260147095e-02 -2.559976093471050262e-02 2.764781564474105835e-02 3.819606266915798187e-03 4.216147214174270630e-02 5.185925588011741638e-02 2.176965959370136261e-02 -5.312354769557714462e-03 -5.436794459819793701e-02 2.245550416409969330e-02 1.990111544728279114e-02 -5.231427773833274841e-02 3.338616713881492615e-02 8.408448100090026855e-02 -4.808608442544937134e-03 3.295172750949859619e-02 6.870895624160766602e-02 -3.120304085314273834e-02 1.251820176839828491e-01 -4.263857379555702209e-03 -3.115487284958362579e-02 2.106614783406257629e-02 2.465698681771755219e-02 4.346272721886634827e-02 -2.488026954233646393e-02 2.008389495313167572e-02 -6.557723972946405411e-04 -4.122566431760787964e-02 -1.332436315715312958e-02 1.340647041797637939e-02 -3.668418899178504944e-02 -5.488900467753410339e-02 -6.721829622983932495e-02 1.074786297976970673e-03 -3.409689664840698242e-02 -1.776430942118167877e-02 2.897122129797935486e-02 1.531185675412416458e-02 -6.060532759875059128e-03 5.660585314035415649e-02 1.534140110015869141e-02 -5.053133144974708557e-02 6.164171546697616577e-02 -4.165369272232055664e-02 7.058791816234588623e-02 4.884688183665275574e-02 -3.960187360644340515e-02 -1.098260376602411270e-02 1.212433818727731705e-02 2.767777256667613983e-02 2.922841534018516541e-02 -2.113334834575653076e-02 -5.381004139780998230e-02 -6.352144479751586914e-02 3.322692960500717163e-02 -1.759709231555461884e-02 -5.222087725996971130e-02 -4.765558056533336639e-03 -4.550213739275932312e-02 -3.029206767678260803e-03 -8.938239887356758118e-03 -5.793147161602973938e-02 1.047519617713987827e-03 -1.455231197178363800e-02 2.579675987362861633e-02
-3.088888525962829590e-02 2.063496038317680359e-02 -4.198651760816574097e-02 -2.295981533825397491e-02 1.604109816253185272e-02 -3.364320099353790283e-02 -1.447470486164093018e-02 -1.712562888860702515e-02 -6.430972367525100708e-03 4.131547734141349792e-02 2.621777728199958801e-02 5.328413844108581543e-02 -7.012443244457244873e-02 1.145640155300498009e-03 -2.407005429267883301e-02 2.883291244506835938e-02 6.973519455641508102e-03 3.060991503298282623e-02 5.686452984809875488e-02 -4.038956761360168457e-02 -4.824305325746536255e-02 -1.794118434190750122e-02 7.123692426830530167e-03 -7.815228402614593506e-02 -2.632560208439826965e-02 -6.259891390800476074e-02 2.182819182053208351e-03 -5.551585555076599121e-02 3.332705050706863403e-02 -5.603885743767023087e-03 -1.437285356223583221e-02 -1.254918333142995834e-02 7.293674279935657978e-04 5.099844187498092651e-02 -1.359731331467628479e-02 3.018611297011375427e-02 -1.223764009773731232e-02 -1.496873516589403152e-02 6.686683744192123413e-02 -3.033055691048502922e-03 3.164193406701087952e-02 -1.163511909544467926e-02 -7.715885527431964874e-03 1.264013908803462982e-02 3.195839002728462219e-02 -3.626542165875434875e-02 -4.423033911734819412e-03 9.118351154029369354e-03 -3.365792101249098778e-03 -3.587006032466888428e-02 -8.991356939077377319e-03 1.615623943507671356e-02 -3.904022648930549622e-02 4.666411876678466797e-02 -1.272984966635704041e-02 4.149226099252700806e-02 5.244002863764762878e-02 4.873529821634292603e-02 -3.844359517097473145e-02 5.061315745115280151e-02 -1.122276708483695984e-01 1.726639643311500549e-02 2.276750840246677399e-02 -1.016315165907144547e-02 -6.013306975364685059e-02 -6.029618438333272934e-03 1.629091985523700714e-02 -3.655391931533813477e-02 1.065259613096714020e-02 3.940874338150024414e-02 5.512195825576782227e-02 -6.333485990762710571e-02 -4.633087373804301023e-04 -4.186572879552841187e-02 -3.375875949859619141e-02 -3.170874714851379395e-02 -7.735117524862289429e-02 -2.862376905977725983e-02 6.475968658924102783e-02 7.363619748502969742e-03 1.411614473909139633e-02 -8.400031365454196930e-03 -1.698468998074531555e-02 -1.633782684803009033e-02 -1.798775233328342438e-02 9.909982327371835709e-04 2.734764106571674347e-02 6.014247983694076538e-02 4.348947107791900635e-02 -3.090348094701766968e-02 2.041801624000072479e-02 9.388275444507598877e-02 -3.275730705354362726e-05 -8.639358729124069214e-02 -4.221535474061965942e-02 -3.814118728041648865e-02 8.630400523543357849e-03 2.535545825958251953e-02 -2.348533272743225098e-02 4.682721570134162903e-03 6.408500019460916519e-03 4.367802664637565613e-02 -1.784309186041355133e-02 -4.966864362359046936e-02 -1.181703060865402222e-02 3.281827643513679504e-02 -2.128144167363643646e-02 1.483886409550905228e-02 4.114307090640068054e-02 6.519582867622375488e-02 -1.689423806965351105e-02 -5.924840271472930908e-02 6.880627013742923737e-03 5.426888912916183472e-02 1.535749901086091995e-02 5.578120239078998566e-03 4.170626774430274963e-02 3.067210875451564789e-02 3.527039662003517151e-02 -1.356245484203100204e-02 -4.560917988419532776e-02 3.984368871897459030e-03 2.620375901460647583e-02 -1.339889597147703171e-02 -1.834001974202692509e-03 -2.340793795883655548e-02 -8.338373154401779175e-03 5.422269552946090698e-02 6.214311346411705017e-02 -3.040761686861515045e-02 -4.841976240277290344e-02 -4.622415080666542053e-02 1.466917572543025017e-03 1.356767024844884872e-02 9.825319051742553711e-03 -1.128390897065401077e-03 8.501201868057250977e-03 -2.201686054468154907e-02 -5.128582194447517395e-02 3.478323295712471008e-02 2.736107632517814636e-02 1.850859262049198151e-02 -4.232400283217430115e-02 2.144454978406429291e-02 1.993831247091293335e-02 -2.107244683429598808e-03 8.202872425317764282e-02 -3.145694360136985779e-02 -8.712137117981910706e-03 4.513040184974670410e-02 -3.575046546757221222e-03 -5.806564912199974060e-02 -9.309249371290206909e-02 1.936546759679913521e-03 1.703622192144393921e-02 -1.078443787992000580e-02 -1.598235033452510834e-02 9.906952083110809326e-02 1.279415469616651535e-02 -8.681663312017917633e-04 2.384082973003387451e-02 -5.595299974083900452e-02 -1.666329987347126007e-02 5.992230493575334549e-03 3.944689035415649414e-02 1.688554999418556690e-03 -6.217429414391517639e-03 -3.309077769517898560e-02 4.325423017144203186e-02 -5.139607004821300507e-03 -6.317181140184402466e-02 1.246407907456159592e-02 -6.036973372101783752e-02 -2.519279159605503082e-02 1.156407035887241364e-02 2.529516257345676422e-02 -1.573983952403068542e-02 4.821221902966499329e-02 -2.057365886867046356e-02 -1.010410767048597336e-02 -5.545487161725759506e-03 -6.498987227678298950e-02 2.013419754803180695e-02 6.252118200063705444e-02 -3.194539574906229973e-03 -1.966604031622409821e-02 -1.014662068337202072e-02 -1.738110929727554321e-02 4.762541130185127258e-02 -1.590273156762123108e-02 -3.025307506322860718e-02 -1.547991298139095306e-02 5.519929155707359314e-02 -3.124534338712692261e-02 1.233581686392426491e-03 5.519239231944084167e-03 3.011889196932315826e-02 -4.480189643800258636e-03 -1.243787445127964020e-02 2.354744449257850647e-02 -4.820185527205467224e-02 -3.045268543064594269e-02 1.433425396680831909e-02 -2.372477669268846512e-03 -1.754314266145229340e-02 1.846960373222827911e-02 -2.377772703766822815e-02 7.466648239642381668e-04 7.007888052612543106e-03 2.753827255219221115e-03 4.499110579490661621e-02 6.010992918163537979e-03 -4.439140483736991882e-02 1.521977945230901241e-03 -6.137376185506582260e-03 -1.419210061430931091e-02 2.057330869138240814e-02 3.567385673522949219e-02 -5.857464857399463654e-03 -3.833085298538208008e-02 -4.181164875626564026e-02 -3.945400472730398178e-03 -7.742716930806636810e-03 3.253181651234626770e-02 -3.575234860181808472e-02 9.222405962646007538e-03 4.218080267310142517e-02 2.785315364599227905e-02 -1.878256723284721375e-02 -2.074936404824256897e-02 -4.061181098222732544e-02 -2.055178396403789520e-03 4.920917563140392303e-03 -2.570633077993988991e-04 -2.413459308445453644e-02 -4.037680476903915405e-02 -5.843466892838478088e-02 3.831536741927266121e-03 -1.058299187570810318e-02 -1.386971399188041687e-02 3.819846361875534058e-02 1.334602106362581253e-02 -9.035542607307434082e-03 -4.255607724189758301e-03 2.675060182809829712e-02 -5.231028189882636070e-04 2.663731202483177185e-02 1.113317720592021942e-02 5.521344020962715149e-02 -7.193542085587978363e-03 2.402498386800289154e-02 -3.199614211916923523e-02 -1.650267094373703003e-02 -2.520125545561313629e-02 1.693140901625156403e-02 -4.335462581366300583e-03
2.623869478702545166e-02 5.549407005310058594e-02 -5.053819715976715088e-02 -6.334289908409118652e-02 2.783177047967910767e-02 -8.449611812829971313e-02 2.321135438978672028e-02 -3.028387390077114105e-02 -1.600084267556667328e-02 -1.594306342303752899e-02 2.804626524448394775e-02 8.751283399760723114e-03 1.403812412172555923e-02 -1.305152382701635361e-02 -1.781166158616542816e-02 -1.939962618052959442e-02 2.370354719460010529e-03 -4.847088363021612167e-03 -5.655338522046804428e-03 -1.197547931224107742e-02 -1.893025706522166729e-03 -3.777235280722379684e-03 4.800938477274030447e-04 9.986961260437965393e-03 -4.044278338551521301e-02 4.204323515295982361e-03 2.386644296348094940e-02 5.191230773925781250e-02 -1.775006204843521118e-02 -1.439713407307863235e-02 -3.119196929037570953e-02 -2.997699379920959473e-02 5.507126078009605408e-02 -2.967127785086631775e-02 2.770653180778026581e-02 -2.775282133370637894e-03 -9.439783170819282532e-03 9.606858715415000916e-03 -7.238870859146118164e-02 2.881319448351860046e-02 -4.445251077413558960e-02 -2.052662707865238190e-02 -4.014753550291061401e-02 3.325762227177619934e-02 -1.288678962737321854e-02 -1.953184977173805237e-02 5.425946786999702454e-02 -4.854982718825340271e-02 -3.012597560882568359e-02 -5.783109366893768311e-02 -2.206937782466411591e-02 9.078584611415863037e-03 -4.357556626200675964e-02 -1.059741247445344925e-02 -3.159089758992195129e-02 1.790000125765800476e-02 1.765861175954341888e-02 7.912013679742813110e-02 -2.338898181915283203e-02 -9.245739318430423737e-03 -1.907662861049175262e-02 -1.606343127787113190e-02 -1.842296682298183441e-02 4.291268065571784973e-02 -3.302959725260734558e-02 -1.668077195063233376e-03 6.163834780454635620e-02 -4.582351818680763245e-02 4.662129655480384827e-02 -7.197871059179306030e-02 4.032236710190773010e-02 -5.050764605402946472e-02 -6.305037438869476318e-02 2.208917029201984406e-02 1.271796971559524536e-02 2.362545393407344818e-02 -2.104277256876230240e-03 4.441782366484403610e-04 -4.307043273001909256e-03 -4.721879959106445312e-02 2.557927183806896210e-02 -2.460374310612678528e-02 -1.418325025588274002e-02 -1.756805554032325745e-02 -1.158866193145513535e-02 8.536686748266220093e-02 2.530605997890233994e-03 -4.145691916346549988e-02 -6.478415336459875107e-03 -1.225448865443468094e-02 4.971989616751670837e-02 -1.771651022136211395e-02 -1.845577545464038849e-02 7.028383202850818634e-03 -2.103593759238719940e-02 -3.668103367090225220e-02 -1.378476433455944061e-02 3.727576136589050293e-02 1.984135247766971588e-02 -2.385500259697437286e-02 -3.886612877249717712e-02 3.770085796713829041e-02 2.977144904434680939e-03 3.166366601362824440e-03 3.378306701779365540e-02 -9.140732698142528534e-03 -1.097830198705196381e-02 6.250377744436264038e-02 1.588054001331329346e-02 -1.709539070725440979e-02 2.840090729296207428e-02 -5.593121424317359924e-02 5.867857486009597778e-03 -2.418839931488037109e-02 1.894211582839488983e-02 -4.677060991525650024e-02 -6.870789453387260437e-03 6.090621650218963623e-02 -1.456450205296278000e-02 9.064712375402450562e-02 -9.383278898894786835e-03 4.788452386856079102e-02 -4.605333507061004639e-02 8.603033609688282013e-03 6.549683958292007446e-02 9.248232096433639526e-02 4.359420761466026306e-02 9.878625161945819855e-03 -1.032967213541269302e-02 -7.135208696126937866e-03 -3.751155361533164978e-02 -5.325597152113914490e-02 3.180712834000587463e-02 5.668799206614494324e-02 -3.321827389299869537e-03 -6.090410053730010986e-02 2.235982380807399750e-02 1.307832426391541958e-03 -3.618418797850608826e-02 2.303997427225112915e-02 -7.589721120893955231e-03 -3.326611220836639404e-02 1.700967177748680115e-02 2.898747101426124573e-02 -4.800975322723388672e-02 3.545847721397876740e-03 1.402556523680686951e-02 -1.807276741601526737e-03 1.221386715769767761e-02 3.053408674895763397e-02 3.581659868359565735e-02 -5.115567520260810852e-02 -3.431200608611106873e-02 -4.289131239056587219e-02 2.739481255412101746e-02 -8.348969742655754089e-03 -2.652340941131114960e-02 -5.244837328791618347e-02 -1.477644406259059906e-02 -1.812292821705341339e-02 -2.176063321530818939e-02 -3.084415569901466370e-02 -1.908056670799851418e-03 3.474771603941917419e-02 -3.492199629545211792e-02 2.661887928843498230e-02 -1.641490496695041656e-02 1.959574036300182343e-02 1.743758469820022583e-02 2.624460612423717976e-04 -1.986869378015398979e-03 5.194264650344848633e-02 -4.668721929192543030e-02 -5.133385211229324341e-02 3.094918467104434967e-02 -1.197925812448374927e-04 -5.805113911628723145e-02 4.335892386734485626e-03 3.120635263621807098e-02 -4.811987280845642090e-02 1.075204759836196899e-01 -3.817899152636528015e-03 4.785073921084403992e-03 3.180735185742378235e-02 8.506511338055133820e-03 -2.922163577750325203e-03 -8.174303919076919556e-03 -3.201830387115478516e-02 5.165668576955795288e-02 -1.835765433497726917e-04 -2.555632591247558594e-02 1.831079646944999695e-02 -2.328592166304588318e-02 -2.302666939795017242e-02 3.755812346935272217e-02 5.955033469945192337e-03 -1.167586818337440491e-02 5.258730426430702209e-02 3.840494528412818909e-02 -1.967440359294414520e-02 8.459656382910907269e-04 7.770672906190156937e-03 -4.913145676255226135e-02 -3.863292513415217400e-03 3.920282796025276184e-02 -1.334001775830984116e-02 -1.070431713014841080e-02 3.437453880906105042e-02 -5.770203657448291779e-03 -6.500577181577682495e-02 -8.247856795787811279e-02 2.153031900525093079e-02 -7.887405157089233398e-02 -8.967073261737823486e-02 6.773980334401130676e-03 -5.568008404225111008e-03 2.668195590376853943e-02 -5.003223940730094910e-02 2.162294258596375585e-04 -3.121208585798740387e-02 -3.957867622375488281e-02 -4.858340695500373840e-02 -1.054748799651861191e-02 3.302583470940589905e-02 3.665671125054359436e-02 -2.135337516665458679e-02 1.599902473390102386e-02 1.506971661001443863e-02 3.686088137328624725e-03 -2.541293948888778687e-02 -2.168498001992702484e-02 8.867835626006126404e-03 -1.415295992046594620e-02 2.105715312063694000e-02 -4.788696765899658203e-03 -1.921722106635570526e-02 4.328539595007896423e-02 -2.591210231184959412e-02 -9.448468685150146484e-02 -6.356590241193771362e-02 1.848822645843029022e-02 1.975052617490291595e-02 -1.152085419744253159e-02 -1.703930459916591644e-02 1.427052728831768036e-02 -2.535722218453884125e-02 1.384739880450069904e-03 -2.161928452551364899e-02 3.857235237956047058e-02 1.336891669780015945e-02 -2.365723624825477600e-02 -1.436510868370532990e-02 5.799221806228160858e-03 -1.350405365228652954e-01 -2.090151794254779816e-02 -6.435512751340866089e-02
-1.801930926740169525e-02 2.606495283544063568e-02 -4.889864102005958557e-02 -2.816986234392970800e-04 2.740719728171825409e-02 4.008476063609123230e-02 2.682939916849136353e-02 -6.360649317502975464e-02 -2.992578968405723572e-02 1.406817231327295303e-02 3.612507879734039307e-02 -5.517282988876104355e-03 6.270269304513931274e-02 -3.311620280146598816e-02 1.936409063637256622e-02 7.992216385900974274e-03 1.034503523260354996e-02 2.313419245183467865e-03 -1.844539307057857513e-02 9.144223295152187347e-03 2.326563000679016113e-02 4.618834331631660461e-02 1.047358196228742599e-02 1.642816327512264252e-02 1.241035014390945435e-02 -1.577741280198097229e-02 5.807706341147422791e-02 -9.638444171287119389e-04 8.924244903028011322e-03 2.131538465619087219e-02 -7.563825696706771851e-02 -1.507579069584608078e-02 -1.842895057052373886e-03 1.653205836191773415e-03 4.636808112263679504e-02 -3.060603886842727661e-02 -3.072463721036911011e-02 -7.711143698543310165e-03 -3.112745005637407303e-03 -1.742910593748092651e-02 -4.984863847494125366e-02 6.434263288974761963e-02 2.307969518005847931e-02 5.688713863492012024e-03 3.765154257416725159e-02 -9.940397925674915314e-03 -4.841810092329978943e-02 2.954024821519851685e-03 -3.633729740977287292e-02 -3.255870193243026733e-02 -4.233737289905548096e-02 -1.184958033263683319e-03 -2.614032663404941559e-02 -8.401338942348957062e-03 2.406952204182744026e-03 2.817946299910545349e-02 -8.280394831672310829e-04 6.596142798662185669e-02 3.792041912674903870e-02 -3.404910862445831299e-02 5.382354371249675751e-03 -1.199917495250701904e-02 4.312341287732124329e-02 5.332590639591217041e-02 -1.087460480630397797e-02 -1.646190881729125977e-02 -3.963555768132209778e-02 -7.895541377365589142e-03 9.213481843471527100e-02 1.413947343826293945e-02 4.219313710927963257e-02 -5.181059986352920532e-02 6.515370681881904602e-03 -1.903984695672988892e-02 2.050245366990566254e-02 -8.467460982501506805e-03 1.499049458652734756e-02 -3.741993755102157593e-02 9.469377808272838593e-03 -4.629454016685485840e-02 -1.081145461648702621e-02 -4.576613008975982666e-02 2.265808172523975372e-02 -9.946064651012420654e-02 -7.293927669525146484e-02 -4.417801275849342346e-03 -3.013030625879764557e-02 -1.869748346507549286e-02 4.960695281624794006e-03 1.615801826119422913e-02 1.190144941210746765e-02 8.695518225431442261e-02 7.528779655694961548e-02 3.624064102768898010e-02 -1.364714745432138443e-02 5.213711038231849670e-02 -2.503208070993423462e-02 8.382172323763370514e-03 -8.058387786149978638e-03 -2.676219865679740906e-02 -1.367793418467044830e-03 3.091629827395081520e-03 2.149699255824089050e-02 2.360968105494976044e-02 -4.374228883534669876e-03 -1.310513587668538094e-03 2.253621118143200874e-03 5.781444534659385681e-02 -2.805034630000591278e-03 5.160562694072723389e-03 -2.974490262567996979e-02 3.449706733226776123e-02 -1.725553907454013824e-02 1.031834445893764496e-02 5.787027999758720398e-02 7.981883361935615540e-03 1.862467615865170956e-04 5.200794711709022522e-02 -2.136566303670406342e-02 -2.477455884218215942e-02 2.220643451437354088e-03 5.431310739368200302e-03 -5.506566166877746582e-02 -2.691508643329143524e-02 1.525910920463502407e-03 5.729414988309144974e-03 -3.436028026044368744e-03 5.227056890726089478e-02 7.040613889694213867e-02 -2.345682308077812195e-02 -2.010239101946353912e-02 -3.233710303902626038e-02 -3.460294008255004883e-02 -1.809480786323547363e-02 2.664779871702194214e-02 -9.613937698304653168e-03 3.117977455258369446e-02 1.860444247722625732e-02 4.712640307843685150e-03 -3.166410373523831367e-03 -5.110148712992668152e-02 5.170033127069473267e-02 7.148240506649017334e-02 1.461542304605245590e-02 1.694748294539749622e-03 4.683930426836013794e-02 3.079859912395477295e-02 -4.843453876674175262e-03 1.706523075699806213e-02 3.860568255186080933e-02 7.435481995344161987e-02 -7.237859070301055908e-02 1.786937192082405090e-02 -8.795931935310363770e-03 9.575654752552509308e-03 2.745794132351875305e-02 8.273124694824218750e-03 3.316655009984970093e-02 4.695548117160797119e-02 3.184532746672630310e-02 2.178058784920722246e-04 4.892073571681976318e-02 -1.888646930456161499e-02 -1.153934188187122345e-02 -2.769490517675876617e-02 2.246923558413982391e-02 -3.382558748126029968e-02 -5.974106490612030029e-02 3.166299313306808472e-02 2.664291998371481895e-03 -8.327393978834152222e-02 5.526286549866199493e-03 -5.430100113153457642e-02 -7.818786799907684326e-02 -1.688649691641330719e-02 -6.329438090324401855e-02 5.876907333731651306e-02 1.254040189087390900e-02 8.437522687017917633e-03 6.390966475009918213e-02 5.608109757304191589e-02 -6.145517807453870773e-03 1.218358427286148071e-02 2.614637650549411774e-02 4.583872109651565552e-02 -2.771396189928054810e-02 2.463096007704734802e-02 -6.603785604238510132e-02 1.908936537802219391e-02 6.851076334714889526e-02 3.241958469152450562e-02 6.617032922804355621e-03 -4.966638609766960144e-02 6.254535168409347534e-03 -5.622203275561332703e-02 1.452552154660224915e-02 -4.356532171368598938e-02 3.847452253103256226e-02 7.365176826715469360e-02 -6.287025660276412964e-02 -1.972112059593200684e-02 2.584241330623626709e-02 4.646703600883483887e-02 -5.515889823436737061e-02 2.406419441103935242e-02 -1.886088401079177856e-02 2.063793316483497620e-02 3.667358832899481058e-04 -2.723917132243514061e-03 -2.984471991658210754e-02 2.027043141424655914e-02 -1.902490854263305664e-02 -1.687967404723167419e-02 -1.054836809635162354e-01 -2.928833710029721260e-03 2.678657136857509613e-02 6.537815090268850327e-03 6.270959973335266113e-02 1.385617721825838089e-02 -1.460216939449310303e-02 9.832815267145633698e-03 -1.523886248469352722e-02 -1.517092715948820114e-02 -1.132042612880468369e-02 -3.732519224286079407e-02 -9.428258053958415985e-03 7.873425632715225220e-02 1.925067789852619171e-02 1.605522353202104568e-03 -2.510164678096771240e-02 2.232733415439724922e-03 -1.497818902134895325e-02 -3.351394459605216980e-02 -4.191696178168058395e-03 3.006748855113983154e-02 1.190585549920797348e-02 -4.585407674312591553e-02 6.241548433899879456e-02 -2.726193331182003021e-02 -5.249402020126581192e-04 -3.563841804862022400e-02 -1.654065959155559540e-02 3.659788519144058228e-02 4.632223397493362427e-03 4.035876691341400146e-02 2.419967390596866608e-02 7.074877619743347168e-03 -6.183456629514694214e-03 4.112133756279945374e-03 1.875330507755279541e-02 1.843743771314620972e-02 1.712282560765743256e-02 -2.497646212577819824e-02 -4.826203733682632446e-02 -2.678968571126461029e-02 -6.585538387298583984e-02
-1.860048435628414154e-02 4.559895396232604980e-02 -1.889278739690780640e-02 1.469982974231243134e-02 -6.392273120582103729e-03 -6.278560031205415726e-04 -1.474241167306900024e-02 1.921403594315052032e-02 -2.163624204695224762e-02 -5.591301992535591125e-02 1.866107061505317688e-02 2.718305774033069611e-02 -4.078750498592853546e-03 8.048612624406814575e-03 -6.363684951793402433e-05 -2.196101238951086998e-03 -8.847761154174804688e-02 -1.103233546018600464e-02 1.097024790942668915e-02 1.704859733581542969e-02 1.649776357226073742e-03 -3.778066113591194153e-02 1.451322622597217560e-02 -7.050479203462600708e-02 -6.096750870347023010e-02 9.965080767869949341e-03 2.398583851754665375e-02 2.722643502056598663e-02 8.999465964734554291e-03 5.750088952481746674e-03 3.181864321231842041e-02 -1.262457109987735748e-02 -1.463683694601058960e-02 1.897098124027252197e-02 -8.190139196813106537e-03 4.953578114509582520e-03 -5.214632488787174225e-03 -4.575764015316963196e-02 -5.785130430012941360e-03 1.046733278781175613e-02 -8.401991426944732666e-02 3.737499937415122986e-02 1.049474440515041351e-02 4.827516153454780579e-02 -9.016399085521697998e-02 -2.788565866649150848e-02 -1.305422093719244003e-02 -5.384319461882114410e-03 -1.447247806936502457e-03 6.655467674136161804e-03 1.671383529901504517e-02 6.912340410053730011e-03 2.029332891106605530e-02 -2.491854503750801086e-02 1.260939519852399826e-02 6.230311468243598938e-03 5.384135246276855469e-02 -8.642712607979774475e-03 1.498186029493808746e-02 -4.998265951871871948e-02 6.029746681451797485e-02 -1.826332136988639832e-02 -3.243104089051485062e-03 -4.810078069567680359e-02 2.171807689592242241e-03 -2.242694795131683350e-02 1.867084391415119171e-02 -4.872928839176893234e-03 -1.267614681273698807e-02 1.471384055912494659e-02 1.689886674284934998e-02 1.984678581357002258e-02 -6.813054531812667847e-02 -2.142401412129402161e-02 1.472648605704307556e-02 2.096687443554401398e-02 3.053303807973861694e-02 4.879139363765716553e-02 -1.813303795643150806e-03 1.160754263401031494e-02 -1.107710646465420723e-03 -2.645053528249263763e-02 -2.008580043911933899e-02 2.179083041846752167e-02 6.111234053969383240e-02 2.396363019943237305e-02 1.732826046645641327e-02 -3.665213286876678467e-02 -1.867043040692806244e-02 3.879596013575792313e-03 -4.515948519110679626e-02 3.125319257378578186e-02 7.958125323057174683e-02 3.204295039176940918e-02 -6.243892014026641846e-03 -4.540790989995002747e-02 -2.263324148952960968e-02 -4.528090823441743851e-03 1.791134662926197052e-02 1.320018805563449860e-02 -1.843466423451900482e-02 3.275345312431454659e-03 -1.405256241559982300e-02 8.082774467766284943e-03 -8.733693510293960571e-03 3.182300925254821777e-02 -2.333436859771609306e-03 5.210389848798513412e-03 2.439164370298385620e-02 -1.219518110156059265e-02 -1.949059218168258667e-02 -2.474323101341724396e-02 -9.820642881095409393e-03 -8.809924125671386719e-03 -4.135049134492874146e-02 -2.696109004318714142e-02 2.419191226363182068e-02 -9.653399698436260223e-03 1.277396921068429947e-02 -2.165184356272220612e-02 -5.764158908277750015e-03 -2.744792029261589050e-02 1.606179401278495789e-02 1.233940664678812027e-02 -4.563963785767555237e-02 -2.951808040961623192e-03 2.097035571932792664e-02 8.910495787858963013e-03 -2.193098887801170349e-03 -5.567581392824649811e-04 -1.329572033137083054e-02 2.259580884128808975e-03 -3.517308086156845093e-02 -3.698872169479727745e-03 -4.523511961451731622e-06 1.910997927188873291e-02 7.437396049499511719e-02 1.097268052399158478e-02 -7.245158776640892029e-04 -2.842001989483833313e-02 -9.219930507242679596e-03 2.474756538867950439e-02 4.066157341003417969e-02 3.012529015541076660e-02 -7.627379149198532104e-03 -2.554419636726379395e-02 7.829505018889904022e-03 3.070185333490371704e-02 -6.666536442935466766e-03 -8.599287830293178558e-03 -2.576699852943420410e-02 1.176093667745590210e-01 -2.151719108223915100e-02 5.554496892727911472e-04 4.261315625626593828e-04 -2.227956242859363556e-02 1.921307295560836792e-02 4.435428418219089508e-03 -4.588660597801208496e-02 1.721761189401149750e-02 -3.096943348646163940e-02 -2.784708701074123383e-02 4.709492251276969910e-02 9.324762970209121704e-02 3.429359197616577148e-02 2.034021541476249695e-02 4.145490005612373352e-02 9.295158088207244873e-02 2.190477401018142700e-02 -8.046816103160381317e-03 -4.314877837896347046e-02 -5.971509497612714767e-03 1.739494875073432922e-02 -1.011974643915891647e-02 5.201971507631242275e-04 -1.025786437094211578e-02 -1.350750774145126343e-02 -1.558450236916542053e-02 1.687736622989177704e-02 7.896764576435089111e-02 -2.558334916830062866e-02 -6.091602146625518799e-03 -1.824949309229850769e-02 9.129981510341167450e-03 -4.778363555669784546e-02 2.568042837083339691e-03 -6.685866415500640869e-02 3.718880936503410339e-03 -1.826625503599643707e-02 4.342388734221458435e-02 -1.727318949997425079e-02 1.495315320789813995e-02 1.237473171204328537e-02 1.185890659689903259e-02 8.617431856691837311e-03 3.831082023680210114e-03 1.234341133385896683e-02 5.370443686842918396e-04 -5.533959716558456421e-03 1.185619086027145386e-02 -2.598823420703411102e-02 -7.604850921779870987e-03 5.817631632089614868e-02 5.572272837162017822e-02 3.217989578843116760e-02 -3.635019436478614807e-02 3.631034493446350098e-02 2.941450476646423340e-02 -4.371799994260072708e-03 2.274715807288885117e-03 -4.178021568804979324e-03 -2.372547425329685211e-02 2.319219149649143219e-02 -1.887379959225654602e-02 1.633381284773349762e-02 -3.413816448301076889e-03 1.796430908143520355e-02 -2.000988926738500595e-03 1.481198519468307495e-02 -2.327598072588443756e-02 -1.016280706971883774e-02 -1.677894406020641327e-02 -3.016163036227226257e-02 -3.248489648103713989e-02 2.324041444808244705e-03 -5.359557922929525375e-03 1.302851270884275436e-02 -1.803303509950637817e-02 -3.941471502184867859e-02 2.193071413785219193e-03 4.913039971143007278e-03 2.170604653656482697e-02 5.980755388736724854e-02 4.415941983461380005e-02 -1.959282904863357544e-03 2.013361454010009766e-02 2.861321903765201569e-02 5.232723895460367203e-03 -3.795933444052934647e-03 -7.818130403757095337e-02 -1.229147333651781082e-02 2.766463346779346466e-02 -4.185875877737998962e-03 -6.256086379289627075e-02 2.337408438324928284e-02 -3.049584850668907166e-02 -2.312565594911575317e-02 -1.491136755794286728e-02 -1.261388603597879410e-02 -1.171975978650152683e-03 -6.246088072657585144e-02 -2.085524424910545349e-02 -4.753066599369049072e-02 3.452757745981216431e-02 5.623078346252441406e-02 -2.026935108006000519e-03
-6.114388088462874293e-05 1.174725964665412903e-02 -5.108322482556104660e-03 5.473190918564796448e-02 -5.373350903391838074e-02 -2.686610678210854530e-03 -6.194161251187324524e-02 -4.307546652853488922e-03 -9.915237314999103546e-03 1.230634283274412155e-02 -1.020844466984272003e-02 1.316605787724256516e-02 -5.019028857350349426e-02 2.680864371359348297e-02 -2.633981034159660339e-02 -4.458682145923376083e-03 1.389768067747354507e-02 -2.038245089352130890e-02 5.959815345704555511e-03 -8.507294580340385437e-03 -4.749842360615730286e-02 6.059124693274497986e-02 1.039470955729484558e-01 -6.159186828881502151e-03 -4.659126512706279755e-03 -5.699723586440086365e-02 4.882436990737915039e-02 3.209210466593503952e-03 1.482602953910827637e-02 -4.390158131718635559e-02 1.413812022656202316e-02 -1.386266481131315231e-02 3.967010602355003357e-02 -1.595650985836982727e-02 6.808450073003768921e-02 -4.504670388996601105e-03 -2.127858996391296387e-02 -4.061755165457725525e-02 -7.497397065162658691e-02 -4.499656334519386292e-02 1.390530914068222046e-02 2.775919437408447266e-02 3.572779893875122070e-02 1.111395377665758133e-02 3.849309310317039490e-02 3.009430505335330963e-02 -7.056017965078353882e-02 -7.257550954818725586e-02 -2.982708439230918884e-02 -2.464008517563343048e-02 3.661203756928443909e-02 -1.152501534670591354e-02 -2.694170735776424408e-02 -7.126899808645248413e-02 -1.244621817022562027e-03 -6.116772443056106567e-02 -1.672593317925930023e-02 5.372012034058570862e-02 5.767495557665824890e-02 -5.430458858609199524e-02 -4.594301804900169373e-02 -8.669844828546047211e-03 -9.432850033044815063e-02 8.190803229808807373e-02 2.496545203030109406e-02 5.162715166807174683e-02 -1.643314585089683533e-02 -1.181013695895671844e-02 9.919417090713977814e-03 -3.876836225390434265e-02 5.605489760637283325e-02 4.577565705403685570e-04 1.275504706427454948e-03 -3.620842844247817993e-02 4.907254502177238464e-02 5.932347849011421204e-03 -5.567556619644165039e-02 -5.933899898082017899e-03 4.623851925134658813e-02 -1.373858097940683365e-02 4.369938373565673828e-02 -1.139760017395019531e-01 1.897607930004596710e-02 6.503511685878038406e-04 -2.312528155744075775e-02 -2.115993015468120575e-02 -3.947613015770912170e-02 1.122672855854034424e-02 3.303856775164604187e-02 4.957713931798934937e-02 2.700688317418098450e-02 3.498549386858940125e-02 -3.461071848869323730e-02 4.463015496730804443e-02 2.404655329883098602e-02 5.711406841874122620e-02 -6.788443773984909058e-02 1.294450927525758743e-02 -3.887246549129486084e-02 -5.384742096066474915e-02 2.120451629161834717e-02 -4.938797280192375183e-02 3.090191818773746490e-02 2.248061262071132660e-02 -2.482266910374164581e-02 -7.781118154525756836e-02 1.116251107305288315e-02 1.026923432946205139e-01 -3.370136395096778870e-02 3.052266128361225128e-02 -2.489159815013408661e-02 -5.466707050800323486e-02 -1.773888804018497467e-02 -2.330965176224708557e-02 5.278309434652328491e-02 -2.987577393651008606e-02 -3.809296060353517532e-03 -3.127908101305365562e-03 5.487909540534019470e-03 7.498482707887887955e-03 -4.587635397911071777e-03 -5.197620764374732971e-02 4.257347062230110168e-02 2.372089773416519165e-03 -1.118462905287742615e-02 6.894418969750404358e-03 -8.438835851848125458e-03 -1.497639995068311691e-02 -9.921296499669551849e-03 -7.581451535224914551e-02 -6.541239470243453979e-02 4.216545727103948593e-03 -3.412377461791038513e-02 -7.106290757656097412e-02 -3.182767704129219055e-02 6.287858635187149048e-02 4.199006594717502594e-03 9.814506396651268005e-03 -5.873937532305717468e-02 9.014581888914108276e-02 4.068095982074737549e-02 1.146937720477581024e-02 2.087857387959957123e-02 5.041091516613960266e-02 -5.204859003424644470e-02 2.432091534137725830e-02 -8.404751308262348175e-03 3.504882566630840302e-03 5.653629824519157410e-02 4.214058071374893188e-02 5.713352933526039124e-02 -6.263284012675285339e-03 3.893019631505012512e-02 1.533430907875299454e-02 -2.212479896843433380e-02 9.709707461297512054e-03 -5.155114829540252686e-02 5.101058632135391235e-03 -1.535776257514953613e-02 -5.512920767068862915e-02 1.256332546472549438e-01 4.645716398954391479e-02 -7.320115715265274048e-02 4.948388785123825073e-02 6.479274481534957886e-02 4.218921437859535217e-02 -2.724856697022914886e-02 -7.710631936788558960e-02 1.643539778888225555e-02 -1.505466364324092865e-02 4.733708500862121582e-02 6.313446164131164551e-02 -2.255240455269813538e-02 -8.420772105455398560e-02 4.665770754218101501e-02 1.746043190360069275e-02 -2.509328722953796387e-02 -1.331560499966144562e-02 2.269112877547740936e-02 5.050244275480508804e-03 -2.107258653268218040e-03 -3.169413190335035324e-03 7.879690080881118774e-02 6.119522079825401306e-02 -2.501125447452068329e-02 2.187421731650829315e-02 3.017011471092700958e-02 4.149748757481575012e-02 7.310582790523767471e-03 6.258042901754379272e-02 2.578929066658020020e-02 1.696048676967620850e-02 6.237221881747245789e-02 -1.028102263808250427e-02 2.069733664393424988e-02 3.018958680331707001e-02 2.330806106328964233e-02 6.731539219617843628e-02 -3.558811545372009277e-02 -6.012984365224838257e-02 -5.684842541813850403e-02 -7.122145034372806549e-03 -1.140974648296833038e-02 -7.633276283740997314e-02 -2.278307452797889709e-02 -2.770065702497959137e-02 -4.072798788547515869e-02 -2.460675314068794250e-03 -2.848944999277591705e-02 -5.277813877910375595e-03 8.766353875398635864e-02 -1.985233509913086891e-03 -2.019040659070014954e-02 -2.110967645421624184e-03 -1.447029784321784973e-02 -4.410271719098091125e-02 -1.803755201399326324e-02 -6.546779721975326538e-02 -2.772405045107007027e-03 6.090163066983222961e-02 -2.411586232483386993e-02 -3.490414842963218689e-02 -7.488079369068145752e-02 1.348179485648870468e-02 3.682381659746170044e-02 2.808230742812156677e-02 -3.711290284991264343e-02 -2.360335737466812134e-02 -7.145904749631881714e-02 -1.942259632050991058e-02 -5.083122290670871735e-03 6.559558957815170288e-02 -3.034101240336894989e-02 -3.644843026995658875e-02 -5.542392842471599579e-03 -8.581370860338211060e-02 -5.181757733225822449e-02 -2.763049118220806122e-02 -2.958923019468784332e-02 5.684530828148126602e-03 -4.971170797944068909e-02 1.093953028321266174e-01 2.565318485721945763e-03 5.340394377708435059e-02 1.775128953158855438e-02 -3.086642362177371979e-02 -9.364887140691280365e-03 -4.744319990277290344e-02 -1.949422806501388550e-02 1.501811295747756958e-02 4.489865899085998535e-02 -8.309762924909591675e-02 3.213652968406677246e-02 -2.387698739767074585e-02 9.502683579921722412e-02 7.192609459161758423e-02
