5.918391421437263489e-02 2.390512824058532715e-02 3.809851035475730896e-02 8.343753218650817871e-02 3.983740508556365967e-02 -3.922192845493555069e-03 -4.771174117922782898e-02 -4.491374269127845764e-02 4.384244978427886963e-02 4.169027879834175110e-02 -1.821241900324821472e-02 -6.033365428447723389e-02 1.916591078042984009e-02 -2.941329218447208405e-02 -3.613829985260963440e-02 4.632169380784034729e-02 1.922481134533882141e-02 -1.295010838657617569e-02 3.204916045069694519e-02 -2.420563064515590668e-02 2.414553612470626831e-02 -3.552463278174400330e-02 -1.019957009702920914e-02 9.201139211654663086e-03 -8.139409124851226807e-02 2.802206203341484070e-02 -6.766943261027336121e-04 3.836424276232719421e-02 2.682283893227577209e-02 -5.318844225257635117e-03 -2.994479611515998840e-02 -6.260845065116882324e-02 1.920405030250549316e-02 3.098954260349273682e-02 -2.323984913527965546e-02 1.521586347371339798e-02 5.419431254267692566e-02 -4.826868325471878052e-02 -1.367691066116094589e-02 -1.783264428377151489e-02 -9.543306380510330200e-02 1.661504432559013367e-02 -3.584217512980103493e-03 2.603223361074924469e-02 6.616207957267761230e-02 -5.464887619018554688e-02 -2.218271978199481964e-02 -3.606415539979934692e-02 -1.516365632414817810e-02 -2.116237208247184753e-02 -7.408268284052610397e-03 -2.458072081208229065e-02 1.281996257603168488e-02 5.235478281974792480e-02 -3.315000236034393311e-02 -3.793382644653320312e-02 -3.162970766425132751e-02 2.840023115277290344e-02 2.670267038047313690e-02 3.493232652544975281e-04 -1.918255910277366638e-02 6.837358325719833374e-02 -2.467571012675762177e-02 1.920769363641738892e-02 7.155301049351692200e-03 -2.559233829379081726e-02 4.424336832016706467e-03 3.521823789924383163e-03 1.167637016624212265e-02 1.755111664533615112e-02 -8.038136176764965057e-03 -6.149156764149665833e-02 4.853019863367080688e-02 5.224726721644401550e-02 -2.382287383079528809e-02 2.654686756432056427e-02 -2.508316002786159515e-02 3.622774407267570496e-02 5.794564262032508850e-03 3.638900443911552429e-02 4.010726511478424072e-02 5.832422059029340744e-03 4.147547855973243713e-02 -1.789438724517822266e-02 2.598708495497703552e-02 -1.909214630722999573e-02 4.159472882747650146e-02 -1.433979254215955734e-02 2.846551686525344849e-02 -8.444140665233135223e-03 2.228869870305061340e-02 -3.673929348587989807e-02 2.009617164731025696e-02 6.678356230258941650e-02 3.496982157230377197e-02 -6.171045824885368347e-02 -8.742883056402206421e-02 -1.001419033855199814e-02 1.129286177456378937e-02 -1.963954605162143707e-02 -3.234210982918739319e-02 -2.140530012547969818e-02 1.557799149304628372e-02 -4.779380559921264648e-02 -3.911300003528594971e-02 -3.306822478771209717e-02 3.356041014194488525e-02 -1.287958119064569473e-02 2.234335057437419891e-02 8.218536153435707092e-03 1.447925064712762833e-02 4.025392234325408936e-02 -1.983666047453880310e-02 -4.668132588267326355e-02 -1.999576203525066376e-02 8.012896403670310974e-03 4.505313932895660400e-03 -2.808876894414424896e-02 -6.808298081159591675e-02 -7.423845119774341583e-03 1.745547913014888763e-02 -1.759131997823715210e-02 -6.059925258159637451e-02 -8.257222361862659454e-03 -5.785709246993064880e-02 -6.824491173028945923e-02 -3.426608815789222717e-02 3.305454272776842117e-03 9.693703614175319672e-03 5.462739989161491394e-02 6.207847967743873596e-02 -2.243444137275218964e-02 1.103522442281246185e-02 -4.105476196855306625e-03 -1.464133989065885544e-02 2.120404131710529327e-02 -2.383102662861347198e-02 -2.455784194171428680e-02 5.047689378261566162e-02 5.497321113944053650e-02 -2.972686290740966797e-02 -5.888604000210762024e-02 7.307928986847400665e-03 -7.634440064430236816e-02 -3.147548437118530273e-02 7.057547103613615036e-03 2.586800791323184967e-02 -3.379981964826583862e-02 2.490855194628238678e-02 1.535845361649990082e-02 -3.196782665327191353e-03 -5.079794302582740784e-02 1.612863875925540924e-02 -9.000356309115886688e-03 -1.931187883019447327e-02 1.362389698624610901e-02 2.229066193103790283e-02 -1.153995376080274582e-02 5.132712889462709427e-03 9.232047013938426971e-03 -4.635361209511756897e-02 1.075673755258321762e-02 4.351513925939798355e-03 -2.392448950558900833e-03 -5.606073536910116673e-04 -6.497167795896530151e-02 5.072453618049621582e-02 -4.141570627689361572e-02 1.725334487855434418e-02 -1.490216236561536789e-02 9.166647680103778839e-03 -3.479369916021823883e-03 -1.763789169490337372e-02 -2.187884412705898285e-02 -8.930394053459167480e-02 -1.748383394442498684e-03 6.694125384092330933e-02 -1.257916167378425598e-02 -3.083889558911323547e-02 -9.158555418252944946e-02 -7.334079127758741379e-03 4.428364336490631104e-02 -5.189427733421325684e-02 2.095630392432212830e-02 7.753932476043701172e-02 1.609710045158863068e-02 2.938001044094562531e-02 3.011227212846279144e-02 1.153121329843997955e-02 2.006473205983638763e-02 1.999714225530624390e-02 1.108216121792793274e-02 4.429100826382637024e-02 7.892386615276336670e-02 7.129954639822244644e-03 3.481252118945121765e-02 6.607334315776824951e-02 4.492563381791114807e-02 3.229586780071258545e-02 -1.156352367252111435e-02 -1.742704398930072784e-02 4.721393808722496033e-03 -1.399084227159619331e-03 8.036203682422637939e-03 1.315344683825969696e-02 4.999778699129819870e-03 -1.361148059368133545e-02 -5.818596854805946350e-02 6.790081504732370377e-03 -1.893930323421955109e-02 2.185490168631076813e-02 -8.977783843874931335e-03 -1.884472090750932693e-03 1.102554239332675934e-02 2.848797850310802460e-02 3.430777462199330330e-03 -6.789726763963699341e-02 5.941346171312034130e-04 7.498829159885644913e-03 -7.117774337530136108e-02 -3.454841673374176025e-02 2.953826636075973511e-02 -2.255050837993621826e-02 -4.887015093117952347e-03 2.167134732007980347e-02 2.226823940873146057e-02 4.380841553211212158e-02 1.778453588485717773e-02 -1.434344612061977386e-02 7.402125280350446701e-03 -1.985309086740016937e-02 4.476243630051612854e-02 -3.173277480527758598e-03 1.458126492798328400e-02 1.323249004781246185e-02 -4.581970348954200745e-02 2.301085554063320160e-02 2.603705972433090210e-02 1.052008196711540222e-02 2.274088189005851746e-02 -3.297258540987968445e-02 2.435328811407089233e-02 -1.064457651227712631e-02 6.440053693950176239e-03 -1.071645994670689106e-03 -4.308111593127250671e-02 -1.705337688326835632e-02 -4.145175917074084282e-04 5.313672125339508057e-03 3.302078321576118469e-02 -3.703055903315544128e-02 2.300837635993957520e-02 2.597001940011978149e-02 -5.725269764661788940e-02 -5.482942610979080200e-02 2.697435021400451660e-02
2.155549824237823486e-02 1.353537011891603470e-02 -4.822710528969764709e-02 -1.856637746095657349e-02 -4.026769474148750305e-02 -2.296052174642682076e-03 2.367543987929821014e-03 -2.417963370680809021e-02 -9.079527109861373901e-02 -1.097602769732475281e-02 3.706325590610504150e-02 9.756780229508876801e-03 3.006842546164989471e-02 6.432793568819761276e-03 -2.464690059423446655e-02 1.719162799417972565e-02 6.870839744806289673e-02 2.266819216310977936e-02 -9.863781742751598358e-04 1.995753310620784760e-02 1.339390594512224197e-02 3.440497210249304771e-03 2.885995991528034210e-02 -4.988916963338851929e-02 -7.574745919555425644e-03 2.409116830676794052e-03 -4.123067483305931091e-02 1.514089200645685196e-02 3.790199756622314453e-02 -2.967819198966026306e-02 -3.123612143099308014e-02 7.628162391483783722e-03 4.392280802130699158e-02 5.012483522295951843e-02 3.047444112598896027e-02 -2.690960187464952469e-03 7.082067430019378662e-02 -2.252588234841823578e-02 -1.040403395891189575e-01 4.581193905323743820e-03 -5.961507558822631836e-02 3.592965379357337952e-02 8.183336257934570312e-02 -8.295591920614242554e-03 -5.864363629370927811e-04 -2.358520030975341797e-02 -6.780195236206054688e-02 1.793845742940902710e-02 -2.737909788265824318e-03 -1.749514974653720856e-02 -1.536583714187145233e-02 -4.581451788544654846e-02 4.477283358573913574e-02 3.197881206870079041e-02 3.128446266055107117e-02 -5.106465145945549011e-02 1.775421947240829468e-02 4.448187723755836487e-02 7.117867004126310349e-03 -1.424803747795522213e-03 4.875277355313301086e-02 5.402683839201927185e-02 -8.358761668205261230e-02 -2.994545735418796539e-02 2.802266553044319153e-02 2.781919669359922409e-03 2.860027551651000977e-02 -1.150924991816282272e-02 -3.851097449660301208e-02 -1.119768805801868439e-02 -1.408288255333900452e-02 -2.866018796339631081e-03 1.409162115305662155e-02 2.966712228953838348e-02 -7.735444698482751846e-03 7.827525585889816284e-02 1.500610634684562683e-02 -3.395726904273033142e-02 -4.917605221271514893e-02 1.285635679960250854e-02 2.902644872665405273e-02 -1.011628843843936920e-02 2.077925950288772583e-02 1.614462118595838547e-03 -4.308528453111648560e-02 5.008208751678466797e-02 -8.940867148339748383e-03 4.823869466781616211e-02 4.876879230141639709e-02 -8.632257580757141113e-03 1.990966126322746277e-02 1.336897443979978561e-02 1.252052374184131622e-02 -5.671191588044166565e-02 -1.510239206254482269e-02 2.514366991817951202e-02 -6.858404725790023804e-02 -9.721926413476467133e-03 4.195835068821907043e-02 3.702757135033607483e-02 -5.452739540487527847e-03 2.707955427467823029e-03 6.291738711297512054e-03 4.179141484200954437e-03 4.253333061933517456e-02 -6.735176779329776764e-03 6.891601253300905228e-03 -6.788767129182815552e-02 4.084436222910881042e-02 -5.788169801235198975e-03 -3.480897471308708191e-02 -1.051732432097196579e-02 3.023259900510311127e-02 -3.754875436425209045e-02 -9.433357045054435730e-03 -1.949490862898528576e-03 1.065759733319282532e-02 -2.477600798010826111e-02 -1.061438582837581635e-03 -3.332917019724845886e-02 5.715440493077039719e-03 -3.347773104906082153e-02 4.329254850745201111e-02 1.443654000759124756e-01 1.597624458372592926e-02 -9.959477465599775314e-04 3.821258991956710815e-02 5.921502038836479187e-02 2.253058739006519318e-02 2.344242855906486511e-02 -8.801111951470375061e-03 3.810433670878410339e-02 -5.240899324417114258e-02 -5.182427540421485901e-02 -3.368102386593818665e-02 1.058950275182723999e-02 9.600069373846054077e-03 2.984273992478847504e-02 -1.008439250290393829e-02 9.085410088300704956e-02 -4.378332197666168213e-02 1.335501903668045998e-03 2.165302447974681854e-02 -3.467025607824325562e-02 -8.594703860580921173e-03 -3.272883966565132141e-02 -2.032001130282878876e-02 4.283557087182998657e-02 -4.451638460159301758e-02 1.228185072541236877e-01 -3.552184253931045532e-02 -1.244643330574035645e-02 -1.149707958102226257e-01 -6.780961155891418457e-02 -1.137673202902078629e-02 -1.205213461071252823e-02 4.965418204665184021e-02 -4.883061721920967102e-02 -3.243615617975592613e-03 -7.129853218793869019e-02 2.342702448368072510e-02 3.761269152164459229e-02 5.228326469659805298e-02 -1.683278754353523254e-02 7.069592177867889404e-02 -4.612575843930244446e-02 -6.844157725572586060e-02 4.093939438462257385e-02 7.551863789558410645e-02 -8.762055076658725739e-03 -2.036211453378200531e-02 2.547921054065227509e-02 1.682225614786148071e-02 -5.835203453898429871e-03 -2.740871161222457886e-02 4.541093483567237854e-03 2.836460953403729945e-05 -2.152419462800025940e-02 7.621487230062484741e-02 2.873536385595798492e-02 -1.076051779091358185e-02 -7.049934938549995422e-03 3.549066931009292603e-02 -2.640494517982006073e-02 4.076771438121795654e-02 2.254901081323623657e-02 -7.346228510141372681e-02 2.041436731815338135e-02 4.381832480430603027e-02 -2.460256032645702362e-02 2.744494751095771790e-02 3.808656334877014160e-02 -4.110010713338851929e-02 -4.952681437134742737e-02 -3.821072727441787720e-02 -4.241165891289710999e-02 -1.744463481009006500e-02 2.618610300123691559e-02 1.486969739198684692e-02 -4.668067768216133118e-02 1.758822426199913025e-02 1.743111200630664825e-02 -2.807620447129011154e-03 3.684714064002037048e-02 3.050908632576465607e-02 6.835944950580596924e-02 7.263915985822677612e-02 -1.909681968390941620e-02 -3.901023045182228088e-02 7.300653308629989624e-02 2.343770489096641541e-02 -5.425497889518737793e-02 -2.751530334353446960e-02 -1.829946786165237427e-02 2.322450093924999237e-02 -7.512498646974563599e-02 3.428237512707710266e-02 -1.881445385515689850e-02 -4.531260579824447632e-02 -2.025663666427135468e-02 -2.098394185304641724e-02 -4.767131526023149490e-03 3.377947211265563965e-02 7.827841676771640778e-03 4.478363692760467529e-02 -3.748909384012222290e-02 -3.581401705741882324e-02 1.231249980628490448e-02 1.289118360728025436e-02 9.643073193728923798e-03 5.479707196354866028e-02 7.044086698442697525e-03 -7.599923759698867798e-03 -1.055848435498774052e-03 2.545279264450073242e-02 3.877598419785499573e-02 6.037944182753562927e-02 2.768257074058055878e-02 2.685847505927085876e-02 1.158050075173377991e-02 -2.139421366155147552e-02 3.761963918805122375e-03 -3.399356082081794739e-02 -3.053241595625877380e-02 -7.030113786458969116e-02 3.370784595608711243e-02 -3.396772593259811401e-02 1.400193292647600174e-02 1.221727766096591949e-02 -4.623730201274156570e-03 -3.863114863634109497e-02 -1.926590688526630402e-02 3.423763439059257507e-02 5.639389902353286743e-02 6.101861596107482910e-02 6.305002421140670776e-02
3.948432952165603638e-02 -6.230342551134526730e-04 2.768447808921337128e-02 2.554004453122615814e-02 6.138667091727256775e-02 1.478358730673789978e-02 -6.785120069980621338e-02 5.576787516474723816e-02 -4.272208316251635551e-04 3.021835815161466599e-03 -8.480315445922315121e-04 8.629687875509262085e-02 -2.153961919248104095e-02 -5.923983640968799591e-03 4.038447514176368713e-02 -5.142380297183990479e-02 -1.608012244105339050e-02 3.769448772072792053e-02 3.287159278988838196e-02 -1.224226085469126701e-03 5.767199210822582245e-03 -5.766821280121803284e-02 2.544903894886374474e-03 3.296054527163505554e-02 4.979194328188896179e-02 -3.246175870299339294e-02 -1.405881345272064209e-02 -1.218624599277973175e-02 3.528636693954467773e-02 2.447014302015304565e-02 4.169610887765884399e-02 -1.578416116535663605e-02 -4.923859611153602600e-02 -4.038755968213081360e-02 1.965972222387790680e-02 -5.583613738417625427e-02 1.989906467497348785e-02 3.257038444280624390e-02 6.674633920192718506e-02 -2.782410383224487305e-02 -6.166032981127500534e-03 1.762380078434944153e-02 1.081004273146390915e-03 3.501678630709648132e-02 -3.296082466840744019e-02 -5.065408349037170410e-02 -4.934822022914886475e-02 -3.282027319073677063e-02 -2.994611300528049469e-02 1.677047275006771088e-02 -1.863862946629524231e-02 2.299929410219192505e-02 -7.637633010745048523e-03 -2.436547167599201202e-02 2.704430930316448212e-02 -9.207630529999732971e-03 3.183987736701965332e-02 -4.001006856560707092e-02 -1.777134276926517487e-02 3.587513044476509094e-02 -2.480899542570114136e-02 -7.277844473719596863e-03 3.078436106443405151e-02 4.420984163880348206e-02 7.148789591155946255e-04 -6.235394999384880066e-02 -2.540174685418605804e-02 6.417745351791381836e-02 9.188759140670299530e-03 -1.341422647237777710e-02 4.857890307903289795e-02 4.510451108217239380e-03 -5.524361506104469299e-02 5.478608235716819763e-02 -3.176926821470260620e-02 4.119883477687835693e-02 -1.568577066063880920e-02 1.638016663491725922e-02 7.479327172040939331e-02 -1.781584881246089935e-02 -5.906169116497039795e-02 -1.871239021420478821e-02 3.726674010977149010e-03 5.256143631413578987e-04 -5.816991440951824188e-03 -7.702204864472150803e-03 1.915099658071994781e-02 -3.294014185667037964e-02 -5.336778238415718079e-03 3.435093164443969727e-02 -1.463362108916044235e-02 -1.618788577616214752e-02 4.710391536355018616e-02 -3.144054487347602844e-02 3.828389337286353111e-03 -6.703378632664680481e-03 2.428385661914944649e-03 -3.257126733660697937e-02 2.181718125939369202e-02 -2.419627830386161804e-02 2.671285159885883331e-02 -3.885364904999732971e-02 -4.889205098152160645e-03 -1.257682740688323975e-01 -2.778675640001893044e-03 1.917069079354405403e-03 -5.701552145183086395e-03 1.204871572554111481e-02 1.855921745300292969e-02 4.445341601967811584e-02 -3.735847538337111473e-03 2.630556002259254456e-02 -5.529871210455894470e-03 -7.091007195413112640e-03 5.121691618114709854e-03 3.196188434958457947e-02 4.609766975045204163e-02 3.560876846313476562e-02 1.762363873422145844e-02 4.848859459161758423e-02 8.408068679273128510e-03 3.248604945838451385e-03 2.299718558788299561e-02 2.897866629064083099e-02 4.070702195167541504e-02 3.869461640715599060e-02 -2.075601741671562195e-02 7.149802986532449722e-03 1.216666772961616516e-02 2.951565198600292206e-03 -1.021180208772420883e-02 7.558526471257209778e-03 5.427421070635318756e-03 -2.461183629930019379e-02 -7.267673499882221222e-03 -4.143505170941352844e-02 2.258616685867309570e-02 3.386599197983741760e-02 -3.609636053442955017e-02 -2.213250845670700073e-02 -3.602928714826703072e-03 -2.780574746429920197e-02 -1.682483777403831482e-02 -5.390843003988265991e-02 3.134715603664517403e-03 2.850305289030075073e-03 1.411765534430742264e-02 -2.338691614568233490e-02 2.697914838790893555e-03 3.285268088802695274e-03 4.260820895433425903e-02 -7.634926587343215942e-03 -1.141230389475822449e-02 2.234173007309436798e-02 -3.132651001214981079e-02 -4.330124706029891968e-03 -1.506464835256338120e-02 1.989507488906383514e-02 -5.747319664806127548e-03 -2.252005785703659058e-02 4.411022365093231201e-02 1.088519860059022903e-02 -1.173457689583301544e-02 -1.887826249003410339e-02 -3.067587036639451981e-03 2.036921866238117218e-02 5.260165780782699585e-02 -1.534786075353622437e-02 -5.667380616068840027e-02 -4.886376112699508667e-02 2.774802967905998230e-02 5.504755768924951553e-03 7.424129638820886612e-03 -5.383267998695373535e-02 4.412226751446723938e-02 4.880434274673461914e-02 1.145672705024480820e-02 3.971801698207855225e-02 5.215412005782127380e-02 -6.746329367160797119e-02 5.872391164302825928e-02 -1.918126828968524933e-02 -9.062983095645904541e-02 4.083273932337760925e-02 4.806525632739067078e-02 4.777443408966064453e-02 -3.867840021848678589e-02 -1.586444303393363953e-02 -5.429336056113243103e-02 1.236575096845626831e-02 7.884538732469081879e-03 3.061572322621941566e-03 -1.367030479013919830e-02 2.106865681707859039e-02 2.977220341563224792e-02 -2.744767442345619202e-02 2.849989570677280426e-02 -3.915762156248092651e-02 2.976956777274608612e-02 2.842636220157146454e-02 -4.749814048409461975e-02 -7.701712101697921753e-02 -2.498043887317180634e-02 4.528554901480674744e-02 -2.822339348495006561e-02 -1.132737286388874054e-02 1.158034428954124451e-02 -5.038451775908470154e-02 -3.469356894493103027e-02 4.173561185598373413e-02 1.467947103083133698e-02 -1.756950467824935913e-02 -2.969573624432086945e-02 -8.594390004873275757e-02 -2.167056128382682800e-02 3.887050598859786987e-02 3.647165000438690186e-02 2.263084240257740021e-02 -3.791498392820358276e-02 3.894674777984619141e-02 -3.578585386276245117e-02 1.001590304076671600e-02 -1.691718585789203644e-02 4.194052424281835556e-03 1.337044814135879278e-04 -3.810869902372360229e-02 -3.523157909512519836e-02 3.238099440932273865e-02 5.622797645628452301e-03 3.733658790588378906e-02 1.145212631672620773e-02 3.286759182810783386e-02 -2.026160433888435364e-02 -1.172355096787214279e-02 -6.245154887437820435e-03 1.751552103087306023e-03 2.815356478095054626e-02 1.256534829735755920e-02 -5.033949390053749084e-03 -1.840584166347980499e-02 -6.559731066226959229e-02 1.084903534501791000e-02 2.263756841421127319e-02 2.852216362953186035e-02 2.449749503284692764e-03 -3.799827024340629578e-02 -2.952825278043746948e-02 4.741426557302474976e-03 2.369998022913932800e-02 -3.549638763070106506e-02 -2.190889976918697357e-02 2.347788400948047638e-02 1.715633831918239594e-02 2.337723597884178162e-02 -4.322684183716773987e-02 -4.504010081291198730e-02
1.691574603319168091e-02 2.546321786940097809e-02 -3.546204417943954468e-02 9.314816445112228394e-03 2.611592039465904236e-02 -1.369195524603128433e-02 2.974586375057697296e-02 -5.452597979456186295e-03 2.074395492672920227e-02 4.747904837131500244e-02 -2.201805636286735535e-02 -2.269744873046875000e-02 1.126951538026332855e-02 2.735370770096778870e-02 -4.428441449999809265e-02 -4.739379510283470154e-02 -1.346882665529847145e-03 1.448282320052385330e-02 8.649645000696182251e-02 1.310068368911743164e-02 5.307923629879951477e-02 -1.724921166896820068e-02 -9.295535273849964142e-03 1.843442907556891441e-03 -2.362152747809886932e-02 -6.528931204229593277e-03 1.325586531311273575e-02 1.134322676807641983e-02 7.493867073208093643e-03 3.528673946857452393e-02 -2.033621713053435087e-04 1.496513746678829193e-02 6.531598977744579315e-03 -3.263072296977043152e-02 -8.257184177637100220e-02 5.935054644942283630e-02 -2.226734347641468048e-02 1.172223594039678574e-02 -3.417011722922325134e-02 -2.459463849663734436e-02 -4.655578359961509705e-02 1.325197372352704406e-04 -5.693924799561500549e-02 3.667512163519859314e-02 -9.318713098764419556e-03 2.803140319883823395e-02 -4.447153583168983459e-02 2.416750974953174591e-02 -9.666641801595687866e-02 -5.702731385827064514e-02 -2.252022735774517059e-02 -5.223423615097999573e-02 2.111169695854187012e-02 -2.891536056995391846e-02 -6.194826960563659668e-02 6.129170209169387817e-02 2.765058912336826324e-02 -4.831290617585182190e-02 -9.101931937038898468e-03 -2.184922993183135986e-02 -2.899565035477280617e-03 -2.267544157803058624e-02 3.686648607254028320e-02 6.036949530243873596e-02 5.146480351686477661e-02 2.614273130893707275e-02 2.679291181266307831e-02 5.774635821580886841e-02 -4.699293896555900574e-02 6.142191588878631592e-03 1.020279526710510254e-02 3.845840459689497948e-03 1.070294063538312912e-02 -1.103013195097446442e-02 1.709911855868995190e-03 -5.314585193991661072e-02 -1.541969925165176392e-02 1.912620617076754570e-03 -1.932611316442489624e-02 6.983572244644165039e-02 1.583461649715900421e-02 1.235770527273416519e-02 9.894097223877906799e-03 4.782301560044288635e-02 2.246636897325515747e-02 -2.391591109335422516e-02 -1.068792957812547684e-02 -5.654793977737426758e-02 -2.883866615593433380e-02 1.531482394784688950e-02 -2.400630339980125427e-02 5.775368306785821915e-03 2.894232794642448425e-02 4.432848468422889709e-02 2.306672558188438416e-02 -1.596359349787235260e-02 -5.454977601766586304e-02 4.929151758551597595e-02 -2.159831859171390533e-02 -1.345479022711515427e-02 2.399249933660030365e-02 3.956042230129241943e-02 3.230525925755500793e-02 -1.292701717466115952e-02 3.740232065320014954e-02 9.612240828573703766e-03 1.175156212411820889e-03 2.033205889165401459e-02 4.815688729286193848e-02 -4.917355254292488098e-02 -9.391919523477554321e-02 -1.299408450722694397e-02 -1.375482603907585144e-02 2.658094838261604309e-02 6.984123028814792633e-03 -1.805171370506286621e-02 3.938404098153114319e-02 1.919833198189735413e-02 -1.351269800215959549e-02 -6.167444959282875061e-02 2.510744612663984299e-03 5.986974388360977173e-02 -2.427686937153339386e-03 3.083859011530876160e-02 2.331960387527942657e-02 -2.519391290843486786e-02 -2.852866239845752716e-02 3.113810904324054718e-03 1.043725572526454926e-02 -4.884383524768054485e-04 -3.896130147040821612e-05 6.133420020341873169e-02 -8.092985488474369049e-03 2.756326273083686829e-02 -1.115224789828062057e-02 -2.182764932513237000e-02 -1.684934832155704498e-02 -5.550045892596244812e-02 -1.441667508333921432e-02 -2.464398741722106934e-03 -5.412276834249496460e-02 6.978798191994428635e-03 1.534776389598846436e-02 -1.411699410527944565e-02 3.055899636819958687e-03 1.825665868818759918e-02 9.691091626882553101e-02 -5.853352323174476624e-02 -8.987888693809509277e-02 -3.556087240576744080e-02 4.388737678527832031e-02 -9.900293312966823578e-03 -1.008897740393877029e-02 2.321712672710418701e-02 -2.567389793694019318e-02 -2.699300413951277733e-03 -9.396980516612529755e-03 -1.824708096683025360e-02 3.868298232555389404e-02 -1.744853146374225616e-02 -2.795728109776973724e-02 4.563283547759056091e-02 -4.335583746433258057e-02 9.471051394939422607e-03 -5.702634528279304504e-02 1.672388240694999695e-02 3.927086666226387024e-02 -3.732281178236007690e-02 -1.375860441476106644e-02 -1.643079333007335663e-02 -4.579141270369291306e-03 -1.547598186880350113e-02 -4.290517047047615051e-02 3.178896149620413780e-03 -7.097425311803817749e-02 -1.347381854429841042e-03 1.840591244399547577e-02 -2.334814704954624176e-02 -2.936974540352821350e-02 3.977679461240768433e-02 4.398098587989807129e-02 -5.175412818789482117e-02 7.045732345432043076e-03 -1.586057059466838837e-02 -1.713750697672367096e-02 -5.484854802489280701e-02 2.773618511855602264e-02 -2.384612336754798889e-02 6.624710559844970703e-02 1.447661872953176498e-02 -7.066135760396718979e-03 -1.916402019560337067e-02 5.970665067434310913e-02 8.813144639134407043e-03 7.837010547518730164e-03 1.359395333565771580e-03 1.104782056063413620e-02 -5.537231266498565674e-02 2.047827467322349548e-02 3.925639390945434570e-02 -4.976886138319969177e-02 -2.230358496308326721e-02 -7.884578779339790344e-03 -1.340105663985013962e-02 -6.521296501159667969e-02 -8.633136749267578125e-03 -5.018509551882743835e-02 -3.664677217602729797e-02 2.307692356407642365e-02 -7.830196619033813477e-02 -7.144631352275609970e-03 -8.147729560732841492e-03 6.039844453334808350e-02 -3.724555671215057373e-02 2.848603064194321632e-03 1.514623872935771942e-02 -4.148295149207115173e-03 -2.531752176582813263e-02 3.282139077782630920e-02 1.513307914137840271e-02 1.664489693939685822e-02 -3.829633817076683044e-02 -1.997008919715881348e-02 6.174249947071075439e-02 -3.769356012344360352e-02 -7.916089147329330444e-03 -3.505595773458480835e-02 -3.962269984185695648e-03 -1.009493619203567505e-01 -2.397147938609123230e-02 -3.625473007559776306e-02 -1.717739924788475037e-02 2.127609401941299438e-02 1.665995642542839050e-02 5.178636685013771057e-02 2.343505434691905975e-02 -2.766991220414638519e-02 -8.185598067939281464e-03 -1.704800128936767578e-02 1.040203962475061417e-02 2.742603886872529984e-03 -4.631542041897773743e-02 5.631236359477043152e-02 -4.782036412507295609e-03 1.783260703086853027e-02 1.200644113123416901e-02 1.245611230842769146e-03 1.575626060366630554e-02 -2.941912785172462463e-02 5.200044810771942139e-02 1.593642495572566986e-02 2.468761429190635681e-02 -2.747945301234722137e-02 2.253064326941967010e-02 1.745006255805492401e-02 -7.857417315244674683e-02
5.543524399399757385e-02 4.692823812365531921e-02 2.432389371097087860e-02 -4.003772512078285217e-02 5.881251301616430283e-03 5.569271743297576904e-02 3.086470253765583038e-02 -7.934757322072982788e-02 -5.577240139245986938e-02 1.180602516978979111e-02 3.319927724078297615e-03 4.824412241578102112e-02 -4.457093775272369385e-02 2.742585726082324982e-02 -2.691256068646907806e-02 -1.682625152170658112e-02 -3.588857874274253845e-02 -7.626301050186157227e-02 -1.811161520890891552e-03 -1.928175799548625946e-02 -1.443757675588130951e-02 -2.695664763450622559e-02 3.568324819207191467e-02 2.013435214757919312e-02 5.042509734630584717e-02 4.467890039086341858e-02 -2.522941678762435913e-03 3.045465052127838135e-02 -1.300887856632471085e-02 5.375830829143524170e-02 -6.243428215384483337e-02 9.869048371911048889e-03 1.147095346823334694e-03 3.625297546386718750e-02 -4.373696283437311649e-04 6.126980483531951904e-02 -5.995118618011474609e-02 4.911034181714057922e-02 6.253771483898162842e-03 1.720893941819667816e-02 8.952545374631881714e-02 1.396713312715291977e-02 5.038506910204887390e-02 -1.269619818776845932e-02 -2.115150168538093567e-02 -1.598614081740379333e-02 2.548832818865776062e-02 -5.331329256296157837e-02 -1.767121814191341400e-02 -5.086477100849151611e-02 -3.801957890391349792e-02 -2.749956771731376648e-02 -8.032407611608505249e-02 -1.196781266480684280e-02 -6.032670848071575165e-03 1.146550849080085754e-02 9.218129515647888184e-02 -8.318854123353958130e-02 -3.190957382321357727e-02 2.260213904082775116e-02 8.373143151402473450e-03 5.121465399861335754e-02 -6.099821999669075012e-02 7.141656428575515747e-02 7.868537306785583496e-02 1.911680400371551514e-02 5.953768640756607056e-02 -3.231955319643020630e-02 -3.416267689317464828e-03 -3.379864245653152466e-02 -2.290303446352481842e-02 2.017257502302527428e-03 -3.899654000997543335e-02 7.090393919497728348e-03 2.547461539506912231e-02 -2.958916313946247101e-02 7.449383381754159927e-03 4.446010664105415344e-02 -3.176258876919746399e-02 4.985028412193059921e-03 6.260877475142478943e-03 2.408589981496334076e-02 -1.027331501245498657e-02 3.193413838744163513e-02 -5.089349113404750824e-03 7.803719025105237961e-03 -1.111907288432121277e-01 -4.959639534354209900e-02 1.795427501201629639e-02 4.690469428896903992e-02 5.933659616857767105e-03 2.905417059082537889e-04 2.525937370955944061e-02 4.519318044185638428e-02 -1.090095937252044678e-02 3.537179157137870789e-02 1.277529262006282806e-02 -5.976812914013862610e-02 3.072109445929527283e-02 -1.159919425845146179e-02 -2.916304767131805420e-02 -5.771968141198158264e-02 -2.958839572966098785e-02 4.937633499503135681e-02 1.714397780597209930e-02 1.337024569511413574e-02 -1.728135533630847931e-02 4.445171914994716644e-03 -1.819688081741333008e-02 1.710402965545654297e-02 -6.190183572471141815e-03 -1.468517910689115524e-02 -8.260017260909080505e-03 -1.135129947215318680e-02 6.903994828462600708e-02 9.595245122909545898e-03 -4.978112410753965378e-03 -2.855147607624530792e-02 2.788039110600948334e-02 -1.411473844200372696e-02 4.418961703777313232e-02 5.645677819848060608e-02 -3.552007675170898438e-02 -2.819563262164592743e-02 4.728656262159347534e-03 5.954639613628387451e-02 -1.278592366725206375e-02 -2.976343675982207060e-04 3.225865541025996208e-03 -8.560120314359664917e-02 2.421396970748901367e-02 3.873907774686813354e-02 4.566252604126930237e-02 -1.387727633118629456e-02 1.718491502106189728e-02 -4.902341216802597046e-02 -8.044769987463951111e-03 -1.211224496364593506e-02 -1.937155053019523621e-02 -3.190616518259048462e-02 4.089005291461944580e-02 -2.029425650835037231e-02 3.895241767168045044e-02 -5.130409076809883118e-02 -4.984034225344657898e-02 2.188337966799736023e-02 -2.037301100790500641e-02 -6.058616936206817627e-02 2.952659688889980316e-02 -4.964785650372505188e-02 6.168135628104209900e-02 5.987127497792243958e-02 -9.614589624106884003e-03 1.788454689085483551e-02 -5.007644649595022202e-03 9.318208321928977966e-03 -2.138904295861721039e-02 -2.665662206709384918e-02 -1.720448955893516541e-02 -8.443169295787811279e-03 -2.088706567883491516e-02 -1.980658248066902161e-02 3.145867958664894104e-02 -2.779671456664800644e-03 -1.635972061194479465e-03 3.470839001238346100e-03 2.033528126776218414e-02 -2.411701157689094543e-02 8.978385478258132935e-03 4.272284451872110367e-03 3.353558015078306198e-03 -1.051251739263534546e-01 1.537375245243310928e-02 8.495306596159934998e-03 2.965772151947021484e-02 1.130718551576137543e-02 2.802563831210136414e-02 2.328330837190151215e-02 7.146468758583068848e-02 8.785331621766090393e-03 -5.025432910770177841e-03 1.153710950165987015e-02 -4.703798890113830566e-02 -3.420615568757057190e-02 4.356757178902626038e-02 2.469188161194324493e-02 4.619954526424407959e-02 -2.118002995848655701e-02 2.064922451972961426e-02 -9.479144588112831116e-03 -1.546460855752229691e-02 2.939190948382019997e-03 7.083655893802642822e-02 -2.523080073297023773e-02 -4.801534116268157959e-02 -4.037084057927131653e-02 -1.211194321513175964e-02 -3.012667410075664520e-02 7.053262088447809219e-04 3.204748034477233887e-02 1.853340491652488708e-02 -5.539639852941036224e-03 -5.610695108771324158e-03 -4.109745100140571594e-02 2.210149541497230530e-02 -6.889191269874572754e-02 -5.912611959502100945e-04 -6.197111681103706360e-02 -5.317761749029159546e-02 1.109456829726696014e-02 -6.854546722024679184e-03 2.239320427179336548e-02 1.818785071372985840e-02 -2.385972067713737488e-02 3.305260837078094482e-02 6.855788640677928925e-03 1.843044534325599670e-02 -5.231191869825124741e-03 5.046214442700147629e-03 1.145331934094429016e-02 -7.180196791887283325e-02 2.727121114730834961e-02 -1.300294138491153717e-02 -2.409761399030685425e-02 9.437230415642261505e-03 -3.234248235821723938e-02 -2.547207102179527283e-02 1.151779759675264359e-02 -5.333412811160087585e-02 5.696183070540428162e-03 2.668543602339923382e-04 1.952204108238220215e-02 -1.698057353496551514e-02 2.279276214540004730e-02 5.021860823035240173e-03 4.345618933439254761e-02 -5.971257016062736511e-02 -5.042035132646560669e-02 5.426767095923423767e-02 -2.644701302051544189e-02 -4.195472225546836853e-02 -4.021691158413887024e-02 1.501529756933450699e-02 -2.786760777235031128e-02 4.501865059137344360e-02 9.532057493925094604e-02 -2.621658332645893097e-02 -9.246216155588626862e-03 -1.235265098512172699e-02 -4.957515746355056763e-03 1.185462344437837601e-02 -3.877941891551017761e-02 -2.813159301877021790e-02 8.221252821385860443e-03 3.256679698824882507e-02 -3.838044777512550354e-02
-1.650389167480170727e-03 -3.762166202068328857e-02 -5.177758794161491096e-05 -2.537608891725540161e-02 2.524134935811161995e-03 -2.164876461029052734e-02 -4.665072634816169739e-02 -3.712781518697738647e-02 -2.516923286020755768e-02 -2.536053396761417389e-02 -4.856780869886279106e-04 6.301183998584747314e-02 -4.711648449301719666e-02 2.240759879350662231e-02 -1.002978980541229248e-01 7.101706578396260738e-04 1.657895743846893311e-02 -1.774783059954643250e-02 6.171689182519912720e-02 -1.325611397624015808e-02 -3.287921845912933350e-02 1.107775419950485229e-02 -6.799449771642684937e-02 3.144885599613189697e-02 4.447589069604873657e-02 5.442935600876808167e-02 1.252886280417442322e-02 -4.787892103195190430e-02 -2.573853917419910431e-02 -7.272866205312311649e-04 -1.054882910102605820e-02 -1.284544588997960091e-03 8.210718631744384766e-02 4.859793931245803833e-02 -6.531791295856237411e-03 -2.327493764460086823e-02 -8.646464906632900238e-03 -2.605478651821613312e-02 1.588144339621067047e-02 2.434275113046169281e-02 1.592587120831012726e-02 3.730174154043197632e-02 -3.541642427444458008e-02 3.473735600709915161e-02 -3.653114289045333862e-02 -2.437067590653896332e-02 -1.404929440468549728e-02 -1.546107046306133270e-02 1.472375914454460144e-02 -1.272269058972597122e-02 9.813111275434494019e-03 3.603143617510795593e-03 4.334340337663888931e-03 4.272355884313583374e-02 -2.185953222215175629e-02 2.884625084698200226e-02 -6.795243173837661743e-02 -1.428159652277827263e-03 1.444590091705322266e-02 4.681433551013469696e-03 4.321701452136039734e-02 -4.977445583790540695e-03 -5.870378762483596802e-02 -3.675444424152374268e-02 -3.683660412207245827e-03 7.343085482716560364e-03 4.002705588936805725e-02 1.308218203485012054e-02 1.929312199354171753e-02 -1.648356392979621887e-02 -4.838991165161132812e-02 2.642997913062572479e-02 1.696917228400707245e-02 -1.532845851033926010e-02 -1.420778501778841019e-02 -1.463695149868726730e-02 5.571842193603515625e-02 3.406979143619537354e-03 7.234437763690948486e-02 6.168483290821313858e-03 3.773512318730354309e-02 -7.857097312808036804e-03 -6.347459740936756134e-03 -2.085435204207897186e-03 6.611836608499288559e-03 1.971207186579704285e-02 -8.513464778661727905e-02 -1.107683870941400528e-02 -3.354544937610626221e-02 -8.649343624711036682e-03 -1.009466126561164856e-02 3.774626180529594421e-02 -4.058225080370903015e-03 -1.968661881983280182e-02 -1.436323113739490509e-02 -1.009306125342845917e-02 3.718207404017448425e-02 1.822310313582420349e-02 -5.959692969918251038e-02 2.111637592315673828e-02 -4.956512525677680969e-02 -1.337403338402509689e-02 2.633856795728206635e-02 3.294419497251510620e-03 6.186944991350173950e-02 -1.057158224284648895e-02 -1.877459138631820679e-02 -7.442019879817962646e-03 4.164510220289230347e-02 -5.429250746965408325e-02 4.638014361262321472e-03 8.164444006979465485e-03 9.317948482930660248e-03 -3.391383588314056396e-02 -1.631597802042961121e-02 -2.117768675088882446e-02 3.254328854382038116e-03 -1.975988596677780151e-02 -4.997283220291137695e-02 -2.608094550669193268e-02 1.708972034975886345e-03 -3.696126490831375122e-02 4.193541035056114197e-02 8.307360112667083740e-02 -2.031852118670940399e-02 3.701241314411163330e-02 4.635315015912055969e-02 -1.300421636551618576e-02 3.755285963416099548e-02 8.517791517078876495e-03 9.128413163125514984e-03 -2.103280043229460716e-03 -3.011214360594749451e-02 2.210654318332672119e-02 -1.325166225433349609e-02 5.263557191938161850e-03 1.083379331976175308e-02 -3.353583440184593201e-02 5.243542604148387909e-03 -1.000412460416555405e-02 -2.997729182243347168e-02 -1.010908372700214386e-02 -1.214182935655117035e-02 4.023207724094390869e-02 5.182699486613273621e-02 4.950065631419420242e-03 3.095683082938194275e-02 2.297729626297950745e-02 7.077458500862121582e-02 4.560684040188789368e-02 2.015816792845726013e-02 2.825628593564033508e-02 1.273444015532732010e-02 -2.856168709695339203e-02 6.440020631998777390e-03 -1.665205694735050201e-02 -1.902243867516517639e-02 3.004580270498991013e-03 -9.127539582550525665e-03 3.358185291290283203e-02 -3.873366862535476685e-02 -2.241422422230243683e-02 -7.828108035027980804e-03 -1.890658587217330933e-02 -5.570432171225547791e-02 -1.063912408426403999e-03 5.922025535255670547e-03 3.300194069743156433e-02 -2.074831165373325348e-02 -2.493101358413696289e-02 9.013248607516288757e-03 -1.258394122123718262e-01 -1.177341397851705551e-02 -2.886656858026981354e-02 1.298022828996181488e-02 4.381391778588294983e-02 -2.085841819643974304e-02 3.616330027580261230e-02 9.499110281467437744e-03 6.677708774805068970e-02 2.312566898763179779e-02 4.315074905753135681e-02 1.372911129146814346e-02 -8.069323748350143433e-02 1.512367743998765945e-02 2.243304159492254257e-03 -2.820143417920917273e-04 1.479876786470413208e-02 -7.599537726491689682e-03 -1.013844013214111328e-01 -1.361023355275392532e-02 1.251770183444023132e-02 3.301634266972541809e-02 -6.216227263212203979e-02 -2.822509966790676117e-02 -3.816810622811317444e-02 -2.792069502174854279e-02 8.338265120983123779e-03 9.844955988228321075e-03 -1.704236492514610291e-02 3.436770290136337280e-02 -4.018560424447059631e-02 -1.765388064086437225e-02 1.648521609604358673e-02 -4.784395173192024231e-02 -2.576815523207187653e-02 -1.933165453374385834e-02 3.216535225510597229e-02 -2.774195000529289246e-02 3.230762667953968048e-03 1.065360568463802338e-02 -1.030991598963737488e-02 -1.588776893913745880e-02 -1.539784483611583710e-02 -1.557128038257360458e-02 3.647893294692039490e-02 -7.730641961097717285e-02 -9.537089616060256958e-02 -1.794008910655975342e-02 5.892109870910644531e-02 2.464159764349460602e-02 -3.807068988680839539e-02 4.133462905883789062e-03 -7.395355962216854095e-03 9.380998462438583374e-02 4.479378461837768555e-02 6.174661219120025635e-02 -2.649904601275920868e-02 2.786551415920257568e-02 -3.494038432836532593e-02 -3.830397501587867737e-02 1.104187872260808945e-02 -2.768313139677047729e-02 -2.137473225593566895e-02 4.738730844110250473e-03 4.878430161625146866e-03 8.143698796629905701e-03 4.735021293163299561e-02 -6.209233542904257774e-04 -1.106559485197067261e-02 1.302712596952915192e-02 -5.354357883334159851e-03 2.586241811513900757e-02 3.844037884846329689e-03 -4.130109399557113647e-02 2.252673543989658356e-02 -1.304275356233119965e-02 -3.823639824986457825e-02 3.527312772348523140e-03 -1.236202751897508278e-05 3.128209710121154785e-02 1.163325551897287369e-02 1.260668877512216568e-02 -2.309799008071422577e-02 -7.005584985017776489e-02 -2.783207409083843231e-02
1.381316687911748886e-02 4.671224858611822128e-03 1.140452269464731216e-02 2.785332687199115753e-02 -1.784868538379669189e-02 -1.304232515394687653e-02 1.030942611396312714e-02 -4.703342448920011520e-03 -1.342519000172615051e-02 -5.580252618528902531e-04 9.476553648710250854e-03 -6.843132525682449341e-02 -6.984137464314699173e-03 4.248938336968421936e-02 -1.552485954016447067e-02 -1.879998855292797089e-02 -4.287466406822204590e-02 2.375543350353837013e-03 -2.948859892785549164e-02 2.584145963191986084e-02 -1.194514334201812744e-02 -1.447586249560117722e-02 -4.933540895581245422e-02 4.111105203628540039e-02 -4.318858496844768524e-03 4.442471638321876526e-02 -2.351903729140758514e-02 5.006941501051187515e-03 1.945062773302197456e-03 -1.385926920920610428e-02 5.499357823282480240e-03 4.149258509278297424e-02 -1.003586128354072571e-02 -3.001602180302143097e-02 -1.211801776662468910e-03 1.766014145687222481e-03 1.508748438209295273e-02 5.941000208258628845e-02 3.647682443261146545e-02 -6.390783935785293579e-02 -5.244828760623931885e-02 -2.313325367867946625e-02 9.298447985202074051e-04 -1.544504147022962570e-02 3.145743394270539284e-03 1.684639044106006622e-02 -6.264302134513854980e-02 2.369829453527927399e-02 6.830551661550998688e-03 -2.482141181826591492e-02 -6.757535506039857864e-03 3.980349283665418625e-03 -1.345219090580940247e-02 7.030963897705078125e-02 -1.657683867961168289e-03 7.871980220079421997e-02 -4.003689158707857132e-03 -7.086993427947163582e-04 7.778353989124298096e-03 5.338171496987342834e-02 4.829978570342063904e-02 2.758697047829627991e-02 -1.756979711353778839e-02 -1.510093174874782562e-02 1.222250051796436310e-02 -4.174632206559181213e-02 -9.011358954012393951e-03 1.138872280716896057e-02 -3.375586867332458496e-02 -3.049807623028755188e-03 5.161558464169502258e-02 7.228113245218992233e-03 -1.326317247003316879e-02 -1.888696663081645966e-02 5.067387595772743225e-02 3.549386560916900635e-02 4.850959032773971558e-02 -5.062214657664299011e-02 9.157642722129821777e-03 -1.107403822243213654e-02 3.763221902772784233e-03 2.227785624563694000e-02 4.635283350944519043e-02 -8.672717958688735962e-03 8.359346538782119751e-04 -1.614176109433174133e-02 -1.076445262879133224e-02 -1.715871691703796387e-02 -5.675272643566131592e-02 -6.020206026732921600e-03 1.227942667901515961e-02 -2.561384811997413635e-02 -4.809531569480895996e-02 2.356864698231220245e-02 9.965397417545318604e-02 2.077269740402698517e-02 -2.931966818869113922e-02 7.176752667874097824e-03 -2.183188125491142273e-02 3.103910945355892181e-02 6.226946134120225906e-03 -1.735805161297321320e-02 4.004585742950439453e-02 -5.860809469595551491e-04 -1.452723797410726547e-02 -4.763012379407882690e-02 4.312204569578170776e-02 1.111517543904483318e-03 -4.523103684186935425e-02 3.100424306467175484e-03 -3.146418556571006775e-02 9.320809505879878998e-03 -1.584072411060333252e-02 -1.409396156668663025e-02 1.874193735420703888e-02 2.104930765926837921e-02 3.584058955311775208e-02 3.111775219440460205e-02 1.334478054195642471e-02 -3.068522782996296883e-03 7.194297853857278824e-03 1.596542820334434509e-02 -4.413653537631034851e-02 4.447051510214805603e-02 2.584852650761604309e-02 2.852995879948139191e-02 -4.498477280139923096e-02 3.856155648827552795e-02 2.342083491384983063e-02 4.559056460857391357e-02 1.012634560465812683e-01 -2.732512727379798889e-02 -3.260296955704689026e-02 -3.859794884920120239e-02 -2.390869520604610443e-02 -7.475349120795726776e-03 -2.301825769245624542e-02 7.587964832782745361e-02 -1.179419551044702530e-02 4.307606071233749390e-02 2.063502790406346321e-03 -3.581338375806808472e-02 1.587074657436460257e-04 -3.308145329356193542e-02 -3.313396871089935303e-02 1.019417401403188705e-02 -1.386202592402696609e-02 -2.961668930947780609e-02 1.610979437828063965e-02 -1.241237111389636993e-02 -4.106650594621896744e-03 -1.911142282187938690e-02 -1.967055164277553558e-02 6.422485224902629852e-03 -3.164109215140342712e-02 -3.703553229570388794e-02 1.999627426266670227e-02 9.385781362652778625e-03 2.853747084736824036e-02 -4.377854987978935242e-02 -2.730877138674259186e-02 -2.912580221891403198e-02 -3.865270642563700676e-03 2.294004522264003754e-02 -7.737898267805576324e-03 2.055016905069351196e-02 2.165743522346019745e-02 -1.863560080528259277e-02 8.309028926305472851e-04 -5.699805170297622681e-02 -4.454906284809112549e-02 1.648527756333351135e-02 4.924476146697998047e-02 7.476710714399814606e-03 -1.526201423257589340e-02 -2.867225371301174164e-02 7.009859383106231689e-02 -4.362975247204303741e-03 2.548858523368835449e-02 -4.157326649874448776e-03 4.256395157426595688e-03 2.626082301139831543e-02 2.502024918794631958e-02 -1.602188870310783386e-02 -2.888783626258373260e-02 3.362765908241271973e-02 -5.516112782061100006e-03 1.116619794629514217e-03 -4.168741405010223389e-02 -1.125126518309116364e-02 1.962603256106376648e-02 3.860693797469139099e-02 2.113718912005424500e-02 1.983986608684062958e-02 1.210023555904626846e-02 -1.859850808978080750e-02 -5.267953127622604370e-02 -4.603198170661926270e-02 3.728947415947914124e-02 -1.950764656066894531e-02 1.634019799530506134e-02 3.043738566339015961e-02 -5.204682797193527222e-02 -3.147428389638662338e-03 -6.181777641177177429e-02 2.989008650183677673e-02 -3.485265374183654785e-02 8.191929198801517487e-03 2.373136021196842194e-02 2.197359316051006317e-02 5.601017549633979797e-02 -9.038187563419342041e-03 -1.224867627024650574e-02 -2.437701076269149780e-02 -3.298693522810935974e-02 2.679363265633583069e-02 -2.482615783810615540e-02 -5.183381214737892151e-02 1.114408019930124283e-02 1.957268640398979187e-02 1.748309470713138580e-02 -3.038576804101467133e-03 -1.002502962946891785e-01 -3.397784382104873657e-02 1.012561656534671783e-02 2.637175610288977623e-03 -2.693938731681555510e-04 6.821137666702270508e-02 -4.005159437656402588e-02 -3.811631724238395691e-02 -8.981104008853435516e-03 2.647540904581546783e-02 -8.416288532316684723e-03 -9.888260625302791595e-03 3.586322069168090820e-02 -1.028562150895595551e-02 -8.534935303032398224e-03 -4.939807578921318054e-02 2.837715670466423035e-02 4.363284632563591003e-02 -1.395450253039598465e-02 5.377227067947387695e-02 1.386988296872004867e-04 1.091314293444156647e-02 -2.327170409262180328e-02 -1.436010003089904785e-02 7.908056490123271942e-03 -4.454442858695983887e-02 2.001522667706012726e-02 6.766386330127716064e-02 9.111002436839044094e-04 9.859307855367660522e-02 -3.087237477302551270e-02 -3.341044113039970398e-02 -5.546494945883750916e-02 -9.571382775902748108e-03
8.203509449958801270e-02 5.925041809678077698e-02 2.316111885011196136e-02 4.112330079078674316e-02 -1.816269243136048317e-03 1.802490465342998505e-02 -2.795676933601498604e-03 3.029709449037909508e-03 6.807537376880645752e-02 -4.684829153120517731e-03 1.391360419802367687e-03 -3.679775167256593704e-03 -9.126323275268077850e-03 -2.323816297575831413e-03 4.652389138936996460e-02 5.131010338664054871e-02 3.472929447889328003e-02 4.173754155635833740e-02 1.151028554886579514e-02 -1.933651603758335114e-02 7.945781573653221130e-03 3.645011922344565392e-03 -2.127959951758384705e-02 -4.059375450015068054e-02 3.622060269117355347e-02 -2.277175150811672211e-02 3.959447890520095825e-02 4.258996620774269104e-02 7.164677977561950684e-02 -4.993935674428939819e-02 -6.479808688163757324e-02 1.068598590791225433e-02 6.311322748661041260e-02 -4.952495545148849487e-02 6.010165810585021973e-02 -4.247909784317016602e-02 9.831850230693817139e-02 1.248028799891471863e-01 -7.909592986106872559e-02 -4.734497517347335815e-02 -2.100628986954689026e-02 1.817438006401062012e-02 1.784815825521945953e-02 -7.966567575931549072e-02 1.414269092492759228e-03 6.821904797106981277e-03 -3.490275517106056213e-02 2.443524636328220367e-02 5.896775424480438232e-02 -1.099267601966857910e-02 1.685893163084983826e-02 -1.954680681228637695e-02 2.060607261955738068e-02 4.258819669485092163e-02 1.161445979960262775e-03 -1.318279001861810684e-02 1.091790106147527695e-02 -3.571109473705291748e-02 2.525686519220471382e-03 -9.911170229315757751e-03 2.261565811932086945e-02 4.411765560507774353e-02 2.668014168739318848e-02 4.492037743330001831e-02 1.317689078859984875e-03 -2.176731266081333160e-02 -1.869363151490688324e-02 -1.080331276170909405e-03 -1.904935017228126526e-02 -3.250988200306892395e-02 -2.046306245028972626e-02 -3.754839673638343811e-02 -9.456483530811965466e-04 1.256499718874692917e-02 -5.056713521480560303e-02 3.948858380317687988e-02 -1.252316124737262726e-02 5.982362199574708939e-03 3.505577147006988525e-02 -2.140961401164531708e-02 -9.146328084170818329e-03 -2.438128925859928131e-02 -3.412249684333801270e-02 2.481794729828834534e-02 -6.051335949450731277e-03 -2.493621036410331726e-02 -5.960146710276603699e-02 -2.175307087600231171e-02 5.208205804228782654e-02 1.601808518171310425e-02 -4.399853199720382690e-02 -1.488035544753074646e-02 3.787703067064285278e-02 5.484113469719886780e-02 -3.737848624587059021e-02 6.053223088383674622e-02 -9.900318831205368042e-02 -5.566772446036338806e-02 -1.531097013503313065e-02 -1.825456693768501282e-02 5.669323727488517761e-02 -2.448805607855319977e-02 2.036149241030216217e-02 2.636303007602691650e-02 -3.010604903101921082e-02 -1.288378424942493439e-02 -6.044887006282806396e-02 -6.592701375484466553e-02 2.680043131113052368e-02 -9.201194345951080322e-02 -4.813111200928688049e-02 8.241320028901100159e-03 1.009502261877059937e-02 5.754725541919469833e-03 3.305607289075851440e-02 1.613098196685314178e-02 -1.628642901778221130e-02 -1.832315465435385704e-03 -3.734253719449043274e-02 2.860384061932563782e-02 -3.056429140269756317e-02 2.715744450688362122e-02 -9.316653944551944733e-03 3.321446105837821960e-02 -7.993731647729873657e-02 -8.018161170184612274e-03 -9.217634797096252441e-02 -1.271542720496654510e-02 1.739397458732128143e-02 2.733053080737590790e-02 5.550061911344528198e-02 -5.340869724750518799e-02 -1.303539238870143890e-02 2.903359197080135345e-02 -6.108450517058372498e-02 9.208322502672672272e-03 -6.305887550115585327e-02 -4.219565913081169128e-02 -2.692903019487857819e-02 -2.936705015599727631e-03 -6.261078268289566040e-02 -1.773242652416229248e-02 6.876448751427233219e-04 2.831816859543323517e-02 7.527469098567962646e-02 -2.386886626482009888e-02 7.938483357429504395e-02 -1.013885438442230225e-02 -6.135418266057968140e-02 -7.139338646084070206e-03 -3.096257933066226542e-05 7.126387208700180054e-03 -2.757177874445915222e-02 -1.417663227766752243e-02 -5.121552571654319763e-02 -5.025023967027664185e-02 -1.858972595073282719e-03 2.887007081881165504e-03 -4.754247516393661499e-02 2.217934234067797661e-03 6.396163254976272583e-03 9.319452568888664246e-03 -3.518750891089439392e-02 5.265629291534423828e-02 -4.741799086332321167e-02 2.276487648487091064e-02 2.919906564056873322e-02 -4.462791606783866882e-03 1.198448147624731064e-02 9.259660728275775909e-03 3.078497387468814850e-02 -4.275869578123092651e-02 -5.319241434335708618e-02 9.452285245060920715e-03 -5.372630432248115540e-02 1.889257691800594330e-02 -2.586025744676589966e-03 -4.597820341587066650e-02 3.547580540180206299e-02 4.957288037985563278e-03 8.655927143990993500e-03 -3.972106799483299255e-02 8.656945824623107910e-02 4.808260127902030945e-02 -7.873815298080444336e-02 2.579839492682367563e-04 -6.424888037145137787e-03 2.744216285645961761e-02 -4.599791392683982849e-02 -3.996838815510272980e-03 1.656752824783325195e-02 -5.987710505723953247e-02 -4.869373515248298645e-03 -1.790394261479377747e-02 -8.534462191164493561e-03 3.860662505030632019e-02 1.068177819252014160e-02 -4.191666841506958008e-02 -1.759274005889892578e-01 1.079085096716880798e-02 -5.353822931647300720e-02 -3.035749122500419617e-02 -5.595036316663026810e-03 3.515339642763137817e-02 1.641296222805976868e-02 -3.646245598793029785e-02 -6.703827530145645142e-02 1.004130672663450241e-02 5.314873997122049332e-03 -3.716529905796051025e-02 -3.255024785175919533e-03 2.238214202225208282e-02 1.702017337083816528e-02 -2.668434008955955505e-02 -8.882186375558376312e-03 7.107054442167282104e-02 1.009765313938260078e-03 -3.181200847029685974e-02 -2.377093583345413208e-02 -1.721081137657165527e-02 3.063489310443401337e-02 -5.395043641328811646e-02 -7.311311550438404083e-03 -4.713289067149162292e-02 -4.969622939825057983e-02 -6.323483586311340332e-02 2.482277713716030121e-02 -4.135295748710632324e-02 6.728686392307281494e-02 -7.145732175558805466e-03 4.930919408798217773e-02 1.081144437193870544e-02 -2.258110977709293365e-02 2.044881507754325867e-02 -3.048294037580490112e-02 1.631933450698852539e-02 9.439577348530292511e-03 8.913458324968814850e-03 7.530858740210533142e-03 4.096254706382751465e-02 -8.422382175922393799e-02 -3.699794784188270569e-02 -1.061407476663589478e-02 -6.366222351789474487e-02 4.171615466475486755e-03 4.526940733194351196e-02 -4.014979675412178040e-02 4.229458514600992203e-03 -1.905151270329952240e-02 1.274919230490922928e-02 -6.784233730286359787e-03 1.360435038805007935e-02 -6.047600763849914074e-04 5.652951821684837341e-02 -4.468695446848869324e-02 7.926840335130691528e-03
-2.403080649673938751e-02 1.345003861933946609e-02 -2.581992559134960175e-02 -2.152074687182903290e-02 -1.488012075424194336e-02 8.481181226670742035e-03 -3.014602139592170715e-02 3.701048903167247772e-03 -7.327257841825485229e-02 4.949027672410011292e-02 3.054328262805938721e-02 6.822696328163146973e-02 -5.004843324422836304e-02 -1.404535863548517227e-02 -3.771499171853065491e-02 4.696483537554740906e-02 -1.097685657441616058e-02 -2.301622927188873291e-02 -3.353471308946609497e-02 4.745021089911460876e-02 7.364260498434305191e-03 -4.517835378646850586e-02 -3.215601667761802673e-02 2.840398252010345459e-02 -7.226383686065673828e-02 -8.663908578455448151e-03 2.931427396833896637e-02 3.329382464289665222e-02 2.981451526284217834e-02 -1.544223539531230927e-02 -2.423614449799060822e-02 4.288147389888763428e-02 3.037635982036590576e-02 1.979193417355418205e-03 5.506423860788345337e-02 3.705137595534324646e-02 -2.102844789624214172e-02 8.346339687705039978e-03 -3.957689926028251648e-02 2.258850634098052979e-02 2.505777962505817413e-02 -1.707209274172782898e-02 -1.825271919369697571e-02 -4.148557782173156738e-02 7.244972884654998779e-02 5.209272727370262146e-02 1.402707677334547043e-02 -1.087364368140697479e-02 -4.961112141609191895e-02 -1.656743697822093964e-02 -3.944903984665870667e-02 8.115569129586219788e-03 -2.255313843488693237e-02 2.450596354901790619e-02 -3.718845173716545105e-02 -4.982731770724058151e-03 6.940727680921554565e-02 2.773400023579597473e-02 2.640608325600624084e-02 -1.512601599097251892e-02 -5.450534075498580933e-02 2.518139779567718506e-02 1.040520984679460526e-02 -1.913309842348098755e-02 -1.679235137999057770e-02 4.360025923233479261e-04 -5.823035165667533875e-02 -5.262237787246704102e-02 -2.043852210044860840e-02 2.520453371107578278e-02 -2.685192972421646118e-02 -1.053623016923666000e-02 -9.838831610977649689e-03 -2.945644222199916840e-02 -6.953146308660507202e-02 3.740265965461730957e-03 3.480811417102813721e-02 -4.024174809455871582e-02 2.034536749124526978e-02 2.849050238728523254e-02 -2.830039523541927338e-02 -9.904822334647178650e-03 3.683713031932711601e-03 7.089817430824041367e-03 -3.486004844307899475e-02 -2.666161954402923584e-02 1.578443683683872223e-02 1.267229206860065460e-02 9.820240549743175507e-03 -3.572473302483558655e-02 4.927904345095157623e-03 2.325044944882392883e-02 1.673478051088750362e-03 5.357839912176132202e-02 -6.215467303991317749e-02 -7.025793194770812988e-02 -4.921009764075279236e-03 7.723317295312881470e-02 -5.057419463992118835e-02 6.466111633926630020e-03 -2.926116995513439178e-02 -3.697725012898445129e-02 2.527133189141750336e-02 -1.180332303047180176e-01 -4.681498929858207703e-02 -1.125225052237510681e-02 1.049096509814262390e-02 -3.432394564151763916e-02 3.167564794421195984e-02 -2.420566417276859283e-02 -3.604977577924728394e-02 -5.929641798138618469e-02 3.325559943914413452e-02 1.194928027689456940e-02 2.180379442870616913e-02 9.600054472684860229e-03 2.716178074479103088e-02 -3.257930651307106018e-02 3.114272467792034149e-02 -1.666752435266971588e-02 -3.622695431113243103e-02 2.939098887145519257e-02 2.930206619203090668e-02 2.650978229939937592e-02 -3.624390438199043274e-02 -4.772722721099853516e-02 -2.200107648968696594e-02 4.087448120117187500e-02 1.576804369688034058e-02 -8.165844716131687164e-03 -3.729683905839920044e-02 -5.868089571595191956e-02 2.001368440687656403e-02 3.049000911414623260e-02 -3.418610617518424988e-02 5.350635387003421783e-03 1.660865545272827148e-02 -1.058284379541873932e-02 -3.071397170424461365e-02 5.681096110492944717e-03 3.196727484464645386e-02 -5.865226499736309052e-03 -2.058927342295646667e-02 -6.472891662269830704e-03 -5.037933960556983948e-02 7.841616868972778320e-03 -6.066507473587989807e-02 -5.174220725893974304e-02 3.892741166055202484e-03 -9.275337681174278259e-03 8.159494027495384216e-03 1.151746418327093124e-02 -1.584999077022075653e-02 -1.812042668461799622e-02 -9.996166452765464783e-03 -3.383610770106315613e-02 -8.505036123096942902e-03 5.797148332931101322e-04 2.014666795730590820e-03 4.113854840397834778e-02 -5.916771944612264633e-03 6.415396183729171753e-02 3.682782175019383430e-03 3.270893543958663940e-02 1.710101217031478882e-02 -4.275766387581825256e-02 -5.687393993139266968e-02 -1.855428144335746765e-02 2.373414672911167145e-02 4.104042425751686096e-03 -1.559484377503395081e-02 1.930056884884834290e-02 1.104165520519018173e-02 8.380457013845443726e-02 -2.224489860236644745e-02 -3.126392140984535217e-02 3.214620798826217651e-02 -4.883603006601333618e-02 -2.155452035367488861e-02 -3.375670313835144043e-02 7.121419534087181091e-03 -6.251533329486846924e-02 -1.393434777855873108e-02 -7.999913766980171204e-03 -5.774716287851333618e-02 -5.156451836228370667e-02 3.088842518627643585e-02 -5.200017243623733521e-02 -2.698285132646560669e-02 2.679895795881748199e-02 -6.132043153047561646e-02 4.284330084919929504e-02 2.724429965019226074e-02 -4.943840205669403076e-02 -6.544189061969518661e-03 2.180795930325984955e-02 2.731903223320841789e-03 -5.268172360956668854e-03 -7.858123630285263062e-03 -8.179864846169948578e-03 -7.715598214417695999e-03 -3.406449407339096069e-02 1.425876095890998840e-02 -3.626966476440429688e-02 1.619071885943412781e-02 -1.890915445983409882e-02 -7.437532767653465271e-03 3.485110774636268616e-02 9.192651137709617615e-03 1.588228531181812286e-02 -5.704929679632186890e-02 1.984435506165027618e-02 4.251600429415702820e-02 -6.733397394418716431e-02 -1.055425126105546951e-02 -4.018704593181610107e-02 1.447530463337898254e-02 -4.126032441854476929e-02 -1.291828812099993229e-03 8.727741241455078125e-02 2.261409349739551544e-02 5.083756148815155029e-02 4.591842740774154663e-02 4.253188148140907288e-02 -2.516961656510829926e-02 -4.804073274135589600e-02 -5.725375842303037643e-03 1.096414960920810699e-02 -8.996895700693130493e-02 2.263406664133071899e-02 -4.626842215657234192e-02 9.335550479590892792e-03 6.075746193528175354e-02 -8.070987462997436523e-02 -1.937137544155120850e-02 1.630732044577598572e-02 8.557333610951900482e-03 -1.847996492870151997e-03 2.463177405297756195e-02 -3.013259358704090118e-02 5.688965693116188049e-02 -1.143016014248132706e-02 2.285964973270893097e-02 2.321963571012020111e-02 -2.611850574612617493e-02 8.545664139091968536e-03 4.837563633918762207e-02 3.470024466514587402e-02 9.516891092061996460e-02 2.069931104779243469e-02 -1.116539351642131805e-02 2.789705758914351463e-04 5.412670224905014038e-02 3.025105409324169159e-02 1.506504323333501816e-02 -4.929312318563461304e-02
3.465355932712554932e-02 3.641730919480323792e-02 -3.633436560630798340e-02 -2.185162901878356934e-02 1.304412446916103363e-02 -9.492579847574234009e-03 2.200043760240077972e-02 3.679452836513519287e-02 7.929459959268569946e-02 3.282727301120758057e-02 2.935174480080604553e-02 1.043396908789873123e-02 1.762156188488006592e-02 -3.070360794663429260e-02 8.608930511400103569e-04 4.178913682699203491e-02 2.424685982987284660e-03 -3.705570474267005920e-02 2.897277707234025002e-03 1.982290297746658325e-02 5.154486745595932007e-02 1.655826531350612640e-02 1.696095243096351624e-02 3.283102810382843018e-02 3.789529576897621155e-02 2.740298025310039520e-02 1.316441781818866730e-02 3.055816888809204102e-02 -3.859096765518188477e-02 -1.728907786309719086e-02 -4.461011663079261780e-02 -5.681755021214485168e-02 3.075573593378067017e-02 5.953029170632362366e-02 2.189070358872413635e-02 -1.119956467300653458e-02 -4.433418810367584229e-02 1.729161106050014496e-02 -5.081052333116531372e-02 5.039729550480842590e-02 3.730744868516921997e-02 4.015183821320533752e-02 -4.360673204064369202e-02 1.022025826387107372e-03 1.079159136861562729e-02 -1.710601034574210644e-03 2.557996287941932678e-02 -2.905752137303352356e-02 -5.065460875630378723e-02 -2.581549249589443207e-02 -5.723052471876144409e-02 -2.772849984467029572e-02 -8.357403427362442017e-02 2.734845504164695740e-02 -5.082252621650695801e-02 6.991720199584960938e-02 3.975166764575988054e-04 5.530468001961708069e-02 -3.861186280846595764e-02 -5.672164261341094971e-02 1.777185499668121338e-02 -6.262552738189697266e-02 -6.167388521134853363e-03 -1.193981803953647614e-02 2.337987162172794342e-02 -1.939024403691291809e-02 7.000179030001163483e-03 -2.415703795850276947e-02 2.678619464859366417e-03 -4.659828543663024902e-02 -1.038280129432678223e-02 3.318231180310249329e-02 -5.459051951766014099e-02 3.156747296452522278e-02 -2.042888198047876358e-03 -1.543889660388231277e-02 1.594627648591995239e-02 6.906549097038805485e-04 4.753086715936660767e-03 -7.183670997619628906e-02 3.621935844421386719e-02 -3.500340133905410767e-02 -1.212269999086856842e-02 -1.829532720148563385e-02 -5.175470933318138123e-02 3.546521067619323730e-02 -3.283027186989784241e-02 -1.477321423590183258e-02 1.934392750263214111e-02 -6.756345927715301514e-02 6.534898420795798302e-04 1.778048649430274963e-02 -6.582278013229370117e-02 1.184385549277067184e-02 -3.658252581954002380e-02 3.207971528172492981e-02 2.917723916471004486e-02 -6.178354960866272449e-04 -6.792902946472167969e-02 -3.318034484982490540e-02 -3.999156504869461060e-02 2.973805181682109833e-02 -4.487973451614379883e-02 -1.042250245809555054e-01 1.823423057794570923e-02 8.283884264528751373e-03 -4.007020220160484314e-02 -1.854267902672290802e-02 5.207296088337898254e-02 -1.883580908179283142e-02 1.787349022924900055e-02 3.956504911184310913e-02 9.293809416703879833e-04 -3.092685341835021973e-02 -6.383265834301710129e-03 3.414322808384895325e-02 -4.405441135168075562e-02 1.681255176663398743e-02 -3.401532885618507862e-04 2.364054694771766663e-02 8.631411008536815643e-03 3.772405907511711121e-02 -1.554479915648698807e-02 -1.466342806816101074e-02 6.949856877326965332e-03 4.964716732501983643e-02 6.240990385413169861e-02 -7.459434121847152710e-02 -1.302009448409080505e-02 -8.024050854146480560e-03 -6.551391631364822388e-02 2.659440971910953522e-02 -6.223178934305906296e-03 -2.832067571580410004e-02 7.274543493986129761e-02 2.350187487900257111e-02 -1.122365053743124008e-02 7.560766488313674927e-02 -3.542917594313621521e-02 -3.467349102720618248e-03 -2.043264731764793396e-02 -3.159041330218315125e-02 -3.111505508422851562e-02 -2.017942257225513458e-02 1.467464398592710495e-02 2.887865155935287476e-02 4.628618713468313217e-03 -2.678408287465572357e-02 2.043758518993854523e-02 -1.938456110656261444e-02 5.432884395122528076e-02 -7.242738734930753708e-03 7.344031333923339844e-02 -3.146738046780228615e-03 -3.816859051585197449e-02 -2.787196636199951172e-02 -3.647854924201965332e-02 1.032578758895397186e-02 -7.347993552684783936e-02 5.838182941079139709e-02 -5.978244356811046600e-03 -5.044530262239277363e-04 3.576048463582992554e-02 -5.692054331302642822e-02 5.230323225259780884e-02 6.953986827284097672e-03 5.544113367795944214e-02 2.683417871594429016e-03 2.090657688677310944e-02 -1.503948587924242020e-02 -2.308876067399978638e-02 1.682364847511053085e-03 -5.103451013565063477e-02 -3.871909156441688538e-02 8.978514373302459717e-02 -7.212995551526546478e-03 1.207057014107704163e-02 6.365250796079635620e-03 6.936372723430395126e-03 -3.011815063655376434e-02 7.105091959238052368e-02 -2.836290001869201660e-02 -2.671051397919654846e-02 5.778080970048904419e-02 6.594801321625709534e-03 -3.178328275680541992e-02 1.675698347389698029e-02 6.004601716995239258e-02 -2.414965443313121796e-02 -8.235687389969825745e-03 3.559289127588272095e-02 9.459275752305984497e-03 -1.428794022649526596e-02 1.765069179236888885e-02 3.737744316458702087e-02 -3.142274543642997742e-02 -2.789927087724208832e-02 3.393463417887687683e-02 -1.289061084389686584e-02 -2.960783196613192558e-03 7.568975538015365601e-02 -2.753603458404541016e-02 -4.774761945009231567e-02 4.100894555449485779e-03 5.054658278822898865e-02 4.228742793202400208e-03 7.436693646013736725e-03 5.709442123770713806e-02 -5.259009823203086853e-02 3.062414191663265228e-02 4.197070840746164322e-03 1.861798763275146484e-02 -4.911515489220619202e-02 -4.943707585334777832e-02 4.382031783461570740e-02 -4.290479794144630432e-02 5.739083886146545410e-02 -2.292751893401145935e-02 -9.979663416743278503e-03 -5.773891229182481766e-03 -1.245779916644096375e-03 -5.828185006976127625e-03 -1.653349772095680237e-02 1.971971243619918823e-02 8.021021634340286255e-02 5.697542801499366760e-02 2.959187515079975128e-02 3.871272504329681396e-02 3.556796535849571228e-02 6.145151704549789429e-02 -3.353989217430353165e-03 6.622040271759033203e-02 -4.794855043292045593e-02 -3.747862647287547588e-04 4.277953132987022400e-02 4.677048698067665100e-02 1.583773270249366760e-02 3.448034822940826416e-02 -8.660666644573211670e-03 -1.725497841835021973e-02 -4.381408914923667908e-03 7.798560708761215210e-02 -5.540249869227409363e-02 -5.403674207627773285e-03 7.674050051718950272e-03 -3.019107133150100708e-02 2.073041163384914398e-02 5.682398099452257156e-03 1.260058581829071045e-02 -1.058234926313161850e-02 -4.519296810030937195e-02 -2.680461853742599487e-03 -3.423972800374031067e-02 -9.002879261970520020e-02 -4.337494075298309326e-02 -2.954582683742046356e-02
-7.252969779074192047e-03 4.465379193425178528e-02 -2.032510004937648773e-02 2.498206309974193573e-02 -2.952881902456283569e-02 5.232318490743637085e-02 7.861193269491195679e-03 1.171588003635406494e-01 2.428409643471240997e-02 -1.934922672808170319e-02 5.231565982103347778e-02 -8.851613104343414307e-02 -2.790444763377308846e-03 -2.153120376169681549e-02 6.631265860050916672e-03 -1.511151157319545746e-02 -5.624757334589958191e-02 1.630302169360220432e-03 1.821590773761272430e-02 2.223332226276397705e-02 6.730237603187561035e-02 -2.389923669397830963e-02 -4.395576566457748413e-02 -4.469775408506393433e-02 5.176862701773643494e-03 -4.945845901966094971e-02 1.026345267891883850e-01 -1.814611814916133881e-02 5.834108591079711914e-02 2.094852179288864136e-02 1.689286157488822937e-02 -5.892783775925636292e-02 -9.672245010733604431e-03 -1.812590472400188446e-02 1.063695922493934631e-02 -4.563472792506217957e-02 -1.416381169110536575e-02 3.181695193052291870e-02 -4.995923861861228943e-02 2.832891792058944702e-02 -1.426364388316869736e-02 -4.237804561853408813e-03 3.498515859246253967e-02 -2.944781631231307983e-02 -2.335453033447265625e-02 -2.069544233381748199e-02 -5.455116927623748779e-02 -5.131226964294910431e-03 -8.093410171568393707e-03 -4.571742191910743713e-02 -6.955908983945846558e-02 -4.080739244818687439e-02 1.886242534965276718e-03 8.096875622868537903e-03 -1.497647073119878769e-02 -7.743575610220432281e-03 -4.459249600768089294e-02 4.868699982762336731e-02 3.878813609480857849e-02 9.809385985136032104e-03 -9.436598047614097595e-03 -2.080659754574298859e-02 -2.230786345899105072e-02 -9.962942451238632202e-03 -2.401897870004177094e-02 -6.803213618695735931e-03 3.901262825820595026e-04 -8.366282097995281219e-03 -3.326335223391652107e-03 8.872023224830627441e-02 -2.444936707615852356e-02 1.741116517223417759e-03 -1.767742820084095001e-02 -2.342486940324306488e-02 4.942648857831954956e-02 8.639195002615451813e-03 -4.450161010026931763e-02 -1.887946762144565582e-02 -4.252916667610406876e-03 3.521767258644104004e-02 4.711842164397239685e-02 -8.302419446408748627e-03 4.105585813522338867e-02 -7.350492477416992188e-02 -2.129863388836383820e-02 1.218478009104728699e-02 -2.044473774731159210e-02 2.210265398025512695e-02 2.960894443094730377e-02 -3.886684775352478027e-02 -6.882175803184509277e-02 5.793390423059463501e-02 -3.104750812053680420e-02 -3.557401243597269058e-03 -1.507102977484464645e-02 -1.202169153839349747e-02 -5.515459552407264709e-02 4.045045003294944763e-02 2.105336450040340424e-02 -8.575475960969924927e-02 3.797505050897598267e-03 -5.729096382856369019e-02 -5.043492466211318970e-02 2.186102978885173798e-02 -6.623581983149051666e-03 -1.561932824552059174e-02 -6.627723574638366699e-02 -1.953195966780185699e-02 1.930049248039722443e-02 -6.633350998163223267e-02 -1.996465586125850677e-02 4.655743017792701721e-02 -7.679138216190040112e-04 6.145061925053596497e-03 1.681621372699737549e-02 -1.640698127448558807e-02 -7.721087895333766937e-03 3.987152874469757080e-02 -1.745931990444660187e-02 9.727779775857925415e-03 7.958944886922836304e-02 1.509607862681150436e-02 4.117510281503200531e-03 -1.496872492134571075e-02 -7.428557612001895905e-03 8.263866417109966278e-03 8.795492351055145264e-03 -7.612176705151796341e-03 2.959851920604705811e-02 -3.005729429423809052e-02 -1.251969207078218460e-02 -5.720111727714538574e-02 -1.311148237437009811e-02 -2.846847102046012878e-02 -2.860965393483638763e-02 5.968425422906875610e-02 -2.391786128282546997e-02 1.292125042527914047e-02 9.124553762376308441e-03 -2.982354909181594849e-02 6.223895400762557983e-02 6.538180261850357056e-02 6.885783374309539795e-02 1.018629502505064011e-02 -3.348989039659500122e-02 5.728269368410110474e-02 -3.286793828010559082e-02 1.824198663234710693e-02 5.201655626296997070e-02 -1.392286270856857300e-02 5.586039274930953979e-02 3.794433176517486572e-02 -1.554845832288265228e-02 8.536582812666893005e-03 -5.197525024414062500e-02 2.424736972898244858e-03 4.182319156825542450e-03 -1.178273465484380722e-02 1.812390238046646118e-02 -4.140150547027587891e-02 1.944505609571933746e-02 1.718778163194656372e-02 4.538106173276901245e-02 -2.166107296943664551e-03 -1.418594922870397568e-02 6.093924865126609802e-02 4.205858334898948669e-02 -1.757842302322387695e-02 -5.162624176591634750e-03 3.573726117610931396e-02 5.275145918130874634e-02 -6.767367594875395298e-04 3.268832713365554810e-02 -1.530279312282800674e-02 -2.299489453434944153e-02 4.876511171460151672e-03 4.738136380910873413e-02 -3.725160285830497742e-02 4.198029637336730957e-02 -1.671513915061950684e-02 6.947591900825500488e-02 6.250870414078235626e-03 -4.637202993035316467e-02 -6.744263810105621815e-04 -4.131696373224258423e-02 -5.139318853616714478e-02 -5.324478819966316223e-02 -5.534050613641738892e-02 6.660220678895711899e-04 5.775330588221549988e-02 7.692950218915939331e-02 -5.683124065399169922e-02 9.667140431702136993e-03 1.277496013790369034e-02 -6.084001809358596802e-02 4.280358925461769104e-02 -3.660104423761367798e-02 3.684161603450775146e-02 1.718045398592948914e-02 -2.753680571913719177e-02 2.660199254751205444e-02 -2.482144720852375031e-02 -8.724848739802837372e-03 1.036111358553171158e-02 2.303368039429187775e-02 -1.534606912173330784e-03 -8.992970106191933155e-04 3.433135896921157837e-02 -9.726247750222682953e-03 1.913083158433437347e-02 2.964058332145214081e-02 -2.394806593656539917e-02 1.758750714361667633e-02 -2.692020870745182037e-02 9.341665357351303101e-02 3.763644024729728699e-02 -2.528303069993853569e-03 -5.130805075168609619e-03 -1.626225886866450310e-03 -2.610360085964202881e-02 1.160896569490432739e-02 5.261026695370674133e-02 -6.776858121156692505e-02 -7.519116625189781189e-03 -2.015731669962406158e-02 -1.661697216331958771e-02 3.481911867856979370e-02 4.680214449763298035e-02 2.002275921404361725e-02 4.385494440793991089e-02 2.459356095641851425e-03 -5.299429595470428467e-02 -2.444778569042682648e-02 -3.254249691963195801e-02 -2.699757739901542664e-02 3.451343998312950134e-02 -2.379266358911991119e-02 -2.598695084452629089e-02 7.340501993894577026e-03 -3.388007730245590210e-02 5.425872653722763062e-02 5.991868302226066589e-02 2.509996294975280762e-03 3.290032967925071716e-02 -5.049251019954681396e-03 5.201756022870540619e-03 5.251684784889221191e-02 -3.673907369375228882e-02 8.711654692888259888e-03 4.162332788109779358e-02 1.081169303506612778e-02 5.334680527448654175e-02 -1.492155529558658600e-02 3.046629764139652252e-02 5.857922136783599854e-02 -2.764247730374336243e-02
3.284186124801635742e-02 -3.891624137759208679e-02 -3.048492828384041786e-03 2.420805953443050385e-02 -1.975531456992030144e-03 -7.170989643782377243e-03 2.766342833638191223e-02 4.837305843830108643e-02 -7.905632257461547852e-03 -6.305464077740907669e-03 -1.540675479918718338e-02 8.769553154706954956e-03 2.278052084147930145e-02 -7.946284487843513489e-03 -2.705895574763417244e-03 6.825610995292663574e-03 -7.650523912161588669e-03 -2.374814590439200401e-03 -2.637307345867156982e-02 2.481059916317462921e-02 -4.391785711050033569e-02 -5.789792165160179138e-03 -3.124042041599750519e-02 -2.530475333333015442e-02 4.912925511598587036e-02 5.960949137806892395e-02 -4.163870960474014282e-02 -2.303146570920944214e-02 8.451047353446483612e-03 -6.082725711166858673e-03 6.164174061268568039e-03 4.242726042866706848e-02 -2.743420191109180450e-02 -2.108471281826496124e-02 4.301560111343860626e-03 -1.118616666644811630e-02 1.620271615684032440e-02 2.722023054957389832e-02 -4.580897837877273560e-02 -4.466621950268745422e-02 -1.135882083326578140e-02 2.568851923570036888e-03 6.347179412841796875e-02 -8.945331908762454987e-03 4.569378681480884552e-03 -1.439179759472608566e-02 -1.698123058304190636e-03 8.657437749207019806e-03 4.781885072588920593e-03 2.291445387527346611e-03 2.374163269996643066e-02 8.237323723733425140e-03 -1.872868649661540985e-02 -6.619204580783843994e-02 -7.068150211125612259e-03 -2.160094864666461945e-02 2.657740004360675812e-02 4.981257487088441849e-03 9.463849663734436035e-02 -2.243155986070632935e-02 7.272867951542139053e-03 -9.157535620033740997e-03 3.324622288346290588e-02 1.997963152825832367e-02 -4.069043789058923721e-03 -8.759460598230361938e-02 3.647084906697273254e-02 -1.002144417725503445e-03 5.548035725951194763e-02 -1.715464331209659576e-02 -1.578442752361297607e-02 9.966628625988960266e-03 -7.302513718605041504e-02 -6.593085080385208130e-02 1.753224432468414307e-02 -5.568238440901041031e-03 -2.428343333303928375e-02 7.267396152019500732e-02 -1.632572151720523834e-02 -6.946647912263870239e-02 1.144753769040107727e-02 -8.782489597797393799e-02 -7.455421146005392075e-03 -4.618847277015447617e-03 3.009504824876785278e-02 1.012453716248273849e-02 -1.138123683631420135e-02 1.931333541870117188e-02 -2.823957614600658417e-02 2.482322789728641510e-02 -1.918033510446548462e-02 1.157138380222022533e-03 4.895073827356100082e-03 -1.763807050883769989e-02 2.017199294641613960e-04 -3.650818392634391785e-02 1.244148612022399902e-02 2.696873852983117104e-03 9.048014879226684570e-03 -8.750776760280132294e-03 -1.708326302468776703e-02 6.596372276544570923e-02 3.038951195776462555e-02 7.524592801928520203e-03 -9.602387435734272003e-03 -2.115694992244243622e-02 -2.372837625443935394e-02 4.710803739726543427e-03 3.942308947443962097e-02 9.819035977125167847e-02 4.080006387084722519e-03 -1.800707355141639709e-02 7.184598129242658615e-03 -1.610049605369567871e-02 3.353130072355270386e-02 3.410676121711730957e-02 3.396541625261306763e-02 -3.671493381261825562e-02 -4.003760986961424351e-04 2.019470185041427612e-02 2.330932766199111938e-02 3.500340506434440613e-03 3.300428763031959534e-02 -2.125708386301994324e-02 5.356092751026153564e-02 3.341121191624552011e-04 7.377567701041698456e-03 -9.694477543234825134e-03 1.478107459843158722e-02 1.135253347456455231e-02 4.017950966954231262e-02 -8.349614217877388000e-03 4.505794122815132141e-02 3.385240212082862854e-02 1.145071908831596375e-02 -1.625982858240604401e-02 8.638242632150650024e-02 -3.202186524868011475e-02 8.492171764373779297e-03 -2.912372909486293793e-02 -5.971032008528709412e-02 1.072981161996722221e-03 4.225873574614524841e-02 4.646164365112781525e-03 -1.666505821049213409e-02 4.836488515138626099e-02 3.303209552541375160e-03 -1.257975772023200989e-02 -1.376082096248865128e-02 -2.249834686517715454e-02 3.039569035172462463e-02 4.542175307869911194e-02 1.531513687223196030e-02 -4.244687035679817200e-02 1.168660164694301784e-04 2.441458404064178467e-02 4.150072857737541199e-02 -3.892940236255526543e-03 -1.759005710482597351e-02 1.891986094415187836e-02 -6.181471515446901321e-03 -2.974363230168819427e-02 2.564991824328899384e-02 1.543218549340963364e-02 2.134130150079727173e-02 4.211479052901268005e-02 -4.863639362156391144e-03 -6.948797497898340225e-03 -4.190547391772270203e-03 -5.984157323837280273e-02 -5.454464629292488098e-02 5.388039629906415939e-03 2.378792688250541687e-02 8.203770034015178680e-03 -1.698207668960094452e-02 2.214331179857254028e-02 5.725672096014022827e-02 -2.882171981036663055e-02 2.351308800280094147e-02 -7.616873830556869507e-02 9.639589115977287292e-03 3.081982722505927086e-03 8.347074501216411591e-03 -7.126422598958015442e-03 -7.356478367000818253e-03 -3.016282431781291962e-02 -2.377146482467651367e-02 -2.784925885498523712e-02 -3.855562955141067505e-02 6.579776108264923096e-02 -2.687473967671394348e-02 -4.943548515439033508e-02 7.651792839169502258e-03 5.871329922229051590e-03 2.069603838026523590e-02 2.401070110499858856e-02 2.556846663355827332e-02 2.339561842381954193e-02 -7.743984460830688477e-02 -1.055907364934682846e-02 1.702226814813911915e-03 -2.926624007523059845e-02 1.003619581460952759e-01 3.190527856349945068e-02 1.056901551783084869e-02 -1.788020320236682892e-02 1.693347282707691193e-02 -2.365025226026773453e-03 -1.313895639032125473e-02 4.496853798627853394e-02 2.398015558719635010e-02 -3.649554029107093811e-02 2.297842502593994141e-02 -1.732303947210311890e-02 -3.543858602643013000e-02 2.981615811586380005e-02 2.276068320497870445e-03 -4.220066592097282410e-02 -1.145024746656417847e-01 -8.114093542098999023e-02 2.428518794476985931e-02 1.188444346189498901e-02 -4.064297303557395935e-02 2.343922154977917671e-03 -1.999501883983612061e-02 1.418786030262708664e-02 1.770915463566780090e-02 -1.507343165576457977e-02 1.944822259247303009e-03 -4.369353130459785461e-02 8.040080964565277100e-02 2.604896575212478638e-02 3.230790793895721436e-02 1.422439515590667725e-02 1.963464915752410889e-02 -1.776292733848094940e-02 -1.833251677453517914e-02 1.626629941165447235e-02 -1.660639233887195587e-02 -7.920038700103759766e-02 -7.773636281490325928e-02 2.953953109681606293e-02 1.570465788245201111e-02 -2.992577664554119110e-02 8.650634437799453735e-03 2.778438152745366096e-03 2.490475773811340332e-02 1.687992177903652191e-02 -2.099165879189968109e-02 -1.819449663162231445e-02 2.241088449954986572e-02 -6.066908687353134155e-02 -4.204975068569183350e-02 -1.395098399370908737e-02 -1.043110899627208710e-02 1.498109474778175354e-02
4.666292667388916016e-02 7.633665949106216431e-02 8.617830276489257812e-02 -7.657567039132118225e-03 -1.582582108676433563e-02 1.891563460230827332e-02 -3.644795343279838562e-02 6.913933902978897095e-03 -3.535529831424355507e-03 6.281531602144241333e-02 2.770014479756355286e-02 1.918579451739788055e-02 -2.003818377852439880e-02 4.583632573485374451e-02 -3.342863544821739197e-02 -3.338807448744773865e-02 3.286735340952873230e-02 2.105245366692543030e-02 -4.362827632576227188e-03 -5.520756170153617859e-02 -2.832141146063804626e-02 -4.653383512049913406e-03 4.988913983106613159e-02 -4.183888435363769531e-02 4.552156105637550354e-02 3.278062492609024048e-02 7.429883815348148346e-03 7.165098935365676880e-02 -1.759484596550464630e-02 -1.755466125905513763e-02 -1.638366468250751495e-02 2.363705262541770935e-02 -3.640526905655860901e-02 1.791477017104625702e-02 8.507486432790756226e-02 -2.009934931993484497e-02 -3.516104072332382202e-02 -6.192734837532043457e-02 -1.765046385116875172e-03 1.798433810472488403e-02 -3.325283527374267578e-02 7.387456297874450684e-02 4.107121005654335022e-02 -2.544441819190979004e-02 -1.519458647817373276e-02 -2.239267714321613312e-02 -4.253700003027915955e-02 -4.597065225243568420e-02 6.651970744132995605e-02 1.460949424654245377e-02 -1.202503591775894165e-02 -1.921392045915126801e-02 -1.084069088101387024e-01 -4.711710289120674133e-02 -2.724617347121238708e-02 -4.675710573792457581e-02 -3.895289078354835510e-02 -3.038479946553707123e-02 6.098374351859092712e-02 -8.876981446519494057e-04 -5.397735163569450378e-02 -1.167357526719570160e-02 2.077155746519565582e-02 -1.005691364407539368e-01 4.571345075964927673e-02 5.360711738467216492e-02 4.123736172914505005e-02 6.120920553803443909e-02 1.860731467604637146e-02 1.332441065460443497e-02 -3.361276909708976746e-02 -6.898734718561172485e-02 6.296512484550476074e-02 2.627065964043140411e-02 1.341513916850090027e-02 -2.224544435739517212e-02 -1.842828840017318726e-02 1.408531982451677322e-02 1.709561981260776520e-02 3.666143491864204407e-02 3.017268888652324677e-02 -1.743088848888874054e-02 1.316297501325607300e-01 -5.569585785269737244e-02 3.688751533627510071e-02 -4.110773652791976929e-02 -4.641999024897813797e-03 -6.810688879340887070e-03 -6.645976006984710693e-02 4.775251261889934540e-03 7.092973217368125916e-03 2.928408235311508179e-02 -3.449823334813117981e-02 -5.268422886729240417e-02 -1.417092233896255493e-02 -5.950651830062270164e-04 -2.747627208009362221e-03 3.543078154325485229e-02 -4.444233328104019165e-02 -6.548024830408394337e-04 -4.713795147836208344e-03 -5.742436274886131287e-02 -1.958521641790866852e-02 4.789180308580398560e-02 3.742085024714469910e-02 -4.161975160241127014e-02 -2.006134018301963806e-02 9.228182025253772736e-03 -1.297527831047773361e-02 3.294154629111289978e-02 -1.466148626059293747e-02 -1.828714739531278610e-03 1.029809415340423584e-01 7.687892019748687744e-02 1.588438749313354492e-01 -8.709157258272171021e-02 -4.281136766076087952e-02 -3.469840437173843384e-02 1.262574922293424606e-02 -9.666373580694198608e-02 2.615611627697944641e-02 -8.048588037490844727e-02 4.827804490923881531e-02 4.106636624783277512e-03 3.081975132226943970e-02 -1.742480881512165070e-02 -2.275625430047512054e-02 6.426794081926345825e-02 -9.109448641538619995e-02 -3.963444754481315613e-02 -2.945745736360549927e-02 -1.940586976706981659e-02 6.430722028017044067e-02 1.645139046013355255e-02 2.723415382206439972e-02 -4.762426018714904785e-02 -1.904672197997570038e-02 -2.861811034381389618e-02 -6.076867505908012390e-02 -1.015520021319389343e-01 7.738219201564788818e-02 -7.695537526160478592e-03 -1.085638417862355709e-03 -3.085576929152011871e-02 -2.573207765817642212e-02 -2.669362351298332214e-03 -7.802383508533239365e-03 5.109109729528427124e-02 1.958821155130863190e-02 -1.676283590495586395e-02 1.322693824768066406e-01 -2.680098265409469604e-02 -8.142413198947906494e-02 6.010400131344795227e-02 -4.335806518793106079e-02 4.740215465426445007e-02 -2.874424122273921967e-02 -4.148296639323234558e-02 5.010581389069557190e-02 4.996640980243682861e-02 5.515013821423053741e-03 -3.988877683877944946e-02 -5.021004378795623779e-02 7.619597017765045166e-02 -1.026138216257095337e-01 6.070697680115699768e-02 -7.267747819423675537e-02 -8.006429299712181091e-03 -1.632979884743690491e-02 -1.370952278375625610e-02 4.313342645764350891e-02 -4.584343358874320984e-02 -4.863682202994823456e-03 9.249761933460831642e-04 -4.017026349902153015e-02 -7.255606353282928467e-03 7.533941417932510376e-03 -9.199816733598709106e-03 -4.033496230840682983e-02 -2.308175899088382721e-02 5.247431248426437378e-02 2.662201970815658569e-02 2.620088309049606323e-02 4.598861187696456909e-02 4.475848376750946045e-02 3.423003945499658585e-03 -3.686350304633378983e-03 7.844720780849456787e-02 -1.818664930760860443e-02 7.167614996433258057e-02 -1.676630787551403046e-02 -3.194635361433029175e-02 5.697996169328689575e-02 -5.840399116277694702e-02 4.654842428863048553e-03 -3.303541988134384155e-02 1.462088897824287415e-02 -6.388834863901138306e-02 -1.177165936678647995e-02 -5.135313421487808228e-02 4.389940574765205383e-02 2.362689189612865448e-02 -2.745784260332584381e-02 -4.276609420776367188e-02 3.300803527235984802e-02 -7.117055938579142094e-04 4.099063947796821594e-02 -9.634021669626235962e-03 2.232745988294482231e-03 1.668577454984188080e-02 -1.429984066635370255e-02 6.557061523199081421e-02 8.927618712186813354e-02 4.803367890417575836e-03 -2.897952497005462646e-02 -2.442860975861549377e-02 1.034754142165184021e-02 7.131483871489763260e-03 -5.627916380763053894e-02 4.555062856525182724e-03 -5.760395526885986328e-02 -1.584362611174583435e-02 -5.260441452264785767e-03 6.409352272748947144e-02 3.956074640154838562e-02 -5.205665528774261475e-02 1.101528573781251907e-02 3.061362914741039276e-02 1.653787307441234589e-02 -1.292096357792615891e-02 -2.727170288562774658e-02 4.522053524851799011e-02 -4.129740968346595764e-02 -4.215712472796440125e-02 -3.324146196246147156e-02 1.724096201360225677e-02 6.440733373165130615e-02 -5.925979092717170715e-02 5.556121841073036194e-02 7.073025405406951904e-02 2.463534474372863770e-03 7.357009500265121460e-02 -5.521742161363363266e-03 1.378753688186407089e-02 3.458977676928043365e-03 3.392792493104934692e-02 -6.064112856984138489e-02 4.283528402447700500e-02 -2.948084846138954163e-02 -1.883862353861331940e-02 -3.927096351981163025e-02 -2.406104840338230133e-02 2.540452964603900909e-02 -2.617686055600643158e-02 -1.288836728781461716e-02 4.927633330225944519e-02
