7.150840759277343750e-02 -2.479675263166427612e-01 -1.176799237728118896e-01 -1.691302210092544556e-01 1.182917505502700806e-02 -3.768345713615417480e-02 2.946232259273529053e-01 -8.459214866161346436e-02 -7.406226545572280884e-02 -2.472883835434913635e-02 -4.459776356816291809e-02 -2.091517858207225800e-02 -1.769695803523063660e-02 1.601606421172618866e-02 1.234228238463401794e-01 1.097918152809143066e-01 6.389890611171722412e-02 -7.164212316274642944e-02 1.662896722555160522e-01 -6.187042221426963806e-02 9.553960710763931274e-02 2.669443488121032715e-01 1.686681061983108521e-01 -1.983613967895507812e-01 6.395825743675231934e-02 9.676503948867321014e-03 1.140508279204368591e-01 -2.069639116525650024e-01 1.180868521332740784e-01 -7.869490236043930054e-02 2.842267230153083801e-02 -7.636989653110504150e-02 -1.475869566202163696e-01 -7.079727947711944580e-02 3.270319849252700806e-02 3.309969604015350342e-02 -5.238492414355278015e-02 3.522023931145668030e-02 -3.515130653977394104e-02 -4.759672656655311584e-02 -4.249566793441772461e-02 8.220343291759490967e-02 -4.748477786779403687e-02 -7.378463447093963623e-02 1.813132688403129578e-02 -1.416276395320892334e-01 -2.782487869262695312e-01 -1.206766813993453979e-01 -2.759930491447448730e-02 8.905079215764999390e-03 -3.048568405210971832e-02 -4.289656579494476318e-01 -2.034938335418701172e-01 2.976220548152923584e-01 1.472885999828577042e-02 1.013630852103233337e-01 4.531651437282562256e-01 1.702984571456909180e-01 -7.560272701084613800e-03 5.676147937774658203e-01 3.340761177241802216e-03 -1.486520171165466309e-01 7.578016072511672974e-02 -3.451048210263252258e-02 -4.788696393370628357e-02 -1.317379623651504517e-01 8.329612761735916138e-02 2.425064705312252045e-02 -6.937243044376373291e-02 -2.192570716142654419e-01 -6.150261685252189636e-02 5.266573280096054077e-02 3.971379399299621582e-01 -1.434720158576965332e-01 2.541813552379608154e-01 5.359986796975135803e-02 -3.986259996891021729e-01 4.390195384621620178e-02 -2.331672906875610352e-01 2.040138244628906250e-01 7.173917256295681000e-03 7.677549868822097778e-02 5.017925053834915161e-03 4.415415972471237183e-02 -5.528077483177185059e-02 -7.704171538352966309e-02 4.671972617506980896e-02 1.565383821725845337e-01 -6.749724596738815308e-02 -6.476622819900512695e-02 -2.720147743821144104e-02 1.031033843755722046e-01 1.415324658155441284e-01 8.252483606338500977e-02 6.962531805038452148e-02 1.011193841695785522e-01 9.605591893196105957e-01 -1.302499044686555862e-02 2.064462937414646149e-02 1.967442035675048828e-02 1.259179087355732918e-03 -5.523764342069625854e-02 -1.106949672102928162e-01 5.797817930579185486e-02 -2.605650573968887329e-02 2.780131436884403229e-02 4.195302724838256836e-02 1.300148814916610718e-01 8.878634124994277954e-02 -7.081301510334014893e-02 8.229219354689121246e-03 -2.997229248285293579e-02 -3.304935619235038757e-02 -7.068757712841033936e-02 1.601835153996944427e-02 -2.673605382442474365e-01 6.669314950704574585e-02 4.539625346660614014e-02 1.232102960348129272e-01 -2.834131941199302673e-02 6.813538819551467896e-02 -4.057483375072479248e-01 3.402778180316090584e-03 1.767385005950927734e-02 4.259319901466369629e-01 2.121192403137683868e-03 -1.019296608865261078e-02 4.925471544265747070e-02 -3.784323635045439005e-04 1.640751399099826813e-02 -2.072430998086929321e-01 -5.991468206048011780e-03 2.820679545402526855e-01 1.844004541635513306e-02 1.761599928140640259e-01 -3.565636575222015381e-01 -5.504519492387771606e-02 1.015372201800346375e-01 -1.327833533287048340e-01 8.404482156038284302e-02 8.015131950378417969e-02 -9.381272830069065094e-03 -4.455916956067085266e-02 1.873777806758880615e-01 6.432700902223587036e-02 4.283198341727256775e-02 4.348155111074447632e-02 -7.623818516731262207e-02 7.955259643495082855e-03 -3.327407315373420715e-02 -4.756056144833564758e-02 1.807838976383209229e-01 6.872505694627761841e-02 7.509752362966537476e-02 -5.288792308419942856e-03 2.258128114044666290e-02 -3.336030989885330200e-02 -1.522231698036193848e-01 -1.543313730508089066e-02 3.485114872455596924e-02 1.136314570903778076e-01 5.048581957817077637e-02 -3.323664367198944092e-01 4.672118648886680603e-02 2.384008020162582397e-01 3.338325396180152893e-02 -1.044328808784484863e-01 5.024413466453552246e-01 -2.602873742580413818e-02 -1.254067011177539825e-02 -2.548341639339923859e-02 -3.203831240534782410e-02 -1.745387315750122070e-01 -1.380544602870941162e-01 1.918895095586776733e-01 -2.412090264260768890e-02 -2.113983035087585449e-02 1.101338583976030350e-02 4.631619900465011597e-02 8.219320327043533325e-02 -9.804026782512664795e-02 1.794578693807125092e-02 -4.203796386718750000e-02 1.549324244260787964e-01 8.269976079463958740e-02 4.260385408997535706e-02 5.018208622932434082e-01 -4.393269866704940796e-02 3.304052352905273438e-02 1.323281973600387573e-01 -1.816827207803726196e-01 -4.153779149055480957e-01 -1.483575347810983658e-02 3.557276353240013123e-02 4.568449407815933228e-02 -2.344547659158706665e-01 4.288448393344879150e-02 -2.336059212684631348e-01 1.780428588390350342e-01 -4.114342927932739258e-01 -4.617945477366447449e-02 -1.228210479021072388e-01 4.786596167832612991e-03 3.331328928470611572e-01 2.770280698314309120e-03 -3.352022904437035322e-04 -1.639428175985813141e-02 -2.504537440836429596e-02 -4.524587467312812805e-02 7.952492684125900269e-02 -4.981602728366851807e-02 -6.842777132987976074e-02 -4.958081245422363281e-02 4.979494586586952209e-02 -1.311945077031850815e-02 1.159923151135444641e-01 -1.032014787197113037e-01 1.647923956625163555e-03 -1.586384475231170654e-01 7.375555485486984253e-02 -3.843526542186737061e-02 -2.916783466935157776e-02 -5.206178128719329834e-02 8.792690001428127289e-03 -2.619081735610961914e-02 -2.876350581645965576e-01 1.565233245491981506e-02 -6.285486370325088501e-02 -2.694614529609680176e-01 -3.910948336124420166e-01 -6.988686975091695786e-03 -1.315569505095481873e-02 -8.637878298759460449e-02 1.572666764259338379e-01 -1.226372867822647095e-01 1.902094781398773193e-01 -3.438202440738677979e-01 6.065532192587852478e-02 2.584966421127319336e-01 -1.424959599971771240e-01 1.499554663896560669e-01 -1.032429374754428864e-02 -5.178854614496231079e-02 -2.914138138294219971e-01 -2.617927454411983490e-02 -3.508768975734710693e-02 -1.412858814001083374e-02 -1.798823773860931396e-01 -3.698074221611022949e-01 5.084938406944274902e-01 -6.440615653991699219e-02 3.962188214063644409e-02 -8.526961505413055420e-02 -1.896208152174949646e-02 -5.852445960044860840e-02 1.991081684827804565e-01
-1.203810237348079681e-02 -3.261752426624298096e-01 2.405878305435180664e-01 -1.782852560281753540e-01 2.131958492100238800e-02 -1.591085642576217651e-02 -6.969180703163146973e-02 1.592085696756839752e-02 -2.400906383991241455e-01 -1.481253001838922501e-02 -1.993252895772457123e-02 3.026840090751647949e-02 6.578041613101959229e-02 1.077488511800765991e-01 -1.526051759719848633e-02 2.952315099537372589e-02 -7.405390590429306030e-02 1.806207746267318726e-01 -1.183875277638435364e-01 -9.282895922660827637e-02 -5.209131911396980286e-02 2.211911417543888092e-02 2.003649324178695679e-01 -1.738392934203147888e-02 -1.831896416842937469e-02 -2.538658678531646729e-01 1.146678719669580460e-02 3.979684785008430481e-03 1.648105978965759277e-01 -4.966941662132740021e-03 4.769389703869819641e-02 -1.499243676662445068e-01 1.147227548062801361e-02 9.880509227514266968e-02 -1.865283697843551636e-01 4.278761148452758789e-02 -6.995236873626708984e-02 2.618391811847686768e-02 -1.289237737655639648e-01 4.923141747713088989e-02 -1.452596392482519150e-02 -6.029036641120910645e-02 4.790473729372024536e-02 8.040498942136764526e-02 -1.145152077078819275e-01 2.194694131612777710e-01 -4.298945665359497070e-01 1.578936427831649780e-01 -8.541353978216648102e-03 -6.007052026689052582e-03 2.733504772186279297e-02 1.224197596311569214e-01 2.661137282848358154e-01 3.227284550666809082e-01 8.640025742352008820e-03 1.197726950049400330e-01 -1.847111284732818604e-01 -6.487474590539932251e-02 -5.039927083998918533e-03 3.267526328563690186e-01 6.304796040058135986e-02 -2.705076038837432861e-01 -6.791920959949493408e-02 -9.080784395337104797e-03 -7.873530499637126923e-03 4.158554971218109131e-02 -5.326991900801658630e-02 7.995349168777465820e-02 -4.086003080010414124e-02 7.971327006816864014e-02 -1.190670281648635864e-01 -7.936824858188629150e-02 -1.400019824504852295e-01 -1.033072024583816528e-01 -6.383045017719268799e-02 -5.596738308668136597e-02 1.356070674955844879e-02 -5.236094817519187927e-03 2.105564922094345093e-01 2.918204367160797119e-01 -4.921381175518035889e-02 -9.842672199010848999e-02 1.086599100381135941e-02 -5.581516399979591370e-02 1.511412560939788818e-01 -2.885204367339611053e-02 -7.323136925697326660e-02 -1.970668435096740723e-01 -2.570478804409503937e-02 -1.038141697645187378e-01 2.312704687938094139e-03 4.712935071438550949e-03 -1.489182710647583008e-01 9.688830375671386719e-02 9.653766453266143799e-02 -1.250037550926208496e-01 -5.222278460860252380e-02 3.900468349456787109e-02 -9.132938832044601440e-02 -2.287297137081623077e-02 -8.603351563215255737e-02 5.207750201225280762e-02 -6.609016656875610352e-02 -6.454256176948547363e-02 -6.890770047903060913e-02 -6.004890892654657364e-04 3.706173971295356750e-02 1.203200221061706543e-01 3.162891138345003128e-03 -3.644728660583496094e-02 1.229962706565856934e-02 2.948062494397163391e-02 3.629037141799926758e-01 -1.372681930661201477e-03 1.073935907334089279e-02 1.918071322143077850e-02 -4.056432470679283142e-02 1.116392854601144791e-02 6.188176572322845459e-03 8.874759078025817871e-03 4.755923897027969360e-02 -1.627622991800308228e-01 -3.966262098401784897e-03 -4.311765730381011963e-02 6.213878840208053589e-02 1.544136404991149902e-01 1.819422394037246704e-01 3.119595535099506378e-02 -5.115288123488426208e-02 -6.167519092559814453e-02 9.155442565679550171e-02 -4.937092214822769165e-02 -3.094513118267059326e-01 2.293561585247516632e-02 -2.438217848539352417e-01 1.502140760421752930e-01 -2.966161444783210754e-02 -4.084866377525031567e-04 1.048285420984029770e-02 -7.781302090734243393e-03 2.410536110401153564e-01 -3.735459223389625549e-02 -1.319016814231872559e-01 1.248479783535003662e-01 -1.637810319662094116e-01 5.781373381614685059e-02 -2.500961534678936005e-02 -1.307450681924819946e-01 -2.894751168787479401e-02 -3.858472406864166260e-02 -7.179763168096542358e-02 4.193021357059478760e-02 1.023324206471443176e-01 -2.035484760999679565e-01 -2.099291607737541199e-02 8.390094153583049774e-03 2.953625470399856567e-02 -2.263122498989105225e-01 2.124209888279438019e-02 2.221471257507801056e-02 -1.395408362150192261e-01 3.762734681367874146e-02 4.068625867366790771e-01 -1.002511475235223770e-02 -2.167923003435134888e-01 -2.879112772643566132e-02 1.088358312845230103e-01 1.444534063339233398e-01 -1.312954127788543701e-01 1.992154307663440704e-02 1.046777442097663879e-01 7.088193669915199280e-03 1.450747530907392502e-02 -3.762941062450408936e-02 1.432416308671236038e-02 -5.718158092349767685e-03 -8.652357757091522217e-02 -1.059411317110061646e-01 -1.968936175107955933e-01 2.382046543061733246e-02 5.327958241105079651e-02 -8.731891214847564697e-02 -1.575124561786651611e-01 -2.797132730484008789e-02 -4.026260972023010254e-02 -3.837445378303527832e-02 2.470181733369827271e-01 -1.030119657516479492e-01 -4.788076132535934448e-02 -3.353588283061981201e-01 8.610395342111587524e-02 1.037603467702865601e-01 -1.001737266778945923e-01 -4.511848092079162598e-02 3.505934402346611023e-02 2.333397567272186279e-01 8.846623450517654419e-02 -2.806718051433563232e-01 -1.227185055613517761e-01 -7.252188026905059814e-02 -1.199961174279451370e-02 -3.177540376782417297e-02 -1.121652312576770782e-02 2.894694805145263672e-01 5.059036612510681152e-02 -6.001080572605133057e-02 -2.921209335327148438e-01 6.505656987428665161e-02 -1.772186905145645142e-01 4.024716839194297791e-02 2.062623575329780579e-02 5.861136317253112793e-02 2.126538753509521484e-02 -4.162627831101417542e-02 -7.081722468137741089e-02 1.722955107688903809e-01 -1.795030571520328522e-02 4.327763989567756653e-02 -6.771849840879440308e-02 -6.674632430076599121e-02 -7.337866723537445068e-02 -2.463984303176403046e-02 9.664108604192733765e-02 4.172208160161972046e-02 -7.609941810369491577e-02 3.013949692249298096e-01 -8.312307298183441162e-02 -3.218045830726623535e-02 -7.485628128051757812e-02 -1.231641694903373718e-01 5.788562819361686707e-03 -4.328347742557525635e-02 1.867650263011455536e-02 -6.155367940664291382e-02 2.427298948168754578e-02 2.091180980205535889e-01 3.756323754787445068e-01 4.683741834014654160e-03 -3.882575035095214844e-02 -1.711297631263732910e-01 2.651514708995819092e-01 -1.730970665812492371e-02 1.575076878070831299e-01 -1.129288673400878906e-01 -1.259941421449184418e-02 -2.277011424303054810e-01 1.022837162017822266e-01 -4.812609851360321045e-01 1.461553871631622314e-01 -2.473236024379730225e-01 8.494478464126586914e-02 4.569039121270179749e-02 -2.520599365234375000e-01 -7.423207629472017288e-03 6.279340945184230804e-03 -2.351948320865631104e-01
9.689474105834960938e-02 -3.840496838092803955e-01 -4.774886667728424072e-01 1.962058544158935547e-01 1.928349584341049194e-02 -7.332908920943737030e-03 2.377112805843353271e-01 -5.696397274732589722e-02 9.191720932722091675e-02 1.127593964338302612e-01 2.911556884646415710e-02 -1.281566731631755829e-02 -6.358207464218139648e-01 3.941317647695541382e-02 1.902488321065902710e-01 -6.166768446564674377e-02 2.683457173407077789e-02 -1.514774840325117111e-02 -8.267478942871093750e-01 -1.025859341025352478e-01 -4.338689520955085754e-02 -2.269179746508598328e-02 -2.526931092143058777e-02 1.606620848178863525e-01 5.367124453186988831e-02 4.288547486066818237e-02 9.662107378244400024e-02 -5.320988893508911133e-01 -5.054489374160766602e-01 9.236796945333480835e-02 8.771088905632495880e-03 1.577609218657016754e-02 7.836196571588516235e-03 2.474476210772991180e-02 -2.066490203142166138e-01 8.534439653158187866e-02 1.622802764177322388e-01 -7.745755463838577271e-02 1.979246139526367188e-01 -2.777831628918647766e-02 1.516857929527759552e-02 3.303866088390350342e-01 -8.392006158828735352e-02 -3.683720529079437256e-01 1.449237018823623657e-01 -8.534581959247589111e-02 -3.190775811672210693e-01 1.646218001842498779e-01 -2.743467502295970917e-02 -2.480532974004745483e-03 -8.742911368608474731e-02 3.084229826927185059e-01 1.028264537453651428e-01 -1.598279923200607300e-01 4.637831822037696838e-02 5.963474884629249573e-02 5.701111257076263428e-02 3.782449755817651749e-03 8.441308513283729553e-03 1.909402161836624146e-01 2.025348320603370667e-02 -1.272561252117156982e-01 -5.038045719265937805e-02 2.818953990936279297e-02 1.049925535917282104e-01 5.190223082900047302e-02 3.941304609179496765e-02 -7.169768959283828735e-02 1.330194622278213501e-01 2.387903481721878052e-01 -1.692553311586380005e-01 9.690339863300323486e-02 3.167147636413574219e-01 -3.367358446121215820e-01 6.654702126979827881e-02 6.603275239467620850e-02 6.369903087615966797e-01 -1.827874630689620972e-01 -5.622073411941528320e-01 3.263475596904754639e-01 -4.870407655835151672e-02 1.126668974757194519e-01 6.381178647279739380e-02 -1.236270926892757416e-02 1.404520403593778610e-02 -6.869623661041259766e-01 -4.630594979971647263e-03 -3.333124816417694092e-01 1.605525016784667969e-01 2.717423439025878906e-02 -6.893224269151687622e-02 7.779225707054138184e-02 2.828162629157304764e-03 -4.334084689617156982e-01 1.974838227033615112e-02 -5.694918334484100342e-02 -1.496135443449020386e-01 -6.272652652114629745e-03 5.549503490328788757e-02 4.202228412032127380e-02 2.823347039520740509e-02 -6.472086161375045776e-02 -6.235513836145401001e-03 -6.164820864796638489e-03 1.148444321006536484e-02 1.404238585382699966e-02 -3.063499554991722107e-02 -5.334208011627197266e-01 -1.135499700903892517e-01 1.426888406276702881e-01 2.217646874487400055e-02 6.491693109273910522e-02 -3.560747504234313965e-01 2.337590605020523071e-02 1.401139050722122192e-01 -3.951153159141540527e-01 -1.859891600906848907e-02 7.723332941532135010e-02 6.648153066635131836e-02 2.852293103933334351e-02 -6.882797181606292725e-02 -3.310633897781372070e-01 2.389886602759361267e-02 6.334745883941650391e-02 1.900310218334197998e-01 -4.187654331326484680e-02 2.474370785057544708e-02 -7.065783441066741943e-02 -1.875672042369842529e-01 -3.753641620278358459e-02 -7.281007766723632812e-01 5.837214179337024689e-03 -1.172235131263732910e+00 2.805660851299762726e-02 -4.752169847488403320e-01 5.657566711306571960e-02 -4.530235193669795990e-03 8.195720613002777100e-02 -3.460160791873931885e-01 7.234960794448852539e-02 -3.223833739757537842e-01 2.245361357927322388e-02 7.223864644765853882e-02 -1.011267006397247314e-01 7.178633823059499264e-04 -3.863183557987213135e-01 1.485631167888641357e-01 -8.884701132774353027e-02 1.043145731091499329e-02 -3.193894401192665100e-02 4.449474625289440155e-03 -6.422305596061050892e-04 9.830204769968986511e-03 4.875281453132629395e-02 -7.273915223777294159e-03 -1.604842208325862885e-02 6.946306675672531128e-02 -5.933001637458801270e-02 -6.644101440906524658e-02 5.076513066887855530e-02 1.194289997220039368e-01 3.051881194114685059e-01 3.142556250095367432e-01 -4.734404012560844421e-02 5.125950574874877930e-01 5.141924694180488586e-02 -1.310533285140991211e-01 -8.838950991630554199e-01 -4.471466876566410065e-03 2.470070729032158852e-03 -4.742046594619750977e-01 3.775356570258736610e-03 -8.776026219129562378e-02 1.487198658287525177e-02 -1.164918467402458191e-01 -1.577217876911163330e-02 1.087658926844596863e-01 -2.384542021900415421e-03 -1.162126511335372925e-01 -2.070893347263336182e-02 -2.015348523855209351e-01 -2.027763575315475464e-01 -5.472288727760314941e-01 -3.262224793434143066e-02 -1.809403598308563232e-01 -2.532644271850585938e-01 -2.325966507196426392e-01 5.090039595961570740e-02 -1.218245029449462891e-01 -8.201455324888229370e-02 1.345967128872871399e-02 1.728005260229110718e-01 3.005587160587310791e-01 2.888478524982929230e-02 -2.736901119351387024e-02 -3.115018308162689209e-01 -1.569669395685195923e-01 2.110753506422042847e-01 -4.347302764654159546e-02 4.100813344120979309e-02 -3.826727345585823059e-02 3.492514416575431824e-02 7.445454597473144531e-03 7.585734128952026367e-02 1.208122149109840393e-01 1.663359254598617554e-01 1.315980255603790283e-01 -3.181442618370056152e-02 -3.583535254001617432e-01 -1.494800597429275513e-01 1.001219376921653748e-01 5.690518021583557129e-02 1.974831074476242065e-01 3.628210350871086121e-02 4.295770823955535889e-02 -6.426344513893127441e-01 -1.430842932313680649e-02 3.120024874806404114e-02 2.334532886743545532e-01 -2.494157664477825165e-02 2.765562199056148529e-02 -2.198375063017010689e-03 -2.010338604450225830e-01 -2.549214474856853485e-02 2.923107147216796875e-02 -4.533289670944213867e-01 -5.787159875035285950e-02 -3.219822421669960022e-02 1.677563339471817017e-01 -5.013555288314819336e-02 -1.763180643320083618e-02 -5.039614625275135040e-03 -5.411701649427413940e-02 -6.582084298133850098e-02 2.254599183797836304e-01 1.593196243047714233e-01 -8.005324751138687134e-02 8.090953528881072998e-02 -1.546574532985687256e-01 -2.360052019357681274e-01 7.234928607940673828e-01 -2.062760740518569946e-01 3.237086907029151917e-02 -9.419940710067749023e-01 3.836881369352340698e-02 -1.415897160768508911e-01 -7.183647155761718750e-02 5.145870447158813477e-01 6.898609455674886703e-03 1.238086447119712830e-02 -3.146702423691749573e-02 -2.348770649405196309e-04 -6.654517352581024170e-02 -5.189184099435806274e-02 -1.626375690102577209e-02 3.302791621536016464e-03
-2.415183186531066895e-02 -9.720194339752197266e-01 -9.413499236106872559e-01 -2.302699834108352661e-01 -1.287476345896720886e-02 -7.333065569400787354e-02 1.174777597188949585e-01 -2.589184343814849854e-01 -2.725821435451507568e-01 -8.911827951669692993e-02 -5.366827175021171570e-02 -2.554247342050075531e-02 -2.547000050544738770e-01 -1.330700982362031937e-02 1.572681069374084473e-01 -4.525984823703765869e-01 -2.824536710977554321e-02 -8.057623505592346191e-01 -8.797213435173034668e-02 2.064381986856460571e-01 -8.723917603492736816e-02 -4.088020324707031250e-01 -3.567632287740707397e-02 3.160472810268402100e-01 -5.054403841495513916e-02 4.321920499205589294e-02 -2.059387564659118652e-01 2.889957837760448456e-02 9.249012172222137451e-02 -2.557634413242340088e-01 -3.860189393162727356e-02 -1.404586434364318848e-01 -3.421583771705627441e-02 -1.552591621875762939e-01 -3.264522254467010498e-01 -6.318584084510803223e-02 3.822938352823257446e-02 -9.798377007246017456e-02 -4.718669876456260681e-02 -4.881502687931060791e-02 -1.313365809619426727e-02 -9.806883335113525391e-02 -4.371162131428718567e-02 -1.575611978769302368e-01 -2.934808097779750824e-02 -7.631258368492126465e-01 -6.944699883460998535e-01 -9.206703901290893555e-01 -4.966908320784568787e-02 6.749842781573534012e-03 3.460785746574401855e-02 -1.047834038734436035e+00 -8.966917395591735840e-01 -9.039500146172940731e-04 -6.217573955655097961e-02 -2.230253219604492188e-01 -7.167804837226867676e-01 -1.958024315536022186e-02 -3.537097200751304626e-02 9.626393765211105347e-02 -1.548051685094833374e-01 -9.287332743406295776e-02 -1.045124232769012451e-01 -5.236679688096046448e-02 -3.480797633528709412e-02 -1.557023264467716217e-02 4.335888847708702087e-02 -3.836723044514656067e-02 -2.805851865559816360e-03 -6.548069119453430176e-01 -5.580061078071594238e-01 1.779079288244247437e-01 -1.532460600137710571e-01 -3.199547231197357178e-01 -2.077556103467941284e-01 4.778202995657920837e-02 -1.004275918006896973e+00 1.560769975185394287e-01 6.862320750951766968e-02 -8.224735260009765625e-01 -6.294750571250915527e-01 -1.513490229845046997e-01 -9.832919389009475708e-02 -3.251514211297035217e-02 -7.456166297197341919e-02 3.973137587308883667e-02 -1.716576889157295227e-02 -1.589182168245315552e-01 -2.431514263153076172e-01 -1.966086030006408691e-01 -5.087923258543014526e-02 2.438874915242195129e-02 6.026753783226013184e-02 -2.670483589172363281e-01 -1.350165903568267822e-01 -1.750922203063964844e-01 -1.169965744018554688e+00 -3.272275254130363464e-02 -4.412398487329483032e-02 -2.440498024225234985e-02 -4.534038528800010681e-02 -6.123677361756563187e-03 -2.343889139592647552e-02 -1.412162184715270996e-02 -5.373894423246383667e-02 -5.508232116699218750e-02 -8.586069941520690918e-02 -5.142029523849487305e-01 5.987456068396568298e-02 -3.464932739734649658e-02 -1.121139060705900192e-02 -1.154916062951087952e-01 3.713225424289703369e-01 5.821047816425561905e-03 -8.929502367973327637e-01 8.607444167137145996e-02 -3.378675132989883423e-02 -5.328098684549331665e-02 -5.065669864416122437e-02 5.048749595880508423e-02 -1.661838777363300323e-02 -3.351890146732330322e-01 -1.999799609184265137e-01 6.270553451031446457e-03 -4.572285115718841553e-01 1.440959125757217407e-01 2.570715360343456268e-02 -5.639190077781677246e-01 -2.766925692558288574e-01 -1.247787848114967346e-02 -3.316567838191986084e-01 1.236207485198974609e-01 -5.777817368507385254e-01 -5.999425798654556274e-02 -1.762856380082666874e-03 -5.706892013549804688e-01 -5.286480486392974854e-02 -1.043834760785102844e-01 1.300521939992904663e-01 -1.472624242305755615e-01 -8.356566727161407471e-02 1.235499326139688492e-02 -2.339704334735870361e-02 -6.069689989089965820e-01 -2.494558095932006836e-01 -1.374937593936920166e-01 -4.908466245979070663e-03 -5.476617068052291870e-02 -1.853141561150550842e-02 4.896105080842971802e-02 3.700904548168182373e-02 -2.121953517198562622e-01 -6.369357462972402573e-03 -1.173701509833335876e-01 -1.366593688726425171e-01 4.252206068485975266e-03 -2.772313356399536133e-02 -6.730037331581115723e-01 2.641463465988636017e-02 -7.483058609068393707e-03 -2.210975624620914459e-02 -3.724087476730346680e-01 -5.997915863990783691e-01 -1.503962930291891098e-02 -8.925394415855407715e-01 -1.389079689979553223e-01 6.671917438507080078e-02 -3.313201069831848145e-01 -6.029051542282104492e-02 -1.198302768170833588e-02 -5.493393540382385254e-01 -1.941852457821369171e-02 -1.754455119371414185e-01 -4.931977018713951111e-02 2.174710333347320557e-01 -1.171545982360839844e-01 -7.937886565923690796e-02 -6.609245389699935913e-02 -1.245473399758338928e-01 -1.384666096419095993e-02 -3.691279888153076172e-01 -6.894878298044204712e-02 -3.850393295288085938e-01 9.292823076248168945e-02 -3.103235065937042236e-01 -2.459900230169296265e-01 7.690718770027160645e-02 4.368993919342756271e-03 -2.580951154232025146e-01 1.804841682314872742e-02 -8.697188645601272583e-02 1.038806065917015076e-01 -2.078416198492050171e-01 3.594487607479095459e-01 1.582225970923900604e-02 -1.444385945796966553e-01 6.156988069415092468e-02 -1.374899864196777344e+00 -3.942833542823791504e-01 -1.007620215415954590e+00 1.364682987332344055e-02 -3.259341046214103699e-02 -1.236562710255384445e-02 -4.868330657482147217e-01 -2.011116221547126770e-02 -2.107883244752883911e-02 -1.701378449797630310e-02 -1.376692857593297958e-02 -3.429624736309051514e-01 -2.514079809188842773e-01 -2.329320311546325684e-01 -8.019268512725830078e-02 -2.974865734577178955e-01 -9.197346121072769165e-02 -2.579097449779510498e-02 9.746623784303665161e-02 -2.547781467437744141e-01 -7.007506489753723145e-02 4.762018322944641113e-01 -5.272646248340606689e-02 3.451091423630714417e-02 -2.988803386688232422e-02 -6.158837676048278809e-01 -4.867742583155632019e-02 -9.838251769542694092e-02 -4.227796196937561035e-01 2.293086796998977661e-02 1.317603234201669693e-02 -3.941167593002319336e-01 -1.125441715121269226e-01 3.148758783936500549e-02 -4.477592557668685913e-02 1.525792628526687622e-01 -1.907628029584884644e-01 -1.055646594613790512e-02 -2.565095722675323486e-01 -6.975989341735839844e-01 -5.279517918825149536e-02 3.713508695363998413e-02 -1.022315174341201782e-01 -1.691669225692749023e+00 -1.597676873207092285e-01 -3.150416165590286255e-02 6.726022362709045410e-01 -2.225457318127155304e-02 -4.581542685627937317e-02 3.164608031511306763e-02 -2.826618850231170654e-01 -8.777732849121093750e-01 -5.829928517341613770e-01 -2.443495206534862518e-02 -2.366278320550918579e-02 -8.310047388076782227e-01 5.673219636082649231e-02 -1.271751374006271362e-01 8.121699839830398560e-02
1.927669718861579895e-02 5.512464642524719238e-01 9.616877138614654541e-02 1.845269277691841125e-02 2.028813399374485016e-02 8.814208954572677612e-02 2.005976885557174683e-01 1.835232079029083252e-01 -1.350289583206176758e-01 1.467951983213424683e-01 6.667178124189376831e-02 -2.647042647004127502e-02 -9.476793557405471802e-02 -1.053268611431121826e-01 -7.993461191654205322e-02 -1.087327226996421814e-01 7.658410817384719849e-02 8.566011190414428711e-01 -3.752726614475250244e-01 -1.047229990363121033e-01 4.362166672945022583e-02 -1.711525619029998779e-01 -1.260198093950748444e-02 3.072790801525115967e-01 2.566085383296012878e-02 3.172922432422637939e-01 -2.111602388322353363e-02 -2.832932472229003906e-01 1.145785689353942871e+00 -3.119426406919956207e-02 -1.325713992118835449e-01 -9.175290353596210480e-03 -9.768107905983924866e-03 7.239493727684020996e-02 2.015526145696640015e-01 -7.214967627078294754e-03 -1.315928250551223755e-01 3.065347485244274139e-02 -2.262639626860618591e-02 5.411571636795997620e-02 -1.631410233676433563e-02 7.165183126926422119e-02 -2.449063397943973541e-02 -9.898936003446578979e-02 1.683820039033889771e-01 1.789426952600479126e-01 -7.544113397598266602e-01 -4.038780033588409424e-01 3.043089807033538818e-02 -2.870017895475029945e-03 -2.190806716680526733e-02 -4.882613718509674072e-01 5.714636445045471191e-01 2.813411653041839600e-01 1.899642497301101685e-02 1.548342406749725342e-01 -1.678115278482437134e-01 -1.348665729165077209e-02 -6.364066153764724731e-03 9.433807134628295898e-01 -4.890382662415504456e-02 -1.942664384841918945e-01 6.741737015545368195e-03 -1.257293391972780228e-02 1.140004862099885941e-02 -1.024533733725547791e-01 -3.083823248744010925e-02 1.231174170970916748e-01 -2.235116809606552124e-02 5.053235292434692383e-01 1.367846429347991943e-01 2.298413775861263275e-02 3.199694752693176270e-01 3.139557242393493652e-01 -8.334901183843612671e-02 -2.461378462612628937e-02 4.845588803291320801e-01 -1.948317140340805054e-01 1.165247321128845215e+00 5.118027329444885254e-01 -1.401737779378890991e-01 -1.491452846676111221e-02 -7.000492513179779053e-02 4.588070511817932129e-02 1.732580829411745071e-03 9.041124954819679260e-03 -8.871023356914520264e-02 6.523153185844421387e-02 5.797599256038665771e-02 3.783795237541198730e-02 5.720334593206644058e-03 -2.578371204435825348e-02 -5.647997558116912842e-02 2.358338609337806702e-02 -3.576311981305480003e-03 4.438870027661323547e-02 -4.481081366539001465e-01 3.307009860873222351e-02 -1.011791918426752090e-02 2.531327679753303528e-02 -1.411161292344331741e-02 9.208788163959980011e-03 -4.685028642416000366e-02 1.158303953707218170e-02 -7.349124550819396973e-02 -2.707352042198181152e-01 -8.264361321926116943e-02 2.701313495635986328e-01 -3.093435242772102356e-02 -8.411357551813125610e-02 -7.948059588670730591e-03 -1.775203645229339600e-02 7.828187942504882812e-02 -5.263583734631538391e-02 -2.973116040229797363e-01 1.399703174829483032e-01 -4.607320204377174377e-02 -4.334864206612110138e-03 -5.520901829004287720e-02 -7.713441736996173859e-03 -6.208394095301628113e-02 -2.541831731796264648e-01 8.876988291740417480e-02 1.286347061395645142e-01 -4.531984031200408936e-01 -2.827774919569492340e-02 -6.722115725278854370e-02 -1.389508247375488281e-01 4.009953513741493225e-02 -5.781664326786994934e-02 -4.680294543504714966e-02 1.626944355666637421e-02 2.375329732894897461e-01 8.419973403215408325e-02 2.132556736469268799e-01 2.181239426136016846e-01 1.192498020827770233e-02 1.566127985715866089e-01 -8.671644330024719238e-02 1.242942661046981812e-01 6.397413462400436401e-02 2.115628495812416077e-02 -8.486579358577728271e-02 -5.065178275108337402e-01 1.856434345245361328e-01 -3.930931985378265381e-01 -1.865164935588836670e-02 1.151349991559982300e-01 -2.530499175190925598e-02 2.069013658910989761e-03 -7.344500720500946045e-02 -1.306953579187393188e-01 -2.367474604398012161e-03 -5.786018818616867065e-02 1.004530638456344604e-01 2.155547589063644409e-02 -1.030381768941879272e-01 2.438166290521621704e-01 1.904981210827827454e-02 4.153071343898773193e-02 -1.037416234612464905e-01 -1.193366125226020813e-01 7.394692301750183105e-01 -3.264840925112366676e-03 -1.246575042605400085e-01 -7.279918342828750610e-02 -4.340111836791038513e-02 -7.973226308822631836e-01 -1.456205639988183975e-02 -3.002680651843547821e-02 -1.101988673210144043e+00 -1.632140576839447021e-02 5.085366964340209961e-02 -1.011769026517868042e-01 2.624549865722656250e-01 -8.407773077487945557e-02 1.618514955043792725e-01 6.670925021171569824e-02 2.923309504985809326e-01 -4.806877300143241882e-02 1.297564059495925903e-01 1.499037593603134155e-01 -3.027263581752777100e-01 -2.802431583404541016e-01 -1.021317690610885620e-01 -9.849425405263900757e-02 1.264889687299728394e-01 -1.494003832340240479e-02 3.844469413161277771e-02 -2.259561568498611450e-01 -2.953102812170982361e-02 5.370507836341857910e-01 -1.376038067974150181e-03 2.523687183856964111e-01 4.394280910491943359e-02 8.749307133257389069e-03 2.428467571735382080e-02 8.998463749885559082e-01 7.552697509527206421e-02 1.433016359806060791e-01 -3.766166046261787415e-02 2.853360027074813843e-02 1.281641330569982529e-02 1.985719352960586548e-01 3.618360031396150589e-03 2.429845184087753296e-02 4.900946840643882751e-02 2.097006700932979584e-02 -5.272737517952919006e-02 -2.860748581588268280e-02 2.688179165124893188e-02 -8.318221569061279297e-02 1.070120111107826233e-01 9.122646600008010864e-02 -1.109548956155776978e-01 -9.236352145671844482e-02 3.215081244707107544e-02 -9.736710041761398315e-02 -1.209162846207618713e-01 -5.030604451894760132e-02 -9.300127625465393066e-02 -8.618393912911415100e-03 1.098154559731483459e-01 -6.252661347389221191e-02 3.494582325220108032e-02 9.862238168716430664e-02 -5.281765013933181763e-02 4.214300960302352905e-02 4.523521959781646729e-01 -3.098957613110542297e-02 -2.697921730577945709e-02 4.881101474165916443e-02 -1.784311681985855103e-01 1.723201572895050049e-02 2.778674662113189697e-01 -1.039156019687652588e-01 6.084937453269958496e-01 8.486212044954299927e-02 3.073732554912567139e-02 9.705211035907268524e-03 2.301644831895828247e-01 -1.005140990018844604e-01 1.437978297472000122e-01 4.012230336666107178e-01 -3.732471959665417671e-03 -9.371776133775711060e-03 2.242691516876220703e-01 2.917869985103607178e-01 6.172966361045837402e-01 4.903535246849060059e-01 7.681967318058013916e-02 -4.700622335076332092e-02 1.998342126607894897e-01 -4.163299128413200378e-02 8.155406266450881958e-02 1.542150229215621948e-02
-6.791604310274124146e-02 1.152030378580093384e-01 -3.877008855342864990e-01 -3.498537838459014893e-02 3.073875792324542999e-03 -3.222972899675369263e-02 -8.667712658643722534e-02 1.078273355960845947e-01 -2.292208671569824219e-01 -6.432287395000457764e-02 7.937592454254627228e-03 1.370283309370279312e-02 3.964512422680854797e-02 -8.165249973535537720e-02 1.703225523233413696e-01 4.115272685885429382e-02 1.276139728724956512e-02 2.049401402473449707e-01 2.957883477210998535e-01 -1.206486374139785767e-01 -1.075972802937030792e-02 -3.017690181732177734e-01 9.738501161336898804e-03 -5.378360301256179810e-02 9.456045925617218018e-02 -1.774914376437664032e-02 -1.961576566100120544e-02 -7.585256546735763550e-02 2.471153140068054199e-01 -7.842096686363220215e-02 -5.509917065501213074e-02 -1.222413405776023865e-02 -5.880117788910865784e-02 -6.732422113418579102e-02 -1.179812625050544739e-01 -6.452246755361557007e-02 -3.955104202032089233e-02 -1.541528385132551193e-02 8.005136251449584961e-02 1.425826102495193481e-01 -1.023221015930175781e-02 -1.346647292375564575e-01 7.689820230007171631e-02 -9.279458969831466675e-02 -8.255787193775177002e-02 -4.519742727279663086e-01 -2.827412188053131104e-01 -5.775061622262001038e-02 -2.880954183638095856e-02 -1.006065309047698975e-02 -4.763361532241106033e-03 -4.808611273765563965e-01 -4.282696247100830078e-01 -2.662760019302368164e-02 -1.213752403855323792e-01 -4.041193723678588867e-01 1.909139603376388550e-01 1.131712198257446289e-01 2.776657603681087494e-02 -2.311985790729522705e-01 -1.825549006462097168e-01 -2.400592528283596039e-02 -1.545855402946472168e-02 1.920305192470550537e-02 8.815134875476360321e-03 -7.305618375539779663e-02 -1.173958331346511841e-01 -4.136245325207710266e-02 2.560727065429091454e-03 9.628798812627792358e-02 9.473662078380584717e-02 5.582045763731002808e-02 -1.970304846763610840e-01 -4.164148569107055664e-01 -1.417858991771936417e-02 7.652451843023300171e-02 -4.074942693114280701e-02 1.199215352535247803e-01 -5.774668455123901367e-01 -5.749083682894706726e-02 2.253991067409515381e-01 1.037893816828727722e-01 1.600565575063228607e-02 -8.234158158302307129e-04 1.139800325036048889e-01 7.397772371768951416e-02 -1.331286225467920303e-02 -3.061626255512237549e-01 4.386411607265472412e-02 4.314667731523513794e-02 -4.323400929570198059e-02 7.022757083177566528e-02 -1.566367149353027344e-01 -2.369762212038040161e-02 -6.829754263162612915e-02 -1.106482148170471191e-01 1.291518509387969971e-01 1.252999063581228256e-02 -1.227317005395889282e-02 -9.189832955598831177e-02 7.060306519269943237e-02 -3.093918785452842712e-02 -4.180666524916887283e-03 -1.105497125536203384e-03 1.151099056005477905e-01 1.195766478776931763e-01 -6.394176930189132690e-02 -2.471580952405929565e-01 -1.511737424880266190e-02 5.674752965569496155e-02 -4.021082445979118347e-02 4.834364727139472961e-02 -8.272419869899749756e-02 1.053504720330238342e-01 -2.209865152835845947e-01 -1.633239686489105225e-01 -3.859195858240127563e-03 -1.523821800947189331e-02 -2.085472084581851959e-02 -4.382931068539619446e-02 -1.154471710324287415e-01 1.108271069824695587e-02 -3.996769338846206665e-02 8.209107816219329834e-02 1.687538474798202515e-01 1.530709713697433472e-01 1.198917068541049957e-02 2.924672663211822510e-01 1.190413683652877808e-01 1.117143929004669189e-01 1.291750222444534302e-01 1.203108020126819611e-02 4.585672914981842041e-02 1.467342209070920944e-02 5.200427770614624023e-02 -8.492892980575561523e-01 -7.435394078493118286e-02 3.857365623116493225e-02 -6.239320337772369385e-02 6.535562872886657715e-02 2.347713150084018707e-02 -5.159507319331169128e-02 2.504391223192214966e-02 6.161401867866516113e-01 -1.486759930849075317e-01 9.769034385681152344e-02 -5.153816938400268555e-02 4.265166521072387695e-01 -7.110848277807235718e-02 6.421799212694168091e-02 -1.318429037928581238e-02 1.000344753265380859e-01 -3.641742467880249023e-02 -2.076218724250793457e-01 -9.780362248420715332e-02 -1.085154525935649872e-02 9.548042714595794678e-02 4.470081627368927002e-01 -3.225773945450782776e-02 6.231131404638290405e-02 -6.242969259619712830e-02 -1.384708136320114136e-01 -2.350991368293762207e-01 -5.462886393070220947e-02 -8.659519255161285400e-03 -4.357320070266723633e-02 5.869459360837936401e-02 -1.690919250249862671e-01 1.671783626079559326e-01 7.752691954374313354e-02 -3.426919281482696533e-01 5.408647283911705017e-02 2.997292205691337585e-02 -1.719186455011367798e-01 -6.321556121110916138e-02 -4.882707074284553528e-02 -7.280028611421585083e-02 8.304188400506973267e-02 8.296619355678558350e-02 -6.853993982076644897e-02 1.358075737953186035e-01 7.589879631996154785e-02 3.704803809523582458e-02 2.443710118532180786e-01 -1.728984713554382324e-01 7.182730734348297119e-02 1.985514611005783081e-01 4.635640606284141541e-02 2.639374136924743652e-02 -2.696507982909679413e-02 5.394177138805389404e-02 -5.395179986953735352e-01 -5.631165578961372375e-02 1.585279256105422974e-01 3.446433693170547485e-02 -1.014525145292282104e-01 7.813258469104766846e-02 -1.960173100233078003e-01 2.261484563350677490e-01 -1.864484846591949463e-01 3.056423179805278778e-02 -7.852404564619064331e-02 1.928099244832992554e-02 1.102644279599189758e-01 -4.034179076552391052e-02 7.618264108896255493e-02 -5.709328129887580872e-02 1.478160638362169266e-02 3.491489961743354797e-02 -5.964159965515136719e-02 5.437612999230623245e-03 -3.276643808931112289e-03 -2.637295424938201904e-02 1.758349388837814331e-01 -3.962901979684829712e-02 -2.051193825900554657e-02 1.050679683685302734e-01 8.173269219696521759e-03 2.951819300651550293e-01 1.321685314178466797e-01 -4.713218659162521362e-02 -4.136469587683677673e-02 1.127407103776931763e-01 -2.772798947989940643e-02 2.834327891469001770e-02 1.880996227264404297e-01 3.743898496031761169e-02 1.961454749107360840e-03 3.849221169948577881e-01 -1.529318988323211670e-01 4.014802630990743637e-03 -5.354893580079078674e-02 -6.437972187995910645e-02 -4.053439572453498840e-02 2.255254834890365601e-01 1.485802978277206421e-01 -6.259936094284057617e-01 6.487810984253883362e-03 -1.841232627630233765e-01 1.611737906932830811e-01 -5.577692985534667969e-01 -6.977339833974838257e-02 1.755881309509277344e-01 5.128005892038345337e-02 7.837131619453430176e-02 -1.405615080147981644e-02 7.966569066047668457e-01 1.069422587752342224e-01 -9.611538797616958618e-02 -3.873222693800926208e-02 6.305555999279022217e-02 1.088244561105966568e-02 1.718516647815704346e-01 -3.859570994973182678e-02 8.273673802614212036e-02 -4.213190078735351562e-02
8.177843689918518066e-02 -9.258979558944702148e-01 -8.732266426086425781e-01 1.064203158020973206e-01 -5.391480866819620132e-03 1.077952459454536438e-01 2.793012559413909912e-01 4.071768000721931458e-02 3.960129022598266602e-01 2.505887858569622040e-02 3.895733505487442017e-02 8.772731572389602661e-02 3.962955088354647160e-04 1.175213828682899475e-01 1.269899308681488037e-01 -4.644781723618507385e-02 1.105919182300567627e-01 -3.665051460266113281e-01 -9.533572942018508911e-02 -1.130582392215728760e-01 4.700203984975814819e-02 9.783222526311874390e-02 -2.496882528066635132e-02 2.894077599048614502e-01 -9.256129711866378784e-02 -1.265196129679679871e-02 7.062473893165588379e-02 8.523294329643249512e-02 -3.723188936710357666e-01 -1.257723011076450348e-02 6.495954096317291260e-02 1.151727919932454824e-04 -1.011729612946510315e-02 6.619114428758621216e-02 1.514160633087158203e-02 1.026494521647691727e-02 1.471732556819915771e-01 1.627177931368350983e-02 2.001073956489562988e-01 2.859533019363880157e-02 2.213471010327339172e-02 -2.436926402151584625e-02 -6.098942458629608154e-02 2.003508061170578003e-02 1.193696539849042892e-02 -1.474770009517669678e-01 -3.326171636581420898e-01 -4.105637967586517334e-01 -3.964380174875259399e-02 -3.459119470790028572e-03 -7.125833630561828613e-02 -1.895914822816848755e-01 -1.943922340869903564e-01 1.743971407413482666e-01 3.350049257278442383e-02 -6.729584932327270508e-02 -2.438852749764919281e-02 1.004243567585945129e-01 1.377946790307760239e-02 5.155697464942932129e-01 -8.305595070123672485e-02 -6.867738813161849976e-02 1.521187871694564819e-01 5.444687232375144958e-02 3.817575424909591675e-02 -6.750212609767913818e-02 -2.809824794530868530e-02 4.408945515751838684e-02 3.696088492870330811e-02 -2.068658322095870972e-01 7.833709567785263062e-02 -2.195585332810878754e-02 7.903000712394714355e-02 -1.682603806257247925e-01 9.572850912809371948e-02 -5.292028188705444336e-03 2.628968656063079834e-02 9.332583099603652954e-02 -1.149888988584280014e-02 -1.768674701452255249e-01 1.681455969810485840e-02 1.716307178139686584e-02 5.075184744782745838e-04 -5.970082804560661316e-02 -1.510121673345565796e-01 -1.671148277819156647e-02 3.334793029353022575e-03 -1.197577491402626038e-01 1.341168433427810669e-01 5.360981449484825134e-02 -4.216720163822174072e-02 -3.545740246772766113e-02 4.118044301867485046e-02 -1.095052734017372131e-01 1.725266687572002411e-02 -7.897892594337463379e-02 1.108340024948120117e+00 -8.082972466945648193e-02 1.619314402341842651e-02 -4.937675222754478455e-02 1.242281403392553329e-02 3.478552214801311493e-03 -1.020525395870208740e-02 -2.249361015856266022e-02 6.480183452367782593e-02 -3.087070025503635406e-02 2.735717594623565674e-02 3.123906441032886505e-02 -9.096986800432205200e-02 -9.870418906211853027e-02 3.751964075490832329e-03 3.739945963025093079e-02 2.798007130622863770e-01 9.893042035400867462e-03 1.463379263877868652e-01 -1.489277631044387817e-01 -2.405349351465702057e-02 3.090834803879261017e-02 -2.814373932778835297e-02 -7.896337658166885376e-02 -7.435765862464904785e-02 -1.742325872182846069e-01 1.253395676612854004e-01 2.643725462257862091e-02 4.309560656547546387e-01 -9.275870770215988159e-02 4.700883757323026657e-03 -2.649976909160614014e-01 5.674975737929344177e-02 -3.116799332201480865e-02 -4.639708697795867920e-01 1.413087844848632812e-01 8.397597819566726685e-02 -1.615954749286174774e-02 3.287392556667327881e-01 3.911237120628356934e-01 -9.388335049152374268e-03 -2.327476441860198975e-02 -1.011695563793182373e-01 7.361140102148056030e-02 -2.715328894555568695e-02 5.906406790018081665e-02 -6.217288598418235779e-02 -1.010536402463912964e-02 -1.806341409683227539e-01 3.512230217456817627e-01 3.904279321432113647e-02 5.761498212814331055e-01 3.248324990272521973e-02 -2.218434400856494904e-02 3.326449776068329811e-03 -1.371699273586273193e-01 2.290184237062931061e-02 -1.806764863431453705e-02 9.291265159845352173e-02 9.126874618232250214e-03 -2.110589062795042992e-03 -2.938083708286285400e-01 1.036602929234504700e-01 -1.674569025635719299e-02 6.141899898648262024e-02 -1.348413974046707153e-01 -2.188656777143478394e-01 -8.169971406459808350e-03 4.577790945768356323e-02 9.084589034318923950e-02 6.244256347417831421e-02 2.823941409587860107e-01 -3.875363245606422424e-02 4.931033030152320862e-02 -8.790007978677749634e-02 8.861340465955436230e-04 -2.708689868450164795e-01 -1.371348351240158081e-01 -6.438126787543296814e-03 -5.701928585767745972e-02 1.166042089462280273e-01 6.191859766840934753e-02 1.776063442230224609e-01 -5.170041695237159729e-03 -1.157065182924270630e-01 -1.098054181784391403e-02 -3.018933832645416260e-01 -1.947198063135147095e-01 1.104263812303543091e-01 -6.847893446683883667e-02 7.231626659631729126e-02 -9.584645181894302368e-02 -5.445935949683189392e-02 1.197618246078491211e-01 3.263300657272338867e-02 -7.681391239166259766e-01 8.457717299461364746e-02 5.833799764513969421e-02 -6.514704786241054535e-03 1.318385154008865356e-01 -2.033419460058212280e-01 -3.338554501533508301e-01 -3.091553449630737305e-01 -4.938586354255676270e-01 -8.591820485889911652e-03 5.007315799593925476e-02 1.950950361788272858e-02 -6.434819102287292480e-02 9.861562401056289673e-02 9.260717779397964478e-03 -2.867047861218452454e-02 5.346262827515602112e-02 5.210123583674430847e-02 1.019586995244026184e-01 5.725586321204900742e-03 -1.075354889035224915e-01 -8.524744957685470581e-02 8.680308610200881958e-02 -4.472200293093919754e-03 3.357084989547729492e-01 1.293028593063354492e-01 5.074727162718772888e-02 2.748497575521469116e-02 -6.244758889079093933e-02 3.328559547662734985e-02 -1.370939053595066071e-02 -5.532336607575416565e-02 4.004103131592273712e-03 7.857018709182739258e-02 -2.711409628391265869e-01 -5.596598982810974121e-02 2.268694154918193817e-02 -4.225312173366546631e-01 1.707958877086639404e-01 7.079946249723434448e-02 9.314731508493423462e-02 -6.766910851001739502e-02 1.201867219060659409e-02 -7.915472239255905151e-02 1.042104810476303101e-01 -7.017319649457931519e-02 6.025361642241477966e-02 1.152845770120620728e-01 2.466768585145473480e-02 2.965617924928665161e-03 7.920979708433151245e-02 4.511649310588836670e-01 2.856380343437194824e-01 5.499036610126495361e-02 1.645092479884624481e-02 1.721741408109664917e-01 2.145240902900695801e-01 -1.164682507514953613e-01 6.035859696567058563e-03 -2.610248327255249023e-02 1.812674663960933685e-02 -3.458096086978912354e-01 4.420304670929908752e-03 -1.110826283693313599e-01 -8.458036929368972778e-03
-4.812468960881233215e-02 -4.271863400936126709e-01 3.185897469520568848e-01 -8.965847641229629517e-02 -1.563698024256154895e-04 -1.878339797258377075e-02 -3.974631056189537048e-02 6.980039179325103760e-02 -3.556128963828086853e-02 2.918717451393604279e-02 -2.598853223025798798e-02 -2.814767137169837952e-02 4.713953658938407898e-02 -7.262731343507766724e-02 -7.031986862421035767e-02 6.152718886733055115e-02 1.994901569560170174e-03 2.118634134531021118e-01 -2.770307958126068115e-01 -6.060787290334701538e-02 -5.864390358328819275e-02 -1.746907383203506470e-01 -7.361477613449096680e-02 -2.483279705047607422e-01 1.601575911045074463e-01 -1.590005904436111450e-01 6.009385362267494202e-02 3.637261316180229187e-02 -3.967844843864440918e-01 1.028339862823486328e-01 8.456435799598693848e-02 -1.619341783225536346e-02 -9.370138496160507202e-02 -5.943859368562698364e-02 1.010022014379501343e-01 -8.463613688945770264e-02 -5.596274882555007935e-02 2.236120216548442841e-02 -7.285857200622558594e-02 9.248767048120498657e-03 2.998202852904796600e-02 3.171962872147560120e-02 7.641618698835372925e-02 1.770565658807754517e-02 -7.056144531816244125e-03 -1.179376542568206787e-01 -4.726735949516296387e-01 7.897471636533737183e-02 -2.725370973348617554e-02 -5.171918310225009918e-03 6.256992369890213013e-02 2.511050105094909668e-01 3.397284746170043945e-01 3.644290938973426819e-02 -4.453682340681552887e-03 5.222189426422119141e-02 -1.872746199369430542e-01 3.069991990923881531e-02 -1.170545816421508789e-02 -2.112200707197189331e-01 1.453901827335357666e-01 -5.411504209041595459e-02 5.289776995778083801e-02 2.864704653620719910e-02 -8.315983414649963379e-02 5.834454670548439026e-02 7.641847431659698486e-02 -8.421179838478565216e-03 7.656704634428024292e-02 -7.746037095785140991e-02 -1.026168540120124817e-01 1.103020533919334412e-01 -8.152221143245697021e-02 -1.848534643650054932e-01 -5.615334957838058472e-03 -5.288330093026161194e-02 -7.571705430746078491e-02 -8.073835074901580811e-02 -1.535991430282592773e-01 4.667112231254577637e-01 -3.397042676806449890e-02 7.729496061801910400e-02 -5.775890126824378967e-02 7.744877785444259644e-02 -7.548516988754272461e-02 9.659154713153839111e-02 -1.442879885435104370e-01 1.866915263235569000e-02 -2.598718106746673584e-01 -1.675532609224319458e-01 -2.828055620193481445e-02 6.261840462684631348e-02 1.853928267955780029e-01 1.039640791714191437e-02 -1.039296612143516541e-01 -8.074173331260681152e-02 -3.457581400871276855e-01 6.229865830391645432e-03 4.973458126187324524e-02 2.996353060007095337e-02 1.157412957400083542e-02 -3.575478121638298035e-02 1.370288431644439697e-02 4.111190326511859894e-03 4.391408059746026993e-03 -1.667776703834533691e-02 1.551820989698171616e-02 -1.206878796219825745e-01 7.049904018640518188e-02 2.801285125315189362e-02 2.444802038371562958e-02 -5.836185812950134277e-02 -1.980113089084625244e-01 -3.484308719635009766e-02 -1.191507130861282349e-01 -4.387694895267486572e-01 1.021007774397730827e-03 -4.329080693423748016e-03 6.251405924558639526e-03 8.902412652969360352e-02 4.964934289455413818e-02 -5.052595734596252441e-01 9.207206219434738159e-02 -7.847391813993453979e-02 -1.853871392086148262e-03 -6.549729406833648682e-02 -2.667794935405254364e-03 -1.603504419326782227e-01 -4.078523814678192139e-02 -4.198794811964035034e-02 -2.745412103831768036e-02 -3.350881859660148621e-02 -5.205662250518798828e-01 2.592014521360397339e-02 3.109908103942871094e-02 -7.803998887538909912e-02 2.116276882588863373e-02 -1.160793378949165344e-02 -1.049049049615859985e-01 -5.325471609830856323e-02 1.782448440790176392e-01 5.314526148140430450e-03 -1.089652031660079956e-01 -1.392215341329574585e-01 -3.191012442111968994e-01 1.984263025224208832e-02 8.182617835700511932e-03 1.884728670120239258e-01 2.296122722327709198e-02 5.636797286570072174e-03 -2.981666103005409241e-02 9.362244606018066406e-02 -1.833048299886286259e-03 -2.600914537906646729e-01 1.551229208707809448e-01 9.682236239314079285e-03 -7.703386992216110229e-02 -9.160566926002502441e-01 -9.314354509115219116e-03 4.595673456788063049e-02 -1.853414066135883331e-02 1.750602871179580688e-01 2.213263809680938721e-01 1.833475194871425629e-02 -6.219809502363204956e-02 2.175953797996044159e-02 -5.403865128755569458e-02 5.764285847544670105e-02 -6.351135671138763428e-02 3.055736236274242401e-02 -1.222677305340766907e-01 1.908510737121105194e-02 -2.835931479930877686e-01 -5.843922495841979980e-02 -1.320655047893524170e-01 -8.576530031859874725e-03 -2.073631621897220612e-03 -1.340360343456268311e-01 -9.135960042476654053e-02 4.068981390446424484e-03 1.575332731008529663e-01 -2.783370912075042725e-01 -3.643207550048828125e-01 -8.197457343339920044e-02 -9.453657269477844238e-02 2.435350976884365082e-02 -9.251920133829116821e-02 -7.261753827333450317e-02 5.626294016838073730e-02 1.955240070819854736e-01 8.986435830593109131e-02 -2.634890377521514893e-01 -3.705029375851154327e-03 1.399444937705993652e-01 -3.885129094123840332e-02 2.348917424678802490e-01 9.770364314317703247e-02 -4.136794209480285645e-01 -1.736114025115966797e-01 -3.693692088127136230e-01 1.110497489571571350e-02 2.965104021131992340e-02 -1.327167265117168427e-02 6.203931942582130432e-02 -6.005091965198516846e-02 2.996842749416828156e-02 3.104779124259948730e-02 -5.679032206535339355e-02 6.737372279167175293e-02 3.010672517120838165e-02 3.774219006299972534e-02 -1.974168606102466583e-02 -8.091297745704650879e-02 -1.149503588676452637e-01 1.703412563074380159e-04 1.370963640511035919e-02 -2.320627681910991669e-02 8.342497795820236206e-02 -1.668363660573959351e-01 -1.422960460186004639e-01 -3.951842337846755981e-02 -5.749535933136940002e-02 -7.946369796991348267e-02 -4.635787755250930786e-02 -6.321628391742706299e-02 -9.890341013669967651e-02 6.277185678482055664e-02 2.436376921832561493e-02 4.348502308130264282e-02 -1.554299741983413696e-01 -7.541135698556900024e-02 -6.154059246182441711e-02 1.466130614280700684e-01 -3.239267691969871521e-02 1.921056509017944336e-01 -6.633220613002777100e-02 4.768627583980560303e-01 -9.380731731653213501e-03 -1.706197410821914673e-01 7.389581296592950821e-03 -9.017157554626464844e-02 -8.486285805702209473e-02 3.012329936027526855e-01 4.614600911736488342e-02 9.995328262448310852e-03 1.436212956905364990e-01 -1.051591485738754272e-01 -6.252859234809875488e-01 2.677424810826778412e-02 -2.705747783184051514e-01 -2.009096741676330566e-02 -2.007316239178180695e-02 -2.775326967239379883e-01 -2.342242747545242310e-02 -7.370195537805557251e-02 -1.098790317773818970e-01
-2.534577995538711548e-02 -3.435602188110351562e-01 -3.360254764556884766e-01 -1.392378658056259155e-01 3.887466154992580414e-04 2.774285338819026947e-02 3.209348022937774658e-02 -7.055182754993438721e-02 -2.812689542770385742e-01 6.070642173290252686e-02 2.737490832805633545e-02 -9.251490980386734009e-02 -5.965745449066162109e-01 -5.602702498435974121e-02 -3.633431717753410339e-02 4.354425519704818726e-02 -2.996961399912834167e-02 3.116030097007751465e-01 -9.536551237106323242e-01 7.024407386779785156e-02 4.381715878844261169e-02 -7.412790656089782715e-01 -5.246590077877044678e-02 3.138588666915893555e-01 -6.357740610837936401e-02 -2.726723551750183105e-01 -5.761040840297937393e-03 2.335425466299057007e-01 -2.233915328979492188e-01 1.381402015686035156e-01 1.079005002975463867e-01 1.071582268923521042e-02 -4.908660054206848145e-02 -5.877294391393661499e-02 1.062138527631759644e-01 -4.636029899120330811e-02 -4.766858369112014771e-02 1.930404826998710632e-02 6.853584945201873779e-02 4.460294917225837708e-02 -4.542229697108268738e-03 -1.870282739400863647e-02 -4.346786066889762878e-02 -6.411467194557189941e-01 -6.029906682670116425e-03 -3.624506890773773193e-01 -2.663683891296386719e-01 2.077186405658721924e-01 3.395844250917434692e-02 -2.523864619433879852e-02 -6.948190927505493164e-02 1.400092095136642456e-01 -5.521261096000671387e-01 -2.295179367065429688e-01 2.241981960833072662e-02 -8.250174671411514282e-02 -1.773127019405364990e-01 -1.039738859981298447e-02 7.012619078159332275e-02 4.908581972122192383e-01 3.372501581907272339e-02 4.417369514703750610e-02 1.757946759462356567e-01 -8.040783554315567017e-02 8.408562839031219482e-02 2.201358377933502197e-01 -2.706588245928287506e-02 7.031051814556121826e-02 -5.685436725616455078e-02 4.473225474357604980e-01 -3.152873739600181580e-02 7.403956353664398193e-02 -1.689895056188106537e-02 -3.831104934215545654e-01 -2.319003269076347351e-02 5.815105885267257690e-02 -5.100995302200317383e-02 4.825469106435775757e-02 -6.764289140701293945e-01 5.178797841072082520e-01 2.555538341403007507e-02 -1.171718761324882507e-01 1.009876057505607605e-01 -5.549954250454902649e-02 -3.615726903080940247e-02 -3.971068263053894043e-01 -7.973028696142137051e-04 -3.097224235534667969e-01 9.559382498264312744e-02 -4.215520247817039490e-02 -6.055791303515434265e-02 4.673149064183235168e-02 -8.725762367248535156e-02 -4.088990092277526855e-01 -2.486096136271953583e-02 -1.083766669034957886e-02 -4.985676109790802002e-01 -1.961939595639705658e-02 -1.206101663410663605e-02 1.752468757331371307e-02 -2.274289913475513458e-02 6.070054136216640472e-03 2.991626225411891937e-02 3.043191321194171906e-02 2.036860398948192596e-02 5.114243552088737488e-02 8.333545178174972534e-03 -3.320717811584472656e-01 -5.645932629704475403e-03 2.105221711099147797e-02 1.746928691864013672e-02 3.396224230527877808e-02 -3.250096142292022705e-01 6.039189174771308899e-03 -7.191210985183715820e-01 -3.170055523514747620e-02 4.851377103477716446e-03 1.624972559511661530e-02 8.356352895498275757e-02 1.228198856115341187e-01 2.817726321518421173e-02 -2.287279963493347168e-01 -1.595573127269744873e-02 7.406070083379745483e-02 -4.488152861595153809e-01 8.403751254081726074e-02 6.921472377143800259e-04 3.273391127586364746e-01 -8.221961557865142822e-02 -2.105234563350677490e-02 -4.912303388118743896e-01 -8.774778246879577637e-02 -1.084110498428344727e+00 -1.015698816627264023e-02 -7.830643057823181152e-01 -9.132264256477355957e-01 -5.074589978903532028e-03 2.869649417698383331e-02 -2.062315642833709717e-01 -3.820879757404327393e-02 -5.591782331466674805e-01 -2.728801593184471130e-02 2.459313534200191498e-02 1.583892554044723511e-01 1.559385061264038086e-01 -5.682629346847534180e-01 1.367599330842494965e-02 3.049872517585754395e-01 2.942549437284469604e-02 1.499866042286157608e-02 -1.957689411938190460e-02 1.143958792090415955e-01 -2.505371160805225372e-02 -1.625366061925888062e-01 -4.446032643318176270e-02 -2.779894042760133743e-03 1.085305353626608849e-03 -4.727265611290931702e-02 -9.988999366760253906e-02 -9.746667928993701935e-03 -4.945566132664680481e-02 8.693113923072814941e-02 2.926932275295257568e-01 -4.385183006525039673e-02 4.873217046260833740e-01 5.252557992935180664e-02 -1.464700996875762939e-01 -2.657366991043090820e-01 7.695251703262329102e-02 3.549816086888313293e-02 -5.599375367164611816e-01 7.216907688416540623e-04 4.098559021949768066e-01 6.933546066284179688e-02 -3.070677071809768677e-02 2.252797782421112061e-02 1.459786444902420044e-01 -9.858581423759460449e-02 -2.774962484836578369e-01 1.810339093208312988e-02 -4.887539520859718323e-02 -1.611470282077789307e-01 -3.254827857017517090e-01 9.809757024049758911e-02 -1.993635147809982300e-01 -1.282919645309448242e-01 -3.204109668731689453e-01 -5.274156481027603149e-02 1.119970902800559998e-01 1.324586570262908936e-01 5.674394965171813965e-02 -9.743446484208106995e-03 2.808930352330207825e-02 -7.205420732498168945e-01 -2.139442414045333862e-02 3.712325096130371094e-01 -5.795204197056591511e-04 2.380266785621643066e-01 -4.767464473843574524e-02 1.071937829256057739e-01 -5.239350348711013794e-02 6.745196878910064697e-02 5.107140913605690002e-02 2.577472329139709473e-01 -5.392199382185935974e-03 -4.800243303179740906e-02 -1.306475400924682617e-01 -2.381811477243900299e-02 -3.491530418395996094e-01 -1.684415042400360107e-01 -1.902289539575576782e-01 -1.314564198255538940e-01 1.974304020404815674e-01 -1.734960079193115234e-02 7.114115357398986816e-02 -6.586366295814514160e-01 3.564952015876770020e-01 1.914377510547637939e-01 3.158523440361022949e-01 6.916724145412445068e-02 -3.556080535054206848e-02 4.058865457773208618e-02 -2.072417549788951874e-02 -5.072375759482383728e-02 1.538816094398498535e-02 -1.182827353477478027e-01 7.649425417184829712e-02 -6.985808908939361572e-02 1.578777134418487549e-01 -3.515590727329254150e-01 1.448216103017330170e-02 1.196046825498342514e-02 2.646719850599765778e-02 -1.477486044168472290e-01 1.867679953575134277e-01 2.329714037477970123e-02 -5.284946039319038391e-02 -8.537508547306060791e-03 -2.092486713081598282e-03 2.243363559246063232e-01 4.158480465412139893e-01 -8.517049252986907959e-02 1.157993003726005554e-01 -7.351101040840148926e-01 -3.059567138552665710e-02 1.132305944338440895e-03 6.685974597930908203e-01 1.016655340790748596e-01 3.323816359043121338e-01 -4.485720694065093994e-01 -3.710664436221122742e-02 3.456345200538635254e-02 -1.488123983144760132e-01 5.776537954807281494e-02 6.242298334836959839e-02 8.651930838823318481e-03
-3.806720301508903503e-02 -6.760480403900146484e-01 -1.011071324348449707e+00 -2.687927484512329102e-01 -1.301931496709585190e-02 -2.464905381202697754e-02 -1.790126711130142212e-01 -2.313602566719055176e-01 -9.312589466571807861e-02 -1.922731250524520874e-01 1.223306171596050262e-02 6.293825339525938034e-03 -1.473817825317382812e-01 1.256581768393516541e-02 -3.955283761024475098e-02 -4.789882302284240723e-01 4.148192703723907471e-02 -4.831013977527618408e-01 1.335830837488174438e-01 9.478457272052764893e-02 1.794135756790637970e-02 -1.694256439805030823e-02 -1.108753383159637451e-01 -2.030035555362701416e-01 3.882101178169250488e-02 2.112629413604736328e-01 -9.294480085372924805e-02 -5.185424685478210449e-01 -1.584957987070083618e-01 -2.217914909124374390e-01 1.526143867522478104e-02 -3.065674006938934326e-01 9.430088847875595093e-02 8.003677427768707275e-02 -5.870358347892761230e-01 -3.148528048768639565e-04 1.516807824373245239e-01 -3.132743015885353088e-02 3.330494510009884834e-03 -2.109450399875640869e-01 -3.757996112108230591e-02 7.126566022634506226e-02 -6.570588797330856323e-02 -2.771160379052162170e-02 -2.295097261667251587e-01 -6.564050316810607910e-01 -7.659789919853210449e-01 -5.447289943695068359e-01 -3.240206465125083923e-02 7.870025001466274261e-03 2.230456843972206116e-02 -7.370366454124450684e-01 -6.382479071617126465e-01 2.004350870847702026e-01 3.552437946200370789e-02 -1.093624625355005264e-02 -1.612520068883895874e-01 -1.325645893812179565e-01 -9.583432972431182861e-02 -3.353278338909149170e-01 -1.967151835560798645e-02 -1.539636105298995972e-01 -1.529174298048019409e-01 1.150116883218288422e-02 -1.473401300609111786e-02 -2.788026034832000732e-01 -6.713593006134033203e-02 -6.818999350070953369e-02 -9.204164147377014160e-02 -5.004708170890808105e-01 -4.815023541450500488e-01 -2.655214667320251465e-01 -2.400162816047668457e-02 -4.010415971279144287e-01 -3.068527579307556152e-01 -3.185443207621574402e-02 -5.450482964515686035e-01 1.423970330506563187e-02 4.520395100116729736e-01 -6.831728219985961914e-01 -3.870508670806884766e-01 -1.001733392477035522e-01 -7.433971017599105835e-02 -7.181844860315322876e-02 1.910065673291683197e-02 -3.054954409599304199e-01 -1.200344040989875793e-01 -3.867405951023101807e-01 -1.461888998746871948e-01 -1.538858860731124878e-01 2.974092029035091400e-02 -1.944513618946075439e-02 1.372140832245349884e-02 -3.622138202190399170e-01 -1.392263919115066528e-01 -3.993299007415771484e-01 -1.069494605064392090e+00 -7.197640836238861084e-02 -1.208800077438354492e-02 2.987548895180225372e-02 -3.665025532245635986e-02 1.058353204280138016e-02 -2.860206738114356995e-02 3.203523159027099609e-02 -7.680291682481765747e-02 -1.130717098712921143e-01 -3.137125866487622261e-03 -7.681169360876083374e-02 1.189307495951652527e-01 2.323751337826251984e-02 4.597638268023729324e-03 -6.579223275184631348e-02 -1.465691775083541870e-01 -4.452078789472579956e-02 -7.976406216621398926e-01 -4.517911672592163086e-01 9.176877327263355255e-03 -6.214108690619468689e-02 -1.167685762047767639e-01 -3.704535216093063354e-02 -1.669919192790985107e-01 -2.507867217063903809e-01 -3.128355741500854492e-01 -2.779572904109954834e-01 -4.465411305427551270e-01 1.125764697790145874e-01 -8.028413355350494385e-02 -9.651124477386474609e-01 -6.355506777763366699e-01 -1.935849338769912720e-02 -5.698754191398620605e-01 7.727041095495223999e-02 -9.778229594230651855e-01 -3.283731639385223389e-02 2.270912826061248779e-01 1.038129329681396484e+00 -3.557418659329414368e-02 -7.131360471248626709e-02 1.164887025952339172e-01 -1.900460869073867798e-01 -1.141096711158752441e+00 2.323901862837374210e-04 6.704354286193847656e-02 -1.842460870742797852e+00 -2.196487933397293091e-01 -5.120027065277099609e-01 -2.662810310721397400e-02 -1.009656071662902832e+00 2.648275531828403473e-02 1.881550997495651245e-02 -1.466111689805984497e-01 -3.173533082008361816e-01 -3.791587799787521362e-02 -4.376875236630439758e-02 -2.540700435638427734e-01 2.077943645417690277e-02 -9.678777307271957397e-02 -7.862541079521179199e-02 -4.169922322034835815e-02 -4.029548913240432739e-02 -8.938946761190891266e-03 -9.587311744689941406e-02 -2.941309809684753418e-01 -1.618556492030620575e-02 -1.202845931053161621e+00 -1.971431821584701538e-01 -5.454910546541213989e-02 -8.148000240325927734e-01 6.689005997031927109e-03 -1.001915261149406433e-01 -9.786253571510314941e-01 3.439178457483649254e-03 -4.603998363018035889e-01 -2.472699880599975586e-01 1.274645328521728516e-01 -1.192978844046592712e-01 -6.198852136731147766e-02 -1.184024363756179810e-01 -5.252056121826171875e-01 -2.211034670472145081e-02 -1.785250753164291382e-01 -1.997193247079849243e-01 -7.792657613754272461e-01 -2.131943106651306152e-01 -4.690287411212921143e-01 -7.213900983333587646e-02 -1.270581930875778198e-01 -2.730587497353553772e-02 -1.918351054191589355e-01 -5.639740824699401855e-02 -9.198419749736785889e-02 1.582772582769393921e-01 -1.275168657302856445e-01 3.453187942504882812e-01 -7.409905083477497101e-03 -1.041059017181396484e+00 -2.416034340858459473e-01 -5.000974535942077637e-01 -3.985731601715087891e-01 -1.996774077415466309e-01 -2.004479244351387024e-02 -8.947387337684631348e-02 -1.660450478084385395e-03 -9.650915265083312988e-01 -5.384666379541158676e-03 -8.727643638849258423e-02 -4.198874160647392273e-02 -5.534083023667335510e-02 -6.602088809013366699e-01 -3.599268198013305664e-01 -2.567932605743408203e-01 -2.670507878065109253e-02 -4.088765978813171387e-01 -7.112335413694381714e-02 9.759228676557540894e-02 -1.048063397407531738e+00 -3.351746797561645508e-01 -8.922882378101348877e-02 -1.378236114978790283e-01 -6.378380954265594482e-02 -9.012065082788467407e-02 1.419697795063257217e-02 -6.007848978042602539e-01 1.790617778897285461e-02 -1.014284715056419373e-01 -4.054475426673889160e-01 6.002099066972732544e-02 -6.033334415405988693e-03 -6.338872313499450684e-01 2.511976659297943115e-01 3.258008137345314026e-02 4.562452435493469238e-03 1.231202110648155212e-01 -3.952564597129821777e-01 -1.578549668192863464e-02 -4.104581177234649658e-01 -7.891332507133483887e-01 -5.044301971793174744e-02 -3.319889307022094727e-02 -2.533782124519348145e-01 -5.790768861770629883e-01 -1.254875510931015015e-01 3.330655694007873535e-01 2.640510536730289459e-02 -1.640390418469905853e-02 -1.690500080585479736e-01 -5.323520302772521973e-01 -6.071208119392395020e-01 -9.012362360954284668e-01 -3.212063014507293701e-02 -2.750371955335140228e-02 -2.087019756436347961e-02 -6.765072941780090332e-01 6.372987478971481323e-02 -2.143315523862838745e-01 -6.689713150262832642e-02
1.350889652967453003e-01 3.799601793289184570e-01 1.459777355194091797e-01 1.541042476892471313e-01 8.939918130636215210e-03 1.331631094217300415e-01 2.756707370281219482e-01 9.107539802789688110e-02 -8.693049848079681396e-02 2.518359012901782990e-02 5.703762639313936234e-03 7.262049708515405655e-03 -1.017874181270599365e-01 -1.288402527570724487e-01 3.245326504111289978e-02 9.237061440944671631e-02 4.582508991006761789e-04 7.129213809967041016e-01 -3.346926569938659668e-01 2.755053807049989700e-03 7.609821856021881104e-02 -3.956317901611328125e-01 1.086262539029121399e-01 -3.134252727031707764e-01 1.873678714036941528e-01 9.000657498836517334e-02 -2.029008232057094574e-02 -1.271021515130996704e-01 1.051402211189270020e+00 2.113925069570541382e-01 1.535155903548002243e-02 2.199419438838958740e-01 1.357053369283676147e-01 8.349134773015975952e-02 2.799530029296875000e-01 3.604634478688240051e-02 5.776284635066986084e-02 -6.743845343589782715e-02 -4.976683109998703003e-02 9.923397004604339600e-02 -1.997846178710460663e-02 -5.985815078020095825e-03 3.915116190910339355e-02 -2.404757142066955566e-01 6.149777770042419434e-02 -3.366260230541229248e-01 -1.068864345550537109e+00 -3.771471381187438965e-01 -7.909479737281799316e-02 1.013759057968854904e-02 1.083486452698707581e-01 -4.716691970825195312e-01 4.216525256633758545e-01 3.228599727153778076e-01 -4.530575126409530640e-02 -3.324562311172485352e-01 -7.682310789823532104e-02 -6.877493113279342651e-02 -3.780097141861915588e-02 9.342236518859863281e-01 8.712332695722579956e-02 1.107173189520835876e-01 -1.988844387233257294e-02 -1.918435469269752502e-02 6.279508769512176514e-02 -2.528731152415275574e-02 1.202219817787408829e-02 4.645050689578056335e-02 -5.830831453204154968e-02 -2.360306829214096069e-01 1.699223816394805908e-01 2.965697087347507477e-02 -9.116002172231674194e-02 -8.265180513262748718e-03 8.679307065904140472e-03 3.569170832633972168e-02 4.218134880065917969e-01 2.801729366183280945e-02 8.225013613700866699e-01 4.305133223533630371e-01 -9.996841661632061005e-03 -1.083349883556365967e-01 -3.048156620934605598e-03 -2.724706381559371948e-02 8.476088196039199829e-02 -1.126045584678649902e-01 5.461969226598739624e-02 2.657467722892761230e-01 1.813153177499771118e-01 6.274207681417465210e-02 -4.440873861312866211e-02 -2.903578104451298714e-03 -1.263246499001979828e-02 -2.616407573223114014e-01 -4.523157700896263123e-02 1.108826175332069397e-01 -3.625955283641815186e-01 4.934988915920257568e-02 -5.760546773672103882e-02 6.067070737481117249e-02 -4.461193084716796875e-02 3.894779086112976074e-02 6.497289985418319702e-02 -1.822036318480968475e-02 -2.399129234254360199e-02 6.122003868222236633e-02 4.165342077612876892e-02 1.958086490631103516e-01 2.020427584648132324e-01 1.756111346185207367e-02 -1.370477676391601562e-02 -7.816804945468902588e-02 8.894746750593185425e-02 -3.904178505763411522e-03 -5.948427915573120117e-01 2.469396591186523438e-02 2.742725796997547150e-02 4.877081885933876038e-02 4.524724557995796204e-02 6.197076290845870972e-02 1.450120564550161362e-02 1.462296098470687866e-01 -8.446563780307769775e-02 1.052846089005470276e-01 -2.437796592712402344e-01 8.948091417551040649e-02 -1.326648443937301636e-01 1.901305466890335083e-01 3.579924628138542175e-02 -5.577987432479858398e-02 9.241265803575515747e-02 -6.697582453489303589e-02 2.671867012977600098e-01 -1.516731828451156616e-02 -1.593146473169326782e-01 -2.980166971683502197e-01 -3.725079447031021118e-02 1.802038848400115967e-01 2.381245195865631104e-01 9.976710379123687744e-02 -8.129911869764328003e-02 -2.105234656482934952e-03 8.750735968351364136e-02 -4.550520777702331543e-01 4.341038167476654053e-01 -3.110345080494880676e-02 8.050415664911270142e-02 4.618224203586578369e-01 3.413154929876327515e-02 5.155955441296100616e-03 -7.654266059398651123e-02 2.056480944156646729e-01 -6.740251183509826660e-02 -1.270056962966918945e-01 1.403018385171890259e-01 -2.018097229301929474e-02 -2.068469533696770668e-03 3.400535583496093750e-01 -7.213997840881347656e-02 7.267549633979797363e-02 -4.658579826354980469e-02 4.126360416412353516e-01 6.526697874069213867e-01 7.468316471204161644e-04 8.947258442640304565e-02 -2.935202233493328094e-02 1.526781767606735229e-01 -3.296096026897430420e-01 -4.260087758302688599e-02 2.425065822899341583e-02 -1.226159453392028809e+00 9.095845744013786316e-03 -2.472124993801116943e-01 1.399943083524703979e-01 6.023487448692321777e-02 2.891661971807479858e-02 -3.262363746762275696e-02 -7.563427835702896118e-02 9.809266030788421631e-02 -3.036309219896793365e-02 1.609874069690704346e-01 -1.812859326601028442e-01 -6.313328742980957031e-01 5.616325885057449341e-02 -1.052341908216476440e-01 4.161161836236715317e-03 2.229450196027755737e-01 7.598544005304574966e-03 7.888746261596679688e-02 -2.610226273536682129e-01 -1.228722371160984039e-02 -1.867366284132003784e-01 9.055508673191070557e-02 8.375852555036544800e-02 -1.079524750821292400e-03 8.286837488412857056e-02 3.705256804823875427e-02 5.752671360969543457e-01 -2.568320930004119873e-01 -1.840724647045135498e-01 2.890627644956111908e-02 -3.564262762665748596e-02 -4.210161045193672180e-02 -4.345892965793609619e-01 3.786690067499876022e-03 1.067545488476753235e-01 8.546401560306549072e-02 -9.710795432329177856e-02 -1.809869408607482910e-01 -9.223754703998565674e-02 1.499296426773071289e-01 -2.119391225278377533e-02 1.805572658777236938e-01 -6.489193998277187347e-03 2.420382946729660034e-02 -2.331885546445846558e-01 8.668666332960128784e-02 1.553529221564531326e-02 3.697580471634864807e-02 -5.777126923203468323e-02 -8.235055208206176758e-02 5.626483634114265442e-02 7.773773372173309326e-02 3.104812465608119965e-02 3.689438477158546448e-02 2.248109877109527588e-01 2.650693617761135101e-02 4.367466643452644348e-02 3.535826504230499268e-02 3.092015981674194336e-01 -1.723089814186096191e-02 1.577490754425525665e-02 -1.556125134229660034e-01 1.175266951322555542e-01 2.068294584751129150e-01 2.055908590555191040e-01 6.441313028335571289e-01 9.289801120758056641e-03 2.866121195256710052e-02 -1.088512688875198364e-01 -1.729338169097900391e-01 -6.025850027799606323e-02 1.560166925191879272e-01 6.087374091148376465e-01 -2.665396593511104584e-02 -3.738419339060783386e-02 5.493066310882568359e-01 -1.231952570378780365e-02 3.832571208477020264e-01 1.404210180044174194e-01 -2.538729459047317505e-02 3.176010400056838989e-02 -2.373053878545761108e-02 -3.780641593039035797e-03 4.572968184947967529e-02 -3.433231264352798462e-02
7.936618477106094360e-02 1.160089075565338135e-01 5.896257236599922180e-02 5.856105685234069824e-02 -1.504134573042392731e-02 8.203734457492828369e-02 -6.223491579294204712e-02 -1.330411899834871292e-02 1.097219511866569519e-01 8.789576590061187744e-02 4.846584051847457886e-02 2.498596673831343651e-03 -1.970492750406265259e-01 3.841387853026390076e-02 1.098982021212577820e-01 3.622763231396675110e-02 6.476455181837081909e-02 -1.372370272874832153e-01 3.252258300781250000e-01 4.719129577279090881e-02 -1.688859798014163971e-02 1.689260900020599365e-01 5.684368684887886047e-02 -4.639029204845428467e-01 3.302848711609840393e-02 1.437873542308807373e-01 7.285111397504806519e-02 2.733438611030578613e-01 -6.123658642172813416e-02 -5.848356522619724274e-03 7.470178604125976562e-02 7.795951515436172485e-02 1.199919134378433228e-01 -2.298184204846620560e-03 7.651053369045257568e-02 -5.378050357103347778e-02 1.554504930973052979e-01 -2.987195365130901337e-02 6.409978866577148438e-02 1.826395466923713684e-02 1.073229871690273285e-02 1.856730878353118896e-01 -1.510408241301774979e-02 7.653743773698806763e-02 9.669761359691619873e-02 -1.164957061409950256e-01 2.140161544084548950e-01 -1.251052618026733398e-01 -5.910987779498100281e-02 -1.247663609683513641e-02 -7.346302270889282227e-03 -5.859975814819335938e-01 -1.553944051265716553e-01 1.952296495437622070e-01 -6.224572286009788513e-02 -9.968303143978118896e-02 -5.293105542659759521e-02 1.518690884113311768e-01 -3.904309868812561035e-02 2.401555143296718597e-02 -3.793816268444061279e-02 5.141214281320571899e-02 -7.950478792190551758e-02 -5.951530858874320984e-02 9.517804533243179321e-02 1.103334575891494751e-01 -4.732673615217208862e-02 3.584831207990646362e-02 -5.100465193390846252e-02 -7.468950003385543823e-02 -1.201690584421157837e-01 8.751656115055084229e-02 -3.961658477783203125e-02 -9.221427142620086670e-03 1.898286342620849609e-01 -2.115587331354618073e-02 -3.429331630468368530e-02 3.732707723975181580e-02 1.881322115659713745e-01 -3.137390017509460449e-01 -1.269113421440124512e-01 6.332258880138397217e-02 -1.273193955421447754e-02 4.025382548570632935e-02 1.523439735174179077e-01 -1.296935379505157471e-01 1.669149845838546753e-01 -1.697642803192138672e-01 -2.060424536466598511e-02 5.097802355885505676e-02 2.087882719933986664e-02 3.487217798829078674e-02 1.472597569227218628e-01 -1.504388153553009033e-01 -1.102987676858901978e-02 -6.543711572885513306e-02 1.707985997200012207e-01 -9.655973874032497406e-03 4.074439778923988342e-02 -2.332470752298831940e-02 3.681725636124610901e-02 1.509826816618442535e-02 -7.581261452287435532e-04 -6.359057873487472534e-02 1.023859530687332153e-01 3.077967464923858643e-02 -1.093191057443618774e-01 2.072301656007766724e-01 -1.457110885530710220e-02 -4.959159716963768005e-02 7.726908661425113678e-03 -5.531525611877441406e-02 2.393991798162460327e-01 3.643156588077545166e-02 1.876919902861118317e-02 -2.315114885568618774e-01 2.831531874835491180e-02 2.071004128083586693e-03 9.550051391124725342e-02 2.662560157477855682e-02 1.723973155021667480e-01 -7.048155367374420166e-02 4.992265999317169189e-02 5.494955182075500488e-02 -2.670238614082336426e-01 -9.049868583679199219e-02 1.062044650316238403e-01 4.034685492515563965e-01 4.868895933032035828e-02 -1.152013987302780151e-01 -1.054083853960037231e-01 2.593996822834014893e-01 4.936786890029907227e-01 -1.648394018411636353e-02 -9.415377676486968994e-02 -5.750309228897094727e-01 -1.740770600736141205e-02 7.803834974765777588e-02 2.701820433139801025e-02 -2.676118165254592896e-02 1.949831098318099976e-01 -6.860587745904922485e-02 -6.527309119701385498e-02 4.339565038681030273e-01 -3.056610468775033951e-03 9.986897557973861694e-02 4.668455198407173157e-02 5.073183178901672363e-01 7.110023498535156250e-02 1.636169292032718658e-02 1.374835893511772156e-02 1.092482134699821472e-01 -6.964365392923355103e-02 -3.044069558382034302e-02 -4.378899931907653809e-02 5.123982578516006470e-02 3.972009569406509399e-02 3.697381615638732910e-01 2.765335887670516968e-02 -3.349700197577476501e-02 3.779910877346992493e-02 -9.747739136219024658e-02 -4.111631512641906738e-01 -2.355057513341307640e-03 -2.142256358638405800e-03 6.297242641448974609e-02 -1.848957985639572144e-01 2.552442252635955811e-01 -2.385648712515830994e-02 -5.774701386690139771e-02 -1.000448912382125854e-01 2.565659023821353912e-02 -2.385478913784027100e-01 1.937867887318134308e-02 5.170395597815513611e-02 1.867535640485584736e-03 1.174441725015640259e-01 2.016764692962169647e-02 1.916308701038360596e-02 -5.849415063858032227e-02 -5.380574241280555725e-02 1.291747093200683594e-01 2.673746645450592041e-01 -1.550091654062271118e-01 -5.687666684389114380e-02 -7.455164566636085510e-03 4.224922955036163330e-01 7.708566635847091675e-02 1.916692554950714111e-01 -1.202661916613578796e-01 5.993148311972618103e-02 -3.092797100543975830e-01 2.614828348159790039e-01 1.097305677831172943e-02 5.377607047557830811e-02 2.348027005791664124e-02 -2.864095382392406464e-02 -1.371704488992691040e-01 -1.713699698448181152e-01 -2.407283633947372437e-01 1.146227680146694183e-02 9.539554826915264130e-03 -2.370222285389900208e-02 1.439263373613357544e-01 -8.119882084429264069e-03 3.910448774695396423e-02 1.165573298931121826e-01 -3.428069129586219788e-02 3.750082105398178101e-02 4.803975671529769897e-02 1.559508293867111206e-01 -4.403292015194892883e-02 1.457783672958612442e-02 -2.568014524877071381e-02 -3.450487554073333740e-02 5.626987200230360031e-03 6.574379652738571167e-02 5.292095243930816650e-02 -4.389366880059242249e-02 4.386989399790763855e-03 1.529587656259536743e-01 -1.961858198046684265e-02 -9.447490423917770386e-02 8.979409188032150269e-02 2.001169323921203613e-02 -2.431238144636154175e-01 -3.333779051899909973e-02 2.104572020471096039e-02 4.284261763095855713e-01 -1.709933578968048096e-01 -2.848185226321220398e-02 -3.189137578010559082e-02 1.848096847534179688e-01 3.636576607823371887e-02 1.800164431333541870e-01 7.901462167501449585e-02 -9.158520400524139404e-02 -2.979103289544582367e-02 8.203729987144470215e-02 -6.759729236364364624e-02 -4.011138677597045898e-01 -7.493546605110168457e-02 -3.597494661808013916e-01 3.753303587436676025e-01 2.370919659733772278e-02 -5.281529575586318970e-02 7.598395347595214844e-01 1.703681424260139465e-02 -1.737914234399795532e-01 1.200186684727668762e-01 5.877614021301269531e-02 1.150914281606674194e-01 9.497004002332687378e-02 2.938881330192089081e-02 1.431388258934020996e-01 9.051956236362457275e-02
8.874854445457458496e-02 -1.350218057632446289e-01 6.845722794532775879e-01 -8.715535700321197510e-02 -2.118735108524560928e-03 -1.423071604222059250e-02 -2.362536452710628510e-02 -2.228063158690929413e-02 -7.711359858512878418e-02 2.464113757014274597e-02 1.802225224673748016e-02 -3.701832890510559082e-02 -3.713980317115783691e-01 6.168176420032978058e-03 9.580774605274200439e-02 -6.364965438842773438e-02 -4.647606983780860901e-02 -1.384302377700805664e-01 1.248312145471572876e-01 -6.693168729543685913e-02 -4.322121851146221161e-03 3.179816007614135742e-01 6.372950971126556396e-02 -4.960767179727554321e-02 -1.182431820780038834e-02 4.021843895316123962e-02 -4.926985502243041992e-02 -1.820576190948486328e-01 7.719972729682922363e-02 2.584662847220897675e-02 2.884217351675033569e-02 1.484461873769760132e-01 2.069698460400104523e-02 -7.890969514846801758e-02 -2.961500585079193115e-01 2.177467197179794312e-02 3.580498695373535156e-02 -6.578941643238067627e-02 5.201609805226325989e-02 2.860685065388679504e-02 -3.246430307626724243e-03 -1.688287556171417236e-01 5.284668877720832825e-02 9.622636437416076660e-02 -1.382601261138916016e-01 1.611477732658386230e-01 7.387263178825378418e-01 5.554687976837158203e-02 5.128456652164459229e-02 -2.628481015563011169e-03 5.835790559649467468e-02 -3.688330948352813721e-01 1.956983953714370728e-01 3.540731035172939301e-03 9.484808146953582764e-02 -1.712532192468643188e-01 7.430891692638397217e-02 -2.408780306577682495e-01 2.778688445687294006e-02 2.238275483250617981e-02 -4.686449840664863586e-02 -2.242165058851242065e-02 3.706156834959983826e-02 -6.605783477425575256e-03 -6.569750607013702393e-02 -2.971853874623775482e-02 5.038896203041076660e-02 -1.029938310384750366e-01 -1.282569915056228638e-01 1.818251609802246094e-02 -1.207710802555084229e-01 -4.238567873835563660e-02 2.173209004104137421e-02 6.039349734783172607e-02 -2.866035327315330505e-02 1.980809262022376060e-03 2.675577998161315918e-01 -6.930302083492279053e-02 -1.717904508113861084e-01 -2.108150906860828400e-02 -1.021098997443914413e-02 9.293185174465179443e-02 1.524951495230197906e-02 8.075307309627532959e-02 7.109388709068298340e-02 1.890447176992893219e-02 -8.086635917425155640e-02 -2.334371656179428101e-01 -3.483844920992851257e-02 -8.864880353212356567e-02 -4.753856360912322998e-02 -1.158841233700513840e-02 7.724841684103012085e-02 -1.300636380910873413e-01 -1.186414901167154312e-02 3.288622200489044189e-02 2.005222290754318237e-01 -2.737940987572073936e-03 -2.186959236860275269e-02 4.795999825000762939e-02 -1.065585762262344360e-01 5.348931998014450073e-02 -1.026830449700355530e-02 -1.062657218426465988e-02 1.476083043962717056e-02 2.082595527172088623e-01 3.779530897736549377e-02 3.706308305263519287e-01 2.870066836476325989e-02 -2.911272644996643066e-02 3.183591179549694061e-03 2.379335276782512665e-02 -3.609186410903930664e-02 2.042263001203536987e-02 -5.965108051896095276e-02 -4.652960225939750671e-02 -3.684728220105171204e-02 4.958786070346832275e-02 1.749182119965553284e-02 9.362921863794326782e-02 3.952870890498161316e-02 -1.461272984743118286e-01 -1.142449327744543552e-03 -6.662839651107788086e-02 -7.171929627656936646e-02 1.418765038251876831e-01 4.770265892148017883e-02 -2.199958451092243195e-02 -5.880276858806610107e-02 1.394995208829641342e-02 -3.826612234115600586e-01 -2.339821308851242065e-01 -7.230830937623977661e-02 -7.224515825510025024e-02 -6.872509419918060303e-02 -6.985908001661300659e-02 -2.281262166798114777e-02 4.373895470052957535e-03 4.660146683454513550e-02 8.769366145133972168e-02 -1.444223821163177490e-01 -4.620717838406562805e-02 -6.184234842658042908e-02 -4.001807868480682373e-01 -2.231145650148391724e-01 -3.451399877667427063e-02 4.523831233382225037e-02 2.630231082439422607e-01 -3.671197220683097839e-02 -1.452923566102981567e-02 -2.814845182001590729e-02 9.918274730443954468e-02 -2.472513727843761444e-02 5.444165784865617752e-03 -8.118182420730590820e-02 -7.068384438753128052e-02 3.077368997037410736e-02 -3.765097260475158691e-01 -3.169021336361765862e-03 1.928033679723739624e-02 1.011180356144905090e-01 -1.413354873657226562e-01 9.783987700939178467e-02 2.361734025180339813e-02 -1.094560399651527405e-01 1.563942134380340576e-01 1.271775662899017334e-01 -7.945539951324462891e-01 5.874971672892570496e-02 8.629503659904003143e-03 -5.106764659285545349e-02 -7.519476115703582764e-02 4.547886922955513000e-02 -2.440973930060863495e-02 1.856816112995147705e-01 -1.477642804384231567e-01 -2.772660180926322937e-02 5.760693177580833435e-02 1.217386499047279358e-01 1.630827598273754120e-02 9.638395905494689941e-02 7.758803665637969971e-02 2.282601594924926758e-02 -1.440900713205337524e-01 1.430065333843231201e-01 5.520746484398841858e-02 -5.073245242238044739e-02 6.067179609090089798e-03 3.655590116977691650e-02 2.497003674507141113e-01 5.379272252321243286e-02 -1.093770414590835571e-01 -1.619250625371932983e-01 -1.882532238960266113e-01 1.238823588937520981e-02 -1.100965440273284912e-01 1.945129781961441040e-02 -9.259640425443649292e-02 4.721811786293983459e-02 1.413100510835647583e-01 -3.295256197452545166e-02 -7.125078141689300537e-02 -1.183337159454822540e-02 -1.731495559215545654e-01 -9.195570647716522217e-02 -4.904964938759803772e-02 -4.255893081426620483e-02 -6.013836711645126343e-02 -1.173407062888145447e-01 3.687598928809165955e-02 -7.483671605587005615e-02 9.373533725738525391e-02 -6.341385096311569214e-02 9.468434727750718594e-04 1.442342810332775116e-02 -2.772625908255577087e-02 -2.637002766132354736e-01 -8.785369805991649628e-03 -3.473965227603912354e-01 -3.876980021595954895e-02 -1.171310320496559143e-01 -1.446100324392318726e-01 -9.613556414842605591e-02 -6.635595858097076416e-02 2.488760836422443390e-02 -6.953575462102890015e-02 2.386745624244213104e-02 1.359022594988346100e-02 -2.750434577465057373e-01 -1.826284974813461304e-01 -1.451206114143133163e-02 3.958915546536445618e-02 -5.333187803626060486e-02 1.299901753664016724e-01 -2.441155910491943359e-01 1.740252971649169922e-01 -2.852741777896881104e-01 -3.557924926280975342e-02 9.143844246864318848e-02 -6.113025918602943420e-02 -7.348195463418960571e-02 9.864065796136856079e-02 2.202105373144149780e-01 -2.539606690406799316e-01 -4.520587623119354248e-02 -1.768670529127120972e-01 1.539458781480789185e-01 -1.696437299251556396e-01 -7.531190663576126099e-02 5.446554422378540039e-01 -8.434280753135681152e-03 -5.038912408053874969e-03 2.237292081117630005e-01 -3.433156386017799377e-02 -2.287629693746566772e-01 2.885461226105690002e-02
1.308314800262451172e-01 4.120032191276550293e-01 3.665076196193695068e-01 7.982642389833927155e-03 -2.087249979376792908e-02 2.090717107057571411e-02 2.302617132663726807e-01 -3.090152330696582794e-02 -6.485993508249521255e-03 6.312011927366256714e-02 -1.735052093863487244e-03 2.927902899682521820e-02 -8.943438529968261719e-02 1.685346215963363647e-01 -6.519506126642227173e-02 8.957661688327789307e-02 5.046715587377548218e-02 7.431251406669616699e-01 -5.391138046979904175e-02 1.228766888380050659e-01 -1.021207030862569809e-02 1.875622868537902832e-01 1.693816334009170532e-01 4.638093337416648865e-02 -6.248030439019203186e-02 4.035288393497467041e-01 3.545015305280685425e-02 2.309681177139282227e-01 -1.510808020830154419e-01 -2.362971380352973938e-02 2.942373752593994141e-01 5.934890732169151306e-02 9.500012546777725220e-02 1.757165342569351196e-01 2.344157844781875610e-01 5.914868041872978210e-02 8.972570300102233887e-02 -2.241563983261585236e-02 7.498439401388168335e-02 5.570309981703758240e-02 4.029032588005065918e-02 -4.674319922924041748e-02 1.171609386801719666e-01 6.437753438949584961e-01 2.713218331336975098e-01 6.089349389076232910e-01 8.730107545852661133e-01 5.245453491806983948e-02 1.760962419211864471e-02 -3.296795999631285667e-03 2.181615382432937622e-01 -2.188110649585723877e-01 4.110544919967651367e-01 3.889889717102050781e-01 1.352632045745849609e-01 2.213390618562698364e-01 -8.839099109172821045e-02 3.998740110546350479e-03 1.772786676883697510e-02 4.348889589309692383e-01 3.430220484733581543e-01 1.810685098171234131e-01 -1.055972799658775330e-01 -2.198300696909427643e-02 7.686201483011245728e-02 -2.934183180332183838e-01 1.448251605033874512e-01 -3.308684378862380981e-02 6.850700080394744873e-02 2.983073294162750244e-01 2.240378856658935547e-01 -9.290263056755065918e-03 -5.665403231978416443e-02 3.248638808727264404e-01 -1.228683739900588989e-01 7.000225782394409180e-02 -2.271582186222076416e-01 7.691928185522556305e-03 7.792764902114868164e-01 -7.879218459129333496e-02 -1.678226590156555176e-01 1.741872578859329224e-01 1.453635934740304947e-02 1.271368563175201416e-01 1.736775413155555725e-02 3.515453934669494629e-01 -2.678137086331844330e-02 1.218947246670722961e-01 -1.942887455224990845e-01 2.592509426176548004e-02 1.336002647876739502e-01 1.022619903087615967e-01 -1.729971021413803101e-01 3.748987913131713867e-01 2.854038402438163757e-02 1.881265193223953247e-01 3.259634971618652344e-01 -5.051178857684135437e-03 7.441421598196029663e-02 5.772992596030235291e-02 7.480859756469726562e-02 1.541765630245208740e-01 -6.670543551445007324e-02 7.617273926734924316e-02 -4.847848415374755859e-02 7.405991852283477783e-02 9.748630970716476440e-02 7.897521257400512695e-01 1.651660054922103882e-01 -1.031838357448577881e-02 -7.366106845438480377e-03 1.052622348070144653e-01 -8.284476399421691895e-02 8.398257195949554443e-02 6.155785322189331055e-01 4.531431943178176880e-02 -6.359181553125381470e-02 4.652544856071472168e-02 2.981105819344520569e-02 -1.152454167604446411e-01 -1.643233187496662140e-02 5.983615294098854065e-02 1.234998106956481934e-01 2.750075161457061768e-01 2.738089561462402344e-01 -1.676672101020812988e-01 1.657402813434600830e-01 2.835329473018646240e-01 1.973488926887512207e-01 1.488386243581771851e-01 -1.846591196954250336e-02 1.150023862719535828e-01 -9.617930650711059570e-02 1.610852777957916260e-02 4.861750602722167969e-01 2.808260321617126465e-01 -1.627520844340324402e-02 -1.074609532952308655e-01 -4.966494441032409668e-02 3.795273602008819580e-02 6.783341765403747559e-01 -9.019660763442516327e-03 1.127074882388114929e-01 2.498281896114349365e-01 -1.849598586559295654e-01 -1.640159338712692261e-01 1.262610554695129395e-01 2.847619652748107910e-01 4.483307246118783951e-03 8.455695211887359619e-02 -3.995412588119506836e-02 1.686090230941772461e-01 8.100202679634094238e-02 3.286691009998321533e-02 -8.276563882827758789e-02 1.840844005346298218e-02 -1.640220731496810913e-02 7.906630039215087891e-01 3.810074552893638611e-02 1.127982214093208313e-01 1.580306440591812134e-01 1.636491268873214722e-01 -9.377951622009277344e-01 1.146211400628089905e-01 1.742138415575027466e-01 -2.711170818656682968e-03 3.578315079212188721e-01 8.303955793380737305e-01 -3.163335844874382019e-02 3.367913141846656799e-02 -4.209715407341718674e-03 1.407953053712844849e-01 -3.667504489421844482e-01 8.448263257741928101e-02 9.617505711503326893e-04 -1.490714102983474731e-01 1.502329669892787933e-02 -3.003180772066116333e-02 -2.568355798721313477e-01 5.866540595889091492e-02 1.639151573181152344e-01 3.101181387901306152e-01 5.324454307556152344e-01 2.354023009538650513e-01 1.983208954334259033e-01 2.583564221858978271e-01 7.885997742414474487e-02 2.286714315414428711e-02 2.404653877019882202e-01 5.448681861162185669e-02 -3.594832718372344971e-01 -4.760741293430328369e-01 2.970813959836959839e-02 5.276334881782531738e-01 -2.359748817980289459e-02 4.114760458469390869e-01 9.849070757627487183e-02 3.272795975208282471e-01 1.704810261726379395e-01 4.010304212570190430e-01 6.566214561462402344e-02 5.861574783921241760e-02 3.639266639947891235e-02 -1.292780637741088867e-01 1.059119552373886108e-01 4.102137088775634766e-01 1.197067797183990479e-01 -5.105623602867126465e-02 -2.390025407075881958e-01 -7.736411690711975098e-02 1.485089212656021118e-01 9.772767126560211182e-02 -9.650015830993652344e-02 1.629901230335235596e-01 1.119990646839141846e-01 5.207700729370117188e-01 -9.968888759613037109e-02 3.494552895426750183e-02 3.528079986572265625e-01 8.361292630434036255e-02 7.639809697866439819e-02 2.387559413909912109e-02 2.516728639602661133e-01 9.852492064237594604e-02 4.644358903169631958e-02 -1.434603333473205566e-01 3.139540925621986389e-02 -2.059115655720233917e-02 3.513165712356567383e-01 -9.903053939342498779e-02 3.427874669432640076e-02 1.210791096091270447e-01 2.786684334278106689e-01 -5.929600074887275696e-02 1.067735105752944946e-01 5.406908318400382996e-02 3.321642428636550903e-02 -3.641184046864509583e-02 -4.489979892969131470e-02 1.471621692180633545e-01 -4.038525819778442383e-01 -1.935087442398071289e-01 1.140943914651870728e-02 6.018093824386596680e-01 1.884855888783931732e-02 -1.290192306041717529e-01 -1.060289051383733749e-02 1.872419714927673340e-01 6.138263344764709473e-01 3.295396268367767334e-01 -3.094475157558917999e-02 1.111045852303504944e-01 3.391419053077697754e-01 1.678845286369323730e-01 -2.068013846874237061e-01 1.271831616759300232e-02
1.158602628856897354e-02 -6.184534430503845215e-01 8.464750647544860840e-01 -1.278434228152036667e-02 -1.348535181023180485e-03 -3.368309140205383301e-02 7.454804331064224243e-02 -8.453558385372161865e-02 -5.774204805493354797e-02 -2.426100820302963257e-01 -1.461719255894422531e-02 3.360889619216322899e-03 -4.344151169061660767e-02 -7.551681995391845703e-02 -4.446875676512718201e-02 1.663655787706375122e-01 -1.394254434853792191e-02 -2.045405656099319458e-01 -1.847258061170578003e-01 -1.329146474599838257e-01 -1.167339161038398743e-01 -4.060151875019073486e-01 -5.324652791023254395e-02 -1.057979911565780640e-01 1.452066469937562943e-02 -4.295266270637512207e-01 -4.330844059586524963e-02 -2.786639332771301270e-01 2.861616015434265137e-01 -7.296239584684371948e-02 -1.115447357296943665e-01 1.324458569288253784e-01 -1.704567670822143555e-01 -1.985203847289085388e-02 9.004268050193786621e-02 -3.311013337224721909e-03 -7.854450494050979614e-02 -4.553942009806632996e-02 -7.479969412088394165e-02 -9.752958081662654877e-03 8.639951120130717754e-04 -2.067608684301376343e-01 -1.075712367892265320e-01 -1.248159855604171753e-01 -5.870421975851058960e-02 -7.489894032478332520e-01 -3.189499080181121826e-01 1.051038950681686401e-01 -1.498741563409566879e-03 -2.570414508227258921e-04 4.527385160326957703e-02 2.257041782140731812e-01 5.850491523742675781e-01 -3.791954517364501953e-01 -9.126331424340605736e-04 -6.768782436847686768e-02 -3.768452405929565430e-01 -3.701893240213394165e-02 2.023554965853691101e-02 -2.778265476226806641e-01 -6.823714077472686768e-02 -1.949233934283256531e-02 9.870839118957519531e-02 2.346497774124145508e-02 -7.833629846572875977e-03 -7.089302688837051392e-02 -5.509091541171073914e-02 8.696682006120681763e-02 3.510426904540508986e-04 -2.297182083129882812e-01 2.480327710509300232e-02 -2.006445080041885376e-01 -6.983307600021362305e-01 -2.176420092582702637e-01 6.550601869821548462e-02 -1.784834638237953186e-02 1.877323389053344727e-01 2.324190223589539528e-03 1.606097072362899780e-01 -1.267551183700561523e-01 -5.288453027606010437e-02 -9.455317258834838867e-02 -6.228623539209365845e-02 -3.041614545509219170e-03 -2.797702513635158539e-02 8.799299597740173340e-02 2.787028439342975616e-03 -7.063404470682144165e-02 2.605664432048797607e-01 -1.306365132331848145e-01 -4.569881409406661987e-02 4.258003830909729004e-02 5.463495478034019470e-02 -2.921010851860046387e-01 4.290076438337564468e-03 -1.419547796249389648e-01 1.440387666225433350e-01 3.182070795446634293e-03 -1.841710880398750305e-02 -2.380603458732366562e-03 -4.499484971165657043e-02 -4.225691780447959900e-03 -4.237173497676849365e-02 4.430400207638740540e-02 2.819545567035675049e-02 -2.953783795237541199e-02 2.889932319521903992e-02 -1.627958714962005615e-01 2.397404983639717102e-02 -2.822258137166500092e-02 -1.343175116926431656e-02 -2.674292400479316711e-02 -6.023587584495544434e-01 -6.085292622447013855e-02 1.307544298470020294e-02 -4.057995080947875977e-01 -2.092838659882545471e-02 -8.572533726692199707e-02 -1.555960159748792648e-02 6.221034750342369080e-02 1.169308573007583618e-01 -2.910305559635162354e-01 -8.710405230522155762e-02 -1.474782377481460571e-01 1.153284534811973572e-01 -7.098604738712310791e-02 -3.136081621050834656e-02 -4.262742102146148682e-01 -2.768456190824508667e-02 1.455677486956119537e-02 -4.773283377289772034e-02 -9.919929504394531250e-02 -4.829767644405364990e-01 -2.098370529711246490e-02 -1.364712864160537720e-01 -2.466526031494140625e-01 -5.966601893305778503e-02 -6.309530884027481079e-02 -2.561865746974945068e-01 -4.001630470156669617e-02 6.779604554176330566e-01 5.875530652701854706e-03 -1.535432413220405579e-03 6.194455623626708984e-01 -2.119565755128860474e-01 -2.810012996196746826e-01 4.675307497382164001e-02 -8.703691512346267700e-02 -4.526108875870704651e-02 -1.792767457664012909e-02 -8.788663893938064575e-03 -1.644984632730484009e-01 2.727358229458332062e-02 -2.525000274181365967e-01 3.895848616957664490e-02 -3.900979831814765930e-02 -1.445382367819547653e-02 -5.581742525100708008e-01 3.183517977595329285e-02 2.679818309843540192e-02 -6.609300523996353149e-02 1.593175530433654785e-01 -4.207849502563476562e-01 -4.531775135546922684e-03 7.701699435710906982e-02 -8.930037915706634521e-02 -1.544854938983917236e-01 -8.440398573875427246e-01 3.525316482409834862e-03 3.559013083577156067e-02 2.100438773632049561e-01 -3.728307038545608521e-02 -1.425467729568481445e-01 -1.119385957717895508e-01 3.151968866586685181e-02 1.894332468509674072e-02 -1.799080371856689453e-01 2.174495486542582512e-03 -4.502294361591339111e-01 -5.157142505049705505e-02 -1.279879659414291382e-01 -2.803259789943695068e-01 2.865816056728363037e-01 3.777992725372314453e-01 -9.309361875057220459e-02 -1.746411025524139404e-01 -2.099013924598693848e-01 -1.972422003746032715e-01 -1.537126954644918442e-04 -2.254069000482559204e-01 1.291014254093170166e-01 -2.636462450027465820e-01 -3.180972114205360413e-02 7.251197844743728638e-02 6.399433314800262451e-02 5.782287716865539551e-01 -3.067855536937713623e-02 -7.382886409759521484e-01 -1.943733245134353638e-01 -1.472290009260177612e-01 -3.368436172604560852e-02 4.814754426479339600e-02 1.219748333096504211e-02 -4.002424180507659912e-01 3.008742583915591240e-03 -9.143166989088058472e-02 3.998802974820137024e-02 -1.320629660040140152e-02 2.057990878820419312e-01 -3.302306309342384338e-02 -1.052967384457588196e-01 -7.153705507516860962e-02 1.733998581767082214e-02 -1.191363781690597534e-01 7.334851659834384918e-03 -3.147859126329421997e-02 1.537746191024780273e-01 -6.831008195877075195e-02 -6.605867296457290649e-02 4.753769189119338989e-02 -8.085400611162185669e-02 -3.059396333992481232e-02 3.349230065941810608e-02 6.370231509208679199e-02 4.689192399382591248e-02 -2.089248895645141602e-01 5.944484844803810120e-03 -6.000907719135284424e-02 1.415965706110000610e-01 -5.484580993652343750e-01 -2.179204719141125679e-03 3.125472739338874817e-02 -1.582478731870651245e-01 -9.724616259336471558e-02 -3.696291893720626831e-02 -1.940082311630249023e-01 9.285219907760620117e-01 3.110708668828010559e-02 -1.017257794737815857e-01 7.471949607133865356e-02 -2.749370932579040527e-01 -4.568658769130706787e-02 -2.391915172338485718e-01 2.158721089363098145e-01 -7.140064239501953125e-02 4.397351294755935669e-02 3.314490914344787598e-01 -7.410539984703063965e-01 2.669268846511840820e-01 -6.955757141113281250e-01 -3.094042651355266571e-03 -3.323621349409222603e-03 8.311309851706027985e-03 -2.327569760382175446e-02 4.586757719516754150e-02 -1.114963181316852570e-02
