1.521252002567052841e-02 -1.488237921148538589e-02 1.443566172383725643e-03 1.038049347698688507e-02 3.713131882250308990e-04 1.188681740313768387e-02 7.775061763823032379e-03 -3.908390924334526062e-02 2.763252705335617065e-02 -2.434312924742698669e-02 -8.366281166672706604e-03 -1.640981063246726990e-02 8.785908110439777374e-03 -1.891431398689746857e-02 -3.749988973140716553e-02 -2.435456495732069016e-03 -1.525523420423269272e-02 -1.905992627143859863e-02 -1.292180176824331284e-02 2.454390190541744232e-02 -1.392230484634637833e-02 9.286723099648952484e-03 1.880554109811782837e-02 9.520312771201133728e-03 2.042515436187386513e-03 -1.616639457643032074e-02 1.989836245775222778e-02 1.039179228246212006e-02 2.031849138438701630e-02 1.242543221451342106e-03 -1.945196650922298431e-02 -8.130003698170185089e-03 -9.165096096694469452e-03 -1.872847042977809906e-02 -1.505305152386426926e-02 -1.930215046741068363e-03 2.539986930787563324e-02 -1.977457664906978607e-02 1.554311811923980713e-02 7.656292989850044250e-03 -6.886579561978578568e-03 1.176721416413784027e-03 -5.454737227410078049e-03 -1.936836866661906242e-03 1.223350688815116882e-02 3.826165804639458656e-03 -6.549445912241935730e-03 -2.061656117439270020e-02 -1.480651181191205978e-02 -6.603136425837874413e-04 -3.231654688715934753e-02 -1.827814429998397827e-02 -1.149433571845293045e-02 -1.082452014088630676e-03 -2.446580119431018829e-02 1.321418676525354385e-02 3.310360945761203766e-03 -5.297347903251647949e-03 -3.684057854115962982e-03 -2.785049565136432648e-02 -3.144340589642524719e-02 5.341544747352600098e-04 -6.311280187219381332e-03 8.137717377394437790e-04 -1.436948403716087341e-02 -2.107616048306226730e-03 1.795158907771110535e-02 -1.632293127477169037e-02 2.084320876747369766e-03 -1.651594415307044983e-02 -2.014003694057464600e-02 2.126256935298442841e-02 2.357338526053354144e-04 -1.068401988595724106e-02 -1.388599537312984467e-02 6.575010251253843307e-03 -7.814627140760421753e-03 -2.983791055157780647e-03 -7.174289785325527191e-03 6.648322101682424545e-03 6.068612914532423019e-03 -1.441681385040283203e-02 1.461236551403999329e-02 -1.109121553599834442e-02 -7.749318610876798630e-03 -1.359280897304415703e-03 -9.870058856904506683e-03 -1.453127362765371799e-03 1.458234712481498718e-02 -6.035339087247848511e-03 -2.553713042289018631e-03 5.187187343835830688e-03 6.148919463157653809e-03 3.221968188881874084e-02 1.735364785417914391e-04 1.729533309116959572e-03 -8.280877955257892609e-03 -2.496727742254734039e-02 1.679345150478184223e-03 7.352611282840371132e-04 -2.941009029746055603e-02 1.127328025177121162e-03 -5.442361813038587570e-03 -3.155433759093284607e-02 -1.101411529816687107e-03 1.497340947389602661e-02 -5.992268677800893784e-03 -1.509146578609943390e-02 -3.225943446159362793e-02 1.165798492729663849e-02 2.341182436794042587e-03 -3.515935095492750406e-04 8.665775880217552185e-03 4.892007447779178619e-03 -5.556637421250343323e-03 -1.333570014685392380e-02 9.630830958485603333e-03 7.838423363864421844e-03 1.650543883442878723e-03 1.096092257648706436e-02 4.423004109412431717e-03 2.689809305593371391e-03 -8.542596362531185150e-03 -3.159619495272636414e-02 -2.389373816549777985e-02 -2.616946958005428314e-02 1.946197263896465302e-02 -1.001740060746669769e-02 -4.114764928817749023e-02 9.682084433734416962e-03 -5.118189146742224693e-04 -2.205374184995889664e-03 4.800884984433650970e-03 4.746082238852977753e-03 3.376835584640502930e-02 -9.986628778278827667e-03 -2.408646419644355774e-02 -3.491331357508897781e-03 -1.394418440759181976e-02 1.668399758636951447e-02 6.058315746486186981e-03 5.060957279056310654e-03 -1.855796203017234802e-02 -1.798529922962188721e-02 -2.474518842063844204e-04 -1.776709221303462982e-02 1.862101024016737938e-03 6.742937490344047546e-03 6.713731214404106140e-03 -5.012368201278150082e-04 -1.666359975934028625e-02 -5.612456239759922028e-03 1.823443733155727386e-02 -6.995821371674537659e-03 -2.232226915657520294e-02 5.833266302943229675e-03 2.954979054629802704e-02 -4.613513126969337463e-03 2.821331843733787537e-02 -9.054438211023807526e-03 -1.324234250932931900e-02 -1.446272991597652435e-02 -5.512407049536705017e-02 -1.447000633925199509e-02 3.281934419646859169e-03 -1.220797188580036163e-02 -7.667056052014231682e-04 -9.464962407946586609e-03 -6.920374929904937744e-03 -1.531041320413351059e-02 -2.118410775437951088e-03 5.920233670622110367e-03 1.007418893277645111e-02 2.489317557774484158e-04 -5.198047496378421783e-03 3.204727778211236000e-03 -6.137024611234664917e-03 5.682871676981449127e-03 -4.571586381644010544e-03 2.671995759010314941e-02 6.141231278888881207e-04 -8.103277534246444702e-03 -4.939670860767364502e-02 -6.907120812684297562e-03 1.622444950044155121e-02 1.616407744586467743e-02 7.921305485069751740e-03 1.596838585101068020e-03 1.303537003695964813e-02 -1.641941256821155548e-02 1.308632642030715942e-02 2.961519174277782440e-02 -1.692503131926059723e-02 5.774565972387790680e-03 -5.591687280684709549e-03 8.018031716346740723e-03 -5.747152958065271378e-03 -1.882097870111465454e-02 -2.894890122115612030e-02 -1.345528755336999893e-02 9.158737957477569580e-03 -2.980135614052414894e-03 6.940598599612712860e-03 -3.532617911696434021e-02 2.904283348470926285e-03 -1.101687271147966385e-02 -4.297765903174877167e-03 -1.092406455427408218e-02 3.195810690522193909e-02 8.243581280112266541e-03 -4.934128746390342712e-02 5.348142236471176147e-03 -3.262429032474756241e-03 7.780927233397960663e-03 -8.555910550057888031e-03 -2.634599804878234863e-02 -1.114141754806041718e-02 -3.183051943778991699e-02 -7.689543534070253372e-03 -1.280820579268038273e-04 1.341999974101781845e-02 -3.566014580428600311e-03 7.669731043279170990e-03 4.426974337548017502e-03 1.177064329385757446e-02 4.655946046113967896e-03 2.272087708115577698e-02 -1.560937706381082535e-02 -6.376857636496424675e-04 -3.362079616636037827e-03 5.849713459610939026e-03 -2.322966931387782097e-03 3.248044475913047791e-02 2.383711189031600952e-02 1.795802265405654907e-02 1.765055209398269653e-02 1.200181618332862854e-02 -1.451433636248111725e-02 1.389937195926904678e-02 -6.462473422288894653e-03 -2.145353145897388458e-02 -1.188605371862649918e-02 5.508682224899530411e-03 6.207018624991178513e-03 3.946223482489585876e-02 -4.959987010806798935e-03 3.684948198497295380e-03 2.097112312912940979e-02 -4.091041162610054016e-03 1.698643434792757034e-03 -4.027924500405788422e-03 -2.039718814194202423e-02 -4.295230377465486526e-03 1.258037239313125610e-02 -1.004086527973413467e-02 -5.096377339214086533e-03
1.600119285285472870e-02 -4.790653660893440247e-02 6.790428888052701950e-03 -3.561444347724318504e-03 -9.127084165811538696e-03 1.970635354518890381e-02 -1.276825089007616043e-02 7.429727353155612946e-03 2.490445598959922791e-02 -1.299820374697446823e-02 5.416916683316230774e-04 -3.312431275844573975e-02 -4.681337997317314148e-02 -1.274803746491670609e-02 1.253846939653158188e-02 -2.647292427718639374e-02 1.345474552363157272e-02 4.159170761704444885e-02 -6.148044019937515259e-02 4.110044334083795547e-03 -2.275326102972030640e-02 -9.889198467135429382e-03 1.743388734757900238e-02 -3.139843419194221497e-02 2.744254423305392265e-03 1.216527353972196579e-02 -5.107208341360092163e-02 1.926734857261180878e-02 -1.147546339780092239e-03 -1.240183413028717041e-02 -5.943924654275178909e-03 2.274358086287975311e-02 1.347765326499938965e-02 1.687850430607795715e-02 6.325178314000368118e-03 -3.479254245758056641e-02 3.810313716530799866e-02 -8.051855489611625671e-03 1.778663322329521179e-02 1.729086227715015411e-02 3.384277923032641411e-03 -2.968464419245719910e-02 -1.146748196333646774e-02 -1.357393991202116013e-02 2.905404753983020782e-02 1.400084421038627625e-02 1.156470738351345062e-02 -2.149636112153530121e-02 -3.357892856001853943e-02 1.825859583914279938e-02 -8.461197838187217712e-03 -1.786504685878753662e-02 8.543509989976882935e-03 1.277181692421436310e-02 7.810587994754314423e-03 -2.059246227145195007e-02 2.217223122715950012e-02 1.202450599521398544e-02 -1.086417119950056076e-02 1.160268206149339676e-02 1.320132426917552948e-02 4.516382515430450439e-02 2.314432756975293159e-03 1.304549165070056915e-02 5.881011951714754105e-03 6.105915643274784088e-03 2.750765345990657806e-02 7.072582375258207321e-03 2.389251254498958588e-02 -1.317591313272714615e-02 -2.127572707831859589e-02 -8.199569769203662872e-03 6.468188017606735229e-03 -1.117366598919034004e-03 2.310229092836380005e-02 3.107470227405428886e-03 -5.330346897244453430e-02 1.467016898095607758e-02 -1.199267711490392685e-02 1.398425200022757053e-03 -2.181810885667800903e-02 -2.142467349767684937e-02 -8.417898789048194885e-03 -8.582007139921188354e-03 2.824733220040798187e-02 8.047022856771945953e-03 -1.152559742331504822e-02 -3.981139883399009705e-02 1.756803691387176514e-02 1.761672832071781158e-02 5.482024513185024261e-03 -1.180862169712781906e-02 -1.070526707917451859e-02 -3.092024242505431175e-03 4.600912705063819885e-02 -9.496131911873817444e-03 -1.290038134902715683e-02 2.449265308678150177e-02 -4.384675528854131699e-03 -6.364055909216403961e-03 4.588074516505002975e-03 5.706482101231813431e-03 1.839719526469707489e-02 6.718026939779520035e-03 3.763490170240402222e-02 4.025487974286079407e-02 -3.438794985413551331e-02 -4.711205139756202698e-02 4.665231332182884216e-02 9.461427689529955387e-04 -2.563299424946308136e-02 2.706300280988216400e-02 1.923422887921333313e-02 -2.618901617825031281e-02 2.635516459122300148e-03 -4.897110164165496826e-03 -1.725360192358493805e-02 -1.340393256396055222e-02 -1.288929395377635956e-02 4.792435839772224426e-02 -5.014092661440372467e-03 -1.262408029288053513e-02 -2.378999814391136169e-02 4.316329583525657654e-02 -2.216413989663124084e-02 1.711092330515384674e-02 -2.453195862472057343e-02 1.953594153746962547e-03 -1.715461490675806999e-03 -4.667929559946060181e-02 6.750951986759901047e-03 5.844902712851762772e-03 1.160974521189928055e-02 -7.901517092250287533e-04 -1.196885481476783752e-02 9.327365085482597351e-03 5.835369811393320560e-04 4.026929661631584167e-02 2.967034699395298958e-03 -1.359110046178102493e-02 -1.559542492032051086e-02 1.521392492577433586e-03 -1.446378044784069061e-02 3.073071129620075226e-02 -1.752636954188346863e-02 1.545871701091527939e-02 -4.631529096513986588e-03 3.602218255400657654e-02 -2.985009737312793732e-02 8.733435533940792084e-03 -3.220013156533241272e-02 -1.233200263231992722e-02 -1.925805397331714630e-02 -1.271298248320817947e-02 -3.141979500651359558e-02 2.347280830144882202e-02 -4.588234878610819578e-04 -1.231455802917480469e-02 3.723903326317667961e-03 -1.693867333233356476e-02 -3.195724636316299438e-02 3.986306488513946533e-03 -1.229824847541749477e-04 -2.742807380855083466e-02 2.546743117272853851e-02 1.834749057888984680e-02 -2.655732072889804840e-02 -1.138710882514715195e-03 -2.715478092432022095e-02 -2.782098390161991119e-02 -1.252106018364429474e-02 -5.264609679579734802e-02 -4.139960184693336487e-02 -8.165351115167140961e-03 -3.283341228961944580e-02 3.319990262389183044e-02 -1.532457210123538971e-02 -1.694259420037269592e-02 2.050171047449111938e-02 1.511649694293737411e-02 3.368891775608062744e-04 -3.665009886026382446e-02 1.087781041860580444e-02 2.430407702922821045e-02 1.355726365000009537e-02 4.220787435770034790e-02 -1.637711375951766968e-02 6.412260700017213821e-03 -3.447287483140826225e-03 1.472550909966230392e-02 -2.292600460350513458e-02 2.018482337007299066e-04 -2.438270114362239838e-02 1.988034881651401520e-02 -1.699507981538772583e-02 -3.290621098130941391e-03 -9.552988223731517792e-03 -3.843626705929636955e-03 -6.847143173217773438e-03 -3.069316223263740540e-02 -4.343001637607812881e-03 -3.760180249810218811e-02 -1.960469596087932587e-02 7.105037104338407516e-03 -5.861853715032339096e-03 2.777761965990066528e-02 1.280855946242809296e-02 -1.342916046269237995e-03 -2.829077094793319702e-02 1.715914718806743622e-02 -1.389149297028779984e-02 -9.952336549758911133e-03 3.318086732178926468e-03 1.171431131660938263e-02 1.380364317446947098e-02 -1.346303056925535202e-02 -2.969017485156655312e-03 1.259869523346424103e-02 -8.465949445962905884e-03 -1.571907475590705872e-02 -8.061840198934078217e-03 -3.831510245800018311e-02 -4.687114153057336807e-03 -8.367717266082763672e-03 4.621460568159818649e-03 -2.066063322126865387e-02 1.548571698367595673e-02 5.435252096503973007e-03 9.119976311922073364e-03 -8.937081322073936462e-03 -2.079873345792293549e-02 1.370064355432987213e-02 2.217122819274663925e-03 3.924695402383804321e-02 5.221281200647354126e-03 -2.062432700768113136e-03 -4.242526774760335684e-04 -3.167222067713737488e-02 8.810065686702728271e-03 5.410160496830940247e-02 4.086377471685409546e-02 -6.439532153308391571e-03 7.637719623744487762e-03 -3.544122725725173950e-02 -2.851138822734355927e-02 -1.686127972789108753e-03 5.180012807250022888e-02 -9.130036458373069763e-03 2.301881462335586548e-02 -2.398828510195016861e-03 9.566835360601544380e-04 4.704961553215980530e-03 3.813313320279121399e-02 2.050771377980709076e-02 2.025233581662178040e-02 1.497519668191671371e-02
3.525987640023231506e-02 4.240382462739944458e-03 -1.486273948103189468e-02 2.384686656296253204e-02 -1.827269047498703003e-02 5.057921633124351501e-02 2.443004585802555084e-02 5.622943490743637085e-02 -3.905796911567449570e-03 7.593940943479537964e-03 7.782095111906528473e-03 2.280168421566486359e-02 -3.541573416441679001e-03 4.369313828647136688e-03 3.357728011906147003e-03 4.806442186236381531e-03 1.991339586675167084e-02 4.090803675353527069e-03 -2.939163148403167725e-02 -6.894543766975402832e-03 1.081712730228900909e-02 -1.303274463862180710e-02 3.291415423154830933e-02 1.433725375682115555e-02 8.439174853265285492e-03 3.557515516877174377e-02 -3.909336775541305542e-02 -9.022357873618602753e-03 -4.096026346087455750e-02 3.803959488868713379e-02 1.886254735291004181e-02 -1.258206088095903397e-02 -7.292294409126043320e-03 -2.257858589291572571e-02 -1.302738487720489502e-02 -2.192996256053447723e-02 4.177556838840246201e-03 5.238628480583429337e-03 1.047823298722505569e-02 -2.198571711778640747e-02 3.058634884655475616e-02 2.451220154762268066e-02 -1.340040285140275955e-02 1.326976623386144638e-02 1.200449094176292419e-02 -6.475635338574647903e-03 7.572979666292667389e-03 -1.178421312943100929e-03 2.445510588586330414e-02 -4.793891217559576035e-03 -1.471739355474710464e-02 -2.737374044954776764e-03 -6.636868696659803391e-03 1.505125313997268677e-02 -3.392785042524337769e-02 -1.352928858250379562e-02 -3.358756750822067261e-02 9.380034171044826508e-03 -6.264586001634597778e-03 -1.645266823470592499e-02 4.006673023104667664e-02 -1.971107162535190582e-02 2.146530337631702423e-02 -3.735795989632606506e-02 7.757298648357391357e-03 3.018128685653209686e-02 -3.276133164763450623e-02 -2.166915684938430786e-03 3.350917017087340355e-03 1.115143112838268280e-02 2.673583850264549255e-02 -1.254715584218502045e-02 1.907193101942539215e-02 6.666174624115228653e-03 -9.935314301401376724e-04 6.821199785917997360e-03 -4.976535215973854065e-03 1.538874208927154541e-02 -1.264597568660974503e-02 -5.972763523459434509e-03 6.497913505882024765e-03 2.101191692054271698e-02 -5.987784639000892639e-02 3.601475059986114502e-02 -2.314775437116622925e-02 -6.644100416451692581e-03 -4.692226648330688477e-02 -4.887094721198081970e-03 -1.636595348827540874e-03 -2.570501714944839478e-02 -4.840776789933443069e-03 -3.281874349340796471e-03 -1.992242783308029175e-02 1.661852933466434479e-02 1.932797953486442566e-03 2.046608366072177887e-02 -1.610863395035266876e-02 -1.973958872258663177e-02 -1.442931010387837887e-03 -3.278690949082374573e-02 2.330166753381490707e-03 9.148259647190570831e-03 -2.566238120198249817e-02 -5.255346372723579407e-02 -2.565644122660160065e-02 8.339685387909412384e-03 2.269987761974334717e-02 -2.856858074665069580e-02 -4.607212904375046492e-04 -4.202962853014469147e-03 -1.536717824637889862e-02 5.269747693091630936e-03 -7.211057469248771667e-03 -3.508323337882757187e-03 -5.244179442524909973e-02 -4.500748182181268930e-04 1.366800349205732346e-02 1.964917778968811035e-02 1.797540672123432159e-02 -3.231185674667358398e-02 2.363958023488521576e-02 1.009971089661121368e-02 -1.145728863775730133e-02 2.189868502318859100e-02 5.431392695754766464e-03 -3.378710150718688965e-02 4.513273015618324280e-02 -5.967332981526851654e-03 1.786915468983352184e-03 -2.972786314785480499e-03 4.820233676582574844e-03 -7.784718764014542103e-04 8.601560257375240326e-03 3.402127884328365326e-03 1.031498331576585770e-02 -2.680810168385505676e-02 3.567440062761306763e-02 -2.550462074577808380e-02 -1.095050480216741562e-02 -1.450956705957651138e-02 -1.482888683676719666e-02 1.611070334911346436e-02 2.227769047021865845e-02 8.410666137933731079e-03 -1.638515479862689972e-02 -2.288107573986053467e-02 -2.729826793074607849e-02 -2.067436277866363525e-02 -6.720772478729486465e-03 5.159736610949039459e-03 -1.847945898771286011e-02 -3.315445780754089355e-02 -2.396833337843418121e-02 4.457138478755950928e-03 5.022945813834667206e-03 -1.022156793624162674e-02 -9.700852446258068085e-03 3.050970146432518959e-03 -1.140655856579542160e-02 -5.237812921404838562e-02 -1.292290538549423218e-02 1.295809075236320496e-02 -1.877397298812866211e-02 -7.503820583224296570e-03 -1.911241328343749046e-03 -7.166347932070493698e-04 3.578668832778930664e-02 1.400200882926583290e-03 -6.808488629758358002e-03 3.522851690649986267e-02 1.382663473486900330e-02 1.596888713538646698e-02 -9.767145849764347076e-03 -1.433834433555603027e-03 -3.160055028274655342e-03 2.206716127693653107e-02 -1.477708760648965836e-02 -1.403266377747058868e-02 6.242769304662942886e-03 -4.809520021080970764e-02 -1.993259601294994354e-02 -3.956516273319721222e-03 -4.856260865926742554e-02 2.377739362418651581e-02 6.436041556298732758e-03 1.080544572323560715e-02 -1.505823619663715363e-02 -1.904708705842494965e-02 1.041339803487062454e-02 1.070105354301631451e-04 6.870309356600046158e-03 2.682309038937091827e-02 8.118208497762680054e-03 2.891892381012439728e-02 -1.230121497064828873e-02 2.917652716860175133e-03 2.641207911074161530e-02 6.447414634749293327e-04 2.062065340578556061e-02 -1.387165021151304245e-02 4.489259794354438782e-03 -2.385066077113151550e-02 -7.414949592202901840e-03 2.751496154814958572e-03 4.150132462382316589e-02 2.481043152511119843e-02 7.098720408976078033e-03 -3.201456740498542786e-02 7.265387568622827530e-03 -8.742481470108032227e-03 2.053269185125827789e-02 1.208824664354324341e-02 -2.738378569483757019e-02 -2.858293056488037109e-02 3.137942869216203690e-03 2.160278707742691040e-02 -2.757404930889606476e-02 -8.815676905214786530e-03 2.421941142529249191e-03 -1.286833267658948898e-02 -3.859569877386093140e-02 1.217193435877561569e-02 2.011344023048877716e-02 2.647428400814533234e-02 3.846700862050056458e-02 -3.080066852271556854e-02 -1.585420407354831696e-02 -2.375796437263488770e-02 1.045198831707239151e-02 -9.958236478269100189e-03 -3.907235339283943176e-02 -2.166812494397163391e-02 1.252003200352191925e-02 -7.229124661535024643e-03 -4.780974704772233963e-04 -5.226042121648788452e-03 -2.074610441923141479e-02 -2.453713305294513702e-02 -5.173326004296541214e-03 7.592973415739834309e-04 -2.592035196721553802e-02 7.910149171948432922e-03 -1.302938908338546753e-02 2.199044451117515564e-03 1.943490095436573029e-02 -1.489212457090616226e-02 1.796631491743028164e-03 -2.370656654238700867e-02 8.527331985533237457e-03 2.401124313473701477e-02 -8.007943630218505859e-03 1.346150133758783340e-02 7.114374078810214996e-03 -1.242427527904510498e-02 -7.089246530085802078e-03 1.120477635413408279e-02
1.361554022878408432e-02 -2.865365147590637207e-02 8.713906630873680115e-03 8.007314056158065796e-03 2.858381019905209541e-03 2.166596986353397369e-02 9.112097322940826416e-03 5.479223560541868210e-03 4.247569479048252106e-03 -1.959048397839069366e-02 -2.208428271114826202e-02 -2.176226116716861725e-02 1.675871573388576508e-02 -6.439295248128473759e-04 -1.787449792027473450e-02 1.211077068001031876e-02 4.611960612237453461e-03 -2.517723664641380310e-02 -2.510376088321208954e-02 -8.446694351732730865e-03 2.821057103574275970e-03 4.746841732412576675e-03 2.105244621634483337e-02 -7.606564089655876160e-03 1.748786866664886475e-02 1.041667629033327103e-02 2.234149165451526642e-02 -6.125473417341709137e-03 -1.787129230797290802e-02 -1.597508229315280914e-02 2.758567966520786285e-02 1.437020394951105118e-02 -1.963671995326876640e-03 -3.821038873866200447e-03 6.426548119634389877e-03 7.570185232907533646e-03 -8.047150447964668274e-03 -3.032021690160036087e-03 -4.408352077007293701e-03 -9.116311557590961456e-03 -5.684599746018648148e-03 -4.312206432223320007e-02 -5.411065183579921722e-03 3.856875747442245483e-02 2.037727832794189453e-02 9.960553143173456192e-04 5.393697210820391774e-05 -2.418427029624581337e-03 1.016988325864076614e-02 -1.579588465392589569e-02 7.577778305858373642e-03 -2.477647364139556885e-02 9.873876348137855530e-03 1.810046285390853882e-02 -1.609870232641696930e-02 2.846186794340610504e-02 -9.744659066200256348e-03 -1.206782646477222443e-02 8.975927717983722687e-03 -2.161731012165546417e-02 8.250572718679904938e-03 -1.320980489253997803e-02 1.245129504241049290e-03 -1.345940306782722473e-02 -4.858266038354486227e-05 7.140181027352809906e-03 -3.671851754188537598e-02 -9.351653046905994415e-03 -6.650214083492755890e-03 2.297062799334526062e-02 -5.410774145275354385e-03 1.437048614025115967e-02 -3.242263942956924438e-02 -1.285859104245901108e-02 -2.057485468685626984e-02 5.552445072680711746e-03 -1.850354857742786407e-02 1.165280700661242008e-03 -2.928142808377742767e-02 2.945432066917419434e-02 8.398428559303283691e-03 5.143735961610218510e-06 1.223099185153841972e-03 -7.828621892258524895e-04 -4.188572987914085388e-03 -3.656768426299095154e-02 -3.547553718090057373e-02 3.863133722916245461e-03 3.804882243275642395e-02 -2.295831218361854553e-02 1.835764572024345398e-02 -2.494389936327934265e-02 -2.978339046239852905e-02 4.132742993533611298e-03 -1.551412744447588921e-03 8.848645724356174469e-03 -1.706516742706298828e-02 -2.860601246356964111e-02 -1.632079668343067169e-02 1.314973644912242889e-02 -1.174867805093526840e-02 8.642842061817646027e-03 2.054292522370815277e-02 1.064827479422092438e-02 7.539751008152961731e-03 2.425941638648509979e-02 3.004897199571132660e-02 -1.440441887825727463e-02 1.945154555141925812e-02 5.269133951514959335e-03 -1.635814830660820007e-02 2.692980878055095673e-02 9.091154672205448151e-03 1.266110688447952271e-02 -3.428702801465988159e-02 -3.746366873383522034e-02 2.638237923383712769e-02 2.372127585113048553e-02 7.347258273512125015e-03 1.364254020154476166e-02 1.577827893197536469e-02 -8.173868060111999512e-03 2.914756909012794495e-02 1.598871313035488129e-02 -9.777780622243881226e-03 4.355480894446372986e-03 2.950922586023807526e-02 3.215625183656811714e-03 3.087244927883148193e-02 -1.492525357753038406e-02 6.009052507579326630e-03 7.158188614994287491e-03 -1.555421040393412113e-04 -1.699111657217144966e-03 -6.500004325062036514e-03 2.547019533812999725e-02 1.584129780530929565e-02 -4.764840472489595413e-03 -1.731050573289394379e-02 8.023635484278202057e-03 4.741513635963201523e-03 -4.975624382495880127e-03 4.613074287772178650e-02 2.022482641041278839e-02 7.508654613047838211e-03 1.500249467790126801e-02 -1.432684902101755142e-02 1.180184725672006607e-02 3.254631161689758301e-02 -3.643348580226302147e-03 2.184996567666530609e-02 -1.153699681162834167e-02 -8.505198173224925995e-03 -4.433116409927606583e-03 -3.578388318419456482e-02 -1.036256086081266403e-02 -9.182821027934551239e-03 1.449949201196432114e-02 2.936806762591004372e-03 -2.223766222596168518e-02 5.952454637736082077e-03 1.991034951061010361e-03 3.215576754882931709e-03 7.769578602164983749e-03 -4.739614948630332947e-02 -1.611911691725254059e-02 1.553795114159584045e-02 -2.259651198983192444e-02 9.349808096885681152e-03 8.129212073981761932e-03 2.134313248097896576e-02 5.672522820532321930e-03 2.532176673412322998e-02 -4.065895453095436096e-03 -1.204578112810850143e-02 -1.296528032980859280e-03 -1.155237574130296707e-02 2.494329586625099182e-02 -1.765113323926925659e-02 5.007797852158546448e-02 2.870858646929264069e-02 -1.089057512581348419e-02 -2.531892992556095123e-02 2.891419827938079834e-02 -9.148778393864631653e-03 2.449209429323673248e-02 7.057729177176952362e-03 -1.253029890358448029e-02 -9.286108426749706268e-03 6.765048019587993622e-03 -1.873036846518516541e-02 5.397872067987918854e-03 2.245764806866645813e-02 1.991086406633257866e-03 -2.336989156901836395e-02 2.884586341679096222e-02 5.158508941531181335e-02 -2.068249322474002838e-02 1.269261352717876434e-02 1.741571538150310516e-02 -7.367628160864114761e-03 -6.693458184599876404e-03 7.522657979279756546e-03 -1.838664710521697998e-02 1.814627088606357574e-02 -1.487736776471138000e-02 -1.483485195785760880e-02 -1.912890560925006866e-02 -2.881772257387638092e-02 -1.301077008247375488e-02 -9.627700783312320709e-03 -1.977677457034587860e-02 2.122036553919315338e-02 4.574114456772804260e-02 -1.012030802667140961e-02 -2.251085126772522926e-03 2.822891110554337502e-04 8.603898459114134312e-05 3.001845069229602814e-02 4.346567392349243164e-02 -2.028363384306430817e-02 -1.271375361829996109e-02 2.061111852526664734e-02 3.252334520220756531e-02 3.475147997960448265e-03 1.512895803898572922e-02 6.051036063581705093e-03 -2.599719539284706116e-02 3.671197919175028801e-04 -2.446952834725379944e-02 -1.212390488944947720e-03 8.290113881230354309e-03 -4.701806232333183289e-02 -7.753931917250156403e-03 2.658429741859436035e-02 1.603742130100727081e-02 -1.416914723813533783e-02 8.056506514549255371e-03 -1.721555925905704498e-02 6.847371347248554230e-03 9.581304620951414108e-04 1.947244815528392792e-02 1.360863167792558670e-02 -2.196337655186653137e-02 7.565552368760108948e-03 1.052546501159667969e-02 -1.804619096219539642e-03 -2.197957801399752498e-04 1.330136694014072418e-02 3.332815365865826607e-03 6.668310146778821945e-03 6.229747552424669266e-03 -9.792269207537174225e-03 1.041065249592065811e-02 -1.223265007138252258e-02 1.758703030645847321e-02
9.457143023610115051e-03 2.311185561120510101e-02 -1.670309714972972870e-02 -3.517702594399452209e-02 -2.862627804279327393e-02 4.335384350270032883e-03 3.537595272064208984e-02 8.368052542209625244e-03 -6.186930695548653603e-04 -2.713572233915328979e-02 -2.033063396811485291e-02 3.242431581020355225e-02 -3.576843440532684326e-02 1.540233287960290909e-02 8.480746299028396606e-03 2.826462313532829285e-02 1.766498386859893799e-02 -1.722129248082637787e-02 9.371353313326835632e-03 7.194063160568475723e-03 2.766339667141437531e-02 1.300543639808893204e-02 -1.459099259227514267e-02 3.560593118891119957e-03 1.455233152955770493e-02 -2.741918526589870453e-02 -4.050280898809432983e-03 -2.917096205055713654e-02 2.550209127366542816e-02 6.904194597154855728e-03 -5.618198774755001068e-04 5.322714336216449738e-03 2.459904737770557404e-02 -1.144773326814174652e-02 -1.788904145359992981e-02 -2.162112668156623840e-02 -1.145067159086465836e-02 -3.771120449528098106e-03 3.692815080285072327e-02 -9.824837557971477509e-03 8.847418357618153095e-04 6.268390454351902008e-03 6.223606877028942108e-03 -5.883712787181138992e-03 6.152541376650333405e-03 9.510316886007785797e-03 7.514811586588621140e-03 2.230312209576368332e-03 1.396743487566709518e-02 -1.415020506829023361e-02 -1.178052276372909546e-02 -1.856418885290622711e-02 6.928935181349515915e-04 1.926110126078128815e-02 -8.141812868416309357e-03 1.702661626040935516e-02 -9.912564419209957123e-03 -2.246557362377643585e-02 -1.402291748672723770e-02 1.027235295623540878e-03 -1.152952853590250015e-02 -1.404260471463203430e-02 -5.817964207381010056e-03 3.488153452053666115e-03 -1.648065447807312012e-02 -1.180572900921106339e-02 1.909881830215454102e-02 -1.478477939963340759e-02 -9.219083935022354126e-03 -5.002955719828605652e-02 3.619586303830146790e-02 2.449114253977313638e-05 3.595905378460884094e-02 -2.338800020515918732e-02 2.771533094346523285e-02 -7.541130762547254562e-04 7.140771951526403427e-03 9.654575842432677746e-04 -2.111746743321418762e-02 -3.989310190081596375e-02 1.082810759544372559e-02 -2.832430601119995117e-02 2.001191303133964539e-02 -3.353087976574897766e-02 6.170868501067161560e-02 2.637103945016860962e-02 4.436958581209182739e-03 9.426688775420188904e-03 7.224136032164096832e-03 -8.757029660046100616e-03 -3.416899964213371277e-02 -5.377540737390518188e-02 3.094723075628280640e-02 6.435573101043701172e-02 3.946790844202041626e-02 2.293129265308380127e-02 -1.510713808238506317e-02 -2.311507798731327057e-02 -1.510019972920417786e-02 -2.252946421504020691e-02 1.668248884379863739e-02 8.183578029274940491e-03 2.327290549874305725e-02 2.988616004586219788e-03 1.608902961015701294e-02 -3.370105102658271790e-02 5.359672359190881252e-04 -3.306579217314720154e-02 1.500144973397254944e-02 2.895517740398645401e-03 8.933282457292079926e-03 3.252305462956428528e-02 -1.495860796421766281e-02 2.810869738459587097e-02 -1.128176320344209671e-02 2.663072198629379272e-03 2.956975717097520828e-03 2.882927656173706055e-02 -1.627329736948013306e-02 -3.205883875489234924e-02 5.505696870386600494e-03 3.294702619314193726e-02 2.874519489705562592e-02 1.473936904221773148e-02 2.628448233008384705e-02 -1.295429654419422150e-02 2.258971892297267914e-02 -4.199868533760309219e-03 1.280921418219804764e-02 -3.842972218990325928e-02 8.933820761740207672e-03 -2.519094385206699371e-02 -9.681180119514465332e-03 3.534796461462974548e-02 -3.791887778788805008e-03 2.067866548895835876e-02 2.041416056454181671e-02 2.081295289099216461e-02 -8.059554733335971832e-03 -5.601957091130316257e-04 2.195074781775474548e-02 1.808980852365493774e-02 3.424221649765968323e-03 -9.493021294474601746e-03 7.338703144341707230e-04 -4.832217842340469360e-02 -1.945664919912815094e-02 -2.441955031827092171e-03 5.461878608912229538e-03 -2.356725977733731270e-03 1.079838071018457413e-02 -7.144064176827669144e-03 1.508122123777866364e-02 8.429783396422863007e-03 -8.419836522080004215e-04 -7.999659515917301178e-03 -9.685245342552661896e-03 3.332446143031120300e-02 4.284650832414627075e-02 1.274805748835206032e-03 1.265588589012622833e-02 -5.213406402617692947e-03 1.028296630829572678e-02 1.339055038988590240e-02 1.766402274370193481e-02 6.110059563070535660e-03 1.086705829948186874e-02 2.093117870390415192e-02 -2.073602005839347839e-02 -1.534715201705694199e-02 -3.273043781518936157e-03 1.747129671275615692e-02 -1.789328083395957947e-02 1.268861629068851471e-02 -4.131100699305534363e-02 2.236891351640224457e-02 1.458361465483903885e-02 2.282050810754299164e-02 2.514396561309695244e-03 4.495619237422943115e-02 -6.051055621355772018e-03 2.417754754424095154e-02 -4.221232142299413681e-03 -5.071682971902191639e-05 -3.011415526270866394e-02 4.238839820027351379e-02 -4.415043443441390991e-02 -4.575654398649930954e-03 -3.214624151587486267e-02 3.284795675426721573e-03 5.631895735859870911e-03 -1.092207338660955429e-02 3.403426380828022957e-04 -1.682752184569835663e-02 -1.695799268782138824e-02 -1.864917017519474030e-02 2.418730221688747406e-02 -3.332999069243669510e-03 -1.906160905491560698e-04 9.085358120501041412e-03 -4.349674854893237352e-04 -2.568803494796156883e-03 -2.497641183435916901e-02 -1.966251991689205170e-02 -9.469600045122206211e-04 2.838380867615342140e-03 -1.124967169016599655e-02 -2.912138774991035461e-02 2.185908332467079163e-02 1.262881676666438580e-03 3.516367450356483459e-02 -4.900717176496982574e-03 -5.318155977874994278e-03 -2.447409369051456451e-02 -9.371135383844375610e-03 -1.562985964119434357e-02 2.325699292123317719e-02 1.281849574297666550e-02 -7.029995322227478027e-03 -2.655669488012790680e-02 4.692045040428638458e-03 -1.830890774726867676e-02 -1.933101564645767212e-02 1.443657279014587402e-02 -1.901123486459255219e-02 5.163468047976493835e-02 -2.665282413363456726e-02 9.214390069246292114e-03 2.300941571593284607e-02 2.775469794869422913e-02 2.670823968946933746e-02 4.679876845329999924e-03 3.147782385349273682e-02 -4.627809673547744751e-02 3.087766468524932861e-02 1.706310920417308807e-02 -4.941929946653544903e-04 -2.396781556308269501e-02 -8.387060835957527161e-03 2.750996127724647522e-02 -2.716895751655101776e-02 -8.216006681323051453e-03 9.379833005368709564e-03 5.020149052143096924e-03 6.703692488372325897e-03 -9.088643826544284821e-03 -3.909510746598243713e-02 1.480056438595056534e-02 2.258675545454025269e-02 -1.635650289244949818e-03 -2.972834743559360504e-02 -1.867839135229587555e-03 -9.982924675568938255e-04 1.184198725968599319e-02 4.073566291481256485e-03 1.227539405226707458e-02
-2.291413024067878723e-03 1.821447722613811493e-02 -7.735644932836294174e-03 3.211626084521412849e-03 9.341494180262088776e-03 -1.648599281907081604e-02 -2.357275784015655518e-02 -4.248321801424026489e-02 4.234208911657333374e-02 3.450987488031387329e-02 -4.469569772481918335e-02 -9.176435880362987518e-03 -2.599587896838784218e-04 8.811861276626586914e-03 -9.719746187329292297e-03 1.696529099717736244e-03 -9.830929338932037354e-04 2.115567214787006378e-02 5.145329982042312622e-03 -1.230829954147338867e-02 -2.939301915466785431e-02 -1.980894245207309723e-02 -2.185281738638877869e-02 -7.623779121786355972e-03 1.776029355823993683e-02 2.579445764422416687e-02 3.979378379881381989e-03 3.926791716367006302e-03 -4.470207728445529938e-03 3.561596095096319914e-04 9.980075992643833160e-03 1.588503015227615833e-03 2.699293568730354309e-02 7.000356446951627731e-03 1.860835589468479156e-02 -2.852911874651908875e-02 1.326690614223480225e-02 2.931218780577182770e-02 -2.547982335090637207e-02 2.043805457651615143e-02 -2.299926988780498505e-02 -6.816430948674678802e-03 -1.703835208900272846e-03 -6.982142478227615356e-02 -2.600010251626372337e-03 -9.426956996321678162e-03 -1.265095826238393784e-02 2.499565016478300095e-03 1.066547445952892303e-02 -5.347680766135454178e-03 -8.192068897187709808e-03 -1.593786291778087616e-02 1.640043407678604126e-02 2.914702519774436951e-03 1.454861741513013840e-02 -9.698978625237941742e-03 3.588753519579768181e-03 -3.163293935358524323e-03 -4.443320911377668381e-03 1.859512412920594215e-03 3.170964308083057404e-03 -1.931659295223653316e-03 -4.185500368475914001e-02 -6.506952922791242599e-03 2.809706889092922211e-02 2.159124705940485001e-03 3.923637047410011292e-02 1.453382708132266998e-02 -8.250248618423938751e-03 -2.398951351642608643e-02 -4.441745579242706299e-02 -1.957290805876255035e-02 -1.163787487894296646e-02 -1.863148994743824005e-03 -1.964195072650909424e-02 9.418032132089138031e-03 -5.314046982675790787e-03 3.003894910216331482e-02 1.214712951332330704e-02 -1.939781941473484039e-02 1.859405264258384705e-02 -1.604469306766986847e-02 -3.539608558639883995e-03 1.245708111673593521e-02 2.828835509717464447e-02 9.692949824966490269e-04 7.891972549259662628e-03 2.748547121882438660e-02 -2.724354621022939682e-03 -1.501064002513885498e-02 -2.488057501614093781e-02 -7.708756253123283386e-03 -1.765900291502475739e-02 8.288752287626266479e-03 1.888730749487876892e-02 2.181781083345413208e-02 2.419165335595607758e-02 4.288063384592533112e-03 -1.313842646777629852e-02 -3.542429581284523010e-02 3.177437931299209595e-02 -5.324729718267917633e-03 -3.145250305533409119e-02 1.460675057023763657e-02 4.507896304130554199e-02 -2.221797406673431396e-02 -1.091022137552499771e-02 -2.671121247112751007e-02 -1.166062708944082260e-02 -2.862600842490792274e-03 -1.929271966218948364e-03 3.518863022327423096e-02 6.856117979623377323e-04 2.126014977693557739e-02 -2.274705469608306885e-02 1.196144614368677139e-02 1.629074104130268097e-03 -3.923276904970407486e-03 -5.712176207453012466e-03 -4.600686021149158478e-03 -2.282990887761116028e-02 -2.785211801528930664e-02 2.596048824489116669e-02 2.760409377515316010e-02 1.220578048378229141e-02 -5.561487376689910889e-02 -3.143980726599693298e-02 -1.102238614112138748e-02 -6.132550165057182312e-02 -3.126864880323410034e-02 -1.962898112833499908e-02 -1.023695617914199829e-02 -7.979555055499076843e-03 3.229980915784835815e-02 -4.144336283206939697e-02 -1.479852572083473206e-02 1.688865013420581818e-02 4.038891196250915527e-02 -1.285418961197137833e-02 1.250936463475227356e-02 1.667587831616401672e-02 8.707717061042785645e-03 8.189579471945762634e-03 -7.007151143625378609e-04 -2.276530489325523376e-02 2.230165293440222740e-03 2.231974154710769653e-02 -4.184206016361713409e-03 -9.617974981665611267e-03 2.440540306270122528e-02 -1.342594157904386520e-02 1.396673265844583511e-02 -4.861314594745635986e-02 -9.099519811570644379e-03 1.779513433575630188e-03 -6.624205037951469421e-03 1.147134508937597275e-02 -2.547572553157806396e-02 -9.164334274828433990e-03 2.472450211644172668e-02 -8.339117281138896942e-03 1.515785045921802521e-02 3.630432114005088806e-02 1.698157936334609985e-02 2.022728789597749710e-03 -2.246901020407676697e-02 -2.592970430850982666e-02 -1.741642504930496216e-02 -4.452407592907547951e-04 2.135907299816608429e-03 9.244928136467933655e-03 -1.029585488140583038e-03 -3.764674474950879812e-04 -2.216798439621925354e-02 -2.446448197588324547e-03 8.921537548303604126e-03 -6.984510924667119980e-03 -1.011103205382823944e-02 2.861013822257518768e-02 9.146916680037975311e-03 -2.726146206259727478e-02 8.790479623712599277e-04 4.071701783686876297e-03 1.426141243427991867e-02 5.474308039993047714e-03 1.609276980161666870e-02 -2.207137830555438995e-02 1.204352080821990967e-02 1.549004670232534409e-02 -2.380116377025842667e-03 6.686972337774932384e-04 1.103790942579507828e-02 1.372448448091745377e-02 -2.274539321660995483e-02 -6.856947671622037888e-03 -1.540841627866029739e-02 3.089527599513530731e-03 2.907440811395645142e-02 -5.177783966064453125e-02 -3.562697395682334900e-02 -1.076368056237697601e-02 -7.415635627694427967e-05 -1.707579381763935089e-02 5.660506337881088257e-02 -2.067522332072257996e-02 -1.976439543068408966e-02 -2.808923646807670593e-02 1.012931764125823975e-02 1.271596923470497131e-02 1.059296354651451111e-02 1.343235094100236893e-02 1.579542644321918488e-02 -4.917085636407136917e-03 -1.568005047738552094e-02 -1.700025983154773712e-02 3.270320221781730652e-02 1.011299621313810349e-02 1.606960722710937262e-04 4.943999927490949631e-03 -1.234643720090389252e-02 2.113075554370880127e-02 -1.272486895322799683e-02 -8.193736895918846130e-03 -4.159934353083372116e-03 6.148747634142637253e-04 -5.150920152664184570e-02 -2.475091721862554550e-03 4.419470205903053284e-03 -5.121306516230106354e-03 6.630974821746349335e-03 2.075942605733871460e-02 3.407436655834317207e-03 1.590584521181881428e-03 -2.273710817098617554e-02 -4.716252908110618591e-03 5.197300110012292862e-03 8.643058128654956818e-03 1.081521715968847275e-02 1.100226584821939468e-02 2.355045452713966370e-02 1.190477609634399414e-02 1.814400032162666321e-02 4.291851539164781570e-03 -1.581020839512348175e-02 3.107743896543979645e-02 -2.171476185321807861e-02 2.817204222083091736e-02 -1.173901092261075974e-02 4.752845503389835358e-03 -1.264083757996559143e-02 2.665146719664335251e-03 4.220069944858551025e-02 1.571847870945930481e-02 3.269611299037933350e-02 -2.492320723831653595e-02 8.883856236934661865e-03
-1.141801197081804276e-02 1.341495756059885025e-02 1.880518347024917603e-02 1.495803426951169968e-02 2.289043972268700600e-03 1.548394560813903809e-03 1.746899075806140900e-02 -8.485586382448673248e-03 -2.985281683504581451e-02 -2.440938842482864857e-04 1.090715546160936356e-02 5.227914080023765564e-02 -2.727938443422317505e-02 -6.918825674802064896e-03 5.897908005863428116e-03 -5.517316982150077820e-02 1.000752765685319901e-02 9.397352114319801331e-03 -2.291990630328655243e-02 -1.379957608878612518e-02 2.720873244106769562e-02 -2.381785772740840912e-02 -2.542195841670036316e-02 -1.417721342295408249e-02 -3.467055410146713257e-02 -5.580029450356960297e-03 1.683487370610237122e-02 -2.009677886962890625e-02 3.831946232821792364e-04 -1.771852932870388031e-02 6.814704742282629013e-03 -2.778935944661498070e-03 -1.718540559522807598e-03 -3.459183266386389732e-03 -1.466399710625410080e-02 2.010293677449226379e-02 -1.960533298552036285e-02 2.157691866159439087e-02 9.958711452782154083e-03 -4.600266925990581512e-03 9.366645477712154388e-03 -5.535481031984090805e-03 1.047893543727695942e-03 -1.235598232597112656e-02 -1.756628230214118958e-02 2.257460355758666992e-02 9.365733712911605835e-03 -2.149962633848190308e-02 1.222167443484067917e-02 1.110798562876880169e-03 3.441412746906280518e-02 8.663009852170944214e-03 -1.287247519940137863e-02 4.772223066538572311e-03 -2.206162735819816589e-02 5.491438787430524826e-03 -1.230288576334714890e-02 -2.353040268644690514e-03 2.884086221456527710e-02 4.465624224394559860e-03 -1.708404393866658211e-03 1.518302690237760544e-02 -2.276276610791683197e-02 1.127771753817796707e-02 -1.206184824695810676e-04 -5.287823732942342758e-03 8.482829667627811432e-03 -2.817482128739356995e-02 2.724037878215312958e-02 -6.648432929068803787e-03 8.224972523748874664e-03 3.217732906341552734e-02 -1.787979505024850368e-03 -1.160045806318521500e-02 1.083636842668056488e-02 2.463233191519975662e-03 -1.517291367053985596e-02 1.062020077370107174e-03 1.013929490000009537e-02 -1.627211086452007294e-02 -1.504132873378694057e-03 -2.565918548498302698e-04 2.392196096479892731e-02 8.171470835804939270e-03 2.247099066153168678e-03 1.107649039477109909e-02 4.215357452630996704e-02 1.981635391712188721e-02 -4.699389450252056122e-03 -3.145573195070028305e-03 8.638059720396995544e-03 -6.841168738901615143e-03 -1.858045905828475952e-02 -1.453212113119661808e-03 8.624762296676635742e-03 -6.407971493899822235e-03 -4.762753087561577559e-04 4.263274837285280228e-03 -6.304083857685327530e-03 2.395813167095184326e-02 7.747599855065345764e-03 8.414098061621189117e-03 -4.631233605323359370e-05 1.302743423730134964e-02 3.752023726701736450e-02 -6.219488102942705154e-03 -1.093488681362941861e-04 2.336991392076015472e-02 -2.646864391863346100e-02 1.141403894871473312e-02 -2.494051586836576462e-03 3.650818020105361938e-03 -1.015274785459041595e-02 -8.206496946513652802e-03 1.402379292994737625e-02 6.608227733522653580e-03 1.530189625918865204e-02 -1.892787031829357147e-02 -2.912270091474056244e-02 -1.420103386044502258e-02 -1.253312360495328903e-02 1.372811850160360336e-03 -8.775644004344940186e-03 1.270771492272615433e-02 3.330573067069053650e-02 2.587305754423141479e-02 -8.728296495974063873e-03 -1.180367637425661087e-02 1.523723918944597244e-02 -1.157947909086942673e-02 1.829708926379680634e-02 1.416607107967138290e-02 2.206291392212733626e-04 -2.433752827346324921e-02 -9.877719916403293610e-03 2.818756736814975739e-03 9.241555817425251007e-03 2.300182543694972992e-02 1.466334518045186996e-02 4.541356756817549467e-04 -5.333593115210533142e-03 -1.067618466913700104e-02 9.326974861323833466e-03 9.485944174230098724e-03 -2.563864365220069885e-02 -1.490540988743305206e-02 1.267990679480135441e-03 -1.179467607289552689e-02 2.005407353863120079e-03 -7.644532714039087296e-03 4.995319526642560959e-03 1.795581076294183731e-03 1.118695363402366638e-02 3.312902059406042099e-03 1.577438786625862122e-02 -1.068361103534698486e-03 1.550105493515729904e-02 2.886334201321005821e-03 3.603698278311640024e-04 3.587724408134818077e-03 7.560107856988906860e-03 1.768986321985721588e-02 -4.252110142260789871e-03 -4.674809053540229797e-03 3.122870344668626785e-03 1.156217046082019806e-02 2.312458120286464691e-02 -2.486885059624910355e-03 4.104173928499221802e-02 -6.266595795750617981e-03 -1.623404398560523987e-02 -7.413756684400141239e-04 -2.582734078168869019e-02 3.647994162747636437e-05 1.297224778681993484e-03 -1.011964119970798492e-02 -2.586275571957230568e-03 1.879244111478328705e-02 -5.574799608439207077e-03 -2.238585241138935089e-02 1.315450016409158707e-02 -5.326957907527685165e-03 1.409554760903120041e-02 -3.441414562985301018e-03 -1.053617056459188461e-02 2.399917924776673317e-03 9.546655230224132538e-03 1.722634956240653992e-02 -9.763224050402641296e-03 2.175849489867687225e-02 -2.933394862338900566e-03 -1.298647001385688782e-02 -5.595501512289047241e-03 -2.210887847468256950e-03 3.610705491155385971e-03 8.935880847275257111e-03 -7.296302355825901031e-03 1.686038263142108917e-02 5.279170814901590347e-03 7.482584333047270775e-04 -2.192061580717563629e-02 2.437985502183437347e-02 -4.600539803504943848e-02 -8.071795105934143066e-03 -1.930695958435535431e-02 9.770056931301951408e-04 3.045484656468033791e-03 5.974342115223407745e-03 -7.968584075570106506e-03 -1.009468827396631241e-02 -2.567861229181289673e-02 -5.912326276302337646e-03 1.842148415744304657e-02 -6.222251337021589279e-03 -8.905289694666862488e-03 1.748322881758213043e-02 -2.162340679205954075e-04 7.838335819542407990e-03 -4.243433941155672073e-03 1.943776942789554596e-02 2.651289338245987892e-03 -2.498112851753830910e-03 -1.762732304632663727e-02 1.306516956537961960e-02 -3.392914310097694397e-02 4.425377119332551956e-04 -2.283245697617530823e-02 -1.335094030946493149e-02 -6.606413051486015320e-03 1.600001379847526550e-02 6.659646052867174149e-03 5.654821870848536491e-04 -2.757881209254264832e-02 -1.459596958011388779e-02 -1.720883697271347046e-02 -1.669444330036640167e-02 -6.541206676047295332e-05 -4.821648821234703064e-03 -1.059868931770324707e-02 4.834222141653299332e-03 -4.157195612788200378e-02 3.990858327597379684e-03 -1.601574197411537170e-02 -1.081716921180486679e-02 -2.664338797330856323e-02 1.027400419116020203e-02 -1.063211169093847275e-02 -2.919642487540841103e-03 2.760757505893707275e-02 -6.261395756155252457e-04 1.721282117068767548e-02 -2.796385670080780983e-03 9.283171035349369049e-03 1.141848741099238396e-03 -1.548340264707803726e-02 -4.404512699693441391e-03
2.158939652144908905e-02 3.545834124088287354e-02 1.949955336749553680e-02 5.663820542395114899e-03 1.876977272331714630e-02 1.371160987764596939e-02 2.539268322288990021e-02 2.923516184091567993e-02 6.936726626008749008e-03 -1.733271032571792603e-02 -1.432728115469217300e-02 -1.964045502245426178e-02 -1.526252739131450653e-02 -2.253228425979614258e-02 -1.971686445176601410e-02 3.163570538163185120e-02 -5.461749620735645294e-03 -7.540354970842599869e-03 1.282161381095647812e-02 4.609175026416778564e-02 1.611151359975337982e-02 8.513260981999337673e-04 -4.910332616418600082e-03 3.191269701346755028e-03 6.263694725930690765e-03 1.810664311051368713e-02 2.778300829231739044e-02 -4.648233577609062195e-02 -1.582880504429340363e-02 4.172430559992790222e-02 -2.074460498988628387e-02 1.766082644462585449e-02 1.989057473838329315e-02 2.105235587805509567e-03 1.140502188354730606e-02 4.660749342292547226e-03 -1.278791204094886780e-02 1.786271110177040100e-02 2.553256973624229431e-02 -4.109758418053388596e-03 -1.359048392623662949e-02 -2.246327139437198639e-02 2.235329523682594299e-02 5.157352425158023834e-03 5.976872518658638000e-03 2.974637784063816071e-02 -9.508362971246242523e-03 -4.859114997088909149e-03 2.859403006732463837e-02 9.808216243982315063e-03 1.363833341747522354e-02 4.074705392122268677e-02 8.397189900279045105e-03 -4.909403156489133835e-03 -8.643151260912418365e-03 -1.271742861717939377e-02 -2.708567865192890167e-02 -2.601409889757633209e-02 -6.153129972517490387e-03 -4.928446561098098755e-02 -4.652712028473615646e-03 -5.996755883097648621e-02 2.961403457447886467e-03 -4.704228788614273071e-02 3.010711260139942169e-02 2.464088145643472672e-03 -7.663401775062084198e-03 2.342967875301837921e-02 7.656496949493885040e-03 1.983297429978847504e-02 3.864114731550216675e-02 9.702579118311405182e-03 -1.213094964623451233e-02 1.813979633152484894e-02 2.188124926760792732e-03 -1.074996311217546463e-02 3.333394229412078857e-02 7.905487902462482452e-03 3.000083379447460175e-03 -3.634051233530044556e-02 -1.780756004154682159e-02 -3.164743632078170776e-02 2.404872514307498932e-02 -3.349100006744265556e-03 -4.249022528529167175e-02 1.553285028785467148e-02 6.252692081034183502e-03 9.636576287448406219e-03 -2.075000666081905365e-02 -3.239264711737632751e-02 -2.788134664297103882e-02 5.832417681813240051e-02 2.557076327502727509e-02 -3.716467320919036865e-02 -5.493166297674179077e-02 -1.466144248843193054e-02 1.098019722849130630e-02 2.969308011233806610e-02 -1.773480884730815887e-02 4.264876246452331543e-03 -1.341527793556451797e-02 1.849028281867504120e-02 2.751026302576065063e-02 -6.168879568576812744e-03 -5.157833173871040344e-02 -5.293123889714479446e-03 -2.690999954938888550e-02 -5.013540852814912796e-03 -1.529007870703935623e-02 2.681393921375274658e-02 -1.758952066302299500e-02 -2.499150857329368591e-02 5.291998013854026794e-02 -4.549303557723760605e-03 8.383963257074356079e-03 1.702098920941352844e-02 5.457762163132429123e-03 -9.462725371122360229e-03 5.536666605621576309e-03 -3.321209549903869629e-02 2.658236771821975708e-02 -6.225441582500934601e-03 4.106156527996063232e-03 3.156755119562149048e-02 -1.927097700536251068e-02 1.676110364496707916e-02 5.182169843465089798e-03 4.853857681155204773e-03 -1.684106327593326569e-02 9.743941947817802429e-03 4.242288414388895035e-03 -6.345615838654339314e-05 -1.714951545000076294e-02 -3.870258852839469910e-02 -2.427637018263339996e-02 2.412916533648967743e-02 3.722700057551264763e-03 -2.222033776342868805e-02 1.745216920971870422e-02 -1.029793638736009598e-02 -5.806109867990016937e-03 1.530092395842075348e-02 -3.270784765481948853e-02 -3.087216056883335114e-02 -5.423089955002069473e-03 6.723522394895553589e-02 -1.135048363357782364e-02 1.922913827002048492e-02 -1.302052987739443779e-03 -6.172504741698503494e-03 3.289639949798583984e-03 -1.736651547253131866e-02 4.757752642035484314e-02 -1.707947626709938049e-02 2.756203524768352509e-03 2.728206291794776917e-02 6.735144648700952530e-03 2.233441919088363647e-03 1.330020604655146599e-03 7.092133630067110062e-03 1.519405841827392578e-02 -1.744830608367919922e-02 1.435794122517108917e-02 4.256225656718015671e-03 5.408174823969602585e-03 -2.453063055872917175e-02 -2.172109857201576233e-02 1.659212820231914520e-02 2.001741435378789902e-03 1.717263273894786835e-02 -1.036129239946603775e-02 -1.823766157031059265e-02 8.192656678147614002e-04 3.042301349341869354e-02 3.062694100663065910e-03 -7.757581770420074463e-03 -7.422150112688541412e-03 3.852310765068978071e-04 3.504005959257483482e-03 -3.932587802410125732e-02 2.887333743274211884e-03 1.473077759146690369e-02 -2.239275909960269928e-02 -3.505066782236099243e-02 1.735511235892772675e-03 -1.883283257484436035e-02 -8.381941355764865875e-03 1.025202870368957520e-02 -4.194271191954612732e-02 -4.551628604531288147e-03 -1.897266483865678310e-03 -5.516102537512779236e-03 -1.208321284502744675e-02 4.084121435880661011e-03 2.527663111686706543e-02 -1.597600523382425308e-03 2.662855759263038635e-02 7.360835443250834942e-04 -1.946853287518024445e-02 7.571301423013210297e-03 2.211686596274375916e-02 1.047946233302354813e-02 1.782824471592903137e-02 2.095258794724941254e-02 -5.251171067357063293e-03 -1.398996450006961823e-02 -1.996835134923458099e-02 2.870222553610801697e-02 2.086990885436534882e-02 1.598090492188930511e-02 9.755011647939682007e-03 -1.155545003712177277e-03 -7.663071737624704838e-04 -5.139976274222135544e-03 -1.118683908134698868e-02 -6.412883847951889038e-02 1.662765443325042725e-02 -3.717269375920295715e-02 2.389402873814105988e-02 -3.190353140234947205e-02 1.384057383984327316e-02 -1.667164638638496399e-02 7.285003550350666046e-03 -1.317541301250457764e-02 2.518739178776741028e-02 1.609695143997669220e-02 -1.257763337343931198e-02 2.891026902943849564e-03 -4.591471806634217501e-04 -2.739471942186355591e-02 2.583940746262669563e-03 -9.393742308020591736e-03 1.052117906510829926e-02 1.610905677080154419e-02 -1.196395605802536011e-02 2.910972200334072113e-02 1.294607762247323990e-02 2.526122704148292542e-02 -8.983539300970733166e-04 -8.071012794971466064e-03 -4.178167507052421570e-02 -2.849695272743701935e-02 1.669079996645450592e-02 -1.094727660529315472e-03 2.123209461569786072e-02 -6.388855166733264923e-03 3.600712865591049194e-03 -7.726296782493591309e-03 1.913300715386867523e-02 -5.535597912967205048e-03 9.018038399517536163e-03 5.378637928515672684e-03 -1.558705046772956848e-02 1.616239547729492188e-02 -1.822572574019432068e-02 -1.400775392539799213e-03
-1.590977236628532410e-02 -3.821522742509841919e-02 -2.428186358883976936e-03 -3.780984552577137947e-04 2.747144177556037903e-02 4.136520251631736755e-02 4.547938704490661621e-02 -2.732605114579200745e-02 -5.858670454472303391e-03 1.129234861582517624e-02 7.359571289271116257e-03 -7.691715843975543976e-03 2.394772507250308990e-02 1.141931395977735519e-03 1.267527113668620586e-03 6.656593643128871918e-03 -4.396741464734077454e-02 6.811180151998996735e-03 3.464578476268798113e-04 -2.113308291882276535e-03 2.093381062150001526e-02 2.404944412410259247e-02 -1.340315025299787521e-02 -9.251428768038749695e-03 -2.149278530851006508e-03 -5.735052749514579773e-02 -7.889249362051486969e-03 1.482278667390346527e-02 4.349258914589881897e-02 3.193511394783854485e-03 1.937689259648323059e-02 -9.227504022419452667e-03 1.047194562852382660e-02 1.534573547542095184e-02 -2.758398884907364845e-03 1.459670998156070709e-02 -1.614586450159549713e-02 -8.377843536436557770e-03 2.210639603435993195e-02 1.720403321087360382e-02 -9.584441781044006348e-03 -1.772309467196464539e-02 4.897996410727500916e-02 4.106791689991950989e-02 -3.195363283157348633e-02 2.063371241092681885e-02 5.193143710494041443e-02 6.418193224817514420e-03 -6.343809887766838074e-03 8.055832004174590111e-04 -2.207303233444690704e-02 -2.604244276881217957e-02 2.419271692633628845e-02 -6.291630677878856659e-03 3.827396035194396973e-02 -1.332235429435968399e-02 -2.588951773941516876e-02 -3.706566244363784790e-02 3.435317426919937134e-02 -2.679028734564781189e-02 -5.300431977957487106e-03 3.149585425853729248e-02 -1.667163684032857418e-03 -1.888368651270866394e-02 -1.428439188748598099e-02 -2.845017053186893463e-02 2.742005744948983192e-03 2.313817851245403290e-02 -2.350644581019878387e-02 3.067224984988570213e-03 8.999671787023544312e-03 1.264485809952020645e-02 -1.928400807082653046e-02 4.473888780921697617e-03 1.523579191416501999e-02 9.761731140315532684e-03 1.169297099113464355e-02 -6.051751319319009781e-03 1.000636350363492966e-02 1.419489830732345581e-02 1.985533535480499268e-02 -1.753277704119682312e-02 7.243485655635595322e-03 2.349833026528358459e-03 -1.138530112802982330e-02 3.019272163510322571e-02 1.857172511518001556e-02 3.293891996145248413e-02 -1.032720552757382393e-03 -2.354371733963489532e-02 2.947729825973510742e-02 2.552181668579578400e-02 -1.510122511535882950e-02 -2.973326481878757477e-02 9.970864281058311462e-03 -1.986772753298282623e-02 3.742343280464410782e-03 -3.178838267922401428e-02 -9.336717426776885986e-03 -4.203454405069351196e-02 1.904700696468353271e-02 1.463307533413171768e-02 -3.170342650264501572e-03 -2.573924604803323746e-03 -9.098825394175946712e-04 2.699769474565982819e-02 -3.159073367714881897e-02 2.478198334574699402e-02 4.338739905506372452e-03 -4.506524419412016869e-04 1.580580486916005611e-03 -2.756530593615025282e-04 -6.152808666229248047e-03 2.511803992092609406e-03 1.532507967203855515e-02 -1.680632820352911949e-03 -2.734632417559623718e-02 3.330137208104133606e-02 -3.410011529922485352e-02 2.959405258297920227e-02 3.296157228760421276e-05 1.870291889645159245e-03 4.951171111315488815e-03 3.150791861116886139e-03 5.134064331650733948e-02 -4.075946286320686340e-02 -1.005384954623878002e-03 6.629411596804857254e-03 2.542354166507720947e-02 -2.225565165281295776e-02 -1.981862448155879974e-02 1.241362839937210083e-02 3.351851366460323334e-03 -5.240358412265777588e-03 5.227474495768547058e-03 8.644922636449337006e-03 -1.832912117242813110e-02 -1.982318796217441559e-02 1.322430931031703949e-02 -2.752239070832729340e-02 -1.797168888151645660e-02 3.204409964382648468e-03 -2.203829027712345123e-02 -3.123371163383126259e-03 1.556093338876962662e-02 -3.004100732505321503e-02 -7.030094275251030922e-04 2.073348499834537506e-02 -3.735825419425964355e-03 -7.005986757576465607e-03 -3.194353729486465454e-02 1.593358069658279419e-02 -2.217751555144786835e-02 9.050165303051471710e-03 -1.756449788808822632e-02 -1.242187060415744781e-02 -2.966987714171409607e-02 -7.467603776603937149e-03 8.646458387374877930e-03 -1.607597619295120239e-02 2.731824666261672974e-02 2.271433360874652863e-02 -9.004776366055011749e-03 -4.663366707973182201e-04 1.521333400160074234e-02 -2.370571903884410858e-02 -1.190665364265441895e-02 -1.839525811374187469e-02 -7.097589783370494843e-03 -1.474361028522253036e-02 -3.806906752288341522e-03 6.393880583345890045e-03 -3.268460929393768311e-02 3.374563995748758316e-03 4.999200347810983658e-03 3.274498879909515381e-02 -2.713535726070404053e-02 4.266608040779829025e-03 -3.745533153414726257e-02 2.570705115795135498e-02 -1.817343384027481079e-02 -8.203860372304916382e-03 1.891507953405380249e-02 -1.950752362608909607e-02 -5.447224527597427368e-02 -2.205171622335910797e-02 2.217438071966171265e-02 3.591118752956390381e-02 -3.363283351063728333e-02 8.212369866669178009e-03 -1.426848303526639938e-02 -1.561570330522954464e-03 -1.780632068403065205e-03 -2.025156281888484955e-02 -1.911572553217411041e-02 -4.079373087733983994e-03 -2.809942327439785004e-02 -1.355792582035064697e-02 3.743928298354148865e-02 -2.589488867670297623e-03 2.152775973081588745e-02 3.349237889051437378e-02 -3.521873801946640015e-02 -1.875561103224754333e-02 1.049929857254028320e-02 -3.380431607365608215e-02 -2.092701196670532227e-02 1.843705028295516968e-02 -5.533960647881031036e-03 2.399934083223342896e-02 8.892753161489963531e-03 -7.770297117531299591e-03 -7.895307615399360657e-03 -1.347096078097820282e-02 1.174907665699720383e-02 -2.789567923173308372e-03 4.553095623850822449e-02 3.654672577977180481e-02 6.466825492680072784e-03 -1.473448053002357483e-02 3.219384700059890747e-02 1.934740575961768627e-03 -5.030385404825210571e-02 -1.317898742854595184e-02 -2.357953414320945740e-02 5.340271070599555969e-02 -1.236792467534542084e-02 1.269129943102598190e-02 -3.148093819618225098e-02 2.372429147362709045e-02 1.127233263105154037e-02 -2.622466906905174255e-02 -7.922792807221412659e-03 -5.675740074366331100e-03 -3.425568575039505959e-03 4.106279928237199783e-03 2.516968362033367157e-02 -2.061658911406993866e-02 -2.852914109826087952e-02 -6.301917601376771927e-03 1.417677942663431168e-02 -5.933166015893220901e-03 1.633523777127265930e-02 -1.420691423118114471e-02 -1.913118362426757812e-02 1.712555997073650360e-02 1.705516688525676727e-02 4.047964699566364288e-03 1.385570596903562546e-02 8.583391085267066956e-03 2.795213274657726288e-02 3.291125968098640442e-02 -1.360638346523046494e-02 9.520292282104492188e-03 4.500452429056167603e-03 -2.923893928527832031e-02
1.769855059683322906e-02 -1.019703131169080734e-02 -8.402531966567039490e-03 -9.556245990097522736e-03 3.149941191077232361e-02 1.624740287661552429e-02 -7.861068472266197205e-03 2.220915257930755615e-02 8.096178062260150909e-03 -3.009539097547531128e-02 2.296349219977855682e-02 1.951819984242320061e-03 -1.266804151237010956e-02 1.472740061581134796e-02 3.742927918210625648e-03 5.632889224216341972e-04 2.206997387111186981e-02 -4.586259368807077408e-03 2.066579647362232208e-03 3.319909051060676575e-02 9.092426858842372894e-03 -9.978678077459335327e-03 2.703117206692695618e-03 -2.253886125981807709e-02 1.478718593716621399e-02 -2.176426351070404053e-02 -9.733399492688477039e-04 -8.870786987245082855e-03 1.615422032773494720e-02 -1.821480691432952881e-02 -2.440455183386802673e-02 -4.391420166939496994e-03 4.342973232269287109e-03 2.231113379821181297e-03 1.735377591103315353e-03 2.432320034131407738e-03 1.708921231329441071e-02 2.611012011766433716e-02 2.955107577145099640e-02 1.957820728421211243e-03 -1.906197331845760345e-02 3.586941165849566460e-03 -1.283446978777647018e-02 -1.947181299328804016e-02 -4.048732295632362366e-02 1.850495301187038422e-02 -7.411534432321786880e-03 -3.740539401769638062e-02 -1.830964721739292145e-02 -6.814949680119752884e-03 -9.339590556919574738e-03 2.849104581400752068e-03 2.223342307843267918e-04 1.471791998483240604e-03 -3.897547721862792969e-03 -1.353907305747270584e-02 1.797782257199287415e-02 -1.579567906446754932e-03 9.983579628169536591e-03 -1.247146259993314743e-02 1.703791134059429169e-02 2.234076336026191711e-02 2.100992202758789062e-02 -3.112269565463066101e-02 -2.303624525666236877e-02 -1.158932317048311234e-02 3.116608364507555962e-03 -1.972955185920000076e-03 -4.637762159109115601e-02 9.061842225492000580e-03 3.342770971357822418e-03 -1.548362988978624344e-02 -2.280102670192718506e-02 -1.144672557711601257e-02 -1.770991599187254906e-03 -2.702668309211730957e-03 -1.738096028566360474e-02 2.058105543255805969e-03 -8.746070787310600281e-03 -1.558776106685400009e-02 6.215224042534828186e-03 -4.730115085840225220e-02 1.113930623978376389e-02 4.967329557985067368e-03 -3.656245244201272726e-04 1.232426031492650509e-03 -3.825236111879348755e-02 -3.551663830876350403e-03 -3.969838377088308334e-03 -3.010296821594238281e-02 4.276951774954795837e-03 -3.628525591921061277e-04 -2.085628511849790812e-04 -1.956639066338539124e-02 2.163796499371528625e-02 1.124083646573126316e-03 -3.155078273266553879e-03 -1.373721472918987274e-02 -4.098941385746002197e-02 -2.735949866473674774e-02 3.509091911837458611e-03 -2.128235809504985809e-02 4.438797943294048309e-03 7.543478277511894703e-04 4.024537280201911926e-02 4.578086081892251968e-03 -6.442500278353691101e-03 -2.100656740367412567e-02 -8.277785964310169220e-03 -3.629518672823905945e-03 1.390730496495962143e-02 -7.773523218929767609e-03 3.656729683279991150e-02 -1.934062317013740540e-02 2.383004687726497650e-02 -1.744971610605716705e-02 -1.291910652071237564e-02 5.075189750641584396e-03 -1.606618240475654602e-02 1.454786490648984909e-02 2.370618097484111786e-02 1.155340205878019333e-02 -3.462365362793207169e-03 -2.380688302218914032e-02 -1.457476709038019180e-02 1.460196450352668762e-02 4.236318171024322510e-02 -6.900534499436616898e-04 -1.127311587333679199e-02 -6.166246253997087479e-03 -3.323817625641822815e-02 2.180025912821292877e-02 -2.717417664825916290e-02 -4.232375323772430420e-02 -7.655213586986064911e-03 -1.062116213142871857e-02 -1.028103660792112350e-02 -2.296702377498149872e-02 -1.245674211531877518e-02 1.206917339004576206e-03 -7.502847816795110703e-03 2.665367349982261658e-02 4.487591795623302460e-03 1.261103805154561996e-02 3.706234320998191833e-02 1.403910759836435318e-02 1.292717270553112030e-02 5.301359109580516815e-03 2.208221144974231720e-02 1.524991169571876526e-02 -1.451662555336952209e-02 -6.132401060312986374e-03 -1.019930001348257065e-02 -1.210920698940753937e-02 4.988426342606544495e-02 -2.840558812022209167e-02 -2.158007118850946426e-03 -1.568380370736122131e-02 -6.500959396362304688e-03 -6.121707148849964142e-03 6.565107032656669617e-03 2.607658132910728455e-02 -1.702220365405082703e-02 -7.372389663942158222e-04 3.326681209728121758e-03 5.010285973548889160e-02 1.246275473386049271e-02 -3.518056764733046293e-04 1.237223017960786819e-02 -3.361201379448175430e-03 2.041340805590152740e-02 9.864237159490585327e-03 -1.028603781014680862e-02 6.419794633984565735e-03 -1.779281301423907280e-03 -1.593954488635063171e-02 -2.174994722008705139e-02 -2.303949929773807526e-02 7.570420950651168823e-02 4.031954798847436905e-03 1.905945315957069397e-02 -4.911885783076286316e-02 -1.974721625447273254e-02 2.615089155733585358e-02 -1.368883252143859863e-02 -9.382314048707485199e-03 -3.458276763558387756e-02 -7.585417944937944412e-03 -1.426058472134172916e-03 6.725037004798650742e-03 1.674797385931015015e-02 2.204919978976249695e-02 1.642793603241443634e-02 -6.162106059491634369e-03 1.809016242623329163e-02 -1.265382487326860428e-02 -1.123488764278590679e-03 -3.182435780763626099e-02 -4.946719389408826828e-03 -2.218531444668769836e-02 -2.601208398118615150e-03 6.756882648915052414e-04 -1.161196827888488770e-02 -4.596013110131025314e-03 -2.766185067594051361e-02 -2.822429873049259186e-03 -3.755981102585792542e-02 1.649697683751583099e-02 4.432391747832298279e-02 2.722400007769465446e-03 2.370316907763481140e-02 -2.706090454012155533e-03 -8.262941613793373108e-03 -5.942688323557376862e-03 -7.015860173851251602e-03 -1.679638214409351349e-02 9.280456230044364929e-03 -6.578872445970773697e-03 -1.431634882465004921e-03 -1.358182169497013092e-02 1.050144899636507034e-02 -7.169869262725114822e-03 -1.383473724126815796e-02 -7.895998656749725342e-03 2.981588803231716156e-02 -1.091543585062026978e-02 8.865779265761375427e-03 3.372040763497352600e-02 -2.372451685369014740e-02 3.282189369201660156e-02 -9.330966509878635406e-03 -9.570434689521789551e-03 1.275608781725168228e-03 -1.793549396097660065e-02 -1.851822435855865479e-02 3.184342291206121445e-03 1.559811457991600037e-02 -6.553965620696544647e-03 6.597678642719984055e-03 2.361049689352512360e-02 7.343659177422523499e-03 -9.858418488875031471e-04 3.194885095581412315e-03 4.589235037565231323e-02 7.914073765277862549e-03 -3.441530838608741760e-02 4.764599725604057312e-03 1.285689976066350937e-02 1.200786698609590530e-02 1.064205449074506760e-02 1.167709287256002426e-02 -2.317838836461305618e-03 2.493282081559300423e-03 8.254860527813434601e-03 -4.600177705287933350e-02 -2.411594986915588379e-02
-1.440049894154071808e-02 3.487193956971168518e-03 2.363335713744163513e-02 2.480620704591274261e-02 5.201769247651100159e-02 7.336781825870275497e-03 3.259239345788955688e-02 6.747037172317504883e-03 -7.838465273380279541e-03 -7.127793505787849426e-03 -1.034024264663457870e-02 -4.673524759709835052e-03 -5.289478693157434464e-03 -1.292777713388204575e-02 7.061986252665519714e-03 -5.693897139281034470e-03 -7.485596463084220886e-03 -1.794605888426303864e-02 -3.144031390547752380e-02 -1.915804855525493622e-02 4.487018566578626633e-03 2.390438504517078400e-02 -1.511111855506896973e-02 3.254448249936103821e-02 -1.918203942477703094e-02 -5.536764860153198242e-03 -2.423993870615959167e-02 3.617066144943237305e-02 1.129106618463993073e-02 2.661284618079662323e-02 1.153072994202375412e-02 -3.212858224287629128e-03 1.093552354723215103e-02 -1.829941291362047195e-03 2.662760950624942780e-02 4.002317413687705994e-02 4.449603334069252014e-02 -1.274175383150577545e-02 -2.070650272071361542e-02 -5.431552883237600327e-03 -2.899239026010036469e-02 -2.084792405366897583e-02 6.601374130696058273e-03 -2.701579220592975616e-02 -2.291613072156906128e-02 -2.093822136521339417e-02 -5.355934612452983856e-03 -6.161904893815517426e-03 6.938915234059095383e-03 2.935760095715522766e-02 -1.428044959902763367e-02 1.170196104794740677e-02 -1.690954901278018951e-02 2.322483249008655548e-02 -2.215747907757759094e-02 -7.631801068782806396e-03 -3.305359929800033569e-02 1.654270850121974945e-02 4.751921817660331726e-02 -2.102300524711608887e-02 1.710784039460122585e-03 4.494162276387214661e-02 -2.672755531966686249e-02 3.314191848039627075e-02 7.649316918104887009e-03 1.898566447198390961e-02 5.545052117668092251e-04 4.723713546991348267e-02 -2.783764339983463287e-02 1.666370220482349396e-02 1.275725942105054855e-02 2.137933159247040749e-03 -2.385822311043739319e-02 -2.293931506574153900e-02 -5.458727944642305374e-03 -3.851228579878807068e-02 1.573889143764972687e-02 2.901886217296123505e-02 4.531632736325263977e-02 -2.100255340337753296e-03 1.718443259596824646e-02 2.113771857693791389e-03 2.943719737231731415e-02 -2.710347995162010193e-02 1.681964658200740814e-02 -2.066494897007942200e-02 6.390494760125875473e-03 2.754725143313407898e-02 -1.310462411493062973e-02 -1.330038346350193024e-02 -3.537879884243011475e-02 1.143193431198596954e-02 -1.138808205723762512e-02 3.000671789050102234e-02 1.427721604704856873e-02 1.536504924297332764e-02 1.880588708445429802e-03 1.120171137154102325e-02 -1.510587427765130997e-02 -2.234105579555034637e-02 -1.461314037442207336e-02 3.986543044447898865e-03 -1.121175661683082581e-02 -1.924360869452357292e-03 -2.337988838553428650e-02 -2.365505695343017578e-02 -1.965069910511374474e-03 -6.420519668608903885e-03 9.554807096719741821e-03 -2.610126323997974396e-02 4.379232879728078842e-03 -9.352742694318294525e-03 -6.599171319976449013e-04 -1.300436258316040039e-02 2.811998128890991211e-03 -1.412932947278022766e-02 -1.136249955743551254e-02 -1.026856433600187302e-02 1.085984986275434494e-02 -3.451892873272299767e-03 6.480567157268524170e-03 1.779981330037117004e-02 -3.437034413218498230e-02 -4.069812595844268799e-02 -1.825059019029140472e-02 3.477147594094276428e-02 1.705231890082359314e-02 7.948067970573902130e-03 -1.547774183563888073e-03 8.648919872939586639e-03 -2.304288931190967560e-02 4.537831991910934448e-03 -2.838908880949020386e-02 3.450215095654129982e-03 -4.499927628785371780e-03 -3.462658496573567390e-03 -2.318250946700572968e-02 6.105429492890834808e-03 -1.724023185670375824e-02 1.637839525938034058e-02 1.450097933411598206e-02 7.026204839348793030e-03 -6.794584332965314388e-04 2.745519764721393585e-02 -1.485529541969299316e-02 3.728184103965759277e-02 -1.189300324767827988e-02 1.942780055105686188e-02 4.477779846638441086e-03 3.503016009926795959e-02 -2.390045300126075745e-02 -3.199981991201639175e-03 -2.607476152479648590e-02 -3.254728764295578003e-02 6.608109921216964722e-02 -1.712648756802082062e-02 1.171075832098722458e-02 6.972165778279304504e-03 -6.461540237069129944e-03 2.721358835697174072e-02 6.400721147656440735e-03 -4.587861243635416031e-03 6.425394676625728607e-04 3.825028985738754272e-02 -1.229343097656965256e-02 2.237272076308727264e-02 2.721397392451763153e-02 -1.828814565669745207e-04 -7.595770526677370071e-03 4.065745975822210312e-03 4.218133538961410522e-02 1.148969121277332306e-02 -2.345871739089488983e-02 -5.153446923941373825e-03 -2.001460827887058258e-02 -8.468858897686004639e-03 1.416455395519733429e-02 -2.215624041855335236e-02 -2.319041825830936432e-02 -1.124228443950414658e-02 -1.365065295249223709e-02 -1.451414637267589569e-02 -6.843602750450372696e-04 -1.313692703843116760e-02 -4.745513945817947388e-02 -1.556639932096004486e-02 -1.042882446199655533e-02 -2.585573587566614151e-03 2.243304066359996796e-02 -1.860660617239773273e-03 2.565899631008505821e-03 -1.202919287607073784e-03 2.719287388026714325e-02 3.632561769336462021e-03 4.973253235220909119e-03 2.648926340043544769e-03 -2.241137064993381500e-02 -3.315928857773542404e-03 -4.248477518558502197e-03 -1.471824850887060165e-02 -3.273440152406692505e-02 1.787570421583950520e-03 2.432593144476413727e-02 -1.332922931760549545e-02 -1.361808367073535919e-02 -1.101233903318643570e-02 6.359907798469066620e-03 9.944015182554721832e-03 -5.387904588133096695e-03 -1.909474283456802368e-02 1.732122339308261871e-02 8.987457491457462311e-03 9.667263366281986237e-03 1.937810739036649466e-04 1.856305752880871296e-04 3.148791193962097168e-02 2.290074154734611511e-02 1.932219043374061584e-02 1.317820698022842407e-02 -1.024567428976297379e-02 2.109853550791740417e-03 -1.595074683427810669e-02 -7.749837823212146759e-03 -7.448786403983831406e-03 1.052623987197875977e-02 1.281991135329008102e-02 -2.537299692630767822e-02 1.240062806755304337e-02 -4.429292306303977966e-02 -6.091280374675989151e-03 -2.433071611449122429e-03 -1.454157009720802307e-02 2.517833840101957321e-03 3.219576552510261536e-02 4.013985861092805862e-03 3.950994461774826050e-02 2.272587083280086517e-02 2.016620337963104248e-02 2.106164209544658661e-02 1.756487600505352020e-02 -7.495931815356016159e-03 -1.312524359673261642e-02 -1.503359526395797729e-02 -1.663690991699695587e-02 4.764732718467712402e-02 -2.432718500494956970e-02 -1.629595085978507996e-02 -3.122170269489288330e-02 -1.400929689407348633e-02 -2.040127478539943695e-02 2.278343960642814636e-02 -3.227195143699645996e-02 2.961878664791584015e-02 -2.343451976776123047e-02 -1.573593914508819580e-02 1.991372741758823395e-02
2.293869666755199432e-02 -1.993501186370849609e-02 1.503631356172263622e-03 -2.423471212387084961e-02 -1.233538426458835602e-02 -9.891622699797153473e-03 -2.696597250178456306e-03 -2.469545230269432068e-02 -4.517389461398124695e-02 -7.589379325509071350e-03 -2.765728160738945007e-02 2.606578171253204346e-02 1.270623598247766495e-02 4.632370080798864365e-03 -3.474451601505279541e-02 -7.781059481203556061e-03 -1.572584174573421478e-02 -1.667973083385732025e-05 -1.195919048041105270e-02 -1.728751882910728455e-02 2.211071550846099854e-02 -1.915390789508819580e-02 -4.716235771775245667e-02 -7.701294496655464172e-03 5.579020455479621887e-02 -8.206314407289028168e-03 -3.594484925270080566e-02 1.109744049608707428e-02 -2.787399478256702423e-02 -7.457389030605554581e-03 1.029238011687994003e-02 -8.551002480089664459e-03 1.347643043845891953e-02 -2.100302278995513916e-02 -1.885708421468734741e-03 -2.329890243709087372e-02 -5.588894337415695190e-02 2.333068288862705231e-02 -4.695937037467956543e-03 6.373008247464895248e-03 -2.945447340607643127e-02 -2.825329266488552094e-02 3.821958787739276886e-03 2.916144579648971558e-02 -1.072986284270882607e-03 9.543591178953647614e-03 -2.511293441057205200e-02 -2.930328808724880219e-02 7.196871563792228699e-03 -2.726878272369503975e-03 6.092850118875503540e-03 -8.389978669583797455e-03 -3.155171638354659081e-03 -9.129486046731472015e-03 1.743734348565340042e-03 -7.874934002757072449e-03 3.327922523021697998e-02 -2.363842912018299103e-02 2.049817889928817749e-02 -1.825708523392677307e-02 7.253021933138370514e-03 5.940968170762062073e-03 -3.864890095428563654e-05 1.356394123286008835e-02 1.574666053056716919e-02 1.061611436307430267e-02 -2.389962226152420044e-02 -2.245625294744968414e-02 -1.236038561910390854e-02 -2.546174265444278717e-02 6.992705166339874268e-03 -1.621873304247856140e-02 -1.586883515119552612e-02 -1.568623632192611694e-02 -4.345928784459829330e-03 -1.646484248340129852e-02 -2.273074910044670105e-02 -3.301656804978847504e-03 6.195633206516504288e-03 -2.866909280419349670e-02 9.659158065915107727e-03 -1.976967230439186096e-02 -5.253958050161600113e-03 2.035086508840322495e-03 -5.377711495384573936e-04 -3.840138018131256104e-02 -2.585168927907943726e-02 -2.556204795837402344e-02 -1.977951265871524811e-03 -2.735134027898311615e-02 8.797341026365756989e-03 1.913807354867458344e-03 4.568114131689071655e-02 -2.003887668251991272e-02 -5.165727809071540833e-03 -3.668509051203727722e-02 2.601857529953122139e-03 -8.629111573100090027e-03 -1.113523170351982117e-02 1.073606405407190323e-02 -3.620444098487496376e-03 -2.041427791118621826e-02 1.012780517339706421e-02 -1.691626198589801788e-02 -1.777900941669940948e-02 3.339898958802223206e-02 5.722525529563426971e-03 -3.519329056143760681e-02 1.707255095243453979e-02 1.038483530282974243e-02 2.566093811765313148e-03 -5.078546237200498581e-03 -2.496506832540035248e-02 -1.844338700175285339e-02 1.148097869008779526e-02 1.698924228549003601e-02 -5.336551461368799210e-03 3.550980472937226295e-03 5.472574848681688309e-03 -2.115707658231258392e-02 1.612572744488716125e-02 8.051978424191474915e-03 1.627035904675722122e-03 4.340678453445434570e-03 5.010548979043960571e-03 1.775036216713488102e-03 -1.383184175938367844e-02 -9.944920428097248077e-03 -2.719671465456485748e-02 -2.521651610732078552e-02 6.244877818971872330e-03 -9.994087740778923035e-03 1.854503341019153595e-02 -7.062100339680910110e-03 1.914195157587528229e-02 1.787341432645916939e-03 2.513899654150009155e-02 5.401750560849905014e-03 5.261047277599573135e-03 -1.843045465648174286e-02 -2.614089846611022949e-02 -1.559784822165966034e-02 3.028870560228824615e-02 2.447423897683620453e-02 6.473556160926818848e-03 -3.001602180302143097e-02 5.215128418058156967e-03 1.227664854377508163e-02 -1.727028004825115204e-02 9.698595851659774780e-03 6.915629655122756958e-02 3.403272479772567749e-02 -1.595344021916389465e-02 -3.937098197638988495e-03 1.392371766269207001e-02 2.095457352697849274e-02 1.505960826762020588e-03 1.090559363365173340e-02 -2.945730835199356079e-02 -2.795656025409698486e-02 1.248034997843205929e-03 1.166646368801593781e-02 -4.467822238802909851e-02 7.565738633275032043e-03 2.359816990792751312e-02 -5.556914955377578735e-03 -1.474641449749469757e-02 -3.021198883652687073e-02 -8.128648623824119568e-03 -4.584613197948783636e-04 -1.253436319530010223e-02 9.169053286314010620e-03 -4.697369039058685303e-02 -1.242439611814916134e-03 9.828000329434871674e-03 -1.710396260023117065e-02 9.464395232498645782e-03 1.219759043306112289e-02 2.407624945044517517e-02 -2.675712853670120239e-02 4.819815047085285187e-03 3.694237396121025085e-02 -2.125124260783195496e-02 -6.306205410510301590e-03 5.562963336706161499e-02 4.838012624531984329e-03 -5.535267293453216553e-02 -3.323196619749069214e-02 -1.623492105863988400e-03 9.558334946632385254e-03 2.107762917876243591e-02 -4.411351983435451984e-04 1.232854276895523071e-02 6.535943131893873215e-03 2.507100999355316162e-02 5.831597838550806046e-03 -4.521201830357313156e-03 3.143091127276420593e-02 -4.673042148351669312e-02 -5.277431569993495941e-03 5.782523192465305328e-03 9.999603033065795898e-03 2.480830252170562744e-02 5.720467772334814072e-03 -3.209606185555458069e-02 2.553181257098913193e-03 6.672630552202463150e-03 6.328515708446502686e-03 -1.772284135222434998e-02 1.693942956626415253e-02 -1.279985159635543823e-02 2.994875656440854073e-03 1.901621348224580288e-03 -2.123513258993625641e-02 -1.277709286659955978e-02 -3.741142805665731430e-03 1.769155263900756836e-02 1.689454540610313416e-02 -4.079360887408256531e-02 -1.990599930286407471e-02 8.447588421404361725e-03 8.562798611819744110e-03 -8.593434467911720276e-03 -5.626747012138366699e-02 -3.486027242615818977e-03 -1.022540777921676636e-02 -2.350586466491222382e-02 8.820926770567893982e-03 -5.411652848124504089e-03 -2.423993684351444244e-02 -1.457083038985729218e-02 -1.640683040022850037e-02 3.371204435825347900e-02 2.155489660799503326e-02 -1.149856206029653549e-02 1.370222494006156921e-02 1.609549112617969513e-02 -1.532136835157871246e-02 -3.410262987017631531e-02 -3.148030955344438553e-03 5.473027471452951431e-03 5.317308474332094193e-03 -5.332453176379203796e-03 -4.047846421599388123e-03 8.798090741038322449e-03 2.313218079507350922e-02 -2.992929331958293915e-02 4.480123519897460938e-03 2.763760834932327271e-02 -2.127347514033317566e-02 -1.767804846167564392e-02 -4.459312185645103455e-03 8.911048062145709991e-03 -1.777466386556625366e-02 1.054063905030488968e-02 -5.976050626486539841e-03
1.076732203364372253e-01 2.649076469242572784e-02 9.540495276451110840e-01 -7.484497129917144775e-02 2.833485044538974762e-02 -1.762361638247966766e-02 8.069525472819805145e-03 3.215423598885536194e-02 8.216612040996551514e-02 3.765897825360298157e-02 2.783592939376831055e-01 -2.001688182353973389e-01 -2.420995384454727173e-01 5.856233835220336914e-01 -7.284592390060424805e-01 -2.760222852230072021e-01 -8.179891854524612427e-02 2.814014554023742676e-01 -2.800436913967132568e-01 1.404036302119493484e-02 -3.838822618126869202e-02 2.992105185985565186e-01 -2.801822721958160400e-01 1.035362035036087036e-01 2.112691849470138550e-01 -4.746612906455993652e-02 1.677850633859634399e-01 9.302872419357299805e-02 2.596811763942241669e-02 3.815340250730514526e-02 -8.972765207290649414e-01 -1.062747955322265625e+00 6.302189230918884277e-01 -1.178606897592544556e-01 7.563440594822168350e-03 -1.173414215445518494e-01 -2.631406486034393311e-01 -2.801709771156311035e-01 -1.458017677068710327e-01 4.860472083091735840e-01 2.765415906906127930e-01 7.655376195907592773e-01 -9.040200114250183105e-01 8.528981357812881470e-02 -1.466338336467742920e-01 -2.506262063980102539e-01 -2.385898977518081665e-01 -7.346166670322418213e-02 4.724763035774230957e-01 -1.356809496879577637e+00 4.634622037410736084e-01 5.042112246155738831e-02 -5.986542701721191406e-01 2.870961725711822510e-01 8.598217368125915527e-02 4.848678708076477051e-01 1.946402713656425476e-02 2.584676742553710938e-01 -2.469783723354339600e-01 -2.146776951849460602e-02 5.168959870934486389e-02 -6.258096545934677124e-02 -9.644047915935516357e-02 -2.021136134862899780e-02 7.256416976451873779e-02 3.041837811470031738e-01 5.968312174081802368e-02 1.542432699352502823e-02 -8.285588584840297699e-03 -1.970345154404640198e-02 -1.970352977514266968e-01 -1.524632424116134644e-01 2.769749164581298828e-01 -7.107179146260023117e-03 -8.571519702672958374e-02 2.699816524982452393e-01 -1.298966407775878906e-01 2.773467898368835449e-01 2.878778874874114990e-01 4.596751630306243896e-01 -1.286289691925048828e+00 3.213499113917350769e-02 7.656864821910858154e-02 -2.870193496346473694e-02 -1.721649318933486938e-01 -2.453739196062088013e-01 -3.735079197213053703e-03 -2.302006930112838745e-01 2.443247586488723755e-01 5.110812932252883911e-02 1.318642497062683105e-01 8.295287936925888062e-02 9.895072877407073975e-02 1.149971932172775269e-01 8.382192254066467285e-02 -6.616117954254150391e-01 7.936970889568328857e-02 3.174987807869911194e-02 -4.146827161312103271e-01 1.011436898261308670e-02 -5.447367578744888306e-02 2.238897979259490967e-02 -5.507790446281433105e-01 2.001716941595077515e-02 1.713396906852722168e-01 2.591611444950103760e-01 1.222942862659692764e-02 -1.280611455440521240e-01 2.301315963268280029e-02 -1.813864111900329590e-01 1.415040850639343262e+00 -1.970997266471385956e-02 8.389755338430404663e-02 1.708821058273315430e-01 5.267909765243530273e-01 2.376011610031127930e-01 -1.172570884227752686e-02 -8.121676743030548096e-03 2.882237136363983154e-01 -2.843039669096469879e-02 -5.770323053002357483e-02 -9.704484939575195312e-01 -8.343109511770308018e-04 1.237731873989105225e-01 7.090709358453750610e-02 2.178483828902244568e-02 1.031208317726850510e-02 1.575828552246093750e+00 4.122492671012878418e-01 3.205605968832969666e-02 5.946620833128690720e-03 1.503197550773620605e-01 2.505843043327331543e-01 1.068289056420326233e-01 -6.499276310205459595e-02 5.284454226493835449e-01 -2.392539680004119873e-01 -5.326609313488006592e-02 4.843602329492568970e-02 -2.225691080093383789e-02 -7.987543195486068726e-02 -6.446295380592346191e-01 1.357672456651926041e-02 -5.163966119289398193e-02 -1.633071601390838623e-01 2.602095305919647217e-01 2.316952198743820190e-01 2.586526274681091309e-01 3.054016530513763428e-01 1.606978178024291992e-01 4.492696523666381836e-01 -7.549333572387695312e-02 -5.799092352390289307e-02 6.109656691551208496e-01 -2.293029278516769409e-01 -9.296122789382934570e-01 2.081010676920413971e-02 1.003206729888916016e+00 5.627011656761169434e-01 1.402451470494270325e-02 4.205690696835517883e-02 6.852305531501770020e-01 -1.997467316687107086e-02 2.612826228141784668e-01 1.277350336313247681e-01 1.408969163894653320e-01 -4.549074918031692505e-02 -5.405970215797424316e-01 -9.732941538095474243e-02 7.165318727493286133e-02 1.138959079980850220e-02 5.547047853469848633e-01 -6.852231621742248535e-01 1.992529779672622681e-01 2.623866796493530273e-01 1.105974242091178894e-01 -1.362001538276672363e+00 1.265930682420730591e-01 1.121561646461486816e+00 -3.849302977323532104e-02 4.475069418549537659e-02 1.958982199430465698e-01 1.137494072318077087e-01 2.562025189399719238e-01 4.670948907732963562e-02 1.191031262278556824e-01 -2.396490611135959625e-02 1.053083837032318115e-01 -6.124245375394821167e-02 -6.140908971428871155e-02 -4.143564701080322266e-01 5.771683156490325928e-02 2.595184836536645889e-03 -8.577044606208801270e-01 -1.752610434778034687e-03 -7.599173486232757568e-02 3.505747616291046143e-01 1.938466876745223999e-01 -2.501377761363983154e-01 4.642451182007789612e-02 8.980266004800796509e-02 1.044790912419557571e-02 -2.885878384113311768e-01 -5.837952494621276855e-01 3.103630989789962769e-02 -8.822882920503616333e-02 -3.263565301895141602e-01 1.368588861078023911e-02 7.645538449287414551e-02 -3.005151869729161263e-03 -2.658964991569519043e-01 5.458444952964782715e-01 6.249872446060180664e-01 8.882968425750732422e-01 -2.786876857280731201e-01 2.081415802240371704e-02 4.299829900264739990e-02 -1.344552487134933472e-01 1.043353155255317688e-01 1.149910211563110352e+00 -2.428599819540977478e-02 -1.269759297370910645e+00 1.600765585899353027e-01 -1.589418053627014160e-01 4.886925220489501953e-01 1.101512983441352844e-01 2.383498400449752808e-01 3.641072511672973633e-01 6.925126165151596069e-02 5.566270649433135986e-02 -9.735614657402038574e-01 1.079364538192749023e+00 -1.138467621058225632e-02 -1.190104931592941284e-01 5.845171585679054260e-02 2.264351397752761841e-01 1.606054306030273438e-01 2.502063512802124023e-01 9.552102684974670410e-01 2.106206566095352173e-01 1.824378594756126404e-02 2.881504893302917480e-01 3.919076919555664062e-01 3.808537125587463379e-01 -2.782739512622356415e-02 3.194309771060943604e-01 2.308132052421569824e-01 2.768301665782928467e-01 -6.386020183563232422e-01 1.418863087892532349e-01 4.048470035195350647e-02 5.070856958627700806e-02 8.899272084236145020e-01 -5.079217553138732910e-01 2.210802957415580750e-02 4.596695601940155029e-01
