-4.069110378623008728e-03 -7.579269353300333023e-03 -1.050505507737398148e-02 -9.367155842483043671e-03 -2.388820797204971313e-02 -2.145570470020174980e-03 -3.149635856971144676e-03 -4.895206075161695480e-03 3.290124982595443726e-02 -2.113827131688594818e-02 -1.693621650338172913e-02 -1.481759548187255859e-02 -5.083237588405609131e-02 -2.038691751658916473e-02 4.587971046566963196e-02 1.235649175941944122e-02 4.618160426616668701e-03 -2.136700227856636047e-02 -3.227031975984573364e-02 -2.656342228874564171e-03 2.430412918329238892e-02 -4.683638364076614380e-02 2.300516515970230103e-02 -7.420424837619066238e-03 -1.036453805863857269e-02 2.259711362421512604e-02 -5.452625919133424759e-03 -1.606583967804908752e-02 1.704235561192035675e-02 1.360351778566837311e-02 -6.971644703298807144e-03 4.177233669906854630e-03 6.916876137256622314e-02 4.007900599390268326e-03 -8.839774876832962036e-03 2.972960937768220901e-04 2.090880833566188812e-02 2.273463457822799683e-02 -1.653737388551235199e-02 7.317922543734312057e-03 1.465285848826169968e-02 -4.747868701815605164e-02 -1.859418675303459167e-02 -6.576995551586151123e-02 -1.659702882170677185e-02 -4.562022909522056580e-02 3.269928321242332458e-02 1.547056483104825020e-03 1.855535246431827545e-02 -3.266654908657073975e-02 -2.111113443970680237e-02 -6.093230098485946655e-02 1.422712858766317368e-02 -1.867622695863246918e-02 -6.848157197237014771e-02 -1.034428598359227180e-03 -2.555705234408378601e-02 -7.599545270204544067e-02 -2.117395401000976562e-02 9.259742684662342072e-03 -3.443465381860733032e-02 5.792403593659400940e-02 -2.388674393296241760e-02 3.224723041057586670e-02 -1.341515872627496719e-02 -3.505196887999773026e-03 3.129418939352035522e-02 -5.838513374328613281e-02 4.438892379403114319e-02 2.115917950868606567e-02 3.158222883939743042e-02 -2.551401406526565552e-02 -1.275789551436901093e-02 2.259925752878189087e-02 -4.419513046741485596e-02 2.068616636097431183e-02 -1.669985242187976837e-02 5.502624902874231339e-03 -3.902844339609146118e-02 1.212455891072750092e-02 -6.531982123851776123e-02 -4.112352803349494934e-02 4.766700323671102524e-03 -3.330348432064056396e-02 -3.473501652479171753e-02 -1.582218334078788757e-02 -5.747288465499877930e-03 -2.347812801599502563e-02 5.125342309474945068e-02 -2.063688263297080994e-02 5.905317142605781555e-02 7.653218694031238556e-03 1.677781529724597931e-02 1.531316712498664856e-02 -3.694798797369003296e-02 1.042466890066862106e-02 3.421736415475606918e-03 3.415468335151672363e-02 -4.066647589206695557e-02 1.274530496448278427e-02 1.932568661868572235e-02 -2.362449467182159424e-02 3.570130094885826111e-02 -2.487947978079319000e-02 3.704393981024622917e-03 -4.643708467483520508e-02 3.057883679866790771e-02 1.395562943071126938e-02 1.629262976348400116e-02 6.173038110136985779e-02 -3.430170193314552307e-02 -4.536637663841247559e-02 -1.153610181063413620e-02 3.534052520990371704e-02 -1.712682470679283142e-02 -2.263528667390346527e-02 1.526200212538242340e-04 -2.954306639730930328e-02 1.527389325201511383e-02 2.554531907662749290e-03 4.012453556060791016e-02 9.778199717402458191e-03 -5.350806191563606262e-02 2.849466167390346527e-02 -2.808855473995208740e-02 -2.474779728800058365e-03 -2.894748188555240631e-02 -4.474203102290630341e-03 2.942018583416938782e-02 -1.012197509407997131e-02 1.985133253037929535e-02 -1.497530005872249603e-02 1.541883219033479691e-02 -5.468693003058433533e-02 -3.823267295956611633e-03 -2.151264622807502747e-02 4.654888994991779327e-03 3.003203682601451874e-02 -1.905180513858795166e-02 1.124616432934999466e-02 -4.597440361976623535e-02 8.372862357646226883e-04 -1.652706786990165710e-02 -2.017574384808540344e-02 -6.705479323863983154e-02 5.140322260558605194e-03 1.157472655177116394e-02 1.894603855907917023e-02 3.048602864146232605e-02 -4.659780242945998907e-04 6.751658860594034195e-03 -4.018819599878042936e-04 -3.574134781956672668e-03 -1.392329018563032150e-02 1.923438510857522488e-03 1.591963507235050201e-02 -8.565400494262576103e-04 2.440237672999501228e-03 1.882096054032444954e-03 -1.816049031913280487e-02 8.941622800193727016e-04 7.995526492595672607e-02 -2.625810913741588593e-02 1.358670415356755257e-03 -3.125079721212387085e-02 2.682357840240001678e-02 3.052936121821403503e-02 2.806621231138706207e-02 -4.712828621268272400e-02 3.077227436006069183e-02 6.250263005495071411e-02 6.709212437272071838e-03 -2.963416837155818939e-02 -2.526050060987472534e-02 -3.755519911646842957e-02 -4.654243588447570801e-03 3.565686196088790894e-02 -6.264847237616777420e-03 4.568718746304512024e-02 6.163641810417175293e-02 1.309140957891941071e-02 -2.766184136271476746e-02 -1.737123169004917145e-02 -1.355251879431307316e-03 -4.296851810067892075e-03 -2.971246279776096344e-02 -7.245577406138181686e-03 1.462226826697587967e-02 6.223205476999282837e-03 3.613625839352607727e-02 -1.933301426470279694e-02 -4.221165552735328674e-02 -8.114896714687347412e-02 1.859081536531448364e-02 3.471763106063008308e-03 2.538005262613296509e-02 3.650663420557975769e-02 -1.814336329698562622e-02 3.919386491179466248e-02 -2.475548535585403442e-02 5.979080218821763992e-03 2.692469023168087006e-02 4.424879699945449829e-02 -2.568181604146957397e-02 3.939047083258628845e-02 -2.621838077902793884e-02 -5.517235398292541504e-02 -5.032085254788398743e-02 -2.933561988174915314e-02 -5.008007865399122238e-03 1.051520779728889465e-01 -3.723296569660305977e-03 -1.922019571065902710e-02 -3.359028371050953865e-03 1.137107517570257187e-02 3.392396122217178345e-02 -4.940503276884555817e-04 -2.355897799134254456e-02 3.350514173507690430e-02 -8.216980844736099243e-03 -1.515932474285364151e-02 2.382175996899604797e-02 2.860342524945735931e-02 2.833217196166515350e-02 -1.406461652368307114e-02 8.829765953123569489e-03 1.802132278680801392e-02 2.923205494880676270e-02 2.176933363080024719e-02 -7.818724960088729858e-03 1.497153751552104950e-02 9.117321111261844635e-03 8.484710007905960083e-03 1.639827713370323181e-02 9.814457595348358154e-02 2.743697911500930786e-02 1.136762835085391998e-02 1.111644692718982697e-02 -2.863599546253681183e-02 -1.323035825043916702e-02 1.538550201803445816e-02 3.104727901518344879e-02 -2.817130461335182190e-02 -6.654720287770032883e-03 2.797976695001125336e-02 -5.980072170495986938e-02 -5.935427919030189514e-02 6.262206006795167923e-03 2.731146663427352905e-02 3.343647345900535583e-02 -9.211337193846702576e-03 2.947619184851646423e-02 6.526919454336166382e-02 -9.295282652601599693e-04 6.361749954521656036e-03 1.888653077185153961e-02
3.611419722437858582e-02 -5.019788816571235657e-02 -2.992346137762069702e-02 -1.933173649013042450e-02 2.389834821224212646e-02 -5.170025676488876343e-02 -2.054129494354128838e-03 6.841717287898063660e-03 -6.687101442366838455e-03 4.688367247581481934e-02 4.676733911037445068e-02 -5.058719962835311890e-02 -2.864598110318183899e-02 -1.511935424059629440e-02 4.891215637326240540e-02 2.265178598463535309e-03 2.630799449980258942e-02 3.353159129619598389e-02 5.811970308423042297e-02 2.918083965778350830e-02 -3.569922223687171936e-02 4.525403957813978195e-03 1.156017649918794632e-02 -3.583129122853279114e-02 2.316581085324287415e-02 -1.742982491850852966e-02 5.888042505830526352e-03 -2.625603415071964264e-02 3.892252966761589050e-02 -2.970596030354499817e-02 1.223553530871868134e-02 3.955472260713577271e-02 6.663735210895538330e-02 -4.741481691598892212e-02 -3.002264164388179779e-02 8.359513245522975922e-03 1.393271959386765957e-04 -5.857994779944419861e-02 -1.765679568052291870e-03 -6.937631871551275253e-03 -3.920283913612365723e-02 4.966037720441818237e-02 -6.451790034770965576e-02 4.326493665575981140e-02 5.280047655105590820e-02 -1.209251023828983307e-02 -4.559463262557983398e-02 6.959647685289382935e-02 -7.698275148868560791e-02 4.518484324216842651e-02 3.910892829298973083e-02 2.228728728368878365e-03 -6.660549901425838470e-03 1.700420514680445194e-03 3.723899275064468384e-02 -5.233258008956909180e-02 1.608215831220149994e-02 1.490419344918336719e-05 -8.334375917911529541e-03 1.607543672434985638e-03 -3.112396784126758575e-02 -2.376473136246204376e-02 5.156520754098892212e-02 4.107809439301490784e-02 1.455126330256462097e-02 -5.313638225197792053e-02 1.112513896077871323e-02 -4.025026410818099976e-02 4.185643792152404785e-02 5.394900217652320862e-02 1.547055691480636597e-02 7.716965675354003906e-02 -4.778489470481872559e-02 -3.958777058869600296e-03 2.069901302456855774e-02 4.283441230654716492e-02 2.799475193023681641e-02 -5.802080035209655762e-03 1.976793259382247925e-02 8.050999604165554047e-03 -3.550662472844123840e-02 2.693927288055419922e-02 4.357454925775527954e-02 8.887807838618755341e-03 -3.101701661944389343e-02 -6.019253749400377274e-03 -4.068144410848617554e-02 4.713181871920824051e-03 1.374433375895023346e-02 -1.030980981886386871e-02 4.322788864374160767e-02 -4.720754921436309814e-02 3.594582527875900269e-02 1.145909633487462997e-02 5.082593858242034912e-02 -4.004951193928718567e-02 -1.913152635097503662e-02 3.064584918320178986e-02 -2.201471850275993347e-02 4.192234203219413757e-02 1.709292456507682800e-02 1.888909377157688141e-02 -4.105903953313827515e-02 1.560313161462545395e-03 -3.720537526533007622e-03 2.035521715879440308e-02 -3.343946486711502075e-02 2.360241673886775970e-02 7.878246158361434937e-02 -2.663225866854190826e-02 -3.364592790603637695e-02 3.000105544924736023e-02 8.557084947824478149e-02 -8.629433065652847290e-02 1.147225871682167053e-02 -1.528666168451309204e-02 -4.002977535128593445e-02 -4.438124224543571472e-02 -6.648334092460572720e-04 -4.679872188717126846e-03 -1.130653172731399536e-02 -3.250101208686828613e-02 -5.991574749350547791e-02 1.312702000141143799e-01 2.993261208757758141e-03 5.294395238161087036e-02 4.323570430278778076e-02 4.557454213500022888e-02 4.050363972783088684e-02 -3.747645765542984009e-02 -4.242884367704391479e-02 3.289330005645751953e-02 -2.360314130783081055e-03 8.456980576738715172e-04 1.542246248573064804e-02 6.396624445915222168e-02 4.195177182555198669e-02 -3.971790894865989685e-02 1.310294587165117264e-02 -2.054215036332607269e-02 3.600010275840759277e-02 1.563785038888454437e-02 2.298408560454845428e-02 -3.350076079368591309e-02 9.215141087770462036e-02 -2.316139824688434601e-02 6.122979149222373962e-02 8.516732603311538696e-03 -7.712826598435640335e-03 1.570081710815429688e-02 -3.837614506483078003e-02 -4.209050163626670837e-02 -2.070429362356662750e-02 -6.488915998488664627e-03 -1.755387708544731140e-02 -3.878085874021053314e-03 7.078426331281661987e-02 1.180569361895322800e-02 1.202632859349250793e-02 1.068720687180757523e-02 8.080798201262950897e-03 3.632827475666999817e-02 2.904582396149635315e-02 2.885159850120544434e-02 3.915556520223617554e-02 6.924318522214889526e-02 -2.977257035672664642e-02 -2.001729980111122131e-02 -1.756636612117290497e-02 -1.189468707889318466e-02 4.047587141394615173e-02 1.631499826908111572e-02 4.571095481514930725e-02 1.658253744244575500e-02 1.590957865118980408e-02 3.411355661228299141e-03 -1.820183359086513519e-02 8.263486437499523163e-03 1.107642892748117447e-03 -1.232137251645326614e-02 -1.563376188278198242e-02 5.836553871631622314e-02 5.215521156787872314e-02 2.835410088300704956e-02 1.006952822208404541e-01 -9.479903616011142731e-03 -1.573694869875907898e-02 -5.622187629342079163e-03 -3.762964531779289246e-02 4.076213389635086060e-02 7.362917065620422363e-03 4.918551817536354065e-02 -1.697210222482681274e-02 1.768798194825649261e-02 3.048552758991718292e-02 6.111058592796325684e-02 4.422373697161674500e-02 -4.547999799251556396e-02 3.375896718353033066e-03 1.892830245196819305e-02 3.521205112338066101e-02 7.520345598459243774e-02 -1.974939834326505661e-03 6.006461381912231445e-02 -3.689507488161325455e-03 7.174039632081985474e-02 3.030902892351150513e-02 5.345549806952476501e-02 -3.003891743719577789e-02 5.204200278967618942e-03 -3.285639733076095581e-02 2.011430077254772186e-02 -5.827671848237514496e-03 -1.857275888323783875e-02 -3.430781513452529907e-02 2.222874946892261505e-02 2.292061410844326019e-02 4.072218388319015503e-02 -6.100474298000335693e-02 -1.964538358151912689e-02 -4.646494984626770020e-03 -1.227731909602880478e-02 -1.052240724675357342e-03 -1.421500742435455322e-02 2.452095225453376770e-02 1.399849774315953255e-03 3.353949263691902161e-02 -1.719857007265090942e-02 -1.673099957406520844e-02 -3.106901422142982483e-02 -2.715466730296611786e-02 8.570787310600280762e-02 1.717781880870461464e-03 1.039201859384775162e-02 1.325028985738754272e-01 -3.308944776654243469e-02 -8.453697897493839264e-03 8.507329225540161133e-02 7.369643449783325195e-02 1.614311896264553070e-02 5.938839539885520935e-02 4.741213098168373108e-02 -3.001095168292522430e-02 -4.118140041828155518e-02 -3.748600557446479797e-02 2.805116958916187286e-02 -2.555593475699424744e-02 4.260081425309181213e-02 -3.037088736891746521e-02 -1.286992244422435760e-02 -3.563290461897850037e-02 -3.363929688930511475e-02 4.360483959317207336e-02 7.058154791593551636e-02 -3.173561999574303627e-04 -2.775610610842704773e-02
6.787706911563873291e-02 -1.192252431064844131e-02 1.365059427917003632e-02 2.722464874386787415e-02 2.334070950746536255e-02 -5.202325433492660522e-02 1.484823785722255707e-02 -5.013808608055114746e-02 7.476572412997484207e-03 6.221662089228630066e-02 -1.739739207550883293e-03 6.333840638399124146e-02 3.402624651789665222e-02 3.212482109665870667e-02 5.996808037161827087e-02 3.461366519331932068e-02 -5.335773807018995285e-03 3.229555115103721619e-02 -5.549660325050354004e-02 2.098227851092815399e-02 -6.912716478109359741e-02 -1.308191474527120590e-02 -2.917143888771533966e-02 -3.254839032888412476e-02 2.842154353857040405e-03 1.088975556194782257e-02 -7.271477580070495605e-02 2.617486752569675446e-02 -6.038050353527069092e-02 -2.102154307067394257e-02 -2.024080045521259308e-02 7.859385013580322266e-02 -7.495273649692535400e-02 3.413221985101699829e-02 -4.868085309863090515e-02 1.368958689272403717e-02 6.612571328878402710e-02 -8.380074985325336456e-03 3.671925887465476990e-02 -2.841947227716445923e-02 -3.824625909328460693e-02 -3.127795457839965820e-02 -2.056116797029972076e-02 1.935097575187683105e-02 5.050350725650787354e-02 5.504203494638204575e-03 -3.363897278904914856e-02 -6.171944737434387207e-02 5.022312700748443604e-02 -8.730781264603137970e-03 -1.291793026030063629e-02 3.475143387913703918e-02 -4.940075054764747620e-02 -2.140592969954013824e-02 2.250269614160060883e-02 4.705734318122267723e-04 -1.578067988157272339e-02 4.302284494042396545e-02 -4.986613616347312927e-02 3.010507905855774879e-03 6.401593238115310669e-02 1.368143502622842789e-02 4.908566828817129135e-03 -1.126430463045835495e-02 -6.111615523695945740e-02 -2.203016355633735657e-02 1.466114819049835205e-02 4.889025911688804626e-02 -3.489978611469268799e-03 -3.187387064099311829e-02 5.102729424834251404e-02 -1.150711905211210251e-02 9.691363200545310974e-03 -2.982665784657001495e-02 -1.498393062502145767e-02 1.686477661132812500e-02 2.505842410027980804e-02 -2.150381915271282196e-02 7.166833430528640747e-02 7.956866174936294556e-03 1.306557003408670425e-02 -8.154791779816150665e-03 -4.842560365796089172e-02 -1.777072437107563019e-02 4.619396477937698364e-02 5.781921744346618652e-02 -8.129999041557312012e-03 3.824578970670700073e-02 -2.876038476824760437e-02 6.838618963956832886e-02 3.305404679849743843e-03 -2.132759243249893188e-02 -4.179205745458602905e-03 1.309062168002128601e-02 3.090968169271945953e-02 -2.524535357952117920e-02 -4.426111653447151184e-02 -2.664135955274105072e-02 9.323382377624511719e-02 -3.664557635784149170e-02 1.614546170458197594e-03 -6.434816401451826096e-03 4.087506234645843506e-02 -3.290001675486564636e-02 -3.046232834458351135e-02 -2.195807173848152161e-02 -7.504951674491167068e-03 3.143496438860893250e-02 5.448237806558609009e-02 3.592326538637280464e-03 -1.512628793716430664e-02 1.999602280557155609e-02 -2.344053238630294800e-02 3.894596174359321594e-02 -3.733080253005027771e-02 1.554128620773553848e-02 -1.890578493475914001e-02 2.009702660143375397e-02 -2.490116469562053680e-02 1.205121632665395737e-02 1.265908312052488327e-02 -2.798754023388028145e-03 -6.752488762140274048e-02 8.419359475374221802e-02 -2.019281312823295593e-02 7.680430263280868530e-02 -1.086673233658075333e-02 4.128840193152427673e-02 -1.854564622044563293e-02 -2.432695031166076660e-02 5.225323140621185303e-03 -6.585845351219177246e-02 -7.231303304433822632e-02 -3.064406663179397583e-02 -2.404977940022945404e-02 3.885645791888237000e-02 1.176911778748035431e-02 3.333544731140136719e-02 2.347121760249137878e-02 -2.960751950740814209e-02 1.776197459548711777e-03 1.908769831061363220e-02 -1.278690760955214500e-03 -1.395824924111366272e-02 3.942764922976493835e-02 2.415374666452407837e-02 -2.826146222651004791e-02 -1.637482084333896637e-02 1.488195545971393585e-02 -3.330317558720707893e-04 2.271296642720699310e-02 -2.302476018667221069e-02 -7.211529649794101715e-03 1.227978318929672241e-01 -6.129484251141548157e-02 2.480270341038703918e-03 -8.109367638826370239e-02 -7.613446563482284546e-02 7.957549678394570947e-05 2.501749433577060699e-02 1.105039287358522415e-02 2.498217858374118805e-03 -5.010890215635299683e-02 3.957068547606468201e-02 6.326436996459960938e-02 -1.014827378094196320e-02 5.368669703602790833e-02 7.838813960552215576e-02 1.842589490115642548e-02 -2.329676970839500427e-02 -4.434781149029731750e-02 5.772797018289566040e-02 -8.356530219316482544e-02 -7.387727499008178711e-03 1.824898459017276764e-02 3.260295838117599487e-02 -3.033857606351375580e-02 -4.431091248989105225e-03 -4.841923248022794724e-03 -7.345789577811956406e-03 -8.496380411088466644e-03 -1.953938789665699005e-02 -3.259495273232460022e-02 8.915464393794536591e-03 -2.330761402845382690e-02 4.355133324861526489e-02 1.487044617533683777e-02 3.094942495226860046e-02 2.426103316247463226e-02 -8.408775180578231812e-02 -2.350845187902450562e-02 -1.183184678666293621e-03 -1.143923588097095490e-02 -5.307540670037269592e-02 -5.346527695655822754e-02 -5.591567233204841614e-02 -3.103651339188218117e-03 3.784531354904174805e-02 3.386503830552101135e-02 -6.311460398137569427e-03 1.989571750164031982e-02 -2.849406562745571136e-02 -3.861997649073600769e-02 1.512446254491806030e-02 2.392609603703022003e-02 -2.089021168649196625e-02 3.696010261774063110e-02 -3.340074047446250916e-02 -3.521180478855967522e-03 1.301703043282032013e-02 9.253134019672870636e-03 -1.324520353227853775e-02 -2.479789219796657562e-02 -5.378829315304756165e-02 7.068683207035064697e-02 -3.807544708251953125e-02 -6.050933152437210083e-04 4.211938753724098206e-02 -2.259582839906215668e-02 -5.163785070180892944e-03 6.439555436372756958e-02 1.158543024212121964e-02 6.327112019062042236e-02 3.304677829146385193e-02 3.675133734941482544e-02 6.052108108997344971e-02 -8.356621488928794861e-03 -5.206425115466117859e-02 -5.673698335886001587e-02 7.156730443239212036e-02 6.028648093342781067e-02 9.762489236891269684e-03 3.292435035109519958e-02 -3.352030366659164429e-02 1.202022470533847809e-02 5.963424965739250183e-02 3.507723659276962280e-02 5.446233600378036499e-02 -1.018114108592271805e-02 -3.471197560429573059e-02 7.890344411134719849e-02 7.129812240600585938e-02 3.028283827006816864e-02 8.201759308576583862e-02 4.953542724251747131e-02 -1.992942579090595245e-02 1.147149875760078430e-02 5.713753774762153625e-02 2.351086586713790894e-02 -2.816806733608245850e-02 6.760320812463760376e-02 -3.931031562387943268e-03 -1.791121065616607666e-02 2.043034182861447334e-03 4.445634782314300537e-02 -5.787288397550582886e-02
-1.098368987441062927e-01 2.104673534631729126e-02 -4.314611479640007019e-02 -3.018711926415562630e-03 -9.695971384644508362e-03 7.170249521732330322e-02 -1.237415801733732224e-02 -8.587631396949291229e-03 4.842524975538253784e-02 -9.813859127461910248e-03 -4.582367092370986938e-02 3.900349885225296021e-02 -1.355115789920091629e-02 3.837807849049568176e-02 -1.337031833827495575e-02 -4.064128547906875610e-02 1.310785301029682159e-02 1.957846432924270630e-02 -7.915788888931274414e-02 3.238806128501892090e-02 8.304731547832489014e-02 -4.538409411907196045e-02 -1.138617750257253647e-02 1.328745298087596893e-02 -8.568890392780303955e-03 -5.248319357633590698e-03 -4.470587708055973053e-03 -3.158770129084587097e-02 -1.821093726903200150e-03 4.849047213792800903e-02 2.120997384190559387e-02 4.845290258526802063e-02 -1.294900756329298019e-02 -3.378084627911448479e-03 -4.212141409516334534e-02 1.274767238646745682e-02 4.337309673428535461e-02 -2.711636386811733246e-02 -2.857513725757598877e-02 1.744242012500762939e-02 7.074633240699768066e-02 8.562960661947727203e-03 1.327341143041849136e-02 -5.058962106704711914e-02 4.756464064121246338e-02 3.537928685545921326e-02 -1.423233840614557266e-02 2.315150387585163116e-02 8.143301121890544891e-03 2.402408048510551453e-02 -4.917084425687789917e-02 -8.095689862966537476e-02 -2.774995751678943634e-02 8.251944929361343384e-02 -4.614908620715141296e-02 3.678266424685716629e-03 -1.855298317968845367e-02 4.657768458127975464e-02 -6.252285838127136230e-02 -3.464571014046669006e-02 1.876967959105968475e-02 -6.849449127912521362e-03 2.994897030293941498e-02 -1.475744531489908695e-03 -4.418663308024406433e-02 4.729372635483741760e-02 -3.672526031732559204e-02 6.350822746753692627e-02 2.217110991477966309e-02 -8.442182093858718872e-03 -2.477869950234889984e-02 -3.450991120189428329e-03 -9.243256412446498871e-03 -4.315529018640518188e-02 -2.437439933419227600e-02 1.619192026555538177e-02 9.877381846308708191e-03 1.428966410458087921e-02 -1.446104142814874649e-02 -6.875456310808658600e-03 5.432220920920372009e-02 -8.558928966522216797e-03 -6.900829821825027466e-02 -4.777529835700988770e-02 -2.581189014017581940e-02 2.074254862964153290e-02 2.465797960758209229e-02 4.779154062271118164e-02 -2.407177351415157318e-02 4.057641327381134033e-02 -5.918195936828851700e-03 6.370333489030599594e-03 -4.496485739946365356e-02 -2.903599105775356293e-02 -7.639646530151367188e-03 -1.138242613524198532e-02 1.869432069361209869e-02 -8.300085365772247314e-02 -1.013375297188758850e-01 1.392542198300361633e-02 4.740756936371326447e-03 3.170903027057647705e-02 2.215825580060482025e-02 4.550983011722564697e-02 1.685345917940139771e-02 3.116458095610141754e-02 -1.291426713578402996e-03 4.109834879636764526e-02 5.548769980669021606e-02 -2.763011306524276733e-02 -6.793110072612762451e-02 -9.608393907546997070e-02 -3.636636305600404739e-03 -2.427003160119056702e-02 -9.762063622474670410e-03 -1.331278495490550995e-02 2.626510104164481163e-03 -6.042049080133438110e-02 -2.311209589242935181e-02 -4.382771439850330353e-03 3.999307006597518921e-02 2.028541825711727142e-02 5.267184600234031677e-02 5.481743812561035156e-02 -1.593722845427691936e-03 8.269647136330604553e-03 -1.396576501429080963e-02 -1.141764339990913868e-03 5.020325537770986557e-03 3.025242127478122711e-02 -6.892112642526626587e-02 -1.170781068503856659e-02 -3.628154844045639038e-02 -4.776648432016372681e-02 -5.086246877908706665e-03 -5.379833653569221497e-02 -2.027682727202773094e-03 2.732696942985057831e-02 3.302805870771408081e-02 -3.803461790084838867e-02 -7.578530907630920410e-02 -2.082166448235511780e-02 -6.262783426791429520e-03 8.814207103569060564e-05 2.009753882884979248e-02 2.955339662730693817e-02 3.934065811336040497e-03 -1.025974750518798828e-01 -5.872684717178344727e-02 1.468117162585258484e-02 2.297042123973369598e-02 1.647279039025306702e-02 -1.989403925836086273e-02 -2.308774506673216820e-03 -4.147100821137428284e-02 1.883442513644695282e-02 -4.057599231600761414e-02 -3.430584445595741272e-02 1.609296724200248718e-02 -1.042803749442100525e-03 4.732259362936019897e-02 -3.861513733863830566e-02 2.085325308144092560e-03 -3.365278244018554688e-02 -3.056716406717896461e-03 1.975457929074764252e-02 1.714750938117504120e-02 2.760859020054340363e-02 -6.945542525500059128e-03 -1.040221774019300938e-03 -8.252504467964172363e-02 -8.654960431158542633e-03 -3.731992468237876892e-02 2.542451582849025726e-02 1.232002116739749908e-02 -5.177078023552894592e-02 3.975341096520423889e-02 3.825793415307998657e-02 -1.885924674570560455e-02 5.967647954821586609e-02 -2.145917096640914679e-05 3.894185274839401245e-02 1.895556598901748657e-02 5.855782330036163330e-02 -3.330291062593460083e-02 -1.367942709475755692e-02 1.581176742911338806e-02 3.227628022432327271e-02 5.848483741283416748e-02 -1.368153002113103867e-02 2.720530703663825989e-02 -2.731630951166152954e-02 -8.193646371364593506e-02 6.691624969244003296e-02 -3.127475455403327942e-02 -5.452263355255126953e-02 -1.509045902639627457e-02 -3.930423781275749207e-02 -3.448113799095153809e-02 1.849810220301151276e-02 9.138496592640876770e-03 2.536270394921302795e-02 -5.744460225105285645e-02 -1.424327306449413300e-02 -5.459560081362724304e-03 1.194124575704336166e-02 2.501767128705978394e-02 -4.694175347685813904e-02 3.370132530108094215e-03 -6.276243180036544800e-02 -2.179577574133872986e-02 -8.800832182168960571e-02 -2.929458022117614746e-02 -4.382828250527381897e-02 2.719395235180854797e-02 3.930462524294853210e-02 -8.411139249801635742e-03 1.779263652861118317e-02 1.734458841383457184e-02 -1.254708133637905121e-02 5.444823205471038818e-02 -6.598509382456541061e-03 -6.766850501298904419e-02 -2.851986512541770935e-02 -1.689095981419086456e-03 1.815117336809635162e-02 -1.562845334410667419e-02 -3.220152854919433594e-02 -4.834533482789993286e-02 -1.910256594419479370e-02 3.155386447906494141e-02 5.844745412468910217e-02 4.618325456976890564e-02 -6.922365725040435791e-02 4.642975330352783203e-02 -4.085100721567869186e-03 2.818001434206962585e-02 1.973120495676994324e-02 -5.296611785888671875e-02 -1.772852428257465363e-02 -2.861200133338570595e-03 3.147015720605850220e-02 1.570599339902400970e-02 -3.382344916462898254e-02 3.934310749173164368e-02 2.333442494273185730e-02 -3.046282939612865448e-02 2.310320548713207245e-02 1.165928412228822708e-02 9.367272257804870605e-03 -9.145623072981834412e-03 -7.594209164381027222e-02 -4.640945047140121460e-02 5.041654780507087708e-02 9.601747617125511169e-03 -4.065254330635070801e-02
3.134772926568984985e-02 2.614680677652359009e-02 5.303962156176567078e-02 -2.227797638624906540e-03 -2.083385922014713287e-02 8.368463814258575439e-02 2.982523851096630096e-02 2.094145864248275757e-02 -1.024817116558551788e-02 -5.311750248074531555e-02 9.979190072044730186e-04 1.441254932433366776e-02 5.724287778139114380e-02 2.401060890406370163e-03 2.934286184608936310e-02 8.159577101469039917e-02 1.114950049668550491e-02 -5.077996477484703064e-02 -9.990887343883514404e-02 -4.035104531794786453e-03 -1.708780042827129364e-02 -3.929703310132026672e-02 -7.804878987371921539e-04 6.848427467048168182e-03 8.923515677452087402e-03 -1.441770233213901520e-02 5.071594379842281342e-03 6.259855628013610840e-02 -1.246810774318873882e-03 7.541878148913383484e-03 -1.854162476956844330e-02 -3.548406763002276421e-03 -3.855221718549728394e-02 -3.635994344949722290e-02 -9.430111385881900787e-03 -1.113700028508901596e-02 3.537557087838649750e-03 6.839145720005035400e-02 -5.628985539078712463e-02 5.239072069525718689e-02 -5.415219813585281372e-02 -1.696142740547657013e-02 -7.683516014367341995e-03 -7.939195632934570312e-02 5.736167356371879578e-02 2.201072871685028076e-02 7.137147337198257446e-02 -2.390918694436550140e-02 2.933881478384137154e-03 1.762504130601882935e-02 -2.704158611595630646e-02 -5.311385542154312134e-02 -5.716955289244651794e-02 1.124943122267723083e-01 -9.418979287147521973e-03 -5.611287429928779602e-03 -8.988557383418083191e-03 4.276131466031074524e-02 -1.476740278303623199e-02 3.847856447100639343e-02 3.185780486091971397e-03 5.159439146518707275e-02 -3.129834681749343872e-02 7.172743789851665497e-03 1.963027194142341614e-02 1.046902872622013092e-02 -5.153878405690193176e-02 -1.563677377998828888e-02 4.862055182456970215e-02 8.115519769489765167e-03 2.324353344738483429e-02 4.125075414776802063e-02 -7.438544183969497681e-03 1.171765476465225220e-02 8.685205131769180298e-02 -7.001467049121856689e-03 2.282408066093921661e-02 1.434753369539976120e-02 -1.744578592479228973e-02 -3.387770149856805801e-03 6.673752516508102417e-02 -2.290636673569679260e-02 -3.315582498908042908e-02 -8.990159258246421814e-03 -4.670476540923118591e-02 -8.327937684953212738e-03 7.042468339204788208e-02 -8.943139575421810150e-03 7.745867967605590820e-02 1.440118905156850815e-02 4.196918383240699768e-02 4.537977278232574463e-02 8.218024671077728271e-02 -2.463640645146369934e-02 -8.418774604797363281e-02 3.258004412055015564e-02 9.505336172878742218e-03 -4.074744135141372681e-02 5.745929479598999023e-02 6.581009831279516220e-03 9.236751124262809753e-03 -4.189177881926298141e-03 3.227299451828002930e-02 2.592972479760646820e-02 7.994494400918483734e-03 5.794399231672286987e-02 3.746272996068000793e-02 -1.044917553663253784e-01 2.937776036560535431e-02 6.989955902099609375e-03 -4.860500618815422058e-02 -5.132251977920532227e-02 1.415816601365804672e-02 -4.354047030210494995e-02 -6.593591999262571335e-03 -1.923535950481891632e-02 1.869192230515182018e-03 -8.410719037055969238e-02 3.413141937926411629e-03 -6.120597943663597107e-03 2.990668639540672302e-02 8.508001454174518585e-03 -1.839684322476387024e-02 4.009866714477539062e-02 -2.688403986394405365e-02 3.337755799293518066e-02 3.811815258814021945e-05 -2.098321914672851562e-02 1.117170602083206177e-02 1.951897330582141876e-02 -7.305049896240234375e-02 -1.671239035204052925e-03 -1.465082913637161255e-02 -2.958850376307964325e-02 -3.927804902195930481e-02 -6.066149473190307617e-02 -2.268124558031558990e-02 4.680131748318672180e-02 -2.900392189621925354e-02 -4.999917373061180115e-02 -3.585417568683624268e-02 -1.525244209915399551e-02 -2.983760647475719452e-02 -3.204094991087913513e-02 -3.183161839842796326e-02 8.056420087814331055e-02 7.141374051570892334e-02 -1.511951442807912827e-02 2.190928161144256592e-02 2.264150045812129974e-02 -2.199514769017696381e-02 4.274640232324600220e-02 -1.259259879589080811e-02 -1.623347215354442596e-02 1.212894730269908905e-02 1.670785434544086456e-02 -3.314953669905662537e-02 -3.577111288905143738e-02 6.465377518907189369e-04 -1.054608030244708061e-03 4.023498296737670898e-02 -6.195352971553802490e-02 2.394371293485164642e-02 2.046545222401618958e-02 -3.029573708772659302e-02 3.517105942592024803e-03 -2.731616422533988953e-02 -2.412170730531215668e-02 2.483641728758811951e-03 7.433145493268966675e-02 -3.205385804176330566e-02 -3.632578533142805099e-03 2.885054796934127808e-02 3.833587048575282097e-03 -2.532701753079891205e-02 -5.326791852712631226e-02 1.345769781619310379e-02 -3.768044710159301758e-02 -6.365597713738679886e-03 7.655508816242218018e-02 -2.602850872790440917e-05 1.008127350360155106e-02 3.467560932040214539e-02 2.061858586966991425e-02 3.724319487810134888e-02 7.049917709082365036e-03 -2.564123272895812988e-02 4.165311157703399658e-02 4.910384118556976318e-02 -5.465723201632499695e-02 -3.752815723419189453e-02 -4.494941793382167816e-03 4.359222948551177979e-03 2.714553102850914001e-02 -1.673909462988376617e-02 -6.608688086271286011e-02 -9.440341033041477203e-03 -2.155943587422370911e-02 -7.632134947925806046e-03 -3.398035094141960144e-02 9.791067242622375488e-02 -3.001721948385238647e-02 -1.583418995141983032e-02 -4.669137299060821533e-03 -4.865111783146858215e-02 1.903995126485824585e-02 2.414374053478240967e-02 2.654471434652805328e-02 6.578517059097066522e-05 -2.339057624340057373e-02 2.092291973531246185e-02 1.343084871768951416e-02 2.810462901834398508e-04 -3.493256494402885437e-02 5.702598020434379578e-02 4.672183468937873840e-02 2.587514556944370270e-02 -1.538212411105632782e-02 3.556367941200733185e-03 2.403068169951438904e-02 -2.570865675806999207e-03 1.723673939704895020e-02 -5.759483948349952698e-02 -1.640361919999122620e-02 -8.703328669071197510e-03 -2.531472593545913696e-02 2.102558314800262451e-02 -1.128395497798919678e-01 1.204964518547058105e-02 3.862426150590181351e-03 2.571700885891914368e-02 4.277447983622550964e-02 -1.072655990719795227e-02 -6.179507821798324585e-02 -2.559319697320461273e-02 3.869184479117393494e-02 -1.164285186678171158e-02 1.940348185598850250e-02 -1.280420459806919098e-02 -2.529042400419712067e-02 4.389084875583648682e-02 -4.259191453456878662e-02 -8.063625544309616089e-03 2.914749458432197571e-02 2.641519345343112946e-02 3.760124323889613152e-03 -1.921524293720722198e-02 3.502353280782699585e-02 1.992529630661010742e-02 5.514072999358177185e-02 -2.570917643606662750e-02 -9.018760174512863159e-02 1.238710433244705200e-02 4.220431204885244370e-03 -2.504696324467658997e-02 -1.357703586108982563e-03
-5.237223953008651733e-02 -7.466946728527545929e-03 -1.100101415067911148e-02 2.055752091109752655e-02 -1.714769378304481506e-02 -4.346033185720443726e-02 1.628643646836280823e-02 8.060463704168796539e-03 4.483950510621070862e-02 1.984385401010513306e-02 2.957350574433803558e-03 -2.906369045376777649e-02 -3.398720547556877136e-02 -4.912380594760179520e-03 -1.259011216461658478e-02 -1.387188769876956940e-02 9.920557495206594467e-04 3.322906792163848877e-02 4.670209437608718872e-02 9.511257521808147430e-03 1.946537010371685028e-02 -2.101399376988410950e-02 -1.063611265271902084e-02 -5.004782695323228836e-03 9.751875884830951691e-03 1.237760880030691624e-03 2.143022231757640839e-02 1.839600689709186554e-02 -9.677181020379066467e-03 -1.180720794945955276e-02 -5.955825559794902802e-03 7.336117327213287354e-03 -1.299247238785028458e-02 -2.759840898215770721e-02 7.859122706577181816e-04 1.767366193234920502e-02 7.296091411262750626e-03 4.795464128255844116e-02 -1.194720119237899780e-01 -1.251403056085109711e-02 4.550222307443618774e-02 3.075490891933441162e-02 -6.282401736825704575e-03 6.870023161172866821e-02 -4.959018528461456299e-02 1.286924164742231369e-02 -3.610016033053398132e-02 -3.144370019435882568e-02 1.557481475174427032e-03 -9.948070161044597626e-03 5.520280450582504272e-03 6.521698087453842163e-03 7.533773779869079590e-03 -8.796518668532371521e-03 -1.822526939213275909e-02 2.865419723093509674e-02 -2.301117219030857086e-02 -4.070553462952375412e-03 3.303601965308189392e-02 -3.832018747925758362e-02 1.418742910027503967e-02 -1.661902852356433868e-02 2.311450988054275513e-02 -3.616405278444290161e-02 3.101777285337448120e-02 6.893277168273925781e-02 1.470276387408375740e-03 -7.894700020551681519e-02 -3.721294179558753967e-02 5.427186843007802963e-03 -5.131130293011665344e-02 -2.321205846965312958e-02 -1.428932696580886841e-02 -3.874462470412254333e-02 -6.460479646921157837e-02 5.248532816767692566e-02 2.705766819417476654e-02 2.935680386144667864e-04 1.270495913922786713e-02 -3.447101265192031860e-02 7.359194010496139526e-02 8.094402030110359192e-03 -5.987156927585601807e-02 -4.160150419920682907e-03 -4.053118824958801270e-02 6.067945808172225952e-02 -1.354284118860960007e-02 -6.981074064970016479e-02 7.747427374124526978e-02 -3.832612559199333191e-02 -2.989418245851993561e-02 1.303435768932104111e-02 -3.826742246747016907e-02 -3.916619718074798584e-02 8.248282223939895630e-02 -1.611388474702835083e-02 -2.005461044609546661e-02 -4.143210593611001968e-03 1.341898343525826931e-03 -3.988865297287702560e-03 9.227613918483257294e-03 -6.129561923444271088e-03 -1.826154254376888275e-02 4.883677233010530472e-03 4.178994521498680115e-02 -3.365137381479144096e-03 1.730417483486235142e-03 6.610872223973274231e-03 2.461457252502441406e-02 -5.202251672744750977e-02 -4.396717622876167297e-02 1.165403947234153748e-01 -1.198144862428307533e-03 -1.680360175669193268e-02 9.226189926266670227e-03 2.661113627254962921e-02 -8.192907087504863739e-03 -2.857031114399433136e-02 9.204024448990821838e-03 -5.239448510110378265e-03 -3.389313118532299995e-03 1.038841344416141510e-02 1.226232647895812988e-01 2.557221800088882446e-02 2.220779843628406525e-02 3.166211396455764771e-02 -9.416191838681697845e-03 -3.805844113230705261e-02 4.351381957530975342e-02 -3.111426346004009247e-02 -1.665206067264080048e-02 1.474393438547849655e-02 -5.116389598697423935e-03 -7.369896024465560913e-02 1.351218856871128082e-02 1.755269616842269897e-02 1.531917601823806763e-02 -1.713155582547187805e-02 -4.698143806308507919e-03 3.139515966176986694e-02 -3.403364680707454681e-03 6.541576236486434937e-03 7.451806450262665749e-04 -6.923928856849670410e-03 4.088373854756355286e-02 2.232667431235313416e-02 3.217136859893798828e-02 5.585601925849914551e-02 -1.582113094627857208e-02 1.812749356031417847e-02 -4.170292243361473083e-02 3.351590409874916077e-02 2.413784898817539215e-02 -2.561058616265654564e-03 2.475303597748279572e-02 -3.757493197917938232e-02 -1.878282427787780762e-02 9.889485314488410950e-03 -8.476817049086093903e-03 -1.188485510647296906e-02 3.025965299457311630e-03 -3.289778903126716614e-02 -6.238232832401990891e-03 -1.298396009951829910e-02 3.521226719021797180e-02 -1.868643425405025482e-02 1.577222533524036407e-02 5.026392638683319092e-02 -3.182728961110115051e-02 -5.801122263073921204e-02 -9.824019856750965118e-03 7.334066182374954224e-02 1.306450553238391876e-02 -2.290097437798976898e-02 -9.056494571268558502e-03 2.104046940803527832e-02 1.484323013573884964e-02 1.147213205695152283e-02 5.630245804786682129e-02 3.534266492351889610e-03 -3.440227359533309937e-02 -5.861014127731323242e-02 -1.686573773622512817e-02 -4.346376657485961914e-02 -2.316659875214099884e-02 -1.081265043467283249e-02 -1.478005666285753250e-02 3.919437155127525330e-02 -2.076645940542221069e-02 -4.414334148168563843e-02 8.986701141111552715e-04 -3.833779692649841309e-02 -3.083746321499347687e-02 2.238519489765167236e-03 -5.347433034330606461e-03 1.349833700805902481e-02 -1.523150317370891571e-02 -3.134374693036079407e-02 7.340671867132186890e-02 -5.106342583894729614e-02 -1.709834113717079163e-02 -6.879492104053497314e-02 -2.041090978309512138e-03 -3.317991271615028381e-03 -7.400175090879201889e-03 -4.497792571783065796e-02 -1.703846082091331482e-02 5.685362219810485840e-02 -2.207179181277751923e-02 -4.960281774401664734e-02 2.182252332568168640e-02 6.854094099253416061e-03 5.255103111267089844e-03 -9.817981161177158356e-03 -2.711025066673755646e-02 -7.671463303267955780e-03 -4.435224458575248718e-02 -2.946996502578258514e-02 -2.173859067261219025e-02 -1.931086997501552105e-03 4.490082937991246581e-05 -3.198383003473281860e-02 -7.534642703831195831e-03 -7.928495854139328003e-02 -9.196755476295948029e-03 8.160850033164024353e-03 4.171405732631683350e-02 3.409133478999137878e-02 -2.249959483742713928e-02 -3.601504489779472351e-02 9.802616201341152191e-03 1.936081238090991974e-02 -1.811237540096044540e-03 -4.885942908003926277e-04 1.026998623274266720e-03 2.448505163192749023e-02 -1.880284585058689117e-02 -1.715850201435387135e-03 2.080829069018363953e-02 -4.044377058744430542e-02 -1.229354063980281353e-03 -1.614582026377320290e-03 2.580521814525127411e-02 5.307298619300127029e-03 6.011508870869874954e-03 6.431532674469053745e-04 -1.530562993139028549e-03 -2.712144888937473297e-02 -8.331392891705036163e-03 -3.330526128411293030e-02 -4.383496474474668503e-03 4.508656263351440430e-02 1.210149750113487244e-02 2.676653303205966949e-02 2.840439975261688232e-02 -7.552729803137481213e-04
1.808309927582740784e-02 -6.904368288815021515e-03 3.489724919199943542e-02 -2.124370448291301727e-02 1.120567508041858673e-02 7.309278938919305801e-03 -1.425981521606445312e-02 1.407573185861110687e-02 -4.966696142219007015e-04 -8.093107491731643677e-03 1.261933334171772003e-02 -6.024210527539253235e-02 8.679159916937351227e-03 -3.129494190216064453e-02 -1.762025989592075348e-03 1.664407551288604736e-03 -1.176828425377607346e-02 2.985425479710102081e-02 8.692848496139049530e-03 3.172301501035690308e-02 -4.149263724684715271e-03 -2.909770468249917030e-03 -9.369282051920890808e-03 -2.833189256489276886e-02 -6.330494768917560577e-03 2.285100147128105164e-02 -3.266831487417221069e-02 1.769965328276157379e-02 -1.765746274031698704e-03 -6.376503407955169678e-02 1.429200917482376099e-02 3.586560860276222229e-02 -5.555231869220733643e-02 3.095648437738418579e-02 4.171992093324661255e-02 -5.154329910874366760e-02 -1.981966942548751831e-02 2.513976581394672394e-02 -6.822238210588693619e-03 7.765802089124917984e-03 -1.465581636875867844e-02 -1.509723952040076256e-03 -1.311828847974538803e-02 -6.466260645538568497e-03 -3.043982014060020447e-02 -7.439476437866687775e-03 1.916245790198445320e-03 -1.265526935458183289e-02 -3.483097627758979797e-02 3.414441645145416260e-02 -9.925325401127338409e-03 3.337965160608291626e-02 -2.393804863095283508e-02 7.315876334905624390e-02 3.227578848600387573e-02 -1.696332357823848724e-02 -1.678259926848113537e-03 2.052819915115833282e-02 -3.238163515925407410e-02 -4.413457959890365601e-02 -1.561591122299432755e-02 8.173012174665927887e-03 -3.312380053102970123e-03 6.546576041728258133e-03 8.271132595837116241e-03 -1.394235994666814804e-02 -3.685641102492809296e-03 3.869032859802246094e-02 -2.828246355056762695e-02 2.631340362131595612e-02 -4.490287974476814270e-03 -2.639551647007465363e-02 -1.750479638576507568e-02 -3.317198716104030609e-03 2.583546563982963562e-02 5.420672893524169922e-02 -2.527474984526634216e-02 -2.847809530794620514e-02 8.504376746714115143e-03 6.648102402687072754e-02 -1.912255957722663879e-02 -8.889059536159038544e-03 7.173268496990203857e-02 2.709218068048357964e-03 9.243420325219631195e-03 8.052547462284564972e-03 6.408555060625076294e-02 2.911616116762161255e-02 3.123010881245136261e-02 1.752889342606067657e-02 -8.219809830188751221e-02 -2.789925225079059601e-02 -2.296861633658409119e-02 -1.237745117396116257e-02 1.200903020799160004e-02 1.563178375363349915e-02 2.466205693781375885e-02 4.582050815224647522e-02 -1.772732846438884735e-02 6.826432049274444580e-02 8.068095892667770386e-03 2.108762972056865692e-02 -5.708407238125801086e-02 -5.880484823137521744e-03 -6.190969143062829971e-04 2.823143452405929565e-02 -4.911053180694580078e-02 -2.778852730989456177e-02 -1.403869315981864929e-02 1.544033735990524292e-02 -6.003337912261486053e-03 1.149156317114830017e-02 -4.520842432975769043e-02 1.143786776810884476e-02 -4.743456467986106873e-02 -4.180939123034477234e-02 6.657854467630386353e-02 9.556270204484462738e-03 8.379557169973850250e-03 -3.680461272597312927e-02 -5.669421702623367310e-02 2.084133215248584747e-02 2.039926871657371521e-02 -4.975573625415563583e-03 -2.530653029680252075e-02 -1.330258231610059738e-02 -6.316941231489181519e-02 3.442086745053529739e-03 -2.367876656353473663e-02 2.001885510981082916e-02 -2.121626026928424835e-02 1.610121317207813263e-02 3.254843503236770630e-02 1.305659115314483643e-02 -1.399302668869495392e-02 6.857651285827159882e-03 1.447519659996032715e-02 2.316511794924736023e-02 -1.466527581214904785e-03 1.701900921761989594e-02 -7.751039694994688034e-03 -2.089540101587772369e-02 -1.645192876458168030e-02 3.000315465033054352e-02 1.189202442765235901e-02 2.290315367281436920e-02 -1.740440726280212402e-02 -2.205993793904781342e-02 -3.877561539411544800e-02 -2.184081263840198517e-02 1.974136801436543465e-03 -3.020771592855453491e-02 -1.259162183851003647e-02 -4.418398439884185791e-02 4.516521468758583069e-03 -2.118805237114429474e-02 1.638214476406574249e-02 2.522910758852958679e-02 5.754519626498222351e-02 4.088577628135681152e-02 -2.320170169696211815e-03 -7.463680114597082138e-03 3.947330266237258911e-02 3.774145152419805527e-03 -5.222129449248313904e-02 2.153781987726688385e-02 2.533419243991374969e-02 -3.227981552481651306e-02 3.023592010140419006e-02 -1.415857113897800446e-02 -1.362983230501413345e-02 -1.250718813389539719e-02 2.290842123329639435e-02 2.452380396425724030e-02 1.194840017706155777e-02 2.519142441451549530e-02 -4.170884378254413605e-03 4.820249602198600769e-02 -2.874527685344219208e-02 -2.514773607254028320e-02 -2.388760820031166077e-02 3.665139153599739075e-02 4.407169669866561890e-02 -2.582762017846107483e-02 -2.583987638354301453e-02 9.848274057731032372e-04 -7.165967486798763275e-03 5.701486952602863312e-03 6.564969196915626526e-03 1.234976109117269516e-03 1.503544207662343979e-02 1.678691618144512177e-02 -1.527465414255857468e-02 2.080079540610313416e-02 -3.207482770085334778e-02 1.006527617573738098e-02 -2.363176643848419189e-02 -1.318569201976060867e-02 -2.103185653686523438e-02 -6.414213031530380249e-02 -3.104442730545997620e-02 1.579176983796060085e-03 -1.393264718353748322e-02 -3.918606787919998169e-02 -3.847095370292663574e-02 -4.665082693099975586e-02 -3.418040648102760315e-02 -1.078032329678535461e-02 4.823470115661621094e-02 -2.139578573405742645e-02 -1.779249683022499084e-02 2.184517309069633484e-02 1.017427071928977966e-02 -1.239924598485231400e-02 -1.884549483656883240e-02 1.228318084031343460e-02 -3.036292083561420441e-02 3.471775352954864502e-02 -2.219528518617153168e-02 8.414971642196178436e-03 -1.088085491210222244e-02 -4.273999002180062234e-05 -1.177581492811441422e-02 1.968700671568512917e-03 -3.104048036038875580e-02 6.796369794756174088e-03 -3.250970318913459778e-02 -2.255828492343425751e-02 5.173804704099893570e-03 -1.925096288323402405e-02 5.412559257820248604e-04 1.380142103880643845e-02 1.163749955594539642e-03 -3.542105108499526978e-02 7.284295279532670975e-03 1.503659039735794067e-02 -1.405615545809268951e-02 4.970798268914222717e-03 3.748908266425132751e-02 5.663609132170677185e-02 -1.585869491100311279e-02 -4.870771896094083786e-03 3.523111576214432716e-03 1.853579096496105194e-02 -5.875947419553995132e-03 -3.700143471360206604e-02 4.528452083468437195e-02 -1.581135578453540802e-02 -1.480177138000726700e-02 -3.700612811371684074e-03 3.110023960471153259e-02 1.632473431527614594e-02 4.091463238000869751e-02 -1.723132096230983734e-02 -1.140355039387941360e-02 -1.400016993284225464e-02
8.466338366270065308e-02 2.668509632349014282e-02 -1.594839151948690414e-03 1.832807995378971100e-02 -2.954862080514431000e-02 -4.317400604486465454e-02 2.358410321176052094e-02 -4.450796917080879211e-02 6.768632680177688599e-03 -3.436890617012977600e-02 3.023603744804859161e-02 -5.763949081301689148e-02 -2.832365594804286957e-02 -3.619612008333206177e-02 -5.255661904811859131e-02 1.394646242260932922e-02 4.037721082568168640e-03 1.337759476155042648e-02 2.063502930104732513e-02 4.146106541156768799e-02 -5.012795329093933105e-02 3.930411487817764282e-02 -2.849476784467697144e-02 -6.419260799884796143e-02 3.450623247772455215e-03 9.185984730720520020e-03 -4.374668933451175690e-04 -5.757669918239116669e-03 -3.280241414904594421e-02 -3.075438924133777618e-02 -6.739825010299682617e-02 -7.484470307826995850e-02 -7.973560690879821777e-02 8.803066797554492950e-03 -3.935185819864273071e-02 -2.206834219396114349e-02 -5.714145675301551819e-02 -1.880361512303352356e-02 -5.619142204523086548e-03 -3.796508302912116051e-03 -8.978315442800521851e-02 -5.292774736881256104e-02 -3.689320385456085205e-02 8.544787764549255371e-03 1.737683825194835663e-02 -1.442415174096822739e-02 7.154555059969425201e-03 -3.846298204734921455e-03 8.955769985914230347e-02 -1.007887199521064758e-01 -1.038657780736684799e-02 6.147417798638343811e-02 -4.897119477391242981e-02 1.607180386781692505e-02 -1.022152528166770935e-01 2.090222388505935669e-02 2.070270478725433350e-02 6.102801486849784851e-02 3.152193874120712280e-02 -4.760385677218437195e-02 2.192808501422405243e-02 -3.878872841596603394e-02 -7.596089690923690796e-02 2.806682698428630829e-02 3.833662718534469604e-03 -3.319371864199638367e-02 -7.260017096996307373e-03 -2.643126994371414185e-02 -2.943685092031955719e-02 3.034992329776287079e-02 -5.471271276473999023e-02 -3.119259513914585114e-02 -8.139684796333312988e-02 -1.326166652143001556e-02 5.129877477884292603e-03 5.473474971950054169e-03 9.156970307230949402e-03 -2.695652469992637634e-02 -1.689605042338371277e-02 -8.052042126655578613e-02 4.274749755859375000e-02 -1.592145673930644989e-02 4.117609560489654541e-02 2.583044208586215973e-02 -5.393010750412940979e-02 -5.285004619508981705e-03 -4.249403625726699829e-02 -3.225595457479357719e-03 3.470170497894287109e-02 -3.098517656326293945e-02 -7.541511952877044678e-02 -4.939115047454833984e-02 2.234081970527768135e-03 -2.949213050305843353e-02 -2.776930481195449829e-02 -8.556725829839706421e-02 -3.843471407890319824e-02 7.879149913787841797e-02 -8.111982792615890503e-02 -1.070072781294584274e-02 3.465513139963150024e-02 -8.678983151912689209e-02 2.911787480115890503e-02 -3.484241291880607605e-02 1.394321490079164505e-02 1.994274556636810303e-02 -3.398995846509933472e-02 -4.783091321587562561e-02 -6.748226284980773926e-02 -5.448400601744651794e-02 -2.797961607575416565e-02 3.370681032538414001e-02 6.856376677751541138e-02 3.579524112865328789e-03 3.328655287623405457e-02 7.967974059283733368e-03 -4.191464185714721680e-02 4.042107239365577698e-02 -5.446757748723030090e-02 -7.785687595605850220e-02 -9.129014797508716583e-03 -7.099068164825439453e-02 2.051980234682559967e-02 8.407328277826309204e-02 1.568155363202095032e-02 -5.929641425609588623e-02 -3.388097882270812988e-02 -2.184885926544666290e-02 -4.459669813513755798e-02 6.524764001369476318e-02 2.849354036152362823e-02 -2.248029923066496849e-03 5.068770423531532288e-02 -5.397895723581314087e-02 -9.653871506452560425e-02 5.457212775945663452e-02 2.611395204439759254e-03 -1.793657802045345306e-02 -3.112239949405193329e-02 1.014125160872936249e-02 -6.487742532044649124e-03 -9.273487329483032227e-02 -1.981916837394237518e-02 4.090002737939357758e-03 6.080188974738121033e-02 -1.488494314253330231e-02 1.850034482777118683e-02 4.913658834993839264e-03 1.740097999572753906e-02 8.905657380819320679e-02 -2.990150079131126404e-02 4.206613823771476746e-02 -6.495092064142227173e-02 4.317047074437141418e-03 -7.211879640817642212e-02 -5.198961123824119568e-02 4.067384451627731323e-02 -1.491450518369674683e-02 -9.218966215848922729e-02 -8.032075315713882446e-02 -3.768339380621910095e-02 -8.131247945129871368e-03 1.863171346485614777e-02 3.895060718059539795e-02 8.188217878341674805e-03 4.552198573946952820e-02 -3.128377720713615417e-02 -3.450772911310195923e-02 1.886587031185626984e-02 1.952800527215003967e-02 1.919649168848991394e-02 3.842041129246354103e-03 -1.856740191578865051e-02 -2.781168930232524872e-02 1.339351572096347809e-02 -2.604748494923114777e-02 -8.427969366312026978e-02 -9.443011134862899780e-02 3.579880669713020325e-02 -3.453038260340690613e-02 -5.910748243331909180e-02 -2.011683210730552673e-02 2.545608766376972198e-02 5.560926347970962524e-02 -6.696642190217971802e-02 3.797632176429033279e-03 -1.079010739922523499e-01 2.847279235720634460e-02 9.224053937941789627e-04 -2.690717764198780060e-02 3.365715965628623962e-02 9.795122593641281128e-02 3.652546927332878113e-02 9.074642322957515717e-03 4.371695220470428467e-02 -2.179353497922420502e-02 -7.848914712667465210e-03 -3.027112968266010284e-02 -9.722005575895309448e-03 1.187527738511562347e-02 -3.064587153494358063e-02 3.529032692313194275e-02 2.115103183314204216e-03 -7.744279224425554276e-03 -2.319621853530406952e-02 -2.691088430583477020e-02 -5.276318266987800598e-02 2.768281102180480957e-02 -5.173590406775474548e-02 4.423253238201141357e-02 -5.628407374024391174e-02 -5.922692641615867615e-02 -4.080569371581077576e-02 -3.977698832750320435e-02 -5.111452937126159668e-02 6.238810718059539795e-02 6.821266375482082367e-03 -4.132276400923728943e-02 2.966743661090731621e-03 -6.300973147153854370e-02 6.637571752071380615e-02 -3.531294688582420349e-02 2.372859045863151550e-02 -1.059218402951955795e-02 2.258891798555850983e-02 -1.740630343556404114e-02 2.033443161053583026e-04 -6.080234888941049576e-03 -2.921102382242679596e-02 1.085106562823057175e-02 5.519003793597221375e-02 -9.169302880764007568e-02 -6.344576179981231689e-02 3.650232031941413879e-02 1.484104841947555542e-01 -2.736168913543224335e-02 2.648383006453514099e-02 -4.199692513793706894e-03 -7.318544387817382812e-02 2.323650941252708435e-02 4.195487871766090393e-02 -4.669773858040571213e-03 5.017364770174026489e-02 -3.154338896274566650e-02 2.814918570220470428e-02 2.644922211766242981e-02 -5.329745355993509293e-03 -8.507171273231506348e-02 -1.366617344319820404e-02 2.844443777576088905e-03 2.349622175097465515e-02 1.487296074628829956e-03 -4.986493289470672607e-02 1.074451133608818054e-01 4.771473351866006851e-03 -3.027874231338500977e-02
-6.826523691415786743e-02 1.381084090098738670e-03 -8.972123265266418457e-03 1.414581108838319778e-02 2.096568048000335693e-02 1.916674152016639709e-02 -4.574096947908401489e-02 -1.084764138795435429e-03 1.778343576006591320e-03 6.425124127417802811e-03 -4.060252755880355835e-02 1.103465072810649872e-02 -3.847050294280052185e-02 -6.231784075498580933e-02 -4.919498786330223083e-02 -3.547143563628196716e-02 -1.781353913247585297e-02 -2.075206488370895386e-02 4.025108367204666138e-02 -1.852012239396572113e-02 3.789658099412918091e-02 8.290155790746212006e-03 3.486363962292671204e-02 -8.263422176241874695e-03 -2.580085024237632751e-02 -7.498159259557723999e-02 1.123910099267959595e-01 -1.134949736297130585e-02 5.192951858043670654e-02 2.636972256004810333e-02 -4.813863709568977356e-02 -7.019203156232833862e-02 3.311154618859291077e-02 -8.127023465931415558e-03 -4.144484177231788635e-03 1.346306782215833664e-02 -4.002163931727409363e-02 -4.553200677037239075e-02 -4.877290222793817520e-03 -2.811272256076335907e-02 3.932503983378410339e-02 -1.367400679737329483e-02 -2.166519127786159515e-02 -5.765514820814132690e-02 1.079597324132919312e-02 3.010617569088935852e-02 -1.839970238506793976e-02 -6.715062074363231659e-03 5.282383784651756287e-02 -3.504490479826927185e-02 -2.253885395475663245e-05 -1.174800004810094833e-02 -5.893385410308837891e-02 8.920393139123916626e-02 -6.631356477737426758e-02 -9.515412151813507080e-03 -3.393393382430076599e-02 2.527188509702682495e-03 9.082349715754389763e-04 -1.737076416611671448e-02 -4.303807020187377930e-02 1.443691086024045944e-02 3.125862858723849058e-04 -2.558101527392864227e-02 -9.659052640199661255e-02 2.822472527623176575e-02 3.973861038684844971e-02 -1.970064640045166016e-02 -4.674513638019561768e-02 -3.318367153406143188e-02 6.950005423277616501e-03 -5.125399678945541382e-02 -3.429361432790756226e-02 2.685730718076229095e-02 -3.377493470907211304e-02 1.696294359862804413e-02 -5.969321355223655701e-02 3.969027660787105560e-03 7.423791289329528809e-02 1.329342741519212723e-02 4.384654574096202850e-03 -6.352476775646209717e-02 -2.511347271502017975e-02 -1.299780979752540588e-02 -7.198155671358108521e-02 -2.250694856047630310e-02 -4.001037403941154480e-02 2.530280500650405884e-02 3.000909648835659027e-02 -3.306267037987709045e-02 -3.851482644677162170e-03 -1.373532414436340332e-02 -4.647842608392238617e-03 -9.151268750429153442e-02 5.318347364664077759e-03 5.376470834016799927e-02 3.284706547856330872e-02 3.142963722348213196e-02 -7.839649915695190430e-02 2.120282128453254700e-02 9.495250135660171509e-02 -5.329098552465438843e-03 -5.591950565576553345e-02 -6.160305440425872803e-02 -4.654413834214210510e-02 3.570052608847618103e-02 -1.164279785007238388e-02 4.356629028916358948e-02 7.292935997247695923e-02 -4.596428945660591125e-03 -1.272044260986149311e-03 -3.159293904900550842e-02 5.551233142614364624e-02 1.935283094644546509e-02 -2.426602132618427277e-02 4.791015759110450745e-03 5.709603428840637207e-02 -7.510246708989143372e-03 1.768542081117630005e-02 -3.952055238187313080e-03 -1.719528250396251678e-02 -1.155607635155320168e-03 3.812200389802455902e-03 2.404212392866611481e-02 6.100418418645858765e-02 1.410645246505737305e-02 -2.315085195004940033e-02 3.886540979146957397e-02 2.611932530999183655e-02 -6.545923650264739990e-02 2.376508712768554688e-02 -1.867792755365371704e-02 2.639680914580821991e-02 2.027637138962745667e-02 -1.598338410258293152e-02 -2.144013531506061554e-02 -9.347328916192054749e-03 8.397197723388671875e-02 -4.729419015347957611e-04 -2.162479981780052185e-02 7.215140853077173233e-03 3.067960962653160095e-02 -6.223382800817489624e-02 -4.288186877965927124e-02 2.664726786315441132e-02 1.167914550751447678e-02 -7.968248799443244934e-03 -3.380330512300133705e-03 -3.065916337072849274e-02 7.834677398204803467e-02 -8.460885286331176758e-02 -7.032518088817596436e-02 -4.850302636623382568e-02 -8.673442155122756958e-02 -1.278231665492057800e-02 3.802946582436561584e-02 -1.668191701173782349e-02 5.802042409777641296e-02 -5.358026828616857529e-03 -1.989127136766910553e-02 -7.560372352600097656e-02 -8.220438845455646515e-03 -9.323910810053348541e-03 8.353069424629211426e-03 -4.866715893149375916e-02 -2.260240353643894196e-02 1.183485332876443863e-02 8.359691500663757324e-02 -4.939235374331474304e-02 -6.362862186506390572e-04 6.453565787523984909e-03 2.274338901042938232e-02 -3.909450024366378784e-02 7.907859981060028076e-03 -3.761023655533790588e-02 4.828161373734474182e-02 8.863999694585800171e-02 3.530655428767204285e-02 -4.759993869811296463e-03 -1.513541955500841141e-02 3.795933350920677185e-02 3.366785356774926186e-03 7.994346669875085354e-04 -3.708577156066894531e-02 1.042243372648954391e-02 -1.860988698899745941e-02 1.210588961839675903e-02 -3.720007091760635376e-02 -4.765672143548727036e-03 -3.003925457596778870e-02 -3.200399875640869141e-02 8.464201353490352631e-03 -1.107024867087602615e-02 -1.259425748139619827e-02 -6.461979448795318604e-02 5.184683203697204590e-02 6.570001132786273956e-03 -2.935996837913990021e-02 -1.444986183196306229e-02 3.738219663500785828e-02 -5.285061150789260864e-02 -3.973264619708061218e-02 -5.401809886097908020e-02 2.383517846465110779e-02 1.002705097198486328e-01 1.940242201089859009e-02 -2.559898234903812408e-02 1.035832799971103668e-02 -5.910110473632812500e-02 5.303139798343181610e-03 2.200738526880741119e-03 -9.674044325947761536e-03 -4.090322647243738174e-03 7.820880971848964691e-03 -1.830703020095825195e-02 1.321597676724195480e-02 -1.167579554021358490e-03 -4.666188359260559082e-02 2.265790477395057678e-03 3.782743588089942932e-02 3.119676932692527771e-02 -2.570034004747867584e-02 -2.711461484432220459e-02 2.735408721491694450e-03 -7.445218414068222046e-02 -3.357946872711181641e-03 3.148750960826873779e-02 -7.808330468833446503e-03 2.878836542367935181e-02 -3.205132111907005310e-02 -5.877278745174407959e-02 -1.465471740812063217e-02 -3.201955556869506836e-02 -2.194888330996036530e-02 -1.156382076442241669e-02 -1.053274143487215042e-02 -1.002051308751106262e-02 -1.540722604840993881e-02 3.360087051987648010e-02 -3.911480680108070374e-02 3.697443380951881409e-02 -4.488202743232250214e-03 -3.387669101357460022e-02 7.010952103883028030e-03 2.901729382574558258e-02 -2.003971301019191742e-02 4.974673688411712646e-02 3.510641679167747498e-02 8.369847387075424194e-02 2.544772252440452576e-02 -2.674979390576481819e-03 7.240638369694352150e-04 2.480794861912727356e-02 6.656333059072494507e-02 4.714559763669967651e-02 -6.397207081317901611e-02
9.862237423658370972e-02 -5.951200798153877258e-02 9.322884492576122284e-03 -4.167589917778968811e-02 5.404479056596755981e-02 5.119221284985542297e-03 -3.777961060404777527e-02 1.879367418587207794e-02 2.249803207814693451e-02 1.308045536279678345e-02 -2.249304763972759247e-02 1.704508066177368164e-02 1.793111488223075867e-02 -5.161934345960617065e-02 1.701425760984420776e-02 5.886870995163917542e-02 -7.718177884817123413e-02 2.621452556923031807e-03 1.996205002069473267e-02 1.738571003079414368e-02 -5.014891549944877625e-02 8.727469481527805328e-03 2.304755151271820068e-02 1.510842586867511272e-03 3.353765979409217834e-02 -6.774371955543756485e-03 7.248445600271224976e-02 -4.169270396232604980e-02 -8.071824163198471069e-02 6.957864388823509216e-03 -4.991701617836952209e-02 -3.699811547994613647e-02 1.142617035657167435e-02 8.601224422454833984e-02 -7.463817298412322998e-02 -3.750270605087280273e-02 -4.364431276917457581e-02 2.563736960291862488e-02 5.664864927530288696e-02 -1.016398705542087555e-02 -7.703070342540740967e-02 1.819387450814247131e-02 -3.521435707807540894e-02 3.398276865482330322e-02 3.381697461009025574e-02 3.582096844911575317e-02 5.111479549668729305e-04 -8.538347668945789337e-03 4.754206538200378418e-02 -1.007764711976051331e-01 -2.684818580746650696e-02 2.696736343204975128e-02 -5.992833897471427917e-02 4.485331475734710693e-02 2.724259975366294384e-04 -1.977516949409618974e-04 -4.187893494963645935e-02 -4.605773463845252991e-02 -6.424892693758010864e-03 5.832171998918056488e-03 -3.173271939158439636e-02 6.351418327540159225e-03 -3.283469378948211670e-02 1.585837453603744507e-02 2.545444481074810028e-02 -5.989492870867252350e-03 1.981827802956104279e-02 -5.454861093312501907e-03 -4.613389447331428528e-02 -2.010290697216987610e-02 3.719068691134452820e-02 -3.117693029344081879e-02 -7.647895719856023788e-03 5.905071273446083069e-03 -8.788730017840862274e-03 -3.824374824762344360e-02 7.862628437578678131e-03 9.504067711532115936e-03 -2.750789048150181770e-03 -3.054363466799259186e-02 -1.649706042371690273e-03 -2.990210428833961487e-02 -2.205419540405273438e-02 4.948561266064643860e-02 3.264499129727482796e-03 3.729968145489692688e-02 -6.650637835264205933e-02 4.973035678267478943e-02 4.574825242161750793e-02 2.930491929873824120e-03 1.836215332150459290e-02 -1.031389646232128143e-02 2.466285042464733124e-02 -3.383032977581024170e-02 1.153260935097932816e-02 -5.543298088014125824e-03 -1.150832045823335648e-02 2.023661509156227112e-02 -4.750230535864830017e-02 -4.768440965563058853e-03 6.761319190263748169e-02 8.010839112102985382e-03 -6.282692402601242065e-02 -2.202594652771949768e-02 3.280462697148323059e-03 3.544742241501808167e-03 -5.555883422493934631e-02 -4.218085855245590210e-02 2.691394463181495667e-02 3.780099796131253242e-03 1.480552251450717449e-03 4.318557307124137878e-02 -3.249280899763107300e-02 2.323879860341548920e-02 -2.993009751662611961e-03 4.051890969276428223e-02 -5.306846648454666138e-02 2.855429775081574917e-04 -3.241245448589324951e-02 1.188886468298733234e-03 -4.669677466154098511e-02 1.010209321975708008e-02 -3.394942358136177063e-02 1.461182627826929092e-02 1.599805057048797607e-02 4.358508810400962830e-02 1.865765824913978577e-02 -2.671124041080474854e-02 -2.177180722355842590e-02 -8.152400702238082886e-02 -7.723103044554591179e-04 -1.576552283950150013e-03 3.079969994723796844e-02 3.144802153110504150e-02 2.982410788536071777e-02 3.453170508146286011e-02 1.932862587273120880e-02 9.014385193586349487e-02 -7.278289645910263062e-02 -6.393120437860488892e-02 5.071640759706497192e-02 9.011578746140003204e-03 -1.314434967935085297e-02 -5.403468385338783264e-02 7.049756497144699097e-02 2.633794397115707397e-02 -1.731182634830474854e-02 6.009048316627740860e-03 -6.283840164542198181e-03 6.711164861917495728e-02 -6.162206828594207764e-02 -4.578761011362075806e-02 -1.574933715164661407e-02 2.242286223918199539e-03 2.713309973478317261e-02 1.455527823418378830e-02 4.634567536413669586e-03 -1.518956385552883148e-02 4.735888505820184946e-04 -5.315862596035003662e-02 -9.091987460851669312e-02 3.087165206670761108e-02 2.424282766878604889e-02 -3.158588334918022156e-02 -2.724775671958923340e-02 7.955643348395824432e-03 4.056819155812263489e-02 4.167803004384040833e-02 -2.534676715731620789e-02 -3.817259147763252258e-02 7.886896282434463501e-02 4.014826845377683640e-03 -1.863204315304756165e-02 2.351183444261550903e-02 3.349594539031386375e-03 6.779610365629196167e-02 -3.017948940396308899e-02 -8.127404749393463135e-02 5.105942115187644958e-02 2.152340672910213470e-02 -1.582529954612255096e-02 -1.925290562212467194e-02 -2.530130557715892792e-02 1.692901737987995148e-02 1.175995264202356339e-02 -1.825142465531826019e-02 -3.057312034070491791e-02 -1.282355748116970062e-02 2.961324714124202728e-02 -3.986417874693870544e-02 -3.413113579154014587e-02 7.244890928268432617e-02 -2.338019758462905884e-02 -3.813751973211765289e-03 -5.146352574229240417e-02 4.292802140116691589e-02 8.977463468909263611e-03 9.774450212717056274e-03 1.428770273923873901e-02 -4.612629860639572144e-02 -1.867421902716159821e-02 1.985652185976505280e-02 -3.101719170808792114e-02 4.251347482204437256e-02 5.603133887052536011e-02 -7.681865710765123367e-03 1.503498386591672897e-02 2.762067317962646484e-02 -2.556655555963516235e-02 5.252563580870628357e-02 3.239126503467559814e-02 6.588795036077499390e-02 -4.539693519473075867e-02 -3.039862774312496185e-02 -2.222428331151604652e-03 1.409198343753814697e-02 1.658373326063156128e-02 9.207669645547866821e-03 -9.060081839561462402e-02 -2.269845083355903625e-02 4.014956951141357422e-02 4.396536201238632202e-02 1.830741018056869507e-02 -2.087685093283653259e-02 -4.505655542016029358e-02 5.871750763617455959e-04 4.352259275037795305e-04 -4.730503633618354797e-02 -3.777470067143440247e-02 1.844867877662181854e-02 1.742924377322196960e-02 1.737171411514282227e-02 -7.060736417770385742e-02 -1.238425169140100479e-02 -6.219169124960899353e-02 -4.962630104273557663e-03 1.434640027582645416e-02 2.861600182950496674e-02 3.847973793745040894e-02 -2.530565485358238220e-02 -2.434667013585567474e-02 -3.037302568554878235e-02 -3.889683634042739868e-02 -3.771069645881652832e-02 -8.035263046622276306e-03 -3.218193352222442627e-02 4.979845136404037476e-02 1.395557913929224014e-02 -4.539342969655990601e-02 4.017407819628715515e-02 4.380195960402488708e-02 -2.936990372836589813e-02 -2.930413465946912766e-03 -7.877693325281143188e-02 3.646773099899291992e-02 -4.607849940657615662e-02
-3.462748602032661438e-02 3.923949971795082092e-02 4.511712118983268738e-02 4.367147758603096008e-02 2.852375246584415436e-02 1.474755816161632538e-02 -3.290140628814697266e-02 -4.699334036558866501e-03 -2.291853539645671844e-02 -4.175490885972976685e-02 -2.404544875025749207e-02 -1.159055996686220169e-02 -1.197277288883924484e-02 -2.654915861785411835e-02 -8.150551468133926392e-03 -5.251706019043922424e-02 -7.589577883481979370e-02 3.984455391764640808e-02 3.542884811758995056e-02 -1.535520795732736588e-02 5.590351670980453491e-02 1.763638481497764587e-02 1.012908816337585449e-01 -4.898931086063385010e-02 1.890510693192481995e-02 4.130907729268074036e-02 4.761138558387756348e-02 3.827152401208877563e-02 -5.419791862368583679e-02 5.606903228908777237e-03 -5.199761129915714264e-03 -1.170723792165517807e-02 1.991796121001243591e-02 4.509909451007843018e-02 1.619021035730838776e-02 -2.075752243399620056e-02 -2.925825119018554688e-02 3.210689127445220947e-02 2.502681128680706024e-02 4.321464523673057556e-02 -6.657926738262176514e-02 3.770441934466362000e-02 8.054825663566589355e-02 2.274992689490318298e-02 1.987613923847675323e-02 -1.425952301360666752e-03 -9.857050608843564987e-04 -1.987980678677558899e-02 -2.166593261063098907e-02 2.289540693163871765e-02 5.824488471262156963e-04 6.180417258292436600e-04 -1.366508007049560547e-02 2.421147003769874573e-02 -4.453170672059059143e-02 3.490616381168365479e-02 -4.520709812641143799e-02 -6.108654662966728210e-03 4.538835957646369934e-02 2.395903691649436951e-02 3.791386261582374573e-03 8.238127827644348145e-02 -2.485341019928455353e-02 3.141023963689804077e-02 -4.473188519477844238e-02 -2.497563511133193970e-02 -4.688506945967674255e-02 2.379491552710533142e-02 3.661348670721054077e-02 -3.108525415882468224e-03 3.369206562638282776e-02 1.951652113348245621e-03 -1.354853389784693718e-03 -1.309548318386077881e-02 1.013688161037862301e-03 -2.353479340672492981e-02 -5.773333460092544556e-02 -8.301033824682235718e-02 -3.565242886543273926e-02 -3.069959208369255066e-02 1.194711476564407349e-01 -1.789579540491104126e-02 -1.127772871404886246e-02 2.018139325082302094e-02 -4.468496423214673996e-03 2.445014193654060364e-02 -5.627183988690376282e-02 -3.381254151463508606e-02 -7.038190029561519623e-03 1.744020171463489532e-02 2.466957084834575653e-02 5.232159048318862915e-02 -5.017615109682083130e-02 -1.738692820072174072e-02 -1.533736847341060638e-02 -5.498490482568740845e-02 -2.538830041885375977e-03 1.926722377538681030e-02 1.459180004894733429e-02 -2.621351554989814758e-02 5.445380881428718567e-02 -4.376569017767906189e-02 4.381942003965377808e-02 1.834230683743953705e-02 1.208851858973503113e-02 1.665582694113254547e-02 -3.187427669763565063e-02 -1.432145386934280396e-02 2.497499249875545502e-02 -2.342656813561916351e-02 -3.593693301081657410e-02 -1.595823280513286591e-02 2.948165312409400940e-02 -1.085773948580026627e-02 9.148148819804191589e-04 -2.527493610978126526e-02 -5.010362714529037476e-02 1.225046114996075630e-03 -4.167364165186882019e-02 7.292661815881729126e-02 6.025885045528411865e-02 6.698963046073913574e-02 -1.033704914152622223e-02 -1.843884401023387909e-02 -8.332881261594593525e-04 3.059354983270168304e-02 5.058458819985389709e-02 2.056649513542652130e-02 2.320336736738681793e-02 -5.516273435205221176e-03 6.332396063953638077e-03 2.940430492162704468e-02 -4.654350876808166504e-02 -1.088440231978893280e-02 6.448505818843841553e-02 3.936961293220520020e-02 5.004853010177612305e-02 3.331830352544784546e-02 1.780682615935802460e-02 1.142435520887374878e-01 -4.305523633956909180e-02 1.527389511466026306e-02 4.777149483561515808e-02 -5.283640697598457336e-02 -6.734153255820274353e-03 3.773567453026771545e-02 1.471037510782480240e-02 -6.929162889719009399e-03 -1.142780389636754990e-02 -1.706007868051528931e-02 7.706468552350997925e-02 -8.161542564630508423e-02 -3.641925007104873657e-02 -1.109179854393005371e-01 1.475809514522552490e-02 3.270684927701950073e-02 6.330960895866155624e-03 7.296920754015445709e-03 6.027325987815856934e-02 -3.480652719736099243e-02 -3.128566965460777283e-02 2.542116120457649231e-02 1.361982058733701706e-02 -1.903877034783363342e-02 -7.794027030467987061e-02 4.607726261019706726e-02 -2.991096489131450653e-02 -3.314047306776046753e-02 -6.450224202126264572e-03 1.912823691964149475e-02 3.024853952229022980e-02 -1.737729832530021667e-02 -3.588101640343666077e-02 2.660101465880870819e-02 -2.144109224900603294e-03 -7.860796898603439331e-02 3.292782464995980263e-03 -2.045777067542076111e-02 1.186780184507369995e-01 9.850499918684363365e-04 -4.557022824883460999e-02 4.897243529558181763e-02 7.525026332587003708e-03 -7.363526150584220886e-03 -4.553658887743949890e-02 -1.414053738117218018e-01 -6.971618533134460449e-02 -4.596838261932134628e-03 2.843016013503074646e-02 -3.275014692917466164e-03 -1.679571531713008881e-02 -3.988721873611211777e-03 -2.555798506364226341e-03 3.150243312120437622e-02 -9.645936079323291779e-03 -3.164551407098770142e-02 1.425960753113031387e-02 3.760537877678871155e-02 -3.033639397472143173e-03 -1.634993031620979309e-02 2.186147123575210571e-02 -3.111425228416919708e-02 2.059553377330303192e-02 7.147470861673355103e-02 4.686364904046058655e-02 -3.063656017184257507e-02 2.359291911125183105e-02 -5.101469345390796661e-03 -5.920330062508583069e-02 -3.866794705390930176e-02 2.156890928745269775e-02 -1.491697621531784534e-03 -6.466872990131378174e-03 3.041685745120048523e-02 5.892293155193328857e-02 7.420370727777481079e-02 6.629500538110733032e-03 -4.976792115485295653e-05 -6.617074459791183472e-02 -3.994622081518173218e-02 5.806801840662956238e-03 5.006165429949760437e-02 -5.827577784657478333e-03 -2.075797878205776215e-02 -4.317972064018249512e-02 -2.064893394708633423e-02 -5.675275623798370361e-02 -2.195359393954277039e-02 5.450085271149873734e-03 1.229879446327686310e-03 8.055740967392921448e-03 -8.511275984346866608e-03 -6.066831201314926147e-02 -4.611641168594360352e-02 2.635268308222293854e-02 -3.468160284683108330e-03 8.309654146432876587e-02 1.839488372206687927e-02 -3.377420082688331604e-02 -5.583117902278900146e-02 7.828717119991779327e-03 -6.046141311526298523e-02 1.837873272597789764e-02 9.225366264581680298e-02 6.509757600724697113e-03 1.996196061372756958e-02 6.686680018901824951e-02 -1.921569928526878357e-02 -7.937658578157424927e-03 -1.672453247010707855e-02 4.736377671360969543e-02 2.110663242638111115e-02 -5.401986837387084961e-02 -8.487891405820846558e-03 -1.043796259909868240e-02 -2.172814123332500458e-02
7.442428171634674072e-02 2.376747503876686096e-02 3.947941213846206665e-02 -1.152575463056564331e-01 4.314180836081504822e-02 -3.040473349392414093e-02 1.603057794272899628e-02 -3.352135792374610901e-02 -1.264501735568046570e-02 -5.443486385047435760e-03 -3.050817735493183136e-02 9.189704433083534241e-03 5.307088419795036316e-02 4.162607714533805847e-02 1.606656797230243683e-02 2.825311943888664246e-02 7.598076760768890381e-02 7.559831254184246063e-03 -1.629134267568588257e-02 1.268833279609680176e-01 -2.825888246297836304e-02 -6.358902901411056519e-02 4.619471728801727295e-02 -9.564705193042755127e-02 -2.718272805213928223e-02 -8.657719194889068604e-02 -7.471529394388198853e-02 -5.766087560914456844e-04 -6.596103310585021973e-02 -6.269399821758270264e-02 1.094186119735240936e-02 -6.334702484309673309e-03 -5.438443273305892944e-03 -3.112181276082992554e-02 -4.032732918858528137e-02 -5.431559402495622635e-03 3.266487270593643188e-02 1.794058084487915039e-02 4.312342405319213867e-02 -3.849363327026367188e-02 -1.059833914041519165e-01 3.578480705618858337e-02 3.289009258151054382e-02 1.057384628802537918e-02 -2.695807022973895073e-03 -3.020129166543483734e-02 1.291625574231147766e-02 -1.093302480876445770e-02 1.234981883317232132e-02 -1.032280921936035156e-02 -8.032280020415782928e-03 -4.978202749043703079e-03 1.314559020102024078e-02 -2.693395689129829407e-02 1.702421344816684723e-02 1.898763328790664673e-02 -5.179357156157493591e-02 9.830262511968612671e-03 1.740070618689060211e-02 -4.344293847680091858e-03 1.281328126788139343e-02 -6.915046274662017822e-02 -8.828030899167060852e-03 -2.275930903851985931e-02 1.160702668130397797e-03 1.532775163650512695e-02 1.212567277252674103e-02 -2.758906036615371704e-02 2.783667994663119316e-03 5.081881955265998840e-02 1.411786396056413651e-02 -2.721956744790077209e-02 -2.085595205426216125e-02 -9.287278167903423309e-03 2.869535237550735474e-02 -2.274212799966335297e-02 -6.938640773296356201e-02 -3.933110833168029785e-02 -4.633882641792297363e-02 -7.003752142190933228e-02 -2.232537791132926941e-02 -5.377016495913267136e-03 -1.878970861434936523e-02 1.893085078336298466e-03 -3.602975606918334961e-02 -1.886794529855251312e-02 -2.800124324858188629e-02 5.749874189496040344e-02 -2.182721626013517380e-03 -2.538068592548370361e-02 5.774181336164474487e-02 9.153649210929870605e-03 9.099568240344524384e-03 1.032641902565956116e-02 9.468134492635726929e-03 -2.189292013645172119e-02 4.913591966032981873e-02 2.022751793265342712e-02 6.290712207555770874e-02 4.441024735569953918e-02 -6.615063548088073730e-02 3.162183985114097595e-02 -1.024532411247491837e-02 -1.495147645473480225e-01 -2.033226564526557922e-02 -2.818819135427474976e-02 -5.983934551477432251e-02 3.833556920289993286e-02 6.432449072599411011e-02 5.982051044702529907e-02 9.536087512969970703e-03 -7.677036337554454803e-03 1.036043465137481689e-02 2.446717210114002228e-02 -1.186553854495286942e-02 5.464109126478433609e-03 -1.893804594874382019e-02 1.702632382512092590e-02 4.361940920352935791e-02 -3.703801706433296204e-02 4.341389611363410950e-02 -3.526965528726577759e-02 7.211254537105560303e-02 -1.523668691515922546e-02 -3.678592666983604431e-02 3.502231463789939880e-02 -1.575919426977634430e-02 -1.453281566500663757e-02 -1.861927472054958344e-02 2.845855243504047394e-02 -6.208760198205709457e-03 4.941044375300407410e-02 3.148445114493370056e-02 8.153385482728481293e-03 -5.939323082566261292e-02 -7.574834395200014114e-03 1.009210273623466492e-01 -2.730231732130050659e-02 2.051552012562751770e-02 1.605505682528018951e-02 3.445605188608169556e-02 4.154135659337043762e-02 1.520204730331897736e-02 4.297489300370216370e-02 3.277618438005447388e-02 7.276610005646944046e-03 1.404348481446504593e-02 -5.737954750657081604e-03 3.789944946765899658e-02 -2.801442285999655724e-03 4.121188540011644363e-03 -3.930634260177612305e-02 2.303603477776050568e-02 7.382560521364212036e-02 -7.452906109392642975e-03 2.378431893885135651e-02 3.354111313819885254e-02 2.574054151773452759e-02 -4.678073152899742126e-02 -8.266977220773696899e-02 -2.059720084071159363e-02 4.766609054058790207e-03 9.691474586725234985e-02 -8.033307269215583801e-03 -2.977100200951099396e-02 7.872877269983291626e-02 2.948145195841789246e-02 4.058840125799179077e-02 3.012198721989989281e-04 -3.510835580527782440e-03 -7.620303425937891006e-03 3.329107537865638733e-03 1.634839572943747044e-04 1.006764359772205353e-02 -2.617560327053070068e-02 7.255610544234514236e-03 9.685049764811992645e-03 -7.256076484918594360e-02 5.629974976181983948e-02 7.167127728462219238e-02 -7.238678634166717529e-02 7.165437936782836914e-02 -1.381681021302938461e-02 3.073697676882147789e-03 -6.909041199833154678e-03 2.991866320371627808e-02 -9.845256805419921875e-02 8.363055996596813202e-03 -3.124153986573219299e-02 3.371610655449330807e-04 -1.993529126048088074e-02 2.261863090097904205e-02 1.536702644079923630e-02 8.351257443428039551e-02 -1.670149713754653931e-02 -1.376530039124190807e-03 3.382060304284095764e-02 6.199027970433235168e-02 -8.272005245089530945e-03 3.861634805798530579e-02 1.336249988526105881e-02 -1.231979927979409695e-03 5.846577882766723633e-02 4.204753041267395020e-02 -1.366733852773904800e-02 -2.279879292473196983e-03 -4.917069151997566223e-02 3.887365385890007019e-02 -8.031486719846725464e-02 6.633201241493225098e-02 6.214275583624839783e-02 -4.391463473439216614e-02 5.009396001696586609e-02 -2.601447701454162598e-02 -9.465228766202926636e-02 -3.898284211754798889e-02 1.292639505118131638e-02 3.251818194985389709e-02 -2.331240661442279816e-02 -7.329972140723839402e-05 9.366741403937339783e-03 -8.411359041929244995e-02 8.574728667736053467e-02 -4.584994539618492126e-02 7.834152318537235260e-03 7.350229192525148392e-03 1.926122931763529778e-03 5.462984554469585419e-03 8.050943166017532349e-02 -4.619552940130233765e-02 -1.764608360826969147e-02 -3.514084219932556152e-02 1.334041170775890350e-02 -3.133143112063407898e-02 -1.791231147944927216e-02 -3.928426280617713928e-02 -4.056862089782953262e-03 4.173729568719863892e-02 -5.617123097181320190e-04 -1.473810430616140366e-02 -1.727535272948443890e-03 3.302732855081558228e-02 1.992252655327320099e-02 -8.416664600372314453e-02 -4.581980779767036438e-02 -4.054808244109153748e-02 -4.120579361915588379e-02 1.398141309618949890e-02 2.836272120475769043e-02 1.068763784132897854e-03 7.404883205890655518e-02 3.438282757997512817e-02 -4.225814715027809143e-02 -6.719365250319242477e-03 9.214629419147968292e-03 -8.127084001898765564e-03
-1.438041962683200836e-02 2.616979926824569702e-02 -1.339927036315202713e-02 3.183156251907348633e-02 -2.323898673057556152e-02 1.026335917413234711e-02 4.074861854314804077e-02 -1.264858152717351913e-02 1.175572201609611511e-01 3.577360883355140686e-02 -3.645305708050727844e-02 -1.530830003321170807e-02 1.007835660129785538e-02 -1.217915583401918411e-02 -6.942802667617797852e-02 7.182690780609846115e-03 -6.274959072470664978e-03 5.009353160858154297e-02 -1.839331537485122681e-02 1.227625086903572083e-02 5.411564186215400696e-02 4.373516514897346497e-02 9.536136873066425323e-03 2.365224063396453857e-02 1.100907474756240845e-01 4.210130870342254639e-02 -2.424076572060585022e-02 5.779355391860008240e-02 -1.612316444516181946e-02 4.268019646406173706e-02 -3.734361380338668823e-02 5.569823458790779114e-02 9.045001864433288574e-02 -8.443394326604902744e-04 1.260143145918846130e-02 -8.430756628513336182e-02 -3.003532066941261292e-02 3.103134967386722565e-02 -3.853053320199251175e-03 7.180035859346389771e-02 2.301577851176261902e-02 -4.781700670719146729e-02 -5.994847416877746582e-02 -3.065836429595947266e-02 3.081274684518575668e-03 1.008024141192436218e-01 6.967812776565551758e-02 9.719106601551175117e-04 -7.001268863677978516e-02 1.188967563211917877e-02 6.928362697362899780e-02 -3.856789320707321167e-02 5.329366307705640793e-03 5.532497167587280273e-02 2.050364203751087189e-02 -7.952599227428436279e-02 -7.944116368889808655e-03 -7.681564241647720337e-02 1.482202261686325073e-01 -5.305630341172218323e-02 4.687745869159698486e-02 2.452335902489721775e-04 1.121732592582702637e-01 1.119211837649345398e-01 -4.149838816374540329e-03 1.056746393442153931e-01 -1.833560131490230560e-02 4.138877987861633301e-02 1.625842228531837463e-02 8.320109546184539795e-02 6.864497810602188110e-02 -3.483069688081741333e-02 -6.337726023048162460e-03 -5.805581808090209961e-02 -1.744690164923667908e-02 -6.811373401433229446e-03 -8.258903026580810547e-02 4.797786474227905273e-02 3.956021741032600403e-02 2.849277108907699585e-02 2.257333882153034210e-02 -2.222896553575992584e-02 -4.141147248446941376e-03 4.285532608628273010e-02 6.608710438013076782e-02 -9.444633498787879944e-03 4.275647923350334167e-02 -2.538684010505676270e-02 3.711710870265960693e-02 1.693246327340602875e-02 -4.779306240379810333e-03 4.538248851895332336e-02 -1.234523952007293701e-01 1.915017515420913696e-02 -1.533304434269666672e-02 1.360919233411550522e-02 -8.246625773608684540e-03 4.614102095365524292e-02 -3.106497600674629211e-02 4.079093039035797119e-02 2.261650748550891876e-02 -2.365677803754806519e-02 -4.770442098379135132e-02 2.800475805997848511e-02 1.121854111552238464e-01 7.125442475080490112e-02 1.082476228475570679e-02 6.836461275815963745e-02 -2.818425185978412628e-02 4.800168424844741821e-02 -7.710859645158052444e-03 -7.711230218410491943e-02 -1.600543409585952759e-02 5.821068212389945984e-02 1.384619530290365219e-02 5.720548331737518311e-02 5.838847160339355469e-02 -2.320378273725509644e-02 2.708950778469443321e-03 7.724170386791229248e-02 5.803965404629707336e-02 -2.175197564065456390e-02 -2.928795292973518372e-02 -9.298959630541503429e-04 8.088824152946472168e-02 -5.815800279378890991e-02 6.633622106164693832e-03 -3.453377261757850647e-02 -3.179179737344384193e-03 -2.662845328450202942e-02 4.360533505678176880e-02 -5.648924782872200012e-02 5.080500617623329163e-02 4.130069632083177567e-03 1.510554272681474686e-02 -4.637059941887855530e-02 7.156874984502792358e-03 -1.312370412051677704e-03 9.451191127300262451e-02 5.712629109621047974e-02 -9.785109199583530426e-03 -2.548693493008613586e-02 -7.587569765746593475e-03 7.073055207729339600e-02 5.917640402913093567e-03 4.877577070146799088e-03 1.552917808294296265e-02 3.853743150830268860e-02 -3.965860605239868164e-02 -5.640742555260658264e-02 6.549161672592163086e-02 -1.922859624028205872e-02 1.987658254802227020e-02 -2.961852028965950012e-02 -1.787908724509179592e-03 5.571004748344421387e-02 3.897616639733314514e-02 -4.327870532870292664e-02 1.770927757024765015e-02 -7.883810438215732574e-03 -2.398405410349369049e-02 -8.612830191850662231e-03 -1.726735383272171021e-02 -4.081568121910095215e-02 -3.182648494839668274e-02 -1.728734374046325684e-02 5.504721775650978088e-02 -4.572563618421554565e-02 8.362288028001785278e-02 1.094851195812225342e-01 2.118285559117794037e-02 3.715033829212188721e-02 -2.743378840386867523e-02 -8.040658384561538696e-02 -9.498556703329086304e-02 2.418097108602523804e-03 4.596251249313354492e-02 -4.138521850109100342e-02 4.015867598354816437e-03 3.334950422868132591e-03 -2.414767805021256208e-04 -3.719721361994743347e-02 1.834320276975631714e-02 -5.681373178958892822e-02 3.532086685299873352e-02 2.018658071756362915e-02 -1.902530528604984283e-02 7.418536394834518433e-02 9.221280366182327271e-02 -1.614450104534626007e-02 7.025720179080963135e-02 3.451753780245780945e-02 7.832929491996765137e-02 -3.547256439924240112e-02 5.990510806441307068e-03 -4.290711879730224609e-02 -5.014522746205329895e-02 5.461138673126697540e-03 -4.758230596780776978e-02 6.758663058280944824e-02 -2.029943652451038361e-02 1.135025359690189362e-02 -3.299240767955780029e-02 -2.544631436467170715e-02 -3.789636492729187012e-02 -9.513902477920055389e-03 1.733403652906417847e-02 6.897120270878076553e-03 5.632691085338592529e-03 2.814302034676074982e-02 -1.692092418670654297e-02 -3.516161441802978516e-02 2.206262387335300446e-02 4.570845980197191238e-03 -3.209783881902694702e-02 5.707479640841484070e-02 -2.966923080384731293e-02 1.235781386494636536e-01 -1.764693856239318848e-02 -3.338591009378433228e-02 6.467001140117645264e-02 5.206594243645668030e-02 9.365121950395405293e-04 1.216878741979598999e-02 -6.966266781091690063e-03 -3.359067812561988831e-02 9.575691819190979004e-02 7.825788110494613647e-03 1.386612839996814728e-02 9.840526431798934937e-02 2.729026041924953461e-02 5.602565035223960876e-02 -1.904436759650707245e-02 -1.028454229235649109e-01 1.063438225537538528e-02 9.044512361288070679e-02 -3.038582624867558479e-03 2.251628972589969635e-02 -1.028527021408081055e-01 -7.681213319301605225e-02 3.874171152710914612e-02 2.909610420465469360e-02 7.531128823757171631e-02 -3.343524644151329994e-03 1.123570278286933899e-01 -1.740046031773090363e-02 -3.191298618912696838e-02 4.699416831135749817e-02 5.659600347280502319e-02 4.419171437621116638e-02 -2.469577081501483917e-02 -4.147742688655853271e-02 -1.825913973152637482e-02 -6.757737603038549423e-03 6.082023493945598602e-03 3.543487563729286194e-02
