9.619137272238731384e-03 3.112343326210975647e-02 -4.639529623091220856e-03 3.631222620606422424e-02 1.738131791353225708e-02 -8.567915298044681549e-03 -1.524875755421817303e-03 -1.300037931650876999e-02 -1.909771817736327648e-03 -1.688540168106555939e-02 -2.508949860930442810e-02 -8.665114641189575195e-03 2.846437133848667145e-02 2.573714405298233032e-02 -2.425184706225991249e-03 9.644490666687488556e-03 -3.800467401742935181e-02 -1.301567349582910538e-02 -2.123552747070789337e-02 1.084244251251220703e-02 3.574444726109504700e-02 -2.665646560490131378e-02 2.044320106506347656e-03 3.253646427765488625e-03 -6.632051896303892136e-03 6.795747904106974602e-04 -7.953521795570850372e-03 1.354664796963334084e-03 1.742922142148017883e-02 8.145668543875217438e-03 -2.926585450768470764e-02 -4.825071897357702255e-03 -1.262749917805194855e-02 1.829885877668857574e-02 1.134333288064226508e-04 -1.847418025135993958e-02 4.436342418193817139e-02 -1.287574972957372665e-02 2.058715093880891800e-03 3.570657456293702126e-03 1.567041181260719895e-04 -9.936565533280372620e-03 -2.176076546311378479e-02 -1.145501527935266495e-02 1.175866369158029556e-02 -4.509249702095985413e-02 -5.143601447343826294e-03 4.442820791155099869e-03 1.281193806789815426e-03 -5.190008785575628281e-03 -3.460470121353864670e-03 6.850653793662786484e-03 -6.657082587480545044e-03 1.195025071501731873e-02 1.080037327483296394e-03 1.247064583003520966e-02 3.230220079421997070e-02 -5.210434552282094955e-03 5.466549191623926163e-03 -1.543137058615684509e-02 -2.348252758383750916e-02 -2.577924542129039764e-02 -5.302141886204481125e-03 6.783664226531982422e-03 -7.284268736839294434e-03 1.647403277456760406e-02 1.942222379148006439e-02 2.417285926640033722e-02 -1.088286191225051880e-02 -1.414138590916991234e-03 1.467586215585470200e-02 -1.811467856168746948e-02 2.934964187443256378e-02 3.289481997489929199e-02 7.044530007988214493e-03 -4.562235437333583832e-03 -4.294448345899581909e-02 2.783049084246158600e-02 3.148311004042625427e-02 -7.717510685324668884e-03 -1.375673338770866394e-02 -3.012660332024097443e-02 -6.204897072166204453e-03 1.589997485280036926e-02 -3.641093207988888025e-04 -5.566966719925403595e-03 -3.678725287318229675e-02 1.934877038002014160e-02 -1.416957238689064980e-03 2.740273438394069672e-02 -6.289697252213954926e-03 4.984260536730289459e-03 5.137159675359725952e-02 -2.961165737360715866e-03 -2.432636171579360962e-02 1.005414873361587524e-02 1.062695123255252838e-02 -4.824213683605194092e-03 -7.848578505218029022e-03 -1.535870414227247238e-02 1.362795301247388124e-04 3.378494456410408020e-02 -2.244506496936082840e-03 -2.962536923587322235e-02 -2.328889444470405579e-02 -1.203375123441219330e-02 3.549245418980717659e-03 -6.025498267263174057e-03 2.584382425993680954e-03 1.318163145333528519e-02 1.850475091487169266e-03 6.521761417388916016e-03 -3.828610992059111595e-03 1.033209636807441711e-02 -3.124199248850345612e-02 -5.380734335631132126e-03 -4.230956081300973892e-03 -2.664368413388729095e-02 9.504796005785465240e-03 -2.196250483393669128e-02 1.431258674710988998e-02 -7.379671093076467514e-03 2.145357429981231689e-02 -2.225344255566596985e-02 -8.244810625910758972e-03 -9.805234149098396301e-03 -7.010131608694791794e-03 -2.466444671154022217e-02 -3.425209596753120422e-02 2.353448048233985901e-02 1.171834021806716919e-02 -1.573727093636989594e-02 9.326951578259468079e-03 -3.792091831564903259e-02 -4.157421737909317017e-02 1.698196306824684143e-02 7.504818495362997055e-03 1.172411069273948669e-02 1.727473922073841095e-02 9.801390580832958221e-03 -1.395736169070005417e-02 2.653531916439533234e-02 2.063866518437862396e-02 2.039382606744766235e-02 -1.190428528934717178e-02 4.814490303397178650e-02 6.292219040915369987e-04 1.093732658773660660e-02 -1.580337435007095337e-02 -3.015037393197417259e-03 1.516218995675444603e-03 3.090434707701206207e-02 4.127960652112960815e-03 -4.487455822527408600e-03 -1.198771130293607712e-02 -1.976186176761984825e-03 1.998673891648650169e-03 2.138489112257957458e-02 3.025642968714237213e-02 -1.917734858579933643e-03 2.960904734209179878e-03 1.517876982688903809e-02 -1.849353872239589691e-02 4.258666187524795532e-03 2.155601745471358299e-03 5.323686636984348297e-03 2.081838995218276978e-02 -5.671143881045281887e-04 -3.791546076536178589e-02 -2.465148270130157471e-02 -2.744974568486213684e-03 2.163945231586694717e-03 1.824691309593617916e-03 -9.577154181897640228e-03 9.055123664438724518e-03 7.336583454161882401e-03 3.303002566099166870e-02 -3.528943285346031189e-03 3.744368627667427063e-02 8.708937093615531921e-03 9.681119583547115326e-03 4.233173094689846039e-03 9.514259174466133118e-03 3.284418582916259766e-02 -5.348515696823596954e-03 -7.615486974827945232e-04 2.995606698095798492e-02 1.289296895265579224e-02 1.265071704983711243e-02 2.672326192259788513e-02 3.165232762694358826e-02 3.227257868275046349e-03 -1.715086400508880615e-02 -1.396922767162322998e-02 -6.288721924647688866e-04 -3.937161341309547424e-02 1.646110042929649353e-02 4.686309024691581726e-02 -1.841912791132926941e-02 -8.086656220257282257e-03 -3.219806775450706482e-02 3.843922866508364677e-03 -5.376559682190418243e-03 2.039133384823799133e-02 3.747005015611648560e-03 -1.324818655848503113e-02 -2.345141023397445679e-02 -3.665554895997047424e-02 1.703731529414653778e-02 -4.604759160429239273e-03 4.795316141098737717e-03 -1.250263489782810211e-02 2.228088304400444031e-02 -2.558854408562183380e-02 1.286502368748188019e-02 2.052746276604011655e-04 -6.593256443738937378e-02 -5.869406741112470627e-03 2.816329896450042725e-02 -2.290649525821208954e-02 4.157580551691353321e-04 -3.133903071284294128e-02 -9.620645083487033844e-03 3.728563338518142700e-02 1.950291171669960022e-02 8.166947402060031891e-03 -7.568837143480777740e-03 -2.291517704725265503e-02 1.759325526654720306e-02 6.618004990741610527e-04 1.863080076873302460e-02 9.930921718478202820e-03 1.068255584686994553e-02 1.738704554736614227e-02 3.501921147108078003e-02 2.518465183675289154e-02 1.941542327404022217e-02 -5.221839528530836105e-04 -3.445188121986575425e-05 2.095253439620137215e-03 -1.919321157038211823e-02 3.085569478571414948e-02 6.373845390044152737e-04 -4.207960795611143112e-03 5.982498638331890106e-03 -4.388688132166862488e-02 -1.828119345009326935e-02 -1.337373349815607071e-02 -2.277715876698493958e-02 -6.962718907743692398e-03 -3.555350378155708313e-02 -3.013302572071552277e-02 3.951779007911682129e-02 -2.165688760578632355e-02 4.850789532065391541e-02 -1.808634144254028797e-03
7.340021431446075439e-02 2.738791517913341522e-02 2.740179374814033508e-02 1.130635943263769150e-02 -3.503976389765739441e-02 7.784972898662090302e-03 6.934982724487781525e-03 -1.725707389414310455e-02 -6.427823100239038467e-03 -1.476499065756797791e-02 2.289395779371261597e-03 -4.470201209187507629e-02 -1.081758737564086914e-02 3.364151343703269958e-02 4.778990522027015686e-03 -1.373069733381271362e-02 -6.434258073568344116e-02 -1.306572463363409042e-03 -3.986977972090244293e-03 -4.306019109208136797e-04 3.127318993210792542e-02 1.259243208914995193e-02 8.723377250134944916e-03 -2.142779342830181122e-02 -1.735654845833778381e-02 1.160749141126871109e-02 -1.610289141535758972e-02 -2.843905612826347351e-02 1.163362525403499603e-02 -3.376519680023193359e-02 -4.050948843359947205e-02 -5.608487874269485474e-03 -3.945841640233993530e-02 -1.717850379645824432e-02 4.496611654758453369e-02 1.134517695754766464e-02 1.855725422501564026e-02 -8.366975933313369751e-03 -6.215986981987953186e-02 1.544541027396917343e-02 -6.273262668401002884e-03 -4.577910155057907104e-02 6.119932234287261963e-02 -1.667337864637374878e-02 7.948657497763633728e-03 -4.424559697508811951e-02 -2.287068590521812439e-02 2.007389813661575317e-02 -1.500803977251052856e-03 8.512762375175952911e-03 1.142410747706890106e-02 -2.387732965871691704e-03 6.139716133475303650e-04 -4.847918823361396790e-02 -1.950627565383911133e-02 -4.729279875755310059e-02 -2.925353497266769409e-02 2.014062739908695221e-02 1.867757819127291441e-04 1.918212277814745903e-03 -8.705159649252891541e-03 5.543456412851810455e-03 -2.757239528000354767e-02 3.700436092913150787e-03 1.179285906255245209e-02 -1.015229150652885437e-02 5.035078153014183044e-02 2.478638105094432831e-02 -3.333488479256629944e-02 3.712763264775276184e-02 2.585126832127571106e-02 4.272294230759143829e-03 2.293743751943111420e-02 1.452042814344167709e-02 -3.708134638145565987e-03 -1.557696517556905746e-02 7.009806111454963684e-03 -1.312949508428573608e-02 -3.720968961715698242e-02 2.874122746288776398e-02 -4.590984899550676346e-03 -1.883434876799583435e-02 6.537346541881561279e-02 1.756359636783599854e-02 8.343135938048362732e-03 1.331610698252916336e-02 1.218090672045946121e-02 3.265327215194702148e-02 -2.979982085525989532e-02 7.652230095118284225e-03 -1.962915621697902679e-02 1.971512474119663239e-02 2.806955017149448395e-02 1.981673762202262878e-02 4.689390584826469421e-02 2.264974080026149750e-02 -3.653650358319282532e-02 -3.271516412496566772e-02 -3.958368208259344101e-03 3.239194303750991821e-02 2.896236255764961243e-02 -3.212881274521350861e-03 -2.180008776485919952e-02 -2.100614598020911217e-03 1.871824637055397034e-02 1.662806142121553421e-03 1.794680766761302948e-02 -3.533469513058662415e-02 5.309624131768941879e-03 -1.181500591337680817e-02 -9.269111789762973785e-03 -4.178333282470703125e-02 1.518647745251655579e-02 3.594386205077171326e-02 7.079362869262695312e-02 3.414075355976819992e-03 -2.917399629950523376e-02 -2.331893704831600189e-02 7.695109583437442780e-03 2.992455149069428444e-03 5.891221109777688980e-03 -2.103967219591140747e-02 -4.580108448863029480e-02 6.276414543390274048e-02 2.817464526742696762e-03 -3.533913567662239075e-02 -6.414104718714952469e-03 2.335890755057334900e-02 1.522551290690898895e-02 -2.492706663906574249e-02 3.439471870660781860e-02 -1.116576045751571655e-02 -4.978475160896778107e-03 -2.438680268824100494e-02 3.695297613739967346e-02 9.724867530167102814e-03 -1.313220616430044174e-02 -1.418536622077226639e-02 -6.245265249162912369e-03 4.551951959729194641e-02 1.532301213592290878e-02 1.122770551592111588e-02 2.683340758085250854e-02 -2.350155264139175415e-02 3.051676601171493530e-02 6.038055755198001862e-03 6.121129728853702545e-03 3.284299746155738831e-02 2.572673745453357697e-02 5.210939329117536545e-03 4.503166768699884415e-03 -2.894262969493865967e-02 9.239058010280132294e-03 -3.268698230385780334e-02 2.501054294407367706e-02 -3.209691494703292847e-02 -9.587833657860755920e-03 -6.684088613837957382e-03 4.657850787043571472e-02 -1.289318222552537918e-02 3.795114811509847641e-03 2.714396454393863678e-02 -7.430588360875844955e-03 -6.291322410106658936e-03 7.714933599345386028e-04 -1.232548896223306656e-02 -4.588934127241373062e-03 1.580812409520149231e-02 3.131380677223205566e-02 3.788461908698081970e-02 3.097232244908809662e-02 -8.799848146736621857e-03 4.151292517781257629e-02 -9.939679875969886780e-03 -1.292890962213277817e-02 4.035646840929985046e-02 -3.138899058103561401e-02 -4.675004258751869202e-02 -1.606561429798603058e-02 3.293170407414436340e-02 -4.854297637939453125e-02 -1.425517816096544266e-02 3.059113398194313049e-02 -2.688715606927871704e-02 -3.332177642732858658e-03 -2.129836939275264740e-02 -1.280992571264505386e-02 -2.575220540165901184e-02 3.902686759829521179e-02 1.418121624737977982e-02 -2.308909408748149872e-02 -2.183070033788681030e-02 -2.621033973991870880e-02 6.555858999490737915e-02 3.297436609864234924e-02 3.629338741302490234e-02 3.621052019298076630e-03 2.439533593133091927e-03 -7.238748949021100998e-03 2.545479871332645416e-02 1.356341410428285599e-02 1.344453729689121246e-02 2.964237937703728676e-03 5.602090805768966675e-02 5.862443707883358002e-03 4.764974862337112427e-02 1.800836622714996338e-02 4.173371568322181702e-02 1.091269031167030334e-02 -1.967970281839370728e-02 2.365257963538169861e-02 -1.666339673101902008e-02 -6.477668881416320801e-03 1.071272231638431549e-02 -3.497672732919454575e-03 7.035532593727111816e-02 4.658764693886041641e-03 -1.753892749547958374e-02 1.025319844484329224e-02 -5.396446958184242249e-02 -7.290136069059371948e-03 -3.062370605766773224e-02 4.253300651907920837e-02 2.834042906761169434e-02 -2.436215244233608246e-02 4.419249296188354492e-02 1.492824987508356571e-03 4.011562466621398926e-02 -2.609268203377723694e-02 1.867397502064704895e-02 1.293316856026649475e-02 -3.235730528831481934e-02 -3.990610688924789429e-02 1.649391837418079376e-02 -1.666229777038097382e-02 -1.427605748176574707e-02 5.154369864612817764e-03 3.986155241727828979e-02 2.728898823261260986e-02 2.551111765205860138e-02 -2.095173345878720284e-03 6.148499902337789536e-03 -9.763654321432113647e-03 1.064102537930011749e-02 -2.853843942284584045e-02 1.786894723773002625e-02 6.951045710593461990e-03 4.945079982280731201e-02 4.472895991057157516e-03 -2.259392291307449341e-02 1.583090424537658691e-02 -8.163733407855033875e-03 -2.847129362635314465e-04 8.538657799363136292e-03 -1.337558380328118801e-03 1.721510291099548340e-02
2.877726219594478607e-02 4.754149541258811951e-02 -5.980242416262626648e-02 -1.919475011527538300e-02 7.935059256851673126e-03 7.124235853552818298e-03 3.872365504503250122e-02 4.144567530602216721e-03 -7.331563625484704971e-03 4.268343374133110046e-02 -2.491959743201732635e-02 2.502546273171901703e-02 -1.981643959879875183e-02 3.194390982389450073e-02 3.084973618388175964e-02 2.552130259573459625e-02 1.716251671314239502e-02 1.793577894568443298e-02 1.831117831170558929e-02 -1.405256055295467377e-02 -7.373753935098648071e-02 -2.298656851053237915e-02 -6.626920308917760849e-03 -2.784687839448451996e-02 1.680841110646724701e-02 3.339970484375953674e-02 -1.374888606369495392e-02 1.814210414886474609e-02 -2.607056498527526855e-02 -4.382009431719779968e-02 -9.868467226624488831e-03 -2.369792573153972626e-02 4.624992236495018005e-02 -1.106068398803472519e-02 2.594773285090923309e-02 -8.421706967055797577e-03 -1.508621312677860260e-02 -7.652229070663452148e-02 3.698821738362312317e-02 -1.358593069016933441e-02 -1.225092820823192596e-02 7.033459376543760300e-03 -2.101819030940532684e-02 -7.608497980982065201e-03 2.706106565892696381e-02 2.599757397547364235e-03 -1.546361949294805527e-02 -2.888571657240390778e-02 1.927264779806137085e-02 -7.573630195111036301e-03 -2.877953276038169861e-02 -1.222940906882286072e-02 -5.811643600463867188e-02 -1.038432819768786430e-03 -2.961405087262392044e-03 1.887397840619087219e-02 1.983972825109958649e-02 -6.295028328895568848e-02 -2.117499709129333496e-02 -7.695531100034713745e-02 1.735921716317534447e-03 -8.644685149192810059e-04 -1.514018513262271881e-02 -2.321064658463001251e-02 -3.690893948078155518e-02 -2.162811905145645142e-02 5.559105426073074341e-02 7.153462618589401245e-03 1.904264651238918304e-02 -9.456286206841468811e-03 3.989566117525100708e-02 -2.687141299247741699e-02 -6.710027158260345459e-02 2.789812721312046051e-02 2.765507996082305908e-02 9.962797164916992188e-03 -2.505459124222397804e-03 3.195533296093344688e-03 1.181166898459196091e-02 -1.615203917026519775e-02 -4.358353558927774429e-03 -1.559665985405445099e-02 1.736295409500598907e-02 6.946218013763427734e-02 -4.505182802677154541e-02 -2.176240272819995880e-02 7.614795467816293240e-04 4.763654433190822601e-03 -1.918835006654262543e-02 -4.387097805738449097e-02 -7.232394069433212280e-03 -1.689066179096698761e-02 3.993519768118858337e-02 -2.794672735035419464e-02 -4.015497490763664246e-02 -3.398920176550745964e-03 -1.398766040802001953e-02 4.437818191945552826e-03 -3.830596059560775757e-02 -1.760205999016761780e-02 -3.532570227980613708e-02 3.814746858552098274e-03 -4.845157265663146973e-02 -7.705608755350112915e-02 1.400295086205005646e-02 1.226360164582729340e-02 1.623198203742504120e-02 1.076145563274621964e-02 4.148495197296142578e-02 5.613521113991737366e-02 -5.734246596693992615e-02 1.925395242869853973e-02 -5.808861460536718369e-03 2.766093052923679352e-02 2.317471988499164581e-02 2.422270178794860840e-02 3.891981765627861023e-02 -1.539941597729921341e-02 8.798457682132720947e-03 -1.036348287016153336e-02 -3.826165199279785156e-02 -1.431712415069341660e-02 -7.050066441297531128e-02 5.302117764949798584e-02 3.532307595014572144e-02 -1.456043776124715805e-02 6.156378425657749176e-03 3.804191574454307556e-02 -2.891467139124870300e-02 -3.312682732939720154e-02 -6.248310208320617676e-03 2.326248213648796082e-02 3.217936307191848755e-02 -1.229577325284481049e-02 -2.231771312654018402e-02 -1.147245150059461594e-02 2.944494970142841339e-02 5.646703764796257019e-02 -5.494346097111701965e-02 -3.442901000380516052e-02 4.602064937353134155e-02 -3.576309606432914734e-02 1.521822414360940456e-04 -4.402033984661102295e-02 -1.764152385294437408e-02 -3.304468467831611633e-02 -5.707269068807363510e-03 -8.627822389826178551e-04 1.035931799560785294e-02 -3.379413485527038574e-02 1.819281093776226044e-02 2.472058124840259552e-02 -4.719333350658416748e-02 -8.704798296093940735e-03 -3.503094986081123352e-02 5.894328001886606216e-03 -2.066079899668693542e-02 -1.966203190386295319e-02 2.699355036020278931e-02 1.196666713804006577e-02 -4.115965589880943298e-02 -3.940567374229431152e-02 -1.241857185959815979e-03 1.173004787415266037e-02 3.756806487217545509e-03 -1.711824908852577209e-02 -3.574590373318642378e-04 -2.403396554291248322e-02 5.034056492149829865e-03 1.008658297359943390e-02 -1.637175329960882664e-03 4.817111045122146606e-02 9.695262648165225983e-03 -1.316946092993021011e-02 3.114271163940429688e-02 7.211877964437007904e-03 -1.751451194286346436e-02 -1.808886416256427765e-02 5.067806690931320190e-02 1.905522495508193970e-02 4.168116953223943710e-03 -9.836095385253429413e-03 -1.878580451011657715e-02 3.459831699728965759e-02 -3.966556396335363388e-03 8.307597599923610687e-03 -1.729280687868595123e-02 1.221244037151336670e-02 -3.739660233259201050e-02 1.841634139418601990e-02 1.473757531493902206e-02 -1.961567997932434082e-02 -1.661608554422855377e-02 6.903348024934530258e-03 -7.039123680442571640e-03 -6.877195555716753006e-03 4.377613216638565063e-02 1.854174956679344177e-02 2.521122060716152191e-02 -4.670514911413192749e-02 2.995877992361783981e-03 -2.756351977586746216e-02 -3.941304516047239304e-03 2.550442703068256378e-02 4.540186375379562378e-02 1.006926782429218292e-02 -2.338187769055366516e-02 -4.493456333875656128e-03 -4.665165022015571594e-02 -3.862201701849699020e-03 1.265034824609756470e-02 -1.086187362670898438e-02 -6.450259685516357422e-02 -3.675063326954841614e-02 -1.108028087764978409e-02 -6.980045884847640991e-02 1.620391942560672760e-02 -2.253150753676891327e-02 -9.782959707081317902e-03 4.465158283710479736e-02 2.502078888937830925e-03 -1.380474865436553955e-02 7.726566493511199951e-02 5.260457843542098999e-02 8.807646809145808220e-04 -2.843450941145420074e-02 -4.565063398331403732e-03 2.290852926671504974e-02 1.083448901772499084e-02 1.752939820289611816e-02 -5.456173326820135117e-03 -4.669848084449768066e-02 2.124723047018051147e-03 -3.468038141727447510e-02 -2.145214006304740906e-02 -1.003525312989950180e-02 -4.283132404088973999e-02 -1.272353529930114746e-02 -6.244572345167398453e-03 -1.077194325625896454e-02 1.521571772173047066e-03 2.493030391633510590e-03 -7.231680210679769516e-03 3.770577255636453629e-03 -2.684084139764308929e-02 -5.620653182268142700e-02 5.451608821749687195e-02 2.953700534999370575e-02 3.849709406495094299e-02 7.714133244007825851e-03 4.533489793539047241e-02 3.654883801937103271e-02 -1.680336892604827881e-02 4.354643169790506363e-03 1.479709893465042114e-02 -4.499321058392524719e-02
-3.305071964859962463e-02 2.510424889624118805e-02 -6.882116943597793579e-02 1.953449286520481110e-02 6.891073426231741905e-04 6.183377001434564590e-03 -3.539673238992691040e-02 -1.927069202065467834e-02 1.636323519051074982e-02 -1.458894181996583939e-02 -1.078146696090698242e-02 -4.385864734649658203e-02 -5.452339351177215576e-02 5.129588767886161804e-03 -5.291629582643508911e-02 -1.219560485333204269e-02 -1.862276345491409302e-02 -3.046719916164875031e-02 4.949005693197250366e-02 3.410418331623077393e-02 1.790616847574710846e-02 8.247687481343746185e-03 1.549187023192644119e-02 -5.953487008810043335e-03 5.468658730387687683e-02 1.430921349674463272e-02 3.680592030286788940e-02 2.357833273708820343e-02 -1.523187011480331421e-02 2.763538621366024017e-03 -5.503767728805541992e-02 -2.697636559605598450e-02 1.085052150301635265e-03 -4.950786940753459930e-03 -1.860267855226993561e-02 -2.876290678977966309e-02 2.845137147232890129e-03 -3.187620639801025391e-02 -5.141290021128952503e-04 8.734461851418018341e-03 2.176585607230663300e-02 -1.185709796845912933e-02 -4.478139057755470276e-02 -1.802970073185861111e-03 -2.074364759027957916e-02 -1.931825838983058929e-02 5.507859587669372559e-02 -7.081846147775650024e-02 -2.335819788277149200e-02 5.825825035572052002e-03 2.225625142455101013e-02 -6.374498456716537476e-02 -1.655622012913227081e-02 -7.964371703565120697e-03 -4.232515767216682434e-02 -4.289063438773155212e-02 -1.265552639961242676e-02 -1.318842521868646145e-03 1.942753978073596954e-02 -3.719834238290786743e-02 -5.922921374440193176e-02 -5.019228160381317139e-02 -1.869499869644641876e-02 3.654859215021133423e-02 2.707691118121147156e-02 -1.010218728333711624e-02 -3.289289027452468872e-02 -2.096256474032998085e-03 1.457864325493574142e-02 -1.021282467991113663e-02 1.699294708669185638e-02 -1.878895610570907593e-02 -2.308496274054050446e-02 -3.841111809015274048e-02 4.560310021042823792e-02 -2.635327540338039398e-02 5.519035831093788147e-02 7.479093968868255615e-03 -3.963936585932970047e-03 2.344623580574989319e-02 4.323680326342582703e-02 9.026699699461460114e-03 -1.765341125428676605e-02 5.227880552411079407e-03 -2.411733753979206085e-02 -1.553349569439888000e-02 3.057939000427722931e-02 7.035184651613235474e-03 -4.405876249074935913e-02 -8.558633737266063690e-03 3.415819630026817322e-02 4.225470125675201416e-02 4.512631893157958984e-02 -3.000675700604915619e-02 -1.172870490700006485e-02 2.799234725534915924e-02 -6.565762311220169067e-02 3.604402020573616028e-02 -9.762153029441833496e-02 6.806951016187667847e-02 -3.191012144088745117e-02 1.132124383002519608e-02 1.089238189160823822e-02 -4.912807047367095947e-02 3.526649251580238342e-02 3.360864147543907166e-02 2.989055030047893524e-02 1.474636700004339218e-02 4.657526686787605286e-02 -2.009349875152111053e-02 -6.957781314849853516e-02 6.064721848815679550e-03 -1.397152058780193329e-02 1.915258355438709259e-03 -1.933686248958110809e-02 1.282167900353670120e-02 -4.383466206490993500e-03 -2.225267887115478516e-02 9.681046940386295319e-03 -4.671540483832359314e-02 -1.512519270181655884e-02 -6.516573578119277954e-02 -2.074285969138145447e-02 -4.644207656383514404e-03 4.892117530107498169e-02 -2.821934223175048828e-02 -4.840771108865737915e-02 1.431558001786470413e-02 3.148191422224044800e-02 -3.732737526297569275e-02 -1.283785700798034668e-02 3.665824979543685913e-02 2.349880337715148926e-02 -1.778296753764152527e-02 -5.391797167249023914e-04 -1.100628729909658432e-02 -4.268071148544549942e-03 4.059146344661712646e-02 -7.158337533473968506e-02 1.068542990833520889e-02 2.055266668321564794e-04 3.479602281004190445e-03 2.976236492395401001e-02 -1.386918779462575912e-02 1.738520897924900055e-02 1.017684955149888992e-02 -4.355847090482711792e-02 -2.322447672486305237e-02 -3.441361710429191589e-02 -7.468332070857286453e-03 3.763091564178466797e-02 5.160119850188493729e-03 -2.528695389628410339e-02 -3.325973823666572571e-02 -5.592132359743118286e-02 -5.795787554234266281e-03 4.245329275727272034e-02 3.660263027995824814e-03 3.124599531292915344e-02 -9.873968549072742462e-03 -3.273661434650421143e-02 1.787440665066242218e-02 -2.795830368995666504e-02 2.246019802987575531e-02 -4.390298947691917419e-02 1.511748600751161575e-02 -3.834700956940650940e-02 4.707079008221626282e-02 5.153232067823410034e-02 6.593471858650445938e-03 -5.532918870449066162e-02 -1.769687421619892120e-02 1.088772062212228775e-02 -9.171102195978164673e-03 2.423411421477794647e-02 2.966608107089996338e-02 -5.222430918365716934e-03 3.684983402490615845e-02 1.919678226113319397e-02 1.795332692563533783e-02 -4.021387174725532532e-02 -4.486935213208198547e-02 -2.509638480842113495e-02 1.870032213628292084e-02 -1.886542327702045441e-02 -2.096564508974552155e-02 9.259235113859176636e-03 1.344890147447586060e-02 8.645799756050109863e-02 5.822506546974182129e-02 -3.078214824199676514e-02 3.143924847245216370e-02 -3.177417966071516275e-04 -3.895291686058044434e-02 1.042659115046262741e-02 -3.549265488982200623e-02 -4.895520955324172974e-02 7.966645061969757080e-03 -2.942738588899374008e-03 3.169116377830505371e-02 -8.013139665126800537e-02 -3.173852711915969849e-02 1.701606251299381256e-02 -3.543565748259425163e-03 -2.594309672713279724e-02 -3.431458957493305206e-03 -1.421117503196001053e-02 -4.206800088286399841e-02 7.523139566183090210e-02 -6.201753392815589905e-02 -2.236436493694782257e-02 4.801584873348474503e-03 -2.417325787246227264e-02 2.714505232870578766e-02 -2.239489927887916565e-02 -9.125015698373317719e-03 -2.217406034469604492e-02 5.836290121078491211e-02 3.211712837219238281e-02 1.963017508387565613e-02 -5.587622523307800293e-02 -6.009532883763313293e-02 -1.525116618722677231e-02 5.452586337924003601e-03 -2.214008942246437073e-02 -7.492209784686565399e-03 3.925076127052307129e-02 -1.646156981587409973e-02 -5.507105588912963867e-02 -4.947408288717269897e-02 1.544839143753051758e-02 2.227881923317909241e-03 1.187414210289716721e-02 6.986165419220924377e-03 -4.697811231017112732e-02 -3.378745168447494507e-02 3.363525960594415665e-03 1.111718825995922089e-02 -2.389791607856750488e-02 4.657613486051559448e-02 9.849604219198226929e-03 -1.052874978631734848e-02 1.062662340700626373e-02 2.897503226995468140e-02 -2.594081684947013855e-02 5.624013021588325500e-02 3.535157814621925354e-02 3.567682579159736633e-03 -5.191062390804290771e-02 -3.792973980307579041e-02 4.902281984686851501e-02 6.086361594498157501e-03 -5.604669824242591858e-02 -1.799113489687442780e-02 1.987073803320527077e-03 6.924708187580108643e-02
4.532197490334510803e-02 -6.826419383287429810e-03 -7.109454600140452385e-04 -2.109183929860591888e-02 4.488633014261722565e-03 2.274981886148452759e-02 -1.104908529669046402e-02 5.817028507590293884e-02 2.113853394985198975e-02 -1.338337548077106476e-02 -6.360669434070587158e-02 1.423474308103322983e-02 -4.508988186717033386e-02 1.381741371005773544e-02 1.816845126450061798e-02 -5.546060390770435333e-03 2.271030796691775322e-03 -1.998713798820972443e-02 -5.447918176651000977e-02 -9.161964058876037598e-03 -7.956939749419689178e-03 -5.397640634328126907e-03 2.617713436484336853e-02 9.023645892739295959e-03 1.936561800539493561e-02 -3.929675370454788208e-02 2.407793141901493073e-02 -1.724921166896820068e-02 1.010116189718246460e-02 3.708092123270034790e-02 2.409849502146244049e-02 3.970088437199592590e-02 6.111775059252977371e-03 1.097945868968963623e-02 -1.416006125509738922e-02 -7.268833927810192108e-03 -3.099681250751018524e-02 -1.766781322658061981e-02 -2.302219904959201813e-02 6.107054650783538818e-03 2.260587736964225769e-02 1.233510859310626984e-02 -2.180977351963520050e-02 4.734646901488304138e-02 2.775666490197181702e-02 1.368873473256826401e-02 -2.132436633110046387e-02 -2.962915226817131042e-02 2.249930519610643387e-03 -5.473615601658821106e-02 -4.878642410039901733e-02 -3.326354781165719032e-03 -7.116296887397766113e-02 1.181679964065551758e-02 -1.877661980688571930e-02 1.541845966130495071e-02 3.828969318419694901e-03 1.166522689163684845e-02 -1.570974662899971008e-02 -2.858466096222400665e-02 2.745950408279895782e-02 1.113972743041813374e-03 3.368508443236351013e-02 -2.391263842582702637e-02 2.256120555102825165e-02 6.569990515708923340e-02 -6.712572940159589052e-05 -2.343379519879817963e-02 3.772303462028503418e-02 3.405264765024185181e-02 -3.315689507871866226e-03 6.203873082995414734e-03 -1.121618505567312241e-02 -7.223658030852675438e-05 4.093567281961441040e-02 9.863429702818393707e-03 -1.429575402289628983e-02 9.224099107086658478e-03 9.890766814351081848e-03 2.238168008625507355e-02 7.483208179473876953e-02 6.029029563069343567e-02 -2.051045559346675873e-02 7.658035610802471638e-04 -1.325392723083496094e-02 3.301266953349113464e-02 1.826450042426586151e-02 -4.894508048892021179e-02 1.512708049267530441e-02 1.563118025660514832e-02 2.278631739318370819e-02 -1.347002852708101273e-02 5.074576474726200104e-03 2.064016833901405334e-02 -4.127310216426849365e-02 2.610411308705806732e-02 -8.700275793671607971e-05 -4.312705993652343750e-02 -1.235461328178644180e-02 -4.320750385522842407e-02 2.541793696582317352e-02 1.909988932311534882e-02 1.082912459969520569e-02 -2.412961795926094055e-02 -4.933063406497240067e-03 2.045807614922523499e-02 -1.203672681003808975e-02 -2.727867476642131805e-02 -2.411888679489493370e-03 3.989553544670343399e-03 -3.534045815467834473e-02 2.711991220712661743e-02 2.374982228502631187e-03 -2.671479433774948120e-02 -6.854002829641103745e-03 1.250118203461170197e-02 -6.039175763726234436e-02 -2.421816624701023102e-02 3.858629986643791199e-02 2.567177265882492065e-02 -1.695051044225692749e-02 1.673460751771926880e-02 -2.532289735972881317e-02 -2.876225858926773071e-02 -1.608193106949329376e-02 2.995963767170906067e-02 -1.408878061920404434e-02 -3.058853326365351677e-03 8.652243763208389282e-03 -2.575262449681758881e-02 -3.277527168393135071e-02 2.100561931729316711e-02 1.869082637131214142e-02 -3.670935053378343582e-03 -1.388249266892671585e-02 -4.909594729542732239e-02 -9.255451150238513947e-03 2.214335463941097260e-02 -1.220030523836612701e-02 3.042063303291797638e-02 3.751227259635925293e-02 2.059159800410270691e-02 4.494076129049062729e-03 1.835525967180728912e-02 -5.314240604639053345e-02 -9.444951079785823822e-03 3.977371752262115479e-02 -6.127066910266876221e-03 1.298484392464160919e-02 -3.236619383096694946e-02 4.539780691266059875e-02 -2.058106288313865662e-02 -1.858883723616600037e-02 7.749602664262056351e-03 -1.359633728861808777e-02 4.955138638615608215e-02 -3.689724206924438477e-02 1.799887628294527531e-03 -3.531738650053739548e-03 -5.562630482017993927e-03 5.499351397156715393e-02 8.557930588722229004e-03 6.242888048291206360e-02 -2.381500974297523499e-02 -3.398591652512550354e-02 -9.891489520668983459e-03 -7.267235312610864639e-03 -4.282675683498382568e-03 -4.358394443988800049e-02 6.882508285343647003e-03 -1.305827777832746506e-02 -2.285156957805156708e-02 7.350175175815820694e-03 2.606588974595069885e-02 -2.553173108026385307e-03 -1.458071917295455933e-02 2.170846238732337952e-02 2.221929095685482025e-02 3.026696853339672089e-02 3.279706463217735291e-02 -1.098833605647087097e-02 -3.150387853384017944e-02 -5.117038264870643616e-02 4.303618698031641543e-05 6.151741836220026016e-03 4.383260384202003479e-02 -4.816856700927019119e-03 -3.600537404417991638e-02 -4.079454112797975540e-03 -7.245896384119987488e-03 7.359728217124938965e-03 3.282540664076805115e-02 -3.828532621264457703e-02 3.515777736902236938e-02 -2.463974803686141968e-02 -5.549389403313398361e-03 -2.596187032759189606e-02 3.400183469057083130e-02 -6.457216292619705200e-02 -5.246746912598609924e-02 -6.472732871770858765e-02 -3.535426035523414612e-02 -3.758640959858894348e-03 -1.305072009563446045e-02 -2.580912224948406219e-02 1.543791126459836960e-02 6.070627272129058838e-02 -4.262217879295349121e-02 -2.656417340040206909e-02 1.808404549956321716e-02 4.894235357642173767e-02 1.616790518164634705e-02 -5.758881941437721252e-02 -3.401958942413330078e-02 2.301680855453014374e-02 -4.382913187146186829e-02 -4.919470287859439850e-03 -5.797130521386861801e-03 3.865183517336845398e-02 2.318300120532512665e-02 -2.002130495384335518e-03 -2.939209342002868652e-02 -7.834875956177711487e-03 -8.189400658011436462e-03 -4.244817048311233521e-02 -8.074563927948474884e-03 -2.891122922301292419e-02 -2.956488355994224548e-02 -4.494850337505340576e-02 -6.381911039352416992e-02 6.225821003317832947e-02 -2.319703996181488037e-02 -5.172992125153541565e-03 -5.527548491954803467e-02 -3.178442642092704773e-02 -1.778184995055198669e-02 -1.641039550304412842e-02 -3.269509598612785339e-02 4.230039194226264954e-03 4.175439476966857910e-03 -1.032561995089054108e-02 -5.322557687759399414e-02 -2.902521193027496338e-02 -1.328074466437101364e-02 3.270929737482219934e-04 1.424061693251132965e-02 -5.513541400432586670e-03 2.636864036321640015e-02 -4.134826667723245919e-05 7.393765449523925781e-02 3.016563877463340759e-02 -3.823173418641090393e-02 -9.342727134935557842e-04 -1.874958723783493042e-02 -1.867488212883472443e-02 2.789165824651718140e-02
1.775169558823108673e-02 -1.851115748286247253e-02 -6.623823940753936768e-02 2.241314016282558441e-02 -1.144719403237104416e-02 -2.875377237796783447e-02 -4.061354789882898331e-03 -3.642390295863151550e-02 1.722568459808826447e-02 -1.250512711703777313e-02 -4.322446137666702271e-02 -1.752869412302970886e-02 3.349467739462852478e-02 1.372202113270759583e-02 -2.808707207441329956e-02 2.868650481104850769e-02 3.066223487257957458e-02 9.374428540468215942e-03 1.281933952122926712e-02 4.405804909765720367e-03 -5.773891229182481766e-03 -2.770283492282032967e-03 -6.193710141815245152e-04 1.284067146480083466e-02 -2.853775769472122192e-02 -3.329157084226608276e-02 -1.014552172273397446e-02 -3.457576781511306763e-02 2.718399651348590851e-02 1.833595335483551025e-02 1.470586005598306656e-02 4.845768213272094727e-03 -1.685967110097408295e-02 1.072853617370128632e-02 -2.339288778603076935e-02 -3.993739187717437744e-02 -5.214782804250717163e-02 -3.072837740182876587e-02 3.217285964637994766e-03 8.457456715404987335e-03 -6.915318779647350311e-03 -1.233498938381671906e-02 5.248303059488534927e-03 -1.249263342469930649e-02 -2.952674403786659241e-02 1.610053144395351410e-02 -2.520469948649406433e-02 -1.704035885632038116e-02 1.021429523825645447e-02 1.688221283257007599e-02 1.822070032358169556e-02 -3.388607176020741463e-03 -1.239729346707463264e-03 -2.218697685748338699e-03 -2.023667097091674805e-03 -9.413738735020160675e-03 1.770316064357757568e-02 3.687088564038276672e-02 1.926117949187755585e-02 1.142199058085680008e-02 4.977040924131870270e-03 1.501812599599361420e-02 -2.074513956904411316e-02 -6.404174864292144775e-02 4.528512805700302124e-02 -4.945860803127288818e-02 -3.823738545179367065e-02 7.352028973400592804e-03 -2.484463155269622803e-02 3.571533411741256714e-02 -2.188369259238243103e-02 1.043968927115201950e-02 4.676979500800371170e-03 8.109325426630675793e-04 -1.351757068186998367e-02 -1.187184359878301620e-02 -1.257213577628135681e-02 -4.926940053701400757e-02 -9.594473056495189667e-03 -2.390509843826293945e-02 1.211557071655988693e-02 -1.331383455544710159e-02 2.493650466203689575e-02 -2.266611345112323761e-02 -3.598032146692276001e-02 -5.892490968108177185e-03 9.759591892361640930e-03 9.273401461541652679e-03 4.671639949083328247e-02 -1.018846221268177032e-02 -1.407082006335258484e-02 1.822112128138542175e-02 1.770353317260742188e-02 -3.882831335067749023e-02 1.440172735601663589e-02 -1.115179713815450668e-02 -8.490839973092079163e-03 3.075426816940307617e-02 -4.441226832568645477e-03 1.374525856226682663e-02 -5.294416844844818115e-02 4.923126846551895142e-02 -1.453975215554237366e-02 1.445010118186473846e-02 1.469984184950590134e-02 -9.092272259294986725e-03 4.040059819817543030e-02 -1.631721481680870056e-02 1.991957658901810646e-03 2.265012590214610100e-03 -3.965315409004688263e-03 1.756097562611103058e-02 -1.499824784696102142e-02 2.141625247895717621e-02 -8.671148680150508881e-03 -2.910558599978685379e-03 5.255478993058204651e-02 1.542945858091115952e-03 -4.840542096644639969e-03 9.873970411717891693e-03 -2.384585142135620117e-02 -2.720819227397441864e-02 4.263142496347427368e-02 2.711799740791320801e-02 5.793197546154260635e-03 -3.354443935677409172e-03 -3.405170515179634094e-02 -7.624163758009672165e-03 -8.633518591523170471e-03 4.127482697367668152e-02 6.549095734953880310e-03 1.198868360370397568e-02 3.296902775764465332e-02 1.858155126683413982e-03 -2.207335643470287323e-02 -9.249033406376838684e-03 1.086361799389123917e-02 1.881368085741996765e-02 4.457246104720979929e-04 5.226343870162963867e-03 2.932067215442657471e-02 -7.110739592462778091e-03 2.186302281916141510e-02 1.213954412378370762e-03 -4.195831343531608582e-02 1.487111952155828476e-02 1.982953166589140892e-03 4.949800297617912292e-02 5.898956954479217529e-02 2.853549458086490631e-02 3.189980634488165379e-04 -1.002425793558359146e-02 -6.771284621208906174e-03 1.450338494032621384e-02 1.010823901742696762e-02 -5.030993744730949402e-02 -3.218128532171249390e-02 -6.309940014034509659e-03 -2.953152358531951904e-02 3.572264686226844788e-02 3.377693647053092718e-04 -1.039695809595286846e-03 -2.066425606608390808e-02 -7.326333783566951752e-03 -1.929881423711776733e-02 -1.230226270854473114e-02 -2.577655948698520660e-02 -5.254231858998537064e-03 -1.937214657664299011e-02 -1.903191767632961273e-02 -2.031028829514980316e-02 -1.815611030906438828e-03 -2.377755753695964813e-02 4.522804636508226395e-03 -7.560437545180320740e-03 4.087721183896064758e-02 4.776464309543371201e-03 -1.663428358733654022e-02 1.581906806677579880e-03 1.494474988430738449e-02 -1.713044010102748871e-02 -1.393344625830650330e-02 3.091181069612503052e-02 2.004325389862060547e-02 -7.981120608747005463e-03 -6.924152839928865433e-03 -1.226491387933492661e-02 4.477367736399173737e-03 -1.221002545207738876e-02 -1.844241656363010406e-02 -7.108812686055898666e-03 7.496511563658714294e-03 -2.829158864915370941e-02 4.333438351750373840e-03 -4.788882099092006683e-03 4.588153213262557983e-02 1.744675636291503906e-02 2.764664962887763977e-02 6.013772636651992798e-02 -2.124706283211708069e-03 -1.619221642613410950e-02 -2.695901691913604736e-02 3.302154364064335823e-03 -1.461375784128904343e-02 1.029005646705627441e-02 -1.320663932710886002e-02 1.065998524427413940e-02 4.380585625767707825e-02 -3.915396519005298615e-03 3.591098263859748840e-02 3.955285251140594482e-02 1.871944218873977661e-02 -1.104074716567993164e-02 1.832211390137672424e-02 -3.079065494239330292e-02 6.982404738664627075e-03 -2.449887618422508240e-02 -2.127144299447536469e-02 1.913877762854099274e-02 -8.567299693822860718e-03 2.322808094322681427e-02 -1.039199531078338623e-02 -1.157556381076574326e-02 -1.474781706929206848e-02 4.236696287989616394e-03 5.769702419638633728e-02 -1.131248008459806442e-02 8.347491733729839325e-03 -7.451917044818401337e-03 4.534520208835601807e-02 -1.582415401935577393e-02 5.012460984289646149e-03 1.295809261500835419e-02 2.199115045368671417e-02 -4.546957497950643301e-04 2.206205017864704132e-02 3.707837685942649841e-02 1.024818606674671173e-02 3.258049953728914261e-03 -2.378662675619125366e-02 2.445879392325878143e-02 1.526413206011056900e-02 2.678283862769603729e-02 -2.324447222054004669e-02 -1.228784210979938507e-02 8.941332343965768814e-04 -8.776347152888774872e-03 3.146229684352874756e-02 -3.587344661355018616e-02 -6.994759291410446167e-02 5.953510478138923645e-02 5.003925040364265442e-02 7.645383011549711227e-03 5.854673683643341064e-03 3.660540329292416573e-03 7.357874885201454163e-03
4.178986418992280960e-03 3.057569451630115509e-02 8.069667965173721313e-04 -1.103473175317049026e-02 1.302700024098157883e-03 -5.164543632417917252e-03 -1.343763899058103561e-02 2.371137589216232300e-02 1.478297915309667587e-02 4.458795767277479172e-03 8.899046108126640320e-03 -3.420077264308929443e-02 -2.779494598507881165e-02 3.082474693655967712e-03 -2.824108349159359932e-03 -1.765463314950466156e-02 1.766413263976573944e-02 -9.349299594759941101e-03 -3.681242465972900391e-02 1.529501099139451981e-02 2.517825923860073090e-04 1.895629800856113434e-03 -1.134252548217773438e-02 7.714377716183662415e-03 1.965247467160224915e-02 -1.521188952028751373e-02 -2.086287178099155426e-02 3.069901466369628906e-02 -7.414469029754400253e-03 -2.294229157269001007e-02 -1.228678302140906453e-04 8.796818554401397705e-03 1.860722713172435760e-02 8.696788921952247620e-03 3.242242964915931225e-04 1.150378212332725525e-02 -6.664323620498180389e-03 4.165974969509989023e-04 2.625975012779235840e-02 2.596704848110675812e-02 7.263908628374338150e-03 2.063545025885105133e-02 -2.158554503694176674e-03 5.604025907814502716e-03 -1.828250288963317871e-02 3.273527324199676514e-02 -5.719558801501989365e-03 -6.118040997534990311e-03 -1.760780252516269684e-02 6.748579442501068115e-03 -9.384180419147014618e-03 2.066707238554954529e-02 -7.163130678236484528e-03 8.263731142506003380e-04 4.276565462350845337e-02 1.084447558969259262e-02 -2.315271273255348206e-02 3.092217259109020233e-02 1.240643486380577087e-02 1.216587796807289124e-02 -8.673357777297496796e-03 1.646540127694606781e-02 -7.987939752638339996e-03 -1.046386826783418655e-02 6.137291900813579559e-03 -8.761647157371044159e-03 1.946621574461460114e-02 8.100217208266258240e-03 -2.275331132113933563e-02 4.114912357181310654e-03 4.574810713529586792e-02 -3.994019236415624619e-03 6.734839174896478653e-03 -1.045886334031820297e-02 9.936765767633914948e-03 4.645918309688568115e-02 6.360734254121780396e-02 2.930379414465278387e-04 -1.031175628304481506e-02 2.422630600631237030e-02 -3.290212526917457581e-02 -9.894285351037979126e-03 6.042304914444684982e-03 -1.992365531623363495e-02 4.069851711392402649e-02 3.163842484354972839e-02 -1.883726380765438080e-02 2.124350331723690033e-02 -9.876533411443233490e-03 -3.705906122922897339e-02 -1.014965493232011795e-02 -3.567324951291084290e-02 -3.053788654506206512e-02 6.347114220261573792e-03 5.088674277067184448e-02 -5.072870757430791855e-03 -1.964542455971240997e-02 2.903507277369499207e-02 -1.302810199558734894e-02 3.870537504553794861e-02 -7.010233821347355843e-05 -3.140715509653091431e-02 1.127758715301752090e-02 -1.004459895193576813e-02 2.279285155236721039e-02 1.989250630140304565e-02 -1.457117218524217606e-02 -1.699487864971160889e-02 -1.956242602318525314e-03 7.145382463932037354e-03 -3.789572045207023621e-03 8.559908019378781319e-04 1.443647779524326324e-03 -1.339263468980789185e-02 7.765333633869886398e-03 -1.934232376515865326e-02 2.744721807539463043e-02 2.846432290971279144e-02 -5.217807739973068237e-02 -1.205286756157875061e-02 1.156620867550373077e-02 -3.726888447999954224e-03 6.225926801562309265e-02 1.972569525241851807e-02 -3.281877934932708740e-02 2.490589581429958344e-02 -4.666322097182273865e-02 7.766208145767450333e-04 -8.984950836747884750e-04 2.976726181805133820e-02 -9.632456116378307343e-03 1.090549211949110031e-02 -4.871537443250417709e-03 -3.921264782547950745e-02 9.962863288819789886e-03 1.563431508839130402e-02 8.403250016272068024e-03 -4.276549443602561951e-03 -9.180548600852489471e-03 -1.438590697944164276e-02 -5.775444209575653076e-03 3.614625660702586174e-03 -4.838972818106412888e-03 -2.304927818477153778e-02 -3.111900063231587410e-03 3.076857514679431915e-02 -2.265822142362594604e-02 -1.182119455188512802e-02 -2.348080091178417206e-02 2.523590344935655594e-03 1.000714581459760666e-02 -4.304771870374679565e-02 -6.516450084745883942e-03 1.593823358416557312e-02 1.511393208056688309e-02 -5.766611546277999878e-03 -2.686028834432363510e-03 2.808408066630363464e-02 1.965637318789958954e-02 1.693620230071246624e-03 -4.221752658486366272e-02 4.144201055169105530e-03 -1.583439880050718784e-03 -4.067155066877603531e-03 1.030287891626358032e-02 -1.675630919635295868e-02 1.622950099408626556e-02 3.120819339528679848e-03 -6.396474316716194153e-03 -3.932643681764602661e-03 -2.454892173409461975e-02 -2.637465856969356537e-02 2.231671847403049469e-02 -1.734689227305352688e-03 1.286751218140125275e-02 -1.771221868693828583e-02 -1.466482412070035934e-02 7.055758498609066010e-03 -2.060201950371265411e-02 2.226696908473968506e-02 -3.573134774342179298e-03 3.430131077766418457e-02 7.463612593710422516e-03 -1.567514427006244659e-02 3.954322892241179943e-04 3.408072888851165771e-02 -1.745991408824920654e-02 -2.139217965304851532e-02 7.231283467262983322e-03 1.392539683729410172e-02 3.875268623232841492e-02 1.197166927158832550e-02 -4.182032123208045959e-02 2.763190120458602905e-02 6.667488720268011093e-03 -1.251859497278928757e-02 -5.101699847728013992e-03 -4.048437997698783875e-02 2.035490423440933228e-02 2.377814054489135742e-02 -1.951449736952781677e-02 -2.530159801244735718e-02 -1.665836013853549957e-02 -1.904494856717064977e-04 -1.052024122327566147e-02 -8.592298254370689392e-03 -3.247492387890815735e-02 -5.946144927293062210e-03 2.829680964350700378e-02 2.744070254266262054e-03 -1.902314089238643646e-02 -1.119810808449983597e-02 -2.669643377885222435e-03 -1.872554607689380646e-02 -1.825640164315700531e-02 3.298491612076759338e-02 -3.251184243708848953e-03 1.887504756450653076e-02 2.440650248900055885e-03 2.422586642205715179e-02 5.465249530971050262e-03 6.869390606880187988e-03 -2.535618655383586884e-02 -7.733894046396017075e-03 -2.074812911450862885e-02 -1.672740094363689423e-02 1.113513763993978500e-02 4.118603840470314026e-02 -1.981685496866703033e-02 -5.443386733531951904e-03 1.757477223873138428e-02 9.446968324482440948e-03 6.387569475919008255e-03 -7.474367506802082062e-03 -3.058738633990287781e-02 -1.945892907679080963e-02 -1.649353094398975372e-02 -3.130796179175376892e-02 1.274157036095857620e-02 1.526646228739991784e-04 9.363858029246330261e-03 -2.471382915973663330e-02 2.120935358107089996e-02 -4.761704709380865097e-03 -2.247357275336980820e-03 -3.047488862648606300e-03 -1.236655097454786301e-02 6.603114306926727295e-03 2.934235148131847382e-02 1.150641823187470436e-03 9.485834278166294098e-03 -1.234462950378656387e-02 1.340449380222707987e-04 -1.366836763918399811e-02 -2.657525241374969482e-02 -1.337714027613401413e-02
1.472718454897403717e-02 1.158103346824645996e-02 -2.234067069366574287e-03 -8.654234930872917175e-03 -1.623507402837276459e-02 -5.550565198063850403e-02 1.308865845203399658e-02 7.503835018724203110e-03 -4.611998423933982849e-02 -2.143212407827377319e-02 6.805045995861291885e-03 -1.695115119218826294e-02 -5.210088100284337997e-03 -2.918557263910770416e-03 -1.695224083960056305e-02 1.118954364210367203e-02 4.074106365442276001e-02 1.161469612270593643e-02 -3.994536772370338440e-02 -2.856378629803657532e-02 2.139596082270145416e-02 3.803367726504802704e-03 -3.117631003260612488e-02 -6.057982519268989563e-02 -2.773040160536766052e-02 -3.093683626502752304e-03 -3.277441486716270447e-02 -6.531327962875366211e-02 5.815085396170616150e-02 -8.902949281036853790e-03 3.398415073752403259e-02 5.553467199206352234e-02 -5.315122380852699280e-02 -5.851554498076438904e-02 3.394087404012680054e-02 2.200063504278659821e-02 -1.774374768137931824e-02 1.464288122951984406e-02 -1.569339819252490997e-02 3.547518700361251831e-02 -3.060572082176804543e-03 -5.827671661972999573e-02 -7.595392875373363495e-03 3.526486456394195557e-02 -1.131430361419916153e-02 -2.946109883487224579e-02 3.008257597684860229e-02 -4.941418766975402832e-02 2.387516945600509644e-02 -1.538009196519851685e-02 -6.941996980458498001e-03 3.373704478144645691e-02 -1.133235730230808258e-02 1.131014712154865265e-02 7.464476861059665680e-03 7.163230329751968384e-02 -2.627965994179248810e-02 -8.024095557630062103e-03 1.553895883262157440e-02 3.775586187839508057e-02 3.243273869156837463e-02 -2.186477370560169220e-02 -4.318130761384963989e-02 2.462834119796752930e-03 1.701108366250991821e-02 6.596400868147611618e-03 5.231349263340234756e-03 -5.091952160000801086e-02 -1.729826442897319794e-02 3.719954565167427063e-02 -3.641613945364952087e-02 -5.375762935727834702e-03 -4.444761201739311218e-02 3.423426672816276550e-02 2.766292542219161987e-03 6.405553966760635376e-02 8.444838970899581909e-02 -2.627054462209343910e-03 -6.127505004405975342e-02 1.441411394625902176e-02 4.270653240382671356e-03 -1.699082367122173309e-02 -1.219500135630369186e-02 1.110868249088525772e-02 -3.866248577833175659e-02 -4.415865242481231689e-02 4.179845005273818970e-02 1.337916962802410126e-02 3.923632204532623291e-02 3.091370128095149994e-02 -3.068896941840648651e-02 -3.972975537180900574e-02 -2.243403904139995575e-02 1.327336882241070271e-03 9.807900525629520416e-03 -2.910947799682617188e-02 -1.596744550624862313e-04 -1.182669401168823242e-02 -1.160013605840504169e-03 -3.825392201542854309e-02 -3.444857895374298096e-03 9.359566494822502136e-03 -1.280109211802482605e-02 1.570386253297328949e-02 -6.797074805945158005e-03 1.115665584802627563e-02 -1.895323209464550018e-02 1.255527511239051819e-02 1.988982409238815308e-02 -4.445523768663406372e-02 -6.148587167263031006e-02 -2.988508157432079315e-02 2.936118748039007187e-03 1.948583684861660004e-02 4.854112863540649414e-02 1.616634987294673920e-02 -2.501884242519736290e-03 -1.184014882892370224e-02 -2.629589848220348358e-02 3.143838047981262207e-02 2.448354847729206085e-02 5.039589107036590576e-02 9.658149443566799164e-03 2.582785300910472870e-02 1.264373119920492172e-02 1.730703189969062805e-02 1.720755547285079956e-02 -2.393862605094909668e-02 1.578339189291000366e-02 1.640374958515167236e-02 -4.320343583822250366e-02 -6.125834211707115173e-02 5.426665302366018295e-03 -2.204941771924495697e-02 7.413107436150312424e-03 4.481963068246841431e-02 -3.785602375864982605e-02 1.935708150267601013e-02 4.159128293395042419e-03 2.956727892160415649e-02 3.959743306040763855e-02 2.809876389801502228e-02 -4.389669746160507202e-02 -5.221863277256488800e-03 -2.684299543034285307e-04 -2.089972048997879028e-02 3.230800619348883629e-03 -2.013555541634559631e-02 -2.205264382064342499e-02 9.928685612976551056e-03 1.734512508846819401e-03 -1.350222621113061905e-02 1.654588803648948669e-02 -1.010229717940092087e-02 -1.202646549791097641e-02 -6.879867985844612122e-03 5.669482983648777008e-03 4.128538537770509720e-03 2.936504967510700226e-02 2.695506066083908081e-02 -2.296987548470497131e-02 -8.377234451472759247e-03 4.140769131481647491e-03 3.907407447695732117e-02 -2.736295573413372040e-02 3.569506853818893433e-02 -3.985325619578361511e-02 -6.156824901700019836e-02 -9.006197564303874969e-03 9.521191939711570740e-03 -3.080578148365020752e-02 -1.590818725526332855e-02 5.640833638608455658e-03 2.712855301797389984e-02 4.405090585350990295e-02 -9.387776255607604980e-03 -3.423760831356048584e-02 -2.340350486338138580e-02 -1.654199324548244476e-02 1.523006241768598557e-02 -9.228736162185668945e-03 -1.654109172523021698e-02 1.078994758427143097e-02 4.964442458003759384e-03 -8.259016089141368866e-03 -1.987851969897747040e-02 1.817257516086101532e-02 2.032352797687053680e-02 -1.263174973428249359e-02 2.473307773470878601e-02 1.641359878703951836e-03 8.411108702421188354e-02 -6.801147013902664185e-02 -3.753032162785530090e-02 1.469260081648826599e-02 -2.765645831823348999e-02 3.193445131182670593e-02 1.920302398502826691e-02 2.776891225948929787e-03 -2.720434963703155518e-02 -1.925023831427097321e-02 -3.757037594914436340e-02 -1.271883305162191391e-02 2.696545049548149109e-02 1.574182067997753620e-03 4.037457332015037537e-02 2.551395446062088013e-02 1.497976202517747879e-02 -1.707947626709938049e-02 3.495282679796218872e-02 1.054782141000032425e-02 -1.463268790394067764e-02 -8.651682175695896149e-03 3.003667108714580536e-02 2.949180267751216888e-02 2.393480949103832245e-02 1.241776905953884125e-02 -4.917406663298606873e-02 -3.354952111840248108e-02 -7.828556001186370850e-02 -6.608478724956512451e-02 -3.164604306221008301e-02 -1.312192715704441071e-02 -2.420507557690143585e-02 2.892463840544223785e-02 6.914015859365463257e-03 -3.756427019834518433e-02 7.906752638518810272e-03 4.272185266017913818e-03 -2.952336333692073822e-03 8.629756048321723938e-03 2.018454857170581818e-02 1.562638208270072937e-02 6.213207170367240906e-02 3.480876982212066650e-02 2.859421074390411377e-02 1.851833611726760864e-02 1.706626848317682743e-03 1.687740348279476166e-02 -9.921654127538204193e-03 -2.293660864233970642e-02 -3.212926909327507019e-02 2.101610414683818817e-02 -5.831734463572502136e-02 -3.295963257551193237e-02 1.785672642290592194e-02 -1.561322435736656189e-02 -3.805144131183624268e-02 1.865751855075359344e-02 6.148895248770713806e-03 1.269678492099046707e-02 -4.294117540121078491e-02 1.625338941812515259e-02 1.397584564983844757e-02 -2.536451257765293121e-02 -2.962623350322246552e-02
-3.122431924566626549e-03 1.983662322163581848e-02 -2.690984308719635010e-02 3.754033520817756653e-02 1.703173480927944183e-02 -3.201331943273544312e-02 -1.798293553292751312e-02 2.904772944748401642e-02 -2.320627495646476746e-02 3.385049849748611450e-02 1.130810752511024475e-02 2.566278912127017975e-03 -4.515756294131278992e-02 2.726586349308490753e-02 -8.184101432561874390e-03 -5.050249397754669189e-03 9.679146111011505127e-03 1.693875342607498169e-02 -1.839771308004856110e-02 -9.991477243602275848e-03 -4.597432911396026611e-02 -1.845403015613555908e-02 -2.659651450812816620e-02 -2.935712598264217377e-02 5.887541547417640686e-02 -1.332555338740348816e-02 -1.822173409163951874e-02 -2.850177325308322906e-02 1.036043651401996613e-02 -1.328276284039020538e-02 -1.343676261603832245e-02 -3.089441359043121338e-02 4.983979836106300354e-02 1.485102111473679543e-04 -2.782694064080715179e-02 -2.131056785583496094e-02 1.417079567909240723e-02 -1.917870715260505676e-02 -1.232491061091423035e-02 -3.734540892764925957e-03 2.923036925494670868e-02 2.125539816915988922e-02 -2.312731370329856873e-02 -1.179333403706550598e-02 5.802308674901723862e-03 1.713050156831741333e-02 -4.030635207891464233e-02 -5.421633273363113403e-02 2.787937410175800323e-02 3.963774535804986954e-03 3.493865579366683960e-02 3.062758594751358032e-02 -3.617624938488006592e-02 4.229564219713211060e-02 -4.198041744530200958e-03 -2.676553279161453247e-02 3.573751822113990784e-02 -1.334867533296346664e-02 8.925678208470344543e-03 4.883590340614318848e-02 -1.052152644842863083e-02 1.925482600927352905e-02 1.356101687997579575e-02 -1.012526359409093857e-02 -1.917278021574020386e-02 1.729384437203407288e-02 -2.467083744704723358e-02 -2.739661931991577148e-02 8.134178817272186279e-03 -5.946466233581304550e-03 -3.448939882218837738e-03 7.811271119862794876e-03 -1.312108803540468216e-02 -1.649416610598564148e-02 -4.159563034772872925e-02 4.636296257376670837e-02 1.369255036115646362e-02 -2.317600138485431671e-02 4.637767374515533447e-02 2.656161971390247345e-02 3.491557016968727112e-02 -1.171014644205570221e-02 -4.218436032533645630e-02 -8.323524147272109985e-03 1.380964647978544235e-02 -4.808951541781425476e-02 1.322829164564609528e-03 2.914643846452236176e-02 1.807538047432899475e-02 -1.224923320114612579e-02 -1.763777062296867371e-02 3.999431803822517395e-02 1.350959856063127518e-02 -1.241299044340848923e-02 -2.998757176101207733e-02 1.859376206994056702e-02 -5.571422167122364044e-03 3.262930735945701599e-02 -8.513505756855010986e-02 1.770950667560100555e-02 -2.851434610784053802e-02 1.212038565427064896e-02 -3.164569661021232605e-02 -3.894738852977752686e-02 -4.604092612862586975e-02 4.237934947013854980e-02 -1.372264605015516281e-02 -3.872492164373397827e-02 6.538467854261398315e-02 3.146152943372726440e-02 -7.696186006069183350e-02 4.246370494365692139e-02 -3.897714614868164062e-02 1.572735048830509186e-02 4.526046663522720337e-02 -1.417857129126787186e-02 1.869999431073665619e-02 -2.391318045556545258e-02 8.506178855895996094e-03 -3.916556015610694885e-03 -2.548673562705516815e-02 2.130500040948390961e-02 3.710664063692092896e-02 -3.275779262185096741e-02 -3.823726624250411987e-02 -3.114453516900539398e-03 -2.490907721221446991e-02 1.430319529026746750e-02 1.532457210123538971e-02 -5.897408723831176758e-02 2.227094210684299469e-02 -2.475939318537712097e-02 1.228860055562108755e-04 2.527096867561340332e-02 -4.566066712141036987e-02 2.321222382306586951e-06 4.734190553426742554e-02 7.015746831893920898e-02 -2.129059843719005585e-02 1.676070317625999451e-02 8.324549533426761627e-03 -1.465878682211041451e-03 -1.109995879232883453e-02 2.958302758634090424e-02 3.662483394145965576e-02 -2.836826443672180176e-02 -1.179563347250223160e-02 -1.567802950739860535e-02 -2.249906025826931000e-02 6.156105548143386841e-03 9.935650741681456566e-04 -2.187442965805530548e-02 -3.076520003378391266e-02 -2.458200603723526001e-02 -8.859172463417053223e-03 -3.592526912689208984e-02 -1.646508462727069855e-02 1.134535390883684158e-02 -1.205828133970499039e-02 3.852545516565442085e-03 -4.917151480913162231e-02 -1.254832278937101364e-02 -9.545999579131603241e-03 2.015948668122291565e-02 2.633154019713401794e-02 -4.859693348407745361e-02 -3.804106265306472778e-02 5.017773807048797607e-02 1.073240581899881363e-02 -1.670582592487335205e-02 -2.718658931553363800e-02 1.060145162045955658e-02 8.530334569513797760e-03 6.894967984408140182e-03 -4.434793442487716675e-02 2.995518222451210022e-02 -1.048133336007595062e-02 1.634165085852146149e-02 1.956572569906711578e-02 -2.209278941154479980e-02 -1.457946002483367920e-02 -5.530758947134017944e-02 -7.177052088081836700e-03 1.992688700556755066e-02 -3.940282016992568970e-02 -1.012380584143102169e-03 3.081879206001758575e-02 1.393528096377849579e-02 2.111650444567203522e-02 -1.344807818531990051e-02 7.111045066267251968e-03 2.726842463016510010e-02 -3.098517283797264099e-02 -3.299190476536750793e-02 -3.695148974657058716e-02 -2.540523000061511993e-02 9.727410040795803070e-03 -3.812915179878473282e-03 2.856523171067237854e-02 4.502234980463981628e-02 1.809080364182591438e-03 -1.763363834470510483e-03 4.521732404828071594e-02 6.622408400289714336e-04 -4.314755089581012726e-03 2.063873223960399628e-02 -4.350266605615615845e-02 -2.391103282570838928e-02 2.899847365915775299e-02 -5.561228841543197632e-03 -1.833896897733211517e-02 -3.730852529406547546e-02 -5.905027035623788834e-03 -1.983614638447761536e-02 1.386133022606372833e-03 2.260914072394371033e-02 -2.355219610035419464e-02 6.763330101966857910e-02 6.428855657577514648e-02 5.390812829136848450e-02 -2.820422407239675522e-03 -4.474819079041481018e-02 -7.211966812610626221e-02 1.579909957945346832e-02 -2.023646607995033264e-02 1.747314445674419403e-02 3.919419832527637482e-03 1.650808379054069519e-02 -5.017871968448162079e-03 -3.264395147562026978e-02 -3.072988940402865410e-03 6.993531715124845505e-03 2.103581465780735016e-02 1.468945993110537529e-03 1.250283676199615002e-03 -2.687122859060764313e-02 4.760001599788665771e-02 3.714168997248634696e-05 -1.489527244120836258e-02 3.122442215681076050e-02 4.652633890509605408e-02 -1.633211039006710052e-02 6.015179678797721863e-03 3.171485662460327148e-02 -2.248433046042919159e-02 2.468251064419746399e-02 5.823967605829238892e-02 2.508728019893169403e-02 -9.433190338313579559e-03 -6.946639623492956161e-03 -1.653483370319008827e-03 1.519112754613161087e-02 6.495839916169643402e-03 4.329866915941238403e-02 2.066447958350181580e-02 -4.624066408723592758e-03
8.956039696931838989e-02 3.720348468050360680e-03 -7.860371842980384827e-03 -1.420745160430669785e-02 2.634720131754875183e-02 3.862259676679968834e-03 -1.375500392168760300e-02 2.300337702035903931e-02 2.712429873645305634e-02 2.451272308826446533e-02 3.343764320015907288e-02 -1.118601392954587936e-02 -1.274984981864690781e-02 3.087299689650535583e-02 -1.907421834766864777e-02 3.099731402471661568e-03 -4.407733678817749023e-02 1.239281985908746719e-02 -1.167602371424436569e-02 -4.223125800490379333e-02 3.018170222640037537e-02 2.030498348176479340e-03 -1.612970605492591858e-02 6.603370886296033859e-03 -5.698560271412134171e-03 1.195657905191183090e-02 -3.101962804794311523e-02 5.499960854649543762e-03 -7.498966902494430542e-02 4.661701619625091553e-03 2.731432393193244934e-02 -1.995274238288402557e-02 -2.693459950387477875e-02 -1.052768342196941376e-02 1.418631523847579956e-02 1.125833578407764435e-02 6.410124478861689568e-04 -2.067903429269790649e-02 -3.421280160546302795e-02 2.659426443278789520e-02 -1.845374889671802521e-02 -5.040952563285827637e-02 -7.945866137742996216e-02 5.029889568686485291e-02 3.059343807399272919e-02 2.863127551972866058e-02 -3.162184357643127441e-02 5.101646762341260910e-03 -3.501399606466293335e-02 -3.219114989042282104e-02 -2.085954882204532623e-02 -1.165410503745079041e-02 -7.219546288251876831e-02 -9.668114944361150265e-04 -4.176682606339454651e-02 -3.311322256922721863e-02 1.703016459941864014e-02 -3.553212806582450867e-02 7.239572703838348389e-03 -2.355299703776836395e-02 -5.376357585191726685e-03 -2.912134863436222076e-02 4.258854314684867859e-02 5.274288821965456009e-03 -1.246818713843822479e-02 1.450902130454778671e-02 2.846140787005424500e-02 4.622475057840347290e-02 3.821970894932746887e-02 -6.284179538488388062e-02 2.102716360241174698e-03 7.169213145971298218e-02 -2.081541344523429871e-02 4.515667259693145752e-02 -9.149334393441677094e-03 -8.167155086994171143e-03 -6.361407693475484848e-03 4.931771755218505859e-02 5.258565768599510193e-02 -2.521786279976367950e-02 1.386274397373199463e-02 2.860533818602561951e-02 1.527220755815505981e-02 -8.692424162290990353e-04 2.967133186757564545e-02 2.426872588694095612e-02 4.273693636059761047e-02 1.571282371878623962e-02 1.158892177045345306e-02 -5.915565788745880127e-02 2.190471161156892776e-03 -2.255338244140148163e-02 -8.642539381980895996e-03 2.372320741415023804e-02 -1.501232013106346130e-02 5.023210495710372925e-02 -9.636243432760238647e-02 1.173696853220462799e-02 -5.077082291245460510e-02 -6.061749905347824097e-02 -2.675027586519718170e-02 4.008618369698524475e-02 -7.186949253082275391e-02 -3.846346214413642883e-02 2.830242365598678589e-02 -2.294351719319820404e-02 1.920394971966743469e-02 -1.108423620462417603e-02 1.241526380181312561e-02 -1.544251665472984314e-02 -7.469612639397382736e-03 3.909645974636077881e-02 -2.663166669663041830e-04 -2.105642668902873993e-02 3.295969218015670776e-02 1.498394366353750229e-02 3.389273583889007568e-02 1.823386736214160919e-02 -1.434784289449453354e-02 1.091027259826660156e-02 -1.066710986196994781e-02 -3.130882605910301208e-02 -3.431520238518714905e-02 2.963769994676113129e-02 2.863773703575134277e-02 -7.530748378485441208e-03 2.890684828162193298e-02 1.059661339968442917e-02 -3.077180311083793640e-02 -1.876821368932723999e-02 1.972114201635122299e-03 1.586882956326007843e-02 -1.916076429188251495e-02 -2.434923226246610284e-04 -5.740519240498542786e-02 -1.464082626625895500e-03 2.763169631361961365e-02 -1.621234579943120480e-03 -3.164707496762275696e-02 3.235273063182830811e-02 -2.412466704845428467e-02 6.582481320947408676e-03 -3.681917116045951843e-02 3.130016848444938660e-02 -2.488998696208000183e-02 -1.003374997526407242e-02 3.585147857666015625e-02 3.075980581343173981e-02 6.491899490356445312e-02 1.169691421091556549e-02 6.002620328217744827e-03 6.502554565668106079e-02 -4.752442985773086548e-02 -3.720529004931449890e-02 -7.849945127964019775e-02 -8.628327399492263794e-02 7.245252840220928192e-03 -1.908427663147449493e-02 -4.082792252302169800e-02 -2.835927717387676239e-02 -2.248374186456203461e-02 -4.924038890749216080e-03 -3.859422728419303894e-02 7.102037966251373291e-02 3.792089223861694336e-02 2.123947069048881531e-02 -3.145962208509445190e-02 -2.515262551605701447e-02 -1.044253539294004440e-02 -7.011699955910444260e-03 1.041458919644355774e-02 4.411453008651733398e-02 -3.754045814275741577e-02 2.217136509716510773e-02 -1.494706980884075165e-02 1.839892938733100891e-02 -9.563586674630641937e-03 1.575182192027568817e-03 2.578571252524852753e-02 -2.973159030079841614e-02 -3.175520151853561401e-02 -3.304491937160491943e-02 -2.214458212256431580e-02 -4.352150484919548035e-02 -5.717999860644340515e-02 -2.973521687090396881e-02 7.671826053410768509e-03 1.487768441438674927e-02 4.643695894628763199e-03 -1.190075650811195374e-02 -6.008850876241922379e-03 2.394562773406505585e-02 1.077862456440925598e-02 -4.454839974641799927e-02 -3.201862564310431480e-03 6.428558379411697388e-02 4.074591398239135742e-02 2.474941685795783997e-02 -3.864758834242820740e-02 1.563633047044277191e-02 1.317053195089101791e-02 -4.605787247419357300e-02 -7.144059985876083374e-02 3.034031763672828674e-02 -1.834407215937972069e-03 1.730298623442649841e-02 2.163585834205150604e-02 2.726283669471740723e-02 -3.230461850762367249e-02 -4.564045369625091553e-02 -6.903269328176975250e-03 5.463661625981330872e-03 -5.189022049307823181e-02 -3.544978052377700806e-02 -6.379552930593490601e-02 1.368525717407464981e-02 3.575182706117630005e-02 -7.653429638594388962e-03 7.452277466654777527e-03 -5.040478706359863281e-02 -1.014624387025833130e-01 3.692847117781639099e-02 4.004215076565742493e-02 -4.070525057613849640e-03 3.743105754256248474e-02 1.143122464418411255e-02 -2.337904833257198334e-02 3.348579257726669312e-02 1.189025770872831345e-02 5.601403862237930298e-02 3.240022435784339905e-02 -3.440007101744413376e-03 -3.460091724991798401e-02 1.011865795589983463e-03 1.865053549408912659e-02 -2.388211525976657867e-02 5.294827371835708618e-02 7.860432378947734833e-03 -2.795538119971752167e-02 -1.921988837420940399e-02 -3.071196191012859344e-02 -2.497764490544795990e-02 -5.427236855030059814e-02 -3.071676194667816162e-02 1.234375592321157455e-02 -2.417872846126556396e-02 -2.282634191215038300e-02 1.042817533016204834e-02 2.700067497789859772e-02 4.771732538938522339e-02 -3.851592482533305883e-04 -3.566046059131622314e-02 2.317709289491176605e-02 -7.918498665094375610e-02 -2.349702082574367523e-02 -4.410691559314727783e-02
-2.389962784945964813e-02 -2.723641879856586456e-02 1.332667656242847443e-02 -4.487181082367897034e-03 1.946993544697761536e-02 3.522730246186256409e-02 -2.524289488792419434e-02 -5.456759035587310791e-02 -2.186441421508789062e-02 -1.204833015799522400e-02 -1.676869206130504608e-02 -1.324438396841287613e-02 -3.753347322344779968e-02 7.274243514984846115e-03 4.535048734396696091e-03 9.812994860112667084e-03 -1.257124729454517365e-02 2.139266207814216614e-02 -5.196434631943702698e-02 9.697134606540203094e-03 -5.429316312074661255e-03 -3.709093481302261353e-02 -2.421781048178672791e-02 -2.075189352035522461e-02 6.200348213315010071e-02 -2.792118676006793976e-02 -3.932873718440532684e-03 4.846280068159103394e-02 2.760710893198847771e-03 2.249234355986118317e-02 1.868571527302265167e-02 -2.635917440056800842e-02 1.218779385089874268e-02 -3.817712888121604919e-02 3.441444784402847290e-02 -2.185996808111667633e-02 2.531746216118335724e-02 -3.834066912531852722e-02 -5.759940668940544128e-02 -5.140553414821624756e-02 -5.244497209787368774e-02 1.834303885698318481e-02 -3.136872500181198120e-02 2.164562977850437164e-02 -2.230179123580455780e-02 -3.031137213110923767e-02 4.288246110081672668e-02 -2.447384782135486603e-02 -3.509559482336044312e-02 -2.329497784376144409e-02 -3.812761744484305382e-03 1.455056294798851013e-02 -7.567331939935684204e-02 -1.065584830939769745e-02 -4.857017844915390015e-02 -4.445889964699745178e-02 -4.373481124639511108e-02 -7.056263275444507599e-04 8.210541307926177979e-02 -2.295956201851367950e-02 5.684508010745048523e-02 1.771275140345096588e-02 -1.507253106683492661e-02 2.742509357631206512e-02 -8.451142348349094391e-03 -1.752119883894920349e-02 -7.038222998380661011e-02 -2.988587599247694016e-03 8.178714662790298462e-02 -9.214565157890319824e-03 3.920286148786544800e-02 1.201941980980336666e-03 -1.226567383855581284e-02 -6.227069068700075150e-03 3.319556266069412231e-02 -5.374308675527572632e-04 9.295437484979629517e-03 3.170472336933016777e-03 2.307937853038311005e-02 1.372615806758403778e-02 1.752620190382003784e-02 7.112192455679178238e-03 -5.458700004965066910e-03 -2.388788014650344849e-02 6.198719143867492676e-03 -1.570701971650123596e-02 1.435161568224430084e-02 3.129187226295471191e-02 1.359036751091480255e-02 -2.067427337169647217e-02 -7.731331046670675278e-03 3.118517994880676270e-02 1.448554918169975281e-02 9.600163437426090240e-03 -3.677057102322578430e-02 1.830925978720188141e-02 -4.936651885509490967e-02 -4.517482593655586243e-02 -4.079665616154670715e-02 -3.056713007390499115e-02 -1.376216951757669449e-02 -1.357599627226591110e-02 1.676361076533794403e-02 2.367841452360153198e-02 2.179113216698169708e-02 2.738080732524394989e-02 1.635593734681606293e-02 -3.726880531758069992e-03 2.016283571720123291e-02 4.861778113991022110e-03 -1.491689682006835938e-02 5.125518515706062317e-02 6.157169863581657410e-02 -5.082892253994941711e-02 1.132825668901205063e-02 5.159256234765052795e-02 2.776031941175460815e-02 -2.762167342007160187e-02 -8.296769228763878345e-04 -1.215953286737203598e-02 2.736086025834083557e-02 3.212996525689959526e-04 -1.099826209247112274e-02 -3.539603576064109802e-02 -8.220561780035495758e-03 7.005084306001663208e-03 -3.086563199758529663e-03 -1.080507878214120865e-02 3.076162002980709076e-02 1.341570634394884109e-02 2.527605276554822922e-03 -1.389691885560750961e-02 6.740306969732046127e-03 -6.220488250255584717e-02 -8.673305623233318329e-03 1.852866075932979584e-02 -2.470166422426700592e-02 -8.729542605578899384e-03 -8.783090859651565552e-03 4.861400276422500610e-02 -1.033782400190830231e-02 9.062581695616245270e-03 6.342544686049222946e-03 4.694497212767601013e-02 -3.346879780292510986e-02 -4.467349126935005188e-02 3.891503438353538513e-02 -1.604692824184894562e-02 4.612403735518455505e-02 6.293212622404098511e-02 4.294399917125701904e-02 1.510212430730462074e-03 -3.728347271680831909e-02 -7.311729132197797298e-04 -7.141382992267608643e-02 -2.727437205612659454e-02 4.223878309130668640e-02 2.716162987053394318e-02 1.092735305428504944e-02 2.699218690395355225e-02 -1.493357820436358452e-03 1.107353251427412033e-03 1.971236243844032288e-02 2.676243335008621216e-02 3.825461864471435547e-02 -3.597185760736465454e-02 1.528503838926553726e-02 -2.712506428360939026e-02 -7.930894382297992706e-03 -2.491503953933715820e-02 5.753164179623126984e-03 1.115185394883155823e-02 -6.329482421278953552e-03 -4.320517182350158691e-02 -4.513867199420928955e-02 -5.053530912846326828e-03 -1.617369242012500763e-02 4.759428557008504868e-03 3.257611766457557678e-02 -1.366116944700479507e-02 3.522169217467308044e-02 -4.297395050525665283e-02 -1.306346338242292404e-02 4.173275548964738846e-03 4.664214327931404114e-02 -1.419004052877426147e-03 1.188192702829837799e-02 -1.234844420105218887e-02 -3.410816565155982971e-02 5.809175595641136169e-02 2.393716201186180115e-02 1.887658983469009399e-02 -1.437389664351940155e-02 -9.229321731254458427e-04 -2.090810798108577728e-02 -1.203381642699241638e-02 -4.006920382380485535e-02 7.577080279588699341e-03 3.166459035128355026e-03 2.719472534954547882e-02 1.159824803471565247e-02 1.451583858579397202e-02 3.367944061756134033e-02 -7.814275100827217102e-03 -3.865018952637910843e-03 -4.164627566933631897e-02 4.998777993023395538e-03 -1.503203297033905983e-03 8.529664017260074615e-03 -1.506189443171024323e-02 2.898751385509967804e-02 -1.978726498782634735e-02 -2.204667404294013977e-02 -1.640520244836807251e-02 4.840431362390518188e-02 1.555927749723196030e-02 -1.593223586678504944e-02 6.312324665486812592e-03 -3.792347386479377747e-02 2.435655146837234497e-02 1.106612198054790497e-02 2.253190614283084869e-02 2.541063539683818817e-02 1.219736877828836441e-02 -6.899146246723830700e-04 4.744718223810195923e-02 3.278090804815292358e-02 1.471490599215030670e-02 -3.277233242988586426e-02 2.594407089054584503e-02 3.012562543153762817e-02 -1.125014107674360275e-02 -3.191962093114852905e-02 7.419149857014417648e-03 -6.712479982525110245e-03 7.177039235830307007e-02 -3.968272823840379715e-03 2.893860451877117157e-02 -3.086814843118190765e-02 -4.530147183686494827e-03 -4.913273267447948456e-03 -4.981691949069499969e-03 2.989372052252292633e-02 -1.523276697844266891e-02 -3.916075453162193298e-02 2.037319354712963104e-02 1.435800362378358841e-02 -2.048114128410816193e-02 3.621395444497466087e-03 -5.948361475020647049e-03 3.083576261997222900e-02 -9.466032497584819794e-03 1.826062070904299617e-04 1.628780737519264221e-02 1.733547635376453400e-02 -2.517484128475189209e-02
3.176396712660789490e-02 -6.547696143388748169e-02 2.060297317802906036e-02 1.839091815054416656e-02 1.324277184903621674e-02 1.558165345340967178e-02 -3.858727216720581055e-02 -6.995783769525587559e-04 -3.289478644728660583e-02 9.871522343019023538e-05 -6.346046924591064453e-02 2.054938673973083496e-02 3.496187925338745117e-02 -6.762758642435073853e-02 9.990277700126171112e-03 -7.229171693325042725e-02 4.543414711952209473e-02 1.268386933952569962e-02 -1.289177220314741135e-02 -2.073859330266714096e-03 5.664509255439043045e-03 6.144761107861995697e-03 1.639136299490928650e-02 -6.185863539576530457e-02 4.132266715168952942e-02 -2.804198488593101501e-02 -4.412107169628143311e-02 7.807704387232661247e-04 2.559197833761572838e-03 -9.166435338556766510e-03 -2.264730446040630341e-02 7.623105775564908981e-03 -1.949912519194185734e-03 3.993501141667366028e-02 -1.396598853170871735e-02 1.929594203829765320e-02 -9.011609479784965515e-03 7.288611028343439102e-03 -1.358252950012683868e-02 4.247307777404785156e-02 1.016154792159795761e-02 -1.839649677276611328e-02 2.290960587561130524e-02 1.475813426077365875e-02 -3.154013678431510925e-02 5.407131742686033249e-03 2.046767994761466980e-02 -1.231565047055482864e-02 4.472893197089433670e-03 -4.382039885967969894e-03 4.081027582287788391e-02 9.746763855218887329e-03 4.514927789568901062e-02 2.186934277415275574e-02 1.303849276155233383e-02 -1.824648818001151085e-03 -6.190591957420110703e-03 -3.964779432862997055e-03 5.948804318904876709e-02 -3.101719310507178307e-03 -2.566827647387981415e-02 -3.082228638231754303e-02 -3.764772089198231697e-03 7.537733763456344604e-03 -1.801453344523906708e-02 -1.832860708236694336e-02 2.483570948243141174e-02 -3.477950394153594971e-02 1.313104573637247086e-02 -3.328437358140945435e-02 -3.518636897206306458e-02 -4.541266709566116333e-02 -1.313494332134723663e-02 -3.819543169811367989e-03 1.474919449537992477e-02 2.446018345654010773e-02 2.579031884670257568e-02 -3.219864144921302795e-02 7.869224064052104950e-03 -2.916843444108963013e-02 1.690107025206089020e-02 -3.453854471445083618e-02 1.366973668336868286e-02 -4.290897399187088013e-02 -3.242803364992141724e-02 -3.478380618616938591e-03 3.521418664604425430e-03 -4.513765219599008560e-03 -2.363361418247222900e-02 -2.925681509077548981e-02 -2.563900314271450043e-02 1.435696426779031754e-02 3.901473432779312134e-02 -2.697218209505081177e-03 -2.143819443881511688e-02 5.933177890256047249e-04 -8.639843203127384186e-03 5.109262466430664062e-02 -2.647246466949582100e-03 9.794741868972778320e-03 3.201863914728164673e-02 3.638565540313720703e-02 1.599649339914321899e-02 -1.483999844640493393e-02 -2.812795527279376984e-02 -1.873899251222610474e-02 -4.285186529159545898e-03 5.357551202178001404e-02 3.907392267137765884e-03 1.364286895841360092e-02 -1.372414920479059219e-02 -6.016467232257127762e-03 -4.430633410811424255e-02 3.517016768455505371e-03 -5.481689702719449997e-03 2.736868336796760559e-02 4.605408466886729002e-04 8.834443055093288422e-03 1.279671490192413330e-02 -2.329340763390064240e-02 6.110202893614768982e-02 -2.161987684667110443e-02 4.970123991370201111e-02 5.850313231348991394e-02 6.649793591350317001e-03 3.003653325140476227e-02 3.709286823868751526e-02 -1.252501178532838821e-02 4.406058415770530701e-02 8.511540479958057404e-03 2.368010208010673523e-02 1.683786697685718536e-02 -1.034938450902700424e-02 -1.419035485014319420e-03 -3.098126128315925598e-02 7.271349895745515823e-03 -2.601799555122852325e-03 -1.864296197891235352e-02 -1.008475013077259064e-02 -2.995776571333408356e-02 2.621787833049893379e-03 3.997302800416946411e-02 3.359572589397430420e-02 3.445636481046676636e-02 -1.202356908470392227e-02 9.401256218552589417e-03 -1.151239033788442612e-02 -1.247578021138906479e-02 1.812074892222881317e-02 -4.480051621794700623e-02 -1.325246132910251617e-02 4.667352885007858276e-03 -2.831131406128406525e-02 -5.327548831701278687e-02 2.199616841971874237e-02 1.886356063187122345e-02 -3.539490699768066406e-02 1.162648200988769531e-02 1.269197207875549793e-03 4.852627217769622803e-02 1.355248619802296162e-03 2.145390398800373077e-02 1.453521382063627243e-02 7.397616747766733170e-03 2.516954392194747925e-02 5.643298476934432983e-02 4.650900512933731079e-02 2.906822599470615387e-02 -1.757462858222424984e-03 1.015003770589828491e-02 -9.898282587528228760e-03 -8.703976869583129883e-03 3.901331918314099312e-03 3.213271126151084900e-02 -4.625286534428596497e-02 3.824824839830398560e-02 2.394221164286136627e-02 3.040349483489990234e-02 -1.321604382246732712e-02 -2.761722076684236526e-03 -4.172639455646276474e-03 1.867156289517879486e-02 -2.271906845271587372e-02 9.155362844467163086e-02 5.616566538810729980e-02 -6.685956381261348724e-03 1.070006564259529114e-02 -8.281399495899677277e-03 2.889642491936683655e-03 2.193342149257659912e-02 -1.002405188046395779e-03 1.446542236953973770e-02 2.846808917820453644e-02 1.426328718662261963e-02 1.853244192898273468e-02 -3.530421527102589607e-04 5.004059057682752609e-04 -5.120585486292839050e-02 1.094496902078390121e-02 -4.028813168406486511e-02 1.671753451228141785e-02 -1.517676282674074173e-02 2.143696881830692291e-02 1.141327470541000366e-01 2.241880865767598152e-03 9.239358827471733093e-03 3.653369471430778503e-02 1.989230886101722717e-02 -7.022844627499580383e-03 1.483800075948238373e-02 1.772702205926179886e-03 -3.525057062506675720e-02 -1.217169337905943394e-03 -3.874054411426186562e-03 7.573001552373170853e-03 -1.159640401601791382e-02 2.923205681145191193e-02 -1.714606583118438721e-02 -1.894789002835750580e-02 -5.818521603941917419e-02 -4.853163845837116241e-03 -3.009732067584991455e-02 5.502381827682256699e-03 6.448994390666484833e-04 1.106938533484935760e-02 -2.532748505473136902e-03 -2.745396271347999573e-02 -2.101174555718898773e-03 -1.374944392591714859e-02 -6.375577300786972046e-03 2.664013765752315521e-02 -1.016747113317251205e-02 -6.673389580100774765e-03 1.983108185231685638e-02 -3.257528692483901978e-02 3.026171214878559113e-02 -3.892362117767333984e-02 5.995058268308639526e-02 -4.549374058842658997e-02 -4.180010035634040833e-02 -4.919525235891342163e-02 5.984556302428245544e-02 1.168931275606155396e-02 -4.535870999097824097e-02 -2.615480311214923859e-02 -2.605537883937358856e-02 4.101350903511047363e-03 1.388749293982982635e-02 -1.674309000372886658e-02 -4.169470816850662231e-02 -3.496153512969613075e-03 1.924083195626735687e-02 -2.469903323799371719e-03 3.603775799274444580e-02 5.432810168713331223e-03 -8.505671285092830658e-03
1.878281868994235992e-02 -2.764315903186798096e-02 5.356645584106445312e-02 -6.352595984935760498e-02 3.449696674942970276e-02 5.817164480686187744e-02 2.217802032828330994e-02 6.003187969326972961e-02 6.051878258585929871e-02 3.261098638176918030e-02 -2.709802612662315369e-02 -3.700634837150573730e-02 -1.361594884656369686e-03 -5.121299065649509430e-03 -9.507733583450317383e-02 -8.254333585500717163e-02 -2.222391590476036072e-02 6.927748769521713257e-02 -3.788933157920837402e-02 5.691676214337348938e-02 6.206527724862098694e-02 -8.123808540403842926e-03 -4.979727417230606079e-02 -2.909012325108051300e-02 -1.925197057425975800e-02 -5.294032767415046692e-02 7.418644428253173828e-02 2.413252368569374084e-02 -5.169991031289100647e-02 -7.182905822992324829e-02 -6.744399666786193848e-02 3.453901782631874084e-02 4.975764453411102295e-02 -6.195832043886184692e-02 3.733443841338157654e-02 1.376602705568075180e-02 6.173765752464532852e-03 1.938014291226863861e-02 -3.493353724479675293e-02 -4.810456186532974243e-02 -2.106639556586742401e-02 7.521698623895645142e-02 -1.130785327404737473e-02 -2.747058868408203125e-02 2.546109072864055634e-02 -9.430381469428539276e-03 -4.192173108458518982e-02 -2.512453682720661163e-02 4.339228197932243347e-02 -1.149106863886117935e-02 4.244223609566688538e-02 3.204268962144851685e-02 -4.306553676724433899e-02 -8.876523002982139587e-03 3.059301525354385376e-02 -9.394950233399868011e-03 3.039410896599292755e-02 3.088198043406009674e-02 -2.946672728285193443e-03 -4.463789053261280060e-03 3.958461433649063110e-02 -2.428067661821842194e-02 3.316403180360794067e-02 -7.651643455028533936e-02 -1.422352995723485947e-02 -3.262842074036598206e-02 3.114541061222553253e-02 -1.681596972048282623e-02 5.635105073451995850e-03 2.590303122997283936e-02 2.119082398712635040e-02 4.407962411642074585e-02 1.096130814403295517e-03 -1.643991656601428986e-02 1.051790360361337662e-02 1.294731535017490387e-02 -3.517433255910873413e-02 -6.710976827889680862e-03 -1.200228370726108551e-02 -4.419255256652832031e-02 2.483723871409893036e-02 -1.291869301348924637e-02 4.149759933352470398e-02 -5.879353731870651245e-02 -2.836742438375949860e-02 -3.074016235768795013e-02 -2.822706708684563637e-03 1.296604331582784653e-02 3.056676127016544342e-02 2.913419529795646667e-02 5.805865302681922913e-02 -1.672820537351071835e-03 -4.586783424019813538e-02 -2.732589282095432281e-02 3.614363074302673340e-02 1.850502379238605499e-02 -1.163341570645570755e-02 3.182179853320121765e-02 -4.269463941454887390e-02 2.599854581058025360e-02 -2.194146439433097839e-02 -2.230757661163806915e-02 -2.778246626257896423e-02 1.310608582571148872e-03 -1.638193498365581036e-03 4.387049004435539246e-02 -6.891641020774841309e-02 -6.870026886463165283e-02 -1.505012623965740204e-02 3.081519715487957001e-02 1.348665100522339344e-03 -3.283105045557022095e-02 2.142202109098434448e-03 -3.207395970821380615e-02 5.783824622631072998e-02 2.172196283936500549e-02 -3.225695714354515076e-02 2.483336813747882843e-02 6.932377070188522339e-02 -5.436772853136062622e-02 2.460687607526779175e-02 -1.949218846857547760e-02 -9.418618865311145782e-03 6.348791718482971191e-02 -1.160628814250230789e-02 5.129348114132881165e-02 -8.441595360636711121e-03 3.762691840529441833e-02 4.138537868857383728e-02 -1.274158712476491928e-03 -2.417645044624805450e-02 5.778273940086364746e-02 8.425274491310119629e-02 8.028338663280010223e-03 -1.557601382955908775e-03 5.667362734675407410e-02 -2.177521400153636932e-02 5.562379956245422363e-03 -2.243026532232761383e-02 -2.401888370513916016e-02 2.723390795290470123e-02 -2.317401394248008728e-02 -6.253837794065475464e-02 -1.358965411782264709e-03 2.953430172055959702e-03 -2.980954572558403015e-02 1.600824482738971710e-02 -2.049714140594005585e-02 2.512610517442226410e-02 5.680524930357933044e-02 1.944980956614017487e-02 2.466357871890068054e-02 -9.210919588804244995e-02 4.621966555714607239e-02 -1.487487275153398514e-02 -5.518058314919471741e-02 3.551223501563072205e-02 7.608793675899505615e-02 -1.197087205946445465e-02 -3.112064860761165619e-02 1.301346905529499054e-02 5.668393522500991821e-02 -6.704739062115550041e-04 6.054983660578727722e-02 4.048739746212959290e-02 6.794811040163040161e-02 -5.536159966140985489e-03 -5.546943284571170807e-03 7.484962698072195053e-03 4.898883774876594543e-02 3.850140050053596497e-02 4.108690470457077026e-02 -3.987597301602363586e-02 3.095386177301406860e-02 3.130270913243293762e-02 1.942592673003673553e-02 -3.657380118966102600e-02 6.043516099452972412e-02 -4.899276420474052429e-02 -5.650357529520988464e-02 2.925324998795986176e-02 5.094129126518964767e-03 7.059340178966522217e-02 2.085109800100326538e-02 1.259850151836872101e-02 1.599897257983684540e-02 -6.251125782728195190e-02 -3.372451290488243103e-02 -3.143128007650375366e-02 -5.313217174261808395e-03 8.718663826584815979e-03 5.600085947662591934e-03 -2.344234101474285126e-02 -1.141074765473604202e-02 -5.916484817862510681e-02 -8.729075081646442413e-03 1.602029055356979370e-02 8.075219579041004181e-03 1.980703324079513550e-02 7.030172739177942276e-03 -1.650180853903293610e-02 4.296122491359710693e-02 5.322286114096641541e-02 4.116134345531463623e-02 -4.632474109530448914e-02 4.940742626786231995e-02 1.335426606237888336e-02 6.688088923692703247e-02 8.678540587425231934e-03 -6.738600134849548340e-02 4.977692291140556335e-02 4.842308163642883301e-02 4.024429619312286377e-02 -3.584840893745422363e-02 -3.131614625453948975e-02 2.426814660429954529e-02 1.834400370717048645e-02 1.743776537477970123e-02 -5.556035786867141724e-03 -1.126622222363948822e-02 -4.028631001710891724e-02 7.006665691733360291e-03 6.178833078593015671e-03 -4.530443344265222549e-03 -6.503593642264604568e-03 3.318927809596061707e-02 6.792577356100082397e-02 3.302776068449020386e-02 -3.408854827284812927e-02 -2.588799782097339630e-02 -4.565622657537460327e-02 5.158216878771781921e-02 1.182732451707124710e-02 1.113446243107318878e-02 5.986417178064584732e-03 -3.288494050502777100e-02 3.791100578382611275e-03 4.037532582879066467e-02 6.158667430281639099e-02 5.508897360414266586e-03 -3.928574547171592712e-02 -3.223365545272827148e-02 -3.890630602836608887e-02 7.710813730955123901e-02 -4.573419690132141113e-02 -2.273177029564976692e-03 -1.088397298008203506e-02 3.010930120944976807e-02 1.823366247117519379e-02 1.474508922547101974e-02 2.083880454301834106e-02 -1.178244128823280334e-02 4.776069149374961853e-02 -2.556713670492172241e-02 6.089602410793304443e-02 7.290098816156387329e-02
