1.825017970986664295e-04 4.478515684604644775e-02 3.447292139753699303e-03 -1.172515656799077988e-02 5.044488608837127686e-02 -4.528144001960754395e-02 8.450215682387351990e-03 5.448478274047374725e-03 -2.016197703778743744e-02 -5.021956283599138260e-03 -8.996013551950454712e-03 1.257033832371234894e-02 -4.106070846319198608e-02 4.565360769629478455e-02 -1.825311593711376190e-02 2.788155153393745422e-02 2.109256014227867126e-02 -3.963751345872879028e-02 -2.697382867336273193e-02 5.455826874822378159e-03 -2.373236604034900665e-02 -6.377365440130233765e-02 -1.096676802262663841e-03 -6.684567779302597046e-02 -2.309821359813213348e-02 -1.155578996986150742e-02 9.799853898584842682e-03 2.751459134742617607e-03 -1.177028380334377289e-02 3.299063071608543396e-02 -2.680190093815326691e-02 -7.784315850585699081e-03 2.278240583837032318e-02 -2.762683108448982239e-02 1.580056385137140751e-03 2.770052291452884674e-02 1.208373997360467911e-02 1.028081867843866348e-02 8.002054877579212189e-03 -2.055012620985507965e-02 -2.937729842960834503e-02 2.790052443742752075e-02 -1.683048717677593231e-02 2.635132893919944763e-02 -2.325460314750671387e-02 -2.777272649109363556e-02 -6.858718581497669220e-03 3.004216961562633514e-02 -2.082990109920501709e-02 -1.690579764544963837e-02 2.342757210135459900e-02 1.232004817575216293e-02 -1.831713877618312836e-02 1.423785556107759476e-02 -2.294952236115932465e-02 1.403444726020097733e-02 3.015600331127643585e-02 2.091496437788009644e-02 2.301591262221336365e-02 -1.930343732237815857e-02 1.534207910299301147e-02 2.258729003369808197e-02 5.239549558609724045e-03 -2.680002525448799133e-02 1.720460318028926849e-02 2.357890643179416656e-02 -1.636977307498455048e-02 4.265896044671535492e-03 8.343942463397979736e-03 -6.361614447087049484e-03 -6.622901558876037598e-02 -5.236792378127574921e-03 -8.418656885623931885e-03 -6.727410852909088135e-02 -3.889556601643562317e-02 -5.918608978390693665e-03 -1.429996918886899948e-03 5.500810220837593079e-02 -5.151713266968727112e-03 -6.855343002825975418e-03 1.068085525184869766e-02 2.347697969526052475e-03 4.498252645134925842e-02 2.000802941620349884e-02 -5.843139253556728363e-03 5.925942212343215942e-03 2.011547051370143890e-02 1.775097660720348358e-02 -3.969546407461166382e-02 -3.878401964902877808e-02 -6.997462362051010132e-03 1.463100686669349670e-02 -1.436488144099712372e-02 -1.813534274697303772e-02 -6.106051732785999775e-04 -8.937790989875793457e-03 3.578045591711997986e-02 2.670486085116863251e-02 -4.783979058265686035e-02 -2.865411806851625443e-03 -5.142520368099212646e-02 1.154303085058927536e-02 -1.270077098160982132e-02 9.246041299775242805e-04 -3.010241501033306122e-02 -2.647454850375652313e-02 -4.886427894234657288e-02 -3.365383669734001160e-02 -5.710819736123085022e-03 -6.741037126630544662e-03 8.040055632591247559e-03 2.678865939378738403e-02 -1.507826987653970718e-02 -4.292403534054756165e-02 -3.303904458880424500e-02 -9.986215271055698395e-03 8.777548559010028839e-03 -1.351839676499366760e-02 -4.339167382568120956e-03 -2.031218446791172028e-02 -3.512376546859741211e-02 -8.034898899495601654e-03 -1.201419904828071594e-02 1.457241922616958618e-02 3.158671781420707703e-02 -3.807082772254943848e-03 -1.441805809736251831e-02 2.567455545067787170e-02 -5.402765423059463501e-02 3.175384923815727234e-02 -5.149554833769798279e-02 1.504851970821619034e-04 -1.918955147266387939e-02 7.842242717742919922e-03 -1.455934531986713409e-02 -8.996902033686637878e-03 9.343583136796951294e-03 1.662151515483856201e-02 5.287026520818471909e-03 1.093921344727277756e-02 -2.255516313016414642e-02 2.778536081314086914e-02 2.494290098547935486e-02 2.915541268885135651e-02 1.070257183164358139e-02 -2.907264791429042816e-02 1.708278991281986237e-02 2.932907547801733017e-03 -4.684686288237571716e-02 2.369265630841255188e-02 -2.379585243761539459e-02 -1.073201347026042640e-04 6.091125309467315674e-02 1.517833769321441650e-02 1.956976950168609619e-02 1.539141405373811722e-02 -2.046770788729190826e-02 6.230197474360466003e-02 1.329775340855121613e-02 5.090726539492607117e-03 -6.233620643615722656e-02 -2.821840578690171242e-03 -8.521335199475288391e-03 -1.462507806718349457e-02 3.166441619396209717e-02 1.499948371201753616e-02 -6.768034072592854500e-04 -1.438101753592491150e-02 9.606271982192993164e-03 1.806104928255081177e-02 1.354114990681409836e-02 3.896309062838554382e-02 2.348938211798667908e-02 7.520933635532855988e-03 -3.015862219035625458e-02 -1.412841118872165680e-02 -1.650957204401493073e-02 -7.871025241911411285e-03 5.029447749257087708e-02 -3.053025808185338974e-03 -3.330381959676742554e-02 -5.328445136547088623e-02 3.519501537084579468e-03 -3.135260939598083496e-02 3.302178159356117249e-02 3.184309974312782288e-02 3.916236758232116699e-02 -2.620131708681583405e-03 2.398317493498325348e-02 -1.373257860541343689e-02 -2.962972223758697510e-02 1.562393922358751297e-02 4.461190849542617798e-02 5.837049335241317749e-03 -3.005697019398212433e-02 -1.092633977532386780e-02 7.575444877147674561e-03 -6.579101551324129105e-03 -2.609652653336524963e-02 6.630795542150735855e-03 3.181213513016700745e-03 1.187672372907400131e-03 2.534645609557628632e-02 -6.853583268821239471e-03 5.593395978212356567e-02 -7.713438477367162704e-03 3.924034908413887024e-02 -5.465430021286010742e-02 4.282340779900550842e-02 -2.037907252088189125e-03 -8.477090159431099892e-04 1.908681727945804596e-02 2.224641107022762299e-02 -3.736745938658714294e-02 5.830399692058563232e-02 -3.405904397368431091e-02 -1.218228880316019058e-02 -6.216605193912982941e-03 3.229391574859619141e-02 3.444216027855873108e-02 5.644134711474180222e-03 -1.782779023051261902e-02 4.434902220964431763e-02 -1.035054679960012436e-03 -1.215153560042381287e-02 1.965977810323238373e-02 -2.717477269470691681e-02 -1.240713987499475479e-02 8.579279296100139618e-03 -2.186709828674793243e-02 7.727583870291709900e-03 2.564040943980216980e-03 -2.205567248165607452e-02 -1.525169610977172852e-02 -1.352958474308252335e-02 2.341120317578315735e-02 -2.274773456156253815e-02 -6.983397156000137329e-02 1.081988029181957245e-02 -1.070869620889425278e-02 -4.822644963860511780e-02 1.500836014747619629e-02 -1.783147640526294708e-02 9.294907562434673309e-03 2.828925382345914841e-03 -2.679913863539695740e-02 -9.552351199090480804e-03 1.370690390467643738e-02 -2.181359939277172089e-02 -2.036754041910171509e-02 -4.200957342982292175e-02 1.472726184874773026e-02 3.076042979955673218e-02 -2.418504562228918076e-03 -1.651440630666911602e-03 -1.639182865619659424e-02
3.921678662300109863e-02 -4.123134911060333252e-02 -2.353188022971153259e-02 -5.288129299879074097e-02 -4.253256320953369141e-02 -1.411948725581169128e-02 4.998716525733470917e-03 -3.261112794280052185e-02 1.346534304320812225e-02 1.673406921327114105e-02 -2.566029690206050873e-02 1.888223196147009730e-04 -1.929463632404804230e-02 -4.277715459465980530e-02 1.577526889741420746e-02 -2.603044733405113220e-02 1.087257564067840576e-01 -3.860358148813247681e-02 -2.608623541891574860e-02 1.286371424794197083e-02 -3.287916630506515503e-02 5.978282168507575989e-02 5.036348942667245865e-03 9.005974233150482178e-02 -4.651877284049987793e-02 -1.835449226200580597e-02 -3.068892657756805420e-02 -3.084238804876804352e-02 6.532425526529550552e-03 -3.297517076134681702e-02 -3.285386785864830017e-02 7.872065901756286621e-02 -5.487148463726043701e-02 2.364713884890079498e-02 1.251657609827816486e-03 4.595911502838134766e-02 2.758367173373699188e-02 -4.071247577667236328e-02 -1.829788275063037872e-02 2.459114417433738708e-02 -4.052513092756271362e-02 -2.451605163514614105e-02 -5.133637692779302597e-03 8.425066620111465454e-02 1.640439406037330627e-02 -3.250630572438240051e-03 1.361102331429719925e-02 -5.366706289350986481e-03 -5.220218375325202942e-02 -1.350314356386661530e-02 4.552996158599853516e-02 3.578005591407418251e-03 5.647484958171844482e-02 -3.561121970415115356e-02 2.282372117042541504e-02 -2.474674023687839508e-02 3.838627785444259644e-02 -1.987370476126670837e-02 8.150487393140792847e-02 -2.814730629324913025e-02 -1.482534594833850861e-02 -1.770780608057975769e-02 5.248438939452171326e-02 3.494113683700561523e-02 4.183743149042129517e-02 3.361051203683018684e-03 4.796659573912620544e-02 -5.621066316962242126e-02 -1.362055260688066483e-02 -1.708143949508666992e-02 1.646212488412857056e-02 -2.447679266333580017e-02 3.713764995336532593e-02 3.502622991800308228e-02 6.708038505166769028e-03 3.259723260998725891e-02 4.855215176939964294e-02 2.987732924520969391e-02 3.643275052309036255e-02 -5.112050846219062805e-02 -2.849895320832729340e-02 5.048450455069541931e-02 -3.005009703338146210e-02 8.942052721977233887e-03 -1.393316080793738365e-03 -4.527638107538223267e-02 -3.613542392849922180e-02 5.534364655613899231e-02 -4.068179428577423096e-02 3.580610267817974091e-03 6.005026400089263916e-03 1.408456917852163315e-02 -6.859188526868820190e-02 -4.553193598985671997e-02 -9.104738943278789520e-03 7.891885936260223389e-03 1.160215865820646286e-02 -4.627598449587821960e-02 -1.061772275716066360e-02 1.414328534156084061e-02 -6.475581787526607513e-03 -4.180920869112014771e-02 6.508213281631469727e-02 -1.776154339313507080e-02 2.684914320707321167e-02 -4.199482034891843796e-03 -2.349613793194293976e-02 -6.708681583404541016e-03 1.956392638385295868e-02 3.790940972976386547e-04 6.138602271676063538e-03 5.580303072929382324e-02 1.778449304401874542e-02 3.033724986016750336e-02 8.077457547187805176e-03 1.163477636873722076e-02 1.851090043783187866e-02 -5.157071352005004883e-02 4.900022875517606735e-03 6.449399888515472412e-02 2.811884693801403046e-02 -8.565117605030536652e-03 2.129411324858665466e-02 -2.223927713930606842e-02 1.341433078050613403e-02 1.160110253840684891e-02 -4.612259566783905029e-02 -4.580663144588470459e-02 -5.177824944257736206e-02 7.003255933523178101e-02 -1.048087328672409058e-02 -3.375289263203740120e-03 6.052306666970252991e-02 -5.761852371506392956e-04 4.266512114554643631e-03 -4.620679095387458801e-02 -7.092258334159851074e-02 -4.991558939218521118e-02 1.310787745751440525e-03 3.649713238701224327e-03 -1.396926306188106537e-02 -6.343083083629608154e-02 5.595971271395683289e-02 -3.576198592782020569e-02 -4.741593264043331146e-03 4.894936084747314453e-02 3.734474256634712219e-02 1.902418769896030426e-02 2.185578830540180206e-02 6.106940563768148422e-03 -5.098347365856170654e-02 9.190532565116882324e-02 2.447623014450073242e-02 2.422512136399745941e-02 -2.439009584486484528e-02 -1.566422730684280396e-02 -4.566897638142108917e-03 2.346325851976871490e-02 -6.045259907841682434e-02 3.094323351979255676e-02 1.603065989911556244e-02 3.462514374405145645e-03 -7.094944361597299576e-03 2.420643111690878868e-03 2.479024790227413177e-02 6.668232381343841553e-03 2.425846271216869354e-02 -9.019459597766399384e-03 -2.432154119014739990e-02 -1.945321215316653252e-03 -3.579838201403617859e-02 2.186364121735095978e-02 -2.710304036736488342e-02 -4.891513660550117493e-02 1.371891610324382782e-02 4.491755366325378418e-02 -4.588318243622779846e-02 -1.893075369298458099e-02 -1.083648856729269028e-02 5.989524349570274353e-02 -1.071165036410093307e-02 2.847309410572052002e-02 -1.993193477392196655e-02 7.277135737240314484e-03 7.993897050619125366e-02 -1.817621476948261261e-02 4.933928698301315308e-02 -1.805312931537628174e-02 -1.737917587161064148e-02 -1.267363503575325012e-02 1.159905828535556793e-02 -2.468885108828544617e-02 -2.971468679606914520e-02 4.200006835162639618e-03 6.719080265611410141e-03 -1.019583735615015030e-02 -2.175157889723777771e-02 3.193871583789587021e-03 -3.829902783036231995e-02 3.105827840045094490e-03 5.720912013202905655e-03 -4.858095198869705200e-02 6.037987396121025085e-02 -3.926844894886016846e-02 -2.923099091276526451e-03 -1.115109957754611969e-02 -3.315222635865211487e-02 8.053549379110336304e-02 -7.634229212999343872e-02 -4.161127842962741852e-03 -7.290211971849203110e-03 -4.021857678890228271e-02 -5.492501705884933472e-02 2.162920497357845306e-02 1.377847976982593536e-02 1.191434729844331741e-02 -3.134620841592550278e-03 6.930582225322723389e-02 2.737404219806194305e-02 -2.946660621091723442e-03 4.477426782250404358e-02 1.303096711635589600e-01 1.650068536400794983e-02 2.363121882081031799e-02 6.012675166130065918e-02 -6.097196787595748901e-02 1.135711073875427246e-01 1.525675319135189056e-02 -6.772857904434204102e-02 -1.366637647151947021e-02 2.664837287738919258e-03 -8.186367899179458618e-02 -1.044904161244630814e-02 -3.698767721652984619e-02 -1.013922318816184998e-02 -2.865677326917648315e-02 -2.290861867368221283e-02 -4.372007679194211960e-03 1.370306685566902161e-02 3.210189938545227051e-02 2.144718356430530548e-02 1.711956225335597992e-02 1.033559720963239670e-02 -4.086193814873695374e-02 -3.896648809313774109e-02 -4.003781825304031372e-02 1.361001655459403992e-02 -7.437200099229812622e-02 1.545344479382038116e-02 4.963683709502220154e-02 -1.296365726739168167e-02 2.083806507289409637e-02 -6.354686617851257324e-02 -5.806016549468040466e-02 3.240219131112098694e-02 -4.341079667210578918e-02
2.173666469752788544e-02 4.343962762504816055e-03 2.060195617377758026e-02 -2.853360399603843689e-02 1.008375734090805054e-02 -2.195261651650071144e-03 -1.949248020537197590e-03 -1.155405398458242416e-02 1.302143037319183350e-01 -1.080356538295745850e-02 7.781642954796552658e-03 -1.138123963028192520e-02 -1.169822178781032562e-02 4.560266807675361633e-02 -4.662457853555679321e-02 -4.908293113112449646e-02 -5.182498134672641754e-03 -1.689715310931205750e-02 -5.340050533413887024e-02 1.630526408553123474e-02 -7.636862341314554214e-03 -3.768963972106575966e-03 -6.196418777108192444e-03 2.925046533346176147e-02 -2.417434472590684891e-03 1.968062482774257660e-02 -2.292336709797382355e-02 3.510789945721626282e-02 7.056865375488996506e-03 4.783991724252700806e-03 -3.710828348994255066e-02 -9.390593506395816803e-03 -6.480713933706283569e-02 -1.207819581031799316e-02 8.920976892113685608e-03 2.155015431344509125e-02 -4.353512078523635864e-02 -1.087075471878051758e-02 -4.565734416246414185e-02 -3.510908782482147217e-02 -5.129492282867431641e-02 4.394028708338737488e-02 3.786306455731391907e-02 2.328504621982574463e-02 -1.263500377535820007e-02 2.948804758489131927e-03 -2.821008861064910889e-02 -3.131331875920295715e-02 9.652969427406787872e-03 5.596265546046197414e-04 1.553458441048860550e-02 2.178327925503253937e-02 4.882857576012611389e-02 -3.983153030276298523e-02 3.747034072875976562e-02 3.266841545701026917e-02 -4.827394150197505951e-03 -2.146751247346401215e-02 1.720152981579303741e-02 4.584804642945528030e-03 4.403092898428440094e-03 1.016707997769117355e-02 -3.624996915459632874e-02 -9.966100752353668213e-02 9.865200147032737732e-03 1.661911979317665100e-02 -5.933742970228195190e-03 1.620415411889553070e-02 3.405501693487167358e-02 -6.420067045837640762e-03 -9.788013063371181488e-03 6.192513974383473396e-04 -3.973938152194023132e-02 -1.142091397196054459e-02 7.145361602306365967e-02 -6.635475903749465942e-02 6.616465002298355103e-02 -4.627719987183809280e-03 -8.207179605960845947e-03 2.401798032224178314e-02 -1.107555441558361053e-02 -1.782013848423957825e-02 -5.473333597183227539e-02 -2.463445533066987991e-03 -5.662443116307258606e-02 3.398053580895066261e-03 -1.682874280959367752e-03 2.815321832895278931e-02 -1.455934159457683563e-02 -2.896453067660331726e-02 -8.036836981773376465e-02 -3.123471327126026154e-02 -3.156166523694992065e-02 4.825480654835700989e-02 1.443478930741548538e-02 -3.175565600395202637e-02 1.907004159875214100e-03 -3.419269993901252747e-02 9.438779205083847046e-03 -3.714377060532569885e-03 -2.586615271866321564e-02 -5.532268807291984558e-02 -3.809041902422904968e-02 -1.357541792094707489e-02 -5.090809985995292664e-02 1.749130897223949432e-02 -9.684594348073005676e-03 1.801915280520915985e-02 -4.854469094425439835e-03 -3.825081512331962585e-03 8.466216735541820526e-03 -6.882677227258682251e-02 1.060078479349613190e-02 2.052024565637111664e-02 -1.232200954109430313e-02 3.368231700733304024e-03 4.196669906377792358e-02 -7.820095866918563843e-03 7.281059026718139648e-02 7.908753119409084320e-03 5.059160664677619934e-02 -8.505194447934627533e-03 -1.329964399337768555e-02 -8.698523044586181641e-03 -1.980680599808692932e-02 7.289551198482513428e-03 5.151191726326942444e-03 -5.871921312063932419e-03 -3.602826222777366638e-02 -1.395348180085420609e-02 3.879181668162345886e-02 -2.839328162372112274e-02 2.315329387784004211e-02 4.335783049464225769e-02 1.157227251678705215e-02 -3.320590406656265259e-02 -1.066040620207786560e-02 -1.041677892208099365e-01 -8.528696000576019287e-02 -2.896581217646598816e-02 2.091137506067752838e-02 -1.273357681930065155e-02 1.436079479753971100e-02 -2.870961034204810858e-04 2.041629515588283539e-02 -7.270142901688814163e-03 1.685808785259723663e-02 -3.788338275626301765e-03 -3.184401243925094604e-02 -1.937528513371944427e-02 -1.770810782909393311e-02 2.097497507929801941e-02 1.568341813981533051e-02 -2.937462553381919861e-02 -4.085799306631088257e-02 4.046307131648063660e-02 -4.234904795885086060e-02 -2.649169042706489563e-02 3.025580570101737976e-02 -2.697549201548099518e-02 -3.439956530928611755e-02 5.260511301457881927e-03 -2.576694451272487640e-02 5.353316664695739746e-02 -1.510492339730262756e-02 2.964411489665508270e-02 -1.307509373873472214e-02 3.266599774360656738e-02 -1.321807503700256348e-02 4.558892920613288879e-02 -6.618444621562957764e-02 -2.121508680284023285e-02 -1.861093379557132721e-02 6.961624324321746826e-02 3.775043040513992310e-02 -2.618386410176753998e-02 -3.726961323991417885e-03 8.467444218695163727e-03 -2.678340766578912735e-03 3.957518935203552246e-02 4.233801737427711487e-03 -4.608642682433128357e-02 5.095044896006584167e-02 -3.145633731037378311e-03 -1.688867062330245972e-02 -2.487691678106784821e-02 -3.886231780052185059e-02 -3.020121529698371887e-02 -8.481471799314022064e-03 1.936245593242347240e-03 -3.813697397708892822e-02 -4.163561388850212097e-03 8.534084074199199677e-03 3.181437775492668152e-02 -2.436958998441696167e-02 2.238618209958076477e-02 2.589401230216026306e-02 -1.548663899302482605e-02 2.228285931050777435e-02 3.608566895127296448e-02 -3.385583404451608658e-04 -1.170336641371250153e-02 -2.180352248251438141e-02 -1.017987169325351715e-02 -4.020165279507637024e-02 -3.343768883496522903e-03 -2.689589373767375946e-02 -9.563929401338100433e-03 -4.125913139432668686e-03 3.797324001789093018e-02 1.502698170952498913e-03 6.497628241777420044e-02 -2.669567801058292389e-02 -3.374920040369033813e-02 4.189821425825357437e-03 -2.533463202416896820e-02 -4.052753746509552002e-02 5.889018997550010681e-03 -3.769280016422271729e-02 -4.874437674880027771e-02 -6.025130674242973328e-02 -8.076942525804042816e-03 6.673016119748353958e-03 -7.907271385192871094e-03 -2.864087931811809540e-02 5.623838864266872406e-03 -4.173496738076210022e-03 9.040013886988162994e-03 1.329131051898002625e-02 2.801052993163466454e-03 -1.781561970710754395e-02 -2.822532318532466888e-02 -1.087413430213928223e-01 -6.416756659746170044e-02 7.861473597586154938e-03 1.057853456586599350e-02 -5.459695681929588318e-02 -4.036438767798244953e-04 -6.663187872618436813e-03 5.519787594676017761e-02 -1.533352490514516830e-02 -6.004603952169418335e-02 1.175197958946228027e-02 1.482491288334131241e-02 -4.090568050742149353e-02 -9.411872364580631256e-03 1.252535730600357056e-02 -2.317130332812666893e-03 2.826807275414466858e-02 -7.600349932909011841e-02 2.702816948294639587e-02 2.264199778437614441e-02 -6.402960512787103653e-03 -4.333982989192008972e-02 2.515304274857044220e-02 6.127053499221801758e-02
5.097004584968090057e-03 -1.656769402325153351e-02 -6.743602454662322998e-02 -4.993105679750442505e-02 3.368668630719184875e-02 -3.144530951976776123e-02 5.459464155137538910e-03 3.025383874773979187e-02 4.064456745982170105e-02 3.870022669434547424e-02 3.549242159351706505e-03 -1.735864765942096710e-02 -2.630233019590377808e-02 -6.415426265448331833e-03 1.656828075647354126e-02 7.458686083555221558e-02 -1.501238718628883362e-02 1.766217872500419617e-02 -4.813320189714431763e-02 5.538097582757472992e-03 1.518645230680704117e-02 -8.186872303485870361e-02 5.070048570632934570e-02 -2.169271372258663177e-02 4.224680829793214798e-03 -6.613168120384216309e-02 -7.937066256999969482e-04 -6.569971144199371338e-02 -8.319737389683723450e-03 -2.595839323475956917e-03 -3.030983172357082367e-02 3.647681698203086853e-02 1.780830509960651398e-02 1.851329579949378967e-02 3.656931512523442507e-04 4.610754922032356262e-02 -2.788038551807403564e-02 -4.915747325867414474e-03 5.616296455264091492e-02 2.806780859827995300e-02 -6.363844964653253555e-03 -1.384269818663597107e-02 -8.697660639882087708e-03 -9.233546443283557892e-03 -4.785894270753487945e-05 3.772470518015325069e-04 8.918800391256809235e-03 -4.864266142249107361e-02 -1.098725711926817894e-03 -4.456897825002670288e-02 -1.773579970176797360e-05 8.702393970452249050e-04 -4.446734115481376648e-02 -4.766815900802612305e-02 3.470724041108042002e-04 -9.304200112819671631e-02 -1.911093108355998993e-02 -2.754143439233303070e-02 2.456993982195854187e-02 3.284298256039619446e-02 -2.929849922657012939e-02 -1.113580167293548584e-02 -1.795610040426254272e-02 3.042559511959552765e-02 -1.222171913832426071e-02 1.910405792295932770e-02 -4.178123548626899719e-03 2.725172229111194611e-02 -8.447376638650894165e-02 -2.177049778401851654e-02 -1.480050734244287014e-03 -5.018720030784606934e-02 -5.597169697284698486e-02 6.317222118377685547e-02 9.659686125814914703e-03 1.027531689032912254e-04 2.094155363738536835e-02 4.699118807911872864e-02 3.417965769767761230e-02 3.131492808461189270e-02 -5.743481684476137161e-03 3.068669931963086128e-03 9.600117057561874390e-02 -2.397466823458671570e-02 1.147113591432571411e-01 4.824691265821456909e-02 -1.131520979106426239e-02 5.449271295219659805e-03 9.289487265050411224e-03 -5.158532038331031799e-02 -3.200393542647361755e-02 -9.977810084819793701e-03 -4.991807416081428528e-02 9.219355881214141846e-03 -3.274888545274734497e-02 -1.927911117672920227e-02 -4.768671840429306030e-02 -1.671909168362617493e-02 -2.432869002223014832e-02 3.913073241710662842e-02 -1.515446696430444717e-02 -1.484837848693132401e-02 -6.411641836166381836e-03 -2.663609012961387634e-02 -2.257153019309043884e-02 2.296129474416375160e-03 3.621371870394796133e-04 2.072626352310180664e-02 -4.772247746586799622e-02 5.050290003418922424e-02 -5.036218091845512390e-03 -3.718600794672966003e-02 -2.810187265276908875e-02 -6.791084259748458862e-02 1.411047857254743576e-02 -6.155042722821235657e-02 -1.239425502717494965e-03 -1.320954470429569483e-04 1.252253889106214046e-03 -3.182260692119598389e-02 -8.323031477630138397e-03 -7.666739076375961304e-02 5.504090804606676102e-04 6.951468996703624725e-03 -6.998275220394134521e-02 5.698793102055788040e-03 3.700548037886619568e-02 6.172485277056694031e-02 -6.721524521708488464e-03 -1.190505549311637878e-02 -4.569002985954284668e-02 9.799916297197341919e-03 1.288759522140026093e-02 7.055212557315826416e-02 -8.397714793682098389e-02 4.877590015530586243e-02 5.970482155680656433e-02 2.757281064987182617e-03 -2.325078099966049194e-02 -6.998557131737470627e-03 5.079121515154838562e-02 8.025381714105606079e-03 3.456171136349439621e-03 -3.976064920425415039e-02 1.209914311766624451e-02 7.091223727911710739e-03 2.298200689256191254e-02 3.563688695430755615e-02 -4.363883286714553833e-02 -3.237801045179367065e-02 4.268154501914978027e-03 -4.021776467561721802e-02 2.141771093010902405e-02 5.685253068804740906e-02 -4.247443750500679016e-02 5.099084228277206421e-02 -2.355287224054336548e-02 -6.489329785108566284e-02 -6.714284420013427734e-03 5.472997203469276428e-02 -1.838312484323978424e-02 4.748580604791641235e-02 -2.699843607842922211e-02 3.434867039322853088e-02 -3.723032027482986450e-02 2.798056229948997498e-03 1.531263440847396851e-02 1.114207599312067032e-02 2.552397362887859344e-02 -1.186937186866998672e-02 -3.496604040265083313e-02 2.950782515108585358e-02 2.917784824967384338e-02 5.064567085355520248e-03 5.931892897933721542e-03 2.260993467643857002e-03 -4.537152126431465149e-02 7.027306407690048218e-02 2.005317620933055878e-02 -2.186049520969390869e-02 2.775541134178638458e-02 7.887025363743305206e-03 1.056765578687191010e-02 -6.629396695643663406e-03 -5.931776762008666992e-02 7.514197379350662231e-02 9.660322219133377075e-03 -2.931341901421546936e-02 -1.887255720794200897e-02 2.863894216716289520e-03 -5.778765771538019180e-03 -2.278798073530197144e-02 -4.928377643227577209e-02 4.150149226188659668e-02 -4.056802019476890564e-02 4.572743177413940430e-02 8.156032115221023560e-02 1.959270238876342773e-02 1.625878387130796909e-03 -5.874381214380264282e-02 -2.840221300721168518e-02 2.233637869358062744e-02 4.086209461092948914e-02 7.094241213053464890e-03 2.681772038340568542e-02 4.718897119164466858e-02 -4.117155820131301880e-02 -8.292258530855178833e-02 -4.312555864453315735e-02 3.868898493237793446e-04 -4.315124452114105225e-02 4.930929467082023621e-02 -2.144233882427215576e-02 -3.687565401196479797e-02 1.629084534943103790e-02 -2.894108183681964874e-02 -7.339053321629762650e-03 1.796124316751956940e-02 3.458085656166076660e-02 7.574379444122314453e-03 8.547893725335597992e-03 3.596597909927368164e-02 2.422702265903353691e-03 -7.336141169071197510e-02 -7.792135234922170639e-03 -3.141489252448081970e-02 -3.197722882032394409e-02 1.976244524121284485e-02 3.747704997658729553e-02 2.042728848755359650e-02 -5.034086853265762329e-02 1.619371771812438965e-02 -6.829409301280975342e-02 -3.571127355098724365e-02 -8.325431495904922485e-02 -6.966399494558572769e-03 -1.488983538001775742e-02 -2.519326284527778625e-02 -2.236465364694595337e-02 3.663782402873039246e-02 -4.950119554996490479e-02 -1.303664222359657288e-02 7.474577985703945160e-03 -7.934974879026412964e-02 3.039197996258735657e-02 -3.429345786571502686e-02 -2.128687687218189240e-02 -9.572528302669525146e-03 4.905221611261367798e-02 -3.266417235136032104e-02 -4.337878897786140442e-03 -3.030605614185333252e-02 -1.400593481957912445e-02 -5.791575182229280472e-03 2.483545802533626556e-02 -2.797964774072170258e-02
-5.601992830634117126e-02 5.642663314938545227e-02 3.550698980689048767e-02 2.682517468929290771e-02 -5.395435914397239685e-02 -5.956964567303657532e-02 1.274658925831317902e-02 1.088253315538167953e-02 -3.361075185239315033e-03 -1.476567517966032028e-02 3.066443093121051788e-02 -2.170932292938232422e-02 -1.002187803387641907e-01 -2.820770442485809326e-02 4.256017878651618958e-02 -7.602266501635313034e-03 -2.404939197003841400e-02 -4.006841406226158142e-02 -4.891750868409872055e-03 -1.525266841053962708e-02 -5.445424094796180725e-02 -2.381043042987585068e-03 -6.430437788367271423e-04 -1.974632963538169861e-03 -5.793706327676773071e-02 -8.651961386203765869e-02 -2.186236158013343811e-02 -7.994655519723892212e-03 -3.530743345618247986e-02 -1.622787117958068848e-02 -3.604514896869659424e-02 -7.077839970588684082e-02 -3.660053387284278870e-02 4.430338367819786072e-02 4.847372695803642273e-02 2.040353417396545410e-02 -5.593843758106231689e-02 3.683093190193176270e-02 8.301320485770702362e-03 5.824601277709007263e-02 -3.586890175938606262e-02 3.383347298949956894e-03 -5.640720203518867493e-02 -3.483309969305992126e-02 -1.067270059138536453e-02 -3.571026027202606201e-02 2.592119015753269196e-02 -5.565937981009483337e-02 1.017996668815612793e-02 -2.300199866294860840e-02 -1.020197197794914246e-02 2.354057319462299347e-02 6.178684532642364502e-02 -3.024779073894023895e-02 -2.778840065002441406e-02 -4.184228181838989258e-02 1.653820835053920746e-02 -5.807372927665710449e-02 2.424500416964292526e-03 2.448024600744247437e-02 -3.000764548778533936e-02 2.631574124097824097e-02 -7.950636744499206543e-02 -4.101796075701713562e-02 -2.096977084875106812e-02 2.800565771758556366e-02 2.754122018814086914e-03 9.924240410327911377e-03 5.247300863265991211e-02 2.001437731087207794e-02 -1.363597903400659561e-02 2.425877936184406281e-02 -1.262874715030193329e-02 -1.003684569150209427e-02 5.085245519876480103e-02 -3.760136291384696960e-02 -3.234092518687248230e-02 5.005883425474166870e-02 5.802946165204048157e-02 -5.961513146758079529e-02 8.252575248479843140e-02 7.230612635612487793e-02 -1.643978655338287354e-01 2.743801334872841835e-03 -5.487017706036567688e-02 6.269503384828567505e-02 6.986728403717279434e-03 3.754852712154388428e-02 -8.395742624998092651e-03 -1.787496916949748993e-02 -1.709384657442569733e-02 -2.748282626271247864e-02 -2.228665864095091820e-03 3.695368394255638123e-02 2.701301686465740204e-02 -1.616123877465724945e-02 5.010778550058603287e-03 -9.585668332874774933e-03 -1.102600153535604477e-02 -7.145816925913095474e-03 1.118626911193132401e-02 1.719187386333942413e-02 -3.733444213867187500e-02 1.274895737878978252e-03 -2.353703416883945465e-02 -9.734291583299636841e-03 1.066185683012008667e-01 -5.698381736874580383e-02 8.472839370369911194e-03 -1.823616400361061096e-02 -7.103544659912586212e-03 1.465135626494884491e-02 2.728862501680850983e-02 1.341712381690740585e-02 3.056635707616806030e-02 -5.251003056764602661e-02 9.523814544081687927e-03 8.439962752163410187e-03 -8.868708275258541107e-03 2.023122087121009827e-02 -1.660717651247978210e-02 -5.863865464925765991e-02 -2.030147425830364227e-02 1.723169931210577488e-03 3.173557808622717857e-03 5.529278144240379333e-02 1.104146521538496017e-02 3.704776288941502571e-03 5.840013548731803894e-02 -2.016443014144897461e-02 1.249773520976305008e-02 7.192094624042510986e-02 6.977142393589019775e-02 1.182556618005037308e-02 3.976880386471748352e-02 -8.540838956832885742e-03 4.144874587655067444e-02 5.983901768922805786e-02 2.437948994338512421e-02 6.822029501199722290e-02 3.519015014171600342e-02 1.105336588807404041e-03 5.228098481893539429e-02 2.564922347664833069e-02 4.214347526431083679e-02 -9.941736608743667603e-02 5.113397259265184402e-03 1.385624334216117859e-02 -1.246774569153785706e-02 9.327319264411926270e-02 -7.205121219158172607e-02 8.605760522186756134e-03 -4.261949285864830017e-02 2.388007566332817078e-02 -1.639784686267375946e-02 5.884086340665817261e-02 5.015037022531032562e-03 -1.349109318107366562e-02 3.881165385246276855e-02 -2.441589161753654480e-02 3.206758201122283936e-02 -5.227004364132881165e-02 4.111474379897117615e-03 7.087375968694686890e-02 -3.255097568035125732e-02 -1.247528754174709320e-02 1.089131459593772888e-02 -3.240006044507026672e-02 -7.067758589982986450e-02 2.341036684811115265e-03 -3.144140914082527161e-02 -1.713558658957481384e-02 -1.499786507338285446e-02 1.327191758900880814e-02 3.256304934620857239e-02 -2.491983398795127869e-02 1.123704854398965836e-02 2.504426613450050354e-02 -1.832088455557823181e-02 -7.031359709799289703e-03 7.229662034660577774e-03 -6.487522274255752563e-03 -2.332779020071029663e-02 -2.279178798198699951e-02 -5.655490979552268982e-02 1.242178678512573242e-02 3.763396525755524635e-03 -4.195842519402503967e-02 -6.896996498107910156e-02 2.008778275921940804e-03 -3.592705726623535156e-02 3.347367793321609497e-02 -2.046514861285686493e-02 1.691506616771221161e-02 5.473498720675706863e-03 -7.286116015166044235e-03 2.489675022661685944e-02 -2.146196551620960236e-02 -2.956686355173587799e-02 1.130369026213884354e-03 2.429415844380855560e-02 -6.268030405044555664e-02 2.859332133084535599e-03 -2.192866988480091095e-03 -2.629539463669061661e-03 7.637391239404678345e-02 -2.469240128993988037e-02 1.363432873040437698e-02 -9.158679097890853882e-02 -3.460767120122909546e-02 3.079962916672229767e-02 2.845912612974643707e-02 8.380499668419361115e-03 1.106800232082605362e-02 5.966688692569732666e-02 -2.973531745374202728e-02 -1.275035832077264786e-02 1.873401738703250885e-02 1.312313135713338852e-02 5.833116173744201660e-02 -2.988043986260890961e-02 5.282032117247581482e-02 -1.079507172107696533e-02 1.964702084660530090e-02 2.594965696334838867e-02 -1.660954020917415619e-02 7.934790104627609253e-03 -1.053245179355144501e-02 1.071295607835054398e-02 -4.953334573656320572e-03 3.654432669281959534e-02 1.745504885911941528e-02 -8.698582649230957031e-02 -2.343657426536083221e-02 -4.788127914071083069e-02 6.063317507505416870e-02 -1.808046549558639526e-02 -3.477582335472106934e-02 -6.858248729258775711e-03 4.866120871156454086e-03 -4.720487445592880249e-02 4.110908601433038712e-03 -2.575284428894519806e-02 -1.065963320434093475e-02 6.896255165338516235e-02 8.497566916048526764e-03 9.928631037473678589e-02 8.573980070650577545e-03 -7.534799631685018539e-03 -4.058257862925529480e-02 -5.635768547654151917e-02 -9.123091399669647217e-02 5.381558090448379517e-03 -2.576833218336105347e-02 6.283957045525312424e-03 1.957495324313640594e-02
-3.103409148752689362e-02 -2.556266076862812042e-02 -2.499592490494251251e-03 -4.805793613195419312e-02 -2.946768328547477722e-02 3.539537265896797180e-02 2.544183097779750824e-02 -3.687383234500885010e-02 9.301532804965972900e-02 1.885906793177127838e-02 1.613526232540607452e-02 1.809522882103919983e-02 1.448481343686580658e-02 1.983563881367444992e-03 4.082683846354484558e-02 6.147362291812896729e-03 1.963037624955177307e-02 8.073282428085803986e-03 4.904824867844581604e-02 1.591076143085956573e-02 -3.518949495628476143e-03 -7.364344783127307892e-03 -5.026699602603912354e-02 2.602332271635532379e-02 2.935016341507434845e-02 3.908498957753181458e-02 -1.040870025753974915e-01 -2.478317037457600236e-05 -2.908070571720600128e-03 3.280011937022209167e-02 -4.160379525274038315e-03 4.167005047202110291e-02 5.023446679115295410e-02 4.959257319569587708e-02 6.209684163331985474e-02 -7.817834615707397461e-03 -3.653943911194801331e-02 -7.024704664945602417e-02 7.845924794673919678e-02 1.069543976336717606e-02 -6.527618318796157837e-02 9.317127056419849396e-03 3.972699120640754700e-02 -2.182298898696899414e-02 5.999064538627862930e-03 3.763024508953094482e-02 -2.215619757771492004e-02 4.045640677213668823e-02 2.220798283815383911e-02 -2.168726921081542969e-02 2.425510063767433167e-02 -2.812025882303714752e-02 2.409957163035869598e-02 5.360385403037071228e-02 -6.739645451307296753e-02 -2.996455878019332886e-03 3.995810169726610184e-03 3.241442516446113586e-02 4.463482648134231567e-03 -2.522627357393503189e-03 2.073520794510841370e-02 1.044451724737882614e-02 -2.130289212800562382e-04 1.559171918779611588e-02 5.563539918512105942e-03 -1.144085079431533813e-03 -1.504770480096340179e-03 4.844828974455595016e-03 1.111602317541837692e-02 -1.562815392389893532e-03 5.698369070887565613e-02 -1.162582822144031525e-02 1.076552644371986389e-02 7.981389760971069336e-03 3.376631066203117371e-02 -1.910032331943511963e-02 -2.254521101713180542e-02 -2.908565662801265717e-02 9.440924972295761108e-02 5.446759611368179321e-02 3.283001482486724854e-02 2.038820274174213409e-02 -3.139337152242660522e-02 2.005239762365818024e-02 3.519009798765182495e-02 -7.836340926587581635e-03 7.551949238404631615e-04 2.242587506771087646e-02 -1.419655233621597290e-02 -4.762551188468933105e-02 3.544521704316139221e-02 7.949043996632099152e-03 3.247752785682678223e-02 -7.823998481035232544e-02 8.497796207666397095e-02 -2.391918934881687164e-02 6.631587445735931396e-02 3.670197678729891777e-03 3.451540321111679077e-02 1.071680220775306225e-03 -5.533386021852493286e-03 -5.977694876492023468e-03 -1.802591048181056976e-02 4.306894168257713318e-02 -2.656434662640094757e-02 -3.110024705529212952e-02 5.207319185137748718e-02 3.531170636415481567e-02 -4.855715110898017883e-02 3.471348062157630920e-02 -4.694163799285888672e-04 -1.352902967482805252e-02 -9.465758688747882843e-03 -2.497998997569084167e-02 1.932243630290031433e-02 4.629617556929588318e-02 2.502567693591117859e-02 -2.154517732560634613e-02 8.501342497766017914e-03 5.910043604671955109e-03 -3.567730262875556946e-02 -1.053275191225111485e-03 -2.473226981237530708e-03 1.129695959389209747e-02 -2.701507322490215302e-02 1.477065263316035271e-03 1.978058554232120514e-02 7.803431153297424316e-02 -1.000077128410339355e-01 5.978817492723464966e-02 2.423227950930595398e-02 1.552737411111593246e-02 -1.958611607551574707e-02 2.368756569921970367e-03 3.551840409636497498e-02 -3.159536514431238174e-03 -3.245390718802809715e-03 -1.847791858017444611e-02 -5.054706335067749023e-02 2.395960502326488495e-03 -4.211388062685728073e-03 -2.980928681790828705e-02 -1.543619669973850250e-02 -1.947944983839988708e-02 2.729463204741477966e-02 -5.703916028141975403e-02 2.518012933433055878e-02 -4.160033911466598511e-02 -2.580754645168781281e-02 1.893698610365390778e-02 -2.780444175004959106e-02 7.831968367099761963e-03 -5.106567870825529099e-03 -4.705349728465080261e-02 -9.993548505008220673e-03 1.417711935937404633e-02 -3.711498901247978210e-02 1.130770426243543625e-02 -2.081041457131505013e-03 -3.309034928679466248e-02 1.508141122758388519e-02 -1.078344509005546570e-02 3.238807991147041321e-02 -1.018897630274295807e-02 1.172349229454994202e-02 1.306193694472312927e-02 3.235469805076718330e-03 -1.406480930745601654e-02 -1.606394536793231964e-02 2.288655005395412445e-02 6.740476191043853760e-02 -6.049742922186851501e-02 6.322420667856931686e-03 -6.216722540557384491e-04 -5.670175421983003616e-03 -3.069989942014217377e-02 7.657055743038654327e-03 -3.397084027528762817e-02 -3.520282357931137085e-02 4.784545674920082092e-02 1.120837125927209854e-02 6.058732792735099792e-02 -6.582017242908477783e-02 -9.961618110537528992e-03 -1.046864199452102184e-04 -2.192849479615688324e-02 3.625555709004402161e-02 8.290741592645645142e-03 7.735148072242736816e-03 -1.429288089275360107e-02 4.856687411665916443e-02 -9.141381829977035522e-02 2.081448212265968323e-02 -2.422687970101833344e-02 1.329683326184749603e-02 1.172883994877338409e-02 -1.335393078625202179e-02 9.318346157670021057e-03 -3.617290931288152933e-04 8.731605485081672668e-03 -7.323375903069972992e-03 2.843739278614521027e-02 8.566579781472682953e-03 3.836117684841156006e-03 -3.093823790550231934e-02 2.558972872793674469e-02 -3.246972337365150452e-02 9.559662081301212311e-03 -7.247569505125284195e-03 -4.210473038256168365e-03 1.394290197640657425e-02 -5.817206576466560364e-02 8.118164725601673126e-03 -3.605467453598976135e-02 -5.815995112061500549e-02 3.977967798709869385e-02 3.777015954256057739e-02 -3.345379605889320374e-02 1.139624416828155518e-02 1.055361423641443253e-02 3.292992338538169861e-02 2.682943828403949738e-02 3.822830738499760628e-03 1.516077481210231781e-02 -9.781165979802608490e-03 -1.536726299673318863e-02 3.032055916264653206e-03 3.807062283158302307e-02 -1.377311255782842636e-02 4.745246097445487976e-02 -2.570647746324539185e-02 -2.067679452011361718e-04 2.955732308328151703e-02 5.314984591677784920e-04 -2.475251257419586182e-02 -8.567051962018013000e-03 3.908061236143112183e-02 2.501011453568935394e-02 3.475457429885864258e-02 -4.356778040528297424e-02 -3.260631486773490906e-02 2.643575705587863922e-02 1.744122826494276524e-03 -8.110406924970448017e-04 -2.744137868285179138e-02 -1.642951741814613342e-02 -3.289585933089256287e-02 1.140488032251596451e-02 2.388795651495456696e-02 3.101854026317596436e-02 -1.842818781733512878e-02 9.271513670682907104e-03 -2.670443383976817131e-03 1.072467770427465439e-03 5.291540874168276787e-04 8.849868318066000938e-04
1.002261228859424591e-02 -1.638589426875114441e-03 -5.994139239192008972e-03 -2.275821752846240997e-02 1.147699356079101562e-02 4.613151773810386658e-03 1.479216851294040680e-02 -2.244148030877113342e-02 1.164540881291031837e-03 4.046374186873435974e-02 -1.601642929017543793e-02 -1.142959017306566238e-02 2.870389632880687714e-02 -1.259129261597990990e-03 4.663885384798049927e-02 1.202423404902219772e-02 -7.993492297828197479e-03 4.024918004870414734e-02 6.645543966442346573e-03 5.105067510157823563e-03 1.440442632883787155e-02 1.217294018715620041e-03 1.782897859811782837e-02 -1.533161033876240253e-03 3.796345740556716919e-02 -9.693804197013378143e-03 6.936586648225784302e-02 -1.483676675707101822e-02 -3.458602726459503174e-02 -2.167276665568351746e-02 2.417887095361948013e-03 1.657846197485923767e-02 -2.622168511152267456e-02 4.056838806718587875e-03 5.498461541719734669e-04 1.833516545593738556e-02 -2.349596656858921051e-02 2.073068544268608093e-02 2.292681485414505005e-02 -2.983360737562179565e-02 -2.117348369210958481e-03 -2.777256816625595093e-02 -2.003269968554377556e-03 3.881583921611309052e-03 1.724903099238872528e-02 1.345054153352975845e-02 7.924448698759078979e-03 -3.996277227997779846e-03 -3.563722595572471619e-03 1.885318569839000702e-02 -5.668136291205883026e-03 -5.498626455664634705e-02 9.053397923707962036e-03 5.399689543992280960e-03 -2.188128232955932617e-02 3.310164809226989746e-02 -5.604943726211786270e-03 -1.140497904270887375e-02 5.953442770987749100e-03 -3.486048802733421326e-02 -1.596155576407909393e-02 1.289574895054101944e-02 3.953576833009719849e-02 6.420383602380752563e-02 -2.505644410848617554e-02 -2.593024261295795441e-02 -9.677079506218433380e-04 1.420804392546415329e-02 -3.429898992180824280e-02 -6.122367922216653824e-03 -2.044292353093624115e-02 -3.518892684951424599e-03 3.048872202634811401e-02 -4.353538621217012405e-03 2.038090676069259644e-02 7.040992379188537598e-02 -3.016040660440921783e-02 -5.890084430575370789e-02 -3.530843183398246765e-02 2.138504572212696075e-02 6.231473525986075401e-04 2.368903020396828651e-03 7.019435055553913116e-03 -1.320626866072416306e-02 -2.922175452113151550e-02 -1.199387293308973312e-02 4.510385915637016296e-03 6.615319289267063141e-03 3.749832510948181152e-02 2.268917392939329147e-03 1.105877943336963654e-02 4.068486019968986511e-02 -1.387333590537309647e-02 -4.141755774617195129e-02 -3.060144558548927307e-02 -2.382086357101798058e-03 -2.015205798670649529e-03 -3.426903113722801208e-02 1.735407672822475433e-02 2.602349594235420227e-02 -2.558342879638075829e-03 3.025415726006031036e-02 -4.544211085885763168e-03 1.277775224298238754e-02 -9.509618394076824188e-03 -4.997937008738517761e-02 5.958099290728569031e-02 1.974515244364738464e-02 2.276062592864036560e-02 2.221551537513732910e-02 -4.567298572510480881e-03 5.730783194303512573e-02 2.377750352025032043e-02 2.005040459334850311e-02 -1.861157012172043324e-03 4.178611095994710922e-03 3.989601973444223404e-03 1.115360390394926071e-02 -3.699407679960131645e-03 -1.554645970463752747e-02 1.727638579905033112e-02 -7.855053991079330444e-03 7.831715978682041168e-03 -2.457355707883834839e-02 -4.637271165847778320e-02 -3.275335766375064850e-03 1.778186857700347900e-02 1.443706918507814407e-02 5.965116899460554123e-03 -2.436107583343982697e-02 2.416352555155754089e-02 -3.683407977223396301e-02 1.604983396828174591e-02 -3.370670974254608154e-02 8.268204401247203350e-04 1.495361421257257462e-02 2.101079735439270735e-04 -3.690347308292984962e-03 -9.750550612807273865e-03 -3.085571806877851486e-03 -8.327758871018886566e-03 4.558539763092994690e-02 3.789161518216133118e-02 1.706656627357006073e-02 -1.048803213052451611e-03 6.065969821065664291e-03 1.531471125781536102e-02 3.646284714341163635e-02 1.977427490055561066e-02 2.352581126615405083e-03 8.264158852398395538e-03 2.530751563608646393e-02 -2.371205575764179230e-02 -2.269845455884933472e-03 -1.932860538363456726e-02 -2.653967402875423431e-02 3.304459154605865479e-02 -2.766637876629829407e-02 -1.456892117857933044e-03 5.231375340372323990e-03 -4.566023871302604675e-02 -1.305303163826465607e-02 1.298169232904911041e-02 -1.692845718935132027e-03 -4.551269114017486572e-02 -3.380410373210906982e-03 4.273462295532226562e-02 -5.100238602608442307e-03 8.239471353590488434e-03 -1.198863517493009567e-02 -1.551694236695766449e-02 2.242518216371536255e-02 -2.599391527473926544e-02 -2.181705087423324585e-03 1.780216000042855740e-03 4.791185259819030762e-02 3.032371634617447853e-03 -3.258836269378662109e-02 2.247056365013122559e-02 1.225646585226058960e-02 -3.541153296828269958e-02 1.496832934208214283e-03 1.146175200119614601e-03 6.039950996637344360e-03 -1.938384026288986206e-02 4.186940938234329224e-02 4.078629612922668457e-02 4.888562485575675964e-02 6.088352762162685394e-03 1.054986100643873215e-02 1.051403209567070007e-02 -2.263784408569335938e-03 2.345387823879718781e-03 4.234685748815536499e-02 3.315729647874832153e-02 1.429688278585672379e-02 6.968944519758224487e-02 2.140110544860363007e-02 4.359091073274612427e-02 1.422856468707323074e-02 -2.685185149312019348e-02 9.211890399456024170e-03 1.821722090244293213e-02 9.375885128974914551e-03 4.658403247594833374e-02 3.353746980428695679e-02 1.616396754980087280e-02 4.565682634711265564e-02 1.005212590098381042e-02 -8.114665746688842773e-03 -8.033045567572116852e-03 -2.177759818732738495e-02 -2.994848787784576416e-02 -1.177005935460329056e-02 -2.863730490207672119e-02 -4.425925016403198242e-02 1.006816700100898743e-02 -1.555964630097150803e-02 -1.456450857222080231e-02 2.741129370406270027e-03 1.133458968251943588e-02 -4.568053036928176880e-02 2.133861184120178223e-02 1.541149429976940155e-02 9.634883143007755280e-03 -9.498713538050651550e-03 1.460254564881324768e-02 -1.529508084058761597e-02 8.544730953872203827e-03 -5.101479473523795605e-04 -6.734745111316442490e-03 -1.087384112179279327e-02 1.285273022949695587e-02 -2.588964439928531647e-02 2.082636207342147827e-02 -1.527661457657814026e-02 4.082383960485458374e-02 4.105795174837112427e-03 1.242371276021003723e-02 1.825024746358394623e-02 -5.873037967830896378e-03 -9.298065677285194397e-03 -6.395059637725353241e-03 -1.071428507566452026e-02 1.977927982807159424e-02 -7.075825124047696590e-04 -1.724436506628990173e-02 -5.116658285260200500e-03 -6.294996477663516998e-03 1.968736015260219574e-02 2.652061730623245239e-02 -2.060632221400737762e-02 5.331071838736534119e-02 1.674180617555975914e-03 -1.836757734417915344e-02 4.916775226593017578e-02
-1.083066407591104507e-02 4.594456404447555542e-02 -7.848719251342117786e-04 -3.492192551493644714e-02 4.092239309102296829e-03 -6.828913092613220215e-02 1.426486857235431671e-02 -3.539093583822250366e-02 -1.166216190904378891e-02 -1.052800342440605164e-01 -6.010117009282112122e-02 8.326978236436843872e-02 2.076224610209465027e-02 -5.417674407362937927e-02 -4.547324776649475098e-02 4.915523901581764221e-02 5.598130449652671814e-02 3.679627925157546997e-02 -1.133712008595466614e-02 6.059153471142053604e-03 5.918744136579334736e-04 2.193354256451129913e-02 -2.039162814617156982e-02 1.566725783050060272e-02 -1.878500171005725861e-02 1.156632974743843079e-02 -2.043514326214790344e-02 6.772030144929885864e-02 -7.926841080188751221e-02 -9.701499715447425842e-03 1.960847899317741394e-02 -1.148886140435934067e-02 -2.559416927397251129e-02 3.809060528874397278e-02 -2.271612919867038727e-02 -3.704658709466457367e-03 -2.345114015042781830e-02 -3.903438895940780640e-02 -4.694157093763351440e-02 3.984061628580093384e-02 -5.611552391201257706e-03 5.410171672701835632e-02 2.948419004678726196e-02 2.871892356779426336e-04 -2.523784711956977844e-02 1.669364050030708313e-02 6.423505954444408417e-03 -2.648258954286575317e-02 -8.914348669350147247e-03 -4.275944828987121582e-02 -9.247529506683349609e-02 -8.289331570267677307e-03 1.335308980196714401e-02 1.850566640496253967e-02 -2.454960532486438751e-02 -2.993214316666126251e-02 2.559196762740612030e-02 2.395539544522762299e-02 -4.696467146277427673e-02 -2.311535878106951714e-03 5.457570031285285950e-02 -8.546672016382217407e-02 3.278222680091857910e-02 -4.512076079845428467e-02 -2.875686623156070709e-02 -1.085573434829711914e-02 -2.923235530033707619e-03 6.417154334485530853e-03 -2.207346633076667786e-02 1.369359251111745834e-02 4.258316010236740112e-03 -2.380474843084812164e-02 -9.247215092182159424e-02 1.169810537248849869e-02 6.711389124393463135e-02 -1.343267131596803665e-02 5.463782697916030884e-02 1.210577227175235748e-02 -4.812748637050390244e-03 -5.999141139909625053e-04 1.558618620038032532e-02 5.637474730610847473e-02 -8.807501941919326782e-02 1.436924003064632416e-02 -8.865116536617279053e-02 3.631491214036941528e-02 -7.753214985132217407e-02 -7.255819439888000488e-02 -9.859407320618629456e-03 8.340968936681747437e-02 8.007863536477088928e-03 -8.605455607175827026e-02 2.566467784345149994e-02 3.041944094002246857e-02 -2.568775415420532227e-02 8.408511057496070862e-03 2.812563814222812653e-02 3.421732783317565918e-02 -4.762706533074378967e-02 -4.333104006946086884e-03 -2.005996927618980408e-02 4.999947547912597656e-02 7.668066769838333130e-02 -4.234451055526733398e-02 1.826963014900684357e-02 3.426432237029075623e-02 -3.472714126110076904e-02 6.343406438827514648e-02 4.749019071459770203e-02 -2.498148940503597260e-02 1.953688636422157288e-02 4.416789859533309937e-02 -1.260513812303543091e-02 4.887659102678298950e-03 4.264499992132186890e-03 1.607941091060638428e-02 2.274549007415771484e-02 -2.772585861384868622e-02 1.002238481305539608e-03 -1.184503920376300812e-02 -5.264497175812721252e-02 3.168894350528717041e-02 7.049874961376190186e-02 -3.313293680548667908e-02 -3.153477609157562256e-02 -3.770289244130253792e-03 8.777773939073085785e-03 3.759490326046943665e-02 -1.700147241353988647e-02 2.574197947978973389e-02 9.161641355603933334e-04 -2.663995698094367981e-02 -7.737185806035995483e-02 -9.583242237567901611e-02 3.705416247248649597e-02 1.253616902977228165e-02 4.650077316910028458e-03 -9.381839074194431305e-03 -8.939131163060665131e-03 -5.625655874609947205e-02 -7.798578590154647827e-03 2.531375549733638763e-02 1.470570685341954231e-03 -7.223367225378751755e-03 -2.824557945132255554e-03 -3.870974853634834290e-02 -2.061493322253227234e-02 2.195757813751697540e-02 -2.253085747361183167e-02 -6.640691310167312622e-02 1.675462909042835236e-02 -2.876047417521476746e-02 -6.004575407132506371e-04 -3.443279489874839783e-02 -3.230573609471321106e-02 -6.889360491186380386e-03 -2.356757968664169312e-02 6.445752829313278198e-02 -4.990591108798980713e-02 4.234864935278892517e-02 -3.447626158595085144e-02 -1.950241439044475555e-02 -5.703588481992483139e-03 1.137408334761857986e-02 2.292628400027751923e-02 -7.006191462278366089e-02 2.660366147756576538e-02 -1.105337515473365784e-01 9.159387089312076569e-03 -1.700361631810665131e-02 -5.199581757187843323e-02 1.714316383004188538e-02 4.066798090934753418e-02 -1.468439027667045593e-02 1.522120274603366852e-02 7.195945829153060913e-02 -4.314100742340087891e-02 1.155646750703454018e-03 -1.075508072972297668e-02 1.683374494314193726e-02 4.281978472135961056e-04 1.900058798491954803e-02 -3.147518634796142578e-02 6.493635009974241257e-03 3.021001629531383514e-02 3.385219955816864967e-03 4.296850413084030151e-02 -7.584167178720235825e-03 -1.648512668907642365e-02 -3.189792484045028687e-02 2.511588484048843384e-02 -1.203999295830726624e-02 4.558694083243608475e-03 -9.277738630771636963e-03 -1.943886838853359222e-02 3.720616176724433899e-02 -8.729164302349090576e-02 2.759690769016742706e-02 -7.314248476177453995e-03 -3.618750721216201782e-02 1.626196131110191345e-02 4.985651001334190369e-02 -2.381325699388980865e-03 3.696662606671452522e-04 -2.339542843401432037e-02 7.225352339446544647e-03 1.395001914352178574e-02 5.549426190555095673e-03 3.273821622133255005e-02 5.650314502418041229e-03 1.213207468390464783e-02 3.981487080454826355e-02 -2.199348807334899902e-02 -4.004485532641410828e-02 -4.342515021562576294e-03 -2.013821154832839966e-02 -8.000176399946212769e-02 -8.747877553105354309e-03 -1.768146641552448273e-02 -1.542780781164765358e-03 4.071906208992004395e-02 1.000766083598136902e-02 4.758435487747192383e-02 -1.637852867133915424e-03 1.539965160191059113e-02 2.834459207952022552e-02 1.083190832287073135e-02 -1.485682744532823563e-02 2.506002783775329590e-02 1.867256942205131054e-03 -1.618744991719722748e-02 4.615821316838264465e-02 -3.178456425666809082e-02 -6.928833317942917347e-04 -1.131935138255357742e-02 -2.221773751080036163e-02 -7.534901797771453857e-02 1.154046319425106049e-02 3.383732214570045471e-02 -4.078166559338569641e-02 -2.895701304078102112e-02 6.762685626745223999e-02 -2.657529199495911598e-03 -1.481222826987504959e-02 -5.521164275705814362e-03 -3.639924526214599609e-02 4.703517071902751923e-03 -8.831500308588147163e-04 -3.365832846611738205e-03 1.724460348486900330e-02 2.919485419988632202e-02 -2.898746170103549957e-02 1.426881924271583557e-02 2.888587675988674164e-02 -2.927638404071331024e-02 -1.082597579807043076e-02
2.443490177392959595e-02 -2.870613150298595428e-02 4.110268875956535339e-02 -2.694643288850784302e-02 -3.428981453180313110e-02 -7.042793184518814087e-02 -6.700115744024515152e-03 -3.385865315794944763e-02 -3.035282902419567108e-02 6.858286913484334946e-03 -2.626747265458106995e-02 -8.250616490840911865e-03 1.382240792736411095e-03 -3.608432412147521973e-02 3.035556711256504059e-02 7.384815067052841187e-02 -5.051610991358757019e-03 8.700545877218246460e-03 2.364854887127876282e-02 9.335709735751152039e-03 2.257391810417175293e-02 -6.599206011742353439e-03 2.769541554152965546e-02 1.020837854593992233e-02 -1.246558874845504761e-02 -1.136348396539688110e-02 -3.548237727954983711e-03 -2.792491205036640167e-02 1.238894183188676834e-03 -4.829210788011550903e-02 -3.910090774297714233e-02 2.375390380620956421e-03 2.273040451109409332e-02 2.655192650854587555e-02 8.415102958679199219e-03 1.285910606384277344e-02 -2.063659206032752991e-02 -3.490715101361274719e-02 -4.648279398679733276e-02 3.866749117150902748e-03 -3.549767285585403442e-02 -8.054719655774533749e-04 -6.126198917627334595e-03 4.438981041312217712e-02 1.998431421816349030e-02 -3.439587308093905449e-03 3.614810528233647346e-03 2.823735773563385010e-02 -2.627571299672126770e-02 1.502708531916141510e-02 -5.329703446477651596e-03 8.319135755300521851e-03 -2.173414453864097595e-02 -1.580829359591007233e-02 -2.866606786847114563e-02 2.612482011318206787e-02 4.048364236950874329e-02 4.616510495543479919e-02 -1.174470502883195877e-02 -5.046708043664693832e-03 -3.218429628759622574e-03 4.425584524869918823e-02 5.280826240777969360e-03 2.976202219724655151e-02 1.770467124879360199e-02 -1.654057949781417847e-02 2.376258932054042816e-02 -2.707733772695064545e-03 -3.389320895075798035e-02 1.500111445784568787e-02 4.566022753715515137e-02 4.840787872672080994e-02 -6.501493044197559357e-03 -5.804165080189704895e-02 -1.835133694112300873e-02 -1.579111069440841675e-02 6.574313342571258545e-02 4.011240229010581970e-02 6.951019633561372757e-03 1.191988773643970490e-02 -5.061194300651550293e-02 -7.020310498774051666e-03 5.760655924677848816e-02 -6.619794666767120361e-02 3.697077557444572449e-02 2.638013102114200592e-02 -2.476893365383148193e-03 -3.722742944955825806e-02 2.253312617540359497e-02 -2.859050594270229340e-02 -6.392274796962738037e-02 -2.007107436656951904e-02 1.710491068661212921e-02 -4.304914176464080811e-02 -5.932751111686229706e-03 1.957247778773307800e-02 -3.214870765805244446e-02 -9.587090462446212769e-04 -7.517273724079132080e-02 3.351999446749687195e-02 1.183801144361495972e-02 -3.514834120869636536e-02 1.652727276086807251e-02 -2.573006972670555115e-02 -5.856898054480552673e-02 2.757067233324050903e-02 2.245277725160121918e-02 -2.691748552024364471e-02 -3.744072094559669495e-02 2.927721105515956879e-02 3.201030939817428589e-02 -1.096104532480239868e-01 -4.622409120202064514e-02 -4.631000012159347534e-02 1.082803681492805481e-02 1.935836859047412872e-02 5.793039128184318542e-02 2.180286450311541557e-03 3.820412093773484230e-04 2.141674421727657318e-02 -4.785820469260215759e-02 2.127613127231597900e-02 -2.483678516000509262e-03 -1.309227012097835541e-02 -1.880559325218200684e-02 -5.919054150581359863e-03 1.483495929278433323e-03 -1.626813411712646484e-02 8.812712877988815308e-02 2.702957391738891602e-02 -9.190884232521057129e-02 -6.451259553432464600e-02 -2.832915401086211205e-03 -2.907188795506954193e-02 -2.869500033557415009e-02 3.725339472293853760e-02 3.247090429067611694e-02 -2.327559515833854675e-03 7.868579588830471039e-03 1.335409283638000488e-02 -7.421678304672241211e-02 2.772129140794277191e-02 -4.133798927068710327e-02 7.019144296646118164e-02 1.076394924893975258e-03 8.589211851358413696e-03 3.001932753250002861e-03 -1.099001802504062653e-02 -1.801092177629470825e-02 4.148338735103607178e-02 3.402981162071228027e-02 3.261915966868400574e-02 -2.514898031949996948e-02 1.402790471911430359e-02 -3.831922262907028198e-02 -7.172839250415563583e-03 -2.516443096101284027e-02 8.681916631758213043e-03 1.738649979233741760e-02 6.660324987024068832e-03 3.871028497815132141e-02 -2.209055703133344650e-03 1.370577979832887650e-02 2.218595519661903381e-02 2.599726617336273193e-02 -5.918303504586219788e-03 -3.414173796772956848e-02 4.953225608915090561e-03 4.223094508051872253e-02 -2.084419503808021545e-02 2.973054163157939911e-02 9.990638121962547302e-03 7.574008312076330185e-03 -1.536535657942295074e-02 2.423876523971557617e-02 5.807255953550338745e-02 -5.966618657112121582e-03 6.057643331587314606e-03 -1.479493081569671631e-02 2.346031181514263153e-02 2.963872253894805908e-02 -8.105437271296977997e-03 -2.959223696961998940e-03 -3.904823586344718933e-02 -2.801703661680221558e-02 1.426341570913791656e-02 1.418694667518138885e-02 -3.531580790877342224e-02 4.476049449294805527e-03 -2.423256449401378632e-02 2.408214099705219269e-02 -4.119763895869255066e-02 3.034032182767987251e-03 7.751084119081497192e-02 -1.211034134030342102e-02 -1.355666387826204300e-02 4.294561222195625305e-02 6.065209396183490753e-03 2.214142121374607086e-02 -2.060084044933319092e-02 -5.011772009311243892e-05 -3.917051851749420166e-02 -4.024402587674558163e-04 -6.994408369064331055e-02 8.325061760842800140e-03 2.654680982232093811e-02 3.370755538344383240e-02 -2.112132497131824493e-02 3.863191977143287659e-02 8.969138376414775848e-03 -4.449097812175750732e-02 5.846149474382400513e-02 1.086119562387466431e-02 1.391890365630388260e-02 -1.571667380630970001e-02 -2.419123239815235138e-02 -2.320502139627933502e-02 -1.672613248229026794e-02 2.557172812521457672e-02 -3.948102518916130066e-02 2.639951556921005249e-02 -7.987412624061107635e-03 -5.097066983580589294e-02 2.041090652346611023e-02 4.018176347017288208e-02 -2.278668433427810669e-02 -5.977129563689231873e-02 2.638921700417995453e-02 -4.962862003594636917e-03 5.782889947295188904e-02 -1.675290614366531372e-02 -8.331046439707279205e-03 -7.897231727838516235e-02 -7.858441770076751709e-02 2.245679870247840881e-02 -3.833317314274609089e-04 3.764225170016288757e-02 2.690681023523211479e-03 -1.526286243461072445e-03 5.127989221364259720e-03 2.573303645476698875e-03 -2.071762830018997192e-02 -1.608459278941154480e-02 1.025217026472091675e-02 6.260024849325418472e-03 -2.088526263833045959e-02 -1.966145820915699005e-02 1.322804670780897141e-02 -1.273813936859369278e-02 -1.285073254257440567e-02 2.902272343635559082e-02 4.421429708600044250e-02 2.838815562427043915e-02 1.992548257112503052e-02 -8.983538486063480377e-03 -4.984945058822631836e-03
2.683260291814804077e-02 -4.155708849430084229e-02 2.574385330080986023e-02 -6.893434561789035797e-03 1.527865650132298470e-03 -3.387171775102615356e-02 -6.601244676858186722e-03 1.816465333104133606e-02 -1.604234054684638977e-02 -4.809457808732986450e-02 3.624555841088294983e-02 1.168306544423103333e-02 2.715710550546646118e-02 -1.893923617899417877e-03 -7.214913144707679749e-03 -4.210726544260978699e-02 -3.327957913279533386e-02 -5.120466463267803192e-03 5.035920068621635437e-03 4.038340598344802856e-02 1.833503018133342266e-03 -5.230726208537817001e-03 -2.887019142508506775e-02 1.038120985031127930e-01 2.972796186804771423e-02 -3.111085295677185059e-02 5.459803715348243713e-02 5.138963460922241211e-04 -3.442084044218063354e-02 -2.485370263457298279e-02 1.088746357709169388e-02 -1.635779812932014465e-02 -3.608085960149765015e-02 3.450021520256996155e-02 -3.089106827974319458e-02 -1.501869130879640579e-02 -1.748375967144966125e-02 -1.625128462910652161e-02 -7.568811066448688507e-03 4.026215150952339172e-02 -2.064253203570842743e-02 2.594939433038234711e-02 -1.864067278802394867e-02 2.138900011777877808e-02 -3.046591021120548248e-02 -4.940202087163925171e-02 4.473058506846427917e-02 1.722325570881366730e-02 2.795822732150554657e-02 3.913841396570205688e-02 -2.188526839017868042e-02 -2.914729295298457146e-03 5.841512978076934814e-02 -5.130359530448913574e-02 4.134199023246765137e-02 -6.249227747321128845e-02 2.765455283224582672e-02 2.468206733465194702e-02 1.097656972706317902e-02 2.771782223135232925e-03 -5.035195499658584595e-02 -9.781106375157833099e-03 -5.441792681813240051e-02 -1.460276264697313309e-02 2.762043103575706482e-02 2.271144837141036987e-02 1.259792782366275787e-02 8.490690030157566071e-03 -3.266464918851852417e-02 2.079943567514419556e-02 5.224030464887619019e-02 -4.644019156694412231e-02 6.118854135274887085e-02 -3.332643769681453705e-03 9.303434938192367554e-02 -6.589575856924057007e-02 -2.376736328005790710e-02 6.019178032875061035e-02 3.850623220205307007e-02 -6.442025303840637207e-02 -4.565304517745971680e-02 -4.400942474603652954e-02 -9.818238019943237305e-02 -7.153025269508361816e-02 -5.767421051859855652e-02 1.785707846283912659e-02 4.108465090394020081e-02 -1.636191084980964661e-02 1.415969338268041611e-02 4.222032800316810608e-02 5.000029224902391434e-03 1.312469039112329483e-02 -5.025586113333702087e-02 -2.589328214526176453e-02 1.334671955555677414e-02 -1.867620646953582764e-02 6.533435732126235962e-02 3.695533424615859985e-02 -9.518205188214778900e-03 -1.151099521666765213e-02 1.768743246793746948e-02 -4.281697794795036316e-02 -1.779553107917308807e-02 -7.718721870332956314e-03 -3.244667872786521912e-02 -1.106657460331916809e-02 -2.217362448573112488e-02 -2.092733792960643768e-02 -5.023036617785692215e-03 -5.720799416303634644e-02 -7.628596853464841843e-03 -6.838348507881164551e-02 -3.415862098336219788e-02 1.402135938405990601e-02 -8.900323882699012756e-03 -5.310098826885223389e-02 -5.088547244668006897e-02 -9.776283986866474152e-03 4.642622545361518860e-02 -2.053712122142314911e-02 3.014058806002140045e-02 1.020946204662322998e-01 7.027765363454818726e-02 -2.952664718031883240e-02 -7.165591418743133545e-02 -2.156567201018333435e-02 3.223549202084541321e-02 -3.125780820846557617e-02 -2.376944757997989655e-02 2.015950344502925873e-02 5.011608451604843140e-02 -3.062097728252410889e-02 2.832110412418842316e-02 -5.017664749175310135e-03 7.378178089857101440e-02 -7.038775831460952759e-02 -5.709286779165267944e-02 -1.540894713252782822e-02 2.418117225170135498e-02 -7.242620456963777542e-03 -4.215466976165771484e-02 3.465724736452102661e-02 1.940556103363633156e-03 -3.050145693123340607e-02 -5.025761667639017105e-03 -2.127610705792903900e-02 8.360133506357669830e-03 6.228860467672348022e-03 6.687182188034057617e-02 -1.105725578963756561e-02 -7.643881440162658691e-02 -3.495676442980766296e-02 -4.977838322520256042e-02 -2.779457904398441315e-02 7.102383766323328018e-03 1.742154476232826710e-03 -1.835914514958858490e-02 3.280542558059096336e-03 5.704824347048997879e-03 -5.540369451045989990e-02 1.075770519673824310e-02 -9.724660776555538177e-03 2.462739124894142151e-02 -1.077412744052708149e-03 7.356330170296132565e-04 1.211209129542112350e-02 -7.260412722826004028e-02 2.075076475739479065e-02 9.309932589530944824e-03 -3.837205097079277039e-02 -1.551724225282669067e-02 -5.528016015887260437e-02 -8.598291315138339996e-03 9.652382694184780121e-03 4.538523778319358826e-02 -3.785749897360801697e-02 3.274781396612524986e-03 4.599753767251968384e-03 -2.722027525305747986e-02 -5.095406249165534973e-02 1.049639005213975906e-02 -3.659622743725776672e-02 -2.760768868029117584e-02 2.692392654716968536e-02 6.506393849849700928e-02 1.892033498734235764e-03 2.818286046385765076e-02 5.954053718596696854e-03 -1.628929562866687775e-02 5.050110048614442348e-04 1.730355061590671539e-02 -1.769933477044105530e-02 5.334066972136497498e-02 2.518591843545436859e-02 -2.924978919327259064e-02 2.816006541252136230e-02 -4.040029272437095642e-02 4.035010933876037598e-02 3.611679002642631531e-02 8.313232660293579102e-02 -1.917285844683647156e-02 -1.215047482401132584e-02 5.013941973447799683e-02 3.766996040940284729e-02 4.170106723904609680e-02 5.730660632252693176e-02 -6.440896540880203247e-02 8.997009694576263428e-02 -3.768520802259445190e-02 -5.275503918528556824e-02 -4.629350453615188599e-02 5.375882983207702637e-02 3.188633359968662262e-03 2.221040660515427589e-03 1.829590648412704468e-02 -3.671441692858934402e-03 -2.489221980795264244e-03 2.122512459754943848e-02 1.504202280193567276e-02 -1.607815502211451530e-03 -3.125962987542152405e-02 -2.515229769051074982e-02 2.695361711084842682e-02 -5.880698189139366150e-02 1.442639157176017761e-02 -6.593360751867294312e-02 2.883596904575824738e-02 4.935072269290685654e-03 -1.151201035827398300e-02 1.421338133513927460e-02 2.750565670430660248e-02 7.888423278927803040e-03 -4.459260404109954834e-02 -9.765024296939373016e-03 5.512429401278495789e-03 8.678608573973178864e-03 -4.096940532326698303e-02 -1.575615257024765015e-02 3.666805475950241089e-02 -3.463007509708404541e-03 1.877470687031745911e-02 -3.635935485363006592e-02 3.611757885664701462e-03 -2.188265696167945862e-02 -3.641431033611297607e-02 -6.154292449355125427e-02 2.451976388692855835e-02 2.119830460287630558e-04 7.227757945656776428e-03 -3.308931738138198853e-02 -3.720196336507797241e-02 1.479099504649639130e-02 -4.954075068235397339e-02 1.066606491804122925e-02 -5.105981603264808655e-02 -2.742062695324420929e-02
5.364997312426567078e-03 9.036519564688205719e-03 -2.626009471714496613e-02 3.432590514421463013e-02 -1.689045690000057220e-02 -3.478740528225898743e-02 -1.852370053529739380e-02 1.582872681319713593e-02 -2.591352537274360657e-02 -1.722244918346405029e-02 1.492642797529697418e-02 2.972142305225133896e-03 -5.349294096231460571e-02 2.535121142864227295e-02 2.362228371202945709e-02 -2.358775399625301361e-02 -6.092411349527537823e-04 3.503018245100975037e-02 4.348751530051231384e-02 -2.150422707200050354e-02 3.436300903558731079e-02 1.761283352971076965e-02 -3.270313143730163574e-02 -3.926477208733558655e-02 -7.003407180309295654e-02 -4.888451099395751953e-02 -3.617921844124794006e-02 1.647814363241195679e-02 2.369204163551330566e-02 9.325899183750152588e-03 7.620110362768173218e-02 -1.065887045115232468e-02 2.963019534945487976e-02 4.268998280167579651e-02 -4.803651198744773865e-02 1.786829531192779541e-02 -3.477378934621810913e-02 2.006073854863643646e-02 2.331027574837207794e-02 -3.448191564530134201e-03 -3.242605924606323242e-02 -4.200212191790342331e-03 -5.315963178873062134e-02 -4.216782748699188232e-02 -3.369621559977531433e-02 -2.461049705743789673e-02 -2.105632983148097992e-02 2.779760956764221191e-02 1.001601666212081909e-02 2.645210176706314087e-02 4.492948297411203384e-03 4.409226402640342712e-02 -4.108862206339836121e-02 3.439174965023994446e-03 1.168073713779449463e-02 -2.221755683422088623e-02 5.730337277054786682e-02 -4.444593191146850586e-02 7.850414142012596130e-03 -1.896271831355988979e-03 -1.723160780966281891e-02 -1.318803057074546814e-02 -4.538149014115333557e-02 1.820960268378257751e-02 -1.006993092596530914e-02 2.196204848587512970e-02 2.008025534451007843e-02 4.524371027946472168e-02 -6.236146762967109680e-02 -4.386145621538162231e-02 -2.312091365456581116e-02 2.746594883501529694e-02 5.000443011522293091e-02 1.223239768296480179e-02 1.665065810084342957e-02 -2.008416317403316498e-02 -5.593222007155418396e-02 3.305393457412719727e-02 -4.280548542737960815e-02 8.578228205442428589e-02 -1.071895007044076920e-02 3.366859629750251770e-02 2.216361276805400848e-02 -2.047718688845634460e-02 3.160887863487005234e-03 -1.878223940730094910e-02 2.999925287440419197e-03 2.152941422536969185e-03 6.284409761428833008e-02 -5.562192760407924652e-03 -1.079827472567558289e-01 3.864528983831405640e-02 -2.984840236604213715e-02 6.461478769779205322e-02 -2.049024216830730438e-02 1.902257651090621948e-02 6.338332896120846272e-04 9.979236125946044922e-02 -1.394974905997514725e-02 -2.017601579427719116e-02 -1.182038430124521255e-02 -7.707741856575012207e-02 -4.403390735387802124e-02 -3.832555189728736877e-02 -6.779457628726959229e-02 -3.159345686435699463e-02 -3.491945192217826843e-02 -3.026805445551872253e-02 -1.519351173192262650e-02 -5.979268625378608704e-02 -9.120818227529525757e-03 -2.205400727689266205e-02 8.594840764999389648e-02 6.215155869722366333e-02 -8.868442475795745850e-02 3.867188468575477600e-02 1.792977750301361084e-02 2.675725519657135010e-02 -2.267975360155105591e-02 -5.910877604037523270e-03 -9.311730414628982544e-02 -7.032752502709627151e-03 -2.290934696793556213e-02 -2.665593661367893219e-02 -4.121751710772514343e-02 -2.961437590420246124e-02 8.141122013330459595e-02 6.059114262461662292e-02 4.319808259606361389e-02 2.827510796487331390e-02 5.540911573916673660e-03 5.193962249904870987e-03 5.550878867506980896e-02 8.985364437103271484e-02 -7.848409563302993774e-02 2.007975988090038300e-02 -1.382650993764400482e-02 1.220757327973842621e-02 7.917474023997783661e-03 -4.172490164637565613e-02 1.362474542111158371e-02 3.660948947072029114e-02 5.517960339784622192e-02 1.007811818271875381e-02 -2.382808923721313477e-02 3.959153220057487488e-02 -3.822355344891548157e-02 2.898317575454711914e-02 -5.004255101084709167e-02 -8.626223541796207428e-03 -3.701988980174064636e-02 4.022454470396041870e-02 -2.566850930452346802e-02 -3.616231679916381836e-02 1.337465830147266388e-02 -3.742168471217155457e-02 -2.544053271412849426e-02 -1.597265899181365967e-02 -3.633925318717956543e-02 4.207300394773483276e-02 2.857068181037902832e-02 -1.212308648973703384e-02 9.487265720963478088e-03 1.058390364050865173e-02 -2.796574681997299194e-02 1.849690638482570648e-02 -4.801099188625812531e-03 -3.537548705935478210e-02 -9.391412138938903809e-03 -4.512628167867660522e-02 -3.639793023467063904e-02 -3.122927248477935791e-02 -3.633127734065055847e-02 -3.488142415881156921e-02 6.329149473458528519e-03 -1.261386461555957794e-02 4.984993487596511841e-02 4.397654533386230469e-02 -1.422633416950702667e-03 9.197648614645004272e-03 -1.552810799330472946e-02 6.009331555105745792e-04 -4.591821506619453430e-02 2.219818532466888428e-02 2.373058162629604340e-02 -1.575531065464019775e-02 2.115077222697436810e-05 -2.988468669354915619e-02 -1.713390089571475983e-02 -2.158216193492989987e-05 -1.188427326269447803e-03 -1.927712373435497284e-02 -1.581171993166208267e-03 3.504848480224609375e-02 1.565761491656303406e-02 1.354834139347076416e-01 -3.214272111654281616e-02 -9.149312973022460938e-03 2.059038728475570679e-02 2.599824033677577972e-02 2.368657290935516357e-02 -1.650875085033476353e-03 1.462404988706111908e-02 6.517544970847666264e-04 3.979439660906791687e-02 3.491204977035522461e-02 -2.271701209247112274e-02 -8.846636116504669189e-02 -5.558509752154350281e-02 8.433258160948753357e-03 -3.184135258197784424e-02 6.186810135841369629e-02 3.859281912446022034e-02 -1.324303075671195984e-02 -1.335164625197649002e-02 -3.525980189442634583e-02 -3.506109118461608887e-03 -5.577883496880531311e-02 -2.999085932970046997e-02 5.632254295051097870e-03 1.678101159632205963e-02 1.663555577397346497e-02 -3.224411606788635254e-02 2.291958779096603394e-03 4.957490041851997375e-02 -1.591893099248409271e-02 -6.690035015344619751e-02 -6.278455257415771484e-02 2.586447075009346008e-02 3.018321655690670013e-02 2.159393019974231720e-02 2.794762142002582550e-02 -2.431295439600944519e-02 2.948752604424953461e-02 5.245240870863199234e-03 5.653480067849159241e-02 5.287903919816017151e-02 -1.833832636475563049e-02 3.631922975182533264e-02 -6.247910484671592712e-02 -1.090366113930940628e-02 2.264300547540187836e-02 -1.605744659900665283e-02 -1.586265303194522858e-02 -4.213912039995193481e-02 -2.942477352917194366e-02 4.110064357519149780e-02 -1.135650835931301117e-02 6.391669157892465591e-03 -7.139454130083322525e-03 -6.792051345109939575e-02 -1.384467259049415588e-02 -6.229839473962783813e-02 -6.620968878269195557e-02 6.092200055718421936e-02 -1.126520056277513504e-02
3.040055371820926666e-02 -1.134981773793697357e-02 -4.320659115910530090e-02 -3.526509180665016174e-02 -2.165193902328610420e-03 2.151150070130825043e-02 8.150939643383026123e-02 -4.689640179276466370e-02 5.067302379757165909e-03 -4.298928380012512207e-02 9.101593494415283203e-02 5.001357290893793106e-03 -1.534013822674751282e-02 -1.464179344475269318e-02 -4.903719946742057800e-02 -4.866897594183683395e-03 -1.495929528027772903e-02 3.288767486810684204e-02 4.568755254149436951e-02 -2.399789914488792419e-02 -5.953299254179000854e-02 -3.168690204620361328e-02 2.278690226376056671e-02 -3.731635212898254395e-02 -3.431876376271247864e-02 2.536401711404323578e-02 1.007938105612993240e-02 -8.419178426265716553e-02 3.565286472439765930e-02 1.011088956147432327e-02 2.014615200459957123e-02 -3.813562914729118347e-02 -6.298097781836986542e-03 2.129604807123541832e-03 -4.104913026094436646e-02 1.005517411977052689e-02 -1.318128965795040131e-02 -1.247294526547193527e-02 2.875974588096141815e-02 -2.154945395886898041e-02 3.302781144157052040e-03 4.407457634806632996e-02 9.361493401229381561e-03 -2.214096672832965851e-02 -9.264253824949264526e-02 5.596701800823211670e-02 3.339656814932823181e-02 -3.147080773487687111e-03 3.515960648655891418e-02 -1.033876370638608932e-02 -1.200045086443424225e-02 4.794777184724807739e-02 1.702289842069149017e-02 -2.885733358561992645e-02 2.333643101155757904e-02 -5.026584025472402573e-03 -3.226575627923011780e-02 -2.453630976378917694e-02 -1.665320433676242828e-02 9.359125047922134399e-03 5.001057311892509460e-02 1.312518864870071411e-02 -1.731618680059909821e-02 3.001311048865318298e-02 -7.508791238069534302e-02 -3.762178495526313782e-02 1.642622053623199463e-03 -6.346320360898971558e-02 -2.171027287840843201e-02 -3.367557004094123840e-02 7.446201518177986145e-03 6.020108610391616821e-02 4.076717421412467957e-02 4.279920086264610291e-02 5.325284972786903381e-02 2.973097376525402069e-02 2.890511602163314819e-02 2.712299828999675810e-05 2.944289706647396088e-02 5.886771716177463531e-03 -2.794631570577621460e-02 3.535063564777374268e-02 -2.991321962326765060e-03 4.093737341463565826e-03 -4.307611286640167236e-02 1.929035782814025879e-02 1.342353131622076035e-02 1.678840257227420807e-03 2.673329599201679230e-02 -4.703832417726516724e-02 1.397696882486343384e-02 -4.088788852095603943e-02 1.584089943207800388e-03 1.110230479389429092e-02 -4.352838546037673950e-02 4.298708401620388031e-03 1.700728945434093475e-02 8.174727670848369598e-03 1.031928602606058121e-02 2.285016328096389771e-02 1.598386280238628387e-02 4.447456449270248413e-03 5.859631113708019257e-03 1.450671721249818802e-02 -5.447204038500785828e-02 2.736093662679195404e-02 -2.463028952479362488e-02 -2.448046021163463593e-02 5.014568567276000977e-02 1.671693287789821625e-02 -3.095187246799468994e-02 7.254630327224731445e-03 -4.271202906966209412e-02 9.866037219762802124e-02 -2.437429875135421753e-02 2.486011944711208344e-02 5.587324034422636032e-03 6.038072984665632248e-03 -1.321514789015054703e-02 6.439769640564918518e-03 2.622782066464424133e-02 3.491988778114318848e-02 -3.228429704904556274e-03 6.058894097805023193e-02 -1.187021192163228989e-02 1.159519422799348831e-02 5.936080124229192734e-03 6.420356780290603638e-02 -1.473121624439954758e-02 3.612424433231353760e-02 -4.317539278417825699e-03 -1.168589964509010315e-01 7.029037922620773315e-02 4.418257251381874084e-02 8.717512339353561401e-02 -1.641040667891502380e-03 8.292802609503269196e-03 -1.697747269645333290e-03 -2.416826970875263214e-02 -3.335301950573921204e-02 1.514002121984958649e-02 1.768588833510875702e-02 6.794922053813934326e-03 1.222515106201171875e-02 3.159302473068237305e-02 -4.997690673917531967e-03 -2.903466578572988510e-03 -1.625804044306278229e-02 6.489510089159011841e-02 6.467574276030063629e-03 -3.558185696601867676e-02 -5.407725460827350616e-03 3.693210333585739136e-02 -1.060869451612234116e-02 3.910659998655319214e-02 -3.915907070040702820e-02 1.047002989798784256e-02 -5.340292304754257202e-02 7.377488166093826294e-02 -1.562967896461486816e-02 2.004585228860378265e-02 2.339247614145278931e-02 2.026239968836307526e-02 1.010823994874954224e-02 5.535571649670600891e-02 -2.763280645012855530e-02 1.442985236644744873e-02 -2.149752341210842133e-02 -6.779145915061235428e-03 -1.023664977401494980e-02 6.673950701951980591e-02 5.702248215675354004e-02 2.802819944918155670e-03 -2.593626640737056732e-02 1.980739459395408630e-02 -3.604786843061447144e-02 -4.380042850971221924e-02 -5.999759957194328308e-02 -6.245797034353017807e-03 3.327021002769470215e-02 -2.720380388200283051e-02 1.295601949095726013e-02 -1.658818125724792480e-02 -1.703863032162189484e-03 1.033408846706151962e-02 2.390893548727035522e-02 -2.574100159108638763e-03 -7.425856776535511017e-03 -1.813353970646858215e-02 -5.283900536596775055e-04 -2.266028523445129395e-02 -3.812059387564659119e-02 -3.887013345956802368e-02 2.677872776985168457e-02 1.250694971531629562e-03 -3.593599423766136169e-03 -2.044410631060600281e-02 -1.385678164660930634e-02 2.612328901886940002e-02 9.668927639722824097e-03 5.611614882946014404e-02 -4.918975010514259338e-02 1.952477544546127319e-02 2.300817519426345825e-03 -2.514492347836494446e-02 3.142540901899337769e-02 -4.336819984018802643e-03 -5.870762746781110764e-03 -6.041958555579185486e-02 -2.767753973603248596e-02 5.048270151019096375e-02 1.125132292509078979e-02 -4.237624257802963257e-02 -4.008848592638969421e-02 -6.760412361472845078e-04 -5.012679100036621094e-02 -2.874896302819252014e-02 1.281718723475933075e-02 3.684092545881867409e-03 8.553511463105678558e-03 -2.932165563106536865e-02 -1.246024202555418015e-02 -1.698561199009418488e-02 -1.642159372568130493e-02 -2.210586145520210266e-02 -1.707520708441734314e-02 1.341823861002922058e-02 -2.814093604683876038e-02 -2.211496233940124512e-02 -1.129618193954229355e-02 2.675594389438629150e-02 4.503241216298192739e-04 -2.470599021762609482e-03 9.977193549275398254e-03 1.167539507150650024e-02 -1.559008844196796417e-03 -7.276538293808698654e-03 4.471408575773239136e-02 4.996465053409337997e-03 9.911824017763137817e-03 -1.269713509827852249e-02 1.284973882138729095e-02 2.173039130866527557e-02 3.643515706062316895e-02 1.858063787221908569e-02 -1.655737496912479401e-02 2.482440136373043060e-02 -1.704547554254531860e-02 -4.047676920890808105e-02 2.218978479504585266e-02 1.229293528012931347e-03 1.279914937913417816e-02 -5.457169841974973679e-03 -6.875326484441757202e-02 -2.988860942423343658e-03 2.641356363892555237e-02
4.075316712260246277e-02 -2.822686545550823212e-02 -8.352015167474746704e-02 8.512208238244056702e-03 -5.108513310551643372e-02 -2.981627732515335083e-02 1.204636693000793457e-02 -1.257592160254716873e-02 1.579111814498901367e-02 9.240786544978618622e-03 -1.717227697372436523e-02 9.710166603326797485e-03 -2.721587009727954865e-02 6.362788379192352295e-02 1.212811004370450974e-02 4.017361439764499664e-03 -2.821452543139457703e-02 -4.186069592833518982e-03 -2.120386622846126556e-02 -3.557660803198814392e-02 -4.493383318185806274e-02 -1.137303467839956284e-02 7.954509928822517395e-03 7.907571643590927124e-02 -2.699687145650386810e-02 -1.119361147284507751e-01 2.358281798660755157e-02 7.238367944955825806e-02 -2.029640041291713715e-02 -9.685891866683959961e-02 4.102270118892192841e-03 -2.660530246794223785e-02 -5.261737480759620667e-02 -6.445820629596710205e-02 -3.176183626055717468e-02 3.877365589141845703e-02 -6.695891916751861572e-02 -2.805530838668346405e-02 1.392915751785039902e-02 -3.635976091027259827e-02 -7.281379308551549911e-03 4.101467505097389221e-02 6.995537783950567245e-03 -2.448058873414993286e-02 7.283604703843593597e-03 -2.682038024067878723e-02 2.006587572395801544e-02 4.675677791237831116e-02 -1.263129711151123047e-02 4.689392447471618652e-02 1.667967252433300018e-02 -2.074441313743591309e-02 -1.325156074017286301e-03 4.358339682221412659e-02 -1.521371304988861084e-02 3.333740867674350739e-03 4.785865172743797302e-02 -2.504665963351726532e-02 2.187155745923519135e-02 -5.539095960557460785e-03 5.074993520975112915e-02 1.429033279418945312e-02 -6.712020188570022583e-02 -4.557987675070762634e-02 8.871549367904663086e-02 -1.714487560093402863e-02 5.631725117564201355e-02 2.539389766752719879e-02 -8.006019517779350281e-03 3.981508687138557434e-02 -2.824089303612709045e-02 3.474049642682075500e-02 -4.172431072220206261e-04 1.989449560642242432e-02 2.143888175487518311e-02 7.554569281637668610e-03 -4.014898464083671570e-02 1.299080699682235718e-01 -5.518777295947074890e-03 -1.070765033364295959e-02 -1.053829255397431552e-04 7.594166090711951256e-04 -1.470282115042209625e-02 1.073464900255203247e-01 4.692314937710762024e-02 -7.648757100105285645e-02 -8.851239457726478577e-03 2.232143189758062363e-03 -3.500251844525337219e-02 2.421964192762970924e-03 5.452673137187957764e-02 4.700531437993049622e-02 -9.657070972025394440e-03 -3.700985014438629150e-02 8.416519314050674438e-02 -1.185729280114173889e-01 2.394736371934413910e-02 9.912562556564807892e-03 -6.502264738082885742e-02 -2.780801244080066681e-02 1.691225357353687286e-02 -9.419220732524991035e-04 3.247129917144775391e-02 -1.683667115867137909e-02 -1.236756611615419388e-02 4.350201040506362915e-02 4.218299686908721924e-02 -4.044353961944580078e-02 7.040194235742092133e-03 5.337569490075111389e-02 1.343645006418228149e-01 -3.395460173487663269e-02 -4.404189065098762512e-03 -6.753903627395629883e-02 1.813322491943836212e-02 -9.969961829483509064e-03 -1.883723773062229156e-02 6.298766285181045532e-02 7.812021672725677490e-02 7.422183454036712646e-02 -5.999713391065597534e-02 -5.972823500633239746e-02 -6.849569827318191528e-02 -5.471627041697502136e-02 3.633538493886590004e-03 -6.623337417840957642e-02 -1.858842745423316956e-02 -4.792740195989608765e-02 3.400079905986785889e-02 7.081150542944669724e-03 -1.766441203653812408e-02 4.255012422800064087e-02 -9.650306310504674911e-04 2.999639138579368591e-02 -7.447938434779644012e-03 4.500828683376312256e-02 9.923971258103847504e-03 -1.575440168380737305e-02 8.211076783481985331e-05 3.620356693863868713e-02 3.481273725628852844e-02 -3.103558905422687531e-02 1.985713094472885132e-02 7.307497318834066391e-03 2.459566667675971985e-02 -2.385163493454456329e-02 -4.770632833242416382e-02 -1.012335252016782761e-02 2.790834940969944000e-02 8.984886109828948975e-02 -8.770321309566497803e-02 -4.410947114229202271e-02 2.647178620100021362e-02 2.940990217030048370e-02 -8.678281307220458984e-02 -1.378877833485603333e-02 7.057934254407882690e-02 6.961936503648757935e-02 2.638751454651355743e-02 5.278294906020164490e-02 -5.063841585069894791e-03 -5.035104975104331970e-02 5.383487790822982788e-02 1.478856056928634644e-01 -1.150812283158302307e-01 9.141956269741058350e-02 7.180083543062210083e-02 2.795007452368736267e-02 -9.523713961243629456e-03 1.502211298793554306e-02 -8.197098970413208008e-03 5.590390786528587341e-02 3.372322022914886475e-02 7.334028929471969604e-02 4.373007267713546753e-02 6.211897823959589005e-03 -3.742421418428421021e-02 1.350446138530969620e-02 -1.995495520532131195e-02 -1.045301184058189392e-01 -3.199202194809913635e-02 9.403157979249954224e-02 -3.233331488445401192e-03 -3.041406453121453524e-04 5.796052515506744385e-02 4.690723493695259094e-02 4.518997296690940857e-02 -4.612069949507713318e-02 -8.696502447128295898e-02 1.285406649112701416e-01 1.815429655835032463e-03 4.247076436877250671e-02 1.395364664494991302e-02 1.939776539802551270e-02 6.927037984132766724e-02 -1.662758551537990570e-02 5.020282045006752014e-02 2.343030879274010658e-03 3.292022505775094032e-03 8.373741060495376587e-03 -2.176992222666740417e-02 -7.277748733758926392e-02 1.233096197247505188e-01 2.808160893619060516e-02 -7.340383529663085938e-02 -3.617773065343499184e-03 1.730029098689556122e-02 -1.725789974443614483e-03 -1.185137964785099030e-02 -3.127366304397583008e-02 5.700122937560081482e-02 -8.225969970226287842e-03 -1.129779126495122910e-02 -6.231884937733411789e-03 -4.253154620528221130e-02 -7.592984288930892944e-02 -3.276481479406356812e-02 7.798954844474792480e-02 -2.841742476448416710e-03 -6.114986538887023926e-02 8.849239908158779144e-03 -4.468072205781936646e-03 5.099052563309669495e-02 -9.039456956088542938e-03 -6.280364841222763062e-02 1.208566967397928238e-02 6.716956943273544312e-02 1.837566122412681580e-02 -7.957387715578079224e-03 9.073217213153839111e-02 4.939325619488954544e-03 1.822576113045215607e-02 -5.344881862401962280e-02 8.946776390075683594e-02 3.625746816396713257e-02 1.067277137190103531e-02 7.482906430959701538e-02 3.673010692000389099e-02 3.511176630854606628e-02 -3.263479471206665039e-02 -1.473244186490774155e-02 4.146768525242805481e-02 -1.387739181518554688e-01 9.451695368625223637e-04 -3.341937065124511719e-02 -2.035671845078468323e-02 -1.294717192649841309e-02 6.733372807502746582e-02 4.827102646231651306e-02 5.811732262372970581e-02 -3.700099769048392773e-04 1.263998355716466904e-02 -1.918786950409412384e-02 1.768072694540023804e-02 2.870700508356094360e-02 8.821533992886543274e-03
