-1.065268996171653271e-03 1.338329166173934937e-02 -3.288530558347702026e-02 -1.101288665086030960e-02 -1.952305249869823456e-02 -7.862607948482036591e-03 7.434109225869178772e-03 -1.588887348771095276e-02 1.088713482022285461e-02 -1.828151941299438477e-02 -3.205704502761363983e-03 5.163837596774101257e-02 -2.388304332271218300e-03 2.132443524897098541e-02 2.654308266937732697e-02 -2.771154511719942093e-03 -2.234537340700626373e-02 -2.595606446266174316e-02 -3.757796436548233032e-02 -1.073828991502523422e-02 1.032490748912096024e-02 2.157241251552477479e-04 3.838685527443885803e-02 5.856019910424947739e-03 1.726618781685829163e-02 1.580865005962550640e-03 2.738120779395103455e-02 -1.160853169858455658e-02 1.431650854647159576e-02 -1.136134099215269089e-02 2.174842543900012970e-02 -5.009423196315765381e-02 1.754173426888883114e-03 2.081376686692237854e-02 -1.277589425444602966e-02 3.335369285196065903e-03 1.221704855561256409e-02 -1.452329009771347046e-02 -2.442341484129428864e-02 7.674182765185832977e-03 1.905049011111259460e-02 -2.495242655277252197e-02 -1.647087372839450836e-02 2.840231359004974365e-02 -1.592917740345001221e-02 -1.799704134464263916e-02 2.785771526396274567e-02 -7.644873403478413820e-05 -2.641290426254272461e-02 3.171783685684204102e-02 -4.178363829851150513e-03 3.379230154678225517e-03 8.663688786327838898e-03 7.041234523057937622e-03 -8.768284693360328674e-03 -1.369800977408885956e-02 -1.911065354943275452e-02 -4.977234173566102982e-03 -6.315832026302814484e-03 -1.223436323925852776e-03 8.236525580286979675e-03 -1.432605925947427750e-02 -2.236864343285560608e-02 2.227814681828022003e-02 2.264983253553509712e-03 -4.540153313428163528e-03 4.248162731528282166e-03 4.072381556034088135e-02 -1.804420317057520151e-04 -3.028639033436775208e-02 3.057004883885383606e-02 1.457137148827314377e-02 -1.683979295194149017e-02 -4.213989898562431335e-02 1.444222591817378998e-02 1.830124855041503906e-02 -8.828113786876201630e-03 -1.967441849410533905e-02 5.793340504169464111e-02 -3.443200513720512390e-02 3.244424704462289810e-03 -7.093073800206184387e-03 5.335995927453041077e-02 -2.473733853548765182e-03 -4.320685751736164093e-03 5.391140002757310867e-03 -3.491398692131042480e-02 -2.394045004621148109e-03 -1.259184721857309341e-02 6.286254618316888809e-03 1.289930660277605057e-02 2.689428627490997314e-03 -4.344748333096504211e-02 3.793559595942497253e-02 7.124306168407201767e-03 1.630545780062675476e-02 2.315607480704784393e-02 -2.818866446614265442e-02 -8.055108599364757538e-03 -3.468776494264602661e-02 -1.922631636261940002e-02 -5.665394943207502365e-03 2.115198643878102303e-03 -8.744762279093265533e-03 -1.070074737071990967e-02 4.832068923860788345e-03 -4.565244540572166443e-02 -9.818850085139274597e-04 -1.075577735900878906e-02 -1.649221777915954590e-02 -3.468187525868415833e-02 2.431734232231974602e-03 -1.204745192080736160e-02 -2.311995998024940491e-02 -4.739774391055107117e-03 -3.702286258339881897e-02 1.059502735733985901e-02 6.092930957674980164e-02 4.909957572817802429e-02 1.172741223126649857e-02 -1.268670521676540375e-02 1.120364945381879807e-02 -8.278446272015571594e-03 -5.222382955253124237e-03 -3.314730897545814514e-02 2.518356032669544220e-02 1.817427761852741241e-02 -3.559622168540954590e-02 4.724053293466567993e-02 4.914858937263488770e-02 -1.000209618359804153e-02 -6.258746236562728882e-02 -9.329976513981819153e-03 -1.693354547023773193e-02 -4.957715049386024475e-03 1.019191276282072067e-02 6.264762580394744873e-02 2.118446677923202515e-02 1.606675609946250916e-02 1.007293630391359329e-02 -1.341433729976415634e-03 1.665648072957992554e-02 -3.320634365081787109e-02 1.976423524320125580e-02 -4.433497320860624313e-03 -2.184844762086868286e-02 1.441149413585662842e-02 4.488147795200347900e-02 -4.221764951944351196e-02 -4.631357267498970032e-03 6.045396905392408371e-03 4.942278191447257996e-02 -4.359816201031208038e-03 4.947390989400446415e-04 3.309682011604309082e-02 2.157407999038696289e-02 -3.094561584293842316e-02 1.865615695714950562e-02 -2.638864330947399139e-02 -1.026258245110511780e-02 1.777788065373897552e-02 -3.501361608505249023e-02 1.047080499120056629e-03 5.760771222412586212e-03 -2.931561693549156189e-02 2.911286801099777222e-02 -1.205603964626789093e-02 1.959203556180000305e-02 -5.931879393756389618e-03 8.951317518949508667e-03 -3.274271264672279358e-02 -4.852058191318064928e-04 1.869820617139339447e-02 2.671855874359607697e-02 4.417224787175655365e-03 -1.306426897644996643e-02 -3.824415057897567749e-02 3.164125233888626099e-02 -7.003915030509233475e-03 -9.315216913819313049e-03 1.927305012941360474e-02 -2.077178843319416046e-02 -1.088365074247121811e-02 -3.633812069892883301e-02 2.009384706616401672e-02 -4.809534642845392227e-03 -1.680466905236244202e-02 3.195881098508834839e-02 -3.849340602755546570e-02 3.400948271155357361e-02 2.128393948078155518e-02 -2.292240737006068230e-03 -1.154823694378137589e-02 -2.216001600027084351e-02 -2.160017937421798706e-02 -9.716898202896118164e-03 2.259985916316509247e-02 1.264906022697687149e-02 2.855891920626163483e-02 -2.270274795591831207e-02 -3.679339215159416199e-02 1.657082699239253998e-02 -3.350623697042465210e-02 7.586061023175716400e-03 4.575708415359258652e-03 3.865308826789259911e-03 1.812794990837574005e-02 6.409429013729095459e-02 2.740128524601459503e-02 -9.951942600309848785e-03 1.403194665908813477e-02 7.064682897180318832e-03 4.883587826043367386e-03 -9.697358473204076290e-04 -6.385932792909443378e-04 -8.047013729810714722e-02 7.980515249073505402e-03 -6.562624475918710232e-04 3.389527322724461555e-03 -1.860891096293926239e-02 -3.499359637498855591e-02 6.398558616638183594e-03 1.093631982803344727e-02 -1.731853559613227844e-02 -2.575532346963882446e-02 -5.364701896905899048e-02 1.660316996276378632e-02 -1.079552341252565384e-02 -1.329140551388263702e-02 3.244630992412567139e-02 1.814796403050422668e-02 7.581758499145507812e-02 -2.329673431813716888e-02 -3.141722828149795532e-02 3.274254500865936279e-02 -5.694339517503976822e-03 4.165827482938766479e-02 -3.801315277814865112e-02 -3.146764356642961502e-03 1.943115703761577606e-02 1.960670389235019684e-02 2.326144650578498840e-02 2.084192074835300446e-02 3.467909526079893112e-03 1.170668471604585648e-02 -1.347546000033617020e-03 -3.703531250357627869e-02 4.533963277935981750e-03 1.903060451149940491e-02 1.359903137199580669e-03 1.044004503637552261e-02 1.040421798825263977e-02 1.702831871807575226e-02 -2.627111412584781647e-02 -1.559060998260974884e-02 -8.711662143468856812e-03
3.302047401666641235e-02 -3.127393126487731934e-02 2.293420583009719849e-02 2.014488354325294495e-02 -4.233893938362598419e-03 2.250304818153381348e-02 -3.129713237285614014e-02 -3.173346072435379028e-02 2.806496247649192810e-02 3.750545531511306763e-02 7.003662642091512680e-03 -2.080875448882579803e-02 1.338542811572551727e-02 -2.737504802644252777e-02 -2.312143892049789429e-02 -8.505769073963165283e-03 7.574345916509628296e-03 9.200573712587356567e-02 1.978433132171630859e-02 7.846024632453918457e-02 4.175610095262527466e-02 3.829503664746880531e-03 -6.082468852400779724e-02 -6.690333131700754166e-03 2.171029523015022278e-02 4.212273657321929932e-02 4.222717508673667908e-02 1.179269924759864807e-01 -1.874967105686664581e-02 -3.054643981158733368e-02 -2.927823178470134735e-02 3.927356004714965820e-02 4.619919881224632263e-02 4.297565296292304993e-02 1.384191773831844330e-02 -4.537310078740119934e-02 -3.822824684903025627e-03 -1.459126360714435577e-02 2.166103944182395935e-02 -2.701131813228130341e-02 3.045546077191829681e-02 2.001198008656501770e-02 -4.296559840440750122e-02 -6.390664726495742798e-02 -2.109645679593086243e-02 -1.957769040018320084e-03 6.368813663721084595e-02 8.266271091997623444e-03 1.812133193016052246e-02 4.143290966749191284e-02 1.549303624778985977e-02 -3.047267347574234009e-02 4.854358360171318054e-02 8.104274049401283264e-03 1.939297467470169067e-02 3.614124609157443047e-03 3.900696709752082825e-02 -3.054871223866939545e-02 2.510395832359790802e-03 1.252194121479988098e-02 5.692929495126008987e-03 -2.088708337396383286e-03 -2.506689168512821198e-02 1.404593791812658310e-02 1.309190597385168076e-02 -4.109195992350578308e-02 -1.034570764750242233e-02 7.387186866253614426e-03 -2.894028276205062866e-02 3.610604256391525269e-02 7.008111104369163513e-03 -2.771309576928615570e-03 8.606186509132385254e-02 2.458718419075012207e-02 1.648213528096675873e-02 3.623645007610321045e-02 4.626669455319643021e-03 -3.330934047698974609e-02 -7.253533601760864258e-02 6.661768257617950439e-02 7.124447077512741089e-02 -2.652553608641028404e-03 4.277716949582099915e-02 1.869748462922871113e-03 3.038930520415306091e-02 3.640982508659362793e-02 2.389872912317514420e-03 2.936449646949768066e-02 9.111730381846427917e-03 7.705627009272575378e-03 9.194979071617126465e-02 2.920272760093212128e-02 1.760302111506462097e-02 3.105904161930084229e-02 7.318294793367385864e-02 5.162983015179634094e-02 -2.668482437729835510e-02 -3.074459359049797058e-02 -3.460922837257385254e-02 -2.252275124192237854e-02 1.405660156160593033e-02 -7.196465041488409042e-03 -5.086913704872131348e-02 -1.615873165428638458e-02 -7.413023151457309723e-03 2.065549232065677643e-02 -5.230538919568061829e-02 -5.126890260726213455e-03 -2.971027791500091553e-02 -1.053842436522245407e-02 3.734671324491500854e-02 4.131045192480087280e-02 6.177841499447822571e-02 -2.068757265806198120e-02 6.530371028929948807e-03 -7.325276732444763184e-02 1.526954118162393570e-03 3.546450519934296608e-03 3.123163059353828430e-02 -3.414355218410491943e-02 -7.760771363973617554e-02 -1.737111434340476990e-02 -1.294421963393688202e-02 -2.103568054735660553e-03 6.863730959594249725e-03 4.616535454988479614e-02 3.755084797739982605e-02 8.455502800643444061e-03 2.015913091599941254e-02 -2.250592410564422607e-02 -3.904750198125839233e-02 -4.039231315255165100e-02 -2.231306023895740509e-02 -3.688954189419746399e-02 2.779394201934337616e-02 -4.138546437025070190e-02 -1.072504278272390366e-02 -1.093169394880533218e-02 1.901499181985855103e-02 1.758853718638420105e-02 3.077911771833896637e-02 2.699942328035831451e-03 7.712558656930923462e-02 4.468221217393875122e-02 4.052971675992012024e-02 -2.767180465161800385e-02 -1.747943647205829620e-02 -2.682178281247615814e-02 -7.395726279355585575e-04 -4.829790815711021423e-02 1.062183175235986710e-02 1.304190307855606079e-01 -4.649301525205373764e-03 -6.061599031090736389e-02 5.546025000512599945e-03 7.177636772394180298e-02 3.857309743762016296e-02 -2.405451796948909760e-02 2.087700413540005684e-03 -4.760208353400230408e-02 -9.999757632613182068e-03 3.598253801465034485e-02 -5.783067643642425537e-02 -1.008899230509996414e-02 -1.882242783904075623e-02 -2.717759087681770325e-02 1.757365278899669647e-02 6.913695950061082840e-03 6.856610625982284546e-02 -3.058235906064510345e-02 -3.428383171558380127e-02 7.063540164381265640e-03 -3.096681833267211914e-02 3.038211492821574211e-03 -2.767815999686717987e-02 -5.493303295224905014e-03 6.365589797496795654e-02 6.047423928976058960e-03 -6.607031822204589844e-02 1.740756817162036896e-02 -4.400426521897315979e-02 -3.291818499565124512e-02 -2.733494155108928680e-02 -5.995911359786987305e-02 2.428224869072437286e-02 5.237353965640068054e-02 -4.138008691370487213e-03 2.105317078530788422e-02 -3.161089494824409485e-02 4.410509020090103149e-02 -6.627161800861358643e-02 1.924084872007369995e-02 5.724484100937843323e-02 -1.510745380073785782e-02 2.749700332060456276e-03 -2.450530789792537689e-02 3.241299092769622803e-02 7.095742039382457733e-03 3.190569207072257996e-02 -1.768271811306476593e-02 2.747321501374244690e-02 -2.210936509072780609e-02 -5.841070087626576424e-04 -6.260661035776138306e-02 8.410123735666275024e-02 -1.304766349494457245e-02 1.777566224336624146e-02 2.837360836565494537e-02 1.260229153558611870e-03 5.144038796424865723e-02 9.798311657505109906e-05 -2.602509595453739166e-02 -1.972259394824504852e-02 -6.845565140247344971e-02 3.597886487841606140e-02 1.568240486085414886e-02 7.794307917356491089e-02 8.367545902729034424e-03 9.735894203186035156e-02 -3.198371082544326782e-02 1.040023472160100937e-02 3.171230852603912354e-02 -8.208791725337505341e-03 5.466615315526723862e-03 1.595748402178287506e-02 1.918671838939189911e-02 -3.755052760243415833e-02 3.323143348097801208e-02 -6.601580884307622910e-03 5.047631449997425079e-03 1.338613964617252350e-02 -1.845687255263328552e-02 -3.284840378910303116e-03 2.660095691680908203e-02 -2.363148517906665802e-02 -5.282053351402282715e-02 -4.651153832674026489e-02 5.919472500681877136e-02 1.434587966650724411e-02 -1.831816323101520538e-02 3.719362244009971619e-02 1.976581988856196404e-03 -9.955097921192646027e-03 5.944198369979858398e-02 2.408296801149845123e-02 1.745106652379035950e-02 4.691461101174354553e-02 6.513804197311401367e-02 4.235263168811798096e-02 -4.288829490542411804e-02 -3.208303079009056091e-02 9.311332367360591888e-03 -4.993712157011032104e-02 3.675138950347900391e-02 6.318645318970084190e-04 -6.909199059009552002e-02
-1.586759649217128754e-02 -4.372772201895713806e-02 -2.661711303517222404e-03 2.337955310940742493e-02 2.222927659749984741e-02 -6.092929840087890625e-02 -2.593873254954814911e-02 -4.917216673493385315e-02 1.324658375233411789e-02 -3.174909576773643494e-02 1.074579879641532898e-01 1.999880932271480560e-02 -1.263095415197312832e-03 2.422575140371918678e-03 4.300836939364671707e-03 -6.797801470384001732e-04 -7.811453193426132202e-02 -4.803143069148063660e-02 -6.406268477439880371e-02 8.657013066112995148e-03 -4.636551067233085632e-02 -3.126608207821846008e-02 -1.801187754608690739e-03 -6.501008290797472000e-03 1.992146112024784088e-02 2.551147900521755219e-02 -3.637281432747840881e-02 1.384183019399642944e-02 2.180249243974685669e-02 -3.463578969240188599e-02 3.049035370349884033e-02 3.987930342555046082e-02 -3.485970664769411087e-03 -3.841195255517959595e-02 3.794491663575172424e-02 -2.994409762322902679e-02 -1.943368650972843170e-02 -3.651709482073783875e-02 1.144667272455990314e-03 1.258629187941551208e-02 2.651979215443134308e-02 -1.325391829013824463e-01 2.694896049797534943e-02 4.153589531779289246e-02 2.219775505363941193e-02 -2.208644524216651917e-03 1.697910763323307037e-02 1.143397763371467590e-02 4.270879924297332764e-02 2.458962984383106232e-02 -1.924770139157772064e-02 -1.420847140252590179e-02 7.541253417730331421e-02 -2.611034363508224487e-02 6.332426518201828003e-02 -1.567785255610942841e-02 3.737019747495651245e-02 -1.837828569114208221e-02 4.397567827254533768e-03 -4.130731336772441864e-03 -5.455899983644485474e-03 -6.075917277485132217e-03 -1.759604923427104950e-02 -5.562707036733627319e-02 8.300801739096641541e-03 -8.067364990711212158e-02 2.032380085438489914e-03 -1.631366088986396790e-02 -2.763914316892623901e-02 9.287093766033649445e-03 3.718115389347076416e-02 -2.373284474015235901e-02 1.665754802525043488e-02 3.639252111315727234e-02 7.639626855961978436e-04 -3.412265703082084656e-02 -1.565960608422756195e-02 2.138686366379261017e-02 -5.241180583834648132e-02 -2.371801622211933136e-02 -2.990870270878076553e-03 -4.826094210147857666e-02 -2.643279731273651123e-02 1.255022641271352768e-02 5.694706458598375320e-03 3.400934115052223206e-02 -5.748408846557140350e-03 3.821365535259246826e-02 -1.124897599220275879e-02 3.556541353464126587e-02 -2.991962432861328125e-02 9.222255088388919830e-03 -3.098653070628643036e-02 -2.750445157289505005e-02 -1.675609871745109558e-02 1.391625381074845791e-03 -2.523239143192768097e-02 -1.232866849750280380e-02 5.476433411240577698e-02 -4.476426541805267334e-02 -3.957072272896766663e-03 -3.475055843591690063e-02 -4.201953858137130737e-02 2.412330359220504761e-02 5.512395408004522324e-03 7.144927047193050385e-03 1.759823225438594818e-02 -1.229005865752696991e-02 6.604986637830734253e-02 -2.884022705256938934e-02 -2.491618879139423370e-02 2.644341439008712769e-02 3.628467768430709839e-02 2.416511625051498413e-02 5.079887341707944870e-03 7.476613856852054596e-03 -4.406951740384101868e-02 1.243889518082141876e-02 -5.174385150894522667e-04 7.123349234461784363e-03 -1.909315772354602814e-02 5.254793539643287659e-02 -3.658089786767959595e-02 -1.887287129648029804e-03 -5.185337737202644348e-03 -2.473675087094306946e-02 -2.892807312309741974e-02 5.531644448637962341e-03 1.975936442613601685e-02 -5.518053844571113586e-02 2.947014942765235901e-02 7.570082787424325943e-03 6.728621519869193435e-05 2.567867003381252289e-02 6.479716300964355469e-02 1.587103493511676788e-02 -3.421089425683021545e-02 2.961753867566585541e-02 2.846457250416278839e-02 -4.996589943766593933e-02 -3.258064156398177147e-03 2.282976359128952026e-02 -1.844449341297149658e-02 -9.046396240592002869e-03 -2.492098324000835419e-02 -1.430431846529245377e-03 2.957475604489445686e-03 -2.674814686179161072e-02 5.140191875398159027e-03 5.521754920482635498e-02 -8.388623595237731934e-03 -3.560638800263404846e-02 2.139916457235813141e-02 3.746837610378861427e-03 -8.199590956792235374e-04 4.227596893906593323e-02 2.951908111572265625e-02 8.101163432002067566e-03 -2.453975006937980652e-02 -1.445910520851612091e-02 -5.955983698368072510e-02 -1.709530316293239594e-02 -2.857614867389202118e-02 -8.041751384735107422e-02 -2.440477721393108368e-03 1.408131234347820282e-02 7.774406578391790390e-03 -1.060814969241619110e-02 1.453927531838417053e-02 4.327577725052833557e-02 3.576522460207343102e-03 2.067999169230461121e-02 -6.954007316380739212e-03 1.541806478053331375e-02 1.448162179440259933e-02 6.062732636928558350e-02 5.261971615254878998e-03 7.528007775545120239e-02 5.199232255108654499e-04 -5.301721766591072083e-02 -1.220568176358938217e-02 4.058706108480691910e-03 -2.787535777315497398e-03 4.140455648303031921e-02 -2.526594884693622589e-02 1.142611727118492126e-02 1.496463641524314880e-02 1.581580191850662231e-02 -2.406661026179790497e-02 -8.883570879697799683e-02 -3.982802852988243103e-02 -2.037994377315044403e-02 2.914433926343917847e-02 3.030125750228762627e-03 -2.764508128166198730e-02 -4.448557272553443909e-03 -4.958161152899265289e-03 2.478366903960704803e-02 2.108072489500045776e-02 2.241637744009494781e-02 1.344060245901346207e-02 -1.792871020734310150e-02 6.418635603040456772e-03 -2.920820191502571106e-02 -1.843563839793205261e-02 2.857596240937709808e-02 -1.621204987168312073e-02 3.928142134100198746e-03 3.626435622572898865e-02 -4.494599532335996628e-03 -2.805433236062526703e-02 -8.429761976003646851e-03 2.991330623626708984e-02 -1.591666042804718018e-02 -1.383873075246810913e-02 1.567282155156135559e-02 2.403276786208152771e-02 9.508583694696426392e-03 2.281160850543528795e-04 1.682681776583194733e-02 3.985157236456871033e-03 4.354209825396537781e-02 -3.108073212206363678e-02 1.592513732612133026e-02 -7.294080220162868500e-03 -1.758532598614692688e-02 -1.300522219389677048e-02 2.604829147458076477e-02 6.296738982200622559e-02 -1.799413189291954041e-02 1.849262230098247528e-02 4.482078365981578827e-03 -2.714057080447673798e-02 -9.871047921478748322e-03 2.469405531883239746e-02 -2.659770846366882324e-02 -6.193201243877410889e-02 -5.109260976314544678e-02 -2.776306681334972382e-02 2.019541151821613312e-02 -4.938538372516632080e-02 1.218730234540998936e-03 3.745500743389129639e-02 -4.587249085307121277e-02 3.393160924315452576e-02 3.225718811154365540e-02 2.572696655988693237e-02 4.344565048813819885e-02 -3.587584197521209717e-02 -9.573591873049736023e-03 7.169659249484539032e-03 1.853132969699800014e-03 -2.266069129109382629e-02 3.794708847999572754e-02 3.851154074072837830e-02 -3.245933726429939270e-02
-2.496895566582679749e-02 -3.150955215096473694e-02 -7.293095346540212631e-03 -9.518756531178951263e-03 4.495513625442981720e-03 -3.269695490598678589e-02 -1.592267490923404694e-02 -4.552066791802644730e-03 -1.508436258882284164e-02 1.854554982855916023e-03 4.985964298248291016e-02 -8.138482458889484406e-03 -1.001270115375518799e-01 3.383810073137283325e-02 1.530559267848730087e-02 -1.930936612188816071e-02 -4.867903515696525574e-02 9.278236888349056244e-03 3.334520757198333740e-02 -5.852016061544418335e-02 -4.567851498723030090e-02 -3.753623366355895996e-02 1.698509976267814636e-02 -1.381621975451707840e-02 5.877276882529258728e-02 3.642796771600842476e-03 -2.011795155704021454e-02 -2.154034748673439026e-02 -1.084571890532970428e-02 -6.484255194664001465e-03 -5.152968689799308777e-02 1.711204531602561474e-03 -9.288180619478225708e-03 5.349877104163169861e-02 -7.320353761315345764e-03 -1.060703862458467484e-02 -5.325908958911895752e-02 -1.737523265182971954e-02 2.523458376526832581e-02 6.275500170886516571e-03 4.505604505538940430e-02 -1.663983240723609924e-02 7.700495887547731400e-03 1.232721563428640366e-02 3.163484483957290649e-02 -3.766496106982231140e-02 3.450366482138633728e-02 -3.880953416228294373e-03 6.970216054469347000e-03 4.907029494643211365e-02 2.287087216973304749e-02 -1.228780578821897507e-02 3.754982352256774902e-02 -5.909457057714462280e-02 1.511860731989145279e-02 -4.543362185359001160e-02 -4.363578744232654572e-03 -2.354855183511972427e-03 -1.621514931321144104e-02 -5.124758929014205933e-03 3.727496659848839045e-04 -4.470012709498405457e-02 3.443435207009315491e-02 -3.593488037586212158e-02 -2.489724941551685333e-02 5.431394092738628387e-04 3.716683387756347656e-02 -3.968666866421699524e-02 -2.752013690769672394e-02 3.041705489158630371e-02 -5.859516677446663380e-04 -1.404513884335756302e-02 3.089710325002670288e-02 -1.654365658760070801e-02 2.614514715969562531e-02 -5.668610706925392151e-02 -1.852384023368358612e-02 -5.692081525921821594e-02 -1.310305576771497726e-02 -2.896465128287672997e-03 -2.619165182113647461e-02 -4.924177378416061401e-02 -2.200148999691009521e-02 2.482475945726037025e-03 2.903135260567069054e-03 4.242997244000434875e-02 -4.776517394930124283e-03 2.487925626337528229e-02 -4.084618762135505676e-02 -1.624195091426372528e-02 -3.802996873855590820e-02 2.567468769848346710e-02 7.582023274153470993e-03 4.212082549929618835e-02 2.397897280752658844e-02 -2.239148691296577454e-02 -3.013315424323081970e-02 1.219843234866857529e-02 7.683671545237302780e-03 -3.128665685653686523e-02 1.766720227897167206e-02 4.053786769509315491e-02 9.489171952009201050e-02 -2.235312480479478836e-03 5.547099560499191284e-02 1.218070928007364273e-02 -5.687709897756576538e-02 -7.145576644688844681e-03 -5.935409571975469589e-03 -2.209243737161159515e-02 -5.133886262774467468e-02 -4.922807589173316956e-02 3.318250877782702446e-03 -2.069144137203693390e-02 2.360328333452343941e-03 2.392615564167499542e-02 -2.892443723976612091e-02 2.158094383776187897e-02 -4.305169731378555298e-02 1.706752553582191467e-02 4.376899078488349915e-02 -1.774711161851882935e-02 -1.698100753128528595e-02 5.655328556895256042e-02 1.924525247886776924e-03 -2.571705728769302368e-02 -1.796853356063365936e-02 3.413354977965354919e-03 7.989881932735443115e-02 -1.358135603368282318e-02 -1.224897429347038269e-02 -7.817359641194343567e-03 3.129300102591514587e-02 -8.277284353971481323e-02 4.229797422885894775e-02 -4.246541939210146666e-04 -1.512168906629085541e-02 -1.039961073547601700e-02 -1.514163054525852203e-02 -1.770060136914253235e-02 -6.811703089624643326e-03 -3.931700810790061951e-02 3.108460269868373871e-02 -5.273861810564994812e-02 -4.869346041232347488e-03 -5.521477013826370239e-02 4.559076949954032898e-02 -2.649331092834472656e-02 7.299999706447124481e-03 7.221010513603687286e-03 3.411043807864189148e-02 -5.101370811462402344e-02 -1.687751710414886475e-02 -1.419724524021148682e-02 1.662777550518512726e-02 5.706489831209182739e-02 1.545070391148328781e-02 -5.405410006642341614e-02 5.827250890433788300e-03 -8.953324705362319946e-02 1.836341172456741333e-01 2.456969022750854492e-02 -4.101698845624923706e-02 8.609434217214584351e-02 4.944196902215480804e-03 7.360282819718122482e-03 3.275030478835105896e-02 -2.657600492238998413e-02 -2.585953474044799805e-02 2.748126350343227386e-02 3.651404404081404209e-04 -8.202249556779861450e-02 -2.672074362635612488e-02 -1.079848408699035645e-01 -1.361293997615575790e-02 4.294731840491294861e-02 -7.986350357532501221e-02 -5.458380910567939281e-04 -4.329978954046964645e-03 5.050591658800840378e-03 9.994809515774250031e-03 -1.533894706517457962e-02 7.883602753281593323e-03 -3.299608826637268066e-02 -3.354790434241294861e-02 -2.805648744106292725e-02 -1.625455170869827271e-02 4.319047555327415466e-02 2.351299673318862915e-02 -1.004187483340501785e-02 1.141508594155311584e-01 3.280812501907348633e-02 2.008751407265663147e-02 -3.534146398305892944e-02 -4.932512529194355011e-03 2.298641391098499298e-02 2.955166995525360107e-02 -3.710706159472465515e-02 -5.561797879636287689e-04 4.129613935947418213e-02 -4.444534890353679657e-03 -3.065565228462219238e-02 -5.869961529970169067e-02 -2.914324961602687836e-02 -2.233292907476425171e-03 2.461633831262588501e-02 -1.255994942039251328e-02 5.122208967804908752e-02 2.437671273946762085e-02 1.604724116623401642e-02 -5.674602836370468140e-02 -1.411758363246917725e-02 4.794523492455482483e-02 3.475136822089552879e-03 9.612941741943359375e-02 -4.666231945157051086e-02 9.501927532255649567e-03 -3.260189294815063477e-02 1.230585016310214996e-02 9.758928790688514709e-03 3.355006501078605652e-02 -1.712225750088691711e-02 1.600908488035202026e-02 -2.043490670621395111e-02 -1.566725037992000580e-02 7.776912301778793335e-02 1.634111814200878143e-02 -1.136573497205972672e-02 3.643026575446128845e-02 -8.223928511142730713e-03 4.104024264961481094e-03 3.059064410626888275e-02 4.188186302781105042e-02 -1.313265040516853333e-02 -1.379084587097167969e-02 -1.260226964950561523e-02 -1.456109341233968735e-02 -4.088612645864486694e-02 8.522967994213104248e-02 1.544712949544191360e-02 4.256417974829673767e-03 2.163319475948810577e-02 -2.295297803357243538e-03 -3.224051743745803833e-02 5.231976881623268127e-02 7.165782153606414795e-02 -1.460140012204647064e-02 -6.062446162104606628e-02 -3.434386849403381348e-02 -2.527023665606975555e-02 -1.133240200579166412e-02 3.843465074896812439e-02 -3.611500561237335205e-02 -1.023914515972137451e-01 1.942030526697635651e-02 -8.680655807256698608e-02
5.402501556091010571e-04 -5.376115441322326660e-02 1.083156280219554901e-02 2.513020671904087067e-02 1.360510010272264481e-02 -3.553037345409393311e-02 -4.485612735152244568e-02 2.753921411931514740e-02 -2.199426107108592987e-02 2.765575051307678223e-02 4.792729765176773071e-02 -1.327621564269065857e-02 4.301121458411216736e-02 1.910696737468242645e-02 3.159059956669807434e-02 -7.288033608347177505e-03 2.947712689638137817e-02 -5.274955183267593384e-02 6.914567947387695312e-02 -6.200111657381057739e-02 -3.590847924351692200e-02 -2.537632547318935394e-02 -3.451301308814436197e-04 6.504231691360473633e-02 -2.556938119232654572e-02 -1.230482757091522217e-02 1.340244337916374207e-02 2.483642101287841797e-02 -9.625119157135486603e-03 -2.962174452841281891e-02 1.809320226311683655e-02 8.368728682398796082e-03 4.486986249685287476e-02 -3.201140090823173523e-02 1.869862526655197144e-02 3.433148958720266819e-05 -1.268085092306137085e-02 -1.767191663384437561e-02 -2.585814520716667175e-02 -2.330924151465296745e-03 2.937613287940621376e-03 1.513375341892242432e-02 7.540150731801986694e-02 -4.176039248704910278e-02 3.637993335723876953e-02 5.002519488334655762e-02 3.928795084357261658e-02 -2.841346524655818939e-02 3.106926754117012024e-02 1.938453875482082367e-02 -3.407218260690569878e-03 5.756327416747808456e-03 -2.737489715218544006e-02 -4.195211455225944519e-02 1.108469441533088684e-02 -4.502952471375465393e-02 -4.555118829011917114e-02 3.405052050948143005e-02 -1.641893386840820312e-02 -3.581172972917556763e-02 -1.131517067551612854e-02 9.417773038148880005e-02 -1.102310139685869217e-02 -4.285702854394912720e-02 -1.913484768010675907e-03 4.003501497209072113e-03 2.040489576756954193e-02 -4.036489874124526978e-02 4.380340501666069031e-02 8.205239661037921906e-03 -4.683347884565591812e-03 1.710192672908306122e-02 -3.879420831799507141e-02 -3.737644478678703308e-02 6.526461243629455566e-02 -4.069709684699773788e-03 6.314606219530105591e-02 -5.934739112854003906e-02 2.085364051163196564e-02 -7.167641539126634598e-03 1.367063727229833603e-02 -5.770497769117355347e-02 -9.786378592252731323e-03 5.663918796926736832e-03 -3.060539998114109039e-02 -5.516035109758377075e-02 -2.777391485869884491e-02 1.825033500790596008e-02 2.793399803340435028e-02 8.289338089525699615e-03 1.356299519538879395e-01 2.787731401622295380e-02 3.120403364300727844e-02 -5.984639748930931091e-02 4.053782299160957336e-02 3.565900726243853569e-03 3.161042556166648865e-02 -1.680957898497581482e-02 3.296120092272758484e-02 -4.410147666931152344e-02 -3.789214417338371277e-02 5.091633182018995285e-03 -1.653116047382354736e-01 1.876380480825901031e-02 2.166099660098552704e-02 3.337174281477928162e-02 8.372236043214797974e-03 -1.050603017210960388e-02 -1.891915313899517059e-02 2.066202275454998016e-02 -5.920707806944847107e-02 -2.727283351123332977e-02 -1.455170847475528717e-02 3.735830634832382202e-02 1.737720519304275513e-02 -3.884480893611907959e-02 2.512349933385848999e-02 1.293196249753236771e-02 -5.013544112443923950e-02 6.930746603757143021e-03 -1.287199207581579685e-03 4.009959474205970764e-02 -1.624889671802520752e-02 -3.321300819516181946e-02 1.202644221484661102e-02 -2.949472749605774879e-03 -2.238165400922298431e-02 -3.851566463708877563e-02 -1.840264350175857544e-02 -2.748209610581398010e-02 -7.125990837812423706e-02 -1.107224915176630020e-02 4.224097728729248047e-02 -2.682864665985107422e-02 6.473943358287215233e-04 2.197502180933952332e-02 -3.185137361288070679e-02 1.169959083199501038e-02 5.189102888107299805e-02 7.473838329315185547e-02 4.432813078165054321e-02 -4.638664796948432922e-02 3.146838396787643433e-02 -2.292339922860264778e-03 -4.094308824278414249e-04 6.541984621435403824e-03 6.355655938386917114e-02 -3.778454614803195000e-03 -1.828192733228206635e-02 1.020496804267168045e-02 3.618438541889190674e-02 -4.361252486705780029e-02 -1.427926216274499893e-02 -1.347219198942184448e-02 9.320241957902908325e-02 -1.024299068376421928e-03 3.786182031035423279e-02 -1.698277890682220459e-02 -6.268565356731414795e-02 -3.455050662159919739e-02 -5.950666964054107666e-02 -2.654809691011905670e-02 2.500504441559314728e-02 -4.721292853355407715e-02 1.553970575332641602e-02 -5.955442413687705994e-02 -2.199210692197084427e-03 -3.951951488852500916e-02 -1.580996625125408173e-02 1.147222425788640976e-02 -3.284027054905891418e-02 -1.893484964966773987e-02 -1.376190502196550369e-02 2.291358821094036102e-02 4.780384711921215057e-03 2.543390728533267975e-03 5.395147949457168579e-02 -1.541397301480174065e-03 -3.364545851945877075e-02 -6.456398870795965195e-03 -1.396391913294792175e-02 2.576526626944541931e-02 1.393567025661468506e-02 -2.599938213825225830e-02 2.979288436472415924e-02 -2.911704825237393379e-03 -1.373188570141792297e-02 -2.974147535860538483e-02 -1.993739977478981018e-02 -8.567299693822860718e-02 2.365510165691375732e-02 -3.196789696812629700e-02 -2.110933512449264526e-02 -5.533360317349433899e-02 -3.671684826258569956e-04 3.591947257518768311e-02 -8.625963702797889709e-03 2.478789910674095154e-02 -5.388181284070014954e-02 5.188988894224166870e-02 -6.207251548767089844e-02 -2.168110571801662445e-02 -2.388174086809158325e-02 -2.140873484313488007e-02 -3.964883834123611450e-02 3.037245944142341614e-03 -5.444182083010673523e-02 -1.713263243436813354e-02 4.682229831814765930e-02 3.470128029584884644e-02 -7.945981621742248535e-02 -4.239519126713275909e-03 1.216995529830455780e-02 2.081182599067687988e-02 -1.195035595446825027e-02 2.074876427650451660e-02 1.313645020127296448e-02 -3.298312053084373474e-02 3.154058009386062622e-02 1.757438993081450462e-03 3.421407565474510193e-02 3.209057450294494629e-02 -1.747580058872699738e-02 -3.448946774005889893e-02 -3.916648775339126587e-02 -1.132744457572698593e-02 -2.029484324157238007e-02 -3.496263176202774048e-02 3.851335123181343079e-02 2.980601601302623749e-02 1.242854632437229156e-02 3.808968886733055115e-02 -2.601214125752449036e-02 1.005143672227859497e-02 4.153557866811752319e-02 1.001915149390697479e-02 1.726035214960575104e-02 -5.715020000934600830e-02 -3.884324058890342712e-02 -2.627143077552318573e-02 1.061442960053682327e-02 1.123433038592338562e-01 3.034562990069389343e-02 -2.199855819344520569e-02 3.346321359276771545e-02 -1.969872228801250458e-02 3.674129396677017212e-02 -1.065972261130809784e-02 1.252060569822788239e-02 2.439114451408386230e-02 -2.367779612541198730e-02 -2.844397351145744324e-02 -7.390477694571018219e-03 -1.795879751443862915e-02 -3.453908488154411316e-02 -1.020013913512229919e-02
1.780307665467262268e-02 -1.815464720129966736e-02 -1.772298291325569153e-02 -5.402207374572753906e-03 2.266375720500946045e-02 -5.239753518253564835e-04 -1.223336905241012573e-02 1.147685945034027100e-02 7.253029197454452515e-02 4.849190637469291687e-02 3.480772301554679871e-02 2.327159978449344635e-03 2.262959070503711700e-02 7.852828130125999451e-03 -2.012341516092419624e-03 -4.460801370441913605e-03 -9.289656765758991241e-03 3.540270403027534485e-02 -4.356818646192550659e-02 -3.669268917292356491e-03 7.957845181226730347e-02 -1.815043762326240540e-02 -2.217937074601650238e-02 -3.808813635259866714e-04 -2.501833252608776093e-02 1.467090006917715073e-02 1.334558520466089249e-02 2.578746341168880463e-02 1.050973962992429733e-02 -8.451022952795028687e-02 2.009922824800014496e-02 4.147909954190254211e-02 8.227763697504997253e-03 -5.084843561053276062e-02 2.740410529077053070e-02 -2.434343285858631134e-02 1.498416624963283539e-02 -1.976447924971580505e-02 8.489280939102172852e-02 3.918015398085117340e-03 -2.956622652709484100e-02 2.459774538874626160e-02 2.106771431863307953e-02 -5.723560694605112076e-03 1.099444832652807236e-02 4.776647314429283142e-02 -1.784286834299564362e-02 -3.905784338712692261e-02 6.684542633593082428e-03 -9.480857290327548981e-03 2.000825852155685425e-02 -2.267450094223022461e-02 -2.957106567919254303e-02 7.899790257215499878e-02 4.526177048683166504e-02 -7.934411615133285522e-02 2.750699408352375031e-02 -3.748211264610290527e-02 -1.001726719550788403e-03 -4.969741217792034149e-03 3.294328972697257996e-02 -7.588179316371679306e-03 -3.403448313474655151e-02 -1.687596365809440613e-02 -1.945115812122821808e-02 -4.043690487742424011e-02 -4.631839320063591003e-02 -3.981541842222213745e-02 -5.475790426135063171e-02 1.709126494824886322e-02 3.815476596355438232e-02 2.780397981405258179e-02 9.207607246935367584e-03 1.066498551517724991e-02 -4.018442332744598389e-02 5.267155170440673828e-02 3.599748015403747559e-02 -3.867696505039930344e-04 7.139459252357482910e-03 2.110908366739749908e-02 2.456970140337944031e-02 -4.698538780212402344e-02 -3.233779966831207275e-02 -2.040089853107929230e-02 -9.428303688764572144e-03 2.557918056845664978e-02 -2.595774456858634949e-02 -3.308580256998538971e-03 -3.618588671088218689e-02 3.274721279740333557e-02 3.821410611271858215e-02 -1.099785137921571732e-02 1.573247951455414295e-03 -5.784538760781288147e-02 -6.600239430554211140e-04 1.945958286523818970e-02 -4.348886758089065552e-02 -1.459768135100603104e-02 1.306700892746448517e-02 -6.348905712366104126e-02 4.688273370265960693e-02 -5.273792520165443420e-02 -4.579367861151695251e-02 6.095977732911705971e-04 -5.665988475084304810e-02 -1.150900498032569885e-01 5.500606819987297058e-02 -3.161241114139556885e-02 -1.449215691536664963e-02 6.644979119300842285e-03 -1.005918718874454498e-02 -5.024413019418716431e-02 -1.551765203475952148e-02 -6.906188279390335083e-02 -7.994703017175197601e-03 -1.802723295986652374e-02 -1.280100084841251373e-02 1.172217819839715958e-02 2.809648402035236359e-02 6.282465904951095581e-02 1.028397213667631149e-02 6.687409710139036179e-03 -6.440125405788421631e-03 7.744885981082916260e-03 9.361373260617256165e-03 2.540475875139236450e-02 1.973343826830387115e-02 -9.191724471747875214e-03 3.063830174505710602e-02 9.794976562261581421e-03 -6.246572360396385193e-03 2.685056999325752258e-02 -8.518677204847335815e-03 2.120453864336013794e-02 9.698148816823959351e-03 -2.815997460857033730e-03 -2.345027588307857513e-02 3.097845800220966339e-02 9.070971980690956116e-03 4.962399229407310486e-02 -1.148409442976117134e-03 -3.145839646458625793e-02 1.107100024819374084e-02 -1.885703206062316895e-02 -2.681265585124492645e-03 3.936471417546272278e-03 -5.934988707304000854e-02 -1.486404146999120712e-02 7.271059323102235794e-03 6.676781922578811646e-02 -3.566824598237872124e-03 3.962098807096481323e-02 -2.957858843728899956e-03 1.512023154646158218e-02 2.716519869863986969e-02 -2.454580552875995636e-02 -6.210507825016975403e-02 4.164649918675422668e-02 8.046035509323701262e-05 8.939657127484679222e-04 4.530565068125724792e-02 4.155594855546951294e-02 5.828490946441888809e-03 -1.095346640795469284e-02 -1.581549644470214844e-02 1.427002903074026108e-02 -1.913688378408551216e-03 -3.369510173797607422e-02 3.300315886735916138e-02 3.207822516560554504e-02 1.991836354136466980e-02 2.557618543505668640e-02 -2.216166071593761444e-02 1.777577959001064301e-02 8.803305029869079590e-02 -3.103988245129585266e-02 1.607788540422916412e-02 -2.551340684294700623e-02 1.218021847307682037e-03 -7.832588627934455872e-03 5.615058168768882751e-02 1.032248325645923615e-02 7.131090853363275528e-03 -2.630075998604297638e-02 3.711785003542900085e-02 -3.947175666689872742e-02 -1.164148747920989990e-01 2.997918520122766495e-03 6.814830005168914795e-02 7.651913911104202271e-03 5.648797005414962769e-02 -6.141089648008346558e-02 2.017057500779628754e-03 5.355835333466529846e-02 -3.488693758845329285e-02 1.906955498270690441e-03 -2.465808764100074768e-02 2.351203002035617828e-02 -2.669117785990238190e-02 -1.887842081487178802e-02 2.960226032882928848e-03 1.429377961903810501e-02 2.520632371306419373e-02 4.652760690078139305e-04 -3.225466469302773476e-03 -7.271077483892440796e-02 -3.538467735052108765e-02 1.390270236879587173e-02 2.208200842142105103e-02 5.459840595722198486e-02 5.826760828495025635e-02 -3.332711383700370789e-02 2.088284818455576897e-03 5.100872740149497986e-02 -1.514852792024612427e-02 4.232706874608993530e-02 4.788639489561319351e-03 -2.866761013865470886e-02 -2.356196753680706024e-02 -1.198801584541797638e-02 -2.431670576333999634e-02 3.343350812792778015e-02 3.279079869389533997e-02 -1.172038819640874863e-02 1.005799397826194763e-01 4.472453892230987549e-02 -1.348483841866254807e-02 -6.104583293199539185e-02 -9.319757111370563507e-03 3.780349856242537498e-03 -5.072762258350849152e-03 -3.004131279885768890e-02 8.421131223440170288e-02 7.479504682123661041e-03 -7.581138610839843750e-02 1.325808279216289520e-02 -2.676917426288127899e-02 -2.250968664884567261e-02 3.868253435939550400e-03 3.992409631609916687e-02 5.660053715109825134e-02 3.888745978474617004e-02 -4.009931907057762146e-02 3.288411349058151245e-02 5.777332931756973267e-02 1.396153867244720459e-02 1.982442103326320648e-02 4.195877537131309509e-02 3.126206248998641968e-02 -9.268423542380332947e-03 2.639000490307807922e-02 -2.380960807204246521e-02 1.417631749063730240e-02 2.636105939745903015e-02 -1.863868162035942078e-02 2.870475582312792540e-04
-1.317950990051031113e-02 1.244843471795320511e-02 7.679102569818496704e-02 4.803047049790620804e-03 -6.066118367016315460e-03 8.539487607777118683e-03 -9.179831482470035553e-03 2.079798839986324310e-02 -2.057221427094191313e-04 1.538204960525035858e-02 -1.034826040267944336e-02 1.749313995242118835e-02 1.904849149286746979e-02 -1.574466191232204437e-02 6.736763752996921539e-03 -2.807369083166122437e-02 -4.281968995928764343e-02 -5.050392355769872665e-03 2.341204695403575897e-02 -1.998527161777019501e-02 3.275003656744956970e-02 1.332095358520746231e-02 -1.432972960174083710e-02 -6.852230057120323181e-03 1.114146900363266468e-03 5.161715298891067505e-02 -2.928663603961467743e-02 1.503908634185791016e-02 -2.246865630149841309e-02 1.237880997359752655e-02 -1.762155443429946899e-02 6.421341001987457275e-02 2.315502427518367767e-02 -1.144954562187194824e-02 -5.783091858029365540e-02 -6.179354968480765820e-04 -8.859427645802497864e-03 -3.031210042536258698e-02 1.422602590173482895e-02 -2.011974807828664780e-03 -5.175575613975524902e-03 1.498105702921748161e-03 3.002621978521347046e-02 -1.738987863063812256e-02 -3.369664773344993591e-02 -8.598200976848602295e-03 -2.331937849521636963e-02 -2.881104312837123871e-02 1.640582829713821411e-02 -4.032337665557861328e-02 -4.226015508174896240e-02 -1.240142993628978729e-02 -1.491174800321459770e-03 -1.886406680569052696e-03 1.888667419552803040e-02 1.270788721740245819e-02 -1.965933712199330330e-03 2.969900891184806824e-02 1.871528103947639465e-02 2.185870334506034851e-02 8.630728349089622498e-03 -1.717778481543064117e-02 3.137879539281129837e-03 -4.326320067048072815e-02 -2.197120897471904755e-02 2.446188963949680328e-02 -2.644363790750503540e-02 -3.967553749680519104e-02 -8.851411938667297363e-02 1.549129001796245575e-02 2.668820787221193314e-03 -3.411295637488365173e-02 3.151072934269905090e-02 -9.153706952929496765e-03 -1.547221839427947998e-02 2.169241942465305328e-02 1.256605051457881927e-02 -2.799605019390583038e-02 5.232745781540870667e-03 9.470640681684017181e-03 1.392165198922157288e-02 -2.404141984879970551e-02 6.815075129270553589e-02 -3.212905302643775940e-02 -2.820402383804321289e-03 1.010925415903329849e-02 -1.073919981718063354e-02 -1.816561818122863770e-02 -2.292829798534512520e-03 1.216679904609918594e-02 2.803092822432518005e-02 6.207892298698425293e-02 -3.301512333564460278e-04 -9.433237835764884949e-03 -2.104583755135536194e-02 -1.440108660608530045e-02 -3.952150046825408936e-02 4.180433228611946106e-02 8.957691490650177002e-03 3.278305986896157265e-03 2.389805205166339874e-02 5.194641649723052979e-03 1.928885653614997864e-02 -4.730255901813507080e-02 -1.059642527252435684e-02 -9.666806086897850037e-03 -6.677275989204645157e-03 3.957119211554527283e-02 -3.100019507110118866e-02 1.307436905335634947e-04 3.786974400281906128e-02 9.479892440140247345e-03 6.678524427115917206e-03 -4.340504482388496399e-02 3.661939501762390137e-02 3.548786789178848267e-02 9.294440038502216339e-03 4.470882937312126160e-02 3.149141091853380203e-03 -2.685414254665374756e-02 2.168224938213825226e-02 9.320854209363460541e-03 -6.506089703179895878e-04 -1.806038990616798401e-02 2.775136567652225494e-02 -6.941603962332010269e-03 -5.080047994852066040e-03 3.642943128943443298e-02 -2.814001170918345451e-03 -2.447145292535424232e-03 1.598769053816795349e-02 9.301111102104187012e-03 4.548480734229087830e-03 -2.602013386785984039e-02 -6.274269893765449524e-03 -1.653341017663478851e-02 -5.426375195384025574e-02 8.352172560989856720e-03 6.466784514486789703e-03 1.512640994042158127e-02 4.499262943863868713e-02 6.802961695939302444e-03 2.313512610271573067e-03 1.897368766367435455e-02 6.197881419211626053e-03 2.699740044772624969e-02 -7.695123786106705666e-04 -6.476144492626190186e-02 1.176461111754179001e-02 1.327253319323062897e-02 5.355800036340951920e-03 -4.228768125176429749e-02 -5.205887835472822189e-03 -1.869886554777622223e-02 -3.231791406869888306e-02 5.225015804171562195e-03 -1.339835929684340954e-03 2.195026958361268044e-03 3.827900218311697245e-04 1.352181937545537949e-02 -5.357067100703716278e-03 1.664162613451480865e-02 -1.613058336079120636e-02 4.420483484864234924e-02 5.769408121705055237e-02 2.089949883520603180e-02 1.651358976960182190e-02 -1.411025784909725189e-02 -1.990081742405891418e-02 -5.927065014839172363e-02 3.503384813666343689e-02 -3.463979344815015793e-03 -3.528192173689603806e-03 -2.351440675556659698e-02 5.101181566715240479e-03 2.691202238202095032e-02 3.731693699955940247e-02 1.358679123222827911e-02 3.237549960613250732e-02 2.432243339717388153e-02 1.885406440123915672e-03 1.793565228581428528e-02 -1.513207890093326569e-02 -1.657125353813171387e-02 -1.327960193157196045e-02 -6.568884477019309998e-03 -7.512396550737321377e-04 3.482076863292604685e-04 4.136153496801853180e-03 -5.770795047283172607e-03 -2.428471483290195465e-02 -3.515265509486198425e-02 1.178955566138029099e-02 1.868382468819618225e-02 5.489046871662139893e-02 -4.348821565508842468e-02 -1.827931264415383339e-03 3.351984545588493347e-03 3.943924233317375183e-02 4.194467142224311829e-02 -1.709878072142601013e-02 -2.221792005002498627e-02 5.816893186420202255e-03 2.349635958671569824e-02 -8.555689826607704163e-03 -1.767772994935512543e-02 -2.780665829777717590e-02 -3.454082831740379333e-02 -2.157134190201759338e-02 6.009462755173444748e-03 8.152918890118598938e-03 -1.297760847955942154e-02 4.923474788665771484e-02 -3.888098523020744324e-03 -2.893598750233650208e-02 -1.457785954698920250e-03 -2.168366871774196625e-02 1.180632133036851883e-02 1.803617365658283234e-02 -7.229985203593969345e-05 -1.425059884786605835e-02 -7.921482436358928680e-03 -2.480052411556243896e-03 -6.498386617749929428e-03 -6.625554524362087250e-03 4.747541097458451986e-04 -8.963258937001228333e-03 -2.018597535789012909e-02 3.696499019861221313e-02 -3.705156594514846802e-02 1.285805180668830872e-02 -3.937478642910718918e-03 3.780349716544151306e-02 2.294018492102622986e-02 -1.204091031104326248e-02 1.473444048315286636e-03 2.781095355749130249e-02 1.806750334799289703e-02 2.283319830894470215e-02 -8.230075985193252563e-02 -1.755753718316555023e-02 4.904867615550756454e-03 8.298938046209514141e-04 -3.580432152375578880e-03 4.681821912527084351e-02 1.065835938788950443e-03 -7.768491283059120178e-03 -1.530870562419295311e-03 1.807150803506374359e-02 2.042040228843688965e-02 5.002743098884820938e-03 2.958237193524837494e-03 -2.671770006418228149e-02 -1.445922441780567169e-02 -2.301684115082025528e-03 3.327847644686698914e-02
-1.109179458580911160e-03 3.198379650712013245e-02 -8.418808132410049438e-02 -1.510046143084764481e-02 2.559355925768613815e-03 -8.157327771186828613e-03 -1.143561974167823792e-01 -8.547378331422805786e-02 1.843300648033618927e-03 8.036156743764877319e-02 2.202277258038520813e-02 2.441533654928207397e-02 1.417697174474596977e-03 2.603133767843246460e-02 -3.310877829790115356e-02 -6.554385274648666382e-02 -2.417947910726070404e-02 1.361127197742462158e-02 2.471443824470043182e-02 8.251630701124668121e-03 6.272190809249877930e-02 8.876024745404720306e-03 -7.410448044538497925e-03 -2.083797566592693329e-02 -7.155881077051162720e-02 3.538048639893531799e-02 -8.577308617532253265e-03 4.987598862498998642e-03 -7.137687504291534424e-02 -1.191888097673654556e-02 -4.982018843293190002e-02 7.361795008182525635e-02 2.392209367826581001e-03 4.867224197369068861e-04 -2.278539538383483887e-02 2.725785598158836365e-02 -3.454392030835151672e-02 -1.713142730295658112e-02 -2.168609201908111572e-02 -2.659342065453529358e-02 -2.274405583739280701e-02 -6.006253883242607117e-03 1.699251122772693634e-02 -1.965442858636379242e-02 1.665584556758403778e-02 -6.422737985849380493e-02 -1.679106731899082661e-03 3.081824444234371185e-02 3.618847951292991638e-02 -2.167316852137446404e-03 3.544631227850914001e-02 -3.853666782379150391e-02 3.121868940070271492e-03 -2.634999528527259827e-02 -2.805651351809501648e-02 -9.885017760097980499e-03 9.699412621557712555e-03 -5.848030745983123779e-02 6.010875850915908813e-02 -7.738902233541011810e-03 -7.030856609344482422e-02 1.155340950936079025e-02 1.182992942631244659e-02 -3.984448313713073730e-02 -2.060886099934577942e-02 -1.829018257558345795e-02 -2.961696311831474304e-02 -1.936320215463638306e-02 6.028123199939727783e-02 3.129241988062858582e-02 8.533233776688575745e-03 4.562830924987792969e-02 2.712938934564590454e-02 1.451458781957626343e-02 -1.046645827591419220e-02 -7.378850714303553104e-04 3.582418709993362427e-02 -3.377525880932807922e-02 1.194939669221639633e-02 -1.130850538611412048e-01 -5.384219065308570862e-02 -3.717971593141555786e-02 1.349412929266691208e-02 -6.395162642002105713e-02 8.595126122236251831e-02 -1.819714345037937164e-02 5.421988666057586670e-02 5.849421024322509766e-03 -6.816866248846054077e-02 -4.797168821096420288e-02 -2.480353601276874542e-02 5.622777715325355530e-02 1.072990428656339645e-02 4.864018037915229797e-02 1.089489669539034367e-03 -4.377540946006774902e-02 3.264441713690757751e-02 -2.619607746601104736e-02 1.703068055212497711e-02 1.416244730353355408e-02 4.254814609885215759e-02 -2.363918116316199303e-03 -6.182217225432395935e-02 3.367072436958551407e-03 -9.877400472760200500e-03 4.283136222511529922e-03 -3.892593830823898315e-02 -1.525863725692033768e-02 -7.377101480960845947e-02 -9.274629503488540649e-02 -1.207987777888774872e-02 3.121248446404933929e-03 1.099237427115440369e-02 2.985961735248565674e-02 8.298505097627639771e-03 2.772152610123157501e-02 8.118390291929244995e-02 -1.930006593465805054e-02 -6.215660250745713711e-04 5.988769978284835815e-02 -6.833336502313613892e-02 -5.217386782169342041e-02 1.553782261908054352e-02 -3.469767048954963684e-02 -3.432891890406608582e-02 4.022987931966781616e-02 -2.269373647868633270e-02 -6.482601910829544067e-02 3.162736073136329651e-02 -6.067991629242897034e-02 -2.037535421550273895e-02 -1.689724437892436981e-02 1.022682059556245804e-02 1.171594019979238510e-02 -2.083081007003784180e-02 -6.379271298646926880e-02 -1.852416782639920712e-03 -6.792215257883071899e-02 4.396326467394828796e-02 -3.018557280302047729e-02 -1.512673683464527130e-02 1.178727112710475922e-02 4.833115264773368835e-02 -1.312644965946674347e-02 -3.747990354895591736e-02 -1.099674589931964874e-02 3.075854480266571045e-02 1.291003543883562088e-03 2.704296261072158813e-02 6.377406418323516846e-03 3.711180761456489563e-02 4.802202805876731873e-02 3.596928343176841736e-02 5.443989485502243042e-02 3.167685493826866150e-02 4.671202227473258972e-02 5.104093812406063080e-03 3.032334335148334503e-02 -1.613879948854446411e-02 4.180467873811721802e-02 -7.064124941825866699e-02 5.809643864631652832e-02 9.055179357528686523e-02 -5.862236768007278442e-02 2.764282934367656708e-02 2.594113349914550781e-02 -1.945151574909687042e-02 1.833245903253555298e-02 -2.849045023322105408e-02 2.736230148002505302e-03 -2.700943965464830399e-03 -1.979227736592292786e-02 1.081899553537368774e-02 8.738000877201557159e-03 -4.584913328289985657e-02 -3.705888614058494568e-02 3.327477723360061646e-02 8.138145320117473602e-03 -7.004428654909133911e-02 -3.254234325140714645e-03 5.510386079549789429e-02 2.938308939337730408e-02 9.102641604840755463e-03 2.569110877811908722e-02 1.029938925057649612e-03 -2.033444494009017944e-02 -1.216762419790029526e-02 -1.123522818088531494e-01 3.861599788069725037e-02 -8.011794998310506344e-04 -2.808098308742046356e-02 -8.154776878654956818e-03 -1.589252054691314697e-02 1.649767532944679260e-02 2.628958784043788910e-02 5.003093276172876358e-03 -6.622154265642166138e-02 7.195725291967391968e-02 -4.120709002017974854e-02 -5.303141847252845764e-02 6.514443084597587585e-03 2.888968400657176971e-02 7.012090831995010376e-02 3.289317712187767029e-02 1.027503386139869690e-01 -8.188542909920215607e-03 -3.572477493435144424e-03 -1.544800493866205215e-02 1.635134778916835785e-02 -4.972688481211662292e-02 5.259892344474792480e-02 3.891024366021156311e-02 1.280716992914676666e-02 2.510670386254787445e-02 2.973619103431701660e-02 -1.457043364644050598e-02 -6.862935423851013184e-02 6.471333093941211700e-03 -4.342070315033197403e-03 2.651878073811531067e-02 1.567445509135723114e-02 -2.074811607599258423e-02 1.317627169191837311e-02 9.105646982789039612e-03 9.623986668884754181e-03 5.408097058534622192e-04 1.261554099619388580e-02 2.917381003499031067e-02 2.274839393794536591e-02 -5.522109859157353640e-05 3.637798503041267395e-02 -2.595066651701927185e-02 -1.278216671198606491e-02 -1.691211014986038208e-02 6.268071010708808899e-03 7.090165466070175171e-02 -1.726568443700671196e-03 3.470836579799652100e-02 -8.246496319770812988e-02 -6.023922190070152283e-02 4.361859709024429321e-02 1.153131388127803802e-02 -5.587986856698989868e-02 -1.769191958010196686e-02 2.228833921253681183e-02 -2.232601679861545563e-02 -7.382550835609436035e-02 -3.092942200601100922e-02 -8.785949088633060455e-03 -4.189782775938510895e-03 1.318632252514362335e-02 1.260291971266269684e-02 1.009063702076673508e-02 4.599787294864654541e-02 -3.388010198250412941e-03 -6.468778103590011597e-02
-3.989111632108688354e-02 -1.847246102988719940e-02 -3.013884089887142181e-02 6.140451412647962570e-03 5.192082747817039490e-02 -8.285575360059738159e-02 5.466315895318984985e-03 1.033044420182704926e-02 -3.338142111897468567e-02 -9.198155254125595093e-03 4.565979540348052979e-02 -1.045895367860794067e-02 -3.746394440531730652e-02 -3.111000359058380127e-02 3.085875138640403748e-02 -8.337908238172531128e-02 -3.865284100174903870e-02 -4.736639931797981262e-02 -3.076700959354639053e-04 1.191049814224243164e-02 2.515745721757411957e-02 -4.128406196832656860e-02 -4.614812321960926056e-03 3.020907193422317505e-02 3.288518637418746948e-02 3.249303624033927917e-02 -4.315348714590072632e-02 -1.418270356953144073e-02 5.509313195943832397e-03 4.055342823266983032e-02 1.891388441435992718e-03 -7.291801273822784424e-02 2.842889633029699326e-03 1.834490150213241577e-02 1.605751604074612260e-04 6.279841531068086624e-03 2.371408231556415558e-02 8.241597563028335571e-03 -9.244137443602085114e-03 2.869687788188457489e-02 4.271252825856208801e-02 -9.725112468004226685e-02 1.772838644683361053e-02 -8.395426906645298004e-03 1.155833713710308075e-02 -6.254084408283233643e-02 -6.806000322103500366e-02 5.528534762561321259e-03 4.992605186998844147e-03 -1.645492203533649445e-02 5.778421182185411453e-03 -3.300485759973526001e-02 -9.104591794312000275e-03 -3.639207780361175537e-02 -3.714666515588760376e-02 5.104718729853630066e-02 -5.322704091668128967e-02 -8.881000801920890808e-03 -6.248393096029758453e-03 -4.166573751717805862e-03 8.005972020328044891e-03 2.909669652581214905e-02 7.685761898756027222e-03 -3.507228335365653038e-03 -2.434496954083442688e-02 5.457194149494171143e-02 1.956882886588573456e-02 -2.595230564475059509e-02 3.176755458116531372e-02 4.148093867115676403e-04 5.255905538797378540e-02 4.897584021091461182e-02 2.549204276874661446e-03 -5.885318387299776077e-03 -8.074888028204441071e-04 2.049666084349155426e-02 3.138230182230472565e-03 -3.584151715040206909e-02 -7.624670863151550293e-03 3.278174623847007751e-02 1.164830103516578674e-02 -2.686831913888454437e-02 -2.816190943121910095e-03 -4.849947523325681686e-03 -1.283193379640579224e-02 -8.867809548974037170e-03 -6.280559301376342773e-02 -2.578945085406303406e-02 -4.194387700408697128e-03 7.966444827616214752e-03 3.145191073417663574e-02 -3.874499723315238953e-02 -1.579811237752437592e-02 -1.086841523647308350e-02 2.257808856666088104e-02 -2.723447105381637812e-04 5.196124315261840820e-02 4.082872718572616577e-02 2.922602929174900055e-02 2.276127692312002182e-03 2.899011783301830292e-02 1.479841209948062897e-02 7.877300679683685303e-02 -8.171397261321544647e-03 -5.098473280668258667e-02 -3.207360580563545227e-02 -6.226858124136924744e-03 9.268484078347682953e-03 8.842348307371139526e-02 6.148192659020423889e-02 -4.514293000102043152e-02 -1.093414984643459320e-02 -2.610446140170097351e-02 -1.341764349490404129e-02 1.318185403943061829e-02 7.531030103564262390e-03 4.535615444183349609e-03 4.605884477496147156e-02 -2.384289726614952087e-02 -1.712771318852901459e-02 -2.272915467619895935e-02 3.043708950281143188e-02 -1.802478171885013580e-02 3.576379967853426933e-03 5.136458575725555420e-02 2.583448588848114014e-02 1.102943159639835358e-02 -3.851221874356269836e-02 -8.763062208890914917e-02 4.296690970659255981e-02 1.938675157725811005e-02 1.265991758555173874e-02 2.932604588568210602e-02 1.382495742291212082e-02 -4.849513992667198181e-03 8.435349911451339722e-03 -1.097860373556613922e-02 -5.110253766179084778e-02 8.565330877900123596e-03 1.707293093204498291e-02 9.872109629213809967e-03 -2.701858244836330414e-02 -8.106054738163948059e-03 2.480107918381690979e-02 5.325818061828613281e-02 -2.036987058818340302e-02 9.057357907295227051e-03 3.223879262804985046e-02 4.016374237835407257e-03 4.255672916769981384e-03 -2.209999226033687592e-02 1.238250546157360077e-02 -1.828949898481369019e-02 6.531474064104259014e-04 1.126438472419977188e-02 4.741746932268142700e-02 5.934347864240407944e-03 5.255369469523429871e-03 -1.614340394735336304e-02 2.928711287677288055e-02 2.277400717139244080e-02 5.758998543024063110e-02 1.179319340735673904e-02 4.416608810424804688e-02 -1.428933464922010899e-03 -2.262152731418609619e-02 2.740060351788997650e-02 -3.943578526377677917e-02 2.534730732440948486e-02 -1.547215133905410767e-02 -3.857050091028213501e-02 -2.140985243022441864e-02 2.853517979383468628e-02 5.859329830855131149e-03 -3.999477252364158630e-02 -4.402178525924682617e-02 4.692641086876392365e-04 4.955641552805900574e-02 -5.180436745285987854e-02 -3.888177871704101562e-02 1.891984790563583374e-02 3.890660777688026428e-02 1.815861091017723083e-02 -3.976244851946830750e-02 -1.569299399852752686e-02 5.639532208442687988e-02 -1.361168362200260162e-02 -1.993052847683429718e-02 4.219910874962806702e-02 -3.114107996225357056e-02 2.603028714656829834e-02 -1.331847277469933033e-03 1.666662842035293579e-02 -3.810160979628562927e-02 2.913428843021392822e-02 -5.387047305703163147e-03 5.816241260617971420e-03 -6.341664586216211319e-03 3.330548107624053955e-02 -2.286230213940143585e-03 -1.864738063886761665e-03 -3.373599797487258911e-02 3.331157565116882324e-02 -7.395609747618436813e-03 -3.185563534498214722e-02 3.156333416700363159e-02 1.988523639738559723e-02 -1.544313132762908936e-02 -4.432173073291778564e-02 -1.324792683590203524e-04 -1.614303141832351685e-02 -1.550850085914134979e-02 -4.434893839061260223e-03 -2.060517296195030212e-02 -2.416382730007171631e-02 -1.344624906778335571e-02 -3.771695494651794434e-02 8.931485004723072052e-03 3.228647634387016296e-02 4.119204357266426086e-02 5.461462773382663727e-03 3.456874983385205269e-04 -2.488859742879867554e-02 -2.626303024590015411e-02 -1.840660534799098969e-02 4.641018342226743698e-03 2.933890186250209808e-02 1.873626187443733215e-02 -6.453971378505229950e-03 4.684804379940032959e-02 -1.187274046242237091e-02 2.558516152203083038e-02 -2.374637406319379807e-03 -1.037980429828166962e-02 -4.169699549674987793e-02 2.392107807099819183e-02 -6.450741738080978394e-02 3.350374102592468262e-02 5.674808844923973083e-02 3.778810426592826843e-02 1.452701631933450699e-02 -3.276748210191726685e-02 3.222297877073287964e-02 1.105674076825380325e-02 -2.425882779061794281e-02 -2.505595982074737549e-02 1.396903535351157188e-03 -1.919664628803730011e-02 3.701996058225631714e-02 9.959003888070583344e-03 -2.186386287212371826e-02 1.864531077444553375e-02 1.792912743985652924e-02 -8.545301854610443115e-03 4.654149711132049561e-02 -5.256610736250877380e-02
-1.066812127828598022e-02 -3.895906358957290649e-02 2.761646173894405365e-02 -5.795432254672050476e-02 -4.128767549991607666e-02 -3.618537634611129761e-02 2.886989712715148926e-02 -1.135344207286834717e-01 -2.817684784531593323e-02 -8.655844256281852722e-03 2.200414240360260010e-02 -3.029431402683258057e-02 6.767232716083526611e-02 -5.944894999265670776e-02 -4.695866629481315613e-02 6.102368934080004692e-05 -4.649953171610832214e-02 3.060106560587882996e-02 8.191622793674468994e-02 2.383440919220447540e-02 -6.575754284858703613e-02 -2.712025493383407593e-02 1.681041903793811798e-02 -3.814947605133056641e-02 -1.809143275022506714e-02 -4.349137842655181885e-02 3.719335794448852539e-02 -5.144716054201126099e-02 -1.875076442956924438e-02 -8.397221565246582031e-03 -2.023974433541297913e-02 -3.122894465923309326e-02 -2.138269832357764244e-03 -1.097678840160369873e-01 2.709575369954109192e-02 2.415402419865131378e-02 -1.832761801779270172e-02 1.909169740974903107e-02 -8.453172631561756134e-03 -3.528376575559377670e-03 1.968737505376338959e-02 -1.238249335438013077e-02 -5.705606658011674881e-03 -2.271507121622562408e-02 9.053190238773822784e-03 -4.253556579351425171e-02 -1.094177085906267166e-02 -3.925150632858276367e-02 -7.604973018169403076e-02 -3.817962110042572021e-02 -3.257149457931518555e-02 4.705677181482315063e-02 -3.125524520874023438e-02 -5.157483741641044617e-02 2.467352338135242462e-02 -4.628935456275939941e-02 -6.039869412779808044e-02 1.505891792476177216e-02 1.617658697068691254e-02 -1.906564645469188690e-02 -1.136706676334142685e-03 -1.956018805503845215e-02 6.527914665639400482e-03 -2.698754519224166870e-02 -3.343439474701881409e-02 -2.471207408234477043e-03 -1.471783034503459930e-02 -2.106571756303310394e-02 4.000280052423477173e-03 9.178291074931621552e-03 -1.710473210550844669e-03 7.832440896891057491e-04 2.804269641637802124e-02 -2.505153603851795197e-02 6.469487398862838745e-02 -3.150973841547966003e-02 1.933682593517005444e-03 -3.009022027254104614e-02 1.900293119251728058e-02 2.229383960366249084e-02 2.882556244730949402e-02 -3.485880792140960693e-02 -4.613228514790534973e-02 -2.414980530738830566e-02 7.238007336854934692e-02 -3.399211168289184570e-02 -2.562518417835235596e-02 -9.615845629014074802e-04 -3.783006966114044189e-02 1.709591969847679138e-02 1.482811719179153442e-01 3.431671485304832458e-02 1.337794354185461998e-03 3.569064289331436157e-02 1.311396807432174683e-02 7.015045266598463058e-03 4.076620936393737793e-02 4.769222810864448547e-02 3.423482179641723633e-02 -4.351532086730003357e-02 -5.253461375832557678e-02 -2.864524722099304199e-02 -3.409273549914360046e-02 -2.603942528367042542e-02 -1.835804618895053864e-02 -3.629477322101593018e-02 -1.738924160599708557e-02 -2.141253650188446045e-02 4.867873713374137878e-02 4.334410652518272400e-02 1.734545454382896423e-02 8.841616101562976837e-03 6.294105667620897293e-03 1.787572051398456097e-03 -2.953374758362770081e-02 -2.111523598432540894e-02 -1.217197477817535400e-01 -6.307683140039443970e-02 9.156742133200168610e-03 4.514152184128761292e-02 3.189789876341819763e-02 3.421606495976448059e-02 -3.470910340547561646e-02 -7.188166677951812744e-02 -1.016706787049770355e-02 -1.406541187316179276e-02 -6.147158145904541016e-02 1.969789341092109680e-02 1.142275333404541016e-02 -3.139989823102951050e-02 1.354717928916215897e-02 -1.501091290265321732e-02 4.510259255766868591e-02 -1.081347651779651642e-02 1.466422993689775467e-02 2.121413126587867737e-02 -3.685044497251510620e-02 -2.583715133368968964e-02 8.001836389303207397e-02 -3.067317605018615723e-02 -3.373593324795365334e-03 -6.051316112279891968e-02 2.513941749930381775e-02 2.240171097218990326e-02 -3.141509741544723511e-02 2.723292261362075806e-02 3.251279518008232117e-02 5.852604657411575317e-02 8.613780140876770020e-03 1.981223374605178833e-02 -3.207925707101821899e-02 5.764522030949592590e-02 -7.503206282854080200e-02 -4.008037969470024109e-02 2.608441002666950226e-02 -2.954040421172976494e-03 5.792431067675352097e-03 2.106427401304244995e-02 -7.864874601364135742e-02 -3.870326280593872070e-02 -1.410495936870574951e-01 5.166902765631675720e-02 -6.600886583328247070e-02 -3.201314806938171387e-02 3.768686950206756592e-02 -4.523561894893646240e-02 2.271296456456184387e-02 -3.967693448066711426e-02 6.643034517765045166e-03 4.571490362286567688e-02 3.115913271903991699e-02 1.058133784681558609e-02 5.294481664896011353e-02 -7.942724227905273438e-02 -2.051558531820774078e-02 -6.690340489149093628e-02 -5.002513527870178223e-02 7.821932435035705566e-03 6.628330331295728683e-03 1.907106488943099976e-02 -2.449293155223131180e-03 -3.060647659003734589e-02 4.502253606915473938e-02 -6.664382759481668472e-03 -2.642671950161457062e-02 2.787662670016288757e-04 -4.749120026826858521e-02 5.205827299505472183e-03 -6.199796218425035477e-03 -1.214258838444948196e-02 -9.031583368778228760e-02 1.931836083531379700e-02 -7.661703042685985565e-03 -3.794602677226066589e-02 9.306126274168491364e-03 9.429925121366977692e-03 -4.100122302770614624e-02 3.414890542626380920e-02 2.954412996768951416e-02 -6.952878087759017944e-02 -4.533664323389530182e-03 1.570760086178779602e-02 2.171044424176216125e-02 -1.341827679425477982e-02 3.274242160841822624e-03 -1.098457910120487213e-02 5.932420026510953903e-03 5.343354493379592896e-02 -1.856607384979724884e-02 7.328542880713939667e-03 -6.882081180810928345e-02 -6.639420241117477417e-02 1.589964702725410461e-02 1.316114608198404312e-02 -2.024897141382098198e-03 -6.232980173081159592e-03 -2.969050034880638123e-02 1.585816062288358808e-04 -2.197102457284927368e-02 2.264625020325183868e-02 3.865327313542366028e-02 4.361622035503387451e-02 3.150502219796180725e-02 6.691305316053330898e-04 8.719461038708686829e-03 1.227561756968498230e-02 2.559797093272209167e-02 -1.943769678473472595e-02 -1.207510009407997131e-02 6.400312297046184540e-03 1.200043503195047379e-02 1.196830160915851593e-02 7.221391052007675171e-02 -2.145028905943036079e-03 -3.320860117673873901e-02 -2.391198184341192245e-03 -1.246232260018587112e-02 -2.012802660465240479e-02 -6.959168612957000732e-02 2.570961788296699524e-02 1.492284610867500305e-02 -2.108762273564934731e-03 1.622168463654816151e-03 1.184287853538990021e-02 -3.382389247417449951e-02 -9.847979247570037842e-02 2.668669074773788452e-02 1.267808675765991211e-01 -3.083664178848266602e-02 -2.478890120983123779e-02 -6.514923274517059326e-02 -1.232913695275783539e-02 2.258651331067085266e-02 9.775222837924957275e-02 5.594228208065032959e-02 -1.956510543823242188e-02
-9.282044321298599243e-02 -4.066891595721244812e-02 1.608710549771785736e-02 2.032100036740303040e-02 2.789428643882274628e-02 -7.702672388404607773e-03 1.352877356112003326e-02 2.493427507579326630e-02 -1.757384650409221649e-02 4.831589385867118835e-02 -3.881315886974334717e-02 1.140883541665971279e-03 5.475637968629598618e-03 6.408368702977895737e-03 -3.837214782834053040e-02 -4.613566026091575623e-02 -1.978380233049392700e-02 -3.565739840269088745e-02 -1.486364658921957016e-02 -2.044735476374626160e-02 -1.665831916034221649e-02 -3.571389243006706238e-02 -7.380630075931549072e-02 -1.694704033434391022e-02 -1.145245879888534546e-02 -2.366990596055984497e-02 -7.676241546869277954e-02 -2.479767985641956329e-02 -3.573902649804949760e-03 -2.225824445486068726e-02 1.715161092579364777e-02 -5.514597147703170776e-02 -3.851432586088776588e-03 1.172089390456676483e-02 5.338370334357023239e-03 -3.254543244838714600e-02 -1.754391007125377655e-02 7.187143713235855103e-02 -1.011709962040185928e-02 6.109648384153842926e-03 2.665062807500362396e-02 -3.028875775635242462e-02 1.297152135521173477e-02 -6.191216036677360535e-02 -5.249830894172191620e-03 -5.656716227531433105e-02 -1.223077997565269470e-02 -6.749930232763290405e-02 5.485152453184127808e-02 2.758315019309520721e-02 -3.016679733991622925e-02 -1.075560878962278366e-02 -4.225390404462814331e-02 4.681671783328056335e-02 -4.009061306715011597e-02 9.226048365235328674e-03 -6.942069530487060547e-02 -4.065962508320808411e-03 6.479439884424209595e-02 6.684021558612585068e-03 2.495950460433959961e-02 -4.757238551974296570e-02 -2.437923848628997803e-02 -8.100244402885437012e-02 1.003610249608755112e-02 8.156396448612213135e-03 1.065324409864842892e-03 -1.911263540387153625e-02 -4.904816299676895142e-02 9.497984312474727631e-03 1.639214158058166504e-02 9.426380693912506104e-02 2.642335183918476105e-02 -1.238438673317432404e-02 6.634652614593505859e-02 -1.526995282620191574e-02 -5.092453584074974060e-02 -4.244042094796895981e-03 -3.557991608977317810e-02 4.164336249232292175e-02 -3.108753263950347900e-02 1.319097075611352921e-02 -5.383049324154853821e-02 -6.036984547972679138e-02 9.678156115114688873e-03 6.076093763113021851e-02 -1.835508272051811218e-02 -6.336479447782039642e-03 -2.859803102910518646e-02 -3.047583997249603271e-02 3.873414173722267151e-02 -2.462196536362171173e-02 3.656022623181343079e-02 -9.081898257136344910e-03 -1.316178124397993088e-02 2.577355131506919861e-02 1.637860760092735291e-02 -8.571872487664222717e-03 1.029893755912780762e-01 -2.318198420107364655e-02 -8.893085271120071411e-02 1.452889572829008102e-02 -2.965905703604221344e-02 3.717375919222831726e-02 -2.203232049942016602e-02 -1.636907644569873810e-02 3.985463641583919525e-03 -8.165286481380462646e-02 -1.896376535296440125e-02 2.915761806070804596e-02 -4.149272292852401733e-02 -3.246504813432693481e-02 1.941275224089622498e-02 -1.506721251644194126e-03 3.616109862923622131e-02 7.048817817121744156e-03 3.466825932264328003e-02 -4.064798727631568909e-02 1.919507794082164764e-02 -3.225963935256004333e-02 3.175001591444015503e-02 7.895437069237232208e-03 -3.742499742656946182e-03 3.811842203140258789e-02 -3.937942441552877426e-03 -5.541275069117546082e-02 -2.370212227106094360e-02 1.120557077229022980e-02 -1.185967307537794113e-02 5.704422295093536377e-02 4.585655033588409424e-02 1.567122526466846466e-02 1.110676396638154984e-02 2.169576846063137054e-02 6.320116575807332993e-03 5.887022614479064941e-02 2.346989884972572327e-02 2.868235856294631958e-02 -8.937155455350875854e-02 3.115124255418777466e-02 -7.642533630132675171e-03 -3.886618837714195251e-02 2.721787430346012115e-02 -1.305192336440086365e-02 -1.515017636120319366e-02 2.363165281713008881e-02 5.995935574173927307e-02 -4.660119861364364624e-02 -1.927597448229789734e-02 8.605762384831905365e-03 -5.581778008490800858e-03 -2.649782225489616394e-02 -2.793957479298114777e-02 -5.643276125192642212e-02 -1.105279661715030670e-02 -4.909965023398399353e-02 1.732203736901283264e-02 -4.535172483883798122e-04 -4.677965119481086731e-02 1.170246629044413567e-03 -8.417301811277866364e-03 5.930752493441104889e-03 5.270054936408996582e-02 8.638060651719570160e-03 3.296869248151779175e-02 4.905109852552413940e-02 7.235743850469589233e-02 -3.500748053193092346e-02 -2.659462392330169678e-03 -1.732021011412143707e-02 -2.011292055249214172e-02 -1.822645217180252075e-02 -2.483729831874370575e-02 2.937485463917255402e-03 -1.451641134917736053e-02 3.872774541378021240e-02 -1.875041238963603973e-02 -2.548740617930889130e-02 -2.258827909827232361e-02 1.980194076895713806e-02 -2.997362799942493439e-02 -1.808713935315608978e-02 -2.681943401694297791e-02 1.536181475967168808e-02 -4.423137009143829346e-02 1.762925274670124054e-02 -1.562901213765144348e-02 4.399881511926651001e-02 -2.117064595222473145e-02 1.727638207376003265e-02 3.132893517613410950e-02 -7.862874120473861694e-02 3.005970828235149384e-02 -6.502795964479446411e-02 2.221674076281487942e-04 3.567527607083320618e-02 4.101473838090896606e-03 1.727932319045066833e-02 -6.009668484330177307e-02 4.474141169339418411e-03 -1.433622930198907852e-02 -4.415235668420791626e-02 -1.507507544010877609e-02 -3.950211778283119202e-02 2.387782000005245209e-02 -2.652382105588912964e-02 -4.703507572412490845e-02 4.971560463309288025e-02 -5.615005642175674438e-02 6.309379637241363525e-02 -7.437937706708908081e-02 1.316833402961492538e-02 -1.933399960398674011e-02 -1.232325006276369095e-02 2.451289445161819458e-02 3.975828737020492554e-02 1.054966077208518982e-02 -3.513256460428237915e-02 -1.005959510803222656e-02 -2.886294201016426086e-02 -4.136512055993080139e-03 -7.875780574977397919e-03 4.878494143486022949e-02 -3.947733342647552490e-02 -7.271652575582265854e-04 -1.786075904965400696e-02 2.186226658523082733e-03 4.546246677637100220e-02 -3.930836543440818787e-02 7.386645674705505371e-02 9.487937786616384983e-04 -1.472809910774230957e-02 1.339451409876346588e-02 -6.730138510465621948e-02 -6.976739969104528427e-03 4.872142150998115540e-02 3.526567667722702026e-02 -1.963283121585845947e-02 -3.166158497333526611e-02 4.260934516787528992e-02 1.626670733094215393e-02 2.123900502920150757e-02 1.676645502448081970e-02 6.984794139862060547e-02 2.567531773820519447e-04 -5.392423644661903381e-02 1.555181574076414108e-03 3.767709014937281609e-03 5.270999972708523273e-04 -4.558004438877105713e-03 -4.462284035980701447e-03 -2.996968105435371399e-03 -1.787506230175495148e-02 -2.824742533266544342e-02 6.221316289156675339e-03 -1.807200536131858826e-02
9.744125604629516602e-02 1.193429157137870789e-02 9.119169414043426514e-02 5.365269607864320278e-04 -4.364335536956787109e-02 1.866155490279197693e-02 -7.133666425943374634e-02 -1.593358442187309265e-02 -2.815737389028072357e-03 -3.119211457669734955e-02 -3.937013389077037573e-04 7.084882259368896484e-02 6.891186814755201340e-03 -2.050878852605819702e-02 -5.502394633367657661e-04 -4.383065924048423767e-02 -1.596404612064361572e-02 7.137059234082698822e-03 1.752133667469024658e-02 1.600339775905013084e-03 -9.282436221837997437e-03 -3.896675258874893188e-02 3.835721313953399658e-02 -8.226904086768627167e-03 -3.429709374904632568e-02 -1.514306175522506237e-03 1.624654792249202728e-02 -2.648285403847694397e-02 6.253900378942489624e-02 5.500511266291141510e-03 8.580037392675876617e-03 1.571271941065788269e-02 1.107540680095553398e-03 1.631695032119750977e-02 2.977322228252887726e-02 4.430292919278144836e-02 2.259911410510540009e-02 3.204106539487838745e-02 2.531254896894097328e-03 5.174002423882484436e-02 -6.046015769243240356e-03 1.192044559866189957e-02 -6.625303998589515686e-03 4.171283170580863953e-02 2.176361531019210815e-02 3.808723390102386475e-02 1.279966253787279129e-02 -4.911816865205764771e-02 1.390942465513944626e-02 3.464139625430107117e-02 7.411792874336242676e-03 2.261400595307350159e-02 1.395162846893072128e-02 2.343790046870708466e-02 -1.131622865796089172e-02 -2.625159360468387604e-02 1.093475427478551865e-02 -4.937676340341567993e-02 2.856168150901794434e-02 -9.437807835638523102e-03 1.687055267393589020e-02 1.149966865777969360e-01 5.175952799618244171e-03 8.087664609774947166e-04 -1.471080072224140167e-02 -1.005363911390304565e-01 -2.720210514962673187e-02 -7.752738893032073975e-02 1.726104132831096649e-02 -2.027118206024169922e-02 7.770740985870361328e-02 3.743261098861694336e-02 -7.780722808092832565e-03 1.394771505147218704e-02 -1.475654542446136475e-02 2.331702038645744324e-02 1.763425394892692566e-02 3.910399973392486572e-02 -1.257107220590114594e-02 -3.167881444096565247e-02 7.812648080289363861e-03 -1.267346087843179703e-02 2.793785557150840759e-02 -2.724111638963222504e-02 3.085152991116046906e-02 -4.362368956208229065e-02 2.288831397891044617e-02 -4.430463165044784546e-02 3.248779848217964172e-02 -5.506279319524765015e-02 -2.417392842471599579e-02 5.044437572360038757e-02 2.785191312432289124e-02 2.297619939781725407e-04 -1.690492592751979828e-02 -1.734882034361362457e-02 3.496627137064933777e-02 3.457940742373466492e-02 1.823556050658226013e-02 -3.317369520664215088e-02 4.386964440345764160e-02 -1.487984438426792622e-03 8.946712128818035126e-03 1.951481215655803680e-02 5.882221087813377380e-02 4.982037935405969620e-03 9.385025128722190857e-03 -4.934797529131174088e-03 1.110596465878188610e-03 3.232512623071670532e-02 1.402387209236621857e-02 2.079748921096324921e-02 -3.939666599035263062e-02 -5.470458790659904480e-02 -2.285468764603137970e-02 -3.665827959775924683e-02 -3.396207094192504883e-02 -5.564475059509277344e-02 2.430622652173042297e-02 -2.381242625415325165e-02 -5.155136808753013611e-02 -2.097514458000659943e-03 5.776327848434448242e-02 -3.685510903596878052e-02 6.951163522899150848e-03 4.112162068486213684e-02 8.069677650928497314e-02 1.765350811183452606e-02 1.409527845680713654e-02 -1.139830611646175385e-02 -8.787049911916255951e-03 2.038694173097610474e-02 -6.450463086366653442e-03 2.541661635041236877e-02 1.911452598869800568e-02 5.084552988409996033e-02 -4.102076962590217590e-02 -4.023630172014236450e-03 -2.523673139512538910e-02 -5.727311596274375916e-03 -5.078716576099395752e-02 -5.045486986637115479e-02 3.991082310676574707e-03 1.286848187446594238e-01 -2.639278071001172066e-03 1.492482703179121017e-02 -2.541129663586616516e-02 3.539419546723365784e-02 6.751117855310440063e-02 -1.403006538748741150e-02 9.812838397920131683e-03 -9.570483118295669556e-03 3.357239440083503723e-02 -2.500670403242111206e-02 1.132660638540983200e-02 -1.432067528367042542e-02 -1.432607881724834442e-02 1.835074741393327713e-03 -3.181953355669975281e-02 -9.957522153854370117e-03 4.252624884247779846e-02 -1.149933412671089172e-02 -2.364487387239933014e-02 3.115145117044448853e-02 -1.226613298058509827e-02 1.846924237906932831e-02 3.414802253246307373e-02 -3.637772053480148315e-02 2.252607047557830811e-02 3.569107502698898315e-02 4.864742048084735870e-03 3.876857459545135498e-02 2.562059275805950165e-02 -4.692086949944496155e-03 6.062164902687072754e-03 1.834365166723728180e-02 -6.965288892388343811e-03 -2.506737969815731049e-02 -3.638745471835136414e-02 4.188705235719680786e-02 -2.031803689897060394e-02 7.750927656888961792e-02 -1.991088874638080597e-02 -2.471425337716937065e-03 -3.563185408711433411e-02 -2.074708975851535797e-02 -6.026217713952064514e-02 -7.314625382423400879e-02 5.503402650356292725e-02 -8.550669997930526733e-03 2.019881270825862885e-02 -4.316754639148712158e-02 2.108151093125343323e-02 -2.213218435645103455e-02 2.175316587090492249e-02 3.228957951068878174e-02 -1.656409539282321930e-02 -2.794197527691721916e-03 -2.093625627458095551e-02 1.279231905937194824e-02 -2.379577374085783958e-03 -1.474882755428552628e-02 7.035907823592424393e-03 -2.271278575062751770e-02 -6.539956666529178619e-03 -6.030779704451560974e-02 2.498943358659744263e-02 -1.911568269133567810e-02 2.771114930510520935e-02 1.234182249754667282e-02 -5.932091269642114639e-03 -4.709362611174583435e-02 2.582691144198179245e-03 3.466949239373207092e-02 2.958561480045318604e-02 3.743781521916389465e-02 2.890174090862274170e-02 -2.971035894006490707e-03 -1.681736670434474945e-02 8.783892728388309479e-03 -6.194879487156867981e-02 6.825023889541625977e-02 -2.187630906701087952e-02 -3.249476104974746704e-02 4.377459175884723663e-03 -1.571998372673988342e-02 2.935736440122127533e-03 -3.999932855367660522e-02 4.017663002014160156e-02 -1.877663284540176392e-02 -9.793089702725410461e-04 7.441581692546606064e-04 2.031767368316650391e-02 -3.931738436222076416e-02 -4.790173098444938660e-02 1.846935972571372986e-02 -2.775441622361540794e-03 -4.813224077224731445e-02 -5.769683420658111572e-02 1.676364615559577942e-02 7.198581099510192871e-02 1.835807040333747864e-02 2.067711949348449707e-02 -3.311762958765029907e-02 2.859010733664035797e-02 -6.366223096847534180e-02 2.586739882826805115e-02 2.002570778131484985e-02 -2.587028034031391144e-02 4.846178740262985229e-02 1.609572023153305054e-02 1.386934332549571991e-02 -1.991676911711692810e-02 -1.486429758369922638e-02 -1.248926948755979538e-02 -2.681497856974601746e-02
-4.336154460906982422e-02 -4.446380957961082458e-02 -1.169689092785120010e-02 2.405346184968948364e-02 1.807747036218643188e-02 -2.527241595089435577e-02 6.570848822593688965e-02 1.114557310938835144e-02 -5.560706928372383118e-02 -3.932156786322593689e-02 4.709765315055847168e-02 -1.698631234467029572e-02 3.567086905241012573e-02 6.619097292423248291e-02 7.060154527425765991e-02 5.403033923357725143e-03 4.163324832916259766e-02 2.147228084504604340e-02 2.376641333103179932e-02 -7.983715087175369263e-02 4.719165340065956116e-02 -1.249308791011571884e-02 -2.661450393497943878e-02 7.112990319728851318e-02 -3.427974134683609009e-02 5.226553417742252350e-03 3.525187820196151733e-02 2.509049139916896820e-03 -4.312199354171752930e-02 2.727373503148555756e-02 -3.785458579659461975e-02 -9.592115879058837891e-02 8.546984195709228516e-02 1.895735040307044983e-02 3.234517574310302734e-02 -7.219782099127769470e-03 -3.243969753384590149e-03 3.901983425021171570e-02 -5.056021735072135925e-02 -5.122802034020423889e-02 -2.127649635076522827e-02 2.573996782302856445e-02 -2.779549686238169670e-03 -1.188749331049621105e-03 -3.689772635698318481e-02 6.341541558504104614e-02 -7.044502533972263336e-03 -2.001896314322948456e-02 4.793104901909828186e-02 4.599493369460105896e-02 -2.065651491284370422e-02 1.711601577699184418e-02 9.155923873186111450e-02 9.280516766011714935e-03 6.019798666238784790e-02 5.117464344948530197e-03 -8.002519607543945312e-03 -2.428908459842205048e-02 3.173542907461524010e-03 -9.666477888822555542e-02 1.057145297527313232e-01 3.050227835774421692e-02 6.547852605581283569e-02 -5.946615710854530334e-03 9.580124914646148682e-02 2.666588872671127319e-02 8.499375544488430023e-03 -4.174355417490005493e-02 -1.309194043278694153e-02 1.687913946807384491e-02 6.415732786990702152e-04 -4.131953697651624680e-03 9.735786169767379761e-02 2.931320108473300934e-02 3.727563098073005676e-02 -3.626870736479759216e-02 4.529669880867004395e-02 1.476664002984762192e-02 1.333625055849552155e-02 2.666715718805789948e-02 -1.930651441216468811e-02 5.001062527298927307e-03 7.703077048063278198e-02 -9.354349225759506226e-02 -5.516952951438724995e-04 4.156009759753942490e-03 1.367551553994417191e-02 -2.287517115473747253e-02 -1.027885973453521729e-01 -7.037775218486785889e-02 3.445262089371681213e-02 2.180816233158111572e-02 -1.990057714283466339e-02 3.510916838422417641e-03 3.918955847620964050e-02 -7.060396671295166016e-02 -7.053505629301071167e-02 1.416587829589843750e-02 -1.907413639128208160e-02 2.676805108785629272e-02 -6.368883699178695679e-02 2.327940426766872406e-02 1.741707138717174530e-02 -5.554423481225967407e-02 1.188530866056680679e-02 -4.015903919935226440e-02 1.013401616364717484e-02 -8.893260965123772621e-04 -1.210158225148916245e-02 -1.409598253667354584e-02 -3.625880181789398193e-02 -1.945456489920616150e-02 5.949887260794639587e-02 -1.117941271513700485e-02 -9.071104973554611206e-02 8.917029201984405518e-02 8.913822472095489502e-03 3.411323577165603638e-02 -6.749869789928197861e-03 -2.747705765068531036e-02 6.676875054836273193e-02 -3.896372625604271889e-03 -4.875109344720840454e-02 6.194082275032997131e-02 -9.003801643848419189e-02 3.520118817687034607e-02 3.113029524683952332e-02 8.504679799079895020e-02 4.397353529930114746e-02 6.079160049557685852e-02 1.417672354727983475e-02 -2.219777181744575500e-02 8.638025075197219849e-02 4.251041635870933533e-02 2.427052520215511322e-02 -3.735764184966683388e-03 8.118112385272979736e-02 7.072672992944717407e-02 4.155969992280006409e-02 -6.928711384534835815e-02 5.249303951859474182e-02 4.284577816724777222e-02 4.470622539520263672e-02 2.420648559927940369e-02 -4.633791372179985046e-02 3.374682366847991943e-02 -4.164392128586769104e-02 1.654925756156444550e-02 3.527931869029998779e-02 -3.056235797703266144e-02 1.221560761332511902e-01 4.266511648893356323e-02 5.145460739731788635e-02 1.385409291833639145e-02 4.596719983965158463e-03 4.433531779795885086e-03 -7.428216049447655678e-04 6.954216957092285156e-02 -3.469287976622581482e-02 1.007972564548254013e-02 3.802561014890670776e-02 -3.922602534294128418e-02 -1.993854716420173645e-02 4.703804384917020798e-03 -2.066431567072868347e-02 -5.993761122226715088e-02 4.562015086412429810e-02 -4.485973715782165527e-02 -5.451684817671775818e-02 2.628785371780395508e-02 -5.349740013480186462e-02 -8.662079274654388428e-02 -3.988359123468399048e-02 -4.027304798364639282e-02 -7.755476981401443481e-03 3.160773962736129761e-02 3.701762855052947998e-02 3.614462539553642273e-02 -1.461210846900939941e-02 -2.169509418308734894e-02 -1.551966276019811630e-02 -8.893043547868728638e-02 2.355339378118515015e-02 -6.035236641764640808e-02 6.082131061702966690e-03 -1.337962597608566284e-02 -4.736111313104629517e-02 3.517464920878410339e-02 -4.542092978954315186e-02 5.017155408859252930e-02 1.721584051847457886e-02 -1.099502481520175934e-02 9.062498062849044800e-02 -2.092491369694471359e-03 -3.438131883740425110e-02 1.894999668002128601e-02 1.287803146988153458e-02 -1.763741299510002136e-02 3.285950049757957458e-02 4.228394106030464172e-02 -1.304124947637319565e-02 -1.164790987968444824e-01 -6.426604837179183960e-02 -1.835715584456920624e-02 4.186585918068885803e-02 3.558995900675654411e-03 4.489646758884191513e-03 8.249962329864501953e-02 3.310616314411163330e-02 -4.267197474837303162e-02 4.252059850841760635e-03 -7.364831864833831787e-02 -1.014055777341127396e-02 -8.088294416666030884e-02 -1.757144182920455933e-02 3.963894024491310120e-02 1.570215076208114624e-02 -7.612186670303344727e-02 -3.062849678099155426e-02 -7.144998759031295776e-02 8.167320489883422852e-02 -4.874899238348007202e-02 6.572907418012619019e-02 -3.712226450443267822e-02 7.387211918830871582e-02 -7.235511392354965210e-02 1.199013069272041321e-01 5.484408698976039886e-03 6.122020632028579712e-02 -7.672324776649475098e-02 1.163157522678375244e-01 -4.336247220635414124e-02 5.926182121038436890e-02 3.626776114106178284e-02 1.628817617893218994e-02 2.578573301434516907e-02 -3.753579035401344299e-02 2.353350259363651276e-02 5.111741274595260620e-02 -8.851101994514465332e-02 -5.889769271016120911e-02 2.676043100655078888e-02 2.044799365103244781e-02 -1.258041430264711380e-02 3.413586691021919250e-02 2.038520947098731995e-02 4.759908653795719147e-03 3.988618776202201843e-02 -4.156729578971862793e-02 -1.663817279040813446e-02 -7.473740726709365845e-02 -4.086985811591148376e-02 7.308374345302581787e-02 5.189332738518714905e-02 6.499930471181869507e-02 5.760430917143821716e-02
