-1.585173420608043671e-02
-1.170454360544681549e-02
7.242943346500396729e-02
1.304504871368408203e-01
3.144095540046691895e-01
-5.058194510638713837e-03
-8.254697546362876892e-03
2.281762287020683289e-02
3.058331906795501709e-01
2.216564118862152100e-01
4.158665984869003296e-02
1.986301243305206299e-01
-2.994622103869915009e-03
-1.733682118356227875e-02
-4.750556778162717819e-03
-2.975885057821869850e-03
-2.994743408635258675e-03
-2.986917505040764809e-03
-1.134151443839073181e-01
2.509116530418395996e-01
4.222329854965209961e-01
-3.357745474204421043e-03
-4.089942201972007751e-03
2.519030570983886719e-01
1.994137912988662720e-01
1.138567999005317688e-01
4.506240189075469971e-01
-6.086533423513174057e-03
-3.279417287558317184e-03
1.853425204753875732e-01
-2.985085593536496162e-03
-1.154820322990417480e-01
2.934021055698394775e-01
-3.794826334342360497e-03
-3.120562992990016937e-02
-2.976167714223265648e-03
-4.078857135027647018e-03
-6.292544770985841751e-03
3.315505981445312500e-01
3.030154705047607422e-01
2.927177548408508301e-01
-1.055535674095153809e-02
-3.665125230327248573e-03
4.351120591163635254e-01
-2.020234940573573112e-03
2.386287748813629150e-01
-2.975354902446269989e-03
-3.572098677977919579e-03
-2.777189947664737701e-03
3.473964929580688477e-01
2.231319844722747803e-01
-6.953447591513395309e-03
-2.975144190713763237e-03
-4.797435831278562546e-03
-3.067199373617768288e-03
-3.148891264572739601e-03
-2.994071692228317261e-03
-2.987302606925368309e-03
-5.777106620371341705e-03
-2.965274965390563011e-03
-2.968656364828348160e-03
-3.335559275001287460e-03
-2.322205714881420135e-02
3.909331858158111572e-01
-3.174461424350738525e-03
-2.981483004987239838e-03
3.374161124229431152e-01
-7.757880724966526031e-03
8.496969193220138550e-02
-1.336715370416641235e-01
-2.977085998281836510e-03
-2.965470543131232262e-03
3.447982370853424072e-01
5.095518380403518677e-02
-1.807286217808723450e-02
3.072760701179504395e-01
3.342057466506958008e-01
4.758042097091674805e-01
-2.994329668581485748e-03
-2.914232434704899788e-03
2.836542427539825439e-01
-7.145649287849664688e-03
-2.925192471593618393e-03
-2.992224181070923805e-03
-2.937027253210544586e-03
-1.542000193148851395e-02
2.201663702726364136e-01
-2.993520582094788551e-03
-3.846213594079017639e-02
-3.642496652901172638e-03
-2.990345237776637077e-03
-1.557790394872426987e-02
2.222210913896560669e-01
-9.013719856739044189e-03
3.520987331867218018e-01
-2.984910970553755760e-03
-6.472138687968254089e-03
-2.972782589495182037e-03
-6.334531120955944061e-03
4.902842044830322266e-01
1.766729205846786499e-01
-4.010002128779888153e-03
-3.466455964371562004e-03
-7.538679521530866623e-03
-3.335983725264668465e-03
-2.964845392853021622e-03
2.639258205890655518e-01
-5.755029618740081787e-03
-2.993512665852904320e-03
-2.980778226628899574e-03
-2.096019219607114792e-03
-2.987649524584412575e-03
3.359206914901733398e-01
-1.674833595752716064e-01
5.772294402122497559e-01
-2.990274457260966301e-03
2.498833686113357544e-01
4.405470490455627441e-01
1.312969177961349487e-01
3.943444192409515381e-01
-3.212506184354424477e-03
4.047591090202331543e-01
-1.714304275810718536e-02
-2.976917428895831108e-03
3.042212724685668945e-01
-2.966956002637743950e-03
4.312175214290618896e-01
-4.682650789618492126e-03
-7.197800278663635254e-02
2.627325356006622314e-01
2.244527786970138550e-01
3.359449505805969238e-01
-1.598641043528914452e-03
4.421886205673217773e-01
-3.495199140161275864e-03
-1.021620072424411774e-02
-6.710668560117483139e-03
-3.245963249355554581e-03
-8.087742142379283905e-03
-2.995996968820691109e-03
-5.643714219331741333e-02
-1.638698391616344452e-03
-6.038532592356204987e-03
-2.976807300001382828e-03
-1.150675583630800247e-02
-2.996103372424840927e-03
-9.395638108253479004e-02
2.807605564594268799e-01
1.681904792785644531e-01
3.199413716793060303e-01
4.462653696537017822e-01
2.746855020523071289e-01
-2.991541055962443352e-03
2.215167880058288574e-01
-4.282781854271888733e-03
-1.933251880109310150e-02
2.567379474639892578e-01
4.236816763877868652e-01
4.492538869380950928e-01
-2.790908794850111008e-03
-1.058053132146596909e-02
-1.707205921411514282e-02
2.871393561363220215e-01
5.375033617019653320e-01
-2.977522322908043861e-03
-2.993203001096844673e-03
-3.991191741079092026e-03
3.119280636310577393e-01
-2.982976380735635757e-03
-2.981334924697875977e-03
1.820577681064605713e-01
2.598012685775756836e-01
-2.988240914419293404e-03
2.846937477588653564e-01
-6.691107526421546936e-03
4.612131416797637939e-01
-7.304569240659475327e-03
2.412063926458358765e-01
-8.814034052193164825e-03
1.659021675586700439e-01
3.774498999118804932e-01
-6.011857651174068451e-03
-6.253740284591913223e-03
-4.067098721861839294e-03
-5.076662171632051468e-03
2.795912325382232666e-01
-4.022778943181037903e-03
3.715942800045013428e-01
2.456392645835876465e-01
2.366082519292831421e-01
1.703516989946365356e-01
-2.627776004374027252e-03
-2.313832938671112061e-02
2.819246649742126465e-01
-5.789662711322307587e-03
-1.352136880159378052e-01
2.262372970581054688e-01
2.000939249992370605e-01
-7.647675927728414536e-03
2.999149262905120850e-01
-1.003138720989227295e-02
-2.967655658721923828e-03
-2.954804338514804840e-03
2.965352535247802734e-01
-5.718603264540433884e-03
-2.979903714731335640e-03
-3.287184983491897583e-03
-2.453517355024814606e-02
2.746151685714721680e-01
-2.948184264823794365e-03
1.253452599048614502e-01
-4.931729286909103394e-03
8.329924941062927246e-02
-2.989266533404588699e-03
-1.991611905395984650e-03
1.812954694032669067e-01
-2.992720808833837509e-03
1.295556724071502686e-01
-3.302634693682193756e-03
-4.196197725832462311e-03
-2.962844213470816612e-03
1.971101462841033936e-01
-2.972989343106746674e-03
4.754720032215118408e-01
-2.992777153849601746e-03
-2.977192634716629982e-03
-8.194959722459316254e-03
-1.137117948383092880e-02
-2.062983112409710884e-03
-2.980733290314674377e-03
3.369578719139099121e-01
-3.513077506795525551e-03
2.947101593017578125e-01
-2.882877597585320473e-03
2.629314064979553223e-01
-3.951027058064937592e-03
1.100000552833080292e-02
-6.672131363302469254e-03
2.918174862861633301e-01
-3.186672460287809372e-03
-3.480159677565097809e-03
-1.184057723730802536e-02
3.049631714820861816e-01
2.983643710613250732e-01
-2.993497066199779510e-03
-1.002008561044931412e-02
-8.854745887219905853e-03
-3.723261645063757896e-03
-2.991564339026808739e-03
-5.933564621955156326e-03
6.721445918083190918e-02
-2.985593862831592560e-03
-3.974911291152238846e-03
3.183453083038330078e-01
-1.945720752701163292e-03
-4.605835303664207458e-03
