-2.415809780359268188e-01
-2.291580736637115479e-01
-9.738591313362121582e-02
2.911085784435272217e-01
-1.533299982547760010e-01
-3.287349343299865723e-01
-4.565874338150024414e-01
5.013357102870941162e-02
2.222297340631484985e-01
2.483961880207061768e-01
-1.734208017587661743e-01
4.256755113601684570e-01
4.158103838562965393e-02
-2.383942306041717529e-01
-1.508786976337432861e-01
-2.982186377048492432e-01
-2.442153692245483398e-01
1.002525240182876587e-01
4.462049603462219238e-01
-2.837993204593658447e-01
1.456888765096664429e-01
-2.305104136466979980e-01
2.054158747196197510e-01
-1.984564661979675293e-01
-3.706486225128173828e-01
4.183785617351531982e-01
2.960619032382965088e-01
-6.402828693389892578e-01
2.767310440540313721e-01
-4.854020476341247559e-02
5.932221561670303345e-02
1.500725653022527695e-02
-2.714268863201141357e-02
2.192339152097702026e-01
1.609457582235336304e-01
-1.485331356525421143e-01
3.509609401226043701e-01
6.942085921764373779e-02
-3.651526272296905518e-01
3.305061459541320801e-01
4.411444067955017090e-01
-2.824670374393463135e-01
-2.598019242286682129e-01
-9.150254540145397186e-03
-1.359422206878662109e-01
1.639829576015472412e-01
-1.301790624856948853e-01
-1.408984959125518799e-01
1.676827222108840942e-01
-2.011562436819076538e-01
-9.822915494441986084e-02
1.636321283876895905e-02
-9.722824394702911377e-02
-5.316519737243652344e-01
3.346962928771972656e-01
-8.270746469497680664e-02
2.515013813972473145e-01
-1.813495457172393799e-01
-1.870321780443191528e-01
2.009272277355194092e-01
3.891187906265258789e-02
-2.494904100894927979e-01
7.137995213270187378e-02
-1.209526360034942627e-01
-3.804901614785194397e-02
2.202575355768203735e-01
4.954327344894409180e-01
1.817556917667388916e-01
3.118886798620223999e-02
-1.244881376624107361e-01
-1.694647222757339478e-02
-9.373173862695693970e-02
2.018850892782211304e-01
3.289548158645629883e-01
-2.984288334846496582e-01
1.749585419893264771e-01
2.235916107892990112e-01
-5.384185314178466797e-01
-4.248126149177551270e-01
1.027065794914960861e-02
-2.890650629997253418e-01
-2.161980867385864258e-01
1.213269159197807312e-01
-2.117003053426742554e-01
2.782527729868888855e-02
1.998026669025421143e-01
-1.178588438779115677e-02
-3.982597291469573975e-01
2.676171660423278809e-01
3.326443731784820557e-01
1.623521149158477783e-01
2.185780704021453857e-01
3.162973821163177490e-01
-4.972444474697113037e-02
-2.778348624706268311e-01
4.258334636688232422e-01
3.273759484291076660e-01
-2.395718991756439209e-01
3.248615860939025879e-01
-9.621911495923995972e-02
-1.751119643449783325e-01
1.179499924182891846e-01
-2.753256261348724365e-01
-1.880826205015182495e-01
-3.165952488780021667e-02
1.539151221513748169e-01
2.007476985454559326e-01
2.185111679136753082e-02
-7.213461399078369141e-02
-1.516821533441543579e-01
4.182206839323043823e-02
1.168872416019439697e-01
2.453250885009765625e-01
7.493015378713607788e-02
1.416310966014862061e-01
-7.488662004470825195e-02
2.131867110729217529e-01
3.761390596628189087e-02
4.740826040506362915e-02
2.048338502645492554e-01
2.832584455609321594e-02
4.024389386177062988e-01
-3.674549236893653870e-02
5.164141058921813965e-01
1.131106913089752197e-01
-1.684958487749099731e-01
2.777360379695892334e-01
3.555364906787872314e-01
-4.875234961509704590e-01
7.228323072195053101e-02
-3.029160201549530029e-01
-2.122324518859386444e-02
-4.236173033714294434e-01
-3.281542360782623291e-01
-2.141868695616722107e-02
-2.313047051429748535e-01
1.028475761413574219e-01
-2.193180173635482788e-01
1.140501797199249268e-01
-5.284298062324523926e-01
1.671771407127380371e-01
3.938769102096557617e-01
1.156643778085708618e-01
1.982254981994628906e-01
2.715776115655899048e-02
2.856777310371398926e-01
-3.840524554252624512e-01
-3.328656554222106934e-01
-1.327351927757263184e-01
-4.635275900363922119e-02
-1.150434836745262146e-01
1.227067336440086365e-01
-1.003329232335090637e-01
4.740313068032264709e-02
2.238430678844451904e-01
-9.493579156696796417e-03
1.558784693479537964e-01
4.962381124496459961e-01
-1.156761348247528076e-01
4.013695195317268372e-02
3.846370279788970947e-01
7.708483189344406128e-02
-1.730905324220657349e-01
1.371633112430572510e-01
-3.746377304196357727e-02
-5.652885138988494873e-02
1.624501049518585205e-01
-1.062950193881988525e-01
-1.668285280466079712e-01
4.094361886382102966e-02
-2.329591661691665649e-02
4.272970855236053467e-01
-7.860834151506423950e-02
4.130941033363342285e-01
3.714620172977447510e-01
-2.014251351356506348e-01
-2.114993706345558167e-02
-1.215407624840736389e-01
1.105895340442657471e-01
-1.580622792243957520e-01
-1.198613047599792480e-01
1.586138457059860229e-01
4.348949715495109558e-02
5.811863541603088379e-01
-2.203982472419738770e-01
-3.773913979530334473e-01
4.688167870044708252e-01
-7.621710747480392456e-02
1.343348920345306396e-01
-2.747995555400848389e-01
-1.548717767000198364e-01
1.421606540679931641e-01
-1.991144865751266479e-01
2.182704061269760132e-01
-8.150789141654968262e-02
1.145579889416694641e-01
-2.136435825377702713e-03
-4.970363974571228027e-01
-3.514612019062042236e-01
-1.006828900426626205e-02
-3.625993430614471436e-01
-5.613099932670593262e-01
-1.441033035516738892e-01
4.211264550685882568e-01
1.230674758553504944e-01
-1.314761638641357422e-01
3.910959064960479736e-01
3.344741463661193848e-01
-1.028859168291091919e-01
-1.150490492582321167e-01
1.244544684886932373e-01
3.136163055896759033e-01
-1.517962217330932617e-01
-1.199183091521263123e-01
-1.008948683738708496e-02
-1.822094917297363281e-01
1.265456378459930420e-01
1.520549356937408447e-01
-1.186907812952995300e-01
2.740989327430725098e-01
7.923653721809387207e-02
7.569760829210281372e-02
-1.544875502586364746e-01
3.718578219413757324e-01
-2.205937542021274567e-02
1.267850846052169800e-01
6.128630787134170532e-02
4.272476583719253540e-02
5.370099842548370361e-02
2.122039049863815308e-01
2.349431365728378296e-01
3.873000144958496094e-01
2.588854134082794189e-01
-1.058657541871070862e-01
-1.661322452127933502e-02
3.586961887776851654e-03
4.199691489338874817e-02
3.297997713088989258e-01
-5.439889430999755859e-01
1.791346371173858643e-01
-1.744935065507888794e-01
-1.443781405687332153e-01
-3.142173886299133301e-01
-3.087060451507568359e-01
1.935792528092861176e-02
-7.506121695041656494e-02
-8.990797214210033417e-03
-1.537801176309585571e-01
-2.169369757175445557e-01
2.119086980819702148e-01
6.277135759592056274e-02
1.806414127349853516e-01
-7.796669751405715942e-02
2.591331601142883301e-01
2.577618956565856934e-01
1.432025525718927383e-02
