-3.091151639819145203e-02
-5.463047325611114502e-02
-8.750990033149719238e-02
-2.728216117247939110e-03
-2.674870193004608154e-02
-6.564452499151229858e-02
-8.094900846481323242e-02
-1.462559401988983154e-01
-8.319325745105743408e-02
-8.053441345691680908e-02
-3.480798006057739258e-02
8.901908062398433685e-03
-3.496195375919342041e-02
-6.421576440334320068e-02
-1.362910419702529907e-01
2.945762872695922852e-02
-6.068255752325057983e-02
-1.474858522415161133e-01
-8.742574602365493774e-02
-4.577291384339332581e-02
-9.245868772268295288e-02
-1.650182604789733887e-01
-4.790536314249038696e-02
2.001882717013359070e-02
-4.807788936886936426e-04
9.523268789052963257e-02
-1.314838081598281860e-01
-9.532209485769271851e-02
-1.055388227105140686e-01
-6.338767707347869873e-02
-1.489543635398149490e-02
1.054671853780746460e-01
-7.781130075454711914e-02
3.193836193531751633e-03
-1.801943480968475342e-01
-7.760492153465747833e-03
-1.003562435507774353e-01
-6.032861769199371338e-02
-3.001890378072857857e-03
2.692634239792823792e-02
-1.363373249769210815e-01
2.427264675498008728e-02
-1.135868728160858154e-01
-7.852753251791000366e-02
-2.773322351276874542e-02
-3.700369223952293396e-02
8.261889219284057617e-02
-1.777769066393375397e-02
-1.700321398675441742e-02
-9.752617031335830688e-02
5.244177207350730896e-02
-1.587868295609951019e-02
3.727417439222335815e-02
-7.163079828023910522e-02
-5.018227547407150269e-02
-5.029483884572982788e-02
-6.221017241477966309e-02
-4.406947270035743713e-02
-1.003528833389282227e-01
3.654965758323669434e-02
-1.599088907241821289e-01
-1.017425358295440674e-01
-9.055047295987606049e-03
-6.302130967378616333e-02
-5.085211247205734253e-02
-1.332329958677291870e-01
-2.481941692531108856e-02
-9.812158346176147461e-02
-6.573742628097534180e-02
-5.547022074460983276e-02
-1.492404565215110779e-02
-5.937355756759643555e-02
-3.164025023579597473e-02
-4.290932416915893555e-02
-9.712956100702285767e-02
5.717054381966590881e-02
-1.818527840077877045e-02
-9.124221280217170715e-03
-4.562070965766906738e-02
-8.741156756877899170e-02
-8.590213954448699951e-02
-8.294302225112915039e-02
6.896363943815231323e-02
1.670885086059570312e-02
-6.530873011797666550e-03
4.756310582160949707e-02
1.932690292596817017e-02
-9.293095022439956665e-02
-9.192442893981933594e-02
-2.112231254577636719e-01
-1.722946763038635254e-02
3.066272288560867310e-02
-1.555140614509582520e-01
-9.535978734493255615e-02
-1.081022247672080994e-02
-8.443428575992584229e-02
-1.462084203958511353e-01
-2.688028849661350250e-02
4.298873245716094971e-02
2.339042024686932564e-03
-6.725297123193740845e-02
-5.791714414954185486e-02
1.040036603808403015e-01
-1.535141933709383011e-02
1.139949932694435120e-01
-1.915708780288696289e-01
-5.896177515387535095e-02
1.027086675167083740e-01
-9.104813635349273682e-02
-6.463337689638137817e-03
8.120358735322952271e-02
-8.671455830335617065e-02
1.166512146592140198e-01
-1.441349983215332031e-01
1.967147365212440491e-02
-9.929814189672470093e-02
-2.885920740664005280e-02
-1.530873477458953857e-01
1.551955193281173706e-02
-7.812315225601196289e-02
6.948520243167877197e-02
-7.197210192680358887e-02
-9.956596791744232178e-02
4.182923957705497742e-02
-1.346794217824935913e-01
-1.127696782350540161e-01
-9.404074400663375854e-02
-5.836248397827148438e-02
-6.762695312500000000e-02
1.488144975155591965e-02
-1.354671176522970200e-02
-1.020283177495002747e-01
-5.238025262951850891e-02
-4.754354059696197510e-02
6.120983045548200607e-03
-1.342725008726119995e-01
6.804513931274414062e-02
-4.250538349151611328e-02
-2.555397525429725647e-02
-8.028852194547653198e-02
-1.584170386195182800e-02
3.197794035077095032e-02
-7.400567084550857544e-02
-1.910661607980728149e-01
-8.410473167896270752e-02
-3.502464294433593750e-02
-1.576956212520599365e-01
-9.541957080364227295e-02
-7.864770293235778809e-02
-1.361710876226425171e-01
-1.102137714624404907e-01
2.056134678423404694e-02
-3.090889751911163330e-02
-7.158745825290679932e-02
-8.342041820287704468e-02
-1.868212036788463593e-02
6.823280453681945801e-02
-1.536723226308822632e-01
-7.881325483322143555e-02
-3.147850930690765381e-02
7.344522979110479355e-03
-8.670681715011596680e-02
1.001627929508686066e-02
-1.438613682985305786e-01
-1.506852656602859497e-01
-7.766244560480117798e-02
-9.365862607955932617e-02
-1.102443337440490723e-01
5.691697821021080017e-03
-4.275554325431585312e-03
-1.430487632751464844e-01
-1.209122911095619202e-01
-4.172338172793388367e-02
-2.608804730698466301e-03
-8.959026075899600983e-03
-7.738441228866577148e-02
-5.986312404274940491e-03
1.990640908479690552e-02
-1.960219889879226685e-01
-5.179011821746826172e-02
-8.260886371135711670e-02
-1.063259132206439972e-02
-3.153458610177040100e-02
-1.493479311466217041e-01
3.347583860158920288e-02
3.822010383009910583e-02
-5.681597813963890076e-02
-7.267124950885772705e-02
-8.006673306226730347e-02
3.496540710330009460e-02
1.070753578096628189e-02
-4.907621070742607117e-02
-1.670924276113510132e-01
-1.145596727728843689e-01
-7.010064274072647095e-02
5.019009858369827271e-02
-5.978133901953697205e-02
1.812359504401683807e-02
-6.017760187387466431e-02
-3.405564278364181519e-02
-2.960854582488536835e-02
-4.187776893377304077e-02
-1.283498108386993408e-01
-1.357231661677360535e-02
-2.358821332454681396e-01
-3.872464597225189209e-02
-1.581784337759017944e-01
-1.985134035348892212e-01
2.876612730324268341e-02
-6.956913508474826813e-03
4.020890593528747559e-02
-6.301505863666534424e-02
1.016121506690979004e-01
-1.950992047786712646e-01
-2.067222632467746735e-02
-8.057846873998641968e-02
6.377823185175657272e-03
-1.184816360473632812e-01
-2.517542988061904907e-02
-6.976558826863765717e-03
-2.095147669315338135e-01
-7.747567445039749146e-02
-1.262667030096054077e-01
-8.518950641155242920e-02
1.134831756353378296e-01
2.036228403449058533e-02
6.711532175540924072e-02
-2.507047355175018311e-02
-1.062712743878364563e-01
1.800888217985630035e-02
-8.891197293996810913e-02
1.722062006592750549e-02
-4.935418255627155304e-03
-2.704769000411033630e-02
-1.257714480161666870e-01
-8.376589417457580566e-02
1.658319383859634399e-01
-9.806893765926361084e-02
-1.046403422951698303e-01
-1.310569141060113907e-02
2.895963564515113831e-02
-3.686591982841491699e-02
-2.467128634452819824e-02
-4.401139169931411743e-02
-1.420335322618484497e-01
-1.602065004408359528e-02
-1.031335815787315369e-01
-3.473165677860379219e-03
-6.787949055433273315e-02
-7.879214733839035034e-02
-6.879187375307083130e-02
-1.603271961212158203e-01
-1.157953962683677673e-01
-6.848155707120895386e-02
-1.501820683479309082e-01
-1.408031433820724487e-01
