1.559173017740249634e-01
-3.696060972288250923e-03
-8.587579429149627686e-02
-9.981197118759155273e-02
-1.990844607353210449e-01
-1.578401923179626465e-01
-8.141766488552093506e-02
-2.141028493642807007e-01
2.041120454668998718e-02
-2.286234125494956970e-02
-1.351089626550674438e-01
-1.510197520256042480e-01
1.311228144913911819e-02
-3.541981801390647888e-02
-1.716816574335098267e-01
8.997946232557296753e-02
1.914908364415168762e-02
4.847778379917144775e-02
-3.755763918161392212e-02
-1.922189891338348389e-01
-1.020889729261398315e-02
-6.385345757007598877e-02
-4.195185378193855286e-02
-1.404295209795236588e-02
-2.447386831045150757e-02
1.267460882663726807e-01
-1.991698443889617920e-01
-8.662649989128112793e-02
-1.310496736550703645e-04
6.044956855475902557e-03
-6.135149300098419189e-02
1.436034403741359711e-02
-2.051647901535034180e-01
2.109526693820953369e-01
-1.179492101073265076e-01
3.784025087952613831e-02
1.051536500453948975e-01
1.055344566702842712e-02
3.190586343407630920e-02
-7.022246718406677246e-02
-8.379995822906494141e-02
-7.310216128826141357e-02
-5.646232515573501587e-02
-7.786292582750320435e-02
-4.684317857027053833e-02
7.939236238598823547e-03
-6.140400096774101257e-02
-1.635765582323074341e-01
-3.792069479823112488e-02
-1.628353148698806763e-01
-7.180055230855941772e-02
-7.578845322132110596e-02
-9.000942856073379517e-02
-9.149537980556488037e-02
-6.613989826291799545e-03
-2.705152146518230438e-03
-4.227781295776367188e-02
-1.135391667485237122e-01
3.203896433115005493e-02
3.226488083600997925e-02
-7.818666100502014160e-02
-6.237170845270156860e-02
-1.842661499977111816e-01
-1.346387714147567749e-01
-1.044187620282173157e-01
-7.944811135530471802e-02
-4.329298809170722961e-02
-4.745156317949295044e-02
-6.408128887414932251e-02
-5.832710862159729004e-02
-1.383693963289260864e-01
5.920741334557533264e-02
-1.400591246783733368e-02
-5.342021584510803223e-02
9.821197018027305603e-03
9.654400497674942017e-02
-9.470751509070396423e-03
-1.069562658667564392e-01
-3.605156391859054565e-02
-1.319310627877712250e-02
-1.509221494197845459e-01
4.998560994863510132e-02
-3.960971906781196594e-02
3.931676596403121948e-02
-4.942251369357109070e-02
-8.213330060243606567e-02
-3.348154947161674500e-03
7.824902981519699097e-02
-4.729856550693511963e-02
-7.570584770292043686e-03
-7.962600141763687134e-02
4.666060954332351685e-02
-8.326720446348190308e-03
-1.993752121925354004e-01
-1.140546798706054688e-01
5.263492930680513382e-03
-1.354252547025680542e-01
1.045394912362098694e-01
-9.524425119161605835e-02
3.073364496231079102e-02
-1.636814028024673462e-01
3.916333243250846863e-02
3.662052378058433533e-02
7.199242711067199707e-02
6.469437479972839355e-02
1.007721126079559326e-01
-5.556766316294670105e-02
3.425754234194755554e-02
-1.285093128681182861e-01
1.076004654169082642e-02
-3.208205103874206543e-02
-3.080203570425510406e-02
3.023387119174003601e-02
-8.915521204471588135e-02
6.855017854832112789e-04
-1.328627318143844604e-01
-1.222564950585365295e-01
-1.166234463453292847e-01
-6.991622038185596466e-03
-7.239419966936111450e-02
-1.122152879834175110e-01
8.221428841352462769e-03
-1.269918531179428101e-01
-9.186391532421112061e-02
-1.437967717647552490e-01
-3.340234979987144470e-02
-7.629472017288208008e-02
4.985479637980461121e-02
-8.066886104643344879e-03
-2.740972861647605896e-02
-3.034938871860504150e-02
-4.669149219989776611e-02
-1.680480241775512695e-01
-5.456390324980020523e-03
4.760304838418960571e-02
-3.113122424110770226e-03
1.138563975691795349e-01
-7.112953066825866699e-02
-7.734106481075286865e-02
-7.567432522773742676e-02
-1.049879938364028931e-01
-5.642255302518606186e-03
1.216364726424217224e-01
-1.636134088039398193e-01
-8.448627591133117676e-02
-1.011343300342559814e-01
-1.504833847284317017e-01
-8.699177950620651245e-02
-7.522561401128768921e-02
-5.290763080120086670e-02
-9.012802690267562866e-02
-2.067743539810180664e-01
-8.816085755825042725e-02
-1.077026352286338806e-01
9.396448731422424316e-03
-1.237640976905822754e-01
4.326681792736053467e-02
3.861076384782791138e-02
8.570939302444458008e-03
-7.657443732023239136e-02
-9.469532966613769531e-02
-5.633693188428878784e-02
-3.733033081516623497e-03
-1.374726295471191406e-01
-5.993446707725524902e-02
-9.299988299608230591e-02
4.241270199418067932e-02
3.949877619743347168e-02
-1.602572500705718994e-01
-1.923833489418029785e-01
8.020266890525817871e-02
4.429673030972480774e-02
-5.636131390929222107e-02
-5.980370938777923584e-02
-7.685051113367080688e-02
-5.065293237566947937e-02
3.330804174765944481e-03
-8.742424845695495605e-02
-9.792879968881607056e-02
-7.888155430555343628e-02
5.270357802510261536e-02
-1.944024562835693359e-01
-5.819746851921081543e-02
-1.144630834460258484e-01
-2.576635591685771942e-02
-1.365272551774978638e-01
-1.232648938894271851e-01
6.712957471609115601e-02
-3.429492190480232239e-02
6.571211665868759155e-02
3.266782686114311218e-02
-1.895859488286077976e-03
-1.114146932959556580e-01
7.963545620441436768e-02
-1.093530505895614624e-01
1.207028180360794067e-01
-7.503235340118408203e-02
-1.368500143289566040e-01
-3.688494116067886353e-02
-2.148629166185855865e-02
3.360795974731445312e-02
-2.519837021827697754e-02
-1.023418605327606201e-01
4.274287819862365723e-02
-3.462897986173629761e-02
-3.152478113770484924e-02
-6.330319494009017944e-02
-2.011334300041198730e-01
-1.085980758070945740e-01
5.572421010583639145e-03
2.233039587736129761e-02
-5.951014347374439240e-03
-9.462151676416397095e-02
-1.142549961805343628e-01
-1.541856974363327026e-01
-2.800194546580314636e-02
-1.124737262725830078e-01
-2.532534860074520111e-02
-3.778787702322006226e-02
4.522750899195671082e-02
-7.284522801637649536e-02
-1.264913473278284073e-02
-6.400270760059356689e-02
-9.519477933645248413e-02
-5.732790753245353699e-02
-1.407248619943857193e-02
2.484040148556232452e-02
-8.816569112241268158e-03
-6.071556732058525085e-02
-1.808415502309799194e-01
-8.390381187200546265e-02
4.518247442319989204e-04
-6.521035730838775635e-02
-2.223687618970870972e-01
-1.027447655797004700e-01
2.178390137851238251e-02
2.440358512103557587e-02
-1.258768588304519653e-01
-3.218228742480278015e-02
-1.540019065141677856e-01
5.584020912647247314e-02
1.065631806850433350e-01
-7.568756490945816040e-02
1.606074571609497070e-01
-8.961805701255798340e-02
-7.467363029718399048e-02
-1.468511074781417847e-01
-3.670641407370567322e-02
3.924391046166419983e-02
-2.866978384554386139e-02
-6.241142749786376953e-02
-1.367225497961044312e-01
-6.210620328783988953e-02
-8.319603651762008667e-02
-1.397189050912857056e-01
-2.139220014214515686e-02
