-1.496401615440845490e-02 5.225478485226631165e-02 9.606872685253620148e-03 -1.326118875294923782e-02 -1.263844668865203857e-01 -3.909588605165481567e-02 -2.120023667812347412e-01 5.025412887334823608e-02 -9.492243407294154167e-04 1.236267983913421631e-01 -6.394799798727035522e-02 -9.097047895193099976e-02 -5.875593051314353943e-02 2.548924088478088379e-01 1.755888760089874268e-01 1.677472591400146484e-01 -1.477282792329788208e-01 -1.771894842386245728e-01 1.237163096666336060e-01 -2.272525429725646973e-01 1.109060123562812805e-01 1.462336722761392593e-02 -3.160228952765464783e-02 1.290216594934463501e-01 9.952607005834579468e-02 -2.639538049697875977e-01 -2.046933770179748535e-01 -1.446862518787384033e-01 3.129392117261886597e-02 4.602760449051856995e-02 1.661764457821846008e-03 6.575518101453781128e-02 1.748300641775131226e-01 -1.398327648639678955e-01 8.999940007925033569e-03 3.465047106146812439e-02 1.824557483196258545e-01 -3.556469827890396118e-02 7.952073588967323303e-03 -3.351034596562385559e-02 -3.616760298609733582e-02 -1.062884628772735596e-01 -1.784719228744506836e-01 3.652472281828522682e-03 3.877102956175804138e-02 7.930265367031097412e-02 4.988800361752510071e-02 4.658527672290802002e-02 1.099204272031784058e-01 1.704000234603881836e-01 1.147106364369392395e-01 -2.076882719993591309e-01 8.352719247341156006e-02 -5.114458501338958740e-02 4.961983859539031982e-02 5.417769029736518860e-02 -3.624673187732696533e-02 1.420155912637710571e-01 -1.593011021614074707e-01 1.230551861226558685e-02 1.130450423806905746e-02 1.148149967193603516e-01 1.703936606645584106e-01 -3.765352442860603333e-02 -2.322469800710678101e-01 5.738113820552825928e-02 5.410173907876014709e-02 5.566884204745292664e-02 -1.044162735342979431e-01 -1.265574246644973755e-01 -3.567688167095184326e-02 9.394491463899612427e-02 1.110760960727930069e-02 5.230522155761718750e-02 1.730915606021881104e-01 1.892410665750503540e-01 5.278544500470161438e-02 -1.780461333692073822e-02 -9.749625623226165771e-02 6.929370760917663574e-02 -2.336314618587493896e-01 3.334803879261016846e-02 1.157681923359632492e-03 9.782774001359939575e-02 -8.579754829406738281e-02 -1.554858982563018799e-01 4.051788523793220520e-02 -4.472731053829193115e-02 -5.973638594150543213e-02 3.186665475368499756e-02 -1.255086511373519897e-01 -3.713715076446533203e-02 4.138623550534248352e-02 6.986609660089015961e-03 -1.637391746044158936e-01 8.445371687412261963e-02 3.284990787506103516e-02 1.666792333126068115e-01 -1.466305460780858994e-02 -9.016694128513336182e-02 -2.005252391099929810e-01 -1.378405094146728516e-01 -7.182632386684417725e-02 -8.032289892435073853e-02 9.272988140583038330e-02 4.738517105579376221e-02 -1.018741354346275330e-01 2.154598571360111237e-02 -1.388871222734451294e-01 -3.841209784150123596e-02 -1.180332303047180176e-01 -1.309567242860794067e-01 -5.144768953323364258e-02 -4.952448606491088867e-02 -1.394627839326858521e-01 -1.260134428739547729e-01 -8.028069138526916504e-02 9.443844109773635864e-02 -7.124289870262145996e-02 6.870510429143905640e-02 1.288048028945922852e-01 1.348947435617446899e-01 8.305750787258148193e-02 -6.689754873514175415e-02 -1.753027290105819702e-01 7.986795902252197266e-02 4.474735632538795471e-02 -1.541485823690891266e-02 -2.468904294073581696e-02 -1.657456904649734497e-01 8.172564208507537842e-02 4.141965508460998535e-02 4.483513534069061279e-02 8.107813447713851929e-02 3.646007180213928223e-02 -2.425584048032760620e-01 -3.078270889818668365e-02 -1.008758693933486938e-01 -1.157507020980119705e-02 6.928656995296478271e-02 -1.931659877300262451e-01 1.395797543227672577e-02 -1.765845902264118195e-02 -4.785133153200149536e-02 -1.243151798844337463e-01 1.541178226470947266e-01 -5.578666925430297852e-02 4.990768060088157654e-02 2.741196751594543457e-01 1.336438208818435669e-01 5.858027935028076172e-02 -5.247087031602859497e-02 -1.777872890233993530e-01 3.268769383430480957e-02 -1.357364803552627563e-01 -1.381892561912536621e-01 -2.205251157283782959e-01 1.420568488538265228e-02 -1.219609305262565613e-01 9.226765483617782593e-02 -7.898443192243576050e-02 -9.126204997301101685e-02 1.413571387529373169e-01 -1.046309322118759155e-01 -4.714183136820793152e-02 -7.429136335849761963e-02 -1.125288009643554688e-02 -6.185807660222053528e-02 9.280209243297576904e-02 -1.221146360039710999e-01 -9.703221172094345093e-02 -8.582170307636260986e-02 -4.924825206398963928e-02 -6.472034007310867310e-02 2.380725927650928497e-02 8.043170720338821411e-02 -4.509853944182395935e-02 2.391912229359149933e-02 5.507859960198402405e-02 -1.292046606540679932e-01 -2.733633816242218018e-01 -1.021037921309471130e-01 -1.281949728727340698e-01 -3.894753381609916687e-02 -3.983388841152191162e-02 1.201903522014617920e-01 -1.163704618811607361e-01 3.183903545141220093e-02 7.148119062185287476e-02 2.435686439275741577e-02 -9.584607183933258057e-02 -1.027216091752052307e-01 5.996488779783248901e-02 9.487506002187728882e-02 1.663940101861953735e-01 -5.017221346497535706e-02 1.014223843812942505e-01 -8.221590518951416016e-02 -1.135930866003036499e-01 -4.288922622799873352e-02 -6.964606791734695435e-02 5.023823678493499756e-02 1.869690418243408203e-01 -8.722431212663650513e-02 -4.538526013493537903e-02 -4.425973072648048401e-02 1.160452961921691895e-01 -7.619470357894897461e-02 -1.215645521879196167e-01 -1.443259418010711670e-01 -7.425414025783538818e-02 7.283382117748260498e-02 2.833977900445461273e-02 1.584256589412689209e-01 1.832395195960998535e-01 -4.127938300371170044e-02 -7.156686484813690186e-02 2.264937572181224823e-02 -3.694919496774673462e-02 1.033159047365188599e-01 6.460117548704147339e-02 2.811885438859462738e-02 -1.084391865879297256e-02 1.265061497688293457e-01 1.483552902936935425e-01 -6.759288161993026733e-02 8.183088898658752441e-02 2.782530849799513817e-03 -9.794127941131591797e-02 6.350044906139373779e-02 -1.008710861206054688e-01 -6.968439370393753052e-02 7.150653749704360962e-02 -1.818598946556448936e-03 6.552611012011766434e-03 -1.776414960622787476e-01 -1.152387447655200958e-02 -1.084485277533531189e-01 -1.761524239555001259e-03 7.335087656974792480e-02 9.832427650690078735e-02 -2.230554074048995972e-01 7.065502554178237915e-02 -3.201619908213615417e-02 5.987606570124626160e-02 -4.739893600344657898e-02 -2.131111323833465576e-01 -1.556583046913146973e-01 -4.116508737206459045e-02 -5.713184550404548645e-02 3.776445984840393066e-02 -8.866635710000991821e-02 1.064144596457481384e-01 -6.723293662071228027e-02 1.187004819512367249e-01 -8.549356460571289062e-02
1.425775885581970215e-01 -2.450109869241714478e-01 7.016470283269882202e-02 -5.574468523263931274e-02 -9.280984848737716675e-02 -2.800584733486175537e-01 3.961203619837760925e-04 -1.427551358938217163e-02 -3.841111436486244202e-02 -2.164894528687000275e-02 6.258291006088256836e-02 -1.352254003286361694e-01 2.566150948405265808e-02 -3.889503702521324158e-02 -3.130064159631729126e-02 -6.254933029413223267e-02 -1.093999445438385010e-01 -1.554317176342010498e-01 -1.483843773603439331e-01 -2.373476326465606689e-01 2.502137236297130585e-02 3.603854775428771973e-02 6.988526880741119385e-02 -5.720104649662971497e-02 4.727223515510559082e-02 1.137749329209327698e-01 -8.251427114009857178e-02 1.580647192895412445e-02 8.743495494127273560e-02 -1.628163158893585205e-01 1.608641892671585083e-01 -4.470808058977127075e-02 5.722101032733917236e-02 1.209310535341501236e-02 -3.872953588142991066e-03 -3.885853886604309082e-01 6.338280439376831055e-02 -5.066494271159172058e-02 2.171157114207744598e-02 -1.126119941473007202e-01 -4.312135651707649231e-02 8.589533716440200806e-02 1.679307669401168823e-01 -1.361061036586761475e-01 -2.105210209265351295e-03 -4.751565307378768921e-02 -5.350420624017715454e-02 6.978055834770202637e-02 -6.089483201503753662e-02 -4.014238715171813965e-02 3.665594384074211121e-02 1.027703508734703064e-01 6.623336672782897949e-02 3.487164527177810669e-02 2.967944741249084473e-01 2.245947532355785370e-02 5.059240385890007019e-02 7.481674849987030029e-02 -1.085225492715835571e-02 -5.637406930327415466e-02 1.120149865746498108e-01 2.996753901243209839e-02 -2.522489130496978760e-01 -6.230394914746284485e-02 -1.256085187196731567e-01 1.590772904455661774e-02 -2.480458468198776245e-02 -3.685133531689643860e-02 -5.872908607125282288e-02 -2.045178227126598358e-02 1.893816515803337097e-02 2.719905599951744080e-02 -2.116285264492034912e-02 -6.899436563253402710e-02 -1.480939984321594238e-01 -2.297189384698867798e-01 -1.011641100049018860e-01 9.289830923080444336e-02 -1.566722989082336426e-01 -2.159448564052581787e-01 -1.484962087124586105e-02 -1.398811191320419312e-01 -7.628514617681503296e-02 1.580411046743392944e-01 -5.684132128953933716e-02 3.943951800465583801e-03 5.178750678896903992e-02 -1.036169826984405518e-01 4.494545981287956238e-02 -6.562514603137969971e-02 2.463168650865554810e-02 6.595332920551300049e-02 3.584690764546394348e-02 3.023706749081611633e-02 2.634342201054096222e-02 -1.569422483444213867e-01 2.809358946979045868e-02 -7.538920640945434570e-02 -3.772299364209175110e-02 5.387712270021438599e-02 -9.591139853000640869e-03 1.527768969535827637e-01 -1.127360388636589050e-01 -1.227687820792198181e-01 9.839028865098953247e-02 8.425264060497283936e-02 1.146472096443176270e-01 1.682524010539054871e-02 1.168782263994216919e-01 -9.063120186328887939e-02 2.632975578308105469e-01 5.101353675127029419e-02 2.721410803496837616e-02 -8.805350214242935181e-02 1.178868040442466736e-01 -1.035441383719444275e-01 6.185774877667427063e-02 -3.955269604921340942e-02 -1.507251262664794922e-01 1.837192475795745850e-01 6.734751909971237183e-02 -1.193624734878540039e-01 9.858367592096328735e-02 9.844341315329074860e-03 -9.862104803323745728e-02 5.259368941187858582e-02 2.554815262556076050e-02 9.677794575691223145e-02 -1.962057687342166901e-02 8.779468387365341187e-02 1.397823691368103027e-01 -1.017792150378227234e-01 -1.146023198962211609e-01 1.048937737941741943e-01 1.697815954685211182e-02 1.548638492822647095e-01 1.222091987729072571e-01 -2.084466367959976196e-01 -2.035202272236347198e-02 1.383005082607269287e-02 -1.425802428275346756e-02 -1.045465562492609024e-02 1.013987436890602112e-01 -4.088907837867736816e-01 -1.588896960020065308e-01 6.745802611112594604e-02 4.985014442354440689e-03 -1.066251695156097412e-01 1.416831910610198975e-01 3.695010021328926086e-02 5.603538826107978821e-03 -9.805256500840187073e-03 -1.660426110029220581e-01 -9.726545773446559906e-03 -1.120415478944778442e-01 -1.198886334896087646e-02 -3.124923408031463623e-01 -1.917915046215057373e-02 -1.268832758069038391e-02 6.886705756187438965e-02 -4.476812481880187988e-02 -8.155276626348495483e-02 6.194125860929489136e-02 -1.905698925256729126e-01 8.199870586395263672e-03 1.663099788129329681e-02 1.031416654586791992e-01 -9.251309186220169067e-02 4.870980605483055115e-02 -1.282970011234283447e-01 -1.382559239864349365e-01 -1.920489519834518433e-01 -6.378708034753799438e-02 -5.518632382154464722e-02 8.755950629711151123e-02 1.727570593357086182e-02 2.502005174756050110e-02 -5.338348075747489929e-02 -2.429113239049911499e-01 2.076779119670391083e-02 -2.346222661435604095e-02 -1.946047320961952209e-02 -9.630846232175827026e-02 2.017281949520111084e-01 5.111885070800781250e-02 2.262039482593536377e-02 3.812297061085700989e-02 1.070040743798017502e-03 -1.598793864250183105e-01 2.482849545776844025e-02 -1.723086982965469360e-01 -9.081825613975524902e-02 -8.065129071474075317e-02 -1.730092465877532959e-01 2.175227999687194824e-01 3.584472835063934326e-01 1.329483371227979660e-02 -1.012305170297622681e-01 2.049278095364570618e-02 -8.278363943099975586e-02 -3.426359593868255615e-02 1.414819508790969849e-01 -5.358086526393890381e-02 3.976518288254737854e-03 1.240445114672183990e-02 3.466683253645896912e-02 1.978533715009689331e-02 1.286969631910324097e-01 -1.725594699382781982e-01 -7.089883089065551758e-02 -3.543844446539878845e-02 -7.846408523619174957e-03 -1.119814664125442505e-01 3.395298495888710022e-02 -2.800867147743701935e-02 1.216323208063840866e-02 -6.742120534181594849e-02 1.106676161289215088e-01 1.347610056400299072e-01 -8.580472203902900219e-04 -1.038064211606979370e-01 -6.988970190286636353e-02 -2.317414134740829468e-01 -1.052070334553718567e-01 -1.072146221995353699e-01 4.600282385945320129e-02 -5.259688571095466614e-02 2.328426837921142578e-01 2.346789836883544922e-02 9.481777250766754150e-02 -1.174979880452156067e-01 -9.282845258712768555e-02 -6.753058731555938721e-02 -1.373383849859237671e-01 1.752020716667175293e-01 -8.225373178720474243e-02 -5.996435508131980896e-02 1.011635139584541321e-01 1.130187185481190681e-03 -5.010801181197166443e-02 -4.369346424937248230e-02 -8.073507994413375854e-02 -5.749301984906196594e-02 -1.706973277032375336e-02 1.807244308292865753e-02 -8.818642050027847290e-02 -1.527284551411867142e-02 -5.893785506486892700e-02 1.211994364857673645e-01 -2.082430273294448853e-01 -2.323519997298717499e-02 -7.801312208175659180e-02 -1.290579736232757568e-01 -2.246249616146087646e-01 6.212739273905754089e-03 9.989676624536514282e-02
9.630581364035606384e-03 -1.359202712774276733e-01 -1.131466701626777649e-01 -6.617354601621627808e-02 -9.333170950412750244e-03 5.625820253044366837e-03 5.519420281052589417e-02 1.937417834997177124e-01 1.280726194381713867e-01 1.878867745399475098e-01 8.844941109418869019e-02 2.651344425976276398e-02 1.908976770937442780e-02 -4.782717302441596985e-02 4.771079495549201965e-02 9.926418960094451904e-02 3.747508674860000610e-02 9.249118715524673462e-02 -4.968137666583061218e-02 -3.998166695237159729e-02 -9.224464884027838707e-04 2.161752199754118919e-03 5.097016319632530212e-02 -3.665304044261574745e-03 2.315926738083362579e-02 -7.978959381580352783e-02 -8.556487411260604858e-02 5.437585338950157166e-02 1.169260777533054352e-02 -1.688855700194835663e-02 -8.312505483627319336e-02 6.825223565101623535e-02 -1.032854691147804260e-01 -1.993739157915115356e-01 3.405214846134185791e-02 -1.372552663087844849e-01 1.608964242041110992e-02 -7.507778704166412354e-02 8.327665925025939941e-02 1.267042160034179688e-01 2.937679365277290344e-02 -5.426994711160659790e-02 4.644032195210456848e-02 -1.630123257637023926e-01 1.854705512523651123e-01 5.306200683116912842e-02 -3.123514056205749512e-01 -7.659707218408584595e-02 -1.940762251615524292e-02 -1.103276759386062622e-01 -1.134682726114988327e-02 -1.937299966812133789e-02 1.012479737401008606e-01 5.912895780056715012e-03 1.931564360857009888e-01 1.451057493686676025e-01 1.449277698993682861e-01 -1.296433359384536743e-01 3.056529536843299866e-02 -1.459590904414653778e-02 8.155999332666397095e-02 1.312124133110046387e-01 6.684473901987075806e-02 -1.229019090533256531e-01 1.258065551519393921e-01 3.474718332290649414e-02 -2.803655806928873062e-04 -2.334312768653035164e-03 7.008966058492660522e-02 -1.529089361429214478e-01 -3.860596194863319397e-02 -1.610872894525527954e-01 1.124515160918235779e-01 6.187343969941139221e-02 3.252474218606948853e-02 -2.536419034004211426e-02 2.587019652128219604e-02 8.554554730653762817e-02 -6.429817527532577515e-02 6.611198931932449341e-02 1.219983026385307312e-01 -4.095352441072463989e-02 -1.748494952917098999e-01 1.325791031122207642e-01 -5.045822262763977051e-02 2.783906646072864532e-03 -1.085341200232505798e-01 1.376750133931636810e-02 -2.754533886909484863e-01 1.537479013204574585e-01 1.138804182410240173e-01 -1.298947334289550781e-01 1.711101830005645752e-02 -2.245167642831802368e-01 -2.890239655971527100e-02 -4.706872254610061646e-02 -5.471965670585632324e-02 4.344368353486061096e-02 6.429374683648347855e-03 6.065471842885017395e-02 -2.472864240407943726e-01 6.762586534023284912e-02 2.218957617878913879e-02 -1.178366015665233135e-03 -1.609416753053665161e-01 -5.451183393597602844e-02 -3.045950550585985184e-03 3.305102512240409851e-02 -1.161356419324874878e-01 -1.949185878038406372e-01 2.954585254192352295e-01 -9.363149292767047882e-04 3.775940462946891785e-02 -5.065160617232322693e-02 -9.482313692569732666e-02 -2.613455802202224731e-02 4.099231213331222534e-02 -1.427261084318161011e-01 -3.077396377921104431e-02 1.393560916185379028e-01 2.822594530880451202e-02 -8.545265346765518188e-02 8.265769481658935547e-02 1.301483660936355591e-01 2.599889598786830902e-02 8.781736344099044800e-02 1.317909806966781616e-01 2.773343352600932121e-03 3.044429421424865723e-02 -1.256371289491653442e-01 -3.723971918225288391e-02 1.164826005697250366e-01 -2.925048768520355225e-02 4.400867968797683716e-03 -9.069191664457321167e-02 1.228847503662109375e-01 -4.124861210584640503e-02 -2.976641654968261719e-01 -1.229890435934066772e-01 4.167049378156661987e-02 -1.945272982120513916e-01 -1.124468147754669189e-01 1.442897021770477295e-01 -1.369195878505706787e-01 -3.974889963865280151e-02 -2.447657287120819092e-02 8.892920613288879395e-02 -3.107864968478679657e-02 8.637254126369953156e-03 1.206885650753974915e-01 1.270132362842559814e-01 -9.934668987989425659e-02 -2.302991300821304321e-01 -8.132128044962882996e-03 1.634453982114791870e-01 -2.296828627586364746e-01 -4.680531844496726990e-02 -1.248712302185595036e-03 -9.202492982149124146e-02 -3.797184303402900696e-02 2.373693138360977173e-02 -9.781742841005325317e-02 1.153945177793502808e-01 3.351630568504333496e-01 -1.647219657897949219e-01 -6.503935903310775757e-02 2.140601165592670441e-02 -7.605730742216110229e-02 -1.395078897476196289e-01 1.194655969738960266e-01 -8.164244145154953003e-02 -2.682612463831901550e-02 3.633470460772514343e-02 2.840908803045749664e-02 7.846040278673171997e-02 -1.228477507829666138e-01 -7.142972201108932495e-03 1.026789005845785141e-02 9.357459843158721924e-02 7.777906954288482666e-02 -1.352617610245943069e-02 8.884450793266296387e-02 -4.577735811471939087e-02 -4.786807671189308167e-02 -7.189109176397323608e-02 -8.802467957139015198e-03 -7.402601838111877441e-02 -2.217715680599212646e-01 8.484578132629394531e-02 -5.887212976813316345e-02 1.536155343055725098e-01 -3.289256989955902100e-02 -1.798791252076625824e-02 1.665737777948379517e-01 1.204014867544174194e-01 -8.829943835735321045e-02 1.569011956453323364e-01 8.491735905408859253e-02 3.479278879240155220e-03 -1.707223355770111084e-01 1.167776286602020264e-01 -2.943698503077030182e-02 -1.043233796954154968e-01 1.378157585859298706e-01 1.976243704557418823e-01 -4.172980785369873047e-02 -9.007210284471511841e-02 -4.913000389933586121e-02 7.097658514976501465e-02 -8.613403141498565674e-02 -2.945295572280883789e-01 1.973862014710903168e-02 -6.579470634460449219e-02 -1.983738131821155548e-02 7.757320255041122437e-02 1.873608529567718506e-01 -4.870912432670593262e-02 7.579103857278823853e-02 -2.080387920141220093e-01 4.183043166995048523e-02 -4.831374622881412506e-03 -6.196540594100952148e-02 1.722524315118789673e-01 1.514120697975158691e-01 1.254835873842239380e-01 -4.557180777192115784e-02 7.778352126479148865e-03 -5.220504105091094971e-02 -2.584801753982901573e-03 6.207089871168136597e-02 -3.213360905647277832e-02 -8.119691908359527588e-02 7.618791610002517700e-02 6.011659651994705200e-02 9.664870053529739380e-02 5.659906566143035889e-02 1.446233987808227539e-01 4.651513416320085526e-03 -1.447984725236892700e-01 6.611357629299163818e-02 1.453394889831542969e-01 4.653314128518104553e-02 -1.236677393317222595e-01 -5.863198544830083847e-03 3.917369619011878967e-02 -2.427670732140541077e-02 1.605957048013806343e-03 -6.528684496879577637e-02 -3.331244885921478271e-01 -3.171113133430480957e-02 -1.407378017902374268e-01 -4.686477780342102051e-02 5.942797660827636719e-02 -6.003437191247940063e-02 2.449078252539038658e-03 -6.427672505378723145e-02
6.696228682994842529e-02 1.865032687783241272e-02 -2.150471210479736328e-01 -6.432537734508514404e-02 -2.218101769685745239e-01 -8.318430185317993164e-02 -1.548534333705902100e-01 1.319917291402816772e-01 -4.856681451201438904e-02 1.080720778554677963e-02 6.405039876699447632e-02 -5.372568033635616302e-03 -5.280886963009834290e-02 1.459080167114734650e-02 5.613975226879119873e-03 1.860909163951873779e-01 -2.243556529283523560e-01 1.383967995643615723e-01 -3.925375640392303467e-02 4.594210162758827209e-02 1.124782934784889221e-01 1.531882584095001221e-01 -8.507122844457626343e-02 -1.562841981649398804e-01 2.244641818106174469e-02 -2.437264658510684967e-02 -3.309803083539009094e-02 -1.846935972571372986e-02 5.959612131118774414e-02 -2.401933073997497559e-01 -9.131407365202903748e-03 -2.673389911651611328e-01 9.247358888387680054e-03 -7.158671505749225616e-03 -7.047516107559204102e-02 2.679920010268688202e-02 8.599139004945755005e-02 1.889457553625106812e-02 1.295947283506393433e-01 -1.901590973138809204e-01 -6.869044899940490723e-02 -9.417380392551422119e-02 -1.240810453891754150e-01 -7.154719531536102295e-02 -3.366115391254425049e-01 -1.732469797134399414e-01 -7.565315067768096924e-02 -9.186087548732757568e-02 -2.093708664178848267e-01 6.842404603958129883e-02 -6.682966835796833038e-03 -3.012160956859588623e-02 -3.021126985549926758e-02 8.486460149288177490e-02 9.077058732509613037e-02 -7.010141760110855103e-02 -3.171691000461578369e-01 9.127682447433471680e-02 2.202627062797546387e-02 -2.380482554435729980e-01 1.217165887355804443e-01 1.668273955583572388e-01 -9.229889512062072754e-02 -5.921469628810882568e-02 7.822190225124359131e-02 -2.783285826444625854e-02 2.767549455165863037e-02 1.704576164484024048e-01 2.803566306829452515e-02 -5.028795823454856873e-02 -3.635994798969477415e-04 -7.448665797710418701e-02 -6.168950721621513367e-02 5.987032502889633179e-02 -3.955311328172683716e-02 -1.782768070697784424e-01 -5.061481148004531860e-02 -3.694470599293708801e-02 -2.626365423202514648e-02 1.776003837585449219e-01 -8.990453183650970459e-02 -1.094048395752906799e-01 -5.862943455576896667e-02 1.384080350399017334e-01 -9.624733775854110718e-02 3.418643260374665260e-03 -5.721782892942428589e-02 9.135254472494125366e-02 -1.954190246760845184e-02 4.251933842897415161e-02 1.327294111251831055e-01 4.474541917443275452e-02 2.041599340736865997e-02 -2.946397662162780762e-02 -7.276063412427902222e-02 -9.577523171901702881e-02 4.045818373560905457e-02 8.877406269311904907e-02 1.921254955232143402e-02 -1.028060764074325562e-01 1.179001927375793457e-01 -3.383807092905044556e-02 -7.865336537361145020e-02 4.098823294043540955e-03 -1.956533044576644897e-01 5.322255194187164307e-02 -2.927419543266296387e-01 5.588075891137123108e-02 4.861858859658241272e-02 1.033980995416641235e-01 -1.064500436186790466e-01 6.234779953956604004e-02 3.544238954782485962e-02 3.612913936376571655e-02 -1.465562433004379272e-01 1.140625551342964172e-01 2.654170095920562744e-01 -4.447018355131149292e-02 -1.240901574492454529e-01 4.858341813087463379e-02 2.215185314416885376e-01 -1.371969878673553467e-01 5.253477767109870911e-02 1.381021887063980103e-01 1.635443270206451416e-01 2.890416048467159271e-02 -2.020990848541259766e-01 -3.713331371545791626e-02 -1.040000915527343750e-01 6.466109305620193481e-02 -2.903518080711364746e-02 -1.175134852528572083e-01 -1.909977346658706665e-01 -3.094545379281044006e-02 3.061443567276000977e-02 -6.061744317412376404e-02 1.550446264445781708e-02 -2.160104215145111084e-01 4.447074607014656067e-02 -2.497752159833908081e-01 -7.107152789831161499e-02 -8.326332084834575653e-03 -9.009116142988204956e-02 -1.789385639131069183e-02 1.116872355341911316e-01 -9.300189465284347534e-02 -4.591421410441398621e-02 1.837834268808364868e-01 -7.478863745927810669e-02 -1.765718758106231689e-01 -2.840146981179714203e-02 -1.912657022476196289e-01 -4.205091297626495361e-02 5.405820161104202271e-02 6.167877465486526489e-03 6.401614844799041748e-02 2.343756612390279770e-03 -8.022852987051010132e-02 -2.024733833968639374e-02 1.636535674333572388e-01 1.001043617725372314e-01 7.699452340602874756e-02 -1.551870554685592651e-01 2.895949482917785645e-01 -2.943165786564350128e-02 -2.070926427841186523e-01 6.631974130868911743e-02 -1.226174384355545044e-01 8.510170876979827881e-02 -1.163662062026560307e-03 8.686004579067230225e-02 -1.481940969824790955e-02 1.086836680769920349e-02 7.171015441417694092e-02 -1.444212198257446289e-01 4.849656671285629272e-02 9.411907754838466644e-03 5.877229943871498108e-02 -1.232683882117271423e-01 5.220533534884452820e-02 -1.840342395007610321e-02 1.113105341792106628e-01 -7.294795662164688110e-02 -3.448739275336265564e-02 -1.630403995513916016e-01 8.146250620484352112e-03 -3.489998355507850647e-02 9.560226649045944214e-02 6.167583167552947998e-02 -2.005083262920379639e-01 2.394580049440264702e-03 1.092103123664855957e-01 -8.954931399784982204e-05 3.227645158767700195e-02 -2.137756496667861938e-01 2.406266927719116211e-01 -5.321810021996498108e-02 -7.509731501340866089e-02 -1.212558671832084656e-01 6.934689730405807495e-02 8.212854713201522827e-02 6.409781984984874725e-03 -1.036694571375846863e-01 6.562443822622299194e-02 -1.976864039897918701e-02 -1.037820726633071899e-01 3.817301243543624878e-02 4.269052296876907349e-02 3.964233770966529846e-02 -8.576335012912750244e-02 -2.061160802841186523e-01 1.473999470472335815e-01 -2.805890142917633057e-02 3.707822412252426147e-02 -6.879043579101562500e-02 -1.175081077963113785e-02 1.288713216781616211e-01 -1.386162340641021729e-01 -7.198517024517059326e-02 -1.182568445801734924e-01 4.854448139667510986e-03 -5.792948603630065918e-02 -7.892640680074691772e-02 -2.635303437709808350e-01 -3.738906234502792358e-02 -8.527988684363663197e-04 -1.693797707557678223e-01 3.474855422973632812e-02 -1.415432197973132133e-03 8.429361134767532349e-02 -1.659202426671981812e-01 -1.402967572212219238e-01 1.506317500025033951e-02 6.389996409416198730e-02 -1.068520694971084595e-01 -2.509556114673614502e-01 7.933399826288223267e-02 1.406472176313400269e-01 7.861582934856414795e-02 6.325171887874603271e-02 6.850368529558181763e-02 1.000712290406227112e-01 4.741491004824638367e-02 -1.624228209257125854e-01 -2.200785279273986816e-01 5.398526415228843689e-02 5.222019925713539124e-02 -5.016341805458068848e-02 -4.295448958873748779e-02 -9.938819706439971924e-02 1.206807140260934830e-02 -7.388795912265777588e-02 1.258431822061538696e-01 6.232896074652671814e-02 -2.040296792984008789e-02 -1.195133477449417114e-01
6.854792684316635132e-02 1.402719505131244659e-02 7.269175723195075989e-03 5.150368064641952515e-02 -5.664375051856040955e-02 -2.403691858053207397e-01 -3.445284068584442139e-01 -5.021062865853309631e-02 -2.622158825397491455e-01 -3.164492249488830566e-01 -1.105550676584243774e-01 1.504546403884887695e-01 -8.975584805011749268e-02 -1.639815866947174072e-01 6.388763338327407837e-02 -3.171352297067642212e-02 -8.029260486364364624e-02 1.891735047101974487e-01 -3.834939375519752502e-02 8.963013440370559692e-02 1.322193592786788940e-01 -3.533010184764862061e-01 9.690131247043609619e-02 1.360378507524728775e-02 -1.165966410189867020e-02 2.712015509605407715e-01 5.264924373477697372e-03 -8.838573843240737915e-02 -1.544911414384841919e-02 -4.145964384078979492e-01 -9.149265289306640625e-02 -7.964831590652465820e-02 -1.386433988809585571e-01 -1.863939315080642700e-01 4.164900258183479309e-02 4.292309284210205078e-02 -5.406421795487403870e-02 -3.147138059139251709e-01 -1.204642504453659058e-01 -1.214003562927246094e-01 -6.739047169685363770e-02 3.769294321537017822e-01 4.864331334829330444e-03 -1.500079929828643799e-01 3.013395890593528748e-02 1.873251982033252716e-02 -1.618713736534118652e-01 2.195605821907520294e-02 3.404751420021057129e-02 9.071075171232223511e-02 4.079902917146682739e-02 2.099920660257339478e-01 2.811484038829803467e-02 -2.428500540554523468e-02 1.145513076335191727e-02 2.163204364478588104e-02 1.808429509401321411e-02 6.154508143663406372e-02 -1.892150640487670898e-01 1.104306355118751526e-01 -5.257468670606613159e-02 -3.632093593478202820e-02 3.589288517832756042e-02 1.685886830091476440e-01 1.191736832261085510e-01 -8.892576396465301514e-02 1.308341324329376221e-01 -2.453625202178955078e-01 1.647525280714035034e-01 -1.099506616592407227e-01 -3.471850976347923279e-02 -2.084303349256515503e-01 3.816984221339225769e-02 7.544159889221191406e-02 -4.694907367229461670e-01 -5.447400361299514771e-02 1.220930814743041992e-01 -2.285577170550823212e-02 -2.022563964128494263e-01 -6.890362501144409180e-02 7.399086654186248779e-02 -1.068293005228042603e-01 -3.822723776102066040e-02 -2.651011347770690918e-01 6.369489431381225586e-02 -5.053437501192092896e-02 3.249621018767356873e-02 -1.427149176597595215e-01 -2.156172096729278564e-01 -1.382030546665191650e-01 -3.190201148390769958e-02 2.524061799049377441e-01 -3.102723658084869385e-01 -8.594331145286560059e-02 -1.531004607677459717e-01 -2.164787352085113525e-01 -1.764042377471923828e-01 -1.555952359922230244e-03 5.570182576775550842e-02 5.364728346467018127e-02 1.163602918386459351e-01 1.298792473971843719e-02 4.279101639986038208e-02 -4.753497987985610962e-02 5.794351920485496521e-02 -5.329403653740882874e-02 -4.037347435951232910e-01 -8.147998899221420288e-02 -1.169282868504524231e-01 -1.766570508480072021e-01 -1.763250380754470825e-01 2.510986626148223877e-01 -1.557249724864959717e-01 -1.716998815536499023e-01 -3.014305979013442993e-02 2.776329778134822845e-02 1.850974112749099731e-01 7.029986381530761719e-02 -5.813700333237648010e-02 -1.816275566816329956e-01 -4.906109720468521118e-02 -7.391751557588577271e-02 -1.226786300539970398e-01 -1.812851876020431519e-01 -2.474858164787292480e-01 1.005492731928825378e-01 -1.143867000937461853e-01 2.559067867696285248e-02 -1.226907745003700256e-01 -5.322986841201782227e-02 7.592624425888061523e-02 1.186983361840248108e-01 -1.053971499204635620e-01 -1.794205456972122192e-01 -4.650282859802246094e-02 1.589300483465194702e-01 1.207663193345069885e-01 9.742179512977600098e-02 1.022555083036422729e-01 -3.152520954608917236e-01 -9.461141377687454224e-02 -1.081418991088867188e-01 1.277539581060409546e-01 3.776551038026809692e-02 -5.788719654083251953e-02 1.704127341508865356e-01 -1.292237639427185059e-01 -5.360820516943931580e-02 -3.810657188296318054e-02 2.818102203309535980e-02 -1.170107200741767883e-01 -9.705629944801330566e-02 3.505759313702583313e-02 -2.162994742393493652e-01 8.074264973402023315e-03 7.001103460788726807e-02 3.964708745479583740e-02 -1.826498657464981079e-01 8.607892692089080811e-02 -5.202639382332563400e-03 -1.515922844409942627e-01 1.688639458734542131e-04 -8.102583140134811401e-02 -3.007106482982635498e-01 -4.359998926520347595e-02 3.123487718403339386e-02 -6.239399686455726624e-02 2.728332281112670898e-01 -2.298596203327178955e-01 -2.930777706205844879e-02 -2.462085336446762085e-01 -1.120676323771476746e-01 -1.053401082754135132e-01 8.274588733911514282e-02 -1.484705805778503418e-01 3.019189275801181793e-02 -1.206438336521387100e-02 1.426540315151214600e-01 4.470517113804817200e-02 -5.251952260732650757e-02 9.331770241260528564e-02 -1.302054971456527710e-01 -1.523877028375864029e-02 8.442831039428710938e-02 -3.866883739829063416e-02 -3.205026313662528992e-02 -2.433597296476364136e-01 1.153906583786010742e-01 -1.429575234651565552e-01 -5.337537825107574463e-02 -2.011536508798599243e-01 3.472609072923660278e-02 1.233818475157022476e-02 8.291119337081909180e-02 8.811567723751068115e-02 3.514302195981144905e-03 4.664833843708038330e-02 -6.024756655097007751e-02 4.145741090178489685e-02 -9.091976284980773926e-02 7.906037569046020508e-02 9.276584722101688385e-03 4.021397978067398071e-02 -6.357017904520034790e-02 -1.437840908765792847e-01 -5.529121030122041702e-03 -4.025719314813613892e-02 -3.236306309700012207e-01 2.238631397485733032e-01 -7.891330868005752563e-03 -8.735160529613494873e-02 -2.105416059494018555e-01 -1.211712360382080078e-01 -9.428974241018295288e-02 -1.457887049764394760e-02 -1.059221327304840088e-01 -1.416475623846054077e-01 -7.241957634687423706e-02 -1.554089784622192383e-01 1.235450133681297302e-01 2.046039514243602753e-02 -1.119047403335571289e-01 9.234270453453063965e-02 8.418783545494079590e-02 -1.288445740938186646e-01 -2.202082425355911255e-01 -4.233176261186599731e-02 3.952789306640625000e-02 4.337986465543508530e-03 7.569535635411739349e-03 -5.393173173069953918e-02 -3.962951526045799255e-02 -2.320017963647842407e-01 -2.660751044750213623e-01 -1.736706048250198364e-01 -7.454296201467514038e-02 -1.977612636983394623e-02 5.744165182113647461e-02 -6.954536586999893188e-02 -1.748930513858795166e-01 -3.647618293762207031e-01 2.199073135852813721e-01 -1.261447370052337646e-01 2.056834250688552856e-01 -1.190189868211746216e-01 -8.604532480239868164e-02 -1.650898307561874390e-01 -1.292686313390731812e-01 2.815121319144964218e-03 1.433756649494171143e-01 7.099703699350357056e-02 -2.261107414960861206e-01 1.535149067640304565e-01 -1.880838572978973389e-01 -1.559959799051284790e-01 -1.894439607858657837e-01
-9.848892688751220703e-02 3.189365565776824951e-02 1.984300650656223297e-02 -9.727400541305541992e-02 1.464950758963823318e-02 -9.278383105993270874e-03 -1.323534362018108368e-02 5.911366641521453857e-02 7.102856040000915527e-02 -1.158832535147666931e-01 -2.309413999319076538e-02 -3.246547654271125793e-02 -5.511831119656562805e-02 -5.937385186553001404e-02 -3.005535714328289032e-02 7.803499232977628708e-03 -3.041431866586208344e-02 2.565687894821166992e-01 -4.846705496311187744e-02 -2.675168216228485107e-01 -3.204615786671638489e-02 8.298928290605545044e-02 -7.404357939958572388e-02 1.318328380584716797e-01 -3.037160029634833336e-03 4.022303968667984009e-02 -4.735045135021209717e-02 -3.128223121166229248e-01 -3.440335765480995178e-02 4.247930273413658142e-02 -1.326923910528421402e-02 7.451214641332626343e-02 3.804036974906921387e-02 2.389446049928665161e-01 -2.119972705841064453e-01 2.124368585646152496e-02 1.340663712471723557e-02 7.573838531970977783e-02 -2.128352783620357513e-02 3.714272379875183105e-02 1.039912700653076172e-01 1.051839068531990051e-01 -4.849157109856605530e-02 2.538406103849411011e-02 2.256749384105205536e-02 8.168367296457290649e-02 9.156808257102966309e-02 3.807468339800834656e-02 -1.036753877997398376e-01 3.147927671670913696e-02 -1.439900547266006470e-01 -3.720814734697341919e-02 -5.829375237226486206e-02 2.034908682107925415e-01 -6.178686395287513733e-02 2.277680113911628723e-02 7.716540247201919556e-02 6.074464879930019379e-03 -1.895565688610076904e-01 -8.921239525079727173e-02 -2.362100593745708466e-02 5.544660612940788269e-02 1.160923484712839127e-02 1.232191622257232666e-01 1.673460192978382111e-02 8.936174958944320679e-02 8.694432675838470459e-02 -1.458987444639205933e-01 1.015209108591079712e-01 -1.346037983894348145e-01 -8.251472562551498413e-02 -3.177020931616425514e-03 7.483115047216415405e-02 1.609610021114349365e-01 -5.825763940811157227e-02 -1.612696796655654907e-01 -1.193513944745063782e-01 -5.894893780350685120e-02 -9.430283308029174805e-02 9.062096476554870605e-02 1.038178130984306335e-01 -9.727351367473602295e-02 1.030671969056129456e-01 8.887781947851181030e-02 -5.621242150664329529e-02 -3.958797827363014221e-02 -2.809790335595607758e-02 1.417916640639305115e-02 -6.196311116218566895e-02 -7.855051010847091675e-02 -9.689053893089294434e-02 5.893531814217567444e-02 -1.244868431240320206e-02 7.362354546785354614e-02 -1.857444047927856445e-01 5.332256108522415161e-02 1.715931110084056854e-02 1.219014599919319153e-01 2.711685560643672943e-02 -3.536486923694610596e-01 7.101377099752426147e-02 1.126474663615226746e-01 1.337049305438995361e-01 -1.602558344602584839e-01 -4.267813265323638916e-02 2.952987849712371826e-01 1.170392706990242004e-01 4.634830169379711151e-03 -3.623988851904869080e-02 -2.925595454871654510e-02 -3.198813498020172119e-01 2.248338907957077026e-01 -2.142421603202819824e-01 4.396640509366989136e-02 2.673256397247314453e-02 -1.303126104176044464e-02 5.848424881696701050e-02 1.189141571521759033e-01 4.782449454069137573e-02 1.112910732626914978e-01 1.239256709814071655e-01 -1.704235225915908813e-01 -9.396547451615333557e-03 -1.541024446487426758e-01 1.284040510654449463e-01 8.452979475259780884e-02 -1.511573046445846558e-01 -1.230435371398925781e-01 -2.131822854280471802e-01 -6.921373773366212845e-03 -1.758020222187042236e-01 -1.449944227933883667e-01 9.164843708276748657e-03 1.778776347637176514e-01 2.033938169479370117e-01 8.887529373168945312e-02 1.450083702802658081e-01 1.552647650241851807e-01 -1.384938508272171021e-01 1.517122518271207809e-02 1.609384454786777496e-02 5.135152023285627365e-03 -3.076794743537902832e-02 2.163551598787307739e-01 -2.847955226898193359e-01 3.212696686387062073e-02 -7.582035660743713379e-02 1.364265196025371552e-02 1.061650142073631287e-01 -5.896701663732528687e-02 -5.060204770416021347e-03 1.239228397607803345e-01 1.331573128700256348e-01 -1.824591457843780518e-01 2.852995647117495537e-03 -8.846893906593322754e-02 -1.831794828176498413e-01 -3.902522101998329163e-02 4.215067625045776367e-02 -4.560567066073417664e-02 -1.446993201971054077e-01 -1.083761304616928101e-01 -1.804800517857074738e-02 -3.700201511383056641e-01 1.315314173698425293e-01 -4.041127115488052368e-02 -9.466329589486122131e-03 -1.021416783332824707e-01 -8.392838388681411743e-02 1.367895305156707764e-02 -1.230168938636779785e-01 7.318282127380371094e-02 2.167433267459273338e-03 3.273840248584747314e-02 -1.096550971269607544e-01 1.272193342447280884e-01 4.757141694426536560e-02 -8.540332317352294922e-02 2.939749509096145630e-02 7.513666152954101562e-02 1.762258559465408325e-01 -9.381607919931411743e-02 2.250621095299720764e-02 -3.622333332896232605e-02 1.234990805387496948e-01 9.401518851518630981e-03 -7.334914803504943848e-02 3.920300304889678955e-02 -2.224900871515274048e-01 -1.303429808467626572e-02 4.672428965568542480e-02 -1.239342091139405966e-04 -6.100101023912429810e-02 5.861218646168708801e-02 2.988331392407417297e-02 1.577599197626113892e-01 -2.021402716636657715e-01 -6.592062860727310181e-02 -2.527939714491367340e-02 3.417262062430381775e-02 -2.308729887008666992e-01 -9.516960941255092621e-03 6.214290857315063477e-02 -1.812340877950191498e-02 -2.110313028097152710e-01 9.205421805381774902e-02 -6.437020748853683472e-02 1.176012009382247925e-01 -3.372399210929870605e-01 -5.042572692036628723e-02 -1.149216946214437485e-02 8.597061969339847565e-03 -3.020568192005157471e-02 3.469982743263244629e-02 1.944308914244174957e-02 -7.253018021583557129e-02 -1.041335090994834900e-01 1.151073202490806580e-01 7.782359421253204346e-02 1.620128601789474487e-01 -7.665527611970901489e-02 -6.626150012016296387e-02 6.599186360836029053e-02 1.549503058195114136e-01 -4.463637247681617737e-02 9.425217658281326294e-02 -3.714120388031005859e-02 1.928746849298477173e-01 1.083343103528022766e-01 1.923735886812210083e-01 3.099638968706130981e-02 2.204508334398269653e-01 -5.155336484313011169e-02 -1.560061722993850708e-01 2.517627738416194916e-02 8.005329966545104980e-02 1.746968328952789307e-01 3.278447315096855164e-02 -3.406266495585441589e-02 8.886154741048812866e-02 -1.168369129300117493e-01 1.283826529979705811e-01 1.301449835300445557e-01 5.902545526623725891e-02 -1.136690229177474976e-01 5.680525675415992737e-02 -1.068639755249023438e-01 -1.108103692531585693e-01 -1.746842116117477417e-01 -1.154910475015640259e-01 1.259646415710449219e-01 1.589136421680450439e-01 3.994882851839065552e-02 -2.308843582868576050e-01 -6.078939139842987061e-02 -1.643307320773601532e-02
-1.030332595109939575e-01 -2.901059016585350037e-02 -7.508190721273422241e-02 -1.891475468873977661e-01 1.380365192890167236e-01 -1.147639974951744080e-01 -8.665741235017776489e-02 -5.067630112171173096e-02 2.722861059010028839e-02 -1.050517708063125610e-01 -7.484748959541320801e-02 -2.883308567106723785e-03 -7.412908971309661865e-02 -5.276709794998168945e-02 1.193767599761486053e-02 -7.900020480155944824e-02 -8.486712351441383362e-03 1.831778208725154400e-03 1.289387047290802002e-01 -1.568356454372406006e-01 5.674699693918228149e-02 2.547994442284107208e-02 1.161545794457197189e-02 2.710442058742046356e-02 -3.837589174509048462e-02 -1.362931877374649048e-01 2.960390225052833557e-02 -9.438618272542953491e-02 -8.765187114477157593e-02 1.175137832760810852e-01 7.549769431352615356e-02 6.159347295761108398e-02 -1.354969590902328491e-01 8.634462207555770874e-02 -4.192759841680526733e-02 1.726652532815933228e-01 2.095324099063873291e-01 -3.056679293513298035e-02 4.972241446375846863e-02 5.398480221629142761e-02 1.985261589288711548e-02 -1.000369563698768616e-01 2.081707306206226349e-02 1.368130892515182495e-01 1.177492663264274597e-01 1.044403016567230225e-01 4.523796960711479187e-02 7.687461376190185547e-02 -7.695183157920837402e-02 -1.427256613969802856e-01 -2.719597704708576202e-02 6.391905993223190308e-02 5.334347859025001526e-02 2.461378648877143860e-02 -6.661245226860046387e-02 2.187341004610061646e-01 -1.728772819042205811e-01 -1.080507785081863403e-01 -2.428156323730945587e-02 -3.819791972637176514e-02 6.368979811668395996e-03 6.556020677089691162e-02 -3.861980221699923277e-04 1.287693437188863754e-02 -8.310998231172561646e-02 -1.203920841217041016e-01 1.215384900569915771e-01 -1.074421480298042297e-01 7.255556434392929077e-02 -1.777752302587032318e-02 -1.054079458117485046e-02 1.516188681125640869e-01 3.419523313641548157e-02 -9.628237783908843994e-02 1.689189821481704712e-01 5.316817387938499451e-02 1.656738808378577232e-03 1.124998852610588074e-01 -1.036065593361854553e-01 2.076536118984222412e-01 2.236278541386127472e-02 9.467473719269037247e-04 5.440063774585723877e-02 9.965574741363525391e-02 1.521745771169662476e-01 2.378524541854858398e-01 5.323449522256851196e-02 1.591270267963409424e-01 -1.471178885549306870e-02 -3.609793633222579956e-02 -4.335847124457359314e-02 -1.200225129723548889e-01 7.029645144939422607e-02 -4.416619613766670227e-02 9.778259694576263428e-02 9.294066578149795532e-02 5.255873873829841614e-02 7.863713055849075317e-02 1.608463190495967865e-02 -2.469946444034576416e-01 1.071338281035423279e-01 1.068566739559173584e-01 -1.386912465095520020e-01 -5.733788385987281799e-02 4.162286967039108276e-02 6.334832310676574707e-02 -1.202867459505796432e-02 1.393488496541976929e-01 9.122062474489212036e-02 1.783751994371414185e-01 -1.062051430344581604e-01 -1.514381766319274902e-01 1.114319860935211182e-01 -4.226201400160789490e-02 -9.030748903751373291e-02 -3.339423984289169312e-02 5.984351783990859985e-02 -3.240589052438735962e-02 2.167663127183914185e-01 1.115307118743658066e-02 2.176074832677841187e-01 8.394362404942512512e-03 7.939530909061431885e-02 1.326133608818054199e-01 1.194747611880302429e-01 1.070365086197853088e-01 -5.931890383362770081e-02 -1.126081272959709167e-01 -1.913945376873016357e-02 5.531468987464904785e-02 6.642052531242370605e-02 -6.186076253652572632e-02 -1.396824270486831665e-01 3.197846561670303345e-02 -1.776062399148941040e-01 1.182336360216140747e-01 4.658909514546394348e-02 -4.843301139771938324e-04 9.110369533300399780e-02 -3.545464575290679932e-02 -4.198709502816200256e-02 4.942147806286811829e-02 9.398429840803146362e-02 1.516914516687393188e-01 -1.888985633850097656e-01 -2.787585929036140442e-02 -4.399670660495758057e-02 -2.519327215850353241e-02 -4.442715644836425781e-02 2.748975157737731934e-02 1.163791939616203308e-01 -1.648119650781154633e-02 -1.869306564331054688e-01 -1.852029375731945038e-02 1.474072597920894623e-02 -5.901486054062843323e-02 1.178275560960173607e-03 7.086357567459344864e-03 -2.580740153789520264e-01 1.457454860210418701e-01 2.612430974841117859e-02 -2.732621505856513977e-02 1.428499519824981689e-01 8.575952798128128052e-02 3.737271949648857117e-02 1.388115584850311279e-01 -1.499506980180740356e-01 -9.981828741729259491e-03 -1.878350414335727692e-02 -1.156176328659057617e-01 -8.791529387235641479e-02 -8.634826168417930603e-03 -4.379221424460411072e-02 1.002027001231908798e-02 -5.900995433330535889e-02 -5.438283830881118774e-02 -1.842250861227512360e-02 -1.978509128093719482e-01 3.578472509980201721e-02 1.292593777179718018e-01 2.686600200831890106e-02 -6.874648481607437134e-02 -2.734057903289794922e-01 -1.998643577098846436e-02 -2.728524990379810333e-02 -2.418359555304050446e-02 -9.316599369049072266e-02 -1.982074230909347534e-01 -1.176758632063865662e-01 7.245003432035446167e-02 -1.527906581759452820e-02 -5.880370270460844040e-03 2.258653566241264343e-02 8.959063142538070679e-02 8.842039853334426880e-02 -2.053006179630756378e-02 -3.306557983160018921e-02 2.421458214521408081e-01 -7.681780308485031128e-02 -1.027772575616836548e-01 -3.066695109009742737e-02 -1.661894470453262329e-01 2.645017206668853760e-02 4.870851337909698486e-02 9.710212796926498413e-02 -4.978286102414131165e-02 -3.741960972547531128e-02 -7.101812213659286499e-02 -8.516003936529159546e-02 5.430400371551513672e-03 -6.064390018582344055e-02 1.818637549877166748e-01 -4.011596739292144775e-02 -5.670443177223205566e-02 9.250193089246749878e-02 -8.100780658423900604e-03 -4.123350232839584351e-02 -4.667525365948677063e-02 -1.155209243297576904e-01 -3.946362063288688660e-02 -2.514662407338619232e-02 6.209659576416015625e-02 3.472454100847244263e-02 2.283562421798706055e-01 -3.166455402970314026e-02 3.586545586585998535e-02 5.775692686438560486e-02 -3.668059036135673523e-02 6.872346997261047363e-02 -9.254802018404006958e-02 -7.974146306514739990e-02 3.994496166706085205e-02 1.011128500103950500e-01 6.292001809924840927e-03 1.537019759416580200e-01 -5.531525239348411560e-03 -1.575647443532943726e-01 5.040416866540908813e-02 -2.688213996589183807e-02 6.618748605251312256e-02 -1.125602424144744873e-01 -7.969603687524795532e-02 5.862876400351524353e-02 7.058184593915939331e-02 1.463807374238967896e-02 -9.666507691144943237e-02 -2.878255210816860199e-02 9.277203679084777832e-02 -9.478766471147537231e-03 6.385114043951034546e-03 7.829777151346206665e-02 1.021647453308105469e-01 4.617771506309509277e-02 3.089173696935176849e-02 -8.194986730813980103e-02 2.487439289689064026e-02
1.026076152920722961e-01 1.168062239885330200e-01 8.244021236896514893e-02 -1.437256038188934326e-01 -8.877424895763397217e-02 -2.018574811518192291e-02 -3.785859644412994385e-01 -9.244101494550704956e-02 9.790496528148651123e-02 -7.038804143667221069e-02 -3.141139075160026550e-02 7.716150581836700439e-02 -1.247526425868272781e-02 -8.075608313083648682e-02 -8.840440958738327026e-02 1.969221606850624084e-02 -1.039644554257392883e-01 -2.719865739345550537e-02 8.432316593825817108e-03 -3.972806930541992188e-01 1.799785047769546509e-01 1.474088430404663086e-01 -1.667161285877227783e-01 -6.524647772312164307e-02 -2.487124502658843994e-02 5.725251883268356323e-02 -1.640881150960922241e-01 5.509059876203536987e-03 -1.556719988584518433e-01 -1.027885265648365021e-02 9.101431816816329956e-02 -4.006377980113029480e-02 -1.193754673004150391e-01 -1.757336035370826721e-02 -2.841472625732421875e-01 -7.002412807196378708e-03 7.737945299595594406e-03 1.170894056558609009e-01 3.138805739581584930e-03 2.930096089839935303e-01 -4.404909536242485046e-02 -4.706040490418672562e-03 -4.780374094843864441e-02 -2.732188440859317780e-02 -1.900903284549713135e-01 -1.626386344432830811e-01 -4.570606630295515060e-03 -2.133658714592456818e-02 -3.225413337349891663e-02 -1.319146752357482910e-01 8.989705890417098999e-02 8.031942695379257202e-02 -8.657366037368774414e-02 -2.856702357530593872e-02 -1.273514353670179844e-03 2.311156503856182098e-02 -1.710968762636184692e-01 2.944838069379329681e-02 1.650885045528411865e-01 -1.267216950654983521e-01 3.331149229779839516e-03 -5.285725463181734085e-03 2.576410397887229919e-02 -5.282871425151824951e-02 -1.217265129089355469e-01 -1.063674017786979675e-01 -3.833990544080734253e-02 -3.259368473663926125e-03 2.367479912936687469e-02 1.542399525642395020e-01 -7.404004689306020737e-03 -1.400821208953857422e-01 1.189489215612411499e-01 -1.099193021655082703e-01 -2.307975105941295624e-02 -4.509869217872619629e-02 -6.790018081665039062e-02 2.687115781009197235e-02 7.990863174200057983e-02 -4.016963392496109009e-02 -1.951829344034194946e-01 8.947093039751052856e-03 -7.275139540433883667e-02 1.080957651138305664e-01 -1.551232188940048218e-01 -8.275533467531204224e-02 6.775821745395660400e-02 -2.809552848339080811e-02 -3.665750101208686829e-02 -1.173550076782703400e-02 4.027882590889930725e-02 -1.851774454116821289e-01 -1.555015798658132553e-02 1.546346694231033325e-01 2.526227831840515137e-01 4.503734782338142395e-02 -9.553220123052597046e-02 -2.093761786818504333e-02 3.562054783105850220e-02 -2.856675982475280762e-01 -1.080225929617881775e-01 -6.986457109451293945e-02 -9.193955361843109131e-02 2.404260188341140747e-01 1.423594802618026733e-01 5.101086944341659546e-02 -2.097804471850395203e-02 -7.795128971338272095e-02 6.214260682463645935e-02 1.044227704405784607e-01 -2.651477456092834473e-01 2.123427577316761017e-02 -9.660734236240386963e-02 -5.100081488490104675e-02 -1.973491758108139038e-01 1.076681911945343018e-01 7.231208682060241699e-02 -2.093413174152374268e-01 -3.046862483024597168e-01 -1.666915975511074066e-02 4.176302626729011536e-02 -3.168792277574539185e-02 -6.658836454153060913e-02 1.252242028713226318e-01 3.569004684686660767e-02 1.626734137535095215e-01 -1.942669600248336792e-01 1.143203955143690109e-02 -1.973834037780761719e-01 -8.258128911256790161e-02 -1.295095589011907578e-02 3.138500452041625977e-02 -7.684072107076644897e-02 -1.793302744626998901e-01 9.910362213850021362e-02 -4.940620437264442444e-02 2.472963742911815643e-02 -2.275246530771255493e-01 2.053703516721725464e-01 -1.406314373016357422e-01 -3.641165792942047119e-02 1.627579331398010254e-01 -2.303282171487808228e-01 -7.096194475889205933e-02 3.531178832054138184e-02 2.543632872402667999e-02 -2.432705461978912354e-01 -2.206366360187530518e-01 -1.127451509237289429e-01 -2.156963013112545013e-02 6.351370364427566528e-02 -4.161065444350242615e-02 1.622963249683380127e-01 -3.287243247032165527e-01 -2.733196616172790527e-01 -1.701941639184951782e-01 -1.066421717405319214e-01 -2.207574397325515747e-01 -5.675019696354866028e-02 2.808925323188304901e-02 -1.591123491525650024e-01 6.056711077690124512e-02 -1.468146741390228271e-01 2.448061294853687286e-02 -1.077610179781913757e-01 1.449576392769813538e-02 -1.371901929378509521e-01 5.838210508227348328e-02 -8.251007646322250366e-02 -5.104104429483413696e-02 -1.978090852499008179e-01 -5.433889105916023254e-02 -1.418840587139129639e-01 -7.338976114988327026e-02 -2.366548404097557068e-02 1.261926628649234772e-02 2.255262881517410278e-01 -2.365389168262481689e-01 -2.123066410422325134e-02 -1.374857425689697266e-01 -1.041090041399002075e-01 -2.259945571422576904e-01 -4.629842471331357956e-03 6.362288445234298706e-02 1.567345261573791504e-01 6.400529295206069946e-02 9.058442711830139160e-02 9.292665868997573853e-02 5.603832006454467773e-02 -9.771594405174255371e-02 6.407451815903186798e-03 -4.713352397084236145e-02 1.303325146436691284e-01 -1.302847117185592651e-01 -6.770807504653930664e-02 2.642345055937767029e-02 -3.071886894758790731e-04 1.019844561815261841e-01 -7.827299647033214569e-03 -3.594515845179557800e-02 -5.291793122887611389e-02 -1.906333565711975098e-01 2.560991644859313965e-01 1.203838270157575607e-02 -2.424687296152114868e-01 -7.281702756881713867e-02 -9.865550696849822998e-02 3.626045584678649902e-02 -1.580047756433486938e-01 2.270705103874206543e-01 2.875987906008958817e-03 -9.315902739763259888e-02 4.708932712674140930e-02 8.095347136259078979e-02 -6.969037652015686035e-02 9.883403033018112183e-02 -1.099024247378110886e-02 -4.382061958312988281e-02 -3.738839179277420044e-02 -1.028430983424186707e-01 -5.731929838657379150e-02 6.824650615453720093e-02 -7.920157164335250854e-02 -8.737940341234207153e-02 -1.206960435956716537e-02 1.175205260515213013e-01 8.774823695421218872e-02 5.807824805378913879e-02 3.308238461613655090e-02 -3.033087821677327156e-03 -4.059221968054771423e-02 -1.207391470670700073e-01 -1.005963161587715149e-01 3.543373942375183105e-02 6.792660802602767944e-02 2.043740451335906982e-01 -1.006366387009620667e-01 -3.958978876471519470e-02 7.770045101642608643e-02 9.018901735544204712e-02 -1.359462738037109375e-01 3.974837064743041992e-02 8.848716318607330322e-02 -2.323606610298156738e-01 1.060081198811531067e-01 -2.211168967187404633e-02 -1.727042794227600098e-01 -9.223684668540954590e-02 3.680090978741645813e-02 -8.196467161178588867e-02 -8.317045122385025024e-02 -2.309108525514602661e-02 4.394013900309801102e-03 -1.688629686832427979e-01 1.130539998412132263e-01 -1.000932604074478149e-01
-5.660568922758102417e-02 -2.405577600002288818e-01 -2.101402282714843750e-01 5.377798900008201599e-02 8.531054109334945679e-02 -7.578691095113754272e-02 -2.141423821449279785e-01 1.312539912760257721e-02 -1.211071833968162537e-01 -6.720387935638427734e-02 9.466289193369448185e-04 2.864405699074268341e-02 7.781107723712921143e-02 2.824033610522747040e-02 -4.157872125506401062e-02 1.999100297689437866e-01 -2.988973632454872131e-02 -1.279103383421897888e-02 4.814362898468971252e-02 -9.511305391788482666e-02 5.007969215512275696e-02 -2.458701878786087036e-01 2.453102916479110718e-02 2.037494070827960968e-02 1.413290202617645264e-01 -1.644064188003540039e-01 -1.280552148818969727e-01 -2.061352431774139404e-01 4.740844294428825378e-02 1.109296754002571106e-01 -7.785474509000778198e-02 6.360068917274475098e-02 1.535753309726715088e-01 6.252787262201309204e-02 6.399592012166976929e-02 -1.066903322935104370e-01 1.806332468986511230e-01 1.458568871021270752e-01 2.869333513081073761e-02 -1.629663705825805664e-01 1.726945489645004272e-02 -2.276480011641979218e-02 6.354550272226333618e-02 -4.651113599538803101e-02 2.036588490009307861e-01 6.078480929136276245e-02 2.128259539604187012e-01 1.191047392785549164e-02 1.134459525346755981e-01 -2.236278355121612549e-02 -9.024488925933837891e-02 -6.563893985003232956e-03 3.124300949275493622e-02 -4.907592013478279114e-02 4.367039725184440613e-02 -1.359832584857940674e-01 -1.943277381360530853e-02 -2.056104317307472229e-02 -1.197612658143043518e-01 -4.615040495991706848e-02 -1.911447197198867798e-02 1.311911195516586304e-01 2.757100202143192291e-02 5.850016325712203979e-02 -9.488896280527114868e-02 1.019902527332305908e-02 -1.189116667956113815e-02 1.154215186834335327e-01 1.075749695301055908e-01 -3.178103864192962646e-01 9.501785039901733398e-02 1.656729727983474731e-02 1.744461804628372192e-01 -1.575889252126216888e-02 1.255608946084976196e-01 6.034900620579719543e-02 -1.391857713460922241e-01 8.017607033252716064e-03 -4.582234472036361694e-02 2.089401185512542725e-01 -1.209956407546997070e-01 -3.020403683185577393e-01 9.505860507488250732e-03 5.295107886195182800e-02 -4.842823743820190430e-02 1.072040665894746780e-02 2.339421510696411133e-01 -7.951711863279342651e-02 -7.691976428031921387e-02 -4.607505351305007935e-02 1.139314994215965271e-01 2.507232129573822021e-02 8.478055894374847412e-02 -7.509849965572357178e-03 7.155200093984603882e-02 4.009136185050010681e-02 -6.222493201494216919e-02 -8.935417979955673218e-02 -3.114649653434753418e-02 -1.885013580322265625e-01 -5.842328071594238281e-02 -9.996221400797367096e-03 -2.250336855649948120e-01 -2.495038807392120361e-01 5.109746125526726246e-04 1.704780012369155884e-01 -5.703504756093025208e-02 1.362451463937759399e-01 7.294227182865142822e-02 -5.297390744090080261e-02 -1.291382312774658203e-01 2.081068232655525208e-02 2.274166094139218330e-03 2.577120251953601837e-02 1.104228273034095764e-01 3.702260926365852356e-02 -7.385122030973434448e-02 -8.043316006660461426e-02 -1.305401921272277832e-01 -2.812914922833442688e-02 -8.766624331474304199e-02 4.632259905338287354e-02 -1.948825418949127197e-01 1.608527079224586487e-02 1.853154152631759644e-01 7.918905466794967651e-02 -3.379348292946815491e-02 1.579880341887474060e-02 6.647902727127075195e-02 -9.080909937620162964e-02 -5.426366254687309265e-02 -1.214351356029510498e-01 -3.196430951356887817e-02 1.736024916172027588e-01 2.000464349985122681e-01 2.535790437832474709e-03 1.616075187921524048e-01 -9.650550782680511475e-02 -3.303590416908264160e-02 2.953112497925758362e-02 5.009597912430763245e-02 6.560430675745010376e-02 -1.314959675073623657e-01 9.469138830900192261e-02 -7.749619544483721256e-04 1.131269708275794983e-01 -2.412544330582022667e-03 8.473388105630874634e-02 1.875567622482776642e-02 -3.129218937829136848e-03 1.547275185585021973e-01 3.605195507407188416e-02 -1.337632685899734497e-01 9.770550578832626343e-02 4.401652514934539795e-02 -1.611188948154449463e-01 -1.217075958847999573e-01 -6.632798165082931519e-02 -2.230453193187713623e-01 1.472221612930297852e-01 4.051486402750015259e-02 -2.104307264089584351e-01 1.900921165943145752e-01 -1.095332950353622437e-01 -1.961673349142074585e-01 -7.143255323171615601e-02 1.470905635505914688e-02 -1.468026041984558105e-01 -5.160968750715255737e-02 -1.388292312622070312e-01 -1.279652267694473267e-01 5.954046919941902161e-02 -1.391869038343429565e-02 -1.176594570279121399e-01 -1.117874160408973694e-01 -3.127058967947959900e-02 1.280116587877273560e-01 3.703080862760543823e-02 1.190078854560852051e-01 2.362244389951229095e-02 -1.594099700450897217e-01 -3.969477117061614990e-02 -1.033720374107360840e-01 1.004213653504848480e-02 5.553125217556953430e-02 -8.544109016656875610e-02 9.400032577104866505e-04 -1.623233705759048462e-01 -1.780045330524444580e-01 -9.117753058671951294e-02 9.179478883743286133e-02 -6.489612162113189697e-03 6.438241899013519287e-02 -7.226435840129852295e-02 1.210086271166801453e-01 1.012644916772842407e-02 -8.169028908014297485e-03 8.682115934789180756e-03 -1.331305354833602905e-01 -7.164032757282257080e-02 -1.465887874364852905e-01 1.419443823397159576e-02 1.060458198189735413e-01 -7.889501750469207764e-02 1.052035689353942871e-01 -9.188781678676605225e-02 -6.964111328125000000e-02 -8.977463096380233765e-02 -2.086256593465805054e-01 3.562755882740020752e-02 3.047914057970046997e-02 -1.385881006717681885e-02 1.120402570813894272e-02 -1.388819050043821335e-02 -1.162497624754905701e-01 -7.121171057224273682e-02 -8.246265351772308350e-02 -4.510106146335601807e-02 1.777421310544013977e-02 1.536369174718856812e-01 -8.914693444967269897e-02 -3.736154437065124512e-01 5.262034758925437927e-02 -1.587467081844806671e-02 6.130717322230339050e-02 -7.386656105518341064e-02 4.791763424873352051e-02 -5.570787470787763596e-03 -8.880849927663803101e-02 1.346831917762756348e-01 -1.882418431341648102e-02 -1.635610684752464294e-02 5.555750429630279541e-02 -1.970189251005649567e-02 1.298107057809829712e-01 -3.392087528482079506e-03 -1.726440191268920898e-01 -1.055713891983032227e-01 -2.844144105911254883e-01 2.209690362215042114e-01 -8.107052743434906006e-02 3.248933702707290649e-02 1.554757356643676758e-01 -1.612411886453628540e-01 2.712920010089874268e-01 -3.796631842851638794e-02 -1.389637589454650879e-02 -1.027004420757293701e-01 -2.833617627620697021e-01 -2.614845037460327148e-01 6.965307984501123428e-03 5.728038493543863297e-03 -1.068693399429321289e-01 3.592004626989364624e-02 3.652038425207138062e-02 1.808076649904251099e-01
-8.432085812091827393e-02 4.199865739792585373e-03 -3.603322803974151611e-02 -1.863916590809822083e-02 5.887015536427497864e-02 2.044165730476379395e-01 -1.550794858485460281e-02 -3.439101949334144592e-02 -7.732792943716049194e-02 4.827864840626716614e-02 -2.868456579744815826e-02 -1.056016683578491211e-01 1.793407797813415527e-01 -3.517071530222892761e-02 4.156742244958877563e-02 1.148888375610113144e-02 1.575726419687271118e-01 2.296162843704223633e-01 -7.029291242361068726e-02 4.691945761442184448e-02 -4.228607565164566040e-02 -2.146570533514022827e-01 4.506175220012664795e-02 -6.900440901517868042e-02 -2.082157433032989502e-01 -1.961979568004608154e-01 -2.028125338256359100e-03 2.176223993301391602e-01 1.843956857919692993e-01 -1.303445994853973389e-01 -6.993876397609710693e-02 -2.138045988976955414e-02 -7.493682205677032471e-02 -3.089602887630462646e-01 1.184232458472251892e-01 -9.230152703821659088e-03 1.005003303289413452e-01 4.909090232104063034e-03 -1.531019210815429688e-01 4.487276077270507812e-02 -2.145838290452957153e-01 1.563158631324768066e-01 3.192038089036941528e-02 1.133918948471546173e-02 2.059878036379814148e-02 -3.529633954167366028e-02 -6.548675708472728729e-03 -1.035351771861314774e-02 -4.312688112258911133e-02 -5.965352430939674377e-02 2.001029103994369507e-01 8.211361616849899292e-02 -4.127579927444458008e-02 3.386458009481430054e-02 -1.355348378419876099e-01 -4.330613091588020325e-02 -9.707403928041458130e-02 2.359828203916549683e-01 -1.000314354896545410e-01 -3.722341358661651611e-02 1.214451342821121216e-01 -7.754575461149215698e-02 -1.536736041307449341e-01 2.832126338034868240e-03 8.576996624469757080e-02 -3.074356354773044586e-02 -1.163093447685241699e-01 -1.626548320055007935e-01 1.074454858899116516e-01 1.046636030077934265e-01 9.730268269777297974e-02 1.411032583564519882e-02 -2.538019120693206787e-01 -2.827317640185356140e-02 -1.233602091670036316e-01 -2.180121093988418579e-02 -2.240348234772682190e-02 -6.965930014848709106e-02 1.604848355054855347e-01 -1.330571174621582031e-01 1.522248387336730957e-01 -5.195365753024816513e-03 8.275648951530456543e-02 9.891671687364578247e-02 6.926983594894409180e-02 -4.811077937483787537e-02 4.279468581080436707e-02 9.857425838708877563e-02 1.862169057130813599e-01 -8.194404095411300659e-02 -6.688328087329864502e-02 7.718095183372497559e-02 6.027557700872421265e-02 -1.403333097696304321e-01 -7.069559395313262939e-02 8.282758295536041260e-02 1.607613414525985718e-01 1.204589232802391052e-01 1.046126708388328552e-01 5.521329492330551147e-02 -5.419621989130973816e-02 -8.976850658655166626e-02 -9.766257554292678833e-02 -1.774142384529113770e-01 1.586249619722366333e-01 4.826766625046730042e-02 6.970620900392532349e-02 -3.876832127571105957e-02 -6.000077724456787109e-02 -3.249820694327354431e-02 -5.719199310988187790e-03 4.492258653044700623e-03 -1.465811021625995636e-02 1.110369116067886353e-01 -1.676111109554767609e-02 1.058347746729850769e-01 2.478736937046051025e-01 6.812981516122817993e-02 2.268181443214416504e-01 4.817574098706245422e-02 -4.072236269712448120e-02 -4.470227658748626709e-02 -1.120582371950149536e-01 9.222843684256076813e-03 -6.469582766294479370e-02 -4.892493039369583130e-02 8.915111422538757324e-02 4.440087452530860901e-02 7.836788147687911987e-02 1.266998145729303360e-02 1.472640186548233032e-01 1.255532503128051758e-01 1.143950074911117554e-01 -1.467796862125396729e-01 -9.903033787850290537e-05 -2.300218679010868073e-02 6.936590373516082764e-02 5.782171338796615601e-02 -2.531949803233146667e-02 6.930562108755111694e-02 -9.706103056669235229e-02 -1.968016177415847778e-01 1.349823921918869019e-01 3.344073891639709473e-02 -9.287896752357482910e-02 -3.240769356489181519e-02 -1.783062517642974854e-01 1.937377303838729858e-01 -9.616724401712417603e-02 -8.214299380779266357e-02 -1.229587662965059280e-02 -8.203865960240364075e-03 3.737043589353561401e-02 -6.274639628827571869e-03 1.623746007680892944e-01 4.825330525636672974e-02 5.827283021062612534e-04 2.411441132426261902e-02 6.576389074325561523e-02 1.446515619754791260e-01 -6.427300721406936646e-02 -1.372715178877115250e-02 -1.901679933071136475e-01 4.944404214620590210e-02 -7.302231341600418091e-02 6.264635175466537476e-02 -1.185224652290344238e-01 -2.342497557401657104e-02 6.272449344396591187e-02 -2.501639164984226227e-02 5.641732737421989441e-02 -2.061123847961425781e-01 -1.828861795365810394e-02 1.323833316564559937e-01 5.987743660807609558e-02 1.034040004014968872e-01 -5.819252878427505493e-02 -9.718270599842071533e-02 -2.234559692442417145e-02 2.821186482906341553e-01 1.695980280637741089e-01 1.121655106544494629e-01 -7.682225666940212250e-03 6.608264148235321045e-02 -2.527667209506034851e-02 -1.255740076303482056e-01 -3.447301313281059265e-02 1.707772016525268555e-01 -7.857698015868663788e-03 3.446701541543006897e-02 -6.502534449100494385e-02 -4.852171987295150757e-02 -6.767576187849044800e-02 -9.010504186153411865e-02 -2.969316951930522919e-02 -1.616761088371276855e-02 8.302730321884155273e-02 -1.004308983683586121e-01 1.120514571666717529e-01 -1.062120422720909119e-01 1.167263388633728027e-01 1.736350357532501221e-02 -1.550488770008087158e-01 1.307436078786849976e-01 1.038682311773300171e-01 1.859361529350280762e-01 5.402566865086555481e-02 -1.710264533758163452e-01 1.907763481140136719e-01 6.473350524902343750e-02 -3.719395771622657776e-02 2.434121444821357727e-02 -9.508465230464935303e-02 -3.903118520975112915e-02 -7.177050411701202393e-02 -9.856978058815002441e-02 2.545115351676940918e-02 2.592094475403428078e-03 2.090988866984844208e-02 -1.158280223608016968e-01 6.293488293886184692e-02 8.199061453342437744e-02 -1.484313979744911194e-04 1.005107909440994263e-02 6.912282109260559082e-02 1.130914613604545593e-01 -2.329126000404357910e-01 1.486684475094079971e-02 1.217056587338447571e-01 -3.757607191801071167e-02 -6.048898771405220032e-02 1.307016313076019287e-01 1.067904233932495117e-01 -5.449117347598075867e-02 -4.837200045585632324e-02 1.140041276812553406e-01 1.139787584543228149e-01 -5.207745730876922607e-02 -3.144126385450363159e-02 -1.229604706168174744e-02 2.449381053447723389e-01 5.573785305023193359e-02 1.297782957553863525e-01 1.496271491050720215e-01 -1.181114912033081055e-01 -1.581982076168060303e-01 2.010164707899093628e-01 -7.213816046714782715e-02 2.517075240612030029e-01 5.936930701136589050e-02 -1.360755227506160736e-02 -9.425313025712966919e-02 7.102733105421066284e-02 1.616512238979339600e-02 3.123948536813259125e-02 -1.852370947599411011e-01
-8.703595399856567383e-02 -2.013822942972183228e-01 -2.775424160063266754e-02 -1.061370372772216797e-01 3.254384920001029968e-02 -7.405622303485870361e-02 -7.054990530014038086e-02 1.186256110668182373e-02 1.663374602794647217e-01 -3.626060858368873596e-02 -4.165864735841751099e-02 -1.136228442192077637e-01 -1.007027626037597656e-01 1.642182022333145142e-01 5.174423381686210632e-02 5.833172425627708435e-02 -2.323126047849655151e-01 3.440979123115539551e-02 9.711879491806030273e-02 -8.636716008186340332e-02 -1.244545653462409973e-01 5.751699209213256836e-02 -4.183268174529075623e-02 7.546368520706892014e-03 3.250935673713684082e-02 -6.446903944015502930e-02 6.419774889945983887e-02 -1.698200404644012451e-02 4.083679616451263428e-02 1.684229224920272827e-01 -2.341380156576633453e-02 6.174265220761299133e-02 1.378550976514816284e-01 1.505328267812728882e-01 1.711477339267730713e-01 7.347342558205127716e-03 8.669833838939666748e-02 5.325933918356895447e-02 -6.542574614286422729e-02 -2.967251464724540710e-02 2.302933856844902039e-02 -4.250186309218406677e-02 -3.815268352627754211e-02 1.955573260784149170e-02 -1.581027209758758545e-01 -1.919523254036903381e-02 1.025233231484889984e-02 1.477873176336288452e-01 -4.340883344411849976e-02 1.639950126409530640e-01 -1.395145952701568604e-01 -1.917369291186332703e-02 -5.019207671284675598e-02 8.728682249784469604e-02 4.799235239624977112e-02 1.701870709657669067e-01 5.734451860189437866e-02 5.537237226963043213e-02 -6.966418772935867310e-02 -2.356000840663909912e-01 4.524087160825729370e-02 -1.506130993366241455e-01 -4.612918570637702942e-02 -9.273801743984222412e-02 1.492079626768827438e-02 4.120582249015569687e-03 3.527968749403953552e-02 1.465706676244735718e-01 -7.146733254194259644e-02 -1.671322584152221680e-01 1.289430353790521622e-02 -7.869467884302139282e-02 2.601584196090698242e-01 3.807388618588447571e-02 2.144699171185493469e-02 1.818382292985916138e-01 -1.495443731546401978e-01 -6.440977007150650024e-02 -1.380443274974822998e-01 2.450904063880443573e-02 3.704066202044487000e-02 -1.003340780735015869e-01 6.738378852605819702e-02 3.666539490222930908e-02 -1.062408611178398132e-01 1.144184321165084839e-01 6.978638470172882080e-02 -1.087082475423812866e-01 2.187711186707019806e-02 2.875621430575847626e-02 -1.239331997931003571e-02 7.533370982855558395e-03 -3.239996731281280518e-02 -5.982444807887077332e-02 -1.072832792997360229e-01 -1.185628473758697510e-01 -1.072746813297271729e-01 4.860661551356315613e-02 -4.969350621104240417e-02 -1.633268594741821289e-02 1.273158122785389423e-03 1.594650186598300934e-02 -2.905593626201152802e-02 -1.007728576660156250e-01 1.703118532896041870e-01 9.940463304519653320e-02 9.403150528669357300e-02 2.412607818841934204e-01 -2.436537668108940125e-02 -1.016828045248985291e-01 5.011321604251861572e-02 1.952781379222869873e-01 9.554798156023025513e-02 4.893243778496980667e-03 -1.886051148176193237e-01 1.081440746784210205e-01 1.512151062488555908e-01 5.438957363367080688e-02 -2.003453969955444336e-01 -1.545696407556533813e-01 6.844037771224975586e-02 1.971197500824928284e-02 -6.519132852554321289e-02 -2.022416144609451294e-02 -1.739626191556453705e-02 -2.587073482573032379e-02 2.241227030754089355e-02 9.896666742861270905e-03 8.752835541963577271e-02 8.127325214445590973e-03 4.994997754693031311e-02 4.010032862424850464e-02 1.306001842021942139e-01 -4.350576549768447876e-02 6.191556155681610107e-02 -4.967030510306358337e-02 -3.629684820771217346e-02 -2.031368315219879150e-01 -6.916648894548416138e-02 -3.773684799671173096e-02 -5.972046777606010437e-02 5.235691089183092117e-03 -3.886532783508300781e-02 1.657931208610534668e-01 -3.792407736182212830e-02 -4.846376925706863403e-02 4.666682332754135132e-02 3.621685132384300232e-02 3.570672869682312012e-02 4.300501197576522827e-02 -7.264934480190277100e-03 8.127134293317794800e-02 -1.556269973516464233e-01 2.359332516789436340e-02 9.567730128765106201e-03 -1.088954657316207886e-01 -5.777342990040779114e-02 -7.347507774829864502e-02 -6.456404179334640503e-02 5.588366463780403137e-02 -2.702858764678239822e-04 -3.682859614491462708e-02 1.077894940972328186e-01 -2.439311444759368896e-01 -5.057330802083015442e-02 -7.723604142665863037e-02 -4.534384235739707947e-02 -1.144674569368362427e-01 8.527301251888275146e-02 3.565083071589469910e-02 -1.770621910691261292e-02 -1.544112116098403931e-01 -2.704807743430137634e-02 -7.341557741165161133e-02 4.536935687065124512e-02 4.983498156070709229e-02 9.765149652957916260e-02 -2.618207782506942749e-02 2.691173925995826721e-02 -1.304747313261032104e-01 -8.192402124404907227e-02 1.040395423769950867e-01 -2.282849885523319244e-02 -1.586011424660682678e-02 4.382302612066268921e-02 6.969356443732976913e-03 -6.825886666774749756e-02 -2.058890312910079956e-01 -2.594239264726638794e-02 1.265737712383270264e-01 1.962371356785297394e-02 -6.474033743143081665e-02 2.071008831262588501e-01 3.269040607847273350e-04 2.472180314362049103e-02 1.915538460016250610e-01 -4.099175706505775452e-02 8.976342529058456421e-02 -2.230265177786350250e-02 -1.776363118551671505e-03 -1.644091755151748657e-01 1.095576360821723938e-01 -5.713389441370964050e-02 -4.168305173516273499e-02 -1.078364253044128418e-01 1.145666837692260742e-01 6.293477863073348999e-02 -6.580448150634765625e-02 -6.084614247083663940e-02 -5.203580949455499649e-03 3.852146863937377930e-02 7.356295362114906311e-03 8.818700909614562988e-02 3.110158629715442657e-02 1.281985938549041748e-01 5.755628272891044617e-02 -1.875706315040588379e-01 1.869311183691024780e-01 -2.083457633852958679e-02 -4.548935964703559875e-02 6.301166862249374390e-02 -4.518500715494155884e-02 6.201320886611938477e-02 -3.818004578351974487e-02 1.027142032980918884e-01 -2.142887189984321594e-02 -1.360135152935981750e-02 -1.008554399013519287e-01 -4.789131507277488708e-02 -2.189814746379852295e-01 1.315282881259918213e-01 -9.833188354969024658e-02 2.958171628415584564e-02 -1.086648851633071899e-01 4.522803798317909241e-02 -6.946508586406707764e-02 -2.564273178577423096e-01 8.591677993535995483e-02 -1.277962923049926758e-01 1.203331202268600464e-01 7.541427016258239746e-02 -1.769438832998275757e-01 -3.729059919714927673e-02 6.045187264680862427e-02 9.290328621864318848e-02 -6.622623652219772339e-03 -4.287378117442131042e-02 2.633704058825969696e-02 -8.861605077981948853e-02 -1.078079566359519958e-01 -1.956802234053611755e-02 4.046100750565528870e-02 1.734182536602020264e-01 -1.538065075874328613e-01 -5.866424739360809326e-02 -3.711321204900741577e-02
5.384671501815319061e-03 3.620914369821548462e-02 3.709330921992659569e-03 -1.842342615127563477e-01 -2.079664543271064758e-02 3.578111156821250916e-02 -1.137626469135284424e-01 -2.913574688136577606e-02 -5.934567656368017197e-03 4.107191693037748337e-03 -8.470814675092697144e-02 -6.739360839128494263e-02 4.286422207951545715e-02 3.109181858599185944e-02 5.059964582324028015e-02 -8.243222534656524658e-02 -2.027762979269027710e-01 -2.195899747312068939e-02 -1.467614527791738510e-02 9.718159586191177368e-02 -1.177610158920288086e-01 1.533430069684982300e-01 5.711049586534500122e-02 -1.463198959827423096e-01 1.363034397363662720e-01 -1.736897788941860199e-02 -1.601514220237731934e-02 -2.263435572385787964e-01 9.344613179564476013e-03 7.435274869203567505e-02 -6.233375892043113708e-02 7.526039611548185349e-03 9.918659180402755737e-02 -2.897307462990283966e-02 -7.540601491928100586e-02 4.790932312607765198e-02 -1.903906837105751038e-02 -1.044060960412025452e-01 1.566678732633590698e-01 -4.008524864912033081e-02 -3.149438649415969849e-02 -4.743343219161033630e-03 -1.416894048452377319e-01 5.172458663582801819e-02 1.273633241653442383e-01 1.483212858438491821e-01 -1.136603429913520813e-01 1.542665660381317139e-01 -1.348895728588104248e-01 9.070266038179397583e-02 1.165025457739830017e-01 -4.419700801372528076e-02 7.285629957914352417e-02 -8.129392564296722412e-02 -1.143528074026107788e-01 -1.145265717059373856e-02 -2.217952311038970947e-01 -7.582318037748336792e-02 -9.641569852828979492e-02 -2.008860744535923004e-02 -1.189311444759368896e-01 3.831170871853828430e-02 7.219458371400833130e-02 7.147644646465778351e-03 3.839564323425292969e-02 -1.437093876302242279e-02 -2.215598151087760925e-02 3.669119626283645630e-02 -5.832906812429428101e-02 -9.353056550025939941e-02 7.059070467948913574e-02 6.870882213115692139e-02 3.528830409049987793e-02 4.448286443948745728e-02 1.466947644948959351e-01 1.848948746919631958e-01 -1.515427827835083008e-01 1.314360648393630981e-01 -1.888736188411712646e-01 -2.421383932232856750e-02 5.102110095322132111e-03 1.063423044979572296e-02 1.898146122694015503e-01 -7.756206393241882324e-02 3.764301910996437073e-02 1.645978391170501709e-01 6.695397198200225830e-02 8.150390535593032837e-02 -1.723035573959350586e-01 -5.030470713973045349e-02 1.867176219820976257e-02 1.116473525762557983e-01 5.276837944984436035e-02 -1.073139309883117676e-01 -3.478151559829711914e-02 -1.469873730093240738e-02 9.955888241529464722e-02 -1.292836479842662811e-02 1.419135835021734238e-02 5.161751434206962585e-02 5.160069465637207031e-02 -1.425004601478576660e-01 -1.448812633752822876e-01 6.321318447589874268e-02 3.214272856712341309e-02 -1.144480928778648376e-01 -4.677676409482955933e-02 1.256434023380279541e-01 -7.134168990887701511e-04 -2.823518216609954834e-02 -3.694225549697875977e-01 2.947083488106727600e-02 -2.646360546350479126e-02 -9.545647352933883667e-02 -1.395051181316375732e-01 -1.824530065059661865e-01 4.466948285698890686e-02 2.910637855529785156e-02 -1.326159685850143433e-01 -2.744421176612377167e-02 1.400542110204696655e-01 1.693763881921768188e-01 -4.509723186492919922e-02 -7.167138159275054932e-02 1.109515503048896790e-01 -4.592904821038246155e-02 -2.804647386074066162e-01 -6.917466223239898682e-02 -1.220900714397430420e-01 -3.178962320089340210e-02 -8.732064068317413330e-02 -2.587284147739410400e-01 1.179283261299133301e-01 -7.129565626382827759e-02 -3.639819920063018799e-01 -3.848128020763397217e-03 -8.282498270273208618e-02 1.850480884313583374e-01 5.078910291194915771e-02 -1.246753111481666565e-01 -1.598381996154785156e-02 1.253698170185089111e-01 -3.217544034123420715e-02 5.082215368747711182e-02 -1.125403866171836853e-01 -3.434128314256668091e-02 3.925727680325508118e-03 1.263800114393234253e-01 -7.817399688065052032e-03 5.522422119975090027e-02 -5.913206934928894043e-02 -6.721497327089309692e-02 -6.661082059144973755e-02 1.873589679598808289e-02 -6.217275932431221008e-02 -1.149924620985984802e-01 2.563725039362907410e-02 -7.431214209645986557e-03 -1.490142494440078735e-01 -3.021103888750076294e-02 -1.411977708339691162e-01 -1.061781719326972961e-01 1.403872855007648468e-03 2.555592656135559082e-01 -3.380471095442771912e-02 -2.437808737158775330e-02 -9.863927215337753296e-02 -3.664423478767275810e-03 -1.785557568073272705e-01 -1.138750165700912476e-01 -1.538125872611999512e-01 4.129713773727416992e-02 1.728217601776123047e-01 -4.475510865449905396e-02 -1.254158318042755127e-01 -1.560120284557342529e-01 -6.948025524616241455e-02 -2.826757133007049561e-01 9.231271222233772278e-03 7.761792093515396118e-02 8.715492486953735352e-02 -2.202264405786991119e-02 -3.659608960151672363e-02 -5.233604460954666138e-02 1.114566177129745483e-01 1.333258673548698425e-02 6.486397236585617065e-02 1.996326632797718048e-02 -9.728612005710601807e-02 4.873440042138099670e-02 2.324739694595336914e-01 -6.644517183303833008e-02 1.399868279695510864e-01 4.304394870996475220e-02 -1.320650279521942139e-01 -1.166481524705886841e-01 -7.077210396528244019e-02 2.682869136333465576e-02 6.287761777639389038e-02 -1.075211763381958008e-01 -1.208142936229705811e-01 6.637718528509140015e-03 -1.150357574224472046e-01 -9.959705919027328491e-02 3.607716038823127747e-02 5.789701268076896667e-02 1.424046456813812256e-01 -2.446270734071731567e-01 -1.616752892732620239e-01 1.285840757191181183e-02 6.065625324845314026e-02 -1.325518358498811722e-03 -3.141974657773971558e-02 -7.709604501724243164e-02 1.942223012447357178e-01 7.691644132137298584e-04 2.976726740598678589e-02 1.796789281070232391e-02 6.375803053379058838e-02 -2.671221643686294556e-02 -1.090286970138549805e-01 -4.214069247245788574e-02 4.210541769862174988e-02 1.057206988334655762e-01 1.406468451023101807e-01 -1.669367998838424683e-01 -1.534142717719078064e-02 -7.702191919088363647e-02 1.909551210701465607e-02 1.122143566608428955e-01 1.664600670337677002e-01 -3.680788353085517883e-02 4.239581525325775146e-03 -1.682868897914886475e-01 -1.652754261158406734e-03 -1.356501877307891846e-01 -1.170723233371973038e-03 6.427862681448459625e-03 6.981255859136581421e-02 1.870681494474411011e-01 -1.281063556671142578e-01 3.205392137169837952e-02 1.077950522303581238e-01 1.393559426069259644e-01 1.835994124412536621e-01 -1.977616222575306892e-03 5.436001345515251160e-03 -3.421770781278610229e-02 -2.137194387614727020e-03 -6.620535999536514282e-02 -1.682098060846328735e-01 1.226148828864097595e-01 -9.374134987592697144e-02 8.837856352329254150e-02 -1.153978705406188965e-01 7.853190600872039795e-02
3.752917796373367310e-02 -1.762268841266632080e-01 2.280681952834129333e-02 -1.988123171031475067e-03 -3.727413341403007507e-02 -8.186611533164978027e-02 -5.436028540134429932e-02 2.193016558885574341e-02 1.264605671167373657e-02 1.309755607508122921e-03 -7.420579344034194946e-02 6.431277841329574585e-02 -3.633830696344375610e-03 -1.470325142145156860e-01 1.105133518576622009e-01 2.176263369619846344e-02 3.356442973017692566e-02 4.103176295757293701e-03 -1.018667370080947876e-01 -1.663881540298461914e-01 6.003940850496292114e-02 1.444140635430812836e-02 -1.619486957788467407e-01 1.032793894410133362e-01 1.600918918848037720e-01 4.304772615432739258e-02 -1.128945685923099518e-02 -1.088509559631347656e-01 2.231269031763076782e-01 5.655936896800994873e-02 3.467153757810592651e-02 -7.675804197788238525e-02 -5.302524194121360779e-02 -4.390570893883705139e-02 -9.253612160682678223e-02 -3.904338926076889038e-02 -9.119741618633270264e-02 -1.041734889149665833e-01 4.072560369968414307e-02 -3.232986852526664734e-02 9.761629253625869751e-02 -2.308544516563415527e-01 7.701862603425979614e-02 6.123899668455123901e-02 1.903629899024963379e-01 -2.705285325646400452e-02 -1.479720473289489746e-01 9.817103855311870575e-03 -3.565495088696479797e-02 3.669087588787078857e-02 -1.554279029369354248e-01 4.309550672769546509e-02 2.440192252397537231e-01 1.446413844823837280e-01 8.589796721935272217e-02 7.324469834566116333e-02 -8.188521862030029297e-02 1.869635283946990967e-01 -1.126169487833976746e-01 -1.210635676980018616e-01 9.615366905927658081e-02 6.858186423778533936e-02 1.124539319425821304e-02 8.787017315626144409e-03 -2.620764076709747314e-02 1.290794909000396729e-01 -5.175679549574851990e-02 9.791694581508636475e-02 1.293018739670515060e-02 -4.004872962832450867e-02 -1.093137264251708984e-01 4.078492894768714905e-02 -2.247559465467929840e-02 1.402525305747985840e-01 1.026977673172950745e-01 2.487228959798812866e-01 -3.050643391907215118e-02 3.316254913806915283e-02 -1.172049567103385925e-01 -2.071620896458625793e-02 9.590795636177062988e-02 -2.097903639078140259e-01 -7.861943542957305908e-02 2.057440131902694702e-01 -8.274319022893905640e-02 7.058935612440109253e-02 1.607680767774581909e-01 9.819745272397994995e-02 -1.433460265398025513e-01 -8.674608170986175537e-02 5.992118269205093384e-02 -8.345447480678558350e-02 -1.876884326338768005e-02 7.783690840005874634e-02 2.790184319019317627e-02 1.168576478958129883e-01 -1.581690609455108643e-01 -1.590045541524887085e-02 -1.450526565313339233e-01 -2.117648534476757050e-02 -1.497820764780044556e-02 2.202650532126426697e-02 -3.929015249013900757e-02 -4.747085645794868469e-02 -1.027086656540632248e-02 2.409451454877853394e-02 4.370765760540962219e-02 1.603225767612457275e-01 -1.234390586614608765e-02 1.090487986803054810e-01 -2.916180901229381561e-02 -1.484202146530151367e-01 5.596768110990524292e-02 1.018706038594245911e-01 -1.229288801550865173e-01 -2.998962998390197754e-02 -7.049437612295150757e-03 -1.029206812381744385e-01 -1.472820807248353958e-02 -1.148170307278633118e-01 9.387107565999031067e-03 -6.129337474703788757e-03 -1.136282384395599365e-01 9.058281034231185913e-02 8.973169326782226562e-02 1.063038781285285950e-01 -1.097706034779548645e-01 5.342366546392440796e-02 1.239645332098007202e-01 1.428038626909255981e-01 3.388708084821701050e-02 -1.261310279369354248e-01 1.613645115867257118e-03 1.327781528234481812e-01 -3.584471344947814941e-02 -1.935152150690555573e-02 -3.780262079089879990e-03 -3.681109473109245300e-02 -1.943847388029098511e-01 -4.564337432384490967e-02 6.859899312257766724e-02 1.493599116802215576e-01 -6.223380938172340393e-02 -1.086575686931610107e-01 -1.240676715970039368e-01 1.789408326148986816e-01 -2.069097571074962616e-02 -2.307388186454772949e-02 -5.562201142311096191e-02 7.477995008230209351e-02 -3.630748763680458069e-02 -7.152011245489120483e-02 -6.381694227457046509e-03 5.050985887646675110e-02 -7.624366134405136108e-02 -5.294023081660270691e-02 -1.957132108509540558e-02 -3.287865221500396729e-02 6.695042550563812256e-02 -3.007773542776703835e-03 -3.517748787999153137e-02 -1.855954974889755249e-01 9.172356128692626953e-02 -2.794619202613830566e-01 3.808765858411788940e-02 -1.497984528541564941e-01 1.759939081966876984e-02 1.024340689182281494e-01 1.339784264564514160e-01 -2.247246354818344116e-02 9.490343183279037476e-02 -5.041198804974555969e-03 -5.416731536388397217e-02 -6.820475310087203979e-02 1.210833564400672913e-01 -2.630768343806266785e-02 7.355318963527679443e-02 3.470430895686149597e-02 4.711606726050376892e-02 1.323825865983963013e-01 -7.122179120779037476e-02 -3.246911987662315369e-02 2.836414985358715057e-02 -2.509111166000366211e-02 1.709604710340499878e-01 3.930572792887687683e-02 -2.348739467561244965e-02 -1.831807047128677368e-01 7.819449901580810547e-02 -1.607853174209594727e-01 -6.699524819850921631e-02 3.997040539979934692e-02 -1.112821511924266815e-02 -5.299580842256546021e-02 6.587296724319458008e-02 -5.896702036261558533e-02 -9.682860225439071655e-02 1.407335102558135986e-01 2.034931257367134094e-02 -3.242897614836692810e-02 -3.434585630893707275e-01 4.176738485693931580e-02 -1.716068014502525330e-02 1.171027198433876038e-01 1.032911092042922974e-01 -1.809552609920501709e-01 7.003435748629271984e-04 4.352275282144546509e-02 -7.476572692394256592e-02 6.615637242794036865e-02 -2.699551358819007874e-02 -3.202823176980018616e-02 3.615401918068528175e-03 -6.246574595570564270e-02 1.716777235269546509e-01 5.732421949505805969e-02 -2.879149466753005981e-02 8.191166818141937256e-02 3.434202075004577637e-02 1.222705394029617310e-01 -6.588630378246307373e-02 -5.135288927704095840e-03 -4.859716072678565979e-02 7.407593540847301483e-03 -2.401215583086013794e-02 1.186344400048255920e-01 -2.972885034978389740e-02 -7.767105940729379654e-03 -1.058845520019531250e-01 -1.137718185782432556e-02 1.206608191132545471e-01 7.066517323255538940e-02 -1.173356547951698303e-02 -4.337904974818229675e-02 5.151278898119926453e-02 -2.745993435382843018e-01 -1.051869019865989685e-01 6.498710718005895615e-03 -4.944131150841712952e-02 2.584148943424224854e-01 1.349219679832458496e-01 1.111582964658737183e-01 6.364409346133470535e-03 -1.130215525627136230e-01 3.956564888358116150e-02 6.313645839691162109e-02 -1.106326207518577576e-01 -2.526689553633332253e-03 6.736969947814941406e-02 3.531468100845813751e-03 -1.998327672481536865e-03 -2.221532613039016724e-01 -2.089059352874755859e-02 1.232972368597984314e-02 3.153156116604804993e-02 3.065587766468524933e-02
-6.390476226806640625e-02 9.012405574321746826e-02 -3.987240418791770935e-02 -5.622971802949905396e-03 -4.566700756549835205e-02 -7.352034002542495728e-02 1.723632775247097015e-02 2.170399427413940430e-01 -7.562287151813507080e-02 3.724373131990432739e-02 -1.238300800323486328e-01 -1.255798786878585815e-01 -3.784908726811408997e-02 7.776297628879547119e-02 -8.418398909270763397e-03 4.920523986220359802e-02 -1.530380733311176300e-02 4.312210530042648315e-02 1.243241596966981888e-02 -6.255332380533218384e-02 -4.437867028173059225e-05 4.154628515243530273e-02 -3.004574961960315704e-02 -1.593748107552528381e-02 2.686609514057636261e-02 2.997675724327564240e-02 -1.105332151055335999e-01 -3.346582651138305664e-01 3.505125269293785095e-02 3.827849775552749634e-02 -1.215187311172485352e-01 7.718906551599502563e-02 -2.244151979684829712e-01 -8.956108242273330688e-02 3.173046931624412537e-02 -1.508487574756145477e-02 -4.216803610324859619e-02 -1.551646888256072998e-01 1.171515136957168579e-01 -2.167825847864151001e-01 8.397992700338363647e-02 1.126227825880050659e-01 -4.431886132806539536e-03 -4.556277766823768616e-02 3.510894719511270523e-03 -1.083867251873016357e-01 -2.942270040512084961e-02 3.518548980355262756e-02 5.845197942107915878e-03 -7.119863480329513550e-02 -2.747604250907897949e-02 5.377315729856491089e-02 -1.010233014822006226e-01 -3.327117487788200378e-02 -1.852991282939910889e-01 6.272957473993301392e-02 -5.040894746780395508e-01 -9.427834302186965942e-02 -8.930404437705874443e-04 5.381721630692481995e-02 3.004711307585239410e-02 1.268993020057678223e-01 1.166186705231666565e-01 -8.002424985170364380e-02 1.239561196416616440e-02 1.152917221188545227e-01 7.964710146188735962e-02 7.219787221401929855e-03 -1.252554729580879211e-02 1.481201648712158203e-01 1.598000824451446533e-01 5.467193946242332458e-02 -2.021051198244094849e-01 1.505113020539283752e-02 -3.280733525753021240e-02 1.287213899195194244e-02 -1.075927764177322388e-01 -1.881068050861358643e-01 1.183415018022060394e-02 1.126318499445915222e-01 7.570265326648950577e-03 -3.166900947690010071e-02 5.727254971861839294e-02 -9.781511500477790833e-03 -1.492502093315124512e-01 7.872959971427917480e-02 -9.206423163414001465e-02 1.744960546493530273e-01 -1.991852745413780212e-02 1.149401962757110596e-01 -1.609203405678272247e-03 -9.923478355631232262e-04 3.113712184131145477e-02 -1.296298503875732422e-01 -4.503651335835456848e-02 7.122748345136642456e-02 9.200490266084671021e-02 -3.657309710979461670e-02 5.094762519001960754e-02 -2.009225636720657349e-02 3.823923692107200623e-02 7.911759614944458008e-02 -6.479445844888687134e-02 1.913908571004867554e-01 1.028617918491363525e-01 -8.810258656740188599e-02 -7.380890846252441406e-02 -1.279142498970031738e-01 8.846566081047058105e-02 6.017265841364860535e-03 -6.022251248359680176e-01 1.153036206960678101e-01 -1.800356656312942505e-01 4.711830615997314453e-02 9.998330846428871155e-03 -3.902963548898696899e-02 6.761135905981063843e-02 5.222427099943161011e-02 -1.257383674383163452e-01 -1.787693500518798828e-01 4.357546940445899963e-02 -8.605642616748809814e-02 -4.789055138826370239e-02 -4.707017168402671814e-02 -2.640053629875183105e-02 -6.030704826116561890e-03 -2.514070272445678711e-01 9.603308141231536865e-02 1.024291217327117920e-01 -1.702969968318939209e-01 -2.695084512233734131e-01 -9.599440544843673706e-02 -1.984036117792129517e-01 5.910120531916618347e-02 -3.153367936611175537e-01 4.273053258657455444e-03 4.107873886823654175e-02 -8.396096527576446533e-03 -8.596217632293701172e-02 -5.825571343302726746e-02 6.339617073535919189e-02 3.245367109775543213e-02 1.089004799723625183e-01 1.692343056201934814e-01 -3.477610647678375244e-02 5.840888246893882751e-02 -4.928028210997581482e-02 -3.364066003541665850e-07 -2.014731429517269135e-02 -2.489979565143585205e-01 8.160562068223953247e-02 -2.021848559379577637e-01 -1.511921286582946777e-01 -1.074770092964172363e-01 -9.407021105289459229e-03 -1.017754301428794861e-01 7.570423185825347900e-02 -1.147455424070358276e-01 5.976525694131851196e-02 -1.627492718398571014e-02 5.507306754589080811e-02 6.923095881938934326e-02 7.765698432922363281e-02 1.681174784898757935e-01 2.432706579566001892e-02 -2.087085880339145660e-02 -2.270013280212879181e-02 1.724060811102390289e-02 -1.369810253381729126e-01 -8.860147744417190552e-02 7.100936025381088257e-02 1.184386238455772400e-01 1.525954902172088623e-01 3.921914845705032349e-02 -1.565255522727966309e-01 1.264799237251281738e-01 5.231034010648727417e-02 -2.114151418209075928e-02 -8.346678316593170166e-02 2.772969007492065430e-02 2.124027535319328308e-02 -6.767180562019348145e-02 -1.997829079627990723e-01 -7.641158252954483032e-02 -3.323312150314450264e-03 -1.938370615243911743e-02 -1.883620955049991608e-02 -2.202376574277877808e-01 3.747778758406639099e-02 2.305955998599529266e-02 5.751644074916839600e-02 1.686988621950149536e-01 -2.186091989278793335e-02 3.264683112502098083e-02 -6.752792745828628540e-02 8.630614727735519409e-02 2.461106143891811371e-02 2.577522099018096924e-01 -9.749313443899154663e-02 -1.135428249835968018e-01 1.691528782248497009e-02 8.884444832801818848e-02 2.655677497386932373e-01 5.808230116963386536e-02 -9.235733002424240112e-02 -3.517297282814979553e-02 -2.854137681424617767e-02 -1.673321574926376343e-01 3.141388297080993652e-02 3.585391119122505188e-02 -9.123799204826354980e-02 1.321155428886413574e-01 -1.818042621016502380e-02 1.309052258729934692e-01 -5.567920207977294922e-01 2.188663184642791748e-02 4.734338447451591492e-02 -7.922720164060592651e-02 -3.845347166061401367e-01 -1.661493331193923950e-01 -9.850693168118596077e-04 -7.385822385549545288e-02 -4.824311286211013794e-02 5.932443961501121521e-02 1.398885399103164673e-01 -1.858001798391342163e-01 -5.128464195877313614e-03 -3.488981723785400391e-02 4.198456183075904846e-02 -9.048521518707275391e-02 -5.804028827697038651e-03 -7.267702370882034302e-02 1.803979277610778809e-01 -1.763582080602645874e-01 -4.240294396877288818e-01 -1.050660684704780579e-01 -1.981555074453353882e-01 -1.280239820480346680e-01 6.924188882112503052e-02 1.142314076423645020e-02 5.551003292202949524e-02 6.945475470274686813e-04 1.145815029740333557e-01 5.504884757101535797e-03 1.209652200341224670e-01 1.258926391601562500e-01 -3.943340107798576355e-02 -3.214874863624572754e-02 -1.326249986886978149e-01 -1.569378823041915894e-01 -1.093178987503051758e-03 5.239917710423469543e-02 2.814501337707042694e-02 9.357333183288574219e-03 1.847798004746437073e-02 -4.811341315507888794e-02
-1.905266791582107544e-01 -1.237642914056777954e-01 -1.089655458927154541e-01 -3.311001928523182869e-03 -6.878641247749328613e-02 -1.463007926940917969e-01 -3.333860337734222412e-01 1.853851228952407837e-01 6.862398236989974976e-02 -6.605365872383117676e-02 9.224530309438705444e-03 -1.013896241784095764e-01 3.268585354089736938e-02 -1.139582544565200806e-01 -5.853026639670133591e-03 7.174073159694671631e-02 -1.312440335750579834e-01 9.571401774883270264e-02 -7.469613850116729736e-02 -2.934954315423965454e-02 1.423102617263793945e-01 1.722701825201511383e-02 7.507556583732366562e-03 1.082541272044181824e-01 -6.245210021734237671e-02 4.205435048788785934e-03 8.249060809612274170e-02 3.300815075635910034e-02 1.187413707375526428e-01 -1.947837918996810913e-01 3.514378890395164490e-02 -6.096953153610229492e-02 1.648490875959396362e-01 -1.010676845908164978e-01 -5.800125002861022949e-02 -1.569551974534988403e-01 3.340766951441764832e-02 5.918779596686363220e-02 2.769480459392070770e-02 -6.869914382696151733e-02 7.529234047979116440e-03 1.447784062474966049e-02 -6.786014884710311890e-02 6.568115949630737305e-02 -1.778896898031234741e-01 1.450002100318670273e-02 3.444072231650352478e-02 1.520620007067918777e-02 -5.208444967865943909e-02 -3.207825869321823120e-02 1.691084937192499638e-03 -5.987132899463176727e-03 5.399431288242340088e-02 -9.722585231065750122e-02 2.123996168375015259e-01 1.007787510752677917e-01 2.958892658352851868e-02 -6.551907211542129517e-02 -4.055782221257686615e-03 -1.809806823730468750e-01 -2.468017861247062683e-02 -4.765006713569164276e-03 -8.376164734363555908e-02 4.416873306035995483e-02 -9.796009957790374756e-02 7.120360434055328369e-02 5.266292486339807510e-03 -1.702369190752506256e-02 3.322685882449150085e-02 -6.108173727989196777e-02 8.089248090982437134e-02 5.403259769082069397e-02 -4.568323493003845215e-02 -7.529594004154205322e-02 1.443682610988616943e-01 -4.685258865356445312e-02 -8.471024036407470703e-02 -3.094896674156188965e-02 -2.088575959205627441e-01 -9.779992699623107910e-02 4.109585657715797424e-02 -1.143720373511314392e-01 8.995068073272705078e-02 1.100534796714782715e-01 -9.958534687757492065e-02 -5.545106902718544006e-02 8.576823398470878601e-03 4.187369719147682190e-02 7.764240354299545288e-02 9.462989866733551025e-02 5.776669085025787354e-02 1.562136923894286156e-03 8.281898498535156250e-02 6.988321430981159210e-03 8.180336654186248779e-02 4.145104065537452698e-02 -1.252909153699874878e-01 7.711373269557952881e-02 -1.038810461759567261e-01 -2.018202282488346100e-02 9.476580470800399780e-02 1.357226818799972534e-01 -8.076920360326766968e-02 -1.235575005412101746e-01 2.747402712702751160e-02 -4.779004678130149841e-02 -2.769281156361103058e-03 6.396979093551635742e-02 4.114167764782905579e-02 3.835743665695190430e-02 7.650605868548154831e-03 1.582447141408920288e-01 2.790388464927673340e-02 -3.073101863265037537e-02 1.799315512180328369e-01 1.268965424969792366e-03 6.512504816055297852e-02 -4.069315269589424133e-02 -7.188706099987030029e-02 -3.669814392924308777e-02 -1.936874352395534515e-02 1.044949702918529510e-02 -6.581729650497436523e-02 -2.334172092378139496e-02 -5.150172859430313110e-02 2.774905264377593994e-01 -4.992229491472244263e-02 -1.492769718170166016e-01 3.815373778343200684e-02 9.028677642345428467e-02 1.559143699705600739e-02 -5.223419889807701111e-02 4.313809797167778015e-02 3.381334245204925537e-02 -3.751979023218154907e-02 3.315694257616996765e-02 -1.658113151788711548e-01 -1.416832208633422852e-01 -1.077041178941726685e-01 -6.785170733928680420e-02 -4.980401322245597839e-02 1.734216660261154175e-01 8.823314309120178223e-02 -4.043663665652275085e-02 -7.465387135744094849e-02 -2.530296891927719116e-02 -2.034580707550048828e-02 1.493745893239974976e-01 -8.059170842170715332e-02 9.612516500055789948e-03 1.045014411211013794e-01 8.564990013837814331e-02 -1.061327904462814331e-01 2.327154157683253288e-03 2.087818086147308350e-02 6.324996240437030792e-03 -1.762351021170616150e-02 9.166517853736877441e-02 -6.593076884746551514e-02 1.991224288940429688e-01 -8.508251048624515533e-03 4.949077218770980835e-02 -1.371133327484130859e-01 -6.315234303474426270e-02 -9.203110821545124054e-03 1.261120438575744629e-01 -4.659592360258102417e-02 -5.779886618256568909e-02 5.570063367486000061e-02 -1.688784919679164886e-02 6.368355453014373779e-02 1.841301918029785156e-01 -1.065525040030479431e-01 -9.873474482446908951e-04 1.290149390697479248e-01 8.785012364387512207e-02 1.027619093656539917e-01 -5.922094732522964478e-02 -8.692366629838943481e-02 -3.440489992499351501e-02 8.606553077697753906e-02 -4.544701799750328064e-02 -1.107958704233169556e-01 1.474737375974655151e-02 -1.654412150382995605e-01 3.786156699061393738e-02 1.821569502353668213e-01 -1.050258800387382507e-01 -2.565101347863674164e-02 -4.477466270327568054e-02 1.178585179150104523e-02 1.567462682723999023e-01 4.345173761248588562e-02 -6.133336573839187622e-02 -2.661389485001564026e-02 6.709884852170944214e-02 5.568832531571388245e-02 1.337200030684471130e-02 -5.205418169498443604e-02 -2.100257202982902527e-02 -1.460150629281997681e-01 8.603326976299285889e-02 5.187577754259109497e-02 1.159969419240951538e-01 -1.142498254776000977e-01 -1.274758577346801758e-01 -2.836352400481700897e-02 3.438752517104148865e-02 3.346047888044267893e-04 -1.081132590770721436e-01 -1.730534732341766357e-01 -1.391118764877319336e-01 4.298561438918113708e-02 1.139634661376476288e-02 2.538205981254577637e-01 -1.568606495857238770e-01 4.372262954711914062e-02 -3.145245090126991272e-02 -2.656182646751403809e-01 -1.846297271549701691e-02 1.594282686710357666e-02 -1.239245831966400146e-01 5.827805027365684509e-02 1.767309196293354034e-02 -6.245803087949752808e-02 -1.115829274058341980e-01 1.700185239315032959e-01 4.409460723400115967e-02 4.304204136133193970e-02 -9.988289326429367065e-03 -3.084081225097179413e-02 1.327817887067794800e-01 -1.532957144081592560e-02 1.650222018361091614e-02 2.372376620769500732e-01 -1.251598298549652100e-01 -5.763749405741691589e-02 -5.794528871774673462e-03 8.789112418889999390e-02 3.283993899822235107e-01 3.883312642574310303e-02 1.269950419664382935e-01 -1.290057748556137085e-01 -1.018944382667541504e-01 -5.097272619605064392e-02 1.616314053535461426e-03 7.539917528629302979e-02 -4.999291896820068359e-02 8.891711011528968811e-03 1.076697185635566711e-02 2.573997899889945984e-02 -1.783384680747985840e-01 9.822601079940795898e-02 -3.597158566117286682e-02 1.172659695148468018e-01 -1.962393522262573242e-02
