9.872297197580337524e-02
-1.130042448639869690e-01
7.609372551087290049e-05
-1.127282623201608658e-02
-7.266886532306671143e-02
-5.402276874519884586e-04
2.358339913189411163e-02
-1.973437704145908356e-02
-2.634820702951401472e-04
6.552098691463470459e-02
4.860173910856246948e-02
8.355151116847991943e-02
-4.957380704581737518e-03
-1.123562734574079514e-02
4.399523138999938965e-02
6.142397969961166382e-02
1.770788431167602539e-02
1.858909497968852520e-03
3.869018517434597015e-03
-7.461807131767272949e-02
-4.002544283866882324e-02
-7.080535287968814373e-04
-4.706962406635284424e-02
-1.751409322023391724e-01
-5.839477851986885071e-02
-3.064800798892974854e-02
1.342579629272222519e-02
-2.108173072338104248e-02
1.006569340825080872e-02
7.537306100130081177e-02
1.055780053138732910e-01
1.057955808937549591e-02
-1.700183190405368805e-02
1.094010248780250549e-01
4.290716722607612610e-02
3.128539398312568665e-02
3.636528179049491882e-02
4.285515844821929932e-02
-6.211170926690101624e-02
-2.319309674203395844e-02
-3.698825836181640625e-03
2.155390009284019470e-02
-9.148986637592315674e-02
-2.141630463302135468e-02
3.000511229038238525e-02
-1.059312149882316589e-01
-1.654614508152008057e-02
-1.800560206174850464e-02
3.506167978048324585e-02
2.561744116246700287e-02
4.195096343755722046e-02
-8.323934674263000488e-02
-9.759205579757690430e-02
5.231837183237075806e-02
-4.305989295244216919e-02
1.168097704648971558e-01
1.297152321785688400e-02
3.578827157616615295e-02
-3.356629237532615662e-02
7.216887921094894409e-02
2.736702747642993927e-02
-1.581937074661254883e-01
1.219898611307144165e-01
1.444896776229143143e-02
7.096529006958007812e-02
-4.685801640152931213e-02
-1.591398753225803375e-02
-4.879084601998329163e-02
-6.555128097534179688e-02
-5.203328281641006470e-02
-1.493642330169677734e-01
6.108877807855606079e-02
-3.339555114507675171e-02
7.643332332372665405e-02
-6.280042231082916260e-02
5.381441861391067505e-02
-3.612349182367324829e-02
-2.913762256503105164e-02
-3.296949714422225952e-02
-1.220251545310020447e-01
-9.006474167108535767e-02
1.103573106229305267e-02
5.660556256771087646e-03
6.125279143452644348e-02
3.406194970011711121e-02
4.811424016952514648e-02
-1.031049489974975586e-01
-1.278949975967407227e-01
1.153451949357986450e-01
-4.415725544095039368e-02
4.575003404170274734e-03
2.971388399600982666e-02
-8.141417801380157471e-02
-4.213112592697143555e-02
-1.110614016652107239e-01
-9.927884675562381744e-03
-6.428782828152179718e-03
1.672611758112907410e-02
-1.376041024923324585e-01
3.923849761486053467e-02
-4.910694062709808350e-02
2.417245320975780487e-02
2.530875802040100098e-02
5.203242227435112000e-02
-1.549172848463058472e-01
6.809873133897781372e-02
-4.357038997113704681e-03
-4.089023172855377197e-02
-1.618818789720535278e-01
5.271591991186141968e-02
-3.120052628219127655e-02
-1.996427215635776520e-02
6.655069440603256226e-02
1.118012797087430954e-02
-2.050527743995189667e-02
4.036346450448036194e-02
-2.994112111628055573e-02
-2.599983103573322296e-02
3.113448433578014374e-02
3.274941444396972656e-02
-1.410706713795661926e-02
-1.503895502537488937e-02
5.141400266438722610e-03
1.041722372174263000e-01
-8.367002941668033600e-03
-1.802616007626056671e-02
-4.108760133385658264e-02
-3.084893524646759033e-02
3.913398832082748413e-03
-7.661473006010055542e-02
-3.611733019351959229e-02
1.968578994274139404e-02
-2.049690671265125275e-02
-4.687479138374328613e-02
-7.202278822660446167e-03
2.425265684723854065e-02
-1.645374670624732971e-02
4.141953215003013611e-02
3.384222462773323059e-02
3.445451334118843079e-02
1.693577878177165985e-02
4.011425748467445374e-02
-6.335136294364929199e-02
6.328754127025604248e-02
-6.222818046808242798e-02
-1.092044054530560970e-03
1.810419932007789612e-02
-8.362921327352523804e-02
-6.262308359146118164e-02
-4.997872188687324524e-02
1.056073233485221863e-01
3.633061051368713379e-02
3.112817939836531878e-04
-4.313042759895324707e-02
-1.062293872237205505e-01
-7.913857698440551758e-02
-1.956684887409210205e-01
7.930601388216018677e-02
2.372026629745960236e-02
2.755227684974670410e-02
-1.550004445016384125e-02
6.940805353224277496e-03
-2.119429595768451691e-02
-9.337097406387329102e-02
-2.377080172300338745e-02
-4.483855143189430237e-02
-6.958952546119689941e-02
-7.826545275747776031e-03
4.526645690202713013e-02
-4.476394504308700562e-03
1.041826326400041580e-02
-4.518106579780578613e-02
6.681745499372482300e-02
-8.738562464714050293e-02
-3.975668549537658691e-02
-2.957548014819622040e-02
-1.016170345246791840e-02
-7.621657848358154297e-02
-1.142853312194347382e-02
9.051387012004852295e-02
3.365192189812660217e-02
3.364497050642967224e-02
-4.337593913078308105e-03
3.452066332101821899e-02
3.468796238303184509e-02
1.184270605444908142e-01
-4.467513412237167358e-03
5.347916111350059509e-02
-9.194453805685043335e-02
1.056928560137748718e-01
1.272634696215391159e-02
-2.842594310641288757e-02
2.481737732887268066e-02
1.733695901930332184e-02
-2.559357136487960815e-02
-4.285677894949913025e-02
1.987037993967533112e-02
2.364717051386833191e-02
-4.611298441886901855e-02
4.141746461391448975e-02
-1.663671433925628662e-02
4.704465344548225403e-02
5.619409959763288498e-03
-4.991856403648853302e-03
-3.726469725370407104e-02
-1.764681003987789154e-02
-5.136566981673240662e-02
3.097020834684371948e-02
-7.465460151433944702e-02
-1.668596267700195312e-02
9.118282794952392578e-02
8.093266189098358154e-02
1.504245586693286896e-02
-3.359234705567359924e-02
6.090235337615013123e-02
-3.488071495667099953e-03
-3.819239884614944458e-02
1.043390259146690369e-01
-1.180308610200881958e-01
-1.101735308766365051e-01
-2.214607223868370056e-02
-2.513882890343666077e-02
5.326331406831741333e-02
1.490534469485282898e-02
2.627911791205406189e-02
-1.010423600673675537e-01
-7.289770245552062988e-02
9.829849004745483398e-02
-5.520977452397346497e-02
-2.137660048902034760e-02
1.082079764455556870e-02
-4.967586323618888855e-02
-1.720336265861988068e-02
1.744267903268337250e-02
4.944304004311561584e-02
4.709837585687637329e-02
-6.062383204698562622e-02
8.416723459959030151e-03
5.970575287938117981e-02
-1.308646891266107559e-02
-1.977659575641155243e-02
-1.924017909914255142e-03
-9.596328251063823700e-03
-8.226465433835983276e-02
-3.673524782061576843e-02
4.636969044804573059e-02
-3.640985488891601562e-02
-9.387563914060592651e-02
1.805680058896541595e-02
7.773794233798980713e-03
-1.280091237276792526e-02
-9.019529446959495544e-03
7.000061124563217163e-02
-1.645007357001304626e-02
2.201419323682785034e-02
-8.132869750261306763e-02
