-8.166907727718353271e-02
5.838419497013092041e-02
3.472826629877090454e-02
6.463700532913208008e-02
-6.040631607174873352e-02
1.406293809413909912e-01
-9.094975888729095459e-02
8.615639060735702515e-02
2.746164426207542419e-02
1.089294329285621643e-01
-6.605929881334304810e-02
-1.172773838043212891e-01
1.246162876486778259e-01
1.148230955004692078e-01
2.691593579947948456e-02
-1.482744514942169189e-02
-2.055534161627292633e-02
-2.565694041550159454e-02
1.321646571159362793e-02
3.605137392878532410e-02
7.118540350347757339e-03
-1.672639045864343643e-03
7.896295189857482910e-02
6.455072015523910522e-02
2.967416003230027854e-05
-4.197493940591812134e-02
2.336715310811996460e-01
5.208286643028259277e-02
5.771501362323760986e-02
-4.219263419508934021e-02
7.349005341529846191e-02
1.659022420644760132e-01
8.028757572174072266e-02
-4.802726954221725464e-02
-1.075382456183433533e-01
7.581220567226409912e-02
-1.053151674568653107e-02
-7.529538124799728394e-02
-2.030293084681034088e-02
3.111706860363483429e-02
2.247777208685874939e-02
5.731013789772987366e-02
5.562247335910797119e-02
9.753653407096862793e-02
-1.681656092405319214e-01
6.857436895370483398e-02
5.120801925659179688e-02
5.711946636438369751e-02
-8.289898186922073364e-02
-3.765400871634483337e-02
-1.227564737200737000e-01
-1.130638420581817627e-01
-1.949960738420486450e-02
-1.082221567630767822e-01
-3.858518600463867188e-02
-4.071822389960289001e-02
-3.907117620110511780e-02
-1.203281134366989136e-01
9.872494265437126160e-03
-1.073843892663717270e-02
-3.013894148170948029e-02
-7.575590908527374268e-02
-3.294944472145289183e-04
-1.316405385732650757e-01
-7.526095490902662277e-03
-8.371378481388092041e-02
-1.632106117904186249e-02
4.761656746268272400e-02
-5.882068350911140442e-02
2.471443451941013336e-02
5.310412868857383728e-02
-3.605671226978302002e-02
5.100905150175094604e-02
1.432116925716400146e-01
-7.064928859472274780e-02
-4.589868709444999695e-02
-1.195273175835609436e-01
-6.888093054294586182e-02
1.295560225844383240e-02
1.040852740406990051e-01
-1.085368692874908447e-01
2.223437577486038208e-01
4.706069454550743103e-02
9.013277292251586914e-02
-2.273024432361125946e-02
-1.620816253125667572e-02
3.361342847347259521e-02
-3.644501417875289917e-02
1.362762004137039185e-01
-1.671446301043033600e-02
8.661320805549621582e-02
2.247696742415428162e-02
1.710147112607955933e-01
5.470373108983039856e-02
2.359636127948760986e-02
-1.024138703942298889e-01
-5.086663737893104553e-02
6.304658204317092896e-02
3.382761031389236450e-02
6.117123365402221680e-02
1.918269395828247070e-01
-6.218060478568077087e-02
5.557694286108016968e-02
2.268967032432556152e-01
-2.267154492437839508e-02
2.120712548494338989e-01
-3.599954769015312195e-02
-5.498316138982772827e-02
-5.847162008285522461e-02
-6.602790951728820801e-02
-4.581256210803985596e-02
8.527190238237380981e-02
-6.498008966445922852e-02
-7.905875891447067261e-02
-7.913326472043991089e-02
8.872858434915542603e-02
3.653531149029731750e-02
-4.513474553823471069e-02
1.633101142942905426e-02
3.210375783964991570e-03
8.526062220335006714e-02
1.712586283683776855e-01
-1.240584388142451644e-04
7.301902398467063904e-03
-1.662975549697875977e-02
9.456039220094680786e-02
4.679145291447639465e-02
7.315248250961303711e-02
-9.883280843496322632e-02
-1.034931931644678116e-02
1.048873141407966614e-01
2.353439293801784515e-02
-2.334679290652275085e-02
-1.045044213533401489e-01
-2.885395288467407227e-02
-4.428472835570573807e-03
-6.445481628179550171e-02
3.209025040268898010e-02
-2.225431054830551147e-02
-2.073873020708560944e-02
1.327973157167434692e-01
1.375105679035186768e-01
5.555739253759384155e-02
-1.059674322605133057e-01
6.746226549148559570e-02
8.315333724021911621e-02
-1.522481068968772888e-02
3.301041945815086365e-02
1.497190147638320923e-01
-6.866214424371719360e-02
5.363068729639053345e-02
-2.088161371648311615e-02
-1.343806535005569458e-01
1.538493335247039795e-01
2.092776000499725342e-01
9.065244346857070923e-02
-1.037747249938547611e-03
1.992791146039962769e-02
4.937603697180747986e-02
4.528474062681198120e-03
-6.734357029199600220e-02
-1.964017981663346291e-03
4.183415696024894714e-02
5.796150863170623779e-02
2.354968572035431862e-03
7.018300145864486694e-02
2.697322145104408264e-02
-3.900141455233097076e-03
-8.262075483798980713e-02
-8.251794427633285522e-02
-3.437126800417900085e-02
-6.384795159101486206e-02
2.175969928503036499e-01
-6.919981539249420166e-02
1.762628853321075439e-01
5.310238152742385864e-02
1.290465593338012695e-01
-8.621242642402648926e-02
-1.679828739725053310e-03
8.390768617391586304e-02
1.255872696638107300e-01
-8.341515809297561646e-02
8.948718011379241943e-02
7.215081900358200073e-02
-7.542579621076583862e-02
1.974822282791137695e-01
-7.651651743799448013e-03
8.728045225143432617e-02
3.130232170224189758e-02
2.903577126562595367e-02
1.127166375517845154e-01
1.824929863214492798e-01
3.392139915376901627e-04
7.662911713123321533e-02
-4.078391566872596741e-02
-9.419525414705276489e-02
-6.315096467733383179e-02
9.192163497209548950e-02
3.652556613087654114e-02
4.768200218677520752e-02
-5.703645199537277222e-02
3.550897911190986633e-02
4.878904670476913452e-02
8.227853477001190186e-02
2.665156498551368713e-03
-1.570316031575202942e-02
8.909172564744949341e-02
-3.408947587013244629e-02
5.889207124710083008e-02
4.493333026766777039e-02
1.675929129123687744e-01
2.912935242056846619e-02
-1.816810220479965210e-01
7.665664702653884888e-02
-4.030424728989601135e-02
-3.266322612762451172e-02
-3.602701425552368164e-02
-6.551023572683334351e-02
9.292228519916534424e-02
-5.305479746311903000e-03
-4.982011765241622925e-02
-1.060492396354675293e-01
-7.434719055891036987e-02
-7.721839845180511475e-02
1.172154247760772705e-01
-1.139427050948143005e-01
2.262481674551963806e-02
-8.572969585657119751e-02
-1.685196533799171448e-02
1.821114569902420044e-01
-6.105271168053150177e-03
-1.123956292867660522e-01
5.353711917996406555e-02
1.932637579739093781e-02
-9.097477793693542480e-02
-1.491750776767730713e-01
-1.099651008844375610e-01
7.468873262405395508e-02
2.878941968083381653e-02
1.172260269522666931e-01
1.047500446438789368e-01
-2.783574536442756653e-02
5.043242499232292175e-02
-1.142178997397422791e-01
1.012035086750984192e-01
5.120097473263740540e-02
-2.134661749005317688e-02
4.418403282761573792e-02
-6.088168174028396606e-02
-6.592603027820587158e-02
-1.405952274799346924e-01
-9.369003027677536011e-02
3.846497461199760437e-02
1.215011626482009888e-01
2.400830201804637909e-02
1.536619216203689575e-01
