-2.752857655286788940e-02
1.052442565560340881e-02
3.178391605615615845e-02
6.186747178435325623e-02
-2.814765274524688721e-02
1.475113816559314728e-02
-6.662163138389587402e-02
1.278087869286537170e-02
2.786375395953655243e-02
-1.388154458254575729e-03
6.607161462306976318e-02
9.075460955500602722e-03
8.834414184093475342e-03
-6.337898969650268555e-02
-3.839807817712426186e-03
-1.776090264320373535e-02
-8.133521676063537598e-02
3.125219419598579407e-02
2.496618079021573067e-03
-2.531558275222778320e-02
8.532448112964630127e-02
-1.022338215261697769e-02
6.107554212212562561e-02
-2.794758230447769165e-02
2.299309894442558289e-02
2.477043867111206055e-02
1.069450564682483673e-02
4.028808325529098511e-02
4.814512282609939575e-02
6.396460230462253094e-04
2.893774956464767456e-02
-2.870726585388183594e-02
-1.857380120782181621e-04
3.896443173289299011e-03
6.082324683666229248e-02
5.540115758776664734e-03
-1.686679944396018982e-02
-3.418949618935585022e-02
-2.479075081646442413e-02
8.553935214877128601e-03
-3.995062783360481262e-02
-2.779858559370040894e-02
3.165849298238754272e-02
-3.384345769882202148e-02
9.287977963685989380e-02
1.167223323136568069e-02
-2.657053060829639435e-02
4.449739120900630951e-03
-5.205615609884262085e-02
-4.703388258349150419e-04
2.044970542192459106e-02
4.695108532905578613e-02
-2.680699340999126434e-03
-8.139965124428272247e-03
1.397395506501197815e-02
3.196290507912635803e-02
9.592403075657784939e-04
3.257397934794425964e-02
-9.715149551630020142e-02
-6.151596084237098694e-03
2.526904642581939697e-02
3.945145010948181152e-02
4.812578856945037842e-02
-3.179686143994331360e-02
8.694897405803203583e-03
1.263053435832262039e-02
-5.841040401719510555e-04
-3.242217004299163818e-02
-2.574371639639139175e-03
3.640403039753437042e-03
3.822689410299062729e-03
4.285955429077148438e-02
-3.298053517937660217e-02
-3.352640941739082336e-02
7.051633298397064209e-02
1.252872683107852936e-02
2.911302074790000916e-02
4.811395704746246338e-02
-5.054020881652832031e-02
1.637140847742557526e-02
8.227098733186721802e-03
4.276186227798461914e-02
5.354895815253257751e-02
4.737375676631927490e-02
1.702153531368821859e-04
-4.870049655437469482e-02
2.493282780051231384e-02
-1.085018739104270935e-02
2.963497862219810486e-02
-9.219546802341938019e-03
6.204228848218917847e-02
3.382888063788414001e-02
8.429942652583122253e-03
1.709775067865848541e-02
4.779338091611862183e-02
2.385494485497474670e-02
-6.348013132810592651e-02
5.643259361386299133e-02
-4.810157418251037598e-02
2.689849026501178741e-02
1.673301868140697479e-02
-2.814651653170585632e-02
4.842306673526763916e-02
1.439820788800716400e-02
7.779553532600402832e-02
-6.066194735467433929e-03
-2.719369344413280487e-02
-2.377207577228546143e-02
6.339424103498458862e-02
2.310655452311038971e-02
3.050843253731727600e-02
-2.125433087348937988e-02
1.776015199720859528e-02
-3.080266341567039490e-02
3.963555395603179932e-02
1.455323304980993271e-02
3.001703694462776184e-02
-9.346276521682739258e-02
-3.390958067029714584e-03
9.107728302478790283e-02
9.032239206135272980e-03
-5.184947699308395386e-02
2.400282025337219238e-02
-1.046411343850195408e-03
2.678934484720230103e-02
-4.559879004955291748e-02
-2.605819329619407654e-02
-1.088700257241725922e-03
-2.625403925776481628e-02
2.369897626340389252e-02
-4.541099071502685547e-02
3.734928369522094727e-02
-1.439738087356090546e-02
2.137861587107181549e-02
4.474531114101409912e-02
8.329731645062565804e-04
4.270496219396591187e-02
5.118602514266967773e-02
6.532584130764007568e-02
-6.830134429037570953e-03
-1.898544654250144958e-02
8.686784654855728149e-03
-2.112976834177970886e-02
1.776497624814510345e-02
-2.246253006160259247e-02
-9.927862556651234627e-04
1.911288686096668243e-02
-2.715544216334819794e-02
5.047386977821588516e-03
-5.960162729024887085e-02
2.470417506992816925e-02
1.240166369825601578e-02
5.309025757014751434e-03
4.545067995786666870e-02
-2.856224030256271362e-02
-4.279897734522819519e-02
5.952494218945503235e-02
3.040836937725543976e-02
-1.085551362484693527e-02
4.656832665205001831e-02
-1.473481953144073486e-02
8.530550636351108551e-03
1.759744435548782349e-02
2.760469354689121246e-02
7.845517992973327637e-02
1.204134337604045868e-02
-2.297443524003028870e-02
3.030258044600486755e-02
-9.023114107549190521e-03
-1.019937638193368912e-02
-5.112141370773315430e-02
2.885753475129604340e-02
-7.924060337245464325e-03
2.252025343477725983e-02
1.201345212757587433e-02
-3.043578378856182098e-02
-4.469938948750495911e-02
2.180831972509622574e-03
1.764628477394580841e-02
1.565918885171413422e-02
2.662497200071811676e-02
3.294899314641952515e-02
2.310211211442947388e-02
-1.733274944126605988e-02
2.557962946593761444e-02
2.942014858126640320e-02
-3.609165921807289124e-02
9.363232180476188660e-03
7.484606932848691940e-03
3.878598287701606750e-02
4.970296844840049744e-02
9.524589031934738159e-02
5.155366659164428711e-02
-3.490112349390983582e-02
-6.195425521582365036e-05
2.147645545846899040e-06
-1.932286284863948822e-02
1.376956142485141754e-02
-1.748356409370899200e-02
-1.455308962613344193e-02
-2.299858257174491882e-02
8.007882535457611084e-02
2.379469946026802063e-02
-4.963131994009017944e-02
-8.690048009157180786e-03
7.968069985508918762e-03
4.712135344743728638e-02
-4.836443811655044556e-03
-2.362008020281791687e-02
4.840134456753730774e-02
-2.765496447682380676e-02
2.170006930828094482e-02
8.678271435201168060e-03
-1.404466689564287663e-03
7.824721187353134155e-02
-4.747691005468368530e-02
2.623718045651912689e-02
3.290984407067298889e-02
-1.277169585227966309e-02
6.998120248317718506e-02
-1.527667278423905373e-03
4.824540019035339355e-02
-3.528212383389472961e-02
2.741787023842334747e-02
3.822305426001548767e-02
3.543322160840034485e-02
-2.787302993237972260e-02
5.804705992341041565e-02
8.879443258047103882e-02
-2.378575690090656281e-02
-4.289314523339271545e-02
6.006363313645124435e-03
8.758582919836044312e-02
-4.983025044202804565e-02
1.655820012092590332e-02
4.049877822399139404e-02
8.600402623414993286e-02
1.580885797739028931e-02
-1.935438439249992371e-02
-1.194708701223134995e-02
8.231822401285171509e-02
-4.544983431696891785e-02
-2.580506913363933563e-02
-8.074001409113407135e-03
-3.643895685672760010e-02
2.252771053463220596e-03
3.680928424000740051e-02
1.790413446724414825e-02
-1.990268751978874207e-02
-1.844675280153751373e-02
1.975996792316436768e-02
5.388442054390907288e-02
7.496161852031946182e-03
5.100581794977188110e-02
-2.928264811635017395e-02
-1.629102975130081177e-02
