8.960184454917907715e-02
-5.455858632922172546e-02
-1.678831689059734344e-02
-8.130823820829391479e-02
-8.550996333360671997e-02
-1.335319015197455883e-03
1.503160875290632248e-02
-2.710076980292797089e-02
6.772279739379882812e-02
2.365133911371231079e-02
5.657831206917762756e-02
-1.711794361472129822e-02
1.293688081204891205e-02
-8.250170387327671051e-03
5.609727278351783752e-02
3.009685315191745758e-03
3.233926743268966675e-02
-1.193303614854812622e-01
-4.811316728591918945e-02
-5.711337551474571228e-02
-2.081500366330146790e-02
3.940215334296226501e-02
2.113623172044754028e-02
-3.783008828759193420e-02
-2.157508581876754761e-02
2.344116568565368652e-02
1.970397122204303741e-02
3.124219924211502075e-02
-9.601897001266479492e-02
2.589350566267967224e-02
1.935306750237941742e-02
-8.117235451936721802e-02
-7.967301458120346069e-02
8.568421751260757446e-02
-4.613189399242401123e-02
-2.549017593264579773e-02
1.082898676395416260e-02
6.500671058893203735e-02
4.873334430158138275e-03
-1.647628284990787506e-02
-3.328986465930938721e-02
5.099925398826599121e-02
-5.192724242806434631e-02
-6.569817196577787399e-03
3.965995833277702332e-02
1.149649731814861298e-03
-1.811708696186542511e-02
-3.259469941258430481e-02
-1.769311912357807159e-02
-2.767021767795085907e-03
-4.496829956769943237e-02
-2.807210385799407959e-02
-3.460344299674034119e-02
1.691834814846515656e-02
-5.417443346232175827e-03
6.198246404528617859e-02
-1.097348053008317947e-02
-7.596458308398723602e-03
-1.301508676260709763e-02
4.994731768965721130e-02
3.356647118926048279e-02
-7.089120149612426758e-02
6.201066076755523682e-02
-2.344154380261898041e-02
-1.192164346575737000e-01
-2.425705641508102417e-02
-2.941017597913742065e-02
3.190856426954269409e-02
3.645523637533187866e-02
3.108360245823860168e-02
1.321208570152521133e-02
9.274547547101974487e-02
-5.142557621002197266e-02
1.120095839723944664e-03
3.675804473459720612e-03
-3.624245896935462952e-02
-4.314813762903213501e-02
2.471675910055637360e-02
-6.264091283082962036e-02
-2.106833038851618767e-03
-1.660608947277069092e-01
3.202858567237854004e-02
-6.009159144014120102e-03
-5.281456187367439270e-02
1.925365068018436432e-03
3.139863722026348114e-03
-7.515474222600460052e-03
-3.041444532573223114e-02
8.256644010543823242e-02
-2.624447084963321686e-02
2.473185025155544281e-02
-5.535353720188140869e-02
3.375216573476791382e-02
-7.745057344436645508e-02
-4.654265940189361572e-02
-6.311760749667882919e-03
-3.449428128078579903e-03
-2.034923806786537170e-02
-5.127795040607452393e-02
1.334032788872718811e-02
5.557095259428024292e-02
7.227312773466110229e-02
1.790907420217990875e-02
6.781339645385742188e-02
-7.347957789897918701e-02
5.479665845632553101e-02
-2.215541712939739227e-02
-1.132672280073165894e-01
-2.540640532970428467e-03
2.207114361226558685e-02
2.393641136586666107e-02
-2.145214937627315521e-02
2.864370122551918030e-02
-1.094301138073205948e-02
1.870025135576725006e-02
3.210265934467315674e-02
-7.201023399829864502e-02
2.953488193452358246e-02
-1.350824981927871704e-01
-2.129954472184181213e-02
2.460559597238898277e-03
4.197881370782852173e-02
3.509317990392446518e-03
4.469568282365798950e-02
-4.876264370977878571e-03
-3.474796190857887268e-02
-3.403348848223686218e-03
-1.821955852210521698e-02
3.258064761757850647e-02
1.602903008460998535e-02
-1.751147210597991943e-02
9.906638413667678833e-02
-2.088224937324412167e-05
2.744208462536334991e-02
-5.506297200918197632e-02
7.928557693958282471e-03
-2.216862700879573822e-02
2.518177032470703125e-02
1.206366121768951416e-01
-1.099315956234931946e-01
5.988294258713722229e-02
-1.538232062011957169e-02
-1.158415898680686951e-01
4.425708577036857605e-02
-3.596910974010825157e-03
2.341064624488353729e-02
-3.550286218523979187e-02
-4.132724553346633911e-02
-9.221405535936355591e-02
2.460310934111475945e-03
7.588855922222137451e-02
4.233842715620994568e-02
6.557723134756088257e-02
1.990488497540354729e-03
3.040136955678462982e-02
7.716147694736719131e-03
-4.387877508997917175e-02
1.170408073812723160e-02
-9.219805151224136353e-02
1.295727305114269257e-02
2.436404116451740265e-03
3.697015345096588135e-02
-5.989208444952964783e-02
-1.002946346998214722e-01
-5.845331586897373199e-03
7.756889611482620239e-02
-1.078990194946527481e-02
1.042503211647272110e-02
7.784794270992279053e-02
-4.233623296022415161e-02
2.270712889730930328e-02
2.512280270457267761e-02
5.325835198163986206e-02
-4.544978961348533630e-02
-7.953806221485137939e-02
-1.125901844352483749e-02
1.329964399337768555e-02
-2.302269637584686279e-02
8.321664482355117798e-02
-4.109450802206993103e-02
1.411433890461921692e-02
-2.760266698896884918e-02
-1.266895532608032227e-01
1.243046764284372330e-02
2.830109931528568268e-02
6.151942536234855652e-02
-3.511368110775947571e-02
-2.327196113765239716e-02
-1.540657132863998413e-02
4.621712490916252136e-02
-4.041992500424385071e-02
-7.496195286512374878e-02
-1.929827994899824262e-04
4.662228003144264221e-02
-5.175280570983886719e-02
3.631465660873800516e-04
-1.459348294883966446e-02
6.428796914406120777e-04
1.275187544524669647e-02
7.328528910875320435e-02
3.739941865205764771e-02
-5.666154995560646057e-02
-1.301361341029405594e-02
-6.123275682330131531e-02
-1.777632348239421844e-02
-1.338715851306915283e-02
-1.783071272075176239e-02
1.351160462945699692e-02
-5.712537840008735657e-02
-6.961506605148315430e-02
-4.885253682732582092e-02
8.267614059150218964e-03
2.173263952136039734e-02
-4.625121504068374634e-02
-3.542416915297508240e-02
8.019442111253738403e-02
-1.790238358080387115e-02
-1.793230138719081879e-02
-5.370764061808586121e-02
-3.000434860587120056e-02
6.500715017318725586e-02
1.071496382355690002e-01
1.367298811674118042e-01
-9.941927157342433929e-03
-5.741338059306144714e-02
5.992492660880088806e-02
-5.679675843566656113e-03
5.354721099138259888e-03
2.143664285540580750e-02
-1.219347771257162094e-02
7.111171633005142212e-02
-1.618511043488979340e-02
-1.576768793165683746e-02
-9.632892161607742310e-02
-1.518415007740259171e-02
3.660586103796958923e-02
-5.854474380612373352e-02
5.656625702977180481e-02
6.192517653107643127e-02
-2.024230174720287323e-02
3.620639070868492126e-02
-2.761872299015522003e-02
3.312852233648300171e-02
-6.039890274405479431e-02
6.056441366672515869e-02
3.257256746292114258e-02
5.723902955651283264e-02
-6.724304705858230591e-02
6.346715986728668213e-02
-9.561330080032348633e-03
3.459528833627700806e-02
2.150754630565643311e-02
2.501448802649974823e-02
-4.840467590838670731e-03
-1.746994256973266602e-02
1.432526670396327972e-02
