-4.181021153926849365e-01 5.846080929040908813e-02 2.162178903818130493e-01 4.782409220933914185e-02 -1.687747775577008724e-03 -6.190268322825431824e-02 2.451960556209087372e-02 7.427125424146652222e-02 -1.169008091092109680e-01 -8.388154208660125732e-02 -2.823675237596035004e-02 1.409216672182083130e-01 -9.162181615829467773e-02 1.714348644018173218e-01 1.043039858341217041e-01 2.689453773200511932e-02 7.217422127723693848e-02 2.042596600949764252e-02 -8.013951033353805542e-02 3.463876992464065552e-02 -2.760126255452632904e-02 2.750474959611892700e-02 -6.916362792253494263e-02 1.369742453098297119e-01 5.314561538398265839e-03 -4.380491748452186584e-02 -6.819728016853332520e-02 -8.373857289552688599e-02 6.075364351272583008e-02 3.307181224226951599e-02
-1.701980680227279663e-01 1.476835459470748901e-01 -3.707591444253921509e-02 2.823417261242866516e-02 -1.395929977297782898e-02 7.656034827232360840e-02 -2.956828661262989044e-02 -3.368137404322624207e-02 -1.766438782215118408e-01 -1.369146406650543213e-01 1.690425444394350052e-03 4.291225969791412354e-02 5.838346108794212341e-02 -9.712046012282371521e-04 1.043700724840164185e-01 1.481531467288732529e-02 -7.973784953355789185e-02 1.361848562955856323e-01 -4.601632244884967804e-03 -1.613732278347015381e-01 2.817707881331443787e-02 -1.677442900836467743e-02 4.529815539717674255e-02 -2.439568005502223969e-02 2.298476696014404297e-01 -4.469646513462066650e-02 3.235959261655807495e-02 -1.334621310234069824e-01 5.408973619341850281e-02 1.729640737175941467e-02
-2.818801701068878174e-01 1.636883169412612915e-01 4.217284023761749268e-01 -1.338643878698348999e-01 -6.614172458648681641e-02 3.524303063750267029e-02 -7.211420685052871704e-02 6.361386924982070923e-02 8.252399042248725891e-03 1.010653823614120483e-01 4.002182278782129288e-03 -2.823900617659091949e-02 -1.034782677888870239e-01 -1.090496312826871872e-02 -3.393404185771942139e-02 -1.445332020521163940e-01 5.228707194328308105e-02 -2.903628908097743988e-02 2.672471804544329643e-03 -1.158463861793279648e-02 1.642404496669769287e-01 1.495771557092666626e-01 -1.323448270559310913e-01 -6.723886355757713318e-03 1.553302407264709473e-01 2.257349900901317596e-02 -2.857612073421478271e-02 -1.295873373746871948e-01 -3.304933384060859680e-02 -3.641905635595321655e-02
2.316404432058334351e-01 1.845979690551757812e-01 5.937015265226364136e-02 -2.026005536317825317e-01 4.349649697542190552e-02 3.969822078943252563e-02 -1.719763576984405518e-01 -3.122522495687007904e-02 -1.212243437767028809e-01 3.926406614482402802e-03 -5.282702669501304626e-02 -3.573657199740409851e-02 3.454469889402389526e-02 1.298781484365463257e-01 -1.714649349451065063e-01 1.498751435428857803e-02 7.176884263753890991e-02 -2.364699989557266235e-01 -1.312692910432815552e-01 3.523901849985122681e-02 -1.365316957235336304e-01 -6.192515790462493896e-02 8.787093684077262878e-03 -1.282437294721603394e-01 4.571498837321996689e-03 -5.518106278032064438e-03 1.938689127564430237e-02 -5.936361104249954224e-02 1.889907270669937134e-01 6.433003395795822144e-02
-2.278563939034938812e-02 -1.964116245508193970e-01 -2.347209677100181580e-02 -1.936721801757812500e-02 -1.045057773590087891e-01 -7.526910305023193359e-02 -1.316451583988964558e-03 -2.361822500824928284e-02 -6.843373179435729980e-02 -5.777701735496520996e-02 -2.177198529243469238e-01 -8.852335810661315918e-02 3.600395470857620239e-02 -2.858993783593177795e-02 1.649960577487945557e-01 9.843103587627410889e-02 -1.093892976641654968e-01 1.698001623153686523e-01 4.391336813569068909e-02 -8.167397230863571167e-02 -3.220326080918312073e-02 -2.606078051030635834e-02 -1.373465918004512787e-02 -1.114942729473114014e-01 -1.781655289232730865e-02 -6.516557931900024414e-02 1.476446539163589478e-01 3.031728230416774750e-02 9.821921586990356445e-02 1.035487502813339233e-01
1.673396676778793335e-01 -3.376374840736389160e-01 2.486571669578552246e-01 1.674258559942245483e-01 3.874183073639869690e-02 -5.777474120259284973e-02 -1.081189811229705811e-01 1.147989090532064438e-02 -8.667340874671936035e-02 -9.038285911083221436e-02 9.577716886997222900e-02 -1.932166814804077148e-01 8.389159291982650757e-02 3.819672390818595886e-02 3.390885144472122192e-02 -2.527534775435924530e-02 -6.444908678531646729e-02 -5.436756089329719543e-02 -1.142080035060644150e-02 8.650154620409011841e-02 9.925635159015655518e-02 1.255726069211959839e-01 -3.496081754565238953e-02 1.373568326234817505e-01 4.890466853976249695e-02 -6.684162467718124390e-02 -5.011665076017379761e-02 1.409036070108413696e-01 1.029668003320693970e-01 1.309291925281286240e-02
3.755028918385505676e-02 9.574739634990692139e-02 -3.240128755569458008e-01 2.257695943117141724e-01 1.045108288526535034e-01 3.737758146598935127e-03 -3.251603990793228149e-02 1.370444148778915405e-01 -1.689324975013732910e-01 4.861328378319740295e-02 -1.518293321132659912e-01 -2.050050161778926849e-02 1.278262026607990265e-02 5.828143283724784851e-02 8.087093383073806763e-02 -1.583677716553211212e-02 -3.618510672822594643e-04 -1.557785868644714355e-01 3.904199600219726562e-02 -4.603288322687149048e-02 8.997391164302825928e-02 -5.232562497258186340e-02 9.309045225381851196e-02 6.727755814790725708e-02 -1.833610050380229950e-02 1.419413685798645020e-01 3.499182686209678650e-02 -1.436741352081298828e-01 -7.124802470207214355e-02 -6.149299070239067078e-02
-5.010252594947814941e-01 1.847591251134872437e-01 2.086558006703853607e-02 6.325919181108474731e-02 1.505651976913213730e-02 1.654783040285110474e-01 -7.227672636508941650e-02 -1.001154929399490356e-01 9.093936532735824585e-02 -1.520878821611404419e-01 -1.692689806222915649e-01 6.783649325370788574e-03 -1.646290160715579987e-02 -1.482025720179080963e-02 7.860065996646881104e-02 2.421520277857780457e-02 9.034320712089538574e-02 -4.034058004617691040e-02 -2.410391345620155334e-02 1.562780141830444336e-01 -2.482867427170276642e-02 5.735181272029876709e-02 1.457832194864749908e-02 -1.674546487629413605e-02 4.881040006875991821e-02 2.397786453366279602e-02 1.104679107666015625e-01 -1.848426833748817444e-02 7.159478962421417236e-02 2.352139540016651154e-02
-3.476564288139343262e-01 -5.487352013587951660e-01 -2.794806659221649170e-01 -1.536664962768554688e-01 4.208106175065040588e-02 2.368642389774322510e-02 -6.213883869349956512e-03 3.858125302940607071e-03 1.194049022160470486e-03 3.779188171029090881e-02 1.264630910009145737e-02 2.326952368021011353e-01 -2.162485383450984955e-02 1.028741374611854553e-01 -6.044703349471092224e-02 -7.593450695276260376e-02 2.231778018176555634e-02 1.137302666902542114e-01 1.047991663217544556e-01 2.386936452239751816e-03 6.487781554460525513e-02 1.287786960601806641e-01 1.306464523077011108e-01 1.030598953366279602e-01 1.894889175891876221e-01 3.668340668082237244e-02 -4.221014678478240967e-02 1.082418262958526611e-01 -4.444008693099021912e-02 -1.223606839776039124e-01
-1.780849695205688477e-01 3.121152333915233612e-02 -9.587355703115463257e-02 2.601726725697517395e-02 6.162202917039394379e-03 1.352893188595771790e-02 -6.124782562255859375e-02 8.908760547637939453e-02 4.162987321615219116e-02 8.428384363651275635e-02 -3.754625469446182251e-02 1.546842902898788452e-01 1.907857507467269897e-01 1.497211866080760956e-02 -2.162841707468032837e-02 -1.351033896207809448e-01 -7.063351571559906006e-02 -4.658324643969535828e-02 8.711931109428405762e-02 5.686713010072708130e-02 1.232048403471708298e-02 6.689491122961044312e-02 -1.091357171535491943e-01 4.219628497958183289e-02 2.124494314193725586e-01 4.511305596679449081e-03 -4.655835777521133423e-02 9.864817559719085693e-02 2.500860691070556641e-01 -5.090713128447532654e-02
5.363606214523315430e-01 4.410163760185241699e-01 2.175260335206985474e-02 -4.507903382182121277e-02 -9.410101175308227539e-02 -3.750715404748916626e-02 -1.311828345060348511e-01 1.017789542675018311e-01 -4.265174269676208496e-03 5.284118279814720154e-02 1.181451305747032166e-01 5.566583573818206787e-02 1.161352032795548439e-03 2.579245716333389282e-02 -6.650981307029724121e-02 7.419123314321041107e-03 3.598165512084960938e-02 -1.283352822065353394e-01 -7.425433397293090820e-02 -8.766453713178634644e-03 7.176271826028823853e-02 -5.380313470959663391e-02 -9.297810494899749756e-02 -3.173055499792098999e-02 4.888721555471420288e-02 9.891226142644882202e-02 -9.334073401987552643e-03 -1.190383285284042358e-01 1.274635493755340576e-01 -7.314418256282806396e-02
-7.749774307012557983e-02 2.371669188141822815e-02 3.225648403167724609e-02 3.101619705557823181e-02 2.766483090817928314e-02 -7.844737917184829712e-02 1.486535072326660156e-01 5.065272375941276550e-02 -4.202576726675033569e-02 -1.919684931635856628e-02 1.535710841417312622e-01 2.884218096733093262e-02 7.702247798442840576e-02 7.439912110567092896e-02 -7.542434334754943848e-02 1.646761409938335419e-02 -1.571544110774993896e-01 -1.432865951210260391e-02 2.280644513666629791e-02 -1.776893436908721924e-01 -5.970720946788787842e-02 -1.085199066437780857e-03 4.559917002916336060e-02 -4.965606331825256348e-02 -1.186648532748222351e-01 5.429835245013237000e-02 -6.259981542825698853e-02 1.482722163200378418e-01 -9.870382398366928101e-02 4.978389665484428406e-02
3.551724553108215332e-01 8.565066382288932800e-03 -3.531344234943389893e-01 4.739774391055107117e-02 -2.065092176198959351e-01 7.718954980373382568e-02 4.183306545019149780e-02 -2.242131903767585754e-02 -7.924443483352661133e-02 9.137591719627380371e-02 2.684337832033634186e-02 6.522021442651748657e-02 -1.087033674120903015e-01 -3.138741850852966309e-02 1.560411751270294189e-01 -2.241558954119682312e-02 -2.582816965878009796e-02 3.422018513083457947e-02 4.775060340762138367e-02 1.060987710952758789e-01 -2.457230910658836365e-02 1.101851686835289001e-01 2.221257984638214111e-02 7.540929317474365234e-02 2.951402589678764343e-02 -1.418138593435287476e-01 7.483068853616714478e-02 -2.351496964693069458e-01 1.456852257251739502e-01 -8.877753466367721558e-02
1.615946181118488312e-02 -1.531563401222229004e-01 -1.393286436796188354e-01 1.335963457822799683e-01 -1.338948011398315430e-01 1.783559918403625488e-01 -8.745446056127548218e-02 7.574783265590667725e-02 -2.236826904118061066e-02 3.997911140322685242e-02 7.896871864795684814e-02 -6.191327050328254700e-02 8.099975436925888062e-02 1.309607829898595810e-02 1.024565100669860840e-01 5.387327820062637329e-02 -1.325050145387649536e-01 2.179209329187870026e-02 -9.392592310905456543e-02 -1.308840215206146240e-01 6.428755819797515869e-02 1.521170139312744141e-01 -4.099107172805815935e-04 2.981442585587501526e-02 -4.763895645737648010e-02 -1.564348787069320679e-01 6.408236175775527954e-02 -4.881012067198753357e-02 -2.832542955875396729e-01 -2.591052092611789703e-02
-2.549675405025482178e-01 -4.027545750141143799e-01 -1.860927417874336243e-02 3.696044534444808960e-02 9.476492553949356079e-02 1.481197178363800049e-01 6.263731420040130615e-02 -6.804199516773223877e-02 1.890349984169006348e-01 -6.254363059997558594e-02 1.925516873598098755e-01 1.437148451805114746e-01 9.813464432954788208e-02 3.511333093047142029e-02 -7.077644765377044678e-02 3.860547393560409546e-02 1.165634170174598694e-01 1.334992349147796631e-01 -2.969314577057957649e-03 -1.076839864253997803e-01 -3.243901208043098450e-02 -5.640932917594909668e-02 2.149715321138501167e-03 1.161769032478332520e-01 9.299619495868682861e-02 6.716695427894592285e-02 6.428057700395584106e-02 -3.256309330463409424e-01 1.372164189815521240e-01 -5.947203189134597778e-02
1.392801254987716675e-01 -9.864421561360359192e-03 3.856887221336364746e-01 1.135845854878425598e-01 -9.198450297117233276e-02 1.785081927664577961e-03 4.290961474180221558e-02 3.309525921940803528e-02 1.014912053942680359e-01 -8.275487273931503296e-02 3.701755404472351074e-02 7.960475236177444458e-02 6.379155069589614868e-02 -4.358443617820739746e-02 -1.157958656549453735e-01 -1.008602306246757507e-01 2.866898290812969208e-02 1.056491583585739136e-01 9.900423139333724976e-02 6.205786019563674927e-02 8.767051622271537781e-04 7.204902172088623047e-02 3.025774843990802765e-02 9.156134724617004395e-02 -1.352908741682767868e-02 -9.828140586614608765e-02 2.441614307463169098e-02 9.783152490854263306e-02 -1.193890422582626343e-01 -4.298438318073749542e-03
-2.103140950202941895e-02 7.847724854946136475e-02 -2.039221376180648804e-01 -4.207971971482038498e-03 1.488411873579025269e-01 5.293954163789749146e-02 1.026175320148468018e-01 -8.930104225873947144e-02 -2.357190847396850586e-02 -1.363180670887231827e-02 -3.172515705227851868e-02 6.867697834968566895e-02 2.233107388019561768e-02 -1.380049139261245728e-01 1.681853532791137695e-01 2.021289989352226257e-02 6.293240189552307129e-02 6.047016009688377380e-02 -9.767194837331771851e-02 1.024458333849906921e-01 -3.464413434267044067e-02 -1.614603213965892792e-02 -1.319000571966171265e-01 1.861202716827392578e-02 1.973490044474601746e-02 2.406017780303955078e-01 9.539535641670227051e-02 1.841659471392631531e-02 1.848834007978439331e-01 1.425488442182540894e-01
-7.380516827106475830e-02 -4.654721021652221680e-01 1.530262529850006104e-01 1.329379230737686157e-01 -4.339693114161491394e-02 -8.639622479677200317e-03 1.406995654106140137e-01 -1.153178662061691284e-01 -1.527845486998558044e-02 -4.419948160648345947e-02 5.385738238692283630e-02 9.269309043884277344e-02 4.221538826823234558e-02 -5.518063530325889587e-02 -1.226842924952507019e-01 -3.249258920550346375e-02 8.824609220027923584e-02 1.047949418425559998e-01 -7.217811793088912964e-02 -7.531359326094388962e-03 5.757880955934524536e-02 -6.040439382195472717e-02 -5.117948353290557861e-02 1.689674407243728638e-01 6.661164015531539917e-02 -4.812841303646564484e-03 -4.423751309514045715e-02 1.887625157833099365e-01 -1.447044499218463898e-02 -2.651421912014484406e-02
3.239066004753112793e-01 5.292720720171928406e-02 2.346635013818740845e-01 -5.234615877270698547e-02 2.025722526013851166e-02 9.406246244907379150e-02 -1.687702722847461700e-02 6.103466451168060303e-02 -4.690705239772796631e-02 -6.050400063395500183e-02 1.049298197031021118e-01 -2.744563855230808258e-02 -1.216110587120056152e-01 -2.191991917788982391e-02 1.808568686246871948e-01 -6.563960760831832886e-02 -1.756329238414764404e-01 4.873693734407424927e-02 8.668416558066383004e-05 8.670718671055510640e-05 -1.291990131139755249e-01 -7.567650824785232544e-02 -1.253555119037628174e-01 -1.780288517475128174e-01 -3.625928983092308044e-02 1.600063145160675049e-01 5.228838324546813965e-02 -1.327268779277801514e-01 -2.965441346168518066e-02 1.830040849745273590e-02
-9.624896571040153503e-03 -2.131856977939605713e-01 -1.192360818386077881e-01 7.198359072208404541e-02 7.281755656003952026e-02 -5.908045917749404907e-02 -1.414867397397756577e-02 -4.289514571428298950e-02 1.735267415642738342e-02 -6.967702507972717285e-02 4.701355844736099243e-02 8.875818550586700439e-02 6.801857054233551025e-02 -1.808852516114711761e-02 -1.966517046093940735e-02 -6.253250874578952789e-03 7.288180757313966751e-03 7.214239239692687988e-02 4.546539857983589172e-02 -6.063481420278549194e-02 1.918438635766506195e-02 -1.152913831174373627e-02 -2.615976333618164062e-02 -4.430779814720153809e-02 -1.185719389468431473e-02 2.470178343355655670e-02 1.962371869012713432e-03 -9.907292574644088745e-02 2.112388052046298981e-02 -5.035592988133430481e-02
3.067850768566131592e-01 -1.362264528870582581e-02 2.313131988048553467e-01 3.535652160644531250e-02 2.606250941753387451e-01 1.786211505532264709e-02 2.086428254842758179e-01 5.722662806510925293e-02 -1.030152216553688049e-01 -2.245654352009296417e-03 -6.102975085377693176e-02 2.554870676249265671e-03 5.444635823369026184e-02 1.926847994327545166e-01 -8.153672516345977783e-02 3.468414302915334702e-03 8.248033374547958374e-02 4.776913300156593323e-02 4.049349948763847351e-02 6.943711778149008751e-04 4.116555303335189819e-02 -6.859601289033889771e-02 -2.295840382575988770e-01 8.021885901689529419e-02 1.501613017171621323e-02 -1.611757650971412659e-02 -2.405738681554794312e-01 1.616837456822395325e-02 -4.150992259383201599e-02 1.194767579436302185e-01
-8.049400150775909424e-02 2.659826874732971191e-01 1.919181086122989655e-02 -4.085811600089073181e-02 -1.275452822446823120e-01 1.411518007516860962e-01 -3.491368517279624939e-02 1.837173551321029663e-01 7.587478309869766235e-02 -9.295839816331863403e-02 -9.621536731719970703e-02 7.772967219352722168e-02 7.410550117492675781e-02 7.397971930913627148e-04 -4.196554422378540039e-02 1.023695170879364014e-01 -1.054145097732543945e-01 -2.423492260277271271e-02 -1.561973243951797485e-01 2.420831285417079926e-02 6.432373076677322388e-02 -4.339044168591499329e-02 -3.498996794223785400e-02 -6.483114510774612427e-02 -4.914491996169090271e-02 -7.085511088371276855e-02 -5.918081849813461304e-02 -2.589275129139423370e-02 3.864911198616027832e-01 3.341929242014884949e-02
-1.898579150438308716e-01 5.985609292984008789e-01 -5.112727284431457520e-01 -1.541585177183151245e-01 5.985193885862827301e-03 -7.561478018760681152e-02 -4.741833731532096863e-02 -1.196127533912658691e-01 1.017198190093040466e-01 1.442884467542171478e-02 1.406406909227371216e-01 -2.756570233032107353e-03 -1.418466269969940186e-01 1.170318648219108582e-01 6.987466476857662201e-03 -3.535090386867523193e-02 -5.419722571969032288e-02 -7.717987149953842163e-02 -1.147487983107566833e-01 6.286149844527244568e-03 -6.729356944561004639e-02 -3.899906948208808899e-02 -3.054629266262054443e-02 -9.640953689813613892e-02 6.868268363177776337e-03 4.933930933475494385e-02 -4.685192182660102844e-02 -9.203721582889556885e-02 -5.004701390862464905e-02 3.756438568234443665e-02
1.038099676370620728e-01 -1.053250208497047424e-01 -1.284020990133285522e-01 -6.643392890691757202e-02 9.049477428197860718e-02 1.013031974434852600e-02 6.223837658762931824e-02 8.769632875919342041e-02 1.969852671027183533e-02 -1.930070519447326660e-01 1.164862513542175293e-02 1.015631631016731262e-01 8.243963122367858887e-02 1.122780442237854004e-01 1.575622856616973877e-01 -1.208761781454086304e-01 2.072951197624206543e-02 -1.556732207536697388e-01 8.439542353153228760e-02 -7.964396476745605469e-02 -1.465801522135734558e-02 1.001506522297859192e-01 -8.240933716297149658e-02 1.396750751882791519e-02 -8.401701599359512329e-02 -2.889730408787727356e-02 1.153922826051712036e-01 -1.264011263847351074e-01 -1.939386874437332153e-02 -4.481552913784980774e-02
-7.694666087627410889e-02 -1.186618730425834656e-01 -4.525874853134155273e-01 -8.422149345278739929e-03 -1.464232504367828369e-01 1.064843218773603439e-02 -3.486503660678863525e-02 1.458187699317932129e-01 -3.514487296342849731e-02 1.358042936772108078e-02 9.980075992643833160e-03 -1.426756680011749268e-01 -5.814777314662933350e-02 1.465829610824584961e-01 -1.321179419755935669e-01 -6.241768226027488708e-02 -8.556088060140609741e-02 2.713099680840969086e-02 8.883274346590042114e-02 -3.083286620676517487e-02 7.216325402259826660e-02 2.751884050667285919e-02 1.050967536866664886e-02 1.717218160629272461e-01 -1.335594803094863892e-01 -5.391891673207283020e-02 5.185134336352348328e-02 1.315450761467218399e-02 3.227347508072853088e-02 5.216223374009132385e-02
-2.195011451840400696e-02 5.243870988488197327e-02 -5.917115807533264160e-01 -1.448286883533000946e-02 1.182593852281570435e-01 5.132096260786056519e-02 1.337795555591583252e-01 6.266749650239944458e-02 1.274266541004180908e-01 3.602065891027450562e-02 -4.271480441093444824e-02 -4.838401824235916138e-02 1.030547916889190674e-01 5.623580422252416611e-03 -5.851310864090919495e-02 7.107751816511154175e-02 6.066830363124608994e-03 4.112103953957557678e-02 2.767360769212245941e-02 5.386003106832504272e-02 9.789767116308212280e-02 -1.697075180709362030e-02 4.985422641038894653e-02 -5.912011489272117615e-02 4.785917326807975769e-02 3.729920089244842529e-02 -8.021880686283111572e-02 -6.736015900969505310e-03 2.731003761291503906e-01 -4.789976403117179871e-02
2.932557165622711182e-01 1.292712688446044922e-01 -1.183524494990706444e-03 3.092225454747676849e-02 9.662210941314697266e-02 5.004664510488510132e-02 -7.710589468479156494e-02 1.387931257486343384e-01 -2.704700641334056854e-02 -3.027143329381942749e-02 -1.041992381215095520e-02 5.406029522418975830e-02 -8.136664330959320068e-02 6.680285185575485229e-02 -1.137181743979454041e-01 5.449977889657020569e-02 -8.929747343063354492e-02 1.026544254273176193e-02 -1.173373088240623474e-01 -2.094230055809020996e-01 -2.743547409772872925e-02 9.088280051946640015e-02 -7.334374636411666870e-02 -2.374143749475479126e-01 -2.620045281946659088e-02 -3.464898467063903809e-02 -2.496002241969108582e-02 4.306729137897491455e-02 1.443509105592966080e-02 3.251298144459724426e-02
-1.994306594133377075e-01 3.338079154491424561e-01 -2.610470652580261230e-01 -2.095026522874832153e-02 -9.687690064311027527e-03 1.462927907705307007e-01 -8.964555710554122925e-02 6.366675347089767456e-02 1.381047163158655167e-02 2.385760284960269928e-02 -7.988507859408855438e-03 5.821289494633674622e-02 -1.228633597493171692e-01 1.303344778716564178e-02 3.765080124139785767e-02 -2.736286446452140808e-02 3.219942003488540649e-02 -8.655816316604614258e-02 -5.239173304289579391e-03 -7.297398149967193604e-02 3.150143101811408997e-02 1.375136226415634155e-01 1.803860627114772797e-02 2.151473425328731537e-02 -5.533787235617637634e-02 -1.681154221296310425e-02 5.594559479504823685e-04 -1.330009251832962036e-01 1.578304022550582886e-01 5.068268254399299622e-02
5.227202177047729492e-02 -2.356087788939476013e-02 -1.531323045492172241e-02 4.248737823218107224e-03 -9.719631075859069824e-02 -1.230534538626670837e-02 -5.500967800617218018e-02 2.870702557265758514e-02 -1.469873487949371338e-01 -6.167636811733245850e-02 -5.991723388433456421e-03 -2.727142870426177979e-01 -1.215841695666313171e-01 -6.339238025248050690e-03 -1.344300154596567154e-02 2.252545952796936035e-02 6.826107203960418701e-02 6.754162907600402832e-02 -2.486954033374786377e-01 -7.278229575604200363e-03 -7.832052558660507202e-02 -7.732372730970382690e-02 6.990480702370405197e-03 3.164689987897872925e-02 5.803126096725463867e-02 -7.631319016218185425e-02 1.641973257064819336e-01 5.456747487187385559e-02 7.189569622278213501e-02 -1.928216777741909027e-02
-4.713651239871978760e-01 -7.867866754531860352e-01 -3.438286483287811279e-01 2.051162347197532654e-02 -1.870137266814708710e-02 -6.891991011798381805e-03 1.646532118320465088e-01 -3.727106377482414246e-02 1.426773518323898315e-01 2.090314519591629505e-04 1.128304824233055115e-01 -2.287631388753652573e-03 -6.475757807493209839e-02 1.509898528456687927e-02 -7.747608423233032227e-02 -5.446317791938781738e-02 -1.528556942939758301e-01 2.186223678290843964e-02 -2.699041552841663361e-02 -2.240016497671604156e-02 -5.560719221830368042e-02 8.839605003595352173e-02 8.315664716064929962e-03 5.635944753885269165e-02 1.061687618494033813e-01 1.390874665230512619e-02 -9.244222939014434814e-02 -4.878274723887443542e-02 5.488351732492446899e-02 -2.171415835618972778e-02
-1.233548671007156372e-01 7.523739933967590332e-01 2.496652752161026001e-01 -1.007966771721839905e-01 -7.355135399848222733e-03 1.846668496727943420e-02 9.561446495354175568e-03 -7.868690788745880127e-02 -3.187835589051246643e-02 4.890770837664604187e-02 8.837046474218368530e-02 7.525437325239181519e-02 -9.673797339200973511e-02 5.210783705115318298e-02 -6.773112714290618896e-02 -7.266736775636672974e-02 9.108138829469680786e-02 4.691669717431068420e-02 -8.848641812801361084e-02 2.836008369922637939e-02 2.107416652143001556e-02 2.828296832740306854e-02 -1.203620135784149170e-01 -1.227979809045791626e-01 -9.681487828493118286e-02 -5.927003547549247742e-02 -1.718797087669372559e-01 -3.858670219779014587e-02 1.363868359476327896e-02 -6.311446428298950195e-02
1.438523530960083008e-01 -1.713687330484390259e-01 9.752973169088363647e-02 -3.001298755407333374e-02 1.515540331602096558e-01 -2.481881901621818542e-02 3.920203819870948792e-02 -1.032698974013328552e-01 1.027540639042854309e-01 -1.060637272894382477e-02 1.492661237716674805e-01 -6.895472854375839233e-02 1.244635730981826782e-01 -7.587226480245590210e-02 1.507092453539371490e-02 -3.990367799997329712e-02 -1.643639057874679565e-02 8.477468788623809814e-02 -1.896207407116889954e-02 3.017456643283367157e-02 -4.538048803806304932e-02 -2.874213643372058868e-02 1.412901878356933594e-01 6.167872995138168335e-02 5.124662071466445923e-02 5.169490724802017212e-02 8.219008892774581909e-02 -2.068603336811065674e-01 6.526903808116912842e-02 -1.271474212408065796e-01
3.400967642664909363e-02 2.191265970468521118e-01 -1.553321331739425659e-01 -1.360166934318840504e-03 2.640516869723796844e-02 -7.556331902742385864e-02 1.608412899076938629e-02 5.260223150253295898e-02 8.551651611924171448e-03 5.566930770874023438e-02 6.203834339976310730e-02 -9.496214985847473145e-02 1.123276352882385254e-01 -1.233147680759429932e-01 6.089037749916315079e-03 1.435479428619146347e-02 1.721572317183017731e-02 -9.135667234659194946e-02 1.874339208006858826e-02 1.125691533088684082e-01 4.231919720768928528e-02 -4.543486982583999634e-02 -3.203719388693571091e-03 -8.195672929286956787e-02 6.884118169546127319e-02 7.210163772106170654e-02 -1.641016304492950439e-01 1.875354796648025513e-01 1.073171347379684448e-01 5.830346792936325073e-02
5.673535466194152832e-01 -2.994794249534606934e-01 5.810332894325256348e-01 -6.156300380825996399e-02 -2.609189599752426147e-03 3.649003058671951294e-02 -9.077545255422592163e-02 -4.733221232891082764e-02 1.400402188301086426e-01 6.992256268858909607e-03 -1.166240423917770386e-01 -4.603571444749832153e-02 5.261564999818801880e-02 -1.290114074945449829e-01 -1.479117572307586670e-01 -1.176273673772811890e-01 -1.473349053412675858e-03 5.736693739891052246e-02 7.992660999298095703e-02 3.118692934513092041e-01 5.190242081880569458e-02 1.032819375395774841e-01 -1.180788129568099976e-01 -4.532873630523681641e-02 1.330292038619518280e-02 4.449648782610893250e-02 -2.101865597069263458e-02 1.040662154555320740e-01 2.254837006330490112e-02 -4.919721186161041260e-02
1.089493408799171448e-01 -4.925767183303833008e-01 6.379093229770660400e-02 -4.324334859848022461e-02 -1.667706072330474854e-01 -1.177043840289115906e-01 -9.959245100617408752e-03 1.409449875354766846e-01 6.649608165025711060e-02 1.588549651205539703e-02 7.337818294763565063e-02 3.683926910161972046e-02 -1.116409748792648315e-01 1.558263599872589111e-01 -1.028243526816368103e-01 9.290457516908645630e-02 1.659856289625167847e-01 -6.481968611478805542e-02 5.174537375569343567e-02 -1.699863821268081665e-01 -7.364504039287567139e-02 3.869499079883098602e-03 -4.978625103831291199e-02 4.649628326296806335e-02 -4.561752825975418091e-02 5.913187190890312195e-02 5.562126636505126953e-02 1.800135225057601929e-01 9.116978198289871216e-02 3.281427174806594849e-02
-1.327764336019754410e-02 1.435777992010116577e-01 -2.438241243362426758e-01 6.002109125256538391e-02 1.895993575453758240e-02 -1.893218606710433960e-01 8.032004535198211670e-02 2.256726473569869995e-02 1.011550426483154297e-02 -3.230905905365943909e-02 -9.555847942829132080e-02 3.539329767227172852e-02 5.757459253072738647e-02 1.771076954901218414e-02 4.106700792908668518e-02 -7.035963237285614014e-02 1.319302245974540710e-02 -1.571586728096008301e-02 3.589164465665817261e-02 3.287815302610397339e-02 1.603055559098720551e-02 -7.070991396903991699e-02 2.354010567069053650e-02 7.757674157619476318e-02 4.017438739538192749e-02 -1.075461730360984802e-01 -4.286129027605056763e-02 -3.026691973209381104e-01 -1.016543135046958923e-01 4.010576754808425903e-02
4.411894977092742920e-01 -3.460338115692138672e-01 5.195285677909851074e-01 -6.820946186780929565e-02 -4.380402714014053345e-02 4.170992597937583923e-02 -7.452573627233505249e-02 4.211324453353881836e-02 -5.846018716692924500e-02 -3.099783137440681458e-02 5.975343659520149231e-02 3.002915903925895691e-02 -2.991401031613349915e-02 -2.332606725394725800e-02 -8.728443086147308350e-02 7.900059223175048828e-02 6.643325090408325195e-02 -2.113280817866325378e-02 3.186143934726715088e-02 1.159639358520507812e-01 4.274864681065082550e-03 -3.832460567355155945e-02 -1.404347717761993408e-01 1.189054921269416809e-01 1.204796358942985535e-01 -7.249596994370222092e-03 -4.409059137105941772e-02 3.193093836307525635e-02 -2.991667017340660095e-02 -6.155489385128021240e-02
-2.225323170423507690e-01 8.495826125144958496e-01 1.233776733279228210e-01 -1.067742779850959778e-01 -1.757224835455417633e-02 -6.580393761396408081e-02 -1.109848767518997192e-01 3.968867287039756775e-02 -4.344579204916954041e-02 1.582071185111999512e-02 5.565275624394416809e-02 6.148212030529975891e-02 -9.142633527517318726e-02 -1.913579255342483521e-01 3.258854523301124573e-02 3.203209489583969116e-02 7.568281888961791992e-02 -1.098358258605003357e-01 -6.485422700643539429e-02 -4.975505638867616653e-03 9.786158055067062378e-02 -1.646000146865844727e-02 1.040303781628608704e-01 -1.517080143094062805e-02 -1.670193523168563843e-01 -1.415361650288105011e-02 1.265680938959121704e-01 -1.341354697942733765e-01 -5.018180981278419495e-02 -1.460644882172346115e-02
2.368942052125930786e-01 1.866477280855178833e-01 3.988565877079963684e-02 -1.942452974617481232e-02 1.333408951759338379e-01 1.968546211719512939e-02 7.587619125843048096e-02 -6.321995705366134644e-02 -1.666845679283142090e-01 -1.597864180803298950e-01 5.726210027933120728e-02 -5.976723879575729370e-02 -5.607405677437782288e-02 6.243934109807014465e-02 3.407578170299530029e-02 -6.816779822111129761e-02 1.058165803551673889e-01 1.012628301978111267e-01 1.778354346752166748e-01 -5.537145584821701050e-02 -5.193359404802322388e-02 9.627303481101989746e-02 -1.380455344915390015e-01 -3.181153163313865662e-02 -1.870617270469665527e-02 7.480619940906763077e-03 -6.917936354875564575e-02 -3.689190605655312538e-03 -6.014591827988624573e-02 -1.495452943345298991e-05
-1.749555021524429321e-01 -3.211776018142700195e-01 -2.490040212869644165e-01 4.438531026244163513e-02 1.081468611955642700e-01 4.276081919670104980e-03 5.799269303679466248e-02 9.326899796724319458e-02 5.218960717320442200e-02 2.879622764885425568e-02 -5.199798569083213806e-02 -9.375543892383575439e-02 -2.898450382053852081e-02 4.559030756354331970e-02 -8.900276571512222290e-02 -4.993237927556037903e-02 7.392034679651260376e-02 -1.943238265812397003e-02 1.219822242856025696e-01 -3.642741590738296509e-02 1.991534791886806488e-02 -1.729651913046836853e-02 -1.454738080501556396e-01 -9.987045079469680786e-02 -1.759894788265228271e-01 -6.829545646905899048e-02 2.173578832298517227e-03 -2.207887917757034302e-01 2.123822122812271118e-01 9.886937588453292847e-02
6.189253330230712891e-01 2.779162116348743439e-02 1.594925671815872192e-01 1.616100594401359558e-02 -1.559525430202484131e-01 8.607972413301467896e-03 2.221258170902729034e-02 -1.013644412159919739e-01 1.526014953851699829e-01 -5.685949698090553284e-02 -4.232241772115230560e-03 -2.248231880366802216e-02 -9.545266628265380859e-02 -2.642363868653774261e-02 -1.349570453166961670e-01 2.978687733411788940e-02 -9.352865070104598999e-02 5.715858191251754761e-02 -4.776847735047340393e-02 4.210419021546840668e-03 -1.158804222941398621e-01 2.258527651429176331e-02 6.952612847089767456e-02 1.027787476778030396e-01 1.614238768815994263e-01 -4.205659963190555573e-03 2.754293754696846008e-02 5.423275753855705261e-02 1.904635876417160034e-02 -6.548785418272018433e-02
-2.257239371538162231e-01 -2.336837202310562134e-01 -5.833660438656806946e-02 -8.455004543066024780e-02 1.573974192142486572e-01 1.106953546404838562e-01 4.154731333255767822e-02 4.254078492522239685e-02 1.527292728424072266e-01 1.435537189245223999e-01 1.276334226131439209e-01 -8.060525357723236084e-02 -2.650602161884307861e-02 4.822104424238204956e-02 -6.864818930625915527e-02 1.069808844476938248e-02 -9.534063190221786499e-02 -4.341450333595275879e-02 7.145412266254425049e-02 2.056113258004188538e-02 4.201519768685102463e-03 5.877198278903961182e-02 -8.101097308099269867e-03 8.207400143146514893e-02 -7.603982836008071899e-02 1.681268364191055298e-01 1.234686095267534256e-02 1.369640827178955078e-01 -1.043564677238464355e-01 7.049611955881118774e-02
3.859030548483133316e-03 1.217936575412750244e-01 2.457512468099594116e-01 1.833718866109848022e-01 4.803049191832542419e-02 3.111605532467365265e-02 -2.147212997078895569e-02 5.479836836457252502e-02 1.059875711798667908e-01 -2.179117649793624878e-01 4.790316149592399597e-02 -6.586725264787673950e-02 7.816389948129653931e-02 -1.350120604038238525e-01 -4.676658287644386292e-02 -5.098074302077293396e-02 -2.662760950624942780e-02 -1.596268638968467712e-02 -6.008502468466758728e-02 -4.552493616938591003e-02 6.663430016487836838e-03 1.068581789731979370e-01 -6.099747493863105774e-02 7.278776168823242188e-02 -8.363461494445800781e-02 -3.651456907391548157e-02 -3.478337451815605164e-02 -9.777893871068954468e-02 -6.984771694988012314e-03 1.544850971549749374e-02
-1.321290340274572372e-02 7.924851775169372559e-02 -3.445855081081390381e-01 -5.094497650861740112e-02 2.440876327455043793e-02 -5.553258582949638367e-02 -5.206108838319778442e-02 -1.774427890777587891e-01 1.728622056543827057e-02 9.699667245149612427e-02 -5.215275287628173828e-02 5.648560076951980591e-02 -4.466939345002174377e-02 -3.264756128191947937e-02 -3.165251016616821289e-02 7.667142897844314575e-02 -6.780020147562026978e-02 -1.136869341135025024e-01 -1.599898785352706909e-01 6.046616658568382263e-02 2.786782942712306976e-02 -2.285757102072238922e-02 -2.543418109416961670e-01 5.540199577808380127e-02 -4.215283319354057312e-02 -1.319755464792251587e-01 -4.267289489507675171e-02 4.850483499467372894e-03 1.348091010004281998e-02 2.632654039189219475e-03
1.422333717346191406e-02 -4.939675033092498779e-01 1.255814582109451294e-01 1.796096563339233398e-02 -4.520464688539505005e-02 4.259519651532173157e-02 8.204017579555511475e-02 -4.272441193461418152e-02 5.843017995357513428e-02 4.118823632597923279e-02 1.299999058246612549e-01 -6.243927776813507080e-02 -3.328144177794456482e-02 4.695488512516021729e-02 2.481962088495492935e-03 -1.189915649592876434e-02 3.569332510232925415e-02 -6.378355436027050018e-03 1.372905820608139038e-01 5.331651866436004639e-02 7.097268104553222656e-02 1.668159267865121365e-03 -4.498096555471420288e-02 4.490270465612411499e-02 1.018815264105796814e-01 -7.426248490810394287e-02 -1.073163673281669617e-01 -2.988085383549332619e-03 2.423432469367980957e-01 -1.157496273517608643e-01
4.137957096099853516e-01 1.854991465806961060e-01 -1.956262737512588501e-01 3.956842049956321716e-02 -1.505903601646423340e-01 1.946105211973190308e-01 1.437188237905502319e-01 9.683687984943389893e-02 -1.462753266096115112e-01 -8.275318890810012817e-02 1.215407177805900574e-01 -8.205728232860565186e-02 1.010516062378883362e-01 -4.900365695357322693e-02 1.335806399583816528e-01 -7.194695994257926941e-03 6.649190187454223633e-02 1.649444177746772766e-02 1.509379688650369644e-02 9.547585248947143555e-02 2.047086656093597412e-01 -7.510025054216384888e-02 6.670033186674118042e-02 -4.492229223251342773e-02 -6.410457193851470947e-02 4.387946054339408875e-02 -2.396545605733990669e-03 -3.735035425052046776e-03 5.973812192678451538e-02 1.290830899961292744e-03
-1.106976121664047241e-01 3.419369161128997803e-01 -1.263196766376495361e-01 -1.414217427372932434e-02 6.798376142978668213e-02 1.027838438749313354e-01 -6.460842490196228027e-02 -2.162524312734603882e-02 5.284537747502326965e-02 5.546773318201303482e-03 -9.230193495750427246e-02 -5.086956918239593506e-02 -2.901086583733558655e-02 -7.710900902748107910e-02 -4.737627878785133362e-02 1.472526490688323975e-01 6.714238226413726807e-02 -6.008086726069450378e-02 -1.842576414346694946e-01 -8.107672631740570068e-02 -2.048038691282272339e-02 -1.965890452265739441e-02 -1.076594740152359009e-02 6.968266796320676804e-03 -1.623848378658294678e-01 -1.561487764120101929e-01 4.591336101293563843e-02 -1.487729698419570923e-01 9.141635149717330933e-02 -8.858291059732437134e-02
5.549967288970947266e-01 -4.791032895445823669e-02 2.810797393321990967e-01 -1.070858072489500046e-02 -8.485917001962661743e-02 -9.538806974887847900e-03 2.296033054590225220e-01 -5.057734251022338867e-02 2.781791612505912781e-02 -1.728169992566108704e-02 3.596325218677520752e-02 1.831948198378086090e-02 6.363344192504882812e-02 1.176294498145580292e-02 -2.514024637639522552e-02 3.242798522114753723e-02 -1.514085382223129272e-01 -4.795120283961296082e-02 -2.553371526300907135e-02 4.841186478734016418e-02 -4.221797734498977661e-02 -6.736593693494796753e-02 9.985684417188167572e-03 1.509452015161514282e-01 5.279757082462310791e-02 -9.685688419267535210e-04 1.027814000844955444e-01 -1.672596484422683716e-01 4.392673075199127197e-02 1.141934469342231750e-01
-3.482169210910797119e-01 1.196665223687887192e-02 -3.837805986404418945e-02 6.729172170162200928e-02 -1.467007994651794434e-01 2.476469241082668304e-02 -1.968955844640731812e-01 4.933353886008262634e-02 -1.046739518642425537e-02 -4.644473642110824585e-02 6.042041257023811340e-02 1.431103199720382690e-01 -1.068825647234916687e-01 6.994042545557022095e-02 1.608946174383163452e-01 -2.413234859704971313e-02 3.951034322381019592e-02 7.843691855669021606e-02 -7.682475447654724121e-02 1.386894881725311279e-01 2.837329171597957611e-02 -2.613217011094093323e-02 6.450700759887695312e-02 -3.177646175026893616e-02 -1.528118271380662918e-02 6.884848698973655701e-03 3.665706887841224670e-02 6.761062890291213989e-02 1.219785585999488831e-01 -1.751384139060974121e-02
-2.171309590339660645e-01 4.738293588161468506e-01 -1.560642421245574951e-01 1.278970241546630859e-01 6.208268925547599792e-02 -1.662081107497215271e-02 7.745081186294555664e-02 -8.639403618872165680e-03 -1.417797710746526718e-02 1.081887185573577881e-01 3.526875982061028481e-03 1.097367145121097565e-03 2.451995313167572021e-01 -6.788022816181182861e-02 1.349148303270339966e-01 6.204687431454658508e-02 4.254451021552085876e-02 -8.613727986812591553e-02 3.304252866655588150e-03 2.016661018133163452e-01 5.311678349971771240e-02 1.458935160189867020e-02 1.242096126079559326e-01 -4.229964315891265869e-02 -8.101939409971237183e-02 3.197419922798871994e-03 2.842461876571178436e-02 9.684427641332149506e-03 -4.067828878760337830e-02 6.218457594513893127e-02
-3.200094997882843018e-01 -3.257162868976593018e-02 3.712194859981536865e-01 4.675074666738510132e-02 -8.778553456068038940e-02 3.201963752508163452e-02 -5.894531309604644775e-02 1.892372593283653259e-02 3.991417586803436279e-02 -1.544042956084012985e-02 1.830869019031524658e-01 -8.931091427803039551e-02 6.073638796806335449e-02 -9.408543817698955536e-03 -5.460971966385841370e-02 3.465255023911595345e-03 -6.389836221933364868e-02 -1.860169880092144012e-02 -2.108063362538814545e-02 -9.041789174079895020e-02 5.684298276901245117e-02 -9.919298812747001648e-03 9.230430424213409424e-02 6.256727874279022217e-02 1.531513780355453491e-02 -1.061201542615890503e-01 -5.916189774870872498e-02 -3.206738084554672241e-02 -2.431101351976394653e-01 5.964636057615280151e-02
-4.225196242332458496e-01 -5.136772394180297852e-01 -4.353179335594177246e-01 4.166011512279510498e-02 -4.343841597437858582e-02 8.334166556596755981e-02 2.464885860681533813e-01 1.500144004821777344e-01 6.443898193538188934e-03 -3.732424229383468628e-02 1.043276861310005188e-01 -4.150744900107383728e-02 -5.628484115004539490e-02 1.512901782989501953e-01 1.282906346023082733e-02 -2.600660361349582672e-02 1.997965015470981598e-02 6.942413002252578735e-02 -5.363081023097038269e-02 1.723247766494750977e-02 -9.564742213115096092e-04 1.314324140548706055e-01 -4.449088498950004578e-02 7.878494262695312500e-02 -8.269217610359191895e-02 7.690777629613876343e-02 -8.037305437028408051e-03 -1.446436345577239990e-02 -8.540439419448375702e-03 -1.290772557258605957e-01
-5.654473602771759033e-02 -1.015857532620429993e-01 -5.880275741219520569e-02 8.416093885898590088e-02 6.959890574216842651e-02 1.053051203489303589e-01 -3.871394693851470947e-02 1.588584668934345245e-02 -3.687512129545211792e-02 -5.025935173034667969e-02 -1.827297955751419067e-01 2.711128816008567810e-02 -3.262842819094657898e-02 2.620879746973514557e-02 1.133826444856822491e-03 1.098686009645462036e-01 5.857259407639503479e-02 -1.006638109683990479e-01 -7.455215603113174438e-02 -8.065728098154067993e-02 1.251158863306045532e-01 -1.030567288398742676e-01 -7.557372003793716431e-02 1.932739466428756714e-01 -8.372557163238525391e-02 1.034406721591949463e-01 8.665077388286590576e-02 3.566578403115272522e-02 1.049111187458038330e-01 4.477002099156379700e-02
-3.285608291625976562e-01 8.634225726127624512e-01 3.670946955680847168e-01 2.187176793813705444e-02 -1.070067379623651505e-02 -6.782672554254531860e-02 -1.270491071045398712e-02 4.748388752341270447e-02 5.393163114786148071e-02 -2.803980605676770210e-03 2.070936560630798340e-02 -4.696466773748397827e-02 -2.098895907402038574e-01 -1.088320612907409668e-01 -1.728476136922836304e-01 7.025541737675666809e-03 -6.949476897716522217e-02 1.566103100776672363e-02 -3.979006782174110413e-02 -4.987365379929542542e-02 -3.183264657855033875e-02 -6.334111094474792480e-02 8.513610810041427612e-02 -9.477338194847106934e-02 -1.258561853319406509e-02 5.976507067680358887e-02 1.974663324654102325e-02 1.747547090053558350e-01 2.345460280776023865e-02 -4.774992540478706360e-02
8.515556156635284424e-02 1.323535442352294922e-01 -2.608663961291313171e-02 -1.525266021490097046e-01 -8.863352984189987183e-02 4.610200226306915283e-02 -2.539706528186798096e-01 6.591653823852539062e-02 -1.287371069192886353e-01 -9.342341870069503784e-02 -5.448892712593078613e-02 -1.273370981216430664e-01 3.357922285795211792e-02 -2.912268601357936859e-02 4.683798551559448242e-02 5.408868938684463501e-02 1.166308391839265823e-02 1.450786250643432140e-03 -1.750320792198181152e-01 1.947404444217681885e-01 1.083697006106376648e-01 5.225637555122375488e-02 -1.061476320028305054e-01 -1.715401187539100647e-02 -3.012678772211074829e-02 1.537069380283355713e-01 -4.585764184594154358e-02 -2.070237547159194946e-01 3.551938757300376892e-02 -3.953081741929054260e-02
1.462008506059646606e-01 -6.026133298873901367e-01 2.874608933925628662e-01 5.495504289865493774e-02 8.292558789253234863e-02 1.352376886643469334e-03 9.956803172826766968e-02 6.886219978332519531e-02 3.502270951867103577e-02 -6.069315224885940552e-02 -9.799917228519916534e-03 1.721398830413818359e-01 -1.296176612377166748e-01 1.398622691631317139e-01 -8.878408372402191162e-02 1.345696300268173218e-01 -1.798167265951633453e-02 7.599100470542907715e-02 9.458953887224197388e-02 4.284144937992095947e-02 -2.173666805028915405e-01 1.854716800153255463e-02 -3.534213826060295105e-02 -2.593833953142166138e-03 -5.174998566508293152e-02 -1.840335433371365070e-03 -5.839491635560989380e-02 -1.561817675828933716e-01 3.001629374921321869e-02 5.573483183979988098e-03
-1.725124120712280273e-01 -5.772380232810974121e-01 -2.116799652576446533e-01 -9.102998673915863037e-02 4.478496685624122620e-02 5.001209303736686707e-02 -4.289738135412335396e-04 -2.677739411592483521e-02 -8.350357413291931152e-02 6.802956014871597290e-02 -7.728571444749832153e-02 -2.675736509263515472e-02 6.764349341392517090e-02 -1.689034886658191681e-02 1.334247738122940063e-01 4.113554954528808594e-02 8.403965830802917480e-02 8.243717253208160400e-02 3.994033858180046082e-02 1.460213027894496918e-02 -1.832702159881591797e-01 3.245430439710617065e-02 1.215623468160629272e-01 3.441098704934120178e-02 1.026661172509193420e-01 -8.738196641206741333e-02 -6.004092097282409668e-02 1.733329519629478455e-02 6.316874641925096512e-03 -4.185751080513000488e-02
1.279760990291833878e-02 2.818607687950134277e-01 -1.686111986637115479e-01 4.831223562359809875e-02 -6.412390619516372681e-02 -2.673030272126197815e-02 -1.642732024192810059e-01 -1.446475088596343994e-01 -2.050237208604812622e-01 9.407075494527816772e-02 2.033267617225646973e-01 -5.248073861002922058e-02 -1.069415137171745300e-01 -2.307485602796077728e-02 -2.071648538112640381e-01 1.205839216709136963e-02 3.227360919117927551e-02 -1.623866409063339233e-01 2.265333384275436401e-01 -1.828660257160663605e-03 6.636423617601394653e-02 5.329144001007080078e-02 -1.930611208081245422e-03 -5.716790258884429932e-02 8.197380602359771729e-02 -1.433972716331481934e-01 5.599892884492874146e-02 -2.428108081221580505e-02 7.192421704530715942e-03 -6.921849399805068970e-02
-5.379862785339355469e-01 1.839740574359893799e-02 -1.360273081809282303e-02 2.046712115406990051e-02 4.048134759068489075e-02 1.079216250218451023e-03 1.210093125700950623e-01 -1.037078946828842163e-01 -9.186884015798568726e-02 1.262075304985046387e-01 -3.130026161670684814e-02 3.175325319170951843e-02 1.487026549875736237e-02 -3.207761421799659729e-02 8.402526378631591797e-02 -1.005587261170148849e-02 -7.281920313835144043e-02 -7.419627159833908081e-02 6.943799555301666260e-03 -1.440522633492946625e-02 -5.019653588533401489e-02 3.895683214068412781e-02 -8.819687366485595703e-02 -6.992431823164224625e-03 4.349057003855705261e-02 1.895520836114883423e-02 3.076999261975288391e-02 2.825134433805942535e-03 -1.354894936084747314e-01 1.401692070066928864e-02
1.054972782731056213e-02 1.754460036754608154e-01 -4.228439927101135254e-01 -2.082122676074504852e-02 -2.485821768641471863e-02 -8.435192704200744629e-02 -8.790699392557144165e-02 -4.846030380576848984e-03 7.394857704639434814e-02 3.475337056443095207e-03 2.029016055166721344e-02 3.613356500864028931e-03 1.819821819663047791e-02 -1.074481904506683350e-01 6.861715018749237061e-02 1.133183985948562622e-01 -9.514100849628448486e-02 6.556136906147003174e-02 8.500711061060428619e-03 -6.105693802237510681e-02 6.804303079843521118e-02 -3.028154931962490082e-02 -1.292815506458282471e-01 -1.816628426313400269e-01 8.151140064001083374e-02 5.446618050336837769e-02 1.328562349081039429e-01 -3.059978038072586060e-02 4.542453587055206299e-02 1.665444299578666687e-02
-4.935964047908782959e-01 -5.669838935136795044e-02 -2.220716774463653564e-01 8.223441243171691895e-02 -6.605580449104309082e-02 1.952019520103931427e-02 -8.173022419214248657e-03 6.705697625875473022e-02 5.218996480107307434e-02 -2.118146121501922607e-01 1.643263548612594604e-01 5.289887264370918274e-02 -1.775127463042736053e-02 -3.543694689869880676e-02 -1.796225085854530334e-02 -6.932449340820312500e-02 9.808604419231414795e-02 -5.142740532755851746e-02 -1.061932817101478577e-01 2.521993964910507202e-02 -2.414254844188690186e-02 4.956427589058876038e-02 6.969117373228073120e-02 1.224533319473266602e-01 1.748013496398925781e-02 1.204048469662666321e-01 4.476174712181091309e-02 1.902322322130203247e-01 -2.021257579326629639e-02 -4.496904090046882629e-02
-7.900347560644149780e-02 4.397919401526451111e-02 9.249877929687500000e-02 6.261148303747177124e-02 -2.068670652806758881e-02 1.367544680833816528e-01 1.946647167205810547e-01 7.015339285135269165e-02 -1.305620279163122177e-02 -5.451775342226028442e-02 5.421763658523559570e-02 -5.369292572140693665e-03 5.885116010904312134e-02 4.762797802686691284e-02 1.480986624956130981e-01 -1.231656894087791443e-01 1.227807700634002686e-01 1.355995535850524902e-01 9.486000239849090576e-02 1.349281966686248779e-01 -2.560079284012317657e-02 2.839164109900593758e-03 1.147634163498878479e-01 -1.252877246588468552e-02 1.266538351774215698e-01 3.408486396074295044e-02 5.037653446197509766e-02 -1.084788516163825989e-01 -1.152120158076286316e-01 5.427811667323112488e-02
-6.432576477527618408e-02 -6.348057389259338379e-01 -3.540607094764709473e-01 -2.635325305163860321e-02 -4.409501794725656509e-03 4.518773406744003296e-02 2.196510434150695801e-01 1.997476071119308472e-01 3.566790372133255005e-02 6.267783045768737793e-02 -7.061273604631423950e-02 -1.358130853623151779e-02 -4.319193959236145020e-02 -2.572943456470966339e-02 5.867022275924682617e-02 9.040886536240577698e-03 7.321409881114959717e-02 1.565814614295959473e-01 1.394457519054412842e-01 -5.539680644869804382e-02 -3.233501687645912170e-02 -1.833907701075077057e-02 9.872152656316757202e-02 2.356228679418563843e-01 2.403209060430526733e-01 -2.942683920264244080e-02 1.850174390710890293e-03 -1.358383744955062866e-01 -2.134822010993957520e-01 6.296861916780471802e-02
2.086782306432723999e-01 5.236247926950454712e-02 -1.343857198953628540e-01 5.475819855928421021e-02 1.466814428567886353e-01 3.909177030436694622e-04 1.072702649980783463e-02 9.365240484476089478e-02 -9.781851619482040405e-02 -6.956325471401214600e-02 -2.671779878437519073e-02 1.274830847978591919e-01 -2.699741907417774200e-02 -7.522764615714550018e-03 -1.082640439271926880e-01 -3.518956899642944336e-02 1.761630624532699585e-01 -1.123317405581474304e-01 1.015658378601074219e-01 5.791940167546272278e-02 4.769690707325935364e-02 4.413903132081031799e-02 -7.401066273450851440e-02 -1.210611965507268906e-02 -2.357019670307636261e-02 -7.170043885707855225e-02 6.620965152978897095e-02 -5.828670412302017212e-02 -3.512097001075744629e-01 9.907435625791549683e-03
-3.834415972232818604e-01 6.937435865402221680e-01 -5.253098607063293457e-01 -7.456425577402114868e-02 -1.858752220869064331e-02 -3.836939856410026550e-02 2.611263887956738472e-03 -7.997263222932815552e-02 9.757182002067565918e-02 6.792046129703521729e-02 1.491641700267791748e-01 -6.774843484163284302e-02 -8.891943842172622681e-02 -8.914299309253692627e-02 6.368868052959442139e-02 3.809111565351486206e-02 1.881591230630874634e-02 -1.212378963828086853e-01 -3.163696499541401863e-03 -5.904736369848251343e-02 -1.145798563957214355e-01 2.429514378309249878e-02 9.771795570850372314e-02 -4.341301694512367249e-02 -4.758757725358009338e-02 2.968793921172618866e-02 9.413773193955421448e-03 -5.924726277589797974e-02 1.113276928663253784e-02 -6.800995022058486938e-02
4.666541144251823425e-02 1.579739749431610107e-01 2.664767801761627197e-01 -2.067144587635993958e-02 3.341864328831434250e-03 8.463340811431407928e-03 4.685347154736518860e-02 2.318139746785163879e-02 -7.120966166257858276e-02 -1.498981267213821411e-01 8.521057665348052979e-02 -1.258565932512283325e-01 -1.663776487112045288e-02 5.876406654715538025e-02 -6.041073426604270935e-02 -1.138253137469291687e-02 -6.851438432931900024e-02 2.108228579163551331e-02 -1.324246674776077271e-01 5.147663876414299011e-03 -2.132405936717987061e-01 1.054051443934440613e-01 4.024165123701095581e-02 1.351757068186998367e-02 4.924594983458518982e-02 -1.260876655578613281e-01 -1.580439209938049316e-01 3.380145505070686340e-02 1.482907086610794067e-01 -5.229955911636352539e-02
3.058228492736816406e-01 6.967353820800781250e-02 7.474115490913391113e-02 5.989279597997665405e-03 2.377717345952987671e-01 1.702246442437171936e-02 2.522253803908824921e-02 -9.169919788837432861e-02 -5.691073462367057800e-02 9.213498979806900024e-02 1.304395347833633423e-01 -2.044501714408397675e-02 -1.189709827303886414e-01 -9.934779256582260132e-03 -1.903532743453979492e-01 -2.711563929915428162e-02 1.743318140506744385e-02 -6.850213557481765747e-02 -1.403992995619773865e-02 -1.081577241420745850e-01 1.146149914711713791e-02 8.439680933952331543e-02 1.369353830814361572e-01 5.958007276058197021e-02 5.195861309766769409e-02 -1.222169995307922363e-01 -6.375493109226226807e-02 -1.278062760829925537e-01 -1.713618487119674683e-01 3.687975928187370300e-02
-1.753612793982028961e-02 -5.133966356515884399e-02 -4.955682158470153809e-01 -1.091183125972747803e-01 4.931533336639404297e-02 6.636674702167510986e-02 -6.408037245273590088e-02 4.603270441293716431e-02 -3.697204962372779846e-02 5.147429183125495911e-02 -9.191545844078063965e-02 5.239238590002059937e-02 3.817499149590730667e-03 -6.244068965315818787e-02 -5.673087388277053833e-02 2.385934442281723022e-01 2.718883007764816284e-02 3.177126869559288025e-02 -7.316018640995025635e-02 2.171616703271865845e-01 -9.217742830514907837e-02 -3.134016692638397217e-02 1.219035312533378601e-02 -1.146089136600494385e-01 -6.530654430389404297e-02 1.021498069167137146e-02 1.869198307394981384e-02 -4.895285144448280334e-02 -4.852166771888732910e-02 -1.078424453735351562e-01
1.963144987821578979e-01 9.353532642126083374e-02 -4.070850834250450134e-02 -5.329982563853263855e-02 1.040856316685676575e-01 5.772755295038223267e-02 3.889637067914009094e-02 1.181205809116363525e-01 1.493908185511827469e-02 -5.906971544027328491e-02 6.699074059724807739e-03 1.037716772407293320e-02 2.907777950167655945e-02 1.355050224810838699e-02 -1.088816672563552856e-01 -4.081618785858154297e-02 -1.579975783824920654e-01 -1.954354941844940186e-01 1.619658172130584717e-01 -1.377228554338216782e-02 -1.275284737348556519e-01 -4.204636812210083008e-02 -6.015813723206520081e-02 -6.782978773117065430e-03 8.765029162168502808e-02 4.686287418007850647e-02 6.707873940467834473e-02 2.434317022562026978e-01 -1.790472888387739658e-03 -7.143915630877017975e-03
1.098366379737854004e-01 1.406243294477462769e-01 -1.442316770553588867e-01 1.342217158526182175e-02 3.922689706087112427e-02 1.744936704635620117e-01 -8.226642757654190063e-02 5.776238068938255310e-02 -1.217527762055397034e-01 3.601267933845520020e-02 1.243781298398971558e-01 4.482385888695716858e-02 4.884006083011627197e-02 -7.033006101846694946e-02 -7.680755108594894409e-02 1.196937486529350281e-01 -1.036711782217025757e-01 -7.576442509889602661e-02 -1.086063403636217117e-02 -2.865768224000930786e-02 1.116505078971385956e-02 5.145182833075523376e-02 7.975870370864868164e-02 6.137301400303840637e-02 5.599167570471763611e-02 -1.579825952649116516e-02 7.284432649612426758e-02 1.440261602401733398e-01 9.280415624380111694e-02 4.639265686273574829e-02
1.262107193470001221e-01 -5.997901037335395813e-02 1.210022866725921631e-01 3.461546078324317932e-02 5.812351033091545105e-02 -2.745000645518302917e-02 1.817620359361171722e-02 6.311128288507461548e-02 -5.541595071554183960e-02 3.758239001035690308e-02 3.551390953361988068e-03 7.858642190694808960e-02 5.124439299106597900e-02 8.979916572570800781e-02 1.415460277348756790e-02 -1.928082481026649475e-02 -3.081951290369033813e-02 4.611994698643684387e-02 7.837291806936264038e-02 -4.495000466704368591e-02 1.241624653339385986e-01 -1.934662647545337677e-02 2.689282968640327454e-02 4.341177269816398621e-02 2.323687635362148285e-02 8.999601751565933228e-02 -4.520025849342346191e-02 -2.827193774282932281e-02 -1.934794476255774498e-03 5.374524369835853577e-02
2.409225255250930786e-01 -3.900522291660308838e-01 -4.673188924789428711e-02 1.099669113755226135e-01 6.949025392532348633e-02 -9.998952969908714294e-03 2.514066733419895172e-02 -1.826594211161136627e-02 1.744524948298931122e-02 -1.620933115482330322e-01 1.099958196282386780e-01 -6.142273545265197754e-02 1.066769473254680634e-02 1.611199043691158295e-02 -1.952908486127853394e-01 2.503121085464954376e-02 4.339944571256637573e-02 1.098132971674203873e-02 1.171232014894485474e-01 2.863385155797004700e-02 3.946139290928840637e-02 7.958023808896541595e-03 7.034152001142501831e-02 1.030084118247032166e-02 1.086723133921623230e-01 1.029767170548439026e-01 -8.957322686910629272e-02 1.567251533269882202e-01 -7.676053047180175781e-02 8.972869068384170532e-02
-3.812848329544067383e-01 2.392881065607070923e-01 -9.116352349519729614e-02 -4.567010328173637390e-03 7.889266312122344971e-02 2.798953466117382050e-02 -8.814087510108947754e-02 -2.468082010746002197e-01 -1.231003645807504654e-02 -3.545943647623062134e-02 -9.013520926237106323e-02 1.887705922126770020e-02 -6.040227040648460388e-02 -4.735944792628288269e-03 -2.137753367424011230e-02 -2.016588114202022552e-02 7.755915820598602295e-02 -9.377481788396835327e-02 -1.901025027036666870e-01 -2.279228530824184418e-02 1.357756853103637695e-01 -3.961666300892829895e-02 -7.668251544237136841e-02 -9.336347132921218872e-02 7.872771471738815308e-02 1.485666036605834961e-01 -4.876941442489624023e-02 -1.447203010320663452e-01 -7.379636913537979126e-02 9.933070838451385498e-02
2.152851372957229614e-01 3.025177419185638428e-01 -3.057109415531158447e-01 9.811939299106597900e-02 1.509669423103332520e-01 3.259168565273284912e-01 1.392732560634613037e-01 -6.662325467914342880e-03 1.209226250648498535e-01 -9.003899991512298584e-02 -9.142014384269714355e-02 2.111819945275783539e-02 3.302258625626564026e-02 -1.086904387921094894e-02 1.003337651491165161e-01 2.904161624610424042e-02 7.986570149660110474e-02 1.796446181833744049e-02 6.054504215717315674e-02 -3.231874480843544006e-02 -2.797693200409412384e-02 1.087467521429061890e-01 -4.964501783251762390e-02 -4.330848157405853271e-02 4.121397063136100769e-02 8.972603827714920044e-02 1.323727667331695557e-01 1.540951728820800781e-01 2.442551255226135254e-01 -4.027720540761947632e-02
-8.701177313923835754e-03 -5.324858427047729492e-02 -3.600237891077995300e-02 2.490472495555877686e-01 -2.572089061141014099e-02 -3.695892170071601868e-02 9.125007316470146179e-03 -1.998974755406379700e-02 -5.772470310330390930e-02 4.591311141848564148e-02 -5.766450241208076477e-02 5.292649380862712860e-03 7.285868376493453979e-02 -8.343163132667541504e-02 1.559418998658657074e-02 -8.468249440193176270e-02 7.559286057949066162e-02 1.045581996440887451e-01 -2.129233181476593018e-01 -8.713781088590621948e-02 -1.871081739664077759e-01 4.442460089921951294e-02 8.242275565862655640e-02 -3.550649853423237801e-03 -2.290039556100964546e-04 1.048215478658676147e-02 8.825180120766162872e-03 -9.562503546476364136e-02 1.483499817550182343e-02 -1.994599401950836182e-02
4.020463302731513977e-02 -2.059340626001358032e-01 2.827640473842620850e-01 -1.082465797662734985e-02 -7.763016223907470703e-02 -1.516042798757553101e-01 -7.060320675373077393e-02 -8.788655512034893036e-03 1.266016215085983276e-01 2.756129503250122070e-01 2.012851983308792114e-01 -5.562371574342250824e-03 -2.134908176958560944e-02 -6.124992668628692627e-02 -5.108233075588941574e-03 6.505959481000900269e-02 1.763512939214706421e-01 3.555286675691604614e-02 4.622628912329673767e-02 7.148702442646026611e-02 4.325619083829224110e-04 -1.490697078406810760e-02 -1.169856190681457520e-01 6.353175267577171326e-03 -5.909879691898822784e-03 1.301199197769165039e-02 -1.555290371179580688e-01 -2.507114410400390625e-01 -1.521982103586196899e-01 7.311853021383285522e-02
-1.847966164350509644e-01 -1.140875518321990967e-01 -3.987003117799758911e-02 5.039389058947563171e-02 1.418263316154479980e-01 6.296010315418243408e-02 1.256358623504638672e-01 -8.273307979106903076e-02 -6.892270594835281372e-02 2.227548323571681976e-02 3.158240765333175659e-02 -1.236824542284011841e-01 5.033582821488380432e-02 -8.504394441843032837e-02 -2.491656877100467682e-02 8.497053384780883789e-02 -5.415301397442817688e-02 -3.106177970767021179e-02 -1.260240674018859863e-01 -1.543293124996125698e-03 -1.062100380659103394e-01 -7.942559570074081421e-02 7.500581443309783936e-03 1.253092288970947266e-01 -6.677123159170150757e-02 -4.890382289886474609e-03 2.372672781348228455e-03 -3.573967143893241882e-02 -1.785957515239715576e-01 -8.240500837564468384e-02
-1.900204271078109741e-01 -1.133982315659523010e-01 -7.703999057412147522e-03 -7.368653267621994019e-02 1.161940768361091614e-01 8.808224648237228394e-02 -2.294067889451980591e-01 1.118213906884193420e-01 6.100003793835639954e-02 2.390741370618343353e-03 -1.399962007999420166e-01 -3.954676445573568344e-03 5.922159180045127869e-02 6.575934588909149170e-02 1.400210522115230560e-02 1.457883566617965698e-01 7.683976553380489349e-03 -1.040706261992454529e-01 1.595580130815505981e-01 8.848260343074798584e-02 1.554678976535797119e-01 6.399423629045486450e-02 -6.201232783496379852e-03 -1.237796396017074585e-01 -8.582850545644760132e-02 3.237091749906539917e-02 1.309249401092529297e-01 -3.422025591135025024e-02 3.711706399917602539e-02 3.939186781644821167e-02
4.051691293716430664e-02 3.372542187571525574e-02 -8.521567285060882568e-02 1.336480230093002319e-01 -9.560570120811462402e-02 1.609322801232337952e-02 -1.125773647800087929e-03 1.175451502203941345e-01 -1.216691434383392334e-01 -9.694216400384902954e-02 8.380591752938926220e-04 5.927251651883125305e-02 -3.595256432890892029e-02 -2.249834537506103516e-01 -1.864432916045188904e-02 9.288674592971801758e-02 -4.187689349055290222e-02 -5.249015241861343384e-02 -5.404453352093696594e-02 -3.162796422839164734e-02 -1.188014373183250427e-01 -6.111439317464828491e-02 1.304552890360355377e-02 7.978624105453491211e-02 -6.651458144187927246e-02 -9.861809760332107544e-02 5.453364923596382141e-02 -6.268174620345234871e-04 4.721033200621604919e-02 1.041168645024299622e-01
-1.501634120941162109e-01 3.109621175099164248e-04 1.930858939886093140e-02 7.100353389978408813e-02 -9.801598638296127319e-02 -3.858116641640663147e-02 -1.473408490419387817e-01 3.452416509389877319e-02 -9.910211712121963501e-02 3.752771019935607910e-02 -1.506104618310928345e-01 -5.326099321246147156e-02 1.030899211764335632e-01 1.126926615834236145e-01 -7.095371931791305542e-02 -8.575429767370223999e-02 5.130316317081451416e-02 2.508581429719924927e-02 -5.075032636523246765e-02 -3.620368614792823792e-02 1.329721808433532715e-01 4.177835583686828613e-02 2.684813737869262695e-02 4.628188908100128174e-02 -9.998955577611923218e-02 -3.355352953076362610e-02 -1.112616062164306641e-01 -3.958380222320556641e-02 -7.886300981044769287e-02 5.562137067317962646e-02
-2.127753049135208130e-01 4.422825202345848083e-02 -5.740935355424880981e-02 -6.248919293284416199e-02 6.081882864236831665e-02 -1.758067458868026733e-01 3.503636643290519714e-02 6.112523749470710754e-02 -1.111132577061653137e-01 4.688877984881401062e-02 5.652872100472450256e-02 -8.806768059730529785e-02 -7.136119063943624496e-03 7.622470706701278687e-02 1.452328860759735107e-01 2.588409557938575745e-02 1.022689118981361389e-01 -8.004345744848251343e-02 6.113793700933456421e-02 1.820802688598632812e-01 1.143895238637924194e-01 3.316603228449821472e-02 4.952833801507949829e-02 -6.353124976158142090e-02 -5.630111321806907654e-02 5.780326575040817261e-02 -4.218607395887374878e-02 3.742318227887153625e-02 2.934714779257774353e-03 3.707624971866607666e-02
1.257802844047546387e-01 -4.500130712985992432e-01 5.562033876776695251e-02 4.299275204539299011e-02 -6.440450996160507202e-02 -1.938756182789802551e-02 -1.200610585510730743e-02 -9.168682992458343506e-02 -3.289982974529266357e-01 5.304750427603721619e-02 9.827937185764312744e-02 1.089784353971481323e-01 -1.775320619344711304e-01 -1.578937321901321411e-01 -2.143765240907669067e-01 -1.115165650844573975e-01 -8.425132930278778076e-02 7.185406982898712158e-02 -8.019695058465003967e-03 -5.433226004242897034e-02 -2.599973604083061218e-02 3.465449810028076172e-02 -4.023452848196029663e-02 1.368898600339889526e-01 2.618231996893882751e-02 -2.519342862069606781e-02 -4.556988924741744995e-02 -2.248409986495971680e-01 6.645450484938919544e-04 -6.039078906178474426e-02
4.896334707736968994e-01 -1.440450102090835571e-01 1.119571998715400696e-01 -4.575794562697410583e-02 -1.207402646541595459e-01 -6.103136762976646423e-02 4.446628317236900330e-02 3.394345566630363464e-02 -7.496350258588790894e-02 -1.605475395917892456e-01 -4.385701846331357956e-03 6.519121234305202961e-04 -1.093906909227371216e-01 7.197597622871398926e-02 -1.692658662796020508e-01 -5.384082719683647156e-02 5.224360525608062744e-02 3.829486295580863953e-02 -1.226178929209709167e-01 -4.921484738588333130e-02 1.286485791206359863e-01 1.371468603610992432e-02 -9.356276132166385651e-03 2.530757570639252663e-03 3.273965045809745789e-02 -3.641562908887863159e-02 -8.762954175472259521e-02 -4.111170303076505661e-03 2.756237685680389404e-01 1.453958749771118164e-01
-5.705334544181823730e-01 2.399902194738388062e-01 2.355123311281204224e-01 1.498621106147766113e-01 4.068694263696670532e-02 -2.134182862937450409e-02 -2.761542238295078278e-02 -6.224867329001426697e-02 1.267335414886474609e-01 -6.311795860528945923e-02 2.041096240282058716e-01 3.985117375850677490e-02 -1.081559881567955017e-01 -6.865090131759643555e-02 5.550279095768928528e-02 -8.659241348505020142e-02 -4.992557317018508911e-02 -1.315245777368545532e-01 -2.245718240737915039e-02 2.016441151499748230e-02 2.755769761279225349e-03 9.633490443229675293e-02 1.333269625902175903e-01 -5.081339925527572632e-02 -1.812099814414978027e-01 -1.215105578303337097e-01 -3.374173073098063469e-03 7.974941283464431763e-02 4.038412496447563171e-02 -7.516416907310485840e-02
7.825705409049987793e-02 4.884639754891395569e-02 -1.392454952001571655e-01 -4.661537706851959229e-02 1.170526742935180664e-01 -1.066752374172210693e-01 1.176125109195709229e-01 -2.681727893650531769e-02 -1.174446642398834229e-01 -4.933220148086547852e-02 -1.149778440594673157e-01 -1.149500980973243713e-01 -2.345274016261100769e-02 5.994872190058231354e-03 -1.837404817342758179e-02 1.500685419887304306e-02 -1.066813543438911438e-01 -4.051721841096878052e-02 -3.383482992649078369e-02 -1.718548499047756195e-02 -1.908563077449798584e-02 -3.342292085289955139e-02 1.765733212232589722e-02 8.574482053518295288e-02 -1.912569440901279449e-02 1.030939593911170959e-01 -6.027781590819358826e-02 -3.402272760868072510e-01 1.726865395903587341e-02 4.444845765829086304e-02
-2.934832572937011719e-01 -4.877923727035522461e-01 5.653398577123880386e-03 -1.052372679114341736e-01 -2.783949859440326691e-02 1.295309811830520630e-01 6.543909013271331787e-02 9.227587282657623291e-02 -4.069388657808303833e-02 -9.417309612035751343e-02 8.749601244926452637e-02 -2.225635759532451630e-02 1.451935172080993652e-01 -5.560977384448051453e-02 1.086913794279098511e-01 5.511568859219551086e-03 1.844402961432933807e-02 7.651250809431076050e-02 1.320651173591613770e-01 -1.346896290779113770e-01 -3.539569675922393799e-02 -7.701250724494457245e-03 -1.334331650286912918e-02 -8.034391701221466064e-02 -1.620790064334869385e-01 -1.700503528118133545e-01 2.592161297798156738e-02 -3.318685665726661682e-02 1.006858274340629578e-01 5.806739255785942078e-02
-1.176141854375600815e-02 -2.908027470111846924e-01 -1.290565431118011475e-01 8.045341819524765015e-02 5.429778620600700378e-02 -1.310447603464126587e-02 -1.000382751226425171e-02 1.127140000462532043e-01 -8.896489441394805908e-02 -1.539210081100463867e-01 -7.032215595245361328e-02 -7.973090559244155884e-02 9.974881261587142944e-02 5.920760333538055420e-02 1.293761562556028366e-02 -7.010384649038314819e-02 -1.150057539343833923e-01 -3.780419239774346352e-03 1.477032303810119629e-01 6.117678061127662659e-02 7.424727827310562134e-02 -4.407735168933868408e-02 -1.243224292993545532e-01 7.910051196813583374e-02 -6.791914254426956177e-02 4.058093577623367310e-02 1.051903963088989258e-01 -2.313557825982570648e-02 1.037223846651613712e-04 1.689412742853164673e-01
1.428590901196002960e-02 -4.364501535892486572e-01 2.942297458648681641e-01 4.586543142795562744e-02 4.384903237223625183e-03 -2.751078270375728607e-02 8.650786476209759712e-04 6.052144989371299744e-02 -1.830881834030151367e-02 1.754555851221084595e-02 1.117777917534112930e-02 -3.613374382257461548e-02 -1.896877959370613098e-02 -5.676307529211044312e-02 4.799583926796913147e-02 -1.499699354171752930e-01 -8.550120145082473755e-02 -4.056296125054359436e-02 2.417635917663574219e-02 3.596497932448983192e-03 -2.591049298644065857e-03 2.553306333720684052e-02 3.277989104390144348e-02 3.852555900812149048e-02 3.567983582615852356e-02 -6.423712521791458130e-02 -6.024955585598945618e-02 -7.927953451871871948e-02 -7.147166877985000610e-02 6.433975696563720703e-02
3.128022849559783936e-01 -4.285082519054412842e-01 3.807486593723297119e-02 -8.559416048228740692e-03 4.260213579982519150e-03 1.125281769782304764e-02 6.225295364856719971e-02 -7.535883039236068726e-02 1.880500614643096924e-01 1.107443720102310181e-01 -7.337222993373870850e-02 -9.685807861387729645e-03 -1.074672862887382507e-01 -1.142646372318267822e-02 1.223540827631950378e-01 2.388517931103706360e-02 -1.523744314908981323e-01 -7.460104674100875854e-02 2.278892397880554199e-01 1.278302166610956192e-02 -1.342482566833496094e-01 -3.382140398025512695e-02 -9.132000803947448730e-02 3.509010002017021179e-02 3.051076270639896393e-02 -2.889614365994930267e-02 -1.478962879627943039e-02 -7.547841221094131470e-02 8.779370784759521484e-02 3.328340128064155579e-02
-1.982635445892810822e-02 5.621292814612388611e-02 2.781288623809814453e-01 -2.956860233098268509e-03 -6.140108779072761536e-02 5.718329921364784241e-02 -2.851012162864208221e-02 -8.498477190732955933e-02 3.650615736842155457e-02 7.643444836139678955e-02 -9.241295605897903442e-02 -3.773579746484756470e-02 -1.325173377990722656e-01 -2.640516124665737152e-02 8.387767523527145386e-02 -1.877569258213043213e-01 -2.818277105689048767e-03 3.264220431447029114e-02 1.269079744815826416e-01 1.521456241607666016e-01 -1.280695013701915741e-02 -3.730341419577598572e-02 -5.641351453959941864e-03 -5.329170078039169312e-02 -1.557878404855728149e-01 -8.640046417713165283e-02 2.702331840991973877e-01 -2.569811642169952393e-01 3.032547608017921448e-02 -3.528448194265365601e-02
6.309498548507690430e-01 -1.042453944683074951e-01 8.444662392139434814e-02 -1.652416400611400604e-02 -8.115944266319274902e-02 3.409731760621070862e-02 -1.015546396374702454e-01 -1.651569455862045288e-02 2.732751891016960144e-02 -1.713435351848602295e-02 5.532611161470413208e-02 -1.116036102175712585e-01 -5.181905254721641541e-02 -1.019892618060112000e-01 -2.607285603880882263e-02 -9.498570114374160767e-02 -1.898404327221214771e-03 1.186632588505744934e-01 3.406204283237457275e-02 2.968884073197841644e-02 2.574287354946136475e-03 2.491543442010879517e-02 -4.061108920723199844e-03 -1.595811247825622559e-01 -1.136058345437049866e-01 1.485091745853424072e-01 -3.618280589580535889e-02 2.067637443542480469e-02 -2.746860980987548828e-01 1.367759145796298981e-02
-3.069389164447784424e-01 4.464968442916870117e-01 1.666617393493652344e-01 -1.499095559120178223e-01 -9.842544794082641602e-02 1.474241446703672409e-02 -1.774409040808677673e-02 2.822507731616497040e-02 2.581587247550487518e-02 -1.076101362705230713e-01 6.637032330036163330e-02 -2.041558362543582916e-02 6.051691621541976929e-02 -1.057447046041488647e-01 -5.622265487909317017e-02 -3.523535560816526413e-04 1.154270023107528687e-01 -4.552546888589859009e-02 -2.326524257659912109e-02 -1.436268445104360580e-02 3.125303983688354492e-02 2.841649204492568970e-02 8.232306689023971558e-02 -6.420471519231796265e-02 1.554433908313512802e-02 -1.453663408756256104e-01 -5.885733664035797119e-02 1.949835270643234253e-01 -9.862591326236724854e-02 1.264200806617736816e-01
-1.499440670013427734e-01 2.158850282430648804e-01 8.467209339141845703e-02 -5.996888130903244019e-02 -1.510844845324754715e-02 -1.568415910005569458e-01 1.152380034327507019e-01 -5.657752603292465210e-02 -2.227249927818775177e-02 1.574944704771041870e-02 -1.623712331056594849e-01 -2.547023352235555649e-03 2.378723770380020142e-01 3.807368129491806030e-02 -6.596458703279495239e-02 9.838482365012168884e-03 -1.636236011981964111e-01 -1.858638375997543335e-01 -9.644635021686553955e-02 -2.518815919756889343e-02 -6.151224672794342041e-02 6.619641557335853577e-03 8.898638188838958740e-02 8.001130074262619019e-02 1.703906655311584473e-01 -3.510138764977455139e-02 1.186054795980453491e-01 1.835441403090953827e-02 -9.103281795978546143e-02 5.412857607007026672e-02
2.143643498420715332e-01 1.403720527887344360e-01 1.023278106003999710e-02 5.329978093504905701e-02 -1.980361193418502808e-01 -5.975877866148948669e-02 1.160240266472101212e-02 2.777810953557491302e-02 -2.767801657319068909e-02 -7.223146036267280579e-03 4.845398943871259689e-03 -1.231681704521179199e-01 -4.136171564459800720e-02 1.372569948434829712e-01 1.434934586286544800e-01 7.758368551731109619e-02 -2.532863058149814606e-02 -2.262726873159408569e-01 -3.688912838697433472e-02 4.135998338460922241e-02 -8.794245123863220215e-02 -4.804860800504684448e-03 -3.583527356386184692e-02 -1.567271053791046143e-01 2.279401943087577820e-02 2.448819205164909363e-02 -3.475756570696830750e-02 -2.107920683920383453e-02 8.271574229001998901e-02 -4.530647397041320801e-02
-3.794704750180244446e-02 1.687896549701690674e-01 3.210873603820800781e-01 2.423836477100849152e-02 -2.231960594654083252e-01 -3.567493706941604614e-02 2.811267413198947906e-02 1.743919402360916138e-02 1.034258957952260971e-02 4.271193407475948334e-03 1.022675782442092896e-01 1.158666163682937622e-01 -1.173697710037231445e-01 2.781140059232711792e-02 1.257461160421371460e-01 7.979276031255722046e-02 -1.684384420514106750e-02 -8.481374382972717285e-02 -8.901376277208328247e-04 -8.931961655616760254e-02 2.605400681495666504e-01 3.664857894182205200e-02 3.179047023877501488e-03 9.313394129276275635e-02 -1.001526415348052979e-02 1.261323988437652588e-01 -6.837923824787139893e-02 -1.910838484764099121e-02 -8.654366433620452881e-02 5.470991879701614380e-02
-2.493827939033508301e-01 4.754149615764617920e-01 3.401885628700256348e-01 1.026870012283325195e-01 2.847674116492271423e-02 7.953326404094696045e-02 -6.768548488616943359e-02 -7.611235603690147400e-03 5.372314155101776123e-02 -2.987222559750080109e-02 6.000313162803649902e-02 7.947895675897598267e-02 -6.971822679042816162e-02 8.809248358011245728e-02 3.362558409571647644e-02 -6.383978575468063354e-02 -1.308915317058563232e-01 -7.208090275526046753e-02 -5.670635495334863663e-03 1.371978819370269775e-01 -3.599753603339195251e-02 -1.291935518383979797e-02 2.799258008599281311e-02 -1.259050071239471436e-01 -1.677267253398895264e-01 -1.474555209279060364e-02 4.372737184166908264e-02 1.690302193164825439e-01 1.448249630630016327e-02 7.705542445182800293e-02
-2.294095931574702263e-03 -6.563095841556787491e-03 -4.949403181672096252e-02 -6.465925276279449463e-02 9.219650179147720337e-03 1.057167500257492065e-01 -1.002305522561073303e-01 1.453313082456588745e-01 7.037455588579177856e-02 4.044310003519058228e-02 1.973900943994522095e-02 5.521941930055618286e-02 -6.165979802608489990e-02 -9.323751926422119141e-02 4.756582155823707581e-02 8.123556524515151978e-02 1.200080849230289459e-03 6.742360442876815796e-02 -6.028145179152488708e-02 -7.270015031099319458e-02 -1.199031434953212738e-02 -1.310719363391399384e-02 1.048967465758323669e-01 5.293007940053939819e-02 -3.399428352713584900e-02 9.745746105909347534e-02 4.902477189898490906e-02 -3.027792461216449738e-02 -1.182850599288940430e-01 -9.558729082345962524e-02
-5.170112848281860352e-01 -2.709056138992309570e-01 1.730038900859653950e-03 3.258419455960392952e-03 8.545557409524917603e-02 6.423802673816680908e-02 1.799308806657791138e-01 -1.379483044147491455e-01 1.745058745145797729e-01 1.787077262997627258e-02 -3.251524642109870911e-02 4.311811178922653198e-02 -7.426057755947113037e-02 4.191122949123382568e-02 -2.356679737567901611e-02 2.687211148440837860e-02 1.226189509034156799e-01 1.220412999391555786e-01 6.628644652664661407e-03 8.851569145917892456e-02 -1.834963820874691010e-02 7.167909294366836548e-02 1.270765364170074463e-01 -1.272092610597610474e-01 6.534885615110397339e-02 -2.074341056868433952e-03 4.515059292316436768e-03 -1.051967963576316833e-01 -2.343174368143081665e-01 -8.509235829114913940e-02
-3.640742599964141846e-01 2.510416209697723389e-01 -5.688047036528587341e-02 -1.803218387067317963e-02 2.187361121177673340e-01 -2.313437126576900482e-02 3.044095449149608612e-02 -1.295678615570068359e-01 1.012322958558797836e-02 1.509759295731782913e-02 2.191091328859329224e-01 -1.360556930303573608e-01 -2.884490415453910828e-02 6.693683099001646042e-03 4.848142340779304504e-02 5.308153480291366577e-02 -1.841088384389877319e-01 -4.292185977101325989e-02 2.210626564919948578e-02 -3.014448285102844238e-02 -1.549735814332962036e-01 3.525483980774879456e-02 7.441280037164688110e-02 -8.370905369520187378e-02 -7.391778379678726196e-02 -1.283959150314331055e-01 -2.606817521154880524e-02 9.264860302209854126e-02 -7.283338159322738647e-02 -3.763693943619728088e-02
5.621767416596412659e-02 2.595606148242950439e-01 1.389450281858444214e-01 9.145502746105194092e-02 1.639945060014724731e-01 -1.993730850517749786e-02 2.911726199090480804e-02 1.534879356622695923e-01 4.995051771402359009e-03 -2.887277118861675262e-02 -3.380989655852317810e-02 -9.266019612550735474e-02 -7.466929405927658081e-02 -9.010045230388641357e-02 -3.168406710028648376e-02 -2.086351625621318817e-02 2.339836023747920990e-02 4.854637384414672852e-02 4.888736829161643982e-02 -8.281684666872024536e-02 -3.952977806329727173e-02 6.634592264890670776e-02 -4.766866192221641541e-02 4.968814551830291748e-02 7.621818780899047852e-02 -2.529122680425643921e-02 -6.646879017353057861e-03 1.423167735338211060e-01 -3.855444788932800293e-01 1.652390882372856140e-02
1.004653930664062500e+00 4.058592021465301514e-02 -2.272577285766601562e-01 -4.324121400713920593e-02 -6.685482710599899292e-02 -1.031030192971229553e-01 2.687132172286510468e-02 -7.902663201093673706e-02 3.981107845902442932e-02 5.494036525487899780e-02 -2.283069305121898651e-02 7.568941265344619751e-02 -5.673589557409286499e-02 -3.216249868273735046e-02 -3.800008445978164673e-03 -8.318588137626647949e-02 8.547066152095794678e-02 4.575073719024658203e-02 4.498626105487346649e-03 -3.735905513167381287e-03 8.692567050457000732e-02 1.122857928276062012e-01 -6.499875802546739578e-03 6.366000161506235600e-04 -1.098790690302848816e-01 -1.660506613552570343e-02 1.100253779441118240e-02 4.761843010783195496e-02 9.909215569496154785e-02 -9.741447865962982178e-02
2.050893753767013550e-01 -1.864501647651195526e-02 -2.391821742057800293e-01 -1.440138518810272217e-01 6.458465009927749634e-02 -7.725307717919349670e-03 -6.427296251058578491e-02 -1.001901626586914062e-01 -5.404505413025617599e-03 -1.175792291760444641e-01 1.561774592846632004e-02 2.756803482770919800e-02 -9.754030406475067139e-02 1.573415994644165039e-01 1.285690963268280029e-01 3.389303386211395264e-02 -7.034838944673538208e-02 -1.547958403825759888e-01 2.528933435678482056e-02 -3.019117750227451324e-02 1.927940547466278076e-02 3.374238312244415283e-02 -6.090137735009193420e-02 -7.691674679517745972e-02 1.728064864873886108e-01 6.353333592414855957e-02 -1.427809745073318481e-01 7.869317382574081421e-02 4.131893627345561981e-03 -1.389776915311813354e-02
-2.808994352817535400e-01 7.994431257247924805e-01 3.028331100940704346e-01 5.091592669486999512e-02 -1.470443457365036011e-01 -5.717901978641748428e-03 -1.593614220619201660e-01 -1.672926396131515503e-01 4.882257804274559021e-02 6.980774551630020142e-02 -7.769480347633361816e-02 3.537213802337646484e-02 -1.588410139083862305e-01 -1.010375097393989563e-01 1.137105301022529602e-01 -8.929187059402465820e-02 -2.187022753059864044e-02 -6.707246066071093082e-04 -9.080007672309875488e-02 -1.441170424222946167e-01 2.687713131308555603e-02 1.041024997830390930e-01 -3.774095326662063599e-02 1.464090198278427124e-01 -9.486261755228042603e-02 3.866150276735424995e-03 -7.042736560106277466e-02 -1.576276496052742004e-02 1.678117737174034119e-02 -5.912810191512107849e-02
-4.465218782424926758e-01 -2.539836168289184570e-01 -2.833091318607330322e-01 -6.338984519243240356e-02 2.959415875375270844e-02 1.016415189951658249e-02 1.358734369277954102e-01 -1.117543652653694153e-01 -2.141546271741390228e-02 1.091538220643997192e-01 8.964882791042327881e-02 -4.809036850929260254e-02 -2.275616824626922607e-01 1.342612802982330322e-01 1.038132607936859131e-01 4.493217170238494873e-02 3.594368323683738708e-02 -3.119215555489063263e-02 8.885667473077774048e-02 2.676697075366973877e-02 3.640924021601676941e-02 -9.049339592456817627e-02 2.735799364745616913e-02 -4.030177835375070572e-03 5.614756420254707336e-02 -7.911524176597595215e-02 -2.803076803684234619e-02 1.308569964021444321e-02 -1.794607937335968018e-02 1.105472594499588013e-01
4.221673011779785156e-01 -1.525430232286453247e-01 1.251750588417053223e-01 1.002584621310234070e-01 -1.360019445419311523e-01 4.328483715653419495e-02 -2.748841792345046997e-02 3.906631097197532654e-02 -6.766276061534881592e-02 -2.664687111973762512e-02 -8.487625420093536377e-02 -1.434982120990753174e-01 -8.333982527256011963e-02 9.070755541324615479e-02 -1.777143478393554688e-01 3.575649484992027283e-02 -8.121203631162643433e-02 -5.363003909587860107e-02 -1.242269724607467651e-01 5.183607339859008789e-03 2.921996265649795532e-02 -1.119867200031876564e-03 -7.322690449655056000e-03 -6.920357048511505127e-02 -1.295570284128189087e-01 8.259095996618270874e-02 5.471310392022132874e-02 -1.636735796928405762e-01 -8.298134803771972656e-02 -6.877436488866806030e-02
-3.590074777603149414e-01 -3.447262644767761230e-01 4.431986510753631592e-01 8.831959217786788940e-02 -1.679907739162445068e-02 -2.663307636976242065e-02 -6.009036675095558167e-03 -1.493196785449981689e-01 1.471911650151014328e-02 -8.852982893586158752e-03 -5.659843329340219498e-03 4.411035031080245972e-02 3.173289820551872253e-02 3.036055713891983032e-02 -2.020786888897418976e-02 -6.327435374259948730e-02 1.207154057919979095e-02 9.347574412822723389e-02 -5.427499115467071533e-02 6.817853450775146484e-02 -7.437615841627120972e-02 4.569086059927940369e-02 -1.326550245285034180e-01 7.352084666490554810e-02 2.368764393031597137e-02 9.047488868236541748e-02 -5.883722566068172455e-03 -2.746762037277221680e-01 3.275043144822120667e-02 -2.231980673968791962e-02
-6.397292762994766235e-02 -1.143760308623313904e-01 8.956866711378097534e-02 1.177806034684181213e-02 1.454708874225616455e-01 -5.145696550607681274e-02 8.618707954883575439e-02 -5.233741924166679382e-02 9.200280904769897461e-02 7.038751244544982910e-02 -6.177536025643348694e-02 -5.919630080461502075e-02 -3.982412070035934448e-02 -7.665254175662994385e-03 2.790755964815616608e-02 -1.212046481668949127e-02 3.258204460144042969e-02 1.303348317742347717e-02 9.640279412269592285e-02 4.745854530483484268e-03 6.584918498992919922e-02 9.334158897399902344e-02 -7.259263843297958374e-02 9.470416605472564697e-02 -1.888059824705123901e-01 6.642965227365493774e-02 2.202317416667938232e-01 7.699736952781677246e-02 -8.519960194826126099e-02 5.598772689700126648e-02
7.807873189449310303e-02 4.395993053913116455e-02 1.557409763336181641e-01 1.215689405798912048e-01 2.938018739223480225e-02 5.630860477685928345e-02 -8.947919309139251709e-02 3.799003362655639648e-02 -8.172491192817687988e-02 5.903673544526100159e-02 1.445128172636032104e-01 -1.131996214389801025e-01 1.459217518568038940e-01 1.603422872722148895e-02 -7.597639411687850952e-02 3.684039041399955750e-02 -4.149386286735534668e-02 -7.986505329608917236e-02 -8.232915773987770081e-03 1.521325670182704926e-02 2.728304639458656311e-02 -2.058243602514266968e-01 -1.584476083517074585e-01 -1.836780160665512085e-01 7.900246977806091309e-02 5.235832184553146362e-03 -6.486649811267852783e-02 1.451729983091354370e-01 -2.648926340043544769e-02 -1.089528873562812805e-01
9.878867864608764648e-02 1.959989368915557861e-01 4.015937745571136475e-01 -6.578688509762287140e-03 -2.365877106785774231e-02 5.125407874584197998e-02 -5.354009568691253662e-02 7.715623825788497925e-02 -3.611321374773979187e-02 -5.757853388786315918e-02 -1.261495798826217651e-01 -1.605665087699890137e-01 -9.376642107963562012e-02 1.219253689050674438e-01 3.775922209024429321e-02 5.767699331045150757e-02 -1.516170948743820190e-01 1.452470198273658752e-02 8.633127808570861816e-02 1.124612689018249512e-01 -3.227079287171363831e-02 4.560428857803344727e-02 1.388176530599594116e-01 -1.168020535260438919e-02 2.436447888612747192e-02 9.041389077901840210e-02 -1.016070097684860229e-01 5.856123566627502441e-02 1.252935454249382019e-02 8.743914216756820679e-02
3.185063600540161133e-01 4.253813326358795166e-01 -1.184378191828727722e-01 -8.041808754205703735e-02 -8.593163639307022095e-02 1.008470579981803894e-01 -1.675672531127929688e-01 1.011525690555572510e-01 -3.816257463768124580e-03 -6.817042827606201172e-02 1.004722788929939270e-01 7.859989255666732788e-02 -7.305096089839935303e-02 2.499781176447868347e-02 -8.745229244232177734e-02 -1.029754430055618286e-02 -6.432985514402389526e-02 -4.537390545010566711e-03 -1.747193038463592529e-01 5.795111507177352905e-02 -8.361069113016128540e-02 -2.237447351217269897e-02 -7.347583770751953125e-02 4.429165646433830261e-02 -3.322911635041236877e-02 6.323247402906417847e-02 -7.879681885242462158e-02 -2.454339340329170227e-02 -4.853612184524536133e-02 6.363729387521743774e-02
2.236165255308151245e-01 -1.861806809902191162e-01 1.715289652347564697e-01 1.265539824962615967e-01 9.580455720424652100e-02 -3.946900367736816406e-02 -1.037965193390846252e-01 5.568379908800125122e-02 -6.754349172115325928e-02 6.396223604679107666e-02 -2.118072286248207092e-02 5.391605198383331299e-02 6.984864920377731323e-02 -3.419227153062820435e-02 8.069708198308944702e-02 -4.286970570683479309e-02 -8.612012863159179688e-02 -1.440544053912162781e-02 7.524871081113815308e-02 -5.498114600777626038e-02 -8.696027100086212158e-03 5.019812658429145813e-02 -2.843448892235755920e-02 -2.644164487719535828e-02 -7.460518926382064819e-02 2.616885863244533539e-02 4.778744280338287354e-02 -2.193474024534225464e-01 -1.649432070553302765e-02 -3.404876589775085449e-02
-5.152967059984803200e-04 -9.350723773241043091e-02 -1.311625689268112183e-01 -1.064552739262580872e-01 3.002554364502429962e-02 4.512119293212890625e-02 8.167309314012527466e-02 5.915432237088680267e-03 -2.206933647394180298e-01 -3.249547444283962250e-04 -1.545796990394592285e-01 -1.810316741466522217e-02 4.487708583474159241e-02 -4.597469046711921692e-02 -8.655659854412078857e-03 -4.828018322587013245e-02 1.744915358722209930e-02 2.399527281522750854e-02 9.315321594476699829e-02 1.192183122038841248e-01 3.041350841522216797e-02 1.051115691661834717e-01 -1.400712132453918457e-01 2.203411608934402466e-02 1.255996078252792358e-01 -1.000519245862960815e-01 -1.038292497396469116e-01 1.470780968666076660e-01 8.049872517585754395e-02 4.384431988000869751e-02
3.697749972343444824e-01 3.481236696243286133e-01 2.614556252956390381e-01 1.617444679141044617e-02 -5.734964460134506226e-02 5.439291894435882568e-02 1.172913387417793274e-01 3.318291902542114258e-02 -5.969402566552162170e-02 -5.827841535210609436e-02 1.943369507789611816e-01 -6.090009585022926331e-02 4.451965540647506714e-02 -8.698427677154541016e-02 -1.449888944625854492e-01 -6.795344408601522446e-03 6.445705890655517578e-03 -1.269496381282806396e-01 -8.478026092052459717e-02 3.350934013724327087e-02 -1.722238361835479736e-01 3.956449404358863831e-02 7.200558669865131378e-03 -6.113765761256217957e-02 -3.099211119115352631e-02 4.217185196466743946e-04 -6.969639658927917480e-02 -1.737128794193267822e-01 -2.628456614911556244e-02 -6.892942823469638824e-03
1.451125293970108032e-01 -1.410967260599136353e-01 4.345154762268066406e-01 2.291405946016311646e-02 8.317758142948150635e-02 7.928447425365447998e-02 1.327375322580337524e-01 3.920207917690277100e-02 -1.676931232213973999e-02 5.543345957994461060e-02 -7.522786036133766174e-03 -2.019774168729782104e-02 7.142648682929575443e-04 8.647940307855606079e-02 -2.731155045330524445e-02 -3.686650097370147705e-02 -8.326737210154533386e-03 -5.401385948061943054e-02 -2.185193300247192383e-01 2.816163934767246246e-02 -6.657335907220840454e-02 -2.481802133843302727e-03 2.971400134265422821e-02 1.576590933836996555e-03 -1.655730046331882477e-02 7.958097010850906372e-02 1.300863772630691528e-01 -7.878132164478302002e-02 2.151116281747817993e-01 1.761751323938369751e-01
1.946963816881179810e-01 -3.181663155555725098e-01 2.149084657430648804e-01 -8.520121872425079346e-02 4.428261891007423401e-03 -2.231440274044871330e-03 1.048157960176467896e-01 -2.339435182511806488e-02 -1.463525928556919098e-02 6.687241047620773315e-02 7.260685414075851440e-02 -2.830863371491432190e-02 1.492964774370193481e-01 -3.786696493625640869e-02 2.297851741313934326e-01 1.605290733277797699e-02 -9.204276651144027710e-02 -3.921183571219444275e-02 -3.236925229430198669e-02 1.147514358162879944e-01 -1.029003560543060303e-01 -1.731135882437229156e-03 6.663536280393600464e-02 -6.084917113184928894e-03 -7.442390918731689453e-02 -4.325072094798088074e-02 1.499076094478368759e-02 -5.373808741569519043e-02 1.845371443778276443e-03 5.475824698805809021e-02
-5.159626007080078125e-01 -4.352363348007202148e-01 9.971573948860168457e-02 -6.646902859210968018e-02 -2.599427243694663048e-04 9.403814375400543213e-02 -1.892724260687828064e-02 1.188066825270652771e-01 1.114738956093788147e-01 6.693135946989059448e-02 6.213488522917032242e-03 1.354088485240936279e-01 -5.302105844020843506e-02 1.474333554506301880e-01 -2.337919473648071289e-01 -8.348454535007476807e-02 3.003825061023235321e-02 -2.377081103622913361e-02 2.181813679635524750e-02 -7.297857850790023804e-02 7.991945743560791016e-02 -2.866838686168193817e-02 -4.110321402549743652e-02 -3.996508195996284485e-02 -7.917441427707672119e-02 2.317153103649616241e-02 -1.307124495506286621e-01 -5.283624678850173950e-02 3.481567278504371643e-02 5.711386725306510925e-02
-7.527089864015579224e-02 4.624847322702407837e-02 -5.289388447999954224e-02 1.662392616271972656e-01 1.681103110313415527e-01 3.866466507315635681e-02 -6.495001167058944702e-02 4.271565377712249756e-02 2.694797702133655548e-02 -9.956680238246917725e-03 7.037919759750366211e-02 4.445333033800125122e-02 6.084579601883888245e-02 8.523280732333660126e-03 8.632327616214752197e-02 -1.128468886017799377e-01 9.329611435532569885e-03 3.373834490776062012e-02 -7.826403528451919556e-02 1.295658200979232788e-01 3.695497289299964905e-02 9.537109732627868652e-02 1.298493444919586182e-01 2.643673680722713470e-02 -5.477163940668106079e-02 4.009705968201160431e-03 1.187851056456565857e-01 -6.411603093147277832e-02 -1.102919951081275940e-01 1.133775338530540466e-01
1.687299907207489014e-01 -8.777662366628646851e-02 -2.442270219326019287e-01 -2.389513142406940460e-02 1.255196928977966309e-01 -1.636333465576171875e-01 -9.910044074058532715e-02 1.211150065064430237e-01 -6.400331109762191772e-02 2.719760499894618988e-02 7.438205927610397339e-02 2.683556871488690376e-03 -3.567087464034557343e-03 1.488047987222671509e-01 8.689413964748382568e-02 -3.809260204434394836e-02 1.379898637533187866e-01 -2.207332476973533630e-02 -1.207145676016807556e-01 -7.042846828699111938e-02 6.333054602146148682e-02 8.100757747888565063e-02 -1.029733866453170776e-01 2.686831727623939514e-02 4.127955064177513123e-02 8.527041971683502197e-02 3.166404319927096367e-03 3.352178260684013367e-02 3.150799125432968140e-02 1.254143775440752506e-03
-2.176351845264434814e-01 -7.345404028892517090e-01 9.185340604744851589e-04 -8.682597544975578785e-04 -7.815784215927124023e-02 -7.794035971164703369e-02 -4.433159157633781433e-02 -9.943380020558834076e-03 5.087406560778617859e-02 9.403772652149200439e-02 8.955059200525283813e-02 3.604840114712715149e-02 -5.303797870874404907e-02 -4.493036866188049316e-02 -6.210133805871009827e-02 3.630431741476058960e-02 -1.808938980102539062e-01 -1.027822420001029968e-01 -5.911925435066223145e-02 -1.774232275784015656e-02 -5.526331067085266113e-02 -6.716854870319366455e-02 1.621998846530914307e-01 -3.664162755012512207e-02 2.380653619766235352e-01 -1.755672879517078400e-02 -1.651121675968170166e-02 1.026134863495826721e-01 -2.244743518531322479e-02 -7.841330021619796753e-02
1.838177889585494995e-01 -2.121246010065078735e-01 -2.238458991050720215e-01 1.664076596498489380e-01 7.805726677179336548e-02 3.060544468462467194e-02 -1.259089410305023193e-01 1.249979063868522644e-01 4.661606624722480774e-02 -1.962542906403541565e-02 -1.592700630426406860e-01 -1.099254563450813293e-02 -4.273011349141597748e-03 7.968326099216938019e-03 6.076631695032119751e-02 -5.408190935850143433e-02 3.389585018157958984e-02 -1.254940629005432129e-01 2.362688630819320679e-01 1.884593963623046875e-01 -7.781581580638885498e-02 1.101730614900588989e-01 -2.746021933853626251e-02 9.555635973811149597e-03 3.128607198596000671e-02 1.342158317565917969e-01 -4.187531024217605591e-02 -9.026006609201431274e-02 1.315327137708663940e-01 -2.386551495874300599e-04
-6.173714622855186462e-02 -4.630153179168701172e-01 1.494886875152587891e-01 9.040261805057525635e-02 -3.920140862464904785e-02 -9.692633897066116333e-02 -5.032031610608100891e-02 3.386665880680084229e-02 -1.314300596714019775e-01 -6.543651968240737915e-02 2.356378920376300812e-02 1.093701347708702087e-01 6.168553233146667480e-02 -3.304475173354148865e-02 -3.675116598606109619e-02 4.166962951421737671e-02 9.469681978225708008e-02 -3.886926546692848206e-02 1.446070671081542969e-01 4.159009456634521484e-02 -1.813100092113018036e-02 9.798106551170349121e-02 -6.984554976224899292e-02 9.192693047225475311e-03 -1.162639185786247253e-01 1.683467812836170197e-02 -6.566868722438812256e-02 2.833159640431404114e-02 1.482001692056655884e-01 -5.632637441158294678e-02
-1.703369915485382080e-01 2.164575271308422089e-03 2.228935249149799347e-02 2.328249439597129822e-02 -7.283473014831542969e-02 -6.993995606899261475e-02 -4.860142618417739868e-02 -2.816138090565800667e-03 -8.180883526802062988e-02 -2.378913015127182007e-02 8.307538181543350220e-02 1.409986615180969238e-01 -5.408956483006477356e-02 8.793696016073226929e-02 1.381490826606750488e-01 1.416683197021484375e-02 -1.180230602622032166e-01 -1.702474802732467651e-01 -8.357717096805572510e-02 -6.513084471225738525e-02 7.957650348544120789e-03 -2.031890675425529480e-02 1.098224669694900513e-01 6.936507672071456909e-02 -1.366337537765502930e-01 -8.886807411909103394e-02 -1.558282971382141113e-01 2.196076959371566772e-01 -1.123599708080291748e-01 8.881797082722187042e-03
2.533674836158752441e-01 1.368897110223770142e-01 4.994066357612609863e-01 -9.796845912933349609e-02 -1.875629089772701263e-02 -6.308727897703647614e-03 -7.239631563425064087e-02 1.111638620495796204e-01 8.764720521867275238e-03 -4.002815403509885073e-04 5.255303159356117249e-02 6.249238178133964539e-02 1.228146180510520935e-01 6.298072636127471924e-02 3.445449098944664001e-02 -1.236804574728012085e-02 1.870964840054512024e-02 6.378509849309921265e-02 -6.131725758314132690e-02 2.389712482690811157e-01 7.387810386717319489e-03 -4.362640902400016785e-02 1.802258752286434174e-02 -1.306850928813219070e-02 -1.135634109377861023e-01 -9.850027970969676971e-03 3.847282379865646362e-02 -3.130685389041900635e-01 -3.036683611571788788e-02 1.144871190190315247e-01
4.289608299732208252e-01 7.013710737228393555e-01 -2.464493960142135620e-01 8.744271844625473022e-02 -1.197006404399871826e-01 4.243478178977966309e-02 -7.526759058237075806e-02 -1.249163877218961716e-02 1.429695487022399902e-01 -9.477772563695907593e-02 8.141662180423736572e-02 -3.683006018400192261e-02 -9.458202123641967773e-02 -5.582116916775703430e-02 4.825890436768531799e-02 3.163214772939682007e-02 -4.184062033891677856e-02 1.220951974391937256e-01 -9.151361882686614990e-02 9.410982578992843628e-02 7.894792594015598297e-03 1.876970939338207245e-02 -1.671427889959886670e-05 -1.833238750696182251e-01 -7.692376151680946350e-03 -5.745144933462142944e-02 9.664419293403625488e-02 5.242531187832355499e-03 7.967620342969894409e-02 2.386209182441234589e-02
-3.984086513519287109e-01 1.181384455412626266e-02 -2.749380469322204590e-01 1.288833655416965485e-02 1.107043102383613586e-01 1.576439104974269867e-02 4.717020690441131592e-02 1.259690802544355392e-02 -2.392752021551132202e-01 1.651601791381835938e-01 -2.044630199670791626e-01 -1.150339171290397644e-01 1.732875704765319824e-01 7.675517350435256958e-03 6.580361165106296539e-03 3.012409806251525879e-02 -2.555075567215681076e-03 1.451835781335830688e-01 -1.148095168173313141e-02 6.518528610467910767e-02 4.087044857442378998e-03 1.053673252463340759e-01 9.397640824317932129e-02 -6.189530715346336365e-02 1.041795089840888977e-01 6.228369474411010742e-02 -4.529789090156555176e-02 7.512565702199935913e-02 1.139088496565818787e-01 -5.516783148050308228e-02
5.026463270187377930e-01 1.813150793313980103e-01 2.765597775578498840e-02 5.949719622731208801e-02 -3.985184431076049805e-02 3.080787695944309235e-02 -1.245013698935508728e-01 -1.446679234504699707e-01 2.218949049711227417e-02 -1.357673406600952148e-01 -9.917582571506500244e-02 2.743457555770874023e-01 1.660966873168945312e-01 5.312856752425432205e-03 4.039447009563446045e-02 9.333071112632751465e-02 -1.673516780138015747e-01 -5.602610111236572266e-02 1.168066114187240601e-01 -1.160920858383178711e-01 1.286313124001026154e-02 -2.413684269413352013e-04 3.749593719840049744e-02 2.416204661130905151e-01 5.944734066724777222e-02 -1.189312338829040527e-01 2.864412404596805573e-02 -1.572985649108886719e-01 -1.192680001258850098e-02 2.584305219352245331e-02
5.830922629684209824e-03 -2.898190915584564209e-01 1.563059538602828979e-01 -6.123730167746543884e-02 1.684982478618621826e-01 1.847583651542663574e-01 6.417664140462875366e-02 -1.081221848726272583e-01 -9.299879521131515503e-02 9.037221968173980713e-02 1.302864700555801392e-01 -1.464650630950927734e-01 4.232040047645568848e-02 -2.333772554993629456e-02 8.993566036224365234e-02 1.183545216917991638e-01 1.041387692093849182e-01 4.762504994869232178e-02 6.858457624912261963e-02 -2.341498807072639465e-02 1.071595698595046997e-01 -6.248555332422256470e-02 -1.323233097791671753e-01 -5.485843867063522339e-02 3.139417618513107300e-02 -3.154012560844421387e-02 -9.843852370977401733e-02 -6.607052683830261230e-02 -6.807864457368850708e-02 -7.059238106012344360e-02
-1.236499771475791931e-01 7.575245946645736694e-02 -5.892760306596755981e-02 1.492918133735656738e-01 -1.761772297322750092e-02 3.858906403183937073e-02 1.836927980184555054e-02 1.064064875245094299e-01 -9.593425691127777100e-02 -7.297825813293457031e-02 9.145121276378631592e-02 -4.192445427179336548e-02 -5.360272526741027832e-02 1.182152032852172852e-01 6.852120161056518555e-02 6.679148226976394653e-02 -3.794005140662193298e-02 3.178356215357780457e-02 1.871563494205474854e-01 4.095936939120292664e-02 1.003118157386779785e-01 -6.598331034183502197e-02 1.935363397933542728e-04 1.039142906665802002e-01 -1.370887905359268188e-01 5.020549148321151733e-02 -1.368091255426406860e-01 1.916891932487487793e-01 -1.563320159912109375e-01 1.220389455556869507e-02
-1.433221846818923950e-01 -9.795913100242614746e-02 1.491338610649108887e-01 -1.029291655868291855e-02 -2.019495517015457153e-02 9.167961776256561279e-02 -1.225893758237361908e-02 -7.513693720102310181e-02 7.844715565443038940e-02 -1.054112985730171204e-01 -1.120384857058525085e-01 8.414284884929656982e-02 6.771209090948104858e-02 -2.053560130298137665e-02 -8.830845355987548828e-02 -3.972692787647247314e-02 1.839424483478069305e-02 4.473432153463363647e-02 1.434234529733657837e-01 -7.598049193620681763e-02 8.649054914712905884e-02 -8.110276423394680023e-03 -6.021900847554206848e-02 -8.911272138357162476e-02 6.065523624420166016e-02 1.393977105617523193e-01 1.318382173776626587e-01 2.032724954187870026e-02 9.408570826053619385e-02 -7.049694657325744629e-02
3.770258650183677673e-02 1.262255907058715820e-01 -2.295689471065998077e-02 1.206949874758720398e-01 8.522100001573562622e-02 -6.186266988515853882e-02 -7.199803739786148071e-02 1.867392957210540771e-01 -1.018856987357139587e-01 8.977672457695007324e-02 -6.823480874300003052e-02 3.659522533416748047e-02 -1.621350646018981934e-01 -5.439413338899612427e-02 9.043441712856292725e-02 1.462485194206237793e-01 -2.644292265176773071e-02 -9.448893368244171143e-02 -1.985994912683963776e-02 -1.127849519252777100e-01 -1.308117061853408813e-01 -5.944314878433942795e-03 -8.481216616928577423e-03 9.328329563140869141e-02 7.097880356013774872e-03 1.138627678155899048e-01 8.247604221105575562e-02 1.538126468658447266e-01 -1.382251381874084473e-01 4.881687089800834656e-02
