-1.362964808940887451e-01
9.573120623826980591e-02
-7.409627735614776611e-02
5.303164944052696228e-03
-7.781977951526641846e-02
-6.330545246601104736e-02
-5.961213260889053345e-03
-1.259830743074417114e-01
-2.406015992164611816e-02
-5.439640954136848450e-02
-5.135847628116607666e-02
-2.513795904815196991e-02
-2.037847228348255157e-02
-4.125339910387992859e-02
6.890580058097839355e-03
5.424441769719123840e-04
-1.466667950153350830e-01
-4.001922160387039185e-02
-1.819336600601673126e-02
-4.394272342324256897e-02
-1.077625602483749390e-01
9.485225193202495575e-03
-2.128922790288925171e-01
-1.580424420535564423e-02
-1.750967353582382202e-01
8.439934998750686646e-02
-8.974068611860275269e-02
-1.516166329383850098e-01
6.103346124291419983e-02
1.545516029000282288e-02
-6.157242506742477417e-02
-8.299771696329116821e-02
-3.752892138436436653e-03
1.445629298686981201e-01
-2.351642772555351257e-02
-6.285213679075241089e-02
-3.461953252553939819e-02
-6.365487724542617798e-02
-1.249965652823448181e-02
8.273656666278839111e-02
-1.134152933955192566e-01
-6.713600456714630127e-02
-9.108915925025939941e-02
-1.946846991777420044e-01
-1.005579754710197449e-01
-4.538918437901884317e-05
-1.848322451114654541e-01
2.501622028648853302e-02
-1.035208180546760559e-01
-1.235775724053382874e-01
8.406476676464080811e-02
1.159282587468624115e-02
1.203171387314796448e-01
-2.066356688737869263e-02
1.529894885607063770e-03
-4.007001593708992004e-02
-5.547125265002250671e-02
-1.578500419855117798e-01
-1.145050022751092911e-02
-4.103534296154975891e-02
-7.854905724525451660e-02
-1.228029653429985046e-01
1.279324293136596680e-01
-1.440137475728988647e-01
-4.814969748258590698e-02
8.609389886260032654e-03
-6.088571622967720032e-02
-1.048041786998510361e-02
4.291239008307456970e-02
-5.915837362408638000e-02
3.488554805517196655e-02
-6.664638966321945190e-02
-4.395494237542152405e-02
-1.960538141429424286e-02
-3.814101219177246094e-02
-1.012525781989097595e-01
3.362043574452400208e-02
-1.956000365316867828e-02
-1.082878783345222473e-01
-1.929180324077606201e-01
4.445821419358253479e-02
-1.722666174173355103e-01
-2.112142369151115417e-02
3.354769945144653320e-02
3.068263642489910126e-02
5.356134101748466492e-02
-1.909304782748222351e-02
-9.529881179332733154e-02
-1.354459822177886963e-01
9.891213476657867432e-02
-1.158374696969985962e-01
-2.239927276968955994e-02
-2.083951234817504883e-01
-2.681375108659267426e-02
-4.649491980671882629e-02
2.441973797976970673e-02
2.890611253678798676e-02
-3.459642454981803894e-02
-7.066232711076736450e-02
-9.498769044876098633e-02
-2.595061436295509338e-02
-4.153922945261001587e-02
-7.576347887516021729e-02
-1.457936409860849380e-02
-8.198445662856101990e-03
-3.617119789123535156e-02
-8.592868596315383911e-02
2.518140943720936775e-03
-3.165445849299430847e-02
2.296652272343635559e-02
5.895414203405380249e-02
1.617662422358989716e-02
-7.908046245574951172e-02
-1.877027936279773712e-02
-6.168691068887710571e-02
-4.207247495651245117e-02
-9.795042872428894043e-02
3.652106598019599915e-02
-1.379395574331283569e-01
-1.932428102008998394e-03
9.544964879751205444e-02
8.804432000033557415e-04
2.926224283874034882e-02
-9.248737245798110962e-02
7.105085998773574829e-02
-9.040506184101104736e-02
-8.043596148490905762e-02
2.782912924885749817e-02
5.677761510014533997e-03
-9.332876652479171753e-02
-6.642631441354751587e-02
-6.851574033498764038e-02
-1.253078281879425049e-01
1.564027816057205200e-01
8.811463601887226105e-03
-4.307984560728073120e-02
-1.048145908862352371e-02
4.245397448539733887e-02
-8.465725183486938477e-02
-1.218460965901613235e-02
-4.873258620500564575e-02
-1.265680640935897827e-01
-1.042348612099885941e-02
3.937381505966186523e-02
-6.365129351615905762e-02
-1.230574846267700195e-01
2.847909741103649139e-02
-8.524150401353836060e-02
1.876686513423919678e-02
-7.611000537872314453e-02
-5.293569341301918030e-02
7.079049199819564819e-02
-2.643850073218345642e-02
-5.496416985988616943e-02
-1.812193915247917175e-02
-8.471644483506679535e-03
2.802174352109432220e-02
-1.637516766786575317e-01
-1.096076443791389465e-01
-9.835411794483661652e-03
-1.747156381607055664e-01
-7.250905781984329224e-02
-4.456182941794395447e-02
-7.380179315805435181e-02
1.357722282409667969e-01
2.723494730889797211e-02
-1.051972880959510803e-01
-5.993823707103729248e-02
-2.823840826749801636e-02
3.467793809249997139e-03
9.161631762981414795e-02
-3.374146670103073120e-02
3.089632466435432434e-02
-2.182604948757216334e-04
-6.522699841298162937e-04
7.163905072957277298e-03
9.569762274622917175e-03
-1.189474761486053467e-01
-5.325638502836227417e-02
-9.287417680025100708e-02
-6.702115386724472046e-02
3.756741434335708618e-02
-6.379634141921997070e-02
-7.217059284448623657e-02
-1.082276180386543274e-01
-9.467338770627975464e-02
-6.358759105205535889e-02
-1.383890062570571899e-01
-7.443050295114517212e-02
1.048081070184707642e-01
-3.030185997486114502e-01
-3.219791874289512634e-02
-4.777942597866058350e-02
2.213468030095100403e-02
-1.165124028921127319e-01
5.038936808705329895e-02
1.681716553866863251e-02
-1.166082024574279785e-01
-7.304302603006362915e-02
-1.275259405374526978e-01
4.483750090003013611e-02
1.130874827504158020e-01
-1.625114493072032928e-02
9.726646542549133301e-02
-8.139557391405105591e-02
-4.011971503496170044e-02
-4.971753060817718506e-02
6.088835652917623520e-03
-4.095479473471641541e-02
4.324811697006225586e-02
-1.723640970885753632e-02
2.916034497320652008e-02
-7.618668675422668457e-02
-3.481471166014671326e-02
-8.742937445640563965e-02
-2.647648751735687256e-02
-6.712003145366907120e-03
-6.333718448877334595e-02
-2.474264800548553467e-02
-8.422687649726867676e-02
-1.479577422142028809e-01
-9.114838391542434692e-02
-4.554578289389610291e-02
-3.929832205176353455e-02
-6.184740457683801651e-03
-1.371816247701644897e-01
-9.269415400922298431e-03
-2.012027986347675323e-02
4.082012549042701721e-02
8.745994418859481812e-04
-8.069834858179092407e-02
-6.394402682781219482e-02
1.142294332385063171e-01
-1.801272779703140259e-01
-6.516847759485244751e-02
-1.140341907739639282e-01
5.736161395907402039e-02
-1.752371340990066528e-02
-6.989873945713043213e-02
-1.785849481821060181e-01
-8.063129335641860962e-02
-4.809891432523727417e-02
-7.214820384979248047e-02
-4.641854017972946167e-02
-3.994648531079292297e-02
-6.350027024745941162e-02
-9.133934974670410156e-02
-7.384629547595977783e-02
2.154191955924034119e-02
1.706195436418056488e-02
-1.021272838115692139e-01
1.157762482762336731e-01
-1.096455082297325134e-01
-1.430338323116302490e-01
-4.498383402824401855e-02
-4.455349966883659363e-02
