4.951385036110877991e-02
-2.991339936852455139e-02
1.503648608922958374e-02
-2.419422753155231476e-02
3.758769715204834938e-03
2.499950304627418518e-02
-3.762267902493476868e-02
1.815957762300968170e-02
3.899388760328292847e-02
2.787692472338676453e-02
1.785653829574584961e-02
2.304842323064804077e-02
5.293003097176551819e-02
-8.999782800674438477e-02
-1.385442353785037994e-02
1.220840681344270706e-02
6.975368130952119827e-03
-1.187785901129245758e-02
-2.368219941854476929e-02
1.308124233037233353e-02
2.057163789868354797e-02
-7.716592866927385330e-03
7.080264855176210403e-03
1.251479261554777622e-03
-4.061523079872131348e-02
1.665768027305603027e-02
2.326971106231212616e-02
-2.744761854410171509e-02
4.433439671993255615e-02
1.567838713526725769e-02
-4.845289885997772217e-02
1.160436868667602539e-02
3.856335952877998352e-02
-4.732106812298297882e-03
3.194434568285942078e-02
2.754363976418972015e-02
3.063328564167022705e-02
3.111457265913486481e-02
3.614476695656776428e-02
-2.999522536993026733e-02
7.926085032522678375e-03
2.959613315761089325e-02
6.158627569675445557e-02
-1.900481246411800385e-02
2.656778879463672638e-02
-3.312232345342636108e-02
-2.108575217425823212e-02
4.399170726537704468e-02
-7.943472824990749359e-03
4.760186374187469482e-02
1.059537194669246674e-02
2.748727612197399139e-02
6.019289791584014893e-02
-1.249885186553001404e-02
5.457812547683715820e-02
-1.461064442992210388e-02
-3.676837682723999023e-02
-3.488836437463760376e-02
1.863245479762554169e-02
-7.919023744761943817e-03
-1.377442199736833572e-02
4.514712840318679810e-02
-2.299536950886249542e-02
-3.998948633670806885e-02
1.128432713449001312e-02
1.571421697735786438e-02
9.726886637508869171e-03
2.353860437870025635e-02
3.079674951732158661e-02
3.152778744697570801e-02
-1.252124179154634476e-02
-6.224519759416580200e-02
1.283996272832155228e-02
-1.806956529617309570e-02
-1.963524147868156433e-02
-6.609777361154556274e-02
-1.691945455968379974e-02
-5.593814700841903687e-02
-2.118694037199020386e-02
-4.378778487443923950e-02
2.614114806056022644e-02
3.292569145560264587e-02
2.201728522777557373e-02
2.045291848480701447e-02
-9.532995522022247314e-03
-1.878597831819206476e-04
1.744976826012134552e-02
2.794270403683185577e-02
2.383060008287429810e-02
2.870759181678295135e-02
-1.745931617915630341e-02
2.500115707516670227e-02
-1.203768886625766754e-02
1.783880521543323994e-03
5.095937475562095642e-02
4.020512849092483521e-02
5.367510020732879639e-02
1.865285262465476990e-02
5.775048956274986267e-02
3.069208376109600067e-02
-1.391712296754121780e-02
-2.252897992730140686e-02
1.420671120285987854e-02
5.524852126836776733e-02
-1.644157990813255310e-02
1.725663989782333374e-02
-2.811734750866889954e-02
1.750803552567958832e-02
5.729595944285392761e-02
2.688087522983551025e-02
5.205050855875015259e-02
5.607524141669273376e-02
-3.601375222206115723e-02
4.112458601593971252e-02
5.645710602402687073e-02
3.705189097672700882e-03
-2.709084749221801758e-02
2.170207910239696503e-02
3.896403650287538767e-04
4.798281565308570862e-02
3.582515195012092590e-02
3.114112280309200287e-02
1.281150337308645248e-02
1.175994426012039185e-02
-3.926419094204902649e-02
-3.276046738028526306e-02
-1.146279159002006054e-03
2.150321006774902344e-02
2.991689369082450867e-02
5.358406901359558105e-02
1.800564117729663849e-02
-3.989657270722091198e-04
1.421456784009933472e-02
3.033926151692867279e-02
5.735772196203470230e-03
-5.859955400228500366e-02
2.571537531912326813e-02
2.924297936260700226e-02
3.549276664853096008e-02
-4.395301640033721924e-02
3.472245484590530396e-02
-4.524453077465295792e-03
8.145564235746860504e-03
-4.327160865068435669e-02
-1.254107616841793060e-02
3.697781637310981750e-02
-4.567274451255798340e-02
-2.202979987487196922e-03
1.004709675908088684e-02
-4.265168681740760803e-03
2.319939061999320984e-02
-1.877899165265262127e-03
4.339660704135894775e-02
6.367836613208055496e-03
8.864630945026874542e-03
-3.736324142664670944e-03
-4.636732861399650574e-02
1.170093286782503128e-02
2.772688120603561401e-02
-2.521121688187122345e-02
-9.899291908368468285e-04
-4.663073644042015076e-02
3.323283419013023376e-02
-1.420073769986629486e-02
2.256066538393497467e-03
-2.330265194177627563e-02
1.431821286678314209e-02
1.208315137773752213e-02
-3.661803156137466431e-02
-2.954665804281830788e-03
4.717604443430900574e-02
4.771580174565315247e-02
4.562552273273468018e-02
-1.380372996209189296e-04
3.433628007769584656e-02
-2.724165841937065125e-02
6.451272871345281601e-03
1.255637267604470253e-03
2.716578170657157898e-02
5.135449464432895184e-04
1.501386519521474838e-02
4.327609390020370483e-02
4.573376476764678955e-02
-6.032667588442564011e-03
1.198735646903514862e-02
1.851106993854045868e-02
-4.027212411165237427e-02
1.090300176292657852e-02
-4.385977238416671753e-02
4.633117839694023132e-02
2.931979298591613770e-02
3.589157015085220337e-02
-3.536774218082427979e-02
1.437435019761323929e-02
-4.293135832995176315e-03
-2.613789029419422150e-02
-3.129826218355447054e-04
2.773848129436373711e-03
4.276450723409652710e-02
-2.793610468506813049e-02
-3.352479636669158936e-02
2.083437331020832062e-02
4.909984394907951355e-02
2.123811654746532440e-02
1.957685453817248344e-03
3.447792679071426392e-02
9.086122736334800720e-03
4.638381674885749817e-02
-2.197428606450557709e-02
-8.147747255861759186e-03
3.381898626685142517e-02
7.976742461323738098e-03
4.554240033030509949e-02
-1.855495758354663849e-02
1.230014953762292862e-03
5.444889515638351440e-02
1.196273881942033768e-02
6.351235788315534592e-03
3.891761600971221924e-02
4.273305460810661316e-02
3.527750074863433838e-02
4.520034417510032654e-02
3.633254766464233398e-02
2.620101720094680786e-02
-4.585898667573928833e-02
1.006751228123903275e-02
2.015125378966331482e-02
1.036156062036752701e-02
2.946781553328037262e-02
3.319633193314075470e-03
1.206287182867527008e-02
-3.793616592884063721e-02
-2.625918015837669373e-03
4.031484946608543396e-02
-2.442063204944133759e-02
2.031778171658515930e-02
3.320804238319396973e-02
-4.424619488418102264e-03
1.665930263698101044e-02
1.354016177356243134e-02
8.450623601675033569e-03
2.425231412053108215e-02
3.298556059598922729e-02
2.151058800518512726e-02
-6.351830961648374796e-05
3.398224012926220894e-03
5.569857731461524963e-02
1.591441407799720764e-02
4.225744679570198059e-02
2.590533159673213959e-02
-1.889586634933948517e-02
-3.384017571806907654e-02
3.635431081056594849e-02
2.982988022267818451e-02
4.526161501416936517e-05
-9.971753694117069244e-03
