-1.265680640935897827e-01 -7.592892646789550781e-02 -1.008785795420408249e-03 -2.404472827911376953e-01 -3.154528513550758362e-02 3.017134964466094971e-02 -2.653099596500396729e-01 -1.137816235423088074e-01 -1.099467203021049500e-01 9.522171318531036377e-02 9.933912195265293121e-03 -8.162932842969894409e-02 2.135578729212284088e-02 -9.295511245727539062e-02 -3.050607442855834961e-02 4.883656650781631470e-02 -1.094163674861192703e-02 -5.455033481121063232e-02 -9.131558239459991455e-02 -6.017827615141868591e-02 -1.421526223421096802e-01 6.542168557643890381e-02 3.902405127882957458e-02 1.146209891885519028e-02 2.834643051028251648e-02 -2.038437575101852417e-01 8.896595798432826996e-03 -2.788700461387634277e-01 4.682298004627227783e-02 -1.764431595802307129e-01 2.971172519028186798e-02 -2.796721458435058594e-01 -4.739879630506038666e-03 -9.478067606687545776e-02 -1.321872770786285400e-01 -2.301253844052553177e-03 -2.085737325251102448e-02 1.215378865599632263e-01 3.998068626970052719e-03 -2.076045125722885132e-01 -1.546549797058105469e-01 -2.315774261951446533e-01 -1.623260416090488434e-02 2.294262647628784180e-01 8.412808924913406372e-02 2.584520541131496429e-02 5.270214751362800598e-02 -5.098976939916610718e-02 -1.137999594211578369e-01 1.063572056591510773e-02 -1.907714754343032837e-01 1.146611273288726807e-01 -5.826622992753982544e-02 -5.752738565206527710e-02 -2.225246131420135498e-01 -1.643944829702377319e-01 2.632902860641479492e-01 -3.092818195000290871e-03 -5.847032740712165833e-02 -3.838336840271949768e-02 -1.854944229125976562e-01 -1.367284804582595825e-01 3.701430745422840118e-03 -2.216110229492187500e-01 -1.377816647291183472e-01 9.001499973237514496e-03 1.935331709682941437e-02 3.761598840355873108e-02 -2.887106267735362053e-03 -3.047575615346431732e-02 -1.980662047863006592e-01 -5.098135396838188171e-02 -1.477228254079818726e-01 5.965694785118103027e-02 -2.420753091573715210e-01 7.893253117799758911e-03 -8.424464613199234009e-02 3.727673366665840149e-02 -1.302012950181961060e-01 -6.647680699825286865e-02 -5.168604850769042969e-02 -1.153187006711959839e-01 -2.309532649815082550e-02 -2.124182693660259247e-02 -1.457790285348892212e-01 -9.353459812700748444e-03 -1.237992048263549805e-01 -9.735555201768875122e-02 9.168440476059913635e-03 -1.167183071374893188e-01 -1.328422129154205322e-01 8.181893080472946167e-02 -1.229501739144325256e-01 6.212943792343139648e-02 -9.288261830806732178e-02 -2.430003695189952850e-02 4.100559279322624207e-03 -1.882348358631134033e-01 -8.281778544187545776e-02 6.831154972314834595e-02 8.132937550544738770e-02 -1.048824414610862732e-01 3.665807098150253296e-02 -8.348018676042556763e-02 5.792434513568878174e-02 -7.906444370746612549e-02 -1.017185673117637634e-01 -2.072865962982177734e-01 7.041110843420028687e-02 -2.522696927189826965e-02 -5.275210738182067871e-02 -1.773367226123809814e-01 -3.686561435461044312e-02 -1.822160631418228149e-01 1.538936793804168701e-01 6.269194651395082474e-03 -8.323888480663299561e-02 -2.581007778644561768e-01 -1.756281107664108276e-01 9.948348999023437500e-02 4.706798866391181946e-02 -1.163674667477607727e-01 3.147426620125770569e-02 -4.169797524809837341e-02 -3.316169977188110352e-02 -1.389808505773544312e-01 -1.790343038737773895e-02 8.395790308713912964e-02 4.236989468336105347e-02 -2.228370308876037598e-01 -9.354664385318756104e-02 -1.707730591297149658e-01 6.120844930410385132e-02 -1.224435418844223022e-01 2.174936234951019287e-02 -1.531416624784469604e-01 -9.906099736690521240e-02 -2.782727219164371490e-02 -5.582485720515251160e-02 5.128410086035728455e-02 -2.920155227184295654e-02 -1.007080823183059692e-01 -1.195677146315574646e-01 1.289093345403671265e-01 -1.236155331134796143e-01 2.101558260619640350e-02 6.047710776329040527e-03 1.972545236349105835e-01 -8.396162092685699463e-02 2.611254807561635971e-03 7.713218778371810913e-02 2.058805711567401886e-02 -5.362618342041969299e-02 6.040865089744329453e-03 -6.235251203179359436e-02 -1.266652345657348633e-01 -1.699264496564865112e-01 3.926933556795120239e-02 -1.808758229017257690e-01 -1.031501889228820801e-01 1.960101351141929626e-02 1.864935271441936493e-02 5.947310943156480789e-03 3.239395096898078918e-02 1.063412278890609741e-01 -2.831080229952931404e-03 7.511004060506820679e-02 7.071568816900253296e-02 -2.005173563957214355e-01 -1.162074878811836243e-01 -5.445153638720512390e-02 1.278708577156066895e-01 -5.405900068581104279e-03 -1.585677415132522583e-01 -6.138649955391883850e-02 -2.962164953351020813e-02 6.896290928125381470e-02 2.509291283786296844e-02 -1.501036249101161957e-02 -1.249672919511795044e-01 1.034569889307022095e-01 9.902676194906234741e-02 -2.875410765409469604e-02 -7.346325367689132690e-02 -7.089383155107498169e-02 -3.604241460561752319e-02 -1.563964486122131348e-01 -7.480783015489578247e-02 -8.293270319700241089e-02 -3.246726468205451965e-02 1.121593639254570007e-01 1.579812541604042053e-02 -1.385081261396408081e-01 -4.383507370948791504e-02 -2.048508673906326294e-01 1.302853077650070190e-01 -3.020027093589305878e-02 -5.854307487607002258e-02 1.501702517271041870e-01 -1.161778122186660767e-01 8.748693764209747314e-02 9.016457200050354004e-02 -1.293174177408218384e-01 -2.689374387264251709e-01 -1.481841504573822021e-01 2.090485952794551849e-02 1.276852563023567200e-02 -1.763717234134674072e-01 5.173062533140182495e-02 -1.710106283426284790e-01 5.246876273304224014e-03 1.178194060921669006e-01 -1.344140917062759399e-01 4.329298157244920731e-03 -1.094616875052452087e-01 -1.557957530021667480e-01 -3.479942083358764648e-01 -7.881630212068557739e-02 -4.892958700656890869e-02 -9.054516255855560303e-02 -1.723257452249526978e-01 -1.238691061735153198e-01 -6.454567611217498779e-02 -6.466173380613327026e-02 -4.672325402498245239e-02 8.465809375047683716e-02 -3.729320690035820007e-02 2.082874476909637451e-01 1.149944141507148743e-01 8.086679130792617798e-02 4.114717245101928711e-03 -7.258246093988418579e-02 -8.692800253629684448e-02 1.566614061594009399e-01 -9.301789849996566772e-02 7.189385592937469482e-02 -1.414991766214370728e-01 -2.089372575283050537e-01 -1.237605512142181396e-01 -4.234874248504638672e-02 7.496938854455947876e-02 -1.201227381825447083e-01 -3.632635623216629028e-02 -1.893980056047439575e-01 -9.701338410377502441e-02 -7.764744013547897339e-02 2.971645258367061615e-02 2.818372100591659546e-02 3.670731186866760254e-02 -1.000008508563041687e-01 -1.303715705871582031e-01 -4.930396750569343567e-02 8.722824603319168091e-02 -1.265118271112442017e-02 -1.415880322456359863e-01 -3.032003156840801239e-02
-1.993284821510314941e-01 2.171237953007221222e-02 -1.750101149082183838e-01 -2.852209657430648804e-02 -4.272699654102325439e-01 -1.748082041740417480e-01 2.235544659197330475e-02 -1.441553831100463867e-01 -1.968196481466293335e-01 -1.398924738168716431e-01 5.676534771919250488e-02 -3.041260540485382080e-01 1.473714262247085571e-01 -4.650070518255233765e-02 -5.651604011654853821e-02 -1.249723657965660095e-01 -1.559334923513233662e-03 -1.152181718498468399e-02 -1.994692087173461914e-01 -2.873140275478363037e-01 -2.435023188591003418e-01 -1.796507239341735840e-01 -8.408922702074050903e-02 -2.362936437129974365e-01 -5.894515663385391235e-02 5.361686646938323975e-02 5.650016665458679199e-02 1.689698547124862671e-01 -4.058688282966613770e-01 -1.220718845725059509e-01 1.511028558015823364e-01 1.782333552837371826e-01 -1.684497445821762085e-01 4.488175362348556519e-02 3.004512004554271698e-02 -1.013441979885101318e-01 2.359095662832260132e-01 -2.217306196689605713e-02 2.827192544937133789e-01 5.474830046296119690e-02 -2.323986589908599854e-02 2.831430733203887939e-02 -4.218434914946556091e-02 5.284837633371353149e-02 -1.965808868408203125e-01 5.010495707392692566e-02 -4.134120047092437744e-02 -6.776164472103118896e-02 -1.265716403722763062e-01 -3.242430975660681725e-03 -3.019130229949951172e-01 -1.583431381732225418e-03 1.609280109405517578e-01 1.747039258480072021e-01 -1.040271595120429993e-01 -1.577664911746978760e-01 7.232263684272766113e-02 -1.321275532245635986e-01 3.952539339661598206e-02 -9.168667346239089966e-02 -3.246905207633972168e-01 -8.672580122947692871e-02 -2.677981741726398468e-02 4.193826764822006226e-02 -3.425986468791961670e-01 -1.068118736147880554e-01 -3.911607712507247925e-02 1.508145779371261597e-01 -3.931016847491264343e-02 -1.669052243232727051e-01 6.144253164529800415e-02 -1.159087046980857849e-01 6.918493658304214478e-02 -3.085474669933319092e-02 1.236406154930591583e-02 -5.780586227774620056e-02 -1.672695726156234741e-01 1.421168297529220581e-01 -1.785314977169036865e-01 -5.472949147224426270e-02 -1.110919862985610962e-01 -5.305670499801635742e-01 2.232874184846878052e-01 1.346834003925323486e-01 -3.785405308008193970e-02 1.117182895541191101e-01 2.436094731092453003e-01 -2.125239670276641846e-01 1.272628605365753174e-01 9.346967935562133789e-02 -1.195923984050750732e-01 2.329714000225067139e-01 -2.094398736953735352e-01 -8.056795597076416016e-02 1.767034269869327545e-02 1.951478123664855957e-01 -1.251497864723205566e-01 4.232364892959594727e-02 -3.103864789009094238e-01 2.471494376659393311e-01 -9.859591722488403320e-03 3.618913888931274414e-01 3.217748180031776428e-02 -3.714733719825744629e-01 6.708665192127227783e-02 -8.358930051326751709e-02 -2.581167593598365784e-02 8.138925582170486450e-02 -4.195148944854736328e-01 1.691357493400573730e-01 -5.161215662956237793e-01 -5.191544890403747559e-01 -1.874707490205764771e-01 1.124533936381340027e-01 7.025939971208572388e-02 -2.226115912199020386e-01 -7.580637931823730469e-02 2.280320525169372559e-01 -1.550453249365091324e-02 1.907495856285095215e-01 2.830877602100372314e-01 9.943104535341262817e-02 -1.156323775649070740e-01 2.052254825830459595e-01 2.379032671451568604e-01 -6.352891027927398682e-02 2.418099194765090942e-01 -7.158715277910232544e-02 1.394733488559722900e-01 8.877233415842056274e-02 5.266141146421432495e-03 3.161293864250183105e-01 -1.369667798280715942e-01 -3.263409137725830078e-01 6.190188601613044739e-02 -1.720770150423049927e-01 -3.609136492013931274e-02 -1.021111160516738892e-01 -6.181547418236732483e-02 -6.095515564084053040e-02 1.203428301960229874e-02 4.133583605289459229e-02 -9.264127165079116821e-02 5.612294003367424011e-02 8.658640086650848389e-03 -1.097849383950233459e-02 -1.195701211690902710e-01 -2.673018872737884521e-01 8.499747514724731445e-02 -2.042783796787261963e-02 4.814935848116874695e-02 1.991263926029205322e-01 -1.842173188924789429e-01 -1.673209965229034424e-01 6.765744835138320923e-02 -1.040686517953872681e-01 -1.723314225673675537e-01 -8.335677534341812134e-02 3.438460454344749451e-02 -7.894072681665420532e-02 -1.331910640001296997e-01 -3.820393979549407959e-01 -3.420767784118652344e-01 -1.290913075208663940e-01 -2.706067264080047607e-01 -1.739457435905933380e-02 -2.190916985273361206e-01 9.067418426275253296e-02 -1.954855918884277344e-01 -4.448567926883697510e-01 -1.600672602653503418e-01 -6.131503358483314514e-02 -1.242854371666908264e-01 -2.956694364547729492e-01 1.796849071979522705e-02 -1.058928593993186951e-01 -6.867117434740066528e-02 -2.535355463624000549e-02 4.836874082684516907e-02 -1.835758835077285767e-01 1.036131680011749268e-01 -7.591608911752700806e-02 -9.983596205711364746e-02 2.690493762493133545e-01 9.756556153297424316e-02 -8.348248153924942017e-02 2.693369686603546143e-01 9.178215265274047852e-02 6.089301407337188721e-02 -5.751743167638778687e-02 -1.019053533673286438e-01 -5.225257948040962219e-02 3.212390467524528503e-02 -2.325944304466247559e-01 -1.591598838567733765e-01 -1.273375898599624634e-01 5.071466788649559021e-03 6.342370063066482544e-02 -6.208768114447593689e-02 -4.056992530822753906e-01 -4.585201442241668701e-01 2.805617451667785645e-01 1.342235336778685451e-04 1.792038977146148682e-01 -1.818978786468505859e-01 -8.551184087991714478e-03 -1.790506094694137573e-01 -2.129707336425781250e-01 -1.024854332208633423e-01 3.763246536254882812e-02 -9.263750910758972168e-02 -1.103953495621681213e-01 -1.724411100149154663e-01 8.518753573298454285e-03 -1.129316389560699463e-01 4.125428572297096252e-02 -1.539111286401748657e-01 -1.165434643626213074e-01 2.805569767951965332e-02 5.696319416165351868e-02 -8.231552690267562866e-02 1.770992279052734375e-01 -3.392460644245147705e-01 -1.048916876316070557e-01 -4.509283006191253662e-01 -1.939054131507873535e-01 1.441903859376907349e-01 1.226288527250289917e-01 -1.517347842454910278e-01 -4.496049508452415466e-02 -5.544420797377824783e-03 -9.562937915325164795e-02 -1.946725696325302124e-01 4.413105547428131104e-02 -3.100315034389495850e-01 -7.882945984601974487e-02 -2.798665165901184082e-01 6.766531616449356079e-02 -3.322459161281585693e-01 -2.139972895383834839e-01 1.265843492001295090e-02 -1.884985715150833130e-02 -2.863826453685760498e-01 -2.248875647783279419e-01 -3.524617254734039307e-01 -2.740984559059143066e-01 3.868940845131874084e-02 1.955401301383972168e-01 3.035578131675720215e-01 -1.582134068012237549e-01 -1.619692444801330566e-01 -1.546358764171600342e-01 7.792842108756303787e-03 -1.682027876377105713e-01 9.858515858650207520e-02 -6.448664516210556030e-02
-8.089128881692886353e-02 9.869290143251419067e-02 -3.931320309638977051e-01 1.979733109474182129e-01 -2.582547068595886230e-01 3.093363940715789795e-01 1.697183996438980103e-01 5.937791615724563599e-02 8.314957469701766968e-02 -3.061948418617248535e-01 1.149496659636497498e-01 1.849123984575271606e-01 1.965176016092300415e-01 -7.380238920450210571e-02 1.243889108300209045e-01 2.386830449104309082e-01 6.263957172632217407e-02 1.139721125364303589e-01 1.544125494547188282e-03 -6.985794752836227417e-02 2.531840652227401733e-02 -5.268228799104690552e-02 6.914347410202026367e-02 1.215167865157127380e-01 -2.811394259333610535e-02 -1.136600524187088013e-01 -1.351525075733661652e-03 1.160007044672966003e-01 -5.984421353787183762e-03 -4.682858660817146301e-02 8.254665881395339966e-02 -2.487797588109970093e-01 -2.928387932479381561e-02 -1.825646311044692993e-01 -9.535027295351028442e-02 -4.177744984626770020e-01 -6.268826127052307129e-02 -1.801679730415344238e-01 1.888255476951599121e-01 3.192954510450363159e-02 2.239188179373741150e-02 1.749899983406066895e-02 6.493246555328369141e-02 7.388506084680557251e-02 6.137355696409940720e-03 1.279699802398681641e-02 1.128130592405796051e-02 1.097588520497083664e-02 1.995419114828109741e-01 1.121422424912452698e-01 -4.589787498116493225e-02 3.394938707351684570e-01 7.539222389459609985e-02 1.444462034851312637e-02 -6.597795337438583374e-02 -9.400838613510131836e-02 3.402601182460784912e-01 -4.516797140240669250e-02 1.752975881099700928e-01 9.946216642856597900e-02 1.242150887846946716e-01 -9.737292677164077759e-02 1.004504039883613586e-01 -2.511863112449645996e-01 -9.652579203248023987e-03 1.573686897754669189e-01 1.556346118450164795e-01 -3.028683364391326904e-02 -2.607824504375457764e-01 -6.199180148541927338e-03 2.031910568475723267e-01 -4.101749509572982788e-02 -1.929169707000255585e-02 -6.452557444572448730e-02 -2.696416974067687988e-01 2.270327657461166382e-01 6.511038541793823242e-02 1.673718392848968506e-01 3.506501019001007080e-02 1.624473556876182556e-02 3.470375761389732361e-02 1.076639592647552490e-01 -2.189932018518447876e-02 -1.279902160167694092e-01 5.061127990484237671e-02 -3.644170761108398438e-01 2.180460542440414429e-01 -1.189804077148437500e-02 -3.984585404396057129e-01 -2.180139422416687012e-01 7.919524610042572021e-02 1.172436028718948364e-01 -9.512379020452499390e-02 -2.900900505483150482e-02 -1.185493096709251404e-01 -1.648937314748764038e-01 5.279688909649848938e-02 3.069347739219665527e-01 -1.824693828821182251e-01 2.109272181987762451e-01 2.616134285926818848e-02 -4.343596100807189941e-01 -2.053228020668029785e-02 -1.438855975866317749e-01 -3.102695643901824951e-01 2.242014557123184204e-02 -3.789954483509063721e-01 -1.122501790523529053e-01 -4.260651022195816040e-02 1.285350620746612549e-01 1.845956295728683472e-01 -1.659717410802841187e-01 1.246406063437461853e-01 -2.070654779672622681e-01 2.630641497671604156e-02 -3.951280564069747925e-02 3.643248928710818291e-03 -4.324907064437866211e-01 -1.603229790925979614e-01 1.124024018645286560e-01 1.600442677736282349e-01 1.549180150032043457e-01 -6.120700016617774963e-02 1.076911166310310364e-01 -7.292255014181137085e-02 -9.110707044601440430e-02 -2.410666644573211670e-01 6.147892773151397705e-02 -3.749219700694084167e-02 1.050111129879951477e-01 6.133916229009628296e-02 -2.268869988620281219e-02 -1.141628399491310120e-01 -1.233109980821609497e-01 -1.570243239402770996e-01 3.038988262414932251e-02 7.089478522539138794e-02 6.990092340856790543e-03 2.754800021648406982e-01 -6.141978502273559570e-02 -2.575659155845642090e-01 1.747391521930694580e-01 -8.253517746925354004e-02 -7.244263589382171631e-02 -2.655808068811893463e-02 -1.333713084459304810e-01 2.727952897548675537e-01 1.827788501977920532e-01 3.022682964801788330e-01 2.087255418300628662e-01 1.324138939380645752e-01 1.688372194766998291e-01 5.126023199409246445e-03 -2.372289896011352539e-01 -3.300721943378448486e-02 -1.949379406869411469e-02 -1.662354618310928345e-01 -8.228214085102081299e-02 9.977507591247558594e-02 1.551670730113983154e-01 -2.068881392478942871e-01 -3.354208543896675110e-02 -3.693213686347007751e-02 -2.040070444345474243e-01 2.257242500782012939e-01 -2.643156051635742188e-01 -1.020277589559555054e-01 -2.124740183353424072e-02 9.188033640384674072e-02 2.176786959171295166e-01 -1.150135397911071777e-01 -8.177655190229415894e-02 1.506005674600601196e-01 2.001478709280490875e-02 3.463394045829772949e-01 -4.924422502517700195e-02 -3.757703900337219238e-01 2.426774352788925171e-01 2.768549323081970215e-01 1.829476803541183472e-01 3.314254879951477051e-01 9.711938351392745972e-02 -2.423968017101287842e-01 1.335355788469314575e-01 2.762580513954162598e-01 -1.919475793838500977e-01 -6.675788760185241699e-02 -3.604109585285186768e-02 2.102777063846588135e-01 -1.005327999591827393e-01 -1.523520946502685547e-01 3.038242645561695099e-02 1.691935956478118896e-01 -6.101354584097862244e-02 2.297042496502399445e-02 4.101030156016349792e-02 -7.479479163885116577e-02 -1.009049639105796814e-01 4.864174500107765198e-02 -1.477542370557785034e-01 -2.047066688537597656e-01 2.039335668087005615e-01 -3.319458663463592529e-01 -7.156203687191009521e-02 2.090589404106140137e-01 2.636225521564483643e-01 2.675189077854156494e-02 -6.212707608938217163e-02 1.404288262128829956e-01 7.292384654283523560e-02 -1.954929903149604797e-02 2.172020822763442993e-01 9.587446600198745728e-02 9.384457021951675415e-02 -1.104226782917976379e-01 7.072873413562774658e-02 3.396572768688201904e-01 -1.300530228763818741e-02 1.438164710998535156e-01 2.141923308372497559e-01 3.197694942355155945e-02 1.673611253499984741e-01 2.287765406072139740e-02 -3.513765633106231689e-01 -1.850959658622741699e-01 -8.009523153305053711e-02 -1.885368861258029938e-02 -1.400264300173148513e-04 2.827445790171623230e-02 -2.256606370210647583e-01 2.551661431789398193e-01 -6.466702371835708618e-02 1.516050398349761963e-01 -1.019583344459533691e-01 -6.591652333736419678e-02 4.734343662858009338e-02 -3.882227465510368347e-02 1.754186451435089111e-01 1.329645216464996338e-01 6.815113872289657593e-02 2.688772976398468018e-01 5.851806327700614929e-02 1.224935352802276611e-01 -1.107699424028396606e-01 5.856102705001831055e-02 -3.291741907596588135e-01 -1.947132684290409088e-02 -1.949703842401504517e-01 5.548689514398574829e-02 -6.786199659109115601e-02 2.047550380229949951e-01 2.794263064861297607e-01 -2.871847152709960938e-01 -1.211795657873153687e-01 -3.960249479860067368e-03 1.020810604095458984e-01
2.611895650625228882e-02 -1.199261397123336792e-01 -6.027681753039360046e-02 -3.243684023618698120e-02 -3.046915531158447266e-01 -4.468657542020082474e-03 -1.317121237516403198e-01 6.249273940920829773e-02 -3.217491880059242249e-02 -2.147297374904155731e-02 -1.602596193552017212e-01 -1.843898929655551910e-02 1.286049038171768188e-01 1.983403787016868591e-02 8.257810957729816437e-03 -1.161486878991127014e-01 -1.046657413244247437e-01 -2.621881961822509766e-01 2.669198215007781982e-01 -6.435836106538772583e-02 2.073954045772552490e-02 -1.374510824680328369e-01 3.467406332492828369e-02 -1.325929313898086548e-01 -9.581322222948074341e-02 -1.101483628153800964e-01 -6.724533438682556152e-02 -5.049072206020355225e-02 -4.017735365778207779e-03 3.930648788809776306e-02 -2.138924412429332733e-02 5.669080466032028198e-02 -6.429610401391983032e-02 -3.084953427314758301e-01 -9.716609865427017212e-02 3.625768721103668213e-01 -1.564717292785644531e-02 1.597806066274642944e-02 -7.045534253120422363e-02 -1.290870904922485352e-01 -2.627719193696975708e-02 -8.538579940795898438e-02 6.740339845418930054e-02 6.824997812509536743e-02 1.282866597175598145e-01 -1.008820980787277222e-01 3.613348677754402161e-02 -4.128077626228332520e-02 -1.337153613567352295e-01 2.652030251920223236e-02 -1.566810011863708496e-01 -5.383071675896644592e-02 1.741034537553787231e-01 8.723981678485870361e-02 1.640297025442123413e-01 2.806034311652183533e-02 9.684239327907562256e-02 1.165075600147247314e-01 -4.975729063153266907e-02 -2.198221385478973389e-01 2.478749752044677734e-01 -2.691786177456378937e-02 9.009458869695663452e-02 -2.624757029116153717e-02 -2.990924119949340820e-01 -5.878780782222747803e-02 7.696523517370223999e-02 -3.721704334020614624e-02 1.662933081388473511e-01 -6.377267092466354370e-02 1.385356634855270386e-01 -1.433538049459457397e-01 1.022641733288764954e-02 -2.238362282514572144e-01 -7.408156245946884155e-02 -6.386241316795349121e-02 -2.982073463499546051e-02 -1.316037178039550781e-01 1.059808302670717239e-02 2.066540764644742012e-03 -4.876852408051490784e-02 -2.778910845518112183e-02 -1.141166314482688904e-01 -2.624044716358184814e-01 -4.530279338359832764e-02 -1.612767279148101807e-01 -1.216827519237995148e-02 -1.765920072793960571e-01 -1.688043028116226196e-01 -4.608397781848907471e-01 -3.805965557694435120e-02 -1.146866232156753540e-01 -1.184498295187950134e-01 1.545641943812370300e-02 -1.208499073982238770e-01 -1.893425583839416504e-01 3.959918022155761719e-02 6.630533188581466675e-02 -5.770093947649002075e-02 3.309398889541625977e-02 3.010308742523193359e-02 9.503797441720962524e-02 2.772051393985748291e-01 -7.938452064990997314e-02 -2.161002308130264282e-01 4.222223162651062012e-02 -7.939036190509796143e-02 -2.012322098016738892e-02 1.466877385973930359e-02 -1.181027144193649292e-01 9.095955640077590942e-03 -9.108047932386398315e-02 -1.100706215947866440e-02 -2.882495895028114319e-02 -3.297928348183631897e-02 5.935762822628021240e-02 -1.054956987500190735e-01 1.475588232278823853e-01 -2.462596595287322998e-01 -1.518509723246097565e-02 7.023755460977554321e-02 -6.545671075582504272e-02 -4.431170225143432617e-02 -2.324281260371208191e-02 -1.514153927564620972e-01 -6.882337387651205063e-03 -5.933409556746482849e-02 -1.415060758590698242e-01 -2.509294152259826660e-01 5.131243914365768433e-02 -3.127564489841461182e-02 -8.920391649007797241e-02 -3.093508072197437286e-02 -1.692819893360137939e-01 4.200035706162452698e-03 -1.022564154118299484e-02 -1.797160319983959198e-02 -8.670343458652496338e-02 -5.681609734892845154e-02 -1.175387650728225708e-01 5.128301680088043213e-02 -4.573203250765800476e-02 -9.122275561094284058e-02 3.139440342783927917e-02 -2.757973074913024902e-01 1.993180215358734131e-01 -1.083686947822570801e-01 -2.198877930641174316e-01 2.406436018645763397e-02 -1.046884525567293167e-02 -1.258410960435867310e-01 -6.232630088925361633e-02 9.282913804054260254e-02 4.510336741805076599e-02 -2.144694775342941284e-01 -1.302060633897781372e-01 -2.161281257867813110e-01 4.595585167407989502e-03 -2.201783508062362671e-01 -1.071527376770973206e-01 1.187471579760313034e-02 -1.887341737747192383e-01 -5.616810545325279236e-02 -2.427325695753097534e-01 -9.139438718557357788e-02 -2.263463139533996582e-01 -9.391059726476669312e-02 -1.331554800271987915e-01 -1.240986771881580353e-02 -2.907122671604156494e-01 1.051688343286514282e-01 1.338096261024475098e-01 -1.488371044397354126e-01 -1.041872277855873108e-01 -1.627930402755737305e-01 -1.441825032234191895e-01 -9.253851324319839478e-02 -3.252126872539520264e-01 -2.083954587578773499e-02 1.123815774917602539e-01 2.039562314748764038e-01 1.451858282089233398e-01 -1.993494033813476562e-01 6.294746696949005127e-02 -1.147288158535957336e-01 -1.665292531251907349e-01 -2.370371520519256592e-01 6.499744206666946411e-02 6.871582567691802979e-02 -5.624547228217124939e-02 6.052090600132942200e-02 -1.049319878220558167e-01 -2.320827543735504150e-01 1.589414924383163452e-01 -2.564631998538970947e-01 1.049900576472282410e-01 -3.754264116287231445e-02 4.614330455660820007e-02 -1.193706244230270386e-01 1.016457751393318176e-02 -1.399912387132644653e-01 -3.090525977313518524e-02 1.044068783521652222e-01 -1.522856801748275757e-01 -8.112605661153793335e-02 3.009405545890331268e-02 -4.012411087751388550e-02 1.140174046158790588e-01 8.105234801769256592e-02 -5.752672255039215088e-02 4.825188219547271729e-02 -1.137172132730484009e-01 -2.704512178897857666e-01 -2.267400771379470825e-01 2.284230431541800499e-03 3.952243924140930176e-02 -1.355247944593429565e-01 -3.062548674643039703e-02 -1.900892257690429688e-01 1.111283525824546814e-02 -1.394249051809310913e-01 7.244645152240991592e-03 2.876383811235427856e-02 1.061403676867485046e-01 -1.402889490127563477e-01 -1.048566326498985291e-01 7.099781185388565063e-02 -1.676608473062515259e-01 -1.594321578741073608e-01 7.090806216001510620e-02 -1.000067219138145447e-01 -2.293532639741897583e-01 -7.922182790935039520e-03 -1.455756574869155884e-01 -2.296838909387588501e-02 9.735217690467834473e-02 -1.390230655670166016e-01 -3.054147064685821533e-01 1.109555140137672424e-01 -6.934709846973419189e-02 4.466307908296585083e-02 1.037092879414558411e-01 6.069120019674301147e-02 -2.220501899719238281e-01 9.850786998867988586e-03 -1.233547404408454895e-01 -5.683671683073043823e-02 2.543407976627349854e-01 -8.892155438661575317e-02 1.767648756504058838e-01 -1.275657564401626587e-01 1.899804323911666870e-01 2.941352128982543945e-01 -3.760096803307533264e-02 -3.388394415378570557e-02 -4.703854322433471680e-01
-1.340656876564025879e-01 7.911490276455879211e-03 -1.699818223714828491e-01 4.684261605143547058e-02 -1.372216641902923584e-01 -1.097402423620223999e-01 5.110345408320426941e-02 -6.484926212579011917e-03 -2.538686245679855347e-02 3.497216850519180298e-02 -9.615467488765716553e-02 2.082695998251438141e-02 1.455424726009368896e-02 -2.068422883749008179e-01 -1.584677249193191528e-01 -2.434489876031875610e-01 -4.703730810433626175e-03 1.054178252816200256e-01 1.174955889582633972e-01 3.655479103326797485e-02 3.599487617611885071e-02 -4.021362960338592529e-02 3.884341195225715637e-02 -1.832295358180999756e-01 -1.340103000402450562e-01 -1.390511840581893921e-01 -6.226523593068122864e-02 -9.992713481187820435e-02 -7.853820919990539551e-02 -6.819632649421691895e-02 -1.814132183790206909e-01 3.158835694193840027e-02 3.254047781229019165e-02 -2.088716179132461548e-01 -5.160545185208320618e-02 -3.203311190009117126e-02 1.042031198740005493e-01 -8.292393386363983154e-02 -1.061314642429351807e-01 -1.640154607594013214e-02 -1.441442966461181641e-01 7.383774500340223312e-03 9.897500276565551758e-04 -1.525988131761550903e-01 1.011853441596031189e-01 -1.591679006814956665e-01 -6.479281932115554810e-02 7.076068222522735596e-02 1.157982833683490753e-02 -1.905134618282318115e-01 4.949466511607170105e-02 1.662771552801132202e-01 -4.223501309752464294e-02 -7.974884659051895142e-02 2.219365909695625305e-02 8.923584595322608948e-03 7.251535356044769287e-02 -6.993418931961059570e-02 -1.693610660731792450e-02 -8.030340075492858887e-02 -1.011198759078979492e-01 -2.520836889743804932e-02 -1.362730264663696289e-01 -3.298490941524505615e-01 -1.690893322229385376e-01 -1.821565032005310059e-01 9.602101147174835205e-02 -1.762625873088836670e-01 -8.754450082778930664e-02 -3.014165349304676056e-02 -1.092145591974258423e-01 5.573949590325355530e-02 -3.078650496900081635e-02 -1.194377988576889038e-01 -1.608236730098724365e-01 -1.152990832924842834e-01 6.903591100126504898e-03 1.313829571008682251e-01 6.649684906005859375e-02 -3.082415461540222168e-02 -1.704259030520915985e-02 7.329508662223815918e-02 -1.082505285739898682e-01 7.157110422849655151e-02 5.459447950124740601e-02 -1.655410975217819214e-01 -8.667335845530033112e-03 -1.812123507261276245e-02 9.272746741771697998e-02 6.236333027482032776e-02 -9.800646454095840454e-02 -5.292439460754394531e-02 -2.517948858439922333e-02 -1.057345345616340637e-01 -2.293457537889480591e-01 -4.320049658417701721e-02 -9.615997225046157837e-02 -1.853262335062026978e-01 -1.172069739550352097e-02 9.707519784569740295e-04 -1.879934668540954590e-01 -3.229638561606407166e-03 2.523000165820121765e-02 -1.105958595871925354e-01 -1.459714770317077637e-01 2.887503616511821747e-02 -1.076187416911125183e-01 -4.823441058397293091e-02 -4.865903407335281372e-02 4.442540463060140610e-03 -2.594059705734252930e-02 -5.885116010904312134e-02 -2.995239011943340302e-02 2.210811153054237366e-02 -7.665467262268066406e-02 2.246204763650894165e-02 -1.630416512489318848e-02 1.493737995624542236e-01 2.838543429970741272e-02 -2.043660916388034821e-02 6.314418744295835495e-03 -3.122432716190814972e-02 -1.304996386170387268e-02 -4.109410196542739868e-02 -1.350018680095672607e-01 5.134626850485801697e-02 1.135289445519447327e-01 -1.086573153734207153e-01 -3.084661439061164856e-02 -4.993501584976911545e-03 1.582167595624923706e-01 1.351352315396070480e-03 -6.796152144670486450e-02 -1.765882819890975952e-01 -1.117507368326187134e-01 -5.101989954710006714e-02 4.530173726379871368e-03 1.084558852016925812e-02 2.581422741059213877e-04 -1.290499567985534668e-01 -1.491983421146869659e-02 -1.356892436742782593e-01 3.249019682407379150e-01 -8.771938830614089966e-02 3.943627234548330307e-03 -7.223278284072875977e-02 6.982167065143585205e-02 -6.636601686477661133e-02 -1.368077844381332397e-01 6.900766491889953613e-02 8.064640313386917114e-02 1.259827241301536560e-02 -2.110839076340198517e-02 -1.595996879041194916e-02 -6.565269082784652710e-02 -1.145119518041610718e-01 3.153146803379058838e-02 1.438991446048021317e-02 -2.198245190083980560e-02 -1.222728937864303589e-01 -1.494707316160202026e-01 6.574093550443649292e-02 -8.754707872867584229e-02 1.128571406006813049e-01 -3.577954322099685669e-02 -8.628281950950622559e-02 -1.260830312967300415e-01 -1.629028320312500000e-01 -1.395665407180786133e-01 -1.215936150401830673e-02 -2.455580607056617737e-02 -2.837635762989521027e-02 -7.267792522907257080e-02 1.276921182870864868e-01 2.652192302048206329e-02 3.822199651040136814e-04 -3.898470103740692139e-02 1.251944340765476227e-02 -8.138945698738098145e-02 2.847523242235183716e-02 -6.762477010488510132e-02 -1.272791922092437744e-01 -1.441239863634109497e-01 5.714539065957069397e-02 5.281672999262809753e-02 -7.401851471513509750e-03 7.048386335372924805e-02 1.863664574921131134e-02 5.641202628612518311e-02 5.726877972483634949e-02 7.672123610973358154e-03 7.106354087591171265e-02 -1.743817031383514404e-01 -7.168026268482208252e-02 -4.314241558313369751e-02 1.192444283515214920e-02 2.707307226955890656e-02 -3.217785432934761047e-02 9.338115155696868896e-02 3.807819634675979614e-02 6.893519312143325806e-02 4.104136303067207336e-02 5.497846379876136780e-02 -4.815212637186050415e-02 -3.838007897138595581e-02 2.255174703896045685e-02 -1.213773339986801147e-01 6.194341182708740234e-02 3.508608415722846985e-02 3.480671346187591553e-02 -3.916093613952398300e-03 7.921748608350753784e-02 -2.155463844537734985e-01 -5.544047802686691284e-03 -1.050800159573554993e-01 9.810224175453186035e-03 3.063119761645793915e-02 4.014172405004501343e-02 1.774275861680507660e-02 -7.362786680459976196e-02 1.282797604799270630e-01 -1.463274657726287842e-02 -3.345586359500885010e-02 2.696826681494712830e-02 -1.066621169447898865e-01 -4.025066643953323364e-02 -6.240517832338809967e-03 -1.981820352375507355e-02 5.735242739319801331e-02 -9.408744983375072479e-03 -7.175042480230331421e-02 -4.277730733156204224e-02 -3.079072572290897369e-02 -1.188703998923301697e-01 3.613528795540332794e-03 1.334068831056356430e-02 4.651296511292457581e-02 -1.019737496972084045e-01 -1.134444475173950195e-01 -2.526280656456947327e-02 -9.816720336675643921e-02 -9.472739696502685547e-02 -5.710832029581069946e-02 -1.537412554025650024e-01 2.813012897968292236e-02 2.631626278162002563e-02 -2.845169976353645325e-02 -2.731002867221832275e-02 -1.545406728982925415e-01 -3.775871917605400085e-02 -4.793269187211990356e-02 -1.350146383047103882e-01 -1.219997406005859375e-01 -1.150125265121459961e-01 -1.624743789434432983e-01 5.048571527004241943e-02
1.254128217697143555e-01 -6.207157671451568604e-02 -1.458434611558914185e-01 -1.938580870628356934e-01 -3.593982430174946785e-03 1.761543601751327515e-01 5.397244542837142944e-02 -1.214361190795898438e-01 -1.273660063743591309e-01 1.494943052530288696e-01 -2.643220871686935425e-02 1.155022382736206055e-01 -5.932117626070976257e-02 -1.128605827689170837e-01 -2.774230837821960449e-01 3.435626626014709473e-02 -1.691000014543533325e-01 -4.644935578107833862e-02 4.862240329384803772e-02 -7.834365963935852051e-02 -6.789592653512954712e-02 -6.399412453174591064e-02 -1.594128757715225220e-01 7.333358377218246460e-02 -2.984016202390193939e-02 5.117677152156829834e-02 -1.521303653717041016e-01 -7.803320884704589844e-02 -2.023410052061080933e-02 -3.710655122995376587e-02 8.868623524904251099e-02 -1.676837354898452759e-01 4.027894139289855957e-02 9.963434189558029175e-03 -5.455976817756891251e-03 1.530825719237327576e-02 2.207133024930953979e-01 -1.773676723241806030e-01 2.044403180480003357e-02 5.425870046019554138e-02 -3.536356985569000244e-02 -1.418094933032989502e-01 1.731575652956962585e-02 5.844666436314582825e-02 -2.065207213163375854e-01 -3.979752659797668457e-01 -2.962698787450790405e-02 5.551476404070854187e-02 -2.192271873354911804e-02 8.868268877267837524e-02 -1.576697230339050293e-01 -2.330075353384017944e-01 1.087105125188827515e-01 -3.758334368467330933e-02 -9.564486145973205566e-02 -3.697448596358299255e-02 -1.302991807460784912e-01 -3.507304191589355469e-02 -9.285796433687210083e-02 -7.364342361688613892e-02 -4.253701493144035339e-02 -4.622364416718482971e-02 6.310540437698364258e-02 -3.969410061836242676e-02 2.186808735132217407e-02 -8.137467503547668457e-02 9.595929086208343506e-02 -2.851206995546817780e-02 -9.241532534360885620e-02 -9.660700708627700806e-02 -1.544061750173568726e-01 -9.686658531427383423e-02 -1.573147624731063843e-01 3.802230954170227051e-02 -3.428337350487709045e-02 -1.716949641704559326e-01 -4.039374366402626038e-02 -2.126849144697189331e-01 -1.023601368069648743e-01 5.712929740548133850e-02 -1.637409031391143799e-01 -2.132170051336288452e-01 -6.169207021594047546e-02 -1.294103115797042847e-01 -1.328146457672119141e-01 -9.782714914763346314e-05 4.079559072852134705e-02 -8.245633542537689209e-02 4.741470515727996826e-02 -1.061055436730384827e-01 -1.040497124195098877e-01 -2.531137550249695778e-03 -2.633750252425670624e-02 1.543672829866409302e-01 -7.112286519259214401e-03 -1.628124713897705078e-01 -1.125381663441658020e-01 -2.435804530978202820e-02 8.110012114048004150e-02 -3.933631628751754761e-02 -4.728159308433532715e-02 -2.584186010062694550e-02 -3.524285554885864258e-02 -8.990932255983352661e-02 -1.724406778812408447e-01 6.868383288383483887e-02 7.018387317657470703e-02 -1.911892741918563843e-01 -1.112387403845787048e-01 1.204949691891670227e-01 -1.259949505329132080e-01 -1.038576103746891022e-02 -5.680699832737445831e-03 2.919090725481510162e-02 -1.700725704431533813e-01 -1.064399629831314087e-01 1.297376751899719238e-01 -1.875197291374206543e-01 -5.910820886492729187e-02 3.818326815962791443e-02 -1.593593694269657135e-02 -1.486878246068954468e-01 -5.472511425614356995e-02 -1.048895642161369324e-01 -1.248494759202003479e-01 4.835519939661026001e-02 4.024932533502578735e-02 4.902404546737670898e-02 -8.095803111791610718e-02 1.257762406021356583e-02 8.271317183971405029e-02 1.473293006420135498e-01 1.148520484566688538e-01 -2.669853158295154572e-02 -1.709752082824707031e-01 -1.528095547109842300e-02 -1.668140466790646315e-04 2.067566066980361938e-01 3.182930499315261841e-02 2.230410277843475342e-02 3.652219474315643311e-02 -1.128282397985458374e-01 -1.622667536139488220e-02 2.672710828483104706e-02 3.836910426616668701e-02 -1.672850698232650757e-01 -1.171665936708450317e-01 -1.489688754081726074e-01 -1.223733425140380859e-01 -8.889987319707870483e-02 -1.986113935708999634e-02 -1.928706616163253784e-01 -7.337675243616104126e-02 -8.080709725618362427e-02 -1.594939827919006348e-02 -5.790449678897857666e-02 -6.089030206203460693e-02 -7.309247553348541260e-02 -5.434249341487884521e-02 -1.513449400663375854e-01 1.195409446954727173e-01 -1.116286367177963257e-01 -6.461223214864730835e-02 4.722039401531219482e-02 3.861916065216064453e-02 1.793681830167770386e-02 -3.430679440498352051e-02 -3.462104359641671181e-03 -4.759151116013526917e-02 -1.781704723834991455e-01 1.024552509188652039e-01 -7.164439558982849121e-02 9.121958911418914795e-02 -3.232506662607192993e-02 -1.158360913395881653e-01 6.972063332796096802e-02 6.268988549709320068e-02 -3.044533729553222656e-02 -1.838027089834213257e-01 -6.311447173357009888e-02 6.000030785799026489e-02 2.493979223072528839e-02 -1.205332651734352112e-01 8.599101752042770386e-02 -2.185937017202377319e-01 -6.747523695230484009e-02 8.127885311841964722e-02 8.283971250057220459e-02 -6.264769285917282104e-02 -1.065783854573965073e-02 -1.758976280689239502e-02 -1.785385608673095703e-01 -8.837924897670745850e-02 8.604875952005386353e-02 -1.220823451876640320e-01 -3.361552953720092773e-02 -6.274399161338806152e-02 4.103266820311546326e-02 -1.907095760107040405e-01 5.675034597516059875e-02 -4.787134006619453430e-02 1.709369756281375885e-02 -3.431082367897033691e-01 -9.408628940582275391e-02 -8.570463210344314575e-02 6.045724451541900635e-02 -9.354753047227859497e-02 5.185535643249750137e-03 -1.129589825868606567e-01 -1.902220100164413452e-01 -3.258511424064636230e-02 5.391277838498353958e-03 -1.292034424841403961e-02 2.462872117757797241e-02 -1.603411138057708740e-01 -4.411797598004341125e-02 -7.892469316720962524e-02 3.092288784682750702e-02 8.501539379358291626e-02 -4.694078490138053894e-02 6.859234720468521118e-02 -1.223085150122642517e-01 -1.930971071124076843e-02 8.227581530809402466e-02 -1.875590533018112183e-01 -1.508704125881195068e-01 5.075499415397644043e-02 -9.074660390615463257e-02 -8.374872803688049316e-02 -1.644385159015655518e-01 1.065478175878524780e-01 1.248469427227973938e-01 -3.601493313908576965e-02 6.968144327402114868e-02 -9.100209176540374756e-02 -1.403681039810180664e-01 2.669893205165863037e-01 1.688368991017341614e-02 -1.315017491579055786e-01 -1.090063005685806274e-01 -8.504689484834671021e-02 -1.048423655447550118e-04 -1.898939907550811768e-01 6.306608021259307861e-02 -5.209359526634216309e-02 1.684726923704147339e-01 -8.644437789916992188e-02 -5.636829882860183716e-02 -9.906791150569915771e-02 7.817024737596511841e-02 5.070703476667404175e-02 -2.384727895259857178e-01 -1.113888099789619446e-01 -1.138125583529472351e-01 -8.828566223382949829e-02 2.756443107500672340e-03
9.288481622934341431e-02 -8.418485522270202637e-02 -4.752520322799682617e-01 -9.814763069152832031e-02 2.636037766933441162e-02 1.824543774127960205e-01 1.346607804298400879e-01 1.449257321655750275e-02 -2.718326151371002197e-01 -1.940465271472930908e-01 4.530809074640274048e-02 6.671303510665893555e-02 1.174544692039489746e-01 -1.888171285390853882e-01 -4.407277330756187439e-02 -1.213211044669151306e-01 -1.648182570934295654e-01 -5.477103963494300842e-02 -1.862673610448837280e-01 6.336129456758499146e-02 3.826079890131950378e-02 2.551968209445476532e-02 -1.187314540147781372e-01 -1.258554309606552124e-01 -6.263580918312072754e-02 -2.899472117424011230e-01 -2.181650698184967041e-01 3.738311305642127991e-02 8.376926183700561523e-02 -5.686972290277481079e-02 2.600597590208053589e-02 -1.219431236386299133e-01 -1.504132449626922607e-01 3.660016879439353943e-02 9.407437592744827271e-02 -1.633958518505096436e-02 -1.586804091930389404e-01 -8.372533135116100311e-03 -7.810311764478683472e-02 -4.679997265338897705e-02 9.475864470005035400e-02 1.454116404056549072e-01 -1.202491894364356995e-01 -1.925810724496841431e-01 -1.848646551370620728e-01 1.728451400995254517e-01 1.620811372995376587e-01 -2.036725580692291260e-01 -1.981531232595443726e-01 1.442116051912307739e-01 2.247309386730194092e-01 -2.913619279861450195e-01 -2.151756919920444489e-02 -1.271328181028366089e-01 7.855801959522068501e-04 -1.687869727611541748e-01 -3.190153464674949646e-02 6.810661405324935913e-02 -3.715115413069725037e-02 1.254322826862335205e-01 -1.647717505693435669e-01 -1.187939122319221497e-01 6.408811081200838089e-03 -3.115770220756530762e-01 -5.442665889859199524e-02 -2.386093586683273315e-01 -4.742975533008575439e-02 -6.285597383975982666e-02 -1.710534468293190002e-02 -1.877754330635070801e-01 -1.606961935758590698e-01 -3.628925383090972900e-01 9.566342830657958984e-02 -1.266692578792572021e-01 9.300114959478378296e-02 -2.143072634935379028e-01 1.484606266021728516e-01 -1.803644001483917236e-02 -1.232686731964349747e-02 -7.500685751438140869e-02 -3.073768317699432373e-01 -1.048743054270744324e-01 -1.002352386713027954e-01 -3.168449103832244873e-01 2.200827561318874359e-02 -2.587042748928070068e-01 -1.089599356055259705e-01 -1.023290902376174927e-01 -2.142955809831619263e-01 -2.550039999186992645e-02 -1.296323537826538086e-01 -1.477167606353759766e-01 -3.059026412665843964e-02 -5.545347929000854492e-03 -9.472607821226119995e-02 -1.683155596256256104e-01 -2.300162240862846375e-02 -2.827569656074047089e-02 2.165111713111400604e-02 -1.003535836935043335e-01 -3.577806651592254639e-01 -2.095826864242553711e-01 -4.489253461360931396e-02 -5.049401149153709412e-02 3.055484406650066376e-02 -1.104331389069557190e-01 2.086480557918548584e-01 -3.032546043395996094e-01 3.127322345972061157e-02 -1.431264281272888184e-01 2.318853735923767090e-01 -2.172695845365524292e-01 2.757467627525329590e-01 -5.588784813880920410e-02 3.742781654000282288e-02 -1.047525107860565186e-01 -3.034397400915622711e-02 5.725423619151115417e-02 -2.458199113607406616e-02 1.052704006433486938e-01 -2.876440621912479401e-02 -7.805164903402328491e-02 8.584477007389068604e-02 -7.709326595067977905e-02 -1.709227710962295532e-01 4.730028659105300903e-02 -6.625980883836746216e-02 -7.036617398262023926e-02 -3.186009824275970459e-02 -1.163319796323776245e-01 1.174354180693626404e-01 -1.235747262835502625e-01 2.096367534250020981e-03 -2.215188294649124146e-01 1.304264068603515625e-01 2.504657208919525146e-02 -7.180289924144744873e-02 1.058487147092819214e-01 -4.534258246421813965e-01 -1.354433000087738037e-01 -8.216086775064468384e-02 3.191340342164039612e-02 -2.067244499921798706e-01 -1.852735280990600586e-01 -3.205812275409698486e-01 1.157627180218696594e-01 2.210277505218982697e-02 5.539357289671897888e-02 -1.017681211233139038e-01 -1.253329664468765259e-01 3.951105847954750061e-02 -2.514010667800903320e-01 3.962444141507148743e-02 -5.055277794599533081e-02 -1.624311059713363647e-01 -3.350849822163581848e-02 4.629276320338249207e-02 -1.998465508222579956e-01 -2.308285385370254517e-01 -2.978929877281188965e-01 -6.662852317094802856e-02 -4.627623781561851501e-02 -8.147206157445907593e-02 2.065119445323944092e-01 -1.775918751955032349e-01 -1.384941786527633667e-01 -4.615053534507751465e-02 -2.306708991527557373e-01 -2.601839303970336914e-01 1.797135546803474426e-02 -1.439427137374877930e-01 -4.814011603593826294e-02 -2.262703180313110352e-01 -1.005368232727050781e-01 -3.717822581529617310e-02 -4.309872537851333618e-02 -1.217418089509010315e-01 -2.009614259004592896e-01 1.685755699872970581e-02 -1.258994489908218384e-01 2.959833666682243347e-02 -2.378142811357975006e-02 -2.831584513187408447e-01 6.912841927260160446e-03 -1.829672604799270630e-02 4.030686244368553162e-02 1.153230592608451843e-01 -1.621940284967422485e-01 -1.668485850095748901e-01 -1.198365613818168640e-01 -5.378193408250808716e-02 -1.727820187807083130e-02 -2.052815109491348267e-01 -5.631374567747116089e-02 2.027851790189743042e-01 -1.919614225625991821e-01 -7.430279999971389771e-02 4.837757349014282227e-02 -1.051658540964126587e-01 6.553927809000015259e-02 -7.853407412767410278e-02 -4.037544131278991699e-02 2.411173097789287567e-02 -5.397628620266914368e-02 -2.605308592319488525e-01 -8.298996835947036743e-02 1.745884679257869720e-02 -8.411136269569396973e-02 -2.153566032648086548e-01 1.398652940988540649e-01 -3.669087290763854980e-01 -1.177563518285751343e-02 5.196274071931838989e-02 -9.202360175549983978e-03 1.002366393804550171e-01 -7.388195395469665527e-02 -3.453002870082855225e-02 -1.109242141246795654e-01 -1.567710191011428833e-01 -1.759351044893264771e-01 -1.618854105472564697e-01 -1.624561250209808350e-01 -1.559096872806549072e-01 1.242452487349510193e-01 4.897556453943252563e-02 5.477466806769371033e-02 5.819165334105491638e-02 -2.017133682966232300e-01 2.665790915489196777e-02 1.138937771320343018e-01 -2.218841165304183960e-01 -3.860773742198944092e-01 -3.291507437825202942e-02 1.256854534149169922e-01 -1.467670053243637085e-01 -2.427538633346557617e-01 -2.116794884204864502e-01 1.195533201098442078e-01 -1.738405972719192505e-01 7.126766443252563477e-02 -1.631758548319339752e-02 -1.885361373424530029e-01 -5.995767191052436829e-03 -1.988305896520614624e-01 1.250831503421068192e-02 -2.473265528678894043e-01 8.951425552368164062e-02 -4.792756401002407074e-03 -2.847061492502689362e-02 -2.130304127931594849e-01 6.380584836006164551e-02 9.218063950538635254e-02 -2.535324692726135254e-01 -5.394823849201202393e-02 -2.853241562843322754e-01 -6.752192229032516479e-02
1.657744124531745911e-02 -3.206839859485626221e-01 8.735255151987075806e-02 1.134746149182319641e-02 -1.933663636445999146e-01 2.488493220880627632e-03 1.542182918637990952e-02 -3.007563948631286621e-01 6.116752326488494873e-02 6.787762045860290527e-02 2.049024701118469238e-01 -2.053922787308692932e-02 -4.659090191125869751e-03 -3.761308267712593079e-02 -5.263503268361091614e-02 -1.507460772991180420e-01 -6.698424369096755981e-02 -1.504093292169272900e-03 4.813798144459724426e-02 1.071494519710540771e-01 -3.251326680183410645e-01 -5.736035108566284180e-02 -1.385017484426498413e-01 -9.792552888393402100e-02 -1.478489041328430176e-01 -7.265459001064300537e-02 -1.430239975452423096e-01 3.237833455204963684e-02 -8.176739327609539032e-03 5.702633410692214966e-02 -7.319775968790054321e-02 -9.173511713743209839e-02 -2.937371470034122467e-02 -1.723318397998809814e-01 2.421211265027523041e-02 -8.009729534387588501e-02 -1.796989887952804565e-02 -5.528058484196662903e-02 -1.908313482999801636e-02 -4.381001740694046021e-02 7.629065215587615967e-02 1.193379536271095276e-01 -3.660540655255317688e-02 6.218724884092807770e-03 1.261325627565383911e-01 -2.035524696111679077e-03 -1.667773276567459106e-01 -6.611224263906478882e-02 -1.990295797586441040e-01 -1.362189203500747681e-01 4.435782879590988159e-02 1.120917350053787231e-01 -7.291473448276519775e-02 -9.747246652841567993e-02 -9.585809707641601562e-02 -8.456319570541381836e-02 -1.530763059854507446e-01 5.964794754981994629e-02 -3.845759108662605286e-02 -2.364799845963716507e-03 -7.072377949953079224e-02 -1.170168723911046982e-02 -1.280978769063949585e-01 -8.817546069622039795e-02 -1.625704467296600342e-01 -5.273260548710823059e-02 -8.908800035715103149e-02 -1.173350661993026733e-01 3.436093032360076904e-02 -1.425713151693344116e-01 2.106170356273651123e-01 6.460686028003692627e-02 5.916671454906463623e-02 -1.038833782076835632e-01 -1.289660576730966568e-02 -6.916902959346771240e-02 -8.953166007995605469e-02 -4.359248280525207520e-02 -1.660175025463104248e-01 -3.430958092212677002e-02 -8.111754059791564941e-02 -4.130231961607933044e-02 -1.349240690469741821e-01 4.293807595968246460e-02 2.130744233727455139e-02 4.335024952888488770e-02 7.293097674846649170e-02 -3.891520574688911438e-02 -1.229128390550613403e-01 -1.129705309867858887e-01 -9.881094098091125488e-02 4.452697560191154480e-02 -6.902484595775604248e-02 4.234004020690917969e-02 -1.419198364019393921e-01 6.694159004837274551e-03 -5.192615464329719543e-02 -1.581163853406906128e-01 1.100492775440216064e-01 -7.169476896524429321e-02 -3.910776600241661072e-02 -1.201203092932701111e-01 -6.559844315052032471e-02 -1.705153882503509521e-01 -2.693184651434421539e-02 4.752727225422859192e-02 2.728269202634692192e-03 1.150815114378929138e-01 3.121431916952133179e-02 -9.227841347455978394e-02 -1.900162249803543091e-01 -1.806944012641906738e-01 -1.592273078858852386e-02 -1.521721482276916504e-01 -3.526451811194419861e-02 -7.841399870812892914e-03 -8.197838813066482544e-02 1.271900162100791931e-02 2.476251870393753052e-02 7.175406813621520996e-02 -3.347901627421379089e-02 2.011190727353096008e-02 -1.289643645286560059e-01 -8.952215313911437988e-02 -1.482744961977005005e-01 3.463284671306610107e-02 -1.872755587100982666e-01 -1.036925911903381348e-01 -1.369552314281463623e-01 -9.559658914804458618e-02 -9.372188150882720947e-02 -9.476279467344284058e-02 -1.703135855495929718e-02 -2.121641859412193298e-02 -1.194009035825729370e-01 2.511379122734069824e-02 -3.102871123701334000e-03 -3.956757113337516785e-02 3.984822425991296768e-03 -8.091213554143905640e-02 -9.425550699234008789e-02 1.210366189479827881e-01 -8.001045882701873779e-02 2.802211046218872070e-02 7.176281511783599854e-02 -2.407137751579284668e-01 -4.876925796270370483e-02 4.437596350908279419e-02 1.623303443193435669e-01 -7.980186492204666138e-02 -6.673941016197204590e-02 5.657386779785156250e-02 9.603999555110931396e-02 2.262821197509765625e-01 -1.544083803892135620e-01 -6.270334124565124512e-02 -9.485784173011779785e-02 -2.241241186857223511e-01 5.701058730483055115e-02 -1.269926223903894424e-02 -8.695532381534576416e-02 1.147100925445556641e-01 -1.121927946805953979e-01 -9.057043492794036865e-02 2.503778040409088135e-01 -1.615987904369831085e-02 -1.021070033311843872e-01 2.690930664539337158e-02 -4.422732442617416382e-02 -1.318392306566238403e-01 -8.713349699974060059e-02 6.932082772254943848e-02 3.644029796123504639e-02 -2.718039751052856445e-01 -3.272709995508193970e-02 3.855258598923683167e-02 -1.172321811318397522e-01 -1.050112545490264893e-01 -1.129818987101316452e-02 -3.376555070281028748e-02 -5.964512471109628677e-03 1.029347777366638184e-01 -2.123692929744720459e-01 1.663411036133766174e-03 -6.465585529804229736e-02 -1.276438236236572266e-01 -1.449829190969467163e-01 -6.084483489394187927e-02 5.245057865977287292e-03 -2.957447059452533722e-02 -5.421203374862670898e-02 -2.002918720245361328e-01 -2.745733596384525299e-02 4.130716249346733093e-02 -1.244556084275245667e-01 -3.780351206660270691e-02 1.091995984315872192e-01 -1.826389133930206299e-02 -7.050904631614685059e-02 2.748194709420204163e-02 -3.751597553491592407e-02 -1.196967959403991699e-01 -9.706562757492065430e-02 -2.407768070697784424e-01 1.151845231652259827e-02 -9.023416787385940552e-02 -2.892426401376724243e-02 -5.155169963836669922e-02 -7.411660254001617432e-02 -7.797362748533487320e-03 -1.276228670030832291e-02 -7.447115331888198853e-02 1.444443911314010620e-01 -1.784111708402633667e-01 -6.821445375680923462e-02 -5.965381860733032227e-02 1.519099925644695759e-03 2.029042392969131470e-01 -1.122678909450769424e-02 -6.296460330486297607e-02 -1.460220068693161011e-01 4.090635478496551514e-02 -4.503300786018371582e-02 -2.911552414298057556e-02 -2.309761345386505127e-01 -1.112008020281791687e-01 4.364452138543128967e-02 -8.332054316997528076e-02 -7.800650596618652344e-02 1.952110603451728821e-02 -1.348977386951446533e-01 -1.229912787675857544e-01 -5.921088624745607376e-03 -1.201985701918601990e-01 1.451317965984344482e-02 -9.543918073177337646e-02 -9.934741258621215820e-02 -1.535674482583999634e-01 -1.743071824312210083e-01 -1.090515851974487305e-01 -1.053076684474945068e-01 1.472093397751450539e-03 -1.377719640731811523e-01 1.318795680999755859e-01 -4.123469069600105286e-02 -6.004042224958539009e-04 -9.544446319341659546e-02 4.618395119905471802e-02 -3.153219074010848999e-02 -8.955252170562744141e-02 -2.417389154434204102e-01 -2.457452006638050079e-02 1.402110904455184937e-01 4.977691173553466797e-02 -2.892811298370361328e-01 5.710215307772159576e-03
-5.455566644668579102e-01 4.859336093068122864e-02 9.565218538045883179e-02 -3.167052939534187317e-02 8.690566569566726685e-02 1.131870672106742859e-01 -1.293312162160873413e-01 1.437506228685379028e-01 -1.985905617475509644e-01 1.596769690513610840e-01 1.570760086178779602e-02 5.742555484175682068e-02 5.952334776520729065e-02 -2.237312197685241699e-01 -4.148495849221944809e-03 -3.841758891940116882e-02 5.228342488408088684e-02 5.243871361017227173e-03 8.464764058589935303e-02 -1.533561348915100098e-01 -4.329803287982940674e-01 4.992307350039482117e-02 -1.985858827829360962e-01 -1.444845944643020630e-01 -1.648219376802444458e-01 5.319668352603912354e-02 -2.528295516967773438e-01 -2.629195749759674072e-01 9.838755428791046143e-02 2.360473424196243286e-01 -3.252968788146972656e-01 3.406691923737525940e-02 -2.780332565307617188e-01 4.122105240821838379e-02 3.611669689416885376e-02 1.939064115285873413e-01 -1.021134555339813232e-01 -1.032940298318862915e-01 -6.404506415128707886e-02 -2.058631479740142822e-01 9.891602396965026855e-02 -2.610523700714111328e-01 -3.038395941257476807e-01 -4.298600852489471436e-01 -1.678055673837661743e-01 6.590766832232475281e-03 1.194037348031997681e-01 -5.792504176497459412e-02 -8.272260427474975586e-02 9.103439003229141235e-02 -2.828470245003700256e-02 -1.100062131881713867e-01 -4.065889120101928711e-02 -1.521491706371307373e-01 6.991738826036453247e-02 2.578444480895996094e-01 -3.836503624916076660e-01 -7.000286597758531570e-03 -1.380622535943984985e-01 4.828414693474769592e-02 1.002641320228576660e-01 -1.882037073373794556e-01 -1.784070879220962524e-01 -1.745332181453704834e-01 1.110475696623325348e-02 -1.479367911815643311e-01 -1.100944951176643372e-01 1.959209442138671875e-01 8.980207890272140503e-02 -1.796889007091522217e-01 -3.180276751518249512e-01 -2.567315101623535156e-01 -1.279551982879638672e-01 -7.494854927062988281e-02 -7.609912008047103882e-02 4.254322126507759094e-02 8.995539695024490356e-02 8.383803814649581909e-02 6.080173887312412262e-03 -2.260227687656879425e-02 -7.955607771873474121e-02 -1.881273388862609863e-01 7.438481599092483521e-02 -3.462482988834381104e-01 -1.061221957206726074e-01 -2.211885303258895874e-01 -2.368062436580657959e-01 -9.734497219324111938e-02 1.370351165533065796e-01 -1.532921195030212402e-01 -7.836024463176727295e-02 2.695641480386257172e-02 -2.220282852649688721e-01 -4.447487741708755493e-02 1.521555930376052856e-01 -8.350567519664764404e-02 -3.734078258275985718e-02 -1.052232012152671814e-01 -1.810267418622970581e-01 9.113457985222339630e-03 -1.781329512596130371e-01 -6.434767693281173706e-02 5.056336894631385803e-02 -2.992636263370513916e-01 -1.127514913678169250e-01 -1.402987986803054810e-01 -2.058734931051731110e-02 1.662653088569641113e-01 -1.424912810325622559e-01 -2.948730066418647766e-02 -2.261773943901062012e-01 -1.119095906615257263e-01 7.592742145061492920e-02 -2.775090634822845459e-01 -2.452298067510128021e-03 -1.089152246713638306e-01 -2.118515521287918091e-01 -1.600045412778854370e-01 -1.445886939764022827e-01 -2.790448628365993500e-02 -3.795314133167266846e-01 -2.036071121692657471e-01 -5.866703018546104431e-02 2.054830789566040039e-01 -1.055008992552757263e-01 1.099404022097587585e-01 -1.294928193092346191e-01 -3.944532573223114014e-01 -1.234171912074089050e-01 -2.331239730119705200e-01 -3.679896146059036255e-02 -1.794148534536361694e-01 -1.951771676540374756e-01 5.234699696302413940e-02 -7.585956901311874390e-02 1.737504601478576660e-01 -2.907151579856872559e-01 -1.638975739479064941e-01 -1.670893579721450806e-01 -2.397178262472152710e-01 -1.541782915592193604e-01 -1.032349169254302979e-01 4.450903832912445068e-02 -2.737229168415069580e-01 -3.540771305561065674e-01 7.513043005019426346e-03 5.484833382070064545e-03 5.383824184536933899e-02 -1.350736767053604126e-01 -7.234354317188262939e-02 -8.587907254695892334e-02 -7.988211512565612793e-02 -2.539323568344116211e-01 -1.498143970966339111e-01 -1.829414963722229004e-01 -1.199553757905960083e-01 -4.533145725727081299e-01 -4.991321265697479248e-02 2.684086374938488007e-02 -2.493070065975189209e-01 -2.402461320161819458e-01 -1.390478461980819702e-01 9.781844913959503174e-02 6.347516179084777832e-02 -6.117507442831993103e-02 -2.700239233672618866e-02 -1.278908401727676392e-01 -9.801922738552093506e-02 -6.613062322139739990e-02 1.654772460460662842e-01 1.777065731585025787e-02 -2.854470610618591309e-01 -3.952898383140563965e-01 8.171760290861129761e-02 -1.427811384201049805e-01 -8.006059378385543823e-02 -1.041143685579299927e-01 -3.304207026958465576e-01 1.043711416423320770e-02 -6.344348192214965820e-02 -1.493026763200759888e-01 1.099344119429588318e-01 1.084714531898498535e-01 -2.465709894895553589e-01 -7.864203304052352905e-02 -1.192177906632423401e-01 -2.213004231452941895e-01 6.839410960674285889e-02 2.523333206772804260e-02 -5.746211484074592590e-02 2.034184187650680542e-01 -2.429079264402389526e-02 5.937552824616432190e-02 2.526996657252311707e-02 -2.662865910679101944e-03 -1.379504501819610596e-01 -2.945839166641235352e-01 -4.889265447854995728e-02 9.829519689083099365e-02 1.427201628684997559e-01 -7.822178304195404053e-02 -1.871768981218338013e-01 -1.087318360805511475e-01 -9.662270545959472656e-02 -4.284145310521125793e-02 -1.970712244510650635e-01 2.125030308961868286e-01 -3.098557703197002411e-03 -2.579809725284576416e-01 -3.600252568721771240e-01 -2.460996359586715698e-01 -1.678622066974639893e-01 1.584344804286956787e-01 -4.076997339725494385e-01 -7.213446497917175293e-02 -5.287164077162742615e-02 -3.319019377231597900e-01 -4.979111626744270325e-02 1.613037474453449249e-02 -1.322887390851974487e-01 -2.346452623605728149e-01 -1.750799864530563354e-01 7.463072240352630615e-02 -8.846098184585571289e-02 -2.801595628261566162e-01 -1.057175802998244762e-03 3.072752617299556732e-02 -2.388370484113693237e-01 -2.071494609117507935e-01 -1.337608397006988525e-01 1.416787207126617432e-01 -1.316093355417251587e-01 -3.529715910553932190e-02 -1.688783764839172363e-01 -1.624534875154495239e-01 -8.023606240749359131e-02 -4.190183058381080627e-02 -3.744362890720367432e-01 -2.736917436122894287e-01 -1.500264555215835571e-01 -2.277588248252868652e-01 -1.087605860084295273e-02 8.658902719616889954e-03 4.056452587246894836e-02 -1.359293460845947266e-01 4.374961717985570431e-04 1.623508483171463013e-01 -5.057356134057044983e-02 -1.222188770771026611e-01 6.241795793175697327e-02 6.762804836034774780e-02 1.171686965972185135e-02 -1.261803209781646729e-01 6.454294919967651367e-02 -3.234351798892021179e-02 3.915927112102508545e-01
-2.038385123014450073e-01 -3.074738383293151855e-01 -1.526655629277229309e-02 -8.233741670846939087e-02 -1.469629853963851929e-01 -1.601404696702957153e-02 2.869603782892227173e-02 -2.147980630397796631e-01 -2.188824489712715149e-02 6.160177662968635559e-02 6.234011799097061157e-02 -8.782880753278732300e-02 -8.691363781690597534e-02 -3.169115260243415833e-02 4.778025299310684204e-02 1.793891489505767822e-01 2.628660202026367188e-02 -1.985564082860946655e-01 -1.615376174449920654e-01 -1.014769822359085083e-02 3.479539602994918823e-02 -1.767935976386070251e-02 -5.416004359722137451e-02 8.844716101884841919e-02 -9.442468732595443726e-02 2.702655969187617302e-03 -1.512162238359451294e-01 1.529468894004821777e-01 1.968401968479156494e-01 7.022237777709960938e-02 2.380762435495853424e-02 -6.191769352881237864e-05 2.727549895644187927e-02 -1.315411925315856934e-01 -1.882704943418502808e-01 1.620771139860153198e-01 -1.195112988352775574e-01 -2.021653205156326294e-01 1.188686676323413849e-02 2.278177812695503235e-02 9.815113246440887451e-02 -3.222433030605316162e-01 2.533300966024398804e-02 6.919520348310470581e-02 8.588682860136032104e-02 1.238411068916320801e-01 -5.934304371476173401e-02 1.528230607509613037e-01 5.172662809491157532e-02 -1.731348782777786255e-01 7.209614664316177368e-02 -1.395784318447113037e-01 -1.533204615116119385e-01 1.181935295462608337e-01 -1.453367918729782104e-01 -2.164903655648231506e-02 -3.329828009009361267e-02 5.102428048849105835e-02 -6.539440900087356567e-02 -7.707649376243352890e-03 7.662497460842132568e-02 -1.714021526277065277e-02 3.961811587214469910e-02 6.659172475337982178e-03 -1.494440734386444092e-01 -1.619647145271301270e-01 -7.416422665119171143e-02 1.165125742554664612e-01 5.402503907680511475e-02 -8.077864348888397217e-02 8.215030282735824585e-02 -2.598493695259094238e-01 -2.517772018909454346e-01 -1.888220161199569702e-01 -3.859094530344009399e-02 9.737205691635608673e-03 7.337595522403717041e-02 2.808168902993202209e-02 3.458236902952194214e-02 -6.476042792201042175e-03 1.589246280491352081e-02 4.027338325977325439e-02 2.340467125177383423e-01 1.945690065622329712e-01 1.067935228347778320e-01 -5.854842066764831543e-02 2.319887876510620117e-01 -3.627616912126541138e-02 -2.731443848460912704e-03 -1.819896101951599121e-01 1.044500991702079773e-01 -6.457535177469253540e-02 1.371406763792037964e-01 4.261049628257751465e-02 -3.773863893002271652e-03 -9.823790937662124634e-02 1.584851443767547607e-01 1.745614856481552124e-01 2.375160604715347290e-01 -4.260637611150741577e-02 9.159102290868759155e-02 4.195551387965679169e-03 -4.162503778934478760e-02 4.879307001829147339e-02 1.095782145857810974e-01 1.231319271028041840e-02 -5.220744013786315918e-02 -1.607536524534225464e-01 -1.518661081790924072e-01 -4.119642078876495361e-02 -2.969874143600463867e-01 7.958120107650756836e-02 -7.244764268398284912e-02 1.220477148890495300e-01 -2.317738905549049377e-02 -4.482011497020721436e-02 4.407512769103050232e-02 9.548260271549224854e-02 2.295957691967487335e-02 -7.632756978273391724e-02 1.289722919464111328e-01 7.177406549453735352e-02 -1.219229325652122498e-01 -1.690558046102523804e-01 -1.003614366054534912e-01 -6.926486641168594360e-02 1.314851790666580200e-01 -1.293046679347753525e-02 1.269650012254714966e-01 -1.061863601207733154e-01 1.422165483236312866e-01 -4.804374650120735168e-02 9.534762799739837646e-02 8.252787590026855469e-02 -7.072269916534423828e-02 -9.474878013134002686e-02 -2.709281817078590393e-02 6.133418902754783630e-02 2.059263549745082855e-02 -1.347385346889495850e-01 -1.921400278806686401e-01 -2.483315393328666687e-02 -3.911850973963737488e-02 1.613947600126266479e-01 -6.002890318632125854e-02 1.150255948305130005e-01 -2.043401449918746948e-02 -1.043762341141700745e-01 -6.078631430864334106e-02 2.286743223667144775e-01 -2.722747623920440674e-01 1.398780569434165955e-02 -1.925599873065948486e-01 -4.183837026357650757e-02 -4.570446163415908813e-02 8.716480433940887451e-02 -5.201265588402748108e-02 8.589804172515869141e-02 -3.412419557571411133e-02 1.574291475117206573e-02 -1.405541896820068359e-01 -1.251152902841567993e-02 6.195400783326476812e-05 8.460429497063159943e-03 -8.698316663503646851e-02 -5.545876920223236084e-02 -8.736346662044525146e-02 3.163823485374450684e-02 -1.006766483187675476e-01 -1.850687116384506226e-01 8.180531114339828491e-02 -1.470693051815032959e-01 -1.753896623849868774e-01 -6.134248897433280945e-02 -2.952093491330742836e-03 -1.781188882887363434e-02 -1.406782418489456177e-01 -9.071201086044311523e-02 -7.901264354586601257e-03 -1.509504467248916626e-01 -1.705543883144855499e-02 -1.320542097091674805e-01 -9.294017404317855835e-02 -1.677210479974746704e-01 -3.932984918355941772e-02 -5.034098774194717407e-02 -3.787554055452346802e-02 -3.321159482002258301e-01 4.359479248523712158e-02 -1.090394109487533569e-01 1.959092542529106140e-02 2.023106440901756287e-02 -5.947596579790115356e-02 -1.650804281234741211e-01 3.357585892081260681e-02 -1.887407898902893066e-01 -2.877718955278396606e-02 -7.801914960145950317e-02 8.239581435918807983e-02 -1.490833461284637451e-01 1.397279351949691772e-01 4.267196729779243469e-02 -6.566587090492248535e-02 -7.465920597314834595e-02 -1.387245059013366699e-01 6.901381071656942368e-03 -1.665373891592025757e-01 1.261073052883148193e-01 4.053787514567375183e-02 -8.563507348299026489e-02 -6.579460948705673218e-02 -2.341091483831405640e-01 -5.790225416421890259e-02 -8.952157199382781982e-02 -4.667331650853157043e-02 -1.569631248712539673e-01 -1.884225197136402130e-02 -1.088591516017913818e-01 -1.155974417924880981e-01 -2.466370724141597748e-02 1.085870340466499329e-01 8.807048201560974121e-02 -1.209663748741149902e-01 -3.665230423212051392e-02 1.188615243881940842e-02 1.294951736927032471e-01 5.698476731777191162e-02 5.261783301830291748e-02 2.583326399326324463e-01 -1.360547542572021484e-01 -1.490093022584915161e-01 2.858101017773151398e-02 2.806415781378746033e-03 1.411334425210952759e-01 -2.301158197224140167e-02 -1.194348335266113281e-01 -1.562865972518920898e-01 -5.059059709310531616e-03 -7.483758777379989624e-02 1.664924770593643188e-01 1.342256665229797363e-01 -4.882076755166053772e-02 -3.763560205698013306e-02 5.556337907910346985e-02 -1.180384829640388489e-01 -1.824871599674224854e-01 -1.261380463838577271e-01 2.402131073176860809e-02 1.001543179154396057e-01 4.320751759223639965e-04 -9.907664358615875244e-02 1.489262282848358154e-02 3.993687033653259277e-02 6.653577089309692383e-02 -7.372940890491008759e-04 4.634539596736431122e-03
2.603543363511562347e-02 -8.099178969860076904e-02 1.107103824615478516e-01 4.400938749313354492e-02 -9.993191808462142944e-02 5.026965960860252380e-02 -1.241956502199172974e-01 3.776750061661005020e-03 -8.715602010488510132e-02 -2.866699397563934326e-01 1.142886951565742493e-01 -9.051569551229476929e-02 4.921935126185417175e-02 -2.702726237475872040e-02 -3.720996901392936707e-02 -1.923429407179355621e-02 -4.055069759488105774e-02 -2.962420880794525146e-02 2.899317257106304169e-02 4.349540919065475464e-02 4.973278567194938660e-02 -4.129241406917572021e-02 -8.543704636394977570e-03 1.233341451734304428e-02 3.252325579524040222e-02 6.269123405218124390e-02 2.051149122416973114e-02 -1.450285613536834717e-01 -7.932184636592864990e-02 -1.773287057876586914e-01 -1.330756247043609619e-01 -4.726338759064674377e-02 -2.530755475163459778e-02 8.524097502231597900e-02 2.200151234865188599e-02 -1.617542654275894165e-01 -4.878890886902809143e-02 -1.204707939177751541e-02 6.634490564465522766e-03 -1.162187680602073669e-01 -1.782121509313583374e-01 4.234512522816658020e-02 1.928475499153137207e-02 4.816086590290069580e-02 4.836408421397209167e-02 8.015754632651805878e-03 1.844919472932815552e-01 -2.169067785143852234e-02 -1.145223900675773621e-02 1.324966829270124435e-02 1.109775379300117493e-01 4.075875878334045410e-02 -1.539623886346817017e-01 1.321077812463045120e-02 -1.095986068248748779e-01 -2.963158190250396729e-01 1.504866778850555420e-01 7.599367201328277588e-02 1.975367590785026550e-02 -6.809209287166595459e-02 1.678427215665578842e-03 8.308093994855880737e-02 -1.289001945406198502e-02 1.505323569290339947e-03 -1.258946061134338379e-01 -2.201113104820251465e-01 -8.682288229465484619e-02 -9.193192422389984131e-02 -9.089832007884979248e-02 -4.661693796515464783e-02 1.231543645262718201e-01 2.029325067996978760e-01 4.142748564481735229e-02 -1.659219712018966675e-01 -9.570021927356719971e-02 -1.361821591854095459e-01 -7.861269265413284302e-02 1.753549464046955109e-02 -1.653059571981430054e-01 -1.164758112281560898e-02 3.496223688125610352e-02 -3.219890221953392029e-02 -1.829961240291595459e-01 -2.238784283399581909e-01 1.065552160143852234e-01 -2.107143700122833252e-01 2.580077946186065674e-02 -1.431117355823516846e-01 9.623274207115173340e-02 -1.827302873134613037e-01 -1.956876218318939209e-01 3.089469298720359802e-02 6.306473631411790848e-03 5.675674229860305786e-02 -1.243527606129646301e-01 2.647566795349121094e-02 2.139487070962786674e-03 1.419684384018182755e-02 1.608306355774402618e-02 -3.676937520503997803e-02 -1.099501922726631165e-01 4.811302572488784790e-02 -1.064896807074546814e-01 -3.221501037478446960e-02 7.372923195362091064e-02 -4.980961605906486511e-02 -3.778532519936561584e-02 1.408511307090520859e-02 -1.102314665913581848e-01 3.306806460022926331e-02 -4.535280913114547729e-02 3.645920008420944214e-02 -8.720850199460983276e-02 -1.824970692396163940e-01 -1.115106567740440369e-01 -1.330071985721588135e-01 3.342637047171592712e-02 -6.902961432933807373e-02 -8.129218220710754395e-02 3.409225866198539734e-02 6.779179722070693970e-02 -8.270442485809326172e-02 1.418114304542541504e-01 -2.135474001988768578e-03 -9.963422268629074097e-02 7.208235561847686768e-02 -1.454735696315765381e-01 2.487390488386154175e-02 -9.278415143489837646e-02 -8.097666315734386444e-03 7.128811627626419067e-02 -3.336785361170768738e-02 1.124704852700233459e-01 -1.213333532214164734e-01 -1.079802680760622025e-02 5.900585651397705078e-02 4.139636084437370300e-02 1.281879283487796783e-02 3.948977682739496231e-03 -5.169964209198951721e-02 -2.002633735537528992e-02 -3.283545002341270447e-02 -3.075024671852588654e-02 -5.277760699391365051e-02 -1.868759691715240479e-01 -3.572777204681187868e-04 -5.065997689962387085e-02 -8.579301089048385620e-02 -6.310576200485229492e-02 2.102559246122837067e-02 -1.227585747838020325e-01 4.108309373259544373e-02 -1.560756415128707886e-01 -8.523129671812057495e-02 3.026309423148632050e-02 9.329220652580261230e-02 -1.194626688957214355e-01 -3.270439058542251587e-02 1.309035122394561768e-01 -6.266976892948150635e-02 7.952762395143508911e-02 -2.299142070114612579e-02 1.324700117111206055e-01 -1.822815239429473877e-01 -3.311510011553764343e-02 5.451928079128265381e-02 -1.849004477262496948e-01 -1.526940613985061646e-01 -7.970583438873291016e-02 -1.421571988612413406e-02 1.136277988553047180e-01 -1.112267225980758667e-01 -1.165032088756561279e-01 -3.480660915374755859e-02 -7.486333698034286499e-02 -1.159890666604042053e-01 3.416093066334724426e-02 -5.316034704446792603e-02 -1.448113173246383667e-01 4.582496359944343567e-02 -1.450178027153015137e-01 5.773387476801872253e-02 -9.675766527652740479e-02 1.754613034427165985e-02 -3.081764280796051025e-02 -6.445235013961791992e-02 1.228824630379676819e-02 -3.288835287094116211e-01 -7.483194768428802490e-02 5.892756953835487366e-02 1.752492785453796387e-01 -1.863818615674972534e-01 4.151091724634170532e-02 -1.158371940255165100e-01 -4.229019209742546082e-02 -9.311076998710632324e-02 -1.683759503066539764e-02 -2.147138118743896484e-01 -1.774785071611404419e-01 -2.452078647911548615e-02 3.882565349340438843e-02 -7.530465722084045410e-03 -4.950979351997375488e-02 -8.570892736315727234e-03 3.193030878901481628e-02 1.044747699052095413e-02 4.713390767574310303e-02 -8.611934632062911987e-02 -9.470053762197494507e-02 -7.689858973026275635e-02 1.765806972980499268e-02 -5.119786784052848816e-02 -6.074297428131103516e-02 6.780940294265747070e-02 1.047079712152481079e-01 -4.673639312386512756e-02 -1.818093359470367432e-01 -3.850578144192695618e-02 -2.550853416323661804e-02 5.868818983435630798e-02 4.488777741789817810e-02 7.793357968330383301e-02 -1.163713727146387100e-02 -1.378636062145233154e-01 -2.242256104946136475e-01 2.548204734921455383e-02 -2.002886682748794556e-01 -8.746395260095596313e-02 -1.791446805000305176e-01 2.596909739077091217e-02 -1.389067620038986206e-01 -8.987141400575637817e-02 6.955470144748687744e-02 -9.018933773040771484e-02 -1.706511676311492920e-01 5.569959431886672974e-02 5.739905685186386108e-02 4.358300939202308655e-03 7.267804443836212158e-02 -1.554421335458755493e-01 -4.843027144670486450e-02 1.008877977728843689e-01 1.075956001877784729e-01 3.471308853477239609e-03 1.278275251388549805e-01 -9.523499757051467896e-02 -7.202194072306156158e-03 -4.740779101848602295e-02 -3.489882871508598328e-02 1.673600822687149048e-02 -1.351039111614227295e-01 -1.197332516312599182e-01 -1.477238982915878296e-01 3.429112723097205162e-03 2.430881187319755554e-02 -1.151266545057296753e-01
-5.918986722826957703e-02 1.259340047836303711e-01 1.108093187212944031e-02 -5.238807201385498047e-02 -2.143875956535339355e-01 3.478189755696803331e-04 -1.254209280014038086e-01 -1.337958425283432007e-01 -5.547931790351867676e-02 5.401166528463363647e-02 -1.728375852108001709e-01 -5.670359358191490173e-02 -8.882448822259902954e-02 -1.801589280366897583e-01 2.795190922915935516e-02 6.545016914606094360e-02 -6.122809648513793945e-02 2.149097248911857605e-02 5.313396826386451721e-02 4.258751869201660156e-04 -2.902577817440032959e-02 -5.375982448458671570e-02 -3.696689754724502563e-02 -1.603544130921363831e-02 3.443333879113197327e-02 4.017229378223419189e-02 9.994284808635711670e-02 -1.343389004468917847e-01 -6.210904568433761597e-02 -7.457841932773590088e-02 -4.226571321487426758e-02 -6.488334387540817261e-02 -1.270482409745454788e-02 -8.861942216753959656e-03 -1.414678990840911865e-01 -1.431257426738739014e-01 1.073337048292160034e-01 -1.872273534536361694e-01 3.991467133164405823e-02 -6.584054231643676758e-02 7.004462927579879761e-02 8.714838884770870209e-03 6.162661686539649963e-02 -9.942095726728439331e-02 -6.679951678961515427e-03 3.120364435017108917e-02 -1.198485195636749268e-01 3.588159009814262390e-02 -2.119745500385761261e-02 7.378697395324707031e-02 1.692121289670467377e-02 -4.389009624719619751e-02 5.183568969368934631e-02 -1.348404437303543091e-01 8.429152518510818481e-02 1.032441854476928711e-03 -7.282812613993883133e-03 -9.686019271612167358e-02 -2.506567537784576416e-01 -4.066585004329681396e-02 9.963762760162353516e-02 -1.268230676651000977e-01 1.435131728649139404e-01 -2.065801918506622314e-01 1.330041438341140747e-01 -2.801706083118915558e-02 -5.673553794622421265e-02 -1.636555343866348267e-01 -5.418799817562103271e-02 4.185170680284500122e-02 -2.687497995793819427e-02 2.871434018015861511e-02 -2.383679449558258057e-01 -2.613721787929534912e-02 7.387254387140274048e-02 1.272211223840713501e-01 -9.269190579652786255e-02 -1.720757186412811279e-01 -6.954065524041652679e-03 -1.810973435640335083e-01 -2.128812856972217560e-02 -1.680161245167255402e-02 -9.451007470488548279e-03 3.518385067582130432e-02 1.087502762675285339e-01 -1.258073449134826660e-01 7.388652116060256958e-02 -1.417335867881774902e-01 -1.814236119389533997e-02 1.187243685126304626e-02 -2.023524940013885498e-01 1.606316491961479187e-02 1.467815134674310684e-02 4.234547540545463562e-02 -1.007655709981918335e-01 -1.551663875579833984e-01 -1.268000304698944092e-01 -7.627876847982406616e-02 -3.716083988547325134e-02 -4.662747681140899658e-02 2.521490678191184998e-02 -6.521479040384292603e-02 -5.490829795598983765e-02 1.263398379087448120e-01 -1.387096196413040161e-01 -1.054197624325752258e-01 6.525169312953948975e-02 8.382301032543182373e-02 -7.555712480098009109e-03 -4.189235344529151917e-02 -3.428437188267707825e-02 -1.457736194133758545e-01 -4.057990387082099915e-02 -1.732927411794662476e-01 -1.781744062900543213e-01 1.204409264028072357e-02 -1.559907346963882446e-01 -1.491586267948150635e-01 -2.063683122396469116e-01 -1.054671257734298706e-01 -1.189759299159049988e-01 -8.221805840730667114e-02 -5.314827710390090942e-02 -1.522178202867507935e-01 -4.620045050978660583e-02 7.165993005037307739e-02 -5.695510655641555786e-02 1.519742608070373535e-01 1.717918217182159424e-01 -2.222133241593837738e-02 1.704104477539658546e-03 7.297705858945846558e-02 -8.659704029560089111e-02 -1.226492524147033691e-01 -2.735492773354053497e-02 7.272958755493164062e-02 4.907563701272010803e-02 -7.635358721017837524e-02 -3.659482672810554504e-02 -1.026327461004257202e-01 -2.550578415393829346e-01 -7.011760026216506958e-02 1.236503571271896362e-01 5.646876990795135498e-02 -2.392827766016125679e-03 2.170707285404205322e-02 4.488981515169143677e-02 1.525388658046722412e-01 9.965989738702774048e-02 -5.206406116485595703e-02 -1.566543281078338623e-01 1.612352132797241211e-01 3.271725773811340332e-02 -7.551499176770448685e-03 2.572284638881683350e-02 -1.454181820154190063e-01 -6.184039637446403503e-02 6.429594010114669800e-02 -1.583133339881896973e-01 -2.631768211722373962e-02 -9.991183131933212280e-02 -1.142908185720443726e-01 -1.247925311326980591e-01 -1.021805331110954285e-01 4.875990375876426697e-02 -1.539975255727767944e-01 -5.991549789905548096e-02 1.509876996278762817e-01 1.246079895645380020e-02 2.515422925353050232e-02 1.099317613989114761e-02 -1.150907725095748901e-01 -1.959687024354934692e-01 -2.682135999202728271e-01 6.676773191429674625e-04 4.911496117711067200e-02 3.660185262560844421e-02 -4.881218075752258301e-03 -3.336029127240180969e-02 -5.204632133245468140e-02 -1.064448282122612000e-01 8.872318267822265625e-02 -2.525993995368480682e-02 1.296880561858415604e-02 -1.290245503187179565e-01 6.535953283309936523e-02 -1.940971612930297852e-02 -1.040005683898925781e-01 -2.307056449353694916e-03 3.608396276831626892e-02 -1.395885050296783447e-01 -1.152359992265701294e-01 4.329028353095054626e-02 -1.254000365734100342e-01 -9.169870615005493164e-02 -1.711035706102848053e-02 7.679189741611480713e-02 3.206242993474006653e-02 -1.880631223320960999e-02 -8.661873638629913330e-02 -1.761737279593944550e-02 1.537469401955604553e-02 7.313368469476699829e-02 -1.117171049118041992e-01 -1.135970726609230042e-01 2.502993680536746979e-02 5.217322334647178650e-02 -2.054151445627212524e-01 -1.698002964258193970e-02 -1.447252780199050903e-01 2.002087235450744629e-02 -5.762387812137603760e-02 -1.418618261814117432e-01 -7.035691291093826294e-02 -6.345126032829284668e-02 4.384590685367584229e-02 -2.840064652264118195e-02 1.941129006445407867e-02 -7.169988006353378296e-02 -1.796889454126358032e-01 1.196384951472282410e-01 8.281312137842178345e-02 6.162486039102077484e-03 -1.399172283709049225e-02 -1.554539613425731659e-02 -1.100661903619766235e-01 -3.832114487886428833e-02 -3.842998063191771507e-03 -3.239059075713157654e-02 -1.652424968779087067e-02 -7.276664674282073975e-02 -3.394629433751106262e-02 1.881114020943641663e-02 -1.236015707254409790e-01 8.335000276565551758e-02 1.297419369220733643e-01 1.622446477413177490e-01 1.296083163470029831e-02 -4.542130976915359497e-02 -3.467195481061935425e-02 -5.539194494485855103e-02 7.132536172866821289e-02 -6.399094313383102417e-02 -6.936334073543548584e-02 3.416103124618530273e-02 2.134866081178188324e-02 1.379638165235519409e-01 -8.487316966056823730e-02 5.090422928333282471e-02 -5.968770384788513184e-02 -1.033948287367820740e-01 -1.082058250904083252e-01 -4.479681327939033508e-02 -2.081410028040409088e-02 -1.445754021406173706e-01 -1.196621656417846680e-01
-1.948875337839126587e-01 -1.616637408733367920e-01 -2.564548254013061523e-01 -1.825337111949920654e-01 -6.119567155838012695e-02 -1.899069398641586304e-01 6.135984137654304504e-02 3.138819942250847816e-03 -9.505504369735717773e-02 3.962289169430732727e-02 -3.436464965343475342e-01 -5.021249875426292419e-02 -2.006221413612365723e-01 -2.549001947045326233e-02 2.335473895072937012e-01 -1.559291929006576538e-01 9.393429756164550781e-02 -1.635447740554809570e-01 2.433576621115207672e-02 -3.123361803591251373e-02 -7.459175586700439453e-02 -8.791065216064453125e-02 2.465330362319946289e-01 -5.037787184119224548e-02 -1.074131205677986145e-01 -8.030233532190322876e-02 -1.901523470878601074e-01 -1.328723579645156860e-01 -5.523657798767089844e-02 -2.031854167580604553e-02 -2.209427654743194580e-01 -1.952185295522212982e-02 -8.037973940372467041e-02 -4.987630620598793030e-02 -1.987757086753845215e-01 -1.024119406938552856e-01 -9.013792872428894043e-02 -2.405535615980625153e-02 1.328657716512680054e-01 1.175967305898666382e-01 -1.667221635580062866e-01 9.565138071775436401e-02 1.566535532474517822e-01 -5.329443886876106262e-02 4.829552490264177322e-03 -2.595374286174774170e-01 -2.748529016971588135e-01 -7.821974903345108032e-02 -1.873898208141326904e-01 3.080039098858833313e-02 -1.233037486672401428e-01 -3.473506495356559753e-02 6.514461338520050049e-02 -4.774240404367446899e-02 -3.595067560672760010e-01 -1.437907218933105469e-01 -3.067600429058074951e-01 -2.178274095058441162e-01 -2.717595696449279785e-01 -3.203792497515678406e-02 -7.081636227667331696e-03 -7.772582024335861206e-02 -2.199511677026748657e-01 -9.256542474031448364e-02 -2.025159895420074463e-01 -1.432350464165210724e-02 -2.618828713893890381e-01 -6.995669007301330566e-02 -1.406127363443374634e-01 -1.310894787311553955e-01 2.390147298574447632e-01 1.653783619403839111e-01 -2.435181848704814911e-02 -1.412690132856369019e-01 5.041452124714851379e-02 9.639758616685867310e-02 -1.745452582836151123e-01 -2.482308894395828247e-01 -1.616845428943634033e-01 -2.089697867631912231e-01 1.528638899326324463e-01 -2.695698738098144531e-01 -2.344092167913913727e-02 -5.416692793369293213e-02 1.426165103912353516e-01 8.951636403799057007e-02 1.809441894292831421e-01 -5.515029281377792358e-02 -5.105993151664733887e-02 -3.153924047946929932e-01 -7.176937162876129150e-02 2.845775708556175232e-02 -6.425922270864248276e-03 -2.497945278882980347e-01 -1.270108222961425781e-01 1.531703770160675049e-01 -3.630809485912322998e-01 -1.463977396488189697e-01 -8.849994838237762451e-02 4.541582986712455750e-02 1.696321666240692139e-01 1.654301583766937256e-01 1.008240506052970886e-01 -1.277305185794830322e-01 -6.044171005487442017e-02 -1.036070436239242554e-01 -2.336924821138381958e-01 -7.784142345190048218e-02 -3.653135523200035095e-02 -8.310585469007492065e-02 -1.484780013561248779e-01 -2.669676244258880615e-01 -3.803401067852973938e-02 5.337221175432205200e-02 -1.738974452018737793e-01 -1.336837857961654663e-01 6.742154061794281006e-02 -1.013785228133201599e-01 -1.190976873040199280e-01 -2.161733955144882202e-01 -1.211332827806472778e-01 -1.780506372451782227e-01 -1.643909811973571777e-01 -3.480823244899511337e-03 9.289822541177272797e-03 6.603891402482986450e-02 -2.210532426834106445e-01 -1.248547807335853577e-01 3.484931774437427521e-03 -1.246233433485031128e-01 -7.106743752956390381e-02 -1.911313831806182861e-01 -3.754592686891555786e-02 3.347272798418998718e-02 -1.109086349606513977e-01 -1.512977927923202515e-01 -2.383839339017868042e-01 -3.362327814102172852e-01 -1.573113352060317993e-01 -3.470116481184959412e-02 -3.442762196063995361e-01 7.379780523478984833e-03 -3.494748845696449280e-02 -4.233691841363906860e-02 -1.562185585498809814e-01 -1.932753473520278931e-01 -8.372073061764240265e-03 -5.647266283631324768e-02 -3.498523682355880737e-02 1.043971404433250427e-01 -1.557665020227432251e-01 7.759679574519395828e-03 -2.873168885707855225e-01 -2.299266606569290161e-01 -6.800364702939987183e-02 -2.488600313663482666e-01 -1.068139970302581787e-01 2.946513891220092773e-02 1.761223077774047852e-01 -1.413595080375671387e-01 -1.098761409521102905e-01 -2.251576781272888184e-01 -1.225042715668678284e-01 1.063846331089735031e-02 -5.665373802185058594e-02 -1.129991635680198669e-01 -7.720366865396499634e-02 2.670005895197391510e-02 -1.710296422243118286e-01 9.123519808053970337e-02 9.585605561733245850e-02 -1.301045268774032593e-01 -2.788700722157955170e-02 -5.319089069962501526e-02 -2.284311652183532715e-01 1.553756883367896080e-03 1.024751551449298859e-02 -2.121989279985427856e-01 -4.415754228830337524e-03 -3.154825866222381592e-01 1.597060114145278931e-01 -1.260308548808097839e-02 -1.457303315401077271e-01 1.376151591539382935e-01 1.071384474635124207e-01 8.037988096475601196e-02 -3.742152452468872070e-01 2.508796453475952148e-01 -7.977063953876495361e-02 -8.702740073204040527e-02 -9.477124363183975220e-02 6.010749191045761108e-02 -3.374963998794555664e-01 -2.539395093917846680e-01 1.294188052415847778e-01 2.429909072816371918e-02 -2.315830290317535400e-01 5.290681961923837662e-03 -2.169832885265350342e-01 2.833653241395950317e-02 -9.841183573007583618e-02 -5.082812160253524780e-03 -3.772925436496734619e-01 -2.621899247169494629e-01 -6.641073524951934814e-02 -1.783497482538223267e-01 2.734141051769256592e-02 -3.939384222030639648e-01 -2.558965682983398438e-01 1.451200395822525024e-01 9.941457211971282959e-02 -1.301098018884658813e-01 -6.986176222562789917e-02 -1.743323504924774170e-01 -3.632754981517791748e-01 -1.584361791610717773e-01 -3.982747346162796021e-02 -2.304997593164443970e-01 3.598644435405731201e-01 -8.595776557922363281e-02 5.677114427089691162e-02 1.620966941118240356e-01 -7.598266005516052246e-02 4.680121317505836487e-03 -9.113815426826477051e-02 -8.138994127511978149e-02 -1.836407184600830078e-01 -2.320928573608398438e-01 -3.196597844362258911e-02 -1.786660999059677124e-01 -3.396004810929298401e-02 -1.182167008519172668e-01 1.857346743345260620e-01 -1.115467995405197144e-01 -1.555334776639938354e-01 -8.055239170789718628e-02 1.119521185755729675e-01 -1.973050385713577271e-01 -1.803538352251052856e-01 -1.402321606874465942e-01 -1.472589075565338135e-01 -1.071204543113708496e-01 -1.015957444906234741e-01 -3.586268126964569092e-01 -1.594087779521942139e-01 4.213327541947364807e-02 7.993891090154647827e-02 -6.618091464042663574e-02 -1.691096127033233643e-01 -6.019707024097442627e-02 -2.755774557590484619e-01 -1.089256256818771362e-02 1.805845499038696289e-01 2.413016259670257568e-01 6.791999191045761108e-02 1.280234754085540771e-01
1.013080179691314697e-01 1.584155485033988953e-02 -7.889441214501857758e-03 -7.964512705802917480e-02 -2.977318465709686279e-01 1.015492994338274002e-02 -1.458429638296365738e-02 -1.401938498020172119e-02 5.931322649121284485e-02 3.436811268329620361e-02 7.009540218859910965e-03 3.350417688488960266e-02 1.305054426193237305e-01 -2.457351051270961761e-02 7.880377769470214844e-02 -2.346104942262172699e-03 4.992224276065826416e-02 5.919610708951950073e-02 7.678099721670150757e-02 1.355014294385910034e-01 -2.172389030456542969e-01 -1.450247913599014282e-01 -2.065461740130558610e-04 1.797552108764648438e-01 1.108393073081970215e-01 -1.821528226137161255e-01 -1.747997999191284180e-01 -6.611312925815582275e-02 -1.212357729673385620e-01 -6.224635988473892212e-02 -9.841523319482803345e-02 -6.738224625587463379e-02 1.085571050643920898e-01 2.212470024824142456e-01 1.867201775312423706e-01 -2.701470442116260529e-02 3.463247418403625488e-02 4.119561985135078430e-02 -7.693961262702941895e-02 -5.749096721410751343e-02 -7.798203267157077789e-03 -1.382948011159896851e-01 -2.193934097886085510e-02 3.313919529318809509e-02 -9.625299274921417236e-02 4.883091896772384644e-02 3.042061813175678253e-03 1.300639957189559937e-01 -8.639481663703918457e-02 -2.046633325517177582e-02 -1.807750463485717773e-01 1.212766161188483238e-03 1.936678774654865265e-02 5.202661268413066864e-03 -1.733931526541709900e-02 3.999999165534973145e-02 -5.076012015342712402e-02 9.476692229509353638e-02 -2.126132398843765259e-01 -1.736071147024631500e-02 -1.691819131374359131e-01 -6.303387135267257690e-02 -3.409959143027663231e-03 1.392951458692550659e-01 2.698568627238273621e-02 -7.562206685543060303e-02 -3.032747469842433929e-02 -7.538775354623794556e-02 -8.488693833351135254e-02 -1.412186473608016968e-01 2.484212396666407585e-03 -1.826008260250091553e-01 1.204167604446411133e-01 -1.172116696834564209e-01 -3.829543665051460266e-02 -4.589304700493812561e-02 -1.464273929595947266e-01 -1.165019050240516663e-01 3.132171928882598877e-01 -1.893849670886993408e-01 -8.054808713495731354e-03 -7.493524253368377686e-02 4.548532888293266296e-02 -2.170614898204803467e-02 1.785125732421875000e-01 6.223925738595426083e-04 -6.467799842357635498e-02 1.033909693360328674e-01 -1.710572540760040283e-01 -2.276248931884765625e-01 5.619000643491744995e-03 -3.342378139495849609e-01 -1.435088552534580231e-02 -3.936936557292938232e-01 -1.228611636906862259e-02 -1.474517136812210083e-01 1.287559717893600464e-01 7.667895406484603882e-02 -8.694313466548919678e-02 -2.732684090733528137e-02 1.308940052986145020e-01 -2.088144421577453613e-03 8.748453855514526367e-02 -1.708438694477081299e-01 -1.362654119729995728e-01 3.858059272170066833e-02 1.057236120104789734e-01 -1.704596579074859619e-01 9.900201857089996338e-02 -7.304362207651138306e-02 7.826808094978332520e-02 -5.316913872957229614e-02 3.570279479026794434e-02 1.489363312721252441e-01 2.854584529995918274e-02 9.922713786363601685e-02 -1.635104604065418243e-02 -3.818344697356224060e-02 1.584836654365062714e-02 -1.188586279749870300e-02 -1.292463578283786774e-02 -6.088355556130409241e-03 8.308308571577072144e-02 -6.126457825303077698e-02 -1.530732661485671997e-01 9.479688853025436401e-02 -3.837662981823086739e-03 1.052940487861633301e-01 9.883154928684234619e-02 -7.462649792432785034e-02 -7.571516931056976318e-02 -1.976301372051239014e-01 4.686360806226730347e-02 -2.432967722415924072e-01 8.633494377136230469e-02 -3.127299845218658447e-01 3.303683921694755554e-02 -1.001844927668571472e-01 -6.010966747999191284e-02 -6.283429265022277832e-02 3.713559359312057495e-02 -1.352572813630104065e-02 6.445762235671281815e-03 -4.948765039443969727e-02 -1.450653523206710815e-01 5.387198925018310547e-02 -5.124622955918312073e-02 -6.852414458990097046e-03 -9.756880998611450195e-02 1.205005589872598648e-02 -1.159792765974998474e-01 -4.147663339972496033e-02 1.028861626982688904e-01 -1.701237112283706665e-01 -1.723090261220932007e-01 2.722577657550573349e-03 -2.356310039758682251e-01 -2.272658422589302063e-02 5.988273769617080688e-03 -5.158415064215660095e-02 -9.620342403650283813e-02 2.850018627941608429e-02 6.569701433181762695e-02 4.633954167366027832e-02 -1.741681098937988281e-01 -2.331651896238327026e-01 2.426516450941562653e-02 -9.349682927131652832e-02 -6.831859052181243896e-02 -4.470216482877731323e-02 4.207465797662734985e-02 -2.126011066138744354e-02 6.582798808813095093e-02 1.538440119475126266e-02 2.073130570352077484e-02 -9.271143376827239990e-02 -1.654233336448669434e-01 -8.033408969640731812e-02 -2.458353787660598755e-01 1.393257677555084229e-01 2.252356149256229401e-02 -1.660517007112503052e-01 -6.207162514328956604e-02 -1.376599371433258057e-01 9.795604273676872253e-04 -9.827940165996551514e-02 1.891298219561576843e-02 5.082142725586891174e-02 -1.967271231114864349e-02 -7.045221328735351562e-02 -8.184634894132614136e-02 -1.386045664548873901e-01 -1.246077269315719604e-01 4.535457864403724670e-02 -2.348802089691162109e-01 -1.612809300422668457e-01 -2.888571619987487793e-01 -8.526115119457244873e-02 1.254985481500625610e-01 -2.952221594750881195e-02 9.595315903425216675e-02 -8.762176334857940674e-02 1.065494343638420105e-01 -1.525059621781110764e-02 -1.181965693831443787e-01 -1.247932463884353638e-01 -1.088415384292602539e-01 -1.043068245053291321e-01 1.713517010211944580e-01 -8.455909788608551025e-02 -4.742415621876716614e-02 -1.589349955320358276e-01 7.126619666814804077e-02 -1.350444555282592773e-01 -1.098310351371765137e-01 7.825204730033874512e-02 1.097901761531829834e-01 4.431976377964019775e-02 -1.272873878479003906e-01 8.035505563020706177e-02 -4.874419420957565308e-02 1.464824825525283813e-01 -5.408809334039688110e-02 8.994837105274200439e-02 -7.547954469919204712e-02 -3.845298895612359047e-03 3.454734385013580322e-02 3.830634057521820068e-02 -5.235380679368972778e-02 -1.163667161017656326e-02 3.435596451163291931e-02 -1.283889114856719971e-01 1.786809712648391724e-01 -4.321217909455299377e-02 1.388069838285446167e-01 -3.178795427083969116e-02 4.195014014840126038e-02 2.482068724930286407e-03 -8.204588294029235840e-02 -2.232751064002513885e-02 -1.289432346820831299e-01 8.788726478815078735e-02 -1.749797016382217407e-01 -3.418615087866783142e-02 2.673224806785583496e-01 1.539990119636058807e-02 -1.218772083520889282e-01 1.784203350543975830e-01 1.634915322065353394e-01 1.110272202640771866e-02 -8.948732167482376099e-03 6.171948835253715515e-02 8.363331854343414307e-02 -2.709636986255645752e-01 -4.780958220362663269e-02 -3.627551347017288208e-02
-1.139262318611145020e-01 -1.402433961629867554e-01 -6.644649058580398560e-02 -3.036106005311012268e-02 -1.725709252059459686e-02 -2.153673022985458374e-02 -2.573677599430084229e-01 1.402346193790435791e-01 -6.952615082263946533e-02 1.140286922454833984e-01 -1.114985272288322449e-01 -1.437387913465499878e-01 1.484228372573852539e-01 5.902849510312080383e-02 -4.378405213356018066e-02 -1.087816059589385986e-01 -1.341103613376617432e-01 -1.301156636327505112e-02 -5.123416706919670105e-02 -3.310986459255218506e-01 1.560615934431552887e-02 -1.831137761473655701e-02 -4.421839490532875061e-02 1.152461916208267212e-01 -5.849923193454742432e-02 5.382350180298089981e-03 -2.369861006736755371e-01 -2.251447141170501709e-01 3.630647435784339905e-02 -7.846294343471527100e-02 -1.120867114514112473e-02 -2.557381689548492432e-01 -5.893346667289733887e-02 -1.804530173540115356e-01 1.338438093662261963e-01 -2.727052941918373108e-02 -2.900244295597076416e-02 -7.739482820034027100e-02 -3.851417079567909241e-02 -2.990382611751556396e-01 -8.341088891029357910e-03 -9.201222658157348633e-02 -9.820167720317840576e-02 -3.856319561600685120e-02 5.264776945114135742e-02 -1.660634391009807587e-02 -1.642314791679382324e-01 -2.610325813293457031e-01 -9.335411339998245239e-02 -6.445953994989395142e-02 1.787483319640159607e-02 -6.098224222660064697e-02 -2.621604204177856445e-01 -1.802235990762710571e-01 -1.010320335626602173e-01 -3.746725991368293762e-02 9.830392897129058838e-03 1.658464223146438599e-01 1.740053668618202209e-02 3.734485059976577759e-02 -7.248365879058837891e-02 -1.195613294839859009e-02 -9.081482887268066406e-02 -1.043967828154563904e-01 -6.459211930632591248e-03 2.049711620202288032e-04 6.128262355923652649e-02 -2.781625390052795410e-01 -2.071247100830078125e-01 -7.693471014499664307e-02 -9.599696099758148193e-02 5.478360503911972046e-02 -1.463347114622592926e-02 -2.211333215236663818e-01 -1.876474320888519287e-01 6.361044943332672119e-02 -7.012715190649032593e-02 -5.873262882232666016e-02 -4.491201415657997131e-02 -6.937132030725479126e-02 -5.058274418115615845e-02 -1.475281827151775360e-02 -1.213253140449523926e-01 -1.108658965677022934e-02 -1.560987681150436401e-01 -1.969317197799682617e-01 -1.178242266178131104e-01 1.267790049314498901e-01 -8.355868607759475708e-02 -2.961471974849700928e-01 -6.317222863435745239e-02 -9.587958455085754395e-02 2.664152905344963074e-02 -2.981031537055969238e-01 6.319805234670639038e-02 -1.686770468950271606e-01 -2.802172303199768066e-01 -6.902351975440979004e-03 -1.015778630971908569e-01 -2.578197419643402100e-01 2.049918472766876221e-02 -1.066717281937599182e-01 6.123084202408790588e-02 -1.350603401660919189e-01 1.247557438910007477e-02 1.202898919582366943e-01 8.276333659887313843e-02 -2.323219925165176392e-01 -2.214049920439720154e-02 -6.129512563347816467e-02 -4.463765397667884827e-02 6.352546811103820801e-02 -1.853885129094123840e-02 -7.676678895950317383e-02 -1.188336033374071121e-02 1.134206429123878479e-01 -2.214224040508270264e-01 -1.070407330989837646e-01 -3.570146486163139343e-02 -1.041353568434715271e-01 -4.331620410084724426e-02 -8.507409691810607910e-02 -1.886693015694618225e-02 -2.220712602138519287e-01 6.448683142662048340e-02 -5.959331523627042770e-03 6.647129356861114502e-02 -5.947573855519294739e-02 -6.638085842132568359e-02 -1.373027712106704712e-01 4.296929761767387390e-02 -5.046117678284645081e-02 -2.191305160522460938e-01 8.795809932053089142e-03 6.121505424380302429e-02 -1.079116165637969971e-01 -1.518640071153640747e-01 -5.324740335345268250e-02 -1.131999343633651733e-01 -1.081580743193626404e-01 -1.279419958591461182e-01 5.199878010898828506e-03 9.350117295980453491e-02 -1.739386841654777527e-02 -2.352501004934310913e-01 5.702381581068038940e-02 -5.988340452313423157e-02 -1.824837625026702881e-01 -6.458227336406707764e-02 -8.329489082098007202e-02 -7.142093032598495483e-02 5.309798941016197205e-02 -2.074478566646575928e-01 -1.917913854122161865e-01 -1.405092030763626099e-01 -1.213992983102798462e-01 -1.650977581739425659e-01 -6.878878921270370483e-02 -7.106411457061767578e-02 -3.427598252892494202e-02 -1.135130375623703003e-01 2.278273366391658783e-02 -1.095526143908500671e-01 2.506736516952514648e-01 -2.065439671277999878e-01 -1.440390050411224365e-01 -5.488557368516921997e-02 4.770055413246154785e-02 -1.040850132703781128e-01 -1.782131642103195190e-01 -6.713697314262390137e-02 -3.419191762804985046e-02 -1.550130695104598999e-01 -3.729148767888545990e-03 -2.153296619653701782e-01 -1.385985910892486572e-01 5.883227568119764328e-03 -7.902010530233383179e-02 -3.177523016929626465e-01 -2.403754293918609619e-01 1.365226805210113525e-01 -1.091969106346368790e-02 7.905642688274383545e-02 -2.788208611309528351e-02 -1.779618859291076660e-01 -4.295720718801021576e-03 -1.788674853742122650e-02 -3.272734582424163818e-01 -3.612212836742401123e-02 -1.310456246137619019e-01 -1.395319704897701740e-04 -1.595741063356399536e-01 -1.398850083351135254e-01 -1.169424690306186676e-02 -8.352488279342651367e-02 -1.433768868446350098e-01 -1.931503601372241974e-02 -8.407179266214370728e-02 -3.086447417736053467e-01 5.546712502837181091e-02 6.530783325433731079e-02 -1.633812934160232544e-01 -1.109436675906181335e-01 -2.582123875617980957e-01 -1.313279718160629272e-01 -1.323776692152023315e-01 6.942474842071533203e-02 9.723277762532234192e-03 1.317051649093627930e-01 -1.032699197530746460e-01 -2.624217271804809570e-01 7.802028954029083252e-02 -6.461342424154281616e-02 7.050888240337371826e-02 -1.370730847120285034e-01 -1.533299833536148071e-01 -1.190871372818946838e-02 -1.170903164893388748e-02 -7.461876422166824341e-02 4.034327343106269836e-02 -1.001196056604385376e-01 -2.595581710338592529e-01 5.429750308394432068e-02 -1.004240512847900391e-01 -5.125315487384796143e-02 -1.670192927122116089e-01 -6.457217782735824585e-02 -1.698259264230728149e-02 8.483928628265857697e-03 -1.674987971782684326e-01 -7.581188343465328217e-03 -3.208066523075103760e-02 -1.355494260787963867e-01 1.785834729671478271e-01 -3.399176523089408875e-02 1.118462998420000076e-03 5.546367168426513672e-02 -8.590497821569442749e-02 -1.042522769421339035e-02 3.723168373107910156e-02 3.302236646413803101e-02 -1.122744604945182800e-01 4.815467447042465210e-02 2.558427453041076660e-01 -4.744411259889602661e-02 -1.046041697263717651e-01 -1.161971013061702251e-03 -7.639367133378982544e-02 -2.340340912342071533e-01 -1.249838024377822876e-01 -2.693852186203002930e-01 -5.652022361755371094e-02 1.966276764869689941e-01 -1.126414090394973755e-01 1.676131039857864380e-02 -2.948496863245964050e-02
