-3.690307587385177612e-02 -1.182879731059074402e-01 -6.898149102926254272e-02 1.015771329402923584e-01 3.538356861099600792e-03 -2.975395880639553070e-02 -1.542790234088897705e-01 1.076633408665657043e-01 -8.272270113229751587e-02 8.590117096900939941e-02 -2.100449353456497192e-01 -1.684258133172988892e-01 -4.888429492712020874e-02 -1.555407643318176270e-01 -6.859489530324935913e-02 -7.165177166461944580e-02 -6.727142632007598877e-02 -2.541211843490600586e-01 9.173606522381305695e-03 -9.860703349113464355e-02 -9.359512478113174438e-02 1.531599760055541992e-01 -2.762242034077644348e-02 7.978039979934692383e-02 -1.276820749044418335e-01 1.066263765096664429e-01 -5.413311533629894257e-03 1.976526714861392975e-02 -8.659673482179641724e-02 1.435965001583099365e-01 -1.495714485645294189e-01 4.622065648436546326e-02 5.540471989661455154e-03 -6.677096337080001831e-02 1.896930299699306488e-02 3.759386390447616577e-02 -1.141560450196266174e-01 1.543532591313123703e-02 -3.633661940693855286e-02 -2.833285741508007050e-02 3.329699486494064331e-02 -2.118381261825561523e-01 -5.795185640454292297e-02 -6.173589453101158142e-02 -1.737930625677108765e-01 -9.081739932298660278e-02 -2.193831652402877808e-01 -1.627123355865478516e-01 2.174697071313858032e-02 -1.152454614639282227e-01 1.192662399262189865e-02 -1.252907514572143555e-01 6.068160757422447205e-02 -5.485420674085617065e-02 -8.314605057239532471e-02 -1.932487338781356812e-01 1.442644447088241577e-01 -8.389252424240112305e-02 -1.591725088655948639e-02 -3.294439986348152161e-02 6.788959144614636898e-04 -9.175237268209457397e-02 -1.222622245550155640e-01 -1.455236878246068954e-02 -2.074851281940937042e-02 -1.005633361637592316e-02 -2.868886105716228485e-02 -1.983299851417541504e-01 1.002703905105590820e-01 6.508994102478027344e-02 -1.214663162827491760e-01 3.843505680561065674e-02 -2.085196087136864662e-03 6.085212901234626770e-02 -1.946631260216236115e-02 9.256404638290405273e-02 -1.825965940952301025e-02 -2.130178036168217659e-03 -4.176771640777587891e-02 1.184846460819244385e-02 6.951890140771865845e-02 1.456176489591598511e-01 5.265351012349128723e-02 -4.532790556550025940e-02 1.666977442800998688e-02 -1.014623139053583145e-02 9.023480862379074097e-02 -1.109948754310607910e-01 -2.727334201335906982e-02 -2.308045513927936554e-02 -7.113829255104064941e-02 -4.702514782547950745e-02 2.918281592428684235e-02 2.854769350960850716e-03 8.233976550400257111e-03 -1.305477172136306763e-01 -1.162512153387069702e-01 8.470496535301208496e-02 -7.087571918964385986e-02 -1.560147255659103394e-01 4.264029860496520996e-02 -2.809891104698181152e-02 -1.615094579756259918e-02 2.814861200749874115e-02 -4.283752664923667908e-02 6.927175074815750122e-02 -1.134496331214904785e-01 5.522223562002182007e-02 -3.588117286562919617e-02 -2.798285186290740967e-01 3.708718717098236084e-02 -1.407935470342636108e-01 6.183039024472236633e-02 -6.019163876771926880e-02 -1.101483125239610672e-02 -1.067948341369628906e-01 8.390039950609207153e-02 1.166542917490005493e-01 -3.026789240539073944e-02 -2.845069207251071930e-02 -5.598123744130134583e-02 -2.825963310897350311e-02 -1.581215672194957733e-02 9.150788187980651855e-02 -1.014052703976631165e-01 7.534801494330167770e-03 -4.451050236821174622e-02 8.720020204782485962e-02 3.346581012010574341e-02 -2.254858016967773438e-01 -4.851254634559154510e-03 2.597600407898426056e-02 -9.293548762798309326e-03 8.962778002023696899e-02 5.333570018410682678e-02 -4.914539307355880737e-02 -4.134737700223922729e-02 -1.264191567897796631e-01 -4.772044345736503601e-02 -1.674132198095321655e-01 -9.025628119707107544e-02 -3.829620406031608582e-02 -2.005087584257125854e-02 -1.171801472082734108e-03 -8.154501020908355713e-02 -9.345354884862899780e-02 -2.288268879055976868e-03 -8.072402328252792358e-03 -1.212318966281600296e-04 -1.357843750156462193e-03 -3.275314345955848694e-02 -3.993837628513574600e-03 -4.787990823388099670e-02 -1.152969598770141602e-01 -5.378469824790954590e-02 -1.500776410102844238e-01 1.179768070578575134e-01 3.679033741354942322e-02 1.369170192629098892e-02 -8.080152422189712524e-02 1.916531026363372803e-01 -1.634466797113418579e-01 -1.070132032036781311e-01 -8.252409100532531738e-02 1.779629290103912354e-02 -1.076433621346950531e-02 6.180508062243461609e-02 -2.351401746273040771e-02 4.854706674814224243e-02 -1.696897298097610474e-01 1.205442566424608231e-02 -6.917686015367507935e-02 2.088868495775386691e-04 -7.305465638637542725e-02 -1.067508682608604431e-01 4.834035411477088928e-02 -1.743106693029403687e-01 1.474420130252838135e-01 -3.154740110039710999e-02 1.017945259809494019e-01 -7.800002396106719971e-02 4.178428277373313904e-02 -9.697584807872772217e-02 1.929547451436519623e-02 -1.127422377467155457e-01 1.800777018070220947e-01 -1.923256218433380127e-01 -3.191507756710052490e-01 -9.895974397659301758e-02 6.315384060144424438e-02 -2.610999159514904022e-02 7.240466028451919556e-02 -4.540721699595451355e-02 -4.658725857734680176e-02 -1.209248527884483337e-01 1.122067198157310486e-01 4.398627951741218567e-02 6.680744141340255737e-02 -8.066887408494949341e-02 -1.511297523975372314e-01 -7.169549912214279175e-02 1.343008782714605331e-02 1.354456692934036255e-01 -1.025058031082153320e-01 -6.717053800821304321e-02 1.266267597675323486e-01 -2.912447042763233185e-02 3.109252080321311951e-02 -8.289186283946037292e-03 -7.116015255451202393e-02 -4.700959101319313049e-02 3.155691176652908325e-02 2.087013050913810730e-02 -5.271473526954650879e-02 -1.488644182682037354e-01 -7.607207447290420532e-02 6.014535203576087952e-02 -3.385289013385772705e-02 -1.008596420288085938e-01 4.441872611641883850e-02 8.123657107353210449e-02 1.250937581062316895e-02 -2.374086827039718628e-01 -1.301111131906509399e-01 1.248803585767745972e-01 -5.798300355672836304e-02 -2.794564142823219299e-02 5.557902157306671143e-02 -1.190557144582271576e-03 2.026895992457866669e-02 1.554503757506608963e-02 -2.103082090616226196e-02 -7.812684029340744019e-02 -9.303890913724899292e-02 -1.205738708376884460e-01 -1.193711608648300171e-01 3.479082882404327393e-02 -2.154564708471298218e-01 5.024795979261398315e-02 -1.750373393297195435e-01 -9.612796455621719360e-02 1.662636920809745789e-02 7.793031632900238037e-02 3.621345385909080505e-02 -3.823421895503997803e-02 -1.714164614677429199e-01 -8.020757883787155151e-02 5.726307258009910583e-02 -7.842195220291614532e-03 6.120109464973211288e-04 -8.669308573007583618e-02 -1.536225080490112305e-01 -2.028757939115166664e-03 -2.159040048718452454e-02 -4.673111438751220703e-02 2.575311623513698578e-02
2.095015197992324829e-01 -7.883583009243011475e-02 2.484837472438812256e-01 -1.095697656273841858e-01 -3.303461372852325439e-01 5.662400647997856140e-02 -3.447535932064056396e-01 -9.057770669460296631e-02 -9.923269972205162048e-03 5.061925575137138367e-02 -1.332383137196302414e-02 -8.373714238405227661e-02 -2.228966541588306427e-02 7.428015023469924927e-02 -3.502967953681945801e-01 1.034059599041938782e-01 1.485477387905120850e-01 7.014749944210052490e-02 -1.776578426361083984e-01 -4.873477295041084290e-02 -3.902970626950263977e-02 1.816772967576980591e-01 -5.880370736122131348e-02 -6.667208671569824219e-02 2.587205357849597931e-02 6.084715947508811951e-02 -8.381054550409317017e-02 -5.625693127512931824e-02 -9.498783200979232788e-02 -2.456406503915786743e-01 1.093925610184669495e-01 -4.597024619579315186e-01 2.169156372547149658e-01 -1.657432317733764648e-02 -5.661430303007364273e-03 -2.773879766464233398e-01 -1.591043919324874878e-01 -1.110682040452957153e-01 1.819715499877929688e-01 8.691325783729553223e-02 -2.677322626113891602e-01 -8.226500451564788818e-02 -8.104632794857025146e-02 2.467733249068260193e-02 3.010462410748004913e-02 5.189928226172924042e-03 -1.541942059993743896e-01 -4.326216131448745728e-02 3.141278624534606934e-01 -3.745454847812652588e-01 1.982502937316894531e-01 -6.022568419575691223e-02 1.025234460830688477e-01 2.822374701499938965e-01 -1.602557897567749023e-01 -9.642537683248519897e-02 -8.356041461229324341e-02 1.314334571361541748e-02 -1.862652041018009186e-02 9.400444477796554565e-02 -2.537921965122222900e-01 2.194906920194625854e-01 5.766469240188598633e-02 1.669225841760635376e-02 8.300939947366714478e-02 8.421547710895538330e-02 -4.456854760646820068e-01 -1.567769497632980347e-01 -9.802286326885223389e-02 -7.014410197734832764e-02 1.377304494380950928e-01 -2.076224656775593758e-03 3.294643163681030273e-01 -2.034155875444412231e-01 7.363149523735046387e-02 8.410195261240005493e-02 -5.545407533645629883e-01 -4.795299470424652100e-02 1.000483408570289612e-01 -2.290361672639846802e-01 -6.395662575960159302e-02 5.677316710352897644e-02 -9.275312721729278564e-02 -8.954045921564102173e-02 -1.778686940670013428e-01 -1.104224771261215210e-01 -3.731587529182434082e-01 1.965604908764362335e-02 -3.511561751365661621e-01 1.524426192045211792e-01 -4.535559937357902527e-02 -6.575697660446166992e-02 -4.909316822886466980e-02 -9.239117801189422607e-02 -1.197643652558326721e-01 -1.167910322546958923e-01 -9.983169287443161011e-02 1.925321966409683228e-01 -2.446039021015167236e-02 -4.976828023791313171e-02 3.531862050294876099e-02 -3.983723581768572330e-04 -1.736450940370559692e-01 -5.709972698241472244e-03 1.167662143707275391e-01 -1.156258769333362579e-02 -1.168328896164894104e-02 1.616023629903793335e-01 -5.555041879415512085e-02 -6.688848137855529785e-02 -1.597036570310592651e-01 1.065146923065185547e-02 -6.752213835716247559e-02 1.865861862897872925e-01 2.033138461410999298e-02 2.739548385143280029e-01 1.039246469736099243e-01 1.731847226619720459e-01 -2.181606143712997437e-01 1.654291152954101562e-01 -8.133795112371444702e-02 7.365531474351882935e-02 -1.717800199985504150e-01 -3.147985339164733887e-01 -3.165940195322036743e-02 7.773930579423904419e-02 1.065180823206901550e-01 -7.374228537082672119e-02 -1.166455149650573730e-01 1.293830126523971558e-01 -4.414664953947067261e-02 5.255821719765663147e-02 -5.635905265808105469e-02 1.083860825747251511e-02 -6.346447765827178955e-02 -1.681476086378097534e-01 -1.206477433443069458e-01 -1.375649720430374146e-01 2.246160656213760376e-01 -3.178838640451431274e-02 3.166320621967315674e-01 -9.647519327700138092e-03 1.720010638236999512e-01 -4.061803221702575684e-02 -1.836449280381202698e-02 7.710807770490646362e-02 1.119593009352684021e-01 1.733476296067237854e-02 -5.214326083660125732e-02 -1.116258278489112854e-01 8.595889061689376831e-02 2.550599351525306702e-02 -2.311095595359802246e-02 -1.820937246084213257e-01 -1.092718914151191711e-02 -1.182936504483222961e-01 9.688842296600341797e-02 -1.904659718275070190e-01 1.972319036722183228e-01 -1.775711029767990112e-01 1.385194957256317139e-01 -1.013463139533996582e-01 1.689322665333747864e-02 -6.633160263299942017e-02 5.824923515319824219e-02 8.002936840057373047e-02 -2.475646324455738068e-03 -1.155629605054855347e-01 -9.735517203807830811e-02 8.440612256526947021e-02 -1.713216304779052734e-02 -8.811155706644058228e-02 -1.454938016831874847e-02 -7.032234966754913330e-02 -3.989211022853851318e-01 -4.600937291979789734e-02 -1.441768836230039597e-02 1.214816793799400330e-01 1.102887988090515137e-01 1.711162924766540527e-01 -6.262237578630447388e-02 5.841862037777900696e-02 1.751750707626342773e-01 1.947074234485626221e-01 1.005414053797721863e-01 2.807610929012298584e-01 -1.252723783254623413e-01 -1.661979220807552338e-02 -1.833881251513957977e-02 -1.128668636083602905e-01 3.373392522335052490e-01 -1.662508398294448853e-01 4.073288664221763611e-02 1.143545880913734436e-01 -8.305002003908157349e-03 4.995528236031532288e-02 4.742991551756858826e-02 3.568222746253013611e-02 3.125184029340744019e-02 2.185768634080886841e-01 2.857915498316287994e-02 -3.490222096443176270e-01 -3.550637662410736084e-01 -5.754745006561279297e-02 -1.815205439925193787e-02 -1.082356497645378113e-01 -1.940001994371414185e-01 -4.213543981313705444e-02 -1.248192638158798218e-01 -2.527845464646816254e-02 1.310580223798751831e-01 -1.924541294574737549e-01 -2.373503595590591431e-01 -9.609974175691604614e-02 2.540817856788635254e-01 1.616600900888442993e-02 8.391205221414566040e-03 -1.022915765643119812e-01 -9.408620744943618774e-02 -2.300022989511489868e-01 -7.450917363166809082e-02 7.777925580739974976e-02 -8.586821705102920532e-02 1.705096215009689331e-01 -6.252827495336532593e-02 1.235114857554435730e-01 2.779532670974731445e-01 -1.839917302131652832e-01 -1.241069519892334938e-03 5.018152669072151184e-02 1.004614308476448059e-01 1.402357816696166992e-01 2.425594627857208252e-01 -2.480101957917213440e-02 -2.578003518283367157e-02 -8.866245858371257782e-03 1.423270674422383308e-03 -2.607510387897491455e-01 4.978179931640625000e-02 1.164871826767921448e-01 -1.855575740337371826e-01 -1.903483718633651733e-01 1.864036619663238525e-01 -6.838180124759674072e-02 -1.455214023590087891e-01 -4.359855502843856812e-02 -6.884274072945117950e-03 -2.996489405632019043e-01 -7.052659243345260620e-02 1.929894387722015381e-01 -3.648276627063751221e-02 1.171717345714569092e-01 2.167057394981384277e-01 1.003403589129447937e-01 2.940641641616821289e-01 1.876300573348999023e-01
4.142243415117263794e-02 1.068037152290344238e-01 2.145349830389022827e-01 2.751054428517818451e-02 3.860647231340408325e-02 2.447586692869663239e-02 -3.945582211017608643e-01 -1.762486994266510010e-01 2.123823761940002441e-01 -1.677909493446350098e-01 -4.636135883629322052e-03 -2.968889772891998291e-01 -3.851236104965209961e-01 -4.210409820079803467e-01 -1.502075791358947754e-01 4.221846535801887512e-02 8.720483630895614624e-02 -2.645805180072784424e-01 1.967797577381134033e-01 9.674497693777084351e-02 -5.890633538365364075e-02 2.355407178401947021e-01 1.309133023023605347e-01 -2.929348349571228027e-01 6.401380151510238647e-02 4.979390650987625122e-03 1.468445509672164917e-01 2.424616515636444092e-01 -1.333352476358413696e-01 -6.808269023895263672e-01 7.606143131852149963e-03 -1.712827831506729126e-01 4.790780842304229736e-01 -3.527210652828216553e-01 -3.098893761634826660e-01 5.429069511592388153e-03 6.700123846530914307e-02 9.420256316661834717e-02 1.539049446582794189e-01 1.403331309556961060e-01 -5.807721018791198730e-01 -2.295589298009872437e-01 4.081069305539131165e-02 -1.317745149135589600e-01 3.175556287169456482e-02 9.423031657934188843e-02 -7.297746092081069946e-02 -1.830082982778549194e-01 -5.726306140422821045e-02 7.571163773536682129e-02 2.202418446540832520e-02 -3.529244959354400635e-01 -1.482679247856140137e-01 -3.171007707715034485e-02 -2.374920248985290527e-01 1.195667907595634460e-01 -4.604955911636352539e-01 1.019902303814888000e-01 -1.779183149337768555e-01 -2.114166766405105591e-01 3.568116575479507446e-03 -9.941080957651138306e-02 -2.773093879222869873e-01 -8.734773844480514526e-02 -8.644969761371612549e-02 -2.247630618512630463e-02 -6.803507804870605469e-01 -1.504924893379211426e-01 -9.016120433807373047e-02 8.401209488511085510e-03 2.997996807098388672e-01 -4.973562359809875488e-01 1.352852433919906616e-01 -1.705916523933410645e-01 8.131273090839385986e-02 1.700263172388076782e-01 -2.663000226020812988e-01 -2.591127753257751465e-01 -2.444622814655303955e-01 -8.153749257326126099e-02 -5.883786082267761230e-02 -1.155873239040374756e-01 1.554694324731826782e-01 2.113978862762451172e-01 1.101398915052413940e-01 2.846835181117057800e-02 -1.776460558176040649e-01 -3.170800507068634033e-01 -1.516438573598861694e-01 2.354844659566879272e-01 -1.364731490612030029e-01 -2.514708638191223145e-01 2.324143946170806885e-01 1.082760095596313477e-02 -2.467781901359558105e-01 5.338366329669952393e-02 -6.973291933536529541e-02 -1.239735540002584457e-02 -3.938309103250503540e-02 -4.324442148208618164e-02 3.802275657653808594e-02 4.474779218435287476e-02 -1.441718637943267822e-01 8.968480862677097321e-03 -5.782251060009002686e-02 8.388515561819076538e-02 -2.124121785163879395e-01 1.247543320059776306e-01 -4.722519218921661377e-02 -1.428555138409137726e-02 2.419835627079010010e-01 3.071982562541961670e-01 -2.012539505958557129e-01 6.519781798124313354e-02 1.144253090023994446e-01 2.667011879384517670e-02 -2.495961822569370270e-02 2.835781276226043701e-01 3.789983689785003662e-01 3.903486132621765137e-01 -1.836557500064373016e-02 5.454448610544204712e-02 -1.980976462364196777e-01 -1.556291580200195312e-01 1.064666882157325745e-01 2.717585116624832153e-02 2.065906822681427002e-01 1.300691217184066772e-01 -1.421366631984710693e-01 3.485704958438873291e-01 1.111428737640380859e-01 -2.299663983285427094e-02 8.984636515378952026e-02 1.466093361377716064e-01 -3.393088653683662415e-02 -1.023320108652114868e-01 -1.773454248905181885e-01 2.258201092481613159e-01 -5.030642077326774597e-02 -2.871038317680358887e-01 2.727195322513580322e-01 2.206853032112121582e-02 2.876676023006439209e-01 -8.935272693634033203e-02 -1.941223442554473877e-01 1.854650378227233887e-01 1.839938908815383911e-01 7.410351186990737915e-02 2.874901592731475830e-01 2.107027173042297363e-01 -7.122882455587387085e-02 -2.123961746692657471e-01 -2.651171386241912842e-01 -5.983230844140052795e-02 -2.347528003156185150e-02 1.130439043045043945e-01 -1.763174980878829956e-01 -3.805300919339060783e-03 1.498492211103439331e-01 1.435614749789237976e-02 -7.729139924049377441e-02 1.133948639035224915e-01 3.495208546519279480e-02 4.899900853633880615e-01 2.582462131977081299e-01 2.206573784351348877e-01 1.970082968473434448e-01 -3.113788086920976639e-03 1.265318989753723145e-01 3.051322996616363525e-01 -9.750910103321075439e-02 2.246698290109634399e-01 1.922327792271971703e-03 -9.419859945774078369e-02 -6.050208583474159241e-02 -1.616013646125793457e-01 7.224849611520767212e-02 -1.023281551897525787e-02 2.852020263671875000e-01 -8.200558274984359741e-02 -1.364904642105102539e-01 -6.002184748649597168e-02 -4.075982421636581421e-02 1.263278275728225708e-01 -8.320379257202148438e-02 5.931085720658302307e-02 -1.954730972647666931e-02 -1.414348036050796509e-01 6.664575077593326569e-03 1.068219020962715149e-01 -8.442275971174240112e-02 1.495436578989028931e-01 -3.267472609877586365e-02 3.422577977180480957e-01 5.717889871448278427e-03 2.133933454751968384e-01 1.349330544471740723e-01 6.071377918124198914e-02 6.662065535783767700e-02 -1.681894510984420776e-01 1.301274299621582031e-01 -6.499232053756713867e-01 2.675179578363895416e-02 -1.221526116132736206e-01 8.679457008838653564e-03 1.232066527009010315e-01 5.070306733250617981e-02 1.745267361402511597e-01 1.531053632497787476e-01 -1.348963230848312378e-01 -3.261242434382438660e-02 -6.996865570545196533e-02 1.172187700867652893e-01 1.131111234426498413e-01 3.319656848907470703e-01 -4.670219719409942627e-01 8.042998611927032471e-03 -1.543105691671371460e-01 -2.998140081763267517e-02 -3.775055408477783203e-01 -4.331004619598388672e-02 2.137930691242218018e-01 1.078907847404479980e-01 9.593536704778671265e-02 -1.678927391767501831e-01 1.114755570888519287e-01 -1.478357315063476562e-01 -7.259117066860198975e-02 1.479592770338058472e-01 -5.938589945435523987e-02 -2.588140964508056641e-01 -3.800706937909126282e-02 1.578279733657836914e-01 1.947672665119171143e-01 3.010210990905761719e-01 2.952433526515960693e-01 6.269759032875299454e-03 3.616254627704620361e-01 8.766554296016693115e-02 -3.551504015922546387e-02 -3.677620589733123779e-01 5.506687611341476440e-02 6.585878878831863403e-02 -2.069592177867889404e-01 -2.383947819471359253e-01 -6.200092844665050507e-03 -4.269654452800750732e-01 3.314780592918395996e-01 2.387058883905410767e-01 2.300553172826766968e-01 4.687999561429023743e-02 9.939187765121459961e-02 2.131057977676391602e-01 1.013473514467477798e-02 2.481726855039596558e-01 1.124092787504196167e-01
5.399985238909721375e-02 2.162209451198577881e-01 -9.377674199640750885e-03 -1.898978650569915771e-02 -1.804369688034057617e-01 -5.557243153452873230e-02 1.765906959772109985e-01 -2.886720746755599976e-02 -1.584870666265487671e-01 -1.051455214619636536e-01 -1.473196409642696381e-02 1.648571640253067017e-01 -1.219460740685462952e-03 7.585249096155166626e-02 -8.622523397207260132e-02 7.805366069078445435e-02 -5.134498327970504761e-02 5.916389077901840210e-02 -1.052056774497032166e-01 -4.743064194917678833e-02 1.572395116090774536e-01 2.006009779870510101e-02 -1.436942722648382187e-02 2.141915410757064819e-01 2.001533359289169312e-01 2.712405472993850708e-02 -4.945378005504608154e-02 -8.801508694887161255e-02 -2.436742037534713745e-01 9.062884747982025146e-02 3.138805925846099854e-02 1.375967413187026978e-01 6.284239888191223145e-02 2.949854135513305664e-01 -5.995879694819450378e-02 1.767780035734176636e-01 -1.719896197319030762e-01 -1.837555915117263794e-01 2.609895467758178711e-01 -1.659730672836303711e-01 1.319707781076431274e-01 -8.471783250570297241e-02 7.470387965440750122e-02 1.506007909774780273e-01 -8.200962841510772705e-02 -4.336799681186676025e-02 8.748971857130527496e-03 3.092521131038665771e-01 6.722305715084075928e-02 -3.664038479328155518e-01 9.556538611650466919e-02 1.671957373619079590e-01 3.315304219722747803e-01 1.060184016823768616e-01 -2.757447957992553711e-01 -7.187780737876892090e-02 2.837697863578796387e-01 -3.785928785800933838e-01 3.847804367542266846e-01 -4.741298500448465347e-03 -1.633779890835285187e-02 3.831874951720237732e-02 1.801138520240783691e-01 -2.104113399982452393e-01 7.549983263015747070e-02 -1.063811406493186951e-02 7.234132848680019379e-03 2.923590540885925293e-01 1.368278712034225464e-01 1.304002553224563599e-01 -2.163442820310592651e-01 2.886716723442077637e-01 2.762037813663482666e-01 9.738181531429290771e-02 1.127505153417587280e-01 5.057388916611671448e-02 -9.863064438104629517e-02 -1.948575377464294434e-01 3.886675834655761719e-01 -1.053765695542097092e-02 -1.974662952125072479e-02 2.335956841707229614e-01 4.319158196449279785e-02 -4.332272335886955261e-02 -3.055921196937561035e-01 2.739115655422210693e-01 -1.705032959580421448e-02 3.078411221504211426e-01 -1.241825222969055176e-01 -1.758220791816711426e-01 -2.648346424102783203e-01 1.794777512550354004e-01 -3.476073443889617920e-01 1.194125264883041382e-01 2.009146511554718018e-01 -5.419845134019851685e-02 -6.760978698730468750e-02 3.749796003103256226e-02 -3.067188262939453125e-01 -1.280819922685623169e-01 -1.003862768411636353e-01 -1.534262001514434814e-01 -2.736748754978179932e-01 1.899837404489517212e-01 1.031025722622871399e-01 -2.273019403219223022e-01 -5.412999913096427917e-02 -1.258954703807830811e-01 7.934929430484771729e-02 9.377170354127883911e-02 -9.950372576713562012e-02 1.090343762189149857e-02 6.353466212749481201e-02 -1.032413542270660400e-01 -2.542204260826110840e-01 9.144365042448043823e-02 -3.034813143312931061e-02 2.228650450706481934e-01 -6.798669695854187012e-02 -2.263911813497543335e-01 -1.254659742116928101e-01 1.499277204275131226e-01 5.842122435569763184e-02 -1.972838640213012695e-01 3.123384714126586914e-02 1.925371140241622925e-01 -7.159921526908874512e-02 5.118254944682121277e-02 1.189028471708297729e-01 4.631438478827476501e-02 3.388209640979766846e-02 1.621714681386947632e-01 -2.279070205986499786e-02 4.136767238378524780e-02 -1.430834382772445679e-01 -1.053402647376060486e-01 6.648153997957706451e-03 -7.310575246810913086e-02 1.676572859287261963e-01 2.068995535373687744e-01 -3.485171198844909668e-01 2.808148600161075592e-02 -1.817439347505569458e-01 4.311054572463035583e-02 -2.450346499681472778e-01 7.687909901142120361e-02 -7.920712232589721680e-03 1.264207512140274048e-01 -1.573292305693030357e-03 -4.840783402323722839e-02 -1.246248930692672729e-01 4.989568889141082764e-02 4.665569961071014404e-01 -1.345288753509521484e-01 1.002754643559455872e-01 -2.223051190376281738e-01 1.090799123048782349e-01 1.303745666518807411e-03 9.969304502010345459e-02 7.816057652235031128e-02 1.022446900606155396e-01 -2.085959017276763916e-01 1.969665437936782837e-01 -3.749319911003112793e-01 2.265629172325134277e-01 -1.680674701929092407e-01 1.968540623784065247e-02 1.686650514602661133e-01 -1.356025934219360352e-01 1.496607363224029541e-01 -1.797977238893508911e-01 -9.449118375778198242e-02 -1.872562915086746216e-01 -3.693016245961189270e-02 -1.482927948236465454e-01 2.723971009254455566e-02 -1.386291235685348511e-01 6.859048455953598022e-02 1.617054939270019531e-01 8.610850572586059570e-02 4.522708058357238770e-02 -8.683030307292938232e-02 2.829206548631191254e-02 -1.846402436494827271e-01 -1.740372478961944580e-01 4.146964848041534424e-02 -2.883783280849456787e-01 -2.119188196957111359e-02 8.288630098104476929e-02 7.409933209419250488e-02 -1.187025681138038635e-01 1.947951465845108032e-01 2.033388614654541016e-01 -2.062067985534667969e-01 1.064805462956428528e-01 -6.085592508316040039e-02 1.941681355237960815e-01 3.974553346633911133e-01 8.562978357076644897e-02 2.929869294166564941e-02 8.449363522231578827e-03 3.703940287232398987e-02 -1.348283141851425171e-03 -2.251135408878326416e-01 -2.857079505920410156e-01 -6.318823993206024170e-02 6.717447936534881592e-02 -1.334830094128847122e-02 4.283166229724884033e-01 -2.299533784389495850e-01 3.733853623270988464e-02 -6.646062433719635010e-02 -9.897428005933761597e-02 3.181770443916320801e-02 3.212600201368331909e-02 1.328972280025482178e-01 -3.033354505896568298e-02 -1.442318856716156006e-01 -1.188508793711662292e-01 5.914217233657836914e-02 5.409999936819076538e-02 -5.596878007054328918e-02 7.067318260669708252e-02 8.283369243144989014e-03 1.282849907875061035e-01 2.048695683479309082e-01 7.277397066354751587e-02 2.716253995895385742e-01 5.172079205513000488e-01 5.020075663924217224e-02 -6.977701932191848755e-02 2.013073712587356567e-01 7.074723392724990845e-02 -1.979140490293502808e-01 -3.396732732653617859e-02 1.600976735353469849e-01 -1.539311558008193970e-01 -1.830227226018905640e-01 -6.064881384372711182e-02 1.618342660367488861e-02 -8.853778243064880371e-02 -9.055354748852550983e-04 1.437159329652786255e-01 1.192924827337265015e-01 7.989657670259475708e-02 -5.099963769316673279e-02 1.204410269856452942e-01 -2.911923825740814209e-02 -1.067973498720675707e-04 1.101224794983863831e-01 -1.240672692656517029e-01 1.297190189361572266e-01 1.989979147911071777e-01 2.118391096591949463e-01 9.781448543071746826e-02 -2.812449932098388672e-01
6.791502237319946289e-02 7.963837683200836182e-02 -4.341107606887817383e-02 6.814426183700561523e-02 8.887989073991775513e-02 6.748265773057937622e-02 -7.706460356712341309e-02 4.849831759929656982e-02 -1.937640085816383362e-02 -2.194606512784957886e-01 -3.113624155521392822e-01 -9.042018651962280273e-02 -3.452003002166748047e-03 -2.839519269764423370e-02 -2.376195229589939117e-02 -8.041677623987197876e-02 1.225315630435943604e-01 -8.701325207948684692e-02 -8.508255332708358765e-02 -5.935414880514144897e-02 1.255963463336229324e-02 -6.649164855480194092e-02 -5.357542261481285095e-02 -9.382233023643493652e-02 -5.155643448233604431e-02 -5.214274674654006958e-02 -2.475076764822006226e-01 -2.016074582934379578e-02 -2.779000103473663330e-01 -5.225244164466857910e-02 6.701790727674961090e-03 1.112390607595443726e-01 -5.947105586528778076e-02 -1.121700406074523926e-01 -6.140757352113723755e-02 1.810584589838981628e-02 6.515498459339141846e-02 -9.176406264305114746e-02 -3.569819405674934387e-02 -1.611654907464981079e-01 3.099501319229602814e-02 -3.781124949455261230e-02 -9.245204180479049683e-02 -3.791134431958198547e-02 -7.687739282846450806e-02 -9.337373822927474976e-02 -7.740882784128189087e-02 1.370942890644073486e-01 7.251968234777450562e-02 4.507617279887199402e-02 -2.149694412946701050e-01 -9.191166609525680542e-03 1.014562398195266724e-01 -1.134216487407684326e-01 7.841371744871139526e-02 -1.763580739498138428e-01 -1.028033420443534851e-01 -2.375495387241244316e-03 -3.498556837439537048e-02 -1.075142472982406616e-01 -2.535347267985343933e-02 -5.776733905076980591e-02 -2.337104380130767822e-01 9.512871503829956055e-02 -1.658731251955032349e-01 -1.289538741111755371e-01 2.991510741412639618e-02 5.719312280416488647e-02 -1.377378124743700027e-02 1.706711761653423309e-02 -5.929433181881904602e-02 2.273821271955966949e-02 1.875393465161323547e-02 1.063676849007606506e-01 -1.413927823305130005e-01 -4.036204144358634949e-02 1.831771880388259888e-01 -2.782973647117614746e-01 7.805883884429931641e-02 1.174013875424861908e-02 -2.637766115367412567e-02 -3.741289302706718445e-02 -8.418224006891250610e-02 -1.660674996674060822e-02 -2.455972693860530853e-02 3.326456248760223389e-02 -2.244381457567214966e-01 1.855384744703769684e-02 1.083151176571846008e-01 -2.266929745674133301e-01 4.710917547345161438e-02 -3.255292028188705444e-02 -9.934193640947341919e-02 -1.175412721931934357e-02 3.174675256013870239e-02 -8.647767454385757446e-02 1.693283021450042725e-02 -1.422039866447448730e-01 -2.647887915372848511e-03 -1.021250337362289429e-01 -1.873062551021575928e-02 -1.418111287057399750e-02 8.759525604546070099e-03 -4.708588868379592896e-02 5.913751199841499329e-02 1.441681478172540665e-02 1.011449024081230164e-01 -9.659805893898010254e-02 -1.434912532567977905e-01 -6.638849619776010513e-03 3.106609173119068146e-02 -1.533904969692230225e-01 3.658808395266532898e-02 -1.450213342905044556e-01 -1.945221126079559326e-01 -1.511988192796707153e-01 -1.666464209556579590e-01 7.496863603591918945e-02 -2.961975708603858948e-02 9.016646444797515869e-02 -1.771919615566730499e-02 1.323509067296981812e-01 -7.744418829679489136e-02 2.781661413609981537e-02 4.252289980649948120e-02 1.063962429761886597e-01 -1.832492947578430176e-01 -3.227765113115310669e-02 -1.069935038685798645e-01 4.562675207853317261e-02 -2.270711809396743774e-01 -1.279169172048568726e-01 1.002595480531454086e-02 -2.363287843763828278e-02 1.323417872190475464e-01 -3.340175747871398926e-02 -1.576453447341918945e-01 4.676024895161390305e-03 4.957821220159530640e-02 -9.497962892055511475e-02 -9.492531418800354004e-02 -5.938485264778137207e-02 1.511438097804784775e-02 -5.179384723305702209e-02 -9.330862015485763550e-02 -1.546958237886428833e-01 3.595751896500587463e-02 -8.536263555288314819e-02 -1.110144257545471191e-01 -3.235062211751937866e-02 -2.410941757261753082e-02 -4.045695811510086060e-02 -3.010015003383159637e-02 -8.386471122503280640e-02 -2.656592130661010742e-01 -2.081061899662017822e-02 1.206253422424197197e-03 -1.883974857628345490e-02 -3.667800873517990112e-02 -1.160498708486557007e-02 -2.152746617794036865e-01 -1.891704834997653961e-02 -1.282251626253128052e-01 -1.027373671531677246e-01 2.538315951824188232e-02 7.211930351331830025e-04 -8.207269012928009033e-02 8.062089234590530396e-02 3.902527317404747009e-02 -9.795185923576354980e-02 1.298109591007232666e-01 -1.639578491449356079e-01 -1.426899284124374390e-01 2.101234532892704010e-02 -1.727944612503051758e-02 3.199722245335578918e-02 -5.227114632725715637e-02 -1.931950002908706665e-01 5.970276519656181335e-02 -2.335899695754051208e-02 1.649693399667739868e-01 1.221393048763275146e-01 -1.942593902349472046e-01 -9.544750303030014038e-02 -1.048475205898284912e-01 -1.118269637227058411e-01 8.114646375179290771e-02 -9.204342961311340332e-03 -2.014175057411193848e-01 7.223776727914810181e-02 2.598818391561508179e-02 -2.061060070991516113e-02 3.821783140301704407e-02 3.394139558076858521e-02 -1.900695711374282837e-01 -6.207481399178504944e-02 -1.671598106622695923e-01 -1.922540515661239624e-01 -1.160169616341590881e-01 1.112045720219612122e-01 -1.008448973298072815e-01 -6.635469384491443634e-03 -3.759232535958290100e-02 6.730521563440561295e-03 -1.172272786498069763e-01 -9.081835858523845673e-03 -2.449670881032943726e-01 4.377743974328041077e-02 -7.856145501136779785e-02 2.921762131154537201e-02 -2.861777693033218384e-02 4.042157437652349472e-03 -1.932190507650375366e-01 2.871904522180557251e-02 1.588313840329647064e-02 -1.058631315827369690e-01 -2.487002760171890259e-01 6.454273313283920288e-02 1.071184203028678894e-01 -2.093954682350158691e-01 -4.250752553343772888e-02 9.513135999441146851e-02 6.568503379821777344e-02 2.187540009617805481e-02 -1.358022633939981461e-02 9.366272389888763428e-02 -1.467489153146743774e-01 -1.363031417131423950e-01 -8.025330305099487305e-02 -1.951379776000976562e-01 -1.618056595325469971e-01 -4.403724893927574158e-02 6.704161316156387329e-02 -1.608915627002716064e-01 3.112957067787647247e-02 -1.341681182384490967e-01 -8.313433080911636353e-02 -1.631215363740921021e-01 -6.850415468215942383e-02 8.978909999132156372e-02 8.640228211879730225e-02 3.775744512677192688e-02 2.410011924803256989e-02 -1.065641939640045166e-01 1.540715061128139496e-02 4.977948591113090515e-02 -1.396961212158203125e-01 -8.083099126815795898e-02 -9.573028981685638428e-02 1.677596569061279297e-02 -1.891590468585491180e-02 -1.341020688414573669e-02 -1.706828735768795013e-02 5.424165353178977966e-02 1.490559987723827362e-02 -2.877437472343444824e-01
-1.226767227053642273e-01 -2.635504603385925293e-01 4.922272637486457825e-02 1.997206956148147583e-01 -2.011545747518539429e-01 -1.232180893421173096e-01 -7.910678535699844360e-02 2.016244456171989441e-02 -3.119184374809265137e-01 2.172430511564016342e-03 -1.383558660745620728e-01 1.354042291641235352e-01 -1.273006200790405273e-01 1.435712724924087524e-01 1.257174313068389893e-01 1.009899079799652100e-01 8.049379102885723114e-03 2.183997929096221924e-01 5.293376371264457703e-02 3.052122332155704498e-02 -2.898972108960151672e-02 -3.401097655296325684e-02 -2.056813687086105347e-01 1.456908732652664185e-01 -1.804728507995605469e-01 2.024610042572021484e-01 3.351314663887023926e-01 -1.123214587569236755e-01 6.603787839412689209e-02 -1.932967826724052429e-02 1.232674270868301392e-01 -5.358830466866493225e-02 -2.910573780536651611e-01 3.958762390539050102e-04 -2.471932442858815193e-03 -1.882715672254562378e-01 8.165339939296245575e-03 -2.812238633632659912e-01 2.088523507118225098e-01 -3.625020012259483337e-02 2.341731637716293335e-01 -1.579582542181015015e-01 -4.670469835400581360e-02 1.813388019800186157e-01 -7.512600719928741455e-02 -1.619399487972259521e-01 -1.218592971563339233e-01 2.410348057746887207e-01 -1.183286495506763458e-02 -1.545714884996414185e-01 1.934746801853179932e-01 -2.248621731996536255e-01 -1.443431228399276733e-01 -8.442310243844985962e-02 -7.672364264726638794e-02 5.427026748657226562e-02 -1.700231432914733887e-01 1.789467632770538330e-01 2.739664912223815918e-01 2.668955624103546143e-01 -1.599261760711669922e-01 1.121510416269302368e-01 2.523735165596008301e-01 3.616659343242645264e-02 2.652666866779327393e-01 -1.817700713872909546e-01 -5.922236666083335876e-02 3.509553968906402588e-01 -1.437495946884155273e-01 -1.140640676021575928e-01 -1.305544972419738770e-01 2.520456612110137939e-01 1.214688792824745178e-01 2.686535716056823730e-01 1.350809186697006226e-01 -2.504389882087707520e-01 -8.914367109537124634e-02 -2.161615528166294098e-02 2.230324596166610718e-01 1.801130771636962891e-01 1.335238218307495117e-01 2.540368437767028809e-01 -2.336233407258987427e-01 2.547855079174041748e-01 -1.010115742683410645e-01 1.301095541566610336e-02 -1.641596406698226929e-01 2.555222511291503906e-01 -2.811430096626281738e-01 1.626787781715393066e-01 6.544987857341766357e-02 6.163041293621063232e-02 -2.273769080638885498e-01 3.617599979043006897e-02 -7.758311927318572998e-02 8.047921210527420044e-02 -2.516875974833965302e-02 1.862114071846008301e-01 -8.413652330636978149e-02 9.484186023473739624e-02 -5.079078674316406250e-02 4.028645902872085571e-02 -2.520483732223510742e-02 5.019358545541763306e-02 1.496800184249877930e-01 1.316908597946166992e-01 -2.003142386674880981e-01 -5.282648280262947083e-02 8.368314057588577271e-02 -4.473302513360977173e-02 7.469775155186653137e-03 -6.987088825553655624e-03 3.915086090564727783e-01 2.556328773498535156e-01 -3.794339001178741455e-01 -8.059889078140258789e-02 -6.350399553775787354e-02 -3.154378850013017654e-03 -2.391998022794723511e-01 -3.118622004985809326e-01 -4.352383017539978027e-01 1.545268744230270386e-01 7.090492639690637589e-03 -3.444707095623016357e-01 9.099853783845901489e-02 2.294069677591323853e-01 -6.823824346065521240e-02 -1.797183901071548462e-01 1.181295439600944519e-01 -3.191383928060531616e-02 1.342211067676544189e-01 8.978399634361267090e-02 1.074535027146339417e-01 -3.216605186462402344e-01 1.171791404485702515e-01 -3.517114743590354919e-02 1.358557306230068207e-02 -1.415718533098697662e-02 6.779759377241134644e-02 -6.457245349884033203e-02 1.045022234320640564e-01 2.056982219219207764e-01 2.711486816406250000e-01 3.156394660472869873e-01 4.622277244925498962e-02 -3.394630253314971924e-01 -6.854202598333358765e-02 1.812333427369594574e-02 -2.457867190241813660e-02 -3.037786185741424561e-01 -7.528134435415267944e-02 2.676122188568115234e-01 2.779958248138427734e-01 -4.805936291813850403e-02 2.120385915040969849e-01 -6.251677125692367554e-02 2.491705119609832764e-01 -1.381809413433074951e-01 2.874130308628082275e-01 3.186101838946342468e-02 2.247137278318405151e-01 -1.372367143630981445e-01 6.306645274162292480e-02 -1.011084839701652527e-01 -9.480115026235580444e-03 -5.933586508035659790e-02 1.081321481615304947e-02 -1.350318938493728638e-01 -1.290082931518554688e-01 -1.073411549441516399e-03 -4.295403882861137390e-02 3.571040555834770203e-02 -1.013148054480552673e-01 1.601815521717071533e-01 -1.254407316446304321e-01 2.196685969829559326e-02 1.307953745126724243e-01 -5.223353952169418335e-02 -1.816552877426147461e-01 1.971668004989624023e-01 -7.881119102239608765e-02 1.142003834247589111e-01 -3.243756294250488281e-01 -1.126642152667045593e-01 -5.107385292649269104e-02 -1.485686749219894409e-01 1.104357019066810608e-01 2.147951908409595490e-02 7.489731162786483765e-02 -2.933834791183471680e-01 -1.014878302812576294e-01 -4.412820190191268921e-02 -3.885792568325996399e-03 4.667032137513160706e-02 -2.967769801616668701e-01 -5.039950832724571228e-02 1.112127304077148438e-01 -3.631301820278167725e-01 1.109949424862861633e-01 -2.492176592350006104e-01 -2.300195842981338501e-01 4.924590587615966797e-01 6.400218605995178223e-02 1.489293575286865234e-02 4.337063804268836975e-02 5.294316913932561874e-03 -2.243178039789199829e-01 -1.999293267726898193e-02 1.929607242345809937e-01 3.742119669914245605e-02 1.183646470308303833e-01 -1.680236011743545532e-01 -5.698829144239425659e-02 1.928642839193344116e-01 9.666143357753753662e-02 -6.167595088481903076e-02 2.139544859528541565e-02 -1.545033007860183716e-01 -1.040593832731246948e-01 3.098607361316680908e-01 -2.059371769428253174e-01 -3.227013647556304932e-01 4.006676748394966125e-02 -9.275580197572708130e-02 -1.468587368726730347e-01 2.950787246227264404e-01 2.068457454442977905e-01 -9.617779403924942017e-02 -1.186272874474525452e-01 -1.810598373413085938e-01 -1.322243958711624146e-01 -3.775409609079360962e-02 3.631143644452095032e-02 -5.031291022896766663e-02 -2.255040705204010010e-01 1.582049131393432617e-01 5.676685646176338196e-02 -2.712484896183013916e-01 1.336750239133834839e-01 -5.867202579975128174e-02 3.284525871276855469e-01 -7.231012731790542603e-02 8.304914087057113647e-02 -1.293124258518218994e-01 7.912294566631317139e-02 -1.187664270401000977e-01 3.005394339561462402e-01 -2.826295197010040283e-01 -1.874167919158935547e-01 -2.514255000278353691e-03 -4.993358626961708069e-02 9.903835505247116089e-02 -3.351637721061706543e-02 -1.358613818883895874e-01 -4.570460692048072815e-02 -1.056743785738945007e-01
6.881647557020187378e-02 -7.905744761228561401e-02 1.097284033894538879e-01 -2.591440221294760704e-03 2.803214825689792633e-02 -7.888329774141311646e-02 6.306888163089752197e-02 -3.337037563323974609e-02 -1.043979153037071228e-01 -1.447195410728454590e-01 3.786216676235198975e-02 -8.093313127756118774e-02 -5.893071368336677551e-02 -8.110636472702026367e-02 -1.478731036186218262e-01 -1.123410388827323914e-01 -9.198983758687973022e-02 -3.988102450966835022e-02 -9.555223584175109863e-02 -1.718752384185791016e-01 -1.935986243188381195e-02 -8.179114758968353271e-02 -1.329305619001388550e-01 3.860463201999664307e-02 5.182406306266784668e-02 -2.192282080650329590e-01 1.832584291696548462e-02 -6.229217723011970520e-02 -2.612534165382385254e-01 -1.600427776575088501e-01 -1.630419194698333740e-01 1.412412077188491821e-01 -5.014166980981826782e-02 1.281500607728958130e-01 -5.742500722408294678e-02 5.351209267973899841e-02 -2.064793556928634644e-02 3.406684473156929016e-02 -3.382650017738342285e-01 -7.751401513814926147e-02 -6.190215796232223511e-02 1.887072436511516571e-02 -1.843658834695816040e-01 -9.433750063180923462e-02 -5.542553961277008057e-02 -1.238577663898468018e-01 -4.780069738626480103e-02 -2.486177533864974976e-02 -1.156020835041999817e-01 -3.301446437835693359e-01 -6.178268790245056152e-02 -2.289374731481075287e-02 -1.682335510849952698e-03 -2.151388227939605713e-01 -2.499298006296157837e-01 -1.644647866487503052e-01 -1.640091389417648315e-01 -2.011301554739475250e-02 5.320234922692179680e-04 1.561663765460252762e-02 1.416951119899749756e-01 -2.677040696144104004e-01 2.609752118587493896e-02 -8.967100083827972412e-02 8.836337924003601074e-02 1.258624494075775146e-01 -1.139868050813674927e-01 -4.402468726038932800e-02 -2.805251777172088623e-01 -1.144983470439910889e-01 -1.337087303400039673e-01 -3.823023289442062378e-02 4.988604411482810974e-02 4.777726903557777405e-02 -2.949820458889007568e-01 -6.273835897445678711e-02 4.555866122245788574e-02 -2.413103133440017700e-01 -4.300532490015029907e-02 -5.308024957776069641e-02 -1.805223971605300903e-01 -1.966858059167861938e-01 1.518411636352539062e-01 -1.503952592611312866e-01 -7.975422590970993042e-02 -8.627036958932876587e-02 -2.020004019141197205e-02 1.061992198228836060e-01 5.985045433044433594e-02 -2.173042297363281250e-02 3.872888535261154175e-02 -1.327647417783737183e-01 -3.842501342296600342e-01 -9.943971037864685059e-02 1.691147312521934509e-02 9.969446808099746704e-02 -2.759428322315216064e-01 1.506311148405075073e-01 1.175176873803138733e-01 8.146733790636062622e-02 6.890561431646347046e-03 -5.924851819872856140e-02 1.795134246349334717e-01 1.217052787542343140e-01 -1.583177894353866577e-01 1.315263062715530396e-01 1.026755850762128830e-02 -1.110012605786323547e-01 1.700875461101531982e-01 1.357181183993816376e-02 2.549266209825873375e-03 -9.057039767503738403e-02 1.233846694231033325e-02 -2.089593112468719482e-01 -1.517750471830368042e-01 1.097032502293586731e-01 -1.906800270080566406e-01 -1.374980360269546509e-01 9.526406647637486458e-04 -1.277466863393783569e-01 -5.961024388670921326e-02 5.993868783116340637e-02 1.198588684201240540e-01 -1.793857514858245850e-01 -4.314919561147689819e-02 -6.290306802839040756e-03 -3.065167665481567383e-01 -8.593083918094635010e-02 -1.086085140705108643e-01 1.549341622740030289e-02 -8.793851733207702637e-02 -4.877701774239540100e-02 -1.590823871083557606e-03 -4.034549891948699951e-01 -2.186853736639022827e-01 -2.168146073818206787e-01 -5.587163940072059631e-02 -1.197888031601905823e-01 9.210149757564067841e-03 -4.288101792335510254e-01 -2.535592764616012573e-02 -7.591465860605239868e-02 -1.976352781057357788e-01 5.175380781292915344e-02 -2.984542846679687500e-01 -1.562979370355606079e-01 -6.124679371714591980e-02 9.282197803258895874e-02 -2.257056348025798798e-02 -1.123097613453865051e-01 -8.695154637098312378e-02 5.223497748374938965e-02 -2.490205317735671997e-01 -8.412617444992065430e-02 -9.395632892847061157e-02 -4.853197932243347168e-02 1.080658659338951111e-01 -1.339054256677627563e-01 4.109332337975502014e-02 1.751415431499481201e-01 -8.700389415025711060e-02 1.741656213998794556e-01 -3.022211492061614990e-01 -1.670388877391815186e-02 -1.665076911449432373e-01 9.122467786073684692e-02 -3.632970899343490601e-02 -1.490536034107208252e-01 2.521926760673522949e-01 -1.419935673475265503e-01 4.389324411749839783e-02 1.905114352703094482e-01 1.073638349771499634e-01 7.611314207315444946e-02 -1.007184907793998718e-01 5.162069201469421387e-02 1.044043675065040588e-01 -1.023213416337966919e-01 -1.451219916343688965e-01 -4.654913395643234253e-02 1.684906631708145142e-01 -1.745445132255554199e-01 9.106329083442687988e-02 -6.852708011865615845e-02 -2.958080358803272247e-02 -5.455777049064636230e-02 -1.454858183860778809e-01 -4.886813461780548096e-02 -8.649405092000961304e-03 -3.060749918222427368e-02 -3.497385606169700623e-02 4.091122373938560486e-02 -1.243979260325431824e-01 -1.194612011313438416e-01 -1.555228233337402344e-01 -2.271926999092102051e-01 8.281615376472473145e-02 7.498423755168914795e-02 1.670004725456237793e-01 1.309288889169692993e-01 -2.730098962783813477e-01 -3.991333767771720886e-02 4.953684657812118530e-02 -1.173151656985282898e-01 -1.415146887302398682e-01 2.013045735657215118e-02 1.834134459495544434e-01 -2.466666698455810547e-01 1.666751950979232788e-01 -1.076363474130630493e-01 -1.795348078012466431e-01 -4.298129305243492126e-02 -1.218094974756240845e-01 9.834960848093032837e-02 -9.924080222845077515e-02 2.164298435673117638e-03 -4.002547636628150940e-02 -1.045433431863784790e-01 7.367125153541564941e-02 -9.284606575965881348e-02 -7.091038394719362259e-03 8.733522146940231323e-03 -3.284241855144500732e-01 -8.375093340873718262e-02 9.974294342100620270e-03 -1.297825276851654053e-01 -1.475480291992425919e-02 -4.290424287319183350e-02 2.216181159019470215e-01 -7.157452404499053955e-02 1.156538724899291992e-01 -1.448416858911514282e-01 -1.614465266466140747e-01 3.535640612244606018e-02 1.505950987339019775e-01 -3.574120625853538513e-02 1.724649779498577118e-02 -4.694052040576934814e-03 -2.530168294906616211e-01 1.459857374429702759e-01 1.366800516843795776e-01 -7.559158653020858765e-02 -1.105876732617616653e-02 3.155842125415802002e-01 -5.036287475377321243e-03 9.215111285448074341e-02 -5.119927227497100830e-03 7.861717045307159424e-02 1.473851799964904785e-01 -8.946086466312408447e-02 8.588847517967224121e-02 -1.444040685892105103e-01 -2.013149112462997437e-01 -4.923800006508827209e-02 -1.086847260594367981e-01 -1.007080897688865662e-01
7.849606126546859741e-02 1.332851499319076538e-01 1.987739056348800659e-01 -9.266509115695953369e-02 1.699947863817214966e-01 2.527770772576332092e-02 2.050383538007736206e-01 -3.443970158696174622e-02 -1.108103767037391663e-01 -1.020407676696777344e-02 9.155876934528350830e-02 -2.218764871358871460e-01 -1.292067114263772964e-02 2.493084035813808441e-02 -6.583949178457260132e-02 -9.907581657171249390e-02 -1.456455439329147339e-01 -1.425229310989379883e-01 -2.230000197887420654e-01 8.052805811166763306e-02 -1.808582842350006104e-01 -3.643059730529785156e-02 5.896144732832908630e-02 7.295542210340499878e-02 -1.463906094431877136e-02 -6.495670229196548462e-02 2.983508408069610596e-01 5.784343555569648743e-02 -1.495100855827331543e-01 -1.875396221876144409e-01 3.131942749023437500e-01 -1.557964384555816650e-01 1.220857799053192139e-01 9.497717022895812988e-02 -5.317643284797668457e-02 -2.846904285252094269e-02 1.907016336917877197e-01 -8.114051818847656250e-02 1.661413758993148804e-01 1.777060925960540771e-01 -1.950693726539611816e-01 -4.943884909152984619e-02 -1.280433535575866699e-01 1.322742253541946411e-01 -1.175880804657936096e-01 1.163529697805643082e-02 -1.692746281623840332e-01 2.508426308631896973e-01 3.970625624060630798e-02 -1.644660383462905884e-01 -1.305308490991592407e-01 3.740197047591209412e-02 6.241991743445396423e-02 -1.168270409107208252e-01 -1.163653284311294556e-01 1.180936861783266068e-02 2.476253956556320190e-01 1.111335679888725281e-02 -7.804229110479354858e-02 -1.929687559604644775e-01 -5.327167734503746033e-02 3.547022491693496704e-02 1.642580702900886536e-02 -1.507836021482944489e-02 2.007199376821517944e-01 3.022292852401733398e-01 -1.259486470371484756e-02 -3.046032488346099854e-01 -5.343284830451011658e-02 -1.757251173257827759e-01 -7.316789776086807251e-02 -4.706941545009613037e-02 -7.068122178316116333e-02 5.215925350785255432e-02 4.764939099550247192e-02 4.598417505621910095e-02 3.741940855979919434e-02 1.399084031581878662e-01 2.526031807065010071e-03 -5.555940419435501099e-02 1.446783840656280518e-01 6.501720100641250610e-02 -1.726463735103607178e-01 1.738719940185546875e-01 -2.358523607254028320e-01 -7.416693121194839478e-02 -1.662300825119018555e-01 3.333895802497863770e-01 -3.310498083010315895e-03 1.108226832002401352e-02 4.554729908704757690e-02 4.082714617252349854e-01 8.135883510112762451e-02 -1.003505662083625793e-01 -1.483536958694458008e-01 -4.886861518025398254e-02 1.289478689432144165e-01 1.536938846111297607e-01 -3.966446518898010254e-01 9.483616799116134644e-02 2.205623500049114227e-02 -3.218323737382888794e-02 -3.216712269932031631e-03 -9.254635870456695557e-02 2.969336211681365967e-01 1.330546196550130844e-02 9.020380675792694092e-03 4.921985417604446411e-02 -2.533144950866699219e-01 -3.987988829612731934e-02 4.538349434733390808e-02 -8.829800412058830261e-03 7.539187371730804443e-02 2.051244080066680908e-01 -1.629050374031066895e-01 5.210816115140914917e-02 5.905324127525091171e-03 1.394215524196624756e-01 -3.531673550605773926e-02 -1.546323858201503754e-02 -2.789145410060882568e-01 -2.220496833324432373e-01 8.842882513999938965e-02 -8.940330008044838905e-04 2.123472094535827637e-02 -2.653830945491790771e-01 2.120100855827331543e-01 1.877699606120586395e-02 1.867496222257614136e-01 1.525649577379226685e-01 -1.943451315164566040e-01 -3.831896558403968811e-02 1.046894490718841553e-02 -8.273052424192428589e-02 -1.271259337663650513e-01 5.047048628330230713e-02 7.845098525285720825e-02 -4.792084544897079468e-02 2.009742520749568939e-02 1.600712984800338745e-01 1.530744414776563644e-02 1.859752535820007324e-01 -2.029668390750885010e-01 -2.342026531696319580e-01 3.302251547574996948e-02 -2.433479875326156616e-01 -1.103643998503684998e-01 1.270672976970672607e-01 1.523550413548946381e-02 -5.968679208308458328e-03 1.118010506033897400e-01 -3.794609382748603821e-02 -2.048945426940917969e-02 5.625839531421661377e-02 -1.943974755704402924e-02 -1.624304801225662231e-01 4.526516050100326538e-02 -6.166345626115798950e-02 1.625508964061737061e-01 -5.801367014646530151e-02 2.036389708518981934e-01 -5.167398136109113693e-03 1.072836890816688538e-01 3.097423538565635681e-02 2.259831577539443970e-01 1.235936880111694336e-01 -1.176141723990440369e-01 9.993191063404083252e-02 -7.910472154617309570e-02 -3.248217105865478516e-01 -7.425659894943237305e-02 -2.267086412757635117e-03 2.644450869411230087e-03 1.199107766151428223e-01 1.162202470004558563e-02 3.957424685359001160e-02 4.662326723337173462e-02 -2.207735627889633179e-01 -5.335603654384613037e-02 -1.337065100669860840e-01 -3.850753903388977051e-01 -1.157289668917655945e-01 -9.816551208496093750e-02 5.389999598264694214e-03 -1.853563189506530762e-01 3.392558693885803223e-01 2.613599002361297607e-01 9.322375804185867310e-02 1.862610578536987305e-01 -7.127073407173156738e-02 1.299009174108505249e-01 -1.082500591874122620e-01 6.368169933557510376e-02 8.396314829587936401e-02 -3.061081841588020325e-02 -8.399663865566253662e-02 -1.838968992233276367e-01 1.920630782842636108e-01 5.962758138775825500e-02 -3.861575201153755188e-02 1.631352305412292480e-01 -1.797036826610565186e-01 -1.560483574867248535e-01 -1.920801997184753418e-01 1.540617737919092178e-02 6.917058676481246948e-02 -5.510022863745689392e-02 1.112994626164436340e-01 -2.200912088155746460e-01 -8.648592978715896606e-02 -1.443064659833908081e-01 -4.509504139423370361e-02 -5.952895432710647583e-02 -1.964082419872283936e-01 3.702794015407562256e-02 -2.368336468935012817e-01 1.442876644432544708e-02 2.147095650434494019e-02 -3.409124165773391724e-02 -1.239767447113990784e-01 -7.448796182870864868e-02 -2.108772099018096924e-01 -7.503093034029006958e-02 -9.238531440496444702e-02 -8.062818646430969238e-02 4.274099320173263550e-02 5.190326571464538574e-01 3.095683455467224121e-02 -5.828012898564338684e-02 1.521034240722656250e-01 -1.234143674373626709e-01 -7.318034768104553223e-02 3.866210877895355225e-01 1.343751996755599976e-01 1.901049911975860596e-01 -1.116818264126777649e-01 2.040145695209503174e-01 1.299177855253219604e-01 2.290996313095092773e-01 -1.753052920103073120e-01 6.787215173244476318e-02 1.662518978118896484e-01 4.303630441427230835e-02 -3.292638957500457764e-01 -1.459876447916030884e-01 1.200540289282798767e-01 -1.860053986310958862e-01 -1.180510520935058594e-01 2.888799458742141724e-02 2.475640028715133667e-01 1.490666419267654419e-01 2.768889367580413818e-01 3.366340696811676025e-01 -2.153493277728557587e-02 2.092058211565017700e-01 -1.437384784221649170e-01
-2.386008761823177338e-02 7.870596647262573242e-02 8.160340040922164917e-02 -1.294635087251663208e-01 2.036519348621368408e-01 -4.974706470966339111e-02 -1.975958049297332764e-01 1.410829573869705200e-01 2.284855814650654793e-03 -7.490932941436767578e-02 -9.084541350603103638e-02 -6.335042417049407959e-02 -2.349436879158020020e-01 8.941569924354553223e-02 2.329741418361663818e-01 -3.838678076863288879e-02 5.706688389182090759e-02 -3.566483259201049805e-01 -1.375274211168289185e-01 3.385612508282065392e-03 4.643438756465911865e-02 2.533208206295967102e-02 7.411275804042816162e-02 -1.079739034175872803e-01 4.437147453427314758e-02 1.735182665288448334e-02 -5.099636688828468323e-02 8.918331563472747803e-02 8.893606811761856079e-02 6.564680486917495728e-02 2.700824737548828125e-01 -3.522489964962005615e-01 4.728866368532180786e-02 4.147341474890708923e-02 -8.338687568902969360e-02 -2.646877765655517578e-01 -1.133490949869155884e-01 -8.867395669221878052e-02 3.126973509788513184e-01 1.530244499444961548e-01 -2.393341213464736938e-01 -7.957490533590316772e-02 3.022037632763385773e-02 -4.832603782415390015e-02 7.094975444488227367e-06 6.706660240888595581e-02 -1.069007590413093567e-01 1.253100037574768066e-01 1.333914101123809814e-01 1.671444922685623169e-01 1.728910803794860840e-01 -1.441069245338439941e-01 1.744963377714157104e-01 1.558654010295867920e-01 -2.032973319292068481e-01 -2.395491153001785278e-01 -1.210779696702957153e-01 -1.145996078848838806e-01 1.573156565427780151e-01 -1.566273868083953857e-01 -2.260325849056243896e-01 7.000918965786695480e-03 -5.045204609632492065e-02 1.394338011741638184e-01 3.243643790483474731e-02 -3.905853955075144768e-03 -2.481598705053329468e-01 -1.115142926573753357e-01 2.396358177065849304e-02 -5.534973740577697754e-02 1.816997490823268890e-02 -1.490922421216964722e-01 1.476916372776031494e-01 -9.810798615217208862e-02 1.179808080196380615e-01 -1.346053481101989746e-01 -3.959125578403472900e-01 -1.791456937789916992e-01 1.098244711756706238e-01 5.853164568543434143e-02 -2.150601707398891449e-02 2.521752417087554932e-01 -4.051629006862640381e-01 -1.571046747267246246e-02 -2.101897150278091431e-01 -2.131610065698623657e-01 -9.596747159957885742e-02 4.952219128608703613e-02 -3.475910425186157227e-01 1.549257040023803711e-01 -9.199868887662887573e-03 1.518606990575790405e-01 2.968672430142760277e-03 1.162829399108886719e-01 -1.934786289930343628e-01 -6.920771207660436630e-03 -2.874541282653808594e-01 -2.242078445851802826e-02 -3.670057952404022217e-01 -4.020621627569198608e-02 4.783479496836662292e-02 2.385740131139755249e-01 -3.381074666976928711e-01 -9.947383403778076172e-02 2.354687452316284180e-01 -4.257388785481452942e-02 -1.337106078863143921e-01 9.063423424959182739e-02 -2.528874762356281281e-02 6.664092838764190674e-02 -4.679249525070190430e-01 -7.561630010604858398e-02 -5.594403669238090515e-02 2.611750066280364990e-01 -1.769590377807617188e-01 1.938495486974716187e-01 -5.984812974929809570e-02 5.790703296661376953e-01 -1.671318411827087402e-01 5.092310905456542969e-02 -8.652394637465476990e-03 -6.361796520650386810e-03 -2.286249548196792603e-01 -1.340691298246383667e-01 7.326885312795639038e-02 1.165749132633209229e-01 -7.758179679512977600e-03 1.162366382777690887e-02 -2.443796023726463318e-02 -6.110517308115959167e-02 1.606877297163009644e-01 6.746146082878112793e-02 -1.068923622369766235e-01 1.386633068323135376e-01 7.583693414926528931e-02 -1.424299329519271851e-01 1.451529711484909058e-01 4.326007142663002014e-02 1.653976887464523315e-01 1.242048963904380798e-01 2.419525682926177979e-01 -7.663134485483169556e-03 9.926935285329818726e-02 -5.692879110574722290e-02 9.629533439874649048e-02 -1.703129410743713379e-01 2.702264189720153809e-01 3.301341086626052856e-02 -1.763073652982711792e-01 5.661827046424150467e-03 -1.293200999498367310e-01 2.562614679336547852e-01 1.735879778861999512e-01 -1.262796968221664429e-01 1.213807463645935059e-01 -1.104598417878150940e-01 7.128098048269748688e-03 1.088934540748596191e-01 2.525650262832641602e-01 6.726250797510147095e-02 -4.332693293690681458e-02 -3.445037901401519775e-01 -3.806747123599052429e-02 7.899903506040573120e-02 1.261532753705978394e-01 -2.316769957542419434e-01 8.733394742012023926e-02 -1.151543185114860535e-01 -3.016835451126098633e-02 -3.629998490214347839e-02 -2.314731711521744728e-03 -1.723482608795166016e-01 -7.270265370607376099e-02 -2.272532582283020020e-01 -3.770012557506561279e-01 -1.308802068233489990e-01 3.400963544845581055e-02 1.059359237551689148e-01 -3.039741329848766327e-02 -6.143860891461372375e-02 -2.613453269004821777e-01 -2.576964795589447021e-01 -3.514761105179786682e-02 2.668282985687255859e-01 -1.708155721426010132e-01 1.585405617952346802e-01 -1.205861940979957581e-02 6.891053915023803711e-02 -1.789494901895523071e-01 -4.653061330318450928e-01 1.369493827223777771e-02 1.458939909934997559e-01 9.742206335067749023e-02 1.625472307205200195e-01 -1.051186248660087585e-01 -4.549030214548110962e-02 5.548544973134994507e-02 3.058541752398014069e-02 2.084093634039163589e-03 1.808574795722961426e-02 -9.774620831012725830e-02 -2.010061889886856079e-01 -1.516641378402709961e-01 9.076495654881000519e-03 -1.048134081065654755e-02 -1.846199184656143188e-01 -8.602962642908096313e-02 -2.552832961082458496e-01 -1.743592694401741028e-02 6.775932013988494873e-02 8.252861350774765015e-02 -1.629294641315937042e-02 -8.022914826869964600e-02 -9.468737989664077759e-02 -7.329802960157394409e-02 2.228133194148540497e-02 -9.565585106611251831e-02 2.219562977552413940e-01 -1.645207405090332031e-01 -1.751821190118789673e-01 -1.417962163686752319e-01 -1.489979326725006104e-01 -8.018145710229873657e-02 7.472379505634307861e-02 -1.770988702774047852e-01 2.299968749284744263e-01 4.137161672115325928e-01 -8.758209645748138428e-02 -1.104833744466304779e-02 2.322402745485305786e-01 -1.961667984724044800e-01 2.764963507652282715e-01 1.157672405242919922e-01 -5.319868400692939758e-02 -9.316208958625793457e-02 -1.272879242897033691e-01 -2.156683057546615601e-01 -1.092736236751079559e-02 1.461201608180999756e-01 1.394148468971252441e-01 -3.126660585403442383e-01 5.253085494041442871e-02 1.376831084489822388e-01 -7.386635988950729370e-02 -2.325424551963806152e-01 -7.525380235165357590e-03 4.915753751993179321e-02 -1.492956131696701050e-01 -1.554704159498214722e-01 1.385401636362075806e-01 2.119214832782745361e-01 9.777393192052841187e-02 2.065367996692657471e-01 1.036853343248367310e-01 2.158498913049697876e-01 1.250725984573364258e-01
2.217653691768646240e-01 -1.891605854034423828e-01 1.040680240839719772e-02 -6.530217826366424561e-02 -2.434154450893402100e-01 2.361457198858261108e-01 -8.452959358692169189e-02 1.363400071859359741e-01 2.056769579648971558e-01 8.730109035968780518e-02 -1.416691690683364868e-01 1.416966766119003296e-01 1.690994948148727417e-01 -2.527717649936676025e-01 -1.576268374919891357e-01 -3.761896491050720215e-02 2.009966969490051270e-01 -3.037288188934326172e-01 9.939675778150558472e-02 1.947726011276245117e-01 -2.134886533021926880e-01 1.444855034351348877e-01 -1.306027770042419434e-01 -2.575718462467193604e-01 3.760010004043579102e-02 2.790447091683745384e-03 -1.865005046129226685e-01 -1.524966657161712646e-01 1.655503958463668823e-01 -2.952115237712860107e-02 9.110358357429504395e-02 -2.701893746852874756e-01 -1.486223340034484863e-01 1.029976904392242432e-01 -2.142209410667419434e-01 -2.093792520463466644e-02 -1.419032365083694458e-01 8.531203866004943848e-02 8.441459387540817261e-02 -5.334639921784400940e-02 9.060185402631759644e-02 1.134039387106895447e-01 -1.740397661924362183e-01 3.699951767921447754e-01 -2.218012362718582153e-01 3.751048743724822998e-01 -1.037938296794891357e-01 1.379848867654800415e-01 2.137122899293899536e-01 -1.048650294542312622e-01 4.768678545951843262e-02 1.977748572826385498e-01 5.582988262176513672e-02 1.557391881942749023e-01 -6.919755041599273682e-02 -6.226327270269393921e-02 4.168752953410148621e-02 -7.927829772233963013e-02 -5.896884948015213013e-02 -9.185130149126052856e-02 -3.786421120166778564e-01 -1.434214133769273758e-02 1.517709046602249146e-01 1.284997016191482544e-01 6.354289501905441284e-02 -1.500003635883331299e-01 -3.265404701232910156e-01 -3.153696190565824509e-03 -1.195268407464027405e-01 3.418640792369842529e-01 4.358931258320808411e-02 7.934838533401489258e-02 -9.888681583106517792e-03 -2.569201290607452393e-01 -5.242369323968887329e-02 3.201191425323486328e-01 -2.867613732814788818e-01 -1.007572785019874573e-01 1.263973712921142578e-01 -4.013584181666374207e-02 -3.098154440522193909e-02 2.686351537704467773e-01 1.498096585273742676e-01 -1.101461276412010193e-01 6.613715738058090210e-02 2.211570143699645996e-01 -3.796777501702308655e-02 7.351259142160415649e-02 -3.445822745561599731e-02 1.364037245512008667e-01 -1.825841516256332397e-01 -2.182450890541076660e-01 1.269405484199523926e-01 2.068220376968383789e-01 1.700610369443893433e-01 -2.744224667549133301e-01 2.681125700473785400e-01 -2.132198512554168701e-01 -7.539422810077667236e-02 -4.427201300859451294e-02 4.260899871587753296e-02 1.396328955888748169e-01 -9.048556536436080933e-02 -2.086748331785202026e-01 -5.285098403692245483e-02 -1.870828568935394287e-01 2.247999906539916992e-01 7.477233558893203735e-02 -1.030498445034027100e-01 9.206490218639373779e-02 -2.426470369100570679e-01 -9.962761402130126953e-02 2.114886301569640636e-04 -6.486489623785018921e-02 2.817905247211456299e-01 4.344860613346099854e-01 1.199513450264930725e-01 -1.299025714397430420e-01 1.643941253423690796e-01 -5.318381264805793762e-02 -8.249081671237945557e-02 4.750426858663558960e-02 -2.567792534828186035e-01 -3.005817532539367676e-01 2.394596785306930542e-01 4.398892074823379517e-02 -2.170693576335906982e-01 6.890633702278137207e-02 1.651218384504318237e-01 -1.279546469449996948e-01 2.546488866209983826e-02 3.005896210670471191e-01 -7.464164495468139648e-02 -1.706579476594924927e-01 3.470831513404846191e-01 -8.254428207874298096e-02 4.074314981698989868e-02 -2.967972755432128906e-01 1.594193726778030396e-01 1.445007622241973877e-01 -2.198494672775268555e-01 -2.902916073799133301e-01 -1.490649878978729248e-01 2.511169016361236572e-01 -2.352697961032390594e-02 -1.037011891603469849e-01 3.153717517852783203e-01 1.434049755334854126e-01 -1.216847151517868042e-01 2.617979794740676880e-02 -1.309243775904178619e-02 6.369064748287200928e-02 7.316228467971086502e-03 -1.402927488088607788e-01 3.504214808344841003e-03 -1.561792492866516113e-01 1.155720278620719910e-01 -1.363224834203720093e-01 3.866729140281677246e-02 -5.709512159228324890e-02 -2.289906293153762817e-01 -1.315289139747619629e-01 -7.783950865268707275e-02 4.662842955440282822e-03 -8.489969372749328613e-02 1.010275036096572876e-01 -3.798896074295043945e-02 2.660153508186340332e-01 1.672552078962326050e-01 1.147649213671684265e-01 -7.504243403673171997e-02 8.555595576763153076e-02 1.860617101192474365e-01 -2.947446405887603760e-01 6.150802224874496460e-02 -2.620050869882106781e-02 1.884396523237228394e-01 -1.102483347058296204e-01 -9.015074372291564941e-02 4.998195916414260864e-02 -1.216339785605669022e-02 1.111917383968830109e-02 2.441916167736053467e-01 2.243598178029060364e-02 2.670869976282119751e-02 3.121430575847625732e-01 -2.235909998416900635e-01 2.552450820803642273e-02 7.145099225454032421e-04 -2.165712714195251465e-01 -6.514500081539154053e-02 -3.317089974880218506e-01 2.614186108112335205e-01 1.325386464595794678e-01 -1.954340189695358276e-01 -1.253530085086822510e-01 6.668172031641006470e-02 2.662528455257415771e-01 -1.469572540372610092e-02 1.350169032812118530e-01 2.593534290790557861e-01 -1.023909598588943481e-01 -3.970340788364410400e-01 -1.551600843667984009e-01 -1.609939485788345337e-01 -6.548617035150527954e-02 -5.356035381555557251e-02 -2.126875519752502441e-01 -1.154659911990165710e-01 5.043478310108184814e-02 2.240299135446548462e-01 2.039896883070468903e-02 -8.052708953619003296e-02 1.080690771341323853e-01 2.169417440891265869e-01 1.832803487777709961e-01 2.271210253238677979e-01 3.074927031993865967e-01 1.130103021860122681e-01 -6.790139526128768921e-02 2.566896080970764160e-01 -1.128123477101325989e-01 -2.444568127393722534e-01 8.303355425596237183e-03 -3.072674572467803955e-02 5.557082220911979675e-02 -6.324603408575057983e-02 -4.287213832139968872e-02 -1.411527395248413086e-01 2.090916931629180908e-01 8.231677114963531494e-02 -2.833565771579742432e-01 -1.864974796772003174e-01 -2.454349398612976074e-01 -8.237463980913162231e-02 -7.031851261854171753e-02 -4.742773622274398804e-02 -2.816159650683403015e-02 6.739488989114761353e-02 -2.910420857369899750e-02 6.099453195929527283e-02 -1.267170161008834839e-01 1.403516829013824463e-01 1.298777163028717041e-01 -4.062715545296669006e-02 -5.498790368437767029e-02 3.120451699942350388e-03 1.510179340839385986e-01 -1.869675889611244202e-02 -7.613833528012037277e-03 9.277861565351486206e-02 1.382816880941390991e-01 6.995300762355327606e-03 2.296193242073059082e-01 5.618309974670410156e-02 2.020345628261566162e-01
6.909222900867462158e-02 7.699600607156753540e-02 -1.410711407661437988e-01 1.922371610999107361e-02 6.831332296133041382e-02 -1.803196407854557037e-02 1.278729643672704697e-02 6.057031825184822083e-02 3.398586064577102661e-02 1.274360250681638718e-02 -5.684694740921258926e-03 2.948062121868133545e-02 8.029051125049591064e-02 -1.247397661209106445e-01 -5.106291174888610840e-02 1.134458836168050766e-02 4.958784207701683044e-02 -1.135656237602233887e-01 -7.985908538103103638e-02 -7.797942310571670532e-02 -4.099708795547485352e-02 -1.095211654901504517e-01 6.306229531764984131e-02 -1.028229594230651855e-01 -1.509663928300142288e-02 6.539217382669448853e-02 -7.686828821897506714e-02 -6.936826556921005249e-02 -1.730111539363861084e-01 -1.858838051557540894e-01 -1.762417703866958618e-01 4.771307110786437988e-02 -8.166550844907760620e-02 -1.383021380752325058e-02 5.939318612217903137e-02 4.807175695896148682e-02 -6.099243089556694031e-02 -5.744409188628196716e-02 4.641872830688953400e-03 -1.816675662994384766e-01 -9.726564586162567139e-02 1.051308438181877136e-01 2.983815222978591919e-02 1.161132939159870148e-02 5.697731301188468933e-02 -1.261626034975051880e-01 -2.383960634469985962e-01 1.273012813180685043e-02 -1.323859989643096924e-01 -4.993199929594993591e-02 -5.711925774812698364e-02 -1.950664632022380829e-02 -1.319060027599334717e-01 1.508194357156753540e-01 2.393700629472732544e-01 6.907617300748825073e-02 -2.059018164873123169e-01 5.578362196683883667e-02 3.703773021697998047e-03 -3.554432094097137451e-02 -1.339881420135498047e-01 -1.382473856210708618e-01 -2.246433869004249573e-02 -1.379122734069824219e-01 -6.663295626640319824e-02 1.576988399028778076e-02 -3.509308025240898132e-02 -2.467818409204483032e-01 5.783969163894653320e-02 -1.616499125957489014e-01 1.013032533228397369e-02 5.090925842523574829e-02 8.273477666079998016e-03 4.319646954536437988e-02 -1.225643828511238098e-01 -1.306067556142807007e-01 -4.717407375574111938e-02 -1.435147505253553391e-02 -2.179324254393577576e-02 7.239627838134765625e-02 -6.841064989566802979e-02 -1.988699659705162048e-02 -1.101550925523042679e-02 -1.530822366476058960e-01 -7.914797216653823853e-02 -6.222546100616455078e-02 7.670781016349792480e-02 -1.497951615601778030e-02 -3.486583009362220764e-02 -6.817904114723205566e-02 6.412723660469055176e-02 -1.089751794934272766e-01 2.010862082242965698e-01 -6.725739687681198120e-02 -2.836695685982704163e-02 -1.371023207902908325e-01 -1.018279343843460083e-01 -2.471797168254852295e-01 -6.322274357080459595e-02 -2.495681867003440857e-02 3.818960860371589661e-02 -5.214305222034454346e-02 1.650952249765396118e-01 -4.672108590602874756e-02 -8.448231220245361328e-02 1.872907951474189758e-02 -1.193636804819107056e-01 2.696700021624565125e-02 -9.275940805673599243e-02 1.452100183814764023e-02 9.495925158262252808e-02 -1.719494462013244629e-01 -8.050858229398727417e-02 -5.315501615405082703e-02 -1.296860426664352417e-01 -2.835362963378429413e-02 1.571930795907974243e-01 -7.153613120317459106e-02 -8.634467422962188721e-02 4.755382239818572998e-02 1.845189183950424194e-02 2.729137800633907318e-02 -1.804316639900207520e-01 3.415295481681823730e-02 -1.816592663526535034e-01 -3.086793795228004456e-02 2.092239819467067719e-02 -5.158566683530807495e-02 -1.327663809061050415e-01 5.538726598024368286e-02 -9.270835667848587036e-02 -1.743004024028778076e-01 -2.622921764850616455e-01 3.758344054222106934e-02 -1.961086504161357880e-02 1.545745432376861572e-01 -5.220230668783187866e-02 9.320618957281112671e-02 -1.305218786001205444e-01 -1.793778501451015472e-02 8.200768381357192993e-02 -1.176292193122208118e-03 -1.648579239845275879e-01 2.933492958545684814e-01 -1.341350525617599487e-01 -2.002178505063056946e-02 -9.281321614980697632e-02 6.512902677059173584e-03 -2.319285869598388672e-01 6.272970885038375854e-02 5.960642173886299133e-02 -5.199743434786796570e-02 -4.162487387657165527e-02 -1.387746036052703857e-01 6.715811789035797119e-02 1.027986481785774231e-01 8.849042654037475586e-02 -3.013014048337936401e-02 -1.966184750199317932e-02 -1.162202432751655579e-01 -1.109573394060134888e-01 2.413484035059809685e-03 -2.963348105549812317e-02 5.298885330557823181e-02 -2.024311572313308716e-01 -9.597367793321609497e-02 3.257275745272636414e-02 -7.369247078895568848e-02 1.258953940123319626e-02 1.057977080345153809e-01 -5.567270144820213318e-02 1.893000900745391846e-01 -1.299621164798736572e-01 -1.550474613904953003e-01 9.096575528383255005e-02 -7.821289449930191040e-02 -2.183666825294494629e-02 1.280789822340011597e-01 -1.200617551803588867e-01 -2.180360108613967896e-01 -1.101824268698692322e-01 -7.683166861534118652e-02 1.095812674611806870e-02 -4.078939184546470642e-02 -3.836629539728164673e-02 3.807685896754264832e-02 -1.359236612915992737e-02 -1.138586923480033875e-02 -5.584340915083885193e-02 -1.712180525064468384e-01 4.892518371343612671e-02 1.205479651689529419e-01 -6.127053126692771912e-02 -4.733123257756233215e-02 -1.982791572809219360e-01 2.543796785175800323e-02 9.664534591138362885e-03 -3.295933827757835388e-02 -5.833991989493370056e-02 9.993986040353775024e-02 -1.468219161033630371e-01 -1.590912491083145142e-01 1.937393993139266968e-01 -9.072384238243103027e-02 4.689280316233634949e-02 9.282764792442321777e-02 -1.794174313545227051e-01 -1.457096636295318604e-01 8.262670040130615234e-02 -3.109587542712688446e-02 6.954566389322280884e-02 -9.936387091875076294e-02 -7.807311415672302246e-02 8.964813500642776489e-02 -1.249146983027458191e-01 -2.401735447347164154e-02 -7.417199760675430298e-02 -1.272437274456024170e-01 -8.227544836699962616e-03 -1.175926104187965393e-01 -9.032742679119110107e-02 4.150701686739921570e-03 -1.573574692010879517e-01 -2.362589724361896515e-02 1.482255607843399048e-01 -1.420842260122299194e-01 -3.733148425817489624e-02 8.878751844167709351e-02 1.990055292844772339e-01 -5.070849135518074036e-02 2.514471765607595444e-03 -1.547393798828125000e-01 -9.034760296344757080e-02 -1.052761301398277283e-01 1.567905396223068237e-02 -2.010873407125473022e-01 1.414940878748893738e-02 -8.669030666351318359e-02 -2.419118136167526245e-01 -1.365916989743709564e-02 6.975094228982925415e-02 -1.544556021690368652e-01 -3.879700601100921631e-02 -1.950188875198364258e-01 -1.043774858117103577e-01 -1.669180393218994141e-02 -7.318396866321563721e-02 7.437437772750854492e-02 -8.523565530776977539e-02 1.015581861138343811e-01 -3.107772767543792725e-02 -1.227966025471687317e-01 2.905947901308536530e-02 -1.483082473278045654e-01 -7.261881232261657715e-02 1.254991888999938965e-01
2.171405125409364700e-03 -7.819149643182754517e-02 -5.453680083155632019e-02 1.304569095373153687e-01 -1.981212645769119263e-01 -6.380823254585266113e-02 -2.676574885845184326e-01 4.763251543045043945e-02 -2.125307321548461914e-01 -1.119826808571815491e-01 -2.670744657516479492e-01 -2.289538085460662842e-02 -1.632574796676635742e-01 1.394730210304260254e-01 -5.689283832907676697e-02 3.806063160300254822e-02 1.869490742683410645e-02 7.497037202119827271e-02 -1.830776035785675049e-02 -2.624908685684204102e-01 -1.583263874053955078e-01 -1.953530162572860718e-01 -1.090492233633995056e-01 -6.649916060268878937e-03 -3.046607831493020058e-03 1.102990843355655670e-02 1.210577562451362610e-01 1.430668681859970093e-01 -1.391995251178741455e-01 -1.351082473993301392e-01 4.335914552211761475e-02 -1.882255971431732178e-01 -9.512894600629806519e-02 1.256245225667953491e-01 -2.130994945764541626e-01 -2.654593288898468018e-01 -2.432091534137725830e-01 -1.669441312551498413e-01 8.783882111310958862e-02 -1.731379888951778412e-02 -1.623323112726211548e-01 9.551258385181427002e-02 1.539218612015247345e-02 -3.410776257514953613e-01 -1.074113771319389343e-01 -8.405989035964012146e-03 -1.333189010620117188e-01 1.005390360951423645e-01 1.959314197301864624e-02 -2.720452249050140381e-01 -7.728134281933307648e-03 2.667947113513946533e-02 -8.114337176084518433e-02 -6.383430957794189453e-02 9.056279063224792480e-02 1.672603748738765717e-02 -5.653189495205879211e-02 -1.598960720002651215e-02 -1.693797111511230469e-02 -1.885173171758651733e-01 1.975074410438537598e-01 1.047311723232269287e-01 3.308871760964393616e-02 -1.927235722541809082e-01 4.829156771302223206e-02 -3.729682788252830505e-02 -1.685746163129806519e-01 -2.456397861242294312e-01 -7.328488677740097046e-02 -7.633861899375915527e-02 -2.138738781213760376e-01 1.119476780295372009e-01 7.744763046503067017e-02 -9.655492752790451050e-02 -3.609638214111328125e-01 1.304489076137542725e-01 -7.406402379274368286e-02 8.238960057497024536e-03 -9.663829207420349121e-02 -2.332115918397903442e-01 3.027028962969779968e-02 2.092373818159103394e-01 1.274038702249526978e-01 1.225734055042266846e-01 5.095664411783218384e-02 9.837072342634201050e-02 -4.526479542255401611e-02 -1.060688029974699020e-02 -1.674188375473022461e-01 1.485193073749542236e-01 1.458259969949722290e-01 2.609766423702239990e-01 -1.275549363344907761e-02 -7.821955531835556030e-02 4.781318828463554382e-03 -1.724953055381774902e-01 -1.065520197153091431e-01 3.947161883115768433e-02 -1.828935146331787109e-01 9.727580100297927856e-02 -4.415696859359741211e-02 -2.464249283075332642e-01 -2.073934674263000488e-01 -2.172857336699962616e-02 -5.757566913962364197e-02 -1.100917607545852661e-01 -3.042441327124834061e-03 6.668309215456247330e-03 -1.961625367403030396e-01 -1.600746363401412964e-01 6.322798132896423340e-02 -7.228615880012512207e-02 -1.984651386737823486e-01 1.656484045088291168e-02 -8.132061362266540527e-02 6.474886834621429443e-02 -2.091913372278213501e-01 7.364017516374588013e-02 1.601107865571975708e-01 -2.291549369692802429e-02 -1.749717444181442261e-01 -3.556741178035736084e-01 -1.835632324218750000e-01 -5.303502827882766724e-02 5.126912146806716919e-02 -1.004945412278175354e-01 2.190434560179710388e-02 -2.075289338827133179e-01 3.502305224537849426e-02 -2.330380082130432129e-01 2.704789116978645325e-02 6.096441298723220825e-03 -2.079434096813201904e-01 -1.631097644567489624e-01 -1.591739356517791748e-01 -2.059383243322372437e-01 8.976001292467117310e-03 -1.414189487695693970e-01 3.198754787445068359e-02 -1.169977709650993347e-02 -2.200227826833724976e-01 6.994161009788513184e-02 -2.910068957135081291e-03 -4.551980271935462952e-02 -1.769599504768848419e-02 6.272307038307189941e-02 -5.101729184389114380e-02 4.202899057418107986e-03 -8.947341889142990112e-02 -2.174183130264282227e-01 -3.807562589645385742e-02 -9.675018489360809326e-02 1.844072714447975159e-02 6.936790049076080322e-02 2.327507883310317993e-01 1.374002695083618164e-01 1.552828699350357056e-01 -3.257446363568305969e-02 4.061483219265937805e-02 -1.074537411332130432e-01 8.512010425329208374e-02 4.782931506633758545e-02 -7.756541669368743896e-02 1.864880770444869995e-01 1.175729907117784023e-03 1.272786557674407959e-01 2.066358774900436401e-01 -1.003588438034057617e-01 2.797471825033426285e-03 4.241998493671417236e-02 2.625615522265434265e-02 -1.217532306909561157e-01 1.746143251657485962e-01 -4.676121100783348083e-02 5.934329703450202942e-02 -1.376913487911224365e-01 -1.256679743528366089e-01 -2.344569414854049683e-01 3.503517434000968933e-02 -3.235908597707748413e-02 2.803440950810909271e-02 -1.521041244268417358e-01 7.828892022371292114e-02 -2.257768623530864716e-02 4.204167053103446960e-02 2.023907154798507690e-01 9.714180231094360352e-02 -1.524222642183303833e-01 -4.483212530612945557e-02 1.092220693826675415e-01 -4.846454784274101257e-02 -3.657592087984085083e-02 5.220311880111694336e-02 8.918236941099166870e-02 -2.764669954776763916e-01 8.108820021152496338e-02 -1.228194087743759155e-01 -9.133804589509963989e-02 2.341452240943908691e-02 -3.385777771472930908e-02 -5.145459249615669250e-02 -3.367841541767120361e-01 -2.509461157023906708e-02 -1.049877610057592392e-02 -8.187188953161239624e-02 1.484073139727115631e-02 2.564347162842750549e-02 -1.080350056290626526e-01 4.590394441038370132e-03 -3.019798994064331055e-01 -1.609631031751632690e-01 -1.959468126296997070e-01 -6.054675951600074768e-02 -5.678984895348548889e-02 -6.862737983465194702e-02 -2.137650698423385620e-01 -7.271744310855865479e-02 -2.431171387434005737e-01 -1.313262581825256348e-01 8.124049007892608643e-02 -1.195824444293975830e-01 -1.556152552366256714e-01 -9.243201464414596558e-02 1.976885795593261719e-01 -3.414037227630615234e-01 -1.006293073296546936e-01 2.290096879005432129e-01 -1.677307300269603729e-02 -1.975760310888290405e-01 9.880799800157546997e-02 -1.054496541619300842e-01 2.239410998299717903e-03 -3.636095300316810608e-02 -2.976590394973754883e-01 1.707996726036071777e-01 1.413644403219223022e-01 -6.446243077516555786e-02 -1.870937272906303406e-02 1.072876229882240295e-01 1.487287972122430801e-02 -9.964434802532196045e-02 -2.053178101778030396e-01 1.730388998985290527e-01 -3.266143053770065308e-02 -5.079161841422319412e-03 -2.353364676237106323e-01 1.186914816498756409e-01 -1.021765395998954773e-01 -2.341299504041671753e-02 1.248436123132705688e-01 -1.875779032707214355e-01 2.276746481657028198e-01 -9.387896396219730377e-03 -1.596536785364151001e-01 -2.065001428127288818e-01 -3.262886777520179749e-02
-1.240867859451100230e-04 8.366121351718902588e-02 2.988691926002502441e-01 -2.274210751056671143e-01 -7.750483602285385132e-02 -7.128129154443740845e-02 -1.441780477762222290e-01 -1.026239842176437378e-01 3.599051386117935181e-02 2.089455574750900269e-01 1.972125656902790070e-02 -6.677980720996856689e-02 3.612452745437622070e-02 2.577569782733917236e-01 -7.278051972389221191e-02 1.899486780166625977e-02 1.815406084060668945e-01 -4.522112011909484863e-02 -1.468501091003417969e-01 1.766058988869190216e-02 -5.377005413174629211e-02 -6.794369965791702271e-02 -1.671413481235504150e-01 1.621241867542266846e-01 2.602275609970092773e-01 1.274961233139038086e-01 6.490153074264526367e-02 -1.675288192927837372e-02 3.148191049695014954e-02 2.133064419031143188e-01 5.341297388076782227e-02 -5.721474997699260712e-03 1.848725378513336182e-01 1.228976175189018250e-01 9.182856976985931396e-02 -2.737300992012023926e-01 -5.587746575474739075e-02 -2.041839659214019775e-01 3.187350630760192871e-01 3.022487163543701172e-01 6.542077660560607910e-02 -2.715526223182678223e-01 -1.442008316516876221e-01 8.717807382345199585e-02 5.010928958654403687e-02 -4.750285148620605469e-01 1.070317625999450684e-02 -1.305899173021316528e-01 1.166920214891433716e-01 -2.548560500144958496e-01 1.195718534290790558e-02 2.065690159797668457e-01 2.540261670947074890e-02 6.142440438270568848e-02 -2.160045355558395386e-01 9.602157771587371826e-02 -1.785500943660736084e-01 -9.468447417020797729e-02 1.571826040744781494e-01 2.852151989936828613e-01 2.148585617542266846e-01 7.348938286304473877e-02 3.773288801312446594e-02 -1.485195606946945190e-01 1.092994306236505508e-02 -3.731510043144226074e-01 -9.381171315908432007e-03 7.544536143541336060e-02 2.828434109687805176e-01 -6.268078461289405823e-03 -3.049846291542053223e-01 3.007159829139709473e-01 2.888078391551971436e-01 1.472603976726531982e-01 -5.042654275894165039e-02 -2.375430194661021233e-03 -1.967026144266128540e-01 1.752821169793605804e-02 2.770344614982604980e-01 -2.211616933345794678e-01 2.246924042701721191e-01 -5.771600082516670227e-02 -9.116485714912414551e-02 -6.833912432193756104e-02 1.951180994510650635e-01 6.840804219245910645e-02 -1.763539612293243408e-01 -8.680455386638641357e-02 -1.944769471883773804e-01 -5.306662991642951965e-02 5.391220748424530029e-02 1.812910437583923340e-01 -1.151332482695579529e-01 -2.129685133695602417e-02 3.137064278125762939e-01 6.415015459060668945e-02 -2.264507710933685303e-01 1.614739932119846344e-02 -1.314718648791313171e-02 2.354708500206470490e-02 -6.706320494413375854e-02 -8.743803948163986206e-02 -4.482552409172058105e-02 -1.110344454646110535e-01 7.665484398603439331e-02 -2.018426358699798584e-01 -2.553019821643829346e-01 2.048235237598419189e-01 -1.808199882507324219e-01 -3.707506954669952393e-01 2.462068796157836914e-01 2.562339901924133301e-01 8.638517558574676514e-02 -4.044950380921363831e-02 -2.451504319906234741e-01 -5.402509495615959167e-02 5.703381821513175964e-02 -8.621085435152053833e-02 5.244280770421028137e-02 -5.755166411399841309e-01 1.240344718098640442e-01 2.835533320903778076e-01 -5.691236630082130432e-02 -2.662346931174397469e-03 1.325381249189376831e-01 1.442249268293380737e-01 -3.553235828876495361e-01 4.868682101368904114e-02 -3.973561897873878479e-02 -3.310042992234230042e-02 1.840973198413848877e-01 -1.011047884821891785e-01 -2.706373333930969238e-01 -1.200401410460472107e-01 9.804669767618179321e-02 -3.586559891700744629e-01 1.639063358306884766e-01 -1.559564471244812012e-01 2.465695701539516449e-02 -2.280695587396621704e-01 2.101629786193370819e-02 1.298370063304901123e-01 1.407332867383956909e-01 6.898760795593261719e-02 -1.995207369327545166e-01 1.957380399107933044e-02 2.024520374834537506e-02 1.238212585449218750e-01 3.926077112555503845e-02 -5.509616807103157043e-02 -2.572067268192768097e-02 2.979946136474609375e-01 2.502126991748809814e-01 -7.062374800443649292e-02 -1.036984845995903015e-01 -2.058588713407516479e-01 -1.608506962656974792e-02 1.440734118223190308e-01 1.546264588832855225e-01 2.367418706417083740e-01 3.906492590904235840e-01 1.028378754854202271e-01 1.647177636623382568e-01 4.958430305123329163e-02 8.528161048889160156e-02 -2.310550771653652191e-02 1.356565803289413452e-01 -2.808257639408111572e-01 7.714600861072540283e-02 1.808733642101287842e-01 -1.880006641149520874e-01 3.383520990610122681e-02 -2.633574903011322021e-01 -1.771374046802520752e-02 -2.489289045333862305e-01 -6.974713411182165146e-03 6.191417574882507324e-02 6.374181061983108521e-02 1.604069322347640991e-01 2.120109498500823975e-01 6.193118169903755188e-02 1.724993586540222168e-01 -1.519622504711151123e-01 1.113179400563240051e-01 1.389786154031753540e-01 -9.057006239891052246e-02 -8.301039785146713257e-02 2.269939184188842773e-01 -1.322201341390609741e-01 9.843218326568603516e-02 1.943312287330627441e-01 1.468826532363891602e-01 7.275631278753280640e-02 1.270586252212524414e-01 -1.677080541849136353e-01 4.558022192213684320e-04 1.116014719009399414e-01 1.141605991870164871e-02 9.510823339223861694e-02 4.969461262226104736e-02 -2.554485499858856201e-01 1.160603389143943787e-01 -3.062444031238555908e-01 3.309103250503540039e-01 -2.118834294378757477e-02 2.548812888562679291e-02 -2.262004166841506958e-01 7.526651769876480103e-02 4.626105725765228271e-01 1.912888735532760620e-01 1.868024766445159912e-01 -1.445060037076473236e-02 3.365183621644973755e-02 -2.397275902330875397e-02 6.251522153615951538e-02 1.725602895021438599e-03 -3.000240921974182129e-01 -1.035738661885261536e-01 -2.943080067634582520e-01 3.371425271034240723e-01 -2.205068320035934448e-01 -3.265164792537689209e-02 -1.239005774259567261e-01 -1.744253188371658325e-01 -8.105795830488204956e-02 -3.365448117256164551e-02 1.038526967167854309e-01 2.157418429851531982e-01 4.133502021431922913e-02 -1.874972321093082428e-02 -1.275462657213211060e-01 -2.481848150491714478e-01 5.206163227558135986e-02 -2.866860628128051758e-01 -8.006303012371063232e-02 3.924948275089263916e-01 -2.324686050415039062e-01 -1.584722250699996948e-01 -4.193877428770065308e-02 -1.639618873596191406e-01 1.953538209199905396e-01 1.637399010360240936e-02 5.201531574130058289e-02 -1.205693185329437256e-02 2.942497842013835907e-02 1.246857121586799622e-01 3.372163772583007812e-01 -2.632914343848824501e-03 2.399364858865737915e-01 2.110072374343872070e-01 -2.097566276788711548e-01 -1.213789582252502441e-01 6.652292795479297638e-03 -2.647906169295310974e-02 1.213537156581878662e-01 -2.550048828125000000e-01
1.205869093537330627e-01 -8.656013011932373047e-02 -1.103313714265823364e-01 8.463166654109954834e-02 3.177445828914642334e-01 -3.602747991681098938e-02 6.918603181838989258e-02 3.550767526030540466e-02 1.064472571015357971e-01 -1.915175616741180420e-01 1.602568775415420532e-01 -1.666046231985092163e-01 -1.028328537940979004e-01 -1.030600816011428833e-01 -1.141439750790596008e-01 1.040810346603393555e-01 7.243838906288146973e-02 3.881380707025527954e-02 5.862515047192573547e-02 2.724659740924835205e-01 2.366191595792770386e-01 -2.765319347381591797e-01 3.248335560783743858e-03 1.017716899514198303e-01 -9.969789534807205200e-02 -9.446956217288970947e-02 8.917152136564254761e-02 1.896518766880035400e-01 -4.067287780344486237e-03 -9.526088088750839233e-02 -1.271038800477981567e-01 1.313943602144718170e-02 -3.475607559084892273e-02 -1.415284574031829834e-01 4.546213895082473755e-02 6.759779155254364014e-02 9.223475307226181030e-02 1.599043607711791992e-01 -3.660510410554707050e-04 1.097512021660804749e-01 -2.475319653749465942e-01 1.825227141380310059e-01 3.413235396146774292e-02 2.455239295959472656e-01 -1.781399697065353394e-01 -9.749723225831985474e-02 -1.005507856607437134e-01 3.095660507678985596e-01 -2.739932388067245483e-02 -8.495807647705078125e-02 -2.477075438946485519e-03 -2.270890623331069946e-01 2.102750912308692932e-02 -8.467625081539154053e-02 -2.998675107955932617e-01 9.584002196788787842e-02 -2.323149293661117554e-01 2.479639500379562378e-01 -2.133177965879440308e-01 -2.225044220685958862e-01 -8.399535715579986572e-02 -1.523633766919374466e-02 -3.414353728294372559e-01 -1.623141765594482422e-01 2.499041855335235596e-01 -7.568045705556869507e-02 -1.495030825026333332e-03 -3.618238866329193115e-02 -1.291341036558151245e-01 -9.726792573928833008e-02 4.927618801593780518e-02 -1.649836301803588867e-01 -1.687590591609477997e-02 2.254972159862518311e-01 1.025152672082185745e-02 1.042505204677581787e-01 2.389511466026306152e-01 1.658973097801208496e-01 -4.099629819393157959e-02 1.323457956314086914e-01 -2.851791679859161377e-01 -2.233372814953327179e-02 -1.356011927127838135e-01 1.918143332004547119e-01 -6.861093640327453613e-02 -4.297507926821708679e-02 1.787745058536529541e-01 -1.419498771429061890e-01 2.053915560245513916e-01 -6.544485688209533691e-02 -2.627687454223632812e-01 -1.939986944198608398e-01 -1.447853446006774902e-01 -4.578751698136329651e-02 2.474888116121292114e-01 3.716548439115285873e-03 1.119637768715620041e-02 2.555524706840515137e-01 -2.634249925613403320e-01 7.170966267585754395e-02 -6.694368273019790649e-02 2.980970144271850586e-01 -1.676118560135364532e-02 -1.013246625661849976e-01 -5.998231843113899231e-02 2.348317652940750122e-01 8.935015648603439331e-02 4.939866438508033752e-02 1.681820750236511230e-01 -9.164196252822875977e-02 3.140225112438201904e-01 -1.587917506694793701e-01 3.146871328353881836e-01 1.056401208043098450e-01 2.368351370096206665e-01 1.795179694890975952e-01 3.624442964792251587e-03 -1.371796242892742157e-02 -1.325443834066390991e-01 1.938931345939636230e-01 -2.403441369533538818e-01 -8.109967410564422607e-02 1.362674832344055176e-01 -5.382005497813224792e-02 9.726948291063308716e-02 2.327213585376739502e-01 9.476471692323684692e-02 5.009916797280311584e-02 -1.160041242837905884e-01 -2.162706553936004639e-01 1.491186022758483887e-01 1.994177252054214478e-01 4.074779152870178223e-02 8.434490859508514404e-02 7.093640416860580444e-02 1.504154056310653687e-01 -3.538651168346405029e-01 6.449408084154129028e-02 -1.624356061220169067e-01 -3.141539394855499268e-01 1.251659542322158813e-01 1.038581877946853638e-01 4.330920055508613586e-03 1.800315640866756439e-02 -1.235728412866592407e-01 2.409061975777149200e-02 3.959132358431816101e-02 -9.857520461082458496e-02 2.287340611219406128e-01 1.665384322404861450e-01 7.199221849441528320e-02 -4.009008407592773438e-02 -2.413884252309799194e-01 8.393814414739608765e-02 4.243674129247665405e-02 2.865165658295154572e-02 -1.215346530079841614e-02 -1.337075829505920410e-01 9.297454357147216797e-02 3.942588716745376587e-02 -5.532062426209449768e-02 -3.064352273941040039e-02 -1.169047504663467407e-01 -5.675037950277328491e-02 1.055038794875144958e-01 9.305253624916076660e-02 -2.067609876394271851e-01 -1.688518077135086060e-01 -2.222022227942943573e-02 2.209256030619144440e-02 -5.975972861051559448e-02 1.835049986839294434e-01 1.983544826507568359e-01 -1.384127885103225708e-01 2.022032737731933594e-01 -7.174346596002578735e-03 3.971706628799438477e-01 -1.976905316114425659e-01 -3.276396915316581726e-02 2.985389344394207001e-02 2.203029245138168335e-01 -2.155720740556716919e-01 -3.265001773834228516e-01 3.048815429210662842e-01 -2.115979092195630074e-03 -1.674630194902420044e-01 2.023839205503463745e-01 -1.949570327997207642e-02 1.759148240089416504e-01 -8.603724092245101929e-02 1.102505251765251160e-01 -3.633728027343750000e-01 -1.582119017839431763e-01 8.411835134029388428e-02 -2.084129601716995239e-01 8.200936019420623779e-02 1.649863123893737793e-01 1.428511291742324829e-01 2.746993005275726318e-01 1.811771988868713379e-01 -4.783824458718299866e-02 -2.582921683788299561e-01 1.818842254579067230e-02 -1.307045817375183105e-01 1.521459668874740601e-01 -7.494155317544937134e-02 -6.614914536476135254e-02 -1.691095381975173950e-01 2.201096154749393463e-02 -4.466517362743616104e-03 1.011881791055202484e-02 7.273169606924057007e-02 2.052903175354003906e-03 -1.894261129200458527e-02 3.170796632766723633e-01 -1.400360465049743652e-01 1.031707227230072021e-02 1.460058987140655518e-01 1.535480767488479614e-01 -1.628385782241821289e-01 -1.994281448423862457e-02 3.586316481232643127e-02 -1.034848485141992569e-02 -2.431255392730236053e-02 4.777742177248001099e-02 2.246545702219009399e-01 5.505801737308502197e-02 4.571163281798362732e-02 1.030255854129791260e-01 -9.990826249122619629e-02 -1.425529923290014267e-02 1.208617612719535828e-01 -7.957115769386291504e-02 1.719609349966049194e-01 -6.960338354110717773e-02 1.466444134712219238e-01 2.472976446151733398e-01 1.148442625999450684e-01 3.870256245136260986e-02 -9.337220340967178345e-02 3.600480407476425171e-02 -2.230591624975204468e-01 1.218576133251190186e-01 1.147895604372024536e-01 9.192962944507598877e-02 -4.312986042350530624e-03 3.884884715080261230e-02 -3.056732118129730225e-01 -1.478235423564910889e-01 -5.577770993113517761e-02 1.139758080244064331e-01 -1.452365070581436157e-01 -4.508723691105842590e-02 7.170331478118896484e-02 -3.279882669448852539e-02 -1.579443109221756458e-03
-9.785301052033901215e-03 -7.147185504436492920e-02 2.584732472896575928e-01 8.359375596046447754e-02 -4.315886273980140686e-02 -1.687141060829162598e-01 1.167588829994201660e-01 -1.532890647649765015e-01 -2.586178183555603027e-01 -1.134219467639923096e-01 1.140049546957015991e-01 -2.499867081642150879e-01 9.863050282001495361e-02 -2.090462893247604370e-01 -3.380718529224395752e-01 6.216757744550704956e-02 1.873436570167541504e-02 1.165248528122901917e-01 -2.520915567874908447e-01 -2.011962532997131348e-01 1.362746208906173706e-01 2.141798138618469238e-01 -1.115787178277969360e-01 8.357258886098861694e-02 4.157503321766853333e-02 -2.939897179603576660e-01 2.249126508831977844e-02 -1.323669403791427612e-01 -1.125818025320768356e-02 8.147725462913513184e-02 -1.860152035951614380e-01 7.498483173549175262e-03 -4.530272260308265686e-02 1.917080581188201904e-01 7.159242779016494751e-02 -9.394145756959915161e-02 1.570802927017211914e-01 1.480086296796798706e-01 3.420393466949462891e-01 -9.780033677816390991e-02 -2.058497816324234009e-01 -2.622053325176239014e-01 -1.230464428663253784e-01 9.007550030946731567e-02 -3.261734843254089355e-01 -1.549717932939529419e-01 -4.905077442526817322e-02 2.099480479955673218e-02 6.383917480707168579e-02 -6.486649159342050552e-03 6.692277640104293823e-02 9.268441796302795410e-02 8.509855717420578003e-02 2.323039174079895020e-01 5.983372777700424194e-02 -2.332343310117721558e-01 2.236128002405166626e-01 7.538411021232604980e-02 2.009958773851394653e-01 -4.793562889099121094e-01 5.873523280024528503e-02 3.095367252826690674e-01 7.546506822109222412e-02 -7.132601737976074219e-02 1.484145075082778931e-01 4.677616432309150696e-02 2.832243740558624268e-01 -2.950727045536041260e-01 -6.836440414190292358e-02 -1.200552564114332199e-02 -5.579865351319313049e-02 7.802601903676986694e-02 9.880790114402770996e-02 -1.486483146436512470e-03 -4.302448406815528870e-02 3.671100437641143799e-01 1.937707699835300446e-02 6.793449819087982178e-02 -9.956508129835128784e-02 -1.628231108188629150e-01 1.631309688091278076e-01 2.221218049526214600e-01 5.187158659100532532e-02 -2.055277675390243530e-01 -4.199232459068298340e-01 1.489929854869842529e-01 -7.268980145454406738e-02 -6.784287095069885254e-02 7.932036370038986206e-02 4.823764786124229431e-03 -1.131109371781349182e-01 2.414523363113403320e-01 -1.656521409749984741e-01 -4.224464893341064453e-01 7.107509672641754150e-02 6.643549352884292603e-02 2.573999390006065369e-02 6.733325775712728500e-03 -2.164023965597152710e-01 7.591725140810012817e-02 2.378713190555572510e-01 1.489676982164382935e-01 -4.292003810405731201e-02 3.980674222111701965e-02 1.665451675653457642e-01 1.474059373140335083e-01 2.183779329061508179e-01 2.859715372323989868e-02 -1.276311874389648438e-01 1.234195753931999207e-01 -7.831577211618423462e-02 -3.181337118148803711e-01 9.762623161077499390e-02 -8.583164773881435394e-03 -1.938565224409103394e-01 2.351369261741638184e-01 -1.875231415033340454e-01 7.878293097019195557e-02 4.545898362994194031e-02 5.120830982923507690e-02 -1.782994270324707031e-01 5.648461636155843735e-03 4.518786445260047913e-02 -3.357270359992980957e-01 4.996782168745994568e-02 2.022201269865036011e-01 -1.468183994293212891e-01 -1.957193762063980103e-02 6.136848777532577515e-02 -1.468636840581893921e-01 -8.410321176052093506e-02 1.544795036315917969e-01 -1.331316679716110229e-01 6.966392509639263153e-03 1.070559490472078323e-02 -2.246823906898498535e-01 -2.554180026054382324e-01 -2.675762176513671875e-01 -1.517328172922134399e-01 -2.993665076792240143e-02 -5.940403416752815247e-02 -9.963068366050720215e-02 9.819778054952621460e-02 3.715563714504241943e-01 -2.951285839080810547e-01 -9.420315735042095184e-03 1.711688637733459473e-01 9.459289163351058960e-02 7.930799387395381927e-03 1.477730721235275269e-01 4.771761968731880188e-02 8.586492389440536499e-02 1.794922053813934326e-01 4.763327538967132568e-02 9.919149428606033325e-02 1.266718059778213501e-01 6.768821924924850464e-02 -1.518471539020538330e-01 1.679566204547882080e-01 -2.905563712120056152e-01 2.393024861812591553e-01 2.059593647718429565e-01 -1.957184821367263794e-01 -9.434789419174194336e-02 -1.901838369667530060e-02 4.612852260470390320e-02 -6.477399170398712158e-02 5.873076990246772766e-02 3.592576086521148682e-02 1.897395215928554535e-02 -1.993617862462997437e-01 -4.158477857708930969e-02 9.292687475681304932e-02 1.336773484945297241e-01 1.255608946084976196e-01 -1.514946222305297852e-01 -8.125823736190795898e-02 -2.989361584186553955e-01 2.357388846576213837e-02 -6.560789048671722412e-02 -2.220153249800205231e-02 -1.966708898544311523e-01 -1.264790743589401245e-01 1.216265261173248291e-01 1.012703925371170044e-01 -4.766486212611198425e-02 -1.008204892277717590e-01 5.020498065277934074e-04 3.985287249088287354e-01 -4.699743818491697311e-03 1.360938102006912231e-01 -2.240355908870697021e-01 -7.575062662363052368e-02 -9.504285454750061035e-02 4.565367475152015686e-02 5.618963763117790222e-02 2.283207923173904419e-01 7.760591804981231689e-02 -1.392929852008819580e-01 2.378471791744232178e-01 -2.377386018633842468e-02 -9.472490102052688599e-02 1.079395860433578491e-01 -1.884759068489074707e-01 1.805085390806198120e-01 1.049231886863708496e-01 -1.071214955300092697e-02 2.938084900379180908e-01 2.227679640054702759e-02 -3.310733139514923096e-01 1.437495797872543335e-01 -1.024631336331367493e-01 4.634269326925277710e-02 6.187563762068748474e-02 -1.027157977223396301e-01 2.030690908432006836e-01 2.950791120529174805e-01 9.544692933559417725e-02 -2.897324860095977783e-01 2.360716462135314941e-02 1.261449903249740601e-01 -7.679675519466400146e-02 9.263511747121810913e-02 7.394655048847198486e-02 1.929948925971984863e-01 -2.488295733928680420e-01 1.199538540095090866e-02 1.930634230375289917e-01 7.410846650600433350e-02 1.572632193565368652e-01 -1.374482959508895874e-01 8.687847852706909180e-02 7.528231292963027954e-02 1.943044364452362061e-02 -1.078169122338294983e-01 -1.327305007725954056e-02 -2.145774364471435547e-01 7.859667390584945679e-02 -6.195940822362899780e-02 4.036332666873931885e-02 1.168908923864364624e-01 -1.198569387197494507e-01 6.182077899575233459e-02 1.598145812749862671e-01 -6.135178357362747192e-02 -5.230303853750228882e-02 5.241498351097106934e-02 -1.873669177293777466e-01 -1.226393412798643112e-02 1.401466690003871918e-02 -1.979908943176269531e-01 1.283567100763320923e-01 1.000023931264877319e-01 3.064863383769989014e-02 1.414886862039566040e-01 -5.352485179901123047e-02
