6.996845360845327377e-03
-6.799370795488357544e-02
1.473828312009572983e-02
5.168412812054157257e-03
-5.923141539096832275e-02
7.464098185300827026e-02
-5.170457437634468079e-02
-4.241329431533813477e-02
2.709517255425453186e-02
1.040519997477531433e-01
8.824898302555084229e-02
7.717148400843143463e-03
8.665898814797401428e-03
-7.130868732929229736e-02
-5.174363777041435242e-02
1.273269206285476685e-02
-1.505785435438156128e-01
-2.201810851693153381e-02
-3.301540762186050415e-02
-3.152741491794586182e-02
-1.801997609436511993e-02
4.555660113692283630e-02
-5.010312795639038086e-02
4.742494784295558929e-03
2.222209237515926361e-03
-3.123600408434867859e-02
1.104492042213678360e-02
2.550483681261539459e-02
-1.665447652339935303e-02
7.392299920320510864e-02
9.910316020250320435e-02
-3.619901835918426514e-03
5.595902726054191589e-02
4.907365515828132629e-02
5.233888700604438782e-02
1.326767168939113617e-02
-4.962592571973800659e-02
-4.394958540797233582e-02
1.070932857692241669e-02
-8.077296428382396698e-03
-2.602713182568550110e-02
-4.610156640410423279e-02
-5.447123944759368896e-02
-7.485605776309967041e-02
3.473389893770217896e-02
-4.718877375125885010e-02
-6.573550868779420853e-03
-6.885166466236114502e-02
6.372576206922531128e-02
-4.031747113913297653e-03
3.269318491220474243e-02
-4.125769436359405518e-02
1.660672761499881744e-02
4.633056744933128357e-02
-7.183699309825897217e-02
-3.874899074435234070e-02
4.628306627273559570e-02
-2.242743782699108124e-02
2.403635159134864807e-02
-5.010062083601951599e-02
9.856921434402465820e-02
-3.933216631412506104e-02
3.759068995714187622e-02
-3.630321472883224487e-02
1.704866625368595123e-02
-9.625490754842758179e-03
1.808091998100280762e-02
-2.803151309490203857e-02
1.800697483122348785e-02
2.371461316943168640e-02
-2.931547909975051880e-02
2.842856757342815399e-02
5.969511345028877258e-02
5.587685108184814453e-02
-4.251034185290336609e-02
-1.468140445649623871e-02
5.577741190791130066e-03
2.019552886486053467e-02
-5.374677106738090515e-02
-2.448944002389907837e-02
-8.901037275791168213e-02
-1.820506900548934937e-02
-6.072132661938667297e-02
1.278524547815322876e-01
1.116426065564155579e-01
-1.659942977130413055e-02
1.142470445483922958e-02
-3.443278744816780090e-02
5.586932972073554993e-02
-1.350076869130134583e-02
-9.827330708503723145e-03
-4.160229861736297607e-02
-6.472107488662004471e-04
2.533757127821445465e-02
-8.824416995048522949e-02
5.896974354982376099e-02
4.217648878693580627e-03
1.235235133208334446e-03
-8.661658316850662231e-02
2.677064761519432068e-02
1.174959726631641388e-02
5.924251675605773926e-02
-3.262125328183174133e-02
1.668607629835605621e-02
-2.370380796492099762e-02
6.809017062187194824e-02
-7.079720497131347656e-03
-1.065804883837699890e-01
2.233762852847576141e-02
-8.203378878533840179e-03
-6.301542371511459351e-02
4.062895104289054871e-02
-2.616889588534832001e-02
3.877972811460494995e-02
2.468140795826911926e-02
1.728461869060993195e-02
-1.077598333358764648e-01
-3.271686146035790443e-03
4.580421373248100281e-02
3.976622596383094788e-02
-5.868017300963401794e-02
1.428771298378705978e-02
-7.963377982378005981e-03
6.528092920780181885e-02
-1.869602873921394348e-02
1.234418991953134537e-02
2.525904914364218712e-03
2.850668318569660187e-02
-1.911736652255058289e-02
-6.795836985111236572e-02
-5.809968709945678711e-02
5.602486804127693176e-02
3.972556814551353455e-02
-2.597033977508544922e-02
1.182250212877988815e-02
1.704435050487518311e-02
-8.678139187395572662e-03
-1.793342642486095428e-03
6.102178990840911865e-02
-4.368173249531537294e-04
2.567342855036258698e-02
3.238718211650848389e-02
1.913927379064261913e-03
1.016229018568992615e-01
2.895127795636653900e-02
1.969412434846162796e-03
-2.891540899872779846e-02
1.147285290062427521e-02
-4.700848367065191269e-03
-3.158074244856834412e-02
1.364738796837627888e-03
-1.937645673751831055e-02
1.230789255350828171e-02
-3.866655752062797546e-02
-3.490431979298591614e-02
-1.082787290215492249e-02
4.228276014328002930e-02
-3.028544597327709198e-02
-1.401398703455924988e-02
-1.419339515268802643e-02
-6.768444180488586426e-02
8.412712253630161285e-03
-2.800798974931240082e-02
1.968527771532535553e-02
-5.290754139423370361e-02
3.939520195126533508e-02
-8.174458146095275879e-02
8.231777697801589966e-02
-9.891582652926445007e-03
2.798721008002758026e-02
-3.356596827507019043e-02
2.315913140773773193e-02
4.677782207727432251e-02
-7.543670944869518280e-03
-1.318841520696878433e-02
-2.880880236625671387e-02
1.433117687702178955e-02
3.590302541851997375e-02
4.657552391290664673e-02
-2.600535936653614044e-02
5.604278296232223511e-02
-1.841398514807224274e-02
3.336989879608154297e-02
-1.454955199733376503e-04
4.108231887221336365e-02
4.116345942020416260e-02
1.478297449648380280e-02
-1.163372863084077835e-02
-2.558515593409538269e-02
-5.462950794026255608e-04
4.435173235833644867e-03
-5.121548101305961609e-02
2.554710395634174347e-02
9.479495882987976074e-02
2.241304703056812286e-02
-1.434667967259883881e-02
-4.431745037436485291e-02
7.375536020845174789e-03
-5.243234336376190186e-02
2.819494716823101044e-02
5.913697183132171631e-02
3.861034289002418518e-02
-4.145697876811027527e-02
-3.335246071219444275e-02
-2.151237800717353821e-02
2.199940755963325500e-02
-8.478904515504837036e-02
-4.466295987367630005e-02
2.822827547788619995e-02
-3.324603661894798279e-02
-1.880478300154209137e-02
5.173496156930923462e-02
-1.767754927277565002e-02
-4.235754907131195068e-02
7.791262585669755936e-03
3.400323912501335144e-02
-1.113910041749477386e-02
9.346860647201538086e-02
2.953460207208991051e-03
1.287292130291461945e-02
-2.696615457534790039e-02
3.310404717922210693e-02
5.876218155026435852e-02
-1.221182662993669510e-02
6.990281492471694946e-02
3.090920858085155487e-02
2.344668097794055939e-02
-7.702459581196308136e-03
-8.795856498181819916e-03
4.118680208921432495e-02
-4.552511125802993774e-02
-9.648156911134719849e-02
3.580250591039657593e-02
1.974957250058650970e-02
2.511540055274963379e-02
1.788621209561824799e-02
-7.659676019102334976e-03
8.057711273431777954e-02
-4.347412381321191788e-03
8.669157512485980988e-03
-6.243480741977691650e-02
-4.565712437033653259e-02
5.156555771827697754e-02
4.242870490998029709e-03
6.414058152586221695e-03
2.624874562025070190e-02
1.742171682417392731e-02
-2.326761558651924133e-02
-1.334039960056543350e-02
9.512369520962238312e-03
-9.299248456954956055e-02
8.042889088392257690e-02
7.789751142263412476e-02
4.996876418590545654e-02
-2.977290563285350800e-02
-7.450447976589202881e-02
