-8.945384062826633453e-03
-1.330149546265602112e-02
-3.656601905822753906e-02
5.305796489119529724e-02
6.509491801261901855e-02
4.577153548598289490e-02
-4.414257407188415527e-02
-5.435937643051147461e-02
-2.210567332804203033e-02
-5.277149006724357605e-02
-1.221456658095121384e-02
-8.920072019100189209e-02
-3.056643903255462646e-02
-6.431044638156890869e-02
-3.434306941926479340e-03
1.656560413539409637e-02
-3.915818408131599426e-02
-5.496250465512275696e-02
-3.864502906799316406e-02
7.904075831174850464e-02
2.201304025948047638e-02
-2.504382841289043427e-02
-3.497860208153724670e-02
-3.670006990432739258e-02
2.538513019680976868e-02
5.142145976424217224e-02
-3.973056375980377197e-02
1.921845972537994385e-02
-5.380713194608688354e-02
-7.461326569318771362e-02
-1.569052785634994507e-02
-6.833078712224960327e-02
6.618732213973999023e-02
3.570611029863357544e-02
3.501876443624496460e-02
-3.632036037743091583e-03
3.006819263100624084e-02
-2.770230546593666077e-02
-7.440923247486352921e-03
7.517699152231216431e-03
1.510089915245771408e-02
-3.635055199265480042e-02
2.186869271099567413e-02
-7.272876799106597900e-03
-4.417057707905769348e-02
3.605139628052711487e-02
8.153460657922551036e-05
7.238494604825973511e-02
-6.748441606760025024e-02
-2.319999225437641144e-02
1.270526926964521408e-02
-9.653453528881072998e-02
-2.802667953073978424e-02
-3.600495308637619019e-02
-6.829224526882171631e-02
-4.366475343704223633e-02
-2.532382728531956673e-03
-3.441057354211807251e-02
-3.416549414396286011e-02
-3.635865077376365662e-02
-2.519631758332252502e-02
-1.296045258641242981e-02
8.810244500637054443e-03
-2.729657106101512909e-02
-1.776880957186222076e-02
-1.891937665641307831e-02
1.412164606153964996e-02
1.830890215933322906e-02
-4.249970987439155579e-02
-1.755924895405769348e-02
-6.248285993933677673e-02
-8.290056884288787842e-02
6.858442211523652077e-04
-2.642406150698661804e-02
-1.619131863117218018e-02
3.113952698186039925e-04
-4.993585497140884399e-02
-2.813731692731380463e-02
-4.487005993723869324e-02
5.621223896741867065e-02
-4.967212677001953125e-02
-5.169898271560668945e-02
-8.434568531811237335e-03
-3.936806693673133850e-02
1.021973267197608948e-01
-5.001609772443771362e-02
-9.703478775918483734e-03
-2.872258611023426056e-02
3.260633442550897598e-03
-4.451811313629150391e-02
-2.612365595996379852e-02
-8.943513035774230957e-02
-7.643021643161773682e-02
2.872740663588047028e-02
1.839238102547824383e-03
1.053009834140539169e-02
-4.234739765524864197e-02
-4.312961921095848083e-02
8.670374006032943726e-02
-5.602655559778213501e-02
1.771116815507411957e-02
4.607699066400527954e-02
4.473324492573738098e-02
1.027550995349884033e-01
-8.553919941186904907e-02
-1.845403574407100677e-02
-1.643499563215300441e-04
-7.326745986938476562e-02
-1.419617421925067902e-02
9.695654362440109253e-02
-4.321847483515739441e-02
5.293841660022735596e-02
-3.033962845802307129e-02
6.610088050365447998e-03
-7.159484084695577621e-03
4.511003941297531128e-02
-1.405411120504140854e-02
-1.002329587936401367e-02
8.567301928997039795e-02
-4.640508443117141724e-02
6.493606604635715485e-03
-3.806040808558464050e-02
-3.344168886542320251e-02
-4.123373702168464661e-02
-5.053860694169998169e-02
-1.991987600922584534e-02
-5.429961904883384705e-02
-1.282896194607019424e-02
-6.230762228369712830e-03
-6.509903073310852051e-02
-8.964567445218563080e-03
6.482733786106109619e-02
-5.611048266291618347e-02
-2.544943057000637054e-02
-2.965069562196731567e-02
-1.564654894173145294e-02
-2.171520888805389404e-02
1.440650038421154022e-02
-2.330846153199672699e-02
1.016305200755596161e-02
-6.592597812414169312e-02
-1.442025601863861084e-01
1.213749349117279053e-01
-4.103113710880279541e-02
9.177491068840026855e-02
-5.277907475829124451e-02
-4.859138652682304382e-02
-6.978524848818778992e-03
1.674987189471721649e-02
-3.132099658250808716e-02
-8.934322744607925415e-03
3.634547814726829529e-03
4.467750713229179382e-02
-6.678412109613418579e-02
1.614059135317802429e-02
1.690885983407497406e-02
3.757355734705924988e-02
-3.151018172502517700e-02
2.675119787454605103e-02
-1.633862778544425964e-02
-2.234973758459091187e-02
-8.022595942020416260e-02
-3.930308297276496887e-02
-5.827302113175392151e-02
-5.645167082548141479e-02
3.167820349335670471e-02
6.528712809085845947e-02
-1.493504078098339960e-05
4.554290324449539185e-02
-7.192802149802446365e-03
-3.714370355010032654e-02
2.716324292123317719e-02
-5.331920692697167397e-04
3.254488483071327209e-02
-4.010425508022308350e-02
5.325479432940483093e-02
-5.529264360666275024e-02
1.180105730891227722e-01
-2.539167180657386780e-02
5.573610961437225342e-02
1.548774261027574539e-02
4.492216557264328003e-02
-3.299603471532464027e-03
-3.842972684651613235e-03
-6.094186380505561829e-02
-2.009763754904270172e-02
-5.813060794025659561e-03
-4.192873835563659668e-02
6.253936141729354858e-02
5.657838657498359680e-03
-5.755956470966339111e-02
1.821117103099822998e-02
-6.274136900901794434e-02
3.346756100654602051e-02
-6.680954247713088989e-02
-1.764554157853126526e-02
-5.264680832624435425e-02
-2.305463701486587524e-02
5.640194937586784363e-02
1.188159920275211334e-02
-3.541687503457069397e-02
-6.255070120096206665e-02
-3.037970326840877533e-02
1.303656026721000671e-02
-2.357241325080394745e-02
9.137843153439462185e-04
-1.119057238101959229e-01
-4.392079263925552368e-02
-3.920973837375640869e-02
-5.194826796650886536e-02
-3.812639042735099792e-03
-7.597956061363220215e-02
-6.047626584768295288e-02
-1.602879725396633148e-02
-6.479401141405105591e-02
-2.206255681812763214e-02
-4.523838311433792114e-02
4.918424412608146667e-02
2.946088835597038269e-02
-4.009501636028289795e-02
5.939678102731704712e-02
-3.050841018557548523e-02
-6.729315221309661865e-02
-6.579899787902832031e-02
-5.256076902151107788e-02
-2.027220465242862701e-02
-3.388955816626548767e-02
-3.720781579613685608e-02
4.322159662842750549e-02
-7.838641107082366943e-02
7.663588505238294601e-03
2.262528520077466965e-03
1.069620531052350998e-02
2.758577279746532440e-02
-1.358521729707717896e-02
2.733510918915271759e-02
4.197510704398155212e-02
-4.016746208071708679e-02
-1.220177859067916870e-01
2.782555855810642242e-02
4.343764111399650574e-02
-2.013187110424041748e-02
-1.867687329649925232e-02
1.687186770141124725e-02
-4.620010405778884888e-02
-5.189901962876319885e-02
-1.006287932395935059e-01
-5.558087676763534546e-02
7.934674620628356934e-03
-4.397467896342277527e-02
1.098740193992853165e-02
-5.693510756827890873e-04
-2.041505277156829834e-02
-3.430423885583877563e-02
2.519653178751468658e-02
7.174747437238693237e-02
