3.522679209709167480e-02
2.760973200201988220e-02
-4.555964469909667969e-02
-4.399233683943748474e-02
-7.002363353967666626e-02
3.927120473235845566e-03
4.361366108059883118e-02
-6.192830950021743774e-02
6.810148805379867554e-02
6.433328241109848022e-02
4.663883149623870850e-02
-1.434428151696920395e-02
-5.929383914917707443e-03
3.838519379496574402e-02
3.894716501235961914e-02
-3.842563182115554810e-02
1.416051667183637619e-02
-9.712180495262145996e-02
-4.991411045193672180e-02
1.378836017102003098e-02
-6.737677752971649170e-02
1.052002888172864914e-02
2.284742146730422974e-02
-2.239267155528068542e-02
-9.520123153924942017e-02
9.772640652954578400e-03
-2.101327478885650635e-02
1.744751073420047760e-02
-5.357862263917922974e-02
2.919592894613742828e-02
8.636114001274108887e-02
-1.552631892263889313e-02
1.096667908132076263e-02
1.255208719521760941e-02
-1.078591030091047287e-02
-2.040851628407835960e-03
2.159740589559078217e-02
1.442568097263574600e-02
-8.062670938670635223e-03
-1.541925035417079926e-02
3.408898413181304932e-02
-7.955826073884963989e-02
-9.064560383558273315e-02
-4.849820211529731750e-02
2.604610053822398186e-04
1.270950958132743835e-02
-6.554398685693740845e-02
4.301976412534713745e-02
-3.635273128747940063e-02
5.955285858362913132e-03
5.104782804846763611e-02
7.425104081630706787e-02
-1.543290074914693832e-02
4.327932372689247131e-02
-4.789443314075469971e-02
7.059271447360515594e-03
-8.219921030104160309e-03
-7.368750125169754028e-02
-1.230137199163436890e-01
-7.007501274347305298e-02
-4.664547368884086609e-02
9.362255036830902100e-02
1.180929541587829590e-01
-1.358192320913076401e-02
-7.331264764070510864e-02
-1.017393842339515686e-01
3.862686455249786377e-02
-7.178533822298049927e-02
6.357162445783615112e-02
3.473953111097216606e-03
-1.700669080018997192e-01
-3.207231173291802406e-03
-7.285514473915100098e-02
2.574747242033481598e-02
-8.281129598617553711e-02
-3.692934289574623108e-02
-1.145394742488861084e-01
8.141341060400009155e-02
-1.197865828871726990e-01
-3.561089560389518738e-02
-1.104286387562751770e-01
3.664715960621833801e-02
-6.241296976804733276e-02
-4.498637095093727112e-02
-4.663294181227684021e-02
-6.173586100339889526e-02
-3.438244014978408813e-02
-3.972610086202621460e-02
9.550862759351730347e-02
-1.070756241679191589e-01
5.769253149628639221e-02
-1.015344038605690002e-01
3.423438873142004013e-03
-7.506608217954635620e-02
-5.125435069203376770e-02
1.356715895235538483e-02
-1.276991330087184906e-02
-2.770900912582874298e-02
-9.728320688009262085e-02
3.428396582603454590e-02
1.930610649287700653e-02
6.126122921705245972e-02
-6.896176934242248535e-02
7.397320121526718140e-02
3.450506599619984627e-03
4.064712673425674438e-02
-7.800793647766113281e-02
-6.573488563299179077e-02
-3.212914615869522095e-02
9.188082814216613770e-02
7.475313544273376465e-02
4.173874855041503906e-02
1.289098057895898819e-02
-4.403921589255332947e-02
-5.930539593100547791e-02
3.190917894244194031e-02
-8.852885663509368896e-02
4.478946700692176819e-02
-8.230857551097869873e-02
-3.049067594110965729e-02
4.398788139224052429e-02
1.473476644605398178e-02
-1.348702702671289444e-02
4.756418243050575256e-02
-1.471112016588449478e-02
-4.241870716214179993e-02
-6.391572207212448120e-02
-1.501419022679328918e-02
4.957510530948638916e-02
-5.625073611736297607e-02
-2.419528365135192871e-02
4.567975178360939026e-02
5.683533847332000732e-02
-4.684771224856376648e-02
2.730391733348369598e-02
-5.034659057855606079e-02
7.340006530284881592e-03
-5.748349428176879883e-02
1.779713667929172516e-02
-5.513720680028200150e-03
1.004243791103363037e-01
3.459470719099044800e-02
-7.080622017383575439e-02
9.602326154708862305e-02
-2.247271686792373657e-02
6.405259668827056885e-02
-5.872637405991554260e-02
-8.565708249807357788e-02
-1.630705664865672588e-03
-1.789526455104351044e-02
6.805464625358581543e-02
3.415283188223838806e-02
1.382578071206808090e-02
1.904417201876640320e-02
-4.365145042538642883e-02
2.604960836470127106e-02
-2.121947333216667175e-02
5.595005676150321960e-02
-2.139425603672862053e-03
-7.313601672649383545e-03
-9.177314490079879761e-02
-4.323219880461692810e-03
-4.939531162381172180e-02
-4.725660383701324463e-02
5.594444274902343750e-02
9.182969480752944946e-02
2.750452421605587006e-02
1.114052068442106247e-02
3.350209817290306091e-02
3.341228887438774109e-02
-5.253345891833305359e-02
-9.955445677042007446e-02
7.850222289562225342e-02
-5.209745839238166809e-02
-1.905250549316406250e-02
-9.016360342502593994e-02
5.845502763986587524e-02
-6.132357940077781677e-02
1.276916172355413437e-02
2.508906414732336998e-03
8.422931283712387085e-02
-1.712313503958284855e-03
-6.491108983755111694e-02
-1.284586545079946518e-02
1.847446523606777191e-02
5.692765698768198490e-04
-8.386715198867022991e-04
-5.379304662346839905e-02
1.386378146708011627e-02
-8.164517581462860107e-02
9.017299860715866089e-03
-9.985737502574920654e-02
-1.909429021179676056e-02
4.143106564879417419e-02
-2.837241999804973602e-02
-1.613035239279270172e-02
-2.892601862549781799e-02
-3.732035402208566666e-03
4.149123094975948334e-03
1.977424137294292450e-02
1.951835863292217255e-02
-1.848718523979187012e-02
-4.063077643513679504e-02
3.759345039725303650e-02
-9.969250299036502838e-03
-4.301761463284492493e-02
-6.223234534263610840e-02
6.677094846963882446e-02
1.516461279243230820e-02
-6.194594129920005798e-02
5.546341463923454285e-02
-2.395694330334663391e-02
2.783866040408611298e-02
-2.004280686378479004e-03
-9.001152962446212769e-02
4.168299213051795959e-02
-3.521528467535972595e-02
4.121167957782745361e-02
5.040841922163963318e-02
-4.352840781211853027e-02
6.084922328591346741e-02
9.955639950931072235e-03
1.542470902204513550e-01
6.657156348228454590e-02
6.488041952252388000e-03
3.170874342322349548e-02
3.387578949332237244e-02
-6.868746597319841385e-03
-2.585394866764545441e-02
-8.669738471508026123e-02
3.847789019346237183e-02
-4.790503066033124924e-03
4.566126503050327301e-03
-5.159664154052734375e-02
2.302700094878673553e-02
-2.311168052256107330e-02
1.489549875259399414e-02
-2.126149600371718407e-03
3.556860238313674927e-02
5.891628563404083252e-02
2.472674474120140076e-02
2.945746295154094696e-02
2.701976336538791656e-02
-5.321798846125602722e-02
1.486110500991344452e-02
-1.239575352519750595e-02
-6.710039824247360229e-02
-3.051056340336799622e-02
1.756124384701251984e-02
-6.442915648221969604e-02
-6.454823538661003113e-03
-9.952599182724952698e-03
4.408251494169235229e-02
2.143048495054244995e-02
-6.863705930300056934e-04
-4.180999472737312317e-03
