4.586575925350189209e-02
-3.270801901817321777e-02
-5.517397820949554443e-02
-1.591486856341362000e-02
4.167198389768600464e-02
-3.141977265477180481e-02
4.676426947116851807e-02
2.106517180800437927e-02
-1.253397762775421143e-02
-2.717200480401515961e-02
4.653263092041015625e-02
7.578475773334503174e-02
7.869356311857700348e-03
-2.472166903316974640e-02
-1.056993454694747925e-01
-2.312682941555976868e-02
5.615511909127235413e-02
-6.827396899461746216e-02
-3.139181807637214661e-02
-4.110993817448616028e-02
-2.681406587362289429e-02
2.813336253166198730e-02
-3.423272073268890381e-02
6.813937798142433167e-03
6.309872493147850037e-03
1.135174483060836792e-01
6.950914114713668823e-02
-2.252968586981296539e-02
-2.941242046654224396e-02
-1.457805978134274483e-03
-3.264136239886283875e-02
-3.220292553305625916e-02
-3.346519544720649719e-02
4.558041691780090332e-03
-1.642863638699054718e-02
-3.676468878984451294e-02
-2.429277822375297546e-02
4.067596048116683960e-03
5.735085345804691315e-03
-4.083600640296936035e-02
1.787918433547019958e-02
-3.182612732052803040e-02
6.826378870755434036e-03
4.861381277441978455e-02
-5.788348242640495300e-02
1.659185253083705902e-02
-3.269849717617034912e-02
2.714491076767444611e-02
-5.838540382683277130e-04
-3.969429060816764832e-02
-5.050764605402946472e-02
-2.905632928013801575e-02
-8.078685402870178223e-02
-5.988160893321037292e-02
2.803922258317470551e-02
-1.119845546782016754e-02
-5.583262071013450623e-02
5.157994851469993591e-02
-5.419669300317764282e-02
-5.321849882602691650e-02
-3.727956488728523254e-02
2.920065633952617645e-02
1.448198035359382629e-02
9.663102030754089355e-02
4.285544902086257935e-02
-5.936055257916450500e-02
1.729946024715900421e-02
8.472161740064620972e-02
8.046834170818328857e-02
1.091458927839994431e-02
-4.615130648016929626e-02
4.400685057044029236e-02
-1.730415620841085911e-03
-1.062943134456872940e-02
-4.601940885186195374e-02
4.376011341810226440e-02
-5.268292501568794250e-02
-6.306688487529754639e-02
-4.247891902923583984e-02
-1.213791780173778534e-02
-3.939203172922134399e-02
7.199418731033802032e-03
2.108008787035942078e-02
-3.254445642232894897e-02
1.837786659598350525e-02
-3.028749488294124603e-02
-2.362634986639022827e-02
9.017099626362323761e-03
-4.350825026631355286e-02
-2.065134793519973755e-02
-4.241262003779411316e-02
-3.618340939283370972e-02
-3.986364603042602539e-02
4.169429093599319458e-02
-4.312925413250923157e-02
3.358687460422515869e-02
-2.001647092401981354e-02
8.908924646675586700e-03
4.633839242160320282e-03
-6.469031795859336853e-03
1.105478499084711075e-03
5.007018521428108215e-02
2.692339941859245300e-03
2.612673304975032806e-02
-5.723286792635917664e-02
6.965864449739456177e-02
-2.746688388288021088e-02
-5.915096960961818695e-03
4.577855393290519714e-02
4.852935299277305603e-02
-4.521720856428146362e-02
9.940293431282043457e-02
-2.088545821607112885e-02
5.083737149834632874e-02
-4.089778661727905273e-02
4.692152608186006546e-03
2.303689345717430115e-02
3.716170415282249451e-02
3.415651991963386536e-02
-3.020258806645870209e-02
-2.171997912228107452e-02
-5.176549404859542847e-02
-8.436559140682220459e-02
2.092015743255615234e-02
-7.384687662124633789e-02
2.985064685344696045e-02
-5.917066708207130432e-03
5.858667567372322083e-02
-2.312559075653553009e-02
-6.082367897033691406e-02
-5.621269717812538147e-02
1.085492200218141079e-03
2.226962335407733917e-02
-3.581679239869117737e-02
4.500444233417510986e-02
-1.585343037731945515e-03
7.564195897430181503e-03
1.146988477557897568e-02
-7.345397956669330597e-03
6.294817663729190826e-03
-1.725214906036853790e-02
-6.586666405200958252e-02
-1.975431852042675018e-02
1.203739549964666367e-02
2.554958872497081757e-02
6.562901288270950317e-02
-3.391300886869430542e-02
3.412976162508130074e-03
2.129883877933025360e-02
-1.880047656595706940e-02
-2.727696672081947327e-02
-2.238370478153228760e-02
1.992366462945938110e-02
-6.613121926784515381e-02
-1.821804605424404144e-02
-1.495865732431411743e-02
-8.659560978412628174e-02
-2.544516138732433319e-02
-1.774358563125133514e-02
-4.567870870232582092e-03
-1.567761413753032684e-02
-5.753440782427787781e-02
-6.805827468633651733e-02
-4.537240043282508850e-02
3.414486721158027649e-02
3.511311858892440796e-02
-1.129980664700269699e-03
-1.016120165586471558e-01
-8.200455456972122192e-02
3.701518848538398743e-02
-8.623775094747543335e-03
1.402854267507791519e-02
-2.916851546615362167e-03
-2.626609988510608673e-02
1.538856653496623039e-03
-1.656932570040225983e-02
2.002912946045398712e-02
8.973549306392669678e-02
3.129516169428825378e-02
3.675268590450286865e-02
-1.437212224118411541e-03
-4.354727268218994141e-02
-2.083701081573963165e-02
-4.401183396112173796e-04
2.715939283370971680e-02
-5.275833979249000549e-02
-4.581947810947895050e-03
8.529265411198139191e-03
5.226186010986566544e-03
1.703263074159622192e-02
-3.349647670984268188e-02
-3.101345337927341461e-02
-1.920125819742679596e-02
1.495839655399322510e-02
-6.383986026048660278e-02
-3.307409957051277161e-02
2.930171228945255280e-02
1.410748576745390892e-03
1.057345326989889145e-02
-1.410056464374065399e-02
9.339974261820316315e-03
2.052211202681064606e-02
-3.741628304123878479e-02
1.212431862950325012e-01
-3.298471122980117798e-02
-1.138105802237987518e-02
-1.578033529222011566e-02
1.819337904453277588e-02
6.389289349317550659e-02
-9.422187577001750469e-04
4.708221927285194397e-02
-6.600481271743774414e-02
-3.599799703806638718e-03
-2.710479078814387321e-03
-2.454561740159988403e-02
1.931114494800567627e-02
3.698482364416122437e-02
5.950495973229408264e-02
7.338835299015045166e-02
1.049400493502616882e-01
-3.936213254928588867e-02
-2.855287492275238037e-02
-7.045466452836990356e-03
1.758742728270590305e-03
1.270574480295181274e-01
6.836341926828026772e-04
5.926896259188652039e-02
-1.402333192527294159e-02
-2.662056498229503632e-02
-3.768866881728172302e-02
4.230348393321037292e-02
-1.014312729239463806e-03
2.060438692569732666e-02
5.310894921422004700e-02
-4.418164025992155075e-03
5.050776153802871704e-02
-2.139606885612010956e-02
-5.351052060723304749e-02
-1.045595575124025345e-02
-6.589306145906448364e-02
3.755499422550201416e-02
3.335688263177871704e-02
-1.205474324524402618e-02
3.190476074814796448e-02
4.632180929183959961e-02
-2.532320655882358551e-02
-7.799274474382400513e-02
-7.252208143472671509e-02
-3.248517215251922607e-02
-4.094190523028373718e-02
7.025019824504852295e-02
4.588104411959648132e-02
-3.300801385194063187e-03
-2.674759365618228912e-02
-6.263381987810134888e-02
2.721590362489223480e-02
