1.474823504686355591e-01
2.988549880683422089e-03
-6.494157016277313232e-02
-8.366126567125320435e-02
-1.494815051555633545e-01
-1.610473245382308960e-01
-6.557990610599517822e-02
-1.606744080781936646e-01
2.138818986713886261e-02
-4.645677283406257629e-02
-9.838927537202835083e-02
-1.242220252752304077e-01
2.031522989273071289e-02
-1.551188901066780090e-02
-1.368319392204284668e-01
7.488018274307250977e-02
1.491880323737859726e-02
6.817540526390075684e-02
-3.807461634278297424e-02
-1.339670568704605103e-01
-1.742859743535518646e-02
-7.127783447504043579e-02
-3.506850823760032654e-02
-2.912328345701098442e-04
-3.145946934819221497e-02
1.016706973314285278e-01
-1.850159466266632080e-01
-8.321647346019744873e-02
-5.370672326534986496e-03
6.007071584463119507e-03
-6.449524313211441040e-02
-1.882806420326232910e-02
-1.642357707023620605e-01
1.712645590305328369e-01
-9.296802431344985962e-02
3.338313475251197815e-02
8.310004323720932007e-02
3.051304817199707031e-02
8.165353909134864807e-03
-5.643892660737037659e-02
-6.950724869966506958e-02
-9.071721136569976807e-02
-4.235875979065895081e-02
-6.062205508351325989e-02
-5.011836439371109009e-02
9.995765052735805511e-03
-6.436172872781753540e-02
-1.161788851022720337e-01
-2.268689684569835663e-02
-1.508097201585769653e-01
-5.909125879406929016e-02
-7.326842099428176880e-02
-8.339918404817581177e-02
-7.852461934089660645e-02
6.866442970931529999e-03
-7.847080007195472717e-03
-1.725430041551589966e-02
-1.008076816797256470e-01
1.188878994435071945e-02
2.185563184320926666e-02
-6.398833543062210083e-02
-5.353917554020881653e-02
-1.868388801813125610e-01
-1.042442470788955688e-01
-6.247658655047416687e-02
-1.029524952173233032e-01
-3.022634051740169525e-02
-4.683366045355796814e-02
-3.057760186493396759e-02
-4.036887735128402710e-02
-1.222428083419799805e-01
5.199366435408592224e-02
-3.113833628594875336e-02
-3.548935800790786743e-02
-9.223921224474906921e-03
8.659217506647109985e-02
-1.376606989651918411e-02
-7.032460719347000122e-02
-4.129561036825180054e-02
-2.183626033365726471e-02
-1.104833036661148071e-01
5.319600924849510193e-02
-5.272773653268814087e-02
3.296559303998947144e-02
-4.390140250325202942e-02
-9.097257256507873535e-02
-3.384131565690040588e-02
8.916886150836944580e-02
-5.816986039280891418e-02
-2.222506515681743622e-02
-5.366360768675804138e-02
3.696915507316589355e-02
1.266221143305301666e-02
-1.877221763134002686e-01
-7.153419405221939087e-02
1.550239161588251591e-03
-1.193872243165969849e-01
9.965224564075469971e-02
-7.091337442398071289e-02
1.176858227699995041e-02
-1.204728111624717712e-01
5.824392288923263550e-02
3.176905959844589233e-02
5.503991991281509399e-02
2.435497380793094635e-02
8.911985903978347778e-02
-2.862696722149848938e-02
2.542673796415328979e-02
-1.222885921597480774e-01
2.878016326576471329e-03
-4.758023470640182495e-02
-4.376309365034103394e-02
2.004081010818481445e-02
-8.259322494268417358e-02
-3.374907420948147774e-03
-9.837277233600616455e-02
-8.925481885671615601e-02
-1.139730066061019897e-01
-6.688831374049186707e-03
-6.644474714994430542e-02
-1.029695719480514526e-01
6.307819392532110214e-03
-8.944299072027206421e-02
-7.394443452358245850e-02
-1.150519847869873047e-01
-2.911073155701160431e-02
-5.313030630350112915e-02
1.833045482635498047e-02
-1.929002441465854645e-02
-4.274264909327030182e-03
-3.458875790238380432e-02
-3.506112471222877502e-02
-1.327221691608428955e-01
2.029271237552165985e-02
3.723026439547538757e-02
-1.706217066384851933e-03
7.952796667814254761e-02
-7.300490140914916992e-02
-5.393030121922492981e-02
-7.579438388347625732e-02
-9.988837689161300659e-02
-2.369998581707477570e-02
8.821079879999160767e-02
-1.506288349628448486e-01
-7.381957769393920898e-02
-8.245182782411575317e-02
-1.135407537221908569e-01
-8.345587551593780518e-02
-7.603763788938522339e-02
-3.951206430792808533e-02
-7.875487208366394043e-02
-1.953764557838439941e-01
-6.957057118415832520e-02
-6.786891072988510132e-02
3.284253878518939018e-03
-8.503310382366180420e-02
4.180591925978660583e-02
3.437210246920585632e-02
1.741362921893596649e-02
-4.837597906589508057e-02
-9.291854500770568848e-02
-4.099207371473312378e-02
-4.074287787079811096e-02
-1.010968759655952454e-01
-5.949473753571510315e-02
-8.437660336494445801e-02
3.051178529858589172e-02
5.056725069880485535e-02
-1.579723060131072998e-01
-1.715872883796691895e-01
7.251828163862228394e-02
4.978214204311370850e-02
-5.914316326379776001e-02
-6.254511326551437378e-02
-6.064116582274436951e-02
-5.088150873780250549e-02
1.333625707775354385e-02
-8.615744113922119141e-02
-9.728712588548660278e-02
-2.827225439250469208e-02
3.267332166433334351e-02
-1.925267130136489868e-01
-4.866864532232284546e-02
-7.747413218021392822e-02
-8.278808556497097015e-03
-1.283802688121795654e-01
-1.112091690301895142e-01
4.140413925051689148e-02
-1.530538499355316162e-02
5.746223032474517822e-02
2.068994566798210144e-02
1.641197502613067627e-02
-9.011289477348327637e-02
7.737425714731216431e-02
-1.094592735171318054e-01
1.227547675371170044e-01
-5.106705054640769958e-02
-1.400866210460662842e-01
-4.447640478610992432e-02
-6.373361498117446899e-02
2.271980047225952148e-02
-9.816552512347698212e-03
-9.544988721609115601e-02
1.533422246575355530e-02
-2.885019779205322266e-02
-1.999228820204734802e-02
-4.113529622554779053e-02
-1.616775393486022949e-01
-9.904347360134124756e-02
-4.092676099389791489e-04
2.167909964919090271e-02
-2.291845530271530151e-02
-7.274161279201507568e-02
-9.821680188179016113e-02
-1.082532405853271484e-01
-1.215323712676763535e-02
-8.825110644102096558e-02
-2.910430356860160828e-02
-2.031012624502182007e-02
3.208635374903678894e-02
-5.696270242333412170e-02
-5.471953190863132477e-03
-6.467299908399581909e-02
-6.633947044610977173e-02
-4.206191375851631165e-02
-2.861603721976280212e-02
-9.727250435389578342e-04
-1.257439609616994858e-02
-5.919008702039718628e-02
-1.371509432792663574e-01
-4.696898162364959717e-02
1.819036697270348668e-04
-8.069713413715362549e-02
-1.946369409561157227e-01
-8.542696386575698853e-02
2.702711708843708038e-02
2.064024563878774643e-03
-1.148474588990211487e-01
-1.806615851819515228e-02
-1.222317367792129517e-01
3.974810987710952759e-02
7.441493123769760132e-02
-6.386321038007736206e-02
1.355163455009460449e-01
-6.154442206025123596e-02
-4.969156160950660706e-02
-9.416703879833221436e-02
-2.337923645973205566e-02
4.055222868919372559e-02
-4.171375930309295654e-02
-7.258345931768417358e-02
-1.206399053335189819e-01
-5.284332484006881714e-02
-3.722994402050971985e-02
-1.414139121770858765e-01
-2.903095260262489319e-02
