3.771462738513946533e-01
-2.734586596488952637e-01
3.877000212669372559e-01
2.718870341777801514e-01
-3.850285112857818604e-01
4.533170536160469055e-02
-3.297548592090606689e-01
2.135787755250930786e-01
4.250422418117523193e-01
3.131356835365295410e-01
1.987261027097702026e-01
-4.739715158939361572e-01
2.314156144857406616e-01
3.099075853824615479e-01
3.655953407287597656e-01
3.537526726722717285e-01
-3.572169244289398193e-01
4.310981333255767822e-01
2.520172595977783203e-01
3.024941086769104004e-01
4.423448443412780762e-01
-2.949874997138977051e-01
2.802195847034454346e-01
-2.640752494335174561e-01
5.075632333755493164e-01
5.096373558044433594e-01
4.716785848140716553e-01
4.126300811767578125e-01
3.530045747756958008e-01
-4.682422429323196411e-02
2.747394144535064697e-01
3.053576946258544922e-01
3.927507102489471436e-01
3.474068343639373779e-01
-4.525594413280487061e-01
2.686158120632171631e-01
-3.726206123828887939e-01
2.599065005779266357e-01
4.308437407016754150e-01
4.443312883377075195e-01
-2.989050745964050293e-01
3.879407942295074463e-01
2.918912470340728760e-01
-2.927010357379913330e-01
5.045999214053153992e-02
-4.783638715744018555e-01
3.929473757743835449e-01
4.297172427177429199e-01
2.026681154966354370e-01
4.564168751239776611e-01
-3.357722759246826172e-01
3.532708585262298584e-01
-3.641330003738403320e-01
2.348414212465286255e-01
2.994989454746246338e-01
3.981653451919555664e-01
3.172002136707305908e-01
2.142331004142761230e-01
2.896755039691925049e-01
3.081192672252655029e-01
2.417776733636856079e-01
3.911597132682800293e-01
-4.604960083961486816e-01
3.889595866203308105e-01
3.412790000438690186e-01
-5.529826879501342773e-01
3.835256397724151611e-01
3.756557703018188477e-01
-4.172964394092559814e-01
3.093841969966888428e-01
4.327564537525177002e-01
3.065445125102996826e-01
-2.947416603565216064e-01
-3.284205198287963867e-01
3.100908994674682617e-01
2.904530167579650879e-01
4.206780493259429932e-01
-4.336825609207153320e-01
3.960615992546081543e-01
2.792621254920959473e-01
4.482050240039825439e-01
-1.112356111407279968e-01
4.537203907966613770e-01
-4.089088439941406250e-01
3.368424773216247559e-01
3.447865843772888184e-01
3.632839024066925049e-01
4.815492630004882812e-01
4.380101263523101807e-01
3.856482803821563721e-01
-4.688690006732940674e-01
2.935875058174133301e-01
2.876230180263519287e-01
2.782988846302032471e-01
3.780257105827331543e-01
-1.984107196331024170e-01
3.765184283256530762e-01
-3.107230961322784424e-01
4.048929214477539062e-01
-3.605471551418304443e-01
-3.392212986946105957e-01
1.020327210426330566e-01
4.293681383132934570e-01
3.976567089557647705e-01
3.515177369117736816e-01
2.552164196968078613e-01
5.214410424232482910e-01
3.086159527301788330e-01
4.574736058712005615e-01
4.257306754589080811e-01
3.276701271533966064e-01
3.241177499294281006e-01
-4.150470495223999023e-01
-1.798891872167587280e-01
3.629667460918426514e-01
4.017618596553802490e-01
4.441392719745635986e-01
4.813292324542999268e-01
2.393131107091903687e-01
3.273141980171203613e-01
9.227421879768371582e-02
1.527220457792282104e-01
3.052337765693664551e-01
-3.102959692478179932e-01
3.820146322250366211e-01
-3.147944211959838867e-01
4.181967377662658691e-01
2.828766107559204102e-01
3.806896507740020752e-01
3.086979985237121582e-01
1.068375334143638611e-01
-3.694166541099548340e-01
2.566466033458709717e-01
-4.573317170143127441e-01
4.655939340591430664e-01
4.758986234664916992e-01
3.812770545482635498e-01
3.321399390697479248e-01
-2.565541863441467285e-01
3.655575215816497803e-01
4.759800434112548828e-01
-4.393042922019958496e-01
-4.526326358318328857e-01
-2.995693981647491455e-01
3.892401158809661865e-01
-3.627869188785552979e-01
-3.531114757061004639e-01
4.043886661529541016e-01
2.612719237804412842e-01
3.360390365123748779e-01
3.017148375511169434e-01
1.016201600432395935e-01
-1.893773376941680908e-01
3.649041354656219482e-01
4.253699779510498047e-01
4.915073215961456299e-01
3.852098584175109863e-01
-1.815917491912841797e-01
4.705112874507904053e-01
4.115507006645202637e-01
3.935370445251464844e-01
-1.773508340120315552e-01
2.631783485412597656e-01
4.150280356407165527e-01
1.630108207464218140e-01
3.385368287563323975e-01
-2.979908883571624756e-01
-2.992142140865325928e-01
2.445606738328933716e-01
2.729187607765197754e-01
2.587396502494812012e-01
3.738354444503784180e-01
-3.266705870628356934e-01
2.406936734914779663e-01
-2.503391802310943604e-01
2.863780856132507324e-01
3.934729695320129395e-01
3.952779471874237061e-01
1.259670704603195190e-01
4.565732777118682861e-01
8.853391557931900024e-02
3.337915539741516113e-01
4.252607524394989014e-01
3.331483006477355957e-01
3.927052766084671021e-02
3.720834553241729736e-01
4.329183399677276611e-01
4.151265621185302734e-01
2.714236974716186523e-01
3.663294017314910889e-01
3.774223029613494873e-01
5.139953494071960449e-01
3.956434428691864014e-01
4.065473675727844238e-01
4.585144221782684326e-01
3.506073951721191406e-01
4.817599058151245117e-01
3.165931105613708496e-01
2.575076818466186523e-01
-3.410499095916748047e-01
-3.730406463146209717e-01
-4.052033722400665283e-01
-3.394336104393005371e-01
2.053100615739822388e-01
-2.679644823074340820e-01
2.777394354343414307e-01
2.327927052974700928e-01
3.140086829662322998e-01
4.449146091938018799e-01
3.661433160305023193e-01
2.653838992118835449e-01
-3.341066837310791016e-01
4.356361031532287598e-01
4.114008247852325439e-01
4.640707075595855713e-01
-3.880202472209930420e-01
3.005379140377044678e-01
3.134196102619171143e-01
3.478376567363739014e-01
4.652187824249267578e-01
3.950881659984588623e-01
2.359090894460678101e-01
3.927854597568511963e-01
4.336010217666625977e-01
4.300070106983184814e-01
3.823243677616119385e-01
3.704489469528198242e-01
-3.060151636600494385e-01
4.696226716041564941e-01
-3.735425174236297607e-01
4.232968389987945557e-01
3.887509703636169434e-01
4.139612913131713867e-01
-3.105759322643280029e-01
3.780617713928222656e-01
2.923756837844848633e-01
4.189775884151458740e-01
4.719617664813995361e-01
2.896986901760101318e-01
1.490167230367660522e-01
-3.181207478046417236e-01
-1.248990967869758606e-01
4.229149222373962402e-01
1.572156846523284912e-01
3.837531805038452148e-01
2.667075395584106445e-01
3.569844067096710205e-01
-3.529924452304840088e-01
3.901393339037895203e-02
3.581653237342834473e-01
4.242750406265258789e-01
-3.597144186496734619e-01
3.596457540988922119e-01
4.603217542171478271e-01
3.756045103073120117e-01
3.208350837230682373e-01
