4.322692751884460449e-02
-3.199333325028419495e-02
2.021673507988452911e-02
-1.650721020996570587e-02
9.952188469469547272e-03
1.698450371623039246e-02
-1.731118303723633289e-03
5.760303884744644165e-02
-6.124097853899002075e-02
-1.829239656217396259e-03
2.662487886846065521e-02
5.776426941156387329e-02
-1.885756105184555054e-02
2.903776057064533234e-02
-1.519260182976722717e-02
-1.753480173647403717e-02
-7.163357455283403397e-03
1.257100794464349747e-02
1.109302043914794922e-02
-9.600963443517684937e-03
3.898226842284202576e-02
5.356427282094955444e-03
-2.668877318501472473e-02
1.312241889536380768e-02
3.081928752362728119e-02
-2.103251405060291290e-02
2.551578730344772339e-02
9.006011299788951874e-03
4.813432693481445312e-02
3.001225739717483521e-02
-1.849033311009407043e-02
1.530904788523912430e-02
-9.384162258356809616e-04
2.381993643939495087e-02
4.900747910141944885e-02
-6.364799337461590767e-04
3.463090211153030396e-02
1.781379431486129761e-02
2.435238100588321686e-02
-2.478424832224845886e-02
-1.117238216102123260e-02
4.864380881190299988e-02
4.383772984147071838e-02
-1.588523760437965393e-02
2.670228481292724609e-02
3.833180665969848633e-02
-2.401213534176349640e-02
3.473423793911933899e-02
1.511288713663816452e-02
-2.877827361226081848e-02
3.730801120400428772e-02
1.355590298771858215e-02
2.743907459080219269e-02
-5.454561207443475723e-03
5.530647188425064087e-02
-1.107314322143793106e-02
-4.267659038305282593e-02
6.006965413689613342e-04
3.092176979407668114e-03
1.549227070063352585e-02
-4.282322153449058533e-02
4.419975355267524719e-02
-4.225198179483413696e-02
-2.917842008173465729e-02
2.158983144909143448e-03
1.868198625743389130e-02
5.305686220526695251e-02
1.261431444436311722e-02
3.363740816712379456e-02
3.754408657550811768e-02
7.105678319931030273e-02
-1.683380268514156342e-02
9.753843769431114197e-03
-5.329165980219841003e-02
-5.822756327688694000e-03
-7.788611203432083130e-02
-8.455323986709117889e-03
2.496794564649462700e-03
4.422628879547119141e-02
-3.188114613294601440e-02
-2.153778448700904846e-02
4.766838625073432922e-02
3.797850757837295532e-02
9.081006050109863281e-03
3.162794513627886772e-03
2.042552456259727478e-02
4.084502160549163818e-02
2.426507882773876190e-02
-8.103271247819066048e-04
-1.582580991089344025e-02
-8.970632217824459076e-03
1.038180198520421982e-02
2.355384267866611481e-02
8.662324398756027222e-03
5.412328988313674927e-02
5.691019818186759949e-03
3.274936974048614502e-02
2.675543725490570068e-02
7.211793214082717896e-02
-6.565634161233901978e-03
1.798034645617008209e-02
-3.532062843441963196e-02
-3.411968797445297241e-02
4.178918898105621338e-02
-5.537439882755279541e-02
2.611036878079175949e-03
-8.462249301373958588e-03
-2.650558017194271088e-02
2.058021165430545807e-02
8.051099628210067749e-02
4.814459383487701416e-02
4.440021142363548279e-02
2.627553977072238922e-02
1.739102974534034729e-02
-1.959476992487907410e-02
4.979791864752769470e-02
-1.243622507899999619e-02
3.276158124208450317e-02
2.005347982048988342e-03
-2.941452525556087494e-02
9.914791211485862732e-03
1.222363952547311783e-02
4.474103823304176331e-02
-2.256994135677814484e-02
-3.728887438774108887e-02
-3.100293315947055817e-02
2.139553613960742950e-02
4.648497700691223145e-02
3.019709326326847076e-02
7.408486679196357727e-03
-4.427067004144191742e-03
5.739640444517135620e-02
5.823089182376861572e-02
1.625115796923637390e-02
2.252297289669513702e-02
-2.257044427096843719e-02
2.127206698060035706e-02
-3.212439827620983124e-03
-1.290336903184652328e-02
2.306782826781272888e-02
5.756096169352531433e-02
-4.523794353008270264e-02
-2.632501127663999796e-04
-3.626495227217674255e-02
1.717016659677028656e-02
2.774825692176818848e-02
-8.998417109251022339e-02
-1.775122620165348053e-02
1.630056463181972504e-02
-6.523422431200742722e-03
2.912067808210849762e-02
2.481137402355670929e-02
6.000168994069099426e-02
4.312102869153022766e-02
-1.476898416876792908e-02
-3.321271762251853943e-02
-3.167691081762313843e-02
5.581777170300483704e-02
3.474381193518638611e-02
5.497229471802711487e-02
1.194694358855485916e-02
4.126125201582908630e-02
2.149600163102149963e-02
-1.565943658351898193e-02
3.913224488496780396e-02
2.012085355818271637e-02
-1.296008285135030746e-02
9.717008098959922791e-03
2.000995911657810211e-02
1.058775559067726135e-02
1.088736765086650848e-02
-1.491333637386560440e-02
2.613102830946445465e-02
5.973434075713157654e-03
1.116425031796097755e-03
-8.605936169624328613e-02
1.138770207762718201e-02
-5.670625343918800354e-02
-1.285082846879959106e-02
-1.300554536283016205e-02
5.791201442480087280e-02
4.863145202398300171e-02
-1.654442399740219116e-02
-5.190458893775939941e-02
-1.863762922585010529e-02
4.157604277133941650e-02
-3.222707286477088928e-02
4.027802497148513794e-02
-2.068364620208740234e-02
4.818918183445930481e-02
1.362395193427801132e-02
-3.638456761837005615e-02
-1.693006977438926697e-02
-4.965978115797042847e-02
-1.535034924745559692e-02
-1.482094172388315201e-02
-4.770801961421966553e-02
-2.718407474458217621e-02
2.633558213710784912e-02
3.171820659190416336e-03
-4.951268434524536133e-02
3.801243007183074951e-02
4.585702344775199890e-02
6.055586971342563629e-03
3.779086750000715256e-03
-2.147116325795650482e-02
1.339483726769685745e-02
-3.300234302878379822e-02
-2.305742353200912476e-02
1.171261817216873169e-02
-4.788490384817123413e-02
-7.530983071774244308e-03
4.134987294673919678e-02
1.743725873529911041e-02
-7.288604974746704102e-03
4.057107493281364441e-02
2.803956158459186554e-02
3.541404381394386292e-02
2.870516479015350342e-02
6.584345828741788864e-03
2.186517789959907532e-02
-2.108581829816102982e-03
4.687580093741416931e-02
2.721986174583435059e-02
9.534016251564025879e-03
5.425710603594779968e-02
-9.805167093873023987e-03
2.787679992616176605e-02
-4.340066108852624893e-03
3.251814842224121094e-02
6.710817571729421616e-03
-9.005946107208728790e-03
-2.901768684387207031e-02
2.314218878746032715e-02
-2.694594115018844604e-02
2.977729216217994690e-02
1.379879564046859741e-02
-1.043844036757946014e-02
1.517309993505477905e-02
2.205361612141132355e-02
1.139752380549907684e-02
1.444374676793813705e-02
4.158778861165046692e-02
2.566875703632831573e-02
3.271689638495445251e-02
-7.759916782379150391e-02
3.508304804563522339e-02
4.427974298596382141e-02
2.041234448552131653e-02
4.196570813655853271e-02
1.572955586016178131e-02
1.924717240035533905e-02
-7.168349809944629669e-03
-2.605766057968139648e-02
-1.993629382923245430e-03
-3.875450044870376587e-02
