1.157020851969718933e-01
-7.762112468481063843e-02
-1.292066574096679688e-01
-4.028075374662876129e-03
-1.242387071251869202e-01
-3.284718375653028488e-03
-3.613399341702461243e-02
-6.070272997021675110e-02
-2.313081920146942139e-02
-7.742051780223846436e-02
4.532228223979473114e-03
-5.422657355666160583e-02
-7.042500376701354980e-02
-1.323693990707397461e-01
-6.656832247972488403e-02
7.871783338487148285e-03
-1.610824018716812134e-01
-1.698209494352340698e-01
-2.947667986154556274e-02
-1.570355333387851715e-02
-1.644652187824249268e-01
-1.738948225975036621e-01
-1.260136067867279053e-01
1.340386867523193359e-01
-1.317012161016464233e-01
9.856103360652923584e-02
-6.183639541268348694e-02
-1.444840580224990845e-01
-1.698272489011287689e-02
-3.763616550713777542e-03
-2.351277321577072144e-02
-5.950284004211425781e-02
-8.224558830261230469e-02
1.511527746915817261e-01
5.370435118675231934e-02
-9.163065254688262939e-02
-5.223598703742027283e-02
-1.823731958866119385e-01
-4.862621426582336426e-02
-2.814767509698867798e-02
6.740868836641311646e-02
-1.134696900844573975e-01
-1.116269081830978394e-01
-1.592199206352233887e-01
-1.260915994644165039e-01
5.618523433804512024e-02
-6.045458465814590454e-02
4.243501275777816772e-02
-5.657824873924255371e-02
-3.419774025678634644e-02
-1.423067878931760788e-02
-1.539732515811920166e-02
2.441021613776683807e-02
-1.751923561096191406e-01
8.011921891011297703e-04
-3.876867517828941345e-02
-8.583878725767135620e-02
-8.321641385555267334e-02
-2.005020156502723694e-02
-1.062624827027320862e-01
-3.231069445610046387e-02
-1.104234084486961365e-01
2.501892670989036560e-02
-2.027438580989837646e-01
-7.145424932241439819e-02
8.455846458673477173e-02
-2.488822489976882935e-02
1.066810116171836853e-01
3.067287616431713104e-02
-6.713318824768066406e-02
4.481490701436996460e-03
-1.429267227649688721e-02
-1.516565382480621338e-01
2.388729900121688843e-02
-1.291423887014389038e-01
3.094195201992988586e-02
3.195835277438163757e-02
-1.475721746683120728e-01
-1.024271845817565918e-01
-2.779768407344818115e-02
1.066319569945335388e-01
-1.124412938952445984e-01
-5.836497247219085693e-02
-1.519588828086853027e-01
-3.945613652467727661e-02
-4.080778732895851135e-02
-5.265197902917861938e-02
-8.536750823259353638e-02
-5.073188617825508118e-02
-3.391441702842712402e-02
-6.566133350133895874e-02
-1.567479074001312256e-01
-9.550704061985015869e-02
6.467848271131515503e-02
2.672069706022739410e-02
-5.674003437161445618e-02
-8.437635749578475952e-02
1.702632158994674683e-01
-5.329812690615653992e-02
3.714758902788162231e-02
-4.386693239212036133e-02
3.084516339004039764e-02
-7.299324870109558105e-02
-1.256678700447082520e-01
-1.248526014387607574e-02
-5.465303733944892883e-02
-5.994054302573204041e-02
-1.558465138077735901e-02
-9.524048864841461182e-02
-1.652811095118522644e-02
-7.234505563974380493e-02
-4.166116565465927124e-02
-8.768509328365325928e-02
4.813201352953910828e-02
2.949943020939826965e-02
-2.865645289421081543e-02
2.777124755084514618e-02
-1.849201880395412445e-02
-6.772079318761825562e-02
-4.499566182494163513e-02
1.490289531648159027e-02
-5.289275199174880981e-02
-8.852642774581909180e-02
-1.523050386458635330e-02
6.820339709520339966e-02
-1.782064884901046753e-02
-1.283857673406600952e-01
-1.425417214632034302e-01
-7.137860357761383057e-02
-1.205492764711380005e-02
-5.321602523326873779e-02
2.428839728236198425e-02
-9.612452238798141479e-02
1.080997213721275330e-01
5.598002462647855282e-04
-5.878247693181037903e-02
-6.790478527545928955e-02
-1.021327450871467590e-01
-2.416843734681606293e-02
1.323570460081100464e-01
-1.303535401821136475e-01
-1.356349736452102661e-01
-2.048153877258300781e-01
9.453930705785751343e-02
-1.343694776296615601e-01
-7.868531346321105957e-02
-1.155860796570777893e-01
-1.147750839591026306e-01
1.152815669775009155e-01
-1.188710704445838928e-01
-3.763999789953231812e-02
4.056126251816749573e-02
-6.639087200164794922e-02
3.182356059551239014e-02
-6.888964027166366577e-02
-6.429300177842378616e-03
2.299039810895919800e-02
-6.841008365154266357e-02
-1.659018695354461670e-01
2.780572045594453812e-03
-8.027622848749160767e-02
-2.615591697394847870e-02
-1.723969876766204834e-01
4.998324811458587646e-02
2.237210795283317566e-02
-3.254788368940353394e-02
-1.208632662892341614e-01
-8.394024334847927094e-03
-6.246377900242805481e-02
1.546555198729038239e-02
7.713545113801956177e-02
-1.691918969154357910e-01
-1.075941845774650574e-01
2.345502562820911407e-02
-3.010159172117710114e-02
-5.296298861503601074e-02
5.846072360873222351e-02
-2.375776384724304080e-04
-1.949688047170639038e-02
-1.319527029991149902e-01
-4.863572865724563599e-02
9.192765504121780396e-02
-2.162337303161621094e-01
-9.906556457281112671e-02
-1.159582957625389099e-01
-1.480616927146911621e-01
-4.889502748847007751e-02
-3.744934126734733582e-02
-1.311792582273483276e-01
1.405000686645507812e-01
-1.061683148145675659e-02
3.288217633962631226e-02
-1.402972191572189331e-01
-4.964566603302955627e-02
-5.519683286547660828e-02
-1.534007210284471512e-02
1.003993395715951920e-02
4.195114597678184509e-03
-1.137951835989952087e-01
1.368983299471437931e-03
-6.428284943103790283e-02
-7.690808706684038043e-05
-1.814930737018585205e-01
-1.387372761964797974e-01
-7.833325862884521484e-02
8.069375157356262207e-02
-4.800150915980339050e-02
6.668891757726669312e-02
-9.358747303485870361e-02
-8.291833847761154175e-02
7.110354024916887283e-03
-6.663811206817626953e-02
-2.091982364654541016e-01
-7.179377973079681396e-02
-9.780533611774444580e-02
1.559839770197868347e-02
4.717440903186798096e-02
-5.122930556535720825e-02
-3.728505596518516541e-02
-4.256733879446983337e-02
-1.397546976804733276e-01
-1.329557448625564575e-01
-1.560311317443847656e-01
1.107115074992179871e-01
-9.589787572622299194e-02
-6.511314958333969116e-02
-1.774207800626754761e-01
-9.857749193906784058e-02
6.357900798320770264e-02
-2.963337302207946777e-02
-1.272777318954467773e-01
-8.638260513544082642e-02
-1.346704363822937012e-02
-1.189779788255691528e-01
-1.179672330617904663e-01
-3.831669688224792480e-02
-1.377099938690662384e-02
-2.284234166145324707e-01
-1.580188050866127014e-02
-3.316033259034156799e-02
-1.042191684246063232e-01
-3.637368977069854736e-02
-1.222247183322906494e-01
3.299832344055175781e-02
1.120672188699245453e-02
-2.655827812850475311e-02
-2.708760462701320648e-02
-1.358776986598968506e-01
-2.894224971532821655e-02
2.428728155791759491e-02
-1.351014971733093262e-01
6.300992518663406372e-02
5.337854102253913879e-02
-1.420163661241531372e-01
-4.646358266472816467e-02
-1.647402904927730560e-02
