5.870267283171415329e-03
3.671145439147949219e-02
2.915022522211074829e-02
3.708955273032188416e-02
4.556033760309219360e-02
-2.994734793901443481e-03
8.974144235253334045e-03
6.578498054295778275e-03
1.517116371542215347e-02
-4.627366364002227783e-02
2.137195318937301636e-02
6.497497856616973877e-02
4.293451458215713501e-02
-2.998805604875087738e-02
1.170225674286484718e-03
-2.021407522261142731e-02
1.630782708525657654e-02
-1.323483139276504517e-02
1.745580509305000305e-02
-6.784672383219003677e-03
4.279308393597602844e-02
1.546788774430751801e-02
-1.234371587634086609e-02
1.637903973460197449e-03
-4.589778557419776917e-02
1.700257882475852966e-02
2.271851710975170135e-02
2.541520399972796440e-03
2.778656221926212311e-02
-3.804447129368782043e-03
-5.425398796796798706e-02
1.950318925082683563e-03
-7.216992788016796112e-03
7.395088672637939453e-02
-8.260844275355339050e-03
1.271255686879158020e-02
-2.477103285491466522e-02
2.604654058814048767e-02
4.209331423044204712e-02
4.202922061085700989e-02
1.888597942888736725e-02
9.091202169656753540e-03
2.394977957010269165e-02
2.995371259748935699e-02
3.976394981145858765e-02
9.430626407265663147e-03
-6.332678720355033875e-03
6.038845051079988480e-03
-3.049611859023571014e-02
5.667152628302574158e-02
-3.176429867744445801e-02
2.181716449558734894e-02
1.559684984385967255e-02
3.334829816594719887e-03
-4.795572534203529358e-02
6.726964563131332397e-02
4.954503849148750305e-02
-5.750428885221481323e-02
-1.388091221451759338e-02
-4.112113267183303833e-02
-1.866212114691734314e-03
2.206570468842983246e-02
-6.202270276844501495e-03
2.520205080509185791e-02
-8.970427326858043671e-03
-9.285680134780704975e-04
-6.197779905050992966e-03
1.732338033616542816e-02
4.625013098120689392e-03
-5.469350609928369522e-03
-1.389204896986484528e-02
-1.459034532308578491e-02
-9.333875030279159546e-03
3.090432658791542053e-02
2.194904536008834839e-02
1.388884242624044418e-02
-1.409655157476663589e-02
5.309749767184257507e-02
3.508874028921127319e-02
6.802894920110702515e-02
4.968376830220222473e-02
8.282820694148540497e-03
-3.359539806842803955e-02
1.514434069395065308e-02
-2.336379140615463257e-02
-4.388832673430442810e-02
7.194487005472183228e-02
-4.656763281673192978e-03
-1.340979151427745819e-02
-6.230895593762397766e-02
2.430433034896850586e-02
-5.499068647623062134e-03
1.851235330104827881e-02
-7.671836763620376587e-03
1.221584901213645935e-02
6.803220510482788086e-02
-3.905187919735908508e-02
-2.116638980805873871e-02
3.519244492053985596e-02
-1.915360055863857269e-02
-3.364253789186477661e-03
4.926367476582527161e-02
5.472582951188087463e-02
2.975074946880340576e-02
-1.397041045129299164e-02
6.844906508922576904e-02
-2.698886208236217499e-02
-3.344212099909782410e-02
1.501240022480487823e-02
5.047169048339128494e-03
4.043422266840934753e-02
2.849601767957210541e-02
2.569957077503204346e-02
-1.274216361343860626e-02
-3.663827106356620789e-02
4.497999697923660278e-02
3.524459153413772583e-02
3.257872536778450012e-02
1.093215588480234146e-02
-1.731121353805065155e-02
-1.246313005685806274e-02
-1.435985229909420013e-02
1.809543743729591370e-02
9.235773235559463501e-03
7.402035593986511230e-02
-4.726859554648399353e-02
1.748049049638211727e-03
-2.564232982695102692e-02
-4.436846356838941574e-03
4.914257675409317017e-03
-2.141922339797019958e-02
-1.035736175253987312e-03
-2.011816203594207764e-02
1.805501058697700500e-02
8.744550868868827820e-03
-9.200806170701980591e-02
-9.019799530506134033e-03
5.529687926173210144e-02
-5.005115643143653870e-03
-7.928054779767990112e-02
-3.007880225777626038e-02
-1.978263631463050842e-02
1.168302074074745178e-02
2.533611468970775604e-02
-3.066456131637096405e-02
3.181045874953269958e-02
4.801335558295249939e-02
1.639350503683090210e-02
-2.474983967840671539e-02
4.223603382706642151e-02
9.720818139612674713e-03
2.877704612910747528e-02
1.062778569757938385e-02
1.364086847752332687e-02
-5.151225626468658447e-02
6.962408870458602905e-02
-3.217342868447303772e-02
1.041592005640268326e-02
3.899616654962301254e-03
-2.177804149687290192e-02
-1.885433681309223175e-02
1.493004709482192993e-02
-2.111816219985485077e-02
6.582378596067428589e-02
1.287385448813438416e-02
-3.383936360478401184e-02
7.535461336374282837e-02
4.923361539840698242e-02
-2.778862416744232178e-02
1.213778834789991379e-02
3.648098558187484741e-02
4.602661356329917908e-02
-2.319179475307464600e-02
-2.279187552630901337e-02
5.961440876126289368e-02
-6.841455399990081787e-02
1.298460364341735840e-02
2.602665126323699951e-02
2.665727399289608002e-02
2.744491584599018097e-02
1.348096504807472229e-02
2.454861439764499664e-02
2.991852164268493652e-02
3.256234899163246155e-02
4.430662468075752258e-02
-3.822701517492532730e-03
1.064702216535806656e-02
5.136122927069664001e-02
-1.235796604305505753e-03
-1.102189626544713974e-02
-2.258686721324920654e-02
9.218574501574039459e-03
6.782177370041608810e-03
-2.579860761761665344e-02
2.198819443583488464e-02
-2.776849083602428436e-02
-3.201633691787719727e-02
-6.234878674149513245e-02
3.278177976608276367e-02
-1.722036860883235931e-02
1.036351546645164490e-02
2.563133835792541504e-02
1.699596759863197803e-03
1.486368943005800247e-02
1.586829125881195068e-02
-2.695108577609062195e-02
6.790526211261749268e-02
-2.339511737227439880e-02
2.474946668371558189e-03
-2.758259186521172523e-03
-2.488513244315981865e-03
1.799487881362438202e-02
4.601845145225524902e-02
1.531862188130617142e-02
-2.471619844436645508e-02
-6.971164606511592865e-03
-1.250301836989820004e-03
4.343633353710174561e-02
-6.265674252063035965e-03
1.183370873332023621e-02
-3.095255605876445770e-02
1.574343815445899963e-02
1.907954737544059753e-02
4.451681673526763916e-02
2.146100066602230072e-02
-1.256186328828334808e-02
8.235821500420570374e-03
4.943805560469627380e-02
-2.591636404395103455e-02
-5.723535083234310150e-03
-1.126310438849031925e-03
-4.887694120407104492e-02
5.033382028341293335e-02
5.965315550565719604e-02
2.255931496620178223e-02
-2.762787602841854095e-02
8.898570202291011810e-03
-2.101501822471618652e-02
6.174984388053417206e-03
-2.070775814354419708e-02
3.809158876538276672e-02
2.610723488032817841e-03
-1.776062510907649994e-02
-2.267311513423919678e-02
-1.773267425596714020e-02
1.433701626956462860e-02
1.948242634534835815e-02
-5.794528871774673462e-03
8.083592168986797333e-03
3.161431849002838135e-02
-5.496535450220108032e-03
9.395039640367031097e-03
2.766332821920514107e-03
-1.085342280566692352e-02
3.480522707104682922e-02
7.598597556352615356e-02
