-1.979930400848388672e-01
-1.424911990761756897e-02
-7.537507265806198120e-02
-1.079406365752220154e-01
3.941449522972106934e-02
-1.780828833580017090e-01
6.131013482809066772e-02
-1.109034568071365356e-01
-1.675313897430896759e-02
9.776031225919723511e-02
9.353353828191757202e-02
-1.448346078395843506e-01
1.009636837989091873e-02
-3.989697992801666260e-02
-1.055190712213516235e-01
-8.454009145498275757e-02
-8.717254549264907837e-02
-2.275426536798477173e-01
-9.737247228622436523e-02
-1.599554717540740967e-01
-1.750786006450653076e-01
-1.143475845456123352e-01
-1.933503150939941406e-02
1.062013581395149231e-01
-9.356283396482467651e-02
2.404183335602283478e-02
-9.689658880233764648e-02
-3.236833959817886353e-02
1.052765361964702606e-02
3.236129879951477051e-02
-3.927730768918991089e-02
-1.510898321866989136e-01
-6.737822294235229492e-02
-4.522595554590225220e-02
-7.414854317903518677e-02
5.621204897761344910e-02
-9.504806250333786011e-02
1.017521619796752930e-01
-1.546644791960716248e-02
-2.378015220165252686e-02
-8.464217185974121094e-02
3.837961703538894653e-02
-7.833698391914367676e-02
8.064216934144496918e-03
1.040377467870712280e-01
-1.113737598061561584e-01
-4.235097020864486694e-02
-1.690167039632797241e-01
-3.431428223848342896e-03
-6.074891425669193268e-03
1.410377919673919678e-01
-5.760361626744270325e-02
-1.521448488347232342e-03
-2.533407881855964661e-02
-1.057000160217285156e-01
-7.894991338253021240e-02
-3.353405371308326721e-02
5.241039022803306580e-02
-6.278185546398162842e-02
-9.030067920684814453e-02
-4.780580103397369385e-02
-4.862774908542633057e-02
1.803218573331832886e-02
3.810714185237884521e-02
-1.268917173147201538e-01
1.752416789531707764e-02
-4.482273757457733154e-02
5.572443827986717224e-02
-5.846595019102096558e-02
7.886419445276260376e-02
-1.255883928388357162e-02
-8.855418115854263306e-02
-1.801034063100814819e-01
2.144085243344306946e-02
-1.089490056037902832e-01
1.023945119231939316e-02
-3.576661227270960808e-03
-8.177949115633964539e-03
-3.698907420039176941e-02
-1.170250400900840759e-01
-9.659307450056076050e-02
-6.940101087093353271e-02
8.900649845600128174e-03
-1.721519231796264648e-01
-2.410050667822360992e-02
2.689645811915397644e-02
-5.035041272640228271e-02
1.357859838753938675e-02
-3.248953446745872498e-02
5.347725376486778259e-02
-1.299675107002258301e-01
1.045286208391189575e-01
-2.674629352986812592e-02
3.593410551548004150e-02
-1.657526046037673950e-01
2.768605574965476990e-02
-1.240587159991264343e-01
-1.503237634897232056e-01
5.430823657661676407e-04
5.585969239473342896e-02
2.842378616333007812e-02
-6.119606643915176392e-02
-4.343605414032936096e-02
1.577270962297916412e-02
-6.411214917898178101e-02
2.301620319485664368e-03
7.110121101140975952e-02
5.720798857510089874e-03
-1.564481854438781738e-02
-1.371809393167495728e-01
-5.674280598759651184e-02
-1.084101721644401550e-01
-7.630467414855957031e-02
-7.098253816366195679e-02
1.595529913902282715e-02
7.214304059743881226e-03
-1.840258389711380005e-01
-1.440823227167129517e-01
-7.170920073986053467e-02
-4.952853173017501831e-02
-4.294131323695182800e-02
-5.569616332650184631e-02
-7.330202311277389526e-02
-3.665587678551673889e-02
-1.376259326934814453e-01
-2.142337895929813385e-02
-1.214702501893043518e-01
-6.949938833713531494e-02
1.113482564687728882e-01
-8.673235028982162476e-02
-5.268974229693412781e-03
-4.640690609812736511e-02
8.273339271545410156e-02
2.954873628914356232e-02
1.072268411517143250e-01
-1.902576684951782227e-01
2.623712643980979919e-02
-8.303693681955337524e-02
2.066501602530479431e-02
-4.934459924697875977e-03
-6.615649908781051636e-02
7.129707932472229004e-02
-3.245843946933746338e-02
-1.970344595611095428e-02
1.179813966155052185e-02
-1.023413613438606262e-01
-2.654463611543178558e-02
-6.134644150733947754e-02
-2.359762601554393768e-02
-1.346116960048675537e-01
-6.463690102100372314e-02
-5.931570380926132202e-02
-1.921468973159790039e-02
3.054015897214412689e-02
-1.427957564592361450e-01
2.784997969865798950e-02
-1.636680960655212402e-01
-2.478225156664848328e-02
2.099668420851230621e-02
-6.019901856780052185e-02
-7.632987946271896362e-02
-1.219794899225234985e-01
-3.166431933641433716e-02
-6.843222677707672119e-02
3.156004846096038818e-02
-6.055556237697601318e-02
-1.084203049540519714e-01
-1.307834237813949585e-01
2.036302164196968079e-02
-8.534310758113861084e-02
-1.065599694848060608e-01
2.928403671830892563e-03
-1.213975176215171814e-01
-1.612056791782379150e-01
-1.990327145904302597e-03
-8.682402223348617554e-02
4.538928717374801636e-02
-2.267877012491226196e-02
3.989880532026290894e-02
-1.128064915537834167e-01
1.376445591449737549e-01
-9.953353554010391235e-02
-5.525952205061912537e-02
-1.589100360870361328e-01
-1.201136875897645950e-02
-3.574719280004501343e-02
-1.782113611698150635e-01
-5.092792585492134094e-02
9.889850392937660217e-03
-1.383737921714782715e-01
5.161504447460174561e-02
-6.106470245867967606e-03
7.698220014572143555e-02
4.830760136246681213e-02
6.356588751077651978e-02
-8.579940535128116608e-03
-3.731613745912909508e-03
-1.844925582408905029e-01
9.437750279903411865e-02
1.211779788136482239e-01
1.009130734018981457e-03
-4.863152652978897095e-02
1.188128534704446793e-02
1.439867727458477020e-02
-8.041636645793914795e-02
2.883294969797134399e-02
8.333451300859451294e-02
7.327441871166229248e-02
-9.930286556482315063e-02
-8.657840639352798462e-02
-5.251367576420307159e-03
-1.102659404277801514e-01
-2.949537150561809540e-02
-3.034995682537555695e-02
3.653972968459129333e-02
2.366008423268795013e-02
-1.417528986930847168e-01
-9.494427591562271118e-02
4.299230128526687622e-02
-1.033827587962150574e-01
-6.558800488710403442e-02
-3.403785824775695801e-02
-4.602896049618721008e-02
-7.575708627700805664e-02
-8.435484021902084351e-02
-1.176545247435569763e-01
5.447088740766048431e-03
7.625734899193048477e-03
-9.805714711546897888e-03
1.111985892057418823e-01
-6.121060252189636230e-02
8.784499764442443848e-02
-1.647144183516502380e-02
-5.856854841113090515e-02
5.571547895669937134e-02
-6.496754940599203110e-03
-8.587744832038879395e-02
4.933743923902511597e-02
-1.863945573568344116e-01
-2.586835436522960663e-02
-6.284494698047637939e-02
-1.446415632963180542e-01
-8.967153728008270264e-02
-7.372371852397918701e-02
-1.738478094339370728e-01
-1.259193196892738342e-02
-1.854124218225479126e-01
3.347041085362434387e-02
6.618846673518419266e-03
-6.437499821186065674e-02
-4.954347014427185059e-02
-5.698747560381889343e-02
-6.208870932459831238e-02
-1.063128933310508728e-02
5.394477024674415588e-02
-7.608492672443389893e-02
