6.282554566860198975e-02
-3.929444029927253723e-02
-1.577099086716771126e-03
1.921479590237140656e-02
1.694654487073421478e-02
-6.129907816648483276e-02
-5.248628556728363037e-02
1.336792856454849243e-02
7.558262441307306290e-03
-2.167502790689468384e-02
-2.592798136174678802e-02
7.249065488576889038e-02
3.028572909533977509e-02
-1.995069906115531921e-02
5.489564687013626099e-02
1.116958446800708771e-03
-5.372068844735622406e-03
4.737386852502822876e-02
8.253498002886772156e-03
1.199801452457904816e-02
6.892452389001846313e-02
-3.327354788780212402e-02
3.492547199130058289e-02
6.554947793483734131e-02
2.474592253565788269e-02
6.321727484464645386e-02
-1.547933928668498993e-02
2.196359448134899139e-02
4.687014967203140259e-02
1.414479874074459076e-02
-3.786152601242065430e-02
-4.719401523470878601e-02
5.522951856255531311e-02
1.324835047125816345e-02
-1.972185820341110229e-02
7.728726137429475784e-03
3.559848992154002190e-03
-5.211291834712028503e-02
1.840006373822689056e-02
5.040159821510314941e-02
-5.853430368006229401e-03
3.619641438126564026e-02
4.875544458627700806e-02
1.181758381426334381e-02
8.396353805437684059e-04
-3.821456432342529297e-02
2.389951795339584351e-02
-5.986670032143592834e-03
1.663088798522949219e-02
-6.920787692070007324e-02
2.183703519403934479e-02
5.076029524207115173e-02
6.442958116531372070e-02
2.110733278095722198e-02
1.245219260454177856e-02
2.905709668993949890e-02
1.893167383968830109e-02
-1.430015545338392258e-02
2.156508527696132660e-02
-3.709644079208374023e-02
2.546269912272691727e-03
2.220909669995307922e-02
3.920126706361770630e-02
-6.787558645009994507e-02
1.845949143171310425e-02
1.045982819050550461e-02
-1.156468130648136139e-02
1.417754869908094406e-02
4.772468004375696182e-03
1.770999655127525330e-02
-5.493875965476036072e-02
-3.791867941617965698e-02
-2.656703256070613861e-02
-8.534084074199199677e-03
1.411736384034156799e-02
-4.972548037767410278e-02
4.708176106214523315e-02
8.244304917752742767e-03
3.793023899197578430e-02
1.599206589162349701e-02
1.124793291091918945e-02
6.464241445064544678e-02
2.723582461476325989e-02
1.470114686526358128e-03
2.931088767945766449e-02
9.846163913607597351e-03
1.988105662167072296e-02
7.207220420241355896e-03
-2.848147414624691010e-03
-2.020681835711002350e-02
2.464617416262626648e-02
6.528723519295454025e-03
5.261614918708801270e-02
2.220214903354644775e-02
-4.365287721157073975e-03
3.752641752362251282e-02
5.924661830067634583e-02
-3.588502760976552963e-03
4.061977192759513855e-02
5.486488342285156250e-02
2.417280338704586029e-02
-1.660393364727497101e-02
1.246943976730108261e-02
5.947260931134223938e-02
2.718270756304264069e-02
5.783899128437042236e-02
-4.613237828016281128e-02
5.340266972780227661e-02
9.832385927438735962e-02
1.004368346184492111e-02
2.163488976657390594e-02
6.178118661046028137e-02
-7.560744881629943848e-02
1.213328447192907333e-02
1.829390297643840313e-03
-3.221800178289413452e-02
-2.294502034783363342e-02
2.216708660125732422e-02
3.082930296659469604e-02
3.119185380637645721e-02
-1.066047884523868561e-02
-9.672095999121665955e-03
6.126891449093818665e-02
3.565741330385208130e-02
-2.355546876788139343e-02
-3.519022837281227112e-02
3.454546257853507996e-02
1.966850599274039268e-03
4.282436892390251160e-02
1.459392812103033066e-02
3.672298416495323181e-02
-7.024203427135944366e-03
2.378101646900177002e-02
-5.258179735392332077e-03
-3.781212493777275085e-02
-4.282549396157264709e-02
1.185096707195043564e-02
-1.591741107404232025e-02
3.520641475915908813e-02
-1.570557244122028351e-02
4.562608152627944946e-02
4.472984001040458679e-02
-4.528069868683815002e-02
4.497814178466796875e-02
6.796795409172773361e-03
2.911273762583732605e-02
-2.178946323692798615e-02
1.070253551006317139e-02
2.541275136172771454e-02
2.997807459905743599e-03
-4.786432906985282898e-02
3.784675523638725281e-02
5.699574947357177734e-02
3.036545403301715851e-02
2.637741342186927795e-02
-1.173746399581432343e-02
2.682544104754924774e-02
-2.184832096099853516e-02
-3.013191372156143188e-02
-5.703178700059652328e-03
2.112155966460704803e-02
-5.471984669566154480e-02
-9.150151163339614868e-04
1.589957997202873230e-02
2.396716037765145302e-03
-4.185025021433830261e-02
5.896503850817680359e-02
-1.963133458048105240e-03
7.623356301337480545e-03
2.498777583241462708e-03
-5.112936720252037048e-03
2.656476385891437531e-02
2.723900042474269867e-02
9.304131381213665009e-03
1.950032263994216919e-02
-3.865351527929306030e-02
2.609369903802871704e-02
-5.192103236913681030e-02
7.176016923040151596e-03
-4.785082128364592791e-04
1.662854477763175964e-02
-7.976202294230461121e-03
1.291804295033216476e-02
6.786975078284740448e-03
-3.645947203040122986e-02
3.052066639065742493e-02
1.599902100861072540e-02
-4.483221843838691711e-02
3.077063150703907013e-02
1.628753612749278545e-03
3.839059546589851379e-02
8.491238951683044434e-02
1.920632831752300262e-02
-3.430082276463508606e-02
-9.525962173938751221e-03
1.950584934093058109e-03
-1.013236045837402344e-01
6.065429002046585083e-02
4.348399117588996887e-02
3.257893398404121399e-02
1.760922186076641083e-02
6.499676033854484558e-03
1.735113374888896942e-02
5.552920699119567871e-02
5.248220264911651611e-02
2.905150689184665680e-02
5.034790560603141785e-02
5.562466755509376526e-02
9.107904508709907532e-03
2.620674483478069305e-02
7.201361004263162613e-03
-2.280142717063426971e-02
2.156075090169906616e-02
2.146851085126399994e-02
-3.853444708511233330e-03
6.530405580997467041e-02
2.274432033300399780e-02
5.679865367710590363e-03
3.380697593092918396e-02
2.191526442766189575e-02
5.149440467357635498e-02
3.289836272597312927e-02
-7.139776833355426788e-03
-2.689887210726737976e-02
-2.885273657739162445e-02
2.377725020051002502e-02
4.495545476675033569e-02
-2.797927707433700562e-02
-1.005660369992256165e-02
2.871046774089336395e-02
3.584427013993263245e-02
-2.748247422277927399e-02
3.044393472373485565e-02
-2.721983753144741058e-02
1.888507278636097908e-03
-1.369338296353816986e-02
1.140401884913444519e-02
-3.529717773199081421e-02
-3.260353207588195801e-02
-7.825026288628578186e-03
1.448539551347494125e-02
-8.480042219161987305e-03
4.426560178399085999e-02
-9.490719996392726898e-03
3.462927415966987610e-02
1.545647066086530685e-02
3.229739516973495483e-02
1.620906405150890350e-02
-4.356745257973670959e-02
2.599944546818733215e-02
2.858971431851387024e-02
1.020748168230056763e-02
8.148960769176483154e-03
4.262649640440940857e-02
1.939854025840759277e-02
-1.041155960410833359e-02
