-3.249172568321228027e-01 -5.505800247192382812e-02 4.432910084724426270e-01 -5.082284100353717804e-03 -2.342365495860576630e-02 -7.110484875738620758e-03 -1.156830508261919022e-02 9.885923936963081360e-03 -6.555812805891036987e-02 -6.769844144582748413e-02 -7.418192178010940552e-02 1.461633890867233276e-01 -1.572771742939949036e-02 1.590860635042190552e-01 1.070402562618255615e-01 -1.782401837408542633e-02 9.082792699337005615e-02 -1.515971776098012924e-02 6.448952015489339828e-03 -4.086178168654441833e-02 -5.295417830348014832e-02 2.485988102853298187e-02 -7.795280218124389648e-02 1.674195528030395508e-01 5.229809507727622986e-02 -2.112379111349582672e-02 -4.124086722731590271e-02 -1.774910688400268555e-01 9.651971608400344849e-02 -6.966671440750360489e-03
3.276797756552696228e-02 -1.862388402223587036e-01 2.175418138504028320e-01 -1.597537472844123840e-02 -1.504867151379585266e-02 -2.011150866746902466e-02 2.552181296050548553e-02 9.402625262737274170e-03 -2.510711848735809326e-01 -5.064458120614290237e-03 -1.168738352134823799e-03 1.370543707162141800e-02 3.630169853568077087e-02 -1.408891528844833374e-01 4.699305817484855652e-02 -9.639053046703338623e-02 -1.238203346729278564e-01 1.212913468480110168e-01 -6.912962347269058228e-02 -1.063221227377653122e-02 -2.295030094683170319e-02 3.773832693696022034e-02 5.250412225723266602e-02 -5.931096524000167847e-02 1.401917785406112671e-01 -5.091328546404838562e-02 -4.509958252310752869e-02 -1.535180062055587769e-01 1.068730354309082031e-01 -2.145433798432350159e-02
-1.718209832906723022e-01 -2.038216590881347656e-01 4.899631142616271973e-01 -1.069844812154769897e-01 -8.606998622417449951e-02 3.565240278840065002e-02 -2.612013928592205048e-02 -3.209583926945924759e-03 1.910284720361232758e-02 1.184116955846548080e-02 -1.416763290762901306e-02 -9.357983618974685669e-02 -6.522580981254577637e-02 -4.689374763984233141e-04 1.608537510037422180e-02 -1.898495554924011230e-01 6.261164695024490356e-02 -9.223695844411849976e-02 3.301620110869407654e-02 -3.807025030255317688e-02 1.486947983503341675e-01 1.063738539814949036e-01 -8.413611352443695068e-02 -3.393676131963729858e-02 1.038136035203933716e-01 5.131433159112930298e-02 -7.418782263994216919e-02 -1.937786787748336792e-01 1.833045482635498047e-02 3.910056129097938538e-02
2.266495227813720703e-01 2.247258424758911133e-01 1.306108534336090088e-01 -1.633155047893524170e-01 3.695984929800033569e-02 7.774559315294027328e-03 -1.220967248082160950e-01 -5.777168087661266327e-03 -1.612400263547897339e-01 -1.359820645302534103e-02 -7.345736771821975708e-02 -8.020512759685516357e-02 5.667236074805259705e-02 8.461712300777435303e-02 -1.442629545927047729e-01 -3.986766934394836426e-02 2.124718204140663147e-02 -3.013584315776824951e-01 -8.506157249212265015e-02 3.790177404880523682e-02 -9.171793609857559204e-02 -1.176731064915657043e-01 -1.759151369333267212e-02 -1.031049713492393494e-01 -4.756635800004005432e-02 -1.566632650792598724e-02 2.683721669018268585e-02 -1.215893030166625977e-01 1.260970532894134521e-01 1.189051195979118347e-01
9.840438514947891235e-02 -1.704194992780685425e-01 -1.203962042927742004e-01 -1.113776117563247681e-01 -1.543978303670883179e-01 -1.223639547824859619e-01 9.738499671220779419e-02 -7.354258000850677490e-02 -7.852613925933837891e-02 -6.040236726403236389e-02 -1.454404890537261963e-01 -9.706145524978637695e-02 -1.655988395214080811e-02 -2.957113273441791534e-02 3.765362873673439026e-02 1.775379478931427002e-01 -1.547238677740097046e-01 5.093172565102577209e-02 1.535003334283828735e-01 -9.170360118150711060e-02 -6.104980409145355225e-02 4.612078517675399780e-02 -3.692200407385826111e-04 -8.102514594793319702e-02 -4.056814312934875488e-02 -9.242904186248779297e-02 9.740279614925384521e-02 1.417563110589981079e-02 9.929943829774856567e-02 5.416873469948768616e-02
4.606314599514007568e-01 -5.014762878417968750e-01 2.179587632417678833e-01 1.217947006225585938e-01 -8.527997136116027832e-02 -2.495503798127174377e-02 -1.564315706491470337e-01 1.038883402943611145e-01 9.435401856899261475e-02 -7.395965605974197388e-02 2.850600890815258026e-02 -1.573469191789627075e-01 9.316825866699218750e-02 -4.183377325534820557e-02 8.711374551057815552e-02 -3.117840550839900970e-02 -1.068848595023155212e-01 -1.732597313821315765e-02 1.415770407766103745e-02 2.828526124358177185e-02 1.597201973199844360e-01 8.824329823255538940e-02 -4.798577725887298584e-02 9.927567094564437866e-02 3.967064246535301208e-02 -4.613769426941871643e-02 -3.718343004584312439e-02 1.457333564758300781e-01 1.437723636627197266e-01 -1.361570134758949280e-02
1.960320621728897095e-01 1.675138473510742188e-01 -3.821375370025634766e-01 1.735039204359054565e-01 3.376891463994979858e-02 7.970376312732696533e-02 -3.305113688111305237e-02 5.022159591317176819e-02 -1.103498414158821106e-01 6.142494967207312584e-04 -1.393295675516128540e-01 6.795997917652130127e-02 -5.599413439631462097e-02 4.890462849289178848e-03 9.699302166700363159e-02 2.503880299627780914e-03 -4.840382188558578491e-02 -1.255430281162261963e-01 6.738126277923583984e-02 -8.737114816904067993e-02 1.128069385886192322e-01 -9.195141494274139404e-02 1.229671016335487366e-02 9.335047751665115356e-02 -4.279866442084312439e-02 1.329691559076309204e-01 9.610899537801742554e-02 -1.517913639545440674e-01 -5.269768647849559784e-03 -3.558580577373504639e-02
-2.692500948905944824e-01 -1.184812486171722412e-01 4.401389881968498230e-02 4.081675410270690918e-02 6.428726017475128174e-02 7.107951492071151733e-02 9.266447275876998901e-03 -9.734110534191131592e-02 1.827191188931465149e-02 -1.565802395343780518e-01 -1.633738875389099121e-01 1.161253172904253006e-02 -6.622037384659051895e-03 -1.909283734858036041e-02 1.150230765342712402e-01 -3.722776845097541809e-02 1.002639830112457275e-01 -1.136131808161735535e-01 5.692548304796218872e-02 1.845859885215759277e-01 -2.540070936083793640e-02 9.006150066852569580e-02 -8.899340778589248657e-02 -8.639331161975860596e-02 1.060043200850486755e-01 -3.547468408942222595e-02 1.582210958003997803e-01 1.990038342773914337e-02 3.159392252564430237e-02 -3.771356493234634399e-02
-2.079515904188156128e-01 1.326805651187896729e-01 -2.125966176390647888e-02 -1.679122000932693481e-01 7.576973736286163330e-02 3.939124569296836853e-02 -7.892403006553649902e-02 6.896915379911661148e-03 -2.994748577475547791e-02 4.640481993556022644e-02 -4.312421754002571106e-02 2.376692146062850952e-01 -1.071378006599843502e-03 2.819503191858530045e-03 -6.592964380979537964e-02 -3.949796780943870544e-02 -1.277659926563501358e-02 1.122471094131469727e-01 1.957011595368385315e-02 3.001683950424194336e-02 7.915890216827392578e-02 7.383233308792114258e-02 5.307012703269720078e-03 5.013173446059226990e-03 2.245028167963027954e-01 1.550654415041208267e-02 -5.444875359535217285e-02 1.440467387437820435e-01 -6.961546838283538818e-02 -9.005995094776153564e-02
-2.004658281803131104e-01 -3.326360583305358887e-01 -1.593081504106521606e-01 5.765813216567039490e-02 1.002764049917459488e-02 -6.856634747236967087e-03 -5.635016411542892456e-02 7.462789118289947510e-02 3.483758866786956787e-02 7.444804161787033081e-02 1.808473095297813416e-02 1.608878225088119507e-01 1.552402228116989136e-01 3.583474084734916687e-02 5.357477068901062012e-02 -9.867329895496368408e-02 -4.021975770592689514e-02 -5.766997858881950378e-02 3.276245668530464172e-02 7.223822921514511108e-02 3.351477161049842834e-02 4.689725115895271301e-02 -1.152076944708824158e-01 8.653496950864791870e-02 1.873071193695068359e-01 1.486954092979431152e-02 3.864804655313491821e-02 1.588414609432220459e-01 2.209509015083312988e-01 -3.567728400230407715e-02
4.395754933357238770e-01 2.658900022506713867e-01 4.634752571582794189e-01 1.522090658545494080e-02 -2.053050883114337921e-02 1.720316894352436066e-02 -1.096134856343269348e-01 9.159334003925323486e-02 -9.570737183094024658e-02 -3.317455062642693520e-03 1.057577282190322876e-01 5.772765725851058960e-02 3.872196003794670105e-02 4.490415379405021667e-02 -8.607538184151053429e-04 -3.067106381058692932e-02 3.665936738252639771e-02 -1.077979430556297302e-01 -2.074282616376876831e-02 -2.020945586264133453e-02 4.380721598863601685e-02 -1.192305758595466614e-01 -9.770198911428451538e-02 -3.569981455802917480e-02 5.290319025516510010e-02 8.964804559946060181e-02 2.247491478919982910e-02 1.849600300192832947e-02 1.204667091369628906e-01 -8.307212032377719879e-03
2.401583492755889893e-01 2.345624864101409912e-01 -1.455546617507934570e-01 -5.003792699426412582e-03 9.063719958066940308e-02 -4.210521932691335678e-03 1.006396934390068054e-01 3.696518018841743469e-02 -3.027557395398616791e-02 -6.500805914402008057e-02 1.869421154260635376e-01 8.981965482234954834e-02 -5.618721991777420044e-02 1.494446992874145508e-01 -1.493824273347854614e-01 -1.762604713439941406e-02 -1.337059438228607178e-01 -1.007261406630277634e-02 4.172136634588241577e-02 -1.562760025262832642e-01 4.912690725177526474e-03 3.094032593071460724e-02 -5.314473994076251984e-03 1.618624199181795120e-03 -1.245513409376144409e-01 8.801727741956710815e-02 -5.400623753666877747e-02 1.663720905780792236e-01 -9.258464723825454712e-02 3.609807044267654419e-02
3.069327175617218018e-01 2.773344218730926514e-01 -3.691338598728179932e-01 1.285922527313232422e-01 -1.770107299089431763e-01 6.282429397106170654e-02 7.258522091433405876e-04 3.631276637315750122e-02 -1.205048039555549622e-01 9.541376680135726929e-02 -5.472185555845499039e-03 -4.100020602345466614e-02 -9.516394883394241333e-02 7.443154230713844299e-03 1.256080716848373413e-01 -3.303936868906021118e-02 -8.125955611467361450e-02 9.240597486495971680e-02 -1.823287084698677063e-02 1.358706802129745483e-01 -6.169379130005836487e-02 8.918525278568267822e-02 -9.225524961948394775e-02 6.276821345090866089e-02 8.569629862904548645e-03 -9.473792463541030884e-02 1.169304251670837402e-01 -1.445615887641906738e-01 2.100694775581359863e-01 -8.364108204841613770e-02
1.236880756914615631e-02 2.068652212619781494e-01 -2.287519723176956177e-01 9.356931596994400024e-02 -2.714538201689720154e-02 1.680575907230377197e-01 -1.020116508007049561e-01 -1.261275634169578552e-02 -1.322195529937744141e-01 -4.050600901246070862e-02 5.448334850370883942e-03 1.471745083108544350e-03 2.014755271375179291e-02 6.437759846448898315e-02 1.991172283887863159e-01 8.661643415689468384e-02 -1.504093259572982788e-01 -4.243893921375274658e-02 -1.122225821018218994e-01 -1.284518688917160034e-01 2.025817986577749252e-03 1.407272815704345703e-01 -1.183890104293823242e-01 4.602947831153869629e-02 -6.555990129709243774e-02 -8.309801667928695679e-02 1.251834630966186523e-01 -6.591644138097763062e-02 -2.109089195728302002e-01 3.547350317239761353e-02
-1.902078837156295776e-01 -1.618181765079498291e-01 8.220432326197624207e-03 1.861395314335823059e-02 2.637908561155200005e-03 9.499124437570571899e-02 4.743694514036178589e-02 -6.065764650702476501e-02 1.599256247282028198e-01 -1.447135508060455322e-01 1.143307685852050781e-01 1.302484720945358276e-01 2.574751339852809906e-02 3.530938178300857544e-02 -4.092679172754287720e-02 2.073250338435173035e-02 5.406201630830764771e-02 4.377489909529685974e-02 -5.330620333552360535e-02 -1.221061795949935913e-01 -4.085272666998207569e-04 -4.562284797430038452e-02 -1.026948019862174988e-01 1.028023138642311096e-01 9.597627818584442139e-02 -9.495338890701532364e-04 1.325136721134185791e-01 -2.132558971643447876e-01 1.823128461837768555e-01 -6.479181349277496338e-02
7.500261534005403519e-03 4.132269695401191711e-02 1.687997132539749146e-01 6.248562783002853394e-02 -1.234526857733726501e-01 -4.519983194768428802e-03 8.917074650526046753e-02 -3.782978281378746033e-02 1.020135805010795593e-01 -5.616727098822593689e-02 7.742288708686828613e-02 1.070189327001571655e-01 2.195353992283344269e-02 -1.268100887537002563e-01 -1.416114419698715210e-01 -7.388915121555328369e-02 4.622030258178710938e-02 2.337343432009220123e-02 1.196199655532836914e-01 5.712319537997245789e-02 2.574859652668237686e-03 7.167394459247589111e-02 4.868220072239637375e-03 7.490755617618560791e-02 -3.969204053282737732e-02 -1.505885124206542969e-01 2.847158536314964294e-02 3.852637857198715210e-02 -1.817091107368469238e-01 -7.461048197001218796e-03
-1.155466511845588684e-01 -1.167612150311470032e-01 -1.966084092855453491e-01 1.521902065724134445e-02 1.356378346681594849e-01 -6.222828291356563568e-03 1.562671810388565063e-01 -1.079768538475036621e-01 -1.993696019053459167e-02 4.048319160938262939e-02 6.145550683140754700e-02 8.530790358781814575e-02 2.106038667261600494e-02 -1.879055947065353394e-01 1.152536198496818542e-01 -6.007316336035728455e-02 6.170089170336723328e-02 4.615689441561698914e-02 -4.632825776934623718e-02 6.978350877761840820e-02 -1.241198834031820297e-02 -1.309785526245832443e-03 -9.658832103013992310e-02 -5.988254770636558533e-02 9.037164598703384399e-02 1.700676083564758301e-01 6.443896889686584473e-02 5.273553729057312012e-02 8.313939720392227173e-02 1.334481537342071533e-01
2.137667238712310791e-01 -3.059569597244262695e-01 2.425722591578960419e-02 1.393766105175018311e-01 -5.149081349372863770e-02 3.478781133890151978e-02 1.106627732515335083e-01 -1.158081814646720886e-01 -3.014918882399797440e-03 -1.687523424625396729e-01 5.439233034849166870e-02 1.183924227952957153e-01 -8.022443950176239014e-02 1.427888171747326851e-03 -1.880322843790054321e-01 1.954741589725017548e-02 6.485296785831451416e-02 5.775360763072967529e-02 -3.911830857396125793e-02 -1.132648624479770660e-02 4.557345062494277954e-02 -5.172751098871231079e-02 -1.140049472451210022e-01 1.370235979557037354e-01 8.486347645521163940e-02 5.872434470802545547e-03 -2.020764350891113281e-02 6.225839257240295410e-02 -5.191932991147041321e-02 -3.512411937117576599e-02
2.789332270622253418e-01 3.374523520469665527e-01 3.438548743724822998e-01 -8.449257910251617432e-02 5.663174390792846680e-02 4.747032001614570618e-02 1.841633114963769913e-03 5.926937982439994812e-02 -1.135817468166351318e-01 -5.762991309165954590e-02 9.096692502498626709e-02 -6.775660812854766846e-02 -1.007684841752052307e-01 -3.923919796943664551e-02 1.799381375312805176e-01 -1.127915158867835999e-01 -1.942886859178543091e-01 8.780190348625183105e-02 -2.179936505854129791e-02 3.590089455246925354e-02 -1.186163946986198425e-01 -6.749206781387329102e-02 -9.190595149993896484e-02 -1.144333109259605408e-01 -7.064627110958099365e-02 1.101265475153923035e-01 -1.261843182146549225e-02 -5.140422284603118896e-02 7.695405185222625732e-02 6.076251342892646790e-02
1.283878684043884277e-01 -3.583037257194519043e-01 -1.907206773757934570e-01 5.692959204316139221e-02 5.272540450096130371e-02 -8.300827443599700928e-02 -8.893974870443344116e-02 -8.370111696422100067e-03 -3.207704797387123108e-02 -6.518786400556564331e-02 4.720762744545936584e-02 1.002606675028800964e-01 3.809545189142227173e-02 4.830914363265037537e-02 1.311708893626928329e-02 -9.990603663027286530e-03 3.037348203361034393e-02 -2.188072353601455688e-02 5.027121677994728088e-02 -5.099413543939590454e-02 6.014756113290786743e-02 3.649692982435226440e-02 -1.051926016807556152e-01 3.524759039282798767e-02 -3.700616583228111267e-02 5.311465635895729065e-02 3.578813746571540833e-02 3.067605197429656982e-02 3.962929174304008484e-02 -2.710878103971481323e-02
-8.494772017002105713e-02 -2.066854834556579590e-01 2.761344611644744873e-01 4.800286516547203064e-02 1.190803200006484985e-01 -2.161778509616851807e-02 1.663929522037506104e-01 1.160025894641876221e-01 3.688118304125964642e-04 -5.335704609751701355e-02 -9.727000445127487183e-02 -7.155041396617889404e-02 7.910513132810592651e-02 1.016341522336006165e-01 5.227794125676155090e-02 -3.412809688597917557e-03 1.055096983909606934e-01 1.095385774970054626e-01 1.834278926253318787e-02 -7.224760204553604126e-02 -1.045681163668632507e-02 -7.868246734142303467e-02 -2.143409550189971924e-01 -3.339588176459074020e-03 1.454491540789604187e-02 -6.484463065862655640e-02 -1.910612285137176514e-01 -9.962610155344009399e-02 -1.254808753728866577e-01 1.156939640641212463e-01
-2.134568989276885986e-01 5.799298286437988281e-01 -1.321899145841598511e-01 3.725053742527961731e-02 -1.736555844545364380e-01 1.189744248986244202e-01 -8.029025793075561523e-02 2.191215902566909790e-01 4.394487664103507996e-02 -5.671285465359687805e-02 -3.982348367571830750e-02 1.048162281513214111e-01 1.244797930121421814e-01 1.482365094125270844e-02 -8.902516961097717285e-02 9.846399724483489990e-02 -1.732688099145889282e-01 -7.914323359727859497e-02 -1.412499397993087769e-01 -1.477958448231220245e-02 8.611150085926055908e-02 4.538049921393394470e-03 -3.939740732312202454e-02 -5.385998636484146118e-02 -2.272729575634002686e-02 -5.865323543548583984e-02 -6.646304577589035034e-02 1.277346014976501465e-01 2.621823549270629883e-01 -5.143621470779180527e-03
-9.328865259885787964e-02 -2.145756483078002930e-01 -3.102873265743255615e-01 -1.251577436923980713e-01 9.934252500534057617e-02 -1.477496773004531860e-01 -2.071111463010311127e-02 -7.888678461313247681e-02 5.397099629044532776e-02 -4.185858741402626038e-02 8.757179230451583862e-02 3.462301567196846008e-02 -1.611281484365463257e-01 1.212542653083801270e-01 1.198788639158010483e-02 -7.764243520796298981e-03 -1.186077743768692017e-01 3.716735914349555969e-02 -1.048889905214309692e-01 2.705799229443073273e-02 -7.883967459201812744e-02 -9.988469071686267853e-03 -2.217181958258152008e-02 2.176013030111789703e-02 -2.115628123283386230e-02 1.044998764991760254e-01 -5.053409934043884277e-02 -1.586673110723495483e-01 -8.634198457002639771e-02 3.047734498977661133e-02
2.158442884683609009e-02 -1.960591375827789307e-01 -3.841544315218925476e-02 -9.543418884277343750e-02 1.845168322324752808e-01 3.545312955975532532e-02 1.117195412516593933e-01 3.380253911018371582e-02 2.406025119125843048e-02 -1.014013662934303284e-01 7.534066587686538696e-02 2.283594459295272827e-01 5.549450591206550598e-02 4.864288121461868286e-02 1.561421900987625122e-02 -8.515886217355728149e-02 4.401422291994094849e-02 -1.790366023778915405e-01 1.051583811640739441e-01 -1.152118891477584839e-01 -9.278806298971176147e-02 1.227669417858123779e-01 3.233335539698600769e-02 5.513726174831390381e-02 -1.086460500955581665e-01 -1.957504451274871826e-02 -5.938183516263961792e-02 -1.342505216598510742e-01 -2.869351767003536224e-02 -1.000773534178733826e-02
-3.021603226661682129e-01 -2.720184326171875000e-01 -5.225197672843933105e-01 -1.493228599429130554e-02 -5.005162209272384644e-02 3.039953298866748810e-02 4.178248718380928040e-02 3.628400713205337524e-02 -5.511753633618354797e-02 -7.595738861709833145e-03 6.735249608755111694e-02 -1.436296403408050537e-01 3.865530248731374741e-03 9.846716374158859253e-02 -5.357300490140914917e-02 -1.669397056102752686e-01 -6.396325677633285522e-02 5.451748892664909363e-02 6.060545891523361206e-02 -2.495626732707023621e-02 7.519553601741790771e-02 2.359173633158206940e-02 1.275365334004163742e-02 1.274440139532089233e-01 -9.104636497795581818e-03 -1.449057012796401978e-01 1.696777343750000000e-01 2.622212842106819153e-02 -6.234177574515342712e-02 5.504827201366424561e-02
8.226506412029266357e-02 1.245181411504745483e-01 -4.706061184406280518e-01 1.073796227574348450e-01 1.192217618227005005e-01 2.379772067070007324e-02 1.290351748466491699e-01 1.197380758821964264e-02 8.621224015951156616e-02 9.064221382141113281e-02 -6.418993324041366577e-02 -9.441360831260681152e-03 9.272646903991699219e-02 -7.205668371170759201e-03 -9.134964644908905029e-02 2.510389089584350586e-01 -4.236158728599548340e-02 -8.641750173410400748e-05 -1.124104950577020645e-02 5.833835154771804810e-02 1.163159832358360291e-01 3.620915487408638000e-02 7.999454438686370850e-02 -1.436553988605737686e-02 3.109860233962535858e-02 6.448743399232625961e-03 -1.602920591831207275e-01 -2.848472259938716888e-02 1.512337923049926758e-01 2.859851159155368805e-02
2.196072638034820557e-01 5.292575955390930176e-01 1.361273229122161865e-01 6.043315865099430084e-03 -5.557117052376270294e-03 4.352867975831031799e-02 -4.346076771616935730e-02 8.773910999298095703e-02 -3.333092480897903442e-02 -5.394402518868446350e-02 -4.856235161423683167e-02 1.626091264188289642e-02 -3.680891916155815125e-02 2.080625481903553009e-02 -7.594616711139678955e-02 5.951555818319320679e-02 -1.189453676342964172e-01 -8.971356600522994995e-02 -6.691141426563262939e-02 -3.035508394241333008e-01 -5.174983665347099304e-02 2.750606276094913483e-02 -7.609435170888900757e-02 -2.501562535762786865e-01 -5.782354995608329773e-02 -7.884845137596130371e-02 -1.142733846791088581e-03 4.778579249978065491e-02 1.838811300694942474e-02 2.108576521277427673e-02
5.207819864153862000e-02 2.191290706396102905e-01 -4.102826416492462158e-01 -2.443855628371238708e-02 1.744140498340129852e-02 1.387105137109756470e-01 -8.139374107122421265e-02 2.786123193800449371e-02 -1.268929149955511093e-02 7.620485126972198486e-02 1.946802064776420593e-02 2.896226383745670319e-02 -3.781526908278465271e-02 -3.009299561381340027e-02 6.813085079193115234e-02 -4.518680647015571594e-02 8.223001845180988312e-03 -1.231598407030105591e-01 1.478142105042934418e-02 -1.229822188615798950e-01 -2.679152041673660278e-02 1.325653940439224243e-01 -8.517278358340263367e-03 -4.772698134183883667e-02 -2.973104454576969147e-02 4.193346016108989716e-03 4.287241771817207336e-02 -2.683717310428619385e-01 9.850484877824783325e-02 2.776506915688514709e-02
-1.783250421285629272e-01 -4.250902533531188965e-01 7.098761200904846191e-02 -1.609878428280353546e-02 -2.313432097434997559e-02 -2.954719029366970062e-02 -5.464614555239677429e-02 2.018002327531576157e-03 -1.837118417024612427e-01 -3.194630518555641174e-02 3.266044706106185913e-02 -2.567365765571594238e-01 -1.538756936788558960e-01 5.960153881460428238e-03 -2.063651941716670990e-02 6.780838966369628906e-02 1.392538100481033325e-01 7.369557768106460571e-02 -2.320923507213592529e-01 1.823801733553409576e-02 -5.505029112100601196e-02 -1.305586397647857666e-01 2.286265976727008820e-02 1.789628863334655762e-01 7.785399258136749268e-02 -8.985288441181182861e-02 1.913766413927078247e-01 1.385654807090759277e-01 -4.963099211454391479e-02 -2.645719051361083984e-02
-3.037919998168945312e-01 -7.197583317756652832e-01 -4.315880537033081055e-01 9.929225593805313110e-02 -4.395098611712455750e-02 5.433968454599380493e-02 3.379848599433898926e-02 -1.228875759989023209e-02 7.282015681266784668e-02 4.184666089713573456e-03 6.757147610187530518e-02 1.467799581587314606e-02 -1.315878629684448242e-01 8.449187129735946655e-02 -7.284549623727798462e-02 -4.461553692817687988e-02 -1.392000615596771240e-01 -9.766987524926662445e-03 -5.656225606799125671e-02 -2.884180471301078796e-02 -7.067990303039550781e-02 1.274986118078231812e-01 -1.937683857977390289e-02 4.425017908215522766e-02 7.720201462507247925e-02 3.867381438612937927e-02 -1.672041229903697968e-02 7.499356567859649658e-02 3.338563069701194763e-02 1.771610789000988007e-02
2.077350616455078125e-01 6.291119456291198730e-01 3.252089023590087891e-01 -3.726180270314216614e-02 -2.108287438750267029e-02 2.934121713042259216e-02 -3.982558846473693848e-02 -4.483030736446380615e-02 -6.017806008458137512e-02 -8.182550966739654541e-02 4.253081977367401123e-02 2.741387486457824707e-02 -2.622669003903865814e-02 9.175956249237060547e-02 -2.238312736153602600e-02 -1.163288876414299011e-01 3.913594037294387817e-02 -2.051724493503570557e-02 -1.302607655525207520e-01 7.361628115177154541e-02 -1.325935591012239456e-02 2.037033997476100922e-02 -1.296953409910202026e-01 -1.453205198049545288e-01 -2.579902857542037964e-02 -7.134319096803665161e-02 -1.456317007541656494e-01 -3.837636485695838928e-02 1.228397786617279053e-01 -2.913047373294830322e-02
-2.655187994241714478e-02 -1.945268362760543823e-01 2.138162851333618164e-01 -1.448758132755756378e-02 8.838690072298049927e-02 -9.469547308981418610e-03 -1.086186245083808899e-01 1.767876371741294861e-02 1.891723275184631348e-01 -4.758063331246376038e-02 1.517004221677780151e-01 -7.764934748411178589e-02 -4.931032890453934669e-04 -4.340315237641334534e-02 -1.408040337264537811e-02 -5.892980471253395081e-02 -2.552233077585697174e-02 5.638605728745460510e-02 9.097357280552387238e-03 -1.687677390873432159e-02 1.222033426165580750e-02 1.096566021442413330e-02 8.401487767696380615e-02 7.068914920091629028e-02 7.594899088144302368e-02 2.172447741031646729e-02 1.240285784006118774e-01 -1.591327190399169922e-01 3.041298314929008484e-02 -1.289899349212646484e-01
5.601767078042030334e-02 9.671115875244140625e-02 -9.948775172233581543e-02 -2.079385519027709961e-02 1.078551914542913437e-02 -1.028087139129638672e-01 -9.062447585165500641e-03 3.906641528010368347e-02 -3.783711791038513184e-02 -5.972372367978096008e-02 2.753485552966594696e-02 -1.641450524330139160e-01 9.084929525852203369e-02 -8.299028128385543823e-02 2.977727539837360382e-02 2.393852337263524532e-04 -4.937182366847991943e-02 -1.292285174131393433e-01 6.310401856899261475e-02 6.062356755137443542e-02 -3.139183158054947853e-03 -1.398986428976058960e-01 4.509858414530754089e-02 -4.896609857678413391e-02 4.066332802176475525e-02 5.830343440175056458e-02 -1.618947535753250122e-01 1.189070492982864380e-01 1.388404667377471924e-01 7.429277896881103516e-02
1.471526771783828735e-01 -3.544155955314636230e-01 -1.086330041289329529e-02 -7.540930062532424927e-02 4.480193182826042175e-02 8.029731363058090210e-02 -1.008794680237770081e-01 -7.870681583881378174e-02 1.078450977802276611e-01 -8.146964944899082184e-03 -7.962505519390106201e-02 -8.987980335950851440e-02 3.612899407744407654e-02 -9.619250148534774780e-02 -1.528834849596023560e-01 -5.000791698694229126e-02 -3.894530003890395164e-03 -2.207708545029163361e-02 1.087117940187454224e-01 2.461309731006622314e-01 5.917630624026060104e-03 1.047770902514457703e-01 -2.174098193645477295e-01 -1.327847875654697418e-02 3.423696011304855347e-02 -1.751223206520080566e-02 1.789057813584804535e-02 2.163896411657333374e-01 3.093432448804378510e-02 -8.051553368568420410e-02
1.065394356846809387e-01 -4.176357388496398926e-01 -1.579934805631637573e-01 -1.027526035904884338e-01 -2.134439349174499512e-01 -1.336730569601058960e-01 -3.430664166808128357e-02 1.772848516702651978e-01 1.030662879347801208e-01 2.120931446552276611e-02 4.302942007780075073e-02 -1.953773945569992065e-02 -3.098350390791893005e-02 1.034544706344604492e-01 -1.743591576814651489e-02 1.094126179814338684e-01 1.700010001659393311e-01 -5.485801398754119873e-02 1.930720638483762741e-03 -1.924479305744171143e-01 -6.237432733178138733e-02 -3.647652640938758850e-02 -5.913408473134040833e-02 8.999743498861789703e-03 -2.757810242474079132e-02 1.574152894318103790e-02 1.352731436491012573e-01 1.902329623699188232e-01 1.091768443584442139e-01 -1.745663612382486463e-04
9.106355160474777222e-02 -1.330678910017013550e-01 -8.008832484483718872e-02 3.082997165620326996e-02 -2.651539817452430725e-02 -1.106527447700500488e-01 -1.050200238823890686e-01 2.295725643634796143e-01 1.708152331411838531e-02 -3.630129247903823853e-02 -2.860429696738719940e-02 -3.665480762720108032e-02 -9.020637720823287964e-03 6.139464303851127625e-02 4.108475986868143082e-03 1.087235659360885620e-02 -5.176450684666633606e-02 3.997186943888664246e-02 -2.243046090006828308e-02 8.536623418331146240e-02 -6.177693977952003479e-02 -6.196338310837745667e-02 -6.429596804082393646e-03 5.636741220951080322e-02 7.392447441816329956e-03 -7.785415649414062500e-02 -6.775112450122833252e-02 -2.788370549678802490e-01 6.702162325382232666e-02 3.022433258593082428e-02
1.646825671195983887e-02 -1.464398354291915894e-01 1.676313728094100952e-01 -5.321179330348968506e-02 -8.153430372476577759e-02 6.772658973932266235e-02 -3.333472833037376404e-02 -1.018660794943571091e-02 -1.008613035082817078e-01 1.348779536783695221e-02 7.770133763551712036e-02 1.958497427403926849e-02 1.931348070502281189e-02 -9.348428249359130859e-02 -1.381073426455259323e-02 1.135796681046485901e-01 7.791047543287277222e-02 -5.831409245729446411e-02 3.810109943151473999e-02 1.008968204259872437e-01 1.681456901133060455e-02 -6.376715004444122314e-02 -7.155817747116088867e-02 1.609649062156677246e-01 8.688423037528991699e-02 -6.107272952795028687e-02 -5.621833726763725281e-02 8.790091425180435181e-02 1.346357539296150208e-02 -5.487503856420516968e-02
4.683499783277511597e-02 5.146263241767883301e-01 9.859336167573928833e-02 -1.021038740873336792e-02 -2.556088380515575409e-02 -3.433591499924659729e-02 -2.111906707286834717e-01 1.429120600223541260e-01 -5.085917189717292786e-02 -5.450696125626564026e-02 4.183277860283851624e-02 8.123086392879486084e-02 -1.886148750782012939e-01 -1.252862811088562012e-01 2.057582605630159378e-03 1.379118561744689941e-01 5.116442963480949402e-02 -5.039713159203529358e-02 -6.182343512773513794e-02 1.219138130545616150e-02 6.952625513076782227e-02 5.341280717402696609e-03 1.241744533181190491e-01 3.809206932783126831e-02 -1.853411048650741577e-01 1.827414147555828094e-02 6.305219233036041260e-02 -2.046479582786560059e-01 -1.024916395545005798e-02 1.108404435217380524e-02
1.826798170804977417e-01 2.426301389932632446e-01 4.821451753377914429e-02 2.058397233486175537e-02 5.476201325654983521e-02 3.566223382949829102e-02 1.095612645149230957e-01 -3.369822353124618530e-02 -6.759452819824218750e-02 -1.125210523605346680e-01 2.823549509048461914e-02 -1.733355522155761719e-01 2.491418831050395966e-02 1.190561801195144653e-01 6.427617371082305908e-02 -1.034230664372444153e-01 6.358072161674499512e-02 1.500340998172760010e-01 1.415728181600570679e-01 -3.187960013747215271e-02 -2.169880084693431854e-02 1.141298934817314148e-01 -1.738970577716827393e-01 -8.292352408170700073e-02 4.837994650006294250e-02 -5.622634291648864746e-02 6.979822181165218353e-03 1.624836586415767670e-02 -6.966201215982437134e-02 -8.262722752988338470e-03
7.571707665920257568e-02 -2.761573195457458496e-01 2.849332615733146667e-02 4.681937023997306824e-02 5.642432346940040588e-02 2.404574863612651825e-02 -1.894008554518222809e-02 1.220943555235862732e-01 3.002483583986759186e-02 -1.315916609019041061e-02 -6.163053959608078003e-02 -1.238927841186523438e-01 -1.145669817924499512e-02 6.243697553873062134e-02 -3.332158923149108887e-02 -1.663115471601486206e-01 7.796709984540939331e-02 -2.599762193858623505e-02 7.530115544795989990e-02 4.644667729735374451e-03 -2.329197339713573456e-02 2.881110273301601410e-02 -1.828638315200805664e-01 -6.234413757920265198e-02 -1.205984055995941162e-01 -1.139464303851127625e-01 8.368507772684097290e-02 -8.745043724775314331e-02 1.590766459703445435e-01 3.657635301351547241e-02
-1.428581625223159790e-01 3.303523361682891846e-01 -9.554962068796157837e-02 -3.999477997422218323e-02 -1.307267397642135620e-01 3.474092110991477966e-03 8.257896639406681061e-03 -8.940305560827255249e-02 8.213869482278823853e-02 -2.224685810506343842e-02 -3.414065018296241760e-02 -4.164014384150505066e-02 -1.213258728384971619e-01 -6.598986685276031494e-02 -7.509527355432510376e-02 -6.097901612520217896e-02 -7.444738596677780151e-02 3.003301471471786499e-02 -1.137539595365524292e-01 2.192274108529090881e-02 -1.541477292776107788e-01 4.208697006106376648e-02 1.081494893878698349e-02 1.111392155289649963e-01 1.161991953849792480e-01 -4.151969403028488159e-02 7.119175046682357788e-02 9.728588908910751343e-02 9.244128130376338959e-03 -5.207852646708488464e-02
-1.009458601474761963e-01 -4.979405924677848816e-02 4.600372165441513062e-03 -1.323896795511245728e-01 1.004403904080390930e-01 1.175548359751701355e-01 3.294902294874191284e-02 -1.601345837116241455e-02 1.351123601198196411e-01 1.072482317686080933e-01 1.695884168148040771e-01 -9.445731341838836670e-02 1.000278349965810776e-02 8.298589847981929779e-03 -8.930206298828125000e-02 -1.018428280949592590e-01 -3.691924735903739929e-02 -6.029919162392616272e-02 1.044710353016853333e-01 -7.489483803510665894e-02 -4.766554571688175201e-03 1.124824583530426025e-01 2.160495333373546600e-02 1.280027069151401520e-02 -2.178105339407920837e-02 6.342145055532455444e-02 -2.089002169668674469e-02 1.521651148796081543e-01 -7.543295621871948242e-02 3.908956795930862427e-02
-1.533857285976409912e-01 2.393725067377090454e-01 5.368481390178203583e-03 2.363474369049072266e-01 6.660068035125732422e-02 5.809624120593070984e-02 5.299958866089582443e-03 -4.129867255687713623e-02 9.459464251995086670e-02 -1.242961063981056213e-01 1.680466830730438232e-01 -2.798246033489704132e-02 2.097222581505775452e-02 -1.227095425128936768e-01 -1.473309397697448730e-01 -9.010706096887588501e-03 2.310064621269702911e-02 -7.295244187116622925e-02 -7.458119094371795654e-02 -1.791192218661308289e-02 2.576006017625331879e-02 1.610841453075408936e-01 -3.269313601776957512e-03 1.149119213223457336e-01 -7.384406775236129761e-02 -2.753283642232418060e-02 -3.721563145518302917e-02 -3.346354514360427856e-02 3.287018090486526489e-02 -1.738531887531280518e-02
5.491155758500099182e-02 -5.756153166294097900e-02 -2.712949216365814209e-01 -8.346891403198242188e-02 -6.611704826354980469e-03 5.667777266353368759e-03 -1.176970079541206360e-01 -1.480064541101455688e-01 1.108136624097824097e-01 1.572549045085906982e-01 -7.216291129589080811e-02 5.387723073363304138e-02 -1.997316256165504456e-02 -4.145926982164382935e-02 1.746376790106296539e-02 1.020767390727996826e-01 -9.476284496486186981e-03 -5.264870449900627136e-02 -1.672142446041107178e-01 8.217208832502365112e-02 2.184067666530609131e-02 1.459395438432693481e-01 -1.434685289859771729e-01 5.825559142976999283e-03 1.763965561985969543e-02 -4.545319452881813049e-02 -2.193029969930648804e-02 2.480293996632099152e-02 1.257916819304227829e-02 1.420894637703895569e-02
1.883393675088882446e-01 -3.656407296657562256e-01 3.708734214305877686e-01 -6.692202389240264893e-02 -6.354191154241561890e-02 2.937559224665164948e-02 6.701835244894027710e-02 2.339124493300914764e-02 2.481972239911556244e-02 6.831713020801544189e-02 3.942966461181640625e-02 -2.091727405786514282e-02 -6.652916967868804932e-02 7.498135417699813843e-02 -3.438055142760276794e-02 -7.175767421722412109e-02 -3.847563872113823891e-03 -9.392802603542804718e-03 4.551266133785247803e-02 9.028095752000808716e-02 8.304174244403839111e-02 6.743960082530975342e-02 -1.273927688598632812e-01 5.743617564439773560e-02 3.819289058446884155e-02 -5.080912634730339050e-02 -1.990032345056533813e-01 -3.244034713134169579e-03 2.515099346637725830e-01 -7.371864467859268188e-02
2.063982188701629639e-01 2.179130911827087402e-01 -2.661585211753845215e-01 -5.359972268342971802e-02 -1.989585012197494507e-01 2.061102241277694702e-01 1.169312596321105957e-01 1.042223498225212097e-01 -5.360538139939308167e-02 -2.836774475872516632e-02 1.183917596936225891e-01 -1.096200346946716309e-01 6.428247690200805664e-02 -7.153736799955368042e-02 4.737820476293563843e-02 1.336865220218896866e-02 4.862942174077033997e-02 4.700474441051483154e-02 9.751166217029094696e-03 4.685135185718536377e-02 2.543378770351409912e-01 -9.481575340032577515e-02 9.952103346586227417e-02 3.160074120387434959e-03 -6.463905423879623413e-02 4.013108089566230774e-02 -6.707143783569335938e-02 -1.310634613037109375e-02 -2.538728155195713043e-02 -6.965213920921087265e-03
-2.343880683183670044e-01 1.137655749917030334e-01 -1.575870960950851440e-01 3.371501341462135315e-02 1.126104965806007385e-01 1.756320521235466003e-02 9.214703924953937531e-03 -2.625061944127082825e-02 -6.678415834903717041e-02 -2.897531911730766296e-02 -1.689055375754833221e-02 -1.217473819851875305e-01 9.180602617561817169e-03 -8.646136522293090820e-02 -6.573334336280822754e-02 1.749297976493835449e-01 6.328618526458740234e-02 -9.659314155578613281e-02 -1.748751103878021240e-01 -3.836291283369064331e-02 -1.777930743992328644e-02 -1.837990619242191315e-02 5.128429830074310303e-02 1.909316703677177429e-02 -1.122036501765251160e-01 -2.399016320705413818e-01 4.313027858734130859e-02 6.012104451656341553e-02 1.130530312657356262e-01 -5.497318506240844727e-02
4.020814299583435059e-01 3.773163259029388428e-02 2.129782177507877350e-02 -7.632453739643096924e-02 -5.639604851603507996e-02 -3.014092519879341125e-02 2.414543032646179199e-01 -3.870489448308944702e-02 3.580729663372039795e-02 -2.570338919758796692e-02 -4.132524598389863968e-03 5.224568396806716919e-02 2.596176601946353912e-02 -3.456959873437881470e-02 -1.073103994131088257e-01 -1.607087068259716034e-02 -1.952255070209503174e-01 -9.449845552444458008e-02 -3.559167310595512390e-02 5.269064009189605713e-02 2.924370020627975464e-02 -7.323908805847167969e-02 -7.925099879503250122e-02 1.376187056303024292e-01 6.700940430164337158e-02 -3.901017829775810242e-02 7.573650777339935303e-02 -9.234497696161270142e-02 6.919487565755844116e-02 5.563709512352943420e-02
-5.141799449920654297e-01 -5.663879215717315674e-02 -2.235445678234100342e-01 1.453512609004974365e-01 -1.514961719512939453e-01 4.174168407917022705e-02 -8.908368647098541260e-02 -4.715861007571220398e-02 -1.259093433618545532e-01 -1.004809588193893433e-01 1.835508085787296295e-02 1.929953694343566895e-01 -5.643019080162048340e-02 3.207697300240397453e-03 2.181193679571151733e-01 -1.150515116751194000e-02 1.531261950731277466e-02 9.519325569272041321e-03 1.557020936161279678e-03 8.715667575597763062e-02 -6.108945235610008240e-03 -8.627435564994812012e-02 5.676523596048355103e-02 1.720254309475421906e-02 -6.594376638531684875e-03 5.291871726512908936e-02 9.841380268335342407e-02 2.209398597478866577e-01 7.233498990535736084e-02 -4.591618105769157410e-02
-1.912804245948791504e-01 1.881144046783447266e-01 -1.864752173423767090e-01 2.103544622659683228e-01 -3.120678104460239410e-02 -1.497767958790063858e-02 8.679569512605667114e-02 8.183640241622924805e-02 -3.713294118642807007e-02 9.872528910636901855e-02 5.507461354136466980e-02 -6.100245565176010132e-02 1.321970522403717041e-01 4.198151081800460815e-02 1.825972944498062134e-01 1.696007549762725830e-01 -2.357733994722366333e-02 -4.657724872231483459e-02 9.962198138236999512e-02 1.675740182399749756e-01 -2.588288858532905579e-03 -5.882459878921508789e-02 9.396123141050338745e-02 -2.871949039399623871e-02 -1.101171895861625671e-01 -1.152988336980342865e-02 5.922365561127662659e-02 -1.048918534070253372e-02 8.010432124137878418e-02 7.967631518840789795e-02
-2.435692995786666870e-01 2.930669784545898438e-01 2.497019618749618530e-02 2.136874012649059296e-02 -1.090997084975242615e-01 -2.213947474956512451e-02 1.547527033835649490e-02 -9.438429959118366241e-03 6.868246197700500488e-02 -2.747089974582195282e-02 1.539587974548339844e-01 -1.048808097839355469e-01 4.502070695161819458e-02 -1.293519604951143265e-02 -5.289323627948760986e-02 5.812582001090049744e-02 -5.264432728290557861e-02 -1.153841391205787659e-01 -5.142616480588912964e-02 -5.957373883575201035e-03 9.911825507879257202e-02 -5.869219079613685608e-02 8.876498788595199585e-02 2.615198120474815369e-02 -3.877175226807594299e-02 -1.404080353677272797e-02 -1.211576759815216064e-01 -5.138592422008514404e-02 -2.208528667688369751e-01 4.522066190838813782e-02
-2.433877736330032349e-01 -5.152548477053642273e-02 -2.896053791046142578e-01 5.872289463877677917e-02 -1.428008079528808594e-02 9.529121220111846924e-02 2.618890106678009033e-01 7.584882527589797974e-02 -7.392931729555130005e-02 -3.830517828464508057e-02 1.459943652153015137e-01 -3.033178299665451050e-02 -1.374949067831039429e-01 6.845428049564361572e-02 -5.366311222314834595e-02 6.687126308679580688e-02 -1.520316023379564285e-02 1.029990389943122864e-01 -6.379030644893646240e-02 -5.050909146666526794e-02 1.286722999066114426e-02 1.706378161907196045e-01 -7.656037807464599609e-02 7.980906218290328979e-02 -1.584658026695251465e-01 -1.544109638780355453e-02 9.941423311829566956e-03 -3.159663453698158264e-02 -4.474889859557151794e-02 -7.578585296869277954e-02
8.879537880420684814e-02 -8.319412916898727417e-02 -2.898960746824741364e-02 7.007676362991333008e-02 1.705362945795059204e-01 3.748885542154312134e-02 -2.065413072705268860e-02 2.783548086881637573e-02 -4.106323793530464172e-02 -9.466703981161117554e-02 -1.556211858987808228e-01 1.023886874318122864e-01 -5.723973363637924194e-02 8.152679540216922760e-03 -1.158999837934970856e-02 1.070884689688682556e-01 8.550692349672317505e-02 -6.177484989166259766e-02 -5.962651595473289490e-02 -1.596576422452926636e-01 1.536092013120651245e-01 -1.321440637111663818e-01 -8.507756888866424561e-02 1.649450063705444336e-01 -4.986638203263282776e-02 1.119720935821533203e-01 1.909015141427516937e-02 5.008294060826301575e-02 6.224210187792778015e-02 3.238224308006465435e-04
-1.736543774604797363e-01 4.817845523357391357e-01 3.105240464210510254e-01 4.788810014724731445e-02 -1.493312604725360870e-02 -6.975069642066955566e-02 -7.268369197845458984e-02 1.046337410807609558e-01 7.570609450340270996e-02 -3.980410844087600708e-02 -1.824195496737957001e-02 -1.224265396595001221e-01 -1.627684831619262695e-01 -7.599973678588867188e-02 -1.329397410154342651e-01 -4.336785525083541870e-02 -9.946998953819274902e-02 -3.752266615629196167e-02 -1.879277080297470093e-02 -5.364635959267616272e-02 -3.996549919247627258e-02 -5.747070908546447754e-02 1.255833357572555542e-01 -1.156136542558670044e-01 -4.336496070027351379e-02 1.104266196489334106e-01 1.634360291063785553e-02 1.860354393720626831e-01 1.402389258146286011e-02 -6.351175904273986816e-02
1.083337962627410889e-01 -6.997603923082351685e-02 -8.634682744741439819e-02 -2.449045479297637939e-01 -6.043441221117973328e-02 -5.192144960165023804e-02 -1.169468313455581665e-01 2.667059190571308136e-02 -1.683322787284851074e-01 2.499387599527835846e-02 -7.899230346083641052e-03 -1.581863611936569214e-01 -2.034793049097061157e-02 -1.196694094687700272e-03 -8.100696722976863384e-04 6.976012606173753738e-03 8.728069253265857697e-03 -5.515389144420623779e-02 -8.833879232406616211e-02 2.040096223354339600e-01 9.202229976654052734e-02 1.370780915021896362e-01 -1.262819319963455200e-01 1.204585935920476913e-02 -5.385528504848480225e-02 1.293796002864837646e-01 -6.590739637613296509e-02 -1.899805366992950439e-01 6.962516158819198608e-02 -4.138318449258804321e-02
1.051281765103340149e-01 -6.420311331748962402e-01 6.003700941801071167e-02 1.509448289871215820e-01 5.335846543312072754e-02 3.931782022118568420e-02 4.509430751204490662e-02 1.036283895373344421e-01 -2.542990492656826973e-03 -2.917895838618278503e-02 -6.205298751592636108e-02 1.167695745825767517e-01 -6.629394739866256714e-02 8.554876595735549927e-02 -1.523654675111174583e-03 2.638714313507080078e-01 -4.958058148622512817e-02 1.553824692964553833e-01 2.034961432218551636e-02 5.879795551300048828e-02 -1.978193074464797974e-01 6.489259190857410431e-03 -4.670948907732963562e-02 -7.268337905406951904e-02 -9.956445544958114624e-03 -2.039785496890544891e-03 2.921606041491031647e-02 -1.336049586534500122e-01 3.209218010306358337e-02 4.157526418566703796e-02
8.177389949560165405e-02 -7.859770208597183228e-02 -7.203862816095352173e-02 -1.461722552776336670e-01 -6.430775672197341919e-02 5.143679678440093994e-02 1.058594509959220886e-02 -7.639613002538681030e-02 -7.001034170389175415e-02 5.005542188882827759e-02 -1.885345429182052612e-01 4.360556602478027344e-02 2.960277721285820007e-02 -5.470242723822593689e-02 1.174363121390342712e-01 5.607407540082931519e-02 6.439231336116790771e-02 6.471110880374908447e-02 3.915521781891584396e-03 3.027030453085899353e-02 -1.987704187631607056e-01 1.743966527283191681e-02 1.250398904085159302e-01 4.087970778346061707e-02 2.786044962704181671e-02 -1.133999526500701904e-01 1.491096243262290955e-02 -3.930737078189849854e-02 -3.047684673219919205e-03 3.742095455527305603e-02
1.669253855943679810e-01 4.567191302776336670e-01 -2.333213947713375092e-02 1.274183019995689392e-02 -8.742643147706985474e-02 -2.218630723655223846e-02 -1.376049220561981201e-01 -1.345596909523010254e-01 -1.570585817098617554e-01 1.208639070391654968e-01 1.831957101821899414e-01 2.790505439043045044e-02 -1.376649141311645508e-01 -8.655416220426559448e-02 -2.034589797258377075e-01 -5.552697181701660156e-02 -2.800923958420753479e-02 -1.701516360044479370e-01 2.334735244512557983e-01 7.227405905723571777e-02 1.135512143373489380e-01 4.532268736511468887e-03 4.965444281697273254e-02 4.416368529200553894e-02 -8.092673867940902710e-02 -1.610125750303268433e-01 6.747731566429138184e-02 -2.108123712241649628e-02 -2.544718794524669647e-02 -1.682094484567642212e-02
-1.141221597790718079e-01 3.092573881149291992e-01 1.109979823231697083e-01 -6.580153107643127441e-02 -3.674517571926116943e-02 -6.857206672430038452e-02 8.416610211133956909e-02 -1.363960746675729752e-02 -6.511918455362319946e-02 1.380585432052612305e-01 -2.365636825561523438e-02 -3.395603597164154053e-02 3.677590191364288330e-02 -6.280729174613952637e-02 7.468160241842269897e-02 -9.217028319835662842e-02 -8.173035830259323120e-02 -1.611218601465225220e-01 -1.247118879109621048e-02 2.791711874306201935e-02 -7.689990848302841187e-02 -1.330687548033893108e-03 -3.644508868455886841e-02 -9.680235385894775391e-02 3.844393417239189148e-02 -2.016855217516422272e-02 3.617887571454048157e-02 -1.202485058456659317e-02 -4.371100291609764099e-02 -5.875253677368164062e-02
-5.088192969560623169e-02 -1.243329420685768127e-01 -1.744592338800430298e-01 -8.142049424350261688e-03 -5.014399811625480652e-02 -1.242606714367866516e-01 -8.059255778789520264e-02 1.804413460195064545e-02 1.200542971491813660e-01 6.005422770977020264e-02 1.150163635611534119e-01 1.112884376198053360e-02 -1.674364693462848663e-02 -1.126544326543807983e-01 3.501268476247787476e-02 1.875875294208526611e-01 -7.342476397752761841e-02 1.329579949378967285e-01 -1.903772726655006409e-02 -3.665531799197196960e-02 1.081158220767974854e-01 -8.539064787328243256e-03 1.576846651732921600e-02 -1.267368942499160767e-01 7.121011614799499512e-03 9.538833796977996826e-02 5.991221591830253601e-02 -2.669516392052173615e-02 1.259216815233230591e-01 3.780883550643920898e-02
1.187782362103462219e-02 7.736420631408691406e-02 -2.922254204750061035e-01 -3.627214953303337097e-02 -2.415756136178970337e-02 -3.984444588422775269e-02 -3.478368744254112244e-02 6.661861389875411987e-02 5.864913389086723328e-02 -1.859315633773803711e-01 7.779909670352935791e-02 8.877988439053297043e-04 2.234041504561901093e-02 -3.830609470605850220e-02 5.296289920806884766e-02 -8.241642266511917114e-02 1.308070570230484009e-01 -6.382453441619873047e-02 -1.060629561543464661e-01 -9.160191752016544342e-03 -4.301416501402854919e-02 1.371042877435684204e-01 6.307303439825773239e-03 4.667405039072036743e-02 -2.363547682762145996e-02 1.476178169250488281e-01 6.738663464784622192e-02 2.069173008203506470e-01 -1.885507628321647644e-02 -2.070454321801662445e-02
-1.185563057661056519e-01 -1.317839920520782471e-01 2.823678217828273773e-02 9.760086983442306519e-02 -9.405401349067687988e-02 1.191869750618934631e-01 2.420357316732406616e-01 6.048570387065410614e-03 1.744897961616516113e-01 -3.223552554845809937e-02 1.100291013717651367e-01 -7.511305063962936401e-02 1.480086473748087883e-03 9.514906257390975952e-02 7.393933087587356567e-02 -1.039340272545814514e-01 5.808697640895843506e-02 1.577018946409225464e-01 7.560731470584869385e-02 1.132560148835182190e-01 1.428572684526443481e-01 7.102818042039871216e-02 1.334832608699798584e-01 3.296773415058851242e-03 8.589482307434082031e-02 -6.173960864543914795e-03 5.512643605470657349e-03 -1.042298227548599243e-01 -8.540186285972595215e-02 1.372060831636190414e-02
-1.707208007574081421e-01 -3.129783272743225098e-01 -1.376392543315887451e-01 -8.352806419134140015e-02 4.126024432480335236e-03 1.517873071134090424e-02 1.674642711877822876e-01 2.148775011301040649e-01 1.352190622128546238e-03 2.595151960849761963e-02 -1.284421235322952271e-01 -3.151143901050090790e-03 -4.792026057839393616e-02 6.383430678397417068e-03 9.853355586528778076e-02 -3.480600193142890930e-02 1.522581577301025391e-01 1.278847008943557739e-01 5.848808214068412781e-02 -4.671597480773925781e-02 -1.960002258419990540e-02 -3.781142458319664001e-02 1.068320870399475098e-01 2.645830810070037842e-01 2.212027460336685181e-01 -3.415732085704803467e-02 9.549062699079513550e-03 3.982146456837654114e-02 -1.213794052600860596e-01 6.462756544351577759e-02
-1.054351851344108582e-01 3.541792035102844238e-01 -1.082140430808067322e-01 5.506380461156368256e-03 9.949877858161926270e-02 8.457860350608825684e-02 -8.470570296049118042e-02 5.000966042280197144e-02 -7.992250472307205200e-02 4.024693742394447327e-02 -1.570524647831916809e-02 1.884967237710952759e-01 -9.091626107692718506e-02 1.589170657098293304e-02 -1.324879229068756104e-01 7.678437512367963791e-03 1.743745356798171997e-01 -1.191770881414413452e-01 2.679161727428436279e-02 5.689552053809165955e-02 3.047051653265953064e-02 7.039070874452590942e-02 -6.160014867782592773e-02 -7.914944551885128021e-03 -6.967813521623611450e-02 -1.230782270431518555e-01 4.150087758898735046e-02 -5.332311242818832397e-02 -2.012059390544891357e-01 2.028102986514568329e-02
8.726464211940765381e-02 3.398498892784118652e-02 -2.660462856292724609e-01 -8.556976914405822754e-02 -8.848709613084793091e-02 -1.634224802255630493e-01 1.101684346795082092e-01 -9.173708409070968628e-02 1.025824323296546936e-01 1.450655795633792877e-02 5.321307852864265442e-02 -2.732533495873212814e-03 -7.398189604282379150e-02 -7.201126962900161743e-02 1.135058477520942688e-01 4.349130019545555115e-02 -5.238699540495872498e-02 -1.208075582981109619e-01 2.719151973724365234e-02 -2.192153409123420715e-02 -1.267069131135940552e-01 3.642043471336364746e-02 1.295335739850997925e-01 -1.375248376280069351e-02 -3.375811874866485596e-02 3.905531391501426697e-02 2.964235655963420868e-02 -1.559698134660720825e-01 -8.348971605300903320e-02 -2.928488329052925110e-02
-2.368117272853851318e-01 1.400243788957595825e-01 1.989483982324600220e-01 -4.986179620027542114e-02 -3.885256871581077576e-02 -3.691882640123367310e-02 1.233648955821990967e-01 -3.729913383722305298e-02 -9.690900146961212158e-02 -1.442627161741256714e-01 7.686050981283187866e-02 -1.265561580657958984e-01 3.183626756072044373e-02 9.337996016256511211e-05 2.317236363887786865e-02 -4.024635255336761475e-02 -3.720534220337867737e-02 -4.009183496236801147e-02 -9.882773458957672119e-02 -1.534263882786035538e-02 -2.392969876527786255e-01 1.116501018404960632e-01 1.178716793656349182e-01 -3.220665268599987030e-03 3.212798014283180237e-02 -1.417145580053329468e-01 -1.534476727247238159e-01 2.329637296497821808e-02 1.752729564905166626e-01 -3.895010426640510559e-02
1.612335741519927979e-01 2.894829213619232178e-01 -1.327151358127593994e-01 3.170233592391014099e-02 1.711270809173583984e-01 6.366066634654998779e-02 3.935655206441879272e-02 -8.765743114054203033e-03 -7.485739141702651978e-02 1.614922098815441132e-02 1.780692487955093384e-01 1.174871344119310379e-03 -1.914979815483093262e-01 5.356588959693908691e-02 -2.628444433212280273e-01 -1.442963909357786179e-02 -5.207186937332153320e-02 -7.978047430515289307e-02 -6.520581431686878204e-03 -3.731375932693481445e-02 -1.043992023915052414e-02 9.116559475660324097e-02 1.613112241029739380e-01 4.987278580665588379e-02 1.473598927259445190e-02 -5.556839518249034882e-03 -1.083872318267822266e-01 -1.251617968082427979e-01 -1.190951094031333923e-01 2.491429448127746582e-02
-1.101632490754127502e-01 -6.505452096462249756e-02 -4.979990124702453613e-01 -2.644433453679084778e-02 6.222559884190559387e-02 3.597835078835487366e-03 -7.151962816715240479e-02 5.161040648818016052e-02 -8.064798265695571899e-02 -1.626786403357982635e-02 -5.642717704176902771e-02 -1.776539534330368042e-02 2.943122060969471931e-03 1.868993416428565979e-02 -1.096051856875419617e-01 3.007822334766387939e-01 -3.915688022971153259e-02 -5.407548695802688599e-02 1.813936978578567505e-02 1.184916943311691284e-01 -6.177258118987083435e-02 -4.632860422134399414e-02 8.421096205711364746e-02 -1.519427448511123657e-01 -5.781660601496696472e-02 9.873310104012489319e-03 1.661899313330650330e-02 -2.859411388635635376e-02 -7.938981801271438599e-02 -7.552073895931243896e-02
-1.252524703741073608e-01 -2.927514612674713135e-01 1.042101010680198669e-01 -1.474660076200962067e-02 3.097813203930854797e-02 8.408522605895996094e-02 -2.132514677941799164e-02 1.715510934591293335e-01 4.576689749956130981e-02 1.784399151802062988e-02 -3.226169198751449585e-02 -4.858069866895675659e-02 3.493081778287887573e-02 1.290425807237625122e-01 -9.526959061622619629e-02 -1.777298003435134888e-02 -1.531359404325485229e-01 -1.645787805318832397e-01 8.801440149545669556e-02 4.824156314134597778e-02 -1.220392286777496338e-01 -2.522240206599235535e-02 -7.516486197710037231e-02 5.708374083042144775e-02 1.136269047856330872e-01 1.362623125314712524e-01 7.477686554193496704e-02 2.045816034078598022e-01 1.008115429431200027e-02 -4.816108569502830505e-02
2.050736993551254272e-01 -2.776223607361316681e-02 -4.540771245956420898e-01 -1.892647519707679749e-02 -5.528270266950130463e-03 1.024760380387306213e-01 -6.142878904938697815e-02 5.169754475355148315e-02 -9.135467559099197388e-02 1.365840882062911987e-01 1.855676919221878052e-01 -4.729472845792770386e-02 1.480739861726760864e-01 -4.933501780033111572e-02 -6.173100788146257401e-03 8.626430481672286987e-02 -9.359177201986312866e-02 -7.427846640348434448e-02 -3.360327333211898804e-02 -1.333521585911512375e-02 -1.205582078546285629e-02 1.073127835988998413e-01 1.074162945151329041e-01 2.168435417115688324e-02 1.106932759284973145e-01 6.229682825505733490e-03 1.920589655637741089e-01 2.991209179162979126e-02 7.932240515947341919e-02 3.651314228773117065e-02
3.228759467601776123e-01 -4.016894102096557617e-01 -2.416431205347180367e-03 -2.286094054579734802e-02 -3.305984660983085632e-02 -1.735812872648239136e-01 1.325086206197738647e-01 3.691714629530906677e-02 -7.844931632280349731e-02 5.577432364225387573e-02 -2.902828902006149292e-02 3.168969973921775818e-02 1.233670413494110107e-01 -4.382460936903953552e-02 3.324307873845100403e-02 2.506102994084358215e-02 -4.665336757898330688e-02 2.423175051808357239e-02 1.397567093372344971e-01 -4.714921489357948303e-02 8.667369931936264038e-02 -3.539542853832244873e-02 2.620028331875801086e-02 5.832717288285493851e-03 5.366273596882820129e-02 5.030440911650657654e-02 -3.394736722111701965e-02 -4.703143611550331116e-02 -1.350760180503129959e-02 4.225689917802810669e-02
-2.664300426840782166e-02 -4.872481226921081543e-01 1.135785058140754700e-01 1.185241267085075378e-01 -2.901607938110828400e-02 -7.753767073154449463e-02 1.569938659667968750e-02 2.670775167644023895e-02 1.688602752983570099e-02 -1.815110594034194946e-01 5.306170787662267685e-03 -4.344084858894348145e-02 -1.933481730520725250e-02 1.986864255741238594e-03 -4.768336564302444458e-02 -3.559077531099319458e-02 1.445261412300169468e-03 -3.461905568838119507e-02 1.343202441930770874e-01 8.532459847629070282e-03 2.351337671279907227e-02 -2.005290612578392029e-02 4.191029071807861328e-02 1.403319556266069412e-02 1.082006841897964478e-01 1.561978012323379517e-01 3.511102497577667236e-02 1.925348639488220215e-01 -1.405942887067794800e-01 1.071922760456800461e-02
-2.052789777517318726e-01 2.514655590057373047e-01 1.592329889535903931e-02 4.753956943750381470e-02 9.675297886133193970e-02 1.732837036252021790e-02 -7.089906930923461914e-02 -2.577129304409027100e-01 -9.680306538939476013e-03 -1.692713005468249321e-03 -1.101878583431243896e-01 -2.625129371881484985e-02 2.699441090226173401e-02 1.177262961864471436e-01 5.385944154113531113e-03 -7.633100263774394989e-03 6.932653486728668213e-04 -7.190430909395217896e-02 -2.575199604034423828e-01 2.464318461716175079e-02 1.432084739208221436e-01 4.791602957993745804e-03 -9.803774952888488770e-02 -6.440390646457672119e-02 1.304393708705902100e-01 1.886195689439773560e-01 -3.397595509886741638e-02 -8.947523683309555054e-02 6.288167089223861694e-03 7.283148169517517090e-02
1.197139918804168701e-01 3.328374624252319336e-01 -2.837306857109069824e-01 1.097441390156745911e-01 1.227954104542732239e-01 3.327274322509765625e-01 1.373144090175628662e-01 1.935525983572006226e-02 1.415164917707443237e-01 -3.286200761795043945e-02 -3.895588219165802002e-02 4.347249493002891541e-02 3.091165237128734589e-02 -8.531791158020496368e-03 1.391136348247528076e-01 9.857277572154998779e-02 1.276668310165405273e-01 8.568547666072845459e-03 6.040228158235549927e-02 3.068772517144680023e-02 -4.397782310843467712e-02 7.136110216379165649e-02 -6.565367430448532104e-02 -3.771128877997398376e-02 7.990568131208419800e-02 4.381076991558074951e-02 2.202788442373275757e-01 2.318430542945861816e-01 1.678484976291656494e-01 -4.182872921228408813e-02
5.338389426469802856e-02 -1.716436743736267090e-01 1.394468080252408981e-02 2.043504416942596436e-01 -5.947775393724441528e-02 -6.870435178279876709e-02 1.128855422139167786e-01 -9.591225534677505493e-02 -3.758525848388671875e-02 9.515251964330673218e-02 -1.332159340381622314e-02 7.841578871011734009e-02 5.358535423874855042e-02 -1.127641573548316956e-01 3.475828841328620911e-02 -1.550125777721405029e-01 -7.496856618672609329e-03 6.380889564752578735e-02 -1.341777294874191284e-01 -1.649232804775238037e-01 -1.433182358741760254e-01 2.293037623167037964e-02 1.297367811203002930e-01 -2.754574641585350037e-02 1.908240094780921936e-02 3.978630527853965759e-02 6.380055844783782959e-02 -1.124050468206405640e-01 2.593147568404674530e-02 2.460595453158020973e-03
-2.844322845339775085e-02 -2.592649459838867188e-01 8.452738821506500244e-02 2.709281072020530701e-02 -1.297968029975891113e-01 -1.121601983904838562e-01 -8.176414668560028076e-02 -1.043998152017593384e-01 1.507090926170349121e-01 2.302951812744140625e-01 1.937861144542694092e-01 -1.281619351357221603e-02 -3.183198720216751099e-02 -3.837153315544128418e-02 -1.714428141713142395e-02 9.799516201019287109e-02 1.551973968744277954e-01 7.613556087017059326e-02 8.692251145839691162e-02 1.693430356681346893e-02 -4.101328924298286438e-02 -6.934822350740432739e-02 -7.586012780666351318e-02 7.923446595668792725e-02 -2.603037096560001373e-02 2.608517743647098541e-02 -1.745617538690567017e-01 -2.151314765214920044e-01 -4.642194509506225586e-02 3.615377098321914673e-02
4.344677925109863281e-02 6.915114074945449829e-02 4.907614737749099731e-02 -1.770720072090625763e-02 1.645514965057373047e-01 9.085096418857574463e-02 1.325742602348327637e-01 7.686583790928125381e-03 -1.112911477684974670e-01 -2.666914835572242737e-02 5.750174075365066528e-02 -1.542237997055053711e-01 6.833034753799438477e-02 -9.050429612398147583e-02 2.704641222953796387e-02 7.179617881774902344e-02 -7.209843397140502930e-02 -1.308357622474431992e-02 -1.075296252965927124e-01 8.212844282388687134e-02 -9.991950541734695435e-02 -7.081947475671768188e-02 4.054236039519309998e-02 9.493565559387207031e-02 -9.554088860750198364e-02 2.505839429795742035e-02 2.826745808124542236e-02 -7.854104787111282349e-02 -3.986322134733200073e-02 -7.775498926639556885e-02
-2.410712391138076782e-01 -4.011906385421752930e-01 3.257789462804794312e-02 -1.305651813745498657e-01 1.367247998714447021e-01 7.398790866136550903e-02 -1.738442480564117432e-01 8.161706477403640747e-02 9.535733610391616821e-02 1.170240994542837143e-02 -1.066610366106033325e-01 -1.221178658306598663e-02 2.487552352249622345e-02 6.894636154174804688e-02 2.305993065237998962e-02 1.150816977024078369e-01 1.950722746551036835e-02 -7.082875818014144897e-02 2.184664905071258545e-01 3.015433624386787415e-02 1.577199697494506836e-01 4.221808165311813354e-02 8.530109375715255737e-02 -8.041589707136154175e-02 -8.129485696554183960e-02 1.606021635234355927e-02 9.713896363973617554e-02 6.222230568528175354e-02 8.725841343402862549e-02 3.743692487478256226e-02
-1.705958843231201172e-01 1.289656162261962891e-01 -1.811425387859344482e-02 4.319276660680770874e-02 -6.423223763704299927e-02 -4.390374571084976196e-02 1.146245896816253662e-01 6.723763048648834229e-02 -1.639021933078765869e-01 -6.453407555818557739e-02 4.461852461099624634e-02 7.111089676618576050e-02 -3.195850923657417297e-02 -2.565336823463439941e-01 9.749230928719043732e-03 4.882476478815078735e-02 1.152797974646091461e-02 -6.143529340624809265e-02 2.157408371567726135e-02 -9.371453523635864258e-02 -1.112560480833053589e-01 -3.345975652337074280e-02 5.736533924937248230e-02 3.198523446917533875e-02 -8.607740700244903564e-02 -6.556978076696395874e-02 9.273194521665573120e-02 1.124118443840416148e-05 3.272760659456253052e-02 4.322999343276023865e-02
-1.162534430623054504e-01 -2.390597313642501831e-01 -2.059830874204635620e-01 6.967025250196456909e-02 -6.392866373062133789e-02 -6.078474968671798706e-02 -1.224296689033508301e-01 5.074197053909301758e-02 -1.180861666798591614e-01 5.372344329953193665e-02 -9.055625647306442261e-02 -3.977533895522356033e-03 5.571923404932022095e-02 1.129434853792190552e-01 -1.488168388605117798e-01 -1.070619896054267883e-01 1.004691794514656067e-01 9.084645658731460571e-02 -7.855799049139022827e-02 -1.105965021997690201e-02 1.052325069904327393e-01 9.689614921808242798e-02 2.639826200902462006e-02 4.081452637910842896e-02 -8.330337703227996826e-02 -4.798700287938117981e-02 -1.431982070207595825e-01 -1.245770230889320374e-02 -1.914673112332820892e-02 1.503118872642517090e-02
-4.687897861003875732e-02 -1.414742171764373779e-01 1.047082096338272095e-01 -1.990780979394912720e-01 2.050963696092367172e-03 -2.107229977846145630e-01 7.164487149566411972e-03 3.106671944260597229e-02 -7.487004250288009644e-02 3.819265589118003845e-02 6.970711797475814819e-02 -6.170348823070526123e-02 -5.080633237957954407e-02 8.170852065086364746e-02 9.968559443950653076e-02 -6.692179292440414429e-02 1.205089688301086426e-01 -5.865245312452316284e-02 1.290944516658782959e-01 9.063789248466491699e-02 6.792862713336944580e-02 -1.307799108326435089e-02 4.318909719586372375e-03 -7.425488531589508057e-02 -4.743579402565956116e-02 5.905564501881599426e-02 4.161871597170829773e-02 3.078585863113403320e-02 3.700046613812446594e-02 7.920178025960922241e-02
2.643338143825531006e-01 -3.010725677013397217e-01 -3.539428487420082092e-02 1.219000294804573059e-01 1.672811619937419891e-02 -5.235947296023368835e-02 -6.763224024325609207e-03 -4.284559190273284912e-02 -3.274909555912017822e-01 1.416238769888877869e-02 3.845699876546859741e-02 4.385697469115257263e-02 -1.742369979619979858e-01 -8.565393090248107910e-02 -2.251521199941635132e-01 -1.395809650421142578e-01 -4.071835801005363464e-02 7.461288012564182281e-03 3.738897293806076050e-02 -9.089324623346328735e-03 1.674937456846237183e-02 1.060069072991609573e-02 -6.614604592323303223e-02 4.874074086546897888e-02 8.960685878992080688e-02 -1.161381043493747711e-02 -8.579161018133163452e-03 -1.451634466648101807e-01 2.501285821199417114e-02 -2.443394996225833893e-02
1.019263863563537598e-01 -2.602130770683288574e-01 -1.473543941974639893e-01 -5.024328455328941345e-02 -1.166801601648330688e-01 -7.159888744354248047e-02 1.034326031804084778e-01 1.518700458109378815e-02 -1.026192307472229004e-01 -1.643070727586746216e-01 1.317542605102062225e-02 -2.815543115139007568e-02 -2.946373820304870605e-02 6.000313162803649902e-02 -1.907666176557540894e-01 -1.083887517452239990e-01 8.249197900295257568e-02 1.582121476531028748e-02 -9.262722730636596680e-02 -7.072446867823600769e-03 1.322042942047119141e-01 -3.672720922622829676e-04 -2.432989515364170074e-02 -6.327944993972778320e-02 3.333816304802894592e-02 -4.884585738182067871e-03 -1.566952168941497803e-01 -6.078505143523216248e-02 2.254509180784225464e-01 1.243569701910018921e-01
-4.132343828678131104e-02 -4.895850718021392822e-01 5.562061071395874023e-01 1.889843791723251343e-01 4.910749569535255432e-02 5.825946573168039322e-04 -5.348357185721397400e-02 6.052347016520798206e-04 1.053224503993988037e-01 -6.893211603164672852e-02 1.296153813600540161e-01 2.017067186534404755e-02 -1.160968001931905746e-02 -3.446554765105247498e-02 1.038127690553665161e-01 -1.186849400401115417e-01 -2.280254289507865906e-02 -8.974364958703517914e-03 -3.554596379399299622e-02 7.921106368303298950e-02 1.003469340503215790e-02 7.597649842500686646e-02 1.525474041700363159e-01 -1.229548975825309753e-01 -1.046611964702606201e-01 -2.579814009368419647e-02 9.185305982828140259e-02 8.676421642303466797e-02 -2.701315656304359436e-02 -1.237949915230274200e-02
-2.325633913278579712e-02 -1.995994746685028076e-01 -2.864950895309448242e-01 -1.069438178092241287e-02 1.481105089187622070e-01 -4.485327750444412231e-02 3.232920169830322266e-02 2.295777574181556702e-02 -7.793046534061431885e-02 -4.289614409208297729e-02 -6.686938554048538208e-02 -1.352173686027526855e-01 -3.009978309273719788e-02 1.032872945070266724e-01 -4.423863068222999573e-02 4.111379012465476990e-02 -7.116790860891342163e-02 -1.024654228240251541e-02 -4.396756365895271301e-02 4.570122435688972473e-02 1.575941964983940125e-02 8.537535555660724640e-03 -8.709101378917694092e-02 1.091091781854629517e-01 5.505667254328727722e-02 1.151388883590698242e-01 -2.376274019479751587e-02 -3.037509024143218994e-01 6.045359373092651367e-02 -1.248537469655275345e-02
-2.922848463058471680e-01 -3.852173089981079102e-01 -1.004506275057792664e-01 -1.005939692258834839e-01 -4.289325699210166931e-02 1.823134571313858032e-01 6.242199335247278214e-03 1.039595678448677063e-01 4.779835289809852839e-04 -1.556607335805892944e-01 4.844899103045463562e-02 -6.490691751241683960e-02 9.722820669412612915e-02 -4.804848134517669678e-02 1.620073169469833374e-01 2.977121248841285706e-02 4.382548481225967407e-02 1.314145922660827637e-01 1.133427396416664124e-01 -1.217651143670082092e-01 3.282073140144348145e-02 -1.445177011191844940e-02 2.489128150045871735e-02 -6.021242961287498474e-02 -1.560890674591064453e-01 -1.906653046607971191e-01 5.636525154113769531e-02 -1.787241175770759583e-02 6.960055232048034668e-02 7.522708177566528320e-02
7.622811198234558105e-02 -8.236324191093444824e-01 -2.542875409126281738e-01 1.061571687459945679e-01 3.444739058613777161e-02 -2.076367614790797234e-03 6.426249444484710693e-02 2.734629996120929718e-02 -4.605620726943016052e-02 -2.009861543774604797e-02 -1.754014790058135986e-01 -8.124469220638275146e-02 8.219222724437713623e-02 2.359217777848243713e-02 9.457670152187347412e-02 -4.755229130387306213e-02 -1.484840959310531616e-01 4.746306512970477343e-04 1.242424100637435913e-01 1.115787774324417114e-01 8.881428092718124390e-02 -1.394086703658103943e-02 -1.505011618137359619e-01 1.393135339021682739e-01 -9.391821175813674927e-02 2.690016105771064758e-02 1.841784417629241943e-01 -4.595259204506874084e-02 5.120679363608360291e-02 1.153876334428787231e-01
-3.403738886117935181e-02 -1.311555355787277222e-01 3.562437295913696289e-01 -2.174290642142295837e-02 -8.730033878237009048e-04 -1.361509412527084351e-02 3.750145435333251953e-03 7.766707800328731537e-03 3.183439746499061584e-02 -3.756761178374290466e-02 -9.313666261732578278e-03 6.477592885494232178e-02 7.317474577575922012e-03 -7.219780981540679932e-02 7.888900488615036011e-02 -2.277369946241378784e-01 -6.351508945226669312e-02 -1.294201165437698364e-01 6.781876832246780396e-02 -6.457031518220901489e-02 -5.388674139976501465e-02 -1.281009986996650696e-02 5.996447801589965820e-02 1.002496294677257538e-02 8.052773773670196533e-02 1.072062551975250244e-02 -8.533377945423126221e-02 -1.359086334705352783e-01 -4.285129532217979431e-02 9.296385943889617920e-02
2.757774889469146729e-01 -5.775903463363647461e-01 1.431546360254287720e-02 3.466295450925827026e-02 8.037750422954559326e-02 6.452772766351699829e-02 2.166680991649627686e-02 9.382909163832664490e-03 1.134175583720207214e-01 1.165876537561416626e-01 -5.804143100976943970e-02 1.206142455339431763e-02 -1.337749063968658447e-01 -2.080379053950309753e-02 8.759770542383193970e-02 8.485503494739532471e-02 -1.309017837047576904e-01 -3.011732548475265503e-02 1.383509784936904907e-01 1.120140999555587769e-01 -1.400433033704757690e-01 9.986446239054203033e-03 -6.759432703256607056e-02 3.203739225864410400e-02 5.425604432821273804e-02 2.232451178133487701e-02 -2.280333824455738068e-02 2.497009560465812683e-02 3.413931280374526978e-02 6.978732347488403320e-02
-2.635174095630645752e-01 -7.315022498369216919e-02 2.160387188196182251e-01 -8.400075882673263550e-02 8.274188439827412367e-05 1.975865103304386139e-03 -1.830104552209377289e-02 -5.841813981533050537e-02 3.757283091545104980e-02 4.322845861315727234e-02 -1.284825354814529419e-01 -4.382248222827911377e-02 -1.766759008169174194e-01 2.133405022323131561e-02 1.379047986119985580e-02 -2.071081548929214478e-01 -6.143700331449508667e-02 6.061790883541107178e-02 1.052495911717414856e-01 1.840874403715133667e-01 6.867757532745599747e-03 -9.242125600576400757e-02 -6.344249844551086426e-02 -1.515102665871381760e-02 -1.400338709354400635e-01 -1.978880353271961212e-02 2.202029079198837280e-01 -2.685118913650512695e-01 -5.209709331393241882e-02 -5.070581659674644470e-02
4.263441860675811768e-01 -1.632449179887771606e-01 -2.220581322908401489e-01 -1.587636955082416534e-02 -1.399356964975595474e-02 1.011363267898559570e-01 -2.140020877122879028e-01 2.787296660244464874e-02 -2.381637319922447205e-02 2.279929257929325104e-02 9.295935183763504028e-02 -7.422892004251480103e-02 -1.524747163057327271e-01 -4.297605901956558228e-02 -6.878623366355895996e-02 -6.893961131572723389e-02 2.456920593976974487e-02 1.428017020225524902e-01 2.602656185626983643e-02 1.443233434110879898e-02 -1.279570069164037704e-02 3.586326912045478821e-02 -4.406858608126640320e-02 -1.572100371122360229e-01 -1.329168528318405151e-01 8.129379898309707642e-02 -6.864506751298904419e-02 -7.307738810777664185e-02 -1.947813630104064941e-01 1.777498051524162292e-03
-6.751999258995056152e-02 1.651606261730194092e-01 1.757815629243850708e-01 -2.581907808780670166e-01 -1.685297787189483643e-01 -2.140209637582302094e-02 -4.790448024868965149e-02 5.572951585054397583e-02 8.472833782434463501e-02 -1.851511448621749878e-01 2.841722406446933746e-02 -2.254826389253139496e-02 3.029458783566951752e-02 -1.254864931106567383e-01 -4.187411814928054810e-02 2.081445232033729553e-02 1.100132837891578674e-01 -7.354839891195297241e-02 -7.844117353670299053e-04 -3.686650656163692474e-03 3.594700619578361511e-02 3.008886985480785370e-02 1.289411038160324097e-01 -2.526208385825157166e-02 -7.227483391761779785e-02 -8.578095585107803345e-02 -1.612264066934585571e-01 1.110065057873725891e-01 -1.494211424142122269e-02 1.152661964297294617e-01
1.258661299943923950e-01 3.942281603813171387e-01 1.251855790615081787e-01 -6.044557690620422363e-02 -8.771197497844696045e-02 -1.292554438114166260e-01 2.887348271906375885e-02 3.495503216981887817e-02 1.355954073369503021e-02 4.110278934240341187e-02 -1.595468074083328247e-01 5.792326293885707855e-03 1.893762201070785522e-01 8.057325333356857300e-02 -4.005346819758415222e-02 -7.041721045970916748e-02 -1.391863971948623657e-01 -1.874438375234603882e-01 -1.279968023300170898e-01 -2.721429569646716118e-03 -1.536616235971450806e-01 2.583642490208148956e-02 1.794925779104232788e-01 7.307306677103042603e-02 1.022815629839897156e-01 7.029859721660614014e-02 1.173426657915115356e-01 -1.351646482944488525e-01 -1.397243607789278030e-02 4.062713310122489929e-02
1.856092959642410278e-01 -8.272683620452880859e-01 -7.782327383756637573e-02 9.325364977121353149e-02 -1.275216192007064819e-01 -8.549621701240539551e-02 7.828696817159652710e-02 6.540547311305999756e-02 -7.180866599082946777e-02 4.331362247467041016e-02 5.058011040091514587e-02 -4.172920063138008118e-02 -6.851179897785186768e-02 1.695786565542221069e-01 1.606953442096710205e-01 6.471659243106842041e-02 -2.149744657799601555e-03 -1.618220210075378418e-01 7.742288056761026382e-03 1.300739794969558716e-01 -6.725057959556579590e-02 -3.263426944613456726e-02 -1.125226989388465881e-01 -4.746572673320770264e-02 3.732855618000030518e-02 6.391983479261398315e-02 5.478360503911972046e-02 -4.908490180969238281e-02 3.997805062681436539e-03 -8.266137912869453430e-03
-2.210830524563789368e-02 1.351709216833114624e-01 3.676861524581909180e-01 -5.700955167412757874e-02 -2.093064635992050171e-01 -2.759954147040843964e-02 3.982786834239959717e-02 1.353553682565689087e-02 -2.950607612729072571e-02 -1.281571481376886368e-02 1.851866096258163452e-01 1.246797218918800354e-01 -5.919169262051582336e-02 -4.258073400706052780e-03 4.202030599117279053e-02 4.878580197691917419e-02 -2.476731874048709869e-02 -4.281844198703765869e-02 -3.772766515612602234e-02 -5.066972970962524414e-02 2.568417489528656006e-01 -8.529967628419399261e-03 5.055929720401763916e-02 7.855360954999923706e-02 5.127976089715957642e-02 1.150491610169410706e-01 -1.404110491275787354e-01 1.056180745363235474e-01 -7.570867985486984253e-02 1.095059067010879517e-01
-7.238006591796875000e-02 6.204978823661804199e-01 2.695079445838928223e-01 9.246426820755004883e-02 7.238707691431045532e-02 4.496767744421958923e-02 -4.822801798582077026e-02 2.704001590609550476e-02 2.709795348346233368e-02 -2.838788554072380066e-03 9.285265952348709106e-02 8.699916303157806396e-03 9.640292264521121979e-03 1.084201857447624207e-01 3.862471505999565125e-02 -4.221934825181961060e-02 -1.180112659931182861e-01 -1.032564565539360046e-01 9.656960610300302505e-04 1.424482166767120361e-01 3.485057502985000610e-02 -9.479094296693801880e-03 4.689997434616088867e-02 -2.040149867534637451e-01 -1.256483048200607300e-01 -4.909001663327217102e-02 6.130876392126083374e-02 1.404782086610794067e-01 4.473347589373588562e-02 1.450259797275066376e-02
-3.676347807049751282e-02 1.557878106832504272e-01 2.320620119571685791e-01 -9.595613926649093628e-02 6.100689992308616638e-02 5.591904371976852417e-02 5.862391740083694458e-02 9.958066046237945557e-02 2.733768522739410400e-02 6.644412875175476074e-02 4.829094558954238892e-02 6.609642505645751953e-02 1.686099916696548462e-02 -1.782834380865097046e-01 1.113945692777633667e-01 1.337686832994222641e-02 3.818191960453987122e-02 -1.218449231237173080e-02 -3.728812932968139648e-02 -3.701242431998252869e-02 -5.092196166515350342e-02 -4.164405167102813721e-02 1.595385372638702393e-01 4.162694141268730164e-02 4.538788273930549622e-02 -7.012870907783508301e-02 5.718833953142166138e-02 3.775104135274887085e-02 -4.785739257931709290e-02 -1.053171753883361816e-01
-7.863064855337142944e-02 2.942401468753814697e-01 9.242405742406845093e-02 2.305895322933793068e-03 1.391171663999557495e-01 9.840031713247299194e-02 5.845721811056137085e-02 -1.060274094343185425e-01 1.524942666292190552e-01 -5.670550093054771423e-02 2.433132007718086243e-02 1.040287390351295471e-01 -8.800401538610458374e-02 2.997614070773124695e-02 -5.530581623315811157e-02 9.800003468990325928e-02 1.269819289445877075e-01 1.164639666676521301e-01 -1.179788187146186829e-01 1.437287926673889160e-01 -2.221318706870079041e-02 7.523847371339797974e-02 1.413719654083251953e-01 -8.370584249496459961e-02 -3.769175708293914795e-02 5.319365486502647400e-02 -2.085270546376705170e-02 -1.531420499086380005e-01 -1.600578427314758301e-01 -4.175938293337821960e-02
-2.235204577445983887e-01 8.856954425573348999e-02 7.327036559581756592e-02 -1.739322245121002197e-01 2.264788001775741577e-01 -1.817481406033039093e-02 3.875085711479187012e-02 -1.956610381603240967e-01 6.644689291715621948e-02 8.181394636631011963e-02 1.826243102550506592e-01 -1.126293540000915527e-01 -7.797665148973464966e-02 6.381750106811523438e-02 6.045301631093025208e-02 -7.340639829635620117e-02 -1.428685486316680908e-01 -1.691864989697933197e-02 4.716515913605690002e-02 -4.486082121729850769e-02 -1.079833507537841797e-01 4.676690697669982910e-02 1.072953790426254272e-01 -3.680395334959030151e-02 -2.155767939984798431e-02 -6.132462248206138611e-02 -5.808715522289276123e-02 -3.534477204084396362e-02 2.302248403429985046e-02 -3.188283741474151611e-02
-1.823664158582687378e-01 -1.509908586740493774e-01 3.013746440410614014e-01 4.230902413837611675e-04 1.583442240953445435e-01 -9.671826846897602081e-03 4.516429826617240906e-02 1.781304776668548584e-01 -1.523053739219903946e-02 2.333003468811511993e-02 -3.842129558324813843e-02 -5.563423782587051392e-02 -7.416270207613706589e-03 -1.591745018959045410e-01 2.233422547578811646e-02 -3.830310329794883728e-02 7.508107274770736694e-02 2.463993616402149200e-02 4.361771047115325928e-02 -2.849105000495910645e-02 1.513751456514000893e-03 3.208760544657707214e-02 -8.281716145575046539e-03 4.277774319052696228e-02 6.812597811222076416e-02 -5.667603760957717896e-02 7.927071303129196167e-03 1.750511229038238525e-01 -2.608164548873901367e-01 -7.823642343282699585e-03
4.724640846252441406e-01 3.041212558746337891e-01 1.077214032411575317e-01 -9.065826237201690674e-02 -1.507077366113662720e-01 -6.589192897081375122e-02 -2.400265261530876160e-02 -1.376701444387435913e-01 5.310001224279403687e-02 6.431103497743606567e-02 -4.468953609466552734e-02 -2.583752211648970842e-04 -3.851870133075863123e-04 -6.363356858491897583e-02 -3.890555817633867264e-03 -1.364340186119079590e-01 5.566478893160820007e-02 2.671760320663452148e-02 -3.904296457767486572e-02 -2.232591249048709869e-02 3.813588246703147888e-02 1.646287888288497925e-01 -3.800181671977043152e-02 -7.483289390802383423e-02 -7.704457640647888184e-02 -6.464754790067672729e-02 -3.921074792742729187e-02 -1.848829910159111023e-02 1.750118285417556763e-01 -5.794749408960342407e-02
-2.711048424243927002e-01 3.107848465442657471e-01 -4.249757528305053711e-01 -1.988858133554458618e-01 -4.298966843634843826e-03 1.019875630736351013e-01 -1.090879365801811218e-01 -6.917346268892288208e-02 -2.530324086546897888e-02 -9.076482802629470825e-02 6.497746799141168594e-03 -4.980767518281936646e-02 1.486617140471935272e-02 1.475893855094909668e-01 2.465804815292358398e-01 1.445724908262491226e-02 -8.908154815435409546e-02 -4.323131591081619263e-02 3.193169541191309690e-04 6.734729278832674026e-03 1.638264581561088562e-02 2.716723084449768066e-02 -4.500701278448104858e-02 -9.852595627307891846e-02 1.624343693256378174e-01 6.294425576925277710e-02 -6.848897039890289307e-02 1.145190894603729248e-01 -5.257011391222476959e-03 -5.108801648020744324e-02
-7.726231217384338379e-02 3.302016258239746094e-01 2.413258403539657593e-01 1.294161677360534668e-01 -1.057601347565650940e-01 -7.728616893291473389e-02 -8.739975839853286743e-02 -1.124668419361114502e-01 1.833528280258178711e-02 6.519183516502380371e-02 -1.898469924926757812e-01 1.195783726871013641e-02 -1.394673585891723633e-01 -8.674541115760803223e-02 2.078618705272674561e-01 -2.109859138727188110e-01 -2.058581635355949402e-02 6.437644362449645996e-02 -8.830010145902633667e-02 -1.041354015469551086e-01 1.197799388319253922e-02 6.977849453687667847e-02 -5.119647085666656494e-02 1.759137809276580811e-01 -8.337683230638504028e-02 4.571673274040222168e-02 -5.342893674969673157e-02 -4.921992123126983643e-02 3.333258256316184998e-02 -1.171065773814916611e-02
-1.484661996364593506e-01 -6.166709065437316895e-01 -2.495257705450057983e-01 -8.311038464307785034e-02 1.267410665750503540e-01 -9.048384614288806915e-03 1.893814839422702789e-02 -7.847698777914047241e-02 -9.149005264043807983e-02 4.621740803122520447e-02 8.293714374303817749e-02 -1.759833842515945435e-02 -2.889084517955780029e-01 2.001254707574844360e-01 4.506896366365253925e-04 8.096820674836635590e-03 2.303159981966018677e-02 -1.720441877841949463e-02 2.735319733619689941e-02 3.836860880255699158e-02 6.643085926771163940e-02 -2.464545518159866333e-02 -3.066985309123992920e-02 4.346375539898872375e-02 1.750203967094421387e-01 -9.357777982950210571e-02 -2.670629695057868958e-02 3.461485356092453003e-02 -1.221342943608760834e-02 2.782798185944557190e-02
4.233543276786804199e-01 -1.775507442653179169e-02 9.686183929443359375e-02 9.596648067235946655e-02 -8.621504902839660645e-02 2.547820657491683960e-02 2.393151819705963135e-02 1.022234279662370682e-02 -1.160988211631774902e-01 -7.097435742616653442e-02 -2.479029446840286255e-02 -1.847642362117767334e-01 -5.542854592204093933e-02 8.974435180425643921e-02 -2.259867489337921143e-01 3.861444070935249329e-02 -1.187259405851364136e-01 -1.332858800888061523e-01 -9.159500896930694580e-02 5.587843712419271469e-03 -2.667931094765663147e-02 -7.889672182500362396e-03 -9.538443759083747864e-03 -1.206493377685546875e-01 -8.221657574176788330e-02 5.342509597539901733e-02 -3.354338183999061584e-02 -9.617064893245697021e-02 5.564733408391475677e-03 -5.190175026655197144e-02
-4.112973511219024658e-01 -2.875307500362396240e-01 1.484316140413284302e-01 1.705291122198104858e-01 3.158408775925636292e-02 7.821676554158329964e-04 -1.066055744886398315e-01 -7.773695886135101318e-02 -3.321373090147972107e-02 -6.145462393760681152e-02 3.627970814704895020e-02 6.789779663085937500e-02 -3.113779239356517792e-02 4.349196329712867737e-02 -4.136683791875839233e-02 2.156627178192138672e-02 6.198410317301750183e-02 6.570430472493171692e-03 -1.976719312369823456e-02 9.822896867990493774e-02 -9.507691115140914917e-02 4.981933906674385071e-02 -1.877686828374862671e-01 5.344459414482116699e-02 5.738673731684684753e-02 2.188371308147907257e-02 2.432271838188171387e-02 -1.907614767551422119e-01 5.425023660063743591e-02 -5.307442322373390198e-02
-1.145324632525444031e-01 2.792991232126951218e-03 3.887544572353363037e-02 -2.431833744049072266e-02 2.200800180435180664e-01 -1.170258000493049622e-01 1.617385447025299072e-01 -2.570177661255002022e-03 9.730195254087448120e-02 1.133057251572608948e-01 4.581767693161964417e-02 -4.502087086439132690e-02 3.023339807987213135e-02 -8.528999239206314087e-02 -4.523952677845954895e-02 -4.000948369503021240e-02 1.625434309244155884e-01 -4.734754562377929688e-02 1.455462127923965454e-01 2.174618840217590332e-02 -2.699273871257901192e-03 2.478544972836971283e-02 5.877760797739028931e-02 5.404485017061233521e-02 -1.490592062473297119e-01 3.666038066148757935e-02 1.775638610124588013e-01 2.093362063169479370e-02 -4.126296937465667725e-02 5.225072056055068970e-02
-1.573582291603088379e-01 -1.862652599811553955e-01 2.211877703666687012e-01 8.436883985996246338e-02 6.427007913589477539e-02 1.085852831602096558e-02 -3.465682035312056541e-03 -1.841300725936889648e-02 -3.377503156661987305e-02 3.902649506926536560e-02 1.762067079544067383e-01 -1.384384185075759888e-01 1.262325644493103027e-01 2.277400903403759003e-02 -1.173056811094284058e-01 7.435464859008789062e-02 -1.248545292764902115e-02 -6.648823618888854980e-02 5.821006000041961670e-02 1.156663056463003159e-02 8.608277887105941772e-03 -2.259588390588760376e-01 -7.819684594869613647e-02 -1.083395257592201233e-01 4.665755853056907654e-02 -4.271796345710754395e-02 -1.322328597307205200e-01 6.320214271545410156e-02 -5.527934059500694275e-03 -2.779766358435153961e-02
-1.669849902391433716e-01 4.997003078460693359e-01 3.587510287761688232e-01 -5.560050904750823975e-02 -4.989533498883247375e-02 2.142777480185031891e-02 7.160156033933162689e-03 6.877557188272476196e-02 -1.960885897278785706e-02 8.721053600311279297e-03 -9.757067263126373291e-02 -1.654877066612243652e-01 -9.666308015584945679e-02 1.142673715949058533e-01 -8.697029948234558105e-02 8.182167261838912964e-02 -1.499117910861968994e-01 4.435772821307182312e-02 3.679882362484931946e-02 1.395178437232971191e-01 9.158366359770298004e-03 1.158999949693679810e-01 1.121180057525634766e-01 -5.442151054739952087e-02 4.562880843877792358e-02 7.399720698595046997e-02 -1.255520135164260864e-01 1.463361680507659912e-01 -4.696040973067283630e-02 8.168441802263259888e-02
2.473070621490478516e-01 4.793488085269927979e-01 2.081326246261596680e-01 -4.179201275110244751e-02 -1.099114567041397095e-01 7.986660301685333252e-02 -1.030519530177116394e-01 1.186750605702400208e-01 -2.757933363318443298e-02 -3.038042783737182617e-02 -5.105403810739517212e-02 3.038194263353943825e-03 9.978483431041240692e-03 1.000294983386993408e-01 8.885782212018966675e-02 -2.176653034985065460e-02 -1.145470365881919861e-01 -4.357215389609336853e-02 -1.093978732824325562e-01 5.201774090528488159e-02 -4.445246979594230652e-02 -2.022466063499450684e-02 -5.109505355358123779e-02 2.234826050698757172e-02 9.460064768791198730e-02 4.708882421255111694e-02 -9.946005418896675110e-03 5.164610594511032104e-02 6.013419479131698608e-02 4.070634394884109497e-02
-1.120601035654544830e-02 4.009304046630859375e-01 3.479950502514839172e-02 3.662925958633422852e-02 7.784302532672882080e-02 -3.875516355037689209e-02 -1.094977036118507385e-01 7.359911501407623291e-02 -4.094989225268363953e-02 -1.209989096969366074e-02 -3.889447823166847229e-02 8.673124015331268311e-02 4.601979628205299377e-02 -5.567532032728195190e-02 3.280216129496693611e-03 -1.309170275926589966e-01 -1.124327182769775391e-01 -6.794328987598419189e-02 1.929686591029167175e-02 9.242861415259540081e-04 -4.568796604871749878e-02 4.358526319265365601e-03 -3.444820642471313477e-03 -3.214496746659278870e-02 -5.015689879655838013e-02 8.403782732784748077e-03 1.891238614916801453e-02 -1.203078553080558777e-01 7.076374441385269165e-02 -2.974545210599899292e-02
-2.674956619739532471e-02 -4.287703037261962891e-01 -1.606034785509109497e-01 -1.086577549576759338e-01 -3.493002057075500488e-02 -1.355156116187572479e-02 4.553156718611717224e-02 5.405051633715629578e-02 -1.454058438539505005e-01 -1.627792976796627045e-02 -1.490716934204101562e-01 -5.903657153248786926e-02 1.087143570184707642e-01 -4.778707399964332581e-02 2.231699228286743164e-02 -2.877306193113327026e-02 2.931022457778453827e-02 1.405022386461496353e-02 7.818284630775451660e-02 1.196120902895927429e-01 5.251307971775531769e-03 1.791967451572418213e-01 -5.429071187973022461e-02 4.314059019088745117e-02 1.459979116916656494e-01 -2.755390293896198273e-02 -6.866084039211273193e-02 1.628708839416503906e-01 -8.701634593307971954e-03 -1.310056447982788086e-02
-4.604721441864967346e-02 2.136617302894592285e-01 1.952640414237976074e-01 -1.619913987815380096e-02 -4.807857796549797058e-02 1.464878320693969727e-01 5.500932410359382629e-02 3.989955410361289978e-02 -5.159505829215049744e-02 -3.855102509260177612e-02 1.938553750514984131e-01 -1.645828038454055786e-02 3.145227581262588501e-02 -1.053785309195518494e-01 -1.370521187782287598e-01 -8.856392651796340942e-02 -1.882590912282466888e-02 -1.878235489130020142e-01 -5.942581593990325928e-02 1.185535416007041931e-01 -1.509233713150024414e-01 8.540201000869274139e-03 -2.451921440660953522e-02 -4.318935424089431763e-02 -7.925416342914104462e-03 1.248459704220294952e-02 -7.564574480056762695e-02 -1.047325059771537781e-01 -7.557261735200881958e-03 -2.604970708489418030e-02
1.315365284681320190e-01 -5.598530173301696777e-01 2.425215542316436768e-01 3.253462165594100952e-02 1.205131337046623230e-01 1.060581882484257221e-03 1.755824238061904907e-01 5.346719175577163696e-02 -1.315482333302497864e-02 2.913448587059974670e-02 5.060466472059488297e-03 -1.339891739189624786e-02 1.884921267628669739e-02 9.019462019205093384e-02 -6.388651579618453979e-02 -4.679709300398826599e-02 -1.144649181514978409e-02 -7.353049516677856445e-02 -1.973766386508941650e-01 4.017726331949234009e-02 -9.770919382572174072e-02 7.000251859426498413e-02 -1.039655320346355438e-02 -2.269340492784976959e-02 4.290276393294334412e-02 8.355968445539474487e-02 1.136196404695510864e-01 -1.047600433230400085e-02 1.882116198539733887e-01 1.006843149662017822e-01
1.641654372215270996e-01 5.034790188074111938e-02 1.943862438201904297e-01 -1.268872469663619995e-01 -1.586828380823135376e-02 -5.055823922157287598e-02 9.392127394676208496e-02 6.360578536987304688e-02 5.771795287728309631e-02 8.454679697751998901e-02 6.602409482002258301e-02 -5.953093990683555603e-03 9.463196247816085815e-02 -6.860559433698654175e-02 1.601669639348983765e-01 -3.239184617996215820e-02 -1.313639134168624878e-01 -8.592426776885986328e-02 -6.341804563999176025e-02 1.284570395946502686e-01 -1.026328429579734802e-01 1.502183824777603149e-02 -1.775351935066282749e-03 -3.138872096315026283e-03 -8.809725195169448853e-02 -7.365868240594863892e-02 1.783336885273456573e-02 -2.518065832555294037e-02 -3.441382572054862976e-02 4.479398205876350403e-02
-4.916822016239166260e-01 -1.289457678794860840e-01 6.857537478208541870e-02 -3.929810598492622375e-02 -5.217974632978439331e-02 1.926135271787643433e-01 -1.186407431960105896e-01 2.417575754225254059e-02 1.644726544618606567e-01 5.201589688658714294e-02 -9.910156577825546265e-02 9.435798227787017822e-02 1.748679392039775848e-02 1.064993888139724731e-01 -1.896789968013763428e-01 -1.272905468940734863e-01 4.674231261014938354e-02 1.617602258920669556e-02 -1.830432191491127014e-02 -1.642361730337142944e-01 1.193406283855438232e-01 -5.645615980029106140e-02 -4.950881376862525940e-02 -1.197167187929153442e-01 -1.792261376976966858e-02 -3.952251002192497253e-02 -1.182621344923973083e-01 -5.633968114852905273e-02 4.738713800907135010e-02 5.601013451814651489e-02
8.530693501234054565e-02 4.204722493886947632e-02 1.951413750648498535e-01 6.450591236352920532e-02 1.243214532732963562e-01 -1.395379658788442612e-02 6.548058241605758667e-02 -5.188884958624839783e-02 4.645534604787826538e-02 -7.773567736148834229e-02 1.198828741908073425e-01 6.923071295022964478e-02 1.072067022323608398e-01 2.028961171163246036e-04 -7.299686782062053680e-03 -1.376587599515914917e-01 -5.757525563240051270e-02 -8.742803707718849182e-03 -9.923682548105716705e-03 7.998713850975036621e-02 -3.230094444006681442e-04 1.688949465751647949e-01 1.138023212552070618e-01 5.807922221720218658e-03 -1.231421250849962234e-02 -3.256483469158411026e-03 9.070339053869247437e-02 -1.510533243417739868e-01 -6.685961037874221802e-02 1.145529747009277344e-01
8.599139750003814697e-02 1.651479117572307587e-02 -3.164283335208892822e-01 -4.247613623738288879e-02 1.346888095140457153e-01 -2.079467624425888062e-01 -9.435160458087921143e-02 7.467473298311233521e-02 -1.083628088235855103e-01 1.734560728073120117e-02 -9.892318397760391235e-03 -2.570615336298942566e-02 9.846190921962261200e-03 1.289931088685989380e-01 2.277040183544158936e-01 -9.084168076515197754e-02 1.707298457622528076e-01 -5.493261665105819702e-02 -1.206097677350044250e-01 -7.838115096092224121e-02 1.732819154858589172e-02 1.174143701791763306e-01 -1.742434054613113403e-01 1.578947901725769043e-02 8.007081598043441772e-02 -5.837552249431610107e-03 6.261834502220153809e-02 8.566156029701232910e-02 4.035428166389465332e-02 -2.827420458197593689e-02
-4.455048218369483948e-02 -4.741225242614746094e-01 -3.043203800916671753e-02 4.892471060156822205e-02 -9.723502397537231445e-02 -1.002079769968986511e-01 -2.959823794662952423e-02 -4.520618356764316559e-03 9.653943590819835663e-03 7.488198578357696533e-02 9.416447579860687256e-02 -4.506382718682289124e-02 -4.284717142581939697e-03 3.012778982520103455e-02 -1.344984322786331177e-01 2.570290118455886841e-02 -1.763567626476287842e-01 -1.015575975179672241e-01 -4.236747324466705322e-02 -6.945984438061714172e-03 -6.660165637731552124e-02 -7.567267119884490967e-02 2.046547979116439819e-01 7.571526337414979935e-03 2.166064530611038208e-01 7.381162792444229126e-02 -2.490820735692977905e-02 7.179629057645797729e-02 -4.427088052034378052e-02 -6.785864382982254028e-02
-1.295878142118453979e-01 -2.350106239318847656e-01 -1.895974874496459961e-01 1.919267475605010986e-01 1.421186700463294983e-02 -5.242197588086128235e-02 -8.455065637826919556e-02 1.717784851789474487e-01 9.321153908967971802e-02 -2.457282971590757370e-03 -1.528900712728500366e-01 2.229082025587558746e-02 -6.171331554651260376e-02 3.408439084887504578e-02 3.079650551080703735e-02 -1.052820086479187012e-01 7.072546333074569702e-02 -1.169098466634750366e-01 2.568183839321136475e-01 1.819666475057601929e-01 -1.102293506264686584e-01 9.193781763315200806e-02 -1.479743234813213348e-02 -3.058183752000331879e-02 6.865740567445755005e-02 8.499834686517715454e-02 -4.631882905960083008e-02 -5.676803737878799438e-02 -9.198153391480445862e-03 8.542033284902572632e-02
6.648598611354827881e-02 -3.254435956478118896e-01 6.419210880994796753e-02 1.131994798779487610e-01 -8.288694173097610474e-02 -7.710633426904678345e-02 -3.589044138789176941e-02 3.123864531517028809e-02 -5.755734071135520935e-02 4.633441194891929626e-02 -3.537240251898765564e-02 2.075974941253662109e-01 7.161759305745363235e-03 -8.634509146213531494e-02 -9.059014171361923218e-02 -9.767113253474235535e-03 1.105204448103904724e-01 -2.337902784347534180e-02 1.122976988554000854e-01 8.327472954988479614e-02 1.146969571709632874e-02 1.269391030073165894e-01 -1.058004721999168396e-01 3.715051338076591492e-02 -1.079988330602645874e-01 -3.715844452381134033e-02 -1.065273508429527283e-01 7.041492313146591187e-02 1.541510373353958130e-01 -3.599303960800170898e-02
-4.223456978797912598e-01 -1.301028281450271606e-01 2.169055789709091187e-01 5.516119673848152161e-02 -1.579707860946655273e-02 -7.985453307628631592e-02 -2.556706219911575317e-02 -7.749787718057632446e-02 -5.226602777838706970e-02 -7.659477740526199341e-02 -7.598317414522171021e-02 1.094324141740798950e-01 2.659659273922443390e-02 1.566333323717117310e-01 1.960990130901336670e-01 7.356335967779159546e-02 -1.076945811510086060e-01 -1.897605210542678833e-01 -1.067756786942481995e-01 -6.098965927958488464e-02 -2.984955906867980957e-03 1.475006714463233948e-02 1.203877255320549011e-01 5.926129221916198730e-02 -7.723920792341232300e-02 -6.214596703648567200e-02 -1.563699245452880859e-01 1.156623288989067078e-01 -1.364039629697799683e-01 -1.331977359950542450e-02
8.077300339937210083e-02 2.782726287841796875e-01 5.769581794738769531e-01 -9.622623026371002197e-02 1.118612196296453476e-02 -1.725349947810173035e-02 -1.304711773991584778e-02 7.447040081024169922e-02 2.364928834140300751e-02 -2.349478937685489655e-02 1.027862802147865295e-01 1.338200550526380539e-02 1.572694629430770874e-01 1.201000362634658813e-01 -1.566797122359275818e-02 -1.001649126410484314e-01 -1.128882076591253281e-02 7.088909298181533813e-02 -2.773661352694034576e-02 2.317306250333786011e-01 6.384450942277908325e-02 -1.648201979696750641e-02 -3.323137527331709862e-03 3.171911090612411499e-02 -6.014397367835044861e-02 -3.421549871563911438e-02 -1.159572321921586990e-02 -2.601303756237030029e-01 -2.185388468205928802e-02 4.686525464057922363e-02
6.558865904808044434e-01 8.818107247352600098e-01 -1.615629643201828003e-01 2.222455888986587524e-01 -1.045160293579101562e-01 4.212580621242523193e-02 -1.514598610810935497e-03 3.396728634834289551e-02 4.832518100738525391e-02 -1.002818495035171509e-01 1.046255528926849365e-01 -6.575052440166473389e-02 -9.665609896183013916e-02 2.331787161529064178e-02 5.865795537829399109e-02 6.135001406073570251e-02 -7.822851091623306274e-02 2.216647006571292877e-02 1.493962574750185013e-02 1.055916026234626770e-01 -3.012944944202899933e-02 -1.175046991556882858e-02 -1.454525627195835114e-02 -1.626189798116683960e-01 -6.514646857976913452e-02 -5.039461702108383179e-02 9.324856102466583252e-02 1.037250831723213196e-01 4.969083890318870544e-02 1.487424597144126892e-02
-4.514919519424438477e-01 1.107704192399978638e-01 -2.679365277290344238e-01 8.315788209438323975e-02 1.016834005713462830e-01 4.119016230106353760e-02 -1.026423554867506027e-02 -3.053189814090728760e-02 -2.218829989433288574e-01 2.169973850250244141e-01 -1.843735426664352417e-01 -1.057694032788276672e-01 1.560379862785339355e-01 2.374173514544963837e-02 1.386192068457603455e-02 5.833999440073966980e-02 4.685932397842407227e-02 8.510323613882064819e-02 -1.010656915605068207e-02 3.753297962248325348e-03 3.170998021960258484e-02 8.153540641069412231e-02 1.427569389343261719e-01 -1.057556793093681335e-01 5.393474549055099487e-02 6.035884097218513489e-02 -8.752324618399143219e-03 1.080303713679313660e-01 8.153063058853149414e-02 -5.857704952359199524e-02
1.351096183061599731e-01 2.414115667343139648e-01 9.965738654136657715e-02 3.066479228436946869e-03 2.307596988976001740e-02 -2.017419040203094482e-02 -9.366016834974288940e-02 -1.438966095447540283e-01 -3.395207226276397705e-02 -1.219202429056167603e-01 -6.857657432556152344e-02 2.846533656120300293e-01 1.251270771026611328e-01 7.039761543273925781e-02 -5.805319175124168396e-02 7.943186163902282715e-02 -1.557516157627105713e-01 -1.374057382345199585e-01 1.610349267721176147e-01 -1.112236604094505310e-01 -1.751157827675342560e-02 2.308053523302078247e-02 -9.970591403543949127e-03 2.065807580947875977e-01 2.609273977577686310e-02 -8.436346054077148438e-02 2.540126256644725800e-02 -9.823336452245712280e-02 1.073110774159431458e-01 -3.538580983877182007e-02
-4.693743586540222168e-02 -9.737315773963928223e-02 2.394520789384841919e-01 -1.184424106031656265e-02 1.244878768920898438e-01 1.986219137907028198e-01 4.666320513933897018e-03 -7.699234783649444580e-02 -4.852830246090888977e-02 5.712314322590827942e-02 1.035806536674499512e-01 -1.519995182752609253e-01 6.734907627105712891e-02 -2.704467438161373138e-02 1.279963254928588867e-01 6.907597184181213379e-02 1.300911307334899902e-01 3.222047537565231323e-02 2.501980587840080261e-02 -1.731314510107040405e-02 1.520678102970123291e-01 -9.181398898363113403e-02 -1.057968959212303162e-01 -7.649672776460647583e-02 7.886806875467300415e-02 -5.811557546257972717e-02 -1.068446785211563110e-01 -1.163611784577369690e-01 -9.496691823005676270e-02 -4.326470196247100830e-02
-2.698539495468139648e-01 -1.361572742462158203e-01 -3.052929230034351349e-02 1.996085643768310547e-01 -5.046372860670089722e-02 7.669162005186080933e-02 2.545929141342639923e-02 1.099854409694671631e-01 -1.605412214994430542e-01 -3.731827437877655029e-02 8.515555411577224731e-02 3.865716978907585144e-02 -6.237463653087615967e-02 1.047451421618461609e-01 3.702616319060325623e-02 8.434309065341949463e-02 -6.285087205469608307e-03 4.799332935363054276e-03 1.840975433588027954e-01 7.102282345294952393e-02 1.038044020533561707e-01 -3.732939437031745911e-02 1.101891393773257732e-03 9.237109124660491943e-02 -6.866863369941711426e-02 1.984008587896823883e-02 -5.362601950764656067e-02 2.045959234237670898e-01 -9.561026841402053833e-02 3.921975940465927124e-02
-8.179566264152526855e-02 6.358262896537780762e-01 4.312695190310478210e-02 5.808024853467941284e-02 1.160162873566150665e-02 1.784863770008087158e-01 -5.199820175766944885e-02 -9.214284271001815796e-02 1.387160457670688629e-02 -1.679107844829559326e-01 -3.966525197029113770e-02 1.255444139242172241e-01 1.655006222426891327e-02 -6.617600470781326294e-02 -1.684650927782058716e-01 8.036009967327117920e-03 1.659226231276988983e-02 5.006817728281021118e-02 3.476821258664131165e-02 -3.738582506775856018e-02 1.563023179769515991e-01 -9.399914182722568512e-03 -1.442707050591707230e-02 -8.764187246561050415e-02 2.521193819120526314e-03 8.720506727695465088e-02 5.806422233581542969e-02 1.380846556276082993e-02 2.204577066004276276e-02 -3.052885085344314575e-02
1.897439062595367432e-01 2.574564889073371887e-02 -2.358630895614624023e-01 6.988426297903060913e-02 2.867871150374412537e-02 -9.624902158975601196e-02 -1.336756348609924316e-02 1.683782488107681274e-01 -5.410906672477722168e-02 1.609262675046920776e-01 -1.074319705367088318e-01 4.627843573689460754e-02 -7.597055286169052124e-02 -1.541407257318496704e-01 1.734923273324966431e-01 2.568099796772003174e-01 5.185801535844802856e-02 -8.295251429080963135e-02 -1.046622451394796371e-02 -5.985912680625915527e-02 -2.298032939434051514e-01 2.229164913296699524e-02 2.030381560325622559e-02 5.947894975543022156e-02 5.535128712654113770e-02 8.955089002847671509e-02 4.749681800603866577e-02 4.158309847116470337e-02 -1.332835406064987183e-01 -4.450966604053974152e-03
