2.532672137022018433e-02
1.846959069371223450e-02
-1.588749513030052185e-02
9.603754617273807526e-03
7.137998193502426147e-02
7.678038626909255981e-02
-3.665915131568908691e-02
1.229693088680505753e-02
3.344535082578659058e-02
-1.803869009017944336e-02
4.916730523109436035e-02
4.907894507050514221e-02
1.307439710944890976e-02
-6.131322681903839111e-02
-1.597076654434204102e-02
-4.746837168931961060e-02
4.590554162859916687e-02
2.827251702547073364e-02
-3.064503334462642670e-02
-3.047126717865467072e-02
1.394791156053543091e-02
1.013377122581005096e-02
-1.288150530308485031e-02
2.684658206999301910e-02
1.172817498445510864e-02
2.625912614166736603e-02
5.278956517577171326e-02
3.555915900506079197e-04
3.915640711784362793e-02
-2.641688473522663116e-02
2.881107665598392487e-02
2.294558845460414886e-02
-4.760846868157386780e-02
-5.025646183639764786e-03
-2.853285707533359528e-02
4.579970985651016235e-02
-5.849752575159072876e-03
-2.934688515961170197e-02
-1.702921278774738312e-02
2.604279294610023499e-02
-8.498512208461761475e-03
-4.230388998985290527e-02
2.204611882916651666e-05
5.724802240729331970e-02
4.008645936846733093e-02
-7.079461589455604553e-03
-2.202814258635044098e-02
-2.218712680041790009e-02
2.787588164210319519e-02
-2.557832340244203806e-04
-2.753217890858650208e-02
2.226909622550010681e-02
1.335893664509057999e-02
3.005971945822238922e-02
3.200724348425865173e-02
2.381019107997417450e-02
1.727329194545745850e-02
-3.392297029495239258e-02
-3.428713604807853699e-02
4.385221377015113831e-02
2.435428462922573090e-02
6.529273930937051773e-03
6.901423633098602295e-02
2.855552546679973602e-02
4.184697940945625305e-02
1.926925219595432281e-02
-7.945492863655090332e-03
3.550132364034652710e-02
-4.524373635649681091e-02
-4.430002719163894653e-02
1.443030592054128647e-02
-6.313127931207418442e-03
-1.706457696855068207e-02
-1.513858418911695480e-02
7.076629251241683960e-02
4.764450341463088989e-02
-2.027509734034538269e-02
2.565892413258552551e-02
2.251774072647094727e-02
7.194499671459197998e-02
5.445834621787071228e-02
6.129851937294006348e-02
-4.020217061042785645e-02
4.739422723650932312e-02
-5.038384720683097839e-02
5.106748640537261963e-02
3.668231889605522156e-02
2.577484818175435066e-03
2.129134163260459900e-02
-6.372937001287937164e-03
-6.262353155761957169e-03
-2.537505142390727997e-02
4.667642712593078613e-02
3.861888125538825989e-02
-1.773199439048767090e-02
1.780222170054912567e-02
-3.320784075185656548e-03
4.112371243536472321e-03
2.422476559877395630e-02
-4.337105154991149902e-02
1.998210139572620392e-02
4.110591858625411987e-02
-1.641508005559444427e-02
-4.852522164583206177e-02
4.038655757904052734e-02
-2.670372603461146355e-03
-6.227963417768478394e-02
-5.011189263314008713e-03
-3.223040373995900154e-03
1.254231552593410015e-03
-2.700834907591342926e-02
6.516737490892410278e-02
1.394526567310094833e-02
4.637195542454719543e-02
-2.303440496325492859e-02
3.057496063411235809e-02
6.188364699482917786e-02
6.367260962724685669e-02
3.582616895437240601e-02
1.611018553376197815e-02
3.171280026435852051e-02
3.319206833839416504e-02
-4.181016702204942703e-03
2.712530270218849182e-02
7.401263713836669922e-02
-1.528617274016141891e-02
6.905001401901245117e-02
-2.480696886777877808e-02
-2.871160954236984253e-02
-3.221782669425010681e-02
-1.860489696264266968e-02
9.629102796316146851e-02
4.034070670604705811e-02
-1.950687915086746216e-02
-5.435997620224952698e-02
-7.039344310760498047e-02
-2.089200355112552643e-02
7.157383114099502563e-02
5.006520822644233704e-02
-9.720527566969394684e-03
-5.550676956772804260e-02
-5.350422859191894531e-02
2.543991245329380035e-02
2.424567937850952148e-02
-5.415593460202217102e-02
-5.835321918129920959e-02
6.485126446932554245e-03
-1.562949270009994507e-02
-4.001463763415813446e-03
1.152063626796007156e-02
-5.867277458310127258e-02
4.294456914067268372e-02
9.589874185621738434e-03
-8.828138001263141632e-03
-4.114901274442672729e-02
7.142054289579391479e-02
-8.403975516557693481e-03
9.705193340778350830e-03
7.448934018611907959e-03
-6.130976602435112000e-03
3.549624525476247072e-04
-7.074502110481262207e-02
-4.446281527634710073e-04
3.208569809794425964e-02
-8.427105844020843506e-03
-2.729034796357154846e-02
3.041923046112060547e-02
3.957610949873924255e-02
-2.112488821148872375e-02
2.498785965144634247e-02
-3.509466350078582764e-02
-4.122498258948326111e-02
-1.700217649340629578e-02
1.972864149138331413e-03
1.419869158416986465e-02
-3.179333359003067017e-02
3.417257219552993774e-02
8.501489646732807159e-03
3.642465174198150635e-02
4.129773005843162537e-02
-2.401955612003803253e-02
-2.411358617246150970e-02
3.068118728697299957e-02
2.974435873329639435e-02
-2.792144007980823517e-02
-1.419904729118570685e-04
2.695373445749282837e-02
3.543366864323616028e-02
-3.599837049841880798e-02
-9.263793937861919403e-03
1.738617429509758949e-03
1.121327877626754344e-04
-1.598834246397018433e-02
-2.517320029437541962e-02
3.844194486737251282e-02
-3.131349384784698486e-02
-2.664312720298767090e-02
3.613909333944320679e-02
3.674373030662536621e-02
6.687935441732406616e-02
-2.359762089326977730e-03
-4.861631616950035095e-02
-3.690850688144564629e-03
-4.687811806797981262e-02
-1.778615266084671021e-02
3.763321414589881897e-02
-3.077935054898262024e-02
-1.251506339758634567e-02
1.052234787493944168e-02
3.070366382598876953e-02
-3.413705155253410339e-02
6.526798009872436523e-02
7.011646777391433716e-02
4.131661728024482727e-02
-1.954817213118076324e-03
4.439172626007348299e-04
6.828351877629756927e-03
1.482871454209089279e-02
2.226221002638339996e-02
1.663384959101676941e-02
-5.206029862165451050e-03
-1.783258840441703796e-02
6.098506506532430649e-03
1.781141571700572968e-02
3.876682370901107788e-02
2.775749890133738518e-04
1.091151218861341476e-02
-7.306247018277645111e-03
3.198116645216941833e-02
-3.763693198561668396e-02
-3.945672512054443359e-02
-1.540497224777936935e-02
5.750107765197753906e-02
-4.496515262871980667e-03
1.531003136187791824e-02
3.481701761484146118e-02
-5.124590918421745300e-02
1.280839834362268448e-02
-2.915361337363719940e-02
-1.575749740004539490e-02
5.379195883870124817e-02
4.122209921479225159e-02
2.706759842112660408e-03
-3.103238530457019806e-03
1.713248668238520622e-03
-1.496673468500375748e-02
2.512476220726966858e-02
-1.659467071294784546e-02
6.160286068916320801e-02
1.690672524273395538e-02
-1.312732230871915817e-02
6.352484971284866333e-02
-6.478649564087390900e-03
1.549226418137550354e-02
5.632445961236953735e-02
8.448195643723011017e-03
