5.868180841207504272e-02
-1.305976300500333309e-03
3.550628572702407837e-02
1.245584785938262939e-01
1.042083948850631714e-01
6.735166907310485840e-02
-8.420563302934169769e-03
1.331599894911050797e-02
-1.209114640951156616e-01
9.120537433773279190e-04
2.494163811206817627e-02
-1.271318197250366211e-01
-1.230419501662254333e-01
-7.131060119718313217e-03
5.068701133131980896e-02
-9.447962045669555664e-03
1.132379192858934402e-02
-4.946697503328323364e-02
-5.473488569259643555e-02
-2.026360481977462769e-02
-7.561403512954711914e-02
8.386126905679702759e-02
8.735308796167373657e-02
-1.014046594500541687e-01
1.765262149274349213e-02
4.525374993681907654e-02
-1.020437926054000854e-01
-1.142988540232181549e-02
-1.926066353917121887e-02
-8.111004531383514404e-02
5.808397382497787476e-02
6.678055971860885620e-02
6.400507688522338867e-02
-3.740811720490455627e-02
-1.020588725805282593e-02
-3.472032397985458374e-02
-4.843429662287235260e-03
1.212804540991783142e-01
8.384484797716140747e-02
-6.906449794769287109e-02
8.316457387991249561e-04
-1.061943918466567993e-01
-1.074498891830444336e-02
-3.132184967398643494e-02
-5.205963551998138428e-02
1.687549650669097900e-01
5.990649759769439697e-02
2.563698776066303253e-02
-1.236921623349189758e-01
4.429294541478157043e-02
-4.772445186972618103e-02
-2.997015230357646942e-02
-2.409929409623146057e-02
-8.550687879323959351e-02
-6.798510253429412842e-02
2.187629342079162598e-01
1.170698832720518112e-02
1.720498874783515930e-02
-3.401463106274604797e-02
5.200047511607408524e-03
-3.565919026732444763e-02
-1.779006421566009521e-02
-1.809364929795265198e-02
4.157080315053462982e-03
1.293235570192337036e-01
1.337583828717470169e-02
-3.323845565319061279e-02
4.784498736262321472e-02
-5.818716809153556824e-02
-1.063122693449258804e-02
-1.554811000823974609e-01
6.512098759412765503e-02
9.016554057598114014e-02
4.378123953938484192e-02
-2.816881798207759857e-02
-3.748407214879989624e-02
9.989950805902481079e-02
-1.226650848984718323e-01
1.203576195985078812e-02
-2.029681392014026642e-02
7.375172525644302368e-02
-3.067808039486408234e-02
1.101282984018325806e-02
3.808341920375823975e-02
6.552883237600326538e-02
1.917112618684768677e-02
1.943229138851165771e-02
-2.221478521823883057e-02
-1.072047185152769089e-02
7.558192312717437744e-02
1.496537476778030396e-01
-1.008766815066337585e-01
-1.239922363311052322e-02
-3.169469162821769714e-02
-6.458489596843719482e-02
-7.966019213199615479e-02
2.628427930176258087e-02
-7.082075625658035278e-02
7.707943022251129150e-02
2.524851448833942413e-02
-4.784789681434631348e-02
-1.187366545200347900e-01
-3.927542641758918762e-02
-5.667150393128395081e-02
-2.076152898371219635e-02
-2.306967787444591522e-02
-7.467106729745864868e-02
-8.823214471340179443e-02
1.658410578966140747e-02
-1.194201260805130005e-01
-3.271059249527752399e-04
5.604730546474456787e-02
5.965872853994369507e-02
-1.129960268735885620e-02
2.009868249297142029e-02
-1.695453003048896790e-02
-5.237887799739837646e-02
-1.145424768328666687e-01
5.781594663858413696e-02
-7.837272435426712036e-02
-4.064476490020751953e-02
-5.731650441884994507e-02
-1.270251125097274780e-01
-4.040320590138435364e-02
-8.692703209817409515e-03
3.825600817799568176e-02
-5.661952123045921326e-02
-5.503420159220695496e-02
-1.370892859995365143e-02
-1.707684695720672607e-01
3.354014456272125244e-02
-6.722018122673034668e-02
4.327100887894630432e-02
-3.391737584024667740e-03
-1.331643480807542801e-02
-7.852063328027725220e-02
4.525882005691528320e-02
-1.437609642744064331e-02
2.709114365279674530e-02
-3.580533340573310852e-02
4.630896449089050293e-02
4.732576012611389160e-02
4.282060835976153612e-04
-1.019668504595756531e-01
-3.111930005252361298e-02
-1.224026083946228027e-02
-2.808308973908424377e-02
5.063211079686880112e-03
-4.805517196655273438e-02
6.321973353624343872e-02
-8.276057988405227661e-02
-5.761697143316268921e-02
-1.328189391642808914e-02
4.569951072335243225e-02
2.360620535910129547e-02
-7.591094076633453369e-02
5.026198178529739380e-02
-9.200835973024368286e-02
-4.260683804750442505e-02
-6.910111010074615479e-02
-1.668971404433250427e-02
-8.188572525978088379e-02
3.524683415889739990e-02
2.646846175193786621e-01
-5.931584164500236511e-02
2.052961289882659912e-02
-1.926455460488796234e-02
4.579029604792594910e-02
9.158073924481868744e-03
-5.002767965197563171e-02
-5.028212815523147583e-02
6.566863157786428928e-04
-5.878726765513420105e-02
-1.256455015391111374e-02
-4.528108611702919006e-02
-1.885453425347805023e-02
-8.792260289192199707e-02
-1.387341599911451340e-02
-8.765137195587158203e-02
2.368232235312461853e-02
-7.985339500010013580e-03
-9.742460399866104126e-02
7.129422854632139206e-03
-5.824739858508110046e-02
-1.133020520210266113e-01
9.246943518519401550e-03
3.720322623848915100e-02
-1.007771715521812439e-01
2.542086504399776459e-02
-5.215139687061309814e-02
-3.756428137421607971e-03
-3.123338334262371063e-02
-8.589524775743484497e-02
2.897042036056518555e-02
-2.613146789371967316e-02
-3.953443467617034912e-02
-9.129957854747772217e-02
1.835228316485881805e-02
1.761108487844467163e-01
-9.324542246758937836e-03
-6.299470365047454834e-02
-3.444454446434974670e-02
5.082631018012762070e-03
-7.899622432887554169e-03
6.955657154321670532e-02
-1.721759792417287827e-03
-5.348112806677818298e-02
-1.423633377999067307e-02
-2.368899621069431305e-02
1.445121038705110550e-02
1.722550950944423676e-02
-5.808183923363685608e-02
-3.920230083167552948e-03
2.585868723690509796e-02
-3.084302693605422974e-02
-9.551443159580230713e-02
-6.969980150461196899e-02
-6.689371913671493530e-02
5.747045204043388367e-02
1.495461761951446533e-01
-2.403875812888145447e-02
1.116323284804821014e-02
-1.115472093224525452e-01
-5.577063933014869690e-02
-2.250461652874946594e-02
5.739656090736389160e-02
3.709637373685836792e-02
-2.482460439205169678e-02
-1.170878782868385315e-01
6.087959930300712585e-02
-8.760530501604080200e-02
-2.552699996158480644e-03
-2.211082167923450470e-02
7.325444836169481277e-03
-1.956495270133018494e-02
-2.738243155181407928e-02
-6.801008433103561401e-02
-1.050621923059225082e-02
4.637566953897476196e-02
1.353836357593536377e-01
-1.578639843501150608e-03
7.511945813894271851e-02
-3.022525459527969360e-02
-4.184762388467788696e-02
-5.672250315546989441e-02
-1.023511439561843872e-01
-1.025661267340183258e-02
3.388680145144462585e-02
8.292060345411300659e-02
1.076748743653297424e-01
3.953668475151062012e-02
6.564036011695861816e-02
-8.565986901521682739e-02
-2.638553734868764877e-03
4.477412253618240356e-02
2.823935262858867645e-02
