4.314532876014709473e-01
-3.293845653533935547e-01
-5.216847658157348633e-01
-4.047616124153137207e-01
-5.900388360023498535e-01
8.534485846757888794e-02
-4.256635010242462158e-01
3.459573090076446533e-01
3.172105848789215088e-01
3.164319097995758057e-01
3.897655010223388672e-01
-7.009003758430480957e-01
2.977414131164550781e-01
3.829789757728576660e-01
1.189950853586196899e-02
1.423858404159545898e-01
4.068590700626373291e-01
6.458052992820739746e-01
-7.827842235565185547e-02
-4.129019752144813538e-02
5.416852831840515137e-01
3.560654222965240479e-01
-7.008792161941528320e-01
-4.417978525161743164e-01
4.923075735569000244e-01
5.713713169097900391e-01
3.180083930492401123e-01
3.493798375129699707e-01
7.613267898559570312e-01
2.407877296209335327e-01
3.711680769920349121e-01
1.364637613296508789e-01
2.404918372631072998e-01
1.948298066854476929e-01
-6.579312086105346680e-01
-2.833466231822967529e-01
4.683168232440948486e-01
4.084362983703613281e-01
5.395348668098449707e-01
7.499275803565979004e-01
-3.221757113933563232e-01
-2.743280725553631783e-03
6.192556619644165039e-01
2.564133703708648682e-01
2.151530534029006958e-01
-5.198755264282226562e-01
4.750285744667053223e-01
3.530355095863342285e-01
2.414090000092983246e-02
7.152861952781677246e-01
-7.972077727317810059e-01
7.045390009880065918e-01
-5.564158558845520020e-01
3.347870111465454102e-01
4.264290928840637207e-01
8.848431520164012909e-03
1.945271492004394531e-01
1.523198634386062622e-01
3.455123603343963623e-01
1.933325827121734619e-01
2.085199058055877686e-01
4.438464641571044922e-01
-6.894688606262207031e-01
6.351153850555419922e-01
2.896420657634735107e-01
-4.820584356784820557e-01
1.122972369194030762e-01
3.347635567188262939e-01
-5.082492232322692871e-01
3.211044967174530029e-01
4.279947578907012939e-01
3.589712083339691162e-01
4.049644768238067627e-01
7.156136631965637207e-01
1.449329406023025513e-01
5.354111194610595703e-01
4.707934558391571045e-01
-4.512126445770263672e-01
1.492031067609786987e-01
2.185975313186645508e-01
7.062470912933349609e-01
4.678279757499694824e-01
-4.214476346969604492e-01
-5.156223177909851074e-01
-3.091953992843627930e-01
2.941792905330657959e-01
3.653257787227630615e-01
1.264646053314208984e-01
3.048498034477233887e-01
-6.317000091075897217e-02
-6.629140973091125488e-01
-5.268934648483991623e-03
2.016633450984954834e-01
2.559772431850433350e-01
7.558104395866394043e-01
4.158747494220733643e-01
2.863997817039489746e-01
1.992251873016357422e-01
4.875528812408447266e-01
-7.599874734878540039e-01
6.535930037498474121e-01
4.976201951503753662e-01
5.972503423690795898e-01
5.066200494766235352e-01
3.277913928031921387e-01
-2.777052819728851318e-01
7.721104025840759277e-01
9.592714160680770874e-02
1.235606223344802856e-01
6.506958007812500000e-01
3.814291656017303467e-01
3.086479008197784424e-01
2.406045049428939819e-01
-3.909417986869812012e-01
6.168729662895202637e-01
-3.513709604740142822e-01
4.136739373207092285e-01
4.963614642620086670e-01
-3.132411241531372070e-01
2.144868820905685425e-01
-1.663373969495296478e-02
-4.820351004600524902e-01
4.188244044780731201e-01
-6.168924570083618164e-01
5.767636932432651520e-03
3.937196135520935059e-01
5.020344853401184082e-01
-5.522542595863342285e-01
3.775433897972106934e-01
3.019679188728332520e-01
4.201327562332153320e-01
-6.293138265609741211e-01
3.773301839828491211e-01
-7.573133111000061035e-01
4.766867756843566895e-01
6.721794605255126953e-01
-5.719705820083618164e-01
4.495271146297454834e-01
2.586801052093505859e-01
5.157390236854553223e-01
2.054748535156250000e-01
-6.706996560096740723e-01
-4.758071303367614746e-01
-4.810534119606018066e-01
5.557000041007995605e-01
7.003302574157714844e-01
6.283705830574035645e-01
5.100050568580627441e-01
3.014433681964874268e-01
1.426591128110885620e-01
5.015397667884826660e-01
4.505517482757568359e-01
-2.247784733772277832e-01
5.184847116470336914e-01
3.425458073616027832e-01
7.900254130363464355e-01
5.604110360145568848e-01
3.684851229190826416e-01
4.377470910549163818e-01
9.164292365312576294e-02
-2.572471201419830322e-01
-5.646590590476989746e-01
1.416664421558380127e-01
3.637856245040893555e-01
6.913557052612304688e-01
2.685776352882385254e-01
4.893151819705963135e-01
1.892430186271667480e-01
3.863241672515869141e-01
2.157670706510543823e-01
4.028435945510864258e-01
6.592140793800354004e-01
-4.253748357295989990e-01
4.061717391014099121e-01
3.138919472694396973e-01
4.382374584674835205e-01
5.958132743835449219e-01
-6.513255238533020020e-01
7.105913013219833374e-02
4.344621896743774414e-01
3.527862727642059326e-01
5.208761096000671387e-01
2.700522243976593018e-01
3.423704206943511963e-01
4.850385487079620361e-01
3.521744608879089355e-01
4.405837357044219971e-01
4.284945726394653320e-01
1.971049308776855469e-01
5.817062854766845703e-01
4.291936457157135010e-01
6.161250472068786621e-01
3.268902003765106201e-01
4.571233689785003662e-01
5.565546751022338867e-01
-5.887015722692012787e-03
5.458916425704956055e-01
4.644402265548706055e-01
4.068206548690795898e-01
6.148296594619750977e-01
-2.156513184309005737e-01
-6.197515130043029785e-01
-4.373694956302642822e-01
2.480014413595199585e-01
4.107238054275512695e-01
3.967254757881164551e-01
4.360937178134918213e-01
3.072670400142669678e-01
3.310557603836059570e-01
5.067142471671104431e-02
-7.852290570735931396e-02
-5.560202002525329590e-01
4.429568350315093994e-01
-2.259285300970077515e-01
6.779977679252624512e-01
-6.238771677017211914e-01
1.350208818912506104e-01
3.878008127212524414e-01
3.348121345043182373e-01
4.332775175571441650e-01
7.476044297218322754e-01
-5.618590712547302246e-01
4.350720942020416260e-01
3.815000057220458984e-01
5.355588793754577637e-01
2.901118099689483643e-01
4.651253521442413330e-01
1.006679683923721313e-01
7.039016485214233398e-01
3.616034090518951416e-01
3.648223876953125000e-01
6.201941967010498047e-01
6.408780813217163086e-01
-4.682472348213195801e-02
2.945050895214080811e-01
4.273480474948883057e-01
4.619544446468353271e-01
2.424318045377731323e-01
5.330773591995239258e-01
2.145811170339584351e-01
6.109335422515869141e-01
1.895472705364227295e-01
7.127668857574462891e-01
6.454774141311645508e-01
3.145765960216522217e-01
3.809489011764526367e-01
-5.040962100028991699e-01
-3.423539698123931885e-01
1.987607926130294800e-01
4.750187397003173828e-01
5.172410011291503906e-01
-7.664303183555603027e-01
2.621995210647583008e-01
5.165833234786987305e-01
4.595153629779815674e-01
4.569362699985504150e-01
