5.389951169490814209e-03
-1.306688878685235977e-02
7.983894646167755127e-02
-3.748109191656112671e-02
-5.233509466052055359e-02
2.247793972492218018e-02
2.753911912441253662e-02
-3.843166679143905640e-02
-1.195493116974830627e-01
5.000597983598709106e-02
-8.376258425414562225e-03
1.859920285642147064e-02
-1.095058582723140717e-02
-1.805099775083363056e-03
2.080468833446502686e-02
3.452230989933013916e-02
4.679426178336143494e-02
-1.301210466772317886e-02
-2.179993316531181335e-02
-4.224496707320213318e-02
-7.759585976600646973e-02
-3.578670322895050049e-02
3.876671940088272095e-02
-3.823489323258399963e-02
-1.929250359535217285e-02
8.895075321197509766e-02
3.452617675065994263e-02
4.478335753083229065e-02
1.350877732038497925e-01
-1.103719249367713928e-01
6.612971425056457520e-02
7.243016362190246582e-02
1.743173599243164062e-02
3.685496514663100243e-03
3.453351929783821106e-02
7.859617471694946289e-02
1.186553295701742172e-02
2.578065358102321625e-02
-4.567664861679077148e-02
5.685822293162345886e-02
-1.497622132301330566e-01
-6.276533007621765137e-02
-5.905885249376296997e-02
4.017935693264007568e-02
-1.363031417131423950e-01
-5.199794843792915344e-02
-1.264181137084960938e-01
-8.898268640041351318e-02
-4.322121664881706238e-02
5.433018878102302551e-02
-2.058388665318489075e-02
-4.064913094043731689e-02
5.269074812531471252e-02
6.157358735799789429e-02
2.592273056507110596e-02
9.596758522093296051e-03
1.036855876445770264e-01
2.268566004931926727e-02
5.952306091785430908e-02
-4.399729892611503601e-02
4.291635006666183472e-02
2.198454551398754120e-02
7.148370146751403809e-02
-2.334501221776008606e-02
5.914096161723136902e-02
1.405452098697423935e-02
-4.241912811994552612e-02
3.867763094604015350e-03
4.752806946635246277e-02
-3.718785569071769714e-02
-2.282311208546161652e-02
-1.670930534601211548e-02
1.355709582567214966e-01
5.680194124579429626e-02
-1.969145145267248154e-03
-2.355988509953022003e-02
4.400594159960746765e-03
-6.384553387761116028e-03
3.551756497472524643e-03
2.449378557503223419e-02
-1.141152693890035152e-03
2.398158103460446000e-04
1.425715629011392593e-02
4.300802201032638550e-02
7.360301911830902100e-02
6.122528109699487686e-03
-2.992478664964437485e-03
-7.004723697900772095e-02
-9.318036586046218872e-02
-4.171997308731079102e-02
-1.354314386844635010e-01
-4.127711988985538483e-03
-1.287496089935302734e-02
-1.345718055963516235e-01
2.987459115684032440e-02
2.842812240123748779e-02
-1.672615297138690948e-02
-9.713501483201980591e-02
-3.408970311284065247e-03
3.862659260630607605e-02
-8.053036034107208252e-02
-6.351112574338912964e-02
4.613964259624481201e-02
-8.025139570236206055e-03
-1.015853956341743469e-01
-5.264578014612197876e-02
-9.127512574195861816e-03
-1.776438578963279724e-02
-3.869761526584625244e-02
-1.009368374943733215e-01
-6.220553442835807800e-02
-1.874244213104248047e-02
-4.418244585394859314e-02
1.017552837729454041e-01
-8.512458205223083496e-02
-1.989336870610713959e-02
-8.544825017452239990e-02
-4.136670753359794617e-02
-1.953674107789993286e-02
-2.094102650880813599e-02
-1.121721193194389343e-01
-2.926466241478919983e-02
3.014182113111019135e-02
-8.406347781419754028e-02
-2.360269054770469666e-02
3.146888688206672668e-02
-3.977752476930618286e-02
-7.292722165584564209e-02
-3.864546120166778564e-02
-2.971657179296016693e-02
-4.344042390584945679e-02
6.079835072159767151e-02
-1.637935265898704529e-02
-2.445354126393795013e-02
1.979350671172142029e-02
-1.145014464855194092e-01
2.061960054561495781e-03
-1.283215880393981934e-01
4.984606429934501648e-02
1.300611253827810287e-02
-1.101834401488304138e-01
-1.817386038601398468e-02
1.166575476527214050e-01
-6.253249198198318481e-02
-5.761675909161567688e-02
-6.581062451004981995e-03
-7.471248507499694824e-03
-9.899461269378662109e-02
-1.804944314062595367e-02
-5.694574117660522461e-02
1.574350297451019287e-01
1.184653211385011673e-02
-6.482390686869621277e-03
1.315104123204946518e-02
-8.958759158849716187e-02
-4.688113927841186523e-02
-7.317980378866195679e-02
1.434792298823595047e-02
-7.836185395717620850e-02
-3.042425215244293213e-02
-1.343327667564153671e-02
-8.336900919675827026e-02
-1.475890129804611206e-01
5.253239069133996964e-03
6.623494904488325119e-03
-9.259371459484100342e-02
-2.307398989796638489e-02
-3.143888711929321289e-02
-8.029311150312423706e-02
7.340124342590570450e-03
6.103595718741416931e-02
-5.591018870472908020e-02
1.357199996709823608e-01
1.517876167781651020e-03
-7.715269178152084351e-02
-3.298122063279151917e-02
-1.139408126473426819e-01
1.866804622113704681e-02
2.848911471664905548e-02
1.717004738748073578e-02
-2.696881536394357681e-03
-7.922980934381484985e-03
8.744674175977706909e-02
-1.025587394833564758e-01
-2.880972996354103088e-02
-1.132151186466217041e-01
-9.639919735491275787e-03
8.787481486797332764e-02
-3.725731372833251953e-02
-7.104786485433578491e-02
-2.489915816113352776e-03
3.179214149713516235e-02
3.336059302091598511e-02
-7.199051231145858765e-02
-2.185758389532566071e-02
-8.787917345762252808e-02
-1.580243371427059174e-02
3.248270973563194275e-02
6.721781194210052490e-02
1.374042499810457230e-02
4.449804127216339111e-02
1.188264787197113037e-01
-8.891872316598892212e-02
2.260490506887435913e-02
8.990919589996337891e-02
-4.259429872035980225e-02
-1.119886990636587143e-02
4.244792275130748749e-03
-9.542462229728698730e-02
-7.651665806770324707e-02
2.576772868633270264e-02
-8.775243163108825684e-02
-1.308145560324192047e-02
5.604788661003112793e-02
-1.472408026456832886e-01
-7.186805456876754761e-02
-6.111804395914077759e-03
-7.043957710266113281e-02
-3.008794970810413361e-02
-5.420875549316406250e-02
1.277591753751039505e-02
-3.246799344196915627e-03
-4.031877592206001282e-02
-3.930840641260147095e-02
7.116013020277023315e-02
-2.657694555819034576e-02
1.293169260025024414e-01
-1.000617630779743195e-02
-3.254642710089683533e-02
-3.932448476552963257e-02
-1.061107870191335678e-02
-3.601634129881858826e-02
-2.561210654675960541e-02
-2.390281669795513153e-02
1.353662833571434021e-02
9.394754469394683838e-02
-4.145352914929389954e-02
-4.700255021452903748e-02
-3.208445757627487183e-02
1.616931334137916565e-02
1.100411042571067810e-01
-1.458949130028486252e-02
-1.032172739505767822e-01
-9.809845127165317535e-03
-1.254322822205722332e-03
4.739054664969444275e-02
4.786601290106773376e-02
-1.020305417478084564e-02
7.835520803928375244e-02
-1.832992210984230042e-02
1.674979738891124725e-02
-5.789210274815559387e-02
1.540094893425703049e-02
5.691393464803695679e-02
-1.068827323615550995e-02
-3.892572829499840736e-03
