1.136059463024139404e-01
-9.053292870521545410e-02
-5.236448347568511963e-02
3.791787922382354736e-01
-4.731664434075355530e-02
-1.493952870368957520e-01
-1.312400251626968384e-01
2.233764082193374634e-01
-1.377405971288681030e-01
1.087619811296463013e-01
-2.898228168487548828e-01
-1.578440964221954346e-01
3.032756745815277100e-01
-2.733217775821685791e-01
-2.174915671348571777e-01
8.815932273864746094e-02
5.328172072768211365e-02
1.679759174585342407e-01
1.811059862375259399e-01
1.847450137138366699e-01
-7.785475999116897583e-02
-1.773033142089843750e-01
3.304160237312316895e-01
4.007050767540931702e-02
1.117029264569282532e-01
-1.470573246479034424e-02
2.702248096466064453e-02
-2.824371680617332458e-02
-1.116217449307441711e-01
-7.338976860046386719e-02
7.148779183626174927e-02
2.122387588024139404e-01
1.533125787973403931e-01
-1.263845153152942657e-02
3.860165774822235107e-01
-4.790804907679557800e-02
-2.540388703346252441e-01
-1.775723546743392944e-01
4.735274314880371094e-01
-3.538571298122406006e-02
1.956294029951095581e-01
-6.512956321239471436e-02
-3.678847253322601318e-01
-1.127806827425956726e-01
-3.731766939163208008e-01
6.872243713587522507e-03
-7.416681200265884399e-02
3.243433833122253418e-01
6.031360849738121033e-02
-9.564385563135147095e-02
2.652258798480033875e-02
-1.297512650489807129e-01
8.325143158435821533e-02
3.590534329414367676e-01
9.347780607640743256e-03
-3.130855038762092590e-02
-4.980905354022979736e-02
1.540554314851760864e-01
7.808077335357666016e-02
2.465639263391494751e-01
3.141026943922042847e-02
3.473386764526367188e-01
2.557758688926696777e-01
7.157493382692337036e-02
-9.089587628841400146e-02
2.356738150119781494e-01
-5.202147364616394043e-02
1.719088256359100342e-01
4.346020221710205078e-01
1.707119941711425781e-01
5.278518889099359512e-03
-1.205311045050621033e-01
-6.682334840297698975e-02
-9.638600051403045654e-02
-3.423043489456176758e-01
-1.792493462562561035e-01
2.875585258007049561e-01
-3.003052808344364166e-02
4.944183230400085449e-01
-2.256402075290679932e-01
-9.645641595125198364e-02
1.282566338777542114e-01
-2.230344265699386597e-01
7.010594755411148071e-02
-2.220048159360885620e-01
-1.048689931631088257e-01
3.950301110744476318e-01
-3.990803658962249756e-01
3.401833772659301758e-01
-3.033221065998077393e-01
1.075268685817718506e-01
-7.974902540445327759e-02
-3.849857449531555176e-01
3.233477771282196045e-01
3.453593701124191284e-02
-2.346319109201431274e-01
4.087569415569305420e-01
-4.902454838156700134e-02
4.500404745340347290e-02
6.990454345941543579e-02
-1.470474600791931152e-01
2.088881283998489380e-01
2.843681164085865021e-02
-2.890736162662506104e-01
1.646998375654220581e-01
-1.814550310373306274e-01
-4.314896762371063232e-01
-1.636840105056762695e-01
3.477216362953186035e-01
2.706012725830078125e-01
-3.147767782211303711e-01
-1.109116896986961365e-01
-1.214521657675504684e-02
3.032847344875335693e-01
1.721614412963390350e-02
1.451270431280136108e-01
-9.841367602348327637e-02
-1.112693846225738525e-01
1.293820440769195557e-01
1.970131993293762207e-01
-6.855873763561248779e-02
2.486357241868972778e-01
3.494382500648498535e-01
5.860645323991775513e-03
-2.909814417362213135e-01
2.846751511096954346e-01
1.938714412972331047e-04
-2.449086159467697144e-01
-1.917226463556289673e-01
-2.806890010833740234e-01
2.839846014976501465e-01
-6.497919559478759766e-02
-8.072430640459060669e-02
-3.347218632698059082e-01
5.382200703024864197e-02
2.106319963932037354e-01
1.201880164444446564e-02
3.151765167713165283e-01
3.021556735038757324e-01
-1.074237823486328125e-01
1.383302956819534302e-01
4.016064852476119995e-02
1.426049470901489258e-01
-7.390163093805313110e-02
2.303354889154434204e-01
3.932047486305236816e-01
2.346530109643936157e-01
-3.591867089271545410e-01
-9.017511457204818726e-02
-2.901259660720825195e-01
-3.868294134736061096e-02
4.042039513587951660e-01
2.153962105512619019e-01
-5.362132564187049866e-02
4.521906748414039612e-02
-9.752199798822402954e-02
2.418865263462066650e-01
1.108234822750091553e-01
1.114137121476233006e-03
-5.219994112849235535e-02
-4.523129761219024658e-02
1.005648523569107056e-01
2.671959400177001953e-01
-1.525880992412567139e-01
1.136344019323587418e-02
3.838188350200653076e-01
-1.612014137208461761e-02
-1.859920173883438110e-01
3.108665347099304199e-01
-3.494683504104614258e-01
-3.532778620719909668e-01
1.238629966974258423e-01
2.405179888010025024e-01
-1.606541872024536133e-01
2.186271995306015015e-01
-1.862748861312866211e-01
1.753643453121185303e-01
-2.281544357538223267e-01
-3.844203948974609375e-01
-3.664938509464263916e-01
-2.042431682348251343e-01
1.865584552288055420e-01
1.682585664093494415e-02
2.133782766759395599e-02
2.748955786228179932e-01
-2.512877285480499268e-01
-1.818205714225769043e-01
-1.525068432092666626e-01
1.454764306545257568e-01
-3.197262883186340332e-01
-3.199854791164398193e-01
-1.837759315967559814e-01
1.930108517408370972e-01
2.348025739192962646e-01
-7.759698480367660522e-02
3.669945299625396729e-01
3.374207615852355957e-01
2.830075919628143311e-01
2.032771892845630646e-02
3.873467445373535156e-01
3.338745832443237305e-01
-3.074774984270334244e-03
-2.661732435226440430e-01
-4.385566711425781250e-02
2.455669045448303223e-01
1.507245749235153198e-01
1.422059237957000732e-01
-3.103120923042297363e-01
2.140573114156723022e-01
-2.761888206005096436e-01
-5.382414907217025757e-02
-2.317156046628952026e-01
-1.997590363025665283e-01
-2.826312482357025146e-01
3.237308934330940247e-02
1.991111934185028076e-01
1.658321768045425415e-01
1.034789755940437317e-01
3.123979084193706512e-02
3.229678571224212646e-01
2.945908904075622559e-02
-1.369300037622451782e-01
-6.922189146280288696e-02
1.453788205981254578e-02
-1.757521480321884155e-01
4.297870770096778870e-02
-2.163252681493759155e-01
-1.255595982074737549e-01
1.815296560525894165e-01
3.082681000232696533e-01
2.161989063024520874e-01
2.572947740554809570e-01
-5.278482288122177124e-02
-7.998352497816085815e-02
-1.828531026840209961e-01
2.203142195940017700e-01
2.194500416517257690e-01
-1.397146880626678467e-01
-3.449135124683380127e-01
6.687923520803451538e-02
3.290958106517791748e-01
3.735204041004180908e-01
2.051049321889877319e-01
1.918776519596576691e-02
-2.831264436244964600e-01
1.416783127933740616e-02
-7.998149096965789795e-02
2.470610141754150391e-01
2.026709914207458496e-01
-2.322283983230590820e-01
-4.428231343626976013e-02
3.759633898735046387e-01
2.248543053865432739e-01
-1.471320092678070068e-01
4.031780660152435303e-01
-1.813142895698547363e-01
