4.994603618979454041e-02
2.061312273144721985e-02
3.459382802248001099e-02
6.368348374962806702e-03
7.472020108252763748e-03
5.206472240388393402e-03
2.504011150449514389e-03
-1.951467618346214294e-02
-2.477484056726098061e-03
8.887346833944320679e-03
5.354703590273857117e-02
3.595112636685371399e-02
-1.440992951393127441e-02
-3.190278261899948120e-02
-2.136043040081858635e-03
-2.281942777335643768e-02
-3.622492775321006775e-02
-2.633189037442207336e-02
-9.589288383722305298e-03
-5.839962139725685120e-02
2.873022295534610748e-02
-2.390819601714611053e-02
1.077621802687644958e-02
3.787008300423622131e-02
1.715424004942178726e-03
3.092668019235134125e-02
1.578536070883274078e-02
1.953490637242794037e-02
8.425780571997165680e-03
-7.252875715494155884e-03
3.637699782848358154e-02
4.277380649000406265e-03
-2.776901004835963249e-03
-2.957559749484062195e-02
5.182469263672828674e-02
-4.124390252400189638e-04
5.022315308451652527e-02
-2.214602939784526825e-02
-5.553501844406127930e-02
-6.533705163747072220e-03
9.359788149595260620e-03
-2.611740306019783020e-02
3.270269557833671570e-02
9.223779779858887196e-04
-3.496879711747169495e-02
-4.807471483945846558e-02
5.676380824297666550e-03
4.416052834130823612e-04
-4.754601418972015381e-02
1.384332217276096344e-02
2.705015614628791809e-02
3.972694277763366699e-03
3.684780374169349670e-02
-1.942945271730422974e-02
2.028141543269157410e-02
1.101658400148153305e-02
2.705413103103637695e-02
-2.892541140317916870e-02
5.969418585300445557e-02
-1.470335014164447784e-02
-2.530428580939769745e-03
-2.632867172360420227e-02
-3.694920334964990616e-03
-2.786395698785781860e-02
-2.837097086012363434e-02
1.854180172085762024e-02
2.349919825792312622e-02
-7.489388808608055115e-03
-5.456656217575073242e-02
4.466263949871063232e-02
-7.313712965697050095e-03
2.408011816442012787e-03
4.100794717669487000e-02
-3.025052696466445923e-02
4.061753675341606140e-02
-1.092077349312603474e-03
5.202978104352951050e-02
-2.478897944092750549e-02
-5.587205756455659866e-03
-5.117719992995262146e-03
-1.101066544651985168e-02
1.134088262915611267e-03
-1.590004377067089081e-02
-1.163695380091667175e-02
-4.326352383941411972e-03
3.897401969879865646e-03
2.239493466913700104e-02
-6.841149181127548218e-02
1.842752471566200256e-02
-2.865741029381752014e-02
-2.557346038520336151e-02
2.529886085540056229e-03
-7.196730468422174454e-03
4.232334718108177185e-02
5.319442227482795715e-02
-1.108909584581851959e-02
6.521624163724482059e-05
2.030524984002113342e-02
4.254449531435966492e-02
-5.513846129179000854e-02
1.269520632922649384e-02
-1.514518633484840393e-02
-1.089433580636978149e-02
3.611509874463081360e-02
3.990624973084777594e-04
3.203897795174270868e-04
3.715099021792411804e-02
6.892993114888668060e-04
3.782119601964950562e-02
1.115556154400110245e-02
7.582885446026921272e-04
2.782839909195899963e-02
1.593725197017192841e-02
1.036951690912246704e-02
-2.788532897830009460e-02
-3.116031922399997711e-02
-2.387414500117301941e-02
7.157237268984317780e-03
1.807770878076553345e-02
-2.751848101615905762e-02
4.847825504839420319e-03
7.826957106590270996e-02
-2.240110561251640320e-02
-2.022086828947067261e-02
-1.207976415753364563e-02
-5.840357020497322083e-02
1.435176841914653778e-02
-7.310598623007535934e-03
1.149240788072347641e-02
-1.251605153083801270e-02
9.389853104948997498e-03
4.846295050811022520e-04
-5.341720301657915115e-03
3.737203031778335571e-02
1.280879508703947067e-02
1.009584777057170868e-02
-1.519988477230072021e-02
4.797452315688133240e-02
2.217753231525421143e-02
-2.462859963998198509e-03
4.496544227004051208e-02
-4.979391116648912430e-03
6.547195464372634888e-02
2.819504216313362122e-02
-6.575611978769302368e-02
7.405776064842939377e-03
2.444743411615490913e-03
1.023636478930711746e-02
9.995363652706146240e-03
-6.422137469053268433e-02
-2.248769253492355347e-02
2.940335497260093689e-02
1.458865124732255936e-02
-5.286248773336410522e-02
3.060130774974822998e-02
-1.876153424382209778e-02
-4.142626002430915833e-02
2.240165881812572479e-02
6.260675936937332153e-02
6.588608026504516602e-02
4.386501014232635498e-02
8.371564559638500214e-03
3.133137524127960205e-02
1.316453446634113789e-03
1.332708355039358139e-02
-3.376458212733268738e-02
2.210593223571777344e-02
-4.397974908351898193e-02
-2.815038524568080902e-02
-1.375214010477066040e-02
7.635572925209999084e-03
-2.355608344078063965e-02
8.261147886514663696e-02
-3.030097857117652893e-02
1.568305864930152893e-02
-1.765097142197191715e-03
5.671502090990543365e-03
3.881052508950233459e-02
-1.089222822338342667e-02
-2.900763973593711853e-02
-3.633590787649154663e-02
-4.090997204184532166e-02
3.510843263939023018e-03
-3.579679504036903381e-02
9.490733034908771515e-03
-2.072929590940475464e-02
9.950484149158000946e-03
3.582790866494178772e-02
-2.465210482478141785e-02
2.595758065581321716e-02
9.209087118506431580e-03
-1.616713032126426697e-02
-5.684830830432474613e-04
-3.651095926761627197e-02
-7.226036861538887024e-03
-5.935181304812431335e-02
-3.185894340276718140e-02
-2.730402909219264984e-02
-5.898095201700925827e-03
-4.300475865602493286e-02
-2.772823907434940338e-02
-3.486337512731552124e-02
6.197185441851615906e-02
-2.225061133503913879e-02
1.393518503755331039e-02
-1.598008908331394196e-02
-1.062814053148031235e-02
-8.322198875248432159e-03
6.326268892735242844e-03
-1.244957372546195984e-02
-2.945799939334392548e-02
-8.978871628642082214e-04
1.717888377606868744e-02
1.863291859626770020e-02
1.585861667990684509e-02
-2.423638664186000824e-02
-4.625589028000831604e-02
-2.624802850186824799e-02
9.487241506576538086e-03
5.364205315709114075e-02
-1.173464022576808929e-02
3.033710271120071411e-02
-1.127937249839305878e-02
2.310042455792427063e-02
-1.017597317695617676e-02
1.125274226069450378e-03
-2.136417105793952942e-02
-4.105585627257823944e-03
-1.468867622315883636e-02
-2.476593106985092163e-02
-4.811804741621017456e-02
-3.147733956575393677e-02
2.464779652655124664e-02
1.543790381401777267e-02
1.479977741837501526e-02
3.430461883544921875e-02
1.063320436514914036e-03
1.086120679974555969e-02
7.468331139534711838e-03
-8.826325647532939911e-03
2.520596981048583984e-02
-3.738286346197128296e-02
4.557586461305618286e-02
6.023269891738891602e-02
2.324899891391396523e-03
-2.058124355971813202e-02
1.187899732030928135e-03
5.126408115029335022e-02
-7.813599891960620880e-03
1.587896794080734253e-02
2.297531254589557648e-02
3.395694494247436523e-02
9.353323839604854584e-03
-2.783444942906498909e-03
-3.156173974275588989e-02
-2.076786477118730545e-03
