5.901223421096801758e-01 3.796365261077880859e-01 1.778369843959808350e-01 -1.381413698196411133e+00 5.461456179618835449e-01 -5.573219060897827148e-01 -4.461421370506286621e-01 4.700179696083068848e-01 4.103794991970062256e-01 7.172874212265014648e-01 4.605359733104705811e-01 5.082032084465026855e-01 -2.602308988571166992e-01 8.780798912048339844e-01 1.170158267021179199e+00 6.509678959846496582e-01 4.768364131450653076e-01 6.618648171424865723e-01 5.763492584228515625e-01 -3.544839918613433838e-01 5.991824865341186523e-01 4.590612351894378662e-01 3.659186363220214844e-01 -1.367031693458557129e+00 5.770948529243469238e-01 7.207639217376708984e-01 -7.898072004318237305e-01 -1.666965007781982422e+00 5.396023988723754883e-01 6.264421939849853516e-01 -2.961500585079193115e-01 8.041753768920898438e-01 4.333517849445343018e-01 -1.717273235321044922e+00 7.773370742797851562e-01 -6.698571443557739258e-01 3.201138079166412354e-01 4.135108947753906250e+00 4.360068440437316895e-01 -8.236263394355773926e-01 -3.231278657913208008e-01 -5.741389393806457520e-01 7.701599597930908203e-01 1.118645891547203064e-01 4.024472236633300781e-01 1.300322651863098145e+00 -1.916769027709960938e+00 4.456453621387481689e-01 5.842120647430419922e-01 -1.204499840736389160e+00 -2.398479938507080078e+00 3.546684086322784424e-01 4.871941804885864258e-01 6.556667685508728027e-01 8.241992592811584473e-01 1.096646189689636230e+00 -5.839546918869018555e-01 8.534923791885375977e-01 3.136919736862182617e-01 -2.591316938400268555e+00 5.387492775917053223e-01 -2.116573810577392578e+00 6.874843239784240723e-01 -1.050489068031311035e+00 -7.119067907333374023e-01 4.691414535045623779e-01 8.036058545112609863e-01 -1.298958182334899902e+00 2.050510793924331665e-01 -3.137667655944824219e+00 4.213271737098693848e-01 9.069774150848388672e-01 1.067072153091430664e+00 -1.932493895292282104e-01 -7.238755822181701660e-01 4.529305398464202881e-01 9.251594543457031250e-01 5.193191766738891602e-01 7.795510292053222656e-01 3.853081762790679932e-01 -5.907088518142700195e-01 5.913441777229309082e-01 6.394998431205749512e-01 1.092573881149291992e+00 6.543881297111511230e-01 7.053706645965576172e-01 5.151286125183105469e-01 3.295486569404602051e-01 9.698175191879272461e-01 4.217809438705444336e-01 3.313848972320556641e-01 5.342207551002502441e-01 3.085662722587585449e-01 5.404183864593505859e-01 -3.577891886234283447e-01 4.104550182819366455e-01 8.020349740982055664e-01 4.329986572265625000e-01 7.158157229423522949e-01 -7.064741253852844238e-01 3.802174031734466553e-01 -5.037084817886352539e-01 6.862207651138305664e-01 -1.273840427398681641e+00 -3.393260538578033447e-01 5.909953713417053223e-01 4.672566056251525879e-01 -1.622873544692993164e+00 6.539835333824157715e-01 -1.211123466491699219e+00 5.502786040306091309e-01 1.033444881439208984e+00 -4.019380092620849609e+00 6.183499097824096680e-01 -6.941385269165039062e-01 -1.111516594886779785e+00 -9.246493577957153320e-01 6.421397924423217773e-01 4.299085438251495361e-01 7.327015399932861328e-01 -7.555781364440917969e+00 1.273820161819458008e+00 1.872231006622314453e+00 7.950007915496826172e-01 3.864368200302124023e-01 3.973481655120849609e-01 4.648739099502563477e-01 6.902580857276916504e-01 -6.057808995246887207e-01 5.348408818244934082e-01 5.423399209976196289e-01 9.121227860450744629e-01 3.907039463520050049e-01 4.913298785686492920e-01 4.332506060600280762e-01 4.973811507225036621e-01 6.746874451637268066e-01 2.827388048171997070e-01 6.134182214736938477e-01 8.819524645805358887e-01 -9.635287284851074219e+00 7.846592664718627930e-01 6.327160596847534180e-01 -1.073772192001342773e+00 -3.486815690994262695e-01 2.616589963436126709e-01 5.960161089897155762e-01 6.996216177940368652e-01 4.131388366222381592e-01 6.574546694755554199e-01 2.100475877523422241e-01 5.414601564407348633e-01 4.783059954643249512e-01 4.169583916664123535e-01 -7.857285141944885254e-01 -2.010553479194641113e-01 -2.467700004577636719e+00 8.498831391334533691e-01 -1.963201522827148438e+00 7.578543424606323242e-01 3.540024161338806152e-01 5.803797245025634766e-01 -2.266726016998291016e+00 3.552283346652984619e-01 1.100093126296997070e+00 -1.093892574310302734e+00 6.496263146400451660e-01 -1.409220576286315918e+00 5.699099302291870117e-01 8.568675518035888672e-01 4.283059835433959961e-01 6.446610689163208008e-01 -3.816003203392028809e-01 -2.280057191848754883e+00 7.537530660629272461e-01 1.135874509811401367e+00 -6.162094473838806152e-01 3.916031122207641602e-01 -2.708861827850341797e+00 8.896786570549011230e-01 5.011675357818603516e-01 7.010367512702941895e-01 2.125374078750610352e+00 6.549970507621765137e-01 4.433656036853790283e-01 4.820935428142547607e-01 8.276850581169128418e-01 -1.040527939796447754e+00 6.552149057388305664e-01 6.409372687339782715e-01 -4.839084625244140625e+00 5.357389450073242188e-01 6.782571077346801758e-01 6.497340202331542969e-01 -9.474017024040222168e-01 -2.467375278472900391e+00 -1.335642337799072266e+00 6.377219557762145996e-01 1.013656258583068848e+00 7.476319670677185059e-01 -4.843263924121856689e-01 6.945630908012390137e-01 9.125402569770812988e-01 2.220358401536941528e-01 6.672772765159606934e-01 6.319058537483215332e-01 1.207602620124816895e+00 7.079698443412780762e-01 4.739048779010772705e-01 -2.103122711181640625e+00 -1.390304923057556152e+00 2.535241544246673584e-01 -4.359060823917388916e-01 -7.958335876464843750e-01 9.106827378273010254e-01 4.763264656066894531e-01 -8.432946801185607910e-01 3.842456042766571045e-01 4.350017607212066650e-01 -1.450265526771545410e+00 2.970254123210906982e-01 3.332240879535675049e-01 -9.438048005104064941e-01 -3.331931531429290771e-01 6.524236202239990234e-01 4.320528805255889893e-01 1.357409238815307617e+00 -5.025423765182495117e-01 4.107612073421478271e-01 5.679266452789306641e-01 3.618485331535339355e-01 6.836450099945068359e-01 -8.758917450904846191e-01 5.133309364318847656e-01 -5.472918510437011719e+00 9.961993098258972168e-01 5.765669941902160645e-01 5.219494700431823730e-01 7.324446439743041992e-01 1.028956770896911621e+00 6.600364446640014648e-01 -5.474470853805541992e-01 6.994343400001525879e-01 4.299274981021881104e-01 8.323571681976318359e-01 -7.364655733108520508e-01 6.198395490646362305e-01 5.226818323135375977e-01 2.490507364273071289e-01 -5.237884998321533203e+00 9.410022497177124023e-01 -7.175026535987854004e-01 2.640648484230041504e-01 -1.133711099624633789e+00 8.605918884277343750e-01 5.738878250122070312e-01
