6.603359580039978027e-01 -1.921384692192077637e+00 7.689495086669921875e-01 8.072368502616882324e-01 5.458370447158813477e-01 4.497358500957489014e-01 7.783605456352233887e-01 4.220053851604461670e-01 6.187922954559326172e-01 4.175042808055877686e-01 4.255064427852630615e-01 -1.907887935638427734e+00 8.828006386756896973e-01 4.683830142021179199e-01 5.027747154235839844e-02 2.009837627410888672e-01 3.814070224761962891e-01 9.084622859954833984e-01 7.103171348571777344e-01 1.043042063713073730e+00 4.184976220130920410e-01 -1.558284401893615723e+00 6.289628744125366211e-01 -9.227721691131591797e-01 -1.061953425407409668e+00 4.188733994960784912e-01 -1.117445468902587891e+00 7.131315469741821289e-01 5.392520427703857422e-01 1.070980191230773926e+00 -3.255475163459777832e-01 4.942203164100646973e-01 3.813502788543701172e-01 2.438998371362686157e-01 -1.239451289176940918e+00 -1.088042497634887695e+00 4.451273381710052490e-01 1.631186246871948242e+00 4.343109428882598877e-01 5.386880040168762207e-01 -1.669852018356323242e+00 -7.938271760940551758e-01 2.508417963981628418e-01 -2.046613216400146484e+00 6.678229570388793945e-01 -7.344753146171569824e-01 4.482814967632293701e-01 9.729181528091430664e-01 4.369216859340667725e-01 5.273608565330505371e-01 4.564786255359649658e-01 -1.303988575935363770e+00 -7.750128507614135742e-01 5.748984217643737793e-01 9.827057123184204102e-01 7.164218425750732422e-01 3.281312882900238037e-01 -1.386199474334716797e+00 5.857552886009216309e-01 4.347658157348632812e-01 5.429353117942810059e-01 4.898957610130310059e-01 -1.044528126716613770e+00 1.928802877664566040e-01 7.427573204040527344e-01 -8.548414707183837891e-01 6.966156959533691406e-01 -7.573990225791931152e-01 1.107118800282478333e-01 3.664064407348632812e-01 2.786625623703002930e-01 -7.598078250885009766e-01 5.421760678291320801e-01 -2.147750854492187500e+00 6.802476644515991211e-01 3.759641349315643311e-01 2.400940656661987305e-01 -1.036176562309265137e+00 1.196989417076110840e+00 1.051524519920349121e+00 5.222777128219604492e-01 -7.579958438873291016e-01 8.226659893989562988e-01 -5.612797737121582031e-01 5.014857649803161621e-01 2.375498861074447632e-01 3.887649476528167725e-01 6.473515033721923828e-01 3.248193264007568359e-01 7.699995040893554688e-01 4.907078742980957031e-01 4.375649392604827881e-01 8.257080912590026855e-01 3.763771653175354004e-01 -7.609791755676269531e-01 -1.593286037445068359e+00 5.504447221755981445e-01 -2.090948969125747681e-01 -5.946290493011474609e-01 -1.005458593368530273e+00 -1.296593189239501953e+00 1.025269508361816406e+00 3.184909820556640625e-01 5.014424920082092285e-01 1.243810892105102539e+00 5.273657441139221191e-01 6.746197342872619629e-01 9.764364957809448242e-01 8.377275466918945312e-01 -9.232866764068603516e-01 3.851302266120910645e-01 -1.712717294692993164e+00 4.967421293258666992e-01 3.852535188198089600e-01 -2.230431079864501953e+00 7.118661403656005859e-01 3.784028589725494385e-01 5.333577394485473633e-01 -8.719847202301025391e-01 5.601133108139038086e-01 1.477042436599731445e+00 3.976397812366485596e-01 6.434362530708312988e-01 3.858849108219146729e-01 3.976338207721710205e-01 -9.905345439910888672e-01 4.453383982181549072e-01 -5.581405758857727051e-01 8.816204071044921875e-01 3.638252913951873779e-01 -1.992568731307983398e+00 4.625485241413116455e-01 3.023361265659332275e-01 4.232437908649444580e-01 1.175867438316345215e+00 3.990802466869354248e-01 1.014998674392700195e+00 1.293742358684539795e-01 4.558944404125213623e-01 4.281111657619476318e-01 3.092936575412750244e-01 -2.838622331619262695e+00 -1.383508324623107910e+00 -1.894475102424621582e+00 6.636821627616882324e-01 3.263743221759796143e-01 -1.010065436363220215e+00 -6.196124553680419922e-01 4.896729886531829834e-01 1.230450749397277832e+00 8.758061528205871582e-01 5.619496107101440430e-01 5.489715337753295898e-01 -5.437946915626525879e-01 8.890292644500732422e-01 -1.487367868423461914e+00 -2.508316755294799805e+00 6.083472371101379395e-01 9.940413832664489746e-01 5.078130960464477539e-01 -6.782750487327575684e-01 -2.728658676147460938e+00 5.243695974349975586e-01 5.536394119262695312e-01 2.736750543117523193e-01 5.967296361923217773e-01 5.253785848617553711e-01 -1.759598731994628906e+00 7.831847667694091797e-01 9.852303266525268555e-01 4.800677299499511719e-01 4.536550939083099365e-01 -1.072893977165222168e+00 7.944704294204711914e-01 -1.227988719940185547e+00 3.790732026100158691e-01 6.185556650161743164e-01 -1.187196493148803711e+00 5.485075712203979492e-01 9.530483484268188477e-01 3.855851292610168457e-01 -5.039691329002380371e-01 5.766643881797790527e-01 3.130618035793304443e-01 8.031089305877685547e-01 6.055681109428405762e-01 2.994565069675445557e-01 4.012384116649627686e-01 4.501328170299530029e-01 5.068004131317138672e-01 5.271999835968017578e-01 4.081150889396667480e-01 -1.537856459617614746e+00 6.463592052459716797e-01 7.662956714630126953e-01 3.900854587554931641e-01 7.114282846450805664e-01 8.315831422805786133e-01 6.710811853408813477e-01 -4.658945202827453613e-01 -2.115969419479370117e+00 -6.303615093231201172e+00 -2.777513742446899414e+00 -1.019664883613586426e+00 -1.187394618988037109e+00 6.748854517936706543e-01 7.166799902915954590e-01 3.733080625534057617e-01 6.612234115600585938e-01 5.955035686492919922e-01 6.631183624267578125e-01 -7.208368778228759766e-01 -6.194083094596862793e-01 6.339877247810363770e-01 8.219187259674072266e-01 -1.861890673637390137e+00 6.194397807121276855e-01 9.886096119880676270e-01 -1.346961855888366699e-01 5.225281715393066406e-01 4.238084554672241211e-01 -7.695190310478210449e-01 7.119311094284057617e-01 3.009132742881774902e-01 3.970523178577423096e-01 7.192029953002929688e-01 4.393248260021209717e-01 -1.514998793601989746e+00 4.312390685081481934e-01 -2.312912178039550781e+01 7.790993452072143555e-01 -1.115450739860534668e+00 -2.517845392227172852e+00 -6.121994256973266602e-01 6.270520091056823730e-01 6.476855874061584473e-01 -2.083185911178588867e+00 3.356195986270904541e-01 -7.363917827606201172e-01 3.418120145797729492e-01 -6.665676832199096680e-01 4.821820855140686035e-01 6.752996444702148438e-01 -5.414239764213562012e-01 -4.868762493133544922e-01 6.447156667709350586e-01 -8.140962123870849609e-01 -8.932793736457824707e-01 1.655139476060867310e-01 7.184317708015441895e-01 4.414329528808593750e-01 -5.592156052589416504e-01 1.431397438049316406e+00 4.763552844524383545e-01 4.124258756637573242e-01 4.811784029006958008e-01
