2.038339339196681976e-02 -5.714152380824089050e-02 1.398146897554397583e-02 -1.656544022262096405e-02 1.971372170373797417e-03 2.029154449701309204e-02 -6.869331002235412598e-03 -3.166645020246505737e-02 -2.292586490511894226e-02 -3.231376782059669495e-02 -3.002418577671051025e-02 4.423212632536888123e-02 -5.485035479068756104e-03 -3.464890643954277039e-02 -4.664591047912836075e-03 -1.227356400340795517e-02 5.282707512378692627e-02 2.461057901382446289e-02 -3.871901333332061768e-02 1.926368661224842072e-02 2.789900870993733406e-03 -4.443683475255966187e-02 -3.726029070094227791e-03 2.661796845495700836e-02 2.500399015843868256e-02 -1.209177263081073761e-02 1.960084046004340053e-04 -1.948954910039901733e-02 3.765714913606643677e-02 5.181178450584411621e-03 -3.083522198721766472e-03 -1.146786753088235855e-02 -2.795383706688880920e-02 6.081505492329597473e-02 -2.318304218351840973e-02 -2.718219906091690063e-02 9.019708260893821716e-03 -1.100119948387145996e-02 1.495971903204917908e-02 4.763976857066154480e-02 3.545476123690605164e-02 -2.073150500655174255e-02 2.155173011124134064e-02 -5.338384956121444702e-02 1.981603726744651794e-02 -1.452915463596582413e-02 -4.159013554453849792e-02 2.189276739954948425e-02 -9.253253228962421417e-03 -1.667900476604700089e-03 -1.867067627608776093e-02 -8.827494457364082336e-03 -6.989466026425361633e-03 1.167058199644088745e-02 -1.410369761288166046e-02 -1.902820169925689697e-02 1.109028328210115433e-02 -1.029195729643106461e-02 6.276944186538457870e-04 -2.688031271100044250e-02 4.352025687694549561e-02 1.106554456055164337e-02 7.567540556192398071e-02 2.322429977357387543e-02 2.398199029266834259e-02 -3.954800218343734741e-02 3.014453500509262085e-02 -1.307374704629182816e-02 1.201979909092187881e-02 -2.510626986622810364e-02 -5.918680503964424133e-02 -1.067395880818367004e-02 1.336660981178283691e-02 -1.471591088920831680e-02 -8.649585396051406860e-02 1.145031768828630447e-02 -3.454134613275527954e-02 2.281905524432659149e-02 2.151652425527572632e-02 -2.509803697466850281e-02 -1.450320798903703690e-02 -1.483435090631246567e-02 5.550543777644634247e-03 4.177466407418251038e-02 -7.809524424374103546e-03 -1.898357085883617401e-02 -1.966124546015635133e-04 -2.898338623344898224e-02 3.754453733563423157e-02 -2.921170182526111603e-02 -1.535965036600828171e-02 -2.338867448270320892e-02 3.403648361563682556e-02 -3.376098349690437317e-03 1.254328899085521698e-02 4.547785967588424683e-02 -1.952310465276241302e-02 1.412139646708965302e-02 -2.581524895504117012e-03 8.868070319294929504e-03 9.363478980958461761e-03 3.808034583926200867e-02 1.395895425230264664e-02 -2.976476028561592102e-02 6.066601257771253586e-03 -4.024233669042587280e-02 2.197764068841934204e-02 -5.561950616538524628e-03 2.951493486762046814e-03 1.249098312109708786e-02 3.215192630887031555e-02 2.352812699973583221e-02 -2.956294920295476913e-04 8.280146867036819458e-03 -2.965424582362174988e-02 -3.207867220044136047e-02 4.578635096549987793e-02 -4.536112770438194275e-02 -1.095561496913433075e-02 -2.142648585140705109e-02 -1.310085598379373550e-02 -2.311804518103599548e-02 -3.674132376909255981e-02 -4.001192282885313034e-03 -6.548963487148284912e-02 1.241560326889157295e-03 3.902038186788558960e-02 6.637261249125003815e-03 5.628689192235469818e-03 1.198197994381189346e-02 6.410911679267883301e-02 4.819791298359632492e-03 3.907643258571624756e-02 2.538824453949928284e-02 2.143853530287742615e-02 -4.624461871571838856e-04 1.599953393451869488e-03 8.045977912843227386e-03 8.832535706460475922e-03 -8.043583482503890991e-02 -2.965965308248996735e-03 1.186997164040803909e-02 2.298123389482498169e-02 4.319957271218299866e-02 8.828857913613319397e-03 -1.573135890066623688e-02 -2.646431326866149902e-03 -4.225019738078117371e-02 -6.843277718871831894e-03 -2.147339470684528351e-02 2.103761211037635803e-02 -5.284555628895759583e-02 3.086873143911361694e-02 -1.529897470027208328e-02 9.747262112796306610e-03 3.228111937642097473e-02 4.046888276934623718e-02 -5.261405557394027710e-02 3.898537531495094299e-02 4.578004404902458191e-02 -2.896243520081043243e-02 2.367774024605751038e-03 2.767684496939182281e-02 1.640715054236352444e-03 -5.562811717391014099e-02 1.793088577687740326e-02 5.234228819608688354e-02 2.866165339946746826e-02 -1.733795925974845886e-02 -3.883723169565200806e-03 -3.899349831044673920e-03 -6.232014857232570648e-03 4.563008435070514679e-03 -4.989709332585334778e-02 1.678298431215807796e-04 -5.858532711863517761e-02 4.966336302459239960e-03 1.356595102697610855e-02 7.293741509784013033e-05 5.070750601589679718e-03 -7.017302559688687325e-04 -2.429924206808209419e-03 3.207905590534210205e-02 3.631126880645751953e-02 -1.842898875474929810e-02 1.942811720073223114e-02 -6.116026267409324646e-02 3.402687609195709229e-02 3.342529013752937317e-02 4.246478527784347534e-02 2.527046576142311096e-02 2.144319191575050354e-02 1.616218686103820801e-02 9.672022424638271332e-03 1.386996172368526459e-02 -9.172271005809307098e-03 -2.054761163890361786e-02 3.304133564233779907e-02 3.258250653743743896e-02 -3.483637422323226929e-02 -5.217788368463516235e-02 -1.215033698827028275e-03 -2.639524638652801514e-02 -6.130766589194536209e-03 2.828603843227028847e-03 -2.337444946169853210e-02 -2.330109477043151855e-02 -5.150718986988067627e-02 1.605005562305450439e-02 2.707994915544986725e-02 6.227604113519191742e-03 1.258930470794439316e-02 -3.957143519073724747e-03 -2.738050743937492371e-02 4.373707994818687439e-02 2.361708134412765503e-02 -1.263996586203575134e-02 2.798116207122802734e-02 9.226515889167785645e-03 -1.451587770134210587e-02 3.751982148969545960e-05 -2.649604808539152145e-03 6.364270579069852829e-03 -1.807472901418805122e-03 6.260262429714202881e-02 -5.501233786344528198e-02 -1.881363242864608765e-02 -4.473497718572616577e-02 -2.692898549139499664e-02 4.711729474365711212e-03 -2.408478781580924988e-02 -2.588687092065811157e-02 -9.730998426675796509e-03 -4.729129746556282043e-02 3.844431787729263306e-02 1.340451557189226151e-02 -3.180571272969245911e-02 1.348816603422164917e-02 -1.833927631378173828e-02 -5.625177174806594849e-03 7.626575883477926254e-03 -3.825961798429489136e-02 -9.773854166269302368e-03 1.186604890972375870e-02 -2.754179760813713074e-02 2.223108429461717606e-03 -1.646574959158897400e-02 6.543262302875518799e-02 3.873560950160026550e-02 -1.326906308531761169e-02 -2.111683413386344910e-02 9.395394474267959595e-03 4.249808192253112793e-02 -5.271398928016424179e-03 -1.908208429813385010e-02 2.352905645966529846e-02
7.443287223577499390e-02 -1.756224595010280609e-02 -4.105533286929130554e-02 -4.802213236689567566e-02 -5.837265029549598694e-02 4.507507383823394775e-02 -5.574664101004600525e-02 -8.468972519040107727e-03 -1.585345342755317688e-02 2.139737643301486969e-02 -1.827190164476633072e-03 -5.028294771909713745e-02 5.085673928260803223e-02 7.898212410509586334e-03 -4.416965879499912262e-03 1.297076046466827393e-01 3.531901910901069641e-02 3.857323527336120605e-02 2.697517164051532745e-02 -5.141517892479896545e-02 3.420833125710487366e-02 -7.125186175107955933e-02 -1.530591119080781937e-02 -3.599927201867103577e-02 4.125159606337547302e-02 1.478976849466562271e-02 5.231362953782081604e-02 1.374829560518264771e-01 6.769963353872299194e-02 -6.304378807544708252e-02 1.721274806186556816e-03 1.832508249208331108e-03 -3.954036906361579895e-02 -1.355651114135980606e-02 2.596243843436241150e-02 -8.605790883302688599e-02 8.453502506017684937e-02 -9.029813855886459351e-02 -3.321169689297676086e-02 6.364525761455297470e-03 1.458505517803132534e-03 -2.684710547327995300e-02 2.149256877601146698e-02 -2.853725571185350418e-03 7.804904133081436157e-03 2.102412097156047821e-02 4.196357354521751404e-02 3.629927709698677063e-02 -3.571648523211479187e-02 -2.712156251072883606e-02 1.555253285914659500e-02 -4.286995157599449158e-02 2.908330596983432770e-02 -3.744524344801902771e-02 -1.204208191484212875e-02 1.998601481318473816e-02 -2.597952028736472130e-03 -1.239638659171760082e-03 -7.047154940664768219e-03 -5.223384499549865723e-02 9.626878425478935242e-03 -3.823988139629364014e-02 -1.971890032291412354e-02 1.598523370921611786e-02 6.674050539731979370e-02 2.910028025507926941e-02 1.793240755796432495e-02 -3.544772416353225708e-02 -4.751879256218671799e-03 6.163730844855308533e-02 -1.998889259994029999e-02 4.807570483535528183e-03 1.223610807210206985e-02 3.019242780283093452e-03 -5.988552700728178024e-03 5.599620565772056580e-02 -1.325416937470436096e-02 -5.241027474403381348e-02 -1.484352443367242813e-02 -2.407358027994632721e-02 -3.472761809825897217e-02 -3.233796730637550354e-02 9.431742131710052490e-02 2.709922194480895996e-02 -7.551846653223037720e-02 -3.340110555291175842e-02 1.370573323220014572e-02 -2.564333565533161163e-02 -1.469457335770130157e-02 3.324818238615989685e-02 -4.821695387363433838e-03 1.357848104089498520e-02 8.675249665975570679e-02 -1.648559607565402985e-02 -2.235443890094757080e-02 -8.761288598179817200e-03 -4.304803907871246338e-02 8.118466287851333618e-02 -1.060161460191011429e-02 2.874063886702060699e-02 3.274865448474884033e-02 -7.264135777950286865e-02 -1.790215820074081421e-02 1.637723483145236969e-02 5.604886915534734726e-03 3.918078914284706116e-02 3.421260416507720947e-02 -2.207934483885765076e-02 7.036373484879732132e-03 -6.916895043104887009e-03 -4.682031646370887756e-02 -3.851069137454032898e-02 1.764805987477302551e-02 9.128064848482608795e-03 -3.166024014353752136e-02 -2.697449177503585815e-02 -6.115286611020565033e-03 -3.968888148665428162e-02 -2.601887285709381104e-02 -5.621509626507759094e-02 3.283258154988288879e-02 2.786240726709365845e-02 -2.769736759364604950e-02 2.543133310973644257e-02 1.580015197396278381e-02 -6.517255306243896484e-02 3.004701808094978333e-02 6.093749776482582092e-02 2.209631167352199554e-02 3.032621927559375763e-02 1.264813356101512909e-02 -1.583992317318916321e-02 4.644973203539848328e-02 5.230817943811416626e-03 -2.554049482569098473e-03 -2.962051331996917725e-02 1.347648818045854568e-02 -5.792293231934309006e-03 -2.154425531625747681e-02 7.425577845424413681e-03 3.744171932339668274e-02 -2.621373534202575684e-02 2.444264665246009827e-02 1.891849189996719360e-02 1.885316520929336548e-02 -1.392705924808979034e-02 -4.743324220180511475e-02 7.992314547300338745e-02 2.009977959096431732e-02 1.785437017679214478e-02 -2.472859807312488556e-02 6.745561212301254272e-02 -2.428854070603847504e-02 -4.417956247925758362e-02 -1.407279487466439605e-04 9.317894466221332550e-03 3.980975598096847534e-02 4.398452490568161011e-02 -1.773864775896072388e-02 7.406339980661869049e-03 -9.270663373172283173e-03 1.309694908559322357e-02 -9.035667032003402710e-02 -1.619324274361133575e-02 1.088615879416465759e-01 1.744696870446205139e-02 -6.072299182415008545e-02 4.733786359429359436e-02 6.136219482868909836e-03 -1.195427682250738144e-02 -4.950863495469093323e-02 3.664023801684379578e-02 5.311878048814833164e-04 1.486822776496410370e-02 -4.091591015458106995e-02 -1.773032918572425842e-02 5.670665763318538666e-03 -3.059431537985801697e-02 2.346527203917503357e-02 -3.175241872668266296e-03 3.015102632343769073e-02 -4.366399720311164856e-02 3.315968438982963562e-02 -4.000295326113700867e-02 -2.215328277088701725e-05 -2.776281535625457764e-02 -6.277080625295639038e-02 -4.095257446169853210e-02 -9.863640181720256805e-03 8.092165738344192505e-02 -4.979968816041946411e-02 1.647453941404819489e-02 5.041805654764175415e-02 1.314813084900379181e-02 3.519383259117603302e-03 -2.657210640609264374e-02 -8.439131826162338257e-02 -1.202512159943580627e-02 -3.138925135135650635e-02 1.774241216480731964e-02 1.188975013792514801e-02 5.402031540870666504e-02 -4.434110596776008606e-04 3.362061455845832825e-02 5.227600410580635071e-02 2.986834198236465454e-02 1.397096086293458939e-02 -1.025450974702835083e-02 1.888797990977764130e-02 2.146601909771561623e-03 -2.448047697544097900e-02 -2.082522958517074585e-02 7.613240275532007217e-03 -2.866481989622116089e-02 1.581666618585586548e-02 1.193523406982421875e-01 6.234725937247276306e-03 -2.004413306713104248e-02 -2.625365369021892548e-02 4.779696173500269651e-04 -2.026862837374210358e-02 -5.810734257102012634e-02 -2.566142380237579346e-02 -9.074334986507892609e-03 3.878614678978919983e-02 -5.915024317800998688e-03 -2.168677188456058502e-02 1.710092648863792419e-02 -3.946958575397729874e-03 2.577478811144828796e-02 -4.131095856428146362e-02 -5.829839501529932022e-03 3.685065358877182007e-02 4.354876279830932617e-02 2.999366261065006256e-03 1.833972707390785217e-02 4.013613983988761902e-02 2.190272137522697449e-02 2.317541837692260742e-02 -1.825469173491001129e-02 3.233372792601585388e-02 -3.099050000309944153e-02 3.925166651606559753e-02 1.254864269867539406e-03 -5.219998210668563843e-02 -1.259706635028123856e-02 -3.931292146444320679e-02 3.359146788716316223e-02 8.693092502653598785e-03 -5.923775956034660339e-02 4.283846355974674225e-03 -3.368317708373069763e-02 1.001825276762247086e-02 3.862404450774192810e-02 -6.161995232105255127e-02 4.893591627478599548e-02
4.498586431145668030e-02 -2.783776447176933289e-02 -1.805036328732967377e-02 -4.141014441847801208e-02 2.209136635065078735e-02 1.868230407126247883e-03 -5.890099331736564636e-02 1.253420300781726837e-02 -6.379861384630203247e-02 6.675313413143157959e-02 -2.217668853700160980e-02 2.226899191737174988e-02 -1.577204465866088867e-02 -4.907049983739852905e-02 1.768624596297740936e-02 1.980015449225902557e-02 -3.547575697302818298e-02 2.646983787417411804e-02 -1.992834545671939850e-02 -3.089142264798283577e-04 -1.294500567018985748e-02 -4.210017248988151550e-02 -1.018665172159671783e-02 -8.691234514117240906e-03 5.462252721190452576e-02 2.036369033157825470e-02 3.270160779356956482e-02 1.046877726912498474e-02 3.199987486004829407e-02 -1.046694163233041763e-02 1.111557893455028534e-02 2.326253056526184082e-02 6.428712606430053711e-02 1.234144624322652817e-02 3.826016560196876526e-02 -3.573362901806831360e-02 5.758299026638269424e-03 -6.074074283242225647e-02 9.368834085762500763e-03 1.020722649991512299e-02 1.360583398491144180e-02 2.578704617917537689e-02 -3.217771276831626892e-02 2.172552980482578278e-02 -8.488636463880538940e-03 -1.707036606967449188e-02 -3.059189068153500557e-03 -2.879256755113601685e-02 -2.691338025033473969e-02 -2.961206622421741486e-02 -1.676355488598346710e-02 7.029718160629272461e-02 -3.117858059704303741e-02 1.038067135959863663e-02 2.966869994997978210e-02 2.736856602132320404e-02 1.039062514901161194e-01 3.121058223769068718e-03 -6.660052388906478882e-02 2.035400643944740295e-02 -4.079965292476117611e-04 2.159947156906127930e-02 -8.355517685413360596e-02 2.693437971174716949e-03 -6.403395533561706543e-02 -5.342287477105855942e-03 3.270165994763374329e-02 3.248795866966247559e-02 -4.371388815343379974e-03 2.334288135170936584e-02 2.921211300417780876e-03 6.207223050296306610e-03 -8.871503174304962158e-03 2.920990996062755585e-02 5.647310614585876465e-02 9.697214514017105103e-02 3.367085754871368408e-02 -1.611081324517726898e-02 3.217760473489761353e-02 1.245410367846488953e-02 -1.541975699365139008e-02 -4.657606780529022217e-02 3.565910086035728455e-02 -3.631471842527389526e-02 5.099480599164962769e-02 4.938365891575813293e-03 3.202889859676361084e-02 2.993202209472656250e-02 1.437490107491612434e-03 8.273222297430038452e-02 1.233450951986014843e-03 -3.580362722277641296e-02 6.133922189474105835e-02 -5.118505656719207764e-02 -1.084132120013237000e-02 -1.325758453458547592e-02 2.087441459298133850e-02 1.882877945899963379e-02 -2.071485668420791626e-02 -2.800035476684570312e-02 -1.363920047879219055e-03 -3.198228403925895691e-02 -1.033518277108669281e-02 -1.234725043177604675e-01 2.745145000517368317e-03 2.331432141363620758e-02 -6.685341149568557739e-02 -2.174132876098155975e-02 -1.022661570459604263e-02 2.275205403566360474e-02 -5.289144814014434814e-02 2.250027842819690704e-02 -1.151333376765251160e-02 6.096857041120529175e-02 -2.183300442993640900e-02 2.516723237931728363e-02 2.228442765772342682e-02 -3.659342229366302490e-02 2.657571434974670410e-02 -5.795492976903915405e-02 -3.109995275735855103e-02 -3.069634363055229187e-02 2.239734632894396782e-03 1.432841923087835312e-02 1.343212742358446121e-02 -1.806259714066982269e-02 9.164341725409030914e-03 -3.607314825057983398e-02 3.446768969297409058e-02 -2.029244601726531982e-02 2.537678694352507591e-03 -1.469815731979906559e-03 -7.384096086025238037e-02 -1.724398694932460785e-02 -5.135609954595565796e-02 -6.578227505087852478e-03 1.747440360486507416e-02 1.162591297179460526e-02 -4.329024627804756165e-02 -8.174287155270576477e-03 1.320909895002841949e-02 -7.808919996023178101e-03 9.171290439553558826e-04 1.432860735803842545e-02 -1.496778056025505066e-02 1.736331917345523834e-02 9.901770390570163727e-03 -6.237590312957763672e-02 -4.801894724369049072e-02 2.579361014068126678e-02 5.381361022591590881e-02 3.737169504165649414e-02 -6.173722818493843079e-02 -3.675607731565833092e-03 -3.994351252913475037e-02 -3.244343446567654610e-03 7.467636838555335999e-03 2.769319154322147369e-02 -8.524077013134956360e-03 3.071998432278633118e-02 -3.752094879746437073e-02 -1.489409618079662323e-02 1.450256630778312683e-02 1.281897630542516708e-02 2.909345179796218872e-02 2.131261862814426422e-03 -5.386643111705780029e-02 2.907448820769786835e-02 -1.091700140386819839e-02 -4.251213744282722473e-02 3.663915907964110374e-03 2.302115596830844879e-02 -4.683402925729751587e-02 1.756994426250457764e-02 3.015846712514758110e-03 -3.806299716234207153e-02 -6.504913326352834702e-03 2.090656571090221405e-02 1.389788836240768433e-02 -7.734265923500061035e-02 -6.082428619265556335e-03 -1.506545674055814743e-02 -1.047570779919624329e-01 1.011296454817056656e-02 -5.661642923951148987e-02 -1.313145551830530167e-02 3.173431614413857460e-03 1.099447440356016159e-02 3.042078018188476562e-02 -5.534829944372177124e-02 9.875815158011391759e-05 1.273912284523248672e-02 -4.711474105715751648e-02 2.200966514647006989e-02 2.118599228560924530e-02 -2.823285572230815887e-02 1.087828772142529488e-03 -4.087675828486680984e-03 4.500103369355201721e-02 -2.745168656110763550e-02 8.399929851293563843e-03 -1.100904960185289383e-02 -4.267131909728050232e-02 2.660571411252021790e-02 -7.056191097944974899e-03 -4.430725239217281342e-04 -5.254422314465045929e-03 1.504610199481248856e-02 -2.691987203434109688e-03 1.683347113430500031e-02 -4.154629423283040524e-04 -1.424430962651968002e-02 -4.533572122454643250e-02 -7.367243617773056030e-02 3.593052551150321960e-02 -2.660289406776428223e-02 5.149219557642936707e-02 -3.416202589869499207e-02 6.370708346366882324e-02 5.991784390062093735e-03 2.182564698159694672e-03 -7.003967184573411942e-03 -5.247228965163230896e-02 3.272354975342750549e-02 1.404021866619586945e-02 3.532866016030311584e-02 -4.192365705966949463e-02 4.304431751370429993e-02 4.063020925968885422e-03 8.453103713691234589e-03 -1.539335679262876511e-02 5.731988698244094849e-02 1.332006789743900299e-02 -5.097558721899986267e-03 -3.912045806646347046e-02 1.202747970819473267e-02 -6.246769335120916367e-03 -3.706747666001319885e-03 -1.059468276798725128e-02 2.460268512368202209e-02 1.022867020219564438e-02 -4.634771496057510376e-02 -1.956813968718051910e-02 -3.516613040119409561e-03 -4.652886837720870972e-02 -1.533269230276346207e-02 -3.173239901661872864e-02 -2.731460612267255783e-03 -1.707071997225284576e-02 2.517920918762683868e-02 3.820448368787765503e-02 1.735014468431472778e-02 1.008753385394811630e-02 -4.724394157528877258e-02 -3.450668416917324066e-03 -1.840231381356716156e-02
-8.332693576812744141e-02 -3.303412720561027527e-02 -7.443095743656158447e-02 5.390255898237228394e-02 2.399923466145992279e-02 -5.211344733834266663e-02 -1.261400291696190834e-03 -1.679183356463909149e-02 -1.108095049858093262e-02 2.294321544468402863e-02 -4.921895265579223633e-02 -3.598728217184543610e-03 -7.034174632281064987e-05 -2.196719311177730560e-02 -2.861750312149524689e-02 -1.984093338251113892e-02 -1.972507499158382416e-02 -1.977039501070976257e-02 -2.143638581037521362e-02 7.206081878393888474e-03 8.600319735705852509e-03 -2.085660584270954132e-02 -4.534685052931308746e-03 -8.596324920654296875e-02 2.298026531934738159e-02 6.927528232336044312e-02 5.498091923072934151e-04 -7.511919829994440079e-03 5.497969314455986023e-02 4.401024430990219116e-03 -1.733972341753542423e-03 -5.265362188220024109e-02 3.061550855636596680e-02 2.494302950799465179e-02 6.038473453372716904e-03 -6.000623852014541626e-02 -2.829519845545291901e-02 5.061112344264984131e-03 -1.254686340689659119e-02 -3.821363672614097595e-02 -1.314703654497861862e-02 -2.719059959053993225e-02 -5.276312306523323059e-02 -2.702270634472370148e-02 1.696965470910072327e-02 3.131292387843132019e-02 -5.300986021757125854e-02 -4.431272391229867935e-03 -4.278492555022239685e-02 -5.665647238492965698e-02 7.039542542770504951e-04 -3.510862216353416443e-02 -3.255640342831611633e-02 1.468275859951972961e-02 -3.643593192100524902e-02 5.224053189158439636e-02 -3.261310979723930359e-02 1.850071921944618225e-02 -2.708613127470016479e-02 1.056815870106220245e-02 -1.469836715841665864e-04 -5.930807441473007202e-02 2.717629633843898773e-02 -2.403944544494152069e-02 4.472509771585464478e-02 2.332240529358386993e-02 -1.488171238452196121e-02 -2.580427192151546478e-02 1.355904154479503632e-02 2.957122400403022766e-03 9.266948327422142029e-03 1.956092892214655876e-03 1.428927853703498840e-02 -2.209325693547725677e-02 1.050331350415945053e-02 1.417994964867830276e-02 -4.165532533079385757e-03 -8.259457349777221680e-02 1.435452513396739960e-02 4.643192887306213379e-02 7.863514870405197144e-02 7.404227741062641144e-03 -7.736500352621078491e-03 -1.395519077777862549e-02 -1.881139911711215973e-02 9.317952394485473633e-02 -1.270584389567375183e-02 -4.819941520690917969e-02 2.557595819234848022e-02 1.046174112707376480e-02 5.522499606013298035e-02 1.097118109464645386e-01 4.173874482512474060e-02 -5.936738848686218262e-02 -4.009071737527847290e-02 6.335072219371795654e-02 -2.948310971260070801e-02 -2.409051358699798584e-02 -4.249060992151498795e-03 -1.558165531605482101e-02 -7.825136417523026466e-04 -9.727125056087970734e-03 7.044802885502576828e-03 -1.416724454611539841e-02 3.036372736096382141e-02 1.554556284099817276e-02 2.808518335223197937e-02 6.289801746606826782e-02 1.585281686857342720e-03 -6.534635275602340698e-02 -9.047162532806396484e-02 9.176840074360370636e-03 3.483835607767105103e-02 -8.320800960063934326e-02 -3.558068349957466125e-02 5.543355830013751984e-03 -2.903691306710243225e-02 4.132177680730819702e-02 1.947355084121227264e-02 -1.547908410429954529e-02 2.202320471405982971e-02 -5.867887660861015320e-02 -1.306805294007062912e-02 -2.700225450098514557e-02 3.493228554725646973e-02 -2.706574648618698120e-02 -3.758396208286285400e-02 -5.631640926003456116e-02 2.721930481493473053e-02 -6.204923242330551147e-02 1.880218088626861572e-02 8.012586086988449097e-02 -1.822384446859359741e-02 -4.870075359940528870e-02 7.444445975124835968e-03 1.887763850390911102e-02 -2.199111040681600571e-04 1.322470884770154953e-02 -4.654544964432716370e-02 1.960811903700232506e-03 -6.210843846201896667e-02 5.239542573690414429e-02 -3.663539653643965721e-03 2.401327947154641151e-03 4.624650813639163971e-03 6.552635133266448975e-02 2.212002687156200409e-02 -1.116799004375934601e-02 -3.399836644530296326e-02 8.831913146423175931e-05 6.510043889284133911e-02 -2.829345874488353729e-02 -5.564580485224723816e-02 -1.006681844592094421e-02 -2.762359939515590668e-02 1.101672369986772537e-02 -2.027727290987968445e-02 -7.405701559036970139e-03 -2.079154830425977707e-03 3.952279314398765564e-02 2.696986496448516846e-02 -6.313371006399393082e-03 1.661434583365917206e-02 -1.751288212835788727e-02 -5.328245833516120911e-02 -8.786472491919994354e-03 -4.902069643139839172e-02 2.996011823415756226e-02 5.675737280398607254e-03 -1.519585121423006058e-02 1.353833265602588654e-02 6.346062291413545609e-03 2.385765314102172852e-02 -5.361440125852823257e-03 -1.147404126822948456e-02 -9.603147208690643311e-02 6.188063882291316986e-03 3.294672816991806030e-02 4.882740601897239685e-02 -3.546600416302680969e-02 2.064165426418185234e-03 -8.145001530647277832e-02 -7.614860683679580688e-02 -3.853659145534038544e-03 1.725293509662151337e-02 -7.299166917800903320e-02 4.780796915292739868e-02 2.885913103818893433e-02 -6.165392696857452393e-02 2.517894282937049866e-02 -1.560858171433210373e-02 1.846862584352493286e-02 3.902638331055641174e-02 2.630964852869510651e-02 -1.222972106188535690e-02 -3.384168818593025208e-02 -5.784132331609725952e-02 -6.192829925566911697e-03 2.458157017827033997e-02 3.390987217426300049e-02 -8.274109661579132080e-02 -7.920761406421661377e-02 -2.630429156124591827e-02 3.820914775133132935e-02 -2.580620907247066498e-02 -2.892379462718963623e-02 -3.142759203910827637e-02 -3.506872430443763733e-02 2.683234633877873421e-03 -5.180354346521198750e-04 -7.099103648215532303e-03 -6.468177307397127151e-03 -5.621830746531486511e-02 -8.228416740894317627e-02 3.222261369228363037e-02 3.704277798533439636e-02 2.296227775514125824e-02 5.127456784248352051e-02 1.176142413169145584e-02 -2.181513980031013489e-02 -2.365347556769847870e-02 -7.211823016405105591e-03 -1.256620418280363083e-02 1.887210272252559662e-02 -1.204061061143875122e-01 -3.500348329544067383e-02 5.012100562453269958e-02 -5.474318936467170715e-02 -1.846181985456496477e-04 -3.486892580986022949e-02 -9.902458637952804565e-03 3.994006663560867310e-02 2.685134485363960266e-02 8.161423727869987488e-03 1.415334083139896393e-02 2.116052992641925812e-02 -2.144361846148967743e-02 -1.166690140962600708e-02 -3.238783450797200203e-03 1.642057485878467560e-02 5.730478465557098389e-02 -2.577149681746959686e-02 -3.019016236066818237e-02 4.150756075978279114e-02 1.021776124835014343e-01 -2.894289558753371239e-03 -5.940783768892288208e-02 4.156559333205223083e-02 -6.895903497934341431e-02 -7.932914420962333679e-03 -7.228299044072628021e-03 1.651988923549652100e-02 -6.754946708679199219e-02 -4.010851681232452393e-02 6.300065666437149048e-03 -1.521482504904270172e-02
1.501919818110764027e-03 2.138571441173553467e-02 3.840477019548416138e-02 4.928754642605781555e-02 4.420823417603969574e-03 3.950859978795051575e-02 -3.367331996560096741e-02 5.348747968673706055e-02 1.634906977415084839e-02 -8.318829536437988281e-02 -2.472301945090293884e-02 5.156918894499540329e-03 1.640070229768753052e-02 -2.653794921934604645e-02 -3.663853928446769714e-02 -5.548796616494655609e-03 -2.432898245751857758e-02 5.491058342158794403e-03 -8.650094270706176758e-02 -2.986928261816501617e-02 7.800204306840896606e-02 2.069435268640518188e-02 -1.636614277958869934e-02 -9.252253174781799316e-02 4.627066478133201599e-02 5.810840986669063568e-03 1.555565185844898224e-02 1.339310873299837112e-02 -4.531017318367958069e-02 1.188248163089156151e-03 -2.364785410463809967e-02 2.822767943143844604e-02 8.031518757343292236e-02 2.947550825774669647e-02 3.686029464006423950e-02 1.003531273454427719e-02 -3.125609084963798523e-02 4.351591225713491440e-03 -3.391401097178459167e-02 -3.437035949900746346e-03 6.688674329780042171e-04 4.813249409198760986e-02 1.002141181379556656e-02 4.840386286377906799e-02 6.769435107707977295e-02 1.867995783686637878e-02 2.981688827276229858e-02 -3.117985278367996216e-02 4.107128083705902100e-02 -7.545103132724761963e-02 -4.955320432782173157e-02 9.089350700378417969e-03 -9.216599911451339722e-02 5.463910847902297974e-02 -3.083507996052503586e-03 3.386989003047347069e-03 1.745203323662281036e-02 6.195637211203575134e-02 -3.130739554762840271e-02 -4.665995389223098755e-02 -5.177492648363113403e-02 2.891617827117443085e-02 1.429806579835712910e-03 -2.820107899606227875e-02 2.888374775648117065e-02 -2.564704664109740406e-05 -5.064208805561065674e-02 -4.390347376465797424e-02 7.647065073251724243e-02 8.476427174173295498e-04 -3.409582376480102539e-02 -1.910400763154029846e-02 -7.383464276790618896e-02 3.462024033069610596e-02 -4.002767428755760193e-02 -2.009512856602668762e-02 9.698227047920227051e-02 -2.604864351451396942e-02 -1.663687266409397125e-02 3.964802995324134827e-02 7.894958555698394775e-02 1.015802770853042603e-01 -2.785135433077812195e-02 -2.190966531634330750e-02 -8.665515109896659851e-03 -2.251063846051692963e-02 3.751375526189804077e-02 -2.784627676010131836e-02 3.319514542818069458e-02 1.691415160894393921e-02 -1.895168796181678772e-02 -1.717195473611354828e-02 3.132373094558715820e-02 -3.220017254352569580e-02 -1.142421811819076538e-01 9.719285182654857635e-03 -1.266051176935434341e-02 -1.740486174821853638e-02 -3.958671167492866516e-02 -3.122777305543422699e-02 1.327485311776399612e-02 2.602735068649053574e-03 5.179840326309204102e-02 3.460529074072837830e-02 7.984753698110580444e-03 3.247433155775070190e-02 -4.580082744359970093e-02 -6.444038450717926025e-02 -8.470650762319564819e-03 3.484732657670974731e-02 -2.282810397446155548e-02 1.068895868957042694e-02 -5.279351025819778442e-04 2.450609346851706505e-03 7.624908350408077240e-03 -9.959311224520206451e-03 2.402560785412788391e-02 6.408117711544036865e-02 1.045599766075611115e-02 -7.731987535953521729e-02 5.119687691330909729e-02 3.770418092608451843e-02 -2.382840961217880249e-02 -3.904387354850769043e-02 1.282435003668069839e-02 6.512165069580078125e-02 2.346731536090373993e-02 -7.837723940610885620e-02 1.920494064688682556e-02 -3.119619563221931458e-02 1.503760181367397308e-02 -1.642314530909061432e-02 5.912587977945804596e-03 -4.377142060548067093e-03 1.633293926715850830e-02 -2.282642759382724762e-02 2.920411713421344757e-02 -2.859449014067649841e-02 -2.282765321433544159e-02 -2.155327238142490387e-02 -7.190018147230148315e-02 2.642295137047767639e-02 -3.945114463567733765e-02 -3.996141999959945679e-02 -6.485000997781753540e-02 1.625215518288314342e-03 5.184873938560485840e-02 -3.726338502019643784e-03 3.843747079372406006e-02 -4.932878073304891586e-03 2.677576802670955658e-02 1.150447595864534378e-02 -4.687363281846046448e-02 -2.533241920173168182e-02 -2.562597393989562988e-03 -3.191818948835134506e-03 -2.169230207800865173e-02 -5.208389461040496826e-02 9.220532956533133984e-04 -2.252346649765968323e-02 -2.082229405641555786e-02 -8.595833182334899902e-02 9.802114218473434448e-03 -1.061923801898956299e-02 2.023993432521820068e-02 4.971425980329513550e-02 9.675178676843643188e-03 2.374904789030551910e-02 5.281524732708930969e-02 -1.410540193319320679e-02 1.891284482553601265e-03 -6.019732356071472168e-02 2.831985615193843842e-02 -7.853297283872961998e-04 -7.517505437135696411e-02 9.683720767498016357e-03 -9.308074600994586945e-03 -2.155922353267669678e-02 -2.394361980259418488e-02 -7.741516456007957458e-04 1.718287542462348938e-02 -2.961483225226402283e-02 -3.213858231902122498e-02 -1.199874468147754669e-02 -4.150529578328132629e-02 4.560898989439010620e-02 -3.247004374861717224e-02 2.076305262744426727e-02 -1.175784878432750702e-02 -3.913221880793571472e-02 4.351856652647256851e-03 4.310615733265876770e-02 -4.345599189400672913e-02 5.736189708113670349e-02 2.453406574204564095e-03 5.965604260563850403e-02 -4.397438839077949524e-02 -3.284768015146255493e-02 7.148635387420654297e-02 4.523119330406188965e-02 1.580731756985187531e-02 2.275439165532588959e-02 1.197666954249143600e-02 3.546248003840446472e-02 -3.346401453018188477e-02 -5.236048623919487000e-02 2.635115198791027069e-02 -4.715529829263687134e-02 -1.112374104559421539e-02 9.090297855436801910e-03 7.799803465604782104e-02 -6.794016063213348389e-02 -5.832705646753311157e-02 -1.276542395353317261e-01 1.256034821271896362e-01 -1.517390646040439606e-02 2.505570650100708008e-02 2.034665048122406006e-01 1.356623694300651550e-02 5.922104790806770325e-02 -4.188961163163185120e-02 -8.072560280561447144e-02 1.245756354182958603e-02 -8.700040169060230255e-03 6.173146516084671021e-02 9.531210176646709442e-03 5.781432264484465122e-05 -7.052781432867050171e-02 -1.111309695988893509e-02 -8.028675615787506104e-02 2.831047587096691132e-02 5.491504073143005371e-02 -6.243086606264114380e-02 -1.688003353774547577e-02 4.595720674842596054e-03 -7.908300496637821198e-03 -5.672891810536384583e-02 -3.564768284559249878e-02 1.837687008082866669e-02 6.761829834431409836e-03 5.495220795273780823e-02 -3.029739484190940857e-02 -2.275453880429267883e-02 1.015314483083784580e-03 -2.989433705806732178e-04 1.611790619790554047e-02 -5.034366622567176819e-02 3.428917378187179565e-02 5.913047119975090027e-02 3.218359500169754028e-02 -1.319754868745803833e-02 8.631813339889049530e-03 1.751343347132205963e-02 -3.484256099909543991e-03 -1.551814749836921692e-02 5.078977346420288086e-02
4.601681977510452271e-02 5.667700618505477905e-02 -8.446669206023216248e-03 -6.199707835912704468e-02 1.054653991013765335e-02 2.874597208574414253e-03 2.081734314560890198e-02 2.025412395596504211e-02 -1.022059950628317893e-04 -2.371109835803508759e-02 -3.563067689538002014e-02 -1.493255700916051865e-02 1.785052940249443054e-02 -2.990708686411380768e-03 -8.412732183933258057e-02 6.604970246553421021e-02 7.824581116437911987e-03 -6.384716928005218506e-02 8.600962348282337189e-03 -4.090200737118721008e-02 -7.786909118294715881e-04 -5.926350504159927368e-02 -2.848643576726317406e-03 -3.811934962868690491e-02 1.585245877504348755e-02 1.272841822355985641e-03 1.078050956130027771e-02 3.321701660752296448e-02 2.803549868986010551e-03 -1.703092828392982483e-02 9.039784781634807587e-03 8.661390165798366070e-04 -9.037665091454982758e-03 4.675659537315368652e-02 -1.354972831904888153e-02 -2.488546259701251984e-02 -5.447157472372055054e-02 -4.618757218122482300e-02 4.003894980996847153e-03 -6.995897740125656128e-02 6.246675923466682434e-02 -3.165661124512553215e-03 -1.146415341645479202e-02 2.562538906931877136e-02 -8.694895356893539429e-02 -1.184372138231992722e-02 2.906462177634239197e-02 -2.570210397243499756e-02 -5.036540795117616653e-03 -2.842305926606059074e-03 -1.135747786611318588e-02 3.209939226508140564e-02 1.877682842314243317e-02 -7.954029366374015808e-03 9.536179713904857635e-03 3.500259295105934143e-02 -4.240296036005020142e-02 5.470857396721839905e-02 4.405456408858299255e-02 -2.402594685554504395e-02 -2.274689730256795883e-03 -7.795494515448808670e-03 8.938411250710487366e-03 -6.105959787964820862e-02 9.562187828123569489e-03 -6.304248422384262085e-02 -9.745032340288162231e-02 3.169267252087593079e-02 -1.733743213117122650e-02 1.291791256517171860e-02 -5.570977926254272461e-02 -5.464107263833284378e-03 -2.052027732133865356e-02 -3.066709905397146940e-04 -1.437364891171455383e-02 5.897314101457595825e-02 3.933180589228868484e-03 -2.671011909842491150e-02 3.942033648490905762e-02 -5.855333432555198669e-02 -1.229729503393173218e-03 -9.227015078067779541e-03 4.868485499173402786e-03 -1.449565403163433075e-02 -2.799363061785697937e-02 -4.155495762825012207e-02 1.928397454321384430e-02 -3.822441026568412781e-02 2.309730835258960724e-02 -1.601802930235862732e-02 1.617623493075370789e-02 -1.258904486894607544e-02 -8.785436861217021942e-03 6.215469446033239365e-03 8.324256166815757751e-03 -8.904238231480121613e-03 7.474947720766067505e-03 4.702583700418472290e-02 -2.595993503928184509e-02 -1.457051141187548637e-03 -8.320268243551254272e-03 7.752945748507045209e-06 -3.721579536795616150e-02 4.225352033972740173e-02 6.075500324368476868e-02 -3.014012239873409271e-02 -1.234845258295536041e-03 -2.072624117136001587e-02 2.504871413111686707e-02 3.546597063541412354e-02 6.083004176616668701e-03 -1.658636890351772308e-02 -3.881175536662340164e-03 5.170990154147148132e-02 -4.997593164443969727e-02 2.603283524513244629e-02 3.362113982439041138e-02 -2.032689005136489868e-02 -5.797534249722957611e-03 6.109416019171476364e-03 7.317806128412485123e-03 -5.771357938647270203e-02 2.070476301014423370e-02 -1.160560525022447109e-03 2.702280133962631226e-02 -2.106307633221149445e-02 1.509196218103170395e-02 2.503727562725543976e-02 4.108424857258796692e-02 5.992699787020683289e-02 4.405524581670761108e-02 -4.261612519621849060e-02 2.788784215226769447e-03 6.862840801477432251e-02 -4.368337802588939667e-03 -1.370588131248950958e-02 -1.574392803013324738e-02 -1.190426200628280640e-02 5.845404230058193207e-03 4.608516022562980652e-02 4.993773996829986572e-03 -9.417501278221607208e-03 5.151791125535964966e-02 1.275411155074834824e-02 6.518347654491662979e-03 -9.480194188654422760e-03 2.325363643467426300e-02 5.584782361984252930e-02 6.432629376649856567e-02 -6.189154926687479019e-03 -2.286313101649284363e-03 6.609262526035308838e-02 -1.497849542647600174e-02 -2.015945129096508026e-02 -1.791357435286045074e-02 -3.836094960570335388e-02 -5.121446400880813599e-02 -1.146767474710941315e-02 -1.270463340915739536e-03 -5.429544951766729355e-03 -1.164208445698022842e-02 -6.360468268394470215e-02 -9.290303289890289307e-02 4.595099389553070068e-02 9.119392186403274536e-02 4.478112980723381042e-02 3.665192052721977234e-02 1.486534439027309418e-02 -4.829506576061248779e-02 1.392202638089656830e-02 -1.194354426115751266e-02 5.259737744927406311e-02 -6.745008286088705063e-03 -1.876891939900815487e-03 -2.056867443025112152e-02 -5.402104579843580723e-04 3.908187896013259888e-02 -1.009480096399784088e-02 2.410018444061279297e-02 5.245728790760040283e-02 2.850173041224479675e-02 -4.354320093989372253e-02 2.357255853712558746e-02 3.025011345744132996e-02 1.160062011331319809e-02 -1.607552357017993927e-02 6.025664508342742920e-03 3.864038735628128052e-02 1.248953212052583694e-02 -5.039004236459732056e-02 -4.461582005023956299e-02 -2.643364854156970978e-02 2.691496908664703369e-02 -3.219461813569068909e-02 4.319880623370409012e-03 -7.122541218996047974e-02 -2.741029858589172363e-02 -5.231430754065513611e-02 5.271793901920318604e-02 -1.430851034820079803e-02 2.951542474329471588e-02 -3.386666998267173767e-02 1.513201091438531876e-02 -2.101657353341579437e-02 1.477399095892906189e-02 -8.063966035842895508e-02 3.767713904380798340e-03 5.020790919661521912e-02 1.895358413457870483e-02 -1.911352947354316711e-02 -3.717639669775962830e-02 5.063437297940254211e-02 1.299111731350421906e-02 -7.349523156881332397e-02 2.207763865590095520e-02 -1.104309596121311188e-02 1.990449056029319763e-02 -3.265402466058731079e-02 1.150507200509309769e-02 1.410458236932754517e-02 3.599321469664573669e-02 -5.840334668755531311e-02 -1.925848610699176788e-02 4.346032068133354187e-02 3.435342758893966675e-02 6.353788822889328003e-02 -6.921411957591772079e-03 1.432653144001960754e-02 -1.487941015511751175e-02 2.960807271301746368e-02 -2.767943218350410461e-02 3.187792375683784485e-02 -1.505163963884115219e-02 -1.846368983387947083e-02 -7.997498847544193268e-03 3.602389246225357056e-02 3.256849304307252169e-04 8.892981335520744324e-03 3.122957050800323486e-02 -4.131722822785377502e-02 1.415512245148420334e-02 3.189220651984214783e-02 3.074230393394827843e-03 -4.534486215561628342e-03 -6.829899549484252930e-02 2.901998348534107208e-02 3.107158839702606201e-02 2.607050817459821701e-03 -7.371084298938512802e-03 -4.668206349015235901e-02 1.395787671208381653e-02 2.818498760461807251e-02 -1.755295507609844208e-02 2.350388094782829285e-02 -3.586614131927490234e-02 -4.166561178863048553e-03
1.547094155102968216e-02 2.428779564797878265e-02 -1.516806334257125854e-02 3.428593650460243225e-02 1.679098606109619141e-02 -2.758064866065979004e-02 4.195924475789070129e-02 1.940986514091491699e-02 8.998776786029338837e-03 1.867467164993286133e-02 4.523406550288200378e-02 -1.758419536054134369e-02 1.190409064292907715e-02 4.282199777662754059e-03 -2.727503888309001923e-04 -1.413876470178365707e-02 -1.576817035675048828e-02 -1.467853877693414688e-02 8.126244880259037018e-03 -2.408235892653465271e-02 3.334307298064231873e-02 4.734175652265548706e-02 -1.520764175802469254e-02 -1.693133451044559479e-02 -3.046298027038574219e-02 5.561226047575473785e-03 -5.754620581865310669e-02 -8.174327202141284943e-03 -3.168307244777679443e-02 -4.223841056227684021e-02 2.365869842469692230e-02 -3.104754723608493805e-02 1.506590005010366440e-02 -7.700385153293609619e-02 -1.692923135124146938e-03 -4.562266170978546143e-03 -3.382508642971515656e-03 -8.131206035614013672e-03 1.278755161911249161e-02 -5.093048512935638428e-02 -6.966125220060348511e-04 -4.562232270836830139e-02 -1.236977428197860718e-02 -1.801485754549503326e-02 6.872106343507766724e-03 4.651235789060592651e-02 4.100427031517028809e-02 -1.711703650653362274e-02 -2.235462516546249390e-02 -1.947152987122535706e-02 -7.052557077258825302e-03 -3.182006999850273132e-02 -1.734839193522930145e-02 1.348063070327043533e-02 4.027922824025154114e-02 3.099067695438861847e-02 5.610549077391624451e-02 4.266193881630897522e-02 6.499752402305603027e-02 -2.687934786081314087e-02 2.878452464938163757e-02 1.166015281341969967e-03 -7.984410226345062256e-02 1.165162120014429092e-02 -1.297838869504630566e-03 4.799650982022285461e-02 -4.884083289653062820e-03 5.512418691068887711e-03 -1.595252752304077148e-02 4.819547384977340698e-02 5.423551425337791443e-02 5.289554130285978317e-03 -5.064626690000295639e-03 -3.967641387134790421e-03 2.197539992630481720e-02 -1.980926841497421265e-02 1.044363249093294144e-02 3.593560680747032166e-02 -9.994312189519405365e-03 5.780172999948263168e-03 3.105821087956428528e-02 -1.220357511192560196e-02 9.907371364533901215e-03 3.969996236264705658e-03 -8.529211627319455147e-04 2.348207123577594757e-02 2.278442122042179108e-02 -1.019733864814043045e-02 1.190497912466526031e-02 -3.167442232370376587e-02 3.014544956386089325e-02 3.856276627629995346e-03 3.974094055593013763e-03 1.031984668225049973e-02 -1.230088435113430023e-02 -1.759954169392585754e-02 -2.053059637546539307e-02 5.096471402794122696e-03 1.800077036023139954e-02 1.985535956919193268e-02 1.850452460348606110e-02 1.421870850026607513e-02 -3.522174805402755737e-02 -4.827901721000671387e-02 -6.971626076847314835e-03 -1.081227418035268784e-02 -4.413390532135963440e-02 5.818749591708183289e-02 -7.924051024019718170e-03 -1.068608602508902550e-03 -8.557462133467197418e-03 -3.956199623644351959e-03 -1.276901923120021820e-02 2.540438808500766754e-02 -2.148385718464851379e-02 -2.736163139343261719e-02 1.924692280590534210e-02 5.380777269601821899e-02 -3.700834512710571289e-02 -2.915737964212894440e-02 1.114411931484937668e-02 8.840460330247879028e-03 -7.787214126437902451e-03 -1.786082051694393158e-02 -2.423095889389514923e-02 -5.058806855231523514e-03 -4.782138392329216003e-02 1.066672336310148239e-02 9.897396899759769440e-03 3.997401893138885498e-02 -1.417717337608337402e-02 -2.968274988234043121e-02 2.015228010714054108e-02 -2.924196422100067139e-02 2.511148154735565186e-02 6.491068284958600998e-03 -3.273069113492965698e-02 6.826190277934074402e-03 -6.377188116312026978e-02 3.193720802664756775e-02 -6.481306161731481552e-03 6.940164137631654739e-03 -1.475216168910264969e-02 5.738562718033790588e-02 4.450640175491571426e-03 2.421831525862216949e-02 1.295814989134669304e-03 3.097462095320224762e-02 -2.940704813227057457e-03 1.021971274167299271e-02 -2.962086116895079613e-03 8.484642021358013153e-03 -1.268822886049747467e-02 1.932746381498873234e-03 2.248288597911596298e-03 2.174135297536849976e-04 -9.711939841508865356e-03 -3.915971517562866211e-02 2.045560255646705627e-02 -1.320983190089464188e-02 -9.894259274005889893e-03 1.457399316132068634e-02 -1.508557703346014023e-02 3.910610079765319824e-02 3.186319768428802490e-02 -3.326439857482910156e-02 6.757882889360189438e-03 -1.924609392881393433e-02 -4.557665903121232986e-03 -4.238250106573104858e-02 8.441502228379249573e-03 3.390287607908248901e-02 1.066891010850667953e-02 4.716267343610525131e-03 -3.842477221041917801e-03 -6.419240683317184448e-02 2.332461439073085785e-02 -2.436734922230243683e-02 -4.434941709041595459e-02 4.297151044011116028e-02 2.199115624534897506e-05 2.588764391839504242e-02 1.296073384582996368e-02 1.934693008661270142e-02 4.022520035505294800e-02 3.092114813625812531e-02 6.590228527784347534e-03 -2.064819075167179108e-02 -1.154759805649518967e-02 1.628944650292396545e-02 6.934127956628799438e-02 -8.586999028921127319e-03 1.205874420702457428e-02 -5.343604367226362228e-03 1.923250220715999603e-02 -6.180447060614824295e-03 -3.946584183722734451e-03 -2.824050607159733772e-03 1.722040586173534393e-02 1.052639540284872055e-02 1.894189789891242981e-02 -9.140620939433574677e-03 -1.639048196375370026e-02 3.323973156511783600e-03 -3.689037635922431946e-02 -3.050774894654750824e-02 -2.795960009098052979e-02 1.206169836223125458e-02 -1.698130159638822079e-03 -2.647954039275646210e-02 -3.898753318935632706e-03 -1.337319798767566681e-02 -2.436302788555622101e-02 2.581077441573143005e-02 -4.306937009096145630e-02 6.360109895467758179e-03 -2.352335490286350250e-02 1.679144450463354588e-03 -3.219848498702049255e-02 1.946352794766426086e-02 1.870723068714141846e-02 -5.978937447071075439e-02 1.252581551671028137e-02 4.477305337786674500e-03 1.170208025723695755e-02 -1.951800542883574963e-03 3.840427473187446594e-02 2.257967740297317505e-02 -1.216382812708616257e-02 -2.092926017940044403e-02 3.280305862426757812e-02 2.928220294415950775e-02 2.226837724447250366e-02 3.565318137407302856e-02 -2.930359449237585068e-03 -1.299160812050104141e-02 1.719090901315212250e-02 -5.198447406291961670e-02 4.085824266076087952e-02 3.540820628404617310e-02 1.679264754056930542e-02 1.541385985910892487e-02 1.660525798797607422e-02 1.307209115475416183e-02 5.082125216722488403e-02 -3.592398390173912048e-02 1.082366053014993668e-02 3.562253667041659355e-03 1.387228444218635559e-02 -1.173916459083557129e-02 2.217627502977848053e-02 -2.389403525739908218e-04 -3.135091066360473633e-02 -2.891272015403956175e-04 4.857572726905345917e-03 -1.857640035450458527e-02
2.221509441733360291e-02 -1.806992851197719574e-02 -2.870462648570537567e-02 3.851883485913276672e-02 4.035700112581253052e-02 -2.893763035535812378e-02 6.839819252490997314e-02 -1.045630499720573425e-02 -3.003352880477905273e-02 3.445605188608169556e-02 4.940719529986381531e-02 -2.905033528804779053e-02 -3.240507468581199646e-02 -1.386395597364753485e-04 -2.365246601402759552e-02 -1.178449019789695740e-02 3.905805200338363647e-02 1.182322651147842407e-01 3.067407384514808655e-02 1.864629238843917847e-02 7.013306021690368652e-02 6.513767689466476440e-02 1.138581708073616028e-02 -2.288440987467765808e-02 1.881033740937709808e-02 -3.674570471048355103e-02 2.602118812501430511e-02 -1.284107845276594162e-02 4.135607928037643433e-02 2.957622706890106201e-02 -1.294059678912162781e-02 1.241548545658588409e-02 -1.095586176961660385e-02 -3.710536286234855652e-02 3.230194374918937683e-02 -7.242932915687561035e-02 -5.282039567828178406e-02 1.944912411272525787e-02 -7.854531519114971161e-03 4.030041396617889404e-02 5.202911421656608582e-02 1.070435717701911926e-02 -5.104520544409751892e-02 2.030587196350097656e-02 -1.295659970492124557e-02 -3.842553356662392616e-03 -1.324929669499397278e-02 -9.349755197763442993e-02 8.092150092124938965e-03 1.135838776826858521e-02 4.074431583285331726e-02 -5.965567380189895630e-02 -5.863303784281015396e-03 4.211743175983428955e-02 2.238533692434430122e-03 -5.169912427663803101e-02 -2.364135347306728363e-02 -1.905860193073749542e-02 3.370308876037597656e-02 3.529351204633712769e-03 -2.190024405717849731e-02 -3.992810845375061035e-02 9.711300022900104523e-03 -5.003452301025390625e-02 -2.189383283257484436e-02 -1.127794943749904633e-02 2.473619394004344940e-02 -2.491194941103458405e-02 -2.170646004378795624e-02 4.983481485396623611e-04 1.794389262795448303e-02 -2.637826651334762573e-02 -9.554566442966461182e-02 3.313362970948219299e-02 6.875666440464556217e-04 7.261315360665321350e-03 1.913830265402793884e-02 -4.112088307738304138e-02 7.181126624345779419e-03 -5.538772791624069214e-02 -1.156032364815473557e-02 -3.675889223814010620e-02 -3.861869126558303833e-02 1.472122315317392349e-02 -2.896582148969173431e-02 4.654223844408988953e-02 3.709930554032325745e-02 1.624099351465702057e-02 4.230093583464622498e-02 -3.554737940430641174e-02 -8.880973607301712036e-02 -7.642281055450439453e-02 6.175020337104797363e-02 -6.031759455800056458e-02 2.414173819124698639e-02 -5.013021081686019897e-02 -1.810928806662559509e-02 -5.878229066729545593e-02 -6.288330256938934326e-02 -1.861788914538919926e-03 4.158880189061164856e-02 2.599787525832653046e-02 -2.919907867908477783e-02 4.399764537811279297e-02 2.315072342753410339e-02 -1.674976758658885956e-02 9.138813242316246033e-03 -2.377432584762573242e-02 3.417466953396797180e-02 4.962316155433654785e-02 -4.076284170150756836e-02 4.517141357064247131e-02 7.971765846014022827e-02 2.734794281423091888e-02 3.708585351705551147e-02 -2.229108102619647980e-02 -2.001708187162876129e-02 -4.242847487330436707e-02 -6.728412210941314697e-02 9.292203933000564575e-03 2.620134130120277405e-02 1.706524752080440521e-02 2.226574718952178955e-02 2.559754438698291779e-02 3.891316428780555725e-02 -2.081755734980106354e-02 2.174506522715091705e-02 -3.798048570752143860e-02 5.451771616935729980e-02 3.477158024907112122e-02 4.551844904199242592e-05 -1.180593390017747879e-02 -1.109875459223985672e-02 -1.908025890588760376e-02 -8.457275480031967163e-02 -1.286910381168127060e-02 -1.617386750876903534e-02 2.303176000714302063e-02 -2.277201600372791290e-02 1.053449977189302444e-02 1.839467883110046387e-02 -3.763803094625473022e-02 4.203412309288978577e-02 -2.427731640636920929e-02 1.811562664806842804e-02 -5.716184899210929871e-02 6.632435321807861328e-02 -2.558113820850849152e-02 2.181088551878929138e-03 7.510179188102483749e-03 -1.707884366624057293e-03 -1.793899759650230408e-02 7.021650206297636032e-03 -1.786922477185726166e-02 3.512831870466470718e-03 -2.146701514720916748e-02 5.174424499273300171e-02 4.145155847072601318e-02 -8.429373614490032196e-03 2.850572206079959869e-02 -1.013048812747001648e-01 -3.713110089302062988e-02 -1.143563538789749146e-02 3.987165167927742004e-02 -3.495775535702705383e-02 -2.614347264170646667e-02 3.751664981245994568e-02 -8.350294083356857300e-03 5.077677220106124878e-02 -1.965708099305629730e-02 -2.229637093842029572e-02 -2.800593152642250061e-02 1.619285903871059418e-02 2.687737904489040375e-02 1.281683426350355148e-02 -1.141650788486003876e-02 -4.195474833250045776e-02 -5.372450500726699829e-02 -6.138715893030166626e-02 1.432087924331426620e-02 1.362545043230056763e-02 -2.387540787458419800e-02 4.295700043439865112e-02 4.266193881630897522e-02 -2.899084798991680145e-02 3.428196068853139877e-03 8.140418678522109985e-03 1.012008041143417358e-01 -2.939104475080966949e-02 -2.482565864920616150e-02 -2.628554217517375946e-02 4.062506556510925293e-02 -8.195263892412185669e-02 -2.998344413936138153e-02 -4.253154993057250977e-02 2.219814620912075043e-02 1.363716553896665573e-03 2.283950522541999817e-02 -1.115802861750125885e-02 9.902268648147583008e-03 -2.488739229738712311e-02 -2.042143978178501129e-02 -1.320252753794193268e-02 5.550694186240434647e-03 -5.871473625302314758e-02 1.772103272378444672e-02 4.457291215658187866e-02 -2.305959351360797882e-02 -2.628992684185504913e-02 1.061697378754615784e-01 2.099790610373020172e-02 -4.842892289161682129e-03 -5.043879896402359009e-02 2.939311973750591278e-02 -2.629470825195312500e-02 7.180549204349517822e-02 -6.950437673367559910e-04 2.153594419360160828e-02 -2.803825959563255310e-02 -4.450432583689689636e-02 -1.201362721621990204e-02 -2.465789206326007843e-02 -5.424265190958976746e-02 4.610151425004005432e-02 3.289966285228729248e-02 -3.728244686499238014e-03 -7.163003087043762207e-02 -1.377137959934771061e-03 -1.333752647042274475e-03 7.316837552934885025e-03 -2.295575663447380066e-02 1.159023772925138474e-02 -5.151507630944252014e-02 -1.769004389643669128e-02 3.352171555161476135e-02 -1.193608343601226807e-02 -2.531710080802440643e-02 -3.671693801879882812e-02 -2.762748487293720245e-02 4.899590276181697845e-03 -5.057309195399284363e-02 -9.604385122656822205e-03 5.011989176273345947e-02 -6.366140395402908325e-02 -2.236799523234367371e-02 -1.255770679563283920e-02 -1.568985730409622192e-02 -5.786897236248478293e-05 1.328342780470848083e-02 -2.689758688211441040e-02 5.876853317022323608e-02 -8.968393318355083466e-03 -2.383244782686233521e-02 3.348575532436370850e-02 2.725462988018989563e-02 -5.062667652964591980e-03
-2.409498952329158783e-02 3.610840439796447754e-02 -7.427797466516494751e-02 -5.793045740574598312e-03 2.156048268079757690e-02 -2.602290362119674683e-02 2.745601534843444824e-02 -2.776775881648063660e-02 8.506269007921218872e-02 4.332919605076313019e-03 6.872801575809717178e-03 1.510274596512317657e-02 2.204832993447780609e-02 -6.846432387828826904e-02 2.211081795394420624e-03 -2.411179058253765106e-02 2.957599796354770660e-02 6.819321960210800171e-02 -1.370863639749586582e-03 1.939914561808109283e-02 -6.363254785537719727e-02 1.395630836486816406e-02 8.568742778152227402e-04 -4.938331618905067444e-02 2.776231244206428528e-02 -3.736717998981475830e-02 3.106428310275077820e-02 -1.865527778863906860e-02 -6.613555829972028732e-03 -4.947486333549022675e-03 -1.475817337632179260e-02 -1.360710151493549347e-02 7.046800106763839722e-02 1.447624247521162033e-02 1.300155837088823318e-02 -3.573628515005111694e-02 -1.420132257044315338e-02 -2.688769251108169556e-02 -7.949307910166680813e-04 7.168330997228622437e-02 5.007840320467948914e-02 -8.594470098614692688e-03 -5.888478830456733704e-02 -4.603122547268867493e-02 3.400054946541786194e-02 6.647256761789321899e-02 7.267428934574127197e-02 1.278927084058523178e-02 1.564792357385158539e-02 -3.769455850124359131e-02 3.865239396691322327e-02 4.356919601559638977e-02 -6.496664136648178101e-02 1.288507971912622452e-02 -5.579359130933880806e-04 3.865947714075446129e-03 -7.712236605584621429e-03 4.856405034661293030e-02 -3.988616541028022766e-02 -4.010717198252677917e-02 1.159948576241731644e-02 6.079855374991893768e-03 2.602562308311462402e-02 -4.027609154582023621e-02 -4.115628823637962341e-02 1.175294443964958191e-01 -3.019127622246742249e-02 8.371674339286983013e-04 1.227578707039356232e-02 1.949032396078109741e-02 9.378382936120033264e-03 2.319804765284061432e-02 -3.436557576060295105e-02 -4.109489545226097107e-02 -6.606282293796539307e-02 -5.286539345979690552e-02 -4.182386025786399841e-02 -3.237013518810272217e-02 4.328703507781028748e-02 3.134336089715361595e-03 3.412475809454917908e-02 -2.465210668742656708e-02 -9.347657673060894012e-03 4.754726961255073547e-02 -2.829796634614467621e-02 -2.096648514270782471e-02 -5.679168179631233215e-02 2.927774190902709961e-02 1.477525010704994202e-02 -5.928726866841316223e-02 -2.609292231500148773e-02 4.185797646641731262e-02 4.771921038627624512e-02 -4.601875320076942444e-02 -1.421513874083757401e-02 -1.822132430970668793e-02 -5.192567035555839539e-02 4.374485835433006287e-02 -9.241106919944286346e-03 4.293027450330555439e-04 -4.912853613495826721e-02 1.842834800481796265e-02 -2.713446505367755890e-02 -4.829117655754089355e-02 2.200962789356708527e-02 -4.052406549453735352e-02 1.760007813572883606e-02 3.492427989840507507e-02 2.689872123301029205e-02 -2.221317030489444733e-03 -3.560144081711769104e-02 1.603098399937152863e-02 2.175283618271350861e-02 -3.539103269577026367e-02 2.534472197294235229e-02 2.164267003536224365e-03 5.783406645059585571e-02 -7.696178555488586426e-02 7.569778710603713989e-03 -4.341304674744606018e-02 -5.156218633055686951e-02 1.175218634307384491e-02 -2.028265222907066345e-02 5.567414313554763794e-02 -1.158271357417106628e-02 -1.461177319288253784e-02 -3.918001800775527954e-02 3.965126723051071167e-02 4.431063774973154068e-03 -2.881291881203651428e-02 4.717179981525987387e-04 -2.717950567603111267e-02 3.760981559753417969e-02 1.206041872501373291e-02 -4.940799623727798462e-02 1.299185771495103836e-02 1.525347703136503696e-03 5.525425821542739868e-02 1.495232060551643372e-02 4.575645923614501953e-02 7.965946570038795471e-03 3.169464319944381714e-02 -2.693613292649388313e-03 1.395137747749686241e-03 -4.856591112911701202e-03 5.941405426710844040e-03 5.143716558814048767e-02 1.551886927336454391e-02 3.651992604136466980e-02 1.051077526062726974e-02 -4.231086000800132751e-02 -6.318677961826324463e-02 -5.189557559788227081e-04 -2.143882587552070618e-02 -4.790393635630607605e-03 2.241993322968482971e-02 -6.513421982526779175e-02 -4.072043299674987793e-02 -4.493007063865661621e-02 -4.472039267420768738e-02 -6.656912155449390411e-03 2.175606228411197662e-02 -2.674839645624160767e-02 -5.105105228722095490e-03 -1.605711877346038818e-02 -4.142586141824722290e-02 3.807801986113190651e-03 -5.223895981907844543e-02 -2.902964502573013306e-02 -5.433914810419082642e-02 6.880847271531820297e-03 3.302725031971931458e-02 2.096405997872352600e-02 3.266773372888565063e-02 6.383610516786575317e-02 2.715192548930644989e-02 -1.982452906668186188e-02 -8.057598024606704712e-02 5.180960148572921753e-02 -5.770354531705379486e-03 6.214920058846473694e-02 -3.759071603417396545e-02 -5.557147413492202759e-02 4.445036500692367554e-02 -2.703438140451908112e-02 -1.600953191518783569e-02 -3.296429291367530823e-02 1.870436966419219971e-02 -1.686168834567070007e-02 1.156840752810239792e-02 6.335931830108165741e-03 6.779164075851440430e-03 2.207313291728496552e-02 -1.911010220646858215e-02 -1.323481742292642593e-02 -3.954223543405532837e-02 1.795422472059726715e-02 7.430782075971364975e-03 3.545990213751792908e-02 7.351624965667724609e-02 -9.899359196424484253e-03 -3.300323337316513062e-02 1.423318497836589813e-02 2.827516570687294006e-02 1.169834099709987640e-02 8.859247900545597076e-03 -1.664876006543636322e-02 -2.462477236986160278e-02 4.163975361734628677e-03 -4.167077690362930298e-02 6.674615666270256042e-03 -1.287625264376401901e-02 -1.294555328786373138e-02 -1.659500040113925934e-02 2.414918132126331329e-02 5.781738553196191788e-03 2.744466438889503479e-02 8.819235954433679581e-04 -4.971205815672874451e-02 4.401900619268417358e-02 1.010771747678518295e-02 3.049381636083126068e-02 3.983436618000268936e-03 1.253008376806974411e-03 -5.090913176536560059e-02 -4.448330402374267578e-02 -4.124650359153747559e-02 3.694956889376044273e-03 1.124567259103059769e-02 3.864377364516258240e-02 -1.209901459515094757e-02 -2.619531191885471344e-02 -1.942991092801094055e-02 -1.260619261302053928e-03 1.446242822567000985e-04 -3.093590401113033295e-02 -5.992712453007698059e-03 2.489400468766689301e-02 2.935148589313030243e-02 -5.763171613216400146e-02 3.976806625723838806e-02 1.649412210099399090e-03 -3.868462517857551575e-02 6.188373267650604248e-02 -2.441370859742164612e-02 -5.019268020987510681e-03 4.450574517250061035e-02 7.353763282299041748e-02 3.470587730407714844e-02 -1.755931414663791656e-02 -8.003698289394378662e-02 -8.834896609187126160e-03 3.502425039187073708e-03 1.278618071228265762e-02 -5.119568854570388794e-02 -1.429334841668605804e-02
6.834128499031066895e-02 5.338888242840766907e-02 -7.414617389440536499e-02 -3.922347724437713623e-02 -3.520777449011802673e-02 -1.682458817958831787e-02 -3.507696464657783508e-02 -5.138996057212352753e-03 4.726266488432884216e-02 1.144492998719215393e-02 -5.290171829983592033e-04 3.885557502508163452e-02 5.661185830831527710e-02 1.596274040639400482e-02 2.400689758360385895e-02 6.060540676116943359e-03 -1.414191257208585739e-02 4.298625886440277100e-02 -4.226073157042264938e-03 -1.568234711885452271e-02 -1.673899777233600616e-02 -6.016856990754604340e-03 5.017642397433519363e-03 -8.380186744034290314e-03 5.635290592908859253e-02 3.676477447152137756e-02 -2.886531129479408264e-02 6.033918634057044983e-02 -4.651772230863571167e-02 -6.782868504524230957e-02 8.178696967661380768e-03 -2.437055483460426331e-02 2.264763787388801575e-02 1.249202806502580643e-02 1.269718725234270096e-02 -6.580263376235961914e-02 -3.443579189479351044e-03 -1.279540173709392548e-02 -2.740375883877277374e-02 -4.192508012056350708e-02 -2.245711721479892731e-02 -2.424552105367183685e-02 -9.273563325405120850e-02 -1.457090303301811218e-02 4.529875889420509338e-02 1.949419826269149780e-02 -1.442650146782398224e-02 1.796770654618740082e-02 -3.451851429417729378e-03 -8.188157528638839722e-02 -3.084303624927997589e-02 5.314453039318323135e-03 -4.337414726614952087e-02 4.991310089826583862e-02 -1.892088912427425385e-02 -2.352334186434745789e-02 4.497648775577545166e-02 -4.583897441625595093e-02 -1.774581335484981537e-02 2.103117480874061584e-02 1.448121294379234314e-02 -5.422871559858322144e-02 -2.901138365268707275e-02 -6.121476367115974426e-02 3.258237242698669434e-02 2.065471373498439789e-02 1.337438542395830154e-02 -6.740340031683444977e-03 9.921190328896045685e-03 -3.992001712322235107e-02 2.417081780731678009e-02 3.428705385886132717e-04 -6.205556914210319519e-02 5.052070692181587219e-02 -2.225041575729846954e-02 -1.327536068856716156e-03 -1.642910577356815338e-02 2.138699777424335480e-02 2.141253836452960968e-02 1.271753385663032532e-02 -4.402026906609535217e-02 -3.039404517039656639e-03 -3.874528780579566956e-02 2.163422293961048126e-02 -3.624452650547027588e-02 9.126976877450942993e-02 2.672207355499267578e-02 -4.520596936345100403e-02 -3.666392993181943893e-03 2.256542444229125977e-02 -6.491036619991064072e-03 -2.808851376175880432e-02 -2.083273977041244507e-02 1.648533530533313751e-02 -6.280861049890518188e-02 2.082962356507778168e-02 -1.818863488733768463e-02 -4.471944272518157959e-02 -3.293669596314430237e-02 -4.835642501711845398e-02 1.872089318931102753e-02 4.502954334020614624e-02 4.176355898380279541e-02 -2.799276262521743774e-02 2.574601955711841583e-02 -1.358040422201156616e-02 -1.476835738867521286e-02 -2.598563674837350845e-03 1.479191519320011139e-02 -7.787621766328811646e-02 3.524821251630783081e-02 6.854063272476196289e-02 6.484611425548791885e-03 -7.380259037017822266e-02 1.910203881561756134e-02 2.207893878221511841e-03 2.806275896728038788e-02 4.493360593914985657e-02 -2.155815437436103821e-02 -2.019091276451945305e-03 -3.038243204355239868e-02 4.014047794044017792e-03 -5.257742106914520264e-02 6.188520416617393494e-02 -1.497349608689546585e-02 -1.530130952596664429e-02 1.976349391043186188e-02 6.011088937520980835e-02 -4.039805009961128235e-02 -5.047198012471199036e-02 -6.378976162523031235e-03 1.763838902115821838e-02 3.291336074471473694e-02 -1.841358281672000885e-02 5.768045317381620407e-03 8.348345756530761719e-03 -5.241158418357372284e-03 4.159221053123474121e-02 -2.964513562619686127e-02 1.063845586031675339e-02 -1.800956018269062042e-02 2.703650621697306633e-03 -2.136915922164916992e-02 -9.986040182411670685e-03 2.521866699680685997e-04 -5.568106845021247864e-02 -9.614281356334686279e-03 5.420261062681674957e-03 4.031792283058166504e-02 -2.905164472758769989e-02 2.602642960846424103e-02 4.134729504585266113e-02 -5.802659690380096436e-02 -7.724000513553619385e-02 -3.302953392267227173e-02 4.627630114555358887e-03 -5.151959881186485291e-02 -2.583159320056438446e-02 -4.491696879267692566e-02 -7.304389774799346924e-02 -1.384540945291519165e-01 -4.290799610316753387e-03 2.068741060793399811e-02 -8.292266167700290680e-03 1.083893775939941406e-01 -3.719765692949295044e-02 2.737271413207054138e-02 -1.459898240864276886e-02 -4.133936090511269867e-05 5.064862966537475586e-02 3.808062896132469177e-02 1.523149386048316956e-02 1.699436083436012268e-02 6.235036998987197876e-04 -1.371408719569444656e-02 1.879296451807022095e-02 -5.822027102112770081e-02 -6.181363388895988464e-02 -2.379098534584045410e-02 -9.066789411008358002e-03 1.095286309719085693e-01 -2.903103269636631012e-02 -6.347034126520156860e-02 -6.289539393037557602e-03 1.767450757324695587e-02 -4.987234249711036682e-02 -4.184413701295852661e-02 -2.772120945155620575e-02 4.836635291576385498e-02 2.799016889184713364e-03 4.215001314878463745e-02 -9.253446757793426514e-02 4.309637844562530518e-02 -3.543055430054664612e-02 1.946868747472763062e-02 -5.131789017468690872e-03 -3.035996668040752411e-02 3.730406239628791809e-02 2.005767263472080231e-02 -6.246876902878284454e-03 1.131478548049926758e-01 -1.405459456145763397e-02 -4.903247207403182983e-02 5.019515380263328552e-02 4.517918080091476440e-02 1.818925724364817142e-03 2.729258313775062561e-02 -2.231300435960292816e-02 -9.398641064763069153e-03 -5.550872534513473511e-02 -2.289242856204509735e-02 1.558401156216859818e-02 -2.103422395884990692e-02 -2.797622792422771454e-02 -9.167421609163284302e-03 -7.417334616184234619e-02 4.175409674644470215e-02 -2.002336643636226654e-02 -7.079652696847915649e-02 -4.957675188779830933e-02 -1.084825140424072742e-03 -2.203632146120071411e-03 4.544705618172883987e-03 -7.652054540812969208e-03 1.073201522231101990e-01 1.162092434242367744e-03 -7.194495201110839844e-02 2.571669220924377441e-02 1.654779538512229919e-02 3.290201723575592041e-02 7.149218581616878510e-03 -3.424845170229673386e-03 -3.337312117218971252e-02 2.654745429754257202e-02 1.980299875140190125e-02 5.836267769336700439e-02 6.863125599920749664e-03 -4.719259589910507202e-02 7.151696365326642990e-03 6.827763281762599945e-03 -5.249146372079849243e-02 -6.973034888505935669e-02 -5.499551072716712952e-02 -5.831909552216529846e-02 -2.607927098870277405e-02 -4.482731595635414124e-02 -1.303928345441818237e-02 -6.601599510759115219e-03 -1.244942564517259598e-02 8.850620687007904053e-02 -2.191469818353652954e-02 4.051615949720144272e-03 1.419971138238906860e-02 -7.891815900802612305e-02 -6.088818609714508057e-02 -4.320170846767723560e-04
-1.446282677352428436e-02 3.414166346192359924e-02 1.306936983019113541e-02 -3.342105820775032043e-02 -6.156544387340545654e-02 3.497803211212158203e-02 1.411559619009494781e-02 -6.881865113973617554e-02 -6.731750909239053726e-03 -2.955404808744788170e-03 -1.419300306588411331e-02 -1.921145804226398468e-02 9.279703348875045776e-02 -2.170876413583755493e-02 -4.809717647731304169e-03 -2.291719987988471985e-02 -2.216583676636219025e-02 1.003382145427167416e-03 2.640703320503234863e-02 1.810987479984760284e-02 2.728926762938499451e-02 -3.043788950890302658e-03 2.561931032687425613e-03 -2.722118422389030457e-02 6.748528033494949341e-02 1.757691614329814911e-02 2.584082260727882385e-02 2.001725509762763977e-02 -1.070483215153217316e-02 3.573546558618545532e-02 -4.716611281037330627e-02 7.260122802108526230e-03 2.803082019090652466e-02 2.833840437233448029e-03 8.090959489345550537e-02 3.605908714234828949e-03 2.949275448918342590e-02 1.055427715182304382e-01 1.188551308587193489e-03 -2.625958248972892761e-02 -4.800217971205711365e-02 -2.578563988208770752e-02 -3.724627569317817688e-02 -5.604214966297149658e-02 3.211524337530136108e-02 2.696788683533668518e-02 9.558206424117088318e-03 4.515955597162246704e-02 -1.773957908153533936e-02 -6.585615128278732300e-02 -2.280853129923343658e-02 -3.728976473212242126e-02 -2.040584571659564972e-02 -1.271565258502960205e-02 -1.124387420713901520e-02 -1.668953150510787964e-02 -6.323829293251037598e-04 6.603584438562393188e-02 5.608917400240898132e-02 -9.262588806450366974e-03 -1.908024400472640991e-02 1.785862445831298828e-02 1.737984828650951385e-02 -3.132811281830072403e-03 -7.367541547864675522e-03 -3.805933520197868347e-02 -1.397732272744178772e-02 -3.537542419508099556e-03 4.536801576614379883e-02 6.435426417738199234e-03 1.889012008905410767e-02 -5.801365710794925690e-03 4.272764548659324646e-02 -1.044165529310703278e-02 2.663159742951393127e-02 -6.842931360006332397e-02 1.726411748677492142e-03 -9.746336936950683594e-02 1.268793176859617233e-02 -8.402424864470958710e-03 4.604343697428703308e-02 -3.822851460427045822e-03 2.439210005104541779e-02 -3.020580299198627472e-02 -4.887388274073600769e-02 5.102230608463287354e-02 -6.560958921909332275e-02 -4.937802627682685852e-02 4.279560875147581100e-03 -1.081047020852565765e-02 -1.134473923593759537e-02 -9.744293987751007080e-03 -1.010531443171203136e-03 4.201330302748829126e-04 -3.217601915821433067e-03 5.408976972103118896e-02 -7.588728517293930054e-02 3.504409641027450562e-02 -3.759870678186416626e-02 -1.158459112048149109e-01 2.840918675065040588e-02 5.614006891846656799e-02 4.119026288390159607e-02 -1.443651597946882248e-02 2.446478419005870819e-02 -1.364330481737852097e-02 7.346697151660919189e-03 8.464850485324859619e-03 4.452566057443618774e-02 -1.721961773000657558e-03 1.799180731177330017e-02 6.777478009462356567e-02 -1.662564650177955627e-02 -4.675730306189507246e-04 6.895629316568374634e-02 1.965090446174144745e-02 -1.181536447256803513e-02 2.293053083121776581e-02 -2.221540780737996101e-03 2.265163697302341461e-03 8.510029874742031097e-03 -5.547314509749412537e-02 2.443071827292442322e-02 8.260580897331237793e-02 -1.664082519710063934e-02 -5.115994717925786972e-03 5.353181622922420502e-03 5.863042175769805908e-02 4.919511079788208008e-02 -3.061631880700588226e-02 -2.501877397298812866e-02 2.272887900471687317e-02 -1.784693077206611633e-02 -1.356595195829868317e-02 -4.075188189744949341e-02 9.877952933311462402e-02 -5.028121545910835266e-02 9.114598482847213745e-02 2.968812175095081329e-02 2.226632833480834961e-02 -2.721872366964817047e-02 -1.976106315851211548e-02 -2.721173455938696861e-03 6.703722476959228516e-02 -6.684462726116180420e-02 -1.497932476922869682e-03 -4.000033810734748840e-02 -3.072906099259853363e-02 2.123240381479263306e-02 3.122783266007900238e-02 5.088333040475845337e-02 9.673719853162765503e-02 -6.578813493251800537e-02 -9.731201454997062683e-03 9.914056397974491119e-03 -2.469086088240146637e-02 -4.864844307303428650e-02 -1.847342215478420258e-02 8.258953690528869629e-03 1.760287024080753326e-02 4.978441447019577026e-02 2.351048402488231659e-02 4.325724020600318909e-02 8.295774459838867188e-03 -4.179165512323379517e-02 5.594583600759506226e-02 1.967935822904109955e-02 -4.358226433396339417e-02 6.267116963863372803e-02 -1.894495449960231781e-02 -5.162636563181877136e-02 -3.231659159064292908e-02 1.958462409675121307e-02 -1.937213167548179626e-02 1.559936255216598511e-02 -6.572201102972030640e-02 1.011695340275764465e-02 2.291613782290369272e-04 2.145449072122573853e-02 -7.396474480628967285e-03 2.396895363926887512e-02 -2.970752678811550140e-02 -1.656184718012809753e-02 2.800129726529121399e-02 -4.261510446667671204e-02 -3.735090792179107666e-02 1.854034699499607086e-02 -1.587384194135665894e-02 -5.229601636528968811e-02 2.274140901863574982e-02 5.704149603843688965e-02 -1.430436223745346069e-02 -4.437371157109737396e-03 3.818000108003616333e-02 -4.804638028144836426e-02 4.334503039717674255e-02 -1.797583140432834625e-02 -1.931222714483737946e-02 -1.515397150069475174e-02 -1.533104386180639267e-02 -5.294854193925857544e-02 -1.401904784142971039e-02 3.958315774798393250e-02 6.567285954952239990e-02 4.237196594476699829e-02 -5.423288326710462570e-03 7.221277058124542236e-02 -2.462794631719589233e-02 -1.578852906823158264e-02 -7.464125752449035645e-02 4.186671972274780273e-02 -2.299014246091246605e-03 2.433278830721974373e-03 -4.071865603327751160e-02 -2.734170295298099518e-03 -1.227735634893178940e-02 2.952071279287338257e-02 -3.473865240812301636e-02 -2.529584430158138275e-02 5.535206757485866547e-03 -6.333874166011810303e-02 -5.365463346242904663e-02 -5.504138022661209106e-02 -1.992069557309150696e-02 -5.573928728699684143e-02 1.878596656024456024e-02 -2.927662618458271027e-02 1.150320656597614288e-02 -2.335586957633495331e-02 1.228432287462055683e-03 2.301082015037536621e-02 -7.708583492785692215e-03 3.369230777025222778e-02 -2.125037834048271179e-02 6.881269067525863647e-02 2.988973073661327362e-02 8.720520138740539551e-02 8.538129925727844238e-02 -1.144031714648008347e-02 -7.036009430885314941e-02 -4.167374968528747559e-02 2.052180469036102295e-02 6.207211315631866455e-02 -5.005989968776702881e-02 2.769045718014240265e-02 6.931366026401519775e-02 2.621580287814140320e-02 -5.189310386776924133e-02 7.888631522655487061e-02 6.971610337495803833e-02 1.497223414480686188e-02 1.883117295801639557e-02 -2.454779483377933502e-02 3.128583077341318130e-03 2.577992901206016541e-02 -3.648079186677932739e-02
1.701080054044723511e-02 -1.478335168212652206e-02 -3.276711329817771912e-02 1.094193081371486187e-03 -7.695142179727554321e-02 1.393259782344102859e-02 2.918068766593933105e-01 -3.774760756641626358e-03 8.997365948744118214e-04 -1.506667863577604294e-02 8.214630186557769775e-03 9.938552975654602051e-03 -9.493849240243434906e-03 7.149332202970981598e-03 -7.456161081790924072e-02 1.298593706451356411e-03 -9.215534664690494537e-03 4.763962235301733017e-03 1.929518394172191620e-02 1.301331631839275360e-02 1.476780232042074203e-02 -2.135952934622764587e-03 3.736885264515876770e-03 -3.201555460691452026e-02 1.601201220182701945e-04 -2.826286479830741882e-02 -4.076124727725982666e-02 -1.765008270740509033e-02 6.286326330155134201e-03 -3.847491741180419922e-02 -1.870429515838623047e-02 3.114279359579086304e-02 -5.759638734161853790e-03 3.854056587442755699e-03 -2.392853237688541412e-02 -6.737577915191650391e-02 -2.366069704294204712e-02 6.348671019077301025e-02 -8.017084561288356781e-03 -7.963240146636962891e-03 -1.381932990625500679e-03 -5.939729884266853333e-02 -9.760679095052182674e-04 7.814256101846694946e-02 1.427108538337051868e-03 -7.646474987268447876e-02 1.164910104125738144e-02 -3.666179999709129333e-02 9.268408757634460926e-05 -1.338310656137764454e-03 1.659377664327621460e-02 -1.054317876696586609e-02 2.386870607733726501e-02 3.556070476770401001e-02 3.994125872850418091e-02 -2.147202938795089722e-02 -8.123739063739776611e-02 2.635118924081325531e-02 4.400635138154029846e-02 1.253817975521087646e-02 2.743650786578655243e-02 -3.201001137495040894e-02 -2.715844660997390747e-02 -3.282865881919860840e-02 -1.877250149846076965e-02 -2.057047002017498016e-02 4.656239226460456848e-02 -2.731012552976608276e-02 1.908568665385246277e-02 -2.165779098868370056e-02 3.113300539553165436e-03 6.236830260604619980e-03 -3.753167763352394104e-02 3.921454399824142456e-02 -1.801625080406665802e-02 1.210844889283180237e-02 -2.995378151535987854e-02 2.186012640595436096e-02 1.699391752481460571e-02 -1.997081376612186432e-02 -1.674203760921955109e-02 -2.644449286162853241e-02 -8.889015763998031616e-03 -1.053792238235473633e-02 2.884695492684841156e-02 2.444284269586205482e-03 -4.194167442619800568e-03 5.571074318140745163e-03 -5.574397370219230652e-02 1.296228263527154922e-02 -4.104394093155860901e-02 2.834207378327846527e-03 1.602067984640598297e-02 8.670937269926071167e-03 3.262960165739059448e-02 -5.267374217510223389e-02 -1.892951875925064087e-02 3.548042103648185730e-02 -5.561568588018417358e-02 6.798685342073440552e-02 2.271727845072746277e-02 5.476821959018707275e-02 -5.472860112786293030e-02 -2.063092961907386780e-02 2.051644772291183472e-02 -4.340754356235265732e-03 -2.386112883687019348e-02 -1.249742694199085236e-02 -2.242867834866046906e-03 1.553527265787124634e-02 -3.485780581831932068e-02 3.793885558843612671e-02 1.357517857104539871e-02 3.187755867838859558e-02 -1.311407331377267838e-02 3.465783596038818359e-02 5.077358335256576538e-03 4.047504067420959473e-02 7.925185561180114746e-02 -3.052069060504436493e-02 1.101602520793676376e-02 -3.484147787094116211e-02 -5.593419075012207031e-03 3.273564204573631287e-02 1.065592747181653976e-02 2.222454175353050232e-02 -1.437798887491226196e-02 -7.783610373735427856e-03 4.604365304112434387e-02 1.247763540595769882e-02 -9.484586305916309357e-03 1.724399812519550323e-02 1.104321982711553574e-02 1.133630797266960144e-02 -5.571455229073762894e-03 -1.204856019467115402e-02 8.533436805009841919e-02 -3.390014544129371643e-02 -7.908048108220100403e-03 -2.625259570777416229e-02 -8.856344968080520630e-03 2.519799768924713135e-02 5.256645008921623230e-02 -1.626196689903736115e-02 -1.900373399257659912e-02 8.969287388026714325e-03 -8.941478095948696136e-03 2.067500352859497070e-02 -4.700958728790283203e-02 -6.894945353269577026e-02 -4.828410223126411438e-02 9.125959128141403198e-02 -2.968593128025531769e-02 3.961401060223579407e-03 -6.521821022033691406e-03 2.236693166196346283e-02 7.049034815281629562e-03 -5.662304162979125977e-02 -2.702349051833152771e-02 2.450732048600912094e-03 -3.043035604059696198e-02 -5.904840771108865738e-03 2.841526269912719727e-02 1.051517874002456665e-01 4.134923964738845825e-02 1.934942789375782013e-02 5.028255283832550049e-03 7.350292056798934937e-02 -1.028716377913951874e-02 -6.252495944499969482e-02 -7.871019653975963593e-03 -8.723794482648372650e-03 4.578766971826553345e-02 2.631700225174427032e-02 -2.752965688705444336e-02 -1.485582441091537476e-02 3.445390379056334496e-03 4.228730499744415283e-02 3.821844607591629028e-02 6.930528581142425537e-02 -1.977383345365524292e-02 1.959050819277763367e-02 -1.391689729643985629e-04 8.179278112947940826e-03 1.690290868282318115e-01 -1.384209003299474716e-02 -6.902698427438735962e-02 5.549176596105098724e-03 -4.667657241225242615e-02 2.096225880086421967e-02 -4.790592193603515625e-02 3.268710570409893990e-03 -5.778364138677716255e-04 -5.336970556527376175e-03 -7.417698949575424194e-02 7.538550067692995071e-03 7.839725911617279053e-02 1.421279273927211761e-02 -5.503702443093061447e-03 -8.892576210200786591e-03 3.421025350689888000e-02 -4.803977441042661667e-03 4.834948107600212097e-02 3.885892033576965332e-02 -6.896731257438659668e-02 -1.208925503306090832e-03 9.068192914128303528e-03 6.217094138264656067e-03 -1.790008880198001862e-02 -2.674572728574275970e-02 9.065392427146434784e-03 -4.499694798141717911e-03 6.200887262821197510e-03 -2.952915802597999573e-02 -3.921765461564064026e-02 -1.630351319909095764e-02 5.809903889894485474e-02 -5.015124380588531494e-02 -4.005427658557891846e-02 9.550540125928819180e-04 -3.997075930237770081e-02 -1.798142492771148682e-02 -3.128770366311073303e-02 -6.617815699428319931e-03 -1.515983045101165771e-01 1.412290520966053009e-02 -4.726392030715942383e-02 8.209128864109516144e-03 -5.873027257621288300e-03 -9.594431146979331970e-03 -6.220084149390459061e-03 1.183427125215530396e-02 -8.550922386348247528e-03 -1.256952807307243347e-02 7.098571956157684326e-02 -4.166916385293006897e-02 1.750434935092926025e-02 6.876902654767036438e-03 -4.942575842142105103e-02 -2.789858169853687286e-02 -1.942587271332740784e-02 1.725800484418869019e-01 -2.859991602599620819e-02 -3.522817790508270264e-02 7.139553874731063843e-02 -2.511981129646301270e-02 -3.342215716838836670e-02 7.543279975652694702e-02 9.104480035603046417e-03 -7.285924255847930908e-02 -6.480333954095840454e-02 -2.161387121304869652e-03 4.249275103211402893e-02 3.236829861998558044e-02 2.366611734032630920e-02 -2.708314685150980949e-03
4.175489768385887146e-02 3.065003268420696259e-02 1.334986239671707153e-01 -3.453280404210090637e-02 -1.466443669050931931e-02 6.201486289501190186e-02 1.634079776704311371e-02 4.261286556720733643e-02 4.527431726455688477e-02 3.480537608265876770e-02 6.112865731120109558e-02 -8.229656144976615906e-03 -7.667143642902374268e-02 3.527030348777770996e-02 -7.210560142993927002e-02 2.477316744625568390e-02 -5.018395837396383286e-03 -2.057665586471557617e-02 6.069535762071609497e-02 9.508616477251052856e-02 -3.737855702638626099e-02 1.713962852954864502e-02 5.006351042538881302e-03 -4.479065537452697754e-02 4.747957363724708557e-02 4.572751373052597046e-02 1.439177081920206547e-03 7.057357579469680786e-02 6.250735372304916382e-02 4.392843693494796753e-02 -7.052710652351379395e-02 1.620747707784175873e-02 -3.126022219657897949e-02 1.954806502908468246e-03 -4.395233932882547379e-03 -3.789703920483589172e-02 -2.055641263723373413e-03 7.317066937685012817e-02 -1.171142905950546265e-01 -7.198403030633926392e-02 -1.876359991729259491e-02 6.675371527671813965e-02 -1.969820074737071991e-02 1.908993907272815704e-02 -2.282697893679141998e-02 -2.654043771326541901e-02 5.413652211427688599e-02 4.363762587308883667e-02 2.863713912665843964e-02 -9.490502625703811646e-02 1.038549244403839111e-01 2.881821477785706520e-03 -1.110134180635213852e-02 6.009050831198692322e-02 3.936901316046714783e-02 7.879748940467834473e-02 1.657008007168769836e-02 1.111517380923032761e-02 2.002267912030220032e-02 -1.899372041225433350e-02 1.859341934323310852e-02 -3.272386034950613976e-03 9.022794663906097412e-03 -3.833323484286665916e-03 1.319199800491333008e-02 1.759202964603900909e-02 -1.839966326951980591e-02 7.964001595973968506e-02 2.011075988411903381e-02 2.720554545521736145e-02 4.539128765463829041e-02 -4.583876114338636398e-03 3.642327338457107544e-02 5.222867801785469055e-02 -9.437208063900470734e-03 4.153711721301078796e-02 3.904549032449722290e-02 3.253497183322906494e-02 1.755603589117527008e-02 3.855397924780845642e-03 -5.848814174532890320e-02 3.491085395216941833e-02 2.266569808125495911e-02 -8.252096362411975861e-03 -6.102048978209495544e-02 -4.093718156218528748e-02 -1.174967829138040543e-02 -6.295422464609146118e-02 4.233309626579284668e-02 4.684693738818168640e-02 7.045625150203704834e-02 2.453110925853252411e-02 4.832843318581581116e-02 -2.661199495196342468e-02 4.182757064700126648e-02 2.514671534299850464e-02 -2.708642045035958290e-03 6.449212878942489624e-02 -1.046867817640304565e-01 -3.788697347044944763e-02 4.635777696967124939e-02 -6.795180495828390121e-03 -5.553989112377166748e-02 3.220073133707046509e-02 7.678545266389846802e-02 -5.562559515237808228e-02 -1.125847920775413513e-02 7.243072986602783203e-02 8.190058171749114990e-02 7.163999229669570923e-02 1.161724049597978592e-02 -4.703739657998085022e-03 7.368683069944381714e-02 -4.178554192185401917e-02 -1.466587837785482407e-02 -3.458303958177566528e-02 1.230318378657102585e-02 2.995774522423744202e-02 3.045628406107425690e-02 -5.906853824853897095e-02 -8.876849897205829620e-03 1.166868582367897034e-02 -6.135975942015647888e-02 -4.687736183404922485e-02 -1.449905242770910263e-02 -2.334617637097835541e-02 1.140408292412757874e-01 1.476034801453351974e-02 2.812883816659450531e-02 2.315996959805488586e-02 -7.158055901527404785e-02 5.119195207953453064e-02 4.817906022071838379e-02 6.819187849760055542e-02 4.376262053847312927e-02 1.663233898580074310e-02 7.584104780107736588e-03 1.673319377005100250e-02 7.808472961187362671e-02 -4.234179109334945679e-02 -2.854871330782771111e-03 3.725435212254524231e-02 3.750840574502944946e-02 2.907969290390610695e-03 -1.162570342421531677e-01 6.317991763353347778e-02 4.368422180414199829e-02 -1.162158977240324020e-02 2.458681538701057434e-02 -2.655853889882564545e-02 4.606319218873977661e-02 2.372834458947181702e-02 -1.533738970756530762e-01 4.335847869515419006e-02 -1.222058236598968506e-01 5.593483150005340576e-02 3.465925902128219604e-02 -7.229034602642059326e-02 6.389605253934860229e-02 -3.045091964304447174e-02 2.746548503637313843e-02 -1.232968736439943314e-02 -3.190139308571815491e-02 -3.276070347055792809e-03 2.425649948418140411e-02 -6.121311336755752563e-03 3.725133463740348816e-02 9.458651766180992126e-03 1.164221856743097305e-02 2.419288456439971924e-02 -4.851432517170906067e-02 7.814418524503707886e-03 -9.744444489479064941e-02 4.629380255937576294e-02 3.037582337856292725e-02 -2.725023962557315826e-02 1.684701442718505859e-02 -6.681423634290695190e-02 3.592900186777114868e-02 2.647212240844964981e-03 8.798538707196712494e-03 3.718481212854385376e-02 2.323805913329124451e-02 9.288918226957321167e-02 1.344543322920799255e-02 -3.370258957147598267e-02 -5.144234001636505127e-02 6.843356043100357056e-02 -8.922186493873596191e-02 -4.179801046848297119e-02 -2.099086716771125793e-02 2.788643166422843933e-02 5.739940330386161804e-02 -4.561234638094902039e-02 3.627875074744224548e-02 9.919054806232452393e-03 -8.422244340181350708e-02 6.199982017278671265e-02 -2.447295933961868286e-02 -4.908079281449317932e-02 6.653412431478500366e-02 6.590011180378496647e-04 4.169406369328498840e-02 -5.842288583517074585e-02 4.935928434133529663e-02 -3.416358260437846184e-03 -5.167520418763160706e-02 -6.449601799249649048e-02 2.947685774415731430e-03 -2.401694282889366150e-02 -5.935736745595932007e-02 1.899030059576034546e-02 1.797591336071491241e-02 -2.997913211584091187e-02 -3.346349298954010010e-02 7.938093505799770355e-03 -1.320170331746339798e-02 -5.447200499475002289e-03 -5.838953889906406403e-03 4.925505071878433228e-02 -1.068307682871818542e-01 -3.629290685057640076e-02 6.667231209576129913e-03 -8.900680579245090485e-03 -3.552163392305374146e-02 -1.457060314714908600e-02 3.012833930552005768e-02 5.501864850521087646e-02 3.563974425196647644e-02 2.709706127643585205e-02 -4.611136764287948608e-02 8.137980103492736816e-02 -1.874052104540169239e-03 1.377575099468231201e-02 -3.054255619645118713e-02 1.470203232020139694e-02 1.281632035970687866e-01 -2.064369618892669678e-02 1.340998113155364990e-01 2.155616134405136108e-02 1.935096271336078644e-02 7.361064106225967407e-02 6.031173840165138245e-02 1.007565706968307495e-01 1.914994791150093079e-02 9.037095122039318085e-03 3.497181832790374756e-02 -3.936249390244483948e-02 -2.829837240278720856e-02 4.452610388398170471e-02 -5.561733152717351913e-03 -1.172991916537284851e-01 1.122348085045814514e-01 -6.823769211769104004e-02 3.034897521138191223e-02 9.970975667238235474e-02
