-8.479840122163295746e-03 -5.662845913320779800e-03 -4.362154752016067505e-02 -1.452093273401260376e-01 3.024114295840263367e-02 -1.157807260751724243e-01 -1.594232954084873199e-02 7.899038493633270264e-02 -1.593534834682941437e-03 2.574157714843750000e-02 7.795784622430801392e-02 -5.792036652565002441e-02 -8.181630074977874756e-02 -1.424517035484313965e-01 -1.248135268688201904e-01 4.413650557398796082e-02 -4.359127208590507507e-02 -9.088195860385894775e-03 -4.501103237271308899e-02 -9.592869132757186890e-02 6.037466228008270264e-03 -1.892584748566150665e-02 -2.066389471292495728e-02 8.159992098808288574e-02 5.037805065512657166e-02 -3.572506830096244812e-02 -5.792627856135368347e-02 2.406577616930007935e-01 6.142817065119743347e-02 8.730760216712951660e-02 8.070993423461914062e-02 1.751813851296901703e-02 9.601823985576629639e-03 1.406203061342239380e-01 -3.238020231947302818e-03 1.915168762207031250e-02 1.474736537784337997e-02 -8.204980194568634033e-02 1.123286131769418716e-02 2.657488733530044556e-02 -9.165074676275253296e-03 7.804239168763160706e-03 1.140840277075767517e-01 -7.761291414499282837e-02 -1.918452419340610504e-02 -7.765567302703857422e-02 -2.012558514252305031e-03 -1.463097929954528809e-01 2.455847337841987610e-02 -2.986535243690013885e-02 -1.541338711977005005e-01 -4.221302270889282227e-02 -6.303530186414718628e-02 -2.472351863980293274e-02 -1.349626928567886353e-01 -8.978588134050369263e-02 -1.400073468685150146e-01 -6.750755757093429565e-02 1.703866571187973022e-02 -2.762732841074466705e-02 -1.971663720905780792e-02 -3.263928741216659546e-02 6.649566441774368286e-02 4.019409418106079102e-02 5.496595054864883423e-02 1.167710125446319580e-02 1.206557638943195343e-02 3.559549525380134583e-02 -5.157065019011497498e-02 -1.955754756927490234e-01 -7.537993043661117554e-02 2.515109442174434662e-02 4.523357003927230835e-02 1.747254729270935059e-01 -8.108318597078323364e-02 4.415110498666763306e-02 1.060027107596397400e-01 1.963540539145469666e-02 4.019405227154493332e-03 -2.693020179867744446e-02 3.717266768217086792e-02 -2.988540194928646088e-02 -1.197581887245178223e-01 5.456212535500526428e-02 -4.190034419298171997e-02 -5.355162546038627625e-02 -4.164214432239532471e-02 -1.943119801580905914e-02 3.281161189079284668e-02 -1.865477859973907471e-02 1.975905522704124451e-02 -1.228815466165542603e-01 -8.858994394540786743e-02 7.760746777057647705e-02 -6.907072663307189941e-02 7.189684361219406128e-02 1.331172138452529907e-01 4.875068739056587219e-02 -9.222955256700515747e-02 5.989451706409454346e-02 4.739932250231504440e-03 1.185269653797149658e-01 -3.051494248211383820e-03 9.644503705203533173e-03 -9.549736231565475464e-02 1.321535259485244751e-01 3.114889189600944519e-02 3.065969981253147125e-02 -3.146632760763168335e-02 -5.366985872387886047e-02 -1.065002828836441040e-01 -1.227979175746440887e-02 1.123005524277687073e-02 -3.509835153818130493e-02 -4.501387104392051697e-02 -1.264671329408884048e-02 -8.017896115779876709e-02 -5.874704197049140930e-02 -1.643947884440422058e-02 1.984272003173828125e-01 -2.616543471813201904e-01 -2.392535470426082611e-02 -8.514339476823806763e-02 8.766728453338146210e-03 7.119969086488708854e-05 -7.408594712615013123e-03 -1.221735146827995777e-04 -2.617147378623485565e-02 -3.459596261382102966e-02 2.078836038708686829e-02 -1.043691765516996384e-02 6.092773005366325378e-02 -1.312212347984313965e-01 6.289476994425058365e-03 -4.506161063909530640e-02 -4.302691295742988586e-02 -4.535681568086147308e-03 -1.096849665045738220e-01 6.690871715545654297e-02 1.372139602899551392e-01 -2.916178433224558830e-03 -2.714237896725535393e-03 2.672850899398326874e-02 9.132150560617446899e-02 -6.738885492086410522e-02 -5.016668513417243958e-02 -3.202645480632781982e-02 8.606320619583129883e-02 -5.985438078641891479e-02 -1.422953009605407715e-01 6.196941807866096497e-02 -1.321632117033004761e-01 -2.164155542850494385e-01 -1.940771751105785370e-02 -9.383509866893291473e-03 -1.011950820684432983e-01 -8.036562055349349976e-02 -9.371856600046157837e-02 -1.912531442940235138e-02 2.209849841892719269e-02 6.324963271617889404e-02 -3.549016639590263367e-02 -1.707367748022079468e-01 -9.154344350099563599e-02 1.604981604032218456e-03 2.484495341777801514e-01 -1.834874898195266724e-01 9.571149200201034546e-02 -9.436863474547863007e-03 1.581010781228542328e-02 1.047407276928424835e-02 -2.160637825727462769e-02 -4.586719721555709839e-02 -1.007611975073814392e-01 -2.256766334176063538e-02 -7.094424217939376831e-02 -8.691964298486709595e-02 4.856340587139129639e-02 4.157531261444091797e-02 -2.502620033919811249e-02 -9.061190485954284668e-02 -8.983766660094261169e-03 -1.073267608880996704e-01 -1.121744513511657715e-01 -9.619666635990142822e-02 -1.185785308480262756e-01 -5.163747072219848633e-02 6.865254789590835571e-02 1.100089251995086670e-01 -7.566234096884727478e-03 4.183845594525337219e-02 -1.472562402486801147e-01 6.495748460292816162e-02 4.845717456191778183e-03 -1.198408082127571106e-01 5.455664917826652527e-02 -1.583192348480224609e-01 -7.834575325250625610e-02 1.078044474124908447e-01 2.959092333912849426e-02 -1.662855297327041626e-01 3.789575025439262390e-02 -4.704892262816429138e-02 1.130584813654422760e-02 -6.268787384033203125e-02 -4.150956496596336365e-02 1.063204631209373474e-01 -1.278353631496429443e-01 -1.149589568376541138e-01 5.462331697344779968e-03 2.982107736170291901e-02 3.227208852767944336e-01 -2.252645939588546753e-01 -1.951052099466323853e-01 -2.599829807877540588e-02 3.850091621279716492e-02 -1.690018549561500549e-02 2.151847817003726959e-02 3.896073903888463974e-03 -1.386149823665618896e-01 6.945195049047470093e-02 6.860487163066864014e-03 -1.151581630110740662e-01 -1.924962550401687622e-02 -2.403507381677627563e-02 -1.627819053828716278e-02 -7.975991815328598022e-02 3.648706898093223572e-02 -1.921605132520198822e-02 8.207696676254272461e-02
2.288905158638954163e-02 -8.794324845075607300e-02 -4.574161488562822342e-03 -1.025368645787239075e-01 -9.543097764253616333e-02 -5.159577727317810059e-02 1.610223017632961273e-02 -5.316092073917388916e-02 -8.939722180366516113e-02 3.127239644527435303e-02 2.723995149135589600e-01 1.270538717508316040e-01 6.981145590543746948e-02 1.147130131721496582e-01 -8.880256116390228271e-02 1.975241303443908691e-02 3.553967550396919250e-02 1.140961721539497375e-01 6.455975770950317383e-02 -3.016904368996620178e-02 1.435429975390434265e-02 -4.744464997202157974e-03 3.152867034077644348e-02 -7.377821952104568481e-02 9.323545382358133793e-04 -2.147795446217060089e-02 -1.981148496270179749e-02 -2.745351009070873260e-02 -1.925758570432662964e-01 4.248053580522537231e-02 3.576209768652915955e-02 -6.934787146747112274e-03 1.198214758187532425e-02 -1.329462602734565735e-02 -2.552346698939800262e-02 5.183512717485427856e-02 -1.747285388410091400e-02 -1.905810646712779999e-02 -7.161910831928253174e-02 -3.445775434374809265e-02 7.397074997425079346e-02 -7.902443940110970289e-06 -6.801223754882812500e-02 4.011011868715286255e-02 -3.454852849245071411e-02 -3.048656135797500610e-02 7.905987650156021118e-02 2.368180304765701294e-01 -3.438824554905295372e-03 -5.072411894798278809e-02 -1.951132118701934814e-01 7.271415740251541138e-02 9.635514765977859497e-02 6.415410339832305908e-02 7.091566920280456543e-02 1.072143241763114929e-01 2.265944331884384155e-01 1.262858808040618896e-01 -5.989624932408332825e-02 1.024740487337112427e-01 9.341271221637725830e-02 -2.208125963807106018e-02 2.106719650328159332e-02 -4.420353472232818604e-02 6.654244661331176758e-02 3.665620088577270508e-02 -6.128025427460670471e-02 4.342614114284515381e-02 2.586168795824050903e-02 -6.367239356040954590e-02 -3.365275263786315918e-02 -7.216554880142211914e-02 -2.259579300880432129e-02 1.532877683639526367e-01 -2.476700395345687866e-01 1.500177234411239624e-01 8.541630208492279053e-02 3.785654669627547264e-03 1.990119181573390961e-02 -8.042884059250354767e-03 -8.867437392473220825e-02 5.256045237183570862e-02 -9.080336242914199829e-02 2.001969516277313232e-02 -4.367278143763542175e-02 3.092104382812976837e-02 4.655463621020317078e-03 -5.797773599624633789e-02 -1.637420803308486938e-02 5.086876079440116882e-02 4.340737685561180115e-02 3.106568008661270142e-03 6.530845165252685547e-02 1.895030774176120758e-02 2.706330036744475365e-03 -2.061116397380828857e-01 -1.243365183472633362e-01 9.863735735416412354e-02 6.148418411612510681e-02 -3.863424807786941528e-02 3.302873298525810242e-02 1.230725180357694626e-02 1.604818105697631836e-01 8.252766728401184082e-02 1.921314373612403870e-02 -1.428292412310838699e-02 -2.688676491379737854e-02 6.608212366700172424e-03 8.296197652816772461e-02 5.329348519444465637e-02 9.824707359075546265e-02 1.335402717813849449e-03 1.689939014613628387e-02 -1.191819738596677780e-02 1.579513773322105408e-02 6.928047537803649902e-02 6.079822033643722534e-02 -4.153942689299583435e-02 -9.417310357093811035e-03 -5.893925204873085022e-03 -1.984781473875045776e-01 2.121864259243011475e-02 6.216852739453315735e-02 5.107131786644458771e-03 1.572371646761894226e-02 3.399439156055450439e-02 -3.769875317811965942e-02 5.214548669755458832e-03 2.889618091285228729e-02 -3.957889229059219360e-02 -2.397566288709640503e-02 -8.725380897521972656e-02 7.056421041488647461e-02 5.340220406651496887e-02 -5.503014195710420609e-03 -4.306210577487945557e-02 1.989498920738697052e-02 -5.526699498295783997e-02 -2.000651322305202484e-02 -3.224357264116406441e-03 2.698544263839721680e-01 -3.958667814731597900e-02 -1.573024988174438477e-01 -3.333776071667671204e-02 1.163796484470367432e-01 4.330594092607498169e-02 -1.387253962457180023e-02 -3.127483651041984558e-02 1.158633157610893250e-01 -4.230756312608718872e-02 -4.560388624668121338e-03 3.450604155659675598e-02 -4.037695378065109253e-02 -2.915498986840248108e-02 -5.163833871483802795e-02 -7.308994233608245850e-02 -8.231692761182785034e-02 -5.081854015588760376e-02 -5.105729401111602783e-02 2.784302644431591034e-02 6.082069501280784607e-02 8.549167960882186890e-02 -1.576345786452293396e-02 -4.171031713485717773e-02 1.991587691009044647e-03 3.981159999966621399e-02 -1.367890983819961548e-01 -3.962263464927673340e-02 -1.113679856061935425e-01 1.595396734774112701e-02 6.545651238411664963e-03 -2.407207712531089783e-02 -5.182320624589920044e-02 -6.815285980701446533e-02 3.663771227002143860e-02 -6.431662291288375854e-02 -8.105443418025970459e-02 -2.910972200334072113e-02 4.402680322527885437e-02 5.014130100607872009e-02 -3.281984105706214905e-02 8.135559409856796265e-02 -7.630130648612976074e-02 -5.521502345800399780e-02 -6.580498814582824707e-02 7.751832902431488037e-02 -4.177178069949150085e-02 5.092981830239295959e-02 -2.319267541170120239e-01 6.885322183370590210e-02 1.682087033987045288e-01 -3.325049579143524170e-02 -1.455820258706808090e-02 -3.028726018965244293e-02 -8.349312841892242432e-02 9.374575316905975342e-02 -5.550412461161613464e-02 5.828052759170532227e-02 -1.484537720680236816e-01 6.157561438158154488e-04 -1.240628585219383240e-01 5.226027593016624451e-02 3.407823294401168823e-02 2.307490445673465729e-02 1.234318036586046219e-02 -1.489777211099863052e-02 1.572818756103515625e-01 1.778263971209526062e-02 2.671228162944316864e-02 -3.450991585850715637e-02 2.858555875718593597e-02 1.595651917159557343e-02 -1.375230699777603149e-01 -2.489363849163055420e-01 5.594760552048683167e-02 1.976776309311389923e-02 -1.085834763944149017e-02 -6.098929047584533691e-02 -1.323067992925643921e-01 -3.779273852705955505e-02 -1.793902926146984100e-02 -3.255015239119529724e-02 5.085514858365058899e-02 -1.273507904261350632e-02 2.951235882937908173e-02 -3.045998327434062958e-02 -9.067415446043014526e-02 8.592952787876129150e-02 6.600861437618732452e-03 -9.509991109371185303e-02
-2.738692760467529297e-01 -6.016825512051582336e-02 -1.607271842658519745e-02 -1.753405034542083740e-01 -5.306010693311691284e-02 1.503702718764543533e-02 5.453361570835113525e-02 3.412333503365516663e-02 -1.559182256460189819e-02 4.553399235010147095e-02 5.673400685191154480e-02 -2.996372431516647339e-02 -1.228104531764984131e-01 -5.290191620588302612e-03 6.825342029333114624e-02 1.839724369347095490e-02 9.368646144866943359e-02 1.468368247151374817e-02 -7.575312256813049316e-02 -3.867138177156448364e-02 1.467391196638345718e-02 -2.721957117319107056e-02 -2.628221176564693451e-02 -2.621027082204818726e-02 -2.383540011942386627e-02 4.892992973327636719e-02 -6.388698518276214600e-02 -2.644239962100982666e-01 5.748599767684936523e-02 6.031703669577836990e-03 -1.473126467317342758e-02 1.764702238142490387e-02 1.933897729031741619e-03 -1.740016043186187744e-02 7.340332865715026855e-02 -7.856053113937377930e-02 -5.345924571156501770e-02 -5.086553841829299927e-02 -1.543061342090368271e-02 1.141852512955665588e-02 5.744779482483863831e-02 1.711037009954452515e-02 -7.858990877866744995e-02 2.626295760273933411e-02 -4.584916308522224426e-02 -4.184804856777191162e-02 -2.690321207046508789e-01 2.742077596485614777e-02 -6.435754895210266113e-02 -4.461493343114852905e-02 2.414123853668570518e-03 1.062843203544616699e-02 1.210523992776870728e-01 5.264884233474731445e-02 1.274698227643966675e-01 -1.057727262377738953e-01 -9.039016067981719971e-02 5.664200708270072937e-02 5.659302696585655212e-03 7.692365348339080811e-02 -1.212074980139732361e-01 -3.857301920652389526e-02 -9.935940615832805634e-03 2.919239923357963562e-02 -9.675885736942291260e-02 -8.970131725072860718e-02 -2.524073235690593719e-03 3.725713863968849182e-02 -1.415421515703201294e-01 1.291753537952899933e-02 2.567428909242153168e-02 -9.413103759288787842e-02 -1.914373226463794708e-02 -1.327486187219619751e-01 1.130547821521759033e-01 1.079151853919029236e-01 1.867023557424545288e-01 -1.034708344377577305e-03 1.519301906228065491e-03 -2.621474489569664001e-02 -4.802286624908447266e-02 -2.565965615212917328e-02 1.091657206416130066e-02 -8.051028847694396973e-02 -1.942248828709125519e-02 4.432072862982749939e-02 -1.086629778146743774e-01 5.076665431261062622e-02 -3.333054110407829285e-02 -6.747909821569919586e-03 -5.322079174220561981e-03 2.635014057159423828e-02 -1.817877590656280518e-01 1.357660293579101562e-01 -3.462635353207588196e-02 1.290588527917861938e-01 -2.791945636272430420e-02 1.077506616711616516e-01 2.260114848613739014e-01 -1.257171947509050369e-02 1.796716004610061646e-01 1.098446827381849289e-02 -1.607245057821273804e-01 6.951554864645004272e-02 1.292421519756317139e-01 6.406442075967788696e-02 5.126094818115234375e-02 3.903690353035926819e-02 9.554617851972579956e-02 -9.275101125240325928e-03 3.887928277254104614e-02 2.877537719905376434e-02 6.094397976994514465e-02 -7.101155817508697510e-02 2.322763204574584961e-02 -5.385027825832366943e-02 -2.096292972564697266e-01 4.606031253933906555e-02 3.745914204046130180e-03 -1.299435645341873169e-01 -3.313857689499855042e-02 2.245262265205383301e-02 9.049291722476482391e-03 -6.665320135653018951e-03 1.181508600711822510e-02 3.525188565254211426e-02 -1.181286573410034180e-02 -7.752837240695953369e-02 4.007957503199577332e-02 -7.594373077154159546e-02 1.249695196747779846e-03 -4.252253845334053040e-02 6.237215548753738403e-02 -2.135160937905311584e-02 -1.070458516478538513e-01 -7.847641408443450928e-02 -9.371201507747173309e-03 -9.286618232727050781e-02 -2.372398972511291504e-01 3.620536625385284424e-02 -7.627812027931213379e-02 -3.658114746212959290e-02 -4.037025570869445801e-02 -1.893387921154499054e-02 -2.553430013358592987e-02 4.888335987925529480e-02 1.133040618151426315e-02 -1.341489851474761963e-01 -7.851952314376831055e-02 5.295025929808616638e-02 -1.796717941761016846e-02 3.493335843086242676e-02 -5.853081122040748596e-02 -1.899793557822704315e-02 -8.809307962656021118e-02 9.770154953002929688e-02 2.562162093818187714e-02 -2.606844343245029449e-02 -7.314257323741912842e-02 1.010325551033020020e-02 2.940236404538154602e-02 8.747684210538864136e-02 2.335858196020126343e-01 2.588262967765331268e-02 -2.284474484622478485e-02 -1.664151698350906372e-01 5.301149934530258179e-02 -1.761803962290287018e-02 -5.329148843884468079e-02 -3.816141281276941299e-03 6.723544094711542130e-03 -1.932629384100437164e-02 -4.716825112700462341e-02 -4.720599949359893799e-02 -1.571571268141269684e-02 -9.341398626565933228e-02 -1.576039046049118042e-01 5.947073176503181458e-02 6.954834610223770142e-02 -4.017025604844093323e-02 3.687168657779693604e-02 -8.555164188146591187e-02 3.260987997055053711e-02 -8.650177717208862305e-02 -7.790854573249816895e-02 2.366622686386108398e-01 -9.297969937324523926e-02 -1.527899224311113358e-02 -2.001795452088117599e-03 9.362749010324478149e-02 1.912899911403656006e-01 4.049928486347198486e-02 -1.062890812754631042e-01 1.688794195652008057e-01 -2.738407440483570099e-02 1.202718988060951233e-01 -8.906204253435134888e-02 -2.205190993845462799e-02 -1.186738759279251099e-01 -6.481046788394451141e-03 -1.173030510544776917e-01 -2.811754122376441956e-02 -7.699787616729736328e-02 -6.992762535810470581e-02 1.146475821733474731e-01 -2.863550558686256409e-02 7.204459607601165771e-02 -9.725536406040191650e-02 2.902344428002834320e-02 1.279016286134719849e-01 1.210648044943809509e-01 -1.741051822900772095e-01 1.102451533079147339e-01 -7.133434712886810303e-02 -1.601640284061431885e-01 -3.517014533281326294e-02 4.116542637348175049e-02 -2.570998668670654297e-02 -1.103654429316520691e-01 -1.771034859120845795e-02 -1.480818539857864380e-01 -8.986059576272964478e-02 -2.767506614327430725e-02 -9.623205289244651794e-03 1.071036234498023987e-01 -6.391799449920654297e-02 -7.226755470037460327e-02 -6.595213711261749268e-02 1.157109066843986511e-01 -1.818947307765483856e-02
1.469409558922052383e-02 -5.876479297876358032e-02 -1.045375466346740723e-01 -5.102685093879699707e-02 3.331405669450759888e-02 -4.066785052418708801e-02 -4.798882454633712769e-02 1.589252054691314697e-01 1.086009070277214050e-01 3.250716545153409243e-04 -8.899039588868618011e-03 8.096388727426528931e-02 -9.847671538591384888e-02 -7.965776324272155762e-02 3.172210231423377991e-02 1.318714022636413574e-02 3.251264616847038269e-02 -4.636756330728530884e-02 6.644647568464279175e-02 5.853496957570314407e-03 -3.070365637540817261e-02 2.831116877496242523e-02 -9.286338090896606445e-02 6.951973587274551392e-02 6.297292187809944153e-03 1.123268157243728638e-02 -4.029383882880210876e-02 -2.193304002285003662e-01 -2.108366340398788452e-01 7.437714934349060059e-02 3.698028251528739929e-02 -4.452073946595191956e-03 2.347945608198642731e-02 4.922689497470855713e-02 -2.167678251862525940e-02 5.726253241300582886e-02 -1.160395890474319458e-01 -4.783394932746887207e-02 1.558681577444076538e-02 1.151363700628280640e-01 9.913274645805358887e-02 6.217904388904571533e-02 -1.063294857740402222e-01 1.520348154008388519e-02 5.125730857253074646e-02 -1.131148729473352432e-02 2.425613254308700562e-02 -6.332319229841232300e-02 1.620771363377571106e-02 -5.834855884313583374e-02 3.612022474408149719e-02 1.069242581725120544e-01 5.150091275572776794e-02 1.409564614295959473e-01 -2.360642328858375549e-02 5.470908246934413910e-03 4.140957444906234741e-02 -5.579611659049987793e-02 -5.715931951999664307e-02 1.524455398321151733e-01 1.238359063863754272e-01 3.614512970671057701e-03 7.530784606933593750e-02 4.309804737567901611e-02 -1.678146272897720337e-01 -3.129045665264129639e-02 8.773581683635711670e-02 -1.259913202375173569e-02 -1.076346170157194138e-02 5.254504457116127014e-02 3.642622381448745728e-02 1.787688210606575012e-02 3.848053887486457825e-02 -1.272298246622085571e-01 -2.605204582214355469e-01 6.170507520437240601e-02 6.301651895046234131e-02 -1.680012792348861694e-02 4.509034566581249237e-03 -4.400821402668952942e-02 1.420896686613559723e-02 9.080048650503158569e-02 2.472290024161338806e-02 4.663974419236183167e-02 -1.910471916198730469e-02 -4.112007096409797668e-02 1.178150847554206848e-01 8.614697307348251343e-02 2.225504256784915924e-02 2.443062700331211090e-02 2.063198760151863098e-02 8.890793658792972565e-03 -8.070035278797149658e-02 -1.081271842122077942e-01 1.873109787702560425e-01 9.874194860458374023e-02 6.015993654727935791e-02 2.288688421249389648e-01 -6.728733330965042114e-02 -1.287847906351089478e-01 -1.826239079236984253e-01 9.478242718614637852e-04 4.421889389050193131e-05 5.072996951639652252e-03 -1.119220554828643799e-01 -1.130774524062871933e-02 -8.972247689962387085e-02 2.995856292545795441e-02 -8.574449270963668823e-02 -3.946554660797119141e-02 5.284459143877029419e-02 9.415047615766525269e-02 -4.638772830367088318e-02 -8.833037689328193665e-03 -3.444908559322357178e-02 -6.186936050653457642e-02 1.434031724929809570e-01 4.967699944972991943e-02 -1.292225439101457596e-02 -1.671168506145477295e-01 -3.045866191387176514e-01 3.921058028936386108e-02 -5.223385989665985107e-02 -1.585366390645503998e-02 2.043200470507144928e-02 -4.361052066087722778e-03 -1.033539921045303345e-01 -2.089930884540081024e-02 -2.875699289143085480e-02 -4.738113656640052795e-02 -2.173805795609951019e-02 -2.876500599086284637e-03 -1.989876665174961090e-02 3.003653138875961304e-02 2.002201229333877563e-02 6.232434138655662537e-02 2.701139636337757111e-02 -1.555465348064899445e-02 -1.790821254253387451e-01 -5.332992598414421082e-02 -4.269326850771903992e-02 6.109866872429847717e-02 -4.438704811036586761e-03 -5.258901789784431458e-02 6.566786020994186401e-02 1.706458628177642822e-02 -3.341447189450263977e-02 -2.189139090478420258e-02 -7.861215621232986450e-02 -9.555184096097946167e-02 -3.049620427191257477e-02 -2.134135216474533081e-01 7.947229593992233276e-02 -6.341003812849521637e-03 6.030499190092086792e-02 4.897393286228179932e-03 -2.716928347945213318e-02 -4.860473424196243286e-02 5.000368878245353699e-02 3.837920352816581726e-02 -3.916227817535400391e-02 1.212265342473983765e-01 -1.651901453733444214e-01 -5.970550328493118286e-02 4.882606118917465210e-02 -1.866552680730819702e-01 -3.584169447422027588e-01 -4.454151540994644165e-02 -1.211463846266269684e-02 -2.935134992003440857e-02 2.808681316673755646e-02 2.463608607649803162e-02 -1.596046425402164459e-02 3.131823614239692688e-02 5.493685975670814514e-02 -1.039384678006172180e-01 9.037914685904979706e-03 7.340461015701293945e-02 7.220235466957092285e-02 7.083414494991302490e-02 -5.488862097263336182e-02 -4.160347580909729004e-02 1.364247947931289673e-01 -1.131211146712303162e-01 -1.950294822454452515e-01 1.821627467870712280e-01 -1.620463281869888306e-01 -6.072367727756500244e-02 1.302964519709348679e-02 1.161624193191528320e-01 -5.970228090882301331e-02 7.959885895252227783e-02 1.699236035346984863e-01 3.617225959897041321e-02 1.247514635324478149e-01 4.779750481247901917e-02 1.053580716252326965e-01 5.599521845579147339e-02 -8.559809625148773193e-02 3.457705676555633545e-02 5.622253939509391785e-02 1.153972223401069641e-01 -1.283773034811019897e-01 7.919641584157943726e-02 -2.212974056601524353e-02 -2.519702911376953125e-02 -8.123083412647247314e-02 -6.553974002599716187e-02 3.020598180592060089e-02 3.014974761754274368e-03 -1.490726321935653687e-02 -2.529840767383575439e-01 -2.932823002338409424e-01 -2.582698501646518707e-02 -5.048445239663124084e-02 -5.684870481491088867e-02 3.065765649080276489e-02 6.129821389913558960e-02 -3.279057145118713379e-02 1.190993115305900574e-01 -6.232779845595359802e-02 3.508598357439041138e-02 2.735095657408237457e-02 -7.150740921497344971e-02 4.509814828634262085e-02 3.810811787843704224e-02 -6.210095062851905823e-02 -1.563006639480590820e-02 5.023840814828872681e-02 -1.147989630699157715e-01
1.103486865758895874e-01 4.560147970914840698e-02 -1.565498113632202148e-01 8.286213874816894531e-02 3.017652779817581177e-02 9.101529419422149658e-02 -2.005850523710250854e-01 2.994341030716896057e-02 8.810830116271972656e-02 2.251811176538467407e-01 -3.061332739889621735e-02 1.834272779524326324e-02 5.129260569810867310e-02 -3.549740463495254517e-02 7.901014387607574463e-02 1.495538279414176941e-02 4.998507723212242126e-02 -7.856122218072414398e-03 1.595562249422073364e-01 2.380830980837345123e-02 -5.399947240948677063e-02 -1.787411421537399292e-02 -2.766686305403709412e-02 4.691416397690773010e-02 4.287721589207649231e-02 -1.259250938892364502e-02 9.215149097144603729e-03 -5.196788534522056580e-02 -2.077467553317546844e-02 -6.035955250263214111e-02 4.014281556010246277e-02 2.701447810977697372e-03 2.550297416746616364e-02 3.551090136170387268e-02 -1.050176285207271576e-02 1.339558605104684830e-02 1.586336940526962280e-01 -1.773716695606708527e-02 6.780940294265747070e-02 -4.848971590399742126e-02 3.171561658382415771e-02 2.105532772839069366e-02 5.585301294922828674e-02 -4.863623157143592834e-02 6.774184852838516235e-02 -1.589574036188423634e-03 1.337543874979019165e-01 2.803281843662261963e-01 -1.794257014989852905e-01 -7.050764560699462891e-02 -2.332914173603057861e-01 6.341266632080078125e-02 -1.838499680161476135e-02 -3.749974444508552551e-02 2.058604955673217773e-01 2.592303976416587830e-02 1.251417100429534912e-01 1.683383584022521973e-01 1.450582295656204224e-01 6.354342401027679443e-02 5.527757480740547180e-02 3.106324374675750732e-02 -1.279925927519798279e-02 -7.673929911106824875e-03 1.169183477759361267e-02 3.967557847499847412e-02 -7.822815328836441040e-02 -1.313316356390714645e-02 -4.140731878578662872e-03 7.529402617365121841e-03 -2.512962520122528076e-01 -2.917066216468811035e-02 -1.365552563220262527e-02 -1.023964136838912964e-01 6.017425097525119781e-03 -9.189271368086338043e-03 -6.882582604885101318e-02 6.053584162145853043e-03 2.218307182192802429e-02 7.793408632278442383e-02 1.295908726751804352e-02 3.517341613769531250e-02 1.055406630039215088e-01 5.118242188473232090e-05 -3.606301173567771912e-02 -6.445589661598205566e-02 3.862466663122177124e-02 1.892017945647239685e-02 7.827793806791305542e-02 4.871659446507692337e-03 5.889411643147468567e-02 -2.584521472454071045e-02 2.464890033006668091e-01 1.689946055412292480e-01 -7.381272315979003906e-02 1.520464271306991577e-01 -1.189321130514144897e-01 1.095013841986656189e-01 -1.017768457531929016e-01 5.846216157078742981e-02 -7.979073375463485718e-02 -1.554710417985916138e-01 8.149135857820510864e-02 -1.057394444942474365e-01 1.024316251277923584e-01 8.906892687082290649e-02 -3.656005486845970154e-02 -3.274289891123771667e-02 6.483323522843420506e-04 3.939837217330932617e-02 5.989407747983932495e-02 -1.239680871367454529e-02 2.093053888529539108e-03 -4.419556818902492523e-03 9.609393775463104248e-03 -1.027662232518196106e-01 -2.715535834431648254e-02 2.926629967987537384e-02 5.043866112828254700e-02 1.296837478876113892e-01 -7.865224033594131470e-02 -4.818510264158248901e-02 6.640110164880752563e-02 3.639069385826587677e-03 1.295381598174571991e-02 -4.950403049588203430e-02 -2.121474221348762512e-02 -4.291141405701637268e-02 1.934173256158828735e-01 2.424557134509086609e-02 2.204339019954204559e-02 -3.728910535573959351e-02 9.626738727092742920e-03 -9.871858358383178711e-02 8.546800166368484497e-02 4.182959720492362976e-02 7.240635156631469727e-02 5.799920856952667236e-02 1.490393877029418945e-01 1.803166270256042480e-01 -5.953184887766838074e-02 1.771550327539443970e-01 -9.994097799062728882e-02 1.309810876846313477e-01 4.388469457626342773e-02 -8.108408004045486450e-02 1.136118918657302856e-01 -5.959340557456016541e-02 3.034191019833087921e-02 1.963991671800613403e-02 -4.097824171185493469e-02 9.258114546537399292e-02 -1.376679241657257080e-01 2.833676710724830627e-02 -4.951262101531028748e-02 -1.344963908195495605e-01 -7.826672494411468506e-02 5.811388790607452393e-02 -1.240793429315090179e-02 -1.172273140400648117e-02 1.690495200455188751e-02 8.970385044813156128e-02 2.115533649921417236e-01 -2.280935831367969513e-02 -5.586325749754905701e-02 -1.050816923379898071e-01 -1.414034962654113770e-01 -4.270436707884073257e-03 -3.346703574061393738e-02 5.427277646958827972e-03 9.036915376782417297e-03 6.233071908354759216e-03 3.058543428778648376e-03 1.253169327974319458e-01 -2.919509261846542358e-02 5.173218995332717896e-02 1.391210965812206268e-02 3.235298767685890198e-02 6.102508865296840668e-03 -6.047373637557029724e-02 2.094908356666564941e-01 -1.853680983185768127e-02 2.873568423092365265e-02 3.141515329480171204e-02 1.304821521043777466e-01 2.575820982456207275e-01 -1.683607101440429688e-01 -6.610952783375978470e-03 5.203386396169662476e-02 1.396618187427520752e-01 -3.922108560800552368e-03 -5.985154584050178528e-02 7.810629159212112427e-02 -1.014098972082138062e-01 7.650004327297210693e-02 3.087538294494152069e-02 -6.294673681259155273e-02 -2.757347188889980316e-02 2.420321553945541382e-01 5.710558500140905380e-03 -5.732124671339988708e-02 -1.120905801653862000e-01 -1.650471538305282593e-01 -1.969201862812042236e-02 2.015054970979690552e-02 5.079047009348869324e-02 1.166867092251777649e-01 5.022729560732841492e-02 -7.880487293004989624e-02 -8.566465228796005249e-02 -6.197093799710273743e-02 7.225700467824935913e-02 -4.734716936945915222e-02 -8.237299509346485138e-03 -5.811260640621185303e-02 -1.938087306916713715e-02 1.848308555781841278e-02 -2.517048455774784088e-02 1.232253462076187134e-01 2.283052802085876465e-01 6.696422584354877472e-03 -1.182751636952161789e-02 3.778248280286788940e-02 4.650432989001274109e-02 6.753160804510116577e-02 7.661756873130798340e-02 9.389446675777435303e-02 -1.146044135093688965e-01 1.525854468345642090e-01 9.040494263172149658e-02
3.193059936165809631e-02 7.157096173614263535e-03 1.354566216468811035e-01 1.597157865762710571e-01 -7.038427144289016724e-02 6.125154346227645874e-02 -9.247779846191406250e-02 5.034540593624114990e-02 7.033969275653362274e-03 -5.476827919483184814e-02 1.597386300563812256e-01 1.906052045524120331e-02 -1.738866865634918213e-01 -1.520086079835891724e-01 1.624754518270492554e-01 -1.748966425657272339e-02 9.624243713915348053e-03 -2.562853880226612091e-02 8.333147317171096802e-02 3.066843934357166290e-02 1.606560498476028442e-02 5.480431485921144485e-03 -8.208295702934265137e-02 -8.449561148881912231e-02 4.377851262688636780e-02 5.134273320436477661e-02 -1.879432052373886108e-02 2.841489315032958984e-01 1.889397203922271729e-01 -2.440468233544379473e-04 -6.468163430690765381e-02 1.678684726357460022e-02 1.671026647090911865e-02 -1.552165150642395020e-01 -8.847727626562118530e-02 -5.677812919020652771e-02 3.406834602355957031e-02 2.266147173941135406e-02 -1.403901632875204086e-02 -1.983299478888511658e-02 2.619309909641742706e-02 -2.484964393079280853e-02 5.286625027656555176e-02 8.825356513261795044e-02 3.213201463222503662e-02 -1.220161654055118561e-02 3.760288283228874207e-02 9.108424186706542969e-02 6.870592385530471802e-02 1.039071977138519287e-01 -9.256772696971893311e-03 5.654286593198776245e-02 -2.594457753002643585e-02 5.222989991307258606e-02 -2.846109122037887573e-02 -1.321196742355823517e-02 8.198263496160507202e-02 -6.208391487598419189e-02 5.258915945887565613e-02 -1.205675527453422546e-01 -7.554352283477783203e-02 1.012981403619050980e-02 -1.095866784453392029e-01 3.432019799947738647e-02 -7.241716980934143066e-02 -8.392829447984695435e-02 -3.475411608815193176e-02 -1.249482738785445690e-03 1.695627719163894653e-01 4.647595435380935669e-02 1.681927777826786041e-02 -5.460536479949951172e-02 3.347576782107353210e-02 2.205701917409896851e-01 -2.675829455256462097e-03 -1.095358207821846008e-01 -9.295511990785598755e-02 1.526071596890687943e-02 2.004861272871494293e-02 3.313543647527694702e-02 -2.296271175146102905e-02 3.362445905804634094e-02 1.280774474143981934e-01 -4.254198446869850159e-02 1.501180580817162991e-03 1.049154624342918396e-01 1.472212187945842743e-02 -1.377978641539812088e-02 1.553265377879142761e-02 -3.525350242853164673e-02 -5.987922847270965576e-02 -1.305851191282272339e-01 7.669872045516967773e-02 4.765522852540016174e-02 -3.243374824523925781e-02 4.742901306599378586e-03 -4.097218438982963562e-02 1.195579916238784790e-01 7.935078442096710205e-02 -6.178661435842514038e-02 -3.662745282053947449e-02 -7.493020594120025635e-02 -5.089519917964935303e-02 -2.955742366611957550e-02 4.831492528319358826e-02 -8.007545955479145050e-03 -3.464122116565704346e-02 4.002592712640762329e-02 -1.341103389859199524e-02 -6.825374905019998550e-03 -2.308092638850212097e-02 7.765152305364608765e-02 1.243607699871063232e-02 -6.836048327386379242e-03 9.084487333893775940e-03 -4.621102288365364075e-02 -1.002469882369041443e-01 4.940018430352210999e-02 8.194468915462493896e-02 2.592302262783050537e-01 1.033523678779602051e-01 -8.667992055416107178e-02 -6.340414285659790039e-02 7.592813111841678619e-03 3.774814773350954056e-03 1.133471578359603882e-01 -4.490691050887107849e-02 -2.754418179392814636e-02 1.165909096598625183e-01 -7.459532469511032104e-02 -4.017852619290351868e-02 -2.880545891821384430e-02 -6.073832511901855469e-02 -1.714626327157020569e-02 6.490945816040039062e-02 -3.631597757339477539e-02 9.215089678764343262e-02 -1.300732791423797607e-01 2.058096230030059814e-01 -6.292358785867691040e-02 -6.778282672166824341e-02 -1.654637902975082397e-01 3.119945153594017029e-02 3.777793049812316895e-02 1.215554103255271912e-01 -7.200182974338531494e-02 2.112150378525257111e-02 4.641515761613845825e-02 7.254371047019958496e-02 -2.717299386858940125e-02 -3.653120994567871094e-02 1.067314520478248596e-01 -1.349922120571136475e-01 -1.550699025392532349e-02 -1.282545179128646851e-01 -7.905844599008560181e-02 3.237516805529594421e-02 -8.586175739765167236e-02 -6.086171790957450867e-02 -1.242649508640170097e-03 1.014761552214622498e-01 -8.199869655072689056e-03 6.278739124536514282e-02 -7.540276646614074707e-02 1.248551532626152039e-02 1.703823059797286987e-01 -5.203533545136451721e-02 8.919021487236022949e-02 1.726809740066528320e-01 1.843025535345077515e-02 2.993099205195903778e-02 -9.891176223754882812e-02 1.017554383724927902e-02 -5.928594619035720825e-02 1.225116625428199768e-01 -9.282330423593521118e-02 -6.051499396562576294e-02 -4.310345277190208435e-02 -6.560559570789337158e-02 2.766158431768417358e-02 -1.137951388955116272e-01 3.931755945086479187e-02 -3.266283124685287476e-02 -1.388271898031234741e-01 -2.022095769643783569e-02 3.657663241028785706e-03 -6.716969609260559082e-02 -6.533998250961303711e-02 -6.165057048201560974e-02 -1.005233749747276306e-01 8.221439272165298462e-02 6.338457018136978149e-02 6.203914433717727661e-02 2.359901182353496552e-02 4.492884129285812378e-02 -1.307129301130771637e-02 -3.011504560708999634e-02 1.074968054890632629e-01 -4.971586167812347412e-03 1.522088889032602310e-02 6.922099739313125610e-02 2.759750187397003174e-02 -8.028663694858551025e-02 5.102700367569923401e-02 3.561201691627502441e-02 -2.793655963614583015e-03 -6.628016382455825806e-02 -6.161485239863395691e-02 -3.590966388583183289e-02 -6.041004136204719543e-02 -2.399874106049537659e-02 2.550144493579864502e-01 -5.445504561066627502e-02 6.535235047340393066e-02 9.515727311372756958e-02 3.792838379740715027e-02 8.391225710511207581e-03 8.077349513769149780e-02 -1.119124963879585266e-01 -6.284753978252410889e-02 1.827487349510192871e-02 5.624604970216751099e-02 -1.919376477599143982e-02 5.337203666567802429e-02 -9.905807673931121826e-02 -3.620614483952522278e-02 -5.135409906506538391e-02 7.403284311294555664e-02 -4.206294659525156021e-03 -1.066834330558776855e-01
-4.159522950649261475e-01 -4.748704731464385986e-01 5.079019814729690552e-03 -1.394636780023574829e-01 -5.628763511776924133e-02 5.498758051544427872e-03 -9.652481973171234131e-02 4.799883440136909485e-02 1.279581934213638306e-01 5.438204482197761536e-02 6.674498319625854492e-02 1.532128155231475830e-01 9.181172586977481842e-03 -1.939567327499389648e-01 6.795792281627655029e-02 -1.824523881077766418e-02 -2.092487365007400513e-02 -8.225303143262863159e-02 2.914133481681346893e-03 -2.778462320566177368e-02 -5.887479521334171295e-03 2.819007262587547302e-02 -6.153304129838943481e-02 5.901392921805381775e-02 1.017960011959075928e-01 5.439192429184913635e-02 -3.708691522479057312e-02 1.509295552968978882e-01 1.078969240188598633e-01 -5.431162565946578979e-02 -3.651643916964530945e-02 7.493662182241678238e-03 -7.535002660006284714e-03 3.543563559651374817e-02 -5.769571661949157715e-02 -4.039131850004196167e-02 -8.016157895326614380e-02 4.266422241926193237e-02 1.606256142258644104e-02 -2.135922387242317200e-02 -6.708937138319015503e-02 5.111781414598226547e-03 -2.527159452438354492e-02 3.993539605289697647e-03 -3.641306236386299133e-02 2.653342485427856445e-02 -1.174037754535675049e-01 -2.707720100879669189e-01 -1.273224353790283203e-01 9.940265864133834839e-02 -1.046425625681877136e-01 -1.049562320113182068e-01 -1.545666754245758057e-01 -2.191494777798652649e-02 1.243157684803009033e-01 7.053012400865554810e-02 7.201544009149074554e-03 -1.427655667066574097e-01 -2.884479239583015442e-03 -2.217890471220016479e-01 2.131815552711486816e-01 7.184617221355438232e-03 4.152908548712730408e-02 -7.897768169641494751e-02 -1.527741849422454834e-01 -4.165608808398246765e-02 -1.882638037204742432e-02 -3.835677355527877808e-02 -4.177952650934457779e-03 8.196765184402465820e-02 1.797987893223762512e-02 2.317488379776477814e-02 -6.430996954441070557e-02 1.623692959547042847e-01 5.259022489190101624e-02 1.650939881801605225e-02 1.354251801967620850e-01 1.798912882804870605e-02 1.738077844493091106e-03 1.313793472945690155e-02 6.784868426620960236e-03 -1.426289137452840805e-02 -1.753166615962982178e-01 3.533017635345458984e-02 4.127705097198486328e-02 -1.783497817814350128e-02 2.620078250765800476e-02 2.430434152483940125e-02 -6.661517918109893799e-02 -3.008587285876274109e-02 -2.529398724436759949e-02 6.219147890806198120e-02 -3.649917840957641602e-01 -6.142427027225494385e-02 -3.939008414745330811e-01 -1.535189300775527954e-01 -1.459997892379760742e-01 -2.232355028390884399e-01 -6.873409450054168701e-02 3.504522517323493958e-02 1.704237014055252075e-01 -3.716588485985994339e-03 7.774118334054946899e-02 1.491161882877349854e-01 -7.277824729681015015e-02 1.624724641442298889e-02 -3.013525158166885376e-02 -1.212624367326498032e-02 -4.773748572915792465e-03 2.668115496635437012e-02 1.822220720350742340e-02 -3.639384359121322632e-02 4.233056679368019104e-02 3.882101550698280334e-02 -1.048734225332736969e-02 -2.141707390546798706e-02 -4.071458056569099426e-02 1.236469019204378128e-02 4.936770349740982056e-02 1.185738518834114075e-01 -1.810889877378940582e-02 -2.042367495596408844e-02 -1.287725865840911865e-01 9.215750731527805328e-03 -1.897711539641022682e-03 -1.264166925102472305e-02 5.227750539779663086e-02 -5.899275187402963638e-03 -2.046072669327259064e-02 -8.152210712432861328e-02 4.570078477263450623e-02 1.155640259385108948e-01 2.670438261702656746e-03 -8.784409612417221069e-03 -1.173648759722709656e-01 3.742555901408195496e-02 -6.500443071126937866e-02 7.533496618270874023e-02 -3.647528290748596191e-01 3.936858475208282471e-02 -5.126577988266944885e-02 6.134819611907005310e-02 -1.312471181154251099e-01 -6.067657843232154846e-02 7.778213918209075928e-02 -5.026303604245185852e-02 -1.707930713891983032e-01 1.323055773973464966e-01 -2.851237915456295013e-02 -2.298963442444801331e-02 1.256099045276641846e-01 2.146047204732894897e-01 3.089193813502788544e-02 -1.287804357707500458e-02 2.994448319077491760e-02 1.368568688631057739e-01 1.000280007719993591e-01 -4.435994476079940796e-02 -3.128933161497116089e-02 1.413268130272626877e-02 2.041195705533027649e-02 5.773475021123886108e-02 -1.079736463725566864e-02 -9.976712614297866821e-02 1.437669247388839722e-02 7.896864414215087891e-02 9.994043968617916107e-03 -1.356091350317001343e-01 -5.671509727835655212e-02 3.722823690623044968e-03 3.326235106214880943e-03 -8.825234323740005493e-02 3.488339111208915710e-02 4.399816039949655533e-03 5.296027660369873047e-02 -1.047042161226272583e-01 -1.128488406538963318e-02 -1.497581787407398224e-02 -2.871317602694034576e-02 4.715733602643013000e-02 -1.173024103045463562e-01 -4.560748860239982605e-02 -1.004158332943916321e-01 7.850231975317001343e-02 -2.545179128646850586e-01 1.831159442663192749e-01 -1.798044145107269287e-01 7.431329786777496338e-02 -1.446586549282073975e-01 -7.263393700122833252e-02 1.469919225201010704e-03 -8.797930926084518433e-02 1.020624339580535889e-01 -1.103999745100736618e-02 1.960503458976745605e-01 5.517811980098485947e-03 4.871455207467079163e-02 2.650991454720497131e-02 -1.421986520290374756e-01 -5.350081250071525574e-02 9.133160114288330078e-02 -2.159747183322906494e-01 -2.975807338953018188e-02 5.161808431148529053e-02 1.253445819020271301e-02 4.321326687932014465e-02 -4.274087771773338318e-02 6.647246330976486206e-02 1.442102435976266861e-02 2.227422595024108887e-02 -5.415639281272888184e-02 1.323675811290740967e-01 1.246699467301368713e-01 -2.501787804067134857e-02 2.257953770458698273e-02 1.000974141061306000e-02 -1.484799897298216820e-03 5.408738926053047180e-02 1.769194193184375763e-02 -9.588923305273056030e-02 -1.768939942121505737e-02 -1.814875379204750061e-02 1.580590754747390747e-01 8.022237569093704224e-02 2.693808637559413910e-02 -4.668009653687477112e-02 -1.664590239524841309e-01 1.522962702438235283e-03 -1.283438950777053833e-01 8.972869068384170532e-02
-9.347598254680633545e-02 -6.237518787384033203e-01 -1.289882231503725052e-03 -1.390821114182472229e-02 -9.113184362649917603e-02 7.670291513204574585e-02 -9.512075781822204590e-02 1.535659190267324448e-02 6.318483501672744751e-02 -3.741046786308288574e-02 6.493262201547622681e-02 3.783891350030899048e-02 1.547267138957977295e-01 -3.100263327360153198e-02 -4.875511303544044495e-02 1.392908580601215363e-02 8.171683549880981445e-02 -9.660448879003524780e-03 -5.015883594751358032e-03 2.786330506205558777e-02 5.739717278629541397e-03 3.211111761629581451e-03 -1.245966088026762009e-02 -3.892972320318222046e-02 -7.229307293891906738e-02 -2.047254331409931183e-02 8.426487445831298828e-03 -9.257907420396804810e-02 -3.458289057016372681e-02 1.169614717364311218e-01 1.305850148200988770e-01 -4.288404248654842377e-03 -8.261390030384063721e-03 3.199402708560228348e-03 6.826837360858917236e-02 -4.346036165952682495e-02 -4.714244231581687927e-02 -2.135950513184070587e-02 -4.646388988476246595e-04 -8.654892444610595703e-03 6.129808258265256882e-03 -3.189336508512496948e-02 -6.926577189005911350e-04 -3.756753355264663696e-02 -1.895965635776519775e-02 4.657722637057304382e-02 3.828958421945571899e-02 -2.591120600700378418e-01 -8.484062552452087402e-02 -1.022975221276283264e-01 -1.157359778881072998e-01 -4.319350793957710266e-02 5.004730820655822754e-02 6.553915888071060181e-02 -8.806227147579193115e-02 3.825543820858001709e-02 1.189367249608039856e-01 1.584204435348510742e-01 1.068043708801269531e-02 9.577710181474685669e-02 -6.401734054088592529e-02 -1.756701618432998657e-02 1.214485149830579758e-02 8.213295042514801025e-02 6.540721748024225235e-03 -6.253519654273986816e-02 2.609964087605476379e-02 2.683291397988796234e-02 5.462921038269996643e-02 -1.057727336883544922e-01 8.269346319139003754e-03 1.230597496032714844e-02 5.957077722996473312e-03 6.003633141517639160e-02 -1.045054942369461060e-01 -2.035554498434066772e-02 -6.046665459871292114e-02 -1.234776573255658150e-04 -6.286574527621269226e-03 -7.289983797818422318e-03 6.015349179506301880e-02 -5.333352461457252502e-02 -3.928938414901494980e-03 -8.711718022823333740e-02 -1.120146922767162323e-02 1.823620498180389404e-02 2.913015149533748627e-02 -4.251501336693763733e-02 -2.689151838421821594e-02 -3.205057978630065918e-02 -3.175213560461997986e-02 1.622198708355426788e-02 6.600089669227600098e-01 1.768866553902626038e-02 -1.653903909027576447e-02 -1.030114144086837769e-01 9.907092899084091187e-02 4.921463131904602051e-02 1.787433922290802002e-01 4.724703356623649597e-02 1.157481744885444641e-01 6.544787436723709106e-02 -7.461845129728317261e-02 -5.614251643419265747e-02 -1.378991752862930298e-01 -2.102451585233211517e-02 -7.688592374324798584e-02 1.883644424378871918e-02 -6.070072948932647705e-02 8.840146474540233612e-03 -8.141493797302246094e-02 3.442094475030899048e-02 -5.723050890082959086e-06 -1.898356340825557709e-02 9.110268950462341309e-02 4.461164399981498718e-02 -5.337308626621961594e-03 -6.358142942190170288e-02 7.945626974105834961e-02 -1.067764684557914734e-01 6.035324931144714355e-02 8.167056739330291748e-02 -1.172987837344408035e-02 1.533030415885150433e-03 -1.745400833897292614e-03 2.402322832494974136e-03 8.463324047625064850e-03 -3.023125231266021729e-02 -5.541802570223808289e-02 -3.903578594326972961e-02 1.426178868860006332e-02 -3.808020055294036865e-02 -5.225487053394317627e-02 -6.212271749973297119e-02 5.909023806452751160e-03 -6.605321913957595825e-02 -1.938873343169689178e-02 -3.241123631596565247e-02 9.727535247802734375e-01 4.857728183269500732e-01 -1.008215323090553284e-01 -4.169871681369841099e-04 -1.320947557687759399e-01 1.881389170885086060e-01 1.997251957654953003e-01 -3.268604725599288940e-02 -9.040899574756622314e-02 9.216958284378051758e-02 3.735595569014549255e-02 -7.741985470056533813e-02 4.854426532983779907e-02 -1.650876104831695557e-01 7.695091515779495239e-02 -1.210718881338834763e-02 3.514915588311851025e-04 3.787358105182647705e-02 -1.809565722942352295e-02 -5.697190295904874802e-03 4.134805873036384583e-02 1.781363412737846375e-02 3.822453692555427551e-02 1.262141764163970947e-01 2.023824453353881836e-01 6.992170959711074829e-02 -6.610635668039321899e-02 -2.591181080788373947e-03 1.586741954088211060e-02 -1.901941597461700439e-01 -7.797274738550186157e-02 2.252895850688219070e-03 7.526681292802095413e-03 -2.746228128671646118e-02 5.870970338582992554e-02 -3.082231618463993073e-03 -3.288721293210983276e-02 -5.556882917881011963e-02 -5.360537767410278320e-02 1.231589075177907944e-02 -1.839567348361015320e-02 -6.699221581220626831e-02 -1.773170568048954010e-02 -8.176578581333160400e-02 -8.881985396146774292e-02 -4.373302683234214783e-02 1.458534240722656250e+00 9.606870412826538086e-01 1.698569953441619873e-02 -6.434494163841009140e-03 -3.812125883996486664e-03 -9.631554037332534790e-02 -8.766801096498966217e-03 -1.497288700193166733e-02 -2.038397192955017090e-01 1.038506440818309784e-02 5.452864989638328552e-02 -3.319252282381057739e-03 -1.546850651502609253e-01 -5.880945175886154175e-02 -7.231230288743972778e-02 -1.950316876173019409e-02 2.209248393774032593e-02 1.226504966616630554e-01 1.083361878991127014e-01 3.143066167831420898e-02 3.641679510474205017e-02 3.855136409401893616e-02 -6.175660341978073120e-02 4.945164546370506287e-02 8.530702441930770874e-02 -1.395130902528762817e-01 -1.803823746740818024e-02 -2.350253611803054810e-02 8.331536501646041870e-02 -9.322599321603775024e-02 6.864041090011596680e-02 4.675688222050666809e-03 2.256230078637599945e-02 -7.385344803333282471e-02 6.257155537605285645e-02 3.927312791347503662e-02 -5.718991160392761230e-03 -3.752654790878295898e-02 -2.818391844630241394e-02 3.115586750209331512e-02 -7.634504139423370361e-02 -6.362057477235794067e-02 -8.102687075734138489e-03 -9.169690310955047607e-02 -4.298956692218780518e-02 -6.199352443218231201e-02
4.997595846652984619e-01 4.554832354187965393e-02 1.452354937791824341e-01 4.261823836714029312e-03 -5.481755733489990234e-02 -2.431664615869522095e-02 8.276630192995071411e-02 5.001083016395568848e-02 -8.298676460981369019e-02 9.860567003488540649e-02 -2.119356244802474976e-01 -6.383070349693298340e-02 -3.704091161489486694e-02 -5.978560447692871094e-02 1.340499073266983032e-01 -1.123795099556446075e-02 7.771038264036178589e-02 -9.496398270130157471e-03 -1.555945444852113724e-02 -4.243355989456176758e-02 1.901769079267978668e-02 1.673615723848342896e-02 -5.977611988782882690e-02 2.096384204924106598e-02 5.921079218387603760e-02 2.867661602795124054e-02 3.022943274118006229e-04 -1.424950361251831055e-01 -2.748943679034709930e-02 9.140003472566604614e-02 5.654475092887878418e-02 1.973869279026985168e-03 -1.411961298435926437e-02 1.090206112712621689e-02 -1.996656134724617004e-02 -2.402439713478088379e-02 -1.106109097599983215e-02 -6.402365863323211670e-03 1.169557124376296997e-02 -1.214707456529140472e-02 -4.009719192981719971e-02 -2.801822870969772339e-02 8.394593000411987305e-02 -6.430821120738983154e-02 6.236923485994338989e-02 9.264902211725711823e-03 1.978615112602710724e-02 6.217584013938903809e-02 -3.137155249714851379e-02 -1.429787091910839081e-02 -9.137749671936035156e-02 6.498959660530090332e-02 2.142953872680664062e-02 2.771133556962013245e-02 2.947642095386981964e-02 -1.283883005380630493e-01 -1.822268217802047729e-01 -2.045214325189590454e-01 -4.556399956345558167e-02 7.720652222633361816e-02 -1.670804247260093689e-02 1.498780329711735249e-03 2.291218750178813934e-02 1.752240210771560669e-02 -9.650967270135879517e-02 1.423350442200899124e-02 -1.358932163566350937e-02 2.189497277140617371e-02 -2.063559181988239288e-02 -2.680527791380882263e-02 -8.452953398227691650e-02 -4.005533829331398010e-02 -6.748106330633163452e-03 1.377519816160202026e-01 1.911172568798065186e-01 6.395415868610143661e-03 -5.287309736013412476e-02 7.408047560602426529e-03 -1.232591364532709122e-02 1.626292802393436432e-02 -2.238588221371173859e-02 7.026995997875928879e-03 -6.590720266103744507e-02 -1.383258495479822159e-02 3.130200877785682678e-02 4.019011184573173523e-02 3.183429688215255737e-02 -1.053751911967992783e-02 -5.753456149250268936e-03 -2.173544652760028839e-02 3.731983900070190430e-02 -1.691083889454603195e-03 -3.314540684223175049e-01 5.153452977538108826e-02 3.212155308574438095e-03 3.175935149192810059e-02 1.266398131847381592e-01 1.071453988552093506e-01 7.149988668970763683e-04 -1.758321933448314667e-02 2.696953946724534035e-03 1.359414458274841309e-01 -1.143770962953567505e-01 1.425464600324630737e-01 -6.116409786045551300e-03 -3.213607519865036011e-02 -2.244385480880737305e-01 -9.566439315676689148e-03 -4.627500101923942566e-02 -2.529989555478096008e-02 1.359016299247741699e-01 -2.216438576579093933e-02 -3.866851562634110451e-03 1.122230011969804764e-02 -8.389592915773391724e-02 -6.949643790721893311e-02 -1.483318954706192017e-02 4.691709578037261963e-02 2.298376895487308502e-02 6.178538873791694641e-02 1.872842609882354736e-01 -7.073276489973068237e-02 -4.508186876773834229e-02 5.747472867369651794e-03 -1.404336653649806976e-02 -3.140017017722129822e-02 -9.376954287290573120e-02 -2.604071423411369324e-02 4.922179132699966431e-02 -2.496336773037910461e-02 3.533327952027320862e-02 2.365383692085742950e-02 -2.038249932229518890e-02 -1.083663105964660645e-02 2.652648463845252991e-02 -4.129456065129488707e-04 5.302960425615310669e-02 -1.354456041008234024e-02 -9.175274968147277832e-01 -1.414224207401275635e-01 -2.427366524934768677e-01 3.534130752086639404e-02 1.500261276960372925e-01 -1.132456120103597641e-03 -3.544635325670242310e-02 5.144717916846275330e-02 -3.503074124455451965e-02 -4.452819004654884338e-02 -1.442660689353942871e-01 1.423345357179641724e-01 -2.546462044119834900e-02 -1.188576444983482361e-01 -4.007867723703384399e-02 2.200341597199440002e-02 4.177012667059898376e-02 -6.739549338817596436e-02 -1.804454028606414795e-01 1.294898800551891327e-02 3.777534700930118561e-03 -1.922923885285854340e-02 -7.732707262039184570e-02 2.297066338360309601e-02 1.628920622169971466e-02 9.664772078394889832e-03 -1.183657627552747726e-02 -1.289756689220666885e-02 9.837737679481506348e-02 -7.503080368041992188e-02 -2.486838959157466888e-02 8.471833541989326477e-03 -1.612580753862857819e-02 3.975676372647285461e-02 -5.062854290008544922e-02 1.091323979198932648e-02 3.081047907471656799e-02 7.100600749254226685e-02 -1.342917233705520630e-02 1.032472820952534676e-03 8.460282348096370697e-03 5.800891295075416565e-02 6.039036065340042114e-02 -1.671457476913928986e-02 5.398018658161163330e-02 -8.586076088249683380e-03 -1.788966298103332520e+00 -4.724198579788208008e-01 -2.837196886539459229e-01 9.606406092643737793e-02 -1.572268456220626831e-01 -3.806178271770477295e-02 1.160696074366569519e-01 -1.261570770293474197e-02 -1.555169187486171722e-02 -1.229039356112480164e-01 -1.219952255487442017e-01 3.958781063556671143e-02 6.936874240636825562e-02 1.284732371568679810e-01 -8.777575939893722534e-02 -1.979620568454265594e-02 -1.141892373561859131e-01 -6.304768472909927368e-02 -8.162841945886611938e-02 -1.332339737564325333e-02 -2.560431696474552155e-02 3.328882530331611633e-02 5.254643410444259644e-02 9.939136356115341187e-02 8.749246597290039062e-02 -6.199338659644126892e-02 6.270141154527664185e-02 9.875509142875671387e-02 -1.873426698148250580e-02 3.844914585351943970e-02 4.580361396074295044e-02 1.019068411551415920e-03 -1.504962705075740814e-02 -2.486321888864040375e-02 -5.508296564221382141e-02 1.560189668089151382e-02 1.418235898017883301e-01 -5.793991032987833023e-03 1.734055392444133759e-02 3.722352534532546997e-02 4.942432790994644165e-02 1.053862944245338440e-01 5.738185346126556396e-02 -7.511150091886520386e-03 3.288699313998222351e-02 1.965964026749134064e-02
-1.700311154127120972e-01 -6.216953694820404053e-02 5.687593948096036911e-03 -1.722458191215991974e-02 6.534403655678033829e-03 -5.466434732079505920e-02 -3.533513471484184265e-02 2.990297600626945496e-02 -2.076074481010437012e-03 -1.053714677691459656e-01 4.739518836140632629e-02 -1.062180697917938232e-01 -1.563551649451255798e-02 -1.843450218439102173e-02 -2.343150041997432709e-02 -1.001922972500324249e-02 -1.245944201946258545e-02 -1.937580108642578125e-01 -2.193506658077239990e-01 -1.669886149466037750e-02 6.795526482164859772e-03 3.324446827173233032e-02 -4.645575582981109619e-02 1.681429296731948853e-01 1.271417886018753052e-01 -1.133046951144933701e-02 -1.472961436957120895e-02 1.503255367279052734e-01 3.262268602848052979e-01 9.761014580726623535e-02 5.653952062129974365e-02 1.147016696631908417e-02 -1.699273288249969482e-02 7.972255349159240723e-03 1.716653467155992985e-03 4.403244331479072571e-02 -2.115247026085853577e-02 3.256471827626228333e-02 -1.922754198312759399e-02 5.945580452680587769e-02 1.978995464742183685e-02 2.103195711970329285e-02 1.268556565046310425e-01 -2.142065204679965973e-02 -1.481860503554344177e-02 -6.313637644052505493e-02 1.059159077703952789e-02 1.678882241249084473e-01 5.069093033671379089e-02 3.377861529588699341e-02 -1.179254278540611267e-01 6.331750750541687012e-02 1.494499109685420990e-02 -6.951277703046798706e-02 -8.854942396283149719e-03 1.604704372584819794e-02 3.457780927419662476e-02 5.556558445096015930e-02 2.809095894917845726e-03 -1.134475544095039368e-01 7.579915970563888550e-02 -2.153579611331224442e-03 3.600026294589042664e-02 3.183117881417274475e-02 2.949836477637290955e-02 3.851012140512466431e-02 3.053417056798934937e-02 -2.953126281499862671e-02 3.544160723686218262e-02 1.556328870356082916e-02 -7.754977047443389893e-02 3.360238298773765564e-02 2.832691930234432220e-02 9.055991470813751221e-02 4.122804403305053711e-01 4.396780952811241150e-02 -3.388338536024093628e-02 -8.550891652703285217e-03 -1.969647221267223358e-02 -5.402795504778623581e-03 -5.791015177965164185e-02 2.926516719162464142e-02 9.335871785879135132e-02 -1.515551377087831497e-02 3.807587921619415283e-02 1.021134778857231140e-01 2.976003661751747131e-02 5.338232964277267456e-02 -1.037376839667558670e-02 -2.137921750545501709e-02 -3.245169669389724731e-02 3.522014990448951721e-02 -6.626124680042266846e-02 -5.504901707172393799e-02 1.393711715936660767e-01 1.932559534907341003e-02 5.853534489870071411e-02 1.194838881492614746e-01 -6.304811686277389526e-02 7.032940536737442017e-02 2.747968025505542755e-02 -3.926192224025726318e-02 2.911837538704276085e-03 1.754447072744369507e-01 1.257130801677703857e-01 6.691347225569188595e-04 -2.071204036474227905e-02 2.372814901173114777e-02 2.025080285966396332e-02 6.590042263269424438e-02 6.844889372587203979e-02 3.205758333206176758e-02 4.445168375968933105e-02 4.262631293386220932e-03 -1.014489913359284401e-03 -1.255573797971010208e-02 -1.297396887093782425e-02 -8.338868618011474609e-02 -3.719653561711311340e-02 1.491790711879730225e-01 3.664332926273345947e-01 -3.347622230648994446e-03 9.729450941085815430e-02 -5.648677237331867218e-03 -3.020689636468887329e-02 4.863490909337997437e-02 5.345978215336799622e-02 1.103696376085281372e-01 1.829160377383232117e-02 -2.368562296032905579e-02 3.311144188046455383e-02 1.065109577029943466e-02 7.688143849372863770e-02 6.926937401294708252e-02 -1.518994197249412537e-02 -5.799499899148941040e-02 -1.383270770311355591e-01 -1.997102983295917511e-02 -8.882036805152893066e-02 -1.146084740757942200e-01 -1.024542525410652161e-01 -3.718609362840652466e-02 -3.779256343841552734e-02 -7.940588146448135376e-02 -1.063444390892982483e-01 -4.998315125703811646e-02 4.429727792739868164e-02 8.181335031986236572e-02 -1.018364280462265015e-01 1.583272777497768402e-02 1.405007392168045044e-01 -4.997425712645053864e-03 3.124432079493999481e-02 -5.550721287727355957e-02 -1.418764889240264893e-01 -2.478967187926173210e-03 7.873952388763427734e-02 9.036836773157119751e-02 -5.788528546690940857e-02 2.311494946479797363e-02 4.215166345238685608e-02 -2.916687913239002228e-02 -1.120855882763862610e-01 -2.249954454600811005e-02 6.575662642717361450e-02 2.126261591911315918e-01 2.784963548183441162e-01 -4.444235190749168396e-02 1.167292706668376923e-02 -1.153678726404905319e-02 -1.514163892716169357e-02 -1.348507255315780640e-01 -1.027674647048115730e-03 -3.851099684834480286e-02 -7.616300880908966064e-02 5.247016623616218567e-02 -1.668343245983123779e-01 7.792427204549312592e-03 -6.951529532670974731e-02 7.863534241914749146e-02 -1.352226287126541138e-01 6.930105388164520264e-03 4.383857548236846924e-02 3.195421025156974792e-02 -2.852017991244792938e-02 -6.198356673121452332e-02 3.811469301581382751e-02 -7.086435705423355103e-02 8.441413193941116333e-02 -1.022183969616889954e-01 -3.163803368806838989e-02 -1.854123361408710480e-02 -4.167709127068519592e-02 -2.112161368131637573e-02 3.353914618492126465e-02 -1.297506038099527359e-02 -4.753628373146057129e-02 1.051776483654975891e-01 2.552852034568786621e-02 4.102247208356857300e-02 2.054869383573532104e-02 5.132205039262771606e-02 -1.255881339311599731e-01 -1.594709698110818863e-03 6.709069758653640747e-02 -1.844981685280799866e-02 5.375540349632501602e-03 9.865481406450271606e-04 7.019649446010589600e-02 -5.819286033511161804e-02 7.419077446684241295e-04 1.553199440240859985e-01 3.426812291145324707e-01 -6.008773297071456909e-02 -1.069214493036270142e-01 -2.293948829174041748e-02 -2.241045981645584106e-02 -1.048312149941921234e-02 -4.001464322209358215e-02 -1.712058484554290771e-02 -7.184017449617385864e-02 -3.394176252186298370e-03 -1.410535071045160294e-03 -5.685116164386272430e-03 -3.315054054837673903e-04 5.107023939490318298e-02 -7.314593531191349030e-03 -1.669616438448429108e-03 -7.169161736965179443e-02 -4.517522826790809631e-02
6.271576881408691406e-02 -2.854668907821178436e-02 5.966600496321916580e-03 -2.173373997211456299e-01 -1.692693829536437988e-01 7.382655143737792969e-02 -8.826263248920440674e-03 7.141777127981185913e-02 -1.497654765844345093e-01 -1.410431563854217529e-01 1.527750166133046150e-03 -4.684618208557367325e-03 -4.885534197092056274e-02 2.587672695517539978e-02 -2.896493487060070038e-02 -3.325664997100830078e-02 7.231914252042770386e-02 5.681575462222099304e-02 -4.744969774037599564e-03 -2.491399459540843964e-02 1.725693233311176300e-02 3.085474111139774323e-02 6.764456629753112793e-02 -4.350716248154640198e-02 -3.332165256142616272e-02 -5.404945928603410721e-03 3.087454475462436676e-02 2.321316599845886230e-01 -1.188445687294006348e-01 1.022530645132064819e-01 -2.722201645374298096e-01 1.557784061878919601e-02 1.296035200357437134e-02 -5.646104738116264343e-02 2.256188355386257172e-02 7.319559901952743530e-02 -1.079307124018669128e-01 -3.664458915591239929e-02 1.033287699101492763e-04 -3.999374434351921082e-02 9.680308401584625244e-03 1.826026104390621185e-02 -9.675295650959014893e-02 6.505474448204040527e-02 4.331691935658454895e-02 3.969532251358032227e-02 2.777968160808086395e-02 6.968302279710769653e-02 -1.276728510856628418e-01 7.569167762994766235e-02 -4.733770713210105896e-02 -7.754359394311904907e-02 -4.901092872023582458e-02 1.153593212366104126e-01 3.330816328525543213e-02 8.665566891431808472e-02 -2.448951825499534607e-02 -7.567081600427627563e-02 3.383175283670425415e-02 2.923861332237720490e-02 5.792298540472984314e-02 8.188255131244659424e-03 -1.037363111972808838e-01 5.998054984956979752e-04 -2.867441251873970032e-02 -9.915273636579513550e-02 2.607032842934131622e-02 -1.898210309445858002e-02 5.751428380608558655e-02 -3.479686006903648376e-02 -4.883024841547012329e-02 1.958294957876205444e-02 -3.045114281121641397e-04 1.929171681404113770e-01 -2.274923175573348999e-01 9.193547815084457397e-02 6.744743883609771729e-02 -4.134821239858865738e-03 -6.133868359029293060e-03 8.546108007431030273e-02 -4.510957002639770508e-02 -5.499314516782760620e-02 -2.151073142886161804e-02 -1.424597110599279404e-02 4.828240722417831421e-02 4.444964975118637085e-02 -3.799553960561752319e-02 1.304342504590749741e-02 3.347071632742881775e-02 1.033836975693702698e-02 -1.597910188138484955e-02 2.124162204563617706e-02 -1.539940480142831802e-02 1.751032620668411255e-01 9.882366284728050232e-03 -3.595661744475364685e-02 7.187683880329132080e-02 7.264607399702072144e-02 1.335593760013580322e-01 -4.750844836235046387e-02 -1.417282223701477051e-01 -7.388237863779067993e-02 1.224604435265064240e-02 1.663534785620868206e-03 3.366337344050407410e-02 -6.494694203138351440e-02 3.698114305734634399e-02 -2.671837247908115387e-02 1.360855102539062500e-01 -5.942875891923904419e-02 7.862524129450321198e-03 4.148764535784721375e-02 -4.384646937251091003e-02 -2.071282593533396721e-03 -3.791210055351257324e-02 4.031442478299140930e-02 3.598939999938011169e-02 -1.084136888384819031e-01 -2.009892463684082031e-02 2.166725546121597290e-01 -1.363892555236816406e-01 1.790150701999664307e-01 7.343231141567230225e-02 3.312801942229270935e-02 1.861919835209846497e-02 2.386876009404659271e-02 -1.832640543580055237e-02 6.543475203216075897e-03 -1.703207264654338360e-03 6.201791577041149139e-03 -1.013795360922813416e-01 -4.514292255043983459e-02 -2.952826209366321564e-02 -2.964546903967857361e-02 3.331814706325531006e-02 9.372945129871368408e-02 -3.297122567892074585e-02 -1.213311776518821716e-01 5.178090929985046387e-02 -2.599373087286949158e-02 -3.094956278800964355e-02 -3.629634622484445572e-03 -9.477318078279495239e-02 -4.720803350210189819e-02 1.052367240190505981e-01 1.935279555618762970e-02 1.144353747367858887e-01 9.728182107210159302e-02 -1.776333339512348175e-02 7.165333628654479980e-02 -9.050910174846649170e-02 4.528217762708663940e-02 -1.161517128348350525e-01 -2.357435226440429688e-02 -1.898270398378372192e-01 -5.242675915360450745e-02 -1.219506338238716125e-01 1.025775372982025146e-01 3.559563308954238892e-02 9.217685088515281677e-03 1.231086179614067078e-01 -1.090518012642860413e-01 -6.945573538541793823e-02 6.101125851273536682e-02 3.888850659132003784e-02 1.571157425642013550e-01 -1.447690874338150024e-01 -9.556717425584793091e-02 1.245189085602760315e-01 1.626909710466861725e-02 -1.750607974827289581e-02 -6.739924103021621704e-02 -2.359407395124435425e-02 1.270510256290435791e-02 -8.343150466680526733e-02 1.067146752029657364e-02 1.619102060794830322e-02 4.823148250579833984e-02 -4.160219058394432068e-02 -1.021336168050765991e-01 -2.163294935598969460e-03 1.460259556770324707e-01 1.949338056147098541e-02 1.209776252508163452e-01 1.996273994445800781e-01 -1.455846726894378662e-01 -1.157994102686643600e-02 2.554931491613388062e-02 1.428162455558776855e-01 1.392891071736812592e-02 -3.984243795275688171e-02 -2.249713800847530365e-02 -6.788092851638793945e-02 2.371945232152938843e-02 5.618295073509216309e-02 2.103282324969768524e-02 6.940194219350814819e-02 -1.269299685955047607e-01 3.388380631804466248e-02 -1.113663334399461746e-02 -4.752747341990470886e-02 -1.189933810383081436e-02 -1.413971930742263794e-02 -1.593804210424423218e-01 -4.833164066076278687e-02 -1.346191950142383575e-02 1.643986999988555908e-01 -5.526383966207504272e-02 4.928763210773468018e-02 1.038516983389854431e-01 3.260368481278419495e-02 1.677293479442596436e-01 -2.186273485422134399e-01 -7.967571914196014404e-02 6.577593088150024414e-02 4.438978806138038635e-02 -7.485916838049888611e-03 -2.507371455430984497e-02 -1.077332571148872375e-01 -7.617165893316268921e-02 -1.140511855483055115e-01 -6.653674691915512085e-02 2.994321472942829132e-02 1.316979434341192245e-02 4.212038591504096985e-02 6.786671280860900879e-02 -3.165689855813980103e-02 -3.079895861446857452e-02 -6.408122926950454712e-02 9.334418922662734985e-02
4.164222478866577148e-01 3.699683547019958496e-01 -4.454792663455009460e-02 -4.571675136685371399e-02 -1.584253907203674316e-01 -5.158733576536178589e-02 -1.098705921322107315e-02 4.009936377406120300e-02 -1.197621449828147888e-01 5.408274009823799133e-03 -7.404836267232894897e-02 -1.403010487556457520e-01 2.858038060367107391e-02 -9.910221397876739502e-02 1.756177842617034912e-02 -1.036834437400102615e-02 4.957494512200355530e-02 7.081604748964309692e-02 2.107249759137630463e-02 8.955419063568115234e-03 3.458610177040100098e-02 -4.510582890361547470e-03 -3.301371261477470398e-02 -3.239053115248680115e-02 2.297959104180335999e-02 2.833632007241249084e-02 2.299028215929865837e-03 -6.186591088771820068e-02 1.218235194683074951e-01 4.725372791290283203e-02 -4.008252173662185669e-02 -4.940450191497802734e-03 1.377313583361683413e-05 -1.059660222381353378e-02 2.617876045405864716e-02 -2.147704176604747772e-02 -3.071319870650768280e-02 1.822262257337570190e-02 2.132488787174224854e-02 2.427774667739868164e-02 -6.095471978187561035e-02 -1.200321596115827560e-02 3.422915935516357422e-03 4.939692560583353043e-03 -1.382408663630485535e-02 4.112200345844030380e-03 1.763127446174621582e-01 7.751117646694183350e-02 1.790723763406276703e-04 1.545342430472373962e-02 4.651532508432865143e-03 -1.027043536305427551e-01 -2.566815353929996490e-02 -3.469901531934738159e-02 -4.623314365744590759e-02 3.137200325727462769e-02 -1.230887547135353088e-01 1.881135813891887665e-02 -1.207767706364393234e-02 1.155155822634696960e-01 -6.337182968854904175e-02 -2.059286274015903473e-02 1.892933622002601624e-02 -7.730319350957870483e-02 -9.482668340206146240e-02 -6.386454217135906219e-03 9.588637622073292732e-04 4.415811970829963684e-03 -9.057378023862838745e-02 -1.432196423411369324e-02 -6.643874943256378174e-02 -8.012480288743972778e-02 -2.819598838686943054e-02 2.872571535408496857e-02 6.585486233234405518e-02 -3.648459538817405701e-02 3.982381522655487061e-02 6.624681554967537522e-05 -1.775061682565137744e-04 -1.549601787701249123e-03 -1.867956598289310932e-04 -4.352988302707672119e-02 -1.768180169165134430e-02 -1.141194254159927368e-02 -3.055676817893981934e-02 1.942062750458717346e-02 -4.719325900077819824e-02 -7.017536554485559464e-04 8.760661818087100983e-03 1.813301630318164825e-02 -1.351824961602687836e-02 8.223287761211395264e-03 -3.327496945858001709e-01 -2.271911054849624634e-01 6.341457366943359375e-03 -3.220251575112342834e-02 -1.300390660762786865e-01 -1.263456493616104126e-01 -8.499608188867568970e-02 -4.146758839488029480e-02 -2.053186483681201935e-02 -4.234483093023300171e-02 -1.287581026554107666e-01 -3.936871886253356934e-02 -1.695303916931152344e-01 -1.875805109739303589e-01 -9.984523802995681763e-02 1.361398305743932724e-02 -1.351974308490753174e-01 -3.473436832427978516e-02 4.244438186287879944e-02 5.487345624715089798e-04 -2.398837730288505554e-02 -2.360418811440467834e-02 1.232050433754920959e-01 -7.206595968455076218e-03 5.360723659396171570e-02 1.304479502141475677e-02 3.856752440333366394e-02 -6.548485904932022095e-02 3.052026592195034027e-02 -8.439837396144866943e-02 1.419570297002792358e-01 9.503018110990524292e-03 -3.160419175401329994e-03 2.148981578648090363e-02 4.263098817318677902e-03 -1.757147535681724548e-02 -1.377952005714178085e-02 4.814074840396642685e-03 1.952219568192958832e-02 4.919687751680612564e-03 -1.104333251714706421e-02 5.444072932004928589e-02 3.742481768131256104e-02 1.404714025557041168e-02 3.897436195984482765e-03 2.213444374501705170e-02 -8.537055253982543945e-01 -7.369434833526611328e-01 -9.752036631107330322e-02 -9.189776331186294556e-02 -7.024272531270980835e-02 -1.235901638865470886e-01 -9.123031049966812134e-02 -9.484300762414932251e-02 -6.414137035608291626e-02 1.438283473253250122e-01 -5.903704557567834854e-03 -1.662732660770416260e-02 9.971581166610121727e-04 3.490783274173736572e-02 3.146246448159217834e-02 -1.334728021174669266e-02 4.697908461093902588e-02 -7.337822765111923218e-02 -9.158179163932800293e-02 2.419561520218849182e-02 1.846058294177055359e-02 -1.441716868430376053e-02 -1.224029511213302612e-01 -9.486799687147140503e-02 1.462057605385780334e-02 4.328190814703702927e-03 -2.151337638497352600e-02 -2.078840136528015137e-02 -1.723647619655821472e-05 8.391637355089187622e-03 -1.079890951514244080e-01 2.063563652336597443e-02 -7.369184866547584534e-03 -2.573957853019237518e-02 -2.134297974407672882e-02 -6.439828313887119293e-03 -2.236393839120864868e-02 1.483539212495088577e-02 2.174785546958446503e-02 4.745705425739288330e-02 -1.066235546022653580e-02 4.470801725983619690e-02 4.418198764324188232e-02 1.728492416441440582e-02 -1.824244856834411621e-02 3.797957301139831543e-02 -1.428697824478149414e+00 -1.296582579612731934e+00 -8.243501931428909302e-02 1.565325856208801270e-01 -1.143864467740058899e-01 4.916395619511604309e-02 -1.534262299537658691e-01 -2.912126481533050537e-02 6.138214841485023499e-02 2.120757289230823517e-02 -8.941139280796051025e-02 -3.766270354390144348e-02 4.090185463428497314e-02 5.424334853887557983e-02 -9.999343007802963257e-02 -6.837559863924980164e-03 -2.214614748954772949e-01 -1.576284617185592651e-01 -2.274122275412082672e-02 -3.816184401512145996e-02 -6.021905317902565002e-02 -2.475437708199024200e-03 1.719210296869277954e-01 3.701881691813468933e-02 -6.025428324937820435e-02 -5.729629844427108765e-02 -6.620541214942932129e-03 9.383480995893478394e-02 4.338793829083442688e-02 1.664759591221809387e-02 -3.069223091006278992e-02 3.476848453283309937e-02 -1.167795434594154358e-02 2.081418596208095551e-02 -1.211488153785467148e-02 -1.440851390361785889e-02 5.096636340022087097e-02 -3.940070793032646179e-02 -7.659430801868438721e-02 2.439246326684951782e-02 4.048202186822891235e-02 1.360106021165847778e-01 -8.305341005325317383e-02 5.133594945073127747e-02 -1.149119436740875244e-01 7.169720530509948730e-02
-1.117131486535072327e-01 -3.187685012817382812e-01 -8.274193108081817627e-02 2.168907225131988525e-02 7.449994981288909912e-02 -1.713295578956604004e-01 1.127536296844482422e-01 8.752677589654922485e-02 5.647121369838714600e-02 8.139681071043014526e-02 -8.557887375354766846e-02 2.270630002021789551e-02 -1.646331995725631714e-01 6.815587729215621948e-02 -1.001999601721763611e-01 -7.457665167748928070e-03 -2.307415194809436798e-02 7.428599894046783447e-02 -1.465416606515645981e-02 7.630894333124160767e-02 2.552582649514079094e-03 -3.747481852769851685e-02 2.624084986746311188e-02 -4.134735837578773499e-02 -5.367095395922660828e-02 -3.709620609879493713e-02 4.245970398187637329e-03 5.259079486131668091e-02 -1.847240030765533447e-01 1.245176419615745544e-01 7.920531183481216431e-02 1.433522440493106842e-03 9.664910845458507538e-03 1.775601878762245178e-02 -7.145375944674015045e-03 -3.790995106101036072e-02 -4.158041626214981079e-02 -3.250454738736152649e-02 3.942271322011947632e-02 1.286543556489050388e-03 -2.337219938635826111e-02 -4.538214206695556641e-02 -7.254796475172042847e-02 1.333038806915283203e-01 -6.628393381834030151e-02 8.666215837001800537e-02 6.846051663160324097e-02 -9.651472419500350952e-02 -3.344840928912162781e-02 1.131069585680961609e-01 1.218939721584320068e-01 9.376189857721328735e-02 -1.229264810681343079e-01 -3.653151169419288635e-02 -3.732572495937347412e-02 1.245191320776939392e-01 -4.618646111339330673e-03 7.426127791404724121e-02 9.767284989356994629e-02 -7.624744623899459839e-02 -6.026783958077430725e-03 -1.847084425389766693e-02 2.527580829337239265e-03 -1.274997293949127197e-01 -3.448525443673133850e-02 -4.475853592157363892e-02 -3.936025127768516541e-02 -2.624957077205181122e-02 -1.091778278350830078e-01 9.186846017837524414e-02 -7.289145141839981079e-02 -5.458566173911094666e-02 -7.388600707054138184e-02 2.037320435047149658e-01 -1.672321707010269165e-01 6.723712384700775146e-02 -1.663188338279724121e-01 2.090184716507792473e-03 4.419323056936264038e-03 1.122504007071256638e-02 6.653779651969671249e-03 -5.718208849430084229e-02 -4.864281788468360901e-02 4.405555129051208496e-02 4.237840324640274048e-02 5.885727237910032272e-03 -5.297562479972839355e-02 -9.569466114044189453e-03 -1.334863901138305664e-01 6.734491884708404541e-02 -3.043720126152038574e-02 -6.044802255928516388e-03 -9.316514432430267334e-02 -2.428418993949890137e-01 8.839076757431030273e-02 -4.285835102200508118e-02 4.628952220082283020e-02 9.679424576461315155e-03 1.017908100038766861e-02 -8.368542045354843140e-02 6.718075275421142578e-02 -1.862368732690811157e-01 -4.028711840510368347e-02 8.127710781991481781e-03 -1.045691594481468201e-02 -4.450804088264703751e-03 -8.073996752500534058e-02 2.530871890485286713e-03 2.355195581912994385e-03 -1.032436080276966095e-02 1.905853860080242157e-02 4.989901557564735413e-02 2.593216300010681152e-02 1.638439856469631195e-02 1.298076007515192032e-02 1.076580360531806946e-01 -4.065645858645439148e-03 9.622601419687271118e-02 6.962364166975021362e-02 -4.651328176259994507e-02 -2.920767962932586670e-01 1.226816209964454174e-03 1.440624147653579712e-01 -2.047568559646606445e-03 3.070617560297250748e-03 6.244251132011413574e-02 -4.726254940032958984e-02 -2.856440097093582153e-02 -1.473900824785232544e-01 -3.233065456151962280e-02 1.647655665874481201e-01 6.618896126747131348e-02 -8.159916102886199951e-02 -6.884571909904479980e-02 -2.007832676172256470e-01 1.192431375384330750e-01 8.899094909429550171e-02 -3.162246197462081909e-02 -2.281524837017059326e-01 1.117908507585525513e-01 -1.076450794935226440e-01 2.461312152445316315e-02 -3.002305701375007629e-02 3.112118318676948547e-02 4.792857170104980469e-02 2.426095865666866302e-02 1.065696477890014648e-01 -7.570020109415054321e-02 5.971596762537956238e-02 -1.715355217456817627e-01 -1.566412299871444702e-01 1.093937233090400696e-01 2.853983454406261444e-02 2.751004882156848907e-02 9.452821314334869385e-02 -4.486064985394477844e-02 -1.362777948379516602e-01 6.231872364878654480e-02 1.506778877228498459e-03 -5.124362558126449585e-02 8.614241960458457470e-04 4.161110147833824158e-02 -6.330834585241973400e-04 -2.753999270498752594e-02 -5.688316375017166138e-02 6.997124105691909790e-02 -2.729375362396240234e-01 6.820950657129287720e-02 -5.759095028042793274e-02 3.331605577841401100e-03 -1.993837393820285797e-02 2.084012841805815697e-03 7.211336493492126465e-02 -4.586154967546463013e-02 -7.415238022804260254e-02 4.310855292715132236e-04 4.938097298145294189e-02 -8.493946492671966553e-02 7.757493108510971069e-02 -1.276435256004333496e-01 -5.364622548222541809e-02 8.375757932662963867e-02 -8.090110123157501221e-02 -3.708880767226219177e-02 -3.522554337978363037e-01 6.724551320075988770e-02 -1.203238666057586670e-01 -4.248194023966789246e-02 5.490563064813613892e-02 1.083288937807083130e-01 -1.456869207322597504e-02 -2.001752704381942749e-02 1.024039536714553833e-01 4.240169748663902283e-02 4.124924074858427048e-03 -1.067771166563034058e-01 -1.385822743177413940e-01 -6.403895467519760132e-02 -1.300114691257476807e-01 -3.788764879573136568e-04 -1.265487819910049438e-01 1.212712526321411133e-01 -1.923515275120735168e-02 -4.659922793507575989e-02 -2.906700409948825836e-02 -2.463854849338531494e-02 4.504979029297828674e-02 -1.428062841296195984e-02 -1.512909587472677231e-02 -1.591647602617740631e-02 5.779048800468444824e-02 -4.158329963684082031e-02 -3.700306117534637451e-01 -3.548995777964591980e-02 1.542150136083364487e-02 -1.472867187112569809e-02 -1.855566538870334625e-02 -6.628068536520004272e-02 -1.327514462172985077e-02 1.398223545402288437e-02 -9.358783811330795288e-02 -1.396944522857666016e-01 3.062920458614826202e-02 -2.848747558891773224e-02 4.821290727704763412e-03 -3.051963821053504944e-02 1.650399528443813324e-02 -1.260954607278108597e-02 5.454333126544952393e-02 7.555296272039413452e-02
-1.218515411019325256e-01 -2.223615907132625580e-02 6.742509454488754272e-02 1.314720809459686279e-01 9.737300872802734375e-02 6.939584016799926758e-02 8.973500877618789673e-02 5.640154704451560974e-02 -1.114357933402061462e-01 -2.004771828651428223e-01 1.527378559112548828e-01 7.186827063560485840e-02 -4.969562217593193054e-02 -2.663716301321983337e-02 -9.798341989517211914e-02 -4.107900895178318024e-03 4.425990208983421326e-02 2.370292693376541138e-02 2.304259128868579865e-02 -3.216539323329925537e-02 1.459936890751123428e-02 -9.318082593381404877e-03 -6.542799621820449829e-02 -2.486653253436088562e-02 1.191840246319770813e-01 -2.287813648581504822e-02 1.205348223447799683e-02 -7.792566716670989990e-02 1.200796756893396378e-02 -8.333531022071838379e-02 -2.429143190383911133e-01 -1.031785923987627029e-02 1.101485919207334518e-02 7.513124961405992508e-03 -3.930586203932762146e-02 8.736628293991088867e-02 1.204439438879489899e-03 3.173789940774440765e-03 2.303093485534191132e-02 2.055923454463481903e-02 -3.115624003112316132e-02 -2.768153697252273560e-02 1.389573216438293457e-01 -1.083148494362831116e-01 9.286656975746154785e-02 -1.797505468130111694e-02 -1.852367818355560303e-02 -3.885669400915503502e-03 1.185943037271499634e-01 -1.436457410454750061e-02 -6.920205801725387573e-02 -5.314232409000396729e-02 -7.259237766265869141e-02 -2.248720973730087280e-01 4.502217471599578857e-02 -1.899088919162750244e-02 1.443760097026824951e-01 -2.728685736656188965e-02 1.028881147503852844e-01 -4.399515315890312195e-02 -9.547307342290878296e-02 -2.265669964253902435e-02 -5.751561839133501053e-03 -8.390977978706359863e-02 -6.074927002191543579e-02 5.793572962284088135e-02 -1.245654746890068054e-02 2.063459530472755432e-02 8.142141252756118774e-02 5.564317479729652405e-02 -3.354949131608009338e-02 -3.667442873120307922e-02 -3.315561264753341675e-02 -4.301225766539573669e-02 3.168219327926635742e-02 -9.470850974321365356e-02 2.194523364305496216e-01 1.987021882086992264e-03 6.232999730855226517e-03 -4.583606868982315063e-02 4.550267010927200317e-02 4.499074444174766541e-02 2.867817645892500877e-03 5.742342770099639893e-02 3.643216937780380249e-02 4.381620138883590698e-02 4.007561132311820984e-02 -8.433347195386886597e-02 7.033321261405944824e-02 -7.259382307529449463e-02 4.879062622785568237e-02 2.290351316332817078e-02 -1.781028322875499725e-02 7.367911934852600098e-02 1.703725457191467285e-01 -2.089187651872634888e-01 -5.807911232113838196e-02 7.668612152338027954e-02 -3.660366311669349670e-02 -9.233222901821136475e-02 -2.364750578999519348e-02 -7.082229852676391602e-02 1.034747436642646790e-01 -1.792037114500999451e-02 2.345449663698673248e-02 -4.132218658924102783e-02 2.868780680000782013e-02 2.657762542366981506e-02 1.365442574024200439e-01 1.069053933024406433e-01 1.092463657259941101e-01 3.368987515568733215e-02 6.580485403537750244e-02 -2.502037398517131805e-02 -7.802174240350723267e-02 -8.848398178815841675e-02 -2.295547910034656525e-02 4.290818050503730774e-02 1.211828645318746567e-02 -3.186353296041488647e-02 7.417649030685424805e-02 1.536868363618850708e-01 -2.678857650607824326e-03 -8.761726319789886475e-03 -7.663411670364439487e-04 -3.249608352780342102e-02 5.936758592724800110e-02 -2.867620065808296204e-02 -8.497138507664203644e-03 4.460152611136436462e-02 6.520501524209976196e-02 -4.866817500442266464e-03 -3.154522739350795746e-03 -5.493750795722007751e-02 5.598035082221031189e-02 -7.887630164623260498e-02 1.522911489009857178e-01 -8.035716600716114044e-03 -9.870368242263793945e-02 1.335016191005706787e-01 -2.043257933109998703e-03 -5.019306391477584839e-02 -3.307019919157028198e-02 -1.856343075633049011e-02 -1.475528627634048462e-02 6.360715627670288086e-02 -1.030034646391868591e-01 -4.317792132496833801e-02 5.516153946518898010e-02 -3.560874843969941139e-03 -1.200077980756759644e-01 -1.527754664421081543e-01 7.748713344335556030e-02 -1.237743347883224487e-02 1.048584133386611938e-01 -4.732241854071617126e-02 -8.337752521038055420e-02 -6.602479517459869385e-02 4.206662252545356750e-02 -3.267418220639228821e-02 -1.768233813345432281e-02 1.709349639713764191e-02 1.249387785792350769e-01 -1.189948320388793945e-01 -1.432405710220336914e-01 -1.609571874141693115e-01 3.720133379101753235e-02 2.424061112105846405e-02 6.281779706478118896e-02 -1.680262945592403412e-02 -5.733840633183717728e-03 9.928516112267971039e-03 1.997042074799537659e-02 -2.458765869960188866e-03 2.195119112730026245e-02 -1.145198196172714233e-02 -3.493181988596916199e-02 1.287839654833078384e-02 3.632469102740287781e-02 -3.164463676512241364e-03 8.974434435367584229e-02 -1.170771941542625427e-01 -9.943976067006587982e-03 4.355633631348609924e-02 4.019343852996826172e-02 -1.872523725032806396e-01 -1.122950017452239990e-01 4.024133086204528809e-02 8.479790389537811279e-02 -7.547109574079513550e-02 -1.864017844200134277e-01 8.104193955659866333e-03 -7.728156447410583496e-02 -5.218068137764930725e-03 1.625435054302215576e-01 -2.068569138646125793e-02 -3.362841904163360596e-02 1.161837428808212280e-01 -7.766311615705490112e-02 -4.587466642260551453e-02 5.924288928508758545e-02 1.187792420387268066e-01 4.619911778718233109e-03 -1.044798120856285095e-01 -4.427676647901535034e-02 3.238908946514129639e-03 1.599621474742889404e-01 -5.947792669758200645e-04 -1.334196627140045166e-01 -1.092182323336601257e-01 3.284068079665303230e-03 6.189016997814178467e-02 -1.063739806413650513e-01 2.909274101257324219e-01 2.716377563774585724e-02 -8.781585842370986938e-03 -1.073314622044563293e-02 -4.412042722105979919e-02 4.599045589566230774e-02 3.359537944197654724e-02 1.341357678174972534e-01 -1.170503199100494385e-01 -2.442722907289862633e-03 2.663847804069519043e-02 4.744290187954902649e-02 8.070745319128036499e-02 1.140429545193910599e-02 1.452448405325412750e-02 -3.284042759332805872e-04 2.214958518743515015e-02
5.651984363794326782e-02 -3.943398967385292053e-02 1.097249984741210938e-01 -2.202817611396312714e-02 -6.436170078814029694e-03 -1.205011606216430664e-01 -6.325384601950645447e-03 7.034350186586380005e-03 -7.503149658441543579e-02 3.003258071839809418e-02 -6.051387637853622437e-02 -8.204764127731323242e-02 -6.037407740950584412e-02 4.742405191063880920e-02 -4.075300693511962891e-02 -2.494637295603752136e-02 1.626913808286190033e-02 6.597006320953369141e-02 4.081661626696586609e-02 -6.273277569562196732e-03 2.327385917305946350e-02 1.485521998256444931e-02 -1.002538129687309265e-01 -7.355366647243499756e-02 -7.867585867643356323e-02 1.320410333573818207e-02 -1.045222301036119461e-02 -4.605197310447692871e-01 8.333068341016769409e-02 2.543604746460914612e-02 -3.080574236810207367e-02 -5.215856246650218964e-03 1.531381974928081036e-03 -1.340438239276409149e-02 -6.384024769067764282e-02 -6.426636129617691040e-02 -3.295946866273880005e-03 -3.326807543635368347e-02 -2.142166951671242714e-03 1.856192201375961304e-02 -9.006296098232269287e-02 -6.820317357778549194e-02 4.837188497185707092e-02 -8.685809560120105743e-03 4.138007014989852905e-02 3.804929554462432861e-02 4.188345745205879211e-02 -8.005723357200622559e-02 -4.412518069148063660e-02 1.397676318883895874e-01 3.293599560856819153e-02 1.593758612871170044e-01 1.141212880611419678e-01 4.527695849537849426e-02 9.650105983018875122e-02 8.127015084028244019e-02 6.009309738874435425e-02 1.055983547121286392e-02 -2.439618855714797974e-02 -5.039791762828826904e-02 -1.175305619835853577e-01 1.110764220356941223e-03 1.974935084581375122e-02 2.380725368857383728e-02 4.706654697656631470e-02 9.530845098197460175e-03 -2.289486490190029144e-02 -2.370029874145984650e-02 6.037717312574386597e-02 5.628387257456779480e-02 1.204816065728664398e-02 4.957223311066627502e-03 3.378127142786979675e-02 -3.089694380760192871e-01 -7.118258625268936157e-02 5.641860142350196838e-02 1.182806342840194702e-01 2.364227082580327988e-03 4.496037028729915619e-03 1.313877385109663010e-02 2.941772714257240295e-02 -2.139611728489398956e-02 -4.761733114719390869e-02 -4.475447162985801697e-02 6.379373371601104736e-04 -2.863683179020881653e-02 4.223695024847984314e-02 -3.990811109542846680e-02 -2.282891795039176941e-02 4.283708054572343826e-03 -2.123716473579406738e-02 -4.398100450634956360e-02 -1.473675817251205444e-01 -3.625271469354629517e-02 5.550759658217430115e-02 -1.158175244927406311e-01 -7.046439498662948608e-02 1.859169825911521912e-02 -5.677166953682899475e-02 8.899205923080444336e-02 3.422571346163749695e-02 -1.644716113805770874e-01 -1.232372075319290161e-01 -1.002749651670455933e-01 -3.472771495580673218e-02 -1.769540458917617798e-02 4.961244389414787292e-02 2.626788802444934845e-02 -4.448880627751350403e-02 -2.410304173827171326e-02 -3.938367962837219238e-02 -4.368410259485244751e-02 -2.349125221371650696e-03 -5.427027586847543716e-03 -5.113740637898445129e-02 -1.729386746883392334e-01 -9.408107399940490723e-02 2.841649763286113739e-02 -6.436473876237869263e-02 -4.115146994590759277e-01 1.603586412966251373e-02 4.716675356030464172e-02 -3.648889437317848206e-02 -1.100459718145430088e-03 9.745261631906032562e-03 7.364729046821594238e-02 -1.118234172463417053e-02 -7.300114631652832031e-02 -3.914480283856391907e-02 2.487031742930412292e-04 3.011532127857208252e-02 4.285277053713798523e-02 3.149691969156265259e-02 -1.045885756611824036e-01 -2.225070632994174957e-02 -1.709546521306037903e-02 -4.825099930167198181e-02 4.549508914351463318e-02 -2.406254559755325317e-01 3.100163675844669342e-02 -3.977812826633453369e-02 -9.451532363891601562e-02 2.513317763805389404e-02 3.651620075106620789e-02 -7.838102756068110466e-04 -9.352868050336837769e-02 4.120068624615669250e-03 7.619924098253250122e-02 4.537839442491531372e-02 -5.462717730551958084e-03 -9.907992184162139893e-02 -3.008708357810974121e-02 4.533115401864051819e-02 -3.354680165648460388e-02 -4.278129711747169495e-02 9.375726431608200073e-02 5.717222392559051514e-02 3.672692552208900452e-02 -1.028532627969980240e-02 1.496223412686958909e-04 -2.985679078847169876e-03 1.068838015198707581e-01 2.783118188381195068e-02 2.258320897817611694e-02 2.992558665573596954e-02 -3.672965466976165771e-01 8.559430390596389771e-02 -7.812444586306810379e-03 -3.835014253854751587e-02 -6.570950616151094437e-03 9.859696961939334869e-03 -9.366469085216522217e-02 -2.250814624130725861e-02 -4.699703305959701538e-03 7.143583148717880249e-03 3.364124894142150879e-02 -5.419423803687095642e-03 -2.798151969909667969e-02 -2.964661084115505219e-02 5.309185758233070374e-02 -8.745605498552322388e-02 3.973739221692085266e-02 5.644629895687103271e-02 -5.926641449332237244e-02 -1.804230660200119019e-01 -3.608619794249534607e-02 -1.504958234727382660e-02 5.865595489740371704e-02 -3.409195318818092346e-02 3.712764382362365723e-02 4.617264494299888611e-02 9.181287139654159546e-02 1.639686152338981628e-02 2.466219663619995117e-02 -1.154517382383346558e-02 1.273954063653945923e-01 -5.806534364819526672e-02 -4.854733496904373169e-02 -6.027585361152887344e-03 8.399115875363349915e-03 2.967084385454654694e-02 3.723362926393747330e-03 1.123889349400997162e-03 8.080174215137958527e-03 2.710087038576602936e-02 -1.354643143713474274e-02 -3.238065540790557861e-02 -3.061819821596145630e-02 2.997910231351852417e-02 -2.167982421815395355e-02 -2.781206555664539337e-02 -3.408205211162567139e-01 1.218126043677330017e-01 -1.170177161693572998e-01 -8.627615869045257568e-02 -6.197701208293437958e-03 1.284359954297542572e-02 -8.389063179492950439e-03 -4.240505397319793701e-02 2.373907342553138733e-02 -3.121339343488216400e-02 1.893245987594127655e-02 1.512400992214679718e-02 2.773810876533389091e-03 3.080557286739349365e-02 3.909056261181831360e-02 -5.570904910564422607e-02 -1.429744157940149307e-02 -5.127766355872154236e-02 5.209997296333312988e-02
2.636987268924713135e-01 -1.600199192762374878e-01 8.115234971046447754e-02 -1.072940304875373840e-01 1.593347080051898956e-02 -1.653245463967323303e-02 2.205316442996263504e-03 5.767612159252166748e-02 7.393743842840194702e-02 1.010260432958602905e-01 1.272076833993196487e-02 -2.130344323813915253e-02 -5.644035991281270981e-03 4.247465729713439941e-02 6.026661396026611328e-02 2.067492716014385223e-02 -2.597763203084468842e-02 -1.585268415510654449e-02 5.411237850785255432e-02 1.775238662958145142e-02 -1.109395176172256470e-02 -2.213776484131813049e-02 -6.490710657089948654e-03 4.516243562102317810e-02 4.044673219323158264e-02 4.081342369318008423e-02 -4.255776852369308472e-02 1.172838583588600159e-01 -2.023300975561141968e-01 -7.491101510822772980e-03 -1.123317983001470566e-03 1.891114749014377594e-02 9.022553451359272003e-03 6.277656555175781250e-02 -5.071959923952817917e-03 6.730972230434417725e-02 -6.392372399568557739e-02 -2.659023180603981018e-02 -5.270322784781455994e-02 -5.967899039387702942e-02 -7.300682831555604935e-03 4.056807665619999170e-04 -2.129253372550010681e-02 -2.615842968225479126e-02 -3.155542165040969849e-02 9.444899111986160278e-02 4.358196556568145752e-01 -1.521610617637634277e-01 5.511112511157989502e-02 4.217220470309257507e-02 -6.024047359824180603e-02 -2.607528306543827057e-02 3.064380958676338196e-02 9.959046542644500732e-02 -7.152013480663299561e-03 7.211465388536453247e-02 2.481098845601081848e-02 9.983017295598983765e-02 -1.731895506381988525e-01 -1.367613375186920166e-01 -1.283384766429662704e-02 -3.438112325966358185e-03 4.388086125254631042e-02 -1.700845360755920410e-02 -1.249114144593477249e-02 4.164116829633712769e-02 3.968143090605735779e-02 3.157700225710868835e-02 2.515950612723827362e-02 -1.923637092113494873e-02 -7.796612381935119629e-02 -2.907448075711727142e-02 2.695583365857601166e-02 9.037798643112182617e-02 -9.857604652643203735e-02 6.130231544375419617e-02 -2.217446640133857727e-02 2.032838761806488037e-02 2.059595193713903427e-03 6.003487855195999146e-03 5.019584670662879944e-02 4.234173521399497986e-02 -7.752630859613418579e-02 -2.794237248599529266e-02 -8.465813100337982178e-02 7.911798544228076935e-03 1.714115589857101440e-02 -4.409866407513618469e-02 -7.937146723270416260e-02 1.013449765741825104e-02 -7.377647561952471733e-04 7.120863348245620728e-02 4.390302002429962158e-01 -6.882514059543609619e-02 -1.179184839129447937e-01 5.136186257004737854e-02 4.016350954771041870e-02 3.700157394632697105e-03 5.207457765936851501e-02 6.461907178163528442e-02 6.725355237722396851e-02 1.874464191496372223e-02 2.533280476927757263e-02 -1.478392332792282104e-01 -4.115195572376251221e-02 2.436521835625171661e-02 2.829037234187126160e-02 -2.658574283123016357e-02 3.272726386785507202e-02 1.250527240335941315e-02 -3.936022520065307617e-02 -5.977310240268707275e-02 2.390725724399089813e-02 3.237666562199592590e-02 -5.109608918428421021e-02 -8.030925691127777100e-02 2.313995175063610077e-02 1.639511287212371826e-01 -2.059992961585521698e-02 1.068028137087821960e-01 1.020446866750717163e-01 -9.672399610280990601e-02 1.066970359534025192e-02 3.212233632802963257e-02 -1.750965137034654617e-03 -4.969357326626777649e-02 -4.001013934612274170e-03 -4.165179282426834106e-02 -1.382017284631729126e-01 -1.183175966143608093e-01 -4.142463952302932739e-02 -3.146664053201675415e-02 -6.314691621810197830e-03 -1.354239434003829956e-01 -5.428856238722801208e-02 3.136814013123512268e-02 -1.947986707091331482e-02 5.936393886804580688e-02 3.819629251956939697e-01 7.165657728910446167e-02 7.457298785448074341e-02 1.059017851948738098e-01 6.301140785217285156e-02 -1.287307888269424438e-01 -1.312440186738967896e-01 -1.447859592735767365e-02 1.105219721794128418e-01 5.307569354772567749e-02 9.192188829183578491e-02 -4.731363430619239807e-02 -1.609480232000350952e-01 -1.354473978281021118e-01 2.309159189462661743e-02 2.658048644661903381e-02 -1.721071079373359680e-02 3.307325020432472229e-02 9.999968111515045166e-02 1.139551103115081787e-01 4.657185450196266174e-02 -3.425758332014083862e-02 -6.538807600736618042e-02 3.830296173691749573e-02 2.717474102973937988e-02 8.033595047891139984e-03 -4.190528020262718201e-02 2.410118877887725830e-01 -1.131859794259071350e-01 2.099954523146152496e-02 5.068314075469970703e-02 2.556224167346954346e-02 -3.151772171258926392e-02 -2.423447370529174805e-02 -4.720973968505859375e-02 -6.980287376791238785e-03 -1.772323809564113617e-02 -3.019318915903568268e-02 3.850110992789268494e-02 -5.493932962417602539e-02 -6.886680610477924347e-03 -5.509812757372856140e-02 -2.144984714686870575e-02 -2.359597012400627136e-02 3.582476405426859856e-03 5.294875055551528931e-02 4.787267744541168213e-01 2.548285722732543945e-01 1.256019920110702515e-01 -1.358108967542648315e-02 8.913757652044296265e-02 5.717548355460166931e-02 -1.186884045600891113e-01 -9.004404395818710327e-02 -1.565046459436416626e-01 7.954968512058258057e-02 1.848443895578384399e-01 4.521211236715316772e-02 -7.235373556613922119e-02 -1.380698638968169689e-03 -5.683641880750656128e-02 5.867392290383577347e-03 -1.616155542433261871e-02 1.459029465913772583e-01 3.482630103826522827e-02 6.657391786575317383e-02 4.202563688158988953e-02 2.184892632067203522e-02 -6.353904306888580322e-02 1.284947991371154785e-01 -2.483642846345901489e-01 -1.041938960552215576e-01 -2.500815875828266144e-02 -7.583343982696533203e-02 -2.654228508472442627e-01 -7.139658927917480469e-02 -4.204625636339187622e-02 1.194711960852146149e-02 -3.746758028864860535e-02 7.186792045831680298e-02 -8.834438771009445190e-02 6.211309880018234253e-02 -6.308677792549133301e-02 -8.943268656730651855e-02 -9.769043326377868652e-02 4.948121495544910431e-03 2.117859572172164917e-02 8.286277949810028076e-02 -1.088873893022537231e-01 -5.328634381294250488e-02 -4.415824264287948608e-02 1.568421721458435059e-02
-1.214518249034881592e-01 -4.856128245592117310e-02 -2.243719063699245453e-02 -9.284782409667968750e-02 -7.296324521303176880e-02 6.729738414287567139e-02 5.476560816168785095e-02 -9.679159522056579590e-02 9.216933697462081909e-02 -5.440176278352737427e-02 1.098349168896675110e-01 -1.541281938552856445e-01 1.113160792738199234e-02 1.130819972604513168e-02 -8.085396885871887207e-02 -1.758757606148719788e-02 -9.997587651014328003e-03 -1.975412666797637939e-02 -7.929331809282302856e-02 3.830593777820467949e-03 -5.577854812145233154e-02 3.385018557310104370e-02 -9.596790187060832977e-03 8.107023313641548157e-03 -7.827442139387130737e-02 5.991970375180244446e-02 4.540612921118736267e-02 -1.349460653727874160e-04 5.666246637701988220e-03 -1.002271547913551331e-01 -1.000016480684280396e-01 6.037439219653606415e-03 2.510161139070987701e-02 -1.512262877076864243e-02 -1.800913549959659576e-02 -2.013381803408265114e-03 4.303829744458198547e-03 1.731019094586372375e-02 -6.588990986347198486e-02 2.419280074536800385e-02 2.285493537783622742e-02 7.906556874513626099e-02 -8.396815508604049683e-02 -6.750932894647121429e-03 -5.621001869440078735e-02 -7.506740093231201172e-02 5.383149906992912292e-02 -1.391105949878692627e-01 -1.920522451400756836e-01 2.004378847777843475e-02 5.811341851949691772e-02 8.900539577007293701e-02 -2.257693111896514893e-01 1.335410121828317642e-02 -8.098182082176208496e-02 -6.531095504760742188e-02 1.417697668075561523e-01 -9.259829670190811157e-02 -1.063610538840293884e-01 -1.551000960171222687e-02 4.243268445134162903e-02 7.465883158147335052e-03 7.336679100990295410e-02 -4.560692701488733292e-03 5.428465455770492554e-02 -2.239750884473323822e-02 7.837542891502380371e-02 -2.150983363389968872e-02 -9.347637742757797241e-02 -1.989463530480861664e-02 5.958119034767150879e-02 -7.423572987318038940e-02 -5.879375711083412170e-02 4.503954946994781494e-02 1.240642070770263672e-01 -8.780970238149166107e-03 -1.274727471172809601e-02 1.132810395210981369e-02 1.479418110102415085e-02 -2.705452777445316315e-02 -4.872582852840423584e-02 1.332662161439657211e-02 2.903798781335353851e-02 -2.704043313860893250e-02 1.982719823718070984e-02 -5.281108990311622620e-02 3.375947102904319763e-02 8.465520292520523071e-02 3.644753247499465942e-02 -3.717905282974243164e-02 -6.544142216444015503e-02 2.664114162325859070e-02 2.616730630397796631e-01 -1.085818335413932800e-01 1.146157607436180115e-01 3.240339830517768860e-02 -1.101800128817558289e-01 -1.052255447575589642e-05 -1.005532667040824890e-01 8.424199372529983521e-02 -1.530980877578258514e-02 -1.141766682267189026e-01 1.544138193130493164e-01 -1.906296312808990479e-01 -2.966949902474880219e-02 -1.940090581774711609e-02 9.404361993074417114e-02 -1.096967514604330063e-02 -6.232580542564392090e-02 2.947485819458961487e-02 -3.590568434447050095e-03 -5.214747786521911621e-02 -5.901319533586502075e-02 9.358054958283901215e-03 -3.567749867215752602e-03 -1.238440945744514465e-01 -1.346209496259689331e-01 1.404095739126205444e-01 1.327406521886587143e-02 1.393332481384277344e-01 -6.507777422666549683e-02 1.523472741246223450e-02 -1.750370673835277557e-02 4.045710433274507523e-03 2.146627567708492279e-02 3.319910541176795959e-02 -5.979039147496223450e-02 3.672040253877639771e-02 -2.239873819053173065e-02 -5.687855556607246399e-02 -1.302060931921005249e-01 1.548624970018863678e-02 5.985155003145337105e-04 4.075566306710243225e-02 6.102887168526649475e-02 3.353406861424446106e-02 -3.266933560371398926e-02 -4.066986963152885437e-02 5.388055443763732910e-01 -4.328846335411071777e-01 -2.202255092561244965e-02 7.129050791263580322e-02 -3.623854368925094604e-02 2.438144199550151825e-02 -3.441590815782546997e-02 -1.333754062652587891e-01 1.202557012438774109e-01 5.201135948300361633e-02 2.958847284317016602e-01 7.896299660205841064e-02 5.602816864848136902e-02 3.350359573960304260e-02 -1.394787132740020752e-01 -1.393818669021129608e-02 1.063620001077651978e-01 7.541920244693756104e-02 -1.887701898813247681e-01 -1.164941303431987762e-02 6.776131689548492432e-02 -1.468379236757755280e-02 -3.957672789692878723e-02 -1.653519272804260254e-02 8.009044080972671509e-02 -3.303729370236396790e-02 1.313137859106063843e-01 -2.469118125736713409e-02 -1.596824079751968384e-02 6.822203751653432846e-03 -5.007350072264671326e-02 -5.447972100228071213e-03 1.577662490308284760e-02 -5.294746719300746918e-03 -5.920587480068206787e-02 1.861494779586791992e-02 -4.516742005944252014e-02 7.078665494918823242e-02 4.598497226834297180e-02 -3.371655708178877831e-03 8.630772680044174194e-02 1.006359755992889404e-01 1.440079808235168457e-01 -1.058007497340440750e-02 -9.076102823019027710e-02 8.889717981219291687e-03 5.609195232391357422e-01 -5.395787954330444336e-01 -1.487223207950592041e-01 1.620160639286041260e-01 1.826950609683990479e-01 -1.715108454227447510e-01 7.898768037557601929e-02 9.017287939786911011e-02 -1.319369394332170486e-02 -6.125424057245254517e-02 1.993960142135620117e-01 1.494748424738645554e-02 4.383615776896476746e-02 4.828114062547683716e-02 4.790326580405235291e-02 -3.359204903244972229e-02 -1.731340438127517700e-01 8.708301186561584473e-02 1.209547594189643860e-01 5.367548763751983643e-02 -5.728765949606895447e-02 6.041337922215461731e-02 2.562762200832366943e-01 -9.001731872558593750e-02 1.923612058162689209e-01 1.302272230386734009e-01 -7.155401259660720825e-02 -1.217639744281768799e-01 3.999312408268451691e-03 -6.749104242771863937e-03 1.069993078708648682e-01 -1.110973767936229706e-02 1.013841945677995682e-02 -4.044400900602340698e-02 -2.190950512886047363e-02 -1.020079255104064941e-01 2.030311077833175659e-01 4.192420840263366699e-02 -1.601227521896362305e-01 8.430042117834091187e-02 1.205648332834243774e-01 4.496985673904418945e-02 4.436184465885162354e-02 8.829645812511444092e-02 -1.809667050838470459e-01 -6.541899591684341431e-02
