8.153827860951423645e-03
5.211070924997329712e-02
-5.173965170979499817e-02
-4.229198396205902100e-02
-2.194378338754177094e-02
1.929560676217079163e-02
-4.130573198199272156e-02
7.003130018711090088e-02
-1.198545843362808228e-01
9.311611205339431763e-02
2.481577917933464050e-02
7.236278615891933441e-03
-3.426323458552360535e-02
8.949192613363265991e-02
-1.047116294503211975e-01
6.734363734722137451e-03
-6.927892565727233887e-02
-3.159443289041519165e-02
-1.128425598144531250e-01
2.437874861061573029e-02
5.758361890912055969e-02
1.291522830724716187e-01
-1.540375594049692154e-02
3.315253928303718567e-02
5.785192921757698059e-02
-1.654240116477012634e-02
7.914949953556060791e-02
1.312614977359771729e-01
-5.139086395502090454e-02
-6.276717409491539001e-03
9.721667505800724030e-03
3.540232405066490173e-02
1.047320887446403503e-01
1.096356511116027832e-01
-1.037982553243637085e-01
-9.561384469270706177e-02
-9.693120419979095459e-02
-2.705314569175243378e-02
2.256857603788375854e-02
9.690084308385848999e-02
2.271983958780765533e-02
1.029510125517845154e-01
-1.190581172704696655e-01
-1.287297159433364868e-01
1.255862973630428314e-02
1.003568321466445923e-01
-1.975522339344024658e-01
4.605352133512496948e-02
-2.038637101650238037e-01
-1.108216643333435059e-01
9.366410784423351288e-03
-6.827518343925476074e-02
-9.555853158235549927e-02
1.058398708701133728e-01
3.049936704337596893e-02
7.238221168518066406e-02
1.546763926744461060e-01
-6.208740174770355225e-02
-4.653218761086463928e-02
9.629382193088531494e-02
3.427761606872081757e-03
-1.177300047129392624e-02
-1.027060300111770630e-01
-6.024387478828430176e-02
3.772159293293952942e-02
-1.269456148147583008e-01
-1.270460039377212524e-01
8.130275458097457886e-02
1.105270013213157654e-01
4.545138776302337646e-02
-3.289147093892097473e-02
-1.947043091058731079e-02
9.040365368127822876e-02
-1.116390377283096313e-01
6.351336836814880371e-02
1.227244958281517029e-01
-5.413573607802391052e-02
-5.521298944950103760e-02
-6.943114567548036575e-03
-3.294926136732101440e-04
-7.446178793907165527e-02
1.411756277084350586e-01
1.012896597385406494e-01
7.462747395038604736e-02
4.476097971200942993e-02
-7.168334443122148514e-03
1.527604367583990097e-02
8.183280378580093384e-02
1.938170380890369415e-02
-1.469136476516723633e-01
8.379621803760528564e-02
3.916504979133605957e-02
1.217755675315856934e-02
1.181308403611183167e-01
-6.331794708967208862e-02
5.820504203438758850e-02
6.950896978378295898e-02
4.452361166477203369e-02
6.636119633913040161e-02
1.404403522610664368e-02
-7.671516388654708862e-02
1.126268208026885986e-01
1.304633319377899170e-01
-1.619140058755874634e-01
8.684985339641571045e-02
-1.643568873405456543e-01
1.236857250332832336e-01
7.524878531694412231e-02
1.325250137597322464e-02
-5.280859768390655518e-02
4.161193221807479858e-02
-1.023853383958339691e-02
5.947346985340118408e-02
6.424402445554733276e-02
2.742234058678150177e-02
1.227111071348190308e-01
-2.208175212144851685e-01
-1.329575181007385254e-01
4.157902300357818604e-02
-1.085173711180686951e-02
4.567348584532737732e-02
1.357287261635065079e-02
-8.019997179508209229e-02
7.047156244516372681e-02
-1.133990846574306488e-02
-1.400285307317972183e-02
-1.077898293733596802e-01
6.095806136727333069e-02
-5.644154734909534454e-03
1.953601092100143433e-02
-1.273900568485260010e-01
-4.689547419548034668e-02
6.491004023700952530e-03
3.071278892457485199e-02
-2.896747738122940063e-02
5.357300490140914917e-02
-7.177957147359848022e-02
-1.095253527164459229e-01
-1.006086245179176331e-01
6.227301806211471558e-02
3.682627109810709953e-03
6.591957062482833862e-03
-2.384833991527557373e-02
1.166954860091209412e-01
5.441439896821975708e-02
4.167781025171279907e-02
-7.621350884437561035e-02
4.499440081417560577e-03
2.655880898237228394e-02
-7.170557975769042969e-02
1.555570401251316071e-02
1.336266100406646729e-01
6.465628743171691895e-02
5.832400172948837280e-02
6.023815949447453022e-04
1.675990782678127289e-02
5.322537384927272797e-03
5.216829851269721985e-02
5.733814090490341187e-02
1.299748010933399200e-02
1.087968870997428894e-01
8.098522573709487915e-02
1.152252703905105591e-01
-3.955293446779251099e-02
-1.153702214360237122e-01
-3.692487254738807678e-02
-2.212376892566680908e-02
7.031175494194030762e-02
5.558527261018753052e-02
1.730423606932163239e-02
1.405429691076278687e-01
2.927594352513551712e-03
3.869603201746940613e-02
1.143665462732315063e-01
-7.411349099129438400e-03
1.140088587999343872e-02
3.418713063001632690e-02
6.617483496665954590e-02
-1.537701338529586792e-01
9.103043377399444580e-02
1.295427829027175903e-01
-9.500353038311004639e-02
3.258914500474929810e-02
-5.976633727550506592e-02
2.727743238210678101e-02
2.021711505949497223e-02
7.204090058803558350e-02
-6.080227438360452652e-03
-1.851943880319595337e-01
-5.510421935468912125e-03
-7.049351930618286133e-02
-8.793032169342041016e-02
-4.550872836261987686e-03
6.717793643474578857e-02
-1.398402545601129532e-02
7.296703755855560303e-02
1.627916470170021057e-02
1.191383451223373413e-01
1.005948260426521301e-01
2.737675793468952179e-02
-1.924079358577728271e-01
-1.758998259902000427e-02
4.946659877896308899e-02
2.144810929894447327e-02
-1.109674125909805298e-01
5.279340967535972595e-02
6.930657476186752319e-02
-1.434280574321746826e-01
9.279071353375911713e-03
-2.859447896480560303e-02
1.113622039556503296e-01
-8.584392815828323364e-02
-3.085730411112308502e-02
5.113757029175758362e-02
1.872431486845016479e-02
9.381325542926788330e-02
-3.809743747115135193e-02
2.468317933380603790e-02
-1.681936383247375488e-01
-1.304814368486404419e-01
3.784973546862602234e-02
-1.716964840888977051e-01
1.202866286039352417e-01
4.108216613531112671e-02
1.490414328873157501e-02
-2.909731864929199219e-02
-6.323919445276260376e-02
-5.746956914663314819e-02
-3.194852266460657120e-03
-1.707963347434997559e-01
-1.853855140507221222e-02
-3.191874548792839050e-02
6.304884701967239380e-02
1.115027740597724915e-01
-1.254227384924888611e-02
3.524164203554391861e-03
-8.517938666045665741e-03
5.309986695647239685e-02
-1.330093592405319214e-01
-3.925651311874389648e-02
-1.785932481288909912e-01
-9.862372279167175293e-02
-1.502307653427124023e-01
4.756977409124374390e-02
2.725677192211151123e-02
6.584708392620086670e-02
-8.516929228790104389e-04
-3.654487803578376770e-02
-3.552714362740516663e-02
4.629363492131233215e-02
-1.143230348825454712e-01
-1.829928904771804810e-01
4.414281621575355530e-02
6.550449132919311523e-02
9.670220315456390381e-02
4.606312513351440430e-02
